svm_type c_svc
kernel_type wgkm
L 8
k 5
d 2
M 50
H 50
nr_class 2
total_sv 5008
rho 1.15745
label 1 -1
nr_sv 2405 2603
SV
0.6654876107117091 tgcatggggtgccacgtggggaagcactgggttgggggcagaggaagagggaggcagggtggacagggctgggattggctagtttgaaccctttcagtgggctctggggcgtagggactgtccctagccgtctgatccctggccctagggtcattaggggaggtggatagtggctcagagcaggaaagccaaatagaggaagtggtttgggtatgaactctggattggtttgtttacattttaaaagcat
1 TATGAAAGCATTCTGATGGATGGCATCAAAAATACACTCTTGAGCACGTAGCCCTGTGGTCTGCCTAAAGACGAGAGGGAAAACCCCTTGTTGACCATAAAAGGGCCGCCTGCATGTTCTCAGTGGAGAGCATACAGGATCGTATTTACACAAGTATAAATACATGCCATTCCTTTGTGCTCACAGGCGCTCCAGAAGGCTGGCCAGGGGAGGAGGGTCCAAGAGCTCAACGCAAACAGGATTCAAAAAG
1 AACAGATGCAAGAATCTCATAATCTGGGCCAGATATTAATCTGTCTTTTCTGTAACAGCAAAACAGAAGGGTGAGTCTTGAAGCAGTGCAGGGGGAAACCCCTTATTGTGCAACTCTTTTGTAACTCCTGGGCGGAGTCTGGACATGTGACTTCTGCTTGAAATTTAACATTAGGGGAAAGACCATTTTTGGTCATAGCTGAGGTGATGACATCTTGGCAACTGGAATGGACATGACCTCTGTTCCATGT
0.1415491885746553 GGAAGTGGGATCCCAGCTGGGACTGCCCCAGAGCACTGGGCTTTGGCCTTGGATCCCCTGGCGATCTTCCCCTCTCAGCGACAGGCAGCGAGGAGGAAGATCATTGGCTTCTCTTAGGGCCTGTGGCTGGAGGGAAAGTCAAGTTCAGGTGAGTGGGGAATGCTAGGGGATTTCCCTGGGGATCAGCAGGGAAGGCAGCCACATCCACACTCACTCAGAGCCGGCTGCTTCTAAGCATCAAGGCCTGATG
1 ttcagagatgccgtgcccagagaggaggaatctagaaaagcagtctggctacagcagctttgatgagctgcagtgggctctgcccagttcgaacttcccagtggctttgtttacactgtgaggggaaaacccctactcaagcctcagtaatggcagacgcccctccccccactaagctccagcgtcccaggtccacttcagactgctgtgctggcagcgagaatttcaagccagtggatcttagcttact
1 CATTAATCCCTACTCGCACCCTGCCTCCCCATAATTCCCCCCTTCCCCCAAATAGAACGGTGAGTGTTGAATTTGCTTTACATTCGGTCGGTCCGTCTTAAATAGGGATTTCCCCTCTTACATAATAAgtggagcggccaggcaaaagaactgtggaccggaaattagcccccccttgtttctacatttggctctgcatagaactagctgaatgacggagtcaaattatttaacttctcttggtcttagt
0.9970202121158553 tagcagagagagcaggagctcaaagaggttaagtggtgtgtgcccagggccaaacagtgagtCCCCGACAGTCTAGAGAACTCAGCGACCCCGCCTAGCCTGGTGCAAGTGTTTAACAGAGTTAAACATTTAACTGCCCTGATGCAGTGCCCCATGCAGGGGAATtccctccctccctcccttcccaccttcccCAAGGCCAGGGAAGCACGAACTCTGGGAATGGGTCAGCCCCTCAGTGCAACCCAGG
0.2498568520814256 CTGTTGAAAAGCAGGGTGCTTGCCAGAGGCCACCCGGCCCACCAGTCTCCAGCCCCAGGCCCTCCCCACACCCTCCCTCTCCGACTCTCCCCCAAGGCAAACACTTCTGCCTCAGCTGCCTGCTGGGGGAAATCCCTTCCCGCAGAACTTGACCGCAACCCAGCTGCTCTGCCTCCCCCACGTCAGCACCCGTCACTCACTCGCAGCCTCCCCCCTCCTGGCGCTTCCTCCAACCTTAACCCCTTCCGCT
1 CAGCATTTGAGGCTGTGACCACAACTGGGTCACCCAGGGGACAGTGTGCAGGAATGTGACAACTGCAGGGTGTGTTCTCTGCCGTGACTCAGGTTTACAAACCAGATGTAATCTACAAGTCAGAGGAAGGGTCAGGGTCCTGCCTGGTGGAGGGAAAATCCCAAGATTCCAGGTGTGGCACCATCCCAGCTGGGGCTGAGCAACTGAGGAGGAAGCAGGGGAAGTCCCAAAGCCCAGCCCAGAAAGTCCA
1 accaagcaagttaggttctggttaaatcgtttctcctgggagcagaccttgttatcaacagaatgctctgacacatgtcaaatggttcctgtttccctccccttaccggaagcacaagggatttccccctgtatacttactgtgagaatctggcagagctccagtaggtaaaactcacaaaagtgtagggcccctaatgactgggtctgtctggaatttttatgtgtcagacttgtccacactgagcctc
1 gattacaggtgcacaccaccacgcccagctaatttttgtatttttagtagagtcggggtttccccatgttggtcaggttggccttgaactccttacctcaagtgatccgcccgcctcagcctcgcaaagtgccgggagccaccacgcccggccTATTTACTTTTCTTTCTTGGttttgtttgttttgttttgttttttttttgaggcagagtctggctctgtggcccaggctggagtccagtggcacaat
1 AGATTGACAAACATTGCTGTGAATGACCTTGTCACTCTTGCAAAATAGCTTGTCACAaaagattgaaggaagtgaggaagtcagctggcttctggggaaaatccctccataggaacaaattacgaggccctgggcaaggtcatgcctggtatgtgctgagggcagcagaagccagtggcagaagcagacatgagggagagtgtggtgggacacgagctcagaggtcacagggctggatcccttgagtgtt
1 AGAGAGATGGCAAATGGATGGAGGAGGGACTGGGTGTGAGGGTGGAGCAACTTATGATCTCAGTCTGGAAAGGCAGAAGCCAAGAGGGCATTTGACTAGAGCTTAAACAGCAAGAACAAACACGTGACCATGGGGCAGCCCCTAAAGCTTCAAAAGGCACAGGCAAGGAGGCCCCACTTTACACAGTGAATAACAAATTAAACATCCTGGCAGGCTGTACAAGCCAAAACCAGAAATGGAGTGTTCAAGA
1 ggtttgggtatgaactctggattggtttgtttacattttaaaagcatcctcctgcgtgagttgtttactatcttcaggagttggcggaactgaatttgaccagcatgactctagaggtcaaagcatcagaaaataaaggatataaTGTCCTGCCACACTGTGTAACAGAGGCCCACACTGTGCGCCTAAGCCCCCAACAATGTTGAGAGGTTTAATGACtttttttgtttgttttggagacagggtctca
1 CAAACTACTGAAATTTATCCTTCTCACCATAAATTTAGTAATGCATTGTGAACGGCAAAAAACAGAAGGGAAAACCCCGTATTTAAGACTACAAAGAAGGCAACAAGTAGCTatttgttcagcaaacatttaccaaatgccttctctgtctgcctggtactgagaggaactgggatgaacacagtgagactggtgcctccccgctaagaagctcagagtttagagggaaagggaacgctagttgtctcca
1 TGGTTGCCACCACACCCCTCAGAGGCTTTGAGCTGGGCAGCTGCCTGCTATCTACCCATCCAAGAGCTGCTGCCAGGCCTCCCAGAGATGAGTCACAGCAGCTTTCTAACTCTGGGGAAATCCCATGCCTGCTATATTTGGAAATCACAGAGGCCAAGAGAACAGTAGGCCAACAGATTGGTGGCAGGCCTCTGAGGCACTAAACCCAATTTAGAGAATCACTTTATGTACTCTCCTTGAGCTTCATGCG
1 TCATCGACATGGATGCTGTGTGCAAGCGAGTCACCACGTTGGGCCTGGATGTGTCGGTGACCATCTCGCAGGATGCCGGCAGGTAGGGCCCTGTGGGGTGGGAGTGAGTGGGGATTTCCCTCCTCCACCCACTGAGCCTGGTGTAGAACAAGCCAAGCGTGTTGACCTTGGCCTCTTTGGACCAAGCACTCAGTGTATACTAGGCACAGAGCCAAGTATTTGTACGTagcaggtgccgttggttctgctc
1 GATCAGCTGCAAGGTTCTCTTTAGGATTGGGGAGGTAGAGGAAAACCTTGACCTGGTTCTGGGGAATTCCCTGGGCAGAAAAGTGAAGCTACTTAAACTGAATGCTGGGGCCCCAAACCAGGGACCCATGTGAGATGTCACTCCCATTGGTGACCGTTGCTCTGGGAGGTGAAGTTTGTCCCCCCCACCTCTTTTCACATCCGGAGTTTCTGGTGGACTTTAGCCATGAAAAGCTGGGAAGGGTGCCTCA
1 TCAGTCGTGCGCGTGGTTCCATCTGGTGCCCTCAGCAACCCTGTTGGTTAAAGAGTTGAAGTTCAGAGAGATTAAATGACACCTCTAAAGATGAACAGTCAACAAAGAACTGAGCTGAAATCAGGGTTAACTGTTTTAAGTAAATATCCGGTGCTTTCCCCACAGGAATGGGTGGCTTTTCACTTAATCAACCAAATGGCCTTGGTTTGAGCCCATCTTAATGGCTGTGAACTGTATGGAAAATGGATGT
1 gtgtggacaagtctgacacataaaaattccagacagatccagtcattaggggccctacacttttgtgagttttacctactggagctctgccagattctcacagtgaatatacagggggaaatcccttgtgcttctggtaaggggagggaaacaggaaccatttgacatgtgtcagagcattgtgttgataacaaggtctgctctcaggagaaccgatttaaccagaacctaacttgcttggttttatcag
1 GCTCGGGGCCCAGCACTGAGTGGGAGGAGGTCTCAAGCCTGAGGTCCGGCCCTCATTGGGATCAGAGCCCACTGACCCACACTGCTGACCTTGGCACTGGGCGGAGGCAGGGCTCCCAAACATCACTAGGGGATTTCCCTAGGACAACCAGGCCCCTGTCTCTGTGTGCTGAAAATCCATACTAGAGGGGCTCCTCCGGGATGACATCTACAGATGATCAAAGGAAACTGAGTCCTAAACAAACAGAATT
1 ctatgcacttttcactgcagggctgagttctctacacaaatcctgctttgtatgcctttgaatcctttatcaggttggaataatctttccaattttgtctagctaactcctattcaacctttgaaactcagctcaggtttcatatcctcggggaaacccctaatcccctggttctcagggtatctacagcactagggaataggtgatagcactgtaatgttaggctagatctccttttctacctccacta
0.4873381188044265 TTTCCACGTTGAAATGGGCCGACCCCTCATATCCTACATGAGCCCCTAGCTGGCCTCTCCCGTCCAGCCTCAACACCTCTTGACCTGACCTGGCCTGGGCTCCTGAACACCAGCCAAGCCCTTCCTGGCATGTCCTCTTCTGGGGCAGCCCCTCTccagcccgtggatcagcgccagcctgggatggactgtgccctggtgacataacaaagggaaagacaatacggcatttttcccttcaagttgaact
0.5977177148585838 CCCTGCTGGCCTCTGCACCAACCACCTCCCCTTATCGGCAGCGTCGCCACCAGTGGCGGCCCAGGGTTAAAGTCCGGAGAGAGCTCCGGGCGCGAAGCGGATAGGGAGGGAGGAGTGGCGCCCAACCCAGAACGGGGACTCCCCGGAGGTCGAGCCCTCACGCTgctgggaggagaggggatgggcagggccgtgtcccatggtaaggtgtgggttcaatccttcctttctagttcccggctgtgtggtc
1 AGGCAGCTGCTGTTGAGCTGACTTTGAACTTGAACTATTTTGAAATCCAGCTCATAAATTTCCAGCCCAGCCCGGGGCCTCCCCTTCGGGTCTGGGTGTGGAATCTGTCGAGGGGCCCTGGGTCTGCAGCACAATGCCGCATTTACAGAGCTGCGCTGCCAGTGCCtgagtgtgtgtgtgagtgtgtgtgtACCTGGGGACAGAGTGTTTGTGCACGGTGCCAAAGGGAGGGCCCCGCACATCTGGAAAG
1 tgctttgtttacctactcgagcctcagcaatggcagacgcccctcccccagccagactgccacctcgcagttagatcttagactgcttcgctagcagtgagcaaggccccatgggcatgggacctgccaagccaggcacaggagagaatctccttgtctgccagttgctaagaccttgggaaaagcacagtatttgggcaggagtgtcccatttttccaggtacagtctgtcacagcttcccttggctag
0.8185321643748059 GCGCAAGCCGAGCGGTTGGCCATAAGAGCCCAGCTGAAACGAGAGTACCTGCTTCAGTACAACGATCCCAACCGCCGAGGGCTCATCGTGAGTGTGGGGCCTCCCAGGCGGGAATAGGGCCCGAGTCCTGGGAGAGACCGAGAGAGACCACGCAAAGGGTCGGCCACCGCTCCCGATCAGTATCTCAGACGCAGGTCCTCTTCCAGGCCTAGCCAACTCACTACCCTTTTACCTTTGCCAGAGCTTGGCC
0.6908407410617978 ttcttccctacaggcactctgctcacgagccttccttccactcctggcacatagaacacgtactcctgcagcagggcctctgcacttgcagtccctctgccggggcctcttgccccaggctggcggcatcctgtcatttgggactctgctcaaaggacatgtcctccaaggggctttccctggtcattctatctagggtgacttcgggacatacttgctccctaggactctctatttagttatcctgctt
1 ccctactggtggacatttaggtggttccaacttgcccttcctataaacaatgccacaatgcacatctttgtgcagccgcctttgtgtgcaGGACAGTCAGCTTATGGGGAATTCCCGGGATCAACAGGAAGTACCAAGAAGGGGAAACTGAACCGCAGGGGCCAGCATGACCCCAAGGCCTGTGGGTAtggatggtggctggactggttggatgggtatggatggtggctggactggctagaggctTCTG
1 GGGACGTGCAGAACGTCAGGGGAACATAACCAAACAGAGTTAAGCATGTGCTGTGACTAATAGAGGACAGCCTGGGGTGTGTCTGTCGTGAGAGAAATCACCTCCCCACTGGGCCCCAGTACCTGAGAGAGGCCAGGAAAATAGCATCTGATTCCCAGGCAGTGTTTATCCTGCCAGGCTGCATGTGGCTTCAGTTATCACAGCCATGCTCTTCTGAGTTGCCTCCTGTATTGGTTCTGGAAGGGGTGCT
1 caagttcaagcgatttttctgcctcagcctcccaagaagctgggactacaggtgtgcaccaccatacctggctaatttttgtatttttaatagaggcggggtttcaccatattggccaggctgatctcaaactcctgacctcaggtgatcctctggccttggcctcccaaagtgctgggattacaggcctgagccaacatgcctggccTGTTTCCCAACTCCTTTTGGCACTTAGGAGAAACTcccctca
1 GCTGGGAGCTTCCCTAAGTGGAATCACCTCCTTGGCTTCCTCCAAGCTGTGTTGTTCCCATCCTTTCTAGCACATGGTCTTTGAAGCATGGAGTGACACAGGTGGGGGAGGGAATGCCAGTTATCTAGCAACAGTTATAAATTTCCCTTAGCGGCAGGGATCTAACAACATGAGACTTTGAGCTTTCAGCTCCCAGATGAAAGAACAGGGATTTTCCCAGCAATGACAGAAAAGGGAAACATATAGCCCT
1 AGGCATCTACCCCCACAGGCTAGCTGGGCGATGGTCAAAGGTTACTGAAATATGGCAGGTGACAACAAAACCACCATGACTCCAATCAACCTAGGGAGTGGGAGAAATGCCAGGAAAATGGGGAAACCCCTTCCCTAGAGGCTCTGGGGAGGGCTCCTCAGAGCTGGGCATTGATTCTCCCAGCCAATGTTGTCCTTTGTCCATCTaacaggcactgcattatcatctgctaggctgagggtatgctgaa
1 cttgtattcatgcccttgggcaggtacctcttgttttcactctgagcttggacacatgacatgatttggcaagcagacaacagcaaatctgatggcaaacagagactcaaagaccatttgcacTGTATTTAGAGATAGCAGAAGAAAAAGAaaactttgcacactggggatttccctctttgctacttttcagaaggctgagaccatcatctgaaaaagcctgggttagccccctggaggacaagaaaca
0.1366517605664853 GGAGATCCGCCTCAGGTCCGGCACGTGCGTAGCGAGTGCCGCGTCGACCAGGGGCGCGTCGTCCCGCAGCTGCAGGCGGAGGCTGCGCGTCAGCGGCGGGAAGAGCTCCACGAAGCTCAGCTGCTCGTTCCATTCGGGCGCCGCCGCCTCGGCGCTCACCGACGTCTCGCCCTGAAGGTGGCGTTAAAGACAGGAGAAGGGAGATCAGcgcggagtcggggccggagccgcggcgccgtgggccccggAG
1 ATTTTGTATTGGAACACCTCACTCTCTGAGCCGAGTGAAATTCCAACTGTAGCCCCTTGAAGCTGTGTGGAGACTCAGGTATGCGCCTTCACCTACAGACACTGCATCTGTCTCGCGTGGCCACTGCAGCTCCTGTTTCTCTGCACGTGGAGCCTGATGATTATGTGGCCTTCCCACTAAGAGTCTGCCTGGACTGCCTTTGCACACACTTGCTGCAGCTGGCCTTGAGCTCAGTATAATCTCTTCTGTG
1 ATGGGGTATTGGGGAAATAAGAAGCCATCCGAGCACAAGCGGTCCCTGAGGGTGGGCCACCTCTTCGGCTCCTTGTCATCCATAATGGTCGGCTGCAAATTGTAGCCTGCAGCCGTATTTCAGCTCGCCTTCGGGGATCGCCGCCTCCGAAGAGCAACAACAGGCAAAGCAGTCTGTCCACGGACCTTCGCACAGACTCTCAGCGCCTCCCGCCTCTCAGCAGAAACGCCCAACAGAAGGGTTAGAACCA
1 ctgggactacaggtgcacgccaccatgctgggctaattcttgtattttttggtagaggcagggtttcactatgttggccaggctggtcttgaactcctgacttcaagtgatccatctgccttggcctcccaaagtgctgggattacaggcatgagcacccgcCACCTAAGACACATTGTTTAATAAATGATGGGCTTTgtgacttaccaaggccaagtgattattcgggcaatgctggacctcagtccag
1 TTTCGCCGTATCTAAGGGACTGTCCCTCTTTTAGTTACAACATCAGTCACATGGCACTGCTTATTTATTCACCTCCTTTGCTATATTTGGATAACTGGTTTCTTATCTCCATACACCATACCTCCCTCCCAATATATTTCTAACACAATGTTTGGCACATGCTTATTGAATAAATGCAGGTATCAAAGCTATAAGGATCTCAGGACACATGTGGATGTTAATAATGGTCACATGTAGTTCAGTTGTACAG
1 CCAACTGTGGCCCCCAGGGAATCCGAGATGCATCCTGGCTGCCATGGCCCTGGTCCAGGAATCACAGTGGGCTGGGGGGATGGGACCGGCCTGGCTGGGCACAGGGGCCAGAGAAAGGAAGGGAAGAGATGGCACCCAGGGGCCGCCAGCTGAGGGCACAAAGGTGAGAGGACACCGGGCCTTGGGGAGCTCATGGTGCAGTGGGAGAACAAGCGGGATGAGGGTCCCCATGACAAAAGCAGAAACCCAG
0.3402077674997342 CCCCGGAGCCGCCTCCGCGACATACACGAGTCGCCCTCCGTTATCCTGGGCCCTCCTGGCGAAGTCCCCGGTTTCCGCTGTGCTCTGTGGCGACACCTCCGTCCCCACCTTGTCCTGGGGGGCGCCCTCGCCCCACCAGCCCCGATCAAGTTCACAGAGGGGCCCCCGGCCACCCTCAAGGCCTCGGTTCCTTACGAGGTTGAAACGTTGCCTCAGAATCTCCCCGCCCCTCCTTGGTCTGCAGCCGAGA
0.7400528370012512 cccgcgtctgccgctgccggagccTGGCTCTCCTCTTACGCGGGGGGCTGCGGGCAATTGGGGCCGACAACTTGCGGTCCCGCCTTGGGACGCATGCTTGCTCGAGAGCTGGGGCTGCAGGGTGCAGTGGGACAGTAGGACCGCGAAAGCCTGGGCTTCGAGCCTCGGGCTCCCTGTCTTCAGGCGAAGTGCGGTTTCCACGGGTGCAGGTTTCGCTGCATAAGGGAAGACTCAGATTTCGAGCCCTCGG
1 agaggaaggaagccagtgccagacacgtggccagagaggccatagaggcagggctctgatctctctcacttctcagcctctgatatccagctggtgcctgcttccattggctgagcccaaatgtaggcactggcaaaggagctggagcccagtgatgcccatgtggaaggcagcctctcggggctagaggagggcagagacggatctagttgggaggacaaacagaTGGATGGGCTGATGTGATCCCAGA
1 CCAGGAATGGCCCACTCCCCTGCCTGTGTCTCATAAGCTGTCTTTTCATGGCTGTGTCTTGATTTGCCTGGGTCCCCGCTTGAGACAAGCCCAAGGGTTCACAGATGAATTGAGGCAAACACAGATTCCCAATGAGAGACGGCGAGAGGTCAGCCTGAGGACCGAGGGCAGGTCCATGCTCTGGGCTCCACACAGGCTTTGCTAAGCAGCTGGGAGAAGCAGAAGGATGGGGCTGTCCCTAAAGCTGCTG
1 CCTCTGGGGACTTGGACTGATTCTCCAGTTAGCGCATACCTGTCCCACTCCTGTCTGCAAGATTTGGAGCCCTGTCTGTGCTTCCAGTTCAGACTTCACCAGCCCTGCAGGGAGGACAAAGGTCAGGCTTGCTCCAGCCCCATGTGGTCTCCATCCTCTGTCTTGCTCTGCCAAGCAGCAGGCAGGGCCCATGTGGGCTGGGAACATTTCAAGGGGGCATCAGCAACAGGCCTGGATATATCCTCTTAGG
1 ttggggtgctaacagctccccactgttgccagtccctgcatgcctcaccTCTGCAAACACTTCCTTCATTAAGTTTGCTTCAGTTAAGCcagtggttcacaatctggggtgactttgcccccaggggacattcggtgatgtctggagacactttaggttgtcatgactggtagagaagatgctactggcagaggcaacagatagtgctaaccatcctactccgcacaggacatcccccacaacagaatta
1 acgaactgagagacttggggaagtcccttcgattttactaggAAAAGGACGTCATCATAGCTATCACAGTGCCCTTTGGCCCTGGCAAAAGTTTTTGGAGGATCAAAGTGGAAGGAGGCTCCCACACACTGAGAGTTTGTATTGAGGCTTTCGGTGTAGTTAAGAGTGAAACAGGggccgggcgcggtggctcacgcctgtaatcccagcactttgggaggccgaggcgggtgaatcacctgaggtcagg
0.906689128347786 TGTCTGAAGTCCTGGCCGTGTGCTCCTGCAGCACTCTTGTGCTTATCACCACACGGCACGTATTTCTCCTCCCACCTGCACCCTCGTGCTGGGAACGTGCCTGAGGGCACATTTGCACCTGCACAGACACTCCTGCCAGCGAGTCTCCTGAAAGGCAGGAGGCCAGGAGAGGCCGTGGGGGTGTTCCGTGTCTGGTATTAGACAGTAGCAGCTGGTGGCACGATGATAAGGCTTGGCCCATGGAGAGTCA
1 aacatctcagtggagtaaagaataacaaagcagcattgctgccaacatgtctcgcctcccgccacggggcagtttttctcctatctcagaattgaacaaatgtacaattgtgttttgtaccgagacattccattcccaggggcaggcaggagacagatgccttcctcttatctcaactgcaagaggccttcctcttttactaatcctcctcagcacagacccttcacaggtgtcaggctgggggacggtg
1 taaacccgctctgaaggcCACCAGCAGGGGGACACGTGGCTGTGGTTTGAGCAGCACAGAAAGAACAGCCATAGTGACCATGTGCAGGTTGGGGTCCTCCTTTAAGCAGGAAAGGGGAGCCCTAGGCAGGTCTCAGCCCTGCTTGTAGCTGGTGCATTCAGacacacacacacacacacacacacacacacacacaGATGGTGCTTAGCTGACAGCACACCACACACGCATAGTTTACATTCTTTAAGTG
1 CTGCCAGGCCCAGGGGGACAATGGGGGTCTGTTTCCTCCCCGGAGCTCAACACCATCCCTCTCCCCACAACACTGCCTGGCAGCCTGGGGCCTGGGAGCCCAGCCGCATGTTTCAGAGGGTTCAGAGGGTTCGGGAAACTCCCCAAGGCCACGTTCTGCATGCGGAGCTCCAGGGGAAGCCCAGTCTGGTGGGGGCTTCCAGGGGCCCCAAGGGAACTGTGGCTCCCTCTGCTCTGTGATGGGGAGGGGA
1 cgcgcctgTCCGAGGGTCAGGTCCGACGCTGGGCATGTGGGGACTCAGTGAGCGGACCCTGGGAAAGACGGCAGCTCGGGAAGGACAAGTGGGGGCCGTCGCGGTGGAGTGGTGCCCGGGGCCGGCCCGGGGCGCGCGACTGCACGGGCAGCGTGGGGCGGCCGCGCGGGGAAGTGGCGCCCGGGAGGCTGCGGGGCACAGACATCGCGGAGCCCCAGGGACTGCCGCCGAGGGGACCGCGGGAGCTGCG
1 ctcaaccttgcctaaatggaaaacgtaagtgaaacttaactggagtcatttctgataaatggttatgtgaggcagaagtaaaactcaactccagccaatcctaagcggccagctaacgctcaattgcgtaactagggacttcccaactagacagaccaaatgaggaagttgcataactgtaaccaagtgatttcttcagtgtgcctcctGATTTTCTTAAATAGACAGACAAATACTTATCTCTGACATT
1 ctgCCTGAGAGACTGGCTCAGAGGCTGCCTGGTTGAGAGGCTGGCTTAGAGACTTCCTGAGAGCCTGGCTGGTTGAGAAGCTTGCTAAGAGACTGGCTGGCAGGTTGGCTGGCTGAGAGATCTGCCAAGGGGGTGGCTTGGAATCTTGCCCAGAGGTGGGCTGGCTCCCTGGTTTAGAGGTTACCTCGAAGGCTCACCAACAGACTGCCTGGGAGGCTGGCAGAGAGACCCACAGGCTAGCTGTCTTAAA
1 CACGCGAACCTTGTCAAAGTTCAGAGTGAGTCAGTCTAGATTAACAGGAGGAAGTTGGCAAACATTGTTTTAGTCTTAACACTATCATTTGGTGCTGGTGTTGAATGTTTACATTTTGGGGAGAGAAAACTCAGGCCAGATAAGGCAGCCTGGGGCCACACTTGGGAGTCAGGAATCTTGGCTTGGCAACAAGGTTTTGTAATTTAGGGGGAGTCCCTGCTCTCCTCTGAACCTCAATTTTGCCACCTGC
1 CAGGTGCAAAGAGGGGCCCTCGGGAAACAGCACAGCTACAGCCTCCTGGCACGTGCGGAGACGAGGCCTGAGTCCCCGACCTACCCCCAGTGGCAAGGTCCTTCCCCAGCCTCCCGGGAACTTCTGTCTATGGGAAAGTGAGGGCAGGCCCTGTTCTCCCTGATTGGAATGTCACGCGTGGAGTCCCCTCCGTGGAACACAGAACTCACCGCACCCGAGGGAGAGCAGCCCCACCAGGGCGAGCAGTGGG
1 GTCTGCCAGACACATGCattgaatcactcgaccaatacggactgagggctcagcagggcaagggtgggtgccacaggaaccagccctaggcagagatccctgcctccttggggtttccattctagtggggagtacacatggtgagcacagaacacataaagtcacagcacgatgagcgtggccaagaaacatcaatcgggggagagacggagtgacctgggcaggctgttttaggtaggcgtccgggagg
1 CCTTGCCTGGTGTTCGAGATGACTGGGCCCTGCAGCCCCAGTGAAGGAGGGGCCTGGGAAGGGGAAGGGGACAGAGAGCAGGTTTATTCGGGGTGAGCTGCGCTGGTCCATTGTAGTTTGCACTCAGTGCTTCCAGGAGCTGGAAAGGCAAACAATAGATTTGGGTCACGAGGGGTTGGGGGAGGAGATGGTCAGATTTAGCAGGATTCTGATGCCAAGTAGCTGGTGCTTAGGGCTCTGGGCTGTGAAC
1 TCCCCAACTGCAAGGCCTTAGGGTGCTGAGCAGGGAATGGTTTGGAGCGATCAGAGTTTGTAGTGAGTGGGACCATTCATAGCTTGATGCTGAGACTTCAGCTCCTTGAGGAGGCTCTGAGCATTGACTATGTTTGCTCTGGGCAGCTGTGAACCCACATGAAGCCAATAGCAGCAGGCAGGACCACTATGTGGGGACATGCTGGTAGCTCTGTTACCCTCTCTGTTTCCCAGGATTGGCTCAGCTAGGC
0.2293378847110238 GGGGCACGTTCCACAGCACAGACGTGGGCCAGCCCGCTGGGGGCAGTGTGGAGCAGGCAGTGCCCTCATCCAGGACCTCAGCATTGAAGGAAGCGAGGGTTCTGTGAACCGTGGTCTCTTAGAGGTCACTGCCCTCTGAGGGAAGAGCTCACAGTGAGCAAGATCTGGGTGGGGGCTGGCGGGAGGGTGAGCGGAAgctggctgaatgcagacacgatggccagagctccagcagccttctggggccatg
0.6278108955564748 TTGTCACGGGAAGATTCTCCGACTCAAACCTCCCACGTGCAATCGCTGCCTCCCGCGCCCGCCCCCTCACCTTGTTCGTGAGGTAAGAAGCCAGGTAGCAGGTACAAAAGGTGAGGCCGACCAGAGACCTCCTCACGCACATCTGTCAACTCGTCCCCTTCTCGGGGATCCACGGTGCCTGCCCAAATCCCCTGGCCGCCGCCCGACCCCCgcagcagcagcagcggcagcggcagcagccgcCCAGAGA
1 tctgtctctctgcctctctcccccatctctgcctctgtctccctcCATGTCCCTGAGCCCCTGCCTGCCTGCCTGGGGTTTCCCCCGCTTCAGGGCAGCGGAAGGAAGGCCAGCAGGACATGCTGTGCTGGGAAAAGCCAGCAGGTCTCCACTTCTCCCTTTCACAGCCTCCTCCCCCGCCCCCACCCTCGGGGCCTTCCGAGCAGGGGTGGCCTGTGCTCCCCAGGGGGCTGGGGCTCCTCCACACCCT
1 CTAAGTAGCCTGCCAAACGACAAAGGCCAGGTGTCAGGAGGGACGAATGTGGTCTCATTATCTGCTATGTTGAAATGCGTTTGCTGGTCAAAGTACTGTGGGCACGCCCCCAAGGCTACGTCCTCCCTTTCTCCAGCACAGTGTGGGTTCACTTAATGACAGCCCCAGTGAACTCCCAATGTGGGTTCACTTAATGACAGCTTCCATACACTTCAGATTTTCTTTTGATCGAAAATTTGGAAGATGCAAA
1 CCACAGTGGCGAAGCGGCGAGTCTGGATAACCCGTCTCCGCCCATGCTCAGGACCCACCCAATGTCCCCAGGCGCTGCTCTCACTCCGGGAGCTGCCCCGGCCCGGGTAGGACAGACGCGCTCGCTCGAAGCCAGAGGCTCCCCCGGCTGAGGTGCCCAGGCCGCTCCTCCAGCCCGGGAAGAGCGTGTGCCCCTGGGGTCTGCGCCAGACGCAGCTCACCCCTTGCTCCTTCAGTCTCCCGGGCGGAGC
1 gcgctTGTTTTGGGGAACAAAGCCAAACCTACCCTTATAGTCAGTGTAGGCAGTACTCGTGCTCACCGGGAGAGGGCGCCATCCAGAAGGACAGCCTGTGCAGAGGCGTGAAGGGAGCTCATGGCTCCTCTCCTAGGCCACGGACCACACCTTCCTCCAGAAGAGCCACTATCACCATGGTGACCACCCCAGCTATGCCAAGCCCCGGCTGCCCCTGCCCGTGTTCACCGTGCGACATTATGCAGGGACT
0.632481796278616 CGGCTCAGTCCCGGGCCTGCGCTCCTAGAGTTCCTGTCCCATCTCCTCCCACGCTCACCCATCCCAAGGAAGGAGGGCACTCGGGCCCCAGCAGGCTCGTGAGAGCAGCGGGCTCCGCCCTCCCAATGGTCTATCCATCGGTGGGTGGGTCCGGCGCGGCGTCGGGGCTCTGGCGGGTACCCGGGCGTCCCCGCGCGGCCCGGGCCGCCGCTCACCGCTGCTTACGCTCCGCCTGCTGGAGCCGCCGGGA
1 TGCTCTGGGTACCCCCAGCCCCTCTGGCCCCAAATTCCTCCCCCATGCTCAGTTCTCTGTCTCACTGGCAGAGGAGCCGGCCGTGTTTCCCCCTAAAGCCCGCTTGGCCCTCCCAGTTCCGCAGCTGCGCGGCCCGCCCGCCGATCCCATGGCTCCCTTCTCCACCCTTGGGATTTCTCGTTTGTTCGCCTCCTCTCCGGTACCCTCAATCCCGTAGATGCAGGTGGGCATCCTCCAGCCCCAGCAAGTA
1 GGCTTGGAACCTACATTTTCTTTTCGTATCACCTTTGGATTCATGTGACCTTGTCCGCAGTGTGCTGACTTGCCTCTCTCCACCTGGGAATTCCCCAAGTTTCGATATGCACAGGTATCAGCTGCCTTGTGTACATTAATACAGGAAGTGTTAGGAGGCGTTTGCTCTTCTGGTTCTATTTCATTAAGCAAGCTGAAGCTGGCTGGAGTCAGAATTTACAGGGACCAAGGAATTAGATACAGCTCACAGC
0.1278803901745107 ATGGAGGGTGCGCGCGTCACCATGTATGGCCCCCGCTTTTCCACGGCCGCGGGGGTGCGCTCCCCCAGACGGAGGGCTCTATTACCGATCTGCCCGGAGGGTGGCCCCGCAGCTCCCGGCGCGCGGTCCCGAGCCCCGCTGGGCCGGGGTCCCGGGGTAGACAACCGCAACGCGCGCCCGCTGGGCTCCGCGGTCGCCATGGCCGGGCCCCGCCCTGCCGGATGGTGCAACCCCGCCCGTGGCGAAAGAG
1 TAGTAAAATTTCTTTAACtgtagcaggaggagtcatagacacaacctctcagacaccggattgtggaaggaaagagctttattcttctgggagcatcggcagactcaagtcctagaaactgagctccctgaataagtaattcctgtcccttttaagggctcacacctctaaagggactgcatgaagagggggtcgtgaccgattgggcaagcgaggggtaggtgactgacggctgcatgcaccagtaatc
1 GGCATGTGGGCATGCCAGGAAGTCCCCCTCACTTGAGGGCTCAGCTCCTGCAGGCTCGGAGCCTGCTGGGGGCAAGGGCCAGGTCCTTGGGCCCTGCCTTCACGTGACTAATTTCCTGGAGTCCTGCCAAGTACAGTCTGGGTCCAGGGCCTCTGTTAACCTTTTCTCACTTGGTTACACCTCACTGGGCCCAAAGGTGTTGCATTTGCCCTTTGGCTCCCAGAGACATGCACCACAAGGGCTGTGGACC
0.5389344411051837 TTGACATTCCTCAGCCCCAGGTTGGCTGGAGAAGCATGTTCCCCAGAGGAGCAGAGGCCCAGGACTGGCATTTGGATATGCAGCTGACCGGCAAGGTGGTGCTGTCAGCCGCTGCCCTGCTCCTGGTGACTGTGGCCTACAGGCTGTACAAGTCGAGGCCTGCCCCAGCCCAGCGGTGGGGTGGGAATGGCCAGGCAGAAGCCAAGGAGGAAGCAGAGGGCTCAGGGCAGCCTGCTGTACAGGAGGCTTC
1 AATCTTCAGTCCTACCTCGCAGACGGACGCAAATTATCTTTTACTTTGCGCTTAAGAGTTGGCTTCAATACATTTTAGAGCTCCTAACCTTTCCCAAACAATCTTCGGATGAAGGGATACCCCCAATCTTGCTCAAAACTCTTTCCCTACCTACACCCCCTTGAGGGTGAGGGTTCAGTCCGCAGCTGGCGAGTGGGACGTGGGTGGGGGCGATGGAGGCGCGGGCGGGCTGCTTGGAGGGAGTCAGCCT
0.4958323596563715 CCAGGCGAGGCAGGAAGATGGACAGAGCAGCCAGCCTGCCTGTGAGCCTCTGCGGGGTGGGGTCCTGGTGCCTCTGCCCTCCCCAAGGAGTGGGGCGAGACAGGTGGAGCCGAGAACTTCCTCCCCTGGGGTCTGGGCCAAGGCAAGGGGGATCAGGGTCTCCTGGCCTGTGTGGCCCAGAGGTACTAGTCTGCAGCGGGGAGGGGTGTTGGGACCCTGGGGCCCTCTCTTCTGCAGCCTCCAAACCTCA
1 CCTCCCAACTTCCTGTTTACCGTAGCTGCAGAGCCTGTCCCTTCACTTAAAGCCAGTGTGATCACCATGGCAACCGGCCTGTGTTTGTTCCAACAGGTGGGCAGAACCTGGTGCAAGACCGCAGAGGCAGGGGCGTCACTCCCAGACCCGGTCTCCAGACCCACCAGCCCCTCAGGAGAACACTGCTACAGAGTGGGGCTGAGGGCCCAGGCCCCCTCCCCTGCTTCCCCCACCGCGTCCCTGTCCCAGC
0.841885512186465 TCTCTCCCTCTGTCCCTCTGGGCCCACTAGAGGGCGGCAGCCCCCAGTCCAGGCCTGGGCGTCCACCCTCCCAGCCTTTGCCTGGGCCTGGTGCTCCCGTAGGGAGCGGTGCCAAGATTGCTCTTGGGCCGTGAGGCAGCTCCTCTCCCAGGACTCTGTCCTGTCCTTATAGGGCTCTCGTGGGTGGGAAATACTGGGTTCAGTAGATAGGGCAGGAACGGCTGCTTCTTTGCCTGGCTTTGCTGAAGCT
0.1284384082933668 GCCTTCCCTGCTGTGTCCCACCTGCCCAGTTCCTTGTGCTGTCTGGAGGCTCCGCCCTGCCCCACCTGACCTGCTGGCTCACTACAGAGCTGCAAGCCCCTGACAATGGGATCCGGGAAAGGAGAGGTGGCCGGCACGCCTGGGAACTGGGAAATCCCTTTCCTGGATTCACTGGGAGCACCGGGAGGTGGCTGAGAACCCTACTTCTGTGAGGGGAGCAGTGAGGCAGGGAAACCCTAGGTTTGGGGAT
0.9848936204589572 TCCTGTTACTCCAGACACCTATCCGCCTCCAGCGCGGAGGCCAAGGCGAAACCACGGTCTGGACGTGTTTTTTTGGTGCCACCGCCAGCCCCTGGGGTTCTCTTGGGCCTGGCTGCTGGGACCCCAGCACCCAGAGTCACGGCAGTGGTGGGCATGGGGAGGGCCTAGCCTGGTACCTCCCTGCTCGGCTCCCGCGGCTGGGGGTCGGAGAGGGGTGGAGAGCGTGGGCCGCACAGCCTCGGCCGGGAGA
0.1159441919136028 AGAGAACAGCTGCGAGCAGGGCCCGTCTCACCCTACCCCACCCCACCTCCAGCTGTGGTGGGGAGAGAAGGTTCTGGGTTAGGCTCCAAGGTCTAGGGAGCCCACGTCGTCTGCCCCTGCCTGAGTGGAAGGCTGGGCGCAGGTGGGCCTCGGCGTTAGGAAAGGCAACTGCTCCCTCTTGTGGCCACTCTAGGGCAGCCCGGCGTCCTCCCAGCGATGTGGCAGCCGGTCTCAAGCAGGCAGGGGTGAT
0.5962153311108299 TGGTTACAGTCTCCTCCCCCCATGTTAACTGTAGACCCTCTGGCCCTCACATTTTGAGCGTCACCACGCTGCCAGTAAAGGAAATGGCCTGAAACCCTGTTCTCCGATATTGTTCAGGACATAGTAGCCTGTACTCACTGCCTGTTTACTCAAGCGAAAGGGCTCAGACTGCTTCCTCTAACGGTTGCAGAGAAGGGCTGAAGCTTTGTCAGCTGAGCCTTTGAGATCTGGCTGGCTGTGAATGAATAAT
0.360917723707784 aggtatcgtggctggagaccgtctgccttgcgcccctccacggccactcGCCGCGGAGACTCCGCCCCTTGGAAGTGCCCCCTAATTAGGAATATCTCCTCCACTGGACTGCGCGGGCACAGAGCAGGAGATTTGTAGATAGGCCTAACTTGCTGCTGAGTGTCAGGTTGAGGCTGCCCCGCAGTAGATGTCACCCGCCAGCCCCGCTGCAAACCTTTGCTCTGAGAGGGGCGGGCCCGTGCCCTCAAGC
1 gaggagatgagctgacgccaactacctgcaggaatagatagagctgaggataactatacctatatctacaactacttccatgcctatcttctcttagatttaagagacttgagctcctaaactttaagagctgctgaagggaaggagtgagtagaaaggagagtgacagatgacaggatgtctggaggaaactggatccaagactggtggatgaggatagcagccttgacaggaggaggaactcgtctcc
1 GTACTTGCACTCTCAAAACACAGAGCCGCGGCTGCGCTTCCTGAAGTAAGGATTCCCCAACCGGGCGCCTGGATCCCAGGCAACAGACAGATGCCACCACCGTTCTCCCCACCCTTTTGGTAGCCCTGGTCCCTAAGGCTCGTTGGGACTGCGAGCTGCAAGCCTCAGATCCATCATCTCAACCTGCCTTGCAGTCGGTCCCGACTGCCGCCGCCACCGCAGCTAAAACTTCAGGCGCCGGAACCGCGGA
1 ttgtgaggctttgcactgaactcagtgctgccctgttacagacagtagaaagcaaaagcaggctgaactcagctgatgccagaccatagagggagcatttagaccagccctagccagaggggaatctcctgtaccttggtcagaacttgaattctggcaaacctcgtcaccgagggccaaagtgccctggggctctaaataaaattgaaaggcagtgtaggccccatgaactacaactcttaggcaagtc
1 AGAAGCTCCCAGAACACTCAGGAAACTTCTCCGGACAGAGCCCTCCTTGTCAACTTGAGGCCCTCCCAAGGCCCTCTACTGCCCTCTGGGTCCAGCAGAGGGAGTGGAGGAAGGGCCACTGCCTCCCACCTAGAGCTTCTCCGAATGACAATCAGCTCGTGCCAGGTGGGGACCAGGATATGACTCCTGGTGCCCAGGCCCTGGGCCTGCTCCTTGCCACCAACCGAACCGTGAATGTAGGGCCCCCAGC
0.6024604086808224 gctgcagtgggctctgctgagtttgagcttcccggccgctttgtttacactgtgagctactcagtcctcagcaatggtggacgcccctccctctgtcaagctgcagcattgcaggttgatctgagactcctgcgctagcagtgagcaaggctctgtgggcgtcggaactgccgagccagtcacggaatggtatctcctggtctgctggtcgctaagaccatgggaaaagcacagcatttgggcaggagtg
1 TTTGTGAGGCTCTTTACAGCCCAGTGGGCAGAGTCCTTCTCACTCATCATGGGGGGACAGGGGAGGGAGGTCCTCGAAGGCCACTTAACAGGGCCAGCTGATGCCATGGTGCCAGTCGAGCAAAGCCAGCTTCCTTCCTGCACCCCCACAAGGTCCAGATGGTCTTTGAAGTTACACTTGAGTCCAGTAGTAAGTGGGTCTCTGAGCAAACCTGCCTACGAGCTGACACCACCAGATCACCAGTGGCTTC
1 GCATCTGCTACGCTACTTACTCTAAAGGGCCTCTCCACACCCAGGCAGCCAAGAGCTTCCCTCGTGTGGGAGCTCTGCCCAGGACGTGCAGCTGAGCAGAGAGCCATGAGGGGTCCTCCCTCTGCACACTATCTGGGAGCAGGAGAAAATGGGGGCCTCATGGAGCTGACCCTGGAGCTGGGCTAAGCCACAAGGGCACAGAAGGCAGGCAGGGTCCGGTTCTCATTCTGCCAATCCTTGCCCCCTGAAC
0.6942129028153806 cacgataggccacatgtgacccagtcctccagcaggcgccgttgtcctcctgtggttacaggtgaggaacactgaggaccagagagggaaggtggcttgccagggtcccacagcctgggcgtaggggaacggcttcaaacccaggctgcctccagaacctgtgctTAGAGCCACCGGGCATCAGGCCCTCCCAAGCCTTGGAACTGGCTGGAATCCAGTTCTCGGAACACTGGGACGCAAAAGACCCGGC
1 tgagatagaagctttctaatgtcattttataaattcctttcctgcttaagtcagctagggaggcaggctgtttgcaaatacgagctctATTACATAACTGTCTTGTGAAGGGGCCCCTGCTGTTCCACTAGAATTGTGAAATTATTTCCTGATGGTGGCCTGACAGGGCAAAGGGCAGATTAGGTCTCGTCACTGTCGGGGAGGGGCAGAGGGCCAGGCTTGTGGCTAAGAGACAGAAACTGCAAGGACA
1 cgtatcatttgaagggaccacgctcttcccttccagcagttcccttccttatcaCTAGGACCCCAAGACCTGGGAACCAGCCTGGGTGGGGGTCAGTGGTGGATGTGGCCCCAAAAGCAGCTTAGGGGGTCCCTTCCTTGTGGCTGCTTCTTGACTGGATGGAGCAGTGTTCAGGCCTTTCCCCTGTGACGTTTTCTCCTAATAACGTCACAGGCCTTTCTCATGTGACTTTATTACAGCGGCTGGGGCG
0.9806466553841818 TGCTGCGGATAGTGGCGGGTCGGCCCCGGCTCCGGGCGCGGCGGCTAGAGTGCAGCCGGGGCTGCCTGCCTCCAACTGCAGAAGGTGGTGTTTTCTGCTCCTCCTGCGCGCCTCTGCTTTCCTCTGTCAACCCTAAATCGTTCTAAAGTCCAAGGGGAAGAGAGCCAGATCCCGAGCAGAAACTTTTGCAGAGCTGCGCAGCTTGGGGCGCGCTGTTGTGGCGCGCGTCTGAGTGCGCGAGCGAGCGAGT
0.232610316827824 GCGGGGAGGTCGGGACCGCTGGGTTGGGCCGGGGCAGGGAATAGGCGCGAGGGGAGGCGGCGCGGGAACCTCGGGCAGCCCCAGCGGCTGGGTCGAGCCCGACAGGTTCCAGCAGCTCCCCTCACCCCTCTCCACGCCTCTCGGGTTTTCCCCTTGGCTCAGGGTTTCCTGTTTCAGTTCTCGGCGTTCTCCAGCAGCAGGTGCTGGTTTGCCAACCTCGGCTCCAGAGGCGGCGACGGAGGAGAAGGAA
1 ctctcgcctggccAGTGATGTTTATTAAGCATGAGGTCCGCATTGGCAGTGGGAGGTGCCTCTGCATTGGGACGTGCCTCTTGCATAGGGTGGAGTGTGTGTACTTGAGGGTGTGCATTCTCGGGCACTCGCCTCTGCCTGTTGGGATATTGAGAGCCGTGACAGTGACTGAGCTTTGAGCTTTGTTGTCCACGGCACAGGCTCAGGGTCCAGGCACTGTGCTGAGCAGTGATAACAGGAGGTCCCTGCC
1 GGGAGCTGGAGTTCTATGAAGGAAGAGCGAGGAGGCATGTGGGAGGAAGAACAGCCCCACTGAGGCCTGCAGGGAAGGCAGCAGACCCCAGGTCAGAGCATGAAGGTAGAGGGGAGGTTCCAAGAAGTGGGTTGGGGAATAAGCACTGGATGGCTGATGACAGAGGGCAGGGTGGAGGATGCGGGGCCAGGGAGGGCTGCACAGAGTCCTGGGAGGGTGAGCGGTGGCCCTGGCTGGCTAGGAGGCGCCA
1 ACAACCAGCACCTCTGACCTGGATGCCTCAGCTTAGACACATAAACACATTCCATTCCCTGTCCCTGCCTTGTAACAAGTTCACTCCCTGCCTTATCCCTCACAGGAATCCTCAACAGATGCCACTGTAAGTGGGGAGAGAAGCTGCTCAGGTGAGTGGGTCCCACACATACTACACACTAATGCATGAATTCCATATGCACACTACATACTAAAGCCTACTAATGGCAGTATACAGATTCTCACATACA
1 GAGCCCTGTGGCCGGGCCCTCAGGACGTGGGGCCAGGCTGCTCCTCCCAGCCGCCCCGGGGGGGCAGGCCAAGAATTCTAGAAACCCTCTGCTGGGGAGAGCCCGAGGAGGCCCTGGCTGGGGTGACATCGGGAAAGCCCAGGGGGCCTGCTGCAGGCTGCGAGGAAGAAGGAGGCCGAGGTCATGGTGCAGAGGGCTGAGGAGGAAGTGAACCCCAGCTACAGGGTGCCCGGAAAGGGCTGGACCCACG
0.1634257538313308 GAGCCAGGCACAGAGGGTCGGATGGCGGGTGCTGTGGGAACTGACAGGAGCCAGGCACAGAGGGTCGGATGGCGGGTGCGGTCACACGCAGGACGTGCCGTTCACGTGAGCCCTGTGCATGCAAGTTCTCGTTCTGAAGGCCGTTTCTCTCGTGTTTAAATAAGAATCCAGCAGCTCTTCCTGCTTGGCTGCATGGGCTGAGCCCATGAGGCCGACTCTGCCCCAGAGtgtagggtccagccctccgggg
1 ACAGGAATCTTGCTAGAAGAGAAGAATGTTTCATCAGAGACAGTCATTCATCCTGGCCCACACCTCTCCTGCTCTGATCTTCCACTGTTAAAAGCATAACACACTGGAGGAAGATTGTGCTATATTTCATGCATGCTCTGCGCCACCACCAAGGGACAGTCCCATCTGTTATTTGCTCTCAGCTTTGCTTACTGATAAAACAGGAAGGACAGCTTGCTGATGGGCTCTTTGAAGCAAATGGATCCTCTCT
0.6179243443026305 gcagacgcccctcctgcagcttggctgccacctcacagtttgatctcggactgctgtgctagcagtgagcaatgctccgtgggcatgggacctactgagccatgtgtgggatataatctcctggtgtgccgtttgctaagactgttggaaaagcacagtgttatggcgggagtgtcccgatattccaggtaccgtctgtccatctgtcacggcttcccttggctaggaaagggaaatcccccaacccctt
1 AATTAACTTTTCCATTTCTTCAGTGGGTTGACTTTGAGTTGGTCCTTTCTAGGAAATCAGTATCATTGCTTGTTGAAAGAGCTACCTCAGAGGACTGGCATTTGCGCTGGGGAATTCCCTTCCATGAGCCTCTGACCCCCTTTATCTTGAGTTGTTACATACCACTCGTTGCTATCTGTTAGTAGTTGTGTCCCCAGACCTGGCTAGAAAAATTAAAAAGAAACAAAACTCTTCTTGTTTATTATTAAGG
1 cgattcttctgccttaccctcccaagtatctgggactacaggcgcgtgccaccatgcccagctaattttttgtgattttaggagagatagggtttcactgtgttagctaggatggtctcgatctcctgacctcgtgatccgcccacctcagcctcccaaagtgctgggattacaggcatgagtcagcacgcccggccAAGCCACCCCTTCTTTAAGAGCTTCACCATAGCTCATGCCTGGAATCCCAgca
1 CTGGCCGCAGCAGTCATTAAGGAAGCGCAGTCCTCCCCACCCTTTTCAACCAGGACCGAATGTTGCGTCTTTCTCAGCTGCAATCACTCCTACTCTCCCTGTGGCAGCTGCGAAGGTGATCTACACTCACCGCTTGAAGCACAGTCGCCAACAACAACCGTAGCCCAAACGCCGGCACCAGACACCCACTCGGCCCAGCCGCCATCGCTACCATTTTCCGCAGGTTTCTGGCTGCCTAGAAGGACCCCTA
0.5361474538249876 AAGCCCCTGTGGCCCCTGCTCAGAGTCCATGGAGTGACCTTTGTGGCCACAGCTTTCCAGGAAACAGACGTGTGTGCCGGGCACCTCCTTCTCAGCCCACCCAGCTGTCTGGTGGTCAGCGAGAGGAGAAAAGGCAGCCCCAACATCAAAGACATAGCAACTGCCTGGTGACTTCCTCCCCGGCCAGCTGGAGGTGTCAGCTCGAGGCCGGACTCTGTTTCCTGCTGCCAGGGCAGCTGCTTCCCTCTTC
1 ggagcaaacagagagaggggtaaaaaggcaggaggctaccaggcaggttgtgcagagccttgtgggccactggggaggactttggcttttgccctgagagcggtgggaagtgactgaaTCCGGTACTCACCGTCTCCCTCTGGCGGCTCCTGGGGGAACATGCTTGGGGATCAGGCTGGGGGAGGCTGCCAGGCCCAGGAGGTGAGAAGTAGGTGGCCTCCAGCCGTGTTTCCTGAATGCTGGACTGATA
1 gcAAGCTTCACTGGTTTTTAAATAAGCATCAACATATCTGCTGTGGTCTGTAACTGTGGAATTGGAGGAAATGTGGACATTCAAAAAAAATGGCCAggctgggcgtggtggctcatgcctgtaatccgagcactttgggaggccaaggccagtggatcatgaggtcaggagttcgagaccagcctggccaatacggtgaaaccccatctctactaaaaatacaaaaattagccaggcgtggtggctcgca
1 TGATTCACTTGACTCTTAATCGCCTATGTTTGGCTCTGCTATGTTCTGGGGGCAAGTAATGGATAATAGCCATGGAAACAACCTTGGCACTCAACTACAAACACTGTGTAAAGTAAGTAGAAAAGAATTGCTGTTTGCTTCCATTATTTACTGTCATACACTTGTCCTTCCTAGGAAGGGGCCGTCCCAGGGCCTGATGGCTAGCTTGCACTAAGCAGGGTTTCCAACTCAGGAAGGGCAGAGTCCCCAG
0.794077792705049 GCCCCTACAGTCAGGCCTGGGTGTGCTGAAGTCGGtggtgagatgcactgttattccccagcaaagtgtgggctccctgaaggcagggatgaggctgagtcactgctgtgttgcagagcccaggtggagcttggtacaggagggggctgcaggaacaggggtgcccgttgaaagaGGACAATTGGGGCCCCTGGCAGGTGGCAGGAGAGGGTTTAACAGCTCTGAGCCCCTCTCTACCAGGGTGCCCAGG
1 cagggaagaaagtctgggctcctttctgcatgatggctgccatgtgctggggtgccagcatagcgaccacaccctttcttcctctcccagaccgagagcagcaagggcagtaccactgaagctgcaatggcagagggactttgggttgtctctggagtttcctccctggagaaatgcaaagctgccactgactgaagtattcaggctggggcagagtggttgtgctgggggcccaggtggagaggccctc
1 GTAAAGGCACTCAATCACTGTTTGCTGACTCCAGCTCAATGGACTATGGTGAGTGAGGCTAGAAACATCTTCCAGAGAGAAGGAGCTGGGCTCACAAGGAGGCTAAAGGAGGGGAAGGAGGTGGGAGAGGCAGATGAGCACCGTGGAGGACTGAGCCGCTGTCAGAAGCTCAAAGGGCAGAGAACCCAGGATGAGTTTGTTGTGCCCAGCCTTGGGGGCTGCACATTCCAATATCTGTGCATTTGAGGGA
1 GGCATGGGCAAAGGAAGGACCAAAAAATTGAAGTCTGAGAAAGGAGAGAATCTGCCCCTCGCTGAAGAGGAGCCATGTCGTGGATTCAGGCTGGCCGGCAGAACTGGAGGCAAAGCTGACCAGGGGTGCTTCCTCCCATCCCCCAGCAAGACCAGGGCTCCCTTTGGTACAGCCCCCTCCCACCTCTGGCTGACCAAGAGAGGAAAGGAAACACTACTGCTCCCTAGTGGTTACAGAGGGAATATCACCA
1 ctactgagtagctgggattacaggcacgcgccaccacgcccagctaatttttaacttcttagtagagtcggggtttcaccatgttggccgggctgctcttgaactcctgacctcaggtgatctgcctgcctcggcctcccaaagtgctgggattacaagtgtgagtcaccgtgcccagcTCCATTAGCTTATTTGTAAAAAAGAAATGAAGAAGTAAAAGCTAGGAGTCTGGTCTGACCCAGAGAGAGGG
1 GGAGACACATTTTCGCTTCATTGGCTTCCCCAGGGCTCACAAATCTGACCACTCTCCTACTTTTTTTGGCCACAGGATGTTTGCATAGCATGATCAGAGAGGATTTGTTACACAGAAGTCAACAAAAATGGCCTTCGATAACAGGGAAaatcccttgcattagcatagacacattgagtccataaactgatttcacagatgttattgcaCAATTTCCAAGGCCAACTGAAGAGGCTTAAAACTCTGTGGC
0.5424943304625249 AGGCCCAGGAGTGCCCATCGCGATGTGGGGGCTGGCTGGGGATGGGTAGGGACTCAGCGCTGCTCCTGCCCCCCTCAGAGCTGGCTAGGGAGTGAAGTGTGCACCAAGTTATCGGCCCCAGAGAGCCTCGGAACCGGCACCGCCAGGCCAGAGCCCCTGACGAGCTGCCTCAGCTACGTCGATCTGGACCTGGTCCTTTCTCTGGGGGCACTTGGTGACGTCCCCAGGGCCCACACGCTCCGCCCACATA
1 ACTCACACAGAAAGGAGGTGTCAACAAGGGGCAGCGATGGCCATGTGGCCAGTCCCAGAGGGACAGCAGGACACTGGCAGATCAATCTCAGGGAGGTCAGGAGGGCTTGGACCTGACAGCAAAGTCCCTTCTCTCGGCTCCCCTGGGCAGCTTTGGATATGTGGGGAATGTTCTATGTGGCTGCTCAGAGGAGAGGAGACCCCAGAGAACCGGGGAAGTTGACATGAAATGTCAGCATTAGCTCTGCACA
0.1497716691093135 gccctggttggcgtcactgcattcgccagtgccactgttggaagctgcttgtgatgcgcctggtccagggggaagctgtttgttgtgtgcctggtccagccacctcatggagagcctgtgctggcacctggagctgcccaacctgggcagcagcttgtgtgtgtgactgcacagtggccacgcttgctcacacacccctagcacacccctctgctccacccgtctcaatctcccttggatccgggatcca
1 CTCACACCCGGGCTCATCTTTTCATCCCACACCCACCACCCCCCTCTCCGTTCACGGTGTCCCGGGAGGCTGCGACCTGCGTAGATGATTTAGCAGActgcccctgcccatgctcctgctcctgctcctcctcctcctcttccccgctctctccctctcgcctcctcttccAGTCCAGGCGCCCAGACTCGGCGAAGCGCAGCGCCTGCCACCAGCGGTGCCTCGGGCTGCCCGGCGCGCCGCGCTCCCA
1 CATTACATAAGTGATTCATTTAGGACTAGAACTAGATCATAATAGTGGCAGAGTTCACCCTGTTTCTAAAAGAACGGCCCATCTTCCCTTCAGAAGTGGGTTGATACTGCCACTCAGTGGTCAGCTTCAGGAACTTCAGGATTTCTCCCCCAAAGCCAGGAATAGGCAGGACAATTACGAGAGGGGTGCCCACTAAGATCTAATTTCCCCCCCAGGATGCTCATCAGCTCTTTTTGGTCTGTTTCTTCCC
1 agggcttttcactaaagcctccagggagactttggaacatgagcagcacagcttggagacGAGCCAGCAGAGCACGTGACAGCGAGGAGGCAGCCGTGCACGTCGTCACCCAAGCCCCAGGCCACAGCATCCACGGGAGAGACTTTCCTGCAGCACTGCGTGTTGGGGGTAGGGAAGAGAACAAACTTAATCCTGGGCTGTTACGGGAAGCCCTGACGAGCCCCAGGAATATCAGGGACTGCAGGAAGGG
1 atcctcaacacTCCAACCatggtaaatgccacgaaggaagagcacaagtgatgtaaggaagacagcaggggcctcgttagcatggggggtccagaagaaccctctgtgggagttctatgtcagccagtcctaacgataacgagaagttcacgggaacaagagcaggaggcacatgctcccgacagaggaaaagcatgatcaagaacatgatggcCCAGTACGTGGCTCCCTAGAGAGCTGAACTACCTCC
0.9006751077257102 GAAGCTGGGGTGTGAGGGTGGAGGAGGAGCCCAAACGTGGGGAGCCAAGAGGGGAGAGGGAAGAGAGGAGGGAGAGTGAGCACGTGTAGATGACTCTTTCAAGGGAAGAAGCCATCTGGAAGGGACACGGGGTCAAGGGGATGTTTGATGGGGAACTTCTGGCCGCGTGGGAGTGAAAACAGCAGCGTATACACTGCCTGGACCCTCCCTTGCGGTGAGCCACGGCCAGCCTGTCTGCAGCAGCAAAGAG
1 GTGGGTTCACAGGGGAGAGGAGCTATCAGGTGCACCATGAGCATATTTTTCAGAACAATTGCTTTTATCAGCTTGGCTTTCTTGTCCCAGAATGCAGTCCTTGGCAGGAAGTCACTGGTCTATTGACTTTACTAGTAGGATAAACAAACCTCCTTTGACACACAGAATGGCAGAGACTGTAATTTCCTTCCCGCCACATGGAGGCAAGGCAGACGAAGTTGGGGGAAGCAATGGGTTGGCTTTAACATGG
1 CTCAATCCTGGCAAAGGGGAGGGTATTATTTGCAAAGCCCCCTGCTGAGTCTCCCAGGTGCTAGCTAGACAGGCTCAGGAGATAGTTTGGCAGCCACCCTGGAAAAAATGCCTGTGTCTCTGCAAATAAATCTGCCAGTGTAGAAAGCACTGGGTTTTCCCCAGTGCTTGTGCAAATAGTACTCTGTGCTTTGCTGGTATTGGAAATTCCTTGGTATAAGTAGCTCTAGACCATGAAAATTGAAGTTATG
1 TGGGTCGGAGCTGAAATCTGTGATCACCCTTCTGAGCCCTACCCCAAGGACACTGAATCATGTGGTCAGGCTCCCAGCTCAGCACAGCCCTGACTATCAGCTCCATGTGTTTAGCAGCCTGGCCCCAGAATCAAAGCCACTGTTGAGGACACTCAGTATGAAGGAGACCACTTCAGGCCAGtgacagattctctcctggaccaaactcgactgaggctcccctgagccctcttctcaactaggcctcaac
1 CGTTCTGAGAAGGCCGGCCGCAGCCCAGGGAAGCGCAAGGGGGGCTATCCTTCAGGCCTGGGCACCGACTTCCAGAGACCCCAGATGGGCCCTCGCTCCTCAGCAGCACTCCAGGAATGAATGGCCACCTCCAGGCAAGAGAGCTACTACCTCGGAGCAGCCTTGTCTCAGACCTGCAGCCACCGTGTCTCGACCCTCCCTCCCTGATCCACTCTGCCCGTCAGCAGGATTCCGGTCTACACCCCGCAGA
1 agtttctccatgatcaggctggtctcaaactcccgaactcaggtgatccacccggctcagcctcccaaagtgctgggattacaggtgtgagccactgcgcccggcAAGGCTGTAATTCTAATTCCCTTCTGGCCTGGGCAAGACATAGGTGGGACACAGGAGAGAGCATGGGTGTTGGAGGCAATGGCAGTcttgactttcaactccttgggtcaggagctccctgtgatggaggctgtcttgttcacca
1 TAACAGGTCTCATCCTCCCTTCCCTGGCTCCTCCCACCTCACCTTTAGTGATTCAGTGGTGATACTGATGGAAGGTTTCTTCTGTGTGGTGGCTGTGCTGGCTCCCCAGCGTCGTTTCCGACCAGGCTGGCCCCCCTCTGTGTCACTGTTTCCAGCTGGCACCCCCTTGGTAGCTGCTGTCCCCAAGAAATAGACCCAACAGTTAGATGGTCTCAGGACCTCTGCTAGTTCAAACCGTAATACCTACAGG
0.7543496420432181 GGCAGTGGCCAGCTCCAGGACCAGCTGTTCCTGGGCTCATGTCTGAGGACCAGGCACCAGGGACTGCTGACCCCCGGGGGTTACCTAGCTCTGCCCTCTGTGCCCCCTGCTGCGGAGGTGGTGGTTTGCCAGTGCTGGGGCTCCCTCGTGCGGCGGATCTGCAGATTGCACTGCTCGGCTCAGATTTCCTGCTGCCCGCCAGAGGCCTGTGCAGGGACCACGGTGCTCGTTTTCATTCCTGCCCCACCCT
1 GCGGTCCCGCCCTAGCAGGCTCCTTCCCGGGCCCCTCCCCGCTCCCTCCTCTTTCTCGCTGCTCAGTCACATCTTTCTCTTCCTTCCACCCCGAGGGACCATGTCGAGGCTCAGCTGGGGATACCGCGAGCACAACGGTGAGCGCCTTTTCCTGATCCAAGGGGGGGTTTGTGCGGGGGACGAGAGGACTAGCGCGACGCCCCGGCGCTCGCTGACCACACACTGGGCTCGCACATTGAGAAACTTTTTC
1 tctttccgtctatacattctgccctcctagcgtgtcggcctcagcctcagcctggctgtcctcatacactcaagtggctgcagccattccagccagcagccagtagcagaagaaagactataaaggcaaaaaaatacctttccccgaagcccctctgcagactctcattggccggattgtctcacttggccatggttaaaccacccaggagaatacagtcaccatggccacccttgaacagttagactat
1 AAGCCTAGAAATGGTGAGAGTGCCGGTCCAGCATCCCGAGAGAGGTGAAGTGTCTGTGGCGGGACTCAGGCCTCCCCTCAGTCAGCTCCACAATCTGCACCCCGAATTCTCCTTACCCAGCTCTGCCTCAGTCCCATTCAGCCATAAGATGGCGGCTACGCTGACAGCCTGGCCCCCGGGCGTCCTGTCGCTTCCCCGCGCAGTGACTGTGCCCCTGGCCTGGAGCGCTCTGTGGGCAGCTCTGCACCCG
1 cgcaggCGTGGGGGGAGACTCCCTTCCCCTCTACCTTTCGCCGCCCGGGCTCCTGCAGCCACGCTGCTCTCAGCCTCGCTGTGGGCATCTGCCAGTTTCTGAGTCTCCTGTCATGGCCCCCCCACCCCTGAATGTGGGGAACACAGACCCGCTCACCACAGCGGACCCTTGTGGAGCCGCCCCTGGGTgacaggctccgtgcctgcctcctgcagcttacattccagcagagaggctgatgagaatcgga
1 aGTACAACAAATTTCACCCAGCATTTGTGTATTTCAAGCTCAAGTGTACATACAGGGGAATTCCCTGCCTCTGCTCAGTCCACTTATATAATACAAATGTTTGCTTTTTTCTTTTTTTTGTCTCTATTATATGAGCCAATACTTGGCCCAAGGCTTTGGAAGCCCCTTTGATAAAGCCGTGTCTGGCAGCAGTGGGAACACCCGGCCAGGCCCCAGCAGCCCTGGCTTCTCTGAGCAGCGAACACCGTGG
1 TACTTGTTCCGAGATGGGCTGGTCCACAACGTACGGAAGTTGGCATCAATGAAGATGGGCTCTGCGCCTGTGATTCTGGCCATAGCTTCCAGGTCTCGATAATGCCAGTGGTTCCTTTCTGGATTGTTCTCAGGGACAAAAGGCTGCCTGGTTTCTGTCAGCCTCACCATCCCAATGAGGTCCACTTCTCCCTCAATCTATAAAGGAAGGTGTGTGAGATTGCATGGAGCCTGGTGGACTCCCAGAGCCT
1 ATTGATGGCTGGATGGCCCCTCACCCCCCAGCTCTGGTCTGAAGCAGATATCTAATTCTTGCCTGTGGCAGATCAGGGGTCCACCACTGGACAGCATTCATGCCATCCATGGCCAGGCCACATCTCTGAAGCCATCTGTGCAAGCgtgtttgtgtgtgtgtgtgtgtAACAGGAATTAGTAAGAAAACCACAAACCACAAACTTATGCAGCTGTTGGCCATGTACATTAATCAAAACACACACTGAAGTA
1 GCCTGCGAGGCCTACTTGGTGGGGCTTTTCGAGGACACCAACCTGTGCGCTATTCATGCCAAACGCGTGACCATCATGCCTAAAGACATCCAGCTTGCCCGCCGCATTCGTGGGGAGAGGGCGTGAATTGTTTTGAGTACAAACCTTAAATCCAAAGGCTCTTCTCAGAGCCAACCACTTTGTCCGTGAAAAGGGCTGTAATCCTTTGAGACGCATTAGACCACTAAACTGCACTGATCCAAATAGACAT
1 CTTCCGGGTCCACAAGTCCGGTCACCCAGCCACCCGGAGTCTGGGCAAAGGCCTCACGAGGCACCCCAAGGCTGGGTTCATGGGATCCCACCCAGCCTGCTACAAGGTGCTGGGGCAGTGACGGCAGCACCCCGCCAGCCCCTCCCCTTGACACTGAGGCCAAGTGCTGGAAGCAGCAGTGCCCTTTCTCTCTGAGAAGTCAGAGACCTTCAGGGCTGATTCAGAGGCTGGGGTGTTGTCAGGGCATTAG
1 TCAATATGTTTACAGACATAGAAGTTCTGAGGTCTTAACCTGGGGAATGGCTGGGATACACGGTATCTATAGGGTGGCACTCCAGGCAAAGAAGAAGCAATAACAAAAAAGAAAGGAAAGGAAATGGCATGCAGCACATGCTGACATGTGGACAGGAAGTGCTCTGTACTTACTTACTTACTGAATAAACATATAACaggaagccttagccttgcctggaatgtcacagaagacgcaagcaaaagttgga
1 cacccagttggccaagcccagctgggcaccgggcctgcacccaagctgccaggagtggaaagagaggagacacagccatgtggattggtttcattttaaattcatggccaccagctcaagtggacacttgttgactgctacatttccccagccTGGTACCACCCAAACATGTCCTCGTGTCCTGGCACACAGAGAGGGCAGAGCTGGGATCACACTGCCTGCCCCTCTAAATGAAAGGTTGCTGAGCAGA
1 gtgagccactgtgcctggctTACTGCCTCATCTTGTTCCCTGAGGTTCTAGACCTCTAGGGTGTTGTCCGGAAAGAACAGGGCCATGTGGAAGTCAGCAAAGAGAGAGGCCGATTGAACAGCAGGCTCTTCTCAGGCATCGCCAAGTGACTGATTAGGATTGGCCACCAGGGGGTGCCATGGAGCCACAGTCTATGAAGGGACAGAAGAGGCCTTTTGGGGGACCCTGGAGGTTGAAGGTGGGGATGCCC
1 ACCAACCGTTGCTGAGACTGTCTGGCAGTGCAGTTTTCTGAGAGGGCAAACCTGGGATGCGTAGCAATGAATTCAACAACACAGCCTTTGACTCGGCAACTGCACGTCAAGAAACGGAACTGTCAGGAAGCATCTAGAACCCAGAGGGCAGAATCCAGGAAATGACTCTGTTCCGGAGTTCATCTGTTGCTCTGGGCTACACTTGATGCTACGGTAAAATCACTCACCCTCACATCCAGCCAGCGGCAAC
1 cggcaggtctgctctacagctctcagcagatagggtactcctctcctttctcttcctctgctggcccttctctgccctgctcttggctgagcccagggcttttatggacctcagagggtaggaagtgcatgctgattggtccatggttggccatgggcgggcccagaagaggcacgcagagtccccactctggtcagctggactggcagcccagcccccaaccttcaggccctccctagtctgaagatgg
1 CTTTCTTCCAAGTTGCAAGTCTAATCCATCCGACAAAATCTCAcgcccaacgtggggctcgaacccacgaccctgagattaagggtctcatgctctaccgactgagctagccgggcGGCTATGAGGAAAATGGTTTCCCACACCTCTGTTGGAGCTCTCCCGAACTTCCCTATTCTATATAAAATTGGTGGGGATGAGTCCTGGATCCGAGACATGAGACATGCTACATCCTGAGCGCTAGAGCCCTAAG
1 TGGCCCGTAGGTCCCTAGGGCCTGGGCAGCCTCCTTCCACGCCATCCTGCCCTCTTCAGACCTTCCCCTGGCTCCTGGGCCTGAAGCCGGGCCACCTCTCTCTGCCTCTGAGGGGCTCCCCCGTGAGAGCTAGCCCAGTGCCCCTGGGGCGTCCCCTCCCTCGGAGCTCCTGTGCTGAAGTGATTAATGAGGCAGGGACAAAGCCTTTCTTACCAGCTGTGTCAACATGCCCCTTACCCCGCGGCCCTGC
0.9339241303778755 GCAAAAACTGGGGGCGTGGTCCCTGCCCTGTCTGTGTGCCTTGAGCCTCTCTTCAGGATTCCGGCCCCCAGGCCCTGCCCCTAGATCTGTGGCTGCGGGAAAGTAGGGCAGGTCTGTGTTTCAGGCTAGAGGGCTGAGAAAAGCAGGCAGGGGAGGATGTGGTCCTGCTGCTTAGGAGTCTCTCCCTGCTCACCAGTGCTGTCTGGGTGAAGCCAAACTCCTGACTAGGGTCACCAGGCCTGTGCAcctc
1 CTGTCCTGCTTGGCTCTGGGGTAGAAGGCTGGGAATCCCTGCCCTGCTCCGCTGGGTCTCGGGGCCCCCATCCACGGGACAGGGGCACCGGGAGGCCCCGTGTCTGTTCCCTCCCTGGGGAGGGGCTCACCCTCTCTGTGCCTGGGGTCAAATACAGGGATCGCTGTCAGAGACTCCACGGGCACGTCCAGGGGGTCGCCGCCCTCCACGAACATCATGTGCTGACAGGCGGCACCCTTCAGCAGGATCT
1 CTTGGGAGAAGGTGCCCTAATGTGACATGGCCTCAGTTTCCCAGCTGTGGGCAGAGATCACAGCAGCTGTCTCCTTTTCAGTCTGGACAGATGGCTGTGACCCACAGAAACGCCATGGCCCGGGAACAGAGCTGTGTCTACCCTGGGACACAGCTGTAACTACCCTGGGACAGAGCTGTGTCTACCCACGggaagggggatccttttctaatttgtacaaaggtgccctgggggTCCAGGTCATGCATAG
1 TCATGGCTGCTGAGGAACAGTGGCTACTGCGTGTCGTTCTTGTGATGCCTTTGTGATTTTGTGTGCAGAGCCTTATTTACAGGCCGCCCCCGAGAGCAAAGGATAATGGTGCATTATCTGTTGACGTGACCCTGGAGAGCTCTAACTGAACTGCACAAATGGGAGAATCCTCCCCTACCGGCCCCTGCTGCTCACAGACAGTACGCTCAGCTCAGCAGGGGCTGCTCTTACAAATGCCATCGCAGCACAG
1 CTCAGATTCCCAAAACAGCCCCCATAGACCACATGCCTTAACCTCTGCTTCTAAAGAAATTGGTTAGGACCACAGTTTTCCAAAGTGTCtgtatgagttcagatacaggcaaagctgctgtaacaaacacaccccaaatgcaagggcttgcaaaagagtcaaagctgatttctccctagtagaacagacagaggtgagtgatccaggctggtggggtgaccctgtcctcagagacatccagaaacccagg
1 CGGACAACAGCCTGGTGCAGGACCCAGAGTGGCAAGAGGTAGTAAGGGGGCCATGGTGTTCAGAAATTGGGGCAGGTGGTGGGTAAGGCATCCTGCTTCTAAAGGCCAGGGTTTGGGAGGGCAAGGAAGCCCCTGGCAGGAGTCAGGGCAGGCATCCCGGGCAGGTAGTGTTTGTTCTGTGAAGCAGGCTTCCCCAAGGAGGGGCCCTAGAGCAGAAAGCTGTGATGTGCAGGTGACTGGGAGACCTGTT
1 GTGTCCAAAAGAATAGTggctgggcacggtggctcatgcctgtagttccaacactttgggaggctgaggtgggcagatcacctgaggtcaggagttcagagaccagcctggccaacgtggtgaaaccccgtctcttctaaaaatacaaagattatccgggcgtggtggcaggcgcctataatcccagctactcaggaggctgaggcaagagaatcgcttgaacccaggaggcggaggttgtagtaagcaa
0.0581793013126003 GGGAACCTGAGAGGAGCTTGAAGCAGAGGATGGGCCCAGAAGTCGCCGGCGTCCGCACCGAGGTCGTACCTCGATATACTCTTCCTCGTCCAGGACCCGCTGCTTGCTCGTCGCAGCCCCAGCCTCTCCCGCCTCGCGCTTCCTCGGGGGCCTGGACGCGGCGGGAAGCAACAAGGACGACGCTGATGCGCCCGGCGTCTCCATCGCTATCCCAGGAAAAAGCTCGGGCCCAGCAGGCGCGTCACAGGGT
1 AGATTCAGAACTGAGTGGACTTTAGACAAGCATAGAGCGATGCTGGGAACTCTCCCACCGGGTTTGGAGCCACGTGGAGGTAGCGTGGGGAGGAAAAGCTGCTGCAAGAAGAAACCACGTGGAGGTAGCGTGGGGAGGAAAAGCTGCTTCAAGAAGAAAGGACGCAGGGGAGGAGCAGGGAGGCAAGGGTCTGAGTGGAATGCGGTTGCAGCCAGGGGCTCCGTGGGCACAGGCCCAGGCTGGACCTGGG
1 aatGTAAAGCCATTTTTGCTTTTCAATCCATCCAAAATGCACACCCCTTCCTCAAAATACAGCTTGGCTGACAGGACCAAGAAACAGCTACAAAGCTGTGTATTTTGCTTGGTCACATAGTGAGAGAGAGGCTGCCggtgagacacgggaactctttaagccttaatttcctcatctgtaagataggaatagtaaaattttcctcatgtaattcaATAAACAATAGCTATTATATCAGGAACCCAATTCC
1 TCTGCGGCCTAAAAGGAACAACCCCAAACATGCCACCCTACAATCAGACACTTCCAAAACACAGTGTACAATGAGCCCAAGCCGTCGGATCAGACAGGCACACCGGAAAAGTCAACCTGTCTCCTCACCTCAGAGACATGAGTTTAAGGTGTGTGGCCCGGGCAGCGGTGGCCGGCGGCGGGGAGTAAAGGTTTTTCATGCGGGCATAACTGGGTGTGTGCAAGGTAACAACCCGGGAACACACACGCAC
1 gcaagggcaaagactgtgtttggcccctctttgtggctgcagctgtgccttgcacaggttcaggcacagtacgggtgttcactaatgtttgctgaatgaatcaatGAACAAATATTCCCTTCCAGTTCTGCTCCACCTCTGGACTCCTGCCCCACAGGGGAGAAACCCTTTTTGAAAGCACCTGTGACATAGTTCAAGATCACCAATGTCGGGCGAGGGTAGGACATGCACCCTGGAGTCCAGCCATACC
0.4853825271859514 TACAATGCACAGGCATTGTAACAGACCTGAccagtgagtacgtgttaatatttccattcgacagcggagaaaactgtgacccaaggaagCAAAAGCAGGACAGTTGCAAACAGATGAAACTGAGGGTTCAAAGTTGGGCTTCTGACAAACTTGTTTAGATTTCGTACGCGCGCCATCGAAGACTACGGTAATTACGCTGTGTGTGGCCGCCACCTAGTGTCCATACAGAGCAATCCTTCCGTGAATCAGC
1 AGAAGATCGCACCCACTTGGGCGATGAGCATGTCCTTGGTATCCCCACCTTCCTGGGCTCACCTCTGCCCCACTCAGGTGTTTAAGACGTGCAGCAGAGAGGCGCCATCCTGACCTGGTGCCACATCCTAGCCCCTTTCCTTACTGGATCCTCAAACCAGAAGAAAACCTGAATCTCTGAGGTCAGTTACTCTCTTTTGCCTGCGTCTAGCCTAAAATCTGGCTTCCAGGACCCCACCCCAACTTCAGAA
1 gctaatttttgtatttttagtagagacagggtttcaccatattggccaggctggtctcgaactcctgactttgtgatctgcctacctcggcctcccaaagtgctgggattacaggcgtgagccaccgcacccggccGAGAACCTTCTCCTTACAAGGAGCTTTTGCTCTATGGCAGGGTTTCTATTAtattcaaattctgggagaggccatcctttgttgaggggccatcctgtgcactgtaggatgtta
0.0449504909209382 GAGGGATAGGCCAGCGGGACCCCACTTACCGAAAACACTGCATTCTGAAGCCCAAAAGGTATGGGTGTCAGTCTGGCCAGCGCCACCACTTTCAGGCCGCTTCCTCCCTCCACTACGCGAATAACCGCGCTCAGCTTCTCGCTGCTCTGGATCCTGGCGGCCACCCAGGCGGTGAGGAGCCGCTTGCAGACCACATGGGCGATGAAGGTGCCGATGAGGACGCCCACCATCATCAGACCCATGCCCAGCA
0.8783724492749241 ACACCCCGATCTCTCCCCCTGCCTCTGGCCGCCAGGGTACCCCAAAGCCCTCCTTGAGGTAGGTCCTGCAGGCGCCGGGGGAGGGGTACAGCTGGGCCCCCCAAGCCCTGTCGCAGGGGGCGGCACCAGAGCAGATGGAAAGAGCTTTTGAGCCTTCTCAGCTGCAGGTCAGCCCGGAGCCGCTAGTAGGCACTGTTGTGTTCACGCAGCATCAGGCCTCAATTCAGGCCTCTGGGTGCCACCTGGGGCC
1 CTTGCACCATGAGTTGCTACTCCTGGGGTGCTGGACTGTCCCCACAGCCATCTGTCTCCCCTGCTCCCCATGAAGAAGAGCCAGTCCCCTCCCAGGtagcacatcagagcgggcaggctccagagctcttctggtcctcttgcagtggccagaaagtggggaaaggggcccagagaggggcagggactgacccatggtcacacagcctatttatggctgatctggagccaggccttctgactatcaccca
1 aagagaaaaaaagcctccttcctcttcAAATTCCTTCGGTCCTTGATTGAGCAGGGTGGGGGCTGCTTGTTTATTCATTAGCAAACATTCGTGAGCCCTGAGCTAGGAGATGGGGCGCAACCATGAACCCAAGAGGCCCAGACTGCAGCCCCACAGCACACGCGTGAAGTAGACAGGCGGCTTCTGCGTGCTTGCAGAGCCCCGCGCCGGATGTGTCAGGAAGGGAGCGCACAGGGCGCTGAGCAGAGGA
0.6816462976116828 TGAAGGGACAGGTCACACCGGCTGCGGGAGGGGCTGCTCGGCGCCACTGCGCTCAGAACGGCCGCGGCGGTCCCGGGCGCTCCGACGCCGCTGGGTTTCCTCCCATTACAGCATGTTGCACTCCAGCGCTGCACTTCACACTCGCACACGCGCACACGCACACGCGCACAACTCCAGGCGCTCGGCGGCGTCCTTCCCCCGCCTCGCCCGGAGGAGGAAGTCCTAGTAAATCAAAACAGGCTGGGAGGGA
0.897400207821473 AATGTGCTGGGTGCAGCTTTGGGTAATACATATGCCGAACCTTCTCTTTAAGGGTCCACGCGCAGCCTCGGGTGTGAATGAAGGAGAAGAGATCGTGTACCACACATGATGCTTACGGAGCATAACACGGCAGGGGGCGGTAACGGGAAGAGCGTCCGCAGGCCCAGCCCTGGGATACCATTCTGGCAGGAGAAACAGGCAATACAGACACAGACAAATAAATGATAGATGAGAAAAGAAAGTAAGGGCA
1 TGCCTCTCTCTCTGCGTTTGTGTGTGCCCTCCCTTGGTTCTGGATCTTTCTTTACCACCACTCCTCTCACTGCCTTCTGTGTCCAGCTCCCAGGCTGCAGGAACCTGGCAGGACTGGGAGTCACGAGTTggctgggcctggggctggtgggtggctgtgggggaggagcgaggcctgggAAGTGGCCCCTACAGCTCACATTCCAGCCAAGAGCAGGGAGGCCAGGGCAGCCCCAGCTCTCACCCCAGTG
1 TTTGACTGAGATCAGCTGGCAGCTCAGGGTCATCATTCCCAGAGGGAGCGGTGCCCTGGAGGCCACAGGCCTCCTCATGTGTGTCTGCGTCCGCTCGAGCTTACTGAGACACTAAATCTGTTGGTTTCTGCTGTGCCACCTACCCACCCTGTTGGTGTTGCTTTGTTCCTATTGCTAAAGACAGGAATGTCCAGGACACTGAGTGTGCAGGTGCCTGCTGGTTCTCACGTCCGAGCTGCTGAACTCCGCT
0.9085241524686715 CCTGGATGGCAGGACCCCAGCCCCTGCCTGATGGGACCCGCATCCTCTGGTCTGGGAAAGGCCCCTGAGCCGCTCGTGTGTGTCGCCCGCCACCTGGTGGCCACTCTTGGGATTGCAGGGTCCTGCATGGGAACCTGAACCCTGCCCCCCAaccagccttggccacctgtgccactgcctcccgcccagatgaaccaaggggcctcctccctgggtccccacgtctaccctcagcccccacagtctatta
1 TCTGCTCCAGGCAGGCCGGGGTGCTGGGAGCCAGGCCTGCTAGTGGGAGGAAGCCCACGGTGCATGCTGTGTTCTGGTGCCCAGAGTCCCACAGAGCCGCCACGTGGGCAACTCATGACACCCCTCCTCCCTGCCCATCCCCGGCTCACACCCCGGGACCACCTCCCACAGTAACCACCTTCACTCAGACCCTTGTTTCCTGGGAAACCAAACCTTCCTAAGACACACGGATGTAGAAATCCCAGCACGC
1 AGTGAGGAACATCCCACAATCTGCAATGGTAGCCCCAAGGCAGAGGCCCCCATTCTCTGGACCTGGGGACAGGCTCCCCAGGCCCCAGCTGGAGATCCTGCAGCTACATTCAGTCACTCCAGTTCTGGGTCTAACCCACAGCTTCCTGCCATGAGGCAGCCCACCTCTCCTTCTCTCCTCAGAGGCCCTAAGCAAGCCCTCTGGGGAAGCGCCAACAGTCCTTTCTTCCAGGCCAGCCTTCCCCTCCCTG
1 GGGCCAGGATTGGGTTGCTGGTGCTGAGAGAAAGCCCTTGATTGCATCCTTGCTCTGGGACTGTACCAGTGGCAGCTGTCACTTAGTGGGACAGAGAGAACAAACAAACATGGGCGCTGATAAATAGCCCTGCATGggccgggcgcagtggctcacgcctgtaatcccacattttgggaggctgaggcagagggatcacctgacgttagaagttcaagaccagcctggacaacatggtgaagccccgtct
0.8674621559977631 GCCCCAGCAGTGCCGACCTCACATGCTTCTGCATGTTCGTGTTGTGGCCTCACACTGGGGCTCCTCATTGGCCTGAACACAGCAGGTGCTTCACGCCTCACTTTGGGTGAACCAGTGAACCTCCGGCCCTGACCTCATGCCCGGTTCCCTGCCCCCTGGCGAGGGCCACCTACATGTTGCCCGCCTCTTCCTCTGTGGCGATCTCGGCTGCCACAGCCTCCTGCTGCTTGTCGATCAGGTCCCGCCTCTG
1 ATGATTTTCATTCGCGTTAGGCTGGGTGGGAGGGTCCACAGGGGAGCCACTGACGATGGGCATCTGCCCCCGACACTGGCTGACTAACCAGCACCATTAACCCTGGGCTCCGAACGGCAGTCACACCAGCCTGTCTCAGGGCCAGGTCTGTCTTTTCCCTGCTTCCCACAGAACGGCCCGCAGTGCATTCCTTTCATGAGTACAGGAGCATACGGATGGGttttaagagactagtgcggagctgtggctt
1 CCTGCAGTCAAATCATCCTATGGGAAggcagcctgagggtgtcacacaaacaacacgggctttcagtggagacggattctagtttccagtcttgcacttactagttgtgggcacagggcactcagtgtttctgaccctcagctttcctgcctgtGGAGGCGTGCGTGATAACATGTGGGCCCCAGGGAGGAGTTCATGAGCTGTCGCAAAGCACATTGGGACCATGAGTGGTTTGCTTCTTTCCTCAACG
1 AACCCCACCAAAGGTGCCAATGGCTCACAATAGTCTGATTCAGTGGCCCTTTCTCAGTTTCTCTCTGGATCTTCTGAAACTGTCCAGCACCCTCCGTTTCTCCTAAAGGTCTCCTCTCTTGGCTTCTGCCTAAAACGTTCTTGAGGTTTCTCCATTCCCTCCTTTCTGGAAGACCCTTCTCTGTATCTGTGTCAGCCACTTGCCCTCAGCCTTTTCTCCATCACCTGTGGTTCCTTCCAGGCCCCTTGTG
1 ggacggggcggagcCTTCCCGAGCTGCGAGGTCGCTGTCTCCTTGCGCTCGCCACTGGCTCTCTCTGCGGCAGGTTTCCCTCCGGTTACCGTGACCAAAGGGGAAAGACGCCTGCCTCCCTGCAGGCCCCAAGATGTGCCCCAGGGGATGCGCTGACTGCAGCCTCCGCTCGGCTCTCCCTTGAGACTGCAATCACAGCCCTCCGTGCACACCTTCACCACAGGCCATTTCACCCGCGAAGCGGCCGAGT
1 CTCGGGTCTGGAAGGAACAAGGCGAATCGGCTTGTAGTGGCCCCAGCgaggggaggaggaggaggaggaggaggaggaggaggaagaggaggaggaggaagaggaggaggaagaggaggaggaggagaaggaggaggagaagCCTCCCCAGACCGCCAGGGGTCGCTGCCGAGCCGCAGGTGAGCTCGCCCCGAAGCAAACCCAAGCGCCGAAACCCCTAGAGTAACccttagggggttatctggcggac
1 tgcgcgcgcgcgcgcgcacacacacacacacacacacacacacacacacacacacacacacaGTGTTCTTAGAGCGCAGGCTGTCCTGTCTGGAAATACATGTTTAATGCTTTTGCCACATATGGGCAGAggtgagtgttgagaggactgggtatgaagttgggaacccaagtctgaatcctggttcagccatcattaaatgtgtgaccttgggcaagttacttaacctctctgagcctcagtttcctca
1 GTTCGCGGAGCGTGGGAAGGAGCGGACCCTGCTCTCCCCGGGCTGCGGGCCATGGCCACGGCGGAGCGGAGAGCCCTCGGCATCGGCTTCCAGTGGCTCTCTTTGGCCACTCTGGTGCTCATCTGCGCCGGGCAAGGGGGACGCAGGGAGGATGGGGGTCCAGCCTGCTACGGCGGATTTGACCTGTACTTCATTTTGGACAAGTAAGTGCCGCGAGTTGTCCCCCCCACCCCAGGCTAAGCGGGCGAAA
1 gtggataatgaggtcaagagatcaagaccatcctggccaatatggtgaaaccctgtctctactaaaaatacaaaaaattagctgggcgtggtggctggtgcctgtagtcccagctactcgggaggctgaggcaggagaatcacttgaacccgggaggcagaggttgcagtgagccgagatcgcaccactgcactccagctaggcgacagagcaagactccgtctcaaaaaaaataaataaataaaaaata
1 GAATGTGTCTTGTGTTGGGAACCTGCCTAAGAGTGGAATTTGATTTGTCGCCTGCCCCTCAGGGCATTTAAACCAAGGGAATGGGGGTGGGGTGGCGATTTGGGTGTTGCAGAGAAATTCTGACTGGTCCATCTGTTCACAGTGGGTTGTGTGGACCATGGGGAAGCCAGTGGGGTTGAGGACAGAGTGGGTTGACTTCGGTGTGAATCATGGTTCTGCCGCTTGCTGACTCTGGTTCTTATCTCTAAAA
1 TGCATCCTTGGACAACTTCCAGGTAAAAGGACCCCATCCCCTTGGTCTGGCTTATTTTCTGGAAGGAAGAAGCAGGCTCAGGGAGGTGTGCACAGACTAAAGATAGGTTGCTGGGAAAATACTGGGGCTTGAGCCACCGACGGGGGCACGGCGCGGGCACTGAAACGAAGAACTCTAGGGTGCAAGATGGGGGAGGGGCTGAATTTCCCTATCACCATCTCTTCTCCTTAAGATATCAGGATGTATCAGA
1 CTCTTCGGGATTGTTCTGAAAAGAAAAGGGAAAGGCGTGAAGAACGGCACTTGCGTGCTCACGTCAAAGCAAAAGACCCGGCTGGCCGTTCCAGTGGAGACTAGCCTCAGACACACATGCCCAGATCACTCCAGCTGGCACTTCCAGTGGAGACGAACCTCGGACACACATGCCCAGATCACTCTCACCCAGAGCTGCCCCTCATGCATACTAAGGAAATTCCCAAACACATCACAGGTGACTCAGAAAT
1 CCTCTGCAGAGGCAGAGGCCAACGGGGAGAAGCCCTTTCTGCTGCGGGCATTGCAGATCGCGCTGGTGGTCTCCCTCTACTGGGTCACCTCCATCTCCATGGTGTTCCTTAATAAGTACCTGCTGGACAGCCCCTCCCTGCGGCTGGACACCCCCATCTTCGTCACCTTCTACCAGTGCCTGGTGACCACGCTGCTGTGCAAAGGCCTCAGCGCTCTGGCCGCCTGCTGCCCTGGTGCCGTGGACTTCCC
0.3989041770316156 caggagtcaggaagatgacctggacgcagagtggaggagagcaagggcaagctggagcctgctggcgccactgcagttgtctgtcccacatctaactacagcgaccttgcaacagtagaggctgtggcttccttacagccttggaaatctcacacagctcctcttttggtcaactctaactgggaaccactcgagagccaggattctgggaaatgtggttccagcctagccaggttggcacggaacTGAC
0.9167081657213475 AATCTAGGGCTAAGATTTTAGGGAAGGTTTTTACGACCTGTTCCCTCTCCTCCGCTCCCCCGTGCAACGAAGCACCTAACCCTTCGCACAGTGCCCGTCTGCATCCCCCAACCAAAGCCGGGAGCGTGGCGTTTCGGGAAGTTAGAGGCTGAGGCGGTAATAGGGGAAGGGTTTGTGGGGCCTGCCCCTCCCCCGCAGCGTCGCCGGGTTCCCGGAGCCGCCGCGCCCTCCTCGGCCGCCCGCCCCGGAT
0.8383008517656044 CATGCAGGGTCCTCCTCAGCTGGCCTGGAGGGAGCCCCAGCCCATTGGCCTTCCCCAGGGTCACCTCAGTAGCCTTCAGGCCCTGGCTGCATTGTTCCAATTCCTGCAGGTTTGGAATGTCTCTGTTTACCGTCAATGTCAATATGACTGGGAGAACATCCAGTTCCCACAGGCCTTCTGGGGGCTGGCGGGGGACACAAGGCTGAGAGATGGGAGCAGGCCACACCTGGGCCCCCCAGCTCCCTTCAGG
1 TGCTTGGGCCGGTGCTGGATCCTGGGCTACACTCGAGGGGCCGTCTGTCGCATCTGCTGAGCACAGATGTCTGGAGAAGGCCCCATCTGATCCAGATTCCAGAGGACAGAGGAGTCACTTCCAGAGCTGTTCCCATGACACTCAGGACAGGCTGGGCAGGCCAAGCCTCACCTGCCCCACTGCATAGCTTGTGTTTTCCTGAAACCTCCTGATCCCCACCTGGGCCCGACTGACTGGGGATGTCTCCTGC
0.6705909028386079 TCTAGATAAGAAAAATCAACATCCTGGAGAGTTCACTGCGAAGAGGGGAAGAGGCTGTGTGAACCCTGCAGGCAGGAAGGGGAGTCCTGGGGGGATACCCCGGGACTGTCCCTCATACTGTTTGCTCAGGTCCTATCCCCAGTATGAGAGAGCACACCTTACAGCCAGGTGCTTGCGGGAAGTCCCTGTTTTATGGGCCAGGAGGAATGCAGTGGAAAGATGCTGCCAAATGATTGTTCTAGCCTGTGTT
1 tgctgtcaaagctatttgagctccttgtgggaggagcagcagccagtactgggatttgcatctgcctaacacaaagctccctgggcaggggaagggaggcatccatctctatagccccaggctgtgcttttcctctgttggagacagggaggctggacggcttggtcccaagacttgtccctcacagtccaacacatctgcttgcagtctgtggccagagtgcctcttcaggcctgaccctgacccatcc
1 CAATCTGCTCCTCAGCTGAGCCCACTCAGCCGTCCCACACGGCAGGGCCCTCTTCCCTCTTGCATGCCTCTCCCTCCATTTTATCCTCCTCTTTTCAGCCCTCCTTGACCCCAGACCTGTGAATGACACACACTTAAGGACACAGCATAGTCCCTCAGTGGGACCCAATGCTGAGTGATGAGTGACTCATTAGGAGCAGTCCTTGCAGATGCAGTGTTACATTCATCCATCATGTCCCTGCTGAGCAATT
1 GTGGACAGAAGCTGCAATACCAGTGCCTGGGAGAAAAACCTTTTCCTCTGATCCATTTGAAGTCCTCTCTCTAACGGGCTGCCTTTAATAAAACTAAAAGCTGTCTCTACCTGCGTCTGGGTTCTGAGTGCTGTAGAGAGAGAAGGTAACCCAACTGAGTAGAGACTGCTCTAGGTTGTGAGTGCAAATCGAGGCTTCACTGCTGGGATGACGCCCCCTCAGGCCTCAGTTTCCTAATAAATAGAACAgg
1 ACGGTGACCTCCATCACAGGCCTCTCCATCTCAGCCATCTCCACCAATGGCAAGGTCAAGTCAGGTGGGCCATCCCCCTTTCCACCAAGGCCCTCCTCTCGTGGGCTCCTAATCCTGGGAACAGGACTCCCAACTTCCCCAACCCAATGGTACACCCAGCCGCTCCTGTGGTTCCGGGAGAGGGCTCTAGGCAGGCTGTCTACACCACGAGATGGCCTCAGCTATCTCCTGCCCCGTGGGTCCTGTGGCC
1 gggattacaggcgtgagctactgcaccagaccTTGTTTCTACACTTTAAACCAGCTCCACGGGAGGCCCCCTGAGGCCGCCTGCTCCAATCCCAGGCAGTGACAATCGTGCAATGTCCCTGGAGCAGGAGTGAGATAATCAGACGGACCTGTTCAGGACTGGGCAGGTCTCACTCCTGGCTGGATCCTTCAAGCCCAGGGCAGCCCCCCAGTTTCCACACGTGGGGCAGCAGGGACTCCAGGCCTAACTG
0.479683101980194 TTCCACTTCCGCGTCACGGTGCGGGGCCGGGGCTGGGGCCGTCCCTCCCCAGTCGGGGTCCGGGACCCGGGCACCTTCTCACCCCCTTCAGCCTTGGGGCCCAGGTTTCCCTCTCGGATCTGGGTCCAGGGCGCGCTCTTGCACCTCCCCCACCATGGTTTAGAAGCTCAGGCCTCCTCGATTTCCCCCTCCCTTCCCCTTTCCCCCGCCCAGGGTCTGGAGACTTCGATCCACGCCCCGCACGCTCCGG
1 TCTCCCTTCCTCTCTCCAGACGCCTAGTCCTCACATGGGCACCTTCCCTTTCCTCACCCTCCAGGGTCGCCCAAATCCCATAGCCCTTATCACGTGCTGTGGATGCCAACACGCAGCCAAGCCACTGTTTCTGGGGAGCAACCAGGGGATCGGGCAGCCCAGGTAAAGGCTGCGGTCCCAGAGCTGTGggaagggaggggacaggacaagaaggaaaggaaggaaAAGCGTGCGGAACCTGCAGTGCAAT
1 agcactgtgaagatccctgtcctgttctgttccgttctaattaccggtgcatgcagcccccggtcacgtaccccctgattactcaatcaatcatgaccctctcacgcggacccccttaaaagttgtgagcccttaaaagggacaggaattgctcactcggggagctcggttgttggagatgtgaatcttgccaaagctcctggccgaataaagcccttctttctttaactcggtgcctgaggggtgttgt
1 TTTTATTCCTGTTAACATATTTCATACtatgttagttggaattcaattgattgtatgtgacaggaagccaaaacctactggcttaagcaaaaagaggatttgtcactaacatgaaagaaggttcagagacagggctgacttcaaacatgtccgagttcagagatcaaaggatatttatgagaaggtgatttcccttcatctctcagctctgccttctgttgtgctagcttcatacagctgcaaccatgtg
1 GAGTCCTCTGAGGGTGACGTCATCGGGACGTACTAAGACTAGGGTTGGGCCGAGAGTCGGAGCCATTACTGCAGGAAAAGGTCCCGGAGAGCTGAGCAGTCAAGATGGTGGGGCCCAGGTCTTGGGAGACGGGCAGGATTGGGGACGAGAGGCAGGAAGAGACGGGTGGGGGGCGAGGAGAAGGCAGGGGTAGGAGGCAAAGGGAATCTGAGGACCCGAAAGGTTGGAGGTGGGGTTGGAAAGACTGGGG
0.09724690054567188 CAGCGCTCCATCTCCGAAACTGCGTGGGGGATGGCGTAGACCTGTGCCCTCCGAGCACCGCTCCCCGGCAGTCGGGGATCCTTTGTGCTGCCCGGCGTTCGGCGCGGGCTGCAACGTTTCTCCCCGTGGCTTGGGGCAGAGCACCGCAAGGAGGCGCTGTTGGACCCTTTCTCTTTTGCTTTGGGGGTTCGGTCTACCATCATTCAGTCCTTTACTAGGTTTAGTATTTACTAAGTGCCTACTGTATGCT
0.3136064752987536 GCGCTCCATGCGGCCGGCGGCCGAGCCCGCGCGCGCCTCTCCCGGCCGGCTGCGCCCGCGCGCTCCGGGCCTACCGCTGCCGTGCCTCGGCGCGAGCTGTTTGTGTTGTATGTTTTCCACCACCGCCCCCCTCTTCGCGAGCCATTCCTCACAACCCTCCGGTCCCCCCGCTCAGACAAAACCCGGACTGGATTTTTTTTTTCTCTTACCCACAGTCTCCGAAAGTCTGGCGCTTCGAAGCAGTTGGCCC
1 CCCACTGGATATCGGGTCTGTTGAACTCCCTGTCTGTTTCCTGAGCGGAAAGGTAAATAGCACTGGGGACTACTCAGTATTTCCCAGAGGTTATTTATGAATGCAGCTCAATGGCCTGCAAATAGAAGTATTTGCACAGTGAGGTGTCCTAAGGTAATGGGGAACACGGACTGCTCATTGCTAGAAACAAACAGCTGTGACCCTAACAGAAGGAGCAGACCAGGGCTTCCAAGTTCCCTGCCAGGGCAGA
1 TCCTGAAAGCCCTTCTGGGCCTCGGTCAGCTCTTGTTGCAGGAGATGGGTGACATTGCGACACTCCATCACTGCCCGAAGGCCGTCCCGGCAGGCCTCGCTGTTGGCCTTGATGGTGAAGATAATCAAGGGCACCCCCAGAATCACGATGATCAGGAGCACCAGAATTCCTATCCCCAGCAGAAGCTTACAGCGCTTATCCCCGTCTTCCATGGGCACTCTGCAATAGTCATACGAAGTAGATGCCATCC
1 tctctgttgagttgtcatgaggattaaatgagttctagatccaaaatgtgtagaaatgtgcctgacacaACAGTTGTCTATCCAGTTCCCAGTTCTGAAGGAGACAGAGGTCTTAGGTCTGGGCACAAAATGGATTCATCCTTCAGCCCTGGGTTGGCATGACCCCTAGAACTCTTTGTGGGCTAGCATTGCCATTCAGCCCTTAGTGCTGAGGATGTTGAGGGGCCTTGGAGGAGAGCCCACTGGACAT
0.2031115846372878 GCTGCCGTTGAGCTTCTCTGGAAACACGATCTCCTCCTCCCGGGGGAGGGGGCTGGCCAGCCGGGCTGAGGGCAGGAGAGAGGCcagcagtagcagaagcagccacaccagccaggagagcggcaCAATGGGGAGCAGGAGGCAGGGTTGGGCTCCCCACAGCCAGCGCCCTGCCAAGCCCCTCCCGGGATGCGAGCCTGTCTGGGACATGGCACTGGTACTGCAGCTGGGAGGGACTGAGGCCGTCTAG
1 GGCCTGAGGAACTCTCAGAGGATTCAGAAGCGAAAGATCAGTCTTCCTGACCTTTAAACTGCATTTCAGATGCAGGCAGGGAGAAGGCCACGCCCACCCTGCTGACTGAGCGGCAAATGGCCCATGCACACTGAGGGTGGGCATTAGTGTCTCCATCCCCATGACCCAGGCAGGCCTATACTGCCCTTCTGGTCCCAAGGTGGGGGTACAGGGCCAAGTTTACCCCTCTCTTCCTCCGCAGCCTGTCCCC
0.01130922359787404 CCGAGGAAGTGCGGCAGCGTGTGCGCCGCGTTGCGGGCGAGGACCGCCACGAGCACCGTGGGGCTCTGCAGGGGCGACTCCGGGAAAACCACCGGCTCCTCTCCGTCGTCCTCCGAGTCCCGCTCGGCGACGAAGCGCGCTCGGCAGCCTTCGCGGAGCAGGGCTGAGGAGAGGAGCAGTAGCGACCAGGCGAGGGTGGCAGCAGGGCGCGCAGCCATGTTCCGGGCCGAGGCGGGCGGCGGGGAAGTCC
1 GGAGAACTCTCAGGCAGAAGCCCAGCCATGGGAAAGAAGAGAAAATATGGTCAGCAGACTCAGCGCTGGGTGCTTAGGTGTCCTGTGGGTCCTGGTCCTGAAGGTGGGGCAGGGTGACCCGCCCATCCCCAGCCTCATCACATGCTCCTGCCCTCTGTGGCAGGATGAGGCCCATGCCTGGCCTGGCGGGAGTGGATGTGAGGGAGTGGATGTCGCACTCTACATCCAGCCTGCAGAGTGACTCACAGAC
1 CCGCCACCAGCgcggctgctcgctgctactcttgctgatgctctgcCCCTCCAGCTCCGGAGGGGAGCGAGGAGGGGGCGGGGCGCGCCTCGAGAGTGACAGGCCCGGCTGCCCTATCAAAGAGCCCCTTGGGAGCTGCGAGCCGCAACCATTGGCGCCTGGGGCGTGGGCGGGACGGCAGTAGGTGGGGCCGCCGAGTGGGTTGAGCGTTACTGTGGCAGCGGGCATCCCAGGGTGCGTGCGGTGCAGG
0.514172394217977 CCTGTGCACGTCGCAGCGAGGCCgtgtgggggtgtgtgtgaatgtgcacgtgtgcgcgcgcatgtgagtgcgcacgtgagtgagtgtgagtatgcatgcgtgtgtgtgCCCCTGTGTCACCGGGCTCTGCTTGTGACTGCGGAACCTGCTGGGTGCTCCGCGGGGCTGCCCTGCACTGTCCTCCAAGGGCCGCTAGGTGGCGCTCCCGCCCTTCCCGGGGCCGCGCTCATGCCTGGAATCTTCCCAGGCC
1 gcactccctcgcgcccacccgcgcgcccggccgcgtcgcccccagcccgTTGGTCCCCGGACTGCGGACCCCGCCCCCGACGGGGGCCAGGTAACCCGCTTCCGAGTGTGCCACGGCGACCCCCATCTCCCCTCCCCGTGTCATAATAAATCTCACGTTTTCTGCCGGCTGGAGGCTTGGAGCGGTGAGGTGACGTTCATTTCGGCCGCGTGAAGTTTTCTTTCAAACTGGGATTGGTGGGGAGGCCGGG
0.9994427080224257 ACCTCTGTCCCTCGTTTCCTTAATATCTAATACTCATCCTTTCCAGAGCACCACTGTGGCTGTCTCGTTGCTCTGCCTGTCCACACAGGCCTGTTTGTGCTGTAACAGACAAGCAACCAGCAGCCCAGCCCAAAGCCACGTTGCAGGGCCCAGGACTGCTCTGAGACACTGCCACCCAGTGGCGCTTCTGAAGCATAACAGCACACAGAAAGGGAGCAGGGAACCCAGTTTTATAAGCATGGAGGGGGTA
0.5013824754852017 GCGCTTCCTTCCTTCAGGGGGGCTGGAAGAGCCCCTGGCTCCCGGGCGGTCCTGGGGACCGGCAGAGGCCCTCAGACCTGAGCACTTCCCTGAGCATGAATGGGAACGACCaggaacgaagtctgacccaggccacgtgcggagaagccccgaaaaccctgtactctgtgaggcagcagacacccaggccacacgcggtcacattccattgccatgagacgcccagagcaggccagcccggggatccggg
1 TGCCTTTTGTACCCGATGTTTGGGGATTTCCATGTGGTGGACAGGTGAGCTTTGCTCTCCCAGCTGCCAACTGGCTGTAGTGCACATGTTTTGCAGGTGGTATTGCTTCGTGGTGGGTCCACACTATGAGCTTATCAGGCAATGTGCTCAAAGGAAAGGAAGGCCTTGCGAAGTATGTGGCACAGGTAGGGGCTATACGCATATTactgtgtccccccaaattcatatgttgaagtcccaacccccagta
1 GCATGCTCAACCGCAGAGCACGACGGGAGAGGGGCGGGGTCGGCGGGGCCGTTTCGCTTCGAAGATTGTTTCAGAAGCGTTGGGCGGGGCGTCCCTGAGAGAAATTAGTAAGCCTCCTCATGCGGCTCTGGTTTCGGTCTTTACTCCTGCGCCTTACTCGAAAGGGGCAGGGTTTCTGCTGTCGGTCGGAGGGAGGATGACGCGCCGGGTCGGGGTTTTAGAGACGGAGCTTTGAGTGCGGATTCCGCCA
0.3170517423006659 ctaaggttatatgtcctttgtcttccagtaccagggtgggtagggaaggaccatcaggttggggcagggctaggtgtgtctgagttcagactctccttgggcgggtcttgctgtggctgctgtgagattcccaggtcaccagagctgtgtacctaggaggattaccgctgctcctgctgagtcatgcaggttgtccgggaagaggggaaaagccggcaatcacaggcctcacccagctcccacgcaaacc
1 CTCGCCTGGAGAACCTGCTGCACGCCCTCCCCAACACGCAGGCTCTCAGATGCCCTGCAGGGTCAAGAGGCCCAGGAGGGCCAGGCCTCAAGGCTGGGCGGGGGATGGGGTAGGGTTGTCCCAGCCTCCTGCCAACACCACCATCCCTGTCACCGGGCAACGGGAGGCCAGGCGCTATGGCTCCTCAGCCAAGGCCTTCTCTGCCTAGGGCTGAGAACAGCCCCTCTACAGCAAGCCCCCGTCAACATGC
0.6061545901888852 CACGTCACAGGAACAAGGGGACAAGCACTTTCAGGGTTGGGTGTGCGGCGCATGTCAGGATGTCAAGCCACGAGAGGAAGAGTGAGCCTCGGACCCAGGAGAGCAGAGTCTCATCCCAGCACGAGCGTCTCCAGCAAGCCGGACTGTAGAAAGGCCCACGTGCTGCTCACGATGCCTCGGGAACAAAGTCCTGTGTTAACCTTGCAGTCAAGGTAAAGGGCGCAGCTCTGCCCGGGGGCAGGGCTGGGGA
0.2833190250993726 acgtaatatctcagccaggcttcaaagatcaggaagattcaggcagggagagcagcccaggcaggggccacatgagcagaggagcacagctaagggtaaactgAAAGGCCACTGCCACTGCCCGCGGTGGGGAGGATGTGGCTGGGGGGATGGGAGAGTCAACACCTGGGAAGGCCTGGAGTAGAAAGCGGCATTGCCGCTGATTCCCATGCAGGGAGGCTGCCCTTCCCCCAGGGCACCGCCTTTGCCA
1 agatggttgagatggttCCAGAGGACAATTCCAGAGGACggttgagatggttgagatggttgagacggttCCAGAGGACAGTTCCAGAGGACGGTTGAGATGGTTGCTCCAGCACTGACCCACCTCCAGGCCCCTCCAGGCCATGATGATGGCCCTCATCGCCTGGCGGTTTCCCCTCTGCACCCCCAGGCGCGGTGACCCACGTGTCCTGCATGATTGCCCTACTGCTGTGGAGACCTCGTGCTGACCA
1 CTTTGATCATAATCTATCAATAAATGAGATGACTATTGTTTTCTTTGATCTAGTTGTCAGTAAACAGCTCTCATTCAAGAACCATTAGGCACTACAAAGGTGAAGGGCTATCCCTGTTTCAGGACAGCTCAAACAAGTTGCTTTCATAGGTGTGTTTACTTGTTGCTTTGTTCTTTATTTTTCAGCTTGATGATAAGGGCTATGGGGATAAGAGTATTTGCTTCTTTCTGCTAGTAATCCTGGGACAGTC
1 tctTTTTCCCCCAGCAGCTGTGCAAAGCTTAAACCATGTGACCCTGAAAGCACAACACTGAAAGCCTCTGGCTGTGCCAAGAGGAGAGTGTAGGGAGACAAAggccaaggccagggccagggccagctgccaggAACTCCCATCCCCAGCAGGGATACAGAGAAATAACAGCAAGACGCCATTCGCCGACGCTCTCCTCATCAGGCCAACTCTCTAACTTGGAGATGAGGCCCTCCCGACTTTCTTTCCC
1 AATTGCCAATTGTAAATGGAATAAATAATAATATTTATGTTGGATTCCTGAAAACAGACCAAGGCTGCTGACTTGCCATTTAGTCAGATCAAAAACAAATGGCTAAAGTATGCCAGACATGTGAGGAATGTGGAGGGAAATTCCCAACACCCAACTGGGTGCTCGCCTGCAGCCCCTGGAGAGAGATGGGTCAGCCCACCTGCAGGGCAAGGCAGCCTCCCCCAGGGTCCCCTCCACTGGTGGGAGTGGG
1 tgggtcacacagccaggagttgctcgggccacgattggtctatcccagaacgaagtctgAGCAAGCTCTAGGCCCCTGAAAAGGAGTAAAGCCCCCCGCCCCACACTAGGTCCCTGAAAAGGAGTGAAGacacacacacacacacacacacacacacacacacacacacacacacTCCACACTCTTCCACACTCTTCCTCCCTCCACTCTGGGAAATGAGAAGCTCAGGTGCTTCCCGCAATCTGTTCTC
1 CCACGGGGCCCTGCACAGCACAGGCCACTGTGGATACTTCTGGGATTTGTGGCTGAGGAGAGAAACTTAGGAAAGACAAATGTCACGGCCCTTTCACAGCAGACACTGGTTGGGCCTGTGCTGTGGCCTGGAGGCCCAGCTTTAAACGGTCTCTCCTTTCTCACATTTTTTTATCTTAGGGGTGGGGAGACTTTTCACATAACAGCCTTTGAGGTTGTGGGGtgctatggtttggatgtttgtcccccca
1 gggaggccgaggtgggtgtactacctgaggtcaggagttcaagaccagcctggccaacatggcgaaacctcgtctctactaaaaatacaaaaattagctgggcgtggttgtgcacacctgtaatcccagctactcgggaggctcaggcagaattgctccaacccaggaggcaggggttgcagtaagccaagattgcaccactgcactccaacctgggcgacagagtgaaactccatctcaaaaaaaaaaa
1 gaatggctcagtcacttgcccaaggaaactgtggggccagggcttgagcccaggcactctggctccaaagcctatgtccctgaccaccatgctatattgcctcTCAACCTGCTGTACAGAGGCCAgttttagtttgggttcccccaatagcagactctaagacaagggtttgagtgcaagtggttcatatgggaagtggtcccaggaagcactggtaggggcatgaggaagggagatggggagggtgttt
1 gcagcagcatgatctcagctcactgaaatcttggcctacctggctcaggccatcctccctcctctgcctcctgagtagctgggactacaggcactcaccaccatgcctggctagttgttgtacttttttgtagagatgaggtttcaccatgttgcctaagctagtctaaaactcctaggctcaagtgatcctcccgcctcagcctcccgaagtactgggattgcgggtgtgagccgctgtgcctggctgc
0.7484841543492352 CATAACACCTCTCTGCACAGGGCTGTGGAGGGTGCTGACTCTAACCTGCCCAAGACCAGAGAAAGAAATGAGAAGAGCTGCCCGAGGGACTGGACTCTGCTCCAGAGCGGGGACTGGGTCAGCTTAGCTGGGGTCACACACTGTTCAAGGCTGCCTCGGTCACCACCCGGGGAAAGCACCTCACTCAGCCCTGGGAGGTGCTCAAagagtaagatcaaagtgaagtcagacaaaggaggcaatgaacacc
0.1309832830455318 ACGGTTGCCACAGGTTGAGACAGCGTCCTAGGACGAGGCTGGCCTCAGCCCCACGACCCCGCGGCCACCCCGACAGTCCTTTTGTTCCCTCGCGCGGGCGCCTGACACTCACCAAGCGGATGAAGCCGAAGCCACGGTCCCGGTTGATGAAGACTTCGCTGGGCTCGCCATAGCGTTCGAAGAGCCTCTTGAAGTCCTCCTCCGTGATGTCGGTGGGCAGATTTCCCACGAAGAGGCGGCAGCGCTGCGT
0.4267138198400436 CTCCAGGGGGTGGCGGGACCGAGTGTGTGACGCACTTGCGTGGGAGTACGAGGCTGACGCGGCGGCCCTGTCCCCGTAACTGTGACACGGGTGCACGCGAGCGTCATTGGGGGCGATGGGGGCCGTGCTGGGTGCGCGTTTGCACCAGTGACGCAGCCGCTGCATCTCCGCCAGTCCGCGCAGGTGAGATTGGTGCGCGTGGCTCCGAGGGGAGACGGGCACGGGGCTTCTGACGGTGACGCACTTGCTG
1 GTGGCCCCTGTGGGACAAGTTCACTGTCCAGCTGGCCCTGGCCCAGCTCAGCAGGCATGCAGCTGAGTGCTCTTCCCTCCTTCTGTCACCTTCAGGCCAGTCTTCCTCTCTCTGACTTGGGCTGAGCCTGGATGGGAGGCTGAGAAAATCCAGTTTCCATGCCAAGAGGCAGCAGGTCACAGCCCATGCTTCGAGATTAGAAGGGGTCCCTCTCAGTGTCCAGCCTCATGTAGCTGGGCTAGGAGCTAGG
1 AGTATGGATGCACTGTTTTTACACACTGCAAGTGCTGTGTTACTGTGTCAGTCATCCTATTAGGGCCAGTTTCAGACGAGTAGGGCTGACGAGCTGGCTGGGGATTGGCTGGCCCCGGCTGGGAGGGATTTGTCGGAAGGAAGGGCTGCAGCTTACAGCAACAGAGTTTAGACTGTCTTTGCTTCATCATCTGAAGGTAAAATTTTCCAGATACGGCAGACGGCTTTCAGAGTACAATAAACAGGGAATG
1 GTGGGGGTGGGGATAGAAGCTGACGGCATCACCTAGGTTTGGTCCCCGGAGTGGATGTGTCGGGGGCCGTCTGTCATGCGGAATTCCGCGTGGGCCTCCTCCTGTGTCAGGGGCCCGTGTGTTTTGGCGACACCCGATTGTCATTTCCTTCGGAATCCCAAGTGGAGGCAGGTGTGCTGGCCACTGGCCGCTGCCCGGCGCCTTGAGCAGCGAGCGGAGTTGGGTTGCAGAGGGTTTTGCTAAGGGAGCA
1 TCCTACCAAGCGTCCCTTCTTCTGTTGGCCATGTCTCGTGCATAAACTTGATCTGTCCCTCACTCCCTTGCTTTGCCTCCTGCCCTGCAGCAAGCCGATCGGGATTGGTACATGATGGACGAGGGCTATGACGAGTTCCACAACCCGCTGGCCTACTCCTCCGAGGACTACGTGAGGAGGCGGGAGCAGCACCTGCATAAACAGAAGCAGAAGCGCATTTCAGCTCAGCGGAGACAGATCAATGAGGTGA
0.04505607575584773 GGTCTCTGGGGATCGGGACCGCGGCGGCGGCCCGCGAGCGGGATGTTCCGGGGCTTGAGCAGTTGGTTGGGCTTGCAGCAGCCGGTGGCAGGCGGTGGGCAGCCCAATGGAGATGCTCCACCCGAGCAGCCGTCCGAGACGGTGGCTGAGTCTGCGGAGGAGGAGCTGCAGCAAGCGGGAGACCAGGAGCTCCTCCACCAGGCCAAAGACTTCGGCAGTGAGTCTACCCTGGCTCTGGGACCGGGAAGGG
1 CCCAGCCCCCTGCCCCCTGCCCCCAGCCTTTAGTCACTGAAATGGGAGGGAAGTGTACAGTGGCGTTTTGGCCCAGCTGGGCTCTTTACCCCTGTACGGTGTTTACTGAACAGCTGGGATGTTTACAGTAGCCCTTGCAAAGGGGCCCCTCGTTGCAGGGGATTTCCCATCTTGAGGGTCCCACTGGGGCTCTTCTGACCTCACCAATTCCCTGCACCCCTGGGATAGATGTGTCAGGGATACAGAGACC
1 CTGGGAGGCTTTGAGTCGTTCCCTACCAGTTCATGGGGCTGGGCCTGCTGAGGGCCAGGCGCCAGGGTGGGCGTTGTGGGAGCATGACGGAGAGCAAAGCCCAAATGTGGTCAGGGGGGTTTGGTTCTAGTGAGCAGGTGGGTTTGAGACCCCAGGAGCACAGGAGGGCAGTGGGAGCCCAGCAGGGAGGTTGTGGTAAGCACCCAAGCATGAGCTGGCCgagtcctggaatcccagagggcacctagga
1 GTCTGAAGTCCAGACTCTCACCGATGGCAGTATACACCGAGgcctccccagctaaactctgagctctttgagggcaggtgctgacggctgatcctgatcttcacagtatctggactcatcacacatcttagatgaatattcattgagtcactgaGCCCAGAAGGCGTCCCATGGCATGCCACATGGACTTCAAACCGAGTGCCCTTTCTCCCATGTGGTTTACTCGTAGTGGCGGTTTTACAGATGCCCA
1 TGACAACAGAAGACTGATATGGGTGGTGTCTGCTGGGAGGAACTGGGTGGCAACGGCAAGTGAATCGAAGAAGGCCGAAGTTATTGGCTTTTGCAAAATACTGAACCAGTGAAGAGATTTGCCCAAGTGTCCAGGAGGGTGGGAGCCTTTGGCCAGCAGCCAGGTGGGCCGAGCCTTCTGCAGAGCTGCGCAGGCTTGCTGACGCCTGTGTTTGGACAGTGGTGGAGACCTGGCTGATGCCTGTGTTTGG
1 GGGTATACTTTGTTAGGTTGTGATTAGTTCGTTGGAGCTGGTGGTTGCAGGGACGGCTGGAAGCAAGGAGATGAAGGAGAGGAAGTCGTAGCTGGGAAGGGGACCAGGAAGTGGGTGTCAGGTCCAAGAGCTGCTAGAAAGAAACGAAACTGAAAGCAGGGAATTTCCCAAGTTTGGGGAAGACAGGAACTGCAGCGCCCCTCCCCGTTTCACGCCACGCGCGGGACCGAGGACCTAGGACCTGGCCAGC
1 TCTTCTTATAATTATGTTTATGATACAGAGTAAGCTTCAAGAACAGAACAACAACAAGGCAGTGGGATTGTTGGAGCGAATTCCATTATGACTTCTTGCTAGCTGTATGAGAACACTGTGGCCAGAGCTCAGGAGGCCTCCAGGGAATACCTTGCTCTGGGAAACACAGGCTTTGATTCAGGCGGCATTGAGAAATCCTTTGAGGGAGACCTCCCATCTGCTGATGAGAAGAATGCTTCCCTCTCATTCT
1 ACTCCTCCCCCATTTCCACCCTGGAAGGGCCGCCCAGCAGGAAGACTGTCCTGAAGCCCTGACCACGGCCACTCCCCCAACCACACAGTGATTTCTAGTCTTCCCCAGGCCAAGCCATAGTGGGCCCCGGGTGATCCCGAAGACAGagaggcagaggggcaggcagagggcacagagcagCAGAAACCCCGCCCCAGAGACACCGAAGCCTCCCAGCCCCCTTGTCCTGCCCCAGATGGGCGCCCGAAGG
1 ACCCTGTCAATCTGTTTGGTTTAGAGTAGGCAGGGGGCCAGGTCAGGGCTGCAGGCAACTTGTCCCAAGAGGGTGAGGTTGTACTTGCCCAGAGGGGTGGCGGGCATAGCTGTTGGAGGGGCAGCAGGGCTGGTCTGGGCACAGACTGACATCTTCTAGCCTTGTCTTCAGCCCAGAGCAGAACCTCTGCCCAGTCCCCACCCTATGAGCTGTTGGCTGCCTGCCTGCCACGCGCCCGGGATTGCTGAAG
1 GCCTGACCTGCTCTCCGCTTCTAAGTCTggccacgcgggggcagggcctggccaggccaggATGCAACCTCGGCCAGGGCCATGGCCTTGGGGACAGCCTGCCTGGGCTCCTCGAGCAGGCTCGGGAGACACTGCCCCACTGGAGCCAGGGCTGCGTCAGTGCCTTGCAGGTAGGCAGCCCGGCTGTCTCCCTGGCGAGGCTTGACCGGCAGCTACCCCTTCCCAGGCAGATCCATGACCCCATCCCTAC
1 cactgtccaaacatgacactgatgtgtcaaggcagacaagcattggaactgagtgttgggtttggcaacacagagacaactagtcattaagaagatgcctggggatacctaggggcaacagctgattggagagggttggggaaggatgagaggagatggcgaactctttagggtcaattcttttaaaactgtctcatggtgagtggggagtggggagcatcagggtgaatatgagtgtgagggagataac
0.1011514202681807 TCGCCGGCAAGGCTGTGGAGGAGCAGGGGCTGAGGACGGAGAGCCCGCGGCCGGCTGGCCGGAATCTAGCTCGCCCGGCGCCCTCTCGGCTCCTCCTTCCCCCCCCCACTTCCTAACCTCCCGgggtctgggactgaggcggggtccgggtcgtgggctgaggcttcggcggtgccggCTGCGCGGGCATGAGTGGGACATGAAGCCTAGGGGACACCGGGGTCGGAGGCGCCGCCTGGGTTGGGGTCTG
1 cgcaagtccaaaatccagtggggcagtcataaaatctgaaagctccgaagtgatctcctttgattccatgtctcatatccagggaacactgatgcaagaggtgggctcctacagccttgggcagctccaccctgtggctttgcagggtatagccccctgccccacctactttcacagctggcgttgagtatatgtggctttttcaggcgcacagtgtaagctgtcagtggatctaccactctggggtcta
1 GGTGGACGGCATGGGTTGGTCTCAGGATTTGTTCCGCGCCTTGTGGAGATCGCTGTCAAGGGAAGTGAAGGAGCACGTGGGCACGGACCAATTCGGGAACAAATACTACTACATCCCGCAGTACAAGAACTGGAGAGGTGAGGTGGCGGCGTGGGCAGCGATTGCGTGGTCAGTGATTGCGAGGTCAGTAAAGGAGGGAAAAGTGAGAGCCCCTAGTCAACTAACGCATCATGCGACACTTAGGGTGTCA
1 ACAGGCTGCCCGGCCTCTGCTTTTTATAGTGCAGGAAAGTACACACTCCCTGGCAGGCCGTGCAGCCATGAACAGCCACAGATAGACGCACTTGGCTGTGGTGTGTGCTGCAGGGAGCGGGAGGACATGGGAGGACGTGCTCCAGGAGGCCTCTCCAGCACCTGCCAACCGGGGAGGAGGGAACCAAGACAGGGAGATGGGAGCCGAGGTCTGAGGACAAGCAGAAGCTTCCCCACCCTCCCTCTTAGAG
1 CAGGCAGGGGGCGTGCTCCTGGGGACGGCCCCGGATGTTGGGCTGAGAGCCTCGCGCAGCCCCGGCGCTCAGGCAGATCGGGCTCAAATCCACTTCCTCTCCAGGCTGGCTGCAGGACCTTGGCCCCGTCTGAATCTTTGCAAGGCCCTTTTGGGTATCGCAGTTAAAGCCAAGTGACCCCTAGGTACTGgtgaaatgagcgggtgagttggaagatgggggttctagtccaggctctgcccgtgctggg
0.4378688098624731 GCTGCATCCCCCATCCAGCCTGGGCACGTCCCGCCACACGCCCCGCGTGGGTCTGGAGTCTGGGGACGGTGTGGCCACAGGTGTGGAATGACAGGCTGTGACAGTTGTGTCACCAGATCCTCTGGGCAGGGAGCTGTAAGGCAGGCAGGGTCAGGAGCTGGGCAGCCCAGGACCCCAGGGAGGCGGGGCTGTGGCTCGGCCGGAATGTCCTTCCCCGTGACTCGGCTTTCTTCCCCTGACCCGGCCAGTC
1 accaatgcctggcacgtaaatggcactcaataaatatttgttgaactgatgttgaatgaatAAACTCGCTCTAaaccaaacccacgagggagaaaccagatgcagcattattcattcattctgtgaaatgtaattgacaataggcccgaagaaacccctgtcagcacattccttgctttgtggaaggcacacttcagaagctcaaagtatatccaagagtcactttgtaaatacagagtagggctaaggg
1 CCAGGTACGAGGAGGTTCTGCCCCTCCCCAGTGAGGGAGGCTGTTCCTTCACATCTCTGGGTGCCTTCATGGGGAAGGGGGACAGGATGCCAGGCTGTGAGGCCCCCAGGCTCACGCAGGGTCACCTGTGGGGATGTGGCCACTGGCCTGGTTGAACATGAAGGACACCTGGCTGCCCTCTGGCCCTGACTCACAGATTAGGGTGTGACAAGGACCCACAGAGAtgtccccatttcacagatgagtatac
1 tgaccttgtgatccgcccacctcggcctctcaaagtgctcggattacaggtgtgagccaccacgcacggccttaaattctattttttagtctggcttcctagcagttgcttctgtgtttgcatatggtagtggtcagccagggatttgggcaagagggtgtgctcaaacactcctaacccaaaaggctccccaccacaccatgtggtttcagagcacgttgtgagttcagccagcccctctctctttgct
1 tagaggcactagccctcccagggttagccagtgataacctagcgataagcagacaagtcaccctggagcacactcttcaaatgcaaagcaaccaacctagagcccatagtccaaccacctcctttactgggcattcactgtccaccaggccacagtacacctgctctaatcaccccaggccaggtactattcaactagggacagtccctctcccccagagcccactgaaatgatcctcattagccattcc
1 ACCATAACCCTCCCAAGTCAAAAGGACACCAGTTTCAAGCCTTGCAACTTGGTGCAGACAGGGGTTTTCCCCTTTACCCCACTCTGCTGGGCCTCTTTACCTGTCCTCTCCTACTGTCTACAGGTCCCGAACATTAGAAAATAGAAAATGTGATGATCTTtgtgtgtctctgtaaaatgtgtgtatgtgtgcgtgtgtttgggtgtAACGGGCCTCTTGTTTGGCTGCGCGGCCTGTCCGTCACTGCGCG
1 TCCACAGAGGCTAAAAACTGGTTTGGTGttttctgttttgtttttgagacaggatctaactccaggagggtaggctggggtgcaatgatgcaatcttggctcactgcaaccttggcctcgcaggctcaaatgatcctctcacctcagcctcctgagtagctgtgactacaggtgcatgccaccgtgcctggctaattttttgtatttctttgttgttgttgttgagacagagtttcactatgttgcccag
1 CTCTGCTCTAAGAAACTAAGAAATCCTGTCCCTGAAACCCAGATCCTGGCTGCCAAAATAACACCATCATCCTTGCCATCAGCCACCACAAGGGCACTTACAGGGCATGCACTTTGAGCCAAGCTCAATCTAAGCCTTTGCATGTGCTAATGAACTCCTTCCCTGTTTTGACCTCTTGCCCACTTACTGTCTGCCAGATTTCTGGATTTGGCCCTCCCAGCTCTGAGCTCTGACAGATCCCACTGAATAC
1 agtcttgggactacagaagtgagccaccacagccagccTTAAGTAATTTCTGTTCACACCTCTTGTGTACCCAGAGTTGAGGATATTTACACCAGCAGCAATGGAGCAGGAAGCAGCTGGGTGCTCTGACCTTGGCATTTGCCACTCTGGGGCTAGCTGCTTTAAAACTGTCAGCCAGTGACCAGATGAACCAGGCCTTGTTACACTAATCAGATAACGGTATAGAGGCGGCTCCCGGTGTGTGCACGTG
1 TTTCTTCGCACTAGCCAAGAGCTTGCCCGGGTTCTGGGACAAGGTTTGAAACGCAGCCCCTGCTCAGCCTTCTGAATGGGGTCTTGGTTGCTCCTTGGGGACTGCTCATGGGCCCAGTGACCCACGTACCAGTGGGCTGCCATGGGGCCCTCAGATGGCCCACGCACAGCAGGTCTGGGTATGTCTGAGGTCAGTCCCGGCTCCAGGTTATAGGGTGTGGGGAGGAGTTGCCATAAACCTAAGCACTAGT
1 CAGCTCCTCCACCCAGTCACAGACACAAGTAACTCCCAGTGATCTGGAGCCTCCCTCTGCTGGGCAGGGGGATATGGGCTGGAGGTCAGGATGGAGCAGCTGGGAGTATGGCAGGAGAAGAACAAGGGGACTCCCTGGGGGACGGGCTAGGCCTGGCATGAGAATGCACGGTGGAAGTTGGCCACAAGATAGGCACCGAGATGCTGCCCCCCTCCAGGCCACTCATAGCCCCCTGTGCCTGTTGGGAGGA
1 gctaagcaggcaaggagcctgtgggttttcagctttccgtctgccagctttcacctcctcccatttccaatgcagtgtctcAACGTCACTTTTCGCTGCCTGTGCTCTGACGGCTCAGGGACATGGCTTCTGGGTCTCTCCAGGAGTGAGGCGCTCATCTTCTCccttcactcacacctgccagagctcattcctgagcccgctcagacgctgcatagggaatcgattgccttgcttcctgctggctttt
0.3884011407596433 CTGAGTGAGCTCAGGGTGAGCAGAGCTTTTGAGCCCTCCCCTTCCCCAGCTTGGCAGGCACACCAGCTTGTGTGGTTTCACGGCTTCATTCCTCCCCCTAGAGGCTCCTGGAAGCACAGCTGCTTTCTCCTAAGAGTGAACAGGTCTGTGGCTTAAACATCTTAGGTCCATTCCCAGAGTTTCCAGCTCAACCCCTTGGCTCTCCTCAGGCCGGCCATGTGAGCCCCCTTAGCAGCTGGGTTAAAAAAAT
1 GTCCCGGTCCCCCGGCGGTGACCCCGCGCGCCTGTGGCCGGGGATCGCGCCCGAGCTCAGGCAGGTGCCCTGGAGCAGCGCCCTGctcccctcccctcttctctcctctccccgcccGGGGCCCTTGGTGTGAGACATGTCTTTTGAGAGCTGCGAACTTGGTCCGCCGGCCGGGAATCTGGGGGTGCCGCCCCTCGGAGAGTCTCTGGGGCCTCTCTCTTCAGTCGCTCCCATCTTGGGCAGGTGCTTC
0.319103979841026 AAGGCCTGGAGGGCAAGGGAGGAGGGCAGGCTCACGAGGCGGGGCAACGCACCAGCTCCTCTAAGCCGCTCTGTGGCCCAGCCAGCTGCTAGTCGAGCTCATGGTTCTGAGAGAGCACGTGGTTGATGGTGGTGTGGTTCCGCAGGGCCTGCATGCACGTCTCTGCCTGCTCCTCCCAGAGCTTGGCTTTCCGCCCCAGCTCGAGCAGCCTGTCCTCCTGCTCCGCAGCCTCTCCTCCCACTCCCGTAGC
1 TGCTGTGGAAGCACAGGGGACCCAGACTCTGGCTCCCTGCAGGGCCTGCCATAAAACGCATGACTGCCTGCTGGCCTCCAGTTTGGGCTTATATTGGTGGAAGAGAGGTTGGCCAAGAGGAAGGAGAGAGGCAACACCAGCTCAGGGTGGAAATCAGTGCCAGACCAGCCAGAGGGGCAGAATGTTCGCACCCACAGCCACTCTGGGGCATAACATCCTGCTTGAGGGCAGGGGACCAGCAATAGGGGAA
1 acactctcttagcctcccctttccttctggttaactcttccccagtttagacattacaccctctcagaagaagcctttccagactgcaagagtaggttagctacccctgctgtatattgccatagtgcactacactccaccatggtcacccttatcacagttcatttcattgcctactccactgcctggcttcctgactaaactaaaaaaatctctgaacagcatccaaccttatcaacaatgtatccat
0.6133001658225105 CTGGAAGACAAAAACCAGAAAATGTGCGCCTTCTCATTTGAAACCTGGTCTTTAAGTCCGGCCCCTCCCCAGCAAGAATGGGAACATTTAGTTTGCACCCACGTGGCTCTTCCGCGGGCTCATGCTCCACTCGGAAGCCCGGAGCTCTGTCCGGAATAGGCCAGACAGAGCTCCCTTCCCATCTGCCTTTTGCAGGAAGAAGGGATGTGGGGCAATCGGCACAGCTGAATAGGGGCCAGCTGTGGGAAAA
1 GTGGAGGAAAGCCAAGTGCCCTTGATAGGCTCCTCCTCTGGAGCTAGGGAGTTCCCTGGATGGTGGCAGGAGGAGCTGCGGTTCTGCAGCTGCTGCGGGCGGGGCAGCTGCTGGCGGCACTGTGTCTTGGGTTTGACCTTGACCCCTGGGCAACACAGGGAGACTTTCACACCCTTCACCCTTGCATCACTCCACTCAGAGGTGCGCAGGGCCCAGCCCCAGCtacagatgaggagactgaggctcggag
1 AAACCTTGAACGCGTTGGCAAACAAAAAACAATCCAGAAAGGTCAATTttcacaaaggtcagtgtgcacatgaatctacttgttaaaatgtacattttgattcagtagacctaggatggggctcaggactctgcactttgatcaagACTccttggtacgcaaagtgtggcccatgggccagttgcatcaccatcctctgggagcttgttagaaatgaagaatctcaggttccaagtcccacctcagacta
1 tcaggctggtctcaaactcctgacctcgtgatctgcccaccctggcatcccaaagtgctgggattacaggcatgagccaccgcacctggccAAGAGCGCATCACTTTGAAGGCGCATCCACTGTGGGCCTGCCCTGGGCACCTACCCTTGTGTCTGGATAGCCTGGGAGAAGGGCTCTGTGATTGGCCAAGGGTGACTTAAGCTCTGCTGTGGAGAGGATGGGGAGACCCGCCTCCCAGGAGTGAGTCCT
0.02378866949258271 gctgcgctagcagtgaaccagactctgtggccctgggacctgctgagccacgcacgggagggaatttcctggtctgccagttgcaaagactgtgggaaaagcatagtatttgggcaggagtgtaccattcctccaggtacagaccgttacagcttcccttgtctaggaaagggaaatcccctgaccccttgaactccctgggtgaggtaacaccccgccctgcttcagctccccctccatgggctgcacc
1 CTCTCCCAGCCCTCTTTGTCTTCCATTGCAGAGCTGTGCATTCCACTGCAAACAGAGCCTGCCATTGAGCCATTTTTCTCTGCACTGCACATAGTTTCTGCTGCCAGGATGAGTCACCATGCAACACATACCCTCATCCCCTCCACGCTGTACTTAAAATACTCTAGGGCTGGCCAAACAGAACCCCACTGTGAGTGAGCACGTGTGTGAAGGTGGGATTGGCAGCTCAGCCCTGCGGAGCCCTCTGAAG
1 tctttgaaatggggatcttagagatgcctacctgtcaagggacttgtgaggCGCAACGGGACCACACGCAGGGCCTGGCCAGAGTGCCGTAGTTTCTTCGGTTGCCATGATGGGACGGTGAAACTCCTCACACTCTTCTTTCTGCCTTGAAGATTCTAGACCTGGCTGGGTGTTCATCTCCCTTTTTGCCTTTGCTTGAGGCAGTTTATGGCATGGCTGTGTTATTCACGTCGCCAGGTCTCCTCCTGGT
1 caaatagaaaaagtctccgtcttgcataaccttcatctttggattttggcctctgtggctggttttggcctttgtctttcaAATGGCAGGTGGGGGCCGCACCGCTGTGGCTTCTGCGGATTGGAGGCCGGGGCACTGCCTGCTATGCTCAGGCAGGCGTGTGGCCTGTGGTTCACTCTGAGGTGCTCTTTCCCTTCAGTGCCCAAGCATCTTTCCTCCAGGCTGGTCACTTTCCTGGAGACGCCCCCTC
1 aagctcatatacagccaagggccttccaacctcccgagcttcttccctctCGATGTCTTCTCTCTAGGTCCTGACAAGCTGGGTCCCGAGGTCACCTGGAGTGCAGAAATGTCCGCCCAGCCACTCCCCCTCTGCTGGCCAATCAGCTTATAACCCATCACTCAAACAACATGGGGGCCCCCGGGAGAAGGGCCAGCCTGGGCATCCACATTCCAGCTCAAGTCCTGATGCCAGTTCTGGTTGGCCAAGC
1 CCTGGCCTTCAACTTGACCCAGACCTCAGCATCCTGTCCATGATGGTTAACCCCAACTCTTGTCCACAACCTTTAACCTCAGTCTTACCTGGCCCTGCCTCCTCAGCTCCAAACCCTTACCCTCCTGAGGCTTTGTTTGCTAGCCCTGAACTTGACCCCTCTTAACTTCCCTCTCCTAGCCCCAGGCTGAGGCAGTAGAGCCCCTGAGTGCGCATGGTGGTGTCCTCCTCCCTTACCCCACTCGTGCCCT
1 tggagaacagcctagatacatggtgaaatcccatccctacaaaaagtacaaaaaagttacccaggcatgctggctcacgcctgtagtcccagctgcttgggaggatgaggcaggaggatcacttgagcctgggaggtcgaggctgcagtgaaccgtggtggcaccactgcacttcagcctgggtggtatagtgaaaccctgtctcaaaaaaaTTAATATTTTCTATGACAGGCTGGGCGGGGAGCGTCGG
1 TGGCTGCTCGGACTCAGTCTCCCCGCGCGCCGCTTCTTCCCGTTTGGCTCCGATCTCCCAAAACAACTAATGAGGCTGCACCGGGCTCGGGCCGGGGGTCACCGGGCTCGGGCCGGGGGTCCCCGGGCGCCGGCGCCGCGTCCCTCCTTACCTGCACAGCTCGGCGAAGGCCTGGAAATTCAGCTTCTTGATTTTCTTCTCGCTCAGCCAGTAGCCAACTCTCTTCCCTTTCAGAAAGGTCTGCATCTTC
1 GGTGTCCCATGGGCCTGCCTTGTGGGGAGCTCTGGGGAGCGGGACCCAGGGGCCCATCTGTGAAATCCTCGCAGACTGGGAGGACATTTGAACTGAGCCCTGGATGACCTTTCCAGGTGACACGGCTGCCTGACTCATTCATTCATCTGGTGCttcattcatttaacaagtacttactgagtgccgtcacgtgcctgcaagacagaaacgtggtgtgcaaagccagacacagctcctccctcacggagct
1 cggctcatacaatctcatgcacccacctctttcacgacggttcctcagcctgtagagaagggggcgctgcagtcatttccatggcatgggtggacaggttgcattaatttgttttatgcttgttagcagaggccacaccaacaatacaaacaaTGAAacctggccaagtgactttaggagctttacagctggtcctgggctttgtatcttttgcgggttgatggcccatactctggattggagaagcata
1 ATGAGTGTTTTGGATATATTGATTTTTCAGGTGTGCAGGCGGTCACATGAACAGCTGACATTTTTTTTTTTTTCATGTGGACTTCAGCCAGTCTTGACACCTGCCCCTTAACGAAAAGTAAACCATCGCCTTGTTTGACAGTTTAAGTGCAGTGATACGGATGGAGGCAGGTTTACGTTATGTTAAAGGCTTGACAACCCAGAACCCCCCTGTTGGTTTCTTTGTTGTAACCTTTGAGCCGGTGGCCTGC
1 tacatcttagaggtttaagtccaaggccacacagctagaatgtgacagagccacaattcagacttgggactgattccacagtcctcactacgtgacccatttgcccaTCTGTAAGCAAGACAGAAGTTGGGAAAGGCTGACTGATAACCATGAAATGACCAGAGGCCCACCAGTTCCTAGAAATCTGAAGTTTGCTCAAAGCTGCCCCACAGTCATGCTGGAGACAGGTTCCAGGGGGCAAGATCCTGAC
1 GCCTATTCATTTCTAAAAATAAGGCTGATTTTTCTCCTCATTCTGATAAAGATCAGCACTCAGGCCACGGCTGGCCCACCTTCCCAACCTGGAGGAGGAGAACACAGATGAGTTTTCATCGACTGTGGAATGGCCTCGAAATCCTTTTTCTTCTTCCTTTGTGCCATATTGTCTGGCTTCCACCCCGGCAAGCTGCAGACATTTCCTATTATTCCACATTCCTGAGTTTAGCCACATCCTGGATACCGGC
1 ACAGACTGTACTGACATTAATCATCTCCTTTTCAAGGATCCTCGCTACACTTTGAGGTTTCTGTGGGAATGTCTTACTTCACATAAGGAAACAGATGTACAGATTCCCTGAAAACGGCATTGTTAACAAGTGGAAATGAAATTGTGCAAGAATGTGGACTGAGCAGGTCAAAGCATAAGGAAGACCTTGAGCTGTGTGGAAGGATTGCCCTCTGGTGTTCAAGTGATTGCACTACCGCACTGCACCTTAT
1 CTCTGTTTCCCAGGATTGGCTCAGCTAGGCAGCTGGTGAGCTAGAGAAATGGGAATGACCCTCCACATCAGCCTGACACCGGGTATTAAATCACTGCACCAAGTATGTCAACACAACGCCCAGGTGGCCGCTGGACAATAAGGCCACAGGGCCCCAGAGAGTGGCTGGACTTTGCTGTCTCGTCTGTACCTTGTGTGAGAGCTTGAGACTCAGAGGAGCCCGTGGGGCACATGGAGGTGAACTTAGTCCC
1 TGAAGGCAGAAGTGGTGGATTACCCTGGGGGCGGGAGGCTTCCAGCTGCAGAAATCGCCCAGATTCTAGGAATCCATCCCACCCGTGCCCCTGCTCACTGCTGTCTTACCTGAATTGCCTGCCCGCAACCCTTCGGCTCACCAGCCTCGGGAACAGTGACTCACTCCAATGCCTCTGGTCCCAGCTACAGCCCAGGCCTCCACCAGCCTGATGTCAGAACCTCTGtagggtggccaggtctagcaaatac
1 gtcagatgcacggtctgttttataggtggaattaactgcttgctgatggattgactggctgtgagggtgagtggcaagaaggaatcgaagacgagttagggtggatggcgatgccatttgctgagacaactgggaaagaaaaagatttgggaaaaaaagttgagttcagctttggacatgttaagtgtgatatgctagtcacttcagtggagatgacaaatggcaagctggagaaataagcctgcaactc
1 TCAGTCCCTTCCCAAAGTTCTGTGGGAAAGAGTCTGTCGGCCAGAGGGCTGACCCCACAGGCCCCAGCTCACTTGCAACAGCTCCTGCAGCCCAGGGAGAAGGCATGGGAGGGACCCGGGTGGTGGCACCTGGCAGCTGGTGAGCAGCCCTGAACCGTCCCTGGTGACAAGGAGGGGACACAGCTTAGAGGCACCCGCCATGCCACCTTTGTGGAGCTGGGCAGGCCTGGGGTTTAGGGACTCGGCGCAG
1 ctcagagaggtacaaggaggggatcctaggccatgcacctggtaaacaaggagacatgggctgggaagccagcacatttgtgaatagagaagtggcatgttctggctttaaaagggtcccctgggctgctgagtaaggaagaacggaaggggccaggacaagggCCTCCCAGGCCGCGGCTGGACCTTGTCATCCCTGCAGCTTCTTCAGAAGAGCCAGACGCAGCCCATGTGCTCACTAAGTACCCAGT
0.9937261576881928 GTGACCGCCAGCGGCCCGGGGAACCCGCTCCCAGACAGACTCGGAGAGATGGCAGGCGGAAGACACCGGCGCGTCGTGGGCACCCTCCACCTGCTGCTGCTGGTGGCCGCCCTGCCCTGGGCATCCAGGGGGGTCAGTCCGAGTGCCTCAGCCTGGCCAGAGGAGAAGGTGAGGGGCTGTTTCTGCGTAGTTGTACTTGAGCGGCTCTGGTCCGATGCGAGGACCCCTGGCCGGGTCAGCCCTACCTAGG
1 ctgggagtttgggcaagtcactcccctgtctctgggcctcagggccctatctatgaaTACGGCCACTATGGAGTGTGGCTGTCCTTTCCAGGGTCAGCCATCCCCTGGCTCCCCTGCTGATACTGATCCACTCCCCCAGCGAGGAGTGTCTGGgactcacccaaggtcaccaatcaataagcagcagagccaATGCACCCCCTGCTCATGGTGGCAGAGACTGTCCCTGCCCTGCATGCACTGAAGTCAC
0.5935543929206051 cagagacgtgaggggacctgcctgaggctgcacagcaggttagcacgttgggagatgaggtgagtccaaagccagctctgcattcagtggctgtgtgaccttgactgagtcctgtaagccttctggactttggttttcCACTGCCACTGTGTTGTTCCCTATGCTTGGGGTGACCATACATTCTTTCTGTCCAAAACAATCCCAGAGCATGCCTATCGTCACAGCACAATTATTAGAAACACTCCTTCCC
1 ACAGAGCTGGGGCTGGAGGTCCGGGAGGACAGAGCCCAATGCAGATTCTTGGCTGCAGCCCTCCAGGCTGCAAGGCTGAAATCCTTTCTGGTCCAGGCAGGGCAGCGGGAGGTTTCTGGGCACCTGAGCAGCCAGATGACAGCCCTTTATTATCCAGCACCTGCTCTGTGGTGGCTGGACCCCCTCAGAGGGGCTCTGTCTCCGCCCCCACATGCCCTTTGAGCTGCTCTGAGAAGCCACAGGAGCAACA
1 GATGGGTGTAATTGAAAGCCTCCCAGAACTCTTGTTCTTACAGCTGTCCTGTAAGAGCTGTGGCTGGCCCTGCAATGGAGATGACTGAGTGGTAGGGGGcaggggtggattttgccccacaggagaaatttggtaatacctagagacaatttgggttgtcccaacctaggagtggggggttgctcctggaatctagtgggtaaagttcagggctgttggtaaaaatcctacaatgcacaggacacctctt
1 ttagtcaagaaaaagggaaggaaatgggagccagaaagtaaaggactcaacacagtacacagtcaaagggaattcccccaacaaaggtcaaggcgagtgaatctcagcacaacagccttgcaaaaggtcagaaagcgccagatctggtgtgaagcaggaagtcccagggcaccaggggagCTAGTAACTTGAGAGATTTTCTGATGGAGAGGAACTGGGTTCAGAAGAACTTGAAGTTCTGACAGAGTGT
0.1570416730885636 gcggggcggggcgcagcggggcggggcgggcctggagcTGCACCTGCTTCTGGGCGGACGCACTTGGCGCGCGGCGCGGGCTGCAGACGGCTGCGAGGCGCTGGGCACAGGTCAGACGTCCGTACCCGCAGGGGGCTCGAACCTGGAGGAGGGCTCGAAGGGAGAGGGGGCCCCGCCAAGGAGCGGGGCTGTGATGGAGAGGAGGTTCCGACTCGCAGGGGACCTGCGggggaggggacgcggacaggga
1 ctggtgtcttagaaaggtctagtccctgacaactgaagggtgctgaagcttaatttcctttatcttcagggcacaacttcccctgGGCCTTATATGGAGTCAGTAGGGACACACCTGGGGCACCCTTTGATCCTTCACATGTAGATGGACAGAGCTGCTCAGAACCCTCCACGAGGTTATGCACACAGTAGCCCAAAGTCCAAGAGTTCCGGGACAGTCCCTGTTTTCAAATATTTAATTATGTATCAAA
0.3343799484919225 TTTTGACTGGGAGGGTGTGGGTGGATACTAGTTGGAGGCTGCAGGGCGTTTGACCAGGCACCAGGTGGCATTGCATGCAAAAGCATCGGGCACTtccttcgagccggaatcgaaccagcgacctaaggatgtccgcaaatgtctgtacaatctacagtcctccgctctaccagctgagctatcgaaggGTGCACGCTGCAAGAGCTGGATCACTGGACTTTCCGCAAATGGAGGAAGCCAAGTCCTTGGA
0.3060073308052511 CACTCCTGGGTCCTCCCTCTGAATTTTCGGGCTCCTGCTTCTCCATTCTGGGTTCACCTCCCTCCTCCCTCGGGTTCCTGGGTGCCTGGAGTTGAATGGAGGCTTTCATGGGGAGGCGGAGGGTGAACGCCTGTGTGTGTTTAAGGGGTGCGGCCGGCCTTTCATCCTGGCTGCCGCCAGCTGGTGAGCTGAGCGCCCCTTCCCCCGCAGCGAGCAGGGGCGACGGAAAGTTGGTGGTGATCTGGCCCCC
0.5317109363037088 GGAGGCCACTTAGTTGTTGGTTTTGGTTGGGACTTTCTGGACTTCAGATCTCAGCCCTCGTTTACTCACCCCTGAGCCCTCCCTGCCCTGCCCCCAGCAGTTCCTGACTTCGCCCCTATACACTGTCCCCGGAGCTCTTCCCTGGGCCTCAGGTCCTCACCCTGCATCCCCTCTGCCCTGCAGGATGTCGCTGCTGAGCCTGCCCTGGCTGGGCCTCAGACCGGTGGCAACGTCCCCATGGCTACTCCTG
0.9877580136369233 GGGAGGTCTCAGCTGACGAAGTGACCCTCTATTTCGGCGCACTAATGGAAGCGGGGCGTCGCGGCCCGATCACGGTCTAAGCTTCCCATTCAACAGATGGTAGAGGGCTGACTAGGGATCAGTTTCTAGGCTGGGAGAGAATGCTAGGCCTCCGCGTTGTCGTCCGTACAATAGTGGGGGCGGGAGAGCAATCCCCGTTCCAAGTGCCCATGCCCCAGCTCCTGAGCAGACCCGGGACCCCACCCCCAGA
1 aggcaaagcatgaaaaaaagactaagaaggagcttggctcttttgggaaaataaaaggccagtagaactgtagtgtagtgagcagggagaacagtggcagataaggctgaagaaacggtcaggggccagttaatacaaggccatataaaccaTGtcccgaactgtgttttgaggctccctggggtgcaccagcaaactcaccaggatgccttggatatttttaaaatttgagggaaacacagcgacatct
1 GGGCCGCCTCAATGTCTTCATGGAGCTGTGGCAGCCACTTTGTGGTAAGGAGGGAACAACATGCCAAGGATGGAACAGTGGGAGGATGAAAATCTAGGTCCCCGAGGATCCAACAACCATGACACCACCTCCGGATTTCTTGTCAGGTTGGGGAAAAATAAACCACTCTTTGAGGTCCTTTGATTACTTACAGCAGAGTGCATTCTTGATTGTGTGCTTTGAGAGGATGACAGAGGAACTGTTGTAAAGG
1 GGGGACAAAGTGTTGTGTTGACAAAACTCTTCCATGTCCACAACCACTGTGAGGTACTTCTGACCCTAAGCCAGCAGAGGAGGAGCCTCTAGCTGCTCTGTGTTCACTGGCTTATGGGGGTTTTCAGCAGGACGGAGGGCTGCAAGCAAAGATCTTTAAATATCAGCCTGTGCCTGTGGCCCCTGCAGCGTTTCCTTGTCTTTATCACTATGGAAACCCATGAGACACAGCACGAAGACAACCAGGTGCC
1 GGCCTTGGCATCTCTCCACCTCTATCTGCTCTCCTGCCCCAGGTCCCTTCCCTCTGCATGCACTCATCTTCCAAGCATCTGAGGACCTCTCACCGACTCACATTTGCTTCTGCATGTATTGGTCTCCCTGGGGTCTTCCCTTGCCCCACAGGTCTTTGCACCGTACATGGGTAACCCTGAGTCTGGTCTCTCTGGTTGGATGTGAACTCCCTGCAAGGACGAGGAGAACACTCTTCCTCCTTGCATTTAC
1 GTGCTGTTGACCAGGGGCCCTCCCAGCACACCTGCAATGGCTGGACCTTAGCTGCCGCCTCTGTAAGACAACTGACATCACACCTGGTATCAAAGTTTAGACTGTTCAGGATGTAGGTGCAAAAGTACACAGGATGTGGACGATTGCTGCGGtttgtccagcattttatggctgatagagtatctctccactgtgtgagcctctcagcagcgcatggggtggcgaggacaggtgtggttttgtccctgtg
1 GCTCACCTCTGGCATCCTGGGTTTGAAGGGCCTCAAGTGCCCCAGCCTGCAGAATCCCCACGCTGGCTTAGAGATTCTGTCTTGGTTATAACGTGTCACATCCATAATCAATGGAGAAAACAAACAGAAAAAATATGCTGGATGACAACTTATGGGTGAGTCCCACAGGGGGACACAGTGGTTTATTTCAGTCCTCCCTCAACCCCTCCTGCTGTGGCCACTAGACAGGAGCGTGGAATGCTGGCCCTCA
1 GGAATATAAACTGCAAGAAGTAAAGCACAGCATCTGGGCTACGAGAGATATGCAGAAGCCAGGGCGACTGGCAAGCAAGGGGGCACCCCTGGAGTGGGCCCAACAGCCCCTCCGAAGGCACAAGACTTAGACATTGTGCCAAGGGGGGCGCAGGTTTTAAAGGCTGGGTACACTGGGTGCAGGGAAATTGATCTGTATATGACCTGTAAGTTACTGACAGTGATGCGAGAGAGACAGAATACTTCAGGAA
1 CTACTACCATGCAGTATGTACCCTTACACCACCCCTGCCCCCACTCCCACTGTAGTTTCCTGGGCTTTAGTCTGTTCTAAGTTCTTTGATGCTTGTGAAGCTACTTCTGCTGACTTTGTTGACACTGACATTGTTACCATGGTTACCAGGGAAGTCAGACAATATACTGAAGGGGAGTTGCTTCCTGCCCTAACCAGGACAAAGACACTATAACCTTTGAGGTTGCTGGTGTATCCGTGTCCTCAGTGAA
1 ccaccacttacaggctgcgtaaccctgagcaagtcactaacctcgcttttcctcaggttccacgttttaaatatggggagaccagctgtgcccactgtgggctgggtagtgaggattaaagaggaggatgcttgtacgggactagcactgggctggctcctaatgtgtcctgaataTTACTTGTCCCGCCCTGGCCACCCAGTCCCCTCCTCTGGTGGAAGGCACAGCCTGCCCAAGGCTACGTCTCAGG
1 ggattacaggcatgagctgccacgcctgcccTCCCATCAAATTTTTTTGCCAATGCATTCCATCCCTGCTCTGCGAAGTCAGGATACTGGTGTGATGTGAGTGAATTTAGCTGAAATATTGAGAAAGACATGTTATGCATACAAGGATATGTGCGGCCTCGTCCATGCTACACTGCTGTTCTCAGAGGTAGTTCCCCTGGAACTGCCCCCACCATTTGCAAACATCCTCTTTGGTTTCCACAAGCCAAGC
0.4963349377939376 GGAGGAACCTGCATTCCCGCGTGGATGACCTCAGGCTCCGCCCCTTCTGCCCCACTCAGCCCTCACCCAGTGCCTGAGAGCGCTCAATCAGAATGCGAGAGCAGCGCGGCGGCGCCCCCGTGTGGCCACAGGGACGAGGACAGAGGACCGGACCCCGCTCCCCTTTCTCACCAACCAGGACCTCCGAGGCTCTCCCTCTGCTCCCAGCACCTGGACAGGGCTCTGCACTCAAGGAGCCTCCGGGTCTCAA
1 ccTCACCCTTATCAAAAAGAAGTAGGTCACATAGAAGACAATAACCAGCAAGCATTTGTGTATCCATTTACTCAGTATTGGAAAGTTTGACATTGAGAGCTTTCTGGAAAATGGGTTTGGGCGCTGCTTACGTGTCCGTGGTTGTACTCTACTTCACCAAACTTCTTCCAGAAGCATAGAAGAGTGGACTGTGGAGTGAGGCTCATGACCTCCAGCCCCATGAGGACTTTGGGAGGTTAGCTTCTGCCCT
1 GCACAGGCCCCGCCCGTCACGTGCAGCGCCCGAGGCTCTTGGATGGATTTCTCCCACGCCTCCGGCCCACAGGACAGAGATCTCCACAGTCCTTCTCCTGTCTGCCCCAGAGGCTGGGCCCCAGGTACCCACAGCCCAACAGGGGCTTCTGGGGCCTGAGGACGGACCCCAGTGGGAGGTGGTAGGTGAGTGGCAGGGGTCCAGCAGCGGATACATCCAGGCCTAGCCCCGGGATAGCTCGTCCTGCCTG
1 TGTTTTGAATAAATTGTGGTATTAAATTCACAGCCTTCCTTCATCAGAAAGGGAAAATGATTTGACCTTCACATTCTTCAGAGCTGAACTCAAACTTTGGAGGCACACTTCAAAGCTCTGTAAATAATATGAGTAACACTTTGGACCCTTCTGGGGTGGGAGGGAAATTCCCTTTCTGAAGAACACCCAAGTCTTTAAAAAGAAATGGTCAGGTTTAAATATCTCACTATTTTTCTTGTTTGAGACTCCA
1 taatagaaatgtccagggacctaccgacttcagattcagcgcaaactcatctgggcccggtctgtatccctccctctcttttctctcagcactttcctcAGGCGGTTCCCCTCCTGGcatcccagcagctgcagcatcagcaggagagagtaagcctctccagtcccggcgcagggatggagacggtgtttcgtgggctccgattggctcagtagcctatctttggagcgaatcagcgagcggagaggga
0.6622603040193558 CCCGGGGGATCTCCCAGCAGCTATCAGTGGGAGACGCTCACACACCCCCAGACCCCCGCCACCCCGAAGACTGGACTGAAGGAATCGCCCAACGGTCCAGGCCAGGCGGCCACTGCCTTTGTCCACTGGGAAAGCAGATCCGGGAGCGGTCGCCCCGGTGCCACTACTCCTCACTCTGTGTTCACCTCACTGTAGAAGGTCATAAATGCTTCCTCGGTGCTGCCTCCGCCGCCTGAAGTCCCGCTCTCTC
1 CCCGGCCTGGTGCTTCTTGCCCAGGAACAAACTGATTGTTCCCTTGGTGTGGGGTAAAGCAGGCCAGAGTATGGGACCAGGCCCTGCCTCCCAGGGGACCTGAGGTGCAAGGTCTTTGAGCTGAGACCCTAAAAGGCCTTTGTGAGTCTGTAGTGCTATCAGTTGAGCAGAGTTCAGGGTTCTGTTTACAAGATTCCCTCTCAGCAGAGGCAGGGAGGGGTACCTGCTGGAAGACCAGGAATGTGCTGCT
0.1103597055692394 GTCCCCACAGCCCTGTCACGAATCCCGGTCGGGTTCTGGGAGGCACAGCCTCGGGGTTGCGGGCCGGGTGCGGCTCGGCGGTGGAGGACTCACTTCCTGCTCCATCCCCGGCTGGGCCCTGGGGCGGTGAGTGATTCAAGGAGGGAGACCGCGGCGGCAGCGGCGCGCTGCTGAGGGGCGTGGAGGGGGCTTGCCCGCCACCCAGACGTTTTCTCAGCGGGGTTCCCGCGCTGGCCTTTGGGAGCCCCCG
1 TTCAGAttgtgaaggttaaatgagattatgtgcacaaaacatccagcgtggtgtcGGCTGCTCCCCGCAAACAGGCTCTGGCGTTGTCCCTCGAAAGAGAACTAGGCTCTCCGGGAAGCACCTGCCCTTTCCTCTGCTGCAGCAAAGCCTGGGCTGTGTGCGTCAGGCTCTCCAGCCACTGGGGGCAAGGCCTGGACCTGCCTATCTCTCCTGCTCTCTGAACTCGGTGTTGGGAAGACAGCGGAGATGT
1 ACCTGAAACTGTGTCACTGTAAAATATGCCACCCACTAGACCTGCTTTATCAGCTGCAGACATGATGCAATTAACTAATTTTCTGCAACCTCTCACCACACAAGCCGTGGAACTTCTAGTCCATTGTGTGGCTCGTTTACTTAGCAGATAGGGTCTAAGAGCCTGTAACTATTTACCTCCCTCTAGAGGGGCTGTCCCAGACAGGTGAATTCATTAGTTGGTGTTTGTAAAGCAGCAGGAAAACCAAAAA
1 gggaagcctgaactttggaaactgtttagtagggttggctgcccaagaagtcaaagaccagcctagccaatagtatcaaaattgactgtgttctttacagccATAACTAACACttgttgttgttgttgttgtttgttgttgttgttgttgtttttgagatggagccttgctctgtcacccaggctggactgtagcggcccgatctcagctcacggcaacctctgcctcccaggtccaagctattctcctg
1 ATGATTGGGAAAGATGGGAAAAGTTCAGGGTCTGAGGACAGCACAGGGCTAATCCAATTACAGGCTAACCAAGTGAGTTCACAGACTTCATCCTCTACAGCTGTTTCTTCCTCGAACAGCACTGTGCCTGCAGGCACACCCAGGTCTGCCTGAGGACACGCAGGTCAGAAGGGGCCTCTACCATCTGAGGAATGTGCTGCCATTTGTGTTACCCAAGCTCCAGCCAGCTGGACGTCTGGAGCCACCACAT
1 cagacacagctcctccctcacggagcttccagtctggtgggagagacagatgtcggtggccaaatcacacaaacaaatgtcagcgtgccaccaggacaggggtttggaaggagagaaacagggaacagggcaggtagggaactgacttccctggggaggccgggaggcatctgccgggggtgctggctgatcccagttctgaacgataagggggagtgaaccgggcacgggaaggggggagggaagcacc
1 AGGGGCCAGCTGTGGGAAAAGGGAGAGCGTGACAACAGATGGGGGGAGGAAGGAACGAGGAGTAATGGGGCGTCAGGGCCAGGGTGGCAGCTCAGAGGGCCCAATGTCGCCCCGCCAGACCCAGAATTAGGGCACGTCTGCAAAGCTCACACCCTCCATTTGAGAGCCGAACCGAAACCATCACAAGATGAAACCTCCGGACTCCCAGCCgcggcgggcggcgggcagcgggcggcgcgcaagcgcgcgg
1 CCCGCTTTGACAGCATTGTTTACTTTGCTGGACGAGGCCCCACGGGTGAGGGGAGTCCCCAGGCCGGGAGGAGAGCGTGATAAAATAAAGCTCAAGTAATAGCCAAGGGAAAGTAGGTGGGGGTGGTAGGGTGCTGACAGCCTTAAGGTAGGGTGTCTTTCGGCAGCGACGCCTTTGGAAATGGATTGAAGGACCTTTGTCAAGGACACCCCAGTTGGGTGGGGTGGTTGCTTGATCCTGTGGAAGGGGC
1 TGTCATATGGAACCTTCCTACACAGTCTGTTTTTCCCCTGGAGCTGACGATGAATCACTTCTCAACACTGGCGGGGGCCATCACGTGGCCGGCATGGAGCTCGCCTGGAGGAGCGAGGTTGAGGCAAGCTCTGTGCAGGAATGTGGCTGCAGTGATGTGGCCTGACACTTCCTTAGGGAGTCCAAATGTGACTAAGGCTCTTTCTCAGTACTGTATGGAATGAATAACCACATGTGAGAAGATGTACAGC
1 GACGTAAAGCCTGGTAGGGTTCAAGCGTCCCTAACTCGCCACAAAAACGGACATTTCGGCTTTTTCCCCTAAGATCCAGGAAGGCAGCTCAGGTGTAAGGGGATGAAAAGTACGGAACCCCGAGGACACATCAACTCTACAAAAAGTACCAAGACACACGGTTTGGACGAAATGCCCCTCGCCTTGGCAAACTTTCCACACCTCACCCGGCATGAGAGAAACAGCCTATTCCTAAGGAACGGAGCGCGCA
1 CCTGTCTCTAGCACTGAGAAAAGGTACCCTGTTGAAGCAAGCTATTCCCTGGAACCCAGGCATCATGCCACCTGGGCACTGGCACAGCAGTGGGGCTCAGAGAGAGGCCTCAGGGAGGACCGAGCACTGGTGGGCTGACCCTGCTTTCTCCATTGCCTTGGGGAGTGGCGCCATCTAGTGGTGATTGTAAGAAAGAGCCTGCTTAGCTCCACTGGGAAGACCCGGAAGTGGGTCACCTGCAGGGGCAGGG
1 TCCATCCACCCGCGCTCTGGTCTTTGACCTCCTCATCCCACAGTGGCTCTATAGTCCCAGCTCTGACCCCTCCCATGCCTTGCACCGTTCTCACGGTCAGTGCAATTGGTCCAGGTGGAGTTGGGGGCAAGGGTGTCAACCCCCAAAGCCAAGACCTGAAGGAGAGGGGGCAGGGCCTAGCTCACCTGGGGGACGGAGACACAAAGCAGCCACAGCCAGGCAGGGACCATGGTCAGGACAGGCCTGAGGG
1 CCACCAGGGCCCAGCTAGGAAATGCCAGCCTTGTCCTTGGTCTTCGTCCCTAATGGCTCCCGGCGGGTGAGGGAACTGCCTGGGGATTCCCCATCGTTGAAGCGCTCTGTGAGTGACCCCCTCCTAAGCCCCTCCAGTAGGGGATTTCCCAGAATGTTCCCACGCCCCCAGGAAGCCTCTTCCTTAGCCACCCCCAAGCTGCTTGCGGTTCATGGTAGAGGTAGGTGGCATCAAATGACCCCACAGGTGA
0.1462662178062304 CCTGAGTGCTGGCTGGCGGAGACCCACAGTGGGTGCCCCGCTCCCGGACGATGCCCCTGGGCTTCCAGATCCAGAGCCTCGGGACGAAACTGTTTCAGGAAGACCCGGAAGGACTCGCCGGTCGCGGCAAGGGACAGGCGGTTCCTGAGACAGGAGGAGCCAGGAAATGCGGGGCCTGGTGGGGTGAGGAGCACGGGGTTCCTCCTTCATCCTCGCGGGGACTTTGCCACCGGCTCAGTGTGGAGGCCTC
1 CCGTGGAAGCTTTTCCTGGAATAAAGCCCACGCATCGACCCTCACAGCGCCTCCCCTCTTTGAGGCCCAGCAGATACCCCACTCCTGCCTTTCCAGCAAGATTTTTCAGATGCTGTGCATACTCATCATATTGATCACTTTTTTCTTCATGCCTGATTGTGATCTGTCAATTTCATGTCAGGAAAGGGAGTGACATTTTTACACTTAAGCGTTTGCTGAGCAAATGTCTGGGTCTTGCACAATGACAATG
1 GTGGAGAACCAGGGATCGCACAATTAGGAAGGCAGGCTGTGCTCTCAGGTTTGCCTCATTTCAGGTCTAGCTTGAGTTGGGAgtgtgtgtgtgtgtgtgtgtgtgtgtgtgtgtgtgtgttgtgtgttgtgtgtgACTGTGTATGGCCTGGAGGGCCAAACCCAGGGATTAGGAGGGAAAGGAAAAGAGAGGGCGCGGAAAGCTGTGTTTGTCCCTGATAGAGCCAGCTGGCACGAGGGTGCTTTAGTTA
1 tctgagatacagcagccaaggaagaccctcccccgaccagggctcagtggggagggcacagctgtggcttagtggatgtggctgtgggctgcaccaacagagcttgctggaaatccaccctttagggtgctggggaggctgttcatgaggagatatctgctacaaacccaccctagagagagcagagggaagctgccaactgcgttcaccgcactgctggagaggccgcccacactgcaggagtctgccc
1 CTGAGTGCTGGAAACAGTTGCAATGGCCAGCACGTGGGCAGAGCTCACCGCAGACAGTCCTCAGAGGTCGGAATCTGCCGTGCATCTGGCAATCTCTCTGCTGCCCCTGCCCCAGCCTGCCCTTAGCTCATCTCTCTGGAGCCCAGTGGTAGTCTTCATGGGCTCTCCTGCTTCAGGCTGTCCTGACTTAAGGAatgtccccactgccctcatcccttcacagctcctctgcagatcagagtgcaagcca
1 tttccaggaccactcccatcacataatgtagaggccacctatgcttagcccggccctAACCCCAAAGGGGTCAGCCCCACCGGAATCCAGCCTATTGGCTCAGCCTGTCACCACAAAGGCCAGCTTCAGCCCAGATAACTGTTCTGGAAACAGAAAGAGCAGGGACCGCTCAGAAAGGAGATCTCTGTCCCTGTTTGAAAGCCTGGAGTTGAGGGGACAGTGCCCCGCCCCCCGCCCCCCGCAACTTGGG
0.4075293785796215 GAGCCCCACCAGGTAAGCCTCGCAGGCCTCCTGCAGCGCCATCACAGCCGAGCTCTGGAAGCGCAGGTCGGTCTTGAAGTCCTGCGCGATCTCACGTACCAGACGCTGGAATGGTAGCTTGCGAATCAGTAGCTCAGTCGATTTCTGATAGCGGCGGATTTCACGGAGGGCGACAGTACCAGGCCTGTAGCGGTGGGGCTTCTTCACGCCACCGGTGGCTGGCGCGCTTTTGCGAGCCGCCTTAGTGGCC
1 ATGGCCTGCAGCTGGCCACGCTGGGGAGGGAGTTGGGGGAGGAAGCGAGCAGCCAGCTGCCCTGAGCAGAAAGTGGAAGCTTGGCTCAGCTCAGCCTGCACATGTGTGGGGCTGTCTACTGGCATGTAGTGTCCCTTGGTATCAGGAGGCAGGAAGTCTACGTGCAGGTTGAATGTGTGGCCCAGAGTTTTTGGGACAGATGCAGTGCAAGAAACGGGGTACAGAGCAGTTGAAGGTGCTGCATGGAGAA
1 tagccttagggtccctgcccccagacccaggtgttttccttttgatccacctttgggaagtcagcatggattgaccttagactccctgcccccagacctttgtgttttctcttttagaaagtcagcacaaattggcctcagattccctgcccccaaaccttggtgtttttccttcattcaacacgaattggccttaagttctccatctccagaccctattctcctgcctcTTAACCACGGAAAGGTGCTG
1 CATTCTCAGAGCTGCTTTGATGGGAGCCCTGGAGGAAGCGGCCATCATGACAGGGCACCGGGGCCACCCCAGAGGCTGGCATCACCCCCAGCCCCTCCCTGCAGTCAGCCCCACTGGGACAGTGCCAGTCAGGGGATGAAAGTGCCCAGTCTGGTTTGGCAGGGCCAGGCCTGGCAGTGGGCCACCACAGGGCAGGGTGCAGAGGGTGGGGTGGGAGAGGAGGCCAGTGGGCAGGGCTCCTTACCCACCC
1 CCTTGGTTGTTTTAGGGTGGACTTCAACTCCTGCAAATGTCCAGAGGAGGCCAGCAGAGATCAGCCTGGGTCTTAGGAGTGAAGAATCTCCCACCAGAGCTGGGATGGAAGAGGATTAGACAGGCAGCGGGAAAAGAGGTCATTCCAGGAGAAGTGGACCAGGGAGACAAAGGCCTGAGGCCAGAATGAGCAATACATGCAAGAGGCCCTGGGGGGCAGGCAGGACGGGAGCTGGGAAGGAGGGGGCGGC
1 AAGTAGGCACAGGCCACAGCAGCACACGAGAACCAGAATCAGGACCAGAACCCGGCACTCTGGCCATTTTCTCAGCTCTCGCTACCAACATGAGGCAGAAGGATGCAGACTCGGAGAAGGGAAGGGGCTGTCCCATTACACAGTCCTTTGTGGCAGAGTCTGGAGGAAATGACTGGTGCTTAGCTGGCCGCTTGCCCACCTGGACCCCTCTCATCTGGGTTCTCTAGGTTCAGCTGTGTGGCCTCGTGAA
1 gactcctggcctcGGAGCCCTGAGGTGGGAAGCGATGTCAGCGACTGCAGGGATCGCACGTGCTGGCGTCCACCATGCAGGCCTGGGGAAGACCTGGTCTCGCCCTCAAGGGGCTCACGGTCAACAGGGGTGGGCGCAGGGCTGGGTGTTTGATGTGGGGTGACAGGCGGGGTGCGGATCAGCAagggggggcttccctgggctggtcctgtctgagctcagtgccgaacaaggatgccgtgggagccgg
0.06648602320078853 GACAGTCAGGACACCTGGCTCCTGGTCCTGTTGCTGCCTCGGGACTTGATATGTGACTAGCCAAGCCGGACCCTTCCAGTGTCATTGTCTTGCTGATGCTTGGACATTTGCCTTGGAGTTGACCCACCTAGGGACCCTCTGAGGACATTTGTGGACAATCCTGGAGAGTATGCCTAGGGCCCAGGTGGGCGGGCTCTGCCTATGAAGCGAGGGGATTCCCCAGCTCCCTGTCATCTGGCTTTTCTCCCAG
1 GAGCTGAACTACCTCCAGCCAGTGACATCCCTGAAAGCTGGGAGGTCCTTTGATGTCAGAGCTGCAGACAGATGCTGCTCCAagggcctcgggccagggccaggagttgaactttatgctactcccactggagagctatagaaggtgtttgcatgtagggaacatgatccatgcacctttttcaaggcccattctagctgctatgtggaagatggattagagggaaagaggcagaagccagggagcagtc
1 tagagtaacatctgttacttaaagtcaactgattataaatgttaatcacatctacgaatactttcacaggatcatctaaactagttggtttttgttttttttgagacatggtctcactctgtcacccaggctggagcgcagtgttgcaatcacagctcactgcagccttgacccatgggctcaaacagtcctctcaccttagcctcttggatagctgggactacaggcatgcatcaccatgcctggctaa
1 GGAGAGGAGAGGGGTGAGGAGGGCGGGAAGGGGTGCGCGGGAGGGCGACAGCGGCGTGGGAGCAGGTGGGGGATCTCGGTGAGCGCGGGAAATGGAGGGTGTTGGGTGAGGGTGCTGCGTGCGGGCCCAGGTGCTGCGCGCGAGGGTGCGGAGTTGCTGGCATGCAGGGTGCTTGCGCTGCGCGGAGGGGAGGGTGGCAGGGTGTTGCTGGAGGCTGTGCGAGGGTGGGGGCGCGGGCGTCGTGGGGTGC
0.6140298179662035 gggggcggggcgggagcgcggTCACCCGCACGTCTCCCAGGGCGCGGGCCCCGGAGGACTCTGGCGTTCCGTTGCAGGCCCTTACACATCTGCACCCCACTGCGCCCCGCTGGAAACCTCCACTCACAGCCGCCCTGAAGAGACCCTAATCCTCTCATGGAGACCCCAAGCCCTCCCGATGAAACCGCCACCAATCCTCCCATTGGAGGCCTCCCACCCAGCCTCTCTAACGGAGAGCTAATCCCCCGCC
0.06537681932834333 TGGCTAGCTGGCCTCAGGGACTGAGGAGAAGCTCTTCTCACAGTCCTCTCTGCTCCCAAGGTGTGTGCAGCCTCCAGTCCACAGGGGTGCAACAGGGAAGGCCGTGGCCCCGCTGCAGGCTCAGCTGACCGAAAGCAAATCGCTTGGGAGTTAACTTGCCACGGGACCTGGAGATGGGCTTTGGCCCTACCCGTGCCTCAGTGTGCGGTGTACTGTGCCCTCCTAAGGGAGATGCAGCTATTGGGCATTT
0.9715792524961341 ttggcaaccgagaggaaaagggcagtctagggaacaacgtgtacgaagacatgaaATGACTCCTCCTCCTGGTAGCAGCCTCCTCACAGGTCTGTTCTCCGACGGAAGCCGGGACCTAAGTAAATATTTGGCTTCTGGTTTTTCATTTGCTTTCCTTGAAATCAAACAGACCGACCAAGTCATGAGCAAACAAGGACTAGGGTCATTCTGGTCCTAACTTGTAAATCTCTTTGACCGCTGACCCAGCTCC
1 CTTTCTCTGCTCGTCTCCCTCCCTCACTCAAAGATACTGGGCCCTGTTCCGAAGGGTCCTTCCCATTGCCACGGTGCGTATTCAAAAAGTCTGTCAAAAATCAATGACACTTGggccaggcacagtggctcatgcctgtaatcctagcactttgggaggccgaggcaggtggatcacttgagatcagaagttcgaaaccagcctggccaacatggtgaaaccccgtctctactgaaaatacaaaaTTAgc
1 GATGTGATCCATTTGTCTTTCCAGCCCATTTCAGTTGAGTTTCCAATGACTTACAACCAATAATATCTCAACTGATACTTGGGCTCTTCAAGCACTAGAATTGTGGTGACGGCAGGAGCGTTAACACACTCTGGGGCGGGGCAGGGACTGCAGACTGAGCGGGCTCCAGGTGAATGCCAGCTTCCAGCCCTGCTGAGCCAGGCTGGGACGAACATGCTCACTAGGTCCGTCTCCACCTACTGTGGGCCAG
1 GGCGAGCCAAGGGGTGTCCTTTGGAGCAGGGGCCGTTCCCTGTCGCCACCTCCCCGTTTCTGTGGGCGGGTGGCCTATTGAGAAACTGACAGGATCCCTTTTTCAAATGGAGGCCTTAGAATTTTAAGTGCGCCTGGCCAGTTTAGTTGGGGGGTGGGGGGTGTGGTTACTGTGAACAAAACAGGATTTTATATAAACTGGCCATATTTTTGACCAGCCAACAAGAGACGGGGGTGGGCCCAGGCGCCCA
1 AGAAGCTTATGCTCAGGGAGTGAACAGAGGAGGCTCATGCTGTAGAGGGCCGAGGCTTATAGGTGCTTCCAGGGGGACACGGACCCTGGAATGAGCAGGGCTTATGGTAGACAGCACAGTCCCACCCCCAGCCACCTTCCCCAGGATGACACAGGCCCCATCAGGAACGCAAACAGTGATCAGTGATTCCCCCTAGAGGAGGGTGGGGATGAAGCCACCAGCCAGCCAGGAGTGCTGCTGCGGGTCGTCT
1 TACAGATAGGGGTGGGGATTTGGGTGACGCATTTAAAAGACAGCGTGAGACTCGCGCCCTCCGGCACGGAAAAGGCCAGGCGACAGGTGTCGCTTGAAAAGACTGGGCTTGTCCTTGCTGGTGCATGCGTCGTCGGCCTCTGGGCAGCAGGTGGGCAAGGAAGGCTGgtgtgtgtgtgtgtgtgtgtgcgtgtgtgtgtgtgtatgtgtgCGCGCGCGCGCGCCTCCCCTGGTGTAAGAGATGTGCCAGC
0.5390950481357087 GCTAGTCTCCGAGCTCATCCCGCCTTGCGCATGCGGAGAAGGTAAACCAGCGCCCCGAGTTGAGGCGCGGGTTTGGTGGCGCGTTTCAGCGAAGTCGCACGTGAAGGATAGCAGTGGCCTGAGAAAGGTGAGAGCGGGCCGAGGTCGGAATGTGGGGCAGCGCACGGGAAGGGGAGACAGCAGCCGCTGCAGGCGGCACCAGGCGGAGCCGCGAGGCCTGGAGAGTCCGAGTGGGGAGGGGTCCGCGCGC
0.8923827967047764 CTTGGGCCGTTGGGCTGCCCTGGGAAAGGCCTGGAGGTGTCCTGGGTCACCTTCCTGGGCTGGCAAGCTGCCTGCCTCCTGCACAGCCACTGCCCTTCCTGTTGTTACCGAGCCACCAGCCACAGCTCTGAGAAGCTCCTGGCAGCTTCTGTTTGCCACTGGCTCGAATCTGGGCAGGAAGGCAAGGCCCGCAGAATATCTGGTGACCAAGAAGGAAACCCCAGAGCCTCAGAGACCATCTTCTCAGTGG
1 GTGGCCAGTGAGGCAACGTGTTCAGTCTGGACATGCCTCATTGTTCCAAACAAGGTGACAGGGGAGAGGCAGCTCCTGCTGGAGAAGCCGCTGGTGAAGGTCCACTCTGCAGAGTTTCAGAATGGTGCCAGCCCTTCCAGGCTGCTCCTTGTCCATTCCCTGCCCCGTCAGCCAGCCTTGGCTGCCCTTTCAAGGACACATGAAGCCACAGGAACAGGGAGGGCCAGTCTGCGTGGTGAGGTGACCCCTG
0.1032852382006796 ATACGTACAGACGTGCTCGGGATGCGGGTCCCGCCGGCGGGTACCTGGGCACTGCGCCCCATCTGGACTGAAATGGGGACACCCCTTCGGGGGTCCCAGGTGCGTGTGCATTACACACGGCGTAGCGTGTGCGTGTCACTCAACTTCCTGGTAAATGCCTCTGGGGGTGTTCAGATGCAGGATCAATACATTAAGTCCTGAATCAAGGGTCACAGAGGTCCCGCTGGAAAGACTTCAAACAGCGGCTCTG
0.3872992631127367 TGCTGCACTGCCCTGTCTTGAATTCACACAGCCGGGGCAGATGGCAGCAGAGGACAAACGCACACACAGCGAACACTGGGGACCCAGGGGGCCGGCGGGGAGGGCCCACACCATCCTCACTTCCTGGCCGAAGGCAGCTGTAGGGCTTCTAGCCGCTTGGTTTTAGCCCCACTGCTGACGTATTTCCCACCTTTGATCTGCTGGGGCACCAGTTTCGTCAACACATGCCAGATTCAAGTACAACTGTGCA
1 GTCGCCGTCGGTGCTGGAGATCCTGGACACGGCGGGCACCGAGCAGTTCGCGTCCATGCGGGACCTGTACATCAAGAACGGCCAGGGCTTCATCCTCGTCTACAGCCTCGTCAACCAGCAGAGCTTCCAGGACATCAAGCCCATGCGGGACCAGATCATCCGCGTGAAGCGGTGAGCGAGGGCACACGGGGGCTTGGCGGCTGCACCCCGGAGTCACCGTCCCGGGGCTGGAACTCCCCGCGCGGGGCTC
1 TACTTAAAAAACAAAAACAAAAAACggccaggtgaggtggctcacacctgtaatcccagcactttgggaggccgaggtgggtggatcacctgaggtcaggagttcaagaccagcctggccaacatggggaaaccccatctctactaaaaatgcaaaaaattagccgggcatggtggcacgtgcctgtactcccagctactcaggaggctgaggcaggagaatcgcttgaacccgggaggtggaggtggca
1 cattgccaaggtctgatttttcacacatgtctgcaattcaaaaaattgcaacctcctgcataagtgggTTAACAAACCTTCACCAGACCCCTAAAGTTCAGGCGAAATTGAGATATTTGACCCCCATAAGAACACCAGCTGGCACAGAGATCTGCATTCCTGGTGCCCTCATGGGAACCAGCCTGGGCCTGGCAGAGGAGGAAACGAAGTCCCAGCACACCAGCGAGCAGGCCTGCTCCACCTCAGGGGC
1 CACAAACGGTGCGTATCTGACCATAGCTATTGATTTGCACATTTGTTTCATGGACATTGGTCTCAAAACCAAAAGCAAAACTGGCCTTGTCGGCAGTAGTGGGAGTTCAGCACCTATAGCTGACAAGGGAACTAAAAGGAAGTTTGCTTGAAGTCTTTGAAGGATAGAGGGTGGGAGAGGAGGGAGAGTCTGTCTCACATTGTAGGGAGGAAGTAAAACAAAAAGTCCAAGTGAGTGATGGAAAAAGCCA
0.99369435453578 gaagtggggattttggagccatttgggtatatgtgtagagttcaaggtctgaggcctggatgagccaggagtgagggtagagggagaaactggagtcgaggcctggagcattgaaccttgaacatcgggcggtaaagagaggaggctccggtaaggggttggaaaggagtgctgcaaagtgggaaccagagtctggtgtcctggaCATCCAGGAGGTGGCCACTCTGTGAGGGTCTGCTCTGTACACCAA
0.7972514688122148 TCTCCAAGATAACGAAGAAGTGGCACTGGGAAGTGAGCCAGGTCTGACCCCCATGTCAGTGCTGCTTCCGTCCTCCTCAACTCACTCACTCAGCCAGTCCAGGGTTCAAGCAGCTCTGGAATTTCCTGTTTCCCTCCCTTCCCCCTGCAGAGCATAGCAGGGCAAGGTTctcatcccttcactttctcagcctggcaaatcccaactcatccttcacgaattgactcaggtggcaGCCACTGTCCCTCCA
1 GCCACTAGACAGGAGCGTGGAATGCTGGCCCTCAGGAGACTGAGGCTGCAGACAGGCCCTGATGAGAACTCACATCTACCCCTTGGCAGGAGCAAGGCCACCCACACCTAAGGCATAAAGGCTCAGAATAAGCCAGGTCATGGCGTCGCAGGGGGCAGCACACTTCCCTCCCGACCTGCCCAAGTCCCACCTGGGCAGACCATGCCTCACTTGGTACCCCAAGGCCTGCCCAAGCTTGCCTGGGCTGGGC
1 ctgggaaaacggtacatgcctgaccaaatactgagcttttcccacagtcttcgcaacctgcagaccaggagataccctccctcccatgcctggctcggtgagtcccacacccatggagccttactcactgctagcgcagcagtctgagatcgacctgcgacactgcagattggcggggggaggggcatctgccattgctgaggcttgagtagctcacagtgtaaacaaagaggccaggaagcacaaactg
1 AGGCCAGCTCCCTCTGTGGGGCCTTCAGGTCCCAGCGTGGGTATGggatatctgaggcttcctaggctgggccagctctgccacacaccagctgcatggccttgggccggggacttcccgtgcttgtgcAAGTCATTGTGCAAGGGCCCTGGGCTTGGGGGTGCTGCACTCCAGGCAGCATTCTTCTCATGCCCACTCGGAGGGAAAGGCACCATCACTAAAAGGCACCAAGCTGCTGTGTGTGCCTGCA
1 atcctccttgtctcagacttctaagtagttgggattacaggcgtgagccactgtgcccACATAAAACTTTAGAGAACTGCCTTTTTTGTTCTCTAGAGCATGTGCTGGGCAGGTGTGTGCAGTGGGTGAGGAAGAGGGTTGGGAAGGCAGAAAGCAGCAGGAAGCTAGGATTGTCCTGTAGGTGGGGCTTCAGCTGCTGGAGTGGACCGGAAATCTGCCTTCTCCAGGGGCTTTCTGGAGCCTTCCCTCT
1 atacatcctgtctgaaggggcagcctgtgctcacctcaagccacctgctgccctgggaatgcaggcccaCATTTTAAAATGTTGACAACTAGTCCACAATTTTTAAAGCACATGAAGAGGCCAAAGCAAACATACCTAAGGGTCAACTTTGACCCACAGGCAGCAGATTGTGAGTGCGGCTGTGGCTTGCAGGGTGTCCTCCCACACACAGCTCAGTGAGCTTGCCATGCACCAGTCCCGATGAGAACAA
1 TGCCCTTCTCTGACCAGTTGTCAGTATTAGGGTCCCCCCACCACACTGGAACACTTCCAGGGTGGGGCGGGGCTGAGTCATCCCTGTGTTTATGCTGAGTCCTTACAGTCATTGTTTACTCAGTTGCTCCGTGGTGCAGGCCAGGGCCCTGAGCCCACAGTCCAGAGCCAGGGAGAAGGGGGGTAAGCGATGCCCCTGGGCTGCCCCCAGGCTCCACACCACCTGCTCCCCTCATCCCCCCTCTACTCCT
0.07131536242237177 CAAGAGACAAAACTCTGACCCCGGTGTGGGCAACGCGGACCGCCAAGGCGCAGTGGTGGGTGGGGAGGAGGCAGGCTGGTGGGCATACCCAGCCGGCCCACTCTACTGATGCGGAGACCGAGCCCCAGGGCAGCAGAGCCCTAGCTTCGCGCTACACGGCTGTGGGCGCTGCGCCCCAGGGCACGGCCGGCCCAGGTCGTGGCCCACTCGGGACCCGCGGCTCACCGGTGCGGTTGACGCGGCACGGGAA
1 GTTGGCAGGGTGCTTGTCAGGAATGCACGTTCCTGGGCCGCAGGGTTGGGGAGGGTCTGGGAACCGGTGTGCTGGACAGAACTCCCAAGGTCTCTGATCTTGCAAGTCTCCTACCAAAGCTCCAGCGAGAGCCACTGACCTTATTCCCTAAGAGCGGATGGTTCCGTAGGCTGGACACAGGGAGGGACTGCCCCAGACGGGCTGGGAACCATGAAGCCAGCACAAGCCTCTGTGGAGGCAGGGGGTGGAT
0.4251002627214969 CAACTCCTCCAGAGGCAGGTATCCTACCCCGGCCCTGGGAGGCCGACTGGGCGGAGCTTGGGGTCCGGACCACGCGGAGCCCTGGCAGTGTCTATGCCTAGATCTCGCCGCCCTGCCGTCCACCCATTTCTCCCTACCTGACTCGGCCGTCGCCACCAACGCGCTCTCCCAACCCTCGGAGTCAGTTCCAAAACCAAACCAAAAAGGAGGAGAGCAGACAAGGCTTCAGCCTGCGACTGAGAACAGGGAG
1 GGCGTTCACACAGGCTCGGGTACACACACGCACGCTCACACCCCCCCAGAGAAATTTATGAGTGGTCACCACTTGCACGGATCCAGACAGAACCTGACCCGCCTAGGACATTTAGGCAAATCCACCTGGTGTCTCTGTCCGTGGTGCTGAAACAAGAATGTTTGAACGTCCTCCCTATGGAAGCACTAACAGGAAGTAGAAGGGAGAAAAAGACCTGGGAATGGGTGGTGGACAAAAAAGAAGCAATGGA
1 ctgccttacaatggaaggggctgccatgataggtcatgagcccccgacagtggaggtggatgaggaggacttccctgtgtcaggtgtgttgcccaagggtttctacatcgaaagggaggtaggaGGAAAGCTTGGAGATTCTGTGGCTGGGTCtgtctgtttcctgctagacaggaaacagtgagcttctgtgggcaggaaccctgtccttttgatctttgtgcctagtaGATGTCTGTGAGCAAATGAG
1 GCTGCAAGAGCTGCAAGATCCAGACCCTCCTCAGCCTCACACCTCCAAACACCCACCTGCCCGTGTTCACCTGTGGGGTGGTCAGTAAGCAAGTGCCCAGGGACACACGGAGCAGGGCTGCAACCCCAGGCCATCAGTCGGCCTGTGCTCTGAGCCCCCACTGCGTGCCAAGTGCTGCAGGGAGGGAACCATGATGGTGCCGTGCACGTGTGCAGAGCCTATCACTTACCAAACATGTTCGCCCACACAC
0.1918310821112855 CTGACCGGAGCCGGGAGAACAACCTGGCCTCAGGGAGAGAGACGCTACCGGGCTTACGCCACCCCCTCTCCTCAACACAAGCCCAAACTGCTACCCGCGAGGTGCAAGTAAGCGGCACCTCAGAAGTGTCTGCGGGCCCTGACCGGGCGCAGGTGGTGGTGCGAGTGAGCAGCACCAAGGAGGCGGCAGCCGAGGCCAAAAAGAGCGTTTGTCGCCGTCTAGATTACATCACGCAGAGCCTCCAGCAGCA
0.6907148315219394 CAAGCACACAGGTGTCCACACTCTCGGCGCCCGGCTACGGCCCAGGTAAGCCCAGATCCCGGCCCGGGCGGCGCACCCACCTGACGAGGGGCTCCTTCTCAGGCAGGGCGCGCTCCTCCAAGCACTCGCACCCGCAGCAGCAGCACACGGTTCTCAGCCAGTCCCTCAGCCCCATGGAGAGCGAGGGCCCCCACCGGCGCCGGAAGCCTGGGGCCGAGTCGCCGCGGCGAGCGATCGAGGCTGGGGCGCG
0.5800952113704992 CCGGCCGGACACCCGAAGGCCGCACTCACCTGGCGGGGGCCTCAGACGCCTGGCGGCCTCGCCCGCCTCCCTAGACGGAGGGCTCGCCCGTGTGCGGGGTCCCAGGGAGAAGAAGCTGCGGGGAAGACAGTGGGTCGCCCGGGACCAAGCCTGGCTGAAGGGACACATTGAGCGGGGCAAAGGCATGTGGCGCATCAGCCGGGCTCACGAGCGTGTACCCGAGAAACCACCGCACGGAGCCCATGGCGGA
1 attccagcccttaccacttcacgttgtcattacacatcacttagctgccctctgcccccaaacatatagtctgtgagctcctggaaaccagaaactgagtctccatgctcactgtgtctccagtatccagcacaatgagctagggcacaggacaacaggcttaacaaatgttcgctgaCCGGGTAAGGAAATACTGTCTGTAGGCcggcctttcctggagacacttgactgccatctactggcacaccat
0.573284197748701 ccaggaacactgtgcaaacgtacgagaccgaggctgggaggtgtggtggttgggagaggcacgggtgggtgactggatggccactgaaaaggtgccatctgagcaaggcctgaaggagggcagctgggagccacgcaggcgtcggggggagcattccaggcactggggccagcagcgcaaaggccctgaactgcagccaggcacggtgggccagcagcaaggcggagcagagtgggtggtggaagggagg
1 tctgtcacccatgctggagtgcagtgggaaacccttggctcactgcaacctctgcctcctggattcaagcgattttctgcctcagcctcctgagtagctggaattacaagcacgtgccaccacgcccagctaatttttgtatgtttagtagagatggggtttcaccatgttgactcacactcctgacctcagatgatccacccgcctcggcctcccaaagtgctagggttacaggcgtgagccaccgcgt
1 tgccAGTCCTGAACTAGTCTTTATCCCTGTATCTGGAGGAAGCAATAGGATTCCAGGGATTTGGACAGGAGAGGCTCTGCCCTGAGAGGGTTAAAGGCAAATCCGGTTTGATTTCTGGCCTCTGTTACCCAGACCTTGCCAGGCTGGGCAAAGCAGGATAGGGCAGACCTCCAGCTCCATGAAATTTGACCCTGCAGGCTAGAAGTCCAGCTTTCTGTCCTTGGGCAAACATGCCTGGAATCCAGCCACA
