svm_type c_svc
kernel_type wgkm
L 8
k 5
d 2
M 50
H 50
nr_class 2
total_sv 13930
rho 2.13599
label 1 -1
nr_sv 6708 7222
SV
1 AAGATGGGGATTTCCTCCTCAAGATTTAAAACTATAGTCTGAAAAAAATCACTGAGAACACTCTTTCCAGATCTTTCCCGCTCACAATGGTTACAAACACTTTAAGTGTTAAAACAAACGTGGATATACAGGCTTTTCTGTAATCACCCTGATGACGATTCATTGACTGTGAGCCTCGTTGCATGTTGGGACGGAGAGGGGCGGAAGGCTTAGGGACAGCGCGGTGCCTTCTGGGATGCAGAGGGGCGCC
1 AAGAGATAAACAGTAAGGGAGGTAGGGCAGGAATTTTTCTTCAACGTGTACAATTCAATGTACTTTCAGTTTTCATTTCAGCCTTCCTCAGTGGTTTCTGCCCAGCAACTGATGAGAAACATCACCTCTGAGCCAATCAAAAAACTTATTCTTCCAAAGAGAGATTGTTATTATTCCTCACGATGACCCGACAGTCTCTGCTTTCTTTTTCCTTTCTTCCAGAAGGAGATTTAACCATAGTAGAAAGAAT
1 CTAAGGGAGGTAGGGCTGGAGTTTTTCCTCAACGTGTACAATTCAATGTACTTTCAGTTTTCATTTCAACGTTCCTCAGTGGTTTCTGCCCAGCAACTGATGAGAAACATCACCTCTGAGCCAATCAAAAAACTAATTCTTCCAAAGAGCGACTCTTACTGTTTCTCATGGTGAGAAGACAATATTTGCTTTCTCTTTTTCCTTTCTTCCGGATGAGAGGCTAAGCCATAATAGAAAGAATGGAGAATTA
0.08941480560648939 CCGGCAGGGACCCGCGCCCCAGGTAAGCGTTAGTCCCGCCTTCAGGAGTGCGGAGCCTCCCATTGGACGAGGTCTGCGTCCGTCTCTCCGCCGGCTAATGGCAAGCGGCGGCAGCACGGGGGGCGGTTCCAGGACCGGGCGCGGGCTACTGACGCCATCTCTAGAGGCCTAGAGTTGCTTGGAGAGGAGCTGGTTGCCAAGGCAACCCGCCCTGCCCAGAACAAGTGCAGATGACTAGGTTTGGGCCCCG
0.7903025657554362 AACCTAAACCTTGAAACCGCGAGCTATAACATCCCAAACTGGTCCACAGACAATCAAGAGACAAAATATAGCAATACAGTATACCTCGGATATCCACCGCCGCCATAATTCCGAGAGCGTTTACAGGTTCTCTTTCCGGCGCAAAGTAAACGTAAGCCTAGGCCGCCGGAAGCAGCGGGTTGAAGAGAGTGCGCATGGGTGAGGAGGGACGTAgagcggaagagggggcggggcgggcaggagagaggca
1 TCGGCCCAGCCACAACCAGCCCGCCCGCGCTACGTCATCACGGCGCGTCGCGCGGGAAGTCGCGGGGAAAAGGTAAGATGCCCCTTCCTAATTCCCTCGCTTCCTTGCTTGCTCTCCAGACACCGCCGACCCGAAGGGCTCCTAAGTGACTGGACAGGGACGGAGGGGCGGCGGCTATGGCATCCGGGACGACAGCGACGATAGCCGAGGCAAGAAAAAGCTTGCACCGCAGCCCTGTCGGGAACCGCCG
1 CCGAGCCCTCTCAATTTCTCACCAGGCTTGGAGTCCCATTCTGCCCTTCCGCGGATCTGCTGTCATGTGACGGATCACATGAGCTCTATATTCCACCACCACTACCCCTCTGCCTAGTAACTAGTGACGGTACTGGCTCCTCCCTTGCATGGGTGGTCCCAAATGCTAGGCAAGGGTGGGGCCGCCACCCGGATTCTCCCCTCTGGCCAGTCAAGCACTGAGTAAGCCCAGGGCTCCCCACCTGCGTCCT
0.1134878447518759 TCGTAAAGGCCTTCAACTGGGTCTCTCGGTCAACCCCTCAGCTACCGCCATCTTGAAACCTCGCGCCCCTCCGCACTCCTCACGTCATTTCCCATTCCTCTGTCCCGCCTTCTCTTAGCGCCGCTTGACCCTGGAACCATAGAGAATACCCAAGAATTCCAGGACCAGAGTCTCTTCCGGTTCCATACAATACTCAATTGGTTGGTTGTCGGCTAAGAGCCCGCCTCATTGCGCTCATCTAGTACAATAG
1 CTCTCTGGGCTTCAGGCCCCGAGGGCGGTGCCTGGGATGGGCCGGCTCAGCTTTGGGGTTTCCCGAGCTCCGCTCTCTCTCTTCCACCTTTCCCAACCTGTGTCAGGTCCTTTTACCTGGATACTCATGATGCGGCCTCAGTTCTCACTTCCATTGGGTGTTGGGTTCCTAGATCAGCCAATCAGTGTCGCCGCGGTTCCTGGTTCTAAAGTCCTCGCCGGCCCACCGGGACTCAGATTCTCCCCAGACG
1 GTGAAGATAGATACACCAAAAGGAGCAAGCAGTGTCTGAAACCAGCAAAGACTTAAAAGTTACCGAAGAAGGTGTTCATGCTTTCATTTTATCTTTTTTTTTTAACCTAGCAACTGATGACACTGCATATCTTCCCCTGTTCTTATTGGGAGAAGGCCTTGTGTGTCACCAAGAGGTTCTCAGAAGGGACCTGTCAGTTTTTGGTTAAAAGAACCCGGAAAGAGAAGGACTATGGGGGAACTGATGGCGT
1 GCACCATTTTGTCCCTTCTGGACCTCAATCACCAGCAGGGCACGTGCACCCTCTGCCCATGCGAAGAGGCACTGTTGGCAGAGGAGTGTACTGGCACCTTGCAAAGAATCCACTCGGCAACTACTTACGTCGTTGAGCCCTGAGCAGGGGATTGGCTGAACCTGGAAGTGGGCGTGTAAAAGTGGCAAAAACAAATCTAGACGGCAACTGATCTGGATACAGGGCACTCGCCCAACCTTAATCCTCTCCT
1 GAAAGCTACAAAGGCTGGAAATACCCCACTTTGGTGAAGCTGCCTTTTGCGGGGCAGGATGTGGGGCGGGGGGGCTCCCCAGGCAGGTAGAAAGGCCAGCACGATCCCATTGGCTGCCCAGGGCCCTCATCACTTGTTTCTGGGCAGGCCTTTGGATTCATAAGGCTCTTTGAATGTTTCAAGAAACAGGCAAATGTCCACTCCCTAGACAGGAAAGCACTTTGAAACAGAAGACACCTTTGTTTGTCTC
1 AACTCTTGTCACCCCCCTCTTTATTTCCTCATTTACACTACCTTCTTCTGCAATTaaaaaaaaaaaaaaaaaaGCCAAAGTCAGGAGCCAACCAGAGCTAGCAGGAATCGTGACACAGATGTTGCCAGGCAGAAGCATTCACAAAAGCCTCCAAAACAGGCTCCAGTCTGGAATGGCCTAAGCACACATAGCCAGCTTTAGAAGCAGTAACTGAATAAAGGGAAAACTAGACAAGGATTAGACAAGGGGA
0.5598066343798561 GGCAGGGCCATGTTCACGACGGAGATGCTTTGAGAAGTGACAGGAATCTGAGTGGCTCCTCATGAGAACCTTCCGACGGAAGTGACGTCGTTACGACGCGCGACCCCTGTAGACTCGTCCCTCCGGAAGGCTCAGTGCATAAGTGGGCAGTCGTTCAACCTTCTGTCGTTCAGTTCATAAATACCGTTCTTATTGAGCATCCTAGGTGCAGAGCTACCCACTCCGCATACAGTGAGACTGAGAGATACAG
0.8581109929031369 GCCCCTTCTTGGTCGTGGTTGCCCCATTGTGGTCGAGTGGGTCTCCAGGTTCGCCCAGGCTCAGTCCGGCAGGCGCCAAATCTGCCCAGGAGAGCCCTAGTAACCGATGACGTATGGATCTCCACACCTCTGGGATTGGCTGTCCTCCTTTTATAGCCTTGAAAGTGGGTGATGGGGCGATGGGCTGTGGGAGGAGGTCAGTGCTGAGTAAGGCAATTCCCAGCGGCTTGAGCCCCACGCGGTCACTTCA
1 cctcgggctctagcGCCCGCTCCGCCATCCCCCCCACCCTGGTTACCAGCCTCCCCCGTTGTTAGGAGCCAGACCGGAAGTGGCGCGCATCTTCGGCGCCGCCGAGAAATTTCTCACGGTCTCTCGCTGCCCCAGGGCGCCAAAAGGAGACCAAGAATGGAAACTGCGCATGCGCACAACCAACAGCGCTCCCGCCCCTTTTTATTTGAATTCGGAGAACCAGAGGCGCCTGCAGATTCTGGAGGGGTCT
0.2889473367416212 TGTCGATGATTGGCTGGTCTCTGACCAATCACGGACAGCGATTGATATTTCTAATCGTCGTGATCCACCTCCCCAGGACCTTGGAGCCACGTTTACAAATAGGAATAGGGTACGTGGGAGGGATAGAACGTACAGCCAATAAAATCATGTGGCGCCGATGGGCGTGTTGAGGCCGCTGCCTGGCTTAGGGCGGAAACAGATTCTCTGCATAAGAAGGGGAACGAAAGATGGCGGCGGAAACGCTGCTGTC
1 ctctctcGCGGAGGCCCCACTGCCCTTGCATTCCACAGGAAGTCCCAGTTGCTGGCATGACCTGAGAGGTTCCTGGGACCACGCCATGGAAATGCGTCCGGTCCCAGTGTGACGGGGAAGAGCCGCGCCTGAAGCTCAACTTCCGAGGCTCTCATCAATCTACGCTTCCTTTGGAGCGTGCAGCCACCAGGTGGCAGCCGAGGCCACGGGCAGACAGAAAAGCTCCCGAAACTGAAGGACTGCCAGGCAG
1 CCAGGCGTGGCTCTCTGGGTCTCAGGCCCCAAGAGCGATGACTGCACTGGGGAGTCACAGGGTTGGGGATTGCCCACTCCCCTGAGTTTTGGTTCTCCCAACCTTCTTCCTGGATACTTGTGACATAATCCCACTTCTCACTCCCATTGGGTGCCGGGTTTTTAGAGAAGCCAATCAGCTTCGCCGCGATCCCGGCACTACGATCCCGGCACTACAGTCCCGGCGCAACCACCCGCACTCAGATTCTCCC
0.9212564091455225 GCGCGAGGGCTTCTGGGGTTTGTGGTTCTTCTGCGCCCTTTTGCCGCTGCGTGCTCGGATCTAGGACTATACATCCCAGAAGGCTGCGCGCAAGGAGGGCGGGGAAGAGGGCGTCCGTGACGGCGGCCTCACCGCGGCATCCTGGGAGGCGTAGTTCTCACTCCTATGACAGAAAACGAGGGTGTGGCCAGCAAAGGACTTCAAGGCCCATGATCCCTTAGGAGGGGGCCGGCTGCATTAGGGGTGGCTG
1 tttcaattacttgtatattaaggggcaagctgatgcaaattgagggccaagttatttagaaagatctagtaagttactactcctttccatggcaatgacccacaaaatttgtcgtcatggaaagaggcagtaacttccgggtcgttgccatggcatttgtaaactgtcatggcgctggcgggcgtgtcctatgctaatgagcaatgagggcggctagggattgcttttgtcgccatctgctggtttccac
1 CCCGGCGCCAGCAAGGGCGTAGTGCGCACTGCCTCCTGGGAGATGTAGCTCCTCGAGGCGCGCTCTCGCCCCTCATCCCGGAAAGGAAGACTCTGAATGACTACAACTCCCAGTACTGAAGAGGCTGCTCTTGCGAGGAGGCGGTGGGGACAGGCTACGGAGGATTTCGGGACTTGGAGTTTTTGCATTGAGTGTGGTGTCCGCAGGTTTCAGCACGTTCTTTTGGGTTGTAACTGGGGAAGGCATGGTG
0.842194387115662 GCTCCACTCTCGGATTGGCTGATTGATCCGAGTCAGTTTTTTTCCTCGCCAGAAAGCGGTTCGACAATTGGTCCTTCTTTTGGCCCCTCCTGCGATGCCCGCGGATTGGACGGCTGAGTCTGGCTACGCGGGCCTCCGCGGGAGCGCGACCGGGCCAATCAAGAGCTTGGCGTATTTTACAAACTGAGAAAGTAGCTCCAGCAGCACCCGAGAGGGTCAGGAGAAAAGCGGAGGAAGCTGGGTAGGCCCT
0.7383282001246355 tgggctcagccataccctggagcctccaaatcctctgctggatcctttaagtccagacatctgacaggggaagaaaaagtacaagtttccaaggagttattataggtcaagcctggaagcagtgaggtcacttccacctgcttcccattggccagaattcagtcacatgatcacaaccaactgcaagggattctgggaaatgtagtctggtgatgcctcgaggaggcaagagaaatgttttcagtgaaca
1 CCAACCCAGCTTCCCCAACTCCCTCCCCGAGAGGGTGGCCTTAGATCATGTTTTGCCAGATCATTTCCAATAGGTGCCCTTGTCATTTTGTCTAAACCAATCAGAGAAGCGTAGGGTTTAACATCATCAGTCACTGGGGAGACGCCTGGGGCCAGTAACCTCCTGAAGACTTGGCTGTTTGACCAGGGCAGAGTATGGCATGTAACTGGGCTGGGAAGCCCAGTGGAGGAATGTTGCTTCCTGGTGGAGT
1 TCCCGGCTTAGAGGACCTCTGAGAGCTCCGGGGCCCCTTCTGGGTCGTGGTTGCCTCATCGTGGTCGGGTGGGTCTCCAGGTTCTCCCAGGCTCAGTCCCGCAGGCGCCAAATCTGCGCAGGAGAGCACTAGCAACCGATGACGTATTGAGGCCCACACCTCTGGGATTGGCTGTCCTGCTTCGACAGCCTTGAAAGTGGGTAAGCTGGGTGGGGGGCTCTGGGAGAGGTCAGTGCTGAGTAAGGCAATT
1 GTCTGGGGTTCCAAGGAGAAGTTTGGGAACAGTCGGCGTTATGCGGACTTTTGCAGGCTGGGATGGGGTTTCCGGGCAGGTTTGGGGGAAAAAGGAAGGGGCCTAAGACCGCGCGCGGAAAGATGCCGTTATTTGGAGGCGCCGAAGCGGGCGGAGCCAGCCAGCAGGACTTCGCGCCGCCGCCGGGCCAGAGCGCTGAGGATCGGCGTTGCCAGGGACAACGCGTTCTGGGCGGAGCTGCTGCTGGGGC
0.075921257887525 TAGCCTCCAGCGACGCCACGCCCACTTCAGAGACCCCTCCTTTACCTCGCGACTGGCCCCTTGGCATCAGGACTTCGCGGCGCGCGGGAAGTACGTCATTTCGAGAGCCCGTACGACTAATTTCTTTTTCCGGAGAATCTGGACTGAGGCTAGCAAGCGAGGAGGGGCAAACTCGTGGGGGTTTGGTAGTGATTGCAGTTCAGTTTTGGTCTTGGTTTGCTCCAACCCGCCAACCTCTCAAGTTTTTCTA
1 GGCGCGGCCTACCCTCCCGCAGGGGGTAATAGGTGGAGTCAAGGGGCTACTTCCGGGATTCTTTCCCTTCCACTCTGGGGAACAACCTTTTTGTATGACTGGCAGCATTATTAGCCAGTAGTGATTAGAGAAGAGCCCGACGTTAGGTGCCTCCCCCAACCCATTTGGGACAGCCTCTTCTTAGTTAGCCAATTGGAAGTTTTGGAGGGCGGGTTCTCCTCTGGGGGAGGGACAGAGTGATGGGCGTCTC
0.2405177632012458 ATCCAAATGTTCCCCAGAAATTCTGATATCAAAACATTCCAATAACttttttttttcaggcgcagtctcactctgtcgcccgggctggagtgctgtgAGCTGTCCGTGGTGCTGAATTCACTGTGACGTCACTCCTGTCTCTCTTTGCTTTCTTCTGACTGACATTTATTCAGCCTTCTCTACAGGAATCTCTTATGTTCCCCCACATGCAGGTGGTTTTTCAGTAGGCTCCTGAAGAGTGATCTCAACT
1 AGGGAGGTACGGCTGGAATTTTTCTGCAACGTGTACAATTCAATGTACTTTCACTTTTCATTTCAACCCTCCTCAGTGGTTTCCTCCCAGCAACTGATGAGAAACATCACCTCTGAGCCAATCAAAAAACTAATTCTTCCAAAAAGAGATTGTTATTATTCCTCACAATAACCAGATAGCCTCTGCTTTCTTTTTCCTTTCTTCGGAATGAGAGACTCAACCATAATAGAAAGAATGGAGAACTATTAAC
1 agagtcttgagagagaaagagagagagagagagTCTTGCTTTCGAACAAAGAAAAAGGAAATAAAAAGACCCGATAATCTCAAAAGGTTATTTGCTGCTTGAAATTTGTGATTCGGTGTATTCTACCCAGCAACTGCTGAGAAATAAGGTTCGACACCATTGGCTGGTTCACTCACACCCGGCCAATCCTGGGCTCTAAAATACTTAGGGAACTCTTGGGACTGTGGAAGCCCAGGAGACCAGATTTCGT
0.3881223078103247 CACCCCCGGCCCGCGTTCGGCTCTCCTGACTCAAAAACGCTAAGGCAGCTGCAGTACCGGCGGCCATGCTGTAAGAGCCTTCTTCAAACTCCGCCCCCGACACGCACAAAGCCGGGGACCCTCGGCCAGTTCCGGCCCCGCCCATTAAAGGAGACGCACAGTCCTGGAAAAGAAAAGGCGCCGAGACCCCGCAGCCCTACCCGGAGCCCGCAGCTTCTGCTCATATTTTATCAAGACCGAAGAGAAAGGA
1 CCCACCGCCCCAAGGATCTCCCGGTCCCCGCCCGGCGTGCTGACGTCACGGCGCTGCCCCAGGGTGTGCTGGGCAGGTCGCGGGGAGCGCTGGGAAATGGAGTCCATTAGCAGAAGTGGCCCTTGGCCACTTCCAGGAGTCGCTGTGCCCCGATGCACACTGGGAAGTCCGCAGCTCCGAGGCGCCCAGTGGAAATCGCCAGATGAGGGCCTCCTCCGGGGAATGCTGGGAAATGGAGTCTACAGGCCGG
1 TTAGTAGGGCCCATTGTCCTTACGACTACACTACCCACAATGCACTACCCAGACTGCCTCTGCTTCAGCCATCGAGGACTCGGGCGGAACTAAGCTACAAATCCTTCTTCAAACCACACCAAAAACCTATTGCAAACGTAAATGCTGCCCCATTGGGTATGTGACTGAGTTTAATGTATGGTTAGAAGTATACTTTCCCTGAGGGTTCCCAGTGGGAGGCAGTAGGCTTCTCTTCCCAAAGTAAAGATGT
1 GCCTCTCAAACCAACATggcggcagcggcggcggcggcggctgcCTGAGTGCGACTAAGGGAAACGGGGAGAGCACGGGCCCCCCCTCGCAGCAGCCGCCGCCCCCGTCCTCGTCCTCCCTCCGCGGACACCAAGTGCGTCACCACGGAGACCATTCCCTCGAGCATCACGGGAAGTGTAGTCTACGAGGGTGGGGGGGGGAGGGAGCCGCCGAACGCCTCCTCACCCAGCTCCGAAGCCACGCCCCCCA
0.3077994890633393 GAGCCCCAGTGTGAGCGAAGGCGGGACAAGTCTCCATGGCAGCGACTAAAGGACAGCGATGTGAACCACTGACAACAGTTCGCGGCGTTTGACGGCGGCGGGGGCGTGGCGGGGTTTTATCTGTGTATTGACGAGAGCCGGGCGCGGAGGGAAAGAGTGGGGCTTGGCCAATGGGAGCGCCGTGAGCTTCGTAGCAACGGAGGAGTGGCGGTGGCTGTGGCCAATAGAAAGCCTCAGTGGCCTTGGCGGG
1 GCTCCATTTGTAAAAAAAAAATTGCTTTCTCACTAAAATGTGGTGAAAAGAGGATAGATTAAAAAAGGAAGAGGAGAAAAATAATCAATGAAACACTCAGGTTTCACTGATGTCACTGTTGCTATGGAAATAGTGTCCAATGAAAATTGCTGGTAAAGAAAAGGAGGGGTTGCATCAGCTCTGTAAGGTTAACCCTTAGGTACCACTGTCAAATTAAATGAAAATGGCTAATAAAAACAGTCAACAATAC
1 TTAAATCTGTTCCTTCCAGCTCACGGGAGTCCAGTGTCCCAAACAGGGACAGATTGGCTAGGTAGGCAGGGACAAATGTAGAGACAAATCACTGAGTGCCTCAGCCTAGCATCATCAGTTACTAGGTAAACGTCATCCTGCCTTAGTCTTAGACAACAGGTCTCCTTGTCTCTCTTAATTCTTTTTCTGCAGAACAACCAGTAGATTTCCGTAGATTACTGGAGAGAATAATCGCAATATTCCCAGGATG
1 TATGCAACACACTGTGCCCGGACTGCATTTCCTGTCTGGAGCTCTCTCTGTCCTGATCTCATTTCCTGTCAGGAGCACTCTGTGTACTGACCTCATTTCCTGTCTGTGCCACTCTTGTGTCCTGACCTCTTTTCCAGTCTGTGCCACTCTGTGTCCTGACCTCATTTCTTATCTGTGCCACTCTGTGTCCTGACCTCATTTCCTGTCTGGAGCACTCTGTCCTGACCTCATTTCCTGTCTTGTGTCCTGA
1 aaggaaggaagaaaggaaaataaaggaaaaaagTCTTGCTTCCAAAGACAGAAAAAGGAAATAGAAATACCTAATAATCCCAAAAGGTTATTTGCTGCTTGAGATTTTTGGGGGGTTTTTGTGTGTGTATTCTACCTAGTAACAGCTGAGAAATAAGGCTCGAGACACCATTGGTTGGTTCAGCCTCACTCGGCCAATCCTGGGCTCTAAACTGCTCAGTGGAAATCTTGGGACTTTTTGGACACCCAGA
0.4673568928574886 TCTCCACCCTTTTTTATGGTAAGATATGAATAAGGGGTCCACAGGAGCAACCTGAGTCCCTGCAACTACATTTCCCAGGGGCCCCTGGGGTAACCCTAATGTGACTCTGGGGGCGGGGCCAGTTGGACATCCAATGAGAGCACTTCCCCTGCAGACTTTGGAAGTGAGAGCACTTCCTCATAGACCTTGGATGTGGGAGGATTGCATTCAGTCTAGTTCCTGGTTGCCGGCTGAAATAACCTGGTAAGTG
1 GCGAAAAGGAAAGTGTGCTGAGCAGGTGCCTTGGCGGGGGAGAGAGGAAAAGGAAATGACTTcacacacacacacacacacacgcgcacacacacacaGAGagaatgaagtttctttctgtctcttaagtgatgtgtgagtggatggacagattgccctcagctttaagggcagttcaggatgatctgtcttaagatcgatgctctgtggaatgagaaaaatgcgctctgcagggcATGCCCACTGCATG
1 GGTACGCCTGTCGCCAGGACGCCTCTACCCTGGACGGTAGGAGGTTGCCGTGGGAACGGCTGGGGCAAAGCCCACGCCCGCGCATGCTCAGGAGCGACGCCGACCAATGACGTACTTCGCAGGCGCGCGGGCGGGCCTGGCAGTTGGCGCCCATGGAGCCAGAGCTGCTGGTTCGGAAGGTGTCTGCATTGCAGGTGCGGGGGCGGGCGCGGGGTTCACAGGATTTTTCCTTTAGGGAAATCATGGGGTC
1 GTGTTCCTCAGGGCCGCAGCCTTTCCTCACGGACACACCCCCACTTTCCTTGCTATTGGTCTTATCAGGTGTTGATCAATAGGATTCCTCATTCCGATACGCAAAACTACCTGTCCTTCACCGCTTCCCTCATTTCAATTCGCTCTCTCCTCAGAGGCGGCAACCTTCTGAACGTAGCCAGGGCCCGCCTCACGGAATGGCCACGGAATGGTCAGACACCCCGTCACTCCTggctggtgggcggggccag
1 CCGCCGCGCCGGCCGAGCTCCTTATATGGCTAATTGCGTCACAGGAACTCCGGGAAGGCGGGGCCGGGATCCCCTCCCGCCGAGTGGCCCGGAACGCAACCCCCGAGACCCCCAGGGCCCCGAGGGTCATGCAAGTGACCAGATCGAGTCTAGAACAGACCTCTTGCTGGACAGTGCGGGACTCGATTTGGCGGGGCCGGAGATTTGGGGAAGTTTGTCCAGCAAGGGGCGGGTGACGTAAGCAGGGGGG
1 AAAAGTATTTCATGATAAATGAGTGAACAAATGTCTTAATAGAAAAGTAAAATTGCAGGCGGGGCTGCTTCTGCCCAGCTCTACAGGGGTAGACTACAAGTCCCAGTACGCCTCGGGTCAGCATCTCTTCACGTCACTCCCCCTCCCTGGGGTGGGCAGGTCCGGAGGGCGGGGCCCGGGGGCAGCTGGGCTCTCAGGCGCTGCGGGAGGAGAGAAATGCCCCAGGCTCTCCGGGGCACACAAAGCGCAG
1 tcccccggttcctcataggctgagtactctggggtcacagtcttcccgcatgtcgcctattggttgttgggcaggggctgtagggcacaggtccctccccagcttcctcataggctgagtactaggggatcacagtcttcctgcatgtcgcctattggttgttgggcaggggctgcagggtgcaggtccctccccaggttcctcataggctgagtactctcgggtcacaatcttcccggatgtcgcctat
1 ttttttACCGGTTTGTAAAAGGATGCAATTCTTCGAATATAGTTTTTGCATCCACTTGACGAGGAAGGAGCCTCTACCCTAAACAAAAATGGCGGGAGCTGCTTCACACGTAGTCCCTCACGCAGAAAGCCTGGAAGGCCCCCTCCACTTTCTCTCCACCTTCGCACTCCTGACCCCGGAAGGACTCCGCCTTCTCCATGTCAGACTGCTGCTCAGCGCCAGGCATCAGCTGGGAAGCTGGCGTGGGCAG
1 GTTTCAGTTTACTGATGACTATATTTACAATATTAATGATATATATATACTCTAAGAATTCCCTGGCACATCTATTTATCAATAGCTGGAAAAACGTACTGAATAACAAGAATCAGACGTGTTGCTAAGCATCCTGGGAAAGAGATATGCAAAATTAGCATTTCGTCATCAGGGCGTCTTTCCCCCGGTTTGTCTTGAGTGGCTCAGCCACCGCAAGGTACCAGAGAGCCGCCCAATCTGCGCTGGCCTC
1 CAGCAGTGTGTCCATTTGTCCCTTCCCCTGTGGAACCCAGAAAGTAACCCACTCCAAAAATCCCACACTTACTTTCCGGCAGCCGGCCGCGCCGCGTTTCCGAGAAAGGAAGCTGTCACTGTGCGTCTTCTGCGCAGGCGCCCGAGCCCTCATGGGAGGTGTAGTCCAAGTTTGTGGGAAATGTAGTTCTGAGAACCGAGCTTGGTGCTAGAATCTACCTGAGGTTTTCTAGTCCAGCTACCGTTTCTCC
1 cagttgtctaccagttAATTGTAATTCTTAGCCACAAGTTAGCTGACCCACCGTCTCTCAAACAGGTGAAGTTAAGCTCAATATTTGGCATATCTTGATATACTTTGTACAGTCTAGCTACAATAAGTTTGCCTATGCACGAAGATGGCTACCGGCGGGGGGGGGCGTCCTTACGTCCTACGTCATCACGTGCCGGGATGAGGGTGGGGCCCTCAAGGAAGACGGAATGGAATCCAGATgggcgggggca
0.0912438692585039 CTGATCCTGAGCCGGAAAGCACTGACATCACCCTCATGGGTGGATGACATCACCCTCATGGGTGGATGACATCACCCTCATGGGTGGATGACATCACCCTCATGGGTGGATGACATCATCATTGCATGTGTATGACATCATTGTCATCACCACGGGTGGGTGACATTATCCTTATGGGTGGATGATGTCATCATTGTAGGTGGATGATATCATCATCACCATGGGTGGCTGACATCATCCTAATTTTCTT
1 CCTCCCATTGGCTCTTCATTCTGTCCATCTTGAAGCACCATTCTTCTTTTCTCCATTCATTAGCTAGTTTTTCAGCTCTTAGCAGGTAGTTCTGCCTCTTGATTGGCTCCTTCAAACTTCAGTCCTTACTTGCCCCAGTAAACGCCTTACGTACTCTCTACCCCTGACTCTTATTGGTTCACTGACCCGCTCGTCTCCTTCCTTGTACCCTCCTTGGCCGCACCGCTCGCCGGTCACTCACCAGACTACA
1 CGCAATAAAAAAAAAAAAACTACATCTCCCAGAAACCTCCACGAAAATAAGGCTCACCTTGCGTAACCACGTAGTCCTTCGCCGCATTGGGGCAAAATAATCCCTTCATTTTTGTGAAGGTACCGTGGAAAATATTTCATTTTTCTTCTCACCGGAGCAATTGTAAATGCTATGCGGTAAGAGGAGTTACCTGTGGAAAGGTGGTTAAGAGATTAGGTAAAGAAAAGGAAAGGACACCAAAATAAAGTGC
1 ACCCTTCTCTGACCCTCTCCGCACTCACAGGCTGCCCAGCCTGGGCCCGCTGCTCTCCTCTCCATGTTCCTCCTTCTTCCAGGTTTGAATCTCCCGCCGTTGGGCCACCGCCCCTCACCGTCGGCACCGCCAGACAGGACACTTCCCGTCCACACCGCTGAGAATCCTGGGATTTGTAGTTCCCGGCCGCGGAGCCGGGCCGCCCAGGTGCTGGGAGAAGAGGCGCCCCAGGCCGGGGCAGTACCGCTCC
0.1998617478942568 gcctccttcacaaggtcgtggtgagaagcaaatTGATGCCAGTGCCATTTTTTCCACCTCAATTCCTTGGGTTGCACAATTTTGTGGGAATTTCCTGGGAAAACTTCAAAGCAATTTAAATAGATCTGTCCCAACCATGCAATTACAGGAGCTGATGACGTTTCAGAAACAGTGACAAAGTTCAGAATCCCATTCTTCCATCCTAGATGGGAAACATCAACTTTCCTGATGGTGAGTTTGTCAGAGTCCA
1 AGGAACTCCTCGACGGCGAAAAACTACGACTCCCAGGGTGCCCCAGGGCTTAGCCCAGCTTTCCCGCCCGCCCACTGGCTGCCGGTCCCGCAAGCGGCGAAGCCCATTGGCCACGGCGGTGCGGGGCTCCCCCACTAGCAGGTTAGTGGGCGCCGCCGGCAGCAGACGTTGACCGGGCGCGGGGGGGTAAGTGGGGGGGCCCGGCTAGCCATTCTGGAAGCGGCCGGGCGCAGTCTTCGTAGCGTACCcg
1 CTCTGTCAGCAAAGCCCCCACCCACCCCGCAGCGTCCGATTGGGCGGAGGAGCGAGCTAGGTCACCGGAGTCCCTGTCAGCCGTGGCGGCACCTCCCCTGGCCCGCCCCCAAAGGGGAAGCTGCGCATTTTGATTCCTCTGTATATTGGTCAATCTAAAGGATTCTTACTATTATTGGACAAAAGACGAGTCAATCACGCAAATGGACGGAACAGAGGTGAATCTAGGAATATCCCCGCCCATAGAAAGT
1 TGAGGTGGGGCTAGCTGGCAGATGGGGCTGGGTGAGCCTCCATACACAACTTGGGCAGAGGAGAGAAGGAAGAAGCTTTATCCACTCAGCTTGTCACCTTTGCACCATCAGAACACCATTGTGGCGGCTGACTCATCTGTCACCAGGTGAGTGTGCCATTAGGAGCACAGGATTAGTCATGGGCGTGGTCATGGGGTGAGATGCCAGGTCGGGCTGGGATAGTGACACGGTGAAGCATGGAGCAGGGCCT
1 GATACACATTGGCCAATCAGCTTCAGCAATGGAGCGTGCAAAACACCAGTGAGCTTCTGTCTTGCTGGAGGGTCGGCTTTGGGCGGAACTGGCTTTGTTGACCGGGAGAAACGAGATGGGGGTGAAGCTGGAGATATTTCGGGTCAGTGGACACAGGAGTGGGTTGGGAGGCTGGGCAGGGGATCTTCCTGGATCTGAAGATGAGGTTGGAAATGGGGGGACTTCAAAGGAAGAGGGAGCTCCAAGGAGA
1 CCCCGCCCCTGGGGCCTCCGCGGCGGGAGCCTAGCGTCCGCCCCACCCACCCCGAGCCCGAGGCGGGGCTGTGGATGTAGACGCTGATTGGCTGACTGGGGCGCAGCTTGATGGCGTCGGGCTGGAGAGCCGCAGTCCCGGCTGCAGCACCTGGGAGAAGGCAGACCGTGTGAGGGGGCCTGTGGCCCCAGCGTGCTGTGGCCTCGGGGAGTGGGAAGTGGAGGCAGGAGCCTTCCTTACACTTCGCCAT
0.2252979490185065 GCCCCTCCCTGAGAGAAGCAAAAGGTCAGATGTCTCCTTTTCCTCTCCCCTTCCACCATCCTCCCCCTGCAGAAACATTCGCCGAGGAAGGTACGACCCGACCCAGCAGGGGGCAGTGTGATGCCGGCCACGTCATCCCTCCCGCTGTCCTTGTCTCCTCCATCTCATTCGTCACCCCGCGTTCTGTTGATGGGGAGCGGGGGCTGATTCCCCCACCCCTGCTGCCAGGCTGTCCCGGCAGGGGTGGGAG
0.8447147227081203 CGATTCGGTCGAAGATCTGTCTCTCGGCTGCCCTCTATAGAGCTCTAAACCTGGCTTCAAGGAGTTCTTTCATTCTTCATTAGATACCACCCACCATACGTCATTTTATAAAGCCGGAAACTACATTTCCCAAAAGGCCTTTATTTTTCCTCGCGGGAAAAGGGATTGCAATTACTATAGGTTTTACAGGTATCGCGAGATTTCGTCAAATCTCATTACGGATCCCGGCTGAAAGCCATTTTGTTTTTCA
0.07528348873662741 CGGGGGCCCTGGTTCCACAGCCCCGCTGGCCGCCATGGCCACCACGCGCAATTCAGACCTCGGCTTCCTACTTCCGCCGCTCTCGCGGCCCCACCCCTCTCCCGTCACTTCCGCCAGCTGCCACCACCCCAAAAAAAGCCGCAGACTCCGGGCACTCGGGGAACAATGTCGTCAAGGGCTCCCGGTTCCCGGGTTTATATGGCTCGAACCTTACATCGCCAGCCGGATCCACCTCAACTCAGCCGTCACT
1 CCGTGCAACCAAACCCACTAGGGTTTGTGCGCTCCTCCCCAACACGCCTGCTCATTGGAGACTTCTGCCAGATGCGCCCAGATCATTAGTCCGTTTGAATCATCACGTCTTCCAGGCCCCGCCCTGCTCTCTGATAGGCTCCACCTTCACCGTGGGGGTCCTGTTAGTCAAGATGCTCTGAGAGCGCACGGCCGCAAAACAAAAATGGTCGCTGCTTAGCCCGCCCCCTGGTTTCCACTCCAGAGTTGCA
0.2523934057902367 TCCTCGGACCCGCCCCGGCCGGCGGCGCGATCCCGAGAACCAGCCGGCCCGCGCACTCACTGGTCGTCATGCGCTGTCTGTCATGAAGCTGGCCACACCTTCCATGGGGTGCGGGTCCTGGGAGTCCTGGCTGGACCTCATTGGCTTGTGGCGCCTTCACTCGGAGAGACGCGCCTCAACCCGGAAGTGTGCGAGGCGAAATCTGCCTAGCAACCGGGGAAGCCGGGCTGTGAAGCGGGCAATTTCAGTG
1 GACCCCATTTACAACTGGATCTTCAATAAGCGTCTGGTGATTCAATTTCCGCCAATTAGAAAGAGCCCAACCAGAACACGCAGGCGCCTTAACGCTGAGGGCATAACGAAGGTAAAGAAGGCGTGGCTACTGCCCAAATCCAAGATGGCTACCAGGAGGCCGTCAGTTCTCGGAAGTGCGGCACATCCTCACTCCTGGGAGGCTCAAAGGCTCAAACGCCATTGGCAGAATCCCCGACAGCTCATCCTCC
0.7480522116589178 GGGTTGGATCACAGGCTTGTCTTGCTTGGCTGCTGTGAGCTTTTTGTACTTGGCCTGCATTGGCCGAGGAAAATGCTCTGGCTATCCAGACTCACGTCACTTCCTTTCACCCCTCATGAGGAAGGGGCATACCTCTCCTTTCTCCTAATGCAAGCGACGGTCCCCTTCCTTCCGGGACCAGGGGCCAAAGTGCGGTGGGGCTGGGATGGAGTGTTGTGGGTTGCTAGTATGCATCCCCCCACCGACCTCT
0.6994718950338285 CCGCGGGGCGGAAGTGGGTGTGGCCACGGGCGGAAGCACTGGGTCAGGGGCCCAATCGTGCAGCCAGCCCCTCCCACTCGCCACCGCCCCACCCCTCCGGCCCAGACCGGAAATGAGGTCAGAGAGGGAAGCCCCGGCGGTGAGAGTCGGCCCAAAAAGCGGCGGCCGTTGGAGGTGGCTGCGGCAGCTGGTGAGGGGGAGGAATGGGTTGAGAGTGTTGGGGTCCTGGGGGCTAGTACCAGAGGGGATC
0.8676158326153255 AATCAGGGCCTTCAAAGCTGGACTGAGTTGGTCCTGTTCTGGCACATATGGTCCACTGGAGACAATGTATGATTGAGTTTTTCTTTGGTCTAAAAATTATATTAAACATTTATTTTGAAATAGTTTTCTTCGTGTTTTTTTCTTCTGCTATGACGTCATGCAGCAGCCCCAGAAAAACAGCTGCTTGGAAAGGCAGCAACAGTGCCCTCTGGCTTTACAGTGCAGAGCTGAAGCCTCATTTTGACTGAAC
0.06808859176877692 GGATTCCGTCAGGTGGGGAAGGCCAGGTGGAGCTCTGGGTTCTCCCCGCAATCGTTTCTCCAGGCCGGAGGCCCCGCCCCCTTCCTCCTGGCTCCTCCCCTCCTCCGTGGGCCGGCCGCCAACGACGCCAGAGCCGGAAATGACGACAACGGTGAGGGTTCTCGGGCGGGGCCTGGGACAGGCAGCTCCGGGGTCCGCGGTTTCACATCGGAAACAAAACAGCGGCTGGTCTGGAAGGAACCTGAGCTAC
1 CTTCTCCTCCCGGGACCCTGTgacaacacaggacaggacagtgagtgctcaatggacagtcagtacaggaaggaaaggCTATTGGGCCTGCACCAGGGCTGGGCACACGTAGGAGGAACGTCAGTCCCAGCCCCTCTGGCCCCACGTGGGGCTGAGGTCTGAGCTCCAGCAGGGCTTGATCCAGATCAAAGCTGCTGGGGAggccagtcgcggtgagtcacgcctgtaatctcagcactttttgggaggc
1 CCGCCCGCGGCGTGGCGTCGGAAAGAGCCCTCAGCCCCTCCCTCTCTGGCGCTGATACCCAATGGGCAGCCTCAGGCCTTTAGCGGGGGCGGGGCACCCCCTGGACGCCGTTCTGGTTGGCCCGCGGCCCGGCGCAGCGCATGACGTTATTACGACTCTGTCACGCCGCGGTGCGACTGAGGCGTGGCGTCTGCTGGGGCACCTGAAGGAGACTTGGGGGCACCCGCGTCGTGCCTCCTGGGTTGTGAGG
1 TTCACACTTTTGTCATATGACGTCACACCAGTCAATCCAGGAACTCCCTGCCCTTCCCTCCCCTGACCTCTGGGGTCTATCAAAGCAGCCCCCGGCTCAGTGTCCCCGCCGGACGAGGCTACACCTGCAGCCCCCGCCCCTTCCCAACTGCGACTCTCGCACTCCTCTGCCCGGGCCTCCCCCTCCCCGCCCCGCTGATCGGCAGTTGCCTGCGCCAATCAGAGGGCCTAGCGGGCGGGGCGGGGCCTCA
1 GAGGAGAGAAATAAATAGAGGGCAGTGGGATGAGAAGAACCTCGCGGGATGGGAAGCCGCGGAGGGAAGGGCCGTCTTTGGTTACCTGGAGAGCGGGAGCAGCTGCGGATCCCTTATGAAGTGCCCGGATGAAGCTCCAGCGCTCACGCGCTTTCCGCATTGAGTGCAGCGCCATCTTGAGAAGGGCGGAGCCGTCTTGTTTGGAATGACGTCTGTTCAGAGAGCCAATCCCAGTCTCGCGACTCCTGCT
1 CTTGTCTATAGTCCCCTCAGCCTCCAAAAAGAAGACCTCCGCCTGCCAAAGACCCTCTTTTACCTTCTTCAGCTCTAGATCCACGGGGGCGGCCATCTTGGTGCACTGTAAGCGCCTGCGCAGTGGGAGTTGGACTGAAATAGGGTGGGGAAGGGCGCGTCTTACTTTGTGCGCCGGTCTTTCTTCTGCGCCTGCGCATGAGTTGGACTAACCGGGCTTCTTATCTTTCTCTGAGAATTGACTCCTGAAA
0.4609536488133212 cgaactgctgacctcgtgatccacccgcctcggcttcccaacgtgctggcattacaggcctgagccaccgagcccggccCCAACTGGTGCAGTTTTTTTCCGGCGTATTGATTTCCTTGGGCAGTTATCGGAAGTGATGTGCACAGCCGGATATTCCCTATCCTTGAGCAATGCAAGAACTCTCACACTGCCGTGATGGTGGCCTTCACCGAGACTGGACTCTCAGAACTGGATTGGGAAACAGCGGGGG
1 GGTCCCGCCCCCGACCGTGGGCTAAGGTCCGGCCCCCGTATTTCCGGGCGAGAAGTGACCACGTGGTTGTCGCCTATAACAATCCGGCCCTGCTCCCATCCACTGGCTAAAGCCTGAGAGCGACAGTTGAATACACCAATGGGACCCTGGAAGAGTCTAAGCGACAGCCAAAATCACCATTCAATGTCAGCTAGGTGCAAGGCGGGACTTTAAGTACGGAAGCTGCCCCGGGACATGAGGAAAGGAACAA
1 aaacggactaaaacaGACCCATTGGGAACTGCAAGGATGAGGCTGCACCCTGCCTACTCCAGCAACCAGCAAGGATGGTTTAGGACGCTCCAGGAGTCCCTTGTGCCTGGTAACTCATGACATCACAGACTGGCTCATTCTCATTGGCTTGCTGCGTGCCAGTCTGTGCTTTCTGGGATAAGGCCCAGCCCAAGGGAGAGTTATTCGGGAAGGAAACAGCAAAAACCCGACGGTGGGCGGGGGGCGGGGG
1 GGGCTGGGCCATTGCCTTGACATGGCCCACATTCAGGGCTGGCTGTGGCAGCCCAGGGCCCCAGAGCCAGGCTGGAACTAGGATACCAGCCTCCAGGTCCCAGGCCTGCGTCATCTCTGCGTGCCCTCGGCCAGGGCCACCAGACAGAGACGGGCTGGTTGAGTCATCCAAGGGCTGGGGGTGGGGCAGGCTGTTCCGGCCGGCTCCTggctggcaaggcaggagtcctacgcccagctctgcccctaac
1 agtttgaacccatatttgttagagttgtaaacagcttgtattctGCCACACACATGGAATTCTCTAAGTTTGTTTGCTTCCCATAAGTGATGACGTGGAGCACTCATCATCAAAAATCGCATTTAGCTTTGAAGTTTGGTCTTTGACTTCTTGGCCTGAGAGATAAGCAGCATAAACAGAGTAATGGAAAAAGGCAAACTAAAGACAAAAATAAAATTTGTATATAAAGAGATggccgggcacggtggct
1 gtgtttcgtgggctccgattggctcagtagcctatctttggagcgaatcagcgagcggagagggatgaacttctctgactggccagatccagtcacatgccaacATGTGACGCGTGGAATCTACGCCAGCCACAGCAGAGAGGTGGGGGTTGTGACCGGAGTTAGATGCCAGCGCAGAAGGGACGTGAGCCCAGCCGAGGTACCGCTGAAGAGGAATCAATTTTGGTATGCAGATAATCACTGGGCTCAT
0.5718077914465555 TCAGGAGAGCCCTTCGAGTATTCTCTCCGCTCCACACCGCTCGGCTGCACCCAGCGGCCGCCGCGGCCCGAATGTCGTCCAGGGTCCCCGCCCATATGACAAACACTTTCCGCCGGAAGGCGCCCGTGGAATCCTGGGACTAGTAGTCTCCGTGCCCTGCCTTCTGCCTTCTCCATCCTTCACCCTCTACTGCCAGGTCGTCTGACCCAGCGACAGGCGCGGTAAATGCGCGACCAAACCGCAGAGGTCC
1 GCCATTGAAAGAGAAACTGGGAACTTAGATAACAGGAAAATCTCCACATACACTAAATTCACATTATTTTATACCCTGTAAAAGCTCCCACCAGATATAAAAACTCATTATAATGGCATGCGTTCCGTCACAACTTCGGACAGAAGTTGGGTCTTTGGGCAGGAAGTGGAAGCCATAGAGGAAGTCATGGAGCGAGAGTGATGTCTGTAGTGAAGAATTTGGCGCCATCTTGAGAAGGTCAAAGTGATTC
1 CGAAGGCGGTGTATGGATTGGGGAGTCCCAGCCTTGGGGATTCCCCAACTCCGCAGTTTCTTTTCTCCCTCTCCCAACCTACGTAGGGTCCTTCATCCTGGATACTCACGACGCGGACCCAGTTCTCACTCCCATTGGGTGTCGGGTTTCCAGAGAAGCCAATCAGTGTCGTCGCGGTCGCTGTTCTAAAGCCCGCACGCACCCACCGGGACTCAGATTCTCCCCAGACGCCGAGGATGGCCGTCATGGC
1 CCTTCCGTGCTTCCCATTGGCCAGTGGACTCCCATGTACCGCCCCTCCAATAGCCAATGGTCTTGAGACAAAGGGCGCCCGCCTTTCCAGCGATTCTAACACCTACCCTCTTACCCGTGCTCCCCTGCGCATTGCCTCCTGGGAAATGTGGTTTCTAAGAGGCAGAGCTCTGCGACTTAGAACTACCTATCCCGTCGGCCTTAGCGAAAGGGGGTGGACTTAGGCAAGGGGTCCAGGTCAGAGTTTAGAG
0.1663518766003877 CCGTGGCCCGGAGTTGCGTCTTGCCGGGCGTGGGGCTGTCTCTCTGGTTGGGTAGTGGGGAGAGGGGTTCCCGAAGGCACTCTTGGGAGTGTATGGATGACGTGTCAGGTCACCAAATGGATTGTCGAAGGGACCGGAGGGAAGAGGGGAGAGCTGGAATTTCTGAGGGTTTCGGTTGCAGTTTTCAGTGATCTTTGCTCGTCTCCCTTCCCTGTAAAGCTACATATGCTCAGCAAGTGCCGCGTGCCTC
1 TAAGGCTTTTGTCTGCGCTGTTTTTGTTTCAGAACTTTTCTCACAATCCTATTTTTTGTTGAGGAATCCGCTCCTTTGCCCAGCTGTGGGTCCCGGTCCCACAGCTGTGTTGATCTAAGACTCAGCCCCAGACAGCCTGGCGCCAGGGTGGGACGTCATGCGTTCACACAGGGATGCGTGTCCCAGGCAACCTTTCCTCGGGCAGTCACCGGCCGGCGACTGCCTCCCCCACCAATGAGCGCCGGACACC
0.8630895031867711 GCCTTCCTCCGCTTTCCCCACCCACTTCCAGGACCAACCAATGACTTCAAGGCAGAATATGCCCCCGCAACCAATTAAAAAGAGCTCTAAACTTGACGGACGACTTCCCGCCCCTGGACTGTCGTAGCTCCTCCCCCAGACCAATTGTTTTAAGAGAGGGGGGCGGATACATCCAATCAGCACGACACAGGTCTCTTGATTGACGTTCGGGTCCTCGCGCTGGCGTGTTGTGCCCTGAGGCGggaggagg
1 AGGTGTGGCTACTCCAGGGACATCTACGGAGCTTCATCCTTCCAGCCTTCAGCCCCAGAGATGGGATTCGGACTCCAATTCCCAACAGCCCTAGAGGCCCTGACTCGCCCCAGCTGGTATGCCCCAGGGGCTGCTGGGAAATGTAGTCCTGTCTAGCCAAGGCAGGAGAGGAGGGGAAAGACCCGATTCCCCCACATCCTCTGGGTTCCAGGGATCCCCCTCAGGGGCTGCTGAAACCGCTGTCCAGGGT
1 GCCAATCGCGCCCGACTGCGGGAGCCAGGATCAGGTCCCCAGGGCGCCCTTGCAGACAGCACCCTGAGCGAAGGAGCTCAGAAGGCAGTCCGGCTTCACCCAGACCCCCAATCCCACAGAAGCGCCGTCCCCCAGCGGCACAGCACCCCCTCCCCGGCGCGGTGGTAGGGCCCGACGTGACGTCACCCATTGTTTACAAATCAACCCGAGCCGGCAGGATTCCGGCTCCCGCGGCTGCAGGCGCGCGGCT
0.8396083150183306 ACgtggaggaggtgtggcgcctctcaacatctattccactctcctagcgcaccttcctgcgactgcagcggctggagggctcaaaactacgtttcccagaatgccttgtggctgcgcatgtggccggaggttaggttccaccaatcaggtgcctccgcgggaagcttgaaTTTCTTACCGAAGTAAGCTGGGCGAGAGGCAGCCCGAAGGCCAGTGCAGATCCCGGCGAGAGGCTGCGGCGGTGGAGCCG
0.6891287437638919 CTATTTATATACAAATATGATGAAAATATTTATTGACCTCAGATATTGTACCAAGTACTTTATATGTGCCTACATCTATTTTATATGTTATCTGGAGCACTTCATATAGTGATGTCACAGGTGGAAGGattacatcatttaactgtgttaacaagtccaggaggtgagttttgttgctgtctcatggttgaggaatgggagcttagaaagcctcagtgacaaggccacacagacaggaaggggtggaatt
0.8205677155987686 CAGTCTTAAATACTTGATTTGTTGTTGTTGTTGTCCTGTTTGTTTAAGAACTTTACTTCTTTATCCAATGAACGGAGTATCTTGTGTCCTGGACCCTTTGCAAGAACCCTTCCCCTAGCAACAGATGCGTCATCTCAAAATATTTTTCTGATTGGCCAAAGAGTAATTGATTTGCATTTTAATGGTCAGACTCTATTACACCCCACATTCTCTTTTCTTTTATTCTTGTCTGTTCTGCCTCACTCCCGAG
0.3601313595863766 ACTTCCCTAGGCCCAAGCCTGCCCGCTGGCGTCGAAGCCAACTCCTTACTGGTTCAGGTATGTGCTCGTCTCTAGAGTAAACCAATCAGAGCCCCACTTCTTACTCCTGGGATTTGGTAAACGGAAGAGACCTCTCCTGTTCCGGGAGTAGGCCGGGACCGTGGATGAGTGACAGTTCGACTTTCCAATAGGCAGAGCCCTAGGACCTGCCCACGTCTGGTTCAGGGGCTAGAAAAGAGCGTCGATGCCG
1 TATTAGCTTTTTCTCTTTAGATGTTTGAAGGATACAGAAGGTACTACTAACTTAAAAAAAAAAACATTGATTCTCACAGCAGAACCTGTGTGTACTTGTTCACTACATACCTACATTGTTAAATATAGTTGCTTCACAAACAATACAATAAGAAAGAATTTAAGAAAACAGATTCTATGTAAATAGTCTGCGTCACTAACTCTATTATTTAGTGATTAAACGGAAAAATATTTAGTATTGAGTGTTGGTT
0.8452337722300471 GGCTCCGCGGCCGAGCCCGACTGGCGGATCGAGCCTGTTTAATGGTTTGCTTGCTTGCCGGGAGTTGTAGTTCACCGCTCGCCCGTTTGCCGGGAACACCCGGAGGGCGAGACTACAGCTCCCAGGAGTGCACGGGGCTCCTCGGCAGTACGCGTGTGCGGCGCCAGGAGAGGACAGCTCCAGTGCTGATGTTGGAGCCGGTTAGCGAACCCCAAGAGTGCAGAGTGTGGAGCGTGGAGCGCCGGGACTG
1 TGAGGGAACTAGCCAGGAATTCAGCTTGTACGTTGTTGTCCAGACTAAGATGCCTGTGCTACTGTTTGTTAGATGGAAAAGTTAAAATACAAATATCTTTTCTAGAACTAAACTCACAGGCGCCATAAGGACAACCCAGGCAGGAGGCCTTCGTGGCACTAGAAGCCTCGGAGAGCCCCCTACAGGTGGGAGGACCCAAGAGTAAAGTACTTCCGCTTCCTTAGGTGGAGCTGGAAAGGTGGAGGCGGAA
1 GACATTGTCACCTACCTCCTGAGCTGTCACCACAGGGCGCACGGGACTCCGCTGCCCCAGGTTCCGGGACAGTGACTACATTTCCCAACAGCCCCTGCGCCACATGGTGGTCAGTCAGCCTGCAAGTCCCAGCATGCCCGAGTCAATCGTGGGGTGGGGAGTCTCTCCATCCGTGTTAACCCCTTAGGCCCTGGGGTACACTGGGCTTCCTATACCAGAAAGGTTTTCTAATGATTGCCCTCACTCCCAT
1 ATTTTTTTTTTTCAAACGTTTGAGAAAACTTGAAAACCATCTCTCGGTACTTTTGCAGTAATTTCCAGGAGTCAGAACATACAGTCCATTATTCTTCAGAGTAACCAACGCACAAGACATTTTGGCTTGGGACTTGATATCGCGAAATGACGTCAAAAAATTAAAAAAAAAAACGAAGCTCGCACATGCGCAATGAGGTACAGCTGCTTTTTATTTTTTTGTCTGTATCAGCTATTGGCTCCTATCCCCG
1 CCAAAAAAAGAAGAGTTAGGCAATTTGCAAAGTAAACCCATAATCTTTAACTATTTGCAAAGAATAGTCATGTTGAGATTAGTTGACCTTTGGAGGGTTGACTGCCATCATTTACAGAAACTGACAACGAATTCTTGGAAAAGCAGTCAGGGAAAAAAGATTAAGCACTATTTCAGTGCCAGTATGTCAACATCAGGCTAGTGACTTGTTTTAAAGGATTACTTATCACTGAGATTAATTGAATAAAAGG
1 tcaatagaattctaaatgtagcaaaattttcctttccaaactgggaataaaataagacgtgtccacataagcccacctgcgacaatttagcactggactacccctaattgcagttgctgccggaagttctacaggctgagggaagtggcgtgcgatggaaactgagaatatctggaatgccagaagagcaCTGGGATGCAGGGCCAGGGTGGCTCCCTCTGCTGGTGGAAGATAGTAATGTCAGTTGGTT
0.1100099011708677 TCCTAGAAGACCAGGGAGCAGAAGGACGGGGATCTCCCTTTGCCGCTAAGAGACTCCAACTCCCAGGATGCCTTGGGAGCGCTGGACCACAGCTCCCGGCATTCCCGGGGAGGCGCGGGGCTAGCGTAGCCTCCGCCCCGCGCCTCGCGTTACCACTCGTCCCGCCCCTCCTCGTCGCCTCCGAGCCAATGGGAAGGCTCCATACTGCAGGGTGCGAAGGGGCCGGCGCCGCTGCCGAGTTACGAGTCGG
1 CAGAAGGGTAAAGCAAAAGTCGCGAGAACAGCCCTGCTGCCACACCCCTGGAGAGGCCGGGATTGGGGAGAACGAGGCCAGGGAATGAGGTAATGGCCAGGGGACGCCGCCTAGGATTGTGGGATGTGTAGTTTTGGTGTACTGGAGCTTGGGCGGGGAGCGACAATAACGAACCTTGGGGAGCTATTTCATACAGCCTTTTCTCTCACTTTTACAGCAAGTCAGTGAAAGAACATTTATAATTCCTGTT
0.3313771487133006 ATCTTGCTTTCGAACAAACAAAAAGGAAATAAAAAGACCCGATAATCTCAAAAGGTTACTTGCTGCTTGAAATTTTTGATTCGGTGTATTCTACCTAGTAACTGCTGAGAAATAAGGCTCGACACCATTGGCTGGTTCACTCACACCCGGCCAATCCTGGACTCTAAAATACTTAGGGAAATCTTGGGACACTGTGGAAGCCCAGAGAATCTGATCCCGGGTCCCACAACTTCACATATCGCGAGTAAGT
0.3845878168846122 AGCCATTATCTTCCCCATTGTTACCAAGCAGCGACAGGAAACGACTGCCCACAACAGGAAGTGATGATGCCGCGTCCCGGCACCGCAGCCCCACTCCCAGCCTATTAGCCAATCCCAGTCGATTCCTCGAAAAGGCTCCGCGGGAGGAGGAGGGGGACGGCAGACGACGCGGCAAGGCGGGCGGCGGTTTGGAAAAGGAAAGCTGTTATGACGCCCACCATGTGACAGGCCCCACCCTCCTCCGCCATTT
1 GAAGATACGAAACTCCGTCCGGGCGTCGCAAATAATTCGAATTCGGCTCTCTGACACCTACCTCGGCGGGCGCGCGCCGCTGGGAGGGCGGGGTGGGTGGCTGGAGGTAAGGAGGCGCACAGCAGGGGTAAGCGCCGCCGTCGCACACTTTGCACGCCGCCCAGGGCTACACCACTCACCGAAAATTGGGAGGCAGGTCTGGGAGGCGGGGTTGAGCGCCCACCGCCTTGGGcgcgcccgcgccccccgc
1 AGTTAGAAAGATATCTTATAAATATAATCCATACTTTTTTCTTAGATATATAAACGCAAAAGCACAAGATATTTGTAATTTAAAAGCGCCATCTAGCATGAGCTCTTAGGGCCAATTTTCAGGCAGTGCGTTGGATAGCAACAACTTCGGAGGTCCCCAGATTGCAGAGGGAGACGTGGACGTGAGTGGAGCGGGGCGGTCCCCAGCACACTAGAGGAAGTCGTGCTACCCCCGCGGAGTTGTCGTGTGT
1 GCTCATGATTGGTTCTTTCGTTCCGCCCCTCTCTTCCAGCTTTTGCAGGCGGGATTACCACGCAGCTTCCTGCTCCTGCCaaaaaaaaaaaaataaataataaaagaagaagaagaaaagaggagagaggcgaaagaaaaatgtcacaaagaTCTTTGCTTTTTAATTGGCTTTAAGCCTTGTCGGTCAAGCCAAACTCTGCCTTTGATTGGTCTTTCTATCTGCCCATCCCGGATCGGGGGCGGGATTT
1 TTTCTTTTTCCTTTCTTCCAGAAGGAGATTTAACCATAGTAGAAAGAATGGAGAACTATTAACTGCCTTTCTTCTGTGGGCTGTGATTTTCAGAGGGGAATGCTAAGAGGTGAGTGGGGGAAGTCGATTAGAGCCTGGTTCACAATGCCTGGGAGGACAGGGGCTGAATCGCTGAGAGTGGTGAGTGGGCATGCAGGGAGAGTACTCACCCAGAGAAAGGGGTGTGTGCCTGAGGGGGTGCGCACGCACA
1 ACCCATTGGCTATGCGCTCGCCACTCAGGTCCGGCGTGAACTGTCCATTGGTCGGAATGGCAGTGATTCCCTCCTCTGTCATCTAGGCCGGTAGTGCCCGTCCCTCCTTGATTTTGTACCGGACTACGAATCCCAGCGATCATTGCGCTCGGGGAAAGCCGATATTCAGAAGTCGCAGGCGAGATGTCTGCTGGGAATTGTAGTTTTAATTCTATCTTTTTTAACGGAGTACATGCCGAGCACCTATTGT
0.3694289423937578 ccagcatgtctgagaacaaaggaaaagtttagggttctcttggggaaagaggagatttacgtaagttgtttcaaaagaaagttcattggcgctagcagtgttttttatgagagctggcgagttcagtagcagattggtgagtgtcagtagttgctaggtaggacttggagtctcggagttcttgttaggcccttgcagttttggattgggcctgagaaaccgtgtcaggctagtgttcctgtgttagctg
0.6782555499970686 ACCCTCACAACCCGAGCCTCCACGAAATTCAAACTTGCCGCACCGAGCCGCTGATTGGAGGGGCTTTAACCAACACTTCCGGGGAAGATCCCACCCCTTCCACTCAACGAGGCTTGCGATTGGTTTGCTCCGTGCGATATTTGAATTGATTGAAAGGTGAAGGGCCAGTTCAAAAGATGGGTGAGAGAGGGAAAATAGGCGGGACCGCGACGCGGGATGAGAAGGAGTGGAGCAGTCGGGGCGCTCACGT
0.9560890415255188 ACTAACTGCCCAATGCGGCTGAAACCTCATGCCCTTTCAAAAGGAGTGGCGCGAGGGCTTGTGGGAAATGTAGTCTGCACTTTCTAAGGGAGCGGCGCGAGGGCTTGTGGGAAATGAAGCGTGCACTTTCTAAGGGAGCGGCGCGAGGACTTGTGGGAGATGTAGTGTGCACTTTTCGGCCCCCGTCGCGGGAGCCGCTTCGGGCCTTCTGGGCATGTCTGCCATATGGCTCCAGGTTTGTTTTTCTCCC
1 GCGGGAAACCCCAACTGAGAACTGCAATGGCAGGGAAAGTGGAGGCTAGATCCTGTTTTTTGTGTTACCGCGATTCCCTTCAACTACCCTCAAGACGCCTACAAATTTGTTTGGCGGCACCTACAACTCCCAGAACGCAACGTGGGGGACGGAGGCGGAAGCAGCTGGCCAAGCCGAGGTCTGTGATTGGTGAAGAGCGACGGGCCAATTGGAGGAGTTGTTGTTAGGCCGTCCCGGAGACCCGGTCGGG
1 CACCTTTGAACAGTAAtggtaaatgtttaacaactagctctttggggagaaaaagaataaggcctgctttgttgtgtttgccattcctgtggtgtaaacactctcctgtggctgattccaagccaccacggtgacgttgctgaacctggggttgggaagagaggtgggcactggcTTCAGCATGCCTCTGCATGCACTTCCGCTTTTTTCTGCTTAAATTATTGGTTAGATGCCCATACGCTCATCCTTT
1 CCAAACCCCATGACTCTACCCAGAATGCAAGCAAGATGGTGCCAGGGCGCACTAAATCCCCAGCATGCACTGCGACCGCCCTTAGTAGCAAGCGTaaactacaatccccaggatgcactgcaccagggctgcgcctgcctGGCGTCACGGGCGTGAATTACAATCCCCAGCATGCACCGGAGTAGCGGGCGTCATCAACAACCCCCTACGTGCCGCGCGCGGCCTCTAgccctcacctgtgctctgcttg
1 TCTCTTTCCCGCGCGCTCCAAGGTCTCTCCCGAGCCACCGCTCCCATTGGTTCCGCGCCGTTCCCCCTGAACCAATTGCCAATGCCCAGTGGTGACAGCGGCGAGGCTTCTTGCAGCGCGAATCCGTCCATCAACACGCAAAGGCCTAGGATTCGTAGGCGCCCCAGGTGGGCGGTACCAGGACTCTCCAGGGGTACCCGACTAGTGGGTGCTAAGTTTCTGAACTACAGAAATGAGCCTGCTTAGAAAA
1 TTTTCCGTGCTGTGTAGGTAAGCGAATTGGCGGGTTGGGGTTTGTGGTGGATATTTGGGCCAAAACTGGAAAGACACTTGGGGTAAAAAGGTCCGGTATGGGGGTAGAGTTGAGAGTGGCTGGGGATACGGTCCATGCTATCGCTCTTTTCCCTATTTTCTTTTAGTTTAGATGTTTAGCCAGTAGGAGTTATTTCATTGTTCTTCCCTCGGTGAGCCTGTTCCCCTGTTGAGGGATATAATTTTTTTTG
0.310523671919987 CCTCCCCGTACTGGGGCATCTCGGGGGGGATACGGTGCGGGGCGATAGTGGCGTCCATGTAGCCGTCTCGGCTCGCCGCTCCCTAGTAACCGCGTCGCTAGGGCcgccgcgccgactgcgtcatcagcacgcgccgcggccccgccctgcaggctccgcgccgggccCAGATACCCGATCCTCGGTCGCGCGGGTCGCCCCCGCCCCGACCTCCCCGGCTGACGCGCTCTGCGGCTCGGGCAAGTTCTTT
0.7338148957503567 AAACGCTCGACATGTTACCATGGTTACAGCTGTCTCCAAAGCCAATGGAATGAGTTGTACTATCGATACGGCCGGGACAACTCCGCCCCCGACCCGAAGGCCAATGGTGTGAGACATAATAACAGTCTCCACAAGAACCACAGTCTCTGGTTCCACTGGCGTGCGTCGTCTCTATGGTTCCCGCCGGAAGGACGCGTCTGCGTCTCTGCGGCGAGCGCGGTTGCTATGACGCCCAGGTCTCCGTAGGCAC
1 CTGACAGGACTGAGCATGTGCTGTGACCCTCCCTCATCCACACACTGTCTCTCCACGACGCAATCAATCTCAACCCTGCTGTTTCCGTAAATAAAGCCCAGCCAACAGACTCTGCAGCTTCTCCCTGCACACCAAGCTAGTGTGCAGGGAAGTGGGGCCTTAGAAAGGGGATCCAAGACAGCCAACAGCAGGGAACTGAGCAAGCCCAGCCATGGAGAGGCTTCAGTTAAATGCCCTGCTCTGTCAGGAA
0.505288837558206 CTCAAACCCCAAGGAATGTTTGAGTGGGGTTGATATGGGTGTGAAAAGACACAGAATAATCTGTCTCCAGAGGAACTACAACTTCCATCAGGCACTACTTCAGCGGAACAGGAAAGGATGTGGGGGCGTGGCTACCACGCCCTAGTAGAGCGGGAAACTACAACTCCCAGGATAACGCGGGATTTCAGCAGGGCCAAAAGAGTGATTGAGCTCTGACTGGCGACCCGACCCGGCGGAAACCACCTCGACA
1 CCTCACAGGGTGGATGCCCAGGAAGTCCTGACTGACAAGCCCTGGCGGTGGCCTCTCCACCACTCCACCCGCATAAGGAGACAGAGAGGCTAGGAAAGAGGCTCTCTGAAGGGCGCAAGTTCTGCCCTGGCAACAAGTGATCAGCCTCCAGGAAGACCAGGGATTGGCTGGACTGCAGGGCAGTCAAGGGCACAGGAGGGAAGCCTTGGCAGTGTGGCTCCAGCTGGGCAGCTGCCTTCTGGGCACACAC
1 tttcatcaaaaggtctccttttcctcccaggtacacaactagactgcatttcccaggatcccttgcaagcaggtagggccatgtgactgagttctggccaatgaaagataaggaggaagtgatgtcaccacttctggtcctggctcctaaaacatcctgcaccatccttcatgctctggaccctgggtccgtgcatgacttcatggagcagatcccatacccaacacttctcctcatactggactgtgat
0.7805401265443019 GAGAGGGACCAGGAATCTTCCTGGTTGACAATTATAGTAGTAATGGATTGTTGAAATTGCTGTTTACTTACTGGTTCTTTATGAAATAAAGAAGTGATGGAGGTTCCTTTTATGTCACTAAATTATTAACCATACCTCAGATAATATGCCATACATTGTCTTTACACAGTGAGGTCATTGTGTACTGATGGTTTGCAATCAATCAGTTGTGCTAAAGACCAAGTTTAGTATCAGTGGGTGTGTTTGCAAA
1 gtgaaaagaactctgtgcctaaagtcctttcatttctttgctggagtttttttgaggcagattctagaattgctgagtcaaagggcaaatgccatgtagttttgttagacgctgccaaatcctcttccatgaggctgcaatattctgcattccacagtgacgtatgagagtccttgtatcccacagcttcataaacaaagcatgacggcacatctgcacgtttaccaatcacacaggtgagaaatcttat
0.09863363216035742 CACTTAGTTGGCTAGTATCTGAGTGTCGCTCTGGGCAACCAGATTGCACAATGCCTCAAATTCCAATAAGGGAAGTCCTTGTTCCTTAGCCAACAGCTTAtgggtgtctgtgtgtgtgtatgtgtatgtgtatgtacgtgtatgtgtgtAATTTGTGATGACTCAGTGTCTAGGAAGGTACAAACATTGTAGCTAATCTATTTCTGTTTCTTACATTACCTTTCAGGAATGGGCCTGGAAGACCTGGCTA
1 ccagcagtatgtgaaaatgctctttgccctatatccttttcactggtgggagacttcattcaaaaagatatttgtttgttgaataatatttgctgtggagatacactgtagttcctcattgttgacttaatgcatatttctttgatggccagggaagtggaaggttttcccggaagtatgtcatcccttgctcctggtcttgcaaaatttgtctgttcagttcaggggctttgcctatctggccatcaga
0.7341696361512798 CACTTCATAGTAACTGCAGCACTCAGTGACAGACAAGAGAAAGGTGACACACATCCCCAGAGACTAAGTATGACTCAGCATGGCCAGGTCGTGGAATTTTCCCAAAGCCTCGTTGTGATGTCATGGTGGATGTCATCAGGAAAGGAGCTGCCACAGAAGCAGTCAGGCCCTTCCACACACAGGCAGTGGAAATGTACTCCCAGCTGTCCCGTGCCCTCCCGGCCCCACCTCTTTCTCTGGCCTCGAGGCA
1 CCTGATGTGTGTGGAGGGAGGGTGTCCTGAGACCCAGTTTCCTGCCTCTCACTCCACTAAGAGACGTGGGCAGCCGGCTTTCCTCTGCACCTAAGTTTCCCTGCCAGTAAAACAGCCCCTGCCCGCGGTTCGTAGGAGGTGGCTCAGTAAATGCAAGGACATTTACCAGGTATTATGACAGCTTCCATGGTCCCTTGCTGAGCTCAACAATAGTACAACAGCACACAACAGCAGCAATAGTAATGGCTGA
1 GACAAACATTTGCCACTATTGTCTGATCATCTAGCCCATTTATTTCAAAAGGGAATCTGTGAAATGATTAAGCTGGGTTGCAAAAGATGGGTCAAGTTAAAACAAACAGTACTTTTGCCATCATTTTTGGGAAATGAAATTTAAGAGAGAACAACAACACTCAAATCAAGGTAGGTAATATTTGTATTTTAAGTGCAAATAAGTTTGTTTGCTTGAGCTATAGAGTAAATACTGATAACCAATATTTGCA
1 AACGTCGTGGGCTTCGCCTGGCCAGAAGGATGAGGTAGAGTATGGGGTCCGAGGGGCAGGGAGAGTGGGAGGGGGCGGGGTGCGCCCTGCGCTGGCTAAAGTGCGCAAGCGCGCGAGGCTCGGGCCTTTCAAACCCCGGCGCGCCGGCGCCGGCGTCGACACTGCGCAAGCCCAGTCGCGCCTCTCCAGAGCGGGAAGAGCGCTGCGTTCCTTAGCAACGAGCGTTTCCTCCAGCCCCGCCTCCCTCCGC
1 AGTCCAGACACCTTGCGGGATTCCTGATACTTCAGCTCAGGTAGGCGTTTCCGGAGAATTCTGGGAAGAGTAGTCCATTTTACGGGAAGTGTAGTCCACTGGCTCGTGGAACACTGGGTATTTTGGCTCTGGCAGGTGAACCGTTGAATTCTGGGAACGATAGTCCAGACACTCTGCGGAGTCCCGGGCCCTTTGGCTCAGGGGGGCGGGTCCGGGGAATTCTGGGGAGTGGAGTCCAGACACTCTGGCG
1 CCTTTCTTCCGGATGAGAGGCTAAGCCATAATAGAAAGAATGGAGAATTATTGATTGACCGTCTTTATTCTGTGGGCTCTGATTCTCCAATGGGAATACCAAGGGGTAAGTGCAGGAAATTGATTAGAGCCTGGGCTACAACGCATGGGAGGAGCGGGGCTGAATCGCTGAGAGTGGTGAGTGGGCATGCAGGGAGAGTACTCTCCCAGAGAAAGGGGTGCAGTGCCtgtgtgtgtgtgtgtgtgtgtgt
1 CAGTTCAGGTTACTTCGTTTCAGGGAAGGCATTCCAGCTTCTTGCACTAGGCATTTCAAGAAAGAAAAGCATTCCTGGAAATCCCCAATCGGTCACAGGCATGTTTCTCCAACCAATAGGAATAGAGAATGAGGCAGCATCACTTGTCTCCAGCAGATACATCTGCTAAGAAGGTCTGATCTGATCCCAGGTCTTGGGGAGGAGGCAGGGAAGGAGCAGGATGACTCATGAGTGGTGAGAAGAATGGCTG
1 CCCCAGCCCCTCCTCACTTACCGTAACAGCTGCCCAGTAAACGCTTGGCTCAGCTCTGTCGCCTGTAGCCCGGAGGAAATCGGGAGGGGCGGAGTCCCCTAGTGACGGAGCCCAGGAGTCCTCCAACTACCTTCCCACCCGACGATGTTCTGTGCGTCGATTGGTCGAGAGGAGCTCAGCGTGGTGAAGAAGTGAGGAGCAGCAAGAGGCGAGCGGTGGACGGGGCTCTGGTTGCCGGGAAACGGTGGAG
0.5545265637726065 GTGGGGGGGGGTCATGATGACCTTAACCTGGGTTCTAGTTCAATCCATAACCCAGAGGCAAAGGTAATGACGTGTGTATAATCACCACTTGAATTTTCTGCTCCACTGTATTTACATTAGAGGGAAACAAATCTTGTAATATGTACGTGCTTTCCATTAAGGATGCAGCACAAATATCAACAGTGTCCTTCTAAGTCAATATTTGCTAGGAAAAGCACAGGATGTTCTTGTTGTCATCATGGTACCAAGG
0.1920580795696722 tgtctcattccctctgCCCACGCTTTCAGATTCCCCCAAAGCGCGCCCCATAGGAAAACTTGCTAGAACTCAGCTCAGACCAAGCCCCGCCCCCTCGGAGGTCCCACTCAATCAGACCGCGACACTGTAAGGCCCCGCCCCCCCATGGGTCCTTACAGAGCATCCAGGAACGCCCCAATTTGGCCCAGGGGCTTCTGGGAAACGGGGGCCAACAGCCGCCAGGTACACGAATTGACGTCGAGCACGCACT
1 CTGGCCTTCCTGATTGGCGAGAAACACTACAACAGGAACAGCAGTCCTCGCCCTCCACTGGCCTGGCCAGCCGCCGCTCAAAGTTGCTCCTACCTTCTCCCCGCCCCTTTTCCCGGGTTGGTCTTCCCTCTAATCATTCTCTGCCCTCGCCTCTAACGTTGCTTTGGAGCCCTGGCAGTCAAGGCTCACCCTCCCGCCTCCGGAAAGCGAACTTTATTTTTATTGGTGAAAGGACATCTTCCTGTACACT
1 AAGCCAGGAGAGCGAGATGGAAGTTTTCCTGCTGCAACGCTTAAGCTCCGGTGAACACAAGGCTGGACTGCTCGCCCTGCAGGGCTGGCTGAGCTCTCCCCCACTGCTCACGTCACTAGACTCCGCCTCCCGGATTTTATAACAACTGACACATTGTAGCCTACAGGAGAGCAGAACTCACTGCAAGCAAAAAGGGGAAGAAACGCTCACAAAAGGGAAGGCAGCAGGAAAAGTAATCGGGTTGGTAAGT
1 ATATTCAGAAGCTAAAACCAGTGAGTTTTAGAATAAACCAATGTAACAGTTCAAGGTCTACATCAAGTAAGAATCTTTCAGAGTCAGAGTACACAAAACACGTAAGAGCACAAGCACACTGCTAACAAGCTTCTCTGTGCTCTCACTCATATGACACAGCTGCAAGCAACAATTGAGCAGGTGCAACCAAGCTTTTGAGAATTCCTGCCTGTTGCCCAGGAACCACAACACTGCATGGTTGAGATTTTAA
1 AAGAGGAAGCCAAAATCTCGCGAGACGTGGCGTCGGCCTGCGGGATCCTCTGGGAAATGTAGTCCAGAGCCCGACTGCGGGCTTCCCTATGCCTCTCATTTCCAAGCCTGGCTTGTTTCCTTTTACCGCTCCTCTCCAACGAGGATCGCAGAGCCCTCATGCCGAGCGGCTCGCTATGGGGCCGGCTCGCCCGCTAGAGTGGTCAGGCCTGATTATCCCTGGCAGCTCTGTTATCTGGGGTAAGACACAG
0.6399520246269392 agaaagcctcaggtgggcatgtggacaacttcctaaacacactgcacatgctcacctcccaagggtaaggagggcgctgcatttgcgggcagcccacactaacggaagaatcatgggaaagaggcgagcctataaagtcctaggatgcagttaaacgtcacacttgacctttgtgcctgtttgggtctcttcccagcatactttcttttcctttctttcctgttctgaagccttttaaataaacttccac
1 ATAAATCTAAGCCTGTAAGCCTGTGAGTTTGTTTCTTTTCGTAAGTATTCAGCAATGCAAATCCTACCCCCAAAACTGTCTTCTTTGACCCATTTCCTGTATTCCTGTATCTGTTATCTTCAGATCTCTCCACCTGACTGTCCTCATTATTGAAACGTCATATTTTGACCTCAACACTTCATAGTTGCTGATGTGACTTCCTCTATGTTTGAAATGTTTTCTCAGTTACTGCCCTAAGTAAAAAGCAAAC
1 CCGGCCCCGCGCGCCGCTTCCGGGCCCCGCCGCCTGCCGGAAGTGGACGCGCCGCGCGGCTCCCTGGGAAACGGAGTCTCGGCCGCTGCCGCGCACGCGCATCCAGGATGCGGCGCGTGTGTGACGTTACCCGCCCGCGCCGCCCTCCTGGGGTGCCTCTCAGGGACCCAGGCGCTCAGCTGCTGGGGCCGCGGAGGGCGTTCGCGGGGCGCCGGGGAAGGCTAGGGCCGCGGGGTCCCCGGGGCGCCGT
1 TTGCCAGGGGCTGTCCCGCCTACTCCCCGTCCTCGCAGCCACTTGCCTGCGCGAAATGCCTGCCAACTTCTGACTGGCAGGCAGTCTGGCAAATCAAATCGCGACCTTTGAAAGCAAAACACTGCAGCATCTTGGCAGCTCTGAATTGGGAAGGGATGAAGGAGGCTGTGCCTCCGGGTTGCACGAAGAGTCCGAGTCATTTCTCAGAAGGTTTTGATAGGTGGGCCTTAGAGGAGACGCCGCCGGTGAG
1 AACAATTATGTATTCGGGTTCCAAGTCAATGTTTAATATATCATCACAGCAATGCATTATAATTCTAGTATGGCTGGCACAGCCAAAGTAACATCACTCTGATGTCATATTAGACTCTGGCAAAGAGCCACAATGAGCATGAAAGTTTAGCCATTCTGAGAAGCATTTCTAGTTTTTTTTTTTTTTTTCAAATAAATGATTAACATTAAGCAAACTAAAGAAACAACACATTTGAAGAAGTGGAGGTCAT
0.7021666894936363 TACCGTTCCACCGCCTACGCAACCCGCGGGATCTCCCACTTTTTGGGCCTCTGCGTTCGTTCCCGGCTGCCCTCATCGCCTGTAGCCATTCCACTTTTCCCACCGCCCACATGCCTCTCTCGCTCAGACTTCCGCATTAGCTGTCTGCTTCTGTTTTCTTCATCATGGATTTCGCACCACCCCCATTCCGGCCTCTCCATTGATTCCTCGATCATCCCGCCCCCTACACCGCCCACTCCCGGGCATCCCC
0.8118995738717525 GAGGGCTGGAGGCTGCGCAGACCTCGACGGGCCCTACATGACGTCACAAAGGGGCCAGACCAAGTGGGGCAGCACCCTGCGACCCTGCGATCCTGCCTGGCTCAGCCGCCTTCATATATCTGCTTCCTTAAGTCCACTCTTGCCCAGATAGCTTTCAGTTAAAACTAAAGAATGAAAGCACTAGGTTGAGAGCCCACGCGGCTACACCCACGTCTACTCCCCCACTCTCGCCAGGCAACCGCGCCCCCCG
1 TGGGGGATCAGACTCACGCTCTGCGAACCCCCAGGTCTGCGATCTGTTCCGCCCCGCGCCTCCCGCCGCCGCGTTTGAACCCGAGGAACGGCGCGGGCGGGTCTCAGCCGTGTTTGGACCAATCAGCGTCTCCGCTCCTATGATAGACATGGGCGTCTCAGCCAGGCCCCGCCCATGTCCCTAAAGGCATGGAGGAAAGTGAAGGGGAGAGCCAATCAAATTGCATCTTCCTTTGACTCGCGACCAACGG
1 TTTTATCCCAGTGGGCTCTTTTCAGTAGCTCAGTAGAAAATTTCCACAATTTTCTGAGGAAGAGCGTCATGATGTGATGTCACTAGTCCAGTGGACTCTAAACTTTCACAGCTTACCTTCTACCACACGTTTTATCAAAAAGCCTGGTTCCCACCACGAACAAAAGCCCTTTTTTTTCCCTGAGGAGGACAGCTCGGTGTTCACTGATATTTTATGAAAGCTGTGGCTGTTATCATGAAAACATGATAAT
1 tagagaaagaggcagagctagtagtcccttttaaaggaagtgacatcactattgcttgtctcccattggccagaactaagtaacatggccacatttagccacagaggaggctgggacatgtagtctcttgttggtgcactgtgtgaccagcctgagctccattactagggaaggggaggggatcagatctggggagacacttagattctgccacTTAGGACAGGACCATTCCTTTTtctctgagcatcat
0.6821355822190106 GTTCAAATTAAGGAGAGAAAACGGGAGCAGAGCAGCTTTCAGGCGTTCCATCAAATTCCCTTTTCTCCTTCCCTCTTGAGAAAGTCTCTGAAGGGAATGGTTCAGCCTGACGGGGTGGAGCAGTGACGCCCGGGCTACGCGCCAGGGTTGCCTGGCAGCCAGGAGTTCGAGGACCGGCGGCGGGGCGGGGCCTGTCTCCGGGCACCCGGGACGCCCGTAGCCTGGCGGAGAGCGCCAGAGAGGGCCCCTG
1 atttcactcagcatgaggtcctcaaggttcttctaCTCATTCCTTGATAAGTGTTATCACAGCATCAAATTCACACTTGCAATGACATCATTGAGAACTAAAAGCTATGCAGTCATTGCATCATTGCTATTCTCAGCTGACGAGATTTAGTTTGAGCTTTTCTTTCTTTTGTTTGCATTGCATCAGCTACATTACAGGAATTCTTAGACTATTAAAGTGCAGGTTCCATTGTGGAAAAACACAAGTTGTT
0.2932254571521019 acagtggccattcctgggatggccagtggtatgggttggactgtgtccccccaaatatatgttgaaatcctaaccaccggaactgtgaacatggccttatttggaaataagatctttgcagatgtagtcaagttacaatgaggtcagaagggtgggccctaatccaacatgactggcgtccttggaagaggaagacgtcacgcgaagacagagacacacaggagagcagcatgtgacagcagaggcctta
1 TCCCCGCCACTTTTGCTTTTCCCTGTCTTTCGGTCATTCGGTTTTGTTTCTTCCGCTCACTCTGGGGCATGCCTCGGGAAAGGGAAACCGAAACTGAAGCCAAATTTGGCCACCAGCGCAGGCTCGGCGGCACGCCCCCTGACGTGTGTGCCTCAGGCTTATAATAGGGCCGGTGCTGCCTGCCGAAGCCGGCGGCTGAGAGGCAGCGAACTCATCTTTGCCAGTACAGGAGCTTGTGCCGTGGCCCACA
0.4919576492547845 TACATTTCTCGCCCCCGCATTGGTCATGTCTTCTCCTTAACAGTCTTTCTCTCTCTCTAGACCCGCCCCTTCCTTGCTGTTGCCCTCTCTGGTCCAGCCTGCTGGCCCCGCCCCACTATTTTGATTGGTTTCCTCCATGGCCACGTCCCTCCTCCACATTTCACGCCCACTAATTGGTTGCGGCCTTTGTTTAAAAGtctgtctctctggccgggcgcagtggctcacgcctgtaatcccagcactttgg
0.6178174521583552 ACGGAATGTGTGTCTTGCGCAGGAAAAGCAGGAGGTGTGTCCTTCACAGGAAAGAAACAGGAAGTGTGTTCTGCACAGTGTAGAGACAGGAAGTGTGTCATGCACAGAGGAGAAACGGGTGAGTGCTACACTAAGAAGAAACAGGAAAGGTGTCATTCACAGGGAGGTACAGGAAGTGTGTCTTACACAGGGAAAAACAGGAAGTGTGTCATACACAGAGGAGAAACAGGAAGTGCGTCCTGCTCAGGGA
1 CTCTGCAGCCAGGAGCAGAGTCCAGCTGTCCTCAGGCCCCACGGGGACCTCGCTGTGTTTACACGACTCGTCATATGGTAACCTCTTACAGCTCTTGGGCAGGCTGCACTGTTACCTCATCTGCAGTCCCGTGACCTCATCCATGTAGAATGTAGCGAGTGCAAGCTGGGAGTGGAGCAGGCTCAGCCTCTCACTTCGAGCCCAGGAGAAGCTGTCCTCCACGTGGACTCAGGGAATCCACCAGGTGGAG
1 CCACGTCCCAGGCCCCGCCCCCTCCCTTTGCCAGCCTTGTAATGGGGCGGCGGAGGGGACCAGCCACCGGTTGGGCAGAAGCAGCCGGCGTCGGCCTGGGATTGGACCACGTCACGGGGCCAGCGCGCTCCACTCCTTCCTCCCCAGCGCCGGCCCCGGGGCGACCGCGGGACCTTTTCCGGCGCTGGATGCTTTGCTGCCGGGGTTCGGGAGTGACCTGCGCCTAGAGCAGGTCGGGCGCACTGCAGTC
1 CCAAGacacacacacacacacacacacacacacacacacacacacacacacacaAAATTCCCCAGAGTGAACTTTTGCCAACTGTACCAGACTGGGACATTCCTCACATCAAAGAACTTTTACCAGAAATGACTGTGATTCCCAAGCTAGCCTCAATCATACCTCTCTAGTGCCCTCTACGGGAAATTTTTAGGAAAACTATCTTGGGAATGTATTTTTCCAGTCCCAGAGAGTGTTAAATTGGTGAGTT
1 TGATGACTTTTTCTGTTGCCTGCTTTCTCCCCAAGAGCTCTAGCTTACTTATGTGAGTacatgcacgtaggtctctttcatgtcacactctttcgatgcttttgcccaatcgttcccttggtttgcagagtttctccatcactctgtcttgttttcctaactacctactcatgtcgcaagactcagcttaaacagcatttatttcttgcagcctttactgacacaccctgtccccaacagtgttaagggc
1 ttcgcctattggttgttgggtaggggctgtagggcacaggttcctcccccagatcctcagaggctgagtactatgggggggggtcacagtcttcctggatgtcgtctattggttgttgggtaggggctgtagggcgcaggtccctcccccagatcctcataggctgagtactatggggggggtcacagtcttcctggatgtcgtctattggttgttgggtaggggctgtacggtgcaggttcctcccctg
1 AAGCAGGATTCGGGATGGCAGCGCCATGGCCCCCGCCCAGCCCCAGGCTTTGTCCCACTCGGCTCTAAGTCTCTCTCCAGAAAAACAGCCCTACCCCCTCCCCCTCCTTAGCACCCGCGGTGACATCACGGAGGCCTGGGCCTGTCTACGGTCTGGGGACCGCCCCCTCTGGCTCCTGCCGGGCCCCTTGGCCTCCCCCATCGTTGCTGGCCTGCTGGGGAGGGGCAGTGTGGGAGCAGAGGCCCAGCCC
0.2274700444860846 AAATTCACAGCACAATATAATGAGTCAACCATTTGCAGTGTTTGTTCATTACAGTCAACATTTAGAGTGTCAGAGCAAGCAGAAGTGATAAGCTGTTCACTTCCCTCAACAGTAATGAGAGATAAAATAAATTTGCCGTCAGCACCAAAGTCCTAAGTGTTAGGCAATCACAAGTATTTGCATGTACACCTCATAACAGCTGCAGGTAAATGATTTGACAAGGTCAAATTCAACTGAACAACAAAACCAC
0.2885272472538545 cgacaagaaggctgtgtatgagttagtgacaatcattgttagcatcactttagagataagaaaattgaaatgtagaataagttgagtaacctgctcaaagccTCTTGGATTTGACTGTAAATCAAGGTCTCTTGAGTACAAAGAACAAAGTTTTTGTCCTACTACAAACACTCCCCCATTAAGGAATATCAATTTTTGTTAATGTTTGACAAAACTATGCCTCTTATTTAAATAAAACACTGAAATGAAC
0.4920633778196222 AGCCGCGCGTGGCCTTCGCAGTGCTCGCCGGGACTCGTAGTTCCAGGTCTGCGGGCTCCTCCCAGGCGGGGATCTACTTCCTCTCTCGGCCGCGGCCGCAGCACCCGGAAGCTGAGGGGGCTTAAAGTCTTTCGCTTCCTTTCCCCGCCTCTTAGTCCCGCAGATTGCTAGTGGATATGGCCAATAGGAGGGCTGACTGGTACTTCCTGTTATTTGATTGGCTTAAAATTTTGCAACCGCCCGGACAAAC
1 ccattgtaCCATGTGTTTTTCTCAGCATAGACAAAGATAGGATGCTGTTCCGCTGTATTCTCCATACCCAGACAAATTCAGTTTGTCATGTTTCTAGAAAAAGGTGACAGTAAGTAAATATTGGCTAAGCCTTACAAGGGTGGCAGCCGTGTTTACAAAGCGGCTTTTCATGAGTGACTTTATTCACTCAGTTCTTTTAGTCTAATTAGTATTTCTGACTCACAAACGGAAGTGATTCTATTTTGGCATT
0.09798061335060503 TTTTCGAGGAACACACTACAGGGGACACAAGGAGAGGAACACGGATGCCGCAGTTTTCCAAGTGCAGCTTGCCCCTCCCACGTGATAGGTTTCTGGCATCGCCCCTCCTTGCTGGCGATTCTGGGGAAGATTTTAACGCTCCCTGGAGCCGTCCCCAGTGACGTCACGGGCGCGGCTCCGCTCCTTGGCCAATCACGCGGCCGGATCCCGGGGAAACCCGGGGCGGTGGCGGCGGCCTGGGCGCGTGCGC
0.8409570887723039 GCTCCGCGAAACGCCACTAGAGGGCGCCGCTAGCGAATCCCACAGCGCGCCCCGCTGCCCCCACTTTTGTCCTCCGGGTTCACACGGGCGCCCGGAAGAGAGGGTGGTGCCTGGGAGAGGAAACGATGCGCCCCGGGGCCGCGGCCTCATTGGATGAGAGGTCCCACCTCACGGCCCGAGGCGGGGCTTCTTTGCGCTTAAAAGCCGAGCCGGGCCAATGTTCAAATGCGCAGCTCTTAGTCGCGGGCCG
1 AAACGTTTTTCTTCTCCTTTGCTACTGAACCTATGCTGTGACTTAGAACATAAGAAACTCCAAGAGGGTGTAGGGATTGTCTTAGCTGTCTCCCTCCTCCGCCGGCACCGCTGAAGGCAGCCCCTATGGAGGGCGCTAAACCTCGGGGCCCTGGGTTTCTATGACGACAAACAGGCGTTCCAGCAAAGGAGGAAGTGAGCGGATGCTGGGCGGGTACGCAATGTGTGGGTAGGATCGCGGGTGTCCCTTT
1 CCCGCTCTCCTTAGCCGCCGGGATGGCTTTGCGGCGCCAACCAATCGCCTACAAAGATCATTTCCTCGGGCTGCAATTCAACCAATCCAAGTACTCGGTGTTGAAGGGCTCAGTGACAATTAAAGATGGCTGCGCCCATGTAACATCACTAGCGACCGGTGACCTCTTTTTCCCCCTTGCCTGGCTCCTGTGGTGGCAGGCTGGGCACGAGGACCATGCTGGGCCGGAGCCTCCGAGAAGTGAGTGGAAT
1 GAGCGGGACCCACGCCGATTCCTGTCAGCTCCTCGCCTGGGCCCACCCGAAACGGCTGCTCCCTCAACTCTCAACATCCAGCCGAGCCTCGGAGTTGCGGGTCGCCGTAGCGCTGCGCAATGGAGATGAGCCTCCCGGGGAACCCGGCCCAAGCCTCACCCTCACACAGGAAAGCAGATGTGTTCTGGCCGGAAGTTGAGTGGGGCCGCGGGGCCTGCTGGGAGGTGTTGTCCTCGGAAACGTCGCTGGC
1 gctactcaggaggctgagggaggagaatggtgtgaacatgggaggcagagcttgcagtgagccgagatgacgccactgtactccagcctgggtgacaaatggagactctgtctcaaaaaaaaaaaaaaaaaaaagattaagcaagagttggtgcctttttcagacccaggagtcaaagtcctttaacttgacagcacaggattggttaacaggattttacactgcaggaagtcctagcattctctctaac
0.3282671544036741 TTCCCCACTGGTTCTCAAAACCAAAGCAAAGCCAACCGGTTTCCTCCAGTGACTTAAAACAGAGCAAAGTCTATCCTGCCACACAGAGGGCGGCTGTCATCTCTTCCTTCCGCTAACAAAAGGGCTTCAAACCTGGGGATTGGGGTGGGCAGAAAACTCGGCATCAGGAATCCGAATGTCCCTACCTAACTGGCTGGAAGGCGGGGCCAAGTGGCGTGGGAATGGGCGGGCCTGACCGGCTCGGCAGGTG
1 ATTACCATAACCCTCCCAAGTCAAAAGGACACCAGTTTCAAGCCTTGCAACTTGGTGCAGACAGGGGTTTTCCCCTTTACCCCACTCTGCTGGGCCTCTTTACCTGTCCTCTCCTACTGTCTACAGGTCCCGAACATTAGAAAATAGAAAATGTGATGATCTTtgtgtgtctctgtaaaatgtgtgtatgtgtgcgtgtgtttgggtgtAACGGGCCTCTTGTTTGGCTGCGCGGCCTGTCCGTCACTGC
1 GCAGATCCCCTTACCCTGGCTCTAGTCCACTAGCTCCTTCCTAGTCACAACCGAACTCACGGGGCGGAGGCCCTTAAGGAGCACTCGCATCCTTCAATCGCCGACTAGAAGCTCGCCCGGTGGGCGGAGCCGTGCCAGCTCAGGGCAGAGCGAGGAGGCAGAAGTCTCCGCCTTCCTCAAGCTTGGTTGAGAAGTCCACCTGCAGTTGCAAAGTACGGCTGTTTGAAAGCGGGCGCCAGAGGTGGCGGGA
0.8405164332903594 ATGTGTTTTTCCTTCCAAGTCCTCTATGTTTTTCCCTTTGGTAAAGCGAACCTCCTCTTCTTTTCTACCTGCACTAAAATAAAGCTAGCACCATTATCCATGTGACGTATCCACCACCAAGCTACATTTTAACTACTATTCCTCAGGCAATATTGTTTAAATAAGAACAACTATGTCAATATTTTTCACAACAGCAAGGACATTTTAACTTAGCAAACACTTATGGCTGCTCCCAAAAGGAAATGTCAAC
1 acgtgccccccccccccgaccccggtgccagcaccgtttctcaccatgtcacaTCCAGGCCCTGGGAGTCCTCCAACCCCGAGGCCCCACGTAGGCAGCAGCCCTCCTGGGCAGCTGAGTGCAGCTTTCTTCCCATCCCCCTCCCAGTCTGTAAGAGGGTGCCCGGACCTTGCTCTCTCTGAGCCAGGGTCCATGTCGCTATTGATTTGGAGGCCGAGAGTGAGGAGGAGGACCCAGGGTTTATAGGGGT
0.6498764326746808 TCAAATGCTTTAATTTAAAGTCACAAACATCCCTTTTCTGGCTTGAGAAAGCTGGTGGAAGCAGCTCAGTGCTCTGTGTTCGATTTGTTAGGTCTTGCTCAGTGTGCAGAACTCTGCTGGCAGCTGAGAGGGGAAGCCGGAAAGAGGCAAGTTCCTGGTGCAAAGGTGGCTCTGCAGCATAATTTAGGCATTGGAGGAGCTGTGGTTGTAACACTCTACAAGATGGGTTTTCCGGAAGCCGCCAGGTGAG
1 aaatccaAGGCAAAAAACAATTGCAAGCGCCCTTACTTCCGTGTTGCTTCATACTCCTCTTGCGCCTGCGCTGTCTCCTTGGAGCAGAGGCGGGGCCAACAAGCCTGTTTTAGAAACCCTCCAGTCCTTAGCTCGTTTAGAACACAAGACTCCAAGCTTATTGGAGGGCTATCTTGCCTTACGGCTCCAAGccgctttttacggcgtttttcagctcgccattcacttcgctgtgaagaTGGCGTCGGGC
1 ACGCGGCGGGAAGGGGAGGGGAGGGGCATCCTCACTCCTCACTCCCTAGCAGCTGCACCCCCCTCCCCGCGGCTGCTGAGCCATAAATCAGGGCCAAGGTGGTTTGGCCAATGGTAGAGTGACTCGTAAATCGGCCTGTCAAGCTCAGCCAATGAGAGGCGGCGTTAAATCAAGTTCTGTCAGCGCTTGGCCAATGAAAGGCCCTGGGCTGACCATAAATCTGCCTGTAAGAGACAGCGAAAGAGAGAGA
1 tagcgtaagtttacacatgtagtgacagagtaggcattagaatctaTCTGCCTTAAAGACCACAATAAAGGCTAAGGATCAGGATTTcttctctgcttagaggtgtgtaaacagtggggtccctcgggtcttatttacataattgatctaaaagaaggaacacacagtggaatttctaggtttgcagatgacagcttttctggattatgaaatgtctaaccactgggtatttgctccagggaaaccacac
0.1002072887872328 taacatggggaaataatagcacagacttcagagggtggttgtgaagactgagtgaggtaacatatgttaagcacttggcactgtgcctagaagcgctcgtagtattagccattaCGAATTGTTGATGTCACAGATTTTTTTCGTTGGTTTGTTTAGTTTGTTTGTTCTGCTCCGTAGGGCTGCGGAAGCTGGAAGCTTTTTTTGGACTCCTTATAACCATTATGGCCTTGACCTTTGGCTATGAGGTAGG
1 CCCACTGCCTGGGCTGGGACAGAGGCTGTCTTCCGCCCTGGCAGCAGCAGGTGGTGCTACTGGCTTCTTGGTGACCTCTGCACGGCTCAGTTCTTCTGTGACGCACCACCCCCCCGCGTTGTGACTGCCTCCCTGTGCACATGAATATTCATCTGTGAGGCTCGGGATGAGCCAGGCTGGCGGGTGGGAGGCGACCGGGACACAGGCTCCCTGTGAATGGGCCCCACAGAGGAAGAGGCCGGAAACTGCT
1 TTTTTAGAGAGCGGATCTCTTTAAATGTGATAAAACACTGTCGGCACTGTCTCTTTAAAAGAGTCAAGCAGAAAAAGCTGTGTAAGCGCTGATTGGCTGCCTGTTTGGATACATCTTTAGGGGAGCCTTGAAACTGTTAGCCTAGGTTGAttttttttttttttttttttttttttttAACTGCGCTGTTCCAATAAACAAGTAACGCCCCTCCCCCTAACATGCCTCGCACCAAACAATTAAAGGATAG
1 CCTGCTGCTCAAGATCCCAGAGGAGGCGGCGGAGCCTACGGAGTTCACGGTGCAAGGCATCGTCCGTCACTGGACCAGTGAGGCGCAGGCGCGAGCTCCCCAGGGGGAGGATGAGGGGCGGGTGCGAGGAGAAGCTTTCGAAGATGTCCCCTGTGAGGCCGAAGGCGGCGCGGTTAGAGTCTGAAAGTGGGAGTGAGGTAGTTGCATCGGGAAGAGCCGAGGCTGCGTCACACCCAAAGGAAGAAAAAAA
0.1219215372402496 CCGCGAGCAACCTGTACTTGGGAGGTGAAAGTCAGAGGTGAGATTGTAAGGGCTCTGGGTCACTGGGGCATCTGCGCTGGGCAGAAGGGCAGCTCGGTCAAACAGCTGGAGCTGGGAGCCGGTCAGTTGCCAGGCCCTGCCGCTGCTACGTCACGGAGGGCGGGGCGGTGGGCGATTGGCGGTGCACTGCAGCTCGGGCTGCTCTGCAGCCTGGCGGAGACGGGAGGAGGAGCGGAGGGAGAAGTAGGTT
1 GAATGACATTCGATGTGCACATGAAAACCACAGCATGGCTTTTCAGATTTCAGCAGAGGTTCCCTCTCACTTTTGGCCATTTTCCAAGAAGAAATATGATCTGTTGCTTCATTCCTGGAAGTGACTGCACAGCAGAGCTGTGTGAGGGGCTGGTCCCCTGGCTGGGGAGCACACCTAGGCCAAGTGACTCAGGCAGTTGTAATCATGTATCACTGTCCCTGCTCACAGACAGGCAGAACGTCTCTGTGAA
1 GGATCAGTGTTTTTAAAAACAATTCAAAGATTTGGCTTAGCTGGGTTAAGGGTCATCAGTGTGACCCAAGCTGATATTGACTATGGTCTGTAATGATGACTCAGAAAAGAAAAATCCCCCTCGTGAAGCTTACTGAAAATTTCCATGATGTCAGGGGCCACAAGGCTGTAAGCTTTTGGAGGGTGTCATAGTTTCTTAGACCTCTTACACATTATCCTGTCTTAGCTCTTTTAGTATTCTACCTCCttcc
1 TACTAATTGGTGCTAGCCGTCTGCGGGGGGCGGGGTGAAGCTGTGATGGACATTTTCCTCCTCCGCTCCATTTTGGGAAAATAGCGTCTCTCCAGCTACGGCAAAGGGTTCCGCCATTTTGGGCGTGGCTAGGAAGCTGCCATGTTGAGTGTGGCTGAGGAAGTTTGAGTGCAGTTTCTCCCAGATACCTTCTTTACCAAAAAAGCAAATCCCTAACTGCTCCGTGCTGCGCCTACCCCACCGAAGAGCT
0.1975575067705064 GCTGGGGGCGATTCATATTTGACTTTCCAAGCTTACAGTGTAAGGAAGATGGACTCACAATGAAAACAGCaagaactgactcatagtgagcgctcactctatgccaggcactgtgccaaatgcttacgtggatcaagcctcaaaacaatgcgatcaaggacagactatcatcatcctcgttttgcagacgaggaaaccaaggtacagagcggttaaatatttgctccaggtcacaaactaggtcatgggg
1 GCCAAGTTGCATACTCCTTCTCCCCGTCATTTCTCTGTCCCATATTTGTGTTAAGTGACCTTCTCTTTTTACGATAGTAATCAGAGGACTCTTTCTCTCCCCAGTAGTAGTGTTAAGAGCAGTAGCATTCATGTTTGTTGGGGGTCATGTGAGGCTGCAGAGAACTCTGTACTATGAGCTCTGAATCCAAATTCTCTGTCAATCAttatttattcatcaaacactgagcatcctctgagggtaaagttct
1 acacacacacacacacacacacCTGGAGTGGGATCTAGACTACAGATCCCAGCATGCCCTGTGACTcacacacacacacacacacacacacacacacacacacacacGCCTGGAGTGGGATCTAGACTACAGATCCCAGCATGCCCTGTGACTCTcacacacacacacacacacacacacacacacacacacacGCCTGGAGTGGGATCTAGACTACAGATCCCAGCATGCCCTGTGACTcacacacaca
0.158619121316747 GCGGGTAGGTGGAAGTAGAGGTGGCGCGGTATCTAGGAGAGAGAAAAAGGGCTGGACCAATAGGTGCCCGGAAGAGGCGGACCCAGCGGTCTGTTGATTGGTATTGGCAGTGGACCCTCCCCCGGGGTGGTGCCGGAGGGGGGGATGATGGGTCGAGGGGTGTGTTTATGTGGAAGCGAGATGACCGGCAGGAACCTGCCCCAATGGGCTGCAGAGTGGTTAGTGAGTGGGTGACAGACAGACCCGTAGG
1 CTTGTGGTTTTTCTCGCATCATTTAAGCTTTCTGGACTACATGTCCCAAAATGCAAATGCAATCAGACGGTCCCACTGTGGGGTGTGAAGTGTCCGTAGAGCTGTGAGAGGTAAGTGTGTTCTGTGTGTGCTGCGGATTTCTAGAAGTTGTGGATTTCTTGTGAGGGATTCTATTTCTCCTCTTTGCCCTCGGTGGGACCTGGAAGAGAGTAGTTGTTCCACTGATGCACGTTTTCAGCGGGGGTTTCCC
0.06524910906326857 AAACAACATGAGTTCTGCAGCATTTACTTTCACTTGACGTTTATAAGCTTGTGCCCCCCTTATCTGTTTTTCATCAAGGGCACTGTCACTAAGAGATCAATGCTAAAGTGAACTCAAAGATAAAAAGTTAATCTTTAATCTTGACAATTACAGCTTCAAACAGAAGAGTTAATTTTCAGTGCATGCTACCAAGGCATCAAAGACAATGCAGAGACTTAAAAAAAAGGAATAACAGGTTTCTAAGATATGG
1 TAAGCGAGTGGGCCAGGGTCCCTGAGCTCACTACCCTCAGATTCTAACTCCAGCTTCACATCATTAGGCGTAAGCAGCCAATTGGGCCGTCTGGGAGCCGTGCATCCTGGGAGTTATAGTTTCCGGCTCCCTCCTTCAGATTACAAGCTCCACAGAGCCGCGGGAGGACGGTTGCCTGGTATTATTAGCAAGCAGCAAATATGGCGGTGGCGCGCGTGGACGCGGCTTTGCCTCCCGGAGAAGGTAAGGC
1 GTGGGCTTTAGTGAGGGGCTCCTCCTTCAACTGGGCTCCTCCTTCAGTTCCCCAGCTCTTCTGCTTCGACTCCGAGCGGGTGTCATGTGTGAGAACGGCCAGCAGAGGGAGCAGAAAGCCTGGAAGAGCAGCTAGAGCCTGCAGTGACGTGGTGCGGAGGGGCGGCACCCTCCAGAACTTCGAGACGTAGAGCCGGGGTTCTAGGGAAAGGGGCTTCAGTCCCAGGGCTCCTTGGTGACCTCGTGAACCA
1 tgctgaatccacgggtatggaaccagcaaatacagaATTCGAGGACAAGAAACCCGCAGATAACGAGAATCAATTATACTAATTGTATCTAGAATATATAATGACGTCAATGGAAAAATTGCATGACCACCAGAGGGCACACTTTTACACCCAAAACGTCCCACTTTGCTGtttgtttttttgtgggttttgttttgttttgttttgttttgttttgttttgttttgtttgagacggagtttcgctcttg
1 GGCGTGCGCGGCTGCGGTACGGCGTGTTGGTCCCAGCGGTTCAGCTGAGGTAGGGACGTGCTGTAGGCCGGAATGTTACCGGCTGTTGGATCTGCGGATGAGGAGGAGGATCCTGCGGAGGAGGATTGTCCTGAATTGGTTCCCATGGAGACGACGCAAAGCGAGGAGGAGGAAAAGTCTGGCCTCGGCGCCAAGATCCCAGTCACAATTATCACCGGGTATTTAGGTAACTAACCATCCCAGTCACAAA
1 AGTGTGTTTGTGCCAAATCAAATATAGTGACATTATCCACAGATGTATAAAGAAGAGACGGTTTTCTCTGCAGCCCACAAATGTGTGGTGAAGCTCCCTCTCCTTTAGAGGGCGCAAGTTGGCTGCCAGCTCCCTGCTGCCTAGTCAGTGACGATTTCCTGTTTCCAGTGACTAGAATCCTGCCTGCCTGGAGTTAGAAATGACCAGCACGGTAGGAGGATGGAAGATCTATAATATTAAACTTCTATGT
1 GCAGCCTTCCGGGGATTGGCTCCCTGCGAAGATAACCCTGTCCTTCAACAAACCCTCGCTTCCTATTTGCATTCCTAATTGGCATCTTCTATTGCTTTTCCTGGTGACTTCATTTTTCACTCTTGGCTAAAAATGGGTCTCTGATGATTTATTCTATCCTGGGTGTTGACAAGCTGAAGAAGTTGTGTGGGGCCTGCTGCCAGTAACCCTGGGTGACGAAGCGTGACTCACCACTCCGAGGTCAGTGGGG
1 agatcagacaggATTTGAAATGGCTGCAGGTATCCCTAAGACCATGTGGATTAGAGATGTCATAAACCTGAGgactctgaatttgcccactgtgagttacatgctcatccccatagcaatcactgaggtcagcgggatgcagcgctctgattggtcaggcctggAGGGTGTGCTATGGAGGATTAGGAAACATAAATATGCAGCCAGGCCACACCGGTTGTTATGAAATTGGGGAAGAGATGGCTCCCAT
0.4366310153800587 AAAGTAGTCAGCTTTAAGTGCAGGGCAGGCGTGCCCTCTAGCGGCCAAATAAAAAATAAAGAAATACAGGAAACCTTCAGCCACGTAACAATCGCACGTCCCCATCTAGTGGCTAACCTGTGTAAATGCAGTTTTTCTAATCACAATAGCGAATGTTACTTGATTTACATTTGTCTCATGAGGTGAagaactgggaggaatctttgagatcacgtatttcaacttcctcatttgcaaaggaaataaaaca
1 ACAACAGCCCTGATCCACAGTTGAAGGCCATGGCTGGCTGCACACTAACTTTGACGTTTTTCAGGGTGTCACTGGAAAGCCCTATCACACCACCTTCAGTTACATAATAAACCTATCACTATACTGTTCTTACTCTCCCCTCCCACGTATTCAAAACTTCACAAAGGTAGCCAGAGCTAAGAGGAGAGCCTCTTAATTTAAGAGTTCGTTTACACAGTGTGCCTGGGCAGATATTTAGCAACAGCACAAA
1 ATAGCCCAGCCTATCCCTTATCCCGCGGCCAGGAGAAGGCAACTAACGAGGTGGCCCAACCCCCACTTTTCCCCTCACCTCTAGAGCGACGCCCAGATTCTCCCGCTTCTTTTTAGTCATGTTACTTGCCGGGATCCCCCAGTCATCACTGGACGCGCCCACCAAGTCGCTATGTGCGCATGCTCAAGTCTTCGTGCTTCTCCCTCATTGGCCACCGAGTCAGCGGGAGGTGGGGCTGCTGCCGTCGCCA
1 GTTGAAATATATGAAAATAAATACATGAAGCATgcttcaagcactaatttgtcaaaacattcttactgactttgaacagaaattgcttaacttcaagtgacatgttactcaactgaggaataaacaaaacctagagttagtcaaataagcaaatggtgGCcaaaacttgcataatagatataatccacttgaaagaaagccccaggaacaacagaagagcatttctgattacagaagtattgaattagtg
1 tatatatgtataaaCTTCCCCCTGTCTTTCTCTCCTCTCTTTTTTTTAATTTTCTATAATAAAGTTTCCTATTGGATAAGGTCAGCTCCCTGATTTATGCCTGGTTCCTATTGGAAGCTCACAGGGGCTGACATCACTTAGGAAAGCGAAGGGGGTAGGGCTGCCAGATCAGTTTGTCACCACCCAGGCTCCCTTGCCTTTGGCTGGGTGCAACTTCCATTTTAGGTGTTGGATCTGAGGGGGAAAAAAA
0.3658078581258386 atatgaattacatACTATTTTAaaacacaagaggacatcaggcaaacccgaactgaggcacactttgcaaaatacgtaatactcttcactatgtcaaggtcacaaaagacaaagaaagcccagggaaaggcccctgggtggttgcagtgtgacgtgagatcctggagcagaaagtggacatcaggaagaagctgtgagtcctgaacgtgacctatggtctgattcatattattgcatcggccgggcacag
1 GGCTTAGCTGACTCCACCACCTCCTCCCTCTTCTAATCAGTAGCCTGATAAGGCTGATCTGTACCCACGGGAACAGGCCTTGACTGGGGGAGGTAGCATGAGCTTCTTAATAGGGTCACTGTCTCTACAAAGGGACATCAGGAGCATTCCGTGTCATGAGTATTCGGGAATCTAAACATAGGGGTGATAATCCTTTTTAACAACACCATGTTTACTTGTAAGGTTTTGTGTACTTTTCTCTTGCAATTGT
1 GTTCGAATGACGTCACACTTGCCGCAGCGTATAAGGCGCTACGCAgttctggagtgaaataggttcgaatcccaccactgtcaattccagactgtgaccctctgtgtgtctttcaactatatcagcctattccctcatctggaaatgtgtgtttaccttcttcatagacttttggagataatttgagaatttccatgcacagAAACAAGGATCTAGTAGCCTGTGGGTACCCAAGCTcctggggtcctgc
1 ATAAATCTCTATTATAACATTTTAAGTGATTTATCACGTTAGCAATGACGCCCAGCCATCTAATCATTGGAAACGGAACTTAAATTTAGAGTTTGTTAAAACAAAACACCGGAACCGCACCGGGGACCATATTTAGAGTAACGCCTTAATAATGCGCATGAGTCTCCGGCAGGGCTGTGAAGGTTTCCGGGAAGCCAGCCAATCATTCCCAACGGAAACTCAGTAGCGGCATTTTCAACTGGATAAACTG
1 CTGCCATCCCTTGGAAGGGGCGGGGGCTTCCTGGCACCAGGCGGGGCGGAAGCGGCTCCGGGAAGGCCGGGCCGGGGTTACCGTTTCGGTGTCCCCGCCTGGCTCTGGGCGCGGCGCCGCGGCGGAAGAGGCTCGGGGAGGAAGTTATTTGGGGCACGGCGCTGACGTCAGAGACAGAGTGGGGCCGGGCCGTGGGGTCGGGGGCGCCGGACCTGTTTCCCCGCCGGCGCCGGGGGTCGGTACTCGCggg
1 GTGCTATGATTGCTTTCTTCTGAGAGGGAAATTCCTCTTTCATCAGTATGGATGCACTGTTTTTACACACTGCAAGTGCTGTGTTACTGTGTCAGTCATCCTATTAGGGCCAGTTTCAGACGAGTAGGGCTGACGAGCTGGCTGGGGATTGGCTGGCCCCGGCTGGGAGGGATTTGTCGGAAGGAAGGGCTGCAGCTTACAGCAACAGAGTTTAGACTGTCTTTGCTTCATCATCTGAAGGTAAAATTTT
1 AGAATCATGAAGATTGAAATTTTTTCTTGCATGACAAACTGACTTTGACTGGACCTTAGACCCATTCTTCCCAAGTGAGTTAATCTGTCACACAGAACAAACTCACATGGGCTCTGTCTCAACAATGACGACAAAGCATCCAAGCCTTCCACATTGTTTGTGGGACTTCTCTACACTGGTTATCTCTAACTATCTACGATTATTTGTCTAGAGGACAAAGACCACATGTTTATTTAAAAAGTAACAACTT
1 GAAATTTGGACAAAAGGGGGAAGAAAGGAATTAAGAAAATAGTTAGGGGGATTGTGAGGTAAAGGGAACTTTGTTATGACAGAAGAGACAAAGTATGTGTACAGACTAAGAAAAAAGAGGCTGAAAacacacacacacacacacacacacacgagaggaggggaagaggagggggagagaggaggaCAATAATGACGACGAACAGTGCAAGGTCCAGGGCAGTGGGAGTGGAGGAGTCACAGGCACAGAC
1 GGACCCCGGAAATGTAAAGCATGAGCGGGAACAGTCGCCAGGGCGAGTGACAGGCGAGCCCTATGCTTTACTTCCGAGGGCGGTGTCAGCAAAGCTAGGTAAGGAGACAGGGAGGACGGTGCCTGCCCCTTTAAGATCGACTCCACCCCGCCTCTGGAGGAAAATGACGCCGCCGTCTACCCGTTGTGGAACGTAACTCTTTTCATCCCATCAGCTCTCCTTCTCATTAAGAGAAATACCAAGTGGTCAC
1 GCCTCTCCCCAAACTCCCACGCTGTTGCTGGTTTTCCTCTGATCTCAGGAGTTGCCAGTGATTGGAGTTAGGGATTATGACCCGTAGTATCTGGAAAACAAGAGATGTCTGTTTTATGTGGCCTCCAGTTGCTCTCAGTGACTGTGGGGTTAGGGCACAGACCCTGGACTCAGGGCAAAGGCCTGGGTGGGAGGTTTTCCCAGCATGACAAAAGTGCTGGTTGGTGGCACACGGGGAGGGACTCCAGTGG
1 gcagatcatggtggcctctgaaatgtccagaaaacaaaggaaacgattaggggcccactggggaaagaggaggtttacacaagttgttttgaaagaaagcttattggtactagcagtgtcttacaagcgctggtgagttctgactggtgaatgtcagtagttgctaggtaggatttgtaaccttggagttacggttaggcacttgtaggtttttttgtttgtttgttttggggtttttttgagacagagt
1 CTTTTGCTAAGTTGGTTTCATTTTAATCTTTCCCTTTACCAAAATAAACTAGTACAAAGAAATGCAAATATTTGAGTATGTGCTAAAATAAACATTGCATCAATCATGTTTGAGGAGGTACAGAGGTAAGGAGGTCAACCGCCTGACTGGAAATGATGGGTGGGGACATGATAGGGAAAATACAAGAAGGGACCTTCACGGCCAAAACCTCAGGGCTCCGCTCTCCTGAAATCAACCATATGGGAGCCTC
0.5826013368089474 taaatcccagatctatctcttactggttttgtgaccttgggcaattatttagcttcctcttgcctcagcttcttatttgtacaatggagataagatcattttagcaaattgcatcatagagctactgtaccaatgcccagcaagagaatgatgtcacagTCCAGTGGGGTACATTGAGGATAGTTTAATTAAGAGACTGTTTGCAggcctggcgcagtggctcacacctgtaatctcagcactttgggag
0.3818237412926547 AGATACATATTTAACAACTAGCAAAATGTTGGAAGCGGTCTCCTCTGCTGTCTATTTAGGGAAAATGGAACTGATCTTTCTGAAATAGGCATGCATGTAATGATGATGTCATTAATGCTTGGCTAGCTGGTGGACTTAAACCCAGAGGGCACTTCTGAAAAGGGGCAAAGTGCATCTGCTTCTGCTTTGTTTATAGACTGTCAGCCTTGGATCTGTCACTCCCTCAGAAGGGAAGGATTGAggccaggca
0.04173931461094595 TCGGACCTGGAGAGCCCAAAGGTTCGCACTGGTACTGCGAGACGCACCGAGCTACCTCGCGGCGTTAGCGCCGTACCGAGTGGCTGCAGAACTGTGGGCAGCTACGACGCTGCCAGGCCCGTCCTGATTGGTTCAGAGGACGAAGAGGTGGGCCCAGAGGAAAGCCCGGAGCTCCGGGAAAGGAAGCCAGTGCCCGGTGCGCTCTCGGCCCTGCTCCGATTGGCTCAGAGGGGAAAGGGGGCGTGTCCAG
1 AGCCACACCTTCCACCAACAGAAACTCTTGGATTGGCCCAACCCTCACACACTTCCAGTTCCATCAGCCATTCAGAATTAAAAGTTTACCAACGTTTCGGCCCCTCCCCTTAAGTCCAAGCCACTCAGAAGCAAGTTGTCACTGTAAGTCCCGCCTCCAAACAGCTCACTGGGCCAATGGAAAGCCATCTTGTTCCAGGCTTCATTCTCACACATCTAGGAGAGCCGGTTTTCCTCTCAGCTAGAGAACA
1 cttctgcagcatgtggttttcaaggtcgcctaggggtgtctccactcctcagtgcagtaagaaaagagcatgaaaaagtgcacatgggagttttttatgggctctgcctagaagtggtgcgtgttacttctactcacattccattggctaaaactccatcacatgaccacagctaaccacagaggagtctgggaaatgtagtcCTTGGTGGAGCAGCCACTTAGCAGTGACAGCTCTGGAGGGGTTTCTG
0.7309769042467432 TCCATAAGGCTCCTTTGTTATGCTCCCCACCCCCTACCACACACCCGCAACTGGCCTTTGCCATGAGGAAGATGTGTACCTATAATCAGGCATTTCTTTACTTTAGGGTTATTTGTCATGTCAGACAGCATGGACTTTTGAGAACAGGCTTAAGCTAGGGAAGGCAAAGTTATATAAACTGTATTCATTGTTAAATATTTGCTTCCAGGGAAGGTGAAAAATGCTTTGTACTTTTTCCTTTGGCTTTTTT
0.3995421659902143 TAAAGCAGCTAACCTGCTTGCTACTCAGACACATTAACCAGGCTGTGACATCAGTAGCTGTTGCAAAACCACTGCTTATCGACCGAAATCCATAACCACAGCATAGTCTCATATCTTCCACGCCCACTGATAAGGATCTTCTTCATACCTGATAATGACGCACTGGTTCTCTCTGTCAATGATCATGTTTCTGTACATATTATCTGCAAGGGCATAGATATGTGGTGGGTTTTCATACTGTGCCTAGaaa
1 CTCCGCCACTCAGCCTACCAACCCGCTGGGGGAGCCGACGGAGGAAGTGACGTCTGCTGTCCCACCTCTCCCTCCCGCCCTTGTCCTTTCCGGAGGTGCGCCCAGACCCCGCATCTAGTATCCCCCAAAGAAGCGACTActtaacttgtgtcctgcggaggacccttctggcggccagctggaagctgtgcgccggtcttcaaatagtggcttttaattcgcagactagaacatttaggattacaaagaa
0.008511316802325626 gtaaagagaaaccctcattctgaggggcaatttagcaacatggatcaatatgaaaaacacacatcccttacccaacaattttacttccaggaacttaCTTGACCACCAACCTCACTGTTAACAAACAAGTCTGCCCTCAAGACACATAATATTTGCAGAATTCTGTGGACAGAGGATTTAGTACACACTGCTTTCATCCTGTGATTGCCCTAAGTACTTTCAGAAATGTAAACAGTCCTGACACATGTGG
1 ATTAACCTTAGAGGCAATATCCAAAAAAGCCACAAGATGGGGCTAACAACGCTACACTCCAGATAGCCCTCTCCCCTCCCCCCAACGCAGAGACTCTTACGTCGTCTCATTCTCTTTCACTGTGTTCTCTTATCTCTGTGTCCCAGTTGTGTTGTGAATCGATATGTGTTGCTGTCTATGTGTTTCATTCTGTTCTTACCTGATCTTCCTTATTTTGTTGGGTCTTTTTTTTTTCTCATATTCTGAATGG
1 ATTCTGTATATTAATGCCATAAATGCCTGCCTCTGGCAAAGCCTTAATGTGTGAACAAAGAAAGGAATTGTTCACACAGCAAAACATACAAGGAGAAATGTATATCAGTGGTGGAAACCTCTCTGTCAGAGGGAATTTCAGATCATTTCAATGTTTACATTTGCAACTGAAGCATATTGACAGAGCAAAGCAAATAAATGTACACTAGGAAATGCAGGAAGAAAATTATTTGCCCAGATACTGCAAAGAT
1 GGCTAAGAAGGTGGAGACCGGAGAAGCTGTGAGGTTGTGAGTAACCCCGTGGGTCTAAGCGTGTTGGCTGTGAGGAACAAAGCTAGGGAATAATCTGCTGGGAAGCGCGAGGCATCACTTCCCTAACTGTAGGAGCTCAAACTCCTGTGTTCTTCCAGTAGACCTGGGAGCGAAGAGAAGCAAGACATTGCTGTGGAGGCGAAGTCTCCGTATTAAGATCTTGCTGGTTTTTTAAGTTTTCTTGGCACAT
1 GCAGGGGACACAAAGCAGGGAAGACGAGACCAAGCGCTCCAGCTGCAGCGAGAGACAAAGGCCCCGCCAAATCCCGGAAGCCGCCCTGTCCGCTCCAGTTGCGTGCCTGATTGGACGGTCCCCAGCTCAGGGTCCCTGATTGGAAAACGTCTAAGGCCCAGCCCCTTCAGGCCTTAAGTGACAGAAGACCTGACCAAACGCTGGACTGAATGAAGAAAGAGTGACAGCCTAAGCTGCAGCGTTTTCAGGC
1 AAGGCCTCAATTTCCTGTCCTCTGCTTACTGCCCCTTTTTTTGCCTGCGAATGGCGGCGATTTGAAGTTGGGGCTTTTCGTTTCCTCCAAAACATTGATATCTGGAAAGGGAGCCCCTTAACACTTTTGGAGGGAACTGGCTGCAGCATTTGGCGGGGAGAGATAAACTGGTTTCCCACCTCTGCTTACTCCCACCTTCTCCCCTTAATCTTCTCTTCCTCTGTGCGAGACttttttccttttttattgt
1 gccatggagaccaaaaagctggttaatgtattttcattcaaaggaacatttacgtgagaggccaaattacaaaagatgactcatgagaatagaatcagcacacaggaagttatttggatgattcTGACATCGTCCTTCAAACTTCTGACATCATACGCCCTTGGCCTCTAGAACGCCGTTCTTTTGGTTCTCCTGACTTACGGTCTGAGCTTTCCCACCATTTTTTATGAGCTTCTCTGACTTACATTCT
0.7891629168834702 AAATTCCCTGGTTCAGGAAGGTCCGCCCCTTTTTGGCTCCACCCCTACCGACTGAGCCCGGCCTCCTCCTGATGACGCCATGGGCCATGCGTTCTAGCCACGGCCCCCGCATCGGAACAGGTTCTGGCCCCGCCCCCACCAGTGAGGCATCCGGCCCCGCCTCTCCCCAAACTCCTCTGGCTGCATACCACGTTCCTCAGCTGGTGGATTAGTTCCTCCTGAGACTCAATCACGTCCCGCAGTTGATCTA
0.2673753932840038 TTCATTTACACTGGTGTTTGAAGACAGGACTATGTGTCAATAAAGGAATTAGACCAGACACCTCAGTCCATCAGGTTTATTTCAGTTTGCTGACAGGAACAGTAGGTGACATTAAGCAACAGAAAACACTTCAAAGTTTTCTATCCTTGGTTTTGCAATGAAGACAAACAACATTTACTGCTTTAGCAGCAACAAACAATGAGCGTAAGACTGCAGAGGGAAGATGAAAGAGCACACCAAATTATCAAAC
0.7293094856803789 TGATCTATTTGTAGCGACCAGGTCTTTGCGTAAACATTCCAGCCATTTGCCTAATCATCTGGTTTAAATTTTAATGGATTTAACCTTGGAAAGAGGGCTGTGTCTACactgagagtcaagatacctggtttctgatgtcagctgtgcattgcagctgacttcctgtgtCTATGATTGAGCTGTCTCACTGGCGTTGCCCATGGGTTCTTCGTCTTAAaaatgagcattttacatacattgatgatgggaa
1 acccattcctttgagttactgttacctgaaattcatacccttttatctctgtttcagacttagcactctacatcctcctgatctttccagctgatgcccttccagcatccctgtgatctttgactccatcatgacgtcagttcattgattataccaccttttcccttgatgtttcttacgcttttgttcagcttaaattccagtcattagaacacaacctctcctcctattcctttgtcttcttgtttca
1 GGCGCCAACTCCCGGATGTTGGCAAGCTCTGCTCCACAGCGCCTGTTTCTGAGTATGTTTACTTGCTCTCCCTCTTCTCTCCCTCCCCTTTAAGGATGGCGCAGGAAAGGGAGGTGAGGGGGGAGAATCCACCCCACCCCCTCGTCCATGTTTGAACAAAAACCCAGAGAAAGAGTGAGGGAGAAAAAGTCTCGGTGCGGGGGGGCCTTACCAGACTCCTAAAGCCAAACGTATCTACAGGTTTTAATCC
0.6267036655333627 agacaaggttttgctctgttacccaggctggctggaatgcagtggcatgatcatagttcactgtaacttcgaacttctgagctcaagggatcctcccacctcagcctctggagtagctaggtaggactacgtgtgcatgacacaaggcctggttaatttttaaattttttgtagagatagggtcttgctgctgcccaagctggtctcaagcaaatccttctgcttcagcctccaaaagcactaggattat
1 CGGTGTTGCTATGACTTGTTTCTTGATTTCTCTCTCTCTCTCTGCTGCAGCACGGCTGTTGCTAGCAGACCTATCGACGGAGCTTGCTTGCTCGCTCGctctctcactctctctctctctctctctctctctctctctctcAGCTCTGTGACGCAGATCTAAATTCTCCAGTCTGCTCCTTGTGTTGCAAGAGCAGAACTGCAGCTTTTCCCCTGGAGAGCCGGAGGGCAGTGCCAAGGCTGGTCAAACA
1 ATGTCCTGCCTCTTTCCCTTAAGCTCCACCCCTTCACTCCCTTAGAGCGTCTGTTCGTCTCCTCCCACCTTTCCCTTTCACCTCCCATAACCTCCCATTAGAGTCTCTGGGTTACGCCCCTTGGGTCTGTCCGTTATCCAATCCCGTTAACTGCTGTGCTCCAACCTCTGTTCTTATTGGTCGCCTCCCTTCTCTGTCCCCTGCACGTGGTCCTGATCGACGGCTTTGCCGGCCCGTGACGGCCGGAGGG
1 TGCAGGCTCCAGATCTAGCCCTGCCCTGTCACCAGGGACCCTCTATTCCCACAGAACCACCGGAAAGCTCATCTGCCCACCAGCTATTTTCACGATCTCACACTACATGGGCTGATGGTGATGAAATGCCAAATGAGCCAATAACTGGATCTGAGCACCCTGACACCCTCATGTCCACACCCAGACGAATGAATGACTAGCTCACTTGTCACCCATGTGAGTCACCCCCATGAAAGAAGTACAGTGGAGT
0.5145127435933479 TTTTAAGTCCATTGTGTTGTCACTATTACTCAACCAGGTAAACACTCCTCTTTTGAAGTTCTGCCCACCTGTTACGCCTCTGTGACATACTGCCACCTTCTAGATGATTTTTACCTCTGGTGTACAACTGTCCTCCCTACCCCAGTGCCTGTTTTCTGTCATCTTTGGTGACATCAGCTTCATTGGCCTTAACATGAGTTCTTTCATGCATCTACAATAGCTTGTGGCacagttctgcttgcatatatca
1 GTCCTTCTATTAATCTAAATCCTGTTCATCTTCAATTTAGGTCCTACTTCCTCCAGGACATTAGGTATTTTTGTACCTTGCTCTATGTTGATTATTTACTTTTGTTTTTTTCCCCTGCTGTCTCTGCCTAGAATAAATATTGAAATTCTGCACAAACATCAAGGGCCAGGTCAAAGGCTCACTGTCCCACGACATGGGATCAGATATTCCCTGATGGAGTGATATCTGGAACCAGTTTTCAAAGGAATTG
1 TCTTGACGGGTCTGGGAGACAGacacacacacagacacacacacacacacacacacacacacacacacacacacacacacacacacacaAAGGTGCAATGGAGCCAGGGGAGGCGCTTGGCAGCAGCCCGCGCCAACCAGCATTCCTGAGATGTTTGAGAATTCTGGAACGCGCAGACAGAGCCGACGTCACTGCAACACGCGGCGCCTCCGCCGGCCCGTATAAAAGGCGGGCTCCGGGGCGCCTGGGC
1 AGCGGCACCTCCGCGATGGTGGCGGAGCCGCGGCGGAGCTGCTGCACCGACCCGCCGCCCACTCCCCGCTCGGGCCCGGCCCACCTCGCAGTATCGCGCCCCTCCATTGGTACAGCGCGGTGTGACGCGGCCGGGGGCCCGGCCAATGGGAGGCGGAGGAGGCGGGATCTCTTTTTCCttttttttttttttttttttttttttttAATCTTTTTAATAAAATGAGCAGAGAAGAAGGCGGAGAGAGGCC
0.4501792008183622 tgaaaaaatgtctgaggcagaagggacaaagtgtgcacaggccacgtgagtgagcaagtctgctgatttccaggaaaggaaagagggccagtataactgaagtgagggttcagggacactgtagtagcctggtgtgacacgtcacaggagaggtgggcagggcccggtcatgagaACCAATTTGGAACTGAAGAAAACAAATGGTAAATTCAGTGTTTTCCTTACAGTTTATATTGCATTCCCCTGTAAA
0.1712926704223454 ACTGCAATTCCCAGAAGACCCCACGGTAGGGGCGGGACCCAAGATGGCCGCTTGTCTGGGGACAGGAGCGGAGGCCAATACGCGCAGAGCATGCGCCTACGCCGGGCCAATTGAAAGCCATAGTGACAGTAACCCTGATTCAGGGGCGGGAAACACTGACCACAGAAGACAAGTTGAGGTGAGAATCCCCTTACAAGGGGGTTTGGGGCATAAATCGCACAATCTTTGGCTTTTTCTAACTAGAAAAAGA
0.0397989636451407 GGGTCCGGGGCGGGGGGCAACCCAGCACCCTATGGAATCTACTCCTGACCAAGCTTAAATTCCCTGGGGTGTGCGGGTGCAGCTTTTAAGGCCATGTCAACTTTCCTCCAGCCGCCAACAGGTTAAGTTCAGTTCCATGACGTCCGGGCGGTTTCACAATGCCAGCTCCCTCAGAGCTGCACCGCGAGGTGCTGGTGCCAAGCGGCCAGTGGCTGCAGGACAGCAACACCTAGGCTCCGGGGGTGGGGCT
1 GCAGAAATAAAACATTGACGGAACGGATACGACCGCAGATTGCGGGAGCTGTCCTCTCAATCAGCCCGGCAGCGGCGGCCCACAATTTACGCGTGTGCAACCCTAACCCCGGCCCAAGCTTGACCTACAATTTGCGCAGGCGCAGATCCTAACTTTGGCGTCCCTGTGGGCGGCCTTTGGTGTGAGACGCGTGGTATTCTGGGAACGTCGGAGACGGAAGTTACTTCGTCTTTAGCTCCTGGCGCTGCTG
1 tagtgactattacagttggtgaggatttacgtctccacaacactgttccctcttgttcccctttttggttaaatcaatattcagggtcaatattattataactatgtaaataatgttctctactgagcttacacgacactataattacctttcctttcttgtacagctttttgtttttcttggagttaatgatcaccttgtttttttcaccagcttgtctttgtatataactatccctaagtcctgccac
1 GGCAGCAATAGAGCAGAACTAGCACTATCTTTTAGAGAACAGGAAATACCTGCCCTGCCTAGTCACAGACTTGCATCATAAACTCAATGGTTTGAAAAGCACCTATGTATTCAAACTGAAGATTTCTCCCTTGCTGCAGTTCAGAGTCCACGTTGTGACTTGGCATAAAGACAAACAATTCCGCAGCTCAGAGAAAGACATCATTGAGTTCAATTTCTAGTGGCTTTCCCCCAACATTTGCCACTTGATC
1 TATTGTACAATCACATGTTGCTTAACAATGGATATATGttcatccttgtgtgaacatgatagagtgtagttacacaagcctagatgataccctatagcctactgctcctagactacaaaactgtatagcatgttacagcactgaatactgtaaacaactgtaacacaatggtacatctgtctagggcacttaccccatgaatggagctcactggaagttgctctgggtgagtcagtgagtcagtggtgag
1 TACTGGGTTTTTGTTTGTTTTGAACGTTGCAAACAGTAATGCTTCTTTACCACTCACCCTCCCCCCACCCTCAACCTCCACAACGTTCCCGTTTGCTTATAGTTGTCAACGACCATGATCTCTGGACCCACACTACAGTAACAAGTTTGTCAGTCATTTTCAGATAAGGTGCAAATCAAGGGATGGCTTTGTCCCCACTTCGGCGCAGGTGGGACAGACTTGGGGAAGACGCAGCTGAAGAGACAAATTC
1 agctttataggatttgggtaggtagtggaaaattacacttaaaggtggttatctcttgtgggcaggggaggggtcacaaggtgcagggttgggagatcatgagattcattgtccaggggaggaatgtcacaaggtcgattgattagttggagtggggcatgtatatgtgcacgtcacagggattatgatggcttagcttgggctcagatgtctgacaTTGAGGATCCTTCTTTATCTTCCTCTGATGCCC
0.6455431688819783 AGGTGGAAGGCTATTGGTTCAGGGAGCCCGTCAGACCGGACTGGAGTGAGCCATGATTGGTCGACACAGGCGCAATCAGGTTAGGTTGCTTActcctccgctcctccctccttttcctccacgccccatctcccccaccccctactgctTTTACTTTCTACGCATTTCTATTTCCTCCTTTATTTATTTATTTGTGATAAACTTAAATGACCCGGCGACGGAGGCGGTACTCTAGGAGAAGGCTGAGGAT
1 gtatctggtttaactatttgcttgcattttattgatcttgtcttccccaacaaaagcagaggccatgctgtattcaatgttttagcaccacgtctgccatatggtggacgcccagcaagtaattacagtatgaatggaAAAACAAATATTTGCAATGCTCACTTTGATGTTCAAGAAGGGTCTGCCTACTtgcccagtaaatatctgttgaataaataaaGGAAATAAATGAATGAGTCATAGAAGGAGC
0.3493733005241093 GATTTCTGTAAGTGAAATTCTGAACAATACTAATTGTTTGCTTACCTGCAATGTATGGGTTGTTAAGATAAAACAGGGTGGGAACCTGATCTACCCAGGCATATCTTTCATGTGAATGTGAAGGAAATGATTCATTGACAACCCCAAAGACCTTGCTGGGAAAACACAGCTCAGTATTGCATCATCAAGCATTTGAAAACAAAGTGTCAGGAAACAGTTTAGAAATCAGTCTCTATCACTTTCTCTTATT
0.6065235160083995 GCAACCTGGCTGGGTCCGCACGGAGACAGGCGGGGCAGCGCGGGGAGGGGCCACCGGAAGCCCCACCCCTTTCCTCGCGTCCGGTCGCCCGGGCAACGCGCCACCGCGTCGCAGCCGGAGTGACGCGTGGCCGCCGGCACCCGGAGCTCCTGGGCACACGGCATTGGCAGGGGCCGCTTCGGCAGAGTGATGACTGATGATGAGTCCGAGAGCGTCCTCTCCGACTCCCATGAAGGGTCGGAGCTGGAGC
1 AAAACGCCTCAGGTTGGTCGGCGATGCGAACTGCCCGCCTCTGTTCGGCGAGGGCGCCCGGATTGGTTCACCCGACCCGGATGCTATGGCAACAGGTGGTGTTTGATAGCTTTCCGCGGAGTCCCTGGGTGTAGTGGGAACTGTGGTCTCGATCTGGCGCGGTGGGTGATGGGACATTCTCTCCCCGCGCCTGAGCGCGCTAAGGGAGCACGGCATTCTGGGAGTTGTGGTTTTGACTCCCCAGAGACGC
1 gttacaaacttgagcaagtaaaatgtccaatgagagaaaaggttacaaaagagcaagtaagacgaacgaaaacttaacctaatagaaaagtgaaaccacaaacctgccaatagcagaatctttagagaaatgacgcgaaactcctgccttaaagccctaaatggcggcttcaatatcagtcccactgagcatgaaattcatttacttaaataaaatctgaatctcagcccaaacctgggagattcaaaac
1 TATCCAGTAGGAAGCTAGGAGAGGTCTTTCCTGATCCTAGAAGTTGTGGCATACTCTGCTACTAATTGGTGGCTCCCATGATATTCCCGTCCTGTTGATGTCACAATAGACCCATTGTGACATTATCATTGATCAAACATGTAAAGAATGCTTACTATGTGCAGAGAACTGGTCATTCTATATGCTGCCATGGTAGAAGGGTGAGGGGGGAAGGAGGGTAGGAAATAATAGACAACAGGAATGCTAAAAT
1 TTAGAATTCTTACAGTAAAATGTGATTTGAGCTGTGAATGCTGGGGATCAGATTTCAATTTAGACATCTATTGCCTCAATGTTTGCTGTGAGGCAATCTCTTGTTTTCAGTAGATTGAACTTTATGCTCTATCTTTTAGCAAATTAAGAGAAAAGGGAAAACAGAAATCAAATCAGAAGAGTAAATAGTCATTGAACTCCTATGATATACAGGGCACAGTGCATGCCAGGTGCATGAAAAATAATGTTGT
1 CGCCCACCCAACCCCTACCCCCCAGATCGCTAGTccttcttcctccatggctccgttttaagcgggcacatttcacagattaaagactacatttcccagcctcccttgcagtgaggtgggtcgtatgactacgttctagccaatgggatgtgagcagctgtggcaacacaacttttgggaggcatccttgaagaagagggccctgcctcctttctgctggctggagtgcagatgtgatggctggatctgg
1 ccctaagccttgaccaaagattagccagaagatgagagagatcagagttgtcatgaaagggaaggaagtctcagtcagctcaacatagttccaTCATGCCCCCCTTGAGGACACTGGGCTTTTATTCCTTTTTGTTTGTTTTTGGCAACATTATCACAAAGCAAACTTTCCACCAGGGCCAtagaacatagttgttaagaattcagtctctagagtaggattacatggattcaagtcacagttcatctac
1 ATTGGACAAGAGGCAGCCGATGGAATCAGGTTTCCAAACCTATAACCCCTGGTTTCAGCCGGAGACTTGAGGCAATACAGCTTCAGTCATGACTCAGGATTTTGCGAGTGAAAGCAAGCACGTCAAGTGATGTAAGAAAATTCCCCCATTCCTCCAACCCACTGGCTTCCTCCTCCCTGGAGAATTCAGTCAGACAGCATTGTGTTGGGGGTGGGGGAGAAACAGAGGTATCCTGTCACTGGGTGCTGAG
0.5983533119367938 aaatgggacctccacaggacacagattaaatacccGCTTCATTGCGGGAGACGAGGGGCGGGGACAGGAGAGAAAGAAGAGACAGGCATAAGTCACTTCCCCCGCCGGCTCCGACAGCGGGTTGGTCCGCTGAGGGGCGTTGGGTGAGGCGGAAGAGCAGACGGGGATCCGGAAGGCGTTGTCGGTGACATCACGGAGAGGGCGATTTCTATGTAGATGAGGCAGCGCAGGGGCTGCTGCTTCGCCACCT
1 GATGTCTTCCATCATTTTCATCCCCTACACTTTATAATCTGTTGCGATGCGGCCAGGGTGCTCTGCTTGAACCTCCGCTGCACCTTGTCACATGTAGGTTCCCTTTAGTTACTTGCGCTTTGAGATGACGTTACACTTCAGGGACCTCAAGCACACAAGCATTCTAAGGCTCAAGGAGAGGTCTGGCTACCAAATGCTAATTTAATTCTCAGGTCGACAATGGTTTATGCCTGCAGTACTACTGCTGGGC
1 TTCCCAATCTGGGGAAGACTTATTGTGAGTACCAGAACTTATAGCTCGCACAGGAACTTAAACACAGACCTGCAGTGGTTTCCAGGTCTGGGGAAGACTTAAGAGAGCACCAGAACTTCATCACTGACCTTTCAGTTGCTTCCAGGTCAGGGGAAAGTTCCATGTAAGCATCCGGGCCGTGTGGGAAATCTGACCAGGGACTCAGGCCTTCCCATGGGTTGTGTCCCATGAAGCActatggcactatcca
1 CTAAGCTTTTATCTCACCCTGGTGACAGCTCAGAAACACACAAACTCTGTGTTAAGAAAACTAAGAAGTCATTCATCTGCACATTTCCCGAAATCCCCCAGAAGCCCGTATTAGACTGAATGGTGTCCTTATTGCAAACTCTCCACTTTAGCCAAGGTGCAAAGTCCTCCCAGTCCCCCAGGAGCTTCCCTTCTCTGAGCGGTACTTAAGTTTTCTGTAAAACCACTCAGTTCAACAAATGAGCTTCTCA
1 AGGCGCTTCTCATTGGACGCCCAGGCTGAGGTTCTTTCTTTCAGAATGAAAGGGAGGCGGGGTCGCCCGGGAGGCGGAGCGATCGTCCGCCATGGCCAATTATAATTGCTCTGAGTGGACATCAGACGTGCCCAACGGGCTTTGGATTGGGTGTTCGGGGGACGGGGCGTGACGAGAAGTGCCAGGTGTACAGAAAGATTCTCCCTTGGTTCCCAGATTGGGTCCGCCTGTGAGACCAGGACCTCGCGGA
0.2035689403970737 cctctggacaacccagctgccagctgaccacaaatgcatgagttagcgcaggtgagatcaactaaggcagcccagcgcagagtcctctagctgacccacattatcaggagataataaatgctggttttacgccactgtcgtaaaggagggagtgacgcagtaaaagctacctACTTAGCTGCTTTTTTTTTTTAAAAGCTTAAAACAAAGAAAATTTGTTGCACGACCCTGTGTGTTCTGAGACTGAGCT
1 aaaactgcttttgtcaaggtcaggtcatctgtactctccatgtgcacatctagtggatacttgaccttgtggcagcatttgacagtttgcccctccctcctggaatcttgctcccggctcctatgacaccatgctggttttcctcttgcatcactggctgctgctttcccttctgtccctgactctgagtaatggaggtctaaagggcattgtgctggactctcttgtttctctataattctgttacagt
1 TTGAAGTGACTGAACAGGCTAATGAGAAAGCAGTCCTACTTTTGATGGATAACTAGGGTCAAAGTTCTCTGTGACTCTGCCTTTTCCTTTCATCTGCTGCCCAGAGTACGTGATCAGGAACAGGTCCCATCCCTAGAATTGATTTTCCACCAAAATTTAAGTTCACAAAATGCCATAAGATAATGTTAACATAATGTCTTTTCGTGACTGTCCTATGTTAGCCCACTCTTCTGTGGTGTTTTCGGTGTTT
1 CTTACACTATGCCACTCCCACATTTGTCACAGAGCGGCATCCTCTGTGCCCCGCCTGAACCGCCATGGACTTTCGTCACCGGAGCTCTCACACTCCGCGTTCCAGCCGGACGGTCATCTGAAAAACAAAGCGTTTCCATTTATGGCTAGGGAACAGCTGGCCGCAGCCTGTGCTTGGCTTCTATTTTAAAGTGTGCACTTTAACCTGAAGTTGCATCTGCACCGTCATTCCGAGAGGGGCAGGACTGATG
0.309933837294372 GCCGAGCCAATCGGAAGGTTCAACCTTCACACGTGCCCTGGCACTTGGGAAACCCGGGCTGAGACAAGGTCCGGTCACGTGACCAAAGAGTTGCCGTTTCTTTGGCCTCTCTAGCCAGCCGGTCCTCCCAGTGTCTCGTTTTCCCAGCATCTTTCACTGACCTGACCGCAAGCTCTTTAGCTGGAGCCAGGAGTTTGGTAGCGCGTGGGGACTTTGTGTGTGATGGATCCAGGAACCCCTCGGCCAGAGC
1 AAGAACAGAAAGTCAACAACATTCTTGTGTTCACTGTGGATGTCAAGGCCAACAAATACCAGATCAAACAGGCTAAGAAAAAGCTCTGTGGCACTGACATGGCCAATATCAACACCCTGATCAGGCCTGATGGAAAGAAGGCCCATGTTCTACCGGTTCCTGACTATGATGACGTTGCCAACAAAATTGGGATCATCTAAAGTGAGCCCAGCTGGCTAACACTAAATAGACATATTTTTCACCATAaaat
1 CTGACAGGATTCCACCCAGCCCCCAAGTCCTCCTCACCCCTCATTCCCAGGTGGGCAGAGGTAGATGGCTTGCAGAGCGGGGGGATGCAAGATGGGGAGACTCCACCAGACCCTAGGAGGAGAATTAATGTTGCCTTTCTAGGGTCGTTATTATACCTTTCTGGTCATTCAGGACATTAACTAGACTCAAGAAGAGGCACCATCTTAATCCAACTACAGTTGCAGGATCTGGGTTACTGTTAATGTGTAA
1 CAGACCGGTCAACCTTAGGTCTGACAACAAGGCCCCTTTCGGCTATGAAGACCCTTTCTAGGGCACTCCATGTTCCTCAGGAGCTAGGAAAACTCGACTCAACCCAAACGTAGGCGGAGAGGCGGGCGGTGAGGGCCCGCTCTGCACTCTGGGAATTGTAGTCCTCAAACACCTCCGGACCAGGCGATAGCAGGAGTGACCTACTTTCCCTGCACACTACACTTCCCTGAGCACTTTGCGAAGGCCCAAC
0.04715701399188754 GCCCTAAACCAGCTGTGGCAACCGCCCACCACTGGCCAAATGGAACGCTCCTCACGTCACCAGGTCGCTCCAGTAGTTGCTCGCCCTCTATTGGCCGATCGGCCTCGGCGCCTCCGCCCCGGCCGCCCCTATCCCGAACTGCCATTGGTTTTGCCTAACGCCACTCGACGATGCCTCCGCCCACTCCTCCACCCATCTCCCTGCTGCATGCCCACCTGCCAAGCCACTGCCAGCCTCTCTTTGGGGTCTG
1 GGCAGGGAGGAAAATCCCCAACATGTTCTGTCAGGTCAGCAGTCAGTTTGGCTATAAACAAGTAAGATTGCAATGTTGTGAGGTAATCTTAGTCTGACTCAGTCCTTTGTCAGAACCTCACAGGTTACTTTCATGAATCTTTCCTGGAGCAAATAAAACAGTTTCACAACGATGCCATATTTAAATGTTATGTCTCTGCTTATCCAATTCTCCACTTATCCTTTCTTTTATTTACTTTTCTTGAAATGGG
1 TGCCATTAAATATTAACTTGGCAGTAGTTTATGAACCTTATCGCCTAATTTCTTAAGGTCCAATATCTTAGAAACTCCGGAAGCACATCATAAAATACACAACAGAGATTAAAGGTTATAAGAATAAATGTGCCCAACTAAGAAGGGACCAATAGGTAGAAGAATGAGGATAGGAAATAATGACACAGAGGACAGTCCAACATTCTGAGAGCCAAGTTGAAAAGGAAGTAGATACTCAAGTAATGACTCA
0.06169091585166121 CTCCGTGTCTCCTCTCTGTCTACTATATGGAACCATCTCTGAGCAGGAAGGAAATTACACAAACTTTCAGCTCAGCTGGTTCCAGAGTTTCACAACCCAGCTCTGTCTTGCTTACATCTGACGTGCTACTTCACTGGTGTGACCTCCAGTGTGCTTAGTGGATAATGACACTGCATAATCCCCATGCTGCCCCACAATGACCCTGAGTGATGTCTAGACTTTCCAGTAATCAAGTCTTATAATTCAATGC
0.04825676246538742 gtaactcttgtccaggctctgcctatagggggccttgtgacgtatctctgcactgatcatctaggtgatgtaactcttgcttacgctctgcctgcaggggcattgagaaatatctctttactgatcaaccagatgatgtaactcttgtctaggctctgcctacagggggcattgtggcataactctgcactgatcacccaggtgaagggactcttctctaggttctgcctactgggggcattgtcacata
1 gcctctcaaagtgctaggattagaggcgtgagccaccgcactggctcattgctatttaatacatcctagcacttacagtgatgcctggcacttacaggactcaaatgtttattgaaggaatgcatGAAAAAAAAATCTGACTCCAAAGTCCATGCTTCTCATGATGCAATGCTACTACATTAGTACCTATGTCACTCATCAGATCTGATTACTGGAAGCTTACTAGGTGCAGGCATTCATCTATGGACAC
1 CCTGCGCGGGCGCCGCACCCCGCCCGAGGCGCGCTCCCTGCCGGCGGGGCGACCCGCCGCGCCCGGGTATCCAAGAAACTACAAGTCCCGAAAGGCATGGCGGGGAGGTGGCGCCCAGGGCTTGGCGTCCCGGGCCGCGCCGCGGCGCTGTGTATTGTGGGAGTTGTAGTCCACCCGATGGCGGCGGAGCGTGCCGCCGGTTGCTAGGTGACGACGCCAAACAGCCGCGGCGTCCTGCCTACCGGGAGCT
1 CCTGAGCCCTGCACCACATTCCAATGGTTTTATTTGTGTGCCTTGGAGCTGTGCCAGGGCTGGGCCTGGGACAGGTTGCCATGGCGACCTCCCCACTCTTTCCAGATAAGAATTTCTCAAGGATGTTGACGTTGGGCCTGAAATAGTTCTACCCTGCTCTCAGCCCGTAGGAGGATGAACTTTGGCATGGAGAACTGAGTTAGGAAACCTACTCATTCCCTCAGTCTTTCAATTTGTGTACACTGAATCC
1 TTTCTCTTTCCTTCAGAAGAAAAAGATTTCTCCTGAGCCCTGAAGAATTCTTTAGACTGTTTGTAATGAGTAAACCATGTGTGTCATTGTGGCACCACTCTCAGATACTAATTGCTCTTTGGCCTTCAGTGATGTCATCACTGCTTTGGTGCTAAAGTCTCCCCTGTGCCTTCAGATGCGTATGTACGTTCAGATATATACTCATGTGCTAGCCGATTGGAATTAAGGAGCCTGCTTGAATGTTTATCAT
1 AAATAAAGATGGAAAACAAAATATTTAAAAAATATAAAGAGATTTTAGAAATAGCCTTGTTCCCCGAGACTAGAACATGCAGAGAAAATATAATTAGAGGAAGTGACATCATTCAGTCAAATATCATCAACACTAGAGGCTCAGAGAGGGAAAATTGTTTGCCTAAAGAAATAAAAGAGACTTTCACTAAGTATATTTACACTAGTCTGGGAAATCAGCATAACGACATGACATAAATACCATTTATTTG
1 tctgcacaaagagcttgctaactcactaacccaaacttgagttaagcttccctcctccccaccagaccctggactttgggccatcctcagcctgagccagcaaacagcccctcccctggagacaaaaaaaaaaaaaaaaaaaaaaaggctgggcacaacgtcattccctgaacgtggttctttctagccatgtttacttcttccaataaaagaaaagtccttttctgcctgggctttgagacgcttgcag
1 tgacacacagatactctgtttcgccagtcttgctgagtgtccaaccgcctacacaccaagagaggtttgtgacgtggccggtcctgagcagcccgcacttcaggcatttatttagtataaaattaacaacagaagctttgaataaacacacttgtggataattaacatggttaagagagtagttctactaatgattaaagctcaggtactgcagtttaaagtaaataccattgggggcaatatccttggt
1 CCCCATTTCTCTGTTGCACTCCTCAAAGTGGTGGCCTGTTGTTACCATGGAGACACAGCACAGGGTGACCTTGCTTAGAAATGATGACAACTGGTGACGGCAGGGAAGCAGAGCCCAATAGTGACGAGCCTCTGAGGAGCGCCCCCCGTCTGGGAGGAGAGGAAACAGAAGGATCTGTTCCCAAGTAAAGGAAGGGGCGGTAGGATGCAGGATTTCATGAGTCCTGCCTGATGCATTTAGCAATAACATT
1 GAGGACAAGTCAAAGTTTATTTTAGTAATGATTCCAAAACTGTGAATAGACAAAGACTTGGAGCCCATGGTGTTTTTCACGTTCAAAGGTGCTGAGGCTGGCTGGGTGACTGCCAAGAGACACAAATGAATGTGTCCCCAGGGTCATTGTTCTACTGAGTACACATACAATGTGACCATTTATAGCTCTCTCCCCTGATTTTCTCAGTgagtcagtacagtgtggggggaagggccaggacttgaagagg
0.7157042062360326 GTTCATGCCTATAGATTTTACTAGTTGATTTGTCAGAAGTCGATCTTATTTTTCTTCTCTCTAAACCAGGACTCGTGCCAATGCACAGGCTGCAATACTCAACAAGAAAACGGAGAATACAAAGCAGGGCTTTGTAATCAACCACGTCAGGATCATTGAACAGCCTATTTTTGTGCTTTATTATTTGCCTGGTTGTTTGCTTTTTGGGTTTAAAGTTTAAATGCTGGCCTGCTTTTCTCTGAGTTCTCTC
1 TTTGGCTGGGATTTTGCATCCTGAGAATCTTGGGTGTTACCCATGGGAACAAGCTCCTCCGAAGCCACACATGGTTGAAACTCCTCTCCCAGTGACAACGACGTCACGTCTCCCAGGCACTGGCTCCCTTGGGAATGTGTGAGTTGCTCCCCTGGGGCAAAGAGCAGCTGCTCGGGGTGACTCATAAATTGTGCTCTCAGCCCTGTCACCCACTGTGCCTCCCGTCCATTACTCAGCCTTCTCCCTGCGC
1 tacaacgtggaaacactggacaaagggatgagtcacatcctgggagggacagagtggaatgccatgagatttcatcatgttacacagaacgatgagccatttaaaacttacggattgtttatttctggaatttttaatttaatattttcagaccaaggttgaccaggagtaactaaaactacagaaagcaaaactgaataaagtggggaGTCGAGAacctagagagctggtaaagcattctttctaggtg
1 gctttttaggacaaatagataaaagcaaagataatatttcattggttacagttatacagttacacagttatacagttgccttatttggtctatcccatgaggaagtcctagttactaattacgtttttgttggctgcttctgattggttgagcttaagttctgtgtttctttaacataggcatttacaagaaataccacaaataaagtttcagacatgcttgcaaatcaagcaaggttaaggtcacttag
0.3675279787198825 AAACCTCTGGGTGGCACCCTGCCCCCACAGGATTACCAAAGAATGACATGTGTGGAAGAGGCTCAGGCCTGTGTTGGCAGGAAGAAGTGACTCATTTTTCATCAAAGGAATTTCAAAGAACATATAATGACAGGATGATGTCACAGGAGCAGGTGGAGACAGGAACCTTGATTGAGCTGCTGGAAGATATTAAATGGTGTGGCTGCCTGGGCAGTCAGAATGATTGACCAGCATAAATCACAGGAAACAT
1 GTTCTGTAAAAGACGTCTGGCCTCAGCAGTCAACCTAACCCGAAAAGAAATGTCTGGACCCGGAGAATAATTGACGATTTGATCCTCTAATCAATGGGACAACTTGGGAGATTGACAAAAGCTTTATCCAATCATAAGGAAGCTTGGGTGTACAATAGTTCTCAATAGCCAGAGGGGGCGGGGCAGAGGAGATCTGAAGTTCTCTGCAGCTCTGAAGGGGATGGTGTGGTTCAAGCTGTCAAAGCTACAA
1 ctaactgtgtggtccaaaacagaataaccctattcttaggaaatacatactgaagtatttagaggtaaaggattatggtatatataacttaccctcaagtggttcagataaaaaaagtacacacacacacacacacacacacacacacacacacacacgactggggaagggagaataataaagcaaactaggtaaaacattaacaagagctcaatctgggtaaacagtctatcagtgttccttgtactac
0.744162383761617 AGTTTTGAGTTGATAATTTGCGTTTCAGAGATCTCCAGGCTGTCTGCCTCTTTTTCCAACAAGTTCTCTTTTTCACACAAGTACACGCCCCCTTCAGGGAACATTCTTCCAGAAATCCAAAGTCCACTAACAGCATTTCCTGTCCTAGGTGCAGGGAAATGTGTGAAGTCTGGCTGCAGTGCCCAAGAGATAAGAATCTTCTAAGCTGGCTGTTGTCCAGACTTGCCATCCTCATTGTAGTAAAACACTG
1 CATTAAGGAAAATAAATTTCTTATTTGTCACTGAACACTGCTGAATACCTCCTATGAACTGCTTATCTGAAATAAGGTGAAGAAATATTGATTCTTTTCATCCAGATTGGTATATGTGTAAATAACACCTGAGTTAAATATTACCATGTTTCCAATGTACAAAAAGCATAAAAGATAAGCTAACTACCCAACAGTCAAGACTTAATGAACACTGTCACAAACATTATTTACACAAGAATGTATGTTACGC
1 TCTTAATCTTTACATACATTATATTATTGCACACTGGTTTTGattttacagaaaataaaaccagtgaatgtccacaatgtttgcataacttgcaagtgttaacatgactagtgagtagcaacactggaattcaaaccaagataagtctgaggccaaagtccaagctctttctaccctaggctgtcATGAACATGTTCCTTAGCCCCTCCTTTTGGCCACCTCTGGGAGCTCAGAATTGCTGGGCAGGCAA
0.5573524745000678 GTCCAGAAAGCAAAAAAAGCATTGTGACCCAGGGTCtgagggcagaaatcactattcatttatttacctttgtaatctcagtaactagcaaatTATCTGGCATCTCATAATCAAAGACCATTGCCTACTGACTGATGAAGTAATGGGGAAATGACTAAGCAGAGGAATCCATCAATACGTGGCACTGTCAACACAGAACAGCTTTGGTGGAGGAAAGAAAAAGCTTGGAGAGAAGCAATGTTTAATGACA
1 GGTTAAATAAAAACCTCCAGAAAcgacgaggatgggattcgaacccacgcgtgcagagcacaatggattagcagtccatcgccttaaccactcggccacctcgtcACATGCTAAGCGTGGCAAAGTCATTTTCTTCCTCCGCACAGTTAGTCCTGTAATAATATATTTTTAATCGCTCTTTTTCTGGCTTAATCCTGATTCAGTCCTTACAACCACACCCAGAATCGGGTATTTTTAGGTACATTTCGCA
1 tatttcctttggcctagaaattccagctctaggaatttacctaaggaaacagacatgagtccaaaagataagtgttcaaagaagttcatcatagcaaacagaaccaacttaaaagtatttatttagggcactgaatcaacaaatttttgtatctctacgtaacagagtattaaatggccacaaaaatgctgGGGCTGAGATTGAGGGTGGCAGAGAAGGTATGAGGTTTACTGAGCTCCTTGCCTGTACA
1 tttgttatagattaacctcctccttttctgttctgagttttgttaactcagaccagatggcgcaaaagaccccatgactattacatcttcagtatggaacgttaaatatacttttcctgaaagaaaaatatcacctcaaccaatgagatcattgtaactatgcattaagccttatatagaaagatgttgaaattccgttaaacttcccttgtctatataaacaaccctagacatctatgcttctgaacac
1 GACACATTTGAACTTGCTGAAAGAGCTGCCTTTGTGTCTAGGAAGGCCGACACTTGGTAATTATTAGACCAGGTCTTCGTTTCATCCTAGCGGTCTTTCCTTTTCACGCTTGCAAAGTCTGAATAGCTTTCTGTTACCCGTTAATCCCCACAGGAATGTGGCTTCGGCTATGGGGAGGATGCACAGTGTGTGACGTGCCGGCTGCACAGGTTCAAGGAGGACTGGGGCTTCCAGAAATGCAAGCCCTGTC
1 TATATGTATTGTTGACTCTGTTAAGTCACACAGTGTGGGCAAGAGAAGAAAGAGGCAGGGGTGGGGAATTATGAAAGATCCTTGGTAATAAATTACGTATCTGTGATGCAATAAAGTAGGGAATGAGAAGGCAGGAAAGGGAGGAGTCAAGCAGGGAGGCTTCAAAGGAGTAATACGCTATACGTTTAATACTTATTGATCCAACCTGTGCTTTTCAAATGTAAGGCAGTAGAGAAGACAAAGTATTTAA
1 gactgatataGTTACtatgacacagactattaattgctgaccccaagagcctttctccctttattccctatagtaagtgcctctgaaatagagactacatttcccagcttcccttgcaattagctgtcaccatgcagctaagttctagccaataagatgtaagcagatgtggtttgtggcagctcccttgaaacatacctgatgcataccctgtgtctccttgtttttccagccagtcctccatccttct
0.5188260730897398 ATAACACAAGCTGTTGACCTCTTATTTTTAGCCTCCCAGCTGAATAGGGCAGTTACAGAAATATTTGGATGAGGCGGGCCCAGAAACCAAAGAATTTCTTCCTGTCTGTATCTACCCTGTAGGTTAGCCCCGCCTGCTGGCGTCTTGCTTTTGTAAAAGGCTGCGTAAGCAAGTGCAGACGTGAGTTGCAGATCATCTTGAATCTCCGGAGCGACAAGCTCCATCACTCAAAGCGGATCAAATACTCTGG
1 AGAAACCTTTACCCAATCCAAGCGACCCCTTGCTTCCGTTTGGGCAGATGGCATTTCACCACTTTTTGACCTTTCAACCAGTACCCTTGCTGAATTTCTTTCCAAAGCCAGAGTCATAATACGTGAGAGCGAGCATTTCTCAAGTGCTGGGCTTCAGGGAGGGCCCTGGTCTTTGGACGGTGAACAGAACTGGGGCAGAGGGAGTCCTATCTCGAGGAGATGACGCTGCTGCCCTACAGTAGCCAGCGCT
1 TTGAGCCGGTCAGGAATCCAGGCAACCTGACCCTATTTGCCAGTGTCCGCTTTTAATTTTGGTCGCTAAGGGCAAGCGCCCGTGACAAACATGGCGGCGGCAGCCTCAGGCGCAGTCACCTGCCGGAGCTGCGCCCGGGGGCCGCGCGGAGCCAATCGCTGGGCGGGGGCGGAGGGAGAGGCTGGGGAAGCCCTAGAAGTGCGCGCAGGCGCATTGGCTCGCACCTGGCTCCCGCCAGCCGTGGGATTAG
1 ccctcgtgatcatgtggctgactgggaggtgcctggcaccccaagagagtctcatactgatgctagccagagaaaagatcaaaaatccaaaatgccaagtactgtttgtactgaactgtcacttccgcaccactataaGTCAGGAACTGTCTgtactgatgatctatgctacaagaatgtggatgagccttgaaaacattattctaagtgaacgaactcagaccaaaaggtcacatactgtatgattcca
1 TCAATTTGCTTCTCCCCTCTGTGAGGAGAAATGGCTGTGGATCTCGCACAGATGCTACCAAGTAGAATGACCTTCAGCAGGCAGAGATAAACAAGAGCTGCTTTTCATCTCCCAACCATTGATTTTCTGCAAGTCAACCACAAAACTGCTTTGAAGTCCAGGAGAGAGGTGCAAGGGAAGAGGGAGATAAAACCGAAGGGAAGGGTGGATTTGAAACAAAGTTAATCTCTGCCATCTAGGTGTAGATAGT
1 CTTCCTGGTGAGCTCAGTTTTAGCAGCCTGGTTTCTGCGTTACCCTTCTGCAGTCTGGCTGAATCAATTGTGTTCTTGCCTGTGATTGGTGAGGATGCACATGCTAGTATTTATTCTAGCCCTTATCACTTCCCATCAGCCCTGAGCCCCTCCCTGGTCTGAGTCATCTTGGTAACCCCAGAAGCTAACAGAGCACCAACACATCCACTAAACGTTGGACTGACTTGATTTGGGGCAGGCTTGTTGTATA
1 tatatgttcgcacgtacttgcacaggaatgtgcatagcagcatgattcatgcagccaaaatgtggaaacaacccgaatgtctatctgctgatgaatggacaaacgaaatgtgatgtgtctatccaaacaatgagatattattcaactggaaaaagaaatgaagtgccgatacatgctacggcatgggctaagtgcaaaaacattacgccaagtgaaaggagacagccagcaaagatcacatacggtatgc
1 CCGCGGCCCCCGCCCCCGCCAGCCCCGCGTCCCCTGGGAAAGGCGGGGGCGCAGCGAGTTTCCCCCAATTAGTTTCCTCTTTGTATGGAGTCTTAGCGCGCCCGTACTCCTCCGCGCAGCGGAAAGTAGTCCCGGCCGGGCGCTCCGCGGCTTCCCAGCGCCAGACACATTTTACTTTGAGAAGTCGACGGGACTCTCAGCGGGGTCCTTCAGATGGGGGGCCAGAGGCTgcgggaggcgtgcgcgggca
1 TGGGTTCTTGATAAGTTATGTGAATTGTGCTTCGACATAAATGTCAATGTTTGATCACAAGTTTTTTTTACCAAATGCCAATCTGCGAGGTCAGCTAGTTCAATGAGTCATTTTGCTTAATAAGGAAATTTAAGTAGTTGTTTCTATCCTTTGTTGTCACGTTGGAAATGCTTCAAAGAGAAGCTACTTGTTCtgataaaatagaataatatgaactttggaactagacaaaactgaattgagttttgcc
1 GTGACATCACGGACAGGGCGACTTCTATGTAGATGAGGCAGCGCAGAGGCTGCTGCTTCGCCACTTGCTGCTTCGCCACGAAGGAGTTCCCCTGCCCTGGGAGCGGGTTCAGGACCGCGGATCGGAAGAGAGAATCCCAGCTGTGTGTCAGGGCTGGAAAGGGCTCGGGAGTGCGCGGGGCAAGTGACCGTGTGTGTAAAGAGTGAGGCGTATGAGGCTGTGTCGGGGCAGAGCCCGAAGATCTCatact
1 ACCACTACCTCGACTTCATTTACTACCGCTCGGCGGATGGGCGGAGGTTCCGGCAGGCCTGTGACATGGTGCACCACTTCACCACTGAAGTCATCCAGGAACGGCGGCGGGCACTGCGTCAGCAGGGGGCCGAGGCCTGGCTTAAGGCCAAGCAGGGGAAGACCTTGGACTTTATTGATGTGCTGCTCCTGGCCAGGGTGAGGCTGGGCCCCCTGGAATTGCTGGCCTCCCGAGGGCTGGCCTCCCGAGG
1 ATCCCAATCCCAACTGCGCGTGAATTCCCTTTTTCTTTGCATTGCTGGGTTCAGACTTTCTGACCACCTTACCAGTGGGGAGAATCCGAGACTACAGTTCCCATGAGCCCTCAGGGCACCACGTGGTGCCTGCCCGTGCTACCAACGCGCAGCGAGGACTCCATTTCCCAGCGTGCCTCAGGAAGGGCGCCAGGACTGCATTTTGCTCCGGAGCGTCCAGAGTCCTGGCCCTGAGCGGGAATCGCAGTGG
1 TCTCTTTCGTACACCCCGCCCTCAGGCGGTGGCGCCGCGCCCCCTGGGACTTGTAGTCTTTCTTCCGCCCCGGCCCCGGCGCCAGGCCCCGCAGCTCCCAAAGAAAACTACAACTCCCGGCGGCCCGCGCGAGAGCCGCCCTCGCCTGGTGGTACCATCgcgcgcggccgtgggtggggcgccggggcggggcgcgaagcgcCCTGGGAAATGTAGTCCTAGAAGAACCAGCGCATGTCTCGGGTCCCTG
0.452298144262836 ctgcgaattaaaagccactatttgaagaccggcgcacagcttccagctggccgccagaagggtcctccgcaggacacaggttaagTAGTCGCTTCTTTGGGGGATACTAGATGCGGGGTCTGGGCGCACCTCCGGAAAGGACAAGGGCGGGAGGGAGAGGTGGGACAGCAGACGTCACTTCCTCCGTCGGCTCCCCCAGCGGGTTGGTAGGCTGAGTGGCGGAGGGTGGGGCGGAAGAGCAGAAGGAGAC
0.808725280948172 ATCTGAATCACTGTTGCATAGTTGATGTTGATACCTGTGAGGCAGGCCTTCTGCTCAGGGCAACCTTGAGTATTTGTTGACAGTGGGAGTGGTTTTGTAGAACAAACAATGGCTTATTTGGAGAGCTCCACACAATAGATTATCCTCTCCTGTGGGAGCCAGAAAGAGATGAGCTCACAGATAATGGGTTTCTTCCTTCCTGGTAGTTACGAATAAATAATAGTGTGACAGACTCACCCTCTAGTGGTTG
0.4634767820016888 AAGCGGATGCTCCGCAGGGTCGAAAAGAGGCCGGGCCAGGGTGCAACGAGCTGACCCTCCCCTTCCCACCGCGCCGGCCTGCGCGCGCCGACGTGCGCGCTCCGCCCTCGGGCAGTCCGCACTGCAATTGGTTGGCGTCTCCGGGACGGATTTGAAACTTGGCGGTTAAAGCTCCGGCTGGGACAGGGCGGCGGGAGGCCCAGGGAGAACGGGGAAGGGACATTTAGTTTGGTGAGTTACGGGGGCACAC
1 GACGGCCCAGCCGGAGATAAGAGAGTCAGCCCAGTATTTTCTCTCCATGTTTTTAAGAGCAGCAGTTATGGTGACAGAATCTACCACAGGGTGATCTATGCTCTCCACACCGATGACAGAAGTGACATTCACTGCATTGCACAACAAATTGTTTTCAACTTACTTGTTTTTGGACATGCTGCTGCAGTCGGAGGGAAATTGGAAATCTTGTACACACCTTATAAGGAGTAACATATGACACTGCATTTTT
0.4772101047458077 GCACCTGGGGAAGGGACCCAATTAGCGCGGACCCCACAGCGCAGCACCTCACCAGCTCCCCGCACCAACGCCCCGGCGCGCTCTTTGAGGAAAAAGCAGAGGGCGACTTAGGTACCCACGCCGTCTCAGCGCCGACCAATCGGCGCACGCTGCGGCTCCTGCGGGCTCGCTGGTTGGCTCCGGCGTCAGTCCGTCAGGCGCGCTCGGAGCGGGGCGTATCTGGCCAATGGCTCTCGCTACAGCTTCCTGA
1 CAATACATCAAAGCGTAACTATATACATGTTTTTGTATAACCATTCCCTGTAGGATATATTTGCCTTTGGTATTATAAAAATCCTTTACATTTAGGCTGGAACATTTTGTCCTTTAAATAGTTAACTTCCTACAGCCTTGGGAAGTTCAGATGCGTAGAGGGTAGTGGTTAAAGGTGCTGCCTTGGAGGTGAGGGTTACAGGTGGACAAACAGGCTGAACATGACTGGCATTCCCCTATGTCTAGGACTC
1 ttactgtaaacagcctacccgcttcccgtcaactctaatcaataactcacacctgttcccttggttacctgtacacattgttcccctgaaactgcacgtctcacacgctccacctctgtacctcacatccccctccccttctatatttagaaaaatatgtacaagtagcctattgggtcagctcagattgtgcagtccgaccccagcccataggggagtgacacagagatagggactgcgttcaggataa
1 TTTAGGCAATGCTCCAGAGGAGCACTGACCTCAGCTACCTTTGAAGACCCCGGTGACTTCAAAGCTTCACTGATCAATATTTGCTCCCCATTTAGCATCTCATAAAGGATTTCCACATAACCCTAGAATAGTCTGACCTGGTTCCTTTTCTCTGGTTAATTATCCACAGAGACTAACCAGCAGACCACAGGACTGAACTTCAGTGCCCCAGGATGAGACTACCAAAGGGACAATTATTGAGAGGCCACAG
1 TATCCAGAGTTAAGACAATAACTCCATCCAATAGTTGCTGTCCTCTCCTGACAGCCTACAATTCCCAACATGCATGGCGGCTGTTTATGCCTTGGGGACATTATGGACTCCGAGTTGTTGCTGGGATCTGTAGTTGCTTCGTATAACGTTGGGAGTTGGCTTCCTCTTATGATGTCTGAGGGTGGGCTCGAGGGAAAAAAAGCAAATGCAGCCATTAAATAAAAATGTCCCCTACATCCGCCCGTACCCG
1 ataaggattccagggttcagaggggttaagtacattatccaaggccacacagttaaaaagtaatcaacagcaaactagaacagaggttgactgtgtcctagagaaatgttattcctactacccagaaattgccttgTATTTATATGTACTTATTGCATAACAAAATTGGACTATACACTGTGGACACAAACTTAGATTCCCAGTCAAAAAAGGAGAGTAGTAAGAAAAAATCTAAACAAAACAGATCAGG
1 TAGGGGCAGAGCCCTGTGAGAGGAGGAGGCACCACCTCTTCACCTATTCGCTGGACTTTGCCTAGTTCGGGCCGGGCAGGTCCGGGCATCTCGGCCCCACAGGCTTCTAGGGAGGAGGAGGGGCACACTTCTTTGTGACGTTTACCAGAAATGGGCGTGGCCAACGGAGAGACCTCTCCCACAGTAAGAAGGGGAGGGGCCCCACGCCAGTGTGGCCTTTTTCTTAAAACTGGCCAGGGGTCCTCACTAG
1 CTCCCACTGTGAGCGGAACCCTACCGTTTTTAAAAAAATCTTTTTCAAAACTTGCCAGGTTGTCTTTCCAAATATTTTTAATAATAGTGCTGCTGCTGTAGACCACAGAGAAAAGAATCCCTCGCTCTTCCTTTTCACTTAGTAGAAACTTCTACCGCGTAGGTCCCGCCAGGAGTTCGCGCATGCGCAGGAGCGACAATAAGATGGCGGTGATAATCGCCGCACTTTTTTTCAAATTAGTGGATCCCAG
1 gtcttccagcccggcaggagaagctctcgctgctagcctccctcctaccgctccgtcaccaccaccaccaacagggagggagtgccccaggctccaggctccaagctccaggctccagggggcgaaaagtgacggagccttccagttctttaagccgggtacgtagtagctccccacacccacacataagtgccagaaatgacgcgccgctgcctcagcatgctttatatactgaggttaggagaccctg
1 ctccattgtgggaatgtactgtaattttcccaaccattctccgagaataggcatttaggttttttctagtgtttcacaattacaaatattgattcagtcagcaacctgtgcatgtgtattttcataacattggagatgtatcttctggacagattcctagaagtaggattactgggtcaaaaggtaagtgcatgtgtaattttgttaggtaatgtcaaattcttctacagaatggttgaactagctcaca
1 GACACACACACGCACACGCTCGCACGACCGGGGTCCCTGGGTGGTGTTGGAAGGGGAAAGGAAGAGGGGGCGTGACTTCGTCATAGGAAGCCGACAGTGACCTCATCTCTCCAGCTTCCAGCTGTTCCCACACCCCCGGGTCCACCTCCGAGGGCCAGGAGGCACAGGAAAGCTTTGGGCACCTGTCACCAATAAAGGGACTCCAACCCCACACTCCGCCCCTCTCCTGAGAGAGGCAGTTCCGACACCT
1 TCGACTGACTCAAATTCTAAAGGTTACAAAACCACACCCTAATTGTAATCAACCTATGTTGCAACTGTTGAGTTGGTTAATGTGTATTTGAAAGTCACTGATTATCCTGAGTAGTGAAATATTGCCTCATAGTACATGGTAAGTAAATGTTGGTGACTCTAGTTGAACTGAATTTCTTGCTtggagggaatgatgtcagagttaggagataggtttccagcctcagccctatcattttcagcctctgtgt
1 cctcccctggatagtctgcttccaggtgcccagcaagaaagggcaggaaagggcgtgtgcagcaagggctgccctgacagttatggaggctcaggccagaagtgtggtcatcactctggccacatcccattggccagagtgtagtcacatggtaccacctagctgcaagggaggctgggaaatgtagtccggctgtgtgccctggaagaaaaggcaatagagtAAGAAGAGCACATGGTCTCGGCACAGG
1 TGATGGTTTACTGTAAAATATGGTATTTTTGTTAAGCATGTTTACTTAAAAAGACACTACCTATTCACCAGAAGATTATCCCCCTCCTCTAGCTCCGGGATCTTTTTAATCTTTGAAGAAGGATTTAAAGGTCACCAAAAATCCATATCCTTATTTGCCTACTTTTCTAGTCTCAGGGTTAAACAAATATATATTTTCAAAGACTTTGTAAGGTAGTTAAGAATTTGACATTTAAGATCAAAAGATTTTT
1 CCTGGCGGGCCTAATAGGACAAACTTTGGGCAGGCAGCGTTAAACTGACACCATCACTTCCGGGTTATCCCCACGGCTGCCCCCTCCTTAGCAACCGCGTGGGGTTGCTAAGCGGAAGTGCCTTCAAAGCAACCCACCCCCATTTCTTCTGGGACTACCAGAAGATATATCGGGAGCACTGAGCTCTGCTTTGGCAACACGCTCTTACCTTCTGCTCAAGATCTTAGACCAAGTACACGCTTCGCTGCCA
1 ccacaTGACTTACTGTATGACAGGTAGCATGGTAGGTCCTAGAAATACAAAATGAACAAGAGATGCTCCCACCCAGTTCAGGTGGAAGATTAACTCATCATTGTGATGCAATGGGTTATGTGGTGGGTGTAAGAGACATGCACAGGATGACAATGGACATGCAGGAGTGGCCACAGAGCCTGGCCAGTGTGGAATGAGGCCAGGAAGTGGATTTTAGGGTAAACAGGAATTAGTCAAGGTCATTAGTCAA
1 ctaagtcccaaggagtgatgcaaagtaccccaggtgggtaatacatttacaatgggcttgctttacagctagctgagaaacctagagcttaggaaacccaaatcttttatagtgtgttgcaagcaaacccacctgacccttgtcctggggagagacagtagctttattatgcaggacagcaaacaaagctgtcctttgctcctgggggaagcactatctctatcttctgaggccctttgctctacaaaga
1 AGAGAGAGGGAAAAAAAAAACACTCTAAGCTAACATTAAAGATAAACACTTCCAAATTTCATAACAATGAGTTCACAATTCACTTTTCAGTATACTGCAGACAAGAACCTGAAAAAGAGACTCCTGAATTACCTAGTGACAATTTAATGTTCCAGGAAGTGGAGAAGATTCCATCAGAGTCACTGTTTCCACAGGAAAACATTGATTCGGAATGTTCATTGAGTAGCTAAGTCTTGTCACAAATATCTTT
1 GAGCTGCTTCAATGTGTTTTGATAAAAGTTTAAATTCTCTGGCCCCAATTTATTGAACACATGCCTTTGACAATACAGCATTTCTTTCTTAGGCTATTAGTGAAAGATTAACCATCTACTCAGTGATTGTTATTGTGCCTGTATGTGTGCAGTATGAACAGTTATGTAACAAAACTGCAAAGATTAGAGACCTTTAAAAGGATCTGGGGAAATAGGAAGAGTCTATAATCTTATAGGAAAGGAATGAATT
1 TCTTTCCCAGGACCCAGGGGCTGATCACTAGACTAACGTTTCATCTTTTTTTGACCTGGGACATGACCCTGGGCCATTTGTAACCCTCAGATCCCCTCCCCATCATTGTGCAAGTAGGCAGCCCTTAATAATTATATTCTGGCGGCTGCATGGAGAGGTCATGAAGAATGACTAATGATTAACATTTGAAAATGGAACATGATAGGAAAATACCACCAATCACGGCAAAACCGTCTGTCAGAAGAGCAGA
1 CTTCTTTCTTCACACGCCTGCAGAGTAATAGGGGGCTGGTACCCAGACGGAGGCGACTAGCAGGACTTGTGCTCTAGGCGGCTCTTGGTCACGTGACGGCCACGTCACCAGTGCGCTCTGGCCCCCAATTTCCACTCCCACAAGCAGTGCGGCAGGCGCCAGCCTGCCTTGTATCTCCCCCTCAACCCCCACAGTGGGCCCTGTCACTTTTTTCCTCTGTAACAATACCAGAAACCAGAAGTGGCCCTGT
1 ATCAGGAAGTGAGAGCCTGCTTTGGGTTGGATTCTTCTTCCTTGCTGTCCTGTGAGTACTCTGGTTGGAGATGGGTTTGTGTACATCTTGTCAACAGGTTCCACCCACTGTGGACCTTGACCTCCAGCTGGTCTCTGCTAACAGAATGAGAAACCTGTGGCCCCTGTGCTAGAGCTGGGGCCCAACCTTAGGTGTTTCTGAAGCCTGGCAGTGTGGGCTTGAAGCCTGGCAGTGTGGGCTTTGGGCCACA
1 ATGATTAGATCATCAGATCGTTAGGTATGTGAGAAGCACTGTCTTTTCCTTTTTGCATGATCTCACCTCCAGTATATTTTAGAAACTCTCTAACTCTCTTCAGAGAGATGGTGACACGTAGATGTTGTAATAGAATAGATGAGATGGGAATGAGTCACACATGGGAATGAAAGTAGGCCTATAGTCATTCGGAAAACCAATGTTGTTACCATAGGGAAATAACCAACAAAATACTTCAGGTGATATGTAA
1 ACTTCCTGTTTCCCAGAGGGAATCCGGGCCACTGCATCCAGcccctccctcccctccctgcagctcccctcTGTAATGGAGGAAACTTGTCGCTGGGGCAACCTTCCCTGCGTCATCTCCCGGGGCGGGCGGCCCTGTGTGGGTGAGAGAAGCACCAGCAACAATCGCCCTTTGTCTCCAgctcagctgctcccaaagcgctttctgaccttgccctcgtctcagccctgagagtctcatgcccattttc
1 ACAAGCCTCAGCTGCTTGTGTGATCCTGTTCTTGTTTGCTCTATCGACCATGAAAGAGTTGTTTACCCTTTCCCTATTTATCCATCTGAGTGAATGAAAAGGTGCATGCTTTTAAAAAACCCACTTAAAAGGCACCGAAGTATTTGGCGAAAAAAATAAGGAGAAAAAAAAGAACATTTGTCTTTTCTCTCCTTCCATAGAGGTAAAGAGAAATCCAGTTGCAACAGATACCAGAGATAACATAAAGTTA
1 GTACAGATAGTCACTGAATCCATGCCAAGAGGGAAATAATTGATTTAACTGATCTAAAAGTGTGTTTGAGCTTTTTTTCAGACAAACTGTCAACACACACATGAAAGCAAGATTCTAAAAGTGCTGTCAGATCCATAATGTTTATACAGCAAAGCAAACAACCTTTGTTATTCCAATTAATGCATTTGCTCATGAAGGAAGTCTGATCCAAAACGTTTTATTTTTTCTCAGCTGCACTGAAAATTATAAT
1 ctgcctgccccatgggctgccagtttaggatctttgATCTGGTCCATGCCCTGTTTTTCATTTGGCAGCCAAGCCTGTGGGGTCAGGTGGCCTGTGATGTGGCTGAAGACTTTGCTCTTCCGGCCCCACCTCACCACAGCCTGGTCCTCTATGACTAATTTGTCTCAGAATAGGGACAGATAATAATTGGAAGCTGGGCAAGACTGTTCTGAAGGTTAATTGATTCTTTCCTTCAATGGGCTTTGTTTTT
1 GTGTGATTAATCCCCTGGGTCGTGTACTTATACTTTAAGTTATTCAGTTCATTGGTCTTTGATATTCAGAACCCTTTCTAACTTAATATGATATTGATTTTGTTGGATGATGTACTTTGACTCTTTAAACAACATCACTTTTAGAGATGACTAGCCTACTGTGTAGTATTTTATTTAGAGAACTATTGCATAACATTTCTTTTTCTTACTTTTTATGGTTTTCTCAGGGTGAAAGCTGATAAGACATCTT
1 CAATAGCTTGAAGATTTGACTGGGGAGTGACATCCTGACAGTCCAATGACGCACAACCAGCCCACACTCAGCACTTCGGAGGGGATAAATCAAGGAGCCGGCACGTATGGATTCCGTTATAGGGCAGTACTGGTTGGAGAGAGGAGCTTAGGGAAACAGCGCCGAGGCAAGGCACTAATGAGCTAAAAATAAAGAAAAAAGACGATGGTTGCGCCAAGCGACCTCGGCCGCCATCATGCTCTAATTTCCC
0.9116348777264106 agtagcccacgcaaggcaggcccctgttaactcacaggtcaggaaactgagcctcagacagtttaagtgactcgacaaaatgtcaccaatgctgagtgatggagcaagtcggcttgaggccaaggtccattttctccctgctacaaagatgactaagcacgactcagagtctggtggaggagcagaacacataaacagTCTTTGATGATACCCATGCTCTTTTGAATTTGCTCTATTGTTGTTCATTTTC
1 CAGTGTTTCTTTGTTTCAACGATGAGCAGAAGAATCCAGCCTTGGAAATACCTTTCTTTCAAATTGCTTGTCCAGCTGCAATGACGTCTGCATCAGCCACACCCACATCACTTCCCCTTCGAACCTTCTCGCCTCCATCTGCTTCCCTGTCTCTGGTGTAGGACAATACCAGTATCTGTCTGGAGCAGATAGTGAACTCTGCCACAAAcagaggagggcttgtgtgaagaaggaaaaagctctgctttcg
1 AAAAAACCCTCGCTTATTTGGGCCACCTTTGCACCCTAAGGCTCACCACCACCCACAAATATTGCCAAATCCTATTTAACTCAAGGTCATTATGGGAAACTGGGTTGTCAACTCTCTCCCTCCTTCCCAAATAAACAGATAACTCCTGGACACGTCAGCTCTTTGCAGAGACTCTGGTACACtttttttttttttttttttttgctttttGGGGTCTTCCCCCTCCCAGATCCAGTCCCACCAGAATCTA
0.327926739124401 TTGTTCTCCATTCAGGGTAGCAGGGGCACGCGTGCTGTGTTTAAGAGAGACTTGCATGCCTCGTGGTGGAAATAAACTTTGGTGGATTAAACTTTAGGTATTTTGCGCCCTGGTTGGGCCAGGCTTTGTCCCAGTTCGACCACAGTGACTTACTGCCACCTACTGGCCATTCTCAGTGTTGCACCCACGTAGGATTTGCTCACGGTCTGGGTCTAACCATGCCTGGTTCAAAGGGGAGGACCGGAGCTCT
1 GTCGTCATTTTTATGGTGGTTGTGAAATGTGTCTTAATTAAGACACCTGACTCAGACTGTGGTTATGGGGATTAAACCAGGAAAAACGATTAGATCATGTTTCTACAAGACTCACTGGGAGCACTACACAGACGAAGAAATTCAAGTTGTTGATTCTTTGTGTgacgaggtggccgagtggttaaggcgatggactgctaatccattgtgctctgcacacgtgggttcgaatcccatcctcgtcgGCTGC
1 acggaggAAACAGAAGATGGTGAGGATGGCCTCCAGGCCCCCACTCCCCCTCTGCTAGACAAAATGGCGCTGTGGTCCCACCCACCTCTAGTATCCCCCTAGGCCCCTCTCCGTTCTGCCCGGTCCCCTCAGGTCCGGCCCGCCCCTCCCACTCACCTGTGACCTTCGACCCCCGGACCCTACCGAGAGCTTCCTGCTGATCCCACTGCCACTCCTTCTCCGACCCCTGACCCCATCCAGGATACCAAGC
1 TCAGTGCCTATATGTATTCCTAACACGTTGGTCTTGCCCTGTTTGTCTCCCTGTCCTTCTGCTCAGGTTCCATACTGCCCTCTGTAGGAAGCTCTGTAGGCAGTGTAAACGGATACCACACCTGCAAAGGTGAGAATGCCATTTCAACAGTGCTTCTTTGTTGGATGTGTTAGGACAGTGTCTATGTTTGCATCTGTGTATGTTGCAATATGTGGTGGAAGAACTGCTGCCAGAATGGGTGTGAGGATAA
1 CAACCTGATTGTCCGCTTTCAATGCTGAGAAGGTTGTCCTGGCAACCAGCTTTACTAACTTGCTCTATTTCTCTCTCCTAAAGCCTTTGAAGTGAGCCCCTCCTCCTTCCCAGCCTTTGAAGTGGTTCTGAATAGAATACTAAAGATTACCTATTAACTGGCCTAGCAGATTTTGATCACCCCAGAAACACCTGGGGCATTTTCTTGAGCCACAGGCACAGCACAGGCACAGAGTTTCATGTGATTACAG
0.445764071092951 cttggctcatagcatagtccttccaggcctttagcagaactgttttgctcttaatctaaacacagtttatgagctcagttatctggtttcctagatcatcagagtagaagcagaaaCAGCAAATGAGAGCAGAACAAACAAAACTCCTAACAGGGAGCTGTGACTACACTGTGAGGACAAGAGAGGAAACTGGAAAGCAAACACAATAACCTAAAAAGTAAAGTGGCCTGGGGCCCCTGAGTAATGATTA
1 catttgtgtaagatggcacatgggtcatcacaggaagacaaggaagcacagcgacatactttgctgtctgtgtgtgaaccaataacagggtgtggtgaccatcactggcagactttgaaagaagtgatgtgagtggtcactgactgatcatagtgctcatatttacaaaagtgatgtgtgtcctgaagagctagcagtgaagtctgtgcttcatgcaggaactgacagttcatagaccatggtgaatgaa
1 TATTTTCCTCCAGAGCCACTAGAGGGGACACTCTGCTACACAAAGGACAAAAACAGAGCACTCAGGGAACTTTGTTTTCCTCTCCTCTTGACTTTGTTTCTGTTTCTGACCGCCCCAGCCTTAAATAAATAGTCTTTGATGTTGAGTGTGATAACCCCTTACCACGAAGCATGAAGAGTTGTTTGTCTTGTGCCTGGTGCCATAAAAGTCAGTGTTTTTAGATATGGCGGGGAGGGGAGGGCAAAATATT
1 GTAACTTCTAGTCACTTCTGCATTACTTGTTGACCACAGCCAAATGCAGAGGCAAGTAGTACCAAGCATGGTAATATAAGGCATAATATCACAGGACCCTTCCATCTAGCAACAGATGACTAAATCAGGAAGAGCCAGCAGCCAATACGGTAGTCTCAGCAGCAAGAGTTCTATACAAATTAAACGTGGTGACTAGATAAACTAATCAGTGTCCAACTCTTTCCCATCTCCCTCACACAGTTTAAATAGT
0.8151577800447087 ACCCTAATGTGCTTTTGTAATAAAATTGCTAGACAATAATAGATTTCTTCAAAAAGGGTCACTAAGTTCTGGAAATGAAAGGTTTTCCTTGGATTTCTCAACATTACCATATTGTGGTGAATCACACTTTACTGTTTCAGCTAAAGACAACAGTCTGCCAGGGGTCAAACAGAGCTCCTAAGATAAACAGTCCTAGGACACAAAGGGCCATAACATCATCTGTGAATGCTGAGACCTCAATTCTCCTTAC
1 CTGTCCACCTTGTAGGGAAGTCAAAAGCTTTGGAAAGAGTTTTTGCCTTCTCCCAGCAAAAATCTTTGGTCAGGAGGGGAGGAGCATATTCTTGGCTGAACTCATGCTGAGCTCATCGGAAGTGAAAACAATGAGAGGAGAAAAATTCTGTGTGTCAGTTCCATAGTCCCCAGGAGGCCGCATAAAGGGAAGGTCTTTTTGGACCCATTCTGAGGACTGAGTCATTTTCATGATTTGAGTGTGGAGTTCC
1 TAGACAAAACCAGATTATAAGAATGCAATACCCAATATATTCTTTTCCTTATACACAACACACACACACagagaaagagagagagagagcgagcgagcgagCTAAGGTCAAAACAGCTTAAATTTCTAAAACAGGATTCCTGATAACAAATAGGCAGTTGAAGGTGAAAGAACAAGACCAAGTCTATAGTTCATGTAACTTTCCACTTCAAAGTGAAATGGAAAATTACACTTGGCTTTTTTCCATTTTT
1 AAATGCTTCCTCGGTGCTGCCTCCGCCGCCTGAAGTCCCGCTCTCTCCTGAAGCCGCCATTTCCCCGGCCCAGCCACCACGTGACCCTTCTGCGCAGGCGTCGCCTCACGTGATTCTTACAGGTCCGCTCCTCTAGCCCCGCCTCCCGTCTGAGAGGTTCTTAAAGGGCTCGCAGCCCAGCCAGGCACTTTAAAAGTAGGTGGGCtttttaaaatttaaacgaattacacataacatataattaaccact
0.8286969335731049 TTTAACCTCTAAAAGCCTTTTTTTTTTCTTTTAATGTAAGGCTTGAAAGCAAGAACATTCCTTCATTACTTCCTCCTACTTATCTTTACTCTTGGCCTTACTACGTCATGACACATCTTATGAAATACTGGTGTGATAATAAGCACTTTGTGCAGCCCTACCATGGAAGAATTGGTGAAAATGTAAAGGTTCTCAGTGGTCTTCAGACTTGTGTTTGAGTTTCTCTCTTGCAACAAGGTGCCTGACTAAG
0.6835180829560705 GTTGTCACTGAACAAAGTTCATCCCCCTCTCCCGCTCCCTTCCTGGAGCCTCGATAGGCATCAGAATGGGCACTGAGATGGTCTCTCTTGCTTTctactgctgctgccgctgctgcAATTCCTGCTTTTTATTTAGAGGGGTGGGGGGAGATTTCACAACTGATGATTACGAAGAAGCGGTTTATCACCTGTGCTTTTATGATTGTAGCGACTAAGGGGAAAAAGATGTCTTTTCAGATAAGCATTTGAA
1 ATGACAGAGGCCGTACGGCGGAAGTATAGAAAAGGACTCTCTGGAACATGGCAACATTAATCTGACCACAAGCTGACTGGCAGGTGCTTTAACCACAAGGTGGGCATCCTAACGCGAGCGACCGTTTTGAGGCAGAAGCCCGATGGGGCCCGTGTCCGAGCTTAGGGAGGGGCCGGAGACGCAAACACAGGTCTCCCAGGAAGCAGGCGGCGTCACAGGTCGCTCTGCAGGCGCCCGCTGCAGCGGGCGG
0.2688788861523501 AGAGTATCTCCTCCCAGCGAAATGCCTTGGCTGaacaaatatttatggagctcagcggcatgccaggtctgcgcaggtgctggggacaagcagatccagggtgctcttgaaaagttcttgacctcacaagatgacatcatcacgagtgtgcaaataaccaggacctatgcagggagggagggatgagtgctgagagagagagattacaagaaggtcacaaagcgctgggaatccagtgagggcttcccag
0.9292918393626955 TCATCCACTAAGCCTCCTCTTAGGGGTACTTTATGGTACACATTTCACTTTAAAAAATTAAGTCACATCACGATTAATTTTGCCTCGAGGATTTCACAACATCCTTTGAGCTCACAGTAACCCTGAGGATATTGTGCAATTGGAGTTGGGACTCTCTTGCCTAAGTTATAACTTTGTGAAAGAAAGTGGGTGAAAGTGGGGGAGTTGTTCTTGCTTAAGACAATTGAGTGGATATTAAGCAAATACACAG
1 tgtgagccactgcacccggccCAAACTAGATTTTTTTTAAAAAAGCATGAGTAGATAATAGAGGCTTTTGGATTACTCTGTGTATTTTACCCCCTCCACTTGATGTTTAAGCTCTCAGGTTGGCCTTTAAGACATAGTACAAAAGGTCTTGTTTGTACAGCTTCATGTAGTTGAATTTAAATGGCTGATGTTATATTTTAACAGTCTCACCTCTAAGTTCTGAGAGTTTTTGTACTAGTTAAACAACAGA
1 CCGTTCGGTCACCTAGAATGGCATATGTGGTTTTTATTGGTCTAAATGTGAAGCAGTGCCCGCCCACTCCCTCAGAAGTTTCAGCTTCTGATTGGTTTTAATGTCTGTCTTTTCTCTTCCTTCATTTTTTTTTTCCTGTGGTGGAACACCTCCTTGAGGGAGATGCCGGCTCTGATTGGCTGAAAGGACGCTACGCTAGCCTGGGATAGGCATTGGGCCAAGGATGCGCCCGGCCCACTCGTGGGGGAGG
1 GGGCGGGGCGGAAGGAGGCGAGAGGGAAAAGGCCATCCGCGCGACTGCCCGATTAAAAACAGTCCTGATCGTCTTCCCTGCGGCATGCCGATGCCCTCAGCTTGACTCTGGGGTGGCGGGTCCGGGGCAAAGGCTCATATGAGTGCCATTCACTTAACAGCTCTTTCAAATTCCCCAGTCGATGAGAAGAGCGAATTTTTCAGACTGGCAATACGTAAGGTAGCCACTACCAGCACCTCAAACCAGGGCC
0.9460740316442515 TTTCGCAGGCCTTAACGACACACTGGGACCTTCTTTCCTTTTCCAAATGGCTTCAGCCTTGCAGTTTGGAATGATGTCAACATGTGGCGTAGTTTTATTCAAGTCCCAAGTTAATGGTTTACCTTTTTAGAAAACTCCAAAAACACTTTCATTGTTATTTAACTTTTGAGTTATGTAATGTCTAAGAGTCTTGTCTCTGACCCGTGCACCTACCTGCCACTGACCAACAGTTTCTCATTTCCTTACGCAA
1 gaggccaaggcaggcggatcacttgaggtcaggagttcgagaccagcctggccaaaatggtgaaaccccgtctctactaaaaacacacacacaaaaaaaattagccgggagtggtagcgggcgcctgtagtcccagctactcaggaggctgacgcaggagaatggcgtgaacccgggaggcggagcttgcagtgagccgagatcgcgccactgcactccagcctgggcgagagcgagactgtctcaaaaa
