svm_type c_svc
kernel_type wgkm
L 8
k 5
d 2
M 50
H 50
nr_class 2
total_sv 4355
rho 1.81047
label 1 -1
nr_sv 1962 2393
SV
1 GCTTTTTAAATCCTTTCTAAATGGCGGCCCATTTCATTTACATCTCTCATTTCCCCTGAAGTCTTTGAAGCCTTTTTTGTAATGTGCCTTTAACAAATAAGTCTCTCTTTTTTCTCCAGCAGTGTGAGGCTTCTCAAATATTTGTGTTATGAGTTATGGACAAGGCATTTCCTGATCTGTTTCCTTAAAAAATCCATTTTTTAAGACAACCTATAGCATTTAAGATTGAAATCCAAACTGTGGGAGTTTA
1 atccccccctcatagcctgttatcatgctgcactctaattgttggtttacatgtccctcccacacttgattcagagtcttttcatctttataccctcaaagcatatcagagtgccttgctcataccagaggcataataaatatttgttaaatgagtcaaCGAAAGACTATGTGGCTGTGGACGAGGCTGGCTTTGAGTGTAGGCTGGGATGGGGGAGTTGGAACAGTAGTGTCTGTAGCAGTAAGAGGCG
1 AGAAGCCCTCAAAGGTCTGAAGGCTGGGCCTGTACTGAGGCTGACCTCTCAGGAGGGGAGAACTCTTGCAGCCCTGGCCGGCAGGAAGGGCCTCTGTGCAGGGGCTTGTGTACATTACAAGTCATGCTGGAAGAATGCCCGTCTGCTGGACAATCACTTGCCCGTTACAGCCCCATCCTGGAGCTTGACCTCATTCCTCGCCTAGGGCCTGGAGGACATGGAGAATTGAAAACAGATCCTGATCCAAAAG
0.6095056030654816 AGATATTACAAATGTGCAAGTCATTACTACAACCACTGAAAATAGAATGTTTCTACAGGTTCAGCTTTAGCTCATGTATCTCCTCTGTGTTTACCTAACCAACCACACCTATGTGGACATAGTGATTCACAGGGAAAAATAATAACCTGTATTTAAGCATAAAGATCAACAACAGAAATACCACCCAGGGAAATACTGTTATGAGTGAGGTCATGAGGTGCATTTAGCCTGAAAGATGCATAAACGAATT
0.0442090234193087 ctgaaaatcagaattttggaaaacttgtatgtatctaccgctttgactctgttggcttctcaatacacttaaaaggcttttctgatgagactggtgtgattttgatactatgtcaacatttgcaatacccaaatgactcacgcatgatgttacaaaatcttgcttaggttaaaaaaaaaaaaatcaatccattcaaagtacaagacagacctatggattttaatgttacaggggacaaaaagttcattca
1 gcaatttgcccagggtcatttagaaagcaggagcagagctaggatttataaccagcttgcgtgaactcaaagttcattcttttaactcctgttgcctttGAACATTACCGTTGACAATATTTGGAAAATGTGTCATCTCCTGTTGCAAGGGACAAATATGCAGTTTAAGGAATAGGCATCAGGCTTTTAGAATAACTGACTTTACATTTTAGACTTGTCCTTCTCTGTCCTTGGGTGGGACCCATGAAGT
1 GAGTACATTTGAGACCAGCAAGAAAACTCCTCACACTGTTGGTAGAAATAAACAttggcacaaactaccagcactcaaaatgtacatgacctttaacccagtgattcatttcccaggaatttctccaggcacaacacccacagaggcacaggatgtcctctgcaaggtgtttacagtaacaggggattggaaacaacctaaatggccatcaacaggagcctggcttaacaggtgaattgcatgctcacac
0.06836540214948048 GTTATCTTTTAAGAGGCTGAATTTGAATTATATTACTCTGTTAGGATTTGTGCCAGCTTTTGGTTAATCATTATCTTGTTGATTATATTTGGTTCAAGATGACTCATTTTTCAAGGAGCTTTATTGCAACACTACATATTTACTACAGGAAGCCTGGATGGAAATGGAGCATCAGGTTATTGGAGATTTTTTTCTCCAATCTTTATTGTACCAAGTGTTATTAAAGTTAATTATTTTTCAATAACTGAAT
0.7066438490765051 gtaactggtagctctgttttcaagctttagactatccttggcctgaaggtcaactttcactagggatccatccctatctgcctaggaatctgtctgtctgccgttgttatcaCTATTACCCCACTTAGTCACTGTTGGAAAAATGtagtagataaacatgctctgtgccttactggctgcaatccaatcctgacttggacactgaaagtgtgtgtgacctttagtagtatacttaactccttcatacctc
1 ccatttaaaaaaaaaaaaggaaaaagaaaagaaaaagaaaaAATGAAATACACAATTGGACAGTAAAAGAGCCTCTAAAGGGGAAGCAAACAAGAGGTTAATAGGGCATTGATGACTAAGAACCCATTTTGCAATATTCTCTGGAGCTGGCCTTGCATTTAGAATGAATGTGAACCTGAAACTCTTCAGGATTCAGGGCAGGGGATGGCATATGATCTATTTGCCTACACTTTGCTTCAGCTGACAGCAG
1 CCTCTTCAGTGTAGTTTGGCAAAGCTCTCTCTTTCGGGTTTATTTGTTTACTTACCTACTTATCTTCAACACACTGACCTACCCACCTGTGTATCTTATTTGGTTAACATTTATCCAAGTTTGAAGATGGAAATAGTTTTCCTCTGAATCAGAACTTTCAGTGTAACTGTTCCAAGAAACCGCCACCACAGATGTGGGAAGAGGGAAGAGAATGAGGAAGATTCCTGCTGTCTTTTTACCGCTTGGGTTT
0.6025207893480311 GGATGGGCTGCCAATCACCATGGCAGCAGGAAATGCAGATGTTGTTTGGCATTCCAGAAATGCATAGAGATCCGTGGAGATAAACTCAGAGCGCAGCCTGCGCATTCCAGCAGGCCTGACTAACTACGGAAACATCCCGGCGGGCGGCGCACAGCACACAACATCTCATTAAACAATAGCCCCCGCCCCGCCCACAGGCTCTTCCCAGCCGCTCAAGGGACCACTGGTTGGGTGTTAACTCTTTGGACTA
0.01874896048054645 CAGTGAGATGGACTTGATAGAGGAGTCAAGGGTGGCTCCCAGGTGTCCTGCTCGTCCATGCATAGAAggaagggcaggtttagagaggcaagatagtagattcatttgtagacatagtgagtcaactgggataattagctagccaTTTCAAAGCATGGATTTGGAATTCAAGTTGCACAAGAGCCTGAGGTGAAAGTTTATATGTCAAATAACTAGAGCACACAGTGTAACCAAAGTGACAAGCCACCTT
0.2173803538865499 gttctcctgcttttagggcaaatagactacttgcctacctttttgaagttagatatggtatgtgacttgcattagtcagcaaaatggcatgtgttattttcagttccaagccttatcagtatacaattcactacattccttttgtctttgtcagcaatggtggaagcattggttgacatggacactgtcagcctggctttctgagtacccacaatgagcagagtccccctgctgaccagcaatggacatg
1 CGAGGTCATCCTAGGGAAGGAGGGTCTGATCCCTCCTCTTGGCGTCAGGACCACAGGTGGGGGTGGCGAGCTCGGGGTGCAGCCAGGCAGTGTTTTGTTTGTTTTGTTAGTCACTGTGCTGGATTGTAGCTGAACAGCTCTCTTCCTTCCTGTTGTCTACAAGGACTCCAAAGAGCAATCCAGCACAAACTCAAAGAAACAAACTCTTAGGATAGAAGCACGGCAGTGAGTGCCCACCAAAGAGGCAGCC
0.0126009380947307 GCATTATACCCAGGGGCTGGAGGGCAGAGAGCAGGTCTTCTTCTGCTGGTCGGGGCAGTCACAGGCTTTCCTCTCGGCCTGCTTGTCCTCCGGGTGGGTCCAGCACCCGCTGGGATTCCTGTGGGCTTAGTCACTGTGTGGCGGCGGCAGAAGGACTGGGGAAACCGCCGGCCGGCCCTGGTGCGCTGTCACCCCGAAGGAATGCGGGCCAGGCCGGGGCTGCTGGGCCTGGAAAGTTCTCCAGTCCCTG
1 ctgggctcaagagatccacccacctcagcctcccaaagcggtaagattataagcatgagccactgtccccagcctcattcaataaatatttgttgagtatgtgtcatgcatatggtaggtgctgagggagaagacagacacagacagtaaacaaaTGAACCATCAAAGCACCCAAGACAACCAACCAGATGTCTTTTTGTATGGCCAAGACCTATGCAGATCTCTACCTCTCAGGAGCAGGCCACaggca
1 GAGAGGTTAAATGTTTAAACCCTACCAGTTACACCATTGTTCCAGGAATTGAATTGAATGGAATTAAAAGACTTTTCCAAACAACTCAAACCAAGCAAACACTCCCTGATTTGTTCTCTCAAACAAAATATATTAGCCTGTGGCGACTAAATATTGACCTAATGACTAAATGAAAGCAAACAGATTCTATAATGCTCTGAAGTACTCACCACTCAACCTCAGTGAAACTCAATGAAACTTCCCAAGAAGC
0.9727865731744806 CTAAACTCCTACTTTAGAATTGTGAATCCATCCATAGATTGTTCACAATGGAGTTACTGTTTACAGGAAATTCCAATGTCAAAGAGATGATCTAATCCTGATTCCTTTGGGGTGAGTCAATATTGATTATTCTCATTAGGGGAACAATAAGTAATGGATTTGGAAAAGGCCTTCTCTTTTAGGACTATTATGCTTTGGCTGAAAAAAACTTTGAAAAAAATTCTTAAATATCTAAGGAAAATGTGCTAGG
1 CTTCATTGCAAATCCAGTTTTGACCTTTGCTCAAAGAAGAGAATGAGAAAATAACACATTTGTGTGTGCTCTTTTCCTGACCTATGACTTGTATAGATGTTAGCACAGTGGCTTTGGTTTTAAGGTAAACATTCTTTCAGCATTTCTCATCCTTCTCCCATTTTCCTGCATTTCTCATCCTTCTCCCACCTTCTTGGTATTTTAATCATTTATGTATTGTGAACATTTTAGATAAGATGTAAAAGTCTTA
1 TGTTTAAAAGTAATTTTTAAAATTCCCTTTCTAATTAACCACTGACAGGCTCTCTGCCAATAACTGTGTTTATTTTTTAGAAAATCAATTGCATTCTCTACAAAAGACTCATCCTTTTCAGTCAATATTCCCTCCATTACACACAGATAATGTTTACTGTAGCAGCTTCAGGGACCAGAGTCCAGTTCTTTCATGGGGTTACCTGCAGCCAATCTAAATAGCAGGTGTTTGGAACGTCATCTCCCTAAAC
1 GCTAGTATCTGAGTGTCGCTCTGGGCAACCAGATTGCACAATGCCTCAAATTCCAATAAGGGAAGTCCTTGTTCCTTAGCCAACAGCTTAtgggtgtctgtgtgtgtgtatgtgtatgtgtatgtacgtgtatgtgtgtAATTTGTGATGACTCAGTGTCTAGGAAGGTACAAACATTGTAGCTAATCTATTTCTGTTTCTTACATTACCTTTCAGGAATGGGCCTGGAAGACCTGGCTAAAACCTTTGA
0.5006622019754188 attgtcaatgactggtggtattttgaaaggaatctttttttctgagcggtaggtctcaacagtgggattaaaatattcagtgagtcatgctcaaacaaatgtgctgccattcaggctttgatgttccactgatagagcacaggaagaggagatttagcataattcttaagggccctggaatttctggaatggtaaatattggcttcagcttaaagtcaccagctgcattagcccctaacaagtaagccag
1 GATTTCATCACATTTTAAAGTTTTGCCAAGCCAAAAAGCTACCTGAATGTAGAGCAGCATTCATCCCCTCTTGCCTATTTCTAAGCATTTCTCAGGGCTTAGTCATCCATCAGAAAAGGACCTCCCTTGATGGGAAAACTCCTTCTCATATCTCTTCTTTGACCTTCAGTTTCTACCTGCAAGAGAGTGAATGGCCTATTTCAAACACCGAAATCAATTTGTCTTTGGAAAGTCATCTTATATACAAATA
0.9573243928380802 AAGGGCCTGGGAATTTAAGAAGATATTGCAAATATGTCACGTCATGGAGGCTTTGAATTTCACTTTCTAAGTCATGTATCAAATTCAAGTACCCTGCTCTAAGTGTGGTCAAACATGCAAATATTTGCTTTCTGAGTAATTTGCCCTAATGACTTTGAAGCATTTTTGAAAAACAGTGGTGACATTGTTCTGCCCTGGCAGAAAGCATATTCCTTGTCAGATGTCCACAGAGATCCCGACTGTCTACTGG
1 ACAAAAGTTTTTCCATAAACATGGCAATTTTTGGCATTCTTAGCTCAAAATTTTCTCTCACATTAATTTGTGATGACAAACATGTCCAGAAAAGTTCACAGTGCCAATAATTGACCCAGGTAAGGGACTGTTTGCTTTATTACTCAGAGAGCAAAGTTCTCCTTTAAAGAACTATGTTTTACAGTTAGATGTTTTACTATCTGTAGGTGATGACTTCAATCACCCCATTTGGAGCTTATTTTATCTCATA
0.3492024810269728 TACTACTCAACATGGCTATCTTTTTTCAAGTTTAATAGGCAAACCTCTCTCAGCACTTGACTGGAATAACTGTTGCACCATTTGGGAGTTATTTTTCTTTTAGACATTTGCAGATCTTATCTGAAGGTGACTAAGAGCCCAGAGTTAAGTATTTGTGAGGCAATCTATGCGAACTCTGAACTTACCTAGTTGGCTTATATGAAATTTGTAGAACGCATGGCAGGAGCCTGTGTAAGAAAGTATTGTCCTG
0.1724578419592923 TCAAATAATTAGCTACATTCTGAAGTTAATTTATTTATAAATTATTGAAGCTCTCAAGCTAGCATTACCTCTACATTAGGAAAGAAACTAGATAAAATAGTTCTTAAATGAGTCACGCAAGGTTGCGTAACAAACCAGCAGAAAAACAGGTAATCAAGTTGTGGACTGCACGTTCAGCATAATAAACATTACTGAAGACAGGCACTCAGTTTTCATAACAAATGTTAGTTTTTCAAACTATTCTAATCCA
1 CCCACTCAAATCCAGCAACCTGAAATTCAAGCTCAAGAGGTGTGGGAGGGAAAGCCCAGCAATCATCAAAGCAGGAGACTCTACATTCATGAGCAGATCTGGGCCAAGGCCACAGCTGGGGGGGCAGGATCCTCTGAGATGAGTCACAAACCACACACCCCTGTGGAGTCCTCCAATAGTCCCAGCACtgttcaagctgggagggacctcagtgctcattataccatcagaacccggcccacggagggga
1 tagactatgggtaactaaaagggaaggactcttgttatttaactctgcgtccttagcaaccagcaaagggtctgggttcttgcacttgtttaataaatatttgccgaaagaCTCAGACCTGGAGCAGACCACCCCAGGGAGGCAGATGTTGTGTTAGTAGAAGCAGACCATGATCAAGGGCAGAGGTGATTGGGCAATCAGGGCAGGCAGTGAAAGAGAATTTCAGAAGCTTACAAATCAACTGTAAATA
0.4763862291073318 attaaatggaaaattccagaaataatttctaagttttaaactttgtgctgatctgagtggtgtgatgaaatctctcaccttccttgccctgtcctgccttacccaggaaatgaatcatccctttgtccagcatatccatgctgcagatggctggctacttagttacttagtagccttctggttataaggtcacagatcacaagaagcgtgagtgcaatacactaagatattttgagtgagagagagagca
0.125263229068513 TCAAATTCCTTCTACCTCTAATGTTTAACTTCCTTAACCCAACTTCCAGGTAGGCCTCTGGAAAGACAAACAGCTACTTTCCCCATGTCTTCTTCCTCTTCTAAGAGGAGGGACACACATTTAATGAGTCAGACTCCAAGCATGTGCCTGGCCTACACATGCAGGGTTATTGTGGATTAATCATCACATCCACAGGTGTGGCtcttttcttctttctttctttctCCTTTTATGGCCAAGGAATAGCGAA
1 GGGGCTATTGATCTGGTGCTACATGCGCAGGAAGGCTCCAGTTCACATGCCTGAACCCGTTACCCTGCTTTGTCACACATTAAAAGCCTGGAGATTACCAGAAGTATTTGGTTTGGGTTGTTCTTTGAAAGATATGACTGTACCCACAAATATGCACAGAATACTCATCAAGGACTCTTGAATCACAAAGGCAAGTCCTTCCCTCGTCTTGCCACAATCTTTGATGGTGATGAAGAATGTGTTTACTCAA
0.1334041072782003 AAAAATTCTTTGGATTCTGCCCTGACATTGGCATGTTGCACAATAATAAAGTGCTGCTCTCTCCTGATCTTTTGAAAGATGAACAAAAAAAGGGTCATGTTTCAGTTGCCATTTTGTTCCTTTTCTGATTCATACTTTTGGAATGTAGCTATAGATTATGGGTCATTTACAATCGATAGGCAGAGCTGATTTCCCAGCTGCTGACAAGGGCCTTATCCTGGAAATTACCTTTACTACTACTGTAAAATCC
1 aaaactccttctatgcattggcttaggcaaggatttcatgaccaaaaacccaaaagcaaatgcaatacaaacaaagataatagctaggacctaactgaactaaagagcttgtgcatagcaaaaggaacagtcagcaaagtaaacagacaacccacagagtgagagaaaatcttcacaatctgtacatctgacaaaggactaatatccagaatctacgaccaactcaaacaaatcagtaagaaaaaaatca
0.2043994660726509 ATGGAAAGATTAACCGCTCCCTGAGTTCCACATGGGGATCAGTACTTTCAATAGTACTTTGTGAGTTCAGCCTCAAAGTAAATGGTTAATTCATCTTGTATCAACAGCACTGTGATTCATAATGTAAACTTGGAGAATCCTTGATGTTTCGGGCCCACATTCCTTTTATTTTGGCTCTGCATTCTTTTAAAGCCACAGTGTGCTCACTTAATAGAATGCAGCATGCAAATGCACAAGTTTTTGCCTGGAG
0.3168734732082661 GTGCACCACTTACTGAGCATCTACTCATGCCCAGCTcagctctgaggtaagaagtgtttcctctgctcacaactttatgaatgagaaggcgggtactcagcttatgtgactcacccagaggcacacaattaggcaatgTAGCTGTAGGGGCATAAGAGTGAAGGAAAACCTGGCCTGGCCAGTGTCTCCAGGATTGGGAAGAGGGTGCTGCCTGGATTGGGCCCACAAACCTCCAGGAGTTACGGATTTT
1 TTTCCTTTTTTCCCTCTTCTCTCCTCCCCTTTTTAACGAACACCTGAAAGGATTCTCATCAAAGAAGTCTGAGTAACACTGTTTTGTAAGGAAGCATTTTTCAGTGACGAATCACAGATTATTATTCAACTTCTCCCAGCTTGTTAGGTCAAAGAACAAACATAGGTCATCTCTTTTATGACCTAGAGTTGGGTCATATAACAtctctctctctgtctcttttactctctttctctctctcaccctcctc
1 CAGCTGAAAAACCAGAAATCAGAGTTCAAGGCTGCTAAAGTATCTGGACCTTCTAGGGATAAACACTAGAGATAAGAGAAATACAGAGGCAGGCTTTATATGTCTGTGAGTGCTTGGGCTAACGTGGATGCTGTATATTTGCAAAGAATGACTCAGCGAAGCCTAAAAAAAAGTTCCTATGGGATTGAGAAAATAGTAGGAATACTAGAGGTCACACTGTGCTGGATGATAGCAGAATTCTCACACAAGA
0.500775675397667 TGCGTTACCCTTCTGCAGTCTGGCTGAATCAATTGTGTTCTTGCCTGTGATTGGTGAGGATGCACATGCTAGTATTTATTCTAGCCCTTATCACTTCCCATCAGCCCTGAGCCCCTCCCTGGTCTGAGTCATCTTGGTAACCCCAGAAGCTAACAGAGCACCAACACATCCACTAAACGTTGGACTGACTTGATTTGGGGCAGGCTTGTTGTATAAGCTAGTAGGAATAAGAGACTAATTGAGAAATTAG
0.01829627075727554 TCAGATAATTCATGCATTTACATAGAATACATATCAGTGGTTTAAACAGAATTTCACAGACGCTTTCCCATTGAAGCTGATTGTTTGGCAAAATGGTGAGTCATGCTTTACTGGCCAACTCACACACCAGTTGTTGATATAATCAGTTACCTGAGCCAAGATCAAAGCAGCAGAATAGAAGATAGTACCTTGGCTCTGATACCTTTCTGTCCTTTCTAAAAAAAAAAAAAATTGGGATGTAAATTTCCAT
1 CAAACAACCACAGACTAGCACACAGGCATCTATCTACCTTGATAAATTTGCACCTTGAGTTTGTAACCAGGCATTTCCTGGGCAACCAGTCCTTCAGGGAGTGTTCAAATATTTGTAGTGGGGCAGTTTGGGCTGCACATATTTTAGTTCTTATTCATGCATTCCTCATTTACAAGTCGTGAACCTGGTAAATTTCCGGTTTTAAGACTATCGCTCCTTCTTTTCTGTAGGTGGTCCTTGAACTACCCTC
0.8724992571056359 TTAGAGTAGGTTGtagtgattaggagctcaggctctgggaatctgggctacagtcaactccagctcctccgcttccttagttggactttgggcatgtgagtcacttctccacattctttctgcaaaagagggagcaccttcctgatcaggttgtGAGAAATGAACACCGGGCGTAGTGCATGCTGGATAAGTGTCAGCTGTCATCATTTAACTAGACCCCAGAGAATGAGTGGAACTAAAGCAGTGGCAT
1 AAGGCACAGTCATGTACAGGTCAGCTGTCAGGATGGCTTCATAATTTGTGGTTTTCAGTGAACAGTGAAACACAGGGTTCTGGTTGAGAAACGATAAAGAATGTATTGGGGGTAGAGATGGAGAGTGATTAgtaatggaaatggaatgtagtgatgtttgcacaattctgtgaatatgctgcaaaccattgaatggttcacttgcaatgggtgaattttataacatatgcgttatatctcaataaagctg
0.2688260467921209 GGATAAGACAGAACATTTTGCAAGCCCTTTAAGTCCTTCAGGAAACACAAACATCCTGTGATCTGTCACTCAGGATTCTGACTCAGACTGGGAATCTGAGCAATGCTCATGGCAATAAGCCAGGACCAGGCCCTAAACATCTGGCTGCTCCACTGTATGGATCTTTGGCATGTTAAATGTCAACAGACCTTGTGGATATAAAGTTGACTCAGTCAGAAAACATCTACGGTCTACATGGAAAAGAAAGTCT
1 CTTTCTATCCTTCTAACAACAGTTTGCCTTTGAAATTTCAATTCTGAACTCAACATATAAACTTAGCCAAATATACTGGTCATCTGTGGTCTCCTAGACATGCCTTGCTCTTTTCTTCAACCATAGAAATGTGTGTTTACTGCATTCTTGGCCAGCTGAATCATGCTCGCTATTTGAGGCTGAGTTCCACTTTTTCCTTACGAAATACAATGTTCTATTATTGGGGATAAAtttgtggtttacaaagtaa
1 GCACTTTGGGGATAGACTATATTCTATCCCAGTGCCTCACAGTGTCTGGCTCAATAAATATTTGTTATGTTCAATCTCAGAAAGGTTGTGTTTTGGGACCTCAGAGATGAGCCACATTTGGGATATCTTAATTTGTTTAAATAGCACTTTGTAAAATTTACTTAGTGAATCATCTGTGTTCAAAGAATGTTTGTCAAAAAGATTTGTTCTGTAGAATTTAATGTTTCTCAGTATGATTAACACTTGCTTA
1 aagctaagatccactgggttgaaattctcactgccagcacagcagtctgaagtcaacctgggacactcaagcttggtggggggaggggcgtccaccattcctgaggcttgagtaggcggttttcccctcacagtgtaaacaaggcctccaggaagttcgaactgggcgggtggcaaagctgctgtggccaaactgcctctctagattcctcttgactgggcagggcatctcggaaagaaaggcagcagcc
1 GAGGTTAAATAAAGCAGGCAGCAGATTCAGTTTAGAAAAAAGACAAGTGGCAGCAGAGGTCATACTGATACTCAGAGTTCAGATAGTAACAGGCATGCTTTGGCTTAAAAGTTACAATTCATCAGCAAAAAATGTTGTGGTCAGAACAGTATTGCCAGAGAAGTGTTTTGATTTCAAATATTGCTAAATCTTATCTCTCTGAGTAGTTGTGTCAATAAGAGATAAGGTCCTGCCTCACTTTGGAAGTAAT
1 GAAAGGGAAGGTGAGCGTCTCCATGTAACATTGGCCAAACCCTTGTCCAAAGTCTCCAGATTGAGAAATCACTTTCCTGTGCTTTTCCTGGTGGGTGGAGCCTTGTTCAGGGCCAGAGAGGCCTCCAGAAATTCTCCCTATCTTAGTCACTCTTCTCTCCATGGGCCCCACAGCTGGCCCAGAGAAGGAGGTGGAAACTCCCTGGATAGGAAGGGACTTCTAACCTCTGCTCCCCCTGCAAGGACAATGT
0.1198240733975408 AAACTTTTAAGCCTCTATTTTTTTTCTGCCCAGGTTATTCACCCCTCATCCTCACTTTACTTTCACCCATTAATAGCAAATAAAATGTTACCTTTTCTGACTCATCCTCATCGTGGTTAAGGTCCAACCCATGGTGTTTCCTTAACAAATTATTGTACTCTGCACTGCTAATATTTGCATAAAGGTTTTTCCACCGCTTGCCTATGTTGCCCTTAACGTTTCCATCTTGAGTTGTTTTTACTGCTCTATG
1 atgtggctgactgggaggtgcctggcaccccaagagagtctcatactgatgctagccagagaaaagatcaaaaatccaaaatgccaagtactgtttgtactgaactgtcacttccgcaccactataaGTCAGGAACTGTCTgtactgatgatctatgctacaagaatgtggatgagccttgaaaacattattctaagtgaacgaactcagaccaaaaggtcacatactgtatgattccatttatatgaaa
1 TTTAGAGCTCTGTGTAAGAAAACATTTACTGGTTCAACACAGAAAGCTGTCAAAGTATGAATAAaattcttagtaggcaaaggcagtatcttgtacttcttttgtgcctcacagtacccagcacagagttcagggccagcaagtaaatatttatttaatgactaaTCTTAAAATAGGGCATTAAGGACAGGGTGGTAATTTTCACTAATTTATACAAATTTTCCTTTTTGAATCTATTAGTATTCCTATT
0.3756698982652952 GTGATCACAGCAGaaaaaaaaagaaaaagaaaaagaaaaaaccctatagaatgtacaccgccaaaagtgaaccctaatgtaaactatggactttgggtgacaatgatgagtcaatgtaggttcatcaaacatacaccactgtggtgtgggatattgattcggggaagggtgtccaagtgtggggaaaggaaagtggtatataagaactctgttttccactcaattttgctatgaacctaaaactgctcta
0.2974485983879717 CTGGCCAGAGTGGCTCTCCCTGCCCCTGCCTCTCCTTCCACCCCTCTCCCGATGTGCACACACAGCATTGTGAGCTGTGAGCGTgagaataggccttggagactggcaggtgtgactcatggctctgccatgcacttactgcgtggccttgggcaggtcacttaacccctcaattccctctattgagggataattgtgcctgccccacctggcagctggagaactaattaaatgagataatgtgtgtgga
1 agtaagaccttcttcttcaaagggttcccttgtcctttgttccctgctttcaaggccagactctcttactctctgtgttcccttgccctgggaaacaaccttcctctcagtctttatctatagagcccacattccacatctgctactcactctgtaaatcacccctcccatcacaacgccccctcccccgactgccaaaactgtttttccaccggtgtaaccacatccctgcacttctcaagttagccaa
1 CAGAGGCAGGGAGTGGAGGAGGCAGGGTTAAGCAGGGAGGGAATTCCACCCAGGTATTGCTATAGAAATGGCAGCAATAGAGCAGAACTAGCACTATCTTTTAGAGAACAGGAAATACCTGCCCTGCCTAGTCACAGACTTGCATCATAAACTCAATGGTTTGAAAAGCACCTATGTATTCAAACTGAAGATTTCTCCCTTGCTGCAGTTCAGAGTCCACGTTGTGACTTGGCATAAAGACAAACAATTC
1 TCTTTACGATTATATTTATTGCAATGGTGCTTCCCTTCTATGTTTAGACATGAAAGTGAATGTCACTGTTGAACAGTAAACACAGGAGAATGACTATGTGACAGAAGTATGTAAAGTATTTTGTAATTCGGTAGAGAATCAAAGTCAGCTTCAGTTCTTTGCATTCTCAGGGATTCAGAAAGGATTAGATAACAATAGTTGGAACCTATGCCAGAGAGTAACTGAAGGATAGCATTCCTTGAACCTCAGA
1 CTTGAGAGCATAAGCAAAAGGTTAATGAGAAGCTAGAGCGACGGTGAATCACCCTCTTCACTTCTCCCTGAAGTCTGTGTTTTCCTTTCCTTATCACTGAAAGCATGCGATAGCCATCCAAGTGGAGGGGAAAGGGCCATCCCTTTGATCTTCAGTTTAGTGGGAAGACACAGTCATAACCTATTTGCCATAATCAAAGGTTTTCTGTTAGTTTTCTGGTTGAATCAGTCGGTGTAGAGAGGAAAAGGAG
0.1811134586026767 ACCGGTTGTGAGAATCTGTATAAGGAAATCTACTTCCCTCAGTTAAACTCTCTACACCAAAGTAAATTCATCAACCTCAGATTCCTACTCTAAATTCTTGGACTCTGACTCACTTATGACAATCCTGGAAGCTGGAACTCAAATATCTATGGGCAGTCAGCAAATAAAGGCCTGAAGAGCTGTAATCAACCAACTGTTCCATTAAAACAGACAACTACTGTCTGGTTTAGAAAAATAATGGATTTCTTAC
1 AGAGTTTTAGAAGTTCATTAGGTGACACCATTAAAGTTTAATCACACTTTAAAACTATGTAACTAAATTAATGCCACAGGAGTTTGGAGACTGAATGACAATAGAAAAGGGATGACACAGTCCAGAGGAATGTGGACATTTCAGAGGGCTGACCAAACAAAACCTGCTGTTTACTTATCACATGGTCTCCTATGAAGTTGGCACCAATTACttctttttcttttcttttttttttttttgctatggagtc
0.7255179070196636 TATATTTGTGTGATGACTTTGTCCAGCTGAAGTAATCTAAAAACCTTGATGGGCTGGAAATGGTGAATTTTTCTTCTGTTGGTGACTAATGCAGTGAGCAGGCAGTTTTTCTAGTTCTTTTAAGGCAGCATCAGCCTAAAAGGTCACGGACAGGCATTAGCAATGCGAGAGTACACAGAAGTTAATTTCAAAACAAATAAAGTGGATGGAGCAATTCAACAACTGTGCATTCTGAAATGCAAGTAAATGA
0.0743746829709435 TTCAATGCTAATTAGCTCAGTGCTCTAATTTTATTTCTGGACTTTGGTACAGCTGAAGCTTTGCTGGTGTATTAGTAACGACATAAATGTTTGCACATTTCTGAGAGTCTGCGGATATGAATCACCTTGAGAGAAATAGCTTTGATCACAGCGTGAGAGCTACATTTCAACAATTTCTTTACTGTGTTGATGTTATTGGTGGTAAAAAGGGAATTTGAACTTTAGAATGAAAAAACTAGAAGATAAATAA
0.3411690484492592 ACAGGCCCAGGGCAGTGTCAGGTTCCCCCTTTTCTGTCAGCAGGCATGGAAGAGCCTTTAAGAAAATGGAGTATTATTATTATTTGTTTGTTTTTACAGTGACTCAGTCTGTAGTAACTGGGTTAAAGTCCGCTTTGAGAAAAGGAGAACAAAAGACCTCCTGTTAGTGCTGGAAGTTTGCCTCTTAAGATATCACTGAGAGGAACTGGGAAGAAAAAAAATCCCCAGCAGGGCAGAGGAAGCTGCAGGC
1 TGATAATTACACTTGGGAAAACAATACAATTAAGGAATGGGGAACAAAAAGGTAGTTTAGGGGGATATAAAACTATGAATAAGTAGCTTAAAAATTCAATCAATAAAGTTGTGTTACAACACCTGGGGGAACAGCATGCAGCTACTCAATTGGACAAATATTTTCAAAGCAAACAAGAGTGCTATGGGTCAGAGTACAGGGATTGTGTGGGAAGGTCAACAGGAATTTATCACTTTGGTCATGCAGAAAG
1 CTCCTATAACAAACCTATAACCTTTGTCTTGAGCAATGTTCCAACCTTTAACTTTTAAGTGATGAGTGGATGACTAGGTCCCACTGATAACCAACTGTGTACACAAGAACAGAGCATAGGGACAACATCATGTCAAACTTCAAAGAAAGTTAATGGGCAGTAGACACAATCACTGTTCAGTCATTCACTCACAGAATACCTCCTGAGGACCTATGAACTCAAAGCCACGATAGGAAGTGCATTGGGGATG
0.3276617317519411 CCTGAGGTACCCAAGTTTAACTTACAGAAAGGTCAACAGTGTGCCTTCCATCACTCAggactccgaaggtctgccttgaatcctgtcctgaattcagtagctgccacatgagtcacattatgtagttaaccctctcagcctctgcttcttcagcggtaaaatgaggataattattaactcagagttgctgCATACTCAGTAACTGAAGTGCCCGAAGGTTGATCGGGACTCTATAAATGTCAGTCTTTTT
0.8892582621806363 GGCCAGCCCTGGCTGGGGACGTCTTCCAGGCTGGCGCCAGAGGGCGCTGTCCCCAGGGACCACACGGGATGCCAGGCCACATAACTCTGCAATGTGTTGGCTGAACTTTTCAGGAAACTTGGATGCCGCACATACTTTTCCTTTCTTTGTGGGCAGGCAAGATGAGTCACGTTTTTCTGGAGTCTGCTCAGCCCCAGTATTCAGACCTCATCAGCTGCCCTGGTCCGGAAGGCTCCAGCTGTGGCCAGTG
1 ATCTCACTTAAGGCAATATTTACTGATGGGTGCTCAGGAAAGAAAGATGAATGAGATGAGCCTTCCATCCTCCACAGTCAGCCTTCATGGCTCTAAAGTTTTCATTCTTCTTGGGTGAATCATGCTCCTAGGAATGATACCATCACTGCTAGTTTCCTGGAATGGCCAGCCTCCCAGGCCGGTTGGAGGCCAGGCAGCTGCACAAGTCTCTTGTGGTTCCCGATATCAGGGGGTCACACTGGGTCAAGGC
0.9886214934218338 GTACCGTCTTTGTTCTCATCAATAAGCTACCAGCACTGCTGAGGAACAGGTAGGCTTGAGCAGGACAATTAGAAGTAGGTGGGACCCAGGCACACAATTTTTATCAGTGGCACTTTCTTCTGATACCAGGAAAAGAGGTGAGTCATTCCACattatagcatcactattttgtgaatgggaaaattaaggttcaaagggaaaaaataatcagcttaagcatacagATTACATCTCCAGCTTATCTGTCCAT
0.1425557320977179 ggcagggactcagtctatcttctctcgtgcattcaggacactgggactggtagatcctgatatgtaaataaatcaatGACAAACGAATGACTCATAACTCGGATATTTGAGTTGGTCAGAGGCAATGTCTCTTTCTCTGTGGGCAGGAACTGAATCAACACAGTGGAATTttctttttctttctttcttttttttttttttagacagagtttcgctcttggagtgcgatggtgcgatctcagctcacggc
0.588090568462889 TTTCCCTTTCCCTCCTCTCATTTGACCAAGAGCTATGAAAGAAGTGTTGTGTGCTCAGAAAGTCCAGCTCCAAGTTCAACCAgccaagcatggtgactcacgcctctaatcccaatattttgggagatcaaggtggaaggatcacttgaggccaggagctcaggaggtcaagatcagattgggcaacacggcaagtccccgtctcttaaaaagaaaaaaaaaATTAAAAAAGAAATTggccggacgcggt
0.9015464721806682 gatacacacacacacacacacacacTCCCTCCATGACACCCCATTGTTTCCCTAAACCAGAGTCAAGTACTAGGATGCAGGCTTTCTGGAATGCACCTCCCTGGAATTCCCAGCCTATGTTGATTCTATGAGTAACCATCAGACACTGGCTACCACTATCTGTCATCAGATAATATCCTTTTCCTCCCACTAGCCAACTGGATTTTGAACCTGAAATACCCTTAGAAGGATATTTTCATTTTAGTTCGTA
0.5577363280896152 TATCATACTATCACAGCAGCCTAAAAAATCCTTACAATGTGAGAAAGTACAGGCTTTATTAGACAGGGTCTGTCTGTTAACAGTGGATATTAGTGTGATGAGTCACAGCTCCAGCTGTGTTGCTACATTTCAAATGGAACTCTGCTGCAAGACTGTTCACACATGCTACATTTCACATGAGCCTCCTGTGCAATTTTATTCTAGGCTACCAGAAAATTTAAGCCATTTTTCAGCTCTTTAAGAACATAAG
1 CCAGCTTATTCAAATCTGTGTGGCAGTGGTACCAGGATACAGATCTAAATAAAGTTCCCAATGTGCTAAATTATAGATGGCCTATCTGTAGAAGGGTACTGTGAGAGCTTTTCTCAGGTTATGACTAAGAGGTGTGTAAACATGAGGGAACCTTACAGGTCAAGGACAGAAATCCCGTGAATGCAGACCCAGGAAACCTGTAGACGGCTCTGCCTACAACCTTGCAGACACCCTGTGCATGCAGCAGCTG
1 AGGCAAAGGTTAATGTGTTTATGTGGAGACTCACAATTATTTACCCACCATTTCGTTGGTGAGTCATACTGATCAAAGTGAAAGAACGCATCCAAAGTATTAATAGCAAGATGAACACGACAAAGCATAAAATGAAGAGACAAGGGAAACATGCACTACACTATCCCACCGGCTGGGCAGACAATTCTTTCCCCTCTTCAAATAAACACACTGAAAGGAAAATGGAACATTTACACAAGAGAGATAAGGA
0.40831986586813 TTGATTCCTTTAGTTTTGTGGACCTTTGCATTAATGGTTAAGTTTTACAATTAGCCAAGACCAGAGTTTGTTATACTCTTGCCTGATCCTTGGAATATTACCAAGGCTGGTGAGTCACTCTCCCCCTCACCCCCCACAAAACTTCCTGTCATAATTTCTCACTTTGGCACCTGGTGAGCAAGTTGGCTGGCTCATCAGCCTATCAGTAAATCAATAGCAATCCAATGTCTTTAGTATAGTGAGCTCTGGC
0.324761408981485 TATTACAAACATTTCATTTCCTTTGATTCAGACACACATACACACCaaaaaaaaaaaaaaaaaaaaCCTCTGCCTTCATTGCAAATTCTTGGTGGTATGAATCACTCTAAGTAATATTTGCTTTAACTTTCGTGTGGTTCTACAAACAACCTTTATATGGCTGGACTTCAAAGCGAGGAGAAATAAAGGTTAGAAATGTGATAGGAGTAATCTATTATTAGGCATGAAACATTAAACCACTTTTAGCTAT
0.2103257684049248 AAAAGCCCTCTCTACTAAGTAATTATATTTATTGGAAAAACTCCCACAGAATCTCTAAAGCTCAAAAGTCCCTTGCTTTGTGAACTATTTTCTGGCTTCAACATCCCATAGTTAGTCATTTCCTCTATTACCCAACACACAAAGTGCACAAATAGCACTTTGCACAAACCTtctgtctctctcactatacactaagcttcttgacccaagaactgtggtttactttgtatctgtgccagaaagtggatca
0.149911165290036 GGGTGGGGGTGGGAGTCATTGCGCCGGCTCTGACCAGAGCCACCTCGATCAGAAAGTGCTGGAAAGAAACAGACCTGGCTTCCCCTCTGCAGAACCTGACTTGAGGCGATGAGTCACTTCTAAAAAATGCAGAGGCAACTGAGACTGGGGGAACGGCTCGGAAAAACGGCACCCGCCGCTGGCTCTCTGACTGCTTTGGGTAGAGGGGTGTTCGTGGAAGTAGCCGCCGTATCATCACTTTTAGGGCCAA
0.5214152944322199 CGCTTTTCGGGCTCTTTGActttgagcctgttttctcatctgtttacaaaaaagataaaagaaaaatgggggtagtaattactgccttttgtactgatcgcattgcctgaggattaaatgaggcaaaagatctgaaagcaccttgtggagtatgagtcactatgcacatataagACATGATAGTACTAGGAGGGAATGGTAACATCTGCAGGTTtttagaacttacaatgtgccagacattttattatga
0.7648008569088219 TACATGTATTTGTAAAGTGAGGGTTACGTTTTGCTGATGCATCTGGCCAGATAGTCTGTTTACTATTACATTAATTATACTTTAGTGCCCTTCAGCATTGAGCAACTAAGTGACTCAACAGGAAATTTCAAAACCAGAACAAAGGAAATGCAGTGTTTTGAGATCTTCTATATAATCCTTTCACTAGCATACTCTTTCTACATAATGGATAATTTACTTAAAAAGCAAACCCCTATATTTTGAAACTTAA
0.9053861964762963 TTGAGGGCGGAGGCAACAAGTGGGAGAGGCTGAGCCAGGAGAGGCGGCTCAGTGGCCTGCAAGGGTGGGTGGGGACCAGTGGAAGGCAGCCCTGACTCAGGCTTAGTCAGAGGTCCTGGTCCAAGGTCCCCTGCCCGCTCCCCGCTCCCCGCTGCAGCCTCACAGTGCCCTTCCTGGAATAAAAGGTGGAAAATGAGAGTTTGCTGTTTGGGGCTGCCATTCAACTTGCCTGGGCAGGGAGGATGATGGC
1 cccttcctattctccatctgcaaactcctaTTCACACTCCCCAACCTAAGACCCTGAGGGTCCCAGGCAGCACAGGTTAATCCCTCTCCAGCACCTCCCTTGACAGTTCATTCTGATATCAAAGCCTTTGTCggccaggcgcagtggctcatgccggtaatcccagcactttgggaggccgagacgggcagatcacctgaggtcaggagttcaagaccagcctgaccaacatggagaaaccccgtctcta
1 CCTGCCAGCCCAAGGAAATCTCAGGAGCAAATCTGGATCCTCCCAGGATCCTGGAGTGAAAGATCAGACCAGAGTGACTGGTGGAGCACTTGCCCCAGCCCAGAAAGGATGTGGTCGGGTTGAGAAAATCCGCTCTGGGCCACTCATGCTAATGGAATGTCAGCAGCTGCAAAGGTACAGCCTGCCTTTGGTAGAACTTACTGTGATGCCAGCTCAGTTTTCATCCACTTCTTTGCCAGGCACATGGTGT
1 CTGCCCCCTCCCTTTCCGTGTTAAAAGTTCTTGGTGAAATATCTTTCTAGCCGAGGTTTTTTGGATTAATAGATAACTCATCAGCCACATTCTTCTCTGCTGAGTCAAAGACCCCGAGCCTGGGCGGTGAACGCTTGTGATTTTAGGGGCCGTGCAGCTGAGGGGAGCAGAGTAAGAGGGTTAAAAACGCAGCAATTCACCAAATGCTCATCGAGGGTATTTTCATAGGACTTTGACTTCTGAGCATGCA
0.4680277160590516 ATGTGGTACAGGTTTAAGAAATTCAGGGTGTGTATTTCACATCAATTGAAGAATCTCTTGAAGGCAAACAGAAAGGTTAGTTTCTTCTGTTTGCAGTGCACACTTTTGTTTGCATGTGAGCATGAATCATCAGTCTCCTCACTAAGCATAATCCAAGCAGACGAAGCTCAAATTAACACTAAAGGAAGGTAGCAAGAATGAGTTTGTTTTTAAGGATTTtgtggtaggcagaataatggcctccaaagat
0.7682171472973093 GTGGGTAGCTAGAGTTGACTTAGAAGAGCTTAACTGATTTGATTCAACACTTTAAATCACCTCTAATGTGGCACATTAGTAATGCCACCATATTGTAAATGATACATCCACAGAAGCATTAGTCATTATACAAATAGAATGAATAGGTTTCACTACACTTCAAGATAAACATGTCGAAACACTAACTCCATTCACTCAGGGCCTTTTGAGCTTGCTCAGGGCCCTTACCTGGCTGTTAGAATAAATACAA
1 ACATTTTGCTGACCAAGAAGTTTTCAATCTAACTCAGAATCCCAACAGTAGTACTGCTTTGTGGAGATAATTACTGAACTTTGATCTACTTCATTGTTCATTCACTTGACATGAATCATTAAATAAACTTTGACATCACCCCAATTCCAACATGACAGATAACAGTAAAGCTTCTGTGTTAAATGTTATGGTATATACCTGCATTTAACATGGCTTAAGGTAGAAAAAAGATAAAACTGAGTTGCAACTG
0.6671411448488958 AGTGGAGTAGAATTGAAGGTCACTGGAGCAGAGAATACAAGGCAACTATGACCCCATAGATGGGATGAGTGGCACTTGGTGTTGCCCAGGAGAAGTCAGGTCAGGCACCAGGTGGGGTGGGGAGGGAAGCTGTGAGTCAGGCTCCAAAGTCCTTTCATAGATGGTCTGATTAAGGCAGGGAGGTGCCTTCATCCTAATTCCAAGCTGCACGGGGAGAGGAAGGGAAATGAAAGTGATGGAAGATACACAG
1 AAAAACTGCAGACAGACAATCCAGGCTCAAGGATTGTATGCAGAAAGCTCAGAAATATCAGTGGCATGTGGAAGACCTTGTGCCATGGATAGAAGATTGTAAAGCTAAGATGTCTGAGTTGCGAGTCACTCTGGATCCAGTGCAGCTAGAGTCCAGTCTCCTAAGATCAAAGGCTATGCTGAATGAGGTGGAGAAGCGCCGCTCCCTGCTGGAAATATTGAATAGTGCTGCTGACATTCTGATCAATTCT
1 ggcaacagagcgagactctgtctcagaaacaaaaacaaacaaaaaaGAGATTTAATTTTATGGcccttgaggttaagcggggccatgtgacctggtctggtcattgagttgtgaatagcaatggtatgtgtcacttctgggttgagcaagacctttcagagttctctttcacttctgcaattgattaccaacaatgtttcagaaaatggcctgggtcccataattgattaacataaacatactctgttca
1 aaaggaaagttgatcatttcataatgtttaagttaatatttatagaaggattaagaggaactatagtcttgtaacagggtctgcataattctaggacaacagccaaataactgtgaggaagtgagtcggagaacaagctaacctaatgattaatgctgaatgtactacaagcttggtttacttttctctttttctttctttatctttgattactttaacaaagtttaaaaagatagtgtcatcttgaaac
0.3810113767591813 ACAGTCATTGGAAGTGACTCCTATAAGAAGCCAATATGTGGTGTAACttcttccttcattcattaatttgttagtttgttcattcattTTAGGAGAATTTTCTATTGTTAAGAAACACTTGTTACATAACATCAATGTTTTCCTAACTATGAGTCATAAAGAGGATACTAGCTGCCTTTGTTTTGTTCCTACAAAGACACATGAAAATAGGGTTTCTAAAAAATTAAGTACTTTGACAAATGGCATTTTT
0.8157150548415242 ACCACCAAAACACCAGGGAGAATGGAGCTGGGTATTTGGATATTGTACAGCAACTTCAAAGTAGACAACAAAAAGGAGAAAAACCACCACCAACCACCGATGTTTGCATATCGGTTACCCAAAGTCCATGGGCCTGATTCACTTCCTCTCTAACTCTAAAAGGATTTTTCCTTCTAGATAAAGCCCTGCATATTTGAATAGAATCCAACATATGTACTTGTCTCAGGCTATATTTTGCTCTTGCTGTATT
1 TCACTAAACAAACAGAAGACACCATCCAATTCACTGGAGCCCCGTTGGATAAATACGGAAAGAATGTGGGAGCTATGTCATGAACCACAATGGTTTTGTGTTCTGTGTAATTTGAAGACGAGATTCCTTTGCTGTGTGTCACCTCCCATATTACCACTGTCGCCCAACATTTCATAACCATCAACTCTTTGCCAGTGCCCACATGCAAAGATGGGTTTGTATTAAAAAATAAATGAGAACAGCACATTCT
1 GCAGAGCTGGAAAAATATATCTGGGTAGAAGTAGCAGACAGACAGCGGTCAGCGAGCCAGGAGGTCGCAGGCCACAGGCCTTGGGCAGTCACACCTGCAGAGTAAACACTGAGTCAGACTGGGTTAATTATGCAGAGATTGATTCTGGCTTGAAAGAGGAAGGGAGAGCCGCCTCACTGCATACTCGGAGGTGGGCCTTGGCTAGGTGGATCTAACAATTGATTATTTTATTTCAGATCCAGGGAGTGTT
0.845828057056477 ctgagataaattcattttggagtattgtgggtttgagggaggtctgtgaaacatccaactggaactgtttgggtctgggagctgttgggagctgtttgcagacctctgggtctgcaaatttaaaattcaaggaaaagttcagggccagagccacagatttgtgagtcatcCATTCACTCACTGAATAAACATTCaaaaaaaaaaaaaagaaaaaaaaaaCAGCTTGCTTCAagagcaaagaggaccttat
0.07766462395306327 GGGAGCCGGCTGGAGCTCACAGCCAGAGGGGCCCGCAGGTCTCACCTGCCAGCCACGCCCGCTGTGGCCTCACCTGCCCGCCCTGCAGGCCCACAGCATTCCCTTCCCAGGGAGGGGCTGACCCCTGGCCGCTGGATGCCGCTGCAGCTGAGTCACAGGTCACCTTGGGCAGGGAGGGGCTGGTCCAGAGGCTGGGCTGTAGGATGGCAGCATCACCCCAACTTTAGACGGATCCTGCCCCCTGGCTGTT
0.1911630678198198 agacccctagcatggtggcacaaacctgtagtaccagctactcggttggctgttgtgggaggatcctttaagcccaggaggtcaaggctgcagtgagtcatgattgcaccactgcactccagcctgggcaacagagcgagactgtatcaaagaaaaaagaaaaaTTTGTTTCTGAGACCTGGGATATCTTCTATCCTCTCATTGCAGTGTTTTTGCCAATAACACTTCTCAGGGCCCACAGTCATTTCAG
0.7908842358036684 ctgggggccactgggctatcccatctagcctaggtgtgtagtaggctgtaccgtctaggtttgtgtaagtataccctatgatatttgtacaatgaccaatcacctaacaatgcatttctcagcatgtatccctgtcattacacaatgcatgactgtatttgctcttagtgcctccccgtgaaatcaaagctccatcaaagacagagatttcttgcatttgctttactgttacatctccaacacctagaat
1 tcccgcctgtaatcccagcactttgggaggcaggggaagaccgatcacgaggtcaggtgatcgagatcatcctggctaacagggtgaaaccccgtctctaccaaaaatacaaaaaattagccaggcgaagtggcaggactcaggaggctgagtcaggagaatggcatgaacctgggaggtggagcttgcagtgagccgaggtcacgccactgcactccagcctgggcgacagagccagactccatctcac
0.9846493625876436 GGCCTTGCTGTATTTTATGAGTTATTCTTGTTTCCAGCCTAATACGAGGAAAATGGGTAGATGGCATAAGAGGACATTGAATGTACTGAAGGCAGCCCAAATATTCCATGCATTAGTCACTTCGGATATCCAGTGGAGTGAATGCGGCATTCATTAATGCCCAATGTCGGCCCGGGCAAAGTCCagacagtctgctggcagcaagaaagctaaaggcaagaaggcctgtgtcgattgtcgtctgtactta
1 cctgtagttccagcactttggaaggccaaggtgggaggattgcttgagccctggaggttgaggctgcaatgagccatgattgcaccactgcattccagcctggtgacaaagcaagaccttgtctcaaaaacaaacaaataagccagatgcagtggctcatgcctgtaatcccaacactttgggaggccgaggcagcggatcacaaggtcaagagatccagaccatcctggccaacatggtgaaaccctct
1 TTGGCCTACAGAACCAGGCAGGTCTCTGGCCTGGGGGTGGCGGGTGATGTTGTATTCTCTTGTCAAAGTGCACAGAGCCCACTCTGAGAAGATGCTATACTCTTCACGTTACAAGACGGCAATATGCCCGTTTCTGGGCCAATTGGCTGACTCAGAGATGAGGAGATTATTCCGTGACACTTTGTTTTCATTCCAGTCCAAAGGGCaaaaaaaaaaaaaaaaaaTGTAAAACTCTGCTGCCACCTGCTGT
0.8259529518052016 GAGAGGCGATAAGGTCTGAGCTAAAGTTTCCACCTGACCTCATTTGCTGTTTACACATCTGAGCAGGTCGCGGGTGTTCAGGATCCTGCAGTGTGAAGACACATATTTGCAGAATGCGTCAGAGGCCTTCATGGACAGACGGCCCCCTAGCATCATCTGATAGTCAAGTTTGTTTGTGTTTTCTttttccaaacacttggttgcaacccatttgtgggttgtaaaatcaatttagtgtttatgaccagca
1 cctgtccttatgagtcaggaaaataccagtgctctcactcacattgctggaggcaccattctatgagatataaaatgcagccactatgtgatctgtgacagttgcacaagagcaaaatgttggcttcattcaatattcctgccaagtctattttgattgattTTGAGACAAATGTTCACTTCATGACTAATGCAGAGCCTTGATCTCTCATCTTTTTGTCTTTTAGGCAAATCACAGCATAGTCTTCACT
0.1140041635654474 TAATCAGATGCCTTCTGTGAAGGGCTTGCCCTTAAAATTCAAAGGAAAGTGTACGGTTATTGTTTGAATAAAGGGAAATGCAGGCTGGGGTTAACGTAGCCACTAGCACATGATTCATGTGCAAGGCATGTAAACAGATGAAGCCATTCTGGGTAGAGGGGTAATAGGTCAGATTCAACAGGGGCGGAGAGAGCAGAAAGAGACATTTCAAAATCTGTGTTCTTTTTGTCCTTCCAAGGCATCATTGTTT
0.6759932007132692 tccccaggtttctggTGTATAAATGTTGGTACTACTCTGCGATGGAATGGAAAAAGACTTGAGGCCCTGAGAACTGAACCATGATTAGGAGCCTTGGAACAGTAGCAATTGTCATCTGTGTAAATAAGGTTATTGATTTCTAAAAGGTCTATGTTTAATCAGATGGATTAGTCATTCTGTCTTTCACACCTGTGGTGACTAATTCAAAGGAAAAGCCCTATCATTTTGCCAGCTGGTGTTTAAGAGTTGC
0.1831855140026993 GCACATGTTTAACCCCTGACCCTCCAGCTGCCTGGACCATGCCGCTCTGGAACTAACTATTCTCCATCATCACTTCCTCCTCATGGCAGACAGAGAGAGAGAGATCTGTTTCTAAGCAAATAGCAAAGGCTCTGACCCCGTCATGAGTCACCAGTCTGTCTACCCACTTCCAAGATTCCCCTTTATGTATTTATTCAGCTTGTCAGAGTTCCTGGCCAAAAGGATAGTGATTTTTGAGTTAAATGGGATT
0.6769528318077399 GTGGTACAAACCACCCGCTAGAGGCAAATTACTTAAATCAGCTCTCGTAACCACACATACATATTTATGCAGCCAGCAGTGGGAGGTGTGGAGGGCAGGGGGATTCCAGGTGACTCAGTATGTCTGGCATCTGGGTCAAGAATTTCAACCGATGGCAGAGGGGTTGCCACCATAATAGGTGCTGTGTATGAACTGCCACCAAATCACTGCATGTGATTTGTGCCGTGTGAGGTCCTTACAGATCTGTTTT
0.3557721861358136 tactgcatacttaatagactgtagtagaaacataacttttctgtgccctgggaaacgaagaaatttgaatggcttgctttattgcaatattcactattatggtggccaaacttggcctgggaccaaacttgaaatatctctgagtcatgcctgTACTCTTGGTGAAAAGGTTCAAAGGTTATGGAAGCGTGGGCCAGGAATGTGTCCTATAATCCACAGGCAGCAGGCATTCAGTTTAGGGCTTAAGACA
0.4660935574613244 taaaatattttgatttcctAAAATAGAAGATTTTCCACAGGACATGCCTTCACACTGTCCCACAAGGCGCATTCTCCATTATTTCTTTGCCCTTGTCACAGCGCTTTTGTCTTTTTCCTTCAACTCTCAAAAATCAGTATGAGTCACAATCACCTGCAACTGTTTGGCATGTTTCCAAGAAATAAGACACTCTGCACAGTTAGTTTACTTACACAGATCTTTGTTTACTTTTATTAAGCAGATTATAGCC
0.5527234087663112 TTGCTGTGTCTTTCTCATTTCCTGACATGAACACTTGGATTCTGTAAAAAATATTTATTCAGAACAAGAACAATGCTGACTTTTCTATGAAGATCATTCAGTGattcattcaacaaatatttgtggtgcaggtgccaggcactgtcccaggttctgAATATTTTCACTGCGTGCTACTGTGTTTTAAATAATAGTGTGCAATCCTAAGAACGTAAACTAACTAAAGGTTTCTGATATGAGAGTTTAATGA
1 TCTGAGCTCTGGGTAAGGCAACTATTCTCTGTGCCACAAAAAAAGTGTTTTATTCAGTTTTTTCTGGAGGAAATAAGGCTAATGCTGTTTTCTATGGAGAAAAGCATAATTTCCAAATTAATGATTAACTTGAAAATGGATGATTCATTGGGCAAGCATTTCCTATACCACAGCATTACATGTTTTCCAATTATAGTGCTCAGGGGAGGTTCTTAGTTAATTCTTAGTTCTATCTAAATAGAAGTTATAT
0.3150389447469578 CATTTGACCTTGCTCCCATCTTTCATAATGCCTtgtgctgcccttggtatttaaatgaacatgattctactgacttgctgtcagcgggacttgcactttgggctgctttccagcagtggggaaggatttgggatgattcatcgacacttgctttcccagatgcctctGCTTCTGCATTCTACTGTCAAATTGAGCAAATTTGCCAAAGTCAATGACAGATTTTATTTGTTCCTTGCAAACAGGCTAAGGT
0.06457837179536369 GGCAGAATTCATGCATCAGGCAGGGGTAAAAGTTCTTTGGGACATGTTGTTTCAGAAATTTCTCAACAGCACATGGCCTCCTACTTCCTCTACTCCATAGACCAGGCATTGTTGAGGAACACATTGAACTTTTCCCCAGTGAGTCACATTAACACACACATGCTCCAGGACCATGGTCGTGGGATATAGGCATTTCAGGTAGGAAGGCCATGGCTATATTTTACATCGAGGCTTCGTCTGCCCTTTCTTA
1 AGTAGAATGGTCTGTAGTGTGTGGGGTTCTAGCTACTGAATAGGAAAATTGCAATAGTAAAAAAATTATCTTGGATGTTTTTAATTTGGGTAATGTTTCCAAGTCCAAGGTTCTTAGAGGCTTACTGAATGGCTTAGTCATCAACCTGTAGGCAATAATTAATGTGACTCCTACAATATCTCACTCCAACAAAGTCAATAAACTTTTGTGGGTGTTTGTATTAGCTAAGTAAAGGGCTTTTTGTTTTCTA
0.1800307155946536 tatttatttatttttttagagatagtttcgttctgtcacccaggctgtagtgcagtggcatgatcacagctcactgtaaccttgaattccaggctcaagagatccttccacctcatgctctgaaaatgctgggattacaggtgtgagtcaccatgcccagcCCCAGGGAAATCGTTGAACCTCACCCACTTTATGGTTGGTGAGGATCAGAGGCTGCTCCTTGCCCCTCCCCAGTAGTAAGGAATGTGGT
0.9744848500725118 ATGTATCAGTTACAAATCAAGAGGCCCTTTGTGGTTTTATGAGACCTAGGCTGGTTCCTTTATGATTAAGACACAAAGAACAAAATTGCATAGGGTACGAAGTCCACATTACTCACCGAGATATGGAATGTTTGCACTGTGCCTATGCTCCATCTGCTTTAATGGAAATGGGGGAGGAGTCCTTAAAACTATTCTTTGCTGAGGTTTTAAAGTCCCTGGAAAACCTCAAGCTAGGAACTGATATAACCCT
1 AAGTAAACCCAGTGAGATAATGTAGAGAAACCCACTGAGGCAATGAAAGGAGAGAAGTAGGTGCTTGAGTCCATCAGCTGGTGAGTCAACTCCGCAATCGCATCCTCACATTCCTGCTGCATGAGCTGGCAGAAGCCAGTAGAACATGTGCTCATTCCAAAGGAAACACAAACTCACTGCCTTCAGCCTCCCAGAATCATCAGTCTTACAGAATTGAACAAGTAGAGAAGGTGGCCAAAGTGAATTTGAG
1 TATTTTTCCAGTTCATTATTTACTTTTTACTTCAAAGGTGATGTGTCTGTTTCTATATTTATTTATTTTAGGAGCAGGGAAAGAGAAATGGAACAATTCTTTCCAAAATAAATATTTGCAATATGacacacacagacaaagacacagacacaTGTTGAGAAAGACTAGAGGATATTTTACTTCCACTCCAGGAGTTCAGCATAAGCTATACCACGTCAAGCCTAACTGGCCAAATGCATCCTCATCTTAT
0.6909563888324632 AGCACCCAGTTCTTTGAAAAGCAGAACGCATGCCATACCTACAAGTTGGCATACAGCCAAGAAAGTCCTTTTGTGTGCGTGTATTTGTGGTGAATCATTCATAGCCTGTAAGATCTATCAAAATAGCTTTGTTTGAAAACCTAGTTTTCCCCATATTTTTTTTCTGATGACTCACACTTCACTGCTTTCATGTCTAGATTCTCTTTTCTTTCTTGTTTCTCATCATGTTCATTCAGAAGATGTTCTTTCA
0.4122276306477802 TCTTAATCTTTACATACATTATATTATTGCACACTGGTTTTGattttacagaaaataaaaccagtgaatgtccacaatgtttgcataacttgcaagtgttaacatgactagtgagtagcaacactggaattcaaaccaagataagtctgaggccaaagtccaagctctttctaccctaggctgtcATGAACATGTTCCTTAGCCCCTCCTTTTGGCCACCTCTGGGAGCTCAGAATTGCTGGGCAGGCAA
0.09492642907791811 CTGAGAGGAGAATGGGTGGGGCCTAGATGGGAGGGGAAAGAGCCAGAATAGAATGTGTGGAGGGCAGAAGCGGGCAGATCAAAGCCAAATGCTAGAGGCAGAAGAAAACAGAACCCCATGACTCAGGCGTTTGAAATGAGGAAATTCTCAACCCAGATAGAtgcagaactgattctaagaggaaaagattagaaacaacctagagatctgatcagatgggaaattaaatggatggagaggtgtgccaaag
1 GCTAAGCCTTACAAGGGTGGCAGCCGTGTTTACAAAGCGGCTTTTCATGAGTGACTTTATTCACTCAGTTCTTTTAGTCTAATTAGTATTTCTGACTCACAAACGGAAGTGATTCTATTTTGGCATTCTTTCTCTCTTTCTCCTGCTTGGTCTctactgacttgctgtgttaaattatgcaagttactgaaactctgtttgtttaactcctgcgtgctctataaaataagCCCAGTCCAGTCTGCTTGTT
0.9587029487154978 ACAACGGGCCCCGGGCGCTCAGTCATATTCCGTGGCCGCTCCAACACCCCCTACCCCCACCAGCAGGCGCGGCTCTCTTTCGGGGCTGGACTGCATTTTTTGGACATGAGTCGGCGAGTGAGGGTGAAACTCAGGCCAAAGTCTCCAGAGCCGCTCGGAGAAAACGCTGCCTGGAACAGAAGAGCAGAGGATCAGAGGCACCACCAGAGACTCTCAGAGTGGGTTATTACCCTGGTGGGGGCGCCTGCTG
1 GGACCCAGGGACTCTTTCTTAACTCTGCTCCCCTTTGTGCATGTACATCATCTTTATTCCTCTTTGTAAATCAACTTTTCTTTGCTTCTCAGTGCAACACAGCCACTCCTGTGTTTGTTTTGTTAGTCATGATAGTCTAGGTTATGTTGAAATAAGAAATAAATCCTggctgggtgtgatggctcacacctgtaatcccagcgctttgggaggccgaagctggcggatcaattgagatcaagagtttgag
0.3803920018768442 ACTTCCTGTCAGCCTGCCTGCTGGCTCCCCTGTCCTGCGCGCATCCATTCCTGATTCCTGCAACTAGGTCTGCTGTGGGGGGATGGGCACCCGGGCTGCCTTGGGGATCAGCTGTGACTCACCAGGGAGTTATTCTTATGACCAGGATGTGCCTGACATCTCGCCAAGCAAAGGAGCTGAGCTGTTCCTGCGAGTGCCTGGTGGCCCTCGTACAAGTCATTTCTTGCCAGGGATTTTATCCCCCTACTGG
0.3065900016934289 CTTAATGACCCTGCTGCCAGGGACCTGCCATCCACTCCTGGCTGCCCGTGTCCAAGATGTCCCCCCAGTGCCCCTGCCCCACCCCAGCTGGGCCCAAAACATTCCCCATGATGAATCAGCAGGAAAGAATGCTCCCAGCCTCGGGTCAGTGGCAGCAGCCCAGCTCCTCCCCCAGGGACAATGAGGCAGCTGTGGGCTTGGGTGCCAGGTATGCCTAAGCCCTCTCCTAGGGCCCAGCCACCTCTCATGC
1 TGGCTCCAATCTCCTGGTGAGGATGAACTTTGGTTTGGCTCCACCTGCTCAAGTGCCTTCGGAAGTGTGCCCACCTTGCCAGCCTCGTCAGAATGCAGTCTCAGGATGAtgaaagagttcaggaaatgccaccccaaggtacgtcactttggacttcaaactgagagcatttgaggaacagcaaatgcagggagggactttctctgaacttcccttatctgcttcaagataaatcctccaaaaggaactc
1 ttaggctaagaaattctgatggccaacgtttaagctagatgtccactcctcgtccagttagctggtgggggatggtatcagttccaccaccatggctggcagacgcctattctcatgACTCATGGCTGTAGAATGTGGACCATGGCCCCCAAATTGGCAACCATACcagcatttctcagacctgtctctgcatcagaatcatctggaaaacttggggaaaaaaatacagattCCCTAAGCCTATCTGGCA
1 ATTGCGTCACCTCGGGCGGACCATTTCCCCTTTTTCTAAAACCTACACCATGGGAGGGTCTCTTTGCCAAAAAGGAGAAGTTCATGAGCTTCCATTGCCTAATATCATTCTTTGGAGGCACAGTCATAGCTCCTTATCTGGCTCTCGAAGTTCAAGTCCAGCTGTCTAGATCATAACTTTCAACTAGGAAATCACCGGGTGCCTTAAAAAAATAACCAGCGCAAAGTTCAGGCCTCTTGTTCTAGAAAAG
0.8545796568819478 aatcatcacagaaacttctattggacacatcactgaacaaagaagacaaagatctttgtactcacaaagtttagattctagtggtgggaaagcagatacaataaacataagtgactcagttaaatggtatgttggacggacagttcaaggctaaggacaaaaattaaaaaacaaagcagccttagagggatcaggaggatggaaagacaggaattttaaatatggcaggtctggtagtttcaatgaaaaa
1 tcccctgaaacctcatgttgaaatatgatccccaatgttggaggcggggcttcatgggaggtgtttgggtcatggggttggattcctcatgactggatgaatgcctccctcgggagcgagttcttgctctattagtcaccaccggagctggttgctaaaaagatggccgggagcagtggctcacgtctgtaatcccagcactttgagaggcccaggcgggcagatcatgtgaggttaggagtttgagacc
0.8336890800212339 ATGGTACAGGAAGGTCTGCTCTATAAATGCCATCTCTCAGGAGGTAAAAGACATACCTGACACAGGAACAAAAGAAACCTCATGAGATTCAGTCCAAAGGTTGATGAGTAACCTCCTCAGCTAATTGCTTCATTCTGTTGCACAATCAGAACTATGTATCTCTGATGTTGCTAAGTACAGGATTTTCCAAGGTAGAAAAAGGTAATTTCCTAAGATATACTCTATTCGTTTAAGTTACAAGTTGGAACAT
1 CAACTCGCTTTTCAAGATTTTTTTTTTTCCTAAGTAGCAAAGTAAACAAAGCTGCACTGAGGCCAGATGTGCTTTCTGGTTGTGAATATTTGTACTCTAGAACCTCATTCTGGTATGAATCAGCAGAGTGGAATCTAGTATGGACACAGGCTGTCTCAAATTCCATCCACTGGATATGAGTGGCCAAGAAAGCAGTCGGACCCATACTGCTGGTGCTGTAGCAAGGTTCGGGTGGTTCCTCTGCAGCCTC
1 attcagtggtattatgaacaattgctaatttcatttggtgtaataatggtaatgtaggggactgtctatgctccagagatgtaggcagggtgtttcgggttgaagagttacaatgtctgaaactcggtgttagatgattcagccaaaaacaaacaaacgatgtctatctatctacacagagagaagcaaacatggctaaatattagcaatgtcaaatctaggtggagagtaaatgaatatttattttact
0.9368603545052845 GGCCCCCGCGGCGTCCCTGTCCCCGCAGCACACAGAGGCCCCTTTGTCTCTGGCCCACACCTGACTGCGGCTCAGCAAGGCGGTGACAGCACTGCTGGCGCGCAGCCAGGCAATAACAACATTAGTCATGCCTTTTCCAGAAAGGCCTCGTAAACCTGCAAGGGTCTGGGTGCCCCTAGGTGGCCCTGGGCGGGTGTTTTTCATTTCCTTTGCCTGTTGATTTTTAAATGCAGCTGCTTTTTGGTGCCAA
0.7254218785777277 gagatccttctgccttggcctcccaaaatgctgagattatagatgtgagctgctgcacctagccGAGAAAGTCATTCTTTAAAAACCCTTCTCTTTAGCCTAGATGACTTCCTTGTAAAATCCTATGCacttactcattcggcaaacatttactgagcacatacgtaccaggcagcacgtaaggtattaaagacaccactgtgaacaagcagatgagatctctAATGTCTGGTTCCATAAAGGAAGATCT
1 ctgcactccagcctgggcaacagagtgagactccatctcaaaagaaaaaaaaaaaagaaCCCATCAAGGACGTAGATCTGTTATCAGAAATGAGTCAGGACTTCGGGCTGATAACAGAGTTAATGTGCAAACCCTTGGCCAATCAGCAAAGGCACATTGGGACTTGCAGTATGTTGGCTACATGTGAAGTTACATCCAGCCACAGTGAAGCAATCACTaaaaaaaaatcaaaaataaaacaaaaaacaat
1 TCCATTCTTAACTGTTTAGTAGGAGGTCTTCCCAAAAAATTGCACATAGATATTATGCTGTAGGAAGTGATCAATATTATTAGCAAAAGAGATGTTTGCTTGTCTCTTGTGACTTCTCTCTAAAGAATGTAAGGACACAGAACAAGCAAGACTTGACTGTACCATTCATGGGATGAGGTAATGATTCTGGGAGAATACAAGGACAGGAATAACACCAGAAGATCAAGGGTGAAGGCCTTTGAGGCATAAA
1 AAGGTTGAAGGCATTCACTGAGCTCACCAGGAGCTTTGACACAAAGATAGGGTCTTTGCCCCCATCTGAACAGGAGTGACAACAGAAGCTTTGGGAATTGATAAGTCACTAAGGAAAACAGGGCAGGGcacaagttgcaactggtggcccatgggctaaattggccccaggtgtgctttatttgggctacacagggttgtgattttttgaattaactatccacttttaaatgttggactatttcaccaaa
1 AGTGCCTGTGTGACTTGGTGTGTGTCATGGGGAAATTCTAGGGAGGAGAAATAACTGCTATCCACTTCATCCTATTGACCCCAGTGAACTCTGTTCAATAAATATTTGCAGAGTGACTGAATGCCAAAGCATGTCTTGAGTTTATGCAACTTGGTGACATTTCCACCGCTAAAACTGTTACTACAAACTTTATCTTGGAGAACTCATGATAGGTGGTGAAGTTGCTCCGAACCTAGGAAGCTGCTATTGG
0.3888693483776788 tcactcatagtaagtgagaagggaatgtgtagtatctgtggcttggacagtgttgataatcgttttgggttcagacataaaaggtctcattttgtcttgactcatcatgatcacagaatgattttatctaaagtaaatgctctatgaattgtttgtgttcagcagaacaaacaccaaggccaagcagtgagtgctgggcctgtgcccagaaacagcaagacctagctaataatatcagcccagctcctgg
0.04533202648918212 ACAGCATGAGGTGGACACACAGGCGGACCTTCTGGACTGAAAAGCAAGCGAGGGCAGCATCAGAGAGAAGGCGGAGCTCCTGGTTCCTAAAGCACAGAAGACAGTGGTGACCAGGTACCAAGTCCATCGTAGTTATATGACTCACGAGCTCTCCCCCAGCTGTTTCTAGGAAAGCCTGCCTTCCTGCAGGACAAGTCAGAATCGCTCAGGGAAAAAGACCCAGGGCCAGAATTCTACCAGGAAGAGAGGC
0.9092020664531594 tctcctaacaggtctcccaaatctactcttactccctccaatccaagttcttttttatttttttgagacggagtcttgctctgtcacccaagctggagtgcagtgatgcaatcctgagtcactgcaacctctgctcccgggttcaaacgattctcctgcttcagtctcccaaatagctggaattacaggtgcccgccaccaggccagagaaatttttgtatttttagtagagatggggtttcactatgtt
0.5933368396263966 ACTTGTAGAATTTAACAAAGAAGGATAGGACATAAGGAGAGAAAGTGGTGTCTAAAAGGTGAAAAGAAGCATTGAATTGTCACTGGTTCATAGTTCACAGTGCTGAGTGAATTGtcactcagcaaatattaactgagtgcttactatgttccaggcacagcactggacattagagctttggtgagtaagacgagcaaagaccatcagaacacctacattctggtgTCCATTCTCTGTGTTCCCTTAGGCA
1 ATTAAACATCTGGCTCAGGAACACTTACACTCGGTGATAGCAGTTAGGCAACTGGTCAAGAGTaaaaaaaaaaaaaaaaaTGAGATAAGAAAGATGACTCACAAGAGCATACATATGAGCAATCCGGTCATGTAATGACATTGGAGAAGACAGCCTATGGGGGCTGTCCTTCCTTTCTTTCCTTTTTAACAACATATTAAAATCATGAATTTACTAAGAATAATTAAAAAGAAGCATTACTTCTTTTCAT
1 gttttgagacaaggtctctctctgtcgcccctgctggagtgcagtggcacgatcacttcagcctccccagtagctgggactacagtcatgtgccaccatgactcactaatttgtgtattctttgtaaagaccgggtttctccatgttgcctaggctCCAAAGCTTTATTTTAAAGACTTGAAAATGTTACAATTTTGTGCAAGTTTAATAGTTATATTTAGAACGTTTGACAGTCTTCTCCAAGAACAAG
0.2934478764951667 ccccacctggcttcactgtcctttttgatgtcagtaggttatgtattaatcagtatgtcaacagtttgaggaactcacagtaagatttgagggcctcgggataagagccttttctcagagacaggatgtaagccatgaatcacgaggcctttcccaggaggttaatccagaagcctgccaaatgtgacctgtaggttatcaGATGGGTGTCAAACctgtgctctccaggactagccactggctaatcaca
0.08239293153218401 agaaaggaaagaaagaagaaagaaagagaaagaaagagaaagaaagaaaaaaagaaaagaaaagaaaaaagaTTACAgaggcagtggagtgagaatagctagagcctgggaggtcaaggctgcagtgagtcatgattgcaccactgcactgcagcctgggtgacagagtatgaccctggctaaaaaaaaaaaaaaaaaaaaaaaaaaaTTAAGATGAGTCTATAGAATACCTATAATGAAGTATAAAGAA
0.4448586845275354 GGGCTGCTGGGTACCTGCCAGGGTGGGCGGAGCTGCCCGGCCTGTGACTCAGAGGGTGGCTGTGGGAGGGCACACATGGGAACTGCTGTCCACAGGGTGAAGGACGCTGGGAGAATGCATGCATGGGCAGCCTGCCTGAAGCCTGTGTGTGACAGTGATCAGCTGTTACTGGCgctggtaggtgactcagcccgaatcaattgcaggcctgctggactctgaggcccacgctgtctcccttgtgctgcCT
1 tttagtagagatggggtttcacaatgttggtcaggctggtcttgaactcctgaccttgtaatccacccacctcggcctcccaaagtgctgggattacaggtgtaagccactgcacccggtcAACAGTTTTTAAATAAAGCAGAAAAAATGACTCAAACCAAATAGTGACAGAAAGAAGATCAAAGACCTTCTCCGggctgggcgtggtggctcatgcctgtaatcccagcactttaggtggctgaggtgg
0.3016544586057974 CTTTAATTATTAGCTTTTGTTGTTGCTTAGGGAACTAACTGAAAGGTATGCTGGACATGGAAGACAGCCTTTTTATGGCCAGCTCAAACTTTGTAAATGGATATTACTCACAATTTAGTAGCTGAGAATAGACTCATGGGAAAAGAATTCCAAAGTTTATGAAACAGTCAAATTGGCATTTAAGTGACCCTGTACATACCATTGCTTATCTGCATTGCTTTAAGCTCATTTAGTTAGCAAGATTATGTAT
1 ATTTTTCAGTTCAGTAAGGCTGGGACAACTGCACTGCAGCCCCATACTGTGTATAATTAGGAAAGCATGTACTCTCTTAGGTGTCCCCTTtcagagaatggtcactggaatggtctgaagcgacctccagcttgcttactcatagatgtggcatttgaagctcagagcagagcaaggaaggattcaaggccacactgtaagtttgtgtcaaagctgagtctaggaACAGTCCAACTTCAGGATTCAGGAA
0.07246636036407922 ctcctgacctcaggtgatccaccctcctcggcctcccaaagtgctaggattacaggcatgagccaccatgcccggccTATTATTAtttttttgagacagggtctcattctgtcacccagggtagagtgcagtggtgcaatcatgactcactgcagcttcaacctGGCCTAGAGCCCAGATTCTAACCACTGCTTTtgtcagaggccttaaaaccagcatgcctccatcttgagtgagggctaggaaaatg
0.03327162716047442 AAAAAATGTTAGATTTCTTGTTTCCAAGTAAAAGTAATTGTTCTCTTGATCCTGAATACTTAATCTTTTCCATTCATATTTTGCCTTCCCTAGATGAGTCACAATGCAGTGTGTCTAACACAAAGCTAAACCTGAATGTCATAAAGATCCCAGTGTTTATCTTTAGATATGGAATGTTTATACAGCTTTCCCAAGCTTTGAGCTTCTTCCCATGGTACGAATCTTAGGAATTCTCAAACAGTGGTTTGGT
1 aggccacacagtgctgtgtgactgagctgagattcacaccttggACAGGCCAGCACTGCAGACAGGAAGAGCCACCCACCTCTCCAGAACCCTCCAGTGGGCAGGCGGGGCTGATGCCTCATCCTTCAGCTATTTAGAAAAAATGAACTGACCGTGCATTGACCTCCACGCCCTCCGTGCAACATTCCTGCTCTGCCTCAGACCCAAGCTGAAAACATCattctttcattccacaaatatttaccaaggt
1 gccaagatggaccactgaactccagcctggcggcagagtaagactctgtctcaaaaaaaaaaaaaaaaaaaaaaaaaaagaaaaaaaaaTGCCTTATTTGCTTTATGAGTCAGGAATCAACGTCAACATCCCGTATGACTTTCAGGGAACTTTTTACCACTGTGCCTTTTACATTATTTGAATTTTTCCTGTGAGTATGTGTTATTCAAAAAATTTTAATGAAATAATACAGTGATGATGATACagtaat
1 AGAAGGAAGAGCCCATGGAACAGAAGCAGCAAAGGATTTTATTTTCAGCAGAGTGAAAATTAGGTGTTGTATACTAAAGAGAAATTagtcatcctttggtatatatactcaggggattggttccaggaatcccaccaatggcaaaatccacacatacccaagtctcaaagtccactctgcagagcccgcttataggagaagctgggcctctacacacatgggtttcacatcctgcaatattttctgtctg
1 AAGAATCTATGATATAGGCACAAAAATCCTACATACCAGCAAATTAAATTTAAAAATAcagttatgcatcatttaacaacaggagtgtcttctgaaaaaaatgcattgttgggtgattctgtcattgtgtaaacatcaccgactgctcttacacaaacctagatggtccagccaactatacactaggctatacaatatacagcctattgctcctaggctacaaacctgtacagcatgtaactatactctg
0.9730516585695805 AGCCGTTATAGCACAGCCAGGAACATTGCAGTGGGGGCTGGGGGTTGCACACACAGTTTTATCCGCCCCGTGGTCCTGACGTGCTTGTTGACACAGCCCTGcagcattgctgagggcttactcagcaggccaggactattctaaccacgtcacctgagttaacttgtttagcctcaccagtgaccctaggtaggtatgattatttattaccttttttttgttttgttggttttttgagacaggatcttag
1 acctgcatgctgtccatcctcatagactggaacttcctgagagtgtcatgagatcagatggctcttacggctcttactcaccgctgtgtcccagacaccagcacagcagcctgtgtttaaagatggtctgtcaatatttgttaagtgactggaCAGATACGGAAGTGGACAGTTACACTGACAGTTTTTACAGGGGGACGTGTTGCTTTGTCTTCGACTTGTTCCATTGTTCTCGTATATAACGtgggcc
1 ctctttatgactaagatacccaattataaacaagacctaaggctatgcaagtcaaaggttaaattgcagttgccagtcattgatcttgtgacatagcatccttatcttaaaacattcctttctgttgactcccaagttttagacagagctttactcctttaaccaactgcaagttaaagaatctcggaggccacctatgacctgtaaacccccacttcaaaatatccagctttttttggccaaaccaatg
1 GAGGTTTCTATACTCTGCAGGCATAACCCAGACTTTTTCAGGATCAGCGGTCTTTCTTTTCAGCAGAACGAAGCCCTGCTGCTGCTCATTTACCTATCTGCGTCTTCTGAAGTAGCTGAATGTGGCACAGACGTTCCTGGTCACCACTATGGAATGCAGCTGCACAAACTGGACTTTGTACATTTTAACAGGAAAAAAGGAGGAGGGGAAAGATCCAGCCAGCatggagcatttattacatgccagccct
0.7399494044207792 atggattttgagttgtgggtaccatatacccgtgtaagtctacatttAACACTGAACCCTTTGTGTTGAGTACTCTGCATACAGTGTCATCATACCTTGAGTATTTACATTTAGTCATCATGTTTTCAAATAGTCCCGCCCTGCCCCTTCCCAggactgcagtgatacttacgttagagcacttgatgttatcccacaggtcaggtcttggttactttttcttcctgtctttgctttattttgttttgat
1 TGCACTTAGAGGGCAGGAGGAGGGAGGCAAGAAACTattcatttttgacagttatttcttgattggtattttctgaagactggaaacacaatgacacagtatgagtgatgtggactttgttcctgccttcctgtggcatacagtctcatggaagaggaacgcagaaaataaacagtgaaatcagatgatcataatagagtggataatacaagatgacatggaagtacataggagggcaattgccacagac
0.5160781672438645 CGTGCTCCACTTTTGCACTCACCCAGTAGTCTCCCAACCTCTGGTCCCCTGGTGCATGGGGCTATCTGACTCTTAGTATTTGCAGAGAAGCTAAGGCTGTGCAAAAGCTATAGACATCCAATCTACAGAGCTCTTAATTCGTGattcattctgcaaatatttactaaggacctatgccaggaactattctatatgatgcaaatgcaacagtgaacaaaatgaaccaagtgcctttacttatgaagattgc
0.01490706487934295 TTGTACTGTCATTTGTATTTCCTGTCTCAATAGCCTCACCTTGAAACTGGGCAAGTTCCCAAAGACATCATAAGTCAAAGTCAAGTTGAACTACTTTTCAAAGGCTTTTTTGGTGCCCTTTTCTAACCAGGGAACTTTTATTTACCTTGACTCATGGTTCCAGGAGCTTAGAAAAACCTTTGCTGCTGATTCTGCTAATACTCAATAACTCCTTTTCAAATTGCCTAAATGTTAAGTAAATGCCATCTAT
0.2164201850456469 CAGTTTCTGTGAACATCAAATTATTAATATTATTGTTGTTATGTTAGATATTCATACTTTGGAGGGAGAAAGCATTTTAGTAGTATTGACTTTGGAAATTCCTTTGTGAGTCACTATTGACATCCCCACAAGGTTAATCTTCCCCTAGACTCAAGGATACTCTCTCTCTGTTCACTCTGGAGTGTGATTGTGATTGCTTAACTTTTCTTCCATACAAAACCCCATCATCCACTGGTGATTTAGCAGCTCT
0.9699996062018675 TTTGAATTGTTAACCCACAGACATTAACTGAAGTCTTCCTCTGTGCTAGGCCGGAAGGACAAAGTCTAGGGACTCTGAGATGTGGCAGCTGCCCCCATGATGTGACTCACCTAGTCGTGGCCCCTCCTAGGTGATGTTGGTGGCCCTGTCTTCAGGGCCAGCTCTTTGACTCTGGATTATTGGGAAGAGACATAGTAGGAAGGCTGGTGTTATACCATCCTGGGTTCCTGAGACAGAAGTGCTGGTGCTT
0.9387520444817415 TGTTaaaaaaaaaaaaaaaaaaaaaGCCAACAACCCCATGCTTATCGTGTGACAATAACAGCAAGAAAACAAATCAGTCTGGTGGCAGGGGTGGGGGCAGGGAACTCCAGTCCAAAGTTTCTTCCAAGTGGAATGAGTCACCGAGTAGAGAGGGACAAATAAGCAAATATAGAAACCCAAGGTAGCTGCTATCCAGGACAAAGGGGAAATGCATCTTCtttttttttttttttttttttttttttggaga
1 GATGTCCCTCTCCAGCTTCCTCCTGGGCAAGTGATCAAGGACTCCACAATCATCTGCAGGtctagctgctgtccccatactccaacaaaatgactcagagtttcatcatttcttattgcacaatttaatgaccatatcgccacctctggtctggtagcttcattaaacagggcagatgacctcctctttgaaagtgggccctcccttggctcctaagacatcaccttctctCCACCTCCTCTATTTTCAT
0.3801556254406129 CCTCCTTCAAGTCCAGTTGCCATAGCAGAAAGTGGGCCCATTCAGTAAGCAGGTGCAGGGCTCACCCCAACCCTCATTCCATTTGCAAGACTCATACACATTTGCTCCAGGCGAGCGAGCGAGTTCGAAGGTCCCCGGCGCGCCGCGCTGAAAACTACAAAGTCCACCGGGACTGCGCGCTACCCCGCGGCCCAGCCTGCACCGCTGGCCGGGATGAGCACGGCGCACCTGGCTCGGGGTCTGAATAATG
0.5429062789500995 AGATGTATATGCGAAGGAGAAGGGATTAGGAGTGGTGGAAACCAGGTAGGTTTTAATTTAGTGCCTAGGCTCCCTCAGCTGCAGAGCTACCTCCTGCGGTGGGGGAGGGGATTAAAGATGACTCAGACCTGCCCTAGCCCAGAGAAACTCCGTTTGCAGTGCTGAAGCATAGTTTTTATTTGGGTTTGGGGGAGGAGGTACTGAACACACATACAGGCAAAACAATAAGTGTAGAGTTCAgaattgggaa
0.1789952173788898 AAGGTCAAAGTCTACTTGTAGCAAGTAACACCATCCAAACAAACCCAGTAGCCACAGAAACGCCCGTGTGCATTAAAACAAAAAGCCTGGAgccagacgccatgactcacgctgggaatcccagcactccgggaggctgaggccagaggatggcttaaggccaggagttcaagaccagcctgggcaactgggcaacacagtgagacacgcctatctcaaaaaaaaaaaaagaggtggctgggcacggtgg
1 tggggagcaggtaggggaagggggattccaggtcacaggtggattgcaggattttctgattggctattggttattatctaaagacctggagtcaatagaaaggaatgcctagagtcaatagaaaggaatgtcaatagaaagggttaagataaggggttttagagaccaaggttttatcatgcagatgaagcctccaggtagcagacttcagagagaatagattgtaagtgttttcttatcagactgaaag
1 GGCCTAGTAGCTGGCAGAGCTTCTGAGCTGCAGAGAAGCATCCAGAATGCAGAGAAGGCGGTGCTTTGCGATTGATGGCTGCTGCTGCCCCTCCCATGAGGCTGATTCAGGCCAAGGGAATGTGTTTGCCTTTCTTCAAAGACGTGGTCTTTCCTAATACAGTCTTGCTTCACTACTCCACCGGTGTTGCTCCTTTTTTTGTTCCTTTTTTTAAATCTACGTAATCCTGTTTTGCTGAGAAGCTTTATTA
1 ttactactccttaaaattgttacaccccatctctgcttcccttaggaagaagggcatataagcatctagacctcactgggttattgagcaatcattctgcggtttccatgtgctatgcatgttaaataagcagcatgccttttctcttactaatctgtttattgtcagttcattttcagcaaaccttcagagggtagaagggaagctttcacctggcccttacaCCCTGAAGCCTGTTTCAGTCACTCAT
0.4246040372267996 GCCTAGACTTTCATAACATGGAAAAGTAAGGCAAAACCTTCAGAGCCGAGTCCACCAGTTATGATTCTGCTTAGCAGGGCTTGTGCATATATGGCTTCCACCTGGtcttgcccccctggtggtggctgcacacgctgaagcatgatgagtcagagccgtgtgattttgttctgcctctgccctgcataggctggttttaatcaaacgaaagcctaatcctgtagtgaatcttattaagccctttgccCTT
1 TTCCTGAACTCTGCTTTGTGTTTTAAAATAGTATAAGAAACATCTCTGTCCTTTTATGCAATAACTGCCAACTTAACATTTAGGTTATACTGTTGTTTGTTTATGGATTTTGAGAAAATCCATTGAAGTTTACTTAAGAACCAACTCATTACAATGGTATTATTTACTGAATTTTATTTTCCTGATCATTAGCTAACTACAGAGTTCAACATTACAAGGTTATAACTGTACAAAAAGGATCAAAACACCA
0.8326740891852745 ATTGTGTAAATTGAGGCCTGCATTCCTCTTACCACCTCCACCTCTGCTACTTTCTGCTCTAGAAACTACTTTAATGAAAAGAGAAAAAGCTAGTTGACTAGCATGTTGATTTTATGCCCAATGCAAATACAGACCAACTGACTCATCCTGAAAATATTTAGCAGGGAGAAAAAAAAAAAGAAGAAAATTTTTTTTAGTGAGTAGCCCACATTATGATACTTTGTCACTTTAATCTTGAACTAAAAGACCT
1 tgttcaagattttcactggggtttggtcacatagttgtggctcactgcccacacggctagcatttgttatttagcgtccactccttccaaaggtcaagttgatactgcatgacctaaggcccccgccataaattgcgttgtttgcatagatgacctggcacaacccaaagccttaggtaaataaagacactcttagaaaacagggtattccaaaggctcagggattatctttcaggagatgggcagggcc
1 gacaactgagccacatagagtttacatatcttgtccaaggtcacacagctagaaaatgacagagcctggattcaaagccagtgagtctggctccagagccctctgctcttaaccaAGAGGCAGGAGTGACACATTAGAAAGCAATGGGGACAAAGTGCATCCAGACAGTGCCTGTCCCCAAAGGTGTGCTAAGTCCGTTTTTAAAATATAGCACTGTAGTAGATCAACAAACATATCTTCAGGCTGAATT
0.2435126942954642 ttgcgtcctggagttctcgtgaggCGAGGACCAGCTGATGCACATTCCTGCAGCCCCAGACCAGCCCAGGCCCCCAGCACATGCTGGTGAGTCATCTGCTAAATAAACTGAACGAATGAGGCGGGGGAGCCCTGCACCAGCACAGTGAATCCAGGCTGGCTACCACTGCCACCAGCTCGTCTTCCCTCCACCAAGCACTCGGGGCCCTGCCAGAGGTGGCCTGACAGCCGTTCCTTCAGGGGACTACGTG
0.7154376690438656 CAAAGGTAAAAGACTTTTCTCCCTTTGAAGCTATATTGGTGTGATGTGAATCAAACCATTCATGCAGAGAACAAAAGCACTTTTGACTTCAGCAGCCAGTTAAGATGGTAACTTAAATAAACAGGGAGGAAAAGAGATATGACAAAAGGTCAACTTAGTCATAGCTTCTTGAGCTTCAACTGAAGCAGTGCCCAAGGCTGAACAGCTGAATTGAGTTGGCAATTATTCACCCTTCcagaggttcccaacc
0.3559569449521234 AATTTTTACTCAAGATAAAAACTATGACCATTGTGTGAACATTACTGCTTCACCTCCCTCTCCTAACTCTACttttgtttactattccatatccagtgtctagcagtgtactcatcaaacagtaagtgctcagtacatatttgttgaatgactaaatAAGTGGATTCTGGCACTTAATTATAAGAGCTTTTTGGAAGATGAAAAGATTCTTAAGCAAAATGATTTTTTAAAGATGTAAAGACAAAAGAAG
0.1550335587294893 TCAGACCCTTTTCTAAAAACAGAGCTTCAAGAAGAACACTAGTAAAATCTACTGTATTGCCTAGGGAAGGTGCCCTGTTCTTACGAAAGGATGAATCATCAGTTTCCCAGTGTTATCTTTTCAGGTCATTGCAGCTCACTAAAATAGCACCCAAGGTAAATAATCAACAGAGAAGTACCATAAATGTCTCAGCAATTGAGTTAACCTTGGAGCTGCTTCTCTACTAACCTGATACCATATCTGAGGCCTT
0.1270785930182424 GTTTTTGTGTGAATGAATTATCTGTAGCTGATGCTATAATGGAATGAAAATGAAAACTGATACCAAGGAGTTTAAGTGCTCCCTCTTATCAACTGTTAACTGACTCATAGCAAGTAAAATCACAACCCCCAACTGTTAGGCTGCCCAGGCAGTTTGTTTGACTTATTGATTTGGGTGGGTTAAAAAAAGCAAGAGCTGGTTATCATCCTGTTACCTTTGCCCTGCCTTTTGCCTGTTTCTGTAACTGCCT
0.1342010051303276 ATGAAGTCCTTTGCCTTTCATGTCAAGGTGGGGATCTTGTTACAGTTCCGATAGTCAGTCTCCCTAGTTAGCTTGGACACAGGCAGCCTAAACACGGGGATGACTCAAAAGAAAGACATGTGACCTTCACACTGGCCCTGGGCATGGGAGGAGGGTGTGGGGTGAAGAAGAGTCAGGATGACATGCCCACTTCTGCCACTTGCCAAACTCACAATGGATGCTTGCCAAGGGCCAAGATTGGCTGCCAAGC
1 CAAAACCTAAATAGAGGAAAAGAATAAAAGATTTGAAGGAAAAAAAAACTAGAAGGAAAAAAAAGTTCAAATTTGTAACATAGTTGCAATAGGCTGAGTCCACAATGAGTCCATCGGTTTGGTATGCCCATTTCATTTAAGTTCCTGGGATAAGAGCCTTGGAGTCATGATGTAACCAGGCAGTGCATAGAGCACTTCTCCAGCTCTGTTTAAATACACCATTGACTTGTTGCCTATGACGCCATCAAGA
1 tagcatgtccaaaattaaaaagactgaccacaccaaatattggtgaggatgtggaagaacgggaactttcatacactgctggtggggatgtaaaatggtacaatccctttgggtaacagtttgacggtttcttaaaaagttagacatatatatttaccatatgactcagcccttccacttctaggtctttacccaagagaaatgaaatgctgtgcttttacaaatgtctatacaggaatgtacatagcaa
1 GGTGAGGGGAAAGGAGAGGCAGGAGGGCAGAGAGAAGGAAGCTAATCTGCCCCTCCCATctgggaacttcccaacaccctgtgtaaagaagaaaggagagttccaataatgactcagagtaaattttcctcctaagaagtcacatgtgagctctgcgtttttatttaattaagaaaaatagcgtattgtgaaattttctgtttacccaagtttgAGACTGCAGTTTTTTTTATTAGTTCTTTCCTAACTT
1 ctcatgattggactgggcctgtgggttctgggaggaagaacagagatcaagtgtcattttcatcacatcctatcaagggtacataccatcgacatgacatatcactgctgacattgacctcagttgcttggctgaggtcatgtttgttgactgtctccactgtaaagttactttttttttttgagacagagtctcactctgtcacccaggctggagtgcagtggtgccatctccactcactgcaacctcc
1 actcctgaactcaagcggtcttcctgcctcagcctcctgagtagctgggacaagacgcatgcaccaccacacgcagctaatttttttttttttgagatactgtctccctatgttgcccaggctggtcttgaacttctgggctcaagtgatcctcccacctcagccccgcaaagtgttgggattataggcatgagtcaccatgcctggccTggagttcactgtttatttaataaaggagaggcacaagtac
1 GGAGGCAGAATCTGAAGCCATCCAGCAAACTTAGCAGGGGTGGAGATCAGGGTCCACTTTGCTGACATTTCAGAATAGAGAAATGCCATGTCATAGCAAAAGTCCAGGAAGAACCAGATCAGAGATAGAGGGGTGAAACAAAAAGTGGATATTGGCCAAGTgtgactcatgcctctaatcccagtgctttgggaggctgaactgggaggattgcttgaagccaggagttcgagaccagcctgggcaacat
0.2342498280260424 AGCAGGTGGGTGTGCTCAGGGCCAGTGTTTGAAATAAGCAGGCGTGGCCCTTGGTTGGCTGTCCATGCCCCAGGtgcaactacactcactgtttgcagagcttggccctgtGTgtcattatttgcagagcttggagctgtttgcaaAGCTTGTCATTGCCTGTGTCACCATTTGTAGACCGTGGCACTGTTTGTCATTCTGTGGAGTTTAGTTTTATTTGCAGAGCTTGGTATTATTGGGAGAGGCTAGT
1 TGGCTGTCGGGCAGGGCTGGGAGCTCAAGGCCTTCCCTCCCTCTCCTGCAGCAGCCTCTGGCCAGGACTGAGGAACCAGGACAGGGGAGGGAGGGGACAGCCCCACCCCGGAGGTGCCCCAGGCTCTTGGCAGAGCCAGCTGGAGACGTTAGAAGCAGCTGCGAATGATTCATCTCGCTCGGCCCCCACCCCACCACCTCAAACATACCCTGGGGCTGATAACCAAGTTCCAGCCCCTACAGCCCTGCAG
1 ATTGGGAATTACCCCTCTCCTCCCCAATAAATGGTGCTCTGAAAGTACTAGTTTTAcagtcatacatcacttaagcatggatgtacattctgagagatgcattcttaggcaatttggtcactgtgcaaacatcacaaagtgtactcaaacaaacctagatggtagagcctacttacacacctaggctacttggtatagcctattgttcctaggctacaacatgctcctgtaaagcatgttattgtactga
1 TTGAAAATGGCCCTCATATCATACAACTTGAATTGGCATTCATTGACAATCACTTTGCTTTTAAAAGATGCTTAACAAAGAGTTGTAAGTAACATACTTTGAGACTGAGTAAATAAAATAAACATGCGAACCTTTGATGTTAAGCTGAGTTTGTTTGATTTTTCAGGCTGAATATACAAAGACTGTTTCTAGGAAAACTTGTGCTTTGTACAGATAGAGGAACCTCCTAAGAATTTTGATTGTGGCTTCC
0.7957171080172345 atgtatttcttttattactggtgactatgaatgttttccatgcggcatttcccctttgtgaattgtcCATGCAAACTGTGGTAGTTCTTATGTGTTTTCAATCTCGCGTTTTTAGAGATGAAGAGGGGCAGTGTGTGAGTTCTGAAGATGTATGAGTCACTAGTTAAAATTCAATCCTGCTCAACAAATACCTATTGTAATATGCAAGCCACAGTGCTCAGCGCTCCCCGCACCATAGATCTCGACTCCG
0.7969464603715153 TATTTCTTTGTGTTCATACTCTCTGTATGTCTCTTATCCTCTTTgggcctcagtgtatttcacagtggttaaaaatttggatttaattctatacagaactgaaagtcattgaagagttcggagcagatatgctctgactcatattttaaaatctctctttggttgctgtgtaaacaacagactggagagaggccaagagcacaagcagaaaaaccagccagggtgctatttcagcagtctaggtggagag
1 aaacactgcaatggatagtcttagagagaactatctgtgcacattcattattgtttacttagaataaattcctggaagagacattgctcagtcaaaagctatgcccttttcaaagcattttgatactgatttccaaatttccctctggagaggttgtactgatttacagcccaccagcagtgtttatgagtgTTTGCCAATGCTGAGTAAGTGCAAGCATTTAAAGAAGGCTTTGGAAATATGATAGGGA
0.359561661396676 TGTAATTTTCTCCTACATTCTTAGGCCTTGTGGAGACACTTTAAAACATATTTTCAGACAAGTTTCAAAAAACTCCCTCCTAGATAAGCCTATTTGTGGCTTCACCAAAGTCACTGGCCTAGATTCCTGTCAGGTTAGTCAGAAAGGGACGGTTCATGTGCTCTCACCTACTCCCAGGCAGGTTTACTAGATACTGAATCAGCAGGATAAATAAGCTAACTCTGGAGTTTGCTCAGGAGGACAAAGCGCG
1 ACGAGTACCTCTTAAAAGAAGAAAAAAATGAAAACTGTAATTTAGGACACATAGACGAGTATCCATTCCCTGTACTTTTACTCTCATGTCCTAACCAAGGAAGGGTTGCCATAGCAAATATGGCATTCCTTAGCCATGATTCACTGTTGTAAATGCCTGCAGCATTCATAAAAGTAAGATATATGGGCTCTTCTTTTTCCTTTTAAATCTTTATTTCTGTATTTAAATCTGTATGTCATCATCTGTATTT
0.8879202667265156 AACAGCTACAGACACATCTTCAGTAGTAACGCACTGGAGTGTGGAAATCAATTGTGAATTAAACTCCTCCCTATTGCAATATTCTGACATCATAAGAGAACACAAGTGAATCATCCCTGTGTAAATATACTTTGATTAGATCATTTGCTTTCAAGGCTAAAAAAAGGGAGGAGAAAAAACTGGATGTTCTGTTCCCCTCTGGATAGGCATTGGGGGTAAGATTTTCCGCCCCTCTGTGTGGTAACCCCCC
1 GTATTAACATGTCGTGTCACTGATGATGACCTAGGATTGCAGGAAGATGACAGAGTCACTGTTCCTGTGTGCTTGGCTGCTCGGCTGTTTTGTTTGCACTTCAGCATTCCTACCTGGTGTGTGGTACATTTTTGTCATTCCACAGCAGTCTGCTGTGCTCCTGGCTCCAGAGTAAGCTAGTCTACATCTATTTACATCAGCTTTCCAGCTGTCAGCCTCCTCATGCTCCTGTCTGCCTGATGGGGCAAGT
1 ggttcatctccaagctagcctgactccaaagcccatggcattaaccaACACATTGCATCACCTTCCTTTAATGAGTCAGCAAAAAAAATCTTCCTTTACTGAATCAGATTGTTGATCTTTCAACAATCAAAAGAATGTGTATATGGTAGTGTTTTCAGGATTTTTTTCTTATACATTAATTTTGTtgagaagtaaaacagatttgagggtcacatgacttgatttataatccctacaacgccactgatga
1 GCCAACCTTTCAGGAAGTGGCTACAGAATAAAGTATGACACTCCatcaagttaaattaaattaaaatcacatctgattaaatcattttaaaAGATGAGCCTGGCATGGCAACACTTTGTGTAACCACCATAGCTTTGCAGTGAGTCATGGTGAGATGTACTCCCGGTGTTATATAATATACAATGAATTCTTTGAAAAGTGATCAAAATTTCCAATACACAGTATTAAAATAAGTACTGGATTAGGTAAA
1 tgagtgacagcaggggacatgaacagatcttcataatggcttggatatgcagtaggaagcaaataaatgtcaggaagggtatttaggcatttcctttgatggctttgtttatcaagatatgaacaactgaaggaggacctggcagttttctggaaaggttatgagttcagtatggaaaacactgagttccaggcagcagtgagtcatgcaaatagatttaaaagttggctacttgagtctgaagatcaag
1 CTACAATGAGATCAAATCTCCAATTAATTTTATAAATTTTAAAAAGTaaccactttggaaagcagtctggcactttctcaaagttaaacaaatacctaccctgtgactcagagattccacttccaggtatttacccaagaaaaataaatataaatatgaacacaaaaacttgtccgatactgttcacagcagctttgttcataatacccccaaactgaaaacaacccaaacccgtcaacaggaaatagat
1 TAGACATGTTCATTTCACATAAAAGAATAGACCTGTCAGTATTCATGGAAGGCTGACTTCTGCCCAGCTTTATCTGTGATGATTCAGTTCCTTTGGCTCAGACCCAAGAAACATCAACCTTTGTAACTCTCTGCCCCTTTGTATTTACTTTCTAAAACTGTGACATTTGCCAAGGGGGTAAATGAAACTCAATAGCAGCAGCTAAACTGCTTGTCCATAAAAAGACATTGTTTTGAGTAGAAAAGGAATT
1 ATCATTATGAAGACTGTCTTTtccataggataggttcctaaatgtggaattttcaggtcaaagggtaagtgtattttgaatttcaacatagagttccacatactgactcatcctcaaaagtatgagtttctgattaactgcacatcactggcctgaaaatcatcaatcttttcaactgcagatgggtaaaaattcaattttgtttttattttaatttgcatttccctgtctactggcaagattgagcact
1 tgacagttgatctgataactaagccagctactaagtaacttacgggtgggtagtgtacagagtggatatgctggacaaagggatgattcatgtcctgggaaaacaaagtaggatggcttgagatttcatcatgctgctcagaacagtgtgcaatataaaacttatgcattcttttctctagaatttccctttaatattttcagatcatggttgaccataggtaactgaaaaatcatgaaagcaaaaccac
1 CCAAACTGCCAGGCATCTGGATATTAAGACTGTCTCCAGCCCTTTGAGGTTGAGAGAGGAAGCAAGCACGGAGGAATGGATTTGACAACCCACATGTCCGTGACTCAAAGCAAGCAAGGCCTTGCACAACCAACTCGCCACCCACACAATCTGCACAGTCTCAGTGAGAAAGCAGGAGCAGGGAGCTCTCCGCTGAGAGTGAAGAAATGTCCTCAACTCGACTTCTCTGCAGTGTGCATGTGTGTGAAAC
0.3615870420853352 CAGAGGGAGGGTGAGGATCCCTGCCAAAGCTCCAGGCTGGAGGGGACTGCGTCCTCCTCCCTCCTGCAGTCCATCTCCAGTGGCCGGCTGGGGTGAGTCAGCCTGGATGAAGTCACCTACTTCCATGCAGACTGTGCCCCCTGACCTGGGAGGCGCCTGTCAGGGGCACCAGCCGAGACTGAGGACAGGCTGGGCAGCACTCCAGGTCGCTGTGTGGCAGCTGATTTAGGGGGCTGGAAATGTCCAGAGC
1 agcctgagcaacatggcgagacccctatctctacaaaaaatgttaaaatttgccaggcatggtggtgcaagcctgtagtcccagctgtttgagaggctgaggcaggaagattgcttgaacctaggaggtcaaggctgtagtgaacagtgtttgctataccacattccaatctggtgacaaagcaagaccctgtctcaaaaaaaagaaTTTTTTTTAACTTGAGGGAAAAAAAGTTTTACAAACTGTAGAC
1 GCCCCCTGCTCTTGCTTCTGCCAAACACTCCACAGTTCAGCTGGAAGCGCCCTCAGGGTTGTCCAAGCTGCCTGCAGTTGGTTGTGCCTCCGACTGGCTCTGGCCCCGCCTCCCAGCCTCCGTAGCTGGTTCCTGAGCCCTACTCCTGGGGCCGCCAGCCTCTCCTACTTCCCTCCTCTCTCTCTGCTTGCTTTGCagcagctttactgagatatgattcacataccctacaattcacccctcggaagaa
0.5871279612454661 CACACACAGACCAGTCTGCGTCAGCAGGAAATAAGAGTGAGCAGGGTTCTAGAACTCTGAAACCTTGGGACTAGAAGTGTGTCACAGTCAGCTGGACTTAGGAGTGCCTAGCCACCACTCACTTTactgagacacataactggataatgtgtcacattgtgacacattgtgacctcagggtcacattgtgacacattgtgacctcagggtcacattgtgaattagctgcagactcaaggctagaacttag
1 TTTGACTAGAGCTTAAACAGCAAGAACAAACACGTGACCATGGGGCAGCCCCTAAAGCTTCAAAAGGCACAGGCAAGGAGGCCCCACTTTACACAGTGAATAACAAATTAAACATCCTGGCAGGCTGTACAAGCCAAAACCAGAAATGGAGTGTTCAAGAAACACACAATGACTGATTGAAGGACGGCAGGGATATATGAGGCACAAAGTCCACCAAGATTTGATTTCCTGAGGACAGTTATCCCAGAAC
1 CCAAAGATTAACATTTGCAGTCACAGAAGGTCACTCAGAGTGGGTGGGCCATGGATCTCATAAAATGCTCTCACTAATAGGAGGGGCATTGCCTTCTATCTATTGGCCTATATGATTCATGCCTGTGGTGTTCAACAAAGCCTTCTGGTTTCTGTATGCCTTGGTGGGGGTAGGGGAGTGCCTGGCGGAGGCTCGCCTCTCTCTCCACCTGATGAAAGAGCCTCTTTGTCTTTTTTAAACAGGAAAAATC
0.4123510210318746 TTAGCTCACCCTTGTCTGGATGAAAGAGCTCAGTGAATCAACTGCTTCTGTTGAACTGTTTATATATTTTTCAAGTCATGATTAGGCCATTAGTCACTGAGCATATTGCACAGTAAACTAGAGTAACTGCCATTATGCAACTTCCCAAGAACATACAGAGAGCATTTACAGTGAGGCCACAGTGCCAGCAAAATGTGCAATGGAGACTATTTATCAGCAATTATAAGAACTGTGCATTTAAATGCCAAAT
1 ccgccttggcctcccaaagagctgggattacaggtgtgagccactgcccccggccTTCCTATTTTCTTAGTTAATAGGTGGACCATTGCCCTCATGACTAAGAGTATACATCAAACCAGCTGAGAAAACTAAGCAATCTTAGCATGTCATCAATATTTGAGAAAGGAAGTTGGCCTCCCTTAGCTAGATTTGGGCCAGCAAGGAATGCTACACTTTACTTTCAAATACCGCTAAAGGCTTTTCTTCTTTA
0.3306334184151355 ccacaattttaaaactttatgcagtttcagtgacccacagtcaactacagtcaaaaatattgaatggaaaattccagatgtaaacaattcataagttgtaagttgtgcaaccttctgagtagtatgatgaaacctagcaccatcttgctccatcccatccatgatgtgagtcattcctttgtccagtatatccacattgtatatgctacccacccattagtcacttagtagccctcttggttaacagatc
1 tatcatccatggaaaaagacctcgtggttttcattaacctgaacctcaatatttgcctgcactgtttgtcttctagaaaagtcaacataaaactggctttgcgattgacgtgtagggtacagatctcaggaagtgattcatttaccatacaccaatccacacctgaaatactgtattccacttatgaggccacctttaggagtgaccctgataaagatgagagcaataaggcaggaggggtgtatgcaag
1 cttttcagtttcctgcccaacagattccagtcacttgggtggcctcaaacgtgtatctcttctttccacatctgaggaggaccaccatgctccacttgaactcaagctccctagactgggaactaggcaattatctctaggcagagagctagaacaaacatgtgagtcaccttgtgagtttcccttctttcagagattatgctcttgtgctgcctactgcccaatgcttaaaagagttgcattacatatt
0.7662315801002554 ATCAGGGCAGGTATTATGGCCAGGAACCTAGGAGTGTGCCTGCGTCCAACACAACCTCCCAGCCTGACCATCCCCCTTCCTCCCTGACTGGGCAGTTCCAAAAGAGCAAAGTGCATGTGATTCAGTGCCATGTGACTATACCTGCAGGAATGTGTGGGAGCCGCCCTAGGAGCTCTGATGAGAGCTGGATTGGAGTGAGTGCTTTAGGCTCAGACTGAGCCCAGCTTCTTCCTTCCTTCTAAGGACCAGC
1 CCCCAGGGGAGGGTGACCTATGGGCAGAGCAACTGAATCAGCCTTTTGCTCCTGTATCTTGGACCTGACTAGCTACTGTCCCAGTAACACATGTCAACACCATAACAAACATAGTAGATACCAATGATGACACATCTTAAAACTATGTGAACCAGTTGGCAAGTCCTGGTGGTTACTGAGTGTGGAGGTAGGAGGCGGTTCCTATTGGTGGGAAGGCCCAGGCCTCTACCATAATCTCAGTCACCTAGAC
1 AGTGACAAGATTTAGACTAGTGGACAAGCCATGCTTTAAATTAATATCATATCAAATATCATCAGAATGCATAGTATAAACTTGGGTACTCACAGCATGCCTCGTCATCACAAAGGCATGCTATTATTGCCAAGTTGAGATGCGTAAGTGTGCTTGTACTCTGCCCTTCAGCTTCAAAGCAGAGTTGCTGAGGATCAAGACACCAACATTATAGCCACTGGTAATCCCAGTTAACTCCCACGGCCCAGTG
0.4264826180228173 caggagtttgagaccagcctgggcaacatagcaagactcctgtctctacaaaaaaaaaaaaaGTATGAGAGAAATTTCAACCAATTATGGGATATTTATGCTCGAAATACCCTGAGTCACTGAAATGTGTCCAAAGGTACGTGCTATATAAATATCATGAGGGCCAATAGGTCATTCTTGTGTACAGAAGGAGAATTTGTTTGTCAAACAAGAAGAGCAGGGCATTTGCCATTGATCAATCTGGAACTAT
0.9282237834329775 CCCCCATCAGCGGCACAGTCACACGGTACTGCAAGACAGAGATGGTCAAGGTCACAGGGGTGCCCCACAAAGGGTGCGAAATGCATTAGGAGAAGCAGGCATCACTAGGGGCAGAGGAGCCCTTCTAGAAACAATGTATGGTGAGGTCAGGGTACAGATGAGTCAGAAGCAGAGCAAATAAGCAGGACCTCTATGTCAGCATCCTCCTCAATACACAGGCAGCAGCATGGGGGCTAGGCCATCTCTTTCT
0.1346596002805779 TTTGTTTTCACTTAGGGAGAGCCTGGCCTCATCTATAACATCATTGTTCTCTGGAAGCTGGCCCTTTCCCAAGAGGAGGAATGTGGGGCGGCATCATCACAGTGAGCAATTTCACTAATAAGGAAGTGTGCTGGGATTCCAGACGGGGAATGATGACTCAGAGTAAGGTGCATAACAGGTTCTCCAGTTGCTCATCTTCTGAattcgttcattcatttattcattcattcCCCAGACATTGAGCATGCAG
0.173698206444367 CATAACTGTGCTGGCCCCGGTGGAGATGCAGGTCCCCCCTGCAGGCAGCGTCTTTGTTACACTCACTCAGGCGTGGGCCTCCGGAATAAAGCTGTCATCTGAAGCCTCAAAAGTGAACCAGAGCCGCGTCTGGCTTTGAAGTGACAGTGCTTCTGATCCTACCTCACGAGACTTCAAAGCACAAAGGGCCACGTTTCTGTCGTGACTCATGGTTGAGGCACCATGTGGCCTTTTCTGCAACAGCTTTGCA
1 AAAAAATATTCCAGGAGACAAAAGGGTGAATAGTCCCTTGGATTGCACTTCAGAAACAGGTCTTGATTGATTTAGAGTGGCCTTTTGGTTTAAACAGGCCTTATCTCTAAAGGTATGTCTACAGAACCATTGGTGTTTCGTTATTATCTGTTTTTCCTGCTCTTTCCAAGGTCCAGCACTGTTTAATGTGGTCTGGACAAACCTGCCTTTTGATCTGGGTAGCCAGGCTGTAATTTATTGATCACCCTAA
1 ctcataatctggtgatgagtattttaaaggcaaaaaacaaGAGGCAGTAAGATTCGTTAAGTGTACTACAGGAGTATGGGATATACAGAGAAGGAAGTGAATCATATCATGTAAACTTTTTTATCTCAAAAAACAACACTAAGTTACACATTAACTGGAAGAACAGCAGCAGCAATAAGAGTGTAAGCAAAAAATGAGTGTGAGGGAAAGTACATAAAACAGTGTCTTGGTGTTTTTATATCTTTTCATA
1 GAGCTACGAGGTAAAAATAAAAATTTTAAAAAAGAAAAAGAAAACCCCTGAATTAGAGGGTGAGTGAGTCAGCCGGATGTTGGAGCTATGTTGGTCTTTGACTAAGGGGGTTAGGTCCAATTCCCTCAGATCTGCTGTGTCCTTGATGTTTTCCAGCTGCTGAGACAATAGGCCCATAGATACCAAAAGCTCCAATACACACCTTTTCCTGGCAACTCTTATGGTGGTAGGAAAGACAACTAAAAAAGGC
0.9334944686667195 AGCAATCTGCTGCCTGTGGGTGCATTTGCAAGGGTCTACAaaaataagtaattcagaatcaatgttgttggaactttaaattactttgagccttaaaggaatgtgattatggaggctgagtcatgtggtaggcagctgtaacctaggcagctgtaacctttgttcctctgattatagattagccttttctttacctacattgttttgtaaaatgttgcaaaagactagggctccagaaaagatgcttttc
1 tgcacactgacaggcatcactaatagatcacagcactctttcagaacacaccactgtaggcagccatgagcaatcaatctgagttgatgtgtcagatgaaagctGAAGGagtcaagatgcctggtgggaaacagatgtctcacccagttggaatgtttgaaaaggctttgaatgaaggtgctctttacacaagggctcctaaccctgtgatcagggtcaggagaaccaacacagactgcccagtcaccag
0.02703555725533903 GCAAGGTTATTAAAGCCAGGGATATCAAAACTCCTTCCTTAGAGGAGTTTTACTCATCTTTATACCTTTACTGCTTCTCCACATGcacagcaattctgcagtctgagaattatctcattttttcagatatggaagctgagtagcagagaatttaagtgactcactcagagtcagataactactaaatggtagatcaatatttgaacccagggctctctggttccaatgtccttgctgtcactgAAAGCAG
1 ataattgcctttccccctcatttactttgtcttccatgtgcctatcattaattcagttccaaaatgtctcacataaccataaagcacctctcagtatggccagacacaaaattcaactgtttgcatttttttcccatgagacattcccggctgtggactctgtcctcttgctttacgatgaaatgatcactgtcatcatcctgagaattccttttttgttgtacttgctagttctggtggagcacatctg
0.146261784334325 ggtcttgaactcctgacaagtgatccacccatcttggcctcccaaagtgctgggattccaggcacgacccaccatgcccggccGGGAATTCTTTAAGGGTGATGAATCATCACATGCACAGCCGTGAGAAAAACTCCCTGGCACCTGAGTGAGAGCCGCAGACAAGCCGGCCAGGGCAGTGGCCACAGCCTCCAACGCATCCCGTTCACTAGTGCAAAACAGCTGTAACGTGGAGCTTTTCTGGACAGCA
0.3818483083550051 ACGTTCTCCCTTTCTGAGATAGAGGGTTTGTTTTGTTTTTGTAAACAAGATAACAGGGAAGAGTGCTCTACTGTTTTGGAAAGAGTGactcattcaataaatatttattgagcacctattaggttctcggtactacggatacaacagtgaattgaacaaagtttctgctctacagagctgtggggttctcgttgagcctgacagatgataaacgtgtcaaatgaagataagttctctgaagaaaaataaa
0.6114865499427397 TTTCACTTTGAAGGCTGTGAAATTGTGGACTCATCCCTTGATCTGGAAGCAAAACTGGGAGACGTCACACATTCCAGCTTCATACCTCAGGCAGCTGCCAGCATTGATCTGCGAGGAGGGCCCTGCCTCTTCTGTCTCCACCTGTTACTTGAAAGCCAGAGAAGAGTGACTCATCAGCGGCCTAATGCAGCAAAGAAGACAAATAAGTCTCAGCAGGTAGGGTGTCCCCAACCATGCTCCACTCAGAGTT
0.2272785517195146 CAGAGGGGCACACTCCCAGTTCTTCCTCCACCTGTGTCCACCATCAGCCACCCACTCCCTCCCAACCCTGCCCTTTGGCCACTGACTCATTCCCATTCAGGCCTAGACCTGTGCTCGGTGCATAGTCTCCACTCTCCCTCTGCCAGTGAGGATGGCAAATATTGTCCTGAGAATGTGAAACCCACATGGGCCTCTCAGAGGCCCGATCCTGGCTCGGTCTCCTGGATTGCTCAAGCATTCctcctcttcc
1 ttccctagcacatggccttagtctgagcaaactgtagcaacaactataggatgcccaattggttcacattttaaaattgggtgtggacaaaatcagtcatagtaaaactgcgtaaagaatgcagattgctcaaagctatgtccttgagcaataaaaagccgctttttatgaggaaattacactgtCGTTGTGCAAGAATAATATtgtgctggacaaagtgctaaattctttttttaatcatcacaacccc
0.5070621941057497 CTCCATCAGAGAAAACAAGAAGCTAGTGAGGAAATAATGTAGAAGAAAACTAATTAAGTTCACTGAGACAACTTCAAAATATTGCTCCTGGAACAGCAGTGTTTATCTAGTGAGTCAGACTGCGGACTGATGTTCAGGGTGTGATCTGGTGCCTGCTAATGCAGACAGAAGGACTCGGCAAGTGGAGATAATTAACTGTGGCTTGAGGTAGTGGAGAAGGACCTTTTTATCATTAGAAGTTTAGTGGATC
0.7073122955879981 tctctgtattgttccaattttagtatatgtgctggcaaagcaagcacCCACTCACTTCATATTAAAAGAGTTAATCATATCTGTACACACTTAGACAATGCTAAACCAATTACTCATTATTTGCCTTAGGAAGGAAGTCTGGTTGTGCTGTAGTGCATGGTTAGGCTGCTTTTCAAAGTCCAGTTGGTAGGATGCTGAGCAAAACCTTGCCAGAACTCAGAACTGTGAACTTTACCATGACTCTCCAAGT
1 AAGCAATTTGTTTTCAATCTATCCATTGTGTTTAGTATGTTATCATTTTCTTTACTTGTGTTAAAACTTTCTTTTGTCAAGATTCTATGTTGACACAATTGAGTAATGCAGAGCACATCAGATTTTCCACTGAGAGTGCACAGTACACTTTCATCTTCACAGTCTTGTATTACCTCAGCATGTAACGGGGCAATTCTATTTAAACTAGAATACACATTCTTTCAGCTTTAGTTTGTCCTATGTATCACTG
1 GGAAATGAGTGGCTGCTCAGCAGGCCCAGGTTCTGCGCTGCCCTCACCTCCTCCTGCGTCCACTGTGTGGCCTTGCTAATGCACCTGCCCCCTCTGGACCTTGATTCCTTGACTCTGGTGAATCATCCTTTTGGCATCTCCCATGGAGATGCTGGGGCAGCCTCAGAGACTTCAGGTGGCCTAGAACCATGGAAAATGGGGAGAAGGGGTGGCCAGGGGTACCCGACGAGCTCAGAGCAGAGGGTGGGGA
0.6782258935044639 AAAAGAGTatcagaataacaataatgcctactttatggggttgttgtaaagtttaaataagctaataaacaaagtgctCAGGACTGTGGCTAACACAACTGTTCAGTAGTTGTTAGATTCTAGTTGGCCAAAACAAGTTTATGAGTCACTAAATCAACATTTATTCTTAGGATTTACTCCTCTCAGCTCCCCAATTCTTTCCCATTCTGTATATTCCTGGTATGAAATTCTAGAGAAGTATATATTAATT
0.4920234617198381 TGCTTACCTGCAATGTATGGGTTGTTAAGATAAAACAGGGTGGGAACCTGATCTACCCAGGCATATCTTTCATGTGAATGTGAAGGAAATGATTCATTGACAACCCCAAAGACCTTGCTGGGAAAACACAGCTCAGTATTGCATCATCAAGCATTTGAAAACAAAGTGTCAGGAAACAGTTTAGAAATCAGTCTCTATCACTTTCTCTTATTAACTAGTTGTTTGTATTAATAAGAGTAACCACCACTTG
0.7822516781023311 aatatcattaggctttgggagtcttgggactgaattctgattccaccactcactgcagtagtgtacagcctcagatgactcattttatctgtctccgaggcttgtttgtttttcatgtatacaatgtgggcagtaatgcctgccctgcttTGTTCATGTATTTCTTAGAAAAATAAAAGGATGCCGTTTAGAGCTACAGCAccaatactgcagccactggccatatgggactactgagaacttggcatgg
1 TCATATGGATTCTCCTTGGGCAGATCTCCTGCAGAGGAGGAAGAGTTAGAGAAGGGGGAGAAGGGAAGAAGGAAACACACGAACTCACACACACACAAATAAACAAGCAGAATTCCTGTGAACCAAAGAGAATGGCTTCTGCCTGGCCCCTCAGCTCATGAGTCATGCAGCTGCCCGTCTGCAGTGGGGAGGCTACAAACAGATCCTGGCTCCAAGTCCAGAAGCAGAcccacccccccaccccccccaa
0.4376847759294307 AAATTAATCCCACATGATTTTCAGGTTCAAGGTGAGAAAAAAAGGAGAAAGTACAGTTCTTGTACCTTGACACACTTTATTCCATCTGCAGAAGTGGCTGCAGCTCACATGTGTGACTCACGTTGGAACAGCGGGCTCACATAATAGCATCACGTGCTGGCAAAGTGTTCAGATGACAAGCCAGTTACCTCATTCGGCTGATGCAATCCTGGAATTTCCTGAATTGAAATACAATTTAGGACCAGAAGGG
1 agcatcctatgtgagctcatttctcaaggttcaaaaaagcttactagggcagattgagttttgactgcacaggccccacttgcaccagagctgtgggacccccctagaggcagactgccttgggttatatacctcagcggcagcatgaatcactgagtaaatatttgaaggacatcctgcatccaggagaatgagaaactaagtcttgaatattgcaggcaattcctttctaactcaagatgttacattc
0.3742437265187898 CCTCATTAGTCTAGACCTGAGTGTCATTGTGGAGTCAACCACCACCTGCTGCAGATGATCTGCTCCCTTTCTAGGGACCATGAGAAGTTCCTGGAACCTGTGTGAAGCAAGGACAATTCCCAGAGCAGAATGAGTAAGCCACCAGGAATTCAGCCATGAGAGCAAAGCACAGAGCAGCCCCTGCACAGGGTTTTCAGCCCTATGCATTTCTCCTTCTCTCCAAAGATTAAAGCAGGGGAAGATTCATTTT
1 cctgggtggtgtgaccatgggcaaatcatttaactttcctgggtattattttataacatgtagataaagtggacaataaAGATTAAATAGGACTGAGGTTTAGCAATGTAGGAGTGATGCAAGTGCAAGATGGCAATGGATCAGAGAGTAGTGAGTCAGCACTGGAATGAAGACAAACACTAGGTTCTTTATGCGTGAGAAAATGGGAAAAATAAAATGCAAGGCAAGAGCGATCAAAAGGAGAATTTGG
1 TTCCTTCTTTGATGTCAGCCTTCCACTCTTGATGCCTATTCCTCCATGTTTACCCAAGGCCAACTTTGAGGGAGGAAACGTAGCTGTGAAAGCACTGGCCGGAGGGCAGCATTCTTTTCCAGTGCTAGAATTCTTTAGTGTATGAGCTGTCACCCAGCCCCTGGTTTTCTATCTCTGATTAGTCAAAGGGCTGTAGAAACATTTATACTCTCTCCTCTGGAAGAATTCTTCGGCACACTTTCCCACCTAC
1 ACAGCCCCAGGGAAGCTCATATTTACCTGCTTAGATGAAGAGATGTGGTAAGGTAAAGTGTACCTTTTCTAGTAGCTGTGGTTTGGAAATTGCATACCTTATTGCAGAGTCATTGTTTTCACAGGTCAGGATTCTATTCTATTTCTGCTTCTCTCAAGCTTTTGAGGCACCTTGTACCTCAGCTTGTAGCTGCGAACAGTGTTGTGGATATCCTTGTACATATCTGCAAGTCAACAGAGAAGATAACAGA
1 aaggtttcaccatgttggccaggcagatctcgaactcctgacctcaggtgatctgcctgttttgaccttccaaagtgctgggattgcaagcatgagccaccgtgcctggcccagagactctttattgaaattagttaacaagtaaggctttgtctaaaaatttggagtcagcagaaaggaatgtttaagttgagataaagAAGCCTGCTAACCcagcggtccccaacctttttggcactagggactggtt
0.7880036016958268 agtggttacattgttgtgattctgatgagtgctcagtgatgccatacataaggtaaatatacagttgagtgagtagggagaaaggctaagcatcttagagtctggtggaggaagggtgactaattccattctgtctttgttctacatctgATAAACAGGTTCATGGCCAGCCCCTGTCAACAAACTCCAGTTACACAGGCAAGAGATCAGCTTTAGTTTATAGGCCTGGGTTTTATTACCCATATGCCCA
1 CTCCAGAATTGGTAGCTGTCATCATAATCATTGCCACCAGGCTAAAGGCTAATAACCTTAGTGCCTGCAGcaaggagctctcaacttagtgtgggaaagagacaagcaagcaaacatttacactaGTGTGATGAAGGGCATAGGAATGTGCAAAATGATGATCCATTCTGCTACGGGAGGAAAATGCCCATATAATCACAGAGGGCAGAGGTCCAGAGGTCTCTGGCCTGAGCCTCAATTCCAGCTCTCA
1 ataaatagtaatttgaatgaatgaatAAAGAACTCGCTATATTTTTTCCTATTCATTCTTCATTGCTGagtcattgcccttataaagctcacattccagtcgtgttgggagaacaaacaaaaattagataaatacgtagggtgtcagccactgacaaatgccatgaagaaaTAGGggtcaggcgtggtggctcattcctgtaaccccagcactttgggaggccgaggcagtaggatttcttaagcccagg
1 GGAGATAGGGGAACTCCTAGCCAAGAAAGCAGTGCTGATGCTGAATGGAAAGCAGAAGCTGCAAGACCTGTTTCTAAGGAAAAGTGGAGAGTGGACAGGATCCAGGGGGTAAGGGAGAGGACTGAATAGAGACACAGGAATTCATGGCATGTGGGATTCTCTGAGTCATAAGttcaacgatcatttgttgagttcttcctgtgtgtcaggggttgttttaggcaccgaggataagtccttggtgtcaaat
1 GTGAGCCACTGCGGAGGCCCCGCCCAGCTGAGAAGCAGCTGCTTGTGTTCTGCTTCCTGCCTTCCCCATCCCTAGGCTCATAACCCAGCAGCAGAGGAAGTGACTCATCTTCCCAGATGAGATGGGCGGCATGCTTCCCCAGCAGCTCTCAGAAAATCTGCCCGAGCCACAGAAATGAAGCCGGGCAGCGGTAGGCTGTGGGTTTCTAGAGATCACTCCATGTGGTGCTGCTGCACTGACTTTCCAGAGC
0.2394412394945559 AAAGTCCTGAGCATTTCTGCCAACCAGCTTAACCTGGGCTATGCTGTCATCCATGGTCCAGACAGCCACGTGGGTGTTAGAAGCCACATGGCCCATCTGTCTCCTCTGAGGTCACTGGAGTTTATCAGCTGTTGTGTACCCTTAGCATGAGTCAGGAGGGTTCTGGGAAAATGTCTTTCTAGTTGAAGGACTGGCAATTCAGTTCAAAGATTAATAAACACAAAATAACACTTGAGAAGCATGTGTCATG
1 CGTAGGACCCAATCATCAAGGCAATAAACGTGGACCGAAGGTCGCCGAACATGTTGGGCAGCTGAGAGATAAGAAGCAGAGAAACCTCAGTGGGGAGGATGCACCAGGGAAGGGGAGGAGGAGGGGACAGAGAACTAGGCCCCATGAGGCCCCTTCTTCACCTGCGCCCCTTCCTGTGTGACTCACAGGGGCATTAGTTCAGGGGCAATGACCGCTCACTGAAGGTTTCTCCTTCATGGACTGAGGCTGA
1 TTGTGGATGGTTTACTCATTAAACTGTTGCTTACAATCTATCCCAACTTGTTTTGCCTACTCTAGTTTCTCTCTTCACAAACTATCCCTTGTTCAGGCGGAAAAAAAAATGTGCATGAGGAATACTTTCCACGCATCTTGCCAACCCTGTTAAGAAACATTTCATTTGTTCTTCCAAAGCTAATGTTTACCTTTCCGCATAGATAGGACTTTCATCTGAAATCTGATATTTTAGAAGTTTTCATTTACCA
1 CCGCTAGATGGGTATTTACGGCAGTGTGGAAAAATGACAGTCAAATGGTTCATGTCACAGGCTTATCCAGAGTCAATCTTTCCTACATGCCAGAAATGTGAATAACACACATCTTTACTTAGCACTGCTTGACCTGATAATCCTTTATTTACATTTGGGAAATCTAGTTCAATAGTCTtttgtacactcaccaaatatttattgaatgctttgtatttacatagcactgggagggacacaaagaaggtgg
0.846757263689245 AAATCTAAAGAAATTCCCTCTTGTTCCCAGGCCTTTCAAACAGTGAAGTCAGGAGTAAGGGAGACTGTGGACTGGTCAAAGGTGGAAGTTAGACTCACTAGCTGGTCTAAGGAATCCAGGAGGGTGGAAAACATGAAGAACTTACAATCCTTTATGCTCTCAATGACTCACTTTATTTTGGCCATGAGACACAGCCTTGAAACTTTTTTTTTTTTTTAGGCTCTGTATACACACACAATTCATAGAGTTT
0.3284659875391659 AAAAGAAATGGATGCTCATCTCTAGCAGCACTGCTAATAGCCACGTGTAGAAGCTCGACTGCTCTGACCAGCTCTGCCAAGGGCTCAGAGTCAATTCTCTAAAGCAAATAGAAGTGAGTCACAGAGCAGTGCCTGTCTTCCTCTCGACCATAGTGCCGCCCTCCAAATCTTAATCGTACCTTTCTAATTATGGATGCCTGAATTTTTACATTTATATCTATGCCATTTCCCCCATACTTTAATCCCTTAT
1 agtttgagagaaattctaatcaatataatttccttaaggacaaggccaatgtttcctgaacattaaaactttgtacccatatcacagttcttcttcattaaaggaaaagatctaaaaccaacacaaactattgattcaagtgactcacactagaaacaaacaccactcaaacagttccactttcatccacctctccaaacaacaatatataatgtactatttctgttcagaacttataaaagccttccac
0.3619773107745342 CATTTtcctgttcccactgtactctgtacctattctgcactatgtacctggcaaagggtaggtggtaatacatgcttgttgaatgactaaTGTACCTTTGAGCTGATGTAGAAGTCCAGAGTTTGCTAGTAAAGAACCACATAACATTCCTAGGTTCATTGTTTGCAGCCATTATTGTAGCTGCTTTGCAACTGCAGAAATCACTACAGGTTTTCTGTTATGAGCCCACAACCATAGTCAAATGTGGAGC
0.9432587241978662 agtgtctgcctccggagttgctgtgaggactgagtgagtaactatgcatagagaattcagctttgtacccggtacaatttctatgctcaataaGGGCATTATTTCCTAACCCTGAACCCTGAGCCTGGTGAAAAGAGATTGCATAACATATATTCCTGAGTCACAGTGGTGCAATTTTCCAGTGTTTGCAGATTTAGGGCACTCCCTTGGGGTATAATTAGAGTCAGATTTTGGAAAAGGTTGATCCACT
1 cagagatcgccccattgcactccagcctgggtgacagagcgagactccatctcaaaaaaaaaagaaagaaaagaaaaaaaaaaGAAAAGAGAAAACAAGGGCTGAGTCTGAGATCACAAGGTTGGTGAATAGCAGAGCTGTGAGTCAGACTCTGATATGttttttttttttttttttttgaaacgaggtcgtgctctgtcacccaggctggagtgcagtagtgggatcatagctcactgcagcctcaacc
1 CACGTGCACCGAATGCACACAGGCCCCGTGCCTGACATTCCCACCACCTTACTAATGCCCGGTCCTCATGTTTACTCTTCGTTTAGGTCAAGGAAGCTGATCCGCTGAGTAATGGCTCAGTCATGATTTTTAACACCTCTGCCTTACCACATCTGTACCAAATCAAGCAGCTGCAAGCCCTGGCTAATTACAGCATTGGTGTTTCCTGCATGAATGAAATAGGCTGGTCTGCAGTGAGCCCTTGGATTCT
1 agtagctgggattacaggcacgcgccaccacgcccagctaatttttaacttcttagtagagtcggggtttcaccatgttggccgggctgctcttgaactcctgacctcaggtgatctgcctgcctcggcctcccaaagtgctgggattacaagtgtgagtcaccgtgcccagcTCCATTAGCTTATTTGTAAAAAAGAAATGAAGAAGTAAAAGCTAGGAGTCTGGTCTGACCCAGAGAGAGGGAAAGGG
1 AGGATACCAGCCTCCAGGTCCCAGGCCTGCGTCATCTCTGCGTGCCCTCGGCCAGGGCCACCAGACAGAGACGGGCTGGTTGAGTCATCCAAGGGCTGGGGGTGGGGCAGGCTGTTCCGGCCGGCTCCTggctggcaaggcaggagtcctacgcccagctctgcccctaacatgccccgtgcccttgggcaagccTCAGCATCAGGGCTGCCACGCGTTCGGTGGTGCTCGAAGCCCTTCAGCGTCAGGG
1 gctcattccctcttccttaaagctcaactgttaggtctgctcttctccatttatattacactcccttggagatttcatccagttaatgtgtaacttctatgcaaatgacttcaataccctatcagtacacctgaccgcattccagatctctgactcaggatttttatcttgcatgcatgacatacttacttgaatgccacctcaaattcaccaaatgccacatctaaaattgaatccaatcctgacttac
0.6787504916637546 TCTGGGGTTTCACATCTGTAGTTTTGAGGCACCCATATTTCAACTACCATTAGTTTAAAAGCATGATGTTACCCTCATAAAAGAGTGTTTACATGTGTTAGCAATCCTCTAACACATGTAAGGTAGTACAGATTTACAAAGGTGAGTCAGACCCAGCTTTTCAAGGGCATGCTATCTAGAAGGAGGCGTATCATATACAAACAAAAAGTTTTGTGTAGGAGTATGTTTATTGGTAGAATTGGAGTTGGAT
1 AATTATAGTAGTAATGGATTGTTGAAATTGCTGTTTACTTACTGGTTCTTTATGAAATAAAGAAGTGATGGAGGTTCCTTTTATGTCACTAAATTATTAACCATACCTCAGATAATATGCCATACATTGTCTTTACACAGTGAGGTCATTGTGTACTGATGGTTTGCAATCAATCAGTTGTGCTAAAGACCAAGTTTAGTATCAGTGGGTGTGTTTGCAAACCATTCTGGCTTTGTGGTTAATGTTTATG
0.6752325127761007 AACAGATCTTCCACTGGCCAAATTCCACATTAATCTGCCCCAGTGACTCACTGGCTGTGTAGCCCTCCACAATGCTGGTTTATTTACTAACCTCCACAAAGCTGGTTTATCTACTAACAGGTATTCATTCAATGATTCAATGAGCAAAAATTTTCTTTGTGCTCAGCACTGCACTAGTTTCTGTGCCAAATACAACAGAAGTGCAGGGTACACTCTGCTCGTTGAAGGATCCGAAACTCAGACATGGCCA
0.4946806535926093 AAGGCTGTAGATATTAATGAGTCAGCATGATGGCCTTTGGCTTCTTCAGAAAGATTGCATGATAAACTCCCCCACCCTTTTCCGAGCAGTCTACCTTACTAGGAAAGGCAGTTTCATGTGGAGGGCAATCTGTCATTTTTGAATAAGGGCAAGAGTCTGAGGTCCATTCTGAGTCACTATGAATAGAGCTCTAGTATTGGTTGGTCCCCAGGGAAACTGGTGGTTAAATACTGTGAGAATCTTTATCAGA
0.5884477335495967 TAGACAAAGACTTGGAGCCCATGGTGTTTTTCACGTTCAAAGGTGCTGAGGCTGGCTGGGTGACTGCCAAGAGACACAAATGAATGTGTCCCCAGGGTCATTGTTCTACTGAGTACACATACAATGTGACCATTTATAGCTCTCTCCCCTGATTTTCTCAGTgagtcagtacagtgtggggggaagggccaggacttgaagagggactataccgcctctgtgactgggtgaccttgagtgagttctggaa
1 TTTCTTTGAACTCCTTTGAACATACCATTACAGTTCATATCTCAGCAATCAAAGTGCCTGCCAGAAGGTAGAGCTTTCTGGGgtggtgtgtgtgtgtgtgtatgCACAGAGGAGGAAGTCATTCTGCCTTTCTATTTGTAATTTCTGTATTTGATTATCTATGTTTGAAATGACTCACAAAGAATAAAAGTAACCACACTACTCAAAGTAGCTGTtccccaaactgttcgttacccttacactaagagat
1 TTTTTTGGTTTGGCAGTCTTTATCTAATCTTTGGGAGAGGTTAAAAGCGCAGATACACAATGTGGAAATTTTGAAACTTCCCCTTAATGCAATCATCATTGTTTGAAGAGGACCAAAAAGAAGAAAGCAATCTATCGTATATTTTTTAAAGCAGCAAAATAAATTCAAGAGCTTGTTAAAATTCTTTTTAATTGTGGCTTTGACATACTATATGGTTTTTTTAAAATCTAGTGTTTAAAGAAATCCTGTA
1 CAGCACTCCCTTATATCCAGAGGAAAAAGGACTTTAACATGACCTATTTCTAGTCAACCATCTCCATAGCAACTGTCTAGGGTTTAAGTTGAAACAGCTGTATGAGCCAGCCAGTGACCAATTACAATGTAAATAGGACCCACGTGAGTTTTGAGGTCCCCTTGAGAAATGGACTTCAGAGAGCAAAGACATGTTTCCCACCTCTCCCTGGGGACATAACCAGACTTGTAGTAGCAGCTTAAAGAAAAGG
0.8924676987052317 TCTCACAAAGGGAGAATCTGGGACCTGATGAGGGCAAAATACCTTTTAAAGGCACAGCGGAAAGCATGGTTAGAGTAGTGTTTGCTGTTGTGGTTAATGACCTTGGCATGCTGTTCTTAGCACACACACCTGAGGAGGACATTGATCACTGTCAGCTGTCAGGAGGCAGCCTGACCTCTGACTCATCAAGGAACATGTTCTGGAGGACGCGCATTACATTTCTGACATATTCATTTGGTTTATGTTACCT
1 TGTGCATGTTGCCTCATGCGCAGGAGGTGGTGTGCAAAGATCTTTTGGTTTGTATCGTGGCTTACAGGCTCTCATTTAGGCCATGGCATGGTACATTCCAATACCATGAGTGGTTAAATCTCAGGAATTCCAAAGTGTATGAACGGAGTGATGTCAGCTGTACTCTCATTTCATGCTATGTAGCCAGATGTCGTGTAGCTAACCTCAGCAGTTACTATACATAATGTGCTATAACTGGCTGATTTAAGGT
1 ccattgcactctggcttgggcgacaagagcaagactccatctcggaaaaaaaaaaaaaaaaaaaaaagtagccaggcatggtaacacatgcctacaatcccagctactcaggaggctgatgtgagaggatcaattgagctcagggggtcaaggttgcagtgagtcatgattgtgccactgcactctagcctgagtgacacagcaagaccctgtctcaaaaaaaaaaagaaaaaaaTATATATATacacac
1 TACCCCCCTACCAACTTGCAAAAGCTTGGGAGTGTGCAGGAACAGGCAGAGGGCAGAACAGGCACTCCCTCTGCCCATGTTTGCAAGCTGACAGACTGCAGGGAGGAAATGATTCATGCCACAGAATCTCCAGCCAACTTCGTGTCACTGGACTTTATAAAAACAAATAAACTAAAGCTTTTCAACAGACTGGAACTGCTTAAACAACTTTAGTAACATGGCTGCTTTATAAGGTCCCCGGGCAGTTCAA
1 GGTTTTTGTTTTCTTTTGTCACAGTGCTGTAAATGTTTGCTACAGTTGTTAAGGATAATCATAGTTGTTTTAGCCAAAAGATAGGAACAAATGCTTGTAATAAACTTTCTTATCTTTGGGACTTGAGAAGTGTTAGCTCTTCCTCTGAGTCAGTATTTGCTCAGAACAATACCCCTTGATGGTACTAACATGGTGTGGGCAAAATCAGAAGAGGCTAGGAGACACCGAGAGGTTTATTCGGTGATGTGCC
0.6068188266189972 ctgcactccagcttgggcgacagagtgagactccatttcaaaaaaagaaaaaaaaaagtaaaTACAgccaggcacggtgactcatgcctgtaatcccagtagtttgggaggccactgtgggcagattgcctgaggacaggagttcgagaccagcgtggccaacatggtgaaacccagtgtctactgaaacacaaaaaaattagccagttgtggttaacgcgcgcctgtagtcccagctactcgtgaggct
1 TCAAGTTCAGAGGCCAAGCGTTTGTCATTTTCTTCCAGTAACTAGGACTGTGTCTTGCCCCTAATAGTTACTCAGACTATATTTGCTTAATTGAATTAAACACAGTTGCCTATGCCCTTTGAAATTCTGGACTTTCAACAGAGGGCCTCTAGCCCAATATTTGCTTACCAAACTGGACATCATTGATGATCTGGATTCAGGCAGGGTCTGGAAAAAGAGAGACTGGGCCAAATTAAAATAATCCATTCAC
1 GTTAAACTTAGGGAAAGTAGTAGATTATGACCTGTAACCATGTTCTTTATTAAAAGTTCTGTCTAGTAGTGAACTTTGTTGCCATTTCATCATGAGCAACCACATAGGAATTTGTGAGATTTTCTCTCATTGTTTGCTGGGCATGAGCCGCACAGACACTGACTCTGCCATTAATGTCTTTCAGTGTGGGAATTTTGCTGTCCTCGTGGATCTTCATATCTTGCCACAAGGTTCAAACAAAGATACAAGC
0.225494192928208 AGATATGGCTGTAAACCAATAAATCACTGTTGGCTTTTATCTGAACAATTTATACGAACAAATAGTTTACTCCTCTGGGCCAACAGCTCTCCTATCAGGACAATAGATTACTCATCTGGACaaacaatttgctcaacaaacaatggttttttattaatatttgcttccaggcacttcccttcctgtgcctgtcaatcctaaactataatgtcacaaactttgtccaatcctgttacctaccttgaaagag
0.1598954308900286 TTTTATTGAAAATCTGTTAAACTTATAATGCATATTGTcatctatggcacacaagtaattggtgccttgggccttggaagataagagtagctcattttggaaaagtaactgagtcttaggggcttattatttcctggtgaatcatcaaagtaaacatggtcAGTATATAATAAAAGCCTATTACAAGGCAGTTTGCTTTTCCTCAAAGTTAAACCACAAGTCATACCTTGTTGCCTATGTACATAATGAT
0.9738510502259352 tcatccttcatttctcccttgcctctgtacgataaccgggagttcccattttgagaagtacagccacaaaggacacttgttagaactgagtcatcaccagcaagatctacaatgaactttgagcaaaagcaaacttaatgtcttaagccactgagatgttggggtttgtatgttacCACCAGCCTGACTGCTACAACCAGtttttcatactttatgcacaatctagaaatccttcataattctgagtaaa
0.2173486294086743 ACTTGCCAACGAGCCCTCTCACAGGTGTTCATCTTGCTTATTCAGAAATGAATATTTCACAGCTTCCTGCCCTGGAAATTGGCTTCCACCCAACTGAATGAGTCACACACTTGTGGATAAGCTCTCTTGGGTAATTCTTCTTTAAAACTttttttcttacggtaaaatgtacacaacgtaaaattgacctttttaaccttttatttttgagaccaggtctcactctgttgcccaggctggagtgcagtta
0.2408599530632556 TGCCCACACCAGGATTTTCAGGCAGTTGTTCCTCTGGTGAGGTAACATTTGTTCTGTAGGAGATGGCCTTTAGCACCAGCACTCCTGTTGTCAAGAGGTCTTTGCACTCAATCACATCTATTGACAATCTGCAACCTGCTAGGTCATGGACTGAATGCTTCATCAAGGTTATTTATGAGTCACCATGACTTCAGGGTTTTTTTGTTTCATGCAAAGATCAGAAGTACAAAAATAGCTTTATTTAATCAGA
0.4369455038962566 GGGCTTCTGCCATAGTCCTCCCTGATTCTGTTAATCATTGAGCTCTCTTTTTCCAAATTTAAGAATGAGTCATTGCTTTAACTCTAGGGCAGCCCGATAAAGGTTCAGCATCAATGGCCTGCCCTGTGATTTCCAGGTCAAAGGAAAAGAAAAAAAGAGAGGAAAATGACAACTGCCAACTTAAGAGAGGCCTGTGAAGAGCGTTTCTGCTGAAAAATAATGCTGACCTCCAAATGACCTTCAGTACAAT
1 GGATTTCCAAAATGCAAACTTAGACTAGAATGTACTTTCCATTTTTTTCATTCAAGAGTCTTTATCAGGAGCAACCCCAATGTGCTGATTAAGGTTTAAAAAATTTTCAAGTTTTAAACCCTGTTACCCTGGTGGAGAGATCCTGGCTACCAAACAGACTTCAAAGGCACCTCCAACTTGCCCTAAGCCACAGACAAATATTTGCTGTTACTCTAGTACTAGGCAGCATAGGGCCACTTTGTCCTTCACT
1 aacaggcatgagccactgcgcccggccGTGTGCACACAATACTTCAACTTACTGAACGCTTATTCTTTGTGTCTGGTGCAATAGTGACCTGCTGGAGATTTGCAAATATACTTAGTGACTGGAAGGTTGTATTTCCACCCGGATGTGTTGGCTTTCTGCTCCAGGAATGTCCTTTGACACGGGCTCTGCCCTTGGatgaccaggtggtcagcctgccttggctgtggacttctggtgttcagagctgtca
1 taagttattgaatgctgaaccgtaggggaaatacagggttaggttcctgtgtgcctctggtcacaacattctcatcaaccttgtttaatatatatcggtgattcattaacatcaaagctatggccagcagcactataactcatgtctgaacaaagtttatctaacgtaagtatttgctctgcaaggcacatcacagccctcttaagctcaggaacactagacagcaattcagcattacccttcaaggcca
1 GTTGCTTGAGCTACTCTACTATTCAGAGCACTCTGTTAAATATTGTTCCATATTGTTTGCCTTCCTTATCAGTATTTCCCAAACTTCCCTGATGATATGAATCACCTGAaaaacatgaggtgcctctgtcactcaggatttggtgcccatagtggaagaacaatctgcaattctcaacatccaccaacatgttcaagccccagtgctctcagcttttgctcttcgtttgcaacatgaaaggtgacAGAAC
1 AAATAGTAATGCTGGGCATCAGATAAACAGTCTAAAAGAAAAACTTGACTTTGGGGAAATAGAATTTCTAAAGAGTGACACATCAAAGAATGAAGTATGTGTGTAATTTGGTGATTACATTTTCCAGGAACTGGCAGAAGAGATTGCACTAGTTCAAAGAAAGCCAAAGCCAAAGGTTACACTCTCCGTTAGAAAATAAGAGCGATTTCACTAGTATTGAAAGGCCCAATCTGACAACTGGTAGTAAAAG
1 GAATAGACAATATTACAGATGTGTCAATAAGTTTAGGCCGAAAGCAAGAAAATTCAGctttttttctttcttcctttcttttgcccttccttccttcctttctttctttcACAATTAATGTACTACTCATGAGAATGGAATTTTTTTACAAACACTGGGACAAAGGTCAAGGCGTGGGCAATGCTAAAAGAGAAAAAAGGGTTTCGATTAGGTAATTTGCTGGTAACACCTTCAGTAAATAAATGTGAGA
0.5962464064864856 TTAATGAGTGATTGCCCCGGATGGTAGGACATTCCCCGAACAAAGAAAGCCACACTCTGGATTTATTAACTCTTAGCAAATGTTTGTTCGATGCTGAGTAATAAGGAGGTTTGCCGGTGCAGCAAGATAAAAGGCTTCTCCACTTTGTGTTTATCCTCTGGGTAATGAACAAACAAATTGGCGATTTTGTATTTTTCCTGTTGGAAATTCATAAGGTCACCTGGGGAAAACAGAGAAGGTTAACTGGCAT
0.9980161436468327 TCTGGGTGTCTGGGAAATGCCTGTTTCATTAGGACTCCTGACCCCTATCATTTTACACTTCAGAAGGAGTGACCAGCTCACTTAAAACAAAGAAGCTTTGACCTTTCTCCCCTTCTGAAACCAAAAACAGATGAAATTAAAGTGACTCATTTCCGGTTCTAAATATACTCTAAGAAACATCTTTTTCAAGTAGTTTTGGGCTGCGAGTTTTTAAAAAAAATTTTGCCTTGTTTTTATTTTATATTTCCAC
1 TATTGCTTGAAACAGTAATTCCACAGATGTTTGAGGGTGAATTAGGAGAACATAATCAAATATCCTGAAAATTCTGTTGTTTACTGGCAAGTCCTGAAGCTTGCTAGGAACAGAATTACTCATAGGTGACCTGCTCTGGTCATGGGGTCAAGTGGAAGCTTCCGCTGTCACACAACTAAAGAGAAAACCTGGTGTCCACAAATGCCAAGGGCAAGGGAAGCCAAATGCCGATGAAACCAAATCCCTGATC
1 ttgatcacttggttaagatggtgactgccagctctctccactgtcatagcacaaagcacatttgcccctgtggttaataggtaatctgtgatactctgagtcatctgatactttgagaccatgtgaatatcctgctcgccagcagtctttcacctggtgcttttagcattcagtgatgatccttgcttgaTATTTTTTTTGACTTATGTGGTAGGCACACGTGTACAGGTGTGTGTGTGCAGAGGAGCAG
1 aagaggtaaatccgtcattttgtaacaacatggatgaatctggagaacattatgttaagtgaataaatcagacacagaaagacaaatactgcatgatctgactcatatgtggcatctaaaaaagctgatctcatggTCTCTACCTATAAGGAGCTCTTTGTTTAGTGGGAGAATGCTGGTATTGTAAGTAAGCATGATAAGTAAGTTAAATATAAACCATGGGATGTAGCTGTGGGTAGACTGAACCAGA
1 gggtggccacagccacgcccaggaatgccaggcccctgtctgctcctggctctcactggctccttggagtgtggcactggcctgggcccagctccatatcagggcccctttctgcccacccctccatgctcaattacactgctcccccgtcagtgggtgactcagcccagcctcatcacagtggctcccagggcagtggactctagggggctcccagggacaggctccagggagtgcctgcctgcctcct
0.367807241025663 gtaaaatttaaaagaatgaaaatatcaaggtggagcttggacgcagaacaactggagggagtaagcagtaagaaccactttggaaaagtgtctggcagtttcgaaataagttaaacaaacacttaatgaatcagccaagttcaaccagggatgtggaaccactctctctgtggattgctacagggatttggccttactcaattgtaggaggtagttaagcaatcttgtaaggctattatctttgcatgtc
0.3342155717440434 cactccagcctgggcagcgactctttctcaaaaacaaacaaatgaacaaaCTGCCCACAGGGATGGAGCTAGCCAAGGGCTGGGCTCCTGTCATTGGGACTTCCGGAACCGGCCACACCCCTTCAGAGCACGGATCACCTACTGGGGGCAGAGGCTGCGCGTGAGTCACCCTTCCTGCTTCTGACAGGGCTCTGAGTTACAGAGCTGCTATGTGTGCGTGCCCACGGCCCCAACACACCAGTGCCTGTGA
0.9970138303408238 ttcttcagttttcagacctctctTCAGTACATTCAGAACCCCCACCTTTCCACATTTGGCCAGAAGGCGTGCTGGTTCAGACCTTTGTGCCTTTGCTAACAGACCTCCCTGAGCTTAGTCATTTCCTGTGCTGCCTCACCCCCAACCCCCTAAAAAATGTATCATCTTCAAGCCTCAGCTGAAATACACATTCTGTATGAGCCTTTTGAAAACTCCCAGATTGAAGTAATGATTTCCTTATTTTTGTCCC
1 AAGATCTGGAAAATCAGCAAGAAGATCTtagcaaacttggcaaatgaaaagggagaattattaactgcagggaaaagtattatatgagaaagaggtgtggtgtagtgcacaacatggctaaacattgcgtaacatttgcacagtcatgataatgtaaacactgagtattggtttagccaaaaatgctaatgtaactacatcaggggataggggaaggaaactgATGGAACACAGGAGTTTTCTAGGTATT
0.06109878432141633 cctggccctgcggtgattagggcaggtggatatcccagagtatgggatattggctcagagtatgagacgtcctgtaaaggagagattggggtatgggctccagattggttggtttacatatgaaaggagcagtcataggtgagtcatttactctctccaggaattggctagccttgggaggaacaatctctccaccgagtgagcaaggcccctcccatgtcaaagaatcaaacacgcacggttcatattg
0.5660339301262933 ACAAGTTAAAGTTCCACCCAAATACACACAATCAAAGGCTTTAACCAAGGCCATCATTACTTGTGCAGGGCCCTCCTGCTGTTTGGGCAACATTTTAGTGCTGCAGTGAAGCAAGAGAAATGTCATCAAAGCGACGAGGTACGGATAGACCCATTCGGCAGTGCCTTTTTTTGACCTGATGATTCACTTCACCTTGTCGTTTATAATGCTGCAGGCTGGGAGGGAAAGAAGGAAATGAAGAGGAAAAGAG
0.1075970911863464 gagaatcactCTCTGGTCTCCAGCAGAAACAGGCGCGTGCAAAACCTCAGCATTATCCCCAGTGATTTCCCaaacccagcgaggggaagtgactcgctcaaggtcatacagtgagtcaagaggcaaagaatctgagcccaagatcttctCCCTGCAGCACCCAGGCACAGACAGGCCCAAACTCCTGTTCCAGAGCTTGGGATACCAGGCCTTCTTGCTCAAGCCCTGCTGCCCCATAAGGTGAAGACCC
0.934767543170854 AAACATTGAAAATGACAAAGTTCAACTTGTTTTGAAACAGGCAATAAGTGAAGAACTGTGGAACCCTAACAAAGAAATATATTTAAAAAGTGACTCACCATGCAATGAATTTGCAATATATAAATATGGCGCGCAATTGAGCACTCTTTGCAATATATGAAGTTCAGTTCAGACAGCTATTCTAGGAGAGTATCTCACTGCAGTCCCAGGGAGGCACAGGTAACCACCAGAGGCAGAACACATTTGGGTG
1 cctttcccattgtttacttgaaaaatcttattcgtcttttaaaacccaaataattcattcctctactgggcttcatccaactctacattccccttgggattaatcatatcctgttctaggcagcttctgtactttggacagggttccactgctgcgttcttcacactgtgctgtaactgtttatttgtatgccttcctccctcacaagactctgaaaccttgagggcaggaactgcatcttcatcatctc
0.003932564477193827 tagcacaatgtcctaatctgttcctcaaattattgaactccttttcccctttcatctaaccagaaaatgtaatgctcaccctttcccccagttatggtaatgttgactttgaatcattcaggtttcggttcaaaggtcccctccttagaaaggtcctgttgtatgactctacagtaaggcaacctcagcactatccagtcactatcatgtctatcactttgctttgactttcttcaaaacacatactgtt
1 ctcctgtgggcagcactgGCCTGAAGCACAAACCTGGAGCCTCCAGCAGGGGGCAGTCCTCAGTCAGAGATCAGTGAGTCCTCCCAAGGAGCCGTGAGGCCTGACTGGCCACTGCTTCCCCTGTCAAACAGCTCAGACCCTAGGTATGTACTGATTACATAACCCTGGGGCATgccaggcgctgtggctcacacttgtaatcccagcgatttgggaggccaaggtgggcggatcacaaggtcagtagttc
0.994148992192446 TCCAAAGAGGAAGCAATGAACTCCAAGCAGGGAAATGGAAAGGCATCATGGAAGTCTTGGAAATTAGAAACGCAACAGGCACAGCAAGGTAAGGGGATTGCATGTCTAGAAAAACACAGCAGAGGGCAGCATTCAATGAACTGGTAGAAAGGTCCGGTTACCACGAAGGGGGATGAGTCATTCCAAACACCATGTTGGGCTCTACATGGAACATGTGGGAAAGGGCAGGGAAGTAATAGATACAGCTCAG
1 CCAAAGATGCCCTTTGAGACTCCACTGGGCCAGGGCTGGTGTTATTCAGGGGCCCCTTTCCAGTCTCACATAGGTGCCCCAGGCAGTTCCTGCAATGGGGTAGGGCTGGCATGGATGACATACAATTAGTCATCCATGACAGAGCCTCGGGACCTAGAAACCCGGGACACCAAAGTCTAAAGTGCATGTGTCACCGTGCCCAACCCCACCCCTTTTTCCATACCCAGGCACTCCCTGGTGCAGATATTGA
1 agccaccgtgtctggcctatatatgttattttaatcctcacaacaataagaaggtgtaggtactctattatttaatttttggaatgagggtttacataagtttctcaatactaaaaaattcctaagggacacagtcaatatttgaactcagatagtgtaaggccagagtcctttctcttactcactacaccacaccacACTGCATTCCTGAGATCCAGAAGTGTAGCAGAGCTGGATTATTAGACAAATA
1 TTGCTCTGGGAACAAAAGAAACAGTTCTGTTATACCACATTGGTGGTAATCATTCTTTCCCAAAATCATTGCTTGATCCCTTAAACAAACAAAACAATGTGAAATAACAAGCATTGCAAATACCTAAGACTTTGGTGTATTGACTGCCTATCTGTCAAATTTGACAGGAAGGATTAACCATGGTTTCAATATTTACACTTGGATTTTGAAAGACTAGATACCAAGTTGATGACTCTTTGAAAATAATATA
0.4334069827764859 ATTTAAGACATTTACTGATCAGAGCCTGTGGTAGGCAGAATTCTACCTGTTCTAATCCCTAGAGcctgtgattatggcagaataccacccctgtgattgttatgctatatggcTCTGTTGACTTTATGATAAAAGTTTTCCAAATGAGTCATTTGtaattacatgagctcctttaaaagcagggatgttttttctggctgatggccaaagaggaggtcagattcaaaacagaacaagggctcaatgtgct
0.2049720815769907 GCAACAGGTAATGAAAGAGAAATGTCCCTTTGGTGTTCCTGTGTGATACATGAAATGAAAGCTGGTGTCTTCATTCTGAGTCATCCAGTCCAGTGATAAGCAGTTTCACTGCTTGTTGGATGTTGCTGTACATCACAGAAAACAAAGACTAACGTCCTCCCTTTGCAGTGTCTGCAACTGCAGGGAGACATTTGCTACTGACCAAAGTCATCCAATGGGTTTTTCTGTTTTTTTTTTTCTTGAAAACATT
0.8677378826771149 ttgggaggctgaggtgggcagatcccctgaggcctttgatattacaaaggatggtgtaccaagaaatatcctcatggaaatccccgtgaacatgtgcaaaggaatctgtaggttacattcctaaatgctgagtcagagcatctcagcatttaaaattgtgattgccttcagaagaggatgcaccaatttatcctcccactagtggtgGCTTTGTGTAATTGGACTTTGTAAAAATCTTTGACACATTAAG
1 TCTGTTTTTAGTGCTTCTCTGTGGATTACCCCTCTAAGTGTGGAGAAAGACATTTTGTTGATACTGACATGTTTTCTTTAAATATGTGACTCAGAGCAGAATCTCTCTTTTGTTTGATAGGGAATGGAGTGTTATTTGTCACAGGAGGGATTTCTCGTGCTCTGTCAAACACTGCTGTCTTTCATTATCAGGTGGAATGTGTAACATTCTGGTTTCCACTTTGGGCCTTCATGTTGGCCTTGAACAAAGC
1 AAGAGACAAAAAGGGCACTCACAGAGATTTGGACCAGGGCTGGCCTCCATCCAGCTTTCTACATTATCTTGAGCTCACTTGGTGAGATAACATAGCTAGCAGCTTCTGCATTCCTTCCTGGAATGCCTGTGATGTTTGGAGCCCTGCCACATGGCTCAGGCATTAATCATCAACCAGTGGATAAATGTTGACTGAGCATACTCTGTTAGGTCCCTGGTGTGCCTAAGAAGAGGGGTACCCTTTCCCTTTG
1 TCCTCTTGCCTCTGGCTGCCTGAGTAAGCAGTCCCCTAGAAGAGCCTGACTCATTCGCCTTGGCTCCCTGCCACCAGAGCTGCAGGGAGGACAGTAGCCCAGTGGCTGGTGGCTTCCAGCTTGCACTGACTGCCCAGCCTCCTCTGGGGAGCAGATGGGGACAATCCCCCCACGACTCTGCTCCTGGTACCCGCACAAGCCGGggcctcccaggtcagctctcattccctggcacagacctgtcccacct
1 cacacacacacacacacaGCCTGCTCTGAAAACATTAACATAAAGCTGAAAGATAAATTGGCTGTTGGAATAAACTTCCTGGAACACGTTGTTTCAAGATGAATCAGCCAGCCATCTATTTACTTACCTTTATGCACAAAAGGAAAAGAGAGAAGGAGGGTGTTCTAAGACGATTGTGCTTAACAAAGAACAGAATGGTAGTTTATACTTCTAAAATTACGAATCTCAGTTTGAATAGAGTTATCCATGA
1 AAATTACCTTTCCaaaactagtaacatctttaaaaaatcctatcagttaacttactttttctgtaattgaaaagaatatcatagcttgtccttgtcagaagtccagcttgtgattcacctggggtcagcatagggcaaggtttaataaacactgAAATAACTAAACATTGTAATGCCTCATGGGGCTGCTTGAACTGACATGATTTCAAGGGCACTGAGAGGCTGGGGGAAAGCAGAGGGTCAGCAAGTT
1 TAACTTCGTTATTTTGGCGAGTACATGAAACAGCTCACAAATGAGCTGACACTTTGCAGGAAGCAATTATTGCCTAAGGTAGGAAGTTTAAATGTTTGCTTTTCTTTTATGCATCATGAAGGGGGAAAGGTCTTCCTATAAGTAAAAAAGATAATGACGTTGACACAAAGATTATAAAGAGCCATATTGCTTTGAAAAACTCTCTGAAATTCTAGTTAAAGATCAAAACACTCTTTTACAAAGCACATCT
1 ATATCAGGGCAGAGGGAAGGGAGTCATGGCTGCCCGTTCCCAATGTCCTGACACTCCACACTCACTCCTTGGGGGAAAGGTTACATCGCTTAGGATTACTCTACGACCAGATCAAACGCCCCGCTCATTCTTGGCTGGTGACACCCAAGGCCTTGACTGATTACATcagtggttttcaaacaactacattccatggcttcagagaagctcctcatcacaggggccactgagataagtgaggtttctgggt
0.3877592753645702 tctagctggggtcatctaataggaagcactggcaggagatcaaagggaagaaggagaaaagccaggtgtttcttccttgtttcctccctaattcagaaccacatttctggaggggtgtgtccgtccctgacctgtgccaggtgactcatccaccatgaccccggccctgcctgggctcctgaaacccttcttcttttcttcctacttcagcttatggatgtgaacagctctccactgttgctagactcct
1 gatacaatacagaagttacaatcattggatacagatcgcaacatgcaggctcaaatgtatccatgcaagacaatcagtaaaactctaagatccagaaataaatcagtgtccttttcagggtcactgggttatgcattaatcactgtgtcaacaatttgagagactcatgataagattcagggacaagatttcaccatgaatcacaagaccttcccaaggtgggttaattggaaagcctgtttacttttaa
1 accttggacTGCTGTTCCCTCTTAATTACAGTGATGAGACTGAACTGGATCCAAGGTTTGTGATCCTGTAACGTCTCTAGCTCTCATTCAGTTGGACTTTGTTCTCTGGAGCTTGTTCCAGAGAATTCAGAGTTCCAATTCTCTTAGTCACTCAGCGATTCCCAATGGGAAGATGTTATTTCATGCACTGGTTTACCCCCATTCAAGTTATATGTCTTCTGGAAAAATTGAATATTAACCAACTTTTAAT
1 tcattccgtcatcatttcacaacacagaccaaacaagaacattgcccaaaccacaaaaatgaacaaaagtccctgtttctgtctcataggagtgagtggtgcttctttttcaattacagctttagcctcagtttgttcttctagataagaaatattaagattccAGCTGAgccgggcacggtgactcacgcctgtaatcccagcactttgggaggccgaggtgggtggatcacctgaggctgggagttcc
1 CTCTGCGGCTTTCAAGCCTGAAGACACGCCAAATTGCCATTTGCTTTCATTACTGCGAGCTTGAAATATTCTAGTGCCAGCTTGCTGCATGACCCTGTGCCTCCGAGGGCCACCAAACTATTTCCATGATAGAATTCCCTCTCGCAGAGGTGCAGAGTCCACTCTGAGTCACTCTACAacacacacacacacacacaccacacaagcacacacacaccgcacacacagacacTAGCTACTGAGCTAAGTT
1 TATACACATCCCCCTGGCAATCTATACATTCCTAAAAGTTCAATCACTACCCATCTACACcaggagtttgcaaacattttataaagagagccagataggaagtactgtttgctgtgtgggccttatagtctctgtcataacaaaggtatttgtactctgctctgtcatttagaaaatgctcccacagatcatatgtaaacaaatgagtgtggctgtgttccaaaaaagcttatttacataacacttgcaa
0.06677050694252798 CATCTCAGGTCCCTCCTCTGCTTGTCCCTCCTGGCCCCATGCCCAGTGACCTATTTCCACCTCATTCCCTTCTCTCATCACCTGTGCCCTTCAGCACTTTGCagttgaatatgactcagttccggcctttaaggggcccacagtgcagtggGTTCTCAGGCAGCCTGTGGCCACTGTGCCATGCTGATGTCTTTCCCCTGTGGGCTGGACAGTGGGGACTTTCTGGCTACTGGGCCCATCGTCACATGCA
1 ATGACCCAGAAGTATACTTCTGGAGTAGAACAATCAATAAATCAATTGCATTTTTGCTTAGGCCTCCATTCTGTAGCCTAATTGTTTGTTGGTTCAATGCAGCCCTTTTGCTTTGATCTCTGGTTTTACCATTTACAAAGACTTGATGAGCTTGGCTTCCTGTAGTGAAATTCAAATATACTTGTGAAATGTAAACAACATTCATTTATTAAGAATCCTATAATCAAGGCAAATTGGCATGCTTATATAA
1 GAACATTTTTTTCCATTTCCTTGCATAACCATAGCCACAGAAGCAGAGGAGGAGATTGTGAATCTGGCCTAAGGTCTTGGTTTATCATTATCTAAATATATATTTAACAAAAACCAAACAGGGCTTTTTAAAGCTCTGAGTCATGTTGTTTCTGCTATTTTTTTTTTTTTAGGGAAATGAGCTTGTTGCTTCATCAAATGATGGGTTATTTATTGATGGAAAAAACTAACCAGGAGGACCGTTTCCCCAT
1 gcagcagctgtcccaggcCTGGAATTTCCTCTTCCCATGCAGCCAGGCCCCACCCCTCTTATCTGCCTCCTCGGGGAGCTGGATCCCAGGGACCTTCCCGAGAAGGGCAGCCCAGCCTGGCCCCACCCCACCCCAAGGCCGCAGGCTGTGTCACCCGCCTGGAATGCACTTTCCAGTCCTCCCCTCCCTCCCCCATGCCAGCCCTTCACTTCCTGACCCAGCCGGCCAGGCCAGCCCCCAGGCCTCAGAA
0.6636886228935999 GGGATTCCAGTTGAAGGAAGACTGCCCTGCGTGCAGAAATGGTAGTTTTAGAAGTATTGTTTTTCTGGAAGGACTAGGGCCCAATGGGGCCACGTGGAACCAGAGAACCCTGAGAAACTGTGGCTAGCATAGGACAAGCTTGTTCTTTTGTTTACATTTCGGTAGCTTCAATTCCTGTGAGTCATCCAAATACACTTATTTTAGGCCTGATTGGCCCTCCCTCCTTGATCTCCTGGCTGTACAAACTACC
1 AAATCCTCAAAAATGTAGTGACAAGCGATGACTCATTTTAGCTCATGTCAAAACAATGCACTTTTGTAATTTTCCTGTCCCTGGAGAAGCTATTAAACACTGAACAAAATGCCTCAGAATGAAACTGATTGAGTGTTTCAAATTATGTACTTTTGCTTGGCTATTAGCCAGATGTTCGTCGGGAAAGCTCACTGTACATCAAGGCCTATGATTTGTGCTGACAATAATATTACATAGTTTACACTGCTTA
1 TTTATTACAATGAAGGAACAAAGGAGCAACAGCCCAGGAGAGAATTCTAAGAATAGAACTAAAAGCAGAAGTGTGTGTTTTCGCAGATTCCTATCAGGAGGATGTATGACTAATGCTGGTAAGAATTCTTGCCTTTACTCTTCCCCAGGTAACTGAGGGGCGGGGGAATTCAGGCATGATAACAGAGGAACAACTTAAGCGCTCTAAACCCCAAAGGAAATGCTTTCTTGCCTCCATTTCTTTATATGTA
1 CTTCCTCAGTCCTGGGGACCTAGGCCTCCTCTGCTGTGCTCAGCCCAGGATTTCCTCAGCAGCTTGGAGGACGGGGAGGAGGGTGAGGCTGCCCCCCAACCAAAGCCATGACTCAGCGCCTGAAGCCCCACCCAGGGGAGGGGCACACTGAACAGAGGCCAGGCGGTTCCCCTACACGGGCTCCCCTGGCCTCCGGCCCACTGCACCTGGGCTGCCACTAGGCCCTCCCCAGACCAGGAGGGTGCGGGCA
1 tagagacggggtttcaccatgttggccaggctggtcttgaactcctgacctcaagtgatctgcctgcctcagcctccgaaagtgctgggattacaggtgtgtgccacagcacccagccCCACCCAGCTCACCCCAGCCTCTTTTAACCTCGCCTGTCTGACTCACATATTTTCCCAGCTGCTGGTCTTTGCTCTTCCTCTCCTCTCTGTCTTTCATGTAAAGCCCTCTCCAGAGGCTCTGTGGTTCCCAG
1 TATTTTAAAATAAATCTCTCAAGATGATCATAGTTGCTGAAGTCCCCTGAAATTTATGGCATTTAAGAATAGATGTGTGTTTCTTCGGTGTGGGAGTTCTTCAAGGGAATTTTTAACTGCTGATGCAAACGTTAGTAAGCAATGCACTTGTTTGGTTAAGACTTTTAGCCTTGACCTCAGGCTTTAAACCCTTGTCCTTTATTAATCACGTGTTTCCTGAATCAAAGAGAATACTTTTGGAGGGGGAAAA
1 GTAAGTAACTTCATATTCACTCCATAGCACTTACGATCTCCCAATCATTTCCTGCAGATCTAGCCTGGAAGCTAAATTTTAAAACTAGCTGTGAATTTAGAAGATGATTCATAAGCTCTGTGCATACCATGGTTATGACTGGTGGAAGGCAGAGATTCTTACATCAGTCTTCTTTACATTTTAACAGCAAGGAAAATAACAGGTTAGAGGAGTACTTTGTATCTACCCTCCCTTGCTTCCGGCAAATTAA
0.02036689745540523 atgcctctgtgatgagatgaaaggtgaatgacataaacattgtgacatagctataggctactattgaccttctgatggtaaatcagataagatggctactaagtgactaatgggtgcatagtgtatacagtgtggataagctggacaaagggatgatgcatatcccaggtgggatggtgtgagatttcatcatactactcagatggtgcataatttaaaaccaatgaattgtttctggaattttccattt
0.7144525644173498 AAAAGGTCAACTTCTCATTGTGAAGTCTCCAGTTACAGACTCACATTCATTCTCAAATCACCCTAACACACAGAAAACAGACATATTTACTTTTCTCATGATTCATGGGAGAATTTTGCTCTGAAACAAAGTCAACAGCCAAATCTCTCCTCAGCAAGCTGAAAAGCACATCCCATACTGGTCTCTGGGTGAAAGACCCTCTAGTAAACTTGGTGAGAGTGACAAGAAAAAAAGGGATTTTTTAGATTAG
1 tcctgcccaatgatgagatctttaagagaagaaggcaccatcttttattctaagtacctagcacagtcaggtcccattatggatattgccatacctacttgttgaatgaatgagtCAACTATTACAGAAGTGACGAACGTCGAGTCCCCTTCCTGCAGCCCACAGGTCTGAATGAGTTCAGGGTCAAAGAACTGTTTATATCATTTCTGTCCAGGTATTTCCTAGAGGCCTACACTGCCCAGTCCCTGGT
1 ctccccttaccggaagcacaagggatttccccctgtatacttactgtgagaatctggcagagctccagtaggtaaaactcacaaaagtgtagggcccctaatgactgggtctgtctggaatttttatgtgtcagacttgtccacactgagcctccagcactttgtcaattacagttcagtttccctgtgttagcgctggtctctgtggaggtttctgctcctgttaagttgtgattctctgtgcctgcct
1 TTCTTGTCCGTTCTTGTCAAAGGACTTAGAAATGTCCTTTCCTGGTTTTACATTTTGTCTCCTTTTTAGTTGCCTTCAGTACCTGACAGTTCTTTTTGAAAACCCTAGTCTACTTTGTCTCTACTAAAGGGGAAACTAGAAAAGGAACCTGATGAGTCACCATAGGGCCAATAGCGCAGAGAGGCGGGGGTGCCCCTGGTGGTCAGACTTGGTTACACACCCTGCAACTCTAGAGATTGACCCTTATGAG
0.7341313808271414 TAATTTGTTTAATATCTttcatgaaaacaagtactgtgtccattttgtttacctttgtgtccacaatgcctagaacTTGAAAGACAATACATGCCTATTCTCTGACTAAGTACTGTTGGTAGAGAGAAACTGGCCTTTGAAGTGCAACTGTGGAGACTGTGGAAAGCGAGGGAGGAGGAAAGGTTGGTGCTGAGAGTTATAGATCATCAGCATGGAAGCCTCCTCTGCAGGGGCTGAGCTGGTGGACTCT
0.3140715676726206 ctgtctttggtcctcactgcaaatgcttaatgtctgacacagtgcctttcatatagtagatattcaaagaacttttgttgaataaacaaaAGATTAGTCACCTACACTTTGCATTTGACCTTAGCCATGCACTCAGCTGTGGGCTCTTGAATGCCTGCCGGATCACAGGGAAAAAAACAGAAACTCAGGAAATGGATTCACAAATCCCATCAAATGACTTCCTAGCAGGGGATTTGTGTTTGCCCCAAGG
1 TATTCTCACAAACATAAAGGAAAGTGTCTCTTTTATTGCTTTGTACTGTAATTGTACTGTAGTCAAGACAGAGAGCACAAGAAGAAAGAGTAATAGACACAATAGGGATATCTCATACAACATGAGTTGGACTCATTAAAtaaacaaagactttgggtcaacagttaagctaagagacagagttgcaaagaataagcttttcctatgatctctagctgaaaatgtaaacacagtcttttttgtggacatg
0.03105206618384259 ATGAGCTTGAATGATGCTATTTCATGTTAATATAGAAAAAAATAAGTAAAGACTATTTTCCCAAACCATGCAAGCAGCAAGTGGGAATGAGTCATGACTGGTTATGGGGAATTTTTTCATTGAGCAAGCATACCCACGACTTTCAAAATCGTAGCATGGGGCATTGGGCCAATGTGTTTGTTTATTTTCCTTTGTTTTCTCTGACAGCAACCCTAATCTCAGGTTACAGTTTGGCTGGCCATAGTTAAAG
1 GGCCTTTGGCCAAAGCAAAGTTAACTAACGGAAGGGATAAAAATTGTCTTGTGTGGGCCAAGCTGATGTTGCTCAATAGGTATTTTTTTGAATTGTGAGGAAAAGAGTTGCCTTATTTTTTCCACTTCTGGAATCATGAGAACCAGGGCTGGGAGTGAAGTTGCATGAGTCACAGCAGTGCATACAATTTTCATATTGACTTTCAGATGTCAACAATTCCTTTATCTGCATTATTTAACATTAACCAGGC
1 tgcacagccAATAAAAAATtttttaaataaatagatttttttagcagttttaggtgtgcaaaaacgagtggaaaatacagcgttcccatgccccgctcacactccctctgttccggttttccctatgactaacagcttggcattcgtgtggtacagttgttacaatggaggagtcaatattgcattagtattggcacaagtattacaatggaagcattgatattgatacataattattaactaaagtcca
0.008925649095612396 GACCTCTTTGGGATGGGGATTATGTATCAGAACTCTCAAATATACCCTTTGTGTGGCTGGCTGAATGTCAAGGCTGCCAAGCTAAGAAGGTTCAAGCACATTGGAGGCTGACTCAGCCTGTTGCCTTGTTACTGTATCTTTCCCCAGGCAGCCCTTCCCATTGTCTGAAGGGCACAAAGAACCCATTGTCATCTGGCCCTGGGTCCCCGAAGCAGAGCATCCACCAACCAGGCCAAGGCCAAACAGAGGA
0.5586807160188491 TACAGTCAGTTTCAAAATTCAAAATGTCTGGAAGAGCCAACTTGCCAGGCCGGTTCAAGGGCAGTCAGATGAATCGACCCTTCTTACAGGCTGTCTACGAACCAGTCATGATTCAGATATTCAAGTCCTGGAAGGTATCCAGACGGTAAACATCACCAGGATTGTGAGGCAGTTACTTTTTTTTTTGGATCGTTTGAGCTACACTGCCAAGACTGTGGTAGGACTTGTCTGTGTAAAACAGAAAGGGCTG
1 AAAGGTCAAAGTTGTTCCAGTTCAGTGTTCACACCGTAAACCAACCTATAGCCATTCACACCTTCCTTCCTCTTTGTTGCCTCACCAGTCGTCCCAACTCCCCGAGTCTAAGCAGGTGGGCACCCAGCCAGAAGGTGACTAACACCATCTCTTTGCACCCAGACCATATACCAAAGGCAAATTGCTCCTTTTTTTAAACCTTGCTAGGCAAGTCAGTATTAGTATCTTCAAACTACAAAGGCTGCTTTGT
0.860324402161236 CAGAGTTTGTGTCTACTGCAGGAGGTGAGGAAGTGAGGGAGAGTGGGAGGAGAATGGGGTGAGAAACCTAAGTCCCTCTGTTGATCCTGGGGCTAGACTGACTCTCCAGCGCTGCCTCAGCCAAACACTGCCACATCAGTCTTCTGGACTGGAGTTTGACACTTTCGCCTTACTCATCAGTCAGGTGACAATGACACATGCAAGCCTTTGCCAGGGAGCATCCTGAGACAGGTATCAAAGTCTAGCCCTC
1 GTATAAATTATTGGAGGCCTAGCAACTTTCCAACACAAGCTAGTTAATTGTTACATTTTCAAATTCTATACTTCCTGTGTGTTACTTTGTAATGCACTTTTGTAATCACGGTATCTTTCACAACCTTTTCCAAGTTCCAAACCACTTCTATTTACATAACTTGATAAAGATCAGTAAAACTGACTCACTAGCTAAAAGAGATAATCATAGGGTAATAGGCAAAACAAGATAAAAAGCAGAAATTCAGTGT
0.9451946939894207 CCCAACAAGAGATCATAATTTTAAGGGTTCAACAAGGCTAAAGGAAACTACTTTTTCAGGATAGCAATGAGGTTTCTGGGCTCTCTTTAACACTCCAAAACATGTTTAATAAGAGTGCAAAGTACAGTCCAAAAATCAGTTAGGGTGACTCATTTTAAACTCTAATCTGTTACATACACGACAACAGTTGCTATCTCTTGAGATCTTTAAATGTCTTGGTGTGTTGTGACCTCTCTCTTCAAAACGCTTT
1 gccaaacgtttcttttttttttttttttttttttttgagaaaggctcttgctctgtcacccaggctggcatgcagcagagcaatcatgactcactgcatccttgacctcccaggctcaagtgatcccatcccgagtggctgggactacggaggcgcatgttatcatgcttggctttttttttttttaagtagagacggggtctcattatgtttctcaggctagtctcgaactcccaggctccagccatct
1 AGCCCTCCCAGAGGGGTCAGAGAGCATTTCCCAGCTTCCCACTGGGCCTGCCTATCTTTGGGAGCTTTGAAGTCCTACATTTAGAGGACATGGATCAGCCCCAAACCTAAGAGCTCCCCCAAGGTAACTGCCAAGGGAATCCCTCAGGAATCCCGCTTAATGCAACCAAGAGAGGCCTTTAGAAATCAGGCCAAGTAGAGGAAAGAACAATGGACAGGAAATTGGGACATGAGAGAGTCGtgagtcagca
1 ATTCCCCCAAGTTATCCTTCCAGTTCTCTAGCATCAAAACAAAATTCGCTTTCATTTGGCAGTtgttagtccaaactgcaccattttgtaagtcccccagcattttgcagaccttggtcaaagtgacacattccaggcgagtttgggctgtgagaaacatcctgcctaaccacctgaccacaacacacaagaacatccttatcataccctgctaagcaaaggcccaactgaaggaacgtccctatcatac
1 CCTCGCACGGGCTGTGGCTTCAGACACAGTGCTCCTTGAACTCATCCCTTTTCCCTCCGGCCGGGGTAGGCCGGGGCCCTTGGGAGGTGCTGTCTTCCTCCATCCCTGCCTACTCTCCCCAGGGCCTGGCTCTTCCCTCTTGCCTGGGGTTCCCATCCCCTCCAGGCCTCCCCTGGGCCCCGTCCGCTCCCCTCTTTTGCATGATGACTCAAATCTAAGGTCTATAAAGCGACTCAAAGGTCAATGCCCA
1 ctgtccactggagtcatctctggacttgaaaacacacagacacAGAAACATTTGTTGACTTCCGATGGCCTCACTGGGTGACCTGAGGTGACCTGTCTCATATTTCTAACATCATCACACAGGAATGTCCCTTCTCCCTCTTTATCTTGCATGACTCTGTGCCTGTCCTCCTGCTACTCCCTCTGCTTCAAACAACTTCCCCAGTTCTCTGTCTTGCAGAGGAGAGCCCATACTTCCTTCAAGGCCTTCC
1 GGCCTCGCGCTAGAGATGTGGAGGGCCCTACAGAGAGGGGCTGCCCTCTAATTAGCAAGTGGTGACCTCATTGGCCCAAGGGACACCTCCCCCTAAGCTGAGGGTGATTCATCTCTCTGTCTCCGGCTTCCTTCCTGTCAAGGATGTGGGGGAAGGGACAGTGAGGATGAGGCCTGGGCAGCTAAGGCTACCCCTAACCTGCTGCCAGGGTCTCCCAGCACAAGTCCTCTGACTGCAATAACCATCCTCT
1 TCCTTGCCCAAGAGGTGTGGGGATGGGTGTGGTGGAGGCACAGTCCGGGGTTGGTCTCGCCTGCCGCACGCCTGTTCAGTAGCCTTTTAATGAACTCAGTGACTCAGCGCTGTCCCTCCCCCACCGGCCTCGGATCTCATTCCTCTCAATCGCACTGATGCCCATGTGACAGCACGTTGTCTCCACCGAGACTAATCCCTTATCAATAAGAGCTTTCAGCACGGCCCAGACCAGATTACTCTGTCTCACA
1 tgtgtgaagtgaagagattggactgggaaagccagctctgggataaaagtccagtttcctctccctgccatctgggtaaccttgggaaaatacacaatctctctgagcaaacaagaaaagtcattcctacctcatgagctgttttaaagccttaatgatgtgatgtatgccaggttcttagcccaTAGCTAATAATTATAGTCTCTGAGCTCCTGTACACATTGACATAGTGAGAATATTCATTTGAGAA
0.6620900454171074 gttttttaggcataatgctattgcacacttaatagattgaataccatatagtgtaaatataacttgtacatgcactgggaaacaaaaaaaaattgtgtgactcaccttattacaatattgcttcattccaatatttgctttattgcagtggtttagaactcaacccacaatatttccaagatgtgcctgtatttgatttattgcataacaaattcgtcagttcctgGTCTAACATATCACAGTCTACTTC
1 aacaccatgggacccctatgaaatgccactagtaatgctggaagtgctcccaagaagcagagaaaaatcatgacaagaaaaagttgagttgcttaatatgtactatagattgaggtttgcagctgtgtccactatttcagacagatgattcaccttgtaaacagatgatgtaaacttacagtattgataaatacaacacagtactgtaaatgtattttctcctcttgattttcttaataacattttcttt
