svm_type c_svc
kernel_type wgkm
L 8
k 5
d 2
M 50
H 50
nr_class 2
total_sv 2609
rho 0.513388
label 1 -1
nr_sv 1201 1408
SV
0.2782008239373662 TGCTCTTTGGACTGCCTTTTGTGACCACCTCCTTCCCAGCTGGCTCAGGTGCTTTTCCTTACAAAGAGAAAGGGAtcgatggctggaccgacctgaatgcgcctggtctcagaagctaagcagggttggcttggtcagtacttggatgggagaccactggggagacccggtgctgtagacttGAAAAAAAAAAGAGGAAGGGGCTTGATCTGAAGGTAGATTGATGTTAGCTGTGGGAACAGGGTCTTGG
1 TCCACTCATTAAAATGCTCTAATTTTTATTTTTACTACCTATGAGCTTTAAACTGATTTAAAAATAAGGACAGCTGGTgtctggagcccttccaccctggcttcatcttggaagctaagcagggtggggactggctagaacttggatgggagactgcccgggaaaaccgggtgctCAAAAACAAGGACTATTCTGTGCTCTTAAAAGAAGATTTAGGCTATCTAATTGTGAAAAAATGTTAGTATATTAA
1 ATCAGATTGCTCTCCACCCCAGAACTAGAGAAGATCAGCTGTTTGAAGTAAACATTTTGATTGGGAAATAAGTCTTTggtctcccatccaagtactaaccaggcccaaccctgcttagcttctgagatgagagagaAATCATTGGGGACATGAGGCATTGTGCAAGATGAGGGAAAGTTCAGGTGCACCTGTTTGGACTCAGTCAGGGCATCAGGAGGACCTgagagagaagcagaaagagaggagagag
0.9531101327412352 ATGTGTGTGCATGAAATTGTGAACTTCTTTTCAGTGATAGTCTTGTGTTCTTATTTTATTACACTTTTTAGTTCTTCTTGAAtatggctgcaccactctgaacacgcctgatcttgtctgatctcatgaagctaagcagggtcaggcctggttagtatttggatgggagGAATAGATCTTGAATTTTATAAATAGCACTCAGACATCTATTTTTATGCTTATTTTTAAATGTCTTGATAAaatgtttgac
1 TCAGTTCAAATTCTATATATTTTAAAACAAGGCAGAGAACATTGTCACACTGCAGCAGCATCACAGCTGAGTCCAGTTCATTTTggtctcccatccaagtactaaccaggcccaaccctgcttagcttctgagatcagatgagaGATCACCATGAACCCTCTTAGAGGGATCCCACAAGAAGTTCCTGGGTTGAGAGGATCTATGACCTAGAAGCTTGATGCATGCATGATTCATGGAATCTTCATTTCC
0.5153460033502876 agctacgtggaaggctagggcaggagaatcgctggaacccaggaggcagaggttgcagtgagccgagatcatgctactgcactccagcctgagtgacagagcgagactccatctcccatccaagcactaaccaggcccgaccctgcttagcttccgagatcagacaagatggggcgtgttcagagtggtatggccgtagaTGATACTCAGTCTCaaaaaaaaaaaaaagaaagaaaaaTAGAATTCCTTG
1 acctcccatcaggtccctcccatgacatgtggggatgatgagaactacaattgaagatgggatttgggtagggacacagccaaaccatatcagccactgtgcccggcCaagcctacagcacccagtatttccaggtggtctcccatccaaatactaaccaggcccaaacctgcttagcttctgagtttggatgagatcaggtgcattATCTTCAAGATGTAATATTTGCACCATCAATTCTAGCTTCTAC
1 attcaaatcccagcactgtaaccgaccatctgtgtgaatttgggaaagctacctgtccaatctatttctcagtttcccatccaagtactaaccgggcccaaccctgcttagcttttgagatcagaaaagatcggatgctttcagggtgatttggccatagactatttctgtttcctcatctgtcaaatgaggatattaacagcacagacatcaaagactttgtatcagagttttaaaagataatgtttgt
1 CAACTCTGAGTACCCATAACATACTATTTATTGTGGGGAGAAAAACAAATCACCTCATATAGGTCTTACCCTCTTGGACCATAGGCTTTGAAGGGCAGTTTGTATCCCAAAGGCTATCATGGAAAACAGCCTGAACTCTGGTCCCCTCAAGAGACAAGCTTACCGAGCTGTACTGACACCTTCTGGAAGCACTGGGTACTTTCATCCATAAAGGCCTGCAGCTGTTTCACTGATCCTTGCAGTTCATCCA
0.4901448342374626 CGGTAACTGATGGTCTGCTCTGTGTGGGGGCTCACCGTGCCTCCCTCAGGCCTAACATGTTTTATTGAGACTCCTTTGCTgtccatggccaaactaccctgaatgagcctgatctcgtgaagctaagcagggtcgggcgtggttagtatttggatgggagaccgcctgggaatagcaggtgctgcaggctttTTTTTAAGGGGAAAAAAAAAAGAAAGAAGACTCCTTTGCTTCTGCTTGATATCTAATG
1 ATTCAGGATGCTATGTCTGTATTGGATGTTGTACAGAGGTTCATCTTAACACCAAGGAGAACAACAAAGAgtctacggccataccaccctgaacgtgccagatcttggaagctaagcaggattgagcctggttagtatttggatgggagaacagcaaagaaTGGTGAACAGCAGCTCCCCCTTGTATACTGATGACAACAAGCTAAGGATAAGCTGTAGATCATAATGAATGAAGAGTGAGAGGCAAACT
1 TATCTTAGACAAAGTTCCACTGAAGGGAGGTGGTACTCTCAGGGCCAGGCTACAGGCCCAGAGCCCTGGCAGCCTGAGCAGAACTCCAGCATCACTGGATGCCAGTGGGACTGGGATCTCCAGGTAGTCACGGATGATTCCCCACAGGGCCACCAGGGGGCAGCAGACACCCAGGCTGAGGCAAGGTGGCCCCGCCTCCTAGGAGCAGGGAAGGAGCTCTTCAGAATCCTCAGCAGGGGCTGCTCCTGTC
1 GTGAACAATTCTGTCCCCATGTTATTTTAAAGCTTGTATGTCCTTGGAATGCTGTGTGGGAACTGCTGTTCCCCTGGGAGACCATTTTGTGTCCAGCTCCTTCAGCAGACCCCAGCCAGGCCTCCGCTGACCATGTGGCAGTTGGTTAGAGGGCTGCTCTGAGCTGGTTGATGTGATTTAAAAGTAGAGCCGCATTCTAGAAGAAGTGAACTACTGTGAATAAAAGAAGACTCAAGGAAATGCATGCTGC
1 GAATCCCACACCAACACCaaaaaaaaagaaaaaaaaaaCTATGGTGCCACGAGTTGTCCCATACTCAACCTCTAGCGAACTGAAATTACCTAACGGGAGAGCTCACCGACCCCAAGGTTCAGAAAGACCTCGCGTGGACAGACAGTAAACTTGCTTGGCCAGCACCACTTCCTAGGTGGGCAGGAAGGGTTTTGACAAACAGGAAATCACAAATATGAATTCGTTGAAAGCTAAGGATCTCTGTTGCTTC
0.172783434447662 tcggctcggctcggcggctctctccgcccgcctgcggctcTGATGTCAGTGGAGGTGGAGCCTGCGGCGGAGGGACCCGGGATTGGGAGGCGAGGCACCGCTCCAAGGCTGGGGAAGGGGCACGGGTGGAGGCCATCTCCCTGCTTCTGGTCAGAGATCTCCTGCTGGACGCTTCCCGCCCTTGGTCTTAAGCGGGGTccatttcacagaggggacaactgaggcccggagagatgattttcaaatcagc
1 CCTGCTGGAGGGCCCTGTCCAGCTGGGTCCTGGGAGCGTCCTGCAGCACTGCCACCTGCAGGTGAGGCCTGAGCGTGTGGGCAGATTGGGGCGAGGGTGCTGGCATCCCGCATGTGTTGGGGGGTGTTGGGTGCCTGCCCACCCAGGATGCCTGCCCTGTCCCCCACCAGGGCCCCATTCACATAGGCGCTGGCTGCTTGGTGACTGGCCTGGATACAGCCCACTCCAAGGCCCTGCATGGCCGGGAGCT
1 tttgcagctgctcaggccacaaggagtgattcAAGAGGAAGAACTTAATAGGAATGAGTCCTGATAGGTACATGTTGAATATGAAATTGTTTTATAGTTCCAATAGAACAGTAGAgtctatggccataccaccctgaacatgcctgatggaaagctaagcagggtcgggtccggttagtacttggatgggagacAAATAGATCATCTAAGTAGAAGCTCAGAGCTCTACTATTAtttatttatttatttt
1 CTCTTTTATTCTCTCAGGGTGCAAccctgggctgtggttttaggtgccctgccctggtcttggtggggctggccccgccccataggacaagaagttcatgggccttgtctgtgtgccacccagggccagtcctccttttggtgcatggttcgtaacccagggcccagaattccctgctcaaatgtcccagcctcttccagggctgtgtgaacctcttcccatctgtcccgtctgtggtgaggtcactgag
0.6127752138225285 GCAGAGTGAGAGGCCTGCTGAAGCACATCCAGGGGAAACGGAAGGAGTGGCCCCGCCTGCCGGGTCAGGAACCTGGGCCAGCCCCGGCCTGCAGGAGGCGCACTGGCTCACCTGCCTCCGTGCATGCCTTCGTTCATTTTCATCCactcattcattcaacaaacagcaccccagcacctgcgtggtgccaggccctgtgctgggtgctggaggcctggctctcagggtgcttatggtacttggggaggag
0.7439653903140625 CAGGCTGTCTGCCCTGGAAGAGTAGCCTTGGCAGGAAACACCGCCCCTGGTGGCCACACGTGAGTATTACAACCTGGCGGAGCTGGACCCAGTCTCAGAAGGGGACTAGCAGGCAGATAGGGGGTGATCTTACACTGGTTGGGACTGACAGCCTAGGCTCAGCCTGGCTCCTATCTTCTCTTCCAGACCACACCAGCAGAGGGGCTGTCACCTCAAAGAAGTCACCTCCGccaaggataaaatccacttg
1 AAATCTGACCTGGGGCCTCTTGGGAAAGCTGCTGTGAACACCTCCACGTTAATGTCATCCCTCAGCCCTCTATGCCTGTTTCTCTAGGGACTGAGAAGTGCATGATGCTTTTACTTCCTTGCTCATTTCGAAGTCTGTTCCAGACAGTTCCTATAACCAGTGAGGCCTCCAAGTCATTCATTTTCCTCAGTCTAGCCAAAGCTGAATGTGTGAGCACAAAGAAGCCGAGAGGCCACCTCCTGCCCAGAGA
0.8327193533366036 AGGAACCAAGGGGCTGAGATGGCGCCTCCGCGTGCCCTTCCAGCAAGCCCACCTCCCCAACTCACACAAGCACACAGGTGTCCACACTCTCGGCGCCCGGCTACGGCCCAGGTAAGCCCAGATCCCGGCCCGGGCGGCGCACCCACCTGACGAGGGGCTCCTTCTCAGGCAGGGCGCGCTCCTCCAAGCACTCGCACCCGCAGCAGCAGCACACGGTTCTCAGCCAGTCCCTCAGCCCCATGGAGAGCGA
0.9016593744525403 TCCCTTGCTGGCGACTTCAGTGGCGTGGCATTGTCCCAGGTGGCCATGGAAATCAGGGTGCATACCCTTTAAAAGCAGCTGTGGCCTCCGAGATATCGTTTTCCCAGTCTTTTCTCCCCCTCCCTGCACGACGCCTCTTGGCAGACATCCGGGAGAACCCGAAAGGCGCTCGTTGCCTGGTTGGATGCAGGGTACAAACTACGTTACCCAGAAATCTGTGCCCAGCTCATTGTTAGCCGGCGTGCAGCCA
0.7736536395467821 GAAGCCTTCCCATGGCTCAGACTTACACACATCTCTATAGCTAACAGAGGGAGGGCACCGGTGGGAGGCAGCAGGCACAAGTCCTTCAGGGCATGTCATGCTGTGCCCGTTGTCCTGCCCTGGCTCCTGCCCCTACCCCAGGGTGTAGGGAGGGCCCTGGCTGTCCCTTGTCTATGGGGCCTGGGCCAGTGCACCACCTGGTATGAAGTGAGGCCAGGTGGATGTCAGCCTGTGGCCTCCTGGACTTTGC
0.956068022348718 GCAGCCTGGGGAGCAAGCCAGAGACACAGTGAAGGGCCTGCACGTTTGTCCCCAGCGCCTGGTTTCTCCCTTCCCGCAGGAGCGCCTCCCCATGAAGGGGTCCATCCCCAGGAGGCCACTCACCTGGAGAAATCCCTGTCTCCCAGGCGGCTTCGCAGAAGGCTGAAGGCCTGGATGGAGGCTAGAAGGGCCAGTTTTGCAGCCTGGAGGTGCAGCATGTGGTGAGGGGAGAAGCCTGGGGATGTGCTGT
0.4404582214904259 AAAAGCAACTTTTTTCCCCCTGTAATATGTAATGTACTCCCCGCCATACAGTTATCTGAGCCAGCGAGCTAAAAACtgttgaccccgacgtgatttgaacacgcaaccttctgatctggagtcagacgcgctaccgttgcgccacgaggtcTCCGGGACACCTACGTTTTATTTACCTGTCAATCTGATTCATGAAAATAATTTCGGTACTGGTGAAGACCAGGCAGCTATTAACAGATACAAAATAGTG
1 AACCTGATGGTCCACTCGAATGTGACCTTTAAACTTTATACAGGTTGTCGTCGCCTTGTGTCCCCACGGCTCTCCTAGGGACAGGGAAACTGAGTCATATCAAGGTGGAAGGCAGCTGAAGGTAAGGACCAGGTGTCTAGCTTCCCAGCTGTCTAGGCAGTTGGACGTTTAGGGTATAGCCTTCATTTACAGAAAACCTGGGCTCTGGGAACAAGGGCAGGGGAACTATTTGGAGGAGGAGGGGCAACTG
0.481164375532287 tacccatttccccccagattggccctCAGAAAGGCCTTTCAGCTGGAAACAGCCAGTAAACAATTTGCAAAAGCCGGCATCCGGCGCTAGATGGCAGCTGTGACCCACTGGTGTTGTTGCTCACTGAGGCCCATTAACAATTCCAGCTTGCCTGGCCCAGCAGGTTCACCATTTGCAGTCCAGCAAAAGCCAGCTCTCCTGCTGGCTCTCCACTCTCAAATCAGGGTTAGTCCACATTCCTCCAATGCAG
1 CTGCAGCTGTTTCACTGATCCTTGCAGTTCATCCATCTGTAGAAAAAAGACAGCTGTGAGCTGTAAAGGTCCAtggcttcttggatgttcctcaaacctgacaagcaagctcttgctcaggagctctgggcttgctgttctttcagcctggaatgcttatgccagataattctgtttgttcctccaaagtcacaccacattcttctccaggctgctctatgctccaggaggctgacccatgtaacctcta
1 TTGTGTGGCACGTGGCTGTATGTAGTTATTAAAATGTAAATACATATATTTACAAACAAACTTTTTTTCCCAGTTAAGAAGCTCGCTAGCACACAGCATTCTGTTGAAAGCCCCCTTTATTTCGCAGTCCTGAAGGGAGTGAGGGAAGGAAGTAAAAGGGCAGAGGAAATAATGAATGAATGCGAGACGCCGATTGTACAGGGACTTGTTTCCATACTGCTCTCTACCAGAAACGTTCTCAGTTTCCTTC
0.9974478775061798 GAGAGGAGGAAGGGGGAGAAGAAAGAAGACTGACTATCCCCACGATTTCCTACCTCGCCTCGCGGGCGCAGGGAGGCTCAGCGATGCCACCTGGCGGCTGCTTCTCCCCAGATTGGGAGCCGGCTGGCTGCAGACAAACCCAGGCTCTCCCCGGGTGCCGTGCCTCTGCCTCTAGAATAGAAGCAGAAGCCTGTATTCATGCTTGCAATCCAAGTGGCCCTGCAAACATTCGTCTTCTGCTTGTTTTCTT
1 GCCCCTCTGATCAGCACCATTATTTCTGTCAGTGCAGGACAATCGGACACTTGCCCGCTCATGAACTCTGTCTATCCAACCCCAATGCCTGATCTCTGGGGACAATGATGGACGAGGACACGGCCCCTGCCTGCCTCCCAGAGAAGACTGTTGCGGGGAGACAGGCTGCGCTGGGGTCAGGGTGGAAGCCCGCGGGGCCAGCGGCGTTGAGGGAAGGTTCTCCGGAAGCAGCCGCTGTTCTGGCTTGGCG
0.8889467397415983 gtgagactctgtctcaaaaaaaaaaaaaaaaaaaaaaagacaagaAAGAAAAGAAAGCTTGCTTCAAGCTGTACTGATGAAGAGGCCAATGTCTCACGCGCATtctcccatccaagtactaaccagacctgaccctgcttagcttctgagatcagaggagatgataggacaccttcagggtggtatggccttagaTTCATGTGCATTCTGACCAAGTAACTGAACCAGCCAAAGGGGACAAAGCAGACCT
1 GGCTGCACTTGCGTTTGCTCGCGTGCTGCCTGTGCCATCTCAGAGGCTCACACACTGGTGCTTGCCTTGGGAGAACGGGGTCAGAGGTGAGACTTTGCCCTGCACTCTATTCCCtttattttctttttgagacggagtctcactgtgtcacccaggctggagtgcggtggtgcaagcccagttcactgcagcctccatctcccaggttcaagcgattctcctgcctcagcctcccgagtagctgggatta
0.4280369257726858 TGGAAAGAGGACAAACCCTTGTGGGCCTTAGGGCGAAGACGTAACTTTGCTTAGTCTCGGTTTATTGGCCGATCTCTTGTCAAGCGGCGGAATCGTTCCGTTCGGGAGGTGGGAGGGGAGCGGGGCCGCCGGGGGCGGGCGTCTTCAGTGGACCCCACGCCTCCGGTCCCCTCCCCGCAGGGCGCTCCGCAGAGGCGAGGGGTGGGAGCGCCGGCTCCAGGCGGCGGAACCTCCGCACTGGGCTCGCGCG
0.01190745562167878 CCGGCGTGCTGGGCAGCGTCCCCCTAGAGTTCTCCATCCAGTGATCCAGAGGCCTACTAACAGAGTGACCCTCAGAGACCCCAAACTCTGACGCCGAGTCTCAGTCGCTGAACTCGACAGACCTTTAACGCCCGACCACAAGAACTCTCCCACGCCGGACCGCAAAGGCACCCCAACCCAAAGGCTCCACCGCCCAGGCCGCCAGCTCTCCCCACAGGCTCCTCAGAAGCTCCCTACCCCTTTAACCTAC
0.05897835266062967 GGACGGCTGTTGGGTTCTTGATTCCAGCAGAGGGAGGCTGTGCAGGGTTGCAGGAAGGACGGTTGGGGGCGCTTCGGGGAGGTACGAGAAGCAAAGGTGTTTGCAGCCCTTGGGGCCAGGCGGCGGGAAGGCCTGTAGACGCCAGAGGGCGCTCGTGCTACATGCAACTCAGGAGCTGCTGGCACCCGCCAAGGAGTGCTGAGCGCGGGGAGCCCAAACCACAGCCTTGGGGAACCCAGGAGGGGCCGGG
1 CCCATGTGTCTCTCCTCAATTGGTGCACAGGTATGATGGGAGTTCTAGGCCATACACTGGGCTTGTTGAGTGGAGGTGAGATAAGCCATTTACGCAAAGGATGGTGAAAGAAGGGCCCTCCCCTCACAATGTCAACCCTTCCAGCTGTCTCAGCATTGTGCGAATGCTTCCTACAAACAATAGTGCTGTGTGCtgaatgctgaacatgctgggcactgctttgcgttcttgacttctcacatttaatctt
0.9346565358712385 GGAGTAAGAACAAAAGACATGCACTTGTCTGTAGTTCAAGGAGTCCCCGCCCTTGCAAAAGGGATCTTAGTCCCCgcacggtggctcacgcctgtaatcccagcactttgggaggcagaagcgggcggatcacctgaggtcaggagttcgaggccagcctgcccaactttactgaaaatacaaaaaaatcagccgggtatggtggtgtgtgcctgtaaacccagctacttgggaggctgagagaaaatcg
1 GGAGTCGAGGGAGGGGACGTGGTCTCAGGAACAAAGAGGAGGGCGGAGAGGGGCTGTCCTGAAGGCTCTGAGACTCCTACGACCCCAGGAAACTTACCTCGGCTCGGGGCGCCCCCCCCGACTTGGCGCAGAGCCTGCGTCCCCCTGCCGATGCCCACCCGACTCGCTAAAGCCACCGAGGCAGACGACCCCAAGACTCCCAATTTCCGACCTCCCTGGCCCGCGAGGGGCGGGGCCTTCCTCTCGGGGC
0.7544377887479691 CCGCACGGTCCTGCCGAGGCCTCCGGGCATCCTTCACCTCAGGGAAGAGAAAATCCAACCTTACTTATCACAGGCGCGGGACCTACGTTCCCTTCGGGAGCAGAAGAACCAGGACAGGATTAGGACGCAGGCCAGGCGGCAAAGCCGCTCCCTCTCTCCCACCTCCAGGACAAGCGGCACCTCCAGTCCACCCTCGCTCCAGCCCTCCCGTACTCTACCCCCGGCATCCTCTGCCCCGAAGCAGGGAGAT
1 GACTCACTAGAGCCCGGCCAAGACTGGATTAGGGGTCATCTGACACCTTTTCTGAGGGGAGCTAGTGGTGCATTGACATCTGGGAGGGGCTCCTGACAAGGTTCAGGCCATCTTCCACCCTCTGATCTATCTTTAGCCACTGACAATGCCCACTTCAGTCCCAGACACCTGACCAGAGGGTGAAAGAGGAGTGCCTCCTGACAGGGAGTCTCAGGTGATCTCCTTTGTTTTGCAGTAAGGGTATCTTCTC
1 cctactgacttttgttctactatgccctgccctcagaggtggaatctagagaggcagtaggccttgctgagctgcagtgggctccgcccagttcaaggttcctggctgctttgtttacacagtgagccactcaagcctcagcaatggtggacactcctccccctgtcaagctgcagcatcgcaggttgatctcagactgccgtgctggcagcgagcaaggctctgtgagcatgggacccagcaagccagg
1 CTCTACAGAAACCAACGACTTTAAGCAGGGTCTTGGAGGCACAGCCAGAAGGCATGATGGAGCAGTAGTCCACAGTTCTGGTGTCCAGAGTCTTGGGGTGGAAGAACACCGACACACATTTCTTCTCTCCCGGAAGCACGATGCCATGGGCCGTGGGGCATGAGAAGGCCTGGTCTTCGGCCAGTTCATCCGGGGAAATTTCAATCCTGAAGGGGGCATTTACCTGTGTGGCCAAGCAGAAGGACAAAGG
0.3706953426203721 gccagctgccTGTCTGTAGCCGACGCCCCCCAGGGCTGCAGGGTTGGGCGAACTGGCCTCTCCTGTGCGGCTGACCAGGTCCCCCGAGCTTCCTTAGGGTTGCAGGCAAGGAGGCTCCCGCAGGGAATCTGGAGCAAGGTGCATCCGGCGGCCAGCAGGTGTCACTGCTGCCCCAGAGACGGCCGGCCACGGGCTGTGGCGACACGGTGAGCTGGAACAAACCGCTTTGTTCCTGCTTCACAGGCTTTAC
0.4300004762053113 TGCAGAACAACCCCCCGTGGCGCAGGAGAGCAGAAGAAAGGGGGCCTTTATGCCCTTTTGAGGGAAGCACACATTCTGCAAGGCCGTGGAAACAAAGGGAGGAACTGTTTGTAGCCCTCGTCCAGACGCCCCAAACAAACAGTAAGTCAGAAGGGAACAGAGCACAGCACAGTCCCTCCCTCCGCCCCAGGCAGTATCCACCTTGCCCCGCCCCACCTAAGGAGCCCAAGGGTATTCTGGGAGCCCACCC
0.1876661599485696 CACTCAGGGGACCCGGTCTTCGAGGGTGCTGCCGCCCACTGTCTCCCTCCACCCTCACTGCCAGACATCTGTTTGCTGTCAGCCCACGAGGGGGCGTCCAAGATTGTGCTTGGAGCTTGGCGGGCAGGGGTGGGGGTCCGAGTGGTCCGTTGCCTCCCAGAGCGTGGGCACTGCCTGGGAACGGCTGCAGTGCACAGCAGGGGTAGGGCTGGGCTGGAGCCTGAGTGATCCCGCCTCCAGTCCCCACACC
1 TTTCATAattaatctactcaggaaataatttctgagcatctattatatgccaaacactgttctctaggctccagggacacagaagaaaagatgatatggcccctgaccccgtggagtttatggtggagcaagggagctataaagtcatgtaGTAACTACAAAAAAAGCCTGGCAGATGTCGTGGTGGGTAAATAGAGGAGGCCTTAAGCATATAGGGcagtggttatcaaacctcagtgtgtcttagtat
1 TAAATAACCCAGGAAAAGACAAGCCTCTCAGATCAAAGAAGGACTCTGGCCCAAACTTGAACTAAAATCAAGCGTGCTCTTTCGACTCCACTCTGGCTGGGCAGAGGGAGGAGTAGAGAAAGTCTATCTGCTGTGCAAACATTCCCTGTCTCTGCCCTTCCTGGGTTTGTGTGAGCCTGAGAACAGGAGCCCGGGAGGAAGGCTGCACTCTCTGAACTGCTGCCAGGCCCTGCCTCATGACATTCCAGCC
1 GGGACTGAATGCAGACACACCATAGCCCCCTTCTACTACTTTCCCTCTCGCCCTGCCACCTAGTTCCACATGGAACCAACAAGTTGAGTGCATCCCTGTTGGGTGTTTTGTGTTGAGACTGGCTGAAATGAGGAGACTTTGACCATGTGACGTGTCAACAGACTCAAGGAGACAACCACCTCAACTGGGTCATGTGGCATGCCTGTGTATGTGTGTAACAGAATTCTGATTGTTAGACTGTAATGCTATT
1 ctactcctcccttaagtctccttaagacgctgggatgtctcattggcaacccaacaggaagccggggaacaagggagccattgatgcagtccacagatgccagcccccagggaacagagcagaagtgtggcgagtgaaagcggaagggcaGCATATCATGTAACTGTCTGAGGCTATGCCTTGTTCCTCAAAGTCCACAGCAACGCTCCTTCCCCATCCGGAGCTCCCACAACCCTCGGGTCTGAAGGGG
0.3949823009156415 GCAGCTACTCCAGTGGAGGTCAGGAACCTGAGGCAGCTACAAAATAAGCTTTTTCCTTTTCCTGCAAAGGAAGTTGATGGAGGCCGGTTGATGGTTTTGCACCTCCTGCTTGATTGCCTCTGACCTTGCCCTCTTCTGGCCGATTCTGTCTAGAATAACACCTTCTGACAGCGCTAGAATCTGCTATGCGCACGCCTGGGCGTGGCTTCCCAGTGGCCGGCAGAGGGCGCTAGGAGCCCACACCCAGGCT
0.1766269972496182 AATACAATCTGAAAACATCTGAACGACTTTCTTTGTTCACTATAGAGTCCTGAGGGCCGCCCAGAGGCCTGCCTGTTTATCCACCACAGGCAGCTGGCAGTAACTCAGCAGGCGCAAAGCACACACCTTGCTCTGTCAGATCAGCCACTCAGATAAGGCCACGGGGGTCACTCATGAGTCCAGGGGCATTGGCGTGGGCTCTAAGGCACCTGATGGGGCAGGCCAACCATTGGCCAAGTAATAAGGACCT
1 TCCTGGGTGCTTCTGCAGTCTCTGCTCCCCTCAAGTAGTGGCAGAGGTAAGCTAAGGGCGGGCTGGATCGGGGGCTGAGAGTGGGAATGGGGCAGGCAGAAGATGGCCTGCGGGGAGGACAGCTAGGGGAGGTGGGGGCCAGACCTGGCCTCAGGCAGGGCCGTGGGTCCAAGCTCTCTGCTTCCCTCTGGTGGTGGTTGGAGTATAGACATGCACCCTCCACCCTGCAGTGAAGGTGGCCGGTCCCCCA
0.7484065604902105 GGCACCTGAGCAAGGGGAGCTGCAGCCTCCCAAAGCCACCACGGTGGGTCAACAgcgcggtggctcacatctgtaatcccagcactttgggaggctgaggtgggtggatcatctgaggtcaggagttcgagaccagcctggccaatacggtgaaaccccgtctctactaaaaacacacaaaaaaattagccgggcatggtggcgctcgaggcaggagaatcgcttgagcccaggaggcggaggttgcagt
1 CTGATAAGGAAAATCAGCACCAAAGGTTAGAGAGCAGGCATCTTGCACAAGAAAGACAGGCTTCATCCTCTCCACTTTCCCCTCCTGCAGAATGAAACTGGGTTCAACACAAATTCTCAAGTTAATGGGCTGTAAATATCTGGCAGCTAGGGCAGTTGCACAGGGCTGAGAGCCACAAGTCAGCCCTGGCACCCCAGGAAATGAGTTCACCATCTTCAGCTCCTCCAAATCTGCATTTGCTGGAGGCACA
1 CCTGGTCCTGAACCCTGGACCTGAGCTGCGTGGGGTACAGGTTCAGTCTGACTCATGCACTGGCCTGCGGAACAGACCACAACTCTGCCTGGTGAAGGTTTTCAAAGAACCATGTCAGCAAGTCCTGCTGCCTCCTCAGGCTCCGGAGCTGTGGCCCAGTTTAAGGTGAACAAGTCCCACAAGTCCCACAGGTCTGACTCCCATGACCATGTCCGGAAGCAGCCGCTAGAGGCTGCACTTGGTCCCTTCA
1 GCCAAAGTCCTCTGAGAGCTCTTTGTGCTTCCCTGACAACCCCCCATGGCTGTCCTGTCGCCAGAGCCCTACGGAGCAGCAGATGGTTGTGCGCTTGATCAAACACAGGCAGAGATAAGACAGTGTCTGGGATTGCTCCAGAGGTGCCATGGCTGGCAGGAGTCAAAGGACACTTGAGACAGTGATGTGCTCTCGCAGAATCTATTGAGCTGAGCTGACTGAGCGGTCTGTTTTTCCTCCCGAGGCCAGC
1 gattacaggcgcccacgaccacgcccggctaatttgtgtatttttagtagagacgggctttcgccatgttggccaggctggtctcgaactcctgacctcaggtgatccacccaaccttggcctcccaaagtgctgggattacaggcaatagccaacgcgcccggcAGGTCACGGTCCTTTTAAAAGGTTATGGCAATTGTACTGCTACTTCACCACTAGGTGTCTCACAATGCTAGAATTTGGGAAACTC
1 AGCATCTCTTAGACAGTTTACGACATCATCTGAAACACAGAAATGACGCTTAAAAAGCAGCCATTTACTACAGGACCCTAGGTTCACCTGCCTCATGAATAATTCTACACTCCTGTTACTTATTTTCTAGGAAAAGATAAAAGGTGGTATTCATCCTTCCCTTTTTCCTCACACTGTAATATTACTTGTCAATTAACTTAATGCTCTGCTTACCCTTGAGGTAGCCTCAGGGTACTAGCAGATGTGTTTT
1 AGGTGTCACTGACCACTGTCCTACAACCAGCAGGGGCCAAGAAAGCTGTGAGCCTCTGAGAGGAGCCAGGTGGGGGAAGCGGTGCCAGAGCGCATGAACTGTGACCCCTGAGCCAAGCCTCCCCTGTCCCTTCCCAGCACTGGGCAAACTAACAAGAATAATGGCAGcagcactttggcaggctgaggcaggtggagttcgagactcctggcctggccaatatggtgaaaccctgtctttactaaaaata
0.3813848885464247 CCCCGCTGGGATGTGAGTTTGCTTCTGGGTTCCTCCCATGCAAATGAGGTGGTTCGTGGCAGTGCAGAGGAGGAGTGAGATGGCAAACAGGGGGGCCCAGACCTTCCAGCAACTTACACACTTGCCCTCTGATGGCCAAGAATGCGTCAACAGCCCTCGAGGCCAGTGCAGTACAATCATGGTGGCACGAGATGTGGTGTACACTCCCCAAATGATCATCCTGCTCACTTTTGCTGTGGTTTCAGTCATC
1 GGGAATTAACCTAAAAACCACAAACATGCGGAAACGAGACTCAAAATTCTGAGTCCAAGAATAGGGTTCATCTCTTCTAATAGTCCTTGTAGTCTCATATTTAAGTGGAAAAGTCACTTTCAAAGTTGAGTCGTATAACCTATGTACTATTTTACAACAAAAACTTTTAAGGAAATAAAAGTCACAAAATAACCTGATTTGGGGTGGGGAAAATGGAAAAAGAGATGGGTGCCTTGAAGAGCGGGACAGG
0.2921522616821166 GCAGGTCGGGGCCTGGGAGAGAAGGGGAAGCTGGCCTGGGGCAGAGATATGTTTTCCATTTCCCCTGGGGTCCCGCGCAGGACAGCTGCTGTCCATAGCCAGTTCAGCCAACCGTGGGAGGAATCACATTCACTCGACAGGCAGGCAGTGGCGGCACTGGGATTTGAACATGGGGCTGATGGGCTCCAGGCGTGGCACCTGTGCCACTACAGTGCGGGGAAGCTCTGACTGCTGCAGCCTCCGTTGTCGC
1 aacgcACGCCCTGGCCAGGCATTGCATTAAGCATGCCACGTGCCTAGCACATAGACATTTATTAAGGCTTCCAGATCCTTGGCCAGACGAGTGGCACTGGTTCCTGGCTGTCTGCGGAGAGGTGCCGGCTCCCTCTGCTGGAAATAGTGAGTCGCAGTCAGGACGGGAGAGGACAACGTAGAACTGCACTCTGGGtgggagggacctcagagatgacctggcccaacatggtgttttacagatgaggaaa
0.4011498804967823 GGTTTTCCAGATTTGGGAGCCGGTGGCAGTACATTCTGTCTCCGTCTGGCTGAGCAGGAAAACAGGAGACAGAGCTTCCTACCACCTGATTTACAGCCTTGGCGTGGTTTTGAGACACAAATCACCCGAGAGAGCGGCTCAGTTGTAGTTCTGCAGATGCGATCCGGTAGGATCACCTGGCAAGATCGCTTCCCGCCGGTGGGGAGGTCCACAGGGCCTGGGAAAAGGCCTCCTCCCAGACTGAAACGCC
1 TCCGTGCGAAGGGACCCGGCCCAAGCCTGAAGGGAATCTCGTCTGAAGAGACCCCCGAGCCCCCCGTCCGCGGGACCTCTCGCACACCACAATCCCCACCCCTGCTATTCCTCCCTTGCCATCAGCTAGCTGCAGGCCCCCCACCCGAAGCCCACCGCACCTAGGTGTGTAGCCGCAGCCCCGGCGGCCGCCATGCTAGCTTCCGGCTGCTCCGGCCACCGTGGGGGCAGAGCTTCGTGAGCCTCACCCA
1 gtctccctccctccagcaggctagcctgggcttgatcctagggcagtggatgacactctatttcccgtgagagtagagcatgcagggcctcccaaagcctaggtttgtaatgggtaccataaaccaaaatgtatctgtgacaggtctcaaccaatttagaaagtttattttgccaaggttaaggacatgcctgcgacacagcctcaggaggtcctgacgacatgtgtctaaggtagtcagggtacagctt
0.7345927681089421 atattccttgaatgaatgaatGCATGAGTGACCAACGCCCTAGTCTGTTTTCAGAGCTCTTAGTCCAAACCCAGGTTCAACTTGGGGTGCCACCAATCCTTGCGGGGGGGGGTGCCTGGCCCCACCCTTGTGAATTGGGAGGATCTGGGTCAGGCCGTCTCCCTCTTGGGGGCTCCAGTGCCCCAGCCGATCCGCGGTCCTTGTCCAACAGCCCAGAGGCCGCTGTCCAGCGGGCCAGGAGGCGGATCAC
1 tctcactctgtcaaccaggctggagtgcagcagcacgatctcagctaactgcaacctctgcctcccaggttcaagcgattctcctgccacagcctccggagtagctgggactacaggcatgtgccaccacgctgatctaatttttgtatttttagcagacatggggtttcaccttttttggccaggctggtctcaaactcctgacctcaagtgacctgcccacctcagcctcctaaagtgttgaaattac
1 CACAGGTGACTTCAAGGGATGGCCGGCTCCTCTCCACCGTCATCCGTGCCTTGGACACACCGAGGTGAGTGGTGACTGCGTGGATATCCTGGCCTTTGTTGCCTCTTCTCTCTGGGCGCAGTGAGTTTCTCCCAGCCTGGGGTTAGAAGTCCAACCGTTGACAGAGGGCCAAGTGGGTAAATAGAGAAAGAGACAcaaacagttatcgccttgtggaaacagaggcctagctttggccgggtctgattct
1 CTTCTTGAGGATAACAGTGAAAAGTCCAAAAGGAAATACAAAGGTgagaggaggcactcttggtatagagcacaacccaagtagaagcacagagcagagaaacaaggtgctgtattcagcaaaccattaacagtttagttttaatatacaataagctagaaagtataggatgactagagaggaggccattgatctggcaggagcacgataacggagggcctcacatcgcatgctaaggatcttggacttt
1 CGATCTGCCAAGGTGCGCCCGTGTGGCCCTCCGGCGGGCTGTGCGGTGGCATGTGACTTCACTGAGTAGGTGTCTTTGTATGTCTGAAATCCAGCGAGTGTGTGGGACTGCCCGTGTCAGTTACATGTGTGCATGTGGAGACGTAGATGTTCTGGAGCCATGTTGTCGCTTTGTGAGTGCTGAGTGGCTCCGCTGTGCTCCCGTGCTGTCTCAAGAGTGTGGACCAGAATGGCCCAACGCTGGGCCATGT
0.0540219905609378 AGACAGGACATGGAATTGAGAAAAGACGAGGGAAGGGGTACACGGAAGGAAAAGATGTGGGGAAGAGCGCGAGAGGCCTGGCCAGGGTTGGGATGGGTGGGACAGGCTGAGAAAGTCCATTAGGTGAAATCCTAGGAGGCAGCAGGCTGGAAAAGGTTCCAGCGAAGGTCGCAAGGAACCCCACAGGGGAAAACGTGGTGGGAGCTCAGGGTCTCCCAGCACCCTGCCGCCCTCTGCTGGGCTCTGCCTG
1 GGCAGGCCTGCCCTGCTAACACTGTGATGTCAGATGGTCTGGCTGGGCTGGAGAGGCCAAGAGCCGACCTACCATCCCCATGTTGAGCTTTCCAGCGTTTCTGGGGCATCCTGTCTGGTTGCCGGGGATGGATGGCCCAGGGTTGGAGTGGTGGTCAGGGGAGGACAACTGGGGTGGGCTGGCTGGTGAGGATACAGGGCGGGGGTTATCATGCAGGCGTCTCAGCCTGTGCTTTCTGTGGGACTGAGAA
1 tttcctctttctccaaagatgatcacacctggcccactctcctcacaggtccttctgaggctctgaggagaggaggtgcaggacaacactttgAAGTATATGATGAAAACAGTATTCCTTCTTTTCTTCCAGAAAGAGAGAGAGAGGGACACAGAGTCTGAGGCATAATTAACACCACCAATCTTAGCAGCACTACCATGCCATGGATAATTTTCAGATACCCTGAAAAGGGCAAAACATTTGTCTTTTG
1 GCGGAGCAAAGGTCAGTCAGCGGCATAAGTTGTACCTGCTGGGAGAACTGTCTGCTTCCTCCGGGTGACTTTTCTGGCCAAGAAGGAATATGAGTATGTGCCTCCCTGAGCACTGGCCTGGAGCCCACTCAGGAAACACCATCTCTTCATAAATGGTTTTGATTGCAGGCATTGTTCCTTCTGCTCTCTGGATGATGGAAATTGCTTCAGGTCACTGCACTATCTTCCAACGTTTTTGTGGTTGCCATGA
0.465370694214981 CGAGGCCGGTGCAGGAGCTGAGACGCAGCCTGCCCTGCCACCTGGTGGAGAGATGAGGAAGGTGCGCGGGTCCGCGTTCAGGCAGGTAATGCCCCGCCACCTGGTGGAAAGCTGCCGGCAGAGGGTTCCGGCGCTTGCAATCAGCCCAGCCGCGTGGCAGCCCACAGTCCTAGCCTAGAACATGAAGGATATAGTGTTCTAGGGCTCAGAGGCCTTGCCATATTCTTCTGACCCAAGAAGCAGACTCTGG
1 agcagcacccaggagcttgtggcagtgcaaattcccagactctgattatctggctcagaaactctgggagtgggaccccacaatctgtggctccatcttagcaagtctttccagtgcttcggatgcatggtaaagttggagaaccaTGGCTGTAAAGTATCAGTAGTCGAGGAGCAGGAAGATATTTCCACTGGTTGTACATTTTAGTTTAGAATGCTTGATCTTGTCAAGCGGAGCCCCACATTGAATC
1 acgcccagctaattttaagcggagtttcaccatgttgaccaggctggtctcgaactcctggcctcatgtgatccacccgccttggtctcccaaagtgctaggattacaggcatgagccactgcacccggccagggttggttttaatcttgtggactttgtgagtctcaaaaccggcagatttccctctttgttttgactgatacgaagctcagaatcctgtttgcagtccacctttgaggattgtggagc
1 TATCGCTCCAAGTACTCCACGGCTGCCACAAAGAAAAGTAAAGGGCCTGCTGCTGTggctcgttggtctaggggtatgattctcgcttaggatgcgagaggtcccgggttcaaatcccggacgagccccTCttcttatttttgagacagagtctcgctcggtcgcccaggctggagtgcagtggcgctatctcaactcggttgaagctccttctcctgggttcacgccattctcctgcctcagcctcctg
1 gtagaaataaacttgacctagtttaacgacaataacaaaatccagaaggaagaatgtattttaaggtatttcaccaaacccaaggtcagaaatgctcccaggacccagaaaggatcagacacatgatctgggatatctgtccctgaattctgcatctgtgtattcgtgcgtgcgtgtgtgtgcacttgtgtgaatgtatgtgcgcatgcgtgtgtgtctttccctggatcaagtgcctggatcaagtggc
0.8490393897417993 CTCATAGGGCTCCTCCAAGGGCAGCCCAGGGCAACAGGGGACGCGGCTGGAAACGCTGGAAACCAGCCAGGTTTGCTACAAGCCTCCTCCCGCCAAGCATCCACTGTCAGGAGGTCTATGGACAGCTGCCAGGTCTGCCATCCCCTGCCCAGCCACAGAGGAAAGAGGAGATTCAGCCAGGTTTCAAGAAAAGCCACCTGCCCCCAacacacacacacacacacatacacacatacacacCCCTCCCTGG
1 CTGGGTCTCAGAGCCACTGGCCCAGGCAGAAGTCTCCTTGAGCCCACTGGGTCATATGCGTGTCACCACACGTGAACTAGTGTGGTGGCTGCCTGCGGACACCCTCCTGTTCTGAGCCCTGGGCCTGTGTTCTTCTCAGACACTCCCAGACTGAGGGGTGGTGTGTGGCGGGTGGCAGGGTGGCTGtggagactggggatctggagcctggtgctggcacctggCCTGAGTTTCCGTGGGCAGCTGGCGG
0.02499320444984574 CACAAAGGAGCCGAGCTGGCACAGCCAGGGGCAGTCACGGAGCTGCGGGGGAGGCTGGCAGGGAAAGGGAAACGCTTCCCCAGCCCAGACTCTAGCTCCCTCTGGCTGCGGGGAGCCAAGGCCCCGGCCCATTAGTCGGTCCTTCTGGACTGGAAGCAGGCTGGTCCCGTTTGTTTCCAGGGAAAGCGGGTTAGGACTGCCTGTGGAAGGCCCCGTTGCAGGCTCCTCACAACCCCAGTGGTAGACATTA
0.7103638287006082 CCTGGCGGCCCGATCCTAAGGAAGCCCCTGCTTTTCTTGCGCCTGCCGGTGCTCTTCTCCCGCCCGCCTGGCCCTGCTGTCAGCGCCCCCTAGTGCCGGGCCGGCCGCGCATGAGGGCGGTGGGACAGATCGCCCACAACTCCTCGGCTTGCTTTTGGGGAAATAAGGCAACAGAGGGGTCTCTTGGAGTCTGGAGCTTCCATGTAAAATCCCCAGGGTCTACTCTTGGCTTTACCACCCTCTCCATCTC
1 cgtagacacagccataactgcagccatacccacagacacagacatgcacatattcataTCAGTAGTTCTTTGTCTTCTGTGGACACTGCTCAAGCAAAAGAAATTTGGAAACAGGAAATTCTACTCACTAAGAGTGTTTCTGTCCCATTTCTAGCATCTTCTCAGCCACATAGTACAGTGTGTGCACCATGGTTTCATAGTGTTCTGGATGCTGCTGGGGAAGTAGTGACTATCCCCCTTCAGCACACCC
1 ATACTTCTTTCTGCCCCAGGAACCTTGGGTAGAGGGGGCATTGGACCTCAAAGCCAGCTGGCAGCCTCAGCATTTCAGATCAAAGTGGCCTGCCTCTTCAACGTCTCAGCCTACCCAAGGCATGTCCTAGGTGTAGGCTGCTCTCTGGTGGCCAGATAGGGAAGGACTCATTCATCCTTTGGCAAGGTGGGCTGCGATCTGAGCTGGGCTGTGTGATAGGCAGGCAACTGGATTAGACGGGCAGAGACAA
1 CCTGGTCTCAGTTTCCCCATCTGTACAGTAGAAGCAGCAGACTGGCCGTAGTTGCCTTCATATAGTCATTCATCAAACAAGCATCTGTTAGCCCAACTATGGCCTGGGATTGGTGTAAACTGGGGGATCTATGCTGGCCCACAAGGGAGAGAGATCTTTAAGTGTTTACTGTGGAAGCAAGGGTACAGGGAACAGCTCCCTAGGAGAGGGGGGCGGTCTCAAGAACTGGGCTGGAGAAGAAAGAGCACAG
1 gattcgaaccccgtctgtctgaagctagaggccgGCCAAACTCACCCTGTGGCCTGGTGGATTTTCTTTCAGACCAGTTCTGCGACCTCCCTTAGGGCTCTGTCTCCCTTCTCCGTGCCCTGAAGGGAAACAGGCCCTGGAACTGCACgggagtctggtgggggatgggggagtgagggagtggggaAGGACCGGGCAAGACTAGGCAATGAAGAGAGTGGAGGTGGTCGCAGGGTGTGGGCCCCACTTG
1 aagtcacattacaagataccgggggctagaacttcaacatataaattttgggggaatgcaactcaacccctaacaGTTTGGCATAAAGTAGTGTTGAAGGGACTCCTCCCCTTCCTCTACCTTCTGCCCCTGCCCATAGCATGGAGGGAACTTCCACTGAGCCTCCTCTGTCCACTTCTGGCGCCTCTCACTAAGCCCTTTGCTCAGCCTCCCACAGGAGGAAAAGTTTATTGGGCGGGTCAGTGTCGAC
1 TGTGGCTCTGATGACTCATCTGGGATAGGCATGAAGGTTACTTAGGGGAACAAGAGCCCCGCTGTTCCCGAGAGAGGTGGGGTTGGAGAGCGGCACCCAGGAATTCCAAGCCAGTCTCCTGGGACTCTGGCAGCCTGCTCCCCGGCGCTGGACCCTAAGGGACCAGGCGTGATGCCTTCTGGTTCTAGCCTCTGAGTGCCCCCCACAACTCAGTCGTCCCCCTCAGCTGCTGCTTCAGAGCTCTGGGGTC
1 GTGggtcgggcgcgctagctcacgcctgtaatcccagaactttgggaggccgaggcgggcggatcacctgaggttgggagttcgagaccagcctgaccaacatggagaaaccccgcctctactaaaaatacaaaattagccgggcgtggtggtgcatgcctgtaatctcagctactctggaggctgaggctgaggcagcagaatcgcttgaacccgggaggcaggggtcgcagtgagccgaaatcgcgcc
0.02777382322513575 CAGAGCCAGGTCTCGAACCACTTAGCCCCAATCCTTGGCCACAGCGGCCCCCATTCGCCGCTTTGGTGCTTTTGGCGCCCCCGCCAGAGCGGGCTCCGTACCATGGTCGCGGCTCCAGCAGCGGGCGGGCGGGCTTGTGACCCGGCCAATAACGGTTCCCGGGGTCGCggcggcgcgcgcgcggggggcggggcagtgggcggggcctggcgtgcgccgggtggtctcgcgggcggtggcaggtgagcgg
1 GAGCCAGCTCCCCGTGACAGCAGCCTGTCATCAGAATCCCCTGTCCTCATTTCCTCCAGCCCGAGCCAGGACTGCAAACAAGGGGGACAGTACGGAAACCCAACACTCTAGCGCCCACCCCATAGTGGTCCTGGACACAGCGAGAGTTGGGGTCCTCCATGAGGGTCCCCCACACAACATGAGGCTGATGCCCAAGGCTGGGGAAAAACCCTGGGACAGTGTGGGACACGAGCAGGGGAAAGAGCAGGAG
1 TGGACTTGATATTGTGATTAAGGATTATAGACTAAAAATTGTGATAAATTTACAAAAACAGACGGCCCTTATTAAAGGGGGAAAGAAAAAAAAACACGCACACCCTAaggccccgctgggattcgaacccaggatctcctgtttacgagacaggcgctttagccaactaagccacagagccAGCCGTGCTGATTCTGTGGCTTCTTTTATGACCGAATTGCACTTAATTAGGTGACAAATTCTGTTGCCA
0.3831099795841888 CCGCTCCCTCTCTCTTTCCCCCTTTTGTCGCCGCGCTTTTCAACCGCCCCCTAACTCTGCTCCCCCTTTTACTCCGTCGCAGCCCGGGACCTCCTGGTGGGGGTCCGCCACTGCAGCACCAGGCGccactgccataccaccctgaacgcgcccgatctcgtctgatctcggaagctaagATGTGGCCGCATTTAGGACCCCACCGGCTTGGCTGTGCCTCTCCCAGCCCCCTGGCGGAGCGGACTAACCC
0.958857932461585 aaatgtgtgtctaatgaataaGCGATTCCACCCAACTGGGTCCACACTCACTAAGCTTTCTCAACAGCCTCGGCTCAAAGGcacatacacagagtcaacacagccacacacacacgcacacacatgcacagagtcacaAATGGTGCACAAATATGCAACAGGCTCACGCACAAAGCTGAATTCATCTGTGCTCACTACTCCTCTGTGTCCCAGGTCTGTTTTCTTTTGTGACTTGGGGTCCCTGAGAACA
1 AGGAGGCTGGCTTTGTTTCTGTGCCTCCCTGGCCCAGAGGTGGGCCGGGCAGAGAACACAGGCTGTTGATGTCTGGCAGGCTGGAGCTGGCCCTCCTTGACGCAACAGCCTCCCTGCTAAAACACAGCTGGGATTAACGCGTTCCTGGTTTATCACGTTACAGCTGATTTCTCTGGTTCCTGAGCTGGCAGGGGTTCCAGGAATTACCTCTGCCTTTTGCTAAATAGCAACTCCTGTGCTGGCTCCATGA
0.08990605157980597 aggcgttgtctgggaaattcaTCACTGCTTGGGAGTCAGGAAAGTGACCGGGTGAGGAAGTGTTATTGTCAGGGTCTCCCTTTCAGAAGGCCTTGGGGCCAAGGGGAGGAGCTGGAATTGCCTTCCACCGCGTGCAGACCCCAGGCTGGATCCCAGGACTGCCCAGGGACAGGCACACGTCTGCCCTCATGTGGCCCACAGTCCAGGGGCAGGGACTGTCTGGAGAGATTAGGGCcatggggggcaggag
0.1314018008270024 CAGCAGGTGGGGGAAGGgggagctggggccgagggctggggagaggggaactgggCCACGCTCCCTGACCAACTCCTCCTGTCCCTCCTCCTTCAGCTAGCTCAGGAGGCCCGCAACATCTACCAGGAGTTCCTGTCCAGCCAGGCGCTGAGCCCAGTGAACATCGACCGTCAGGCCTGGCTTGGCGAGGAGGTGCTGGCCGAGCCCCGGCCGGACATGTTTCGGGCACAGCAGCTTCAGGTGGGCGATC
0.6120600913661672 GAGTTCTCTGCTCCTGCTGGCTCTTCTAGTTTTCTTGGCATTCTAGTCTTGCCAGGTGGCAGCACTTTGCTGAAACACTTGTGCAATCTCTATTCTTGAGCCGGTTCCGTGAAGAGCTAGCCTTGCCAGGCAGGCTAGCCAGGCGGGAAGGAGGACAGCCCCACCCTGTGCATCCTGAACCCACCAGCCTGGGACCAGGGGTAGTCCAGGCATGCTTGAGGTCATTCCTCAGTTTCCTACCCATCAGCCA
1 CGGTGGCGCCCTCGTCCCACAGGTGCAGCACCAGTTCTAGCCTCTGGTGGCATCGGTTACTggagggagggagggaagaagagaggaacggagTTATATTTGCAAACACACTgcccactctgggccctaggggtggaaaagtgaatgaggaccacacagttcctactcaaggagGCTGGATTGGAGGGGCTGGGAGCCCCAAGGAGGAGAGGAACGTGGGAGAGGGCACTGCCTGGGGATTTtgcagtgg
1 CGTTCCAGGTAGGGGCGAAGGGAAGACTCCTGTGGCCCGTCATGTGGCGTCATGATGTGGAAAGCAAGGCACAGAGGGGCCACACTGCCCAGAGCCGAGTGCTTATGTTGCTGTGTGATAGGAAGGCTGGTCCTGAAGGAAGGATCAGTGCCCCCTTGTCAAAGAGAACCTGAGGCTTTCAGTATCCAGTTGTAGAATAAGGAGTGGAATTCGGAACATCTGGCCCTCGGTGTCTTCCTTTGGGGGCCCT
1 TGGCTTTGCCTAACTTCCTGCAGCAGATGGATTTACAAAATTCTCTTGCAGAGCATGGGAGCTGGGAGCAGAGCTGCCTCCTGAAGATGGCTGAGCCTGGTTTTGTTGTTTTGTTTTTTGGTTTGTTGTTTTTCTGATTATGAGATACAAAACCACAGTGAAACATTTAGTTGTCTTCCAAATAGCCATCTTGGCACAGATTTGAAACATTAGCACGATCATGTGTCTTTAGTGTCAGAGAAGGAGTCAT
0.62977066553373 CGGACGCCCGCACAGGTCGCCGGACCCAGAGAGTCGGCCCTTAATAGCCCCCTCCTGGAAGCGCTAGGTCCCGAAACTGGCCTTCCCCCGGGGCCCATCTCCCGGCTAATGTTTAACCCGGCCACACTCCACATTATCCACACTCAGGAGACCGGGGTGAGGTGAGGGTGGAGGCTGGGGGAGGTCACCTCCAAATCGCCAACTTCCGAGCCTTTGCTCCAGGCAAACGGCCTTCCTACATCCCTTCCAG
0.6506957938406606 agactgtaaagagatttcattaataatattaagaacctaccactgtgtgtagtcatctgagcttgaacaaatcagttaaactttcagggcttcgatttctttgcctgAACTGTGAGCTAGCTcagaggtcagcaaatgttttctgtaaagtaccaggtaaaaccttgcagaccagcagggtgcagtggctggcactgtaatcccagctactcagcaagctgaggtgacaggcttgcttgagtccaggagt
1 tttttttgagacggagtctccctctgtcgcccaggctggagtgcagtggcgcaatctcggctcactgtaagctctgcctcctgggttctggccattctcccgcctcagccttctgagtagctgggactacaggctcctgccaccacgcccggctaattttttgtatttttagtagagacgggggtttcaccgtgttagccaggatggtctcgatctgctgacctcgtgatccgcccgccttggcctccca
1 CAGGCCTCAGAGGAGGCACATGAGTTTGGGTTGCTGAGCCTGGCAGTAGGCCAAAGGCGTGGGGACACCTATCTGGCTGCTGTCCATTAAAGCTGGGCCTTTGAGGTCCATGGGGGTCAGGCCATGACCCCACTTAGGATCAGCTGGCGATGCTACAGCTAAGACAGATATTCCAGAACTATCTTGGGTCACACTCTCTCACCTTAGATCAGGCAGGTGGGGCCAATCCTTAGTGAAGTATCCCAGGGCC
1 tgggattacaggtgtgagccaccacgcctggctgagaaaagtatttttaagaagagggagtgatcggccaggtcaaatgctgctgaaagactgaataaaattaagaaatgaacattgaccattggatgtggcagtgcagaggtcatttcgtggagtgactggggtgagagtctgtgggaaggactcagcagagaacgggagaagacaaatggagtcagcacatagacacaacgctttgaaaagttttgta
1 TAGATTGAGTCACATGAAGAAAGAGCTTCCTGCAATTCAAGGACTGTACAAAGCTGAAACGCAGAGATTTTCATATTATTTGGGAGACTCAGAAATGAGCTTTTAAGGTTGTTCCTTGACTTGCGGGTCAATAAGCGCACAATGGTGAAGAAAAGGCTGCCTTCTAGTGACACGGTGTTCCGGTTTGAGACTCCGGGCAGCCCAAGGAAGGCCAACGTGGAGGCCTCACGCAGCTCCACAGACAGCCCCA
1 CAGGCACCAGGAACCAAGCCCCGGTCTCCAGAGGCGGCAGACAGACACCTGCCGGGAAGCCAACCGTGATTCAAACTGAAACCTCAAACCAATTCAGTGACTGCACTAGAAACCTTGGAGTGTTTTAATATCACGTTTAAAGAACTCTAAAAAAGCTGGCTGAAAGCATTTCCAGAAACCTCGGCAAAATGCCTTGGCTGTGACACACAGAACACCTGTGTGCTGTGACCTGAACGGTATCTTTAATGAT
0.9930334277944292 CATGAGGATGTTCTCCCTGATGTTCCCGCTGACGATCCAGGCCTGCTGGGGGACATAGGCCAGGCTTCCCTGCACCCCCACCGAGCCCTCGAGCAAGTGCATCTGCGGCAGAATGAGTCCAGCCTCAGGACCAATTGGGCCAAGGGACAGAGCCTGCCTGGCTCAGCAGGCACAGTGCCCAGGGCCCCACTGCCCTCCAGGACCTTGGGGGCTCTCCTAGGTAAAAGGGACTTTTAATGTGGCCCTACCA
0.2319629193960138 CAGACCCCATGATGCGGAGGGGATGGCAGTGCCCCAGTCTGAACGCAGCCTCTCTCTGCATCTGGAGGGCACGGGGACTTGGCGCGTGTTTGGAAAGGGGGATCTGTTTGTATCGACCAGCAGCCGAGGGGACGCCGTCTTCTCTACCGCGTGCCCGCGGGGCTGCCCTGGCCGAGGAGCCTCGGAGCGACCCGGGAGCTGCGCGCCTCCCGGCTCCCGGCTCGGCGGAGTCGGCGCGGCTCCGCGATCC
1 GATAACCGATGCATTCGTCGCAGAATCTGGCCAGGATTTCTTAGGTTAAGCCCCACTCATTTGTATAAGAAAGAATATTCCAAACTTAAGTACTACACACAAAAGACACTTTTATTTGTGAGGCTATAGTTGGTTGAGCTTGTGTGCACCTTCTCCTATTTCTGTTCTATTAAATCTTGTGAACATTTCTCTACTCTTTAGCTGTTTCTGTCATAGAATGACAGAAGCACCTCACTGCCTTCTCTTTTAA
1 tctctcactttaaatgcagtccctctacaaggcagcctcagggtagctgagtttctttcacagcagctgaagcctcccgacatgagtgtccctaaaggaatcatcagaagctgcagggtcttttctaacctagccttggaaatcacacagtgtcacttttgccacattctatttgtctaggcactcccacatttccacccaggttcaaagggaggggacataggctccacttcttgatggaaagagagtc
0.2785469726563147 GAGCGCAGCTGGGCGCACACCGCAGGACGGCCCCTTTCGCACCGGCTCGCGAGGGAGGCGCTGTGCCCCCCGTGTGCGGCTTCTCTCACCCTGCCAGGCCTTCCCAGCTTCCCTGAGGTTGCCTGCTACACCCGCCCCTTGGCGTTCCGCCTACCCCAGTATTCTGGCTTTCCCCTCACCTTCACCAACGCCCAGGTCTCTAGTCAATAGCTAAGCCTTTCCTGGAGTCGAGGGCAACCCCAGTCTTGTG
1 GCTGTCAGAGCCACCGCGGGCACCTTCACAAACAGCGGGTTAACATCCCAACCCTATACAGGCAAGCCCGCCCTGGGGACAGCAAACGAGTGGGGAAGCACATCCTTTTCACTGGACTGAAGCAGCCAATTTCCCTTCCGCGACAAACTTGGCCACTTACAAAGAAGAGAGAAAACGGAGCAAGCTGCAGCAAAAATAAACGGTGAAGCGCGACGATGCCGGCCAAGAAGACCCCCAGTTACTTACCGGC
0.4702548114489001 GGCTCGCACTCCCGGACCCCGCACCAACCTCCAGGGTCGCTCTCCAATCTTAACCAGGTTTGCTCCCTGAGCGTACCCAGGTGCTACAGCATCAGCTTCCCTTGCCGCTTCCTGCGGCTGAAGGGATGGTCCGACCAAAGCCTCCTGCCCTGGGGCAGCCGATGCCACTGCATGCTTTTTCCTGCGCTTGGGCTTCACGGTGCCACGGATATTGGCCGGCTTGCTGCGCTTGGAGCGTAGGGTAATGTAC
0.6419476307784965 CTCCCGGGGCCCAGTCCCAGAGGGCTGACTGGTCCCTCTCCCAGGTCTCCCTGGCCTTGCAGGCCGGCTGGTCCCCTCGAGGAGGCAGGCGGAGGCCAAGATTCGCTTCTTGGGGAATGGTCTGGAGTGGCCTCGGAGCCCTCAGAGAAGAAAGGAGGGCAAGAGCTGTGTTCCCGGGAGTCACGGCGAGAGGGACTGCACGGTGGTGAGGGTGATGGCTCCTTCCTTGCAGCAATTTCTGCAGCTCCCA
1 GTCCAAAAACGCTGGGTGTCAGCCCGGGGTGGCTAATGGAGGGCGGCTTTTCTGGTGGGATGAAATGGAACGGCAAATCCCACTTCATCCCCTTTGGGCTATGACAAcatcatagtccaatctcccattttatgaacagggaaactgaggctcagtgactagacagacgttgcccagagtcatggtcatggaggaagcttgtgctagaatggtggagaggaaaccagagcccagctcctaatgcaaggct
1 tctgagagattgagcgaggtggggaccatcggatttggccacgtgggaggtgctggaaaaggaagctggcctgcagtgggctgggaaggaaggagctggggatgggaaggacccacaagccttgaagaaggtttgctgtgaatatcacggaggaggggcgtggtcgctggaggcagataaggaggttagggtaaccttgttttgtttagatgagagcggctggaaaatgtgtgtatttttatgggaacag
0.3953263539056582 GTGGTCCCTGCGGGGAAACGCCGTGTGGGGCTGGGGCTGCCCACAGGGAGCTTCTGGGCCGGCTAGCCAGCAGGGGGCGCTGTGGACTCAGACACGCGGCTCTGGCCAAGGATGGGAGGCGGCTGGATGGATGGTGAGGTCTCCCTACAGCAACTCTTGTCATATCCCCCGCCCAGCCAGGCTCTCCTGCCTTGCACACAGCGAGGTCTCCACCTCCTCACAACTTCCCAGCCCAGCCCCATTGTTCTCC
1 CGTTTCTGGGAATCTGCCCTGTGGACTGACTGGCGACTCTGGTCTTTTCTCAGCCcagctgcagctccagcaggtggcgctgcagcagcagcagcaacagcagcagttccagcagcagcagcaggcggcgctacagcagcagcagcagcagcagcaacagcagcagttccaggctcagcagagtgccatgcagcagcagttccaagcagtagtgcagcagcagcagcagctccagcagcagcagcagcag
0.6023644765777809 GTGATTCCTGCAACGAGGCTGGACCCACGCCCTGGTCCCCCCTTCCCATCTCCTCCCCAGTCTCTTCCCCGCTCCTGGTCATCCCTCTCTCATGGTTGCTTGGGCCTGCTGCCCTGTCCCTCTGTCTGTCCCAACGTGTGCCTGTCTGTTCTGTGTCCTGCAAACGGATGTCCTGTCCAGATTCCGGAAACGCCCAAGGCATTGAAATCTCCGGATGTGGGAGTCTAGGTCCCTGGCTGCTCTGGCAAGA
1 AACACTCACATCTTCCTCTTCTCCAATCAGCTGTGGCACAGGACAGGTTGTCATGAGCTAGGGGTCCTACACCCAACCCCAGAGCCCACCTGAAGCAAGCAGTAGGGGCTGCACACACCTCCACGTCGTCCCCACTCGGCCTCAGCTTGAACCACTTCACCATGCAGGTACGGCCGATGTGGTCCCCAGACTGTACCACACCGTAGACAGCAGGGTCTGGACAGCTCTGGACTAGGGAACCAGAGAAAGG
1 CTGACAACCTGATCTACCAACTCTGGTCTAGCCTGCCATTTAATAATCAATAACGTTTCTTGTTAAGCACTTCAACCGTAGCAAAGGAAGATAAAGAAGCATTTGTTTCCAAACCTAAGGTGAGACTTTTTAAATTGGCGCAAGGCGTCTCCATAATCCTTTTCCGCCAATTCCTAATTTCTAAATGTCAAGAACTGGCAGCAGCAGTCCAGTTCCTAGGAGCCCTGGTTTTGAGACAGCACCACCTCCG
1 CGCCGCACAGCATGATCTCTGAAACGCTCTCCTAGGAAGGGATGACCATTGCGCCTCTTCCCCATGGTGACTAGAACTGTTAGTGTCTGTCGGGGGATGCAGCCATTGGCCCAGACCCCAGAGAGCAGCACGTGCAAACCTTCCCGGGTGTGGAAAGGTGGAGGCCATGCCCAGGCTCATGGAGCTCACCAGAGCAGGCTCAACCCTCCTAATCCCCGCTCCAGTCCCCTTCCTGGCAGATTCCTTTCTG
1 cacccccccaacacacacataccaccaccaccaccagcttctacaccaccaATGTTTTTAGGGCTCTGCACCTCTAAGAACAAGCAGTTTCATGACATTTCACAAGCACATCACCTACTCACAGTTTGAATATCCAAACAAACCCCATTAAAGGTCTAGAGTCAAGTCACAATGAACTGAACATTTCTCCCCTGACTCAGGGTAAACAGGAAGTATAATCTTCAATCCTAGCTGCAGGTTATCAGGAAAA
1 gcctaggaacctagtgcagccaccccagccccgcctgggctgtcgggccaggagtagctctgcacttccctggcatggagctcctggagggagcaggcaggccgccatttttgctgctttgcagccctcattcctgttgcccttgggccagggagggagcacagtgattagggacaacgtggacccccagaagagggcagcagacttgcaggaaagcggccagactattttccaggtgggttcccacccc
1 tcagcctcatgagtagctgggattacaggtgtgcgccaccacaccctgctattttctgtatttttagtacagacggggttttgccatgttggtcaggctggtctcgagctcctgggctgaagagatccacccatctcggcctcccaagtgctgggattacaggcctgagccactgtgcccagccAGATGtttttcttttaagtgactgggtctcctgttgtccaggctggagtgcagtggctatacacag
1 TGGCTATTTCCGCTTTTCATTTCATCTTCTAACTCCAGAAGGAAAAGGAACTGTCTATGTGAGTTTCCTGCTAGATGTATTACAATACCACATTCCTTTGGAATTGGCTCACATTCTTGACCTAGTGGGAAATGGGAAATTCACCTAGTGAAGCAGAAACTAACATCTCCTAAAACTATCATCAAGGAGCCCTAAGTCCCCTTAGAATTCACTTCCAGAGTTTCCTCCATGTACTGGCCAAGGGCGTGCT
1 ACATAGTATTTTTTTTTCTAATTATCGAAAGGAACTAGCACAATGCTAAAAAAATAAAAACTGAGGGAGTAAAGATTGCCAAACAAAAGGAAATAATCACAAATCCACAACTTGGGATTGGATGGCATTTTAAGGAACACTCACCAATATCATCGAATGCTTCCCACTACTGGGGAACTATGACCTCCAAGAACACAGAGTCAACAGGGAAAATATGGCCATCAGCAAAGAAAACCTACTTTGGTTGGGT
1 AGTTGCCTGACCAACCTTTCTTTTGCCTACTGGGGTCTTGTCAAATCTGTATGTCTCACTATCAGGCTGGGATCTCATTCTTTTTCCAGTTCGATGGAAATTACCAAGGTCCAGGGGTCCAAGGTTGGGGGGATGGGGGAGGGTGAACAAGACAAATAAGACATAATCCTGGCCCTTGGGAGTTTTCCACTCACCCCTCTTAGACCAAgcaaaagtacaaatggagacccacattccatatgtctaaata
1 gtatttttagtgaagacggggtttcaccatgctggccagactggtctgaaactcctgacctcgtgatccgtctgcctcagcctcccaaagtgctaggattacaggtgtgagccactgtgctcggccTTTTAAAttttttcttcagatggtatctggccatgttgcccaggctggatttgaactcctgggctgaaactctcctcccgcTGATAGATGCAGGAGGCAGATAAGGGGaaggcctgcctgtaca
1 GTCCTTGGAGAGactgtatagcttcatggctgagaatatagatgctgaaatcaggctgcatctgggattaaatcagggatttaaatcccacttgactacctactggctgtatgaccttggttaaataactggcctctctgagcctcagtttcctcaattgacaaatTCTcccctgggcagagggattggattagagatggcatgtgagcttcagttggatcaatgagactcaaggccaggactcagggtc
1 AAACCTCAGAGCGTTTGCAGCTGTCTTCTAGGACTTGGACTTGGCTGTCTCCCCTTGGGAACCTCTAATGGGTCGGGTCCTGGAATATTTCGGAGCTAGCCAGGGTCCCCATATCCACCCACTCCCACTTTGTGTCCTTTACCTTTTCAGGCACCCAACTATTGCCTGTCCCAGGAAGGAATCAAAGAAAGCCACTTCAACAGTAGTGAGAGAGGCTTAAATCGCATCAAGAGCAGAACCTCTGGGCCTT
0.5509039361625904 CAGTGTGAGACTATTTTTAGCACCGTGGCCAGGGTGTGAATGTCTACAGAGCCGAGCAAGGCCTGACGCTTTCTTTGCACGCTGGAAGAAACCTGTTGGTTTTTAAAGGTCAAAGATAAGGAAACTTGTGCCCCCACGTTCAGGAGCACCCCACGTGCTGGCCAGACGCCAGGAAGTGTTTCATCAGGTCACAAACACACAAGAGCTTGGTGCTTTTTCTTTTCTCTTTTCAACCTCCAGGTGAATTCCT
0.2266440896241181 AGGTCGCCGCCCGGAATTCAGCCAAGGGTCCTTCCTCACCTCTCTCACGGCGCTCCAGGAACTCGGCCGCCTGCAGCAGGACCTGGATGTTGCTGGCCAAGGGTTCCATGTCGGCGACAGCTGGCGGCGGGCCGGCCTAGGGTGCCGGCCGGAGCAAGCGGCTGCAGCACTTTTGTTACAAAGTAACTGACACGGTGCAACAAACACAGGGGCCCGCCCCGCCCCCGGGACGCCCCGCCCGCGGGAACGC
0.170091773880518 TGTCCCTGCTCAGTCCAGGCCAGCTCTTTCCCAAAGGCATCCCTGGTCCCTGGAATTGACCATGTTCCCTTCCCCCAGTTGCTGGCATTTCTTCAGGCCAGGCCTCAGCTACTGCCCTGGTTACACTTTGGCCCCCGGTAGGTACCTGTGGACCTTGACCTGCAGGGTGCTGGCCTCTGTTGGGACTCCTCCCACGCAGGAAACAGTGGGagcggtgcagctactgggcaagtcattttacctcttgagt
1 CAAATCTCTTTTCAACTGGTAGAGATCTTCCTTCCCTGTCCCAACCTCCAAATGACTTCTGCAGCTGTAAGCAGTTCAGAGGAGCTATGCATTGGACTCCCAATCCCATCTACAGAGGCTCTCCCCTGGCACCTGCGGGGAGAAAAGCTGAAGTACAAAGGGCACTGGCTGAGCCTCTTACACCAGGTGAGGCCCTCGTTATTGGTAGATACTGAGTTCCAGGATTCAGTAACTAGCCAACTCCATGACT
1 TTCAGCAAGGCAGTGACGGACAGAAGTCCTGTGGGCAGCAGCTTTCATAAAGTGTGGGGTCAGGCAGGCTGGAAGCAGGACCAAGAGGGAGGCTACCACCACAGTTCCAGCATGAGGCAGCAAGGGCCTGCTTTCAGGGGATGTCTGAGACAGCCAAACGGGCCTGGCAACAGGATGTGGGATAGAGACAGCAGAGTTCAAAGCCGACTCCCAACGTCTGGACACTCAGGGACCTGGTTTCCTGCCACTA
0.9162021377127989 TGCGAAGCCACCGGCTCAATGGTGAGCGTGTTGTCCTCCACGGCGGCCCGTACCAGCACCGAGAGCTGTGGCAGACCAGGGAGGCAGGCAGGGTGGTAAGGGGCTGGGCCCTGGCGGAGGGGTGTGTCCCCCAGCTGGCCCCGCCCCTGCCATGCCTCACCTCCTGCATTGTGAAGTCCAGGCAGGGGCCCACGTCCTCTCGGTACACCCTTTCCAGGAAGGGGCAGGTCTTGTCCAGGGTGGGGGATTC
1 CCACTTTTTGTTTATTGAGTAGGAAACACCCTCCCAAGCCCAAACATGAGCTCTGCCCTCTGGGAATGGAAACAGCAGCCCACACACAAATCGTTGCCACTGCCCATGTACCCACCCAGGGTGCCAGCAATACAATCCTGACTCTTACAGATAATGTGCGTTTATAACCCGCTATGAGATTCCTCAGGTTCCTAGGCCTCTGAGATCATTCTGTCAGGGATTTGGATGAACCATTGGCTTAGAGTTTTAA
1 CATCCCCTGTCTGGATGGCTCTAACTATCTCACGCCCTTTACTACCTTGAGTCCTAAATCATTAGACCcatatctgatcacgttatagccctgctcaaaatacttcagtggttctctatcccacggagtataaagcctaaACATCTCTGCCctcttggctgataacctttcctcctatttcactgaacgaatagaagcaatcagaagagaatgttcatatcctcctgataccgcgagtacccaccttcct
1 CAGCTCCCTCCGGCAGGCCGGGCCTCGTCGGTGCAGTACCCATCATGGACTCAGGAGGGCAGCAGCCACCTGCCTTTCCCAAGAGCTGCCTGGAAGTGGAACCTCCCCACAGGCGGCTCCAGGTGGAGGCTGCAGCCCACAGGGGTCAACTCTTAGCTCCTCCCTCATCCACCCTCCCTCCCAGGGGATGGATGGCCCACGGGACCCATCCCTGAGGCCAGCCTGTGCCCTGCCCAGATGGCACCTGACA
1 gaattgagattcatacgaagtccatccgacctccaggctgtgttgttgctaTGGGGCTTCATGGCTCATGTTGGAAAGGAGAAAGGGAGGCTGCTGCAGAGGTGCCTGGTAAAAGTGACTTTCAGAGGGCAAGGAGACCAATGTTCTAGTTGTGTGGGGCTAGCAGAAATCACTCTCATCTTATTTCCCCACCTGGCTTGGCTGTTGTACATGGCCCCAGACAGTAAAAAGAAAGAAACGTTCCTGATGA
1 tatttttagtagagatggggtttcgccatgttggccaggctggtctcgaactcctgacctcaggtgatccacctgcctcggcctcccaaactgctgggattacaggggtgagccaccgccccaggccTCTTTCGGCActgccctcaaccacatgggcctcactgttcttccggcgtacccagactttccccatctcagcgccttcccaccggtcctgtgtttccatggcctttccccgggtaggggcctt
1 AGTACCGAAGCTGGTGCCAAGAGCTGGAGAAGCGGCTAGAAGCCACTGGAGTGAGTGAGGCTGAGCTCTCTGCACCCCCTGGGTCCTCAGTGAATATACTTGTTAGGTTTCATTTGTTGACTGAGGGAGGTTGGAGTGTACAAGTGAGGTGTTTGGTGGAAGGCTCTCTTTCTCAGCCTCTGAGAGGTTTATCACACTGATATCTTCATTGGACCTAGCTGGCCTGTCAGATTCCAACCCTTGGTTTTCA
1 CTGGGTACAGCACCCAAACAGGTACCCCAGGACACAGCACCAGAACAGGTACCCCAGGACACGGCTTATCATCAGGAGCCACTGGGTGGCATCCGTTCTGCAGGACCCTCACCTGCCAGAACCAACTCCTGCCATTCAGGCCGTGACCTGGAGGGGGCAACTTGTGCCGGACACCCTCAAGGCACCACTGCATTACACATGCACAGGCCCCACGGCCCAGGGGTCCCGCCCTCCAGTTAAGGCAGTGGGT
1 AACATCTTTATGTCTTTCATTAGTCAACTACCTGACTAGTTAAAGGGTTTACTGACAGACAACCAAATTCACCACCATTTGGTAGTAAGTGTATTTTAATGTACTGCAATTCTTGGAAGACTGACTAACCATGAAATGCCTACCTGTGAACACCCAATCACTCAAGACTACTGCTAATTTCTATGCGACTTTTGCCCTTTGTACTTAGCTGTATTGTTGCACATCTCATACTGGAATGTAGTAAAATTTT
0.8162855692410477 CCACGGGACTGTTGAGCCCTCCAGAGTCAGACCGTGGTGTCTGAAGCAATGAAATAGGGTTAATTTGGCAAGGCTTGTCCCTGGGCACAGTTTCCCTCCCCGGCTCCAGTTTGTGCTTGCAATTCAAGTTTCTGGCACCAGATGGCAGCGTTGCTCTGTTATGAATGACTTGATGGAACAGTTTTAAAAGTCATTCattcattcattccacaagtatttactgagtgctttcaatgtgccaagccctttt
1 CAGCAGATGACAGGAGGGCCAGGCTCTGGCCTCTGAAACTGCAGCCGCCCTGCCTTTCCCGTCCACCAGGTGGCACAAGGACCCCAGGCTGTCATTCCGCAGGCTGTTCTCGGGCCTGACATTGACAGAGCCATCCACCCAGACCATCCACTAAGGCCACAGCTGGCCCAACTGTAGCTGGAGCAGGAAGGGCTGATGGCAGCAGGATAGACACTGCAATTTCTTCCTACTTAAGGCTGACCCCAGGTCT
1 tgggggcagcttggaccagatgcctttaggagggatcagtgGAGGCTCCGGGCTGGCTGGGAAGGCTTGCAGCCACGGAGGGCGGTGCTGAATACCGCAGCTCGCCCTGGAGGAAAGGGGGCTGGCTGCTCCTACAGAGTGGAGCCCTTTGGTCTCAGGAAGAGGCCCCGAGGGAGGGGGCTGCCCTGCCTCCGGGGCCACCGGACCCCACGGAAGCCTCCGAGGTCCTctccctgtctcccgctctgcc
0.8214070567554052 TAGACTGCGCTGGATGGATTCTGCACACCCCACATTCCAGCCTCCCAAGACCATTGATGCCCTGTGTTTGCAGGCATGGCGCGCCCCGCAGAGCGAGAAATGTAAGGAAGGGCACAGGGCCGAGACGCGTGGCCGCCCCTTAACTGCGCTTCCTCTCGACTCTCGGGGGCTTCGCGGCGTCTGTGCTCATTCAGGCTGGGAAGGCGCTGCCCCCGTGTGGCCGCTGCCCGTCTCCGCAAGGCTGTCGTGT
1 cgctactctctggatcagaaCTCCAATTCGttacattaattttcattttaattcgaaagaaaaaataactgaagtgaagataattgtgtgacttaaggtaactgtatcttcataacaaagatacgtggtttctcttaggtctccctgaagctCATTTGCAACTTGGATGCACCTCAGGCCCATCAGAGCGCCTCCTCCCCTGGCAGCAGCTGAGCCAGGAACTTCAGAGACCCCTGGACACCACATTCCG
0.9191800379143237 TGAGAGAGCTGGAGGGAAGGGCTGGAAGACCAATCCCTGGAGAGCAGAGGTCAGCACAGCCCTTACCCTCCTAGTTATTTTGGTGCCAAAATGTCTCGATACGCCCTCCAGGTGCTGGCTTGTTTATGGCCTGCAGCTGGCCACGCTGGGGAGGGAGTTGGGGGAGGAAGCGAGCAGCCAGCTGCCCTGAGCAGAAAGTGGAAGCTTGGCTCAGCTCAGCCTGCACATGTGTGGGGCTGTCTACTGGCAT
1 AGCTCACTGCCTTCGGGCActctcagcctcagtttcaccatctgtaagatgggtaataatccctacctcgcactgcagtgatggtgatgaagattaagtagaatgcaGCAGTCAACATAAGTCAGAAATCGGTAGTGTCAATCCCATCCTGCACCATCCCTCCTTTCCTCTTCTGTTTCCAGACAGGTTATAGGAGTAGGGGTGCTGCAATGGGACAGACTGGGTCCCTCTGGAGTTGGGAACGAGAGTT
1 GCCTGTTCACATTTCAACAGTTAGAAGCAAAAACATATAAGTGATCCCACCCCAGCCTGTGTTACTAGCAGAGAGATGGCAAATGTGAAGTTTTGACTTGCGATACAAAGCTATTTAAGAAACTCAGAAGATCAACACTGGCAGACTGTGTGGTTTGCTGCCCTGGGCAATGAGCGGTTGGTCTCCCTTTTATAAGCACCAAAGCCAATGAAATTTACAAATCTTCAGCTGTACCTTAAAACACTATTGC
0.2588462329846363 CCTGGATCCAGTCCTCAGCCTGGTGGGGGTGGGACATGAATGCTGCAATGTTCTGCAGCCTCAGGCCCCAGACGCCACAGGCCTAGCCCCCAGCCATTCCCAGGAGGCTGGCCTCAGGGGTGGGGCGGGCAGCACCTGGTAAATGAGCCCTGAAGGTTCCAGCTCCGGAAGGTTGCTGCAGGAGGCAGCCGGGCAGGGCCTTGGGTGGGCTCTCGTTTTGGAGGTGTGGCCCCTACTCCTGGGGCCCTGG
0.5647253225310367 CCCAGCCCCGTCCCTTTTCGGGATGCTTGCTGATCACCCCGAGCCCGCGTGGCGCAAGAGTACGAGCGCCGAGCCCGTGCGCGCCAAGGCTGCGTGGGCGGGCACCGACTTTTCTGAGAAGTTCTAGTGCTCCCAAGCCCCGACCCCCGCCCCCTTCACTTTCTAGCTGGAAAGTTGCGCGCCAGGCAGCGGGGGGCGGAGAGAGGAGCCCAGACTGGCCCCCACCTCCCGCTTCCTGCCCGGCCGCCGC
1 CTCCGGGAgaggcagggagtgtgacgcccattttaccagcgggcaaactgtggcttagggatgctgggtgatttgcccgaggacgcacacagagggaagggccaagccgggattccaactcgggactccccgcttcTGGGGAGACCGGTGAGGCCCCCGCGACATGGCCCTCCCATCCCCAAGCCTCTCGTGCAGATCTCCGCTCTGTGGGACTTGATTGCGGGCTGCGGGCCCGTGGCTCCTGCAGGCA
1 CCTGCATTGCGCTTCCAAACATTCAGGACTGAGGAGGGCAAAAGACTATCAAACACACAGAAGCTTCCCTACAGGGATGCTCCCCTGCAATCTGGAAACAAGAAGGGATTGAATGTTTTCTCTGCTTCCACCAACTCAAAGGTAACAAGAGAAGGCACCAGAAGAATGGGAAGCAGTCAGGGCCCGGCAAATCACAGTCAGCAAACATCAGTGGTGCCCGAAATTCCATCCTGGGCTCAGGTGGAACTTT
0.995055486068554 TTCTTGGCACAGCACCCGAGGTTCACGATTCATAGAGGATTGGCTTTGTTTGTTTTTTGGGAAGAACCTTCTCCTCCCTCTGCAAACATGCTCGTTTCTTTTCAGAGCCTAGAGGAAGGAGGAGACTTCCGAAAGGCATGTCCACCTGCCCCCTGGGATGAGATGCTGGGTGGGCCCAGCGTCACCCACCAGGCAACTTGTCCTTCCTTTCCACGTGGGTCCACACTGCCTCTCCATCTCCAGGGAGCTC
0.6423796510508127 CCTTCGCGCGGCGGTCGCCACACTTACGGGATCCGAGGCGGGATCTCCTCCATCGATTTGAAACGCCCTGTCCACAGCAGGATTTTCTTGTCGAACTGCGAAGGCCTGCGCTGCGTGGGGACTCGGTGAATCTCCCCTGCAGCGAAAGCAACCCAGATGGACGCGGGAACTGACGCACCGGCACAGAGGATCAGCGCGCCCTCAAGCCGACTCCCGGGCCGGCCCCTCGCTGCCCTCCCGCAACCTCCTC
1 AACCTAAACCAGGCAGATCCGTGTAGGTTCACGTGGGGGCTCTGTGGCCACTGTGGCTCTGCCGTCACCTCCAGCCCAGCTTGGCGCGCTTTGGATCATGTCATTCAGTGCCGGTCCTCCAAACCTCTCCCCTGGCTCTGCAGGTCTGGGAAGCAGCTGGCTCCTGGGTGCAGCTGTGACCGGAGCCTGAACTCTGCTCCCTGGGGTCACCGTCCCCTGTAATTAGGCTGCAGCTCATATTGGCTCGGGC
1 TGTTTCCTGGCTGACTCGCCTCTCGGCCTGATTGCCCTGCTCATCTGGCTGAGTGAGCTGGAATGAGTGTAGTGGTAGTGCCACCTATAGGTTCCTCTTACCTTGGTCTTATTTCACAGGAGCACTTCCCGAACGAGTTTACCTCGGGAGATGGAAAGAAAGGTATGTCCCATGAACCATGGTGGCTGCAGTTGAGGAGTGGGCCTTCCTCTCCCCTTCTCTGTCTGCTTCCTCCAGTCAGGATCTGCCA
0.4421987558425327 ACTCGGGAAAGAACGAGGTCAGGAGTCGGTCCTGCACATCGCGTAGAGCGAAGAGACGACACCTACCTGACCATAGACGCTCCCCATCCGCCCAGCAACCGTGGTCCATGCTGCCTGCGTCCACCGCCAGCGTCGAAAAACCGCCGTGGTGCCCGCGCACAGTGCACCGCGCCTGCGCATGGTCTCCAAAGGCTGAGCGAGGGCCTGCCAGTGCGCATGCTCCGCTCTTTAGCGCTTCCTGAGCAAAGTT
1 GGAATGGGCTGtagtggccaaattccctttaccataaaaagaaagaacataaacccagagggtggaagccatgctctcaaggccgcacagcaagcctgggcagagccatagtgacctagaccttttgactcTTCCCATAATAGTAAAGCTACCCTTCCTTGTTCAAGGCAGCACAAGTACCTTCTGACTCAGAGTGAGGAGGGCAGGATCAAGCCCATTCCTGGAACGACAATATTTGAATTATCATCTC
0.1886550231268537 GCCCACCTTGGGAGACCCCCTTCCTGGAGAACCCCAGGAAGTCCCCAGAGCCCCTGCCCGCCAGCCTCTGAGAGGCCCAGAGGGGGCAGAGACTTACCTGAGGCCACTGAGCTGCTCTGAATCCCCCCTTGCACCATCGGGCCCAAAGACTCACCCCTCCATGCCGCCTGGAACTGCTGGTCCAGCCTGGAGGCGCAGCGCAGGGACAGGCTGTCCCCGCCTGGCAGGAGCCCCCCTCCACGGCCCGCAG
1 gctaatgatcatcgtacctaccccatggattacctccaggattcaatgagacagcaatgtgaagtgctcagcccagcgcctggcacggagaagggctGAGAGCCGTAAGCTCTCCTTGTTGGCATGGCCTCTGCCTCCTCTGCACCTCAGAGCACTTGGTTGCCCGCATCTCTTTGCACGTAGCAACTTCCACCGTGCGTGAGAGCACTTTGATTCAGCCCAGCAACCTCCTCACTCTCCACAGAGGATC
1 cctggtttcagctttgatactgactgacccacagggcaagtcccttaacatatgagtttgctttcctgtccgttcagaacaatgcctagtagtcattagtgcatacagttgtgctggagatcaactgagaagacatgaaaagcactttgtcatttattagatactgtTCTGCTTCCTTTTTTTGTAATTCAAAGTAAGATTTttttaaatttttgtggatacatagtaggtgtatatatttatggggcaa
1 gatctgctgacctcgtgatccgcccgccttggcctcccaaagtgctgggattacaggcgtgagccaccgcgcccggcagacgtgcgtaattttaaagctccctctggtggttctactgAGAACCCTCTGTGCCAGAATGAGACCTGGCTGCTATTAGAGAATTAGCCACGAGGTGGCGCCAGAAGCTGACCAAAGAAGCGAGATGGGCCATCTCCCGGCTCCCAAACCCTGCAGTCTCCAGGAGGAGGCA
0.9575158859161124 CTCCACTCACCTTGTCGGACCCAGGACACAAAAGGGGTGGGGTCAGCTGAGGCCACACATTCCATCACCACACTCTGGCCAGACACCACTGTGGTGTTCTCTGGGGCTGCCACAATGACCACGTCCTGCCCCCTGGTGGACGCCAGGGACCCTGGCGAGAAGACAGACCAGCAGGCAGccttaccattaggcatttgccatgcgatacctcacctgagtctcacagtaacctggtgaggtggtaccgggg
1 taccacacagccctgattactgtggcttattgtaacttttggaattggatagtgtgagtcctccaactttgttcttttCCTGGTTGGGTTCTTCTTTAACTTCTGCCATTCAGCCTTTTAACGAATGACCTTTTCTGACTTTGCATGGGATTGGGCACGCACAGGAGACGTACATATCCACTGAGTCTGCATCTCAACCCAGCCCTCCACACCATttcatcacaaaaatatttatggatgcccaaaagtc
1 GCAGAGGAAATGCGGGAAAGGTTGCTGTGTTTGGAGGGTCCACATCTTCACCCTCCTGTCCCAGGAGCTTTCCTACACTCCTCCTTCTCAAAGCTGCACACACCTGGGGCCTCCAGGGGATTGGGGGCTGCCGTGTGTGTTATATCATGATTAGAGCTTTCACTTCCTGCTCCCTGCTGTTGGGAACCAGGCTGTGTGTGTTGCTTAAATTCCCCTTGATGACCAGCAGAGTCACTGCCACTCAGCCATG
1 gccaccatgcctggctaatttaatttttgtatttttagtagagatggggtttcaccatgttggccaggctggtttcgaactcctgatctcaagtgatccacctgcctagcctcccaaagtgctgggattacaggcatgagccaccgcacctggccTTCTCCGGAACTTTCTAATCCTTAGGGACATTTCTTTGGGTAATGAGGTCCAGAACCGGAGGGAGGTGAGTGGATGGATTTGTGTCCCCTGAGGC
1 GGGTGAACCAAATTAGCAGGTGATCCAAATGGCATATGGTCTGGCCTGGACATGTCTTGCAGAAGGTTTGGGAGTCTTCTGGGTTGGCTGAACCTCTGAAGTGCGATCTCCAGGGCTCCAGTGGGAGTGCCTCTGTCAGCCTGAgccgctccttcctcccttcccctcccctccacttcctCACCCCTCCCAATTCATATTCCTCAACTCAAGGTCAGCCCTCCTCACCTCTCTCCTTAACGAAGGCTTG
1 ATTCCAGGACCGGGAACCCAACCGCGGCCGCGGCCACAGCCCCTCCTGCGCACCTGCACGATGAGGGGCCGGTCCTCGGGGCACACCTCGCAGTACAGGTTCTCCTTCCGGTAGTTGGCGTCGCGGACAAAGACCTGGGCATGCAGCATGGGCGTGTAGCAGAGCTGTGCCCCGTGGCGCCGGCTCAGCAGCCTCCAGGCCAGCTCGCTCTGGTCCACCATGGGGGCCACGACGTGGCGGGCCCCTCGCA
0.7567427963398051 ATCCCCTGTCACTGAAGACTCGTAGCAGGGAGGGGACGGGGGCTCTGGCATCACCTTCTGACTGTCACCGTCCCCGCCTCCAGCCTGCCCCAGTGTTGGGCCTTGTTCCCAGGTCCTCTGGGCTCAGGGTCGGCCAGGCCCCTTCTCCTGTGGTGTGGGCCTCCAGCCCCAGGAGCGCCAGGAGCTCTGGCGCCTTGGTCCCTTCCTCCTGTCCGGCGCCCCCAGCTGTACTCTGCCTCATTAGGAGTCG
0.09298061250556167 AGCACGGGCCTACAGCTGGGGCTGAGCACTTAGGCCTGTCCTGATATGCGGACACTCAGTCTCCCAGGCTGTGGCCACCGGGTCACAGAGAGCCCGCCCTTCCTCAGGCAGGGCACAGGCAAGGCGGCTGTGAGGGCCGCCACTGGAGGGCGTGCTGGTCCCACTCCAGCCACCCCAACGCAAGGGAGGCTTTCATTACTGAAGAAGTGGGAAGGAGGCGAGCCCGTGTCTGGCCTCTCGCAGGAGCCCC
1 CCAGGCTTCCTCTCCCCCAGCACACGCAAGTTCTTCTCGGCCTCCCAGCTCTTTTCAGCAGCTCCCCAGAATGGAACGGCCCAGCCATGGCTTCTCAGAGGACAGCTTCTTGGCAGAGCTGGGAGTGGGTGGAGTAGAGCACATTTTTTCCTTTGAGGTCCAAAGGGCTGTCAACCCTCTTCAGCTGCCCTGGGGCCCAACAGCCACAGAGAGAGATTTATGACCTGGATAGCTTTGATCCCAGTCTCCG
1 GGCATTGAGGCTAGTGCTTGTTCATGGCTGGGTGTGTGGTACCTGGAGCTGTCCTGAGCAGGGGTCCTGATTCCAACTGATTATGTGGCCAGTGTGTCATGCAATCAATGACCAATGACAGTGATTGCTACTATTGTACTGTATGCCTACACGTGGtcatttaatgcttgaaccatccctacaaagaaggtatcaacccaatttttctgatgcttaaactaaggctgagaaaagtagaagttgaggtcac
0.3714257750296029 gacggggggctggcagcggggagggggcgcaggtcacgtgccggcgggcgggtgggcgCGTACAGTAGGGCGCCCTGCTACTGTACTGGGGAGTCAGTGCCCTGTTACCGGGTCTCGTCTGTCTCGTCTCTCCCGCAGATCTCGCGAGAGTGGCTGACTggctgtgggggttgcggcggcagcaggcggagccggggagggaaagcagcggcggctgaggcgactgaggcggcgggcggagcggcaggcg
1 ttgataatccgggtcaatcacaccaggcaacactaactcccttcttagcccattgacttaaaaggtaggaggagcacaaaatgtccaggtggcaatcttaacttcccatttaatggaatcattgttgtgtctcctggtggcagcattcctccctctggaactaagacctctaggccatcagaatgtaatgtcacaggaacaggaagcaaatatttgctagtggatcattgggcgttacggtaagtagtgc
0.3026422962188195 cagtgtgcggcgtgagggattattatcattGTTAAGACGTCTACGCCTCGTTGCTCACCCTGTGTGATCCTGCAGCTTCTCAACTTTTCCCTCCTTTCTCCCTGGTTTCCACGCCTGGGCTGCTGAGTCAGGCGGACCGGCCAAGGCTGGCGAGGGCTGAACAGATGCTCTGACATGTCAAGGCAGGAAATGACAGTTCCCAGGCAGCCCTCTGTTTCAGGTGTGGAACAGGCTCCGAACACACTTTGTG
1 GAAGGTGGCCAGGTTTTCATGCCTTCCTAGAGAAAGCTGGGGCTCGTGGCCTCCACCACAGGAAGACGCAGaccctcagaaacaagtctgtgaagtcacaaccagccccagtttacagatgtgaaactgaagctccaaaaagtcaggaggtcactgagtggggaggtgatggagtgggaacagcccccagatctggctgaggccgaagcccTGGAGAGATCCCCGCAAGGCTCCCTTAGATGCCTGACAT
1 ACCTAACCTCGATTAACCTATTTTGCAGGGTCAGGAGGAGAATTGGGAGATGGAGAGGGCCTGTGAGGTTGGTAGTTTCCAGTGAAATGTCAGCCCCAGTAGCTGATAGTGGAAGTCTTATACTAGATGACCAAAATTATGGGTTTATTTCAGCCAGTAATGGGCCCCGTCTTTTTCTTTGGGACTTTTCTCTGCCTGTAGCTGCCCCTATGCCTGTGGGGAGAAGAAGAGGGAAGAAAGGGGTTGCTGT
0.6963188618548898 CAAACAAGGAGCAGTGACTTCATTATCGTCGTTAATTTGCCACTTCAGTTCCTCCCATAAGGGTCAAAGCCAGCACTGCTTGAACTCAGGACTGACACGCAGGCCGAGACCATGGCCTGGCTTTTCAGCCCTACTTCTTACACAACCACTCGTCCGCCCTCCTCAGCTGTCTTCATTTCCCTGCGGAGGGGTCAGGCTTCCTGTTTGCTCTCCAATTTCTTAGTCCTCACAGCCTACTGCACTCCTTCCT
1 ATATGAGTTTCAAAACCAAACCAAATCCCtactgtacacttataatgtgccaaataccatggtaggtgcttcacatcaattttctgcatctaTGTAGTGGGACAAAAATGCTAATTTTAACTATGTGTTTTGGACTTTGGCACTTGAAAGCAGGTCCTTGAAGGGTGAAATTAGCCCATTTTGACATTCCTACCTCTGGCAATGTTACTCTGCTGCCACCTGGAGGCCTTCTGTGGGATGTGCATTTAAA
1 acaggcgtgagtcaccgcacccaaccTCCAGTAACttttttttttttttttgacacggagcctcgctctgttgcccaggctggagtgcagtggtgccatctcggctcactgccagctctgcctcccgggttcacgccattctcctgcctcagcctcctgagtagctgggactacaggcgcgtgccaccatgcctggctaatttttttgtatttttagtagagatggagtttcaccgtgttagccaggatg
1 ccctggttcaagcgattctcctgcctcagcctcctgaatagctgggactacaggcacgcgccaccacgtccagctgatttttgtattttcagtagagacggggtttcattatgtttgccaggatggtctcgatcttgacctcgtgatccgtctgcctcggcctcccaaagtgctgggattacaggcatgagacaccgtgcccagcGACAAGATAATTTTAAAAGGAGAGGGAACGTCTGCTTTTGTTGCC
1 GGCCTCAGGAACGGAGGCCCACAGGCTGTGAAGCTGCAGGAGAGCTTTCCAGCCCCACTGCGAAGGGCTCCGGCCTTTTCCAGTGCCTCCGGCCAGGCCTTTCACTGCCTGGTCTCCATACGGAGAGCGGGTGGCTCTGATCCTCCCTGGGGCCGATCAGCTTGGCAGGAATCGGCTGCATCAACAGCCTGGCTGGACTGGTGGCTGATGGCAGAGATTCAGGTACCACGGAGAAGGCAGGAGCCCTGCC
0.4572675561255136 CCGGGGGCCTGAGGGTGGAGTCCCGGCCGGAGGCAGGCCGGGACTCTGGTGGGTCTAGGCGCGGATCGGACCCAAGCAGGTCGGCGGCGGCGGCAGGAGAGCGGCCGGGCGTCAGCTCCTCGACCCCCGTGTCGGGCTAGTCCAGCGAGGCGGACGGGCGGCGTGGGCCCATGGCCAGGCCCGGCATGGAGCGGTGGCGCGACCGGCTGGCGCTGGTGACGGGGGCCTCGGGGGGCATCGGCGCGGCCGT
1 agctgcaatgggctccacccagtttgaacttcccagcagctttgcttacactgtggtggtaaaaccgcctgctcaagcctcagcaacggcggacgcccctccccctaccaagcgccaccgtcccaggtggatctcagattgctgctgtgctggaagcgagaatttcaaaccagtggatcttactttcctgggctccatgggggtgggaaccgccgagccagaccacttggctccctggcttcaggccccc
1 TACCTAAGTACAACAGATTCTGTCTGTCTCATGTTCTCAGTCCATCCTAATGGGTCCGTGACacactgatgggatgccactctgtgctaggcactgtgaggaatgggaagatcataaacctcaccatccctacccttgagggctttatgatcctggggaggaTGGAAGAAATACGTAGTCCTAGGAAAAGAAAAGCTGTATCCAGTACAGGAAGGGCATGTGGAATGAGGAAAGGATGGTGGGAACGGAA
0.2148258881418661 GGAGGGGGCGGGCAGTGCCTACGTGGCGGGCGGAGGGACCGAGGGACCGACAGGCGGACAGGGCCGGGGTCACGTGGGCCCGGCGAAGTGTCCCTAAGGCTGACCTGGGGAGAGACCTGGCTGCGGGCCCTTGTCTTCCGGCCACACAACAGCTCTGGGACCATCTCAGGCCCCGCTGCCCTCCCCTAGGCCACAGGCAGCCCCGTGTCCATCTTCGTCTATGATGTGAAGCCTGGCGCGGAAGAGCAGA
1 AAGGTCATCCCGTGGTGCTCCTGACTCATAACCACACACTCATGTGTACCTTCTTGCCCCCACATGTCCAGGACTGTAGGTGACACTGGGCTGCCACGGTTCCTTGTCAGCATGTCTAATGCTGTTGACCATCCTTCAGAAACGTGATCCTTCAGAGATGTGGACTGATAATGACGTCTTCCCCATCACACACAGCACAGCAGTATTCCCACCCCAGGGTAGCCAGGCTCAGGGTCCTGTTGCCCCACGC
1 CCAGAGCCCCGGCATCAGATGAGGTGCAGAGAAGGGAACTGAGCTGCCAAGTGTGAACAGGAGAGAGGAGCCCCAGGACCACACAGGGGCCCCGACATGGCAGGTGCTTGGTCAGCAGCGGTGCTGCCCTTACTGCTGGACGTGGGAAAATGCACTGACACTTGCTGACCAGAGCCGGGGTGAGCATCTGGGTGACCCTGCAGATGAGACAAAATAAGGGCTGCCGTGGGGGAGGGGCCCTTGCCGGGCC
0.880667604934105 GGGAGGGGACGATTAAGTTCCCTCAGAGAGGAAGCCGCGGGCCGACTGGAGTCGTTTTCGTGCTCTCCGCACCCGCCCGCCGCGGGTAGCATCTTCTCAGCGCCCCGGCGCCCAGGAACGCCCAGGAAACCCAGTCCTCCTCCTAAGCAACCTGCGGCGCGGGGACGCCCGCCTTTTGCTATTATTATAAACGTGCGTGCGACTAAACCTTCGGATTTTTAGACTTTCTTCTCGCTTCCTCTGACCCAGG
1 TCTCAGCTGGGGCCTGGCTGCAGAGACCTGCTCTTGAATAGGGCTGCCTTTGGGATCAGGGAGCCGAGCATACTGGGCAAGGCTCATCATGTTCCTTTGTGGAAGTGGTTACTTGGTGGGGGTGGGGTGGGGAAGGGGGGTCTAGGAAGCCGAAGCTGAGTGCGCACTAGAGCTGCTAGCAGGCAGGCCAGAGGGTCAGCTTGTGTTTTATTTTCTGATTTCTCCTGCATGCTTTCTGGAGATGAGGATT
0.1655833869442628 ccggctaatctttgtatttttagtagagaatgggtttcgccatcttggcctggcgggtctcgaactcctgacctcaggtgatccacccgcctcagcctcccaaagtgctaggattacaggcgtgagccacctcgcccagccGGTAGGATCTATTTCTGAAGACAATGTGGAAGCAGAGTGTGGGCCCTCCACAGGTGTAGCGAGGCGGCGTGCTACCGCGAAGAAGGAGGGAAGACGCCTGAGCCCAGCC
0.5121731288272549 GGCTTGGTAATGCGCTTATCTCTCTGCCTGCCTGCCAGACTCTCCTGGCACAGTCCCAGCCAGAAACCAAGACCTTGACCCAGCCTGCTGCAGTGGGAGGTGCCTGACCCCTGCTTGGGGGCGGAGGCGTGACCACAGCAGCTGAGGTCAGTCCAGGTCCTCAGGTCACTCATGTCCACAGACTCTCACAATTTTCAGGATTCTCACTGCtccccattttgcagtaggataagtgagagtaagagagttc
1 atattgttctgtactttccgtcctggctcatcctcccacagctttcctcccaccccttttcactctgcgttctggaacccctgttcgtcttcacataatgttccttccctcctggccttaactgaaacctggcactatcccaaggacaacgtttctctggcagtttttcaagtgggggctgcttattctcccacatcctcctccttccccatcctttgtctcaatgttggaagggggaagttattgttca
1 TGTTTGGAGGATAGCTTGGTTTTCTCCCTGAGTGCATTGCCCATACCGGGTGGAGGCAGTTCCGTCCTGCAGACTCCGTGGTTCTGAGTTGGAGCCCTTACTGGCCAGTTTAAGACCCTCTTGGAGCAGGGTTCTGCAGTGTCCTGGGGGCAGAGGCCTGACGCACTCAGCTGCTCGCCCAGGGCCCTCCTGTTGGGCATTTGGATTTGGAATCTGAGGCTGTAGGAGCAGCTGCCTCCCAGTGAATTCT
1 ACCACAGCAACTGCAGCCTCAGCTTCTACGCTCTCAGCAACACGGGTGCTGACAGGGCAGGGGCTGCAGGGTTgaggaggggaggaggaaggtgggggaggggaACTCCCAGGTCTGTggtgcaggggcagggtgcggggcaaggggaaggggcaaaggcaGACAGAAGGCGAACTCCCAGGTCTGTGTTCAGAGCAGTCTACCCCAGGCTTAGGCGGGCAGCACCTGCTCTCCCACTGCGCCCCCCACT
1 ttataaatggccttaatgtgttgctattctcaaatgccagctgtagtagtaatatgctggtcacgtgaatagactcaagacctcctggttagccagagtgatgcccacaatggtgctaactgaggtcatccaaaagttttctccttcaggggagctgtgtttttgtgccaacagatgctgtaatggactgtgtcagttggcctccagccaggaggcggtgcttgcaaaagagtgtcagctgcagtgatag
1 CCGTTTCAGAAATGCGCTCCTTGACAAGCCTGGCTGCGACCTGTTCCTGGTTGACTGCCGTCATCCGGTGGCAGCATGTGGGAATGACATGCAGGGCTGTGGTGAGGATGAGGATGGAGTGAGCGGGTGGGGGGAACTGCAGAGAGGGCCCTAGTGTGGCCCAGTTGGAAGCGGTGACAGGAAGAACCCACCAGGGATTCCTCAGCTCTGGCCAAGGGGTTGTTCTCTCCCTCTGGCATAGCATCCAGAA
1 cacccgcctcagcctcccacagtactgggattacaggcatgagccactgcacccagcctatacgtggactgtcaactatacaggtcagcccctaacccccataccattcaagggtccactgTATGGATATGCACACATGTAGTATCTAATATATTTAACATACATTAGatatatactgtatagagagaaataaagcaaatgtagcaaataataacattaggtacatctgggtgaagagtacataagagct
1 tgggattacaggcgtgagccaccatgcccagcTCCATTTAGTCTTAACCTTTTGAGGCATTCCCCTCTTCCAGAAATGACGCTGAGGTCTTCCACGGAGCAGTAAGGGGTGGAGCAGAGATGCAAACCCAGCTCGGTGGGAGTTCTTCCTTTATTCAGTGTACTTCAGTCCTGGGGGAGGCAGGGGCGGGGGCATGGCAGCCAATACCCATCCAGCTGCTCAGCTCTCGAGTCTCTTACCTGTTACTCAC
1 aggtctcccaggactagaacctaggactccctgtttctggcctctcctcccagctagctttatcagAACCCATTTTCTTCCACAGAACAGGGCCTTTTGTTCTATAGCCCAGGGCTGTAAATTTCACCTGCGTGCAGGGATCCAGGTAACTGATCCCATCACAATGAGCCGGTGGCACCCAGGGCAGTAAAACAGGCCTATGCGTTAGAACCCCACCTGCCAGTGGCTTCCTGTAGGTGTATTTGAAGTA
1 TAATCCGAAGAAGAAACCGTGAATGAGAAAGTAAATCCACAGATCGCTGTGTGTTGATGATTTAAGAGACGAACGAAGGATGGGTCACAAAAAGCAGGACaggtcccaccgagatttgaactcggatcgctggattcaaagtccagagtgctaaccattacaccatggggccGCCTTCCGCCACCAATTTCATGAATTTATAAAAATACTGATTACAGAGCATGTCTATTCGATGCAGTATTCTATTAAT
1 ttgaataaattttgcttttaagagaagttactatttactcctagatggggaggaaagtctgaagaggaacctctgcttcactttctacaGCGCCACCTGGGGCCAGCACCTCCACTCGGACCACAAGTGCACAAGGGCCCCCCTTATGCCAGCATCAGGGGCTGCTGGGCACCCCAAGGAAACCACCACCTTATGGGGGTGATTCCAAACACAGCAGGATTTGGGGTGTGGTCAATGCAGCCCTCAAACC
1 TGTGCCTCAGAAGACACACAGCAGGAACCGTGTGGGCTCTGATCAAAGCAAGAATGTCATCCCAGAGTTGCTCCAGTATTGCTTCACAAATATTACAAATAAAACACGATGCTTTTTGAGTCGTCATGGCTCACACAAAGGGTAGGTTTCAACATCAGCCTCTGGAGAGCCACATTCCCAGAGTGGCCGTCCCGGATAAGAAGGCCACTACAGCACGACTCACAGCACCATGGAGGTTTCCTCCACCTGC
0.5805215360833318 gtggaggtagctctcagcagatgggggaagccagaaggggatggagtgggaaggtttccccctggagtcaggccgcccagcagcctgggcactcctccgactgcccaggccaaactccactttgttccgccagtagatggcctgccagcatctgtcatgtgctcttctgccagcgtgttcctcttgacgtcttcttgacatccagacgcttgtgtcttctttgccgatctgcagctcttgacgtccagca
1 ACTGGGCCACAGAGACCTTGGTGTATCTTACTCCTTTTCCTTTACTCAGAAGAGGGGTAACGTCATGAGCTACTTGACATCTGCCTCTCACTAACAAACAGTGATGCTTGAGGATAACAAACTCTGTCactcacctattcaactaacattgtagagcatgaattaagtgctaactttgtgctaacagccagagacacaaagacaaataggatgtgatctctgttttgccacacaaaactGAGTAGTAGGT
1 AGGAAAATCTGAACCCTTTTGTGCTTGCCGTAAGCCTGCCTCTCCCTTTTGGTAAGTGACAGCCTGGAAAGGCAGGCATCTTCCAGGCTCTTTTTCCTGTTGGAACATAGGGatttatttattcagtgatcatttcttgagcaccttctatgcaccacacattgtgctggtacagggataatgaagcctgtctccctcaCCAGCCTCATTAGAAGCTGCACGGACTGAGTAAGGTAAAGGAAGGGCTCCG
1 actgagcctgaggaactctggcacagatagtgcacttgtcccagggtctttgcaacctgcaaacgaggagattccctctggtgcctaccccaccagggccctgggtttcaaggacaaaactgggcagccatttgggcagacaccaaactagctgcaggagttcttttttccccatacccaagtggtgcctggaatgccggtgagacagaactgttcactcccctggaaaggggtgctgaagccagggagc
1 TGGCCTCCCACAGGGCATGGGGGCTCCGGGCAGGAGCAGGGACAAGTAGAGACAAGCAGGAGAGGAATGAGTCACAGCCCTTTGAGTTACCTTGGGAGATTGTCAACAGAGGGCCCCCATGCCGGGGTCCCAGGCAGAGGTGCTGGAGGCAGTCAGGGAGGAGCACACATGTGTGTGCAAACACACACACGTGTGTGGGTGTCATGGGGGGGGTGACAACAACACAGGCAGACAGGCATAGCACGGAGGC
1 tttaaccgtgttagccaggatggtctcgatctcctgaccttgtgatccgcccacctcggcctctcaaagtgctcggattacaggtgtgagccaccacgcacggccttaaattctattttttagtctggcttcctagcagttgcttctgtgtttgcatatggtagtggtcagccagggatttgggcaagagggtgtgctcaaacactcctaacccaaaaggctccccaccacaccatgtggtttcagagca
1 CTTGGGGTAGAGTGCACACTTTCTCTTCATGAGTGATTGGCTCTCCCAGGGCCCAGGTTCACTGTCAAGTTCAGGGGAAAGAAACCCCTGTATGAGACCCACCATCCACTCTAGCCCCAGAGATGCCAAGGTCACCCAAAGAAAAAGTGACATGGGGCAAGTCCAGGGGACTCAGACCAGGGCAGAACCGTTACAGTACCTTCCGCGGGGAGTCCCTTCACCTTGCAGGGAGTATGGAGGGAGCCCCAAG
1 ctgggcgagtaggctcaagcatgcgcactaaggggcaaaatgatgaagtttagctggtatatgaccttcctttaggaacacttgactggtaagggaaaaatgcctcaaataagcatgtgcacaactttagtaaagacactgtgcatgtggcccctcccaagtgctggcaggccactgcacatgcagacagcccacactaagggaaaaatcaagggagaagagacgtaaaaccccagaagcatgccaacat
1 AAATGCACCCCCCACTTCCGCTATCTGTAGAATCTACAGTGCTCTTTGCACCTCTGTTATGCCCAGGGGAGGCCCATTTCCCTGAGGAGGAGAAGAGACTTCAAACTGCAAAAGCCTGGATCACAGCTGCTTTGAGAGGTGAATATATACATAACTTCCCATCACTAAGCAAATGAGCAATctgcttctggtcctggtctttctcagctcctgctccAACAGACTATGTCCTGCAGCGACACTAGAAAAA
0.148697289065122 ATGCCCACTAGTGACAggcaggggcagaggcagaggcaggcagggtgtgggggcCACGGGACGCAGCCCACCACCGATTATTCCCATGGCCATGTCACTGCCAGACTGCTCAGGAGCAACACGCACTGAGCCCGGTCACCTGGCACATGGCCGGCAGAAACTGGTTCATCTGCTTTGCCCTCAAAGCCCAAGCAACAAAGAACAGGGAAACAGCGACACCTTATTAAACACGAGCCAGACACACGCAAAC
1 ttggatcctggttctaccacatactgactgtgaccttgggcaagtcatttcatctctttaagcctcagtttcctcatttgtgagatggggagaatagtgtctCTTGATGACCATGAAGTACTTAGCACAGTGCCCAGAACGCTTTGGATATTTGTTTTCGGCAGAAGGGAACTTCGttttgtttgtttgagatgtagtttcgctctttcgcccaggctggagtgcagtgtcgcaatgtctgctcactgca
0.1206681718892798 GTTCCAGGGACAGGACAATAGCTGTGTCTGCAAACACCCCCACCTGAGGCCGAGAGCCCCCCACTCAGTGGGGGAGAAGGGTCACGCACAGGAGCGTgctgtgaacaggatgcaggcagctgtgagctgggatgaatgtgagctttgCCCAGTCTGGGTGATCTGTGTACCCCAGAGAGAGCCGAGCCTCTCTTTGCAGAGGCGGTTTCCCTTCTGTCTGCCTCGATCACTGCACTGGCTGGGAGGGCTT
0.7439940982789317 gctcagactgctggtaaaacactatgtctggctgtgtctgtgagaatgtttacggaagagggctgggcgcagtggctcacgcctgtgatcctggcactttgggaggccaaggcagatggatcacctgaggtcagcagttcgagaccagcctggccaacatggtgaaaccctgtctctactgaaaagtacaaaaattagccagggttggtggcgggcgccttcaatcccggctacttgggtggctgaagca
1 gaaaacacaggacatttgaatccatccccctggtgaaggttctgtggtgcgccttcccTTTCAGGTGTGAGGTTTTGGTTTGTGTGTGTGGGTAAGAAGCTCTGTGTGTTAAGATGTCTGTGTGTTAAGAAGTTACGTGTGTTAAGATGTAGTTACACATCTTAAATATGTGTAGCTAGGGCTGTTAACAGTATTTTATGTTGTTGACTTACCATGTTTGCCATTTGCATGTTATCTGTGCTGTTTTGGC
1 gtttccatttcacagatgggaaaatcaaggcacagggaggggaggtggcttactccaggtcacacagttagtgagaggcagaggcaggatcaaagccaagcctgtttgactgaggagcccgccccgagaccttaaccacacaacccctccctagaaggaaggtgccactactggacacattttggagatggaaaccaaggctaagagagtcaggatggcctgcccatgtctggacacagaaactgaggtt
1 AGCTCACAGTGCCTTGGCGCTCAGAAGAGGAAAGTGGGCTGAGGCTCAGCTTGGACCGTCAGCATCTGAGATGCAGCCTGAAGAGCTGGTATGGATGGAGGGATGGGATGCTGCCGTGCAATGGGCACGCGCAGCTGCAAACCCTGCCGCTTGGCTGGGAGGCAGGGGAACCCGGTAAAGGAACACCACGCAATGGGCATGGCTGAGAATGGAGTGTGGAAAGGTGTGTGTGGCTGGGGCAGACTCCTGC
1 ACCTAGTGGGTCTTAGCTCTCCCTTAGGTCTGTCATGTTTCCGCTTGCTCATTTTCAGAAAAACAGCCTTCCTATTGCCTGTCTGTTGCATTGTAAATGTTGTTTCAATATTAAGCATTATTAGGGCATCCTTGCCTAACAAACACATCCTAAGGATCCAGTGATCAAGGCTGCTTTTAAAGGCCTCTCCTAATATTTACTTACCCAGCTTCCTTCTATACTCTTAGCTGTGTTTTTCTGAAACAGCTGC
0.06158805589580778 TCACCCAGCTACACGCCCAGGCAGAAACGGGCTGTCACTGTGAGTGGCTGGGCTAGCCCCTGCATGGTGCCACAAAGCCTCCCCCACCTCTGCCTTCCGGGTCCACAAGTCCGGTCACCCAGCCACCCGGAGTCTGGGCAAAGGCCTCACGAGGCACCCCAAGGCTGGGTTCATGGGATCCCACCCAGCCTGCTACAAGGTGCTGGGGCAGTGACGGCAGCACCCCGCCAGCCCCTCCCCTTGACACTGA
1 ctaccataatcagctcttcggcaccactgaagggaggatctcaacaaatgtttgctgaaaaagaatgaaAAGCTGATAGAGGAAGGCACAGACAGGTTAATGGTTACCTTTGGGTGGGAGGTTAAGGGCTTCCCCCGACCCCATCTCTCTGTATTTCCTATGCTTTCTCTAATAGAAACGTTCTTTTCATGAGGAAAACATTGTATTTTCCTGTTTTAAATCCCCTCAATAATTTCAGAAGGTATTGCAG
1 CCATTCTTTACCCAGAGCTACTATGTCCCGCGCAAGGCAACACTGGCTGAAGCCCAGGAGGGCGGGGCAGCTGCAGACCCTCAGGAGCCTCTGCTGGCTCAGGGAGCGTGGGGAGAGTCCAGCGTGCACCAGAAGGAGGGAGGCCACCTCTCCTTGCGGCATTAGGAGACCAGGGTCTCTGAAAGGGCGGGGACCACGGCCAGGCCAGAACCACCACATCACCAGGCTGAAGGCTGGTTAACCTGGTGGA
1 GGCTTGCTGGAGTTACTGGCAAGCTGCGCGCTGTCCGCCTAATTCACCTAATTCAGGGCAAGAACCGCTCTCTGGCCCCTGCACCTGGGAGAGGTGGGGTGCTGGACCGAGGGCGAAGTAACAGCGTCCTGAGGGCCCATCCCCAAATCGCCTTCCTTAGGGAAGCCGGAACAAACGATGCAGCGGGGCGGCCCTGGATCTGTTCCTTCCTAAGAGCTGGAGCAGGTACAGCCCCATCCTAGACCCCAGC
1 CTAGAATGTTGACACAAGGGCATTGACGAGGTGTCAGGACGGCCTCACTCACTGGGCTAGGCGGATCCTGCCTCTCTGGGGCCAGACCTTTCTTAAAGTGTCTTTTTAAGTACCAGGTCTGCTTATTTCATTTCACACTAGGAAAACTGGAGAGATGATCAACACTGCAGTCTTTAGCTGAACCTGATACTTTTCAGAATTTCCAGTAGAAAATTGACCCATCAGTAGTAAAAGAAAGTAATTTTACTGT
1 TGAGTTTGTCTTACAGAATAGCCTGGAATGGGGTGCACGGTAAAATGCCTGACCGGAGATAATGCTAGAgctgtggaaccttgggcaagcctcttcccctttgtgggcTGTACTGGGAGTCGGTAATAGGACTAGAAGAGGGACCATCTCATTTTGGTTCCTTCCATTTCAGATGCTGACCTGAAAGGTCGGGGAGACAGCTCCTTATGGGGTCTCTGGGGCCACCTAGTGGCTAAGAGGAGTAGAACCA
0.7216362159863694 TTTTCCGTGATGATGAAGGAATAAAAAAGCCACGGAGGGTTCTGAGTGGGAGTCCCTGGTCCCCATCACCCCACTGAGCATGGCCGCTGGGGTTTCCTGGCAACTTTCTGCTCCATCCGGAGCCGTCCCTCCCctgggctgggctgctctggggctgttcctgggatgggGAGCGGGGAGCTTGGGAGTAAATAGTGACATCAGCCACCTAGACAGGCGGGGCCACTGTGTCAAGGGGCCATGTCAGGTT
1 tgtgactgtagttctctgtgtgtctgagtgtgggtgACCAGCTGGGACCAGGGTGTCCCTGTGATTCTGTGTGCCTGTGAGACTCACCCTGCTCCCTGAAGCACTGCCAGAAGTGGCTGCCGCTCTCTTGGAACCACAGCTGGAGCCATCGCCCAGGCAAGACCCCCTTCCTGCCATGCCCAGTGCTGTGCCCATCTCCAGGCCCAAGCATCCCGTTCCGGGAATCAGAACCAGCTGTGCTGGGCAGGAC
1 aaaccaggtcatttataaaagaacagaaatttatttccacatagttctgggggctgagaagtccaagatcaaggcattagcaggttcagtgtctggtgagggcctctgtctttgcttccaagatggtgcctagaatgctgtatcctcacgtggcagaagagcagaacagcgaaagggggctagttacctccagccactaataaggtcactaatcacattttataaggtcactgatcacatttatgagagc
1 ACACGCTCGCCTGCAGGCTTCCACAATGCTTGCTCCTGGGGAATGGGTATGCCACAGTAAGCTCTTCCAGGAAAACACCAGTATCTTTCTAGATGGCAAAGGAAATCTAAATCGCTTTTCCCTAAGAGAGCTGGGAACTCTGACGTTTCTACTCCCACTCCCTTTTTAACAGCTGCTGTTTAACTGGTTTCACTGGCTCCCATCCCTTCTATTTTCTGGGCATTAAGTCTGCTCACAGCAAGGGGAGCTC
1 TCCCTCCCTCCGGCCCTCCTGACCTGGACGGCTGAGCTGCTGCTTGCGGCTGGCCGTGCCCTGCCTCCCACTGTCCTAGGTGGCCAGGGTCCCCTGGGGAAATTCTGGGCCCGTCACCTGAGCTCCTGCAGAAGTGGGGCTGGGTGATGAAGTGGAAGGGAGGCTCCTAGAGGCCTCCGGACCCTGCTCTGTGCTCTTGGAGGGCCCTGGGGAGACGTGGATTACCACCACATGTGAGCCCGACTGCACC
0.8042141683211183 GCTGGGTCCTCACATTCCGTCCACCCCATCTCCGGGCTCCAGGTGCCAGAAATTTTCCACCAGCGGCCCCGCGGGATTTTGCCCAGCTGCTTCGTGCCCTCTGGTGGCTAAGGCGTGTCATTGCAGTGCCGGCCTCCTGTCATCCTCCCTTTCTTGTCCGCCAGACCCTCTGGCGCCCTGCTTACGACTCAAACAGGAGACAGTGCTGATTCATTTCCAAGCGGCCTTCCTACACCCACACCTGCTTCAC
1 tggtagagacagagtttcaccattttgccaggctggtctcaaactcctggactcaagcgatctgcccccctcagcctccccaagtgctgggattacaggcgtgagccaccacacctggccAGTCCTTCAATGTTTTAACGCTGAAAGCAACCCAAGAAATCATCAGGTGTAATCGTGTCAGTTCATCCTATCTCCAGTCATTCATAGATTCATctgggcagcaggccctgagctaggtgctggctacaag
1 CAGGAGGTCATCTTCCCTGCTGGGCTTACGGAGCTGCAGGGACACACAGAGTTGGACACCGGATCCCTTGCCCCATCCTCCATCACTTTCCCCCCAAAGTCTCCTCTACTCACAAGCGATGAGATCCCCCATTTCCCATCAGGAGCTCACCCGACCCCTAGGTAAGGAGGCCGCTAGGAGACGCTGTGGCCACACGGTGGCGCTGTCGGCCCGGGACTGAATGGAGGGCCCGAGGGGCGCAAGCTCGGGG
0.6409808973151178 cggcccgcgccctgcaccttgcgccgggcatcccgcgccagtgcctcgctcccagtgccccgcgccccgcgccccgcgccttgcCTTCACCCCGGGCCAGCTGCATCGCGCCCGCGCCGCAGGAACCGTGGAGTTGGAAAGTGGGGGCGCCGCGGCTGGGGGGCTGCTTCAGCTGCGCCTCGGCCAGCGATCGGCGGGCCGGGCTCAAATCCAGCCAGGCTGGGCAGGCGGTGGCCGCGCGACTGGGGAC
1 ccttgctctggtcaaaacattgcttcctgcttcctgtaaacctccatgcctttgtgcagtgttttctctgcctggaatgtcctttcccctctccttcatctggcatatttctacctcttatagccccaaaatgtcacTGGCTGCTGCTCTTCTGAGCACTGCCCCTTTCCCTCCTGGCCTCATTCCTCCCCTTTCAGCCTCCAGCATCTCTCACTATTGCACACACATTCCTGGGTGTCCATGTCTGTCC
1 GGTTTGAGCACCAGATTGCTCCAGATCGCTTCTTCAGGAAGAGATGGCCGAGCGTTACTCCATCACACCCAGAACCCAGAGTTAAACATTTACCAAGATGCAGTATGTCACAGTgggctctaggatcaaacttcctgggttcaaattccagctctgctacttactgtatagccttgggaaggtcacttaacctgtctgtgccttgatttccccatctataaaatgcatgtagtagtaatatctaattcac
0.04361274095539383 GTAGCGTTCGCCCGAACATGGCGACACGGAGCAGCAGGAGGGAGTCGCGACTCCCGTTCCTATTCACCCTGGTCGCACTGCTGCCGCCCGGAGCTCTCTGCGAAGTCTGGACGCAGAGGCTGCACGGCGGCAGCGCGCCCTTGCCCCAGGACCGGGGCTTCCTCGTGGTGCAGGGCGACCCGCGCGAGCTGCGGCTGTGGGCGCGCGGGGATGCCAGGGGGGCGAGCCGCGCGGACGAGAAGCCGCTCCG
1 gcctgagttccagcactcaagcaagaggtttcctggtccctgggcttagatccagaccttgaagagggcacaacggcagtttcactgaatggcagagaagtggctgtggtaccacatgggcagaatttgctggaaatccatcctcaagggtagaaaaagctgctcacagggaagtgtctcatgagaaacgcgctgctacagaactacctgaagagggtggcagagaaagctgctaggtgccgctggttga
0.4354411345574011 CGCGAGCATGCGAGAGCGCCAGGCGGCCACCAGGGGGCAGCACCGGCCTCCGCCCCGCCCCCCGCACCCAGCCATACCTTGCAGTGTGCGGTACTCACCAGGCCGCCGCAGGACGGAGCTCTGGCCGGTCAGCTCGTGCACGATGCAGTTATCAGCCTCGGTGTCGGGTGCTGTGGGCACCACGTGCTGTGGGCAAGCAGCGCTGAGCCATGCACGGGCTGGCCGGGCGCCCCCCACGCTGGCGTCTCCA
1 GTCTTCTGCTTCCGGACAATCCCAGGCCACCAAGTTTGGGGCTTGCTGAATTACAGAGAGCATGAGAATCTGGAAGAGGCCCCAGCCTCTCTGGCATGCAGCCATGAAAGAGGGCTGGGCCAGCGTGTTGGGGAACTGGCTCGGCCCTTGCCTGCAGAGTGTAGCTTTCCTCTCTTCTCTCGGTGCATCCATTTTCTTCTGGCCTCTGACCTGTGCTGACAGTAAGAGCTTCATAAAGCCGCTTTCTGTT
1 TGATTTGTCTGTGTTGCTCCAAGGGGCTCCCATGGGACCTCCAAGGGCAGGAGCTGTGGGCCGATGCCAGGCTGGCCCCATCAGCAGGAAACAGCAAGACAGGCGGCTCCAAATTTTGCCAGGCTGGGATGGAGCCGAGCCGGGAACGGTGTTTGCAGAGTGACTGTTCCCCTGGGGGACCCTAGGCTTGTCCTCGCGTTACCTTTGTCCCATCAGTTGCTGCTCTGGCTGGGGAAGTTGTTTACATTGG
1 TATTCTTATTTCTCAACGCCATACCACTACCCCGTAATGGTAAAAGAATTTGCACCCCAAAATCCTCCCCAGCGGCTCTGAAATGGAGTGCTTGGAGCTGGAAATGCGGAGCCCATTCCTCTCCTTGCAATACTGAAAGTTGTGAGCTGATTGGAAGCGTCGCTGCTTCTTGTGGGTTTCCCACTGGGGGGCAGCCTCGTCCTTCGCTCCTATTCCTTCCGCAAAGCAGAGCCGACAGTGTGGTTTCTGG
1 CACGAGCCCGGGAGCACTTCCGCCCTGTTGTGAAGTGGGTGTCTCGGTGGGTGAGTCCGGGTGGCGGGGCGGGGGCAGCTGAGACGCAGGCTCTGGGCTGGAGACTTAGGAGGTGGTGGTGACACAGGGGGCTGGGGAAGGTGAGAGGGGAGAAAGAAGCTTATATGTGGGGGTGGAGGGTGAGGGACGGTCAAAGGATGTAGAGGCCGGAGATGGGAAGGGTCATACAGGGGTCGGGGATGAGGAGGCG
0.583178263863781 GAGCAGCTCCGGAAACAACATCCTGAGCGACGTCCCCGGACCGTGCTGTGCACTGAGACGGACACACACACATCACCCAGGGAGCCGTTCAAGCTTCCTCAACCCCGGGGGGGGGAAGAGTAAATATTTCTACTTTGCGCGCGCAAAAATGAAGGACGAGGACAGTAACGGGACTTGTTCAAGGTCGCAGGCCCGAGAAAGGACATGGTTGGAAGAGCCACGAGGAGGACTGCGGTCGCTCCTCTCACCT
1 AACCAACAGAAGGTCAAGCAGCCTGGAGACGAAGACAGTATGTCAAAAAGGAAGAACCAAGACCGGTCTCAGAGACAGCGCCCTGATTAAGTCCTACAGACCGTTATTCCAAGAGCTGATAAACCCCATTACTATTTAAAAGAAAAACAAACAAAAACcagcagcagcagctgcagcCTCTCAGCCGAACTGGGAGGACGAGGAGGGTGGAGTAGTTGGACTCCTACAGCCACGTGGAGTGTCTGCTCCG
1 GAATTTGTCACTCTGTTCTTCCATGCCTTTATTGGTGACAGCAATGGACAAGAACAATACCAGGCATAGCAGACACCCTAGCCCAGTACCTGAGGTGCCAGGCAGGCCCTGAAGGGCCATTGGCACATCCAGTCCCAGCCCAAGATCCAGTCTACCCAGGCCATGTCCCCGAATGGGCAGGAGGCCGTCTGTCCAGTTTGTATGTGTGGATCAGTCTCTCTGAGTGTCTGAGCCGCTGCCTGCAGGGCCC
1 TACTATCTTCTCATTTCTACTATCTTTCTACAATTGTTGTTGTGAAAAGTATTAGAGAAATAGATAGATGCTCTACACAAAATCTTCACAATATGGTCAACTTCCTTTCCCCCTCAAGCCCACCTTTCATGCATGCACACATCTATGCTTTGTTTTTAACTTCTTATATTCAATTTTTATTCTTGTTATTGAATGAAGCTCTGATTGGTTTACTATATGACAAATATTCTTTGCATTTTAAGAATCTCAG
1 CACTCCCCCGGCCAGGGCCAAGTCTGCCTTCCCTGGTTCAGACCGGGACAGCGTTTGCATTGCAGTCAAGACGTGCTTCCCCTGCATCAAGCCGGGAGCTGCCCGCAGATCGTGTCGCCGGGGATGCTGGGGGAGGAGGGAATGGGAGACCTGAGGAGAAAGCCTGGAGAAGTAATGACACAAGCGGATTTTCTCCCCAAAGCTTCTGCTGCGTATAGACACATCTGCAAGGCACCTTTTAAGCTGTTTT
1 AAAACTTGTATTTGTCATCTTGCATAGACATACTTATTTGTCAAGAGTTTGTTATAGAAATATTTTCTGGggctgggcacggtggctcacgcctataattccagcactttgggaggctgaggtgggtggatcacctgaggtcaggagttcagaacagcctggtcaacatggtgaaatcccgtctctactaaaaacacaaacattagccgggcatggtggtgagcgcctgtaatcccagctactcatgagg
1 TCTGTCCCTCCCAGGCTGTGACCTTGGCAAGGGTCGCGCTGTATTGGGGCAGGGGCCTTGTGCAGAGAACTCCTGGCCTTCCCCGGCCATCTGCTTGTGGCTTGGATTACAAAGTACCATTATTTATTCTTTGGCTTCTTCCTGCCTGCCTGCCTTCCCCAGCGGGgagagagagagagagagagagagagagagagtgtgtgtgtgtgtgtgtgtgtgtgtgCTTTACCTTGAGAAGAAAATTGATTCA
1 ATTATGCTAAAACCAAAATGCAACtgccgaaacccgggattgaaccagggacctttagatcttcagtctaacgctctcccaactgagctatctcggcCACCGTGATCCTACTGCTTTTGTCATTTCTTCAAAATACAGAAACTGCCATTTGTAGGGTCAGTGTATCTTCCAACGCCTAATTCTGTTGTCTTCAATATCACCCGTCATTCACTCACCTCCCCTCCACCCAAGAAATATAAGTTCTGCTGCA
0.4980735063637438 cagcagtctgagatcaaactgcaaggcggcagtgaggctgggggaggggtgcccaccattgctcaggctcgagtaggtaaacaaagtggccaggaagctcaaactgggtggagcccaccacagctcaaaggggcctgcctgcctctgtaggctccacctctgggggcagggcacagacaaacaaaagacagcaataacctctgcagtcttaaatgtccctgtctgatagctttgaagagagtagtggttc
1 TCCTGGCCAGGGCTCAGCAGTGGCTCTCAAGCTGCCAGCCTCCTGCGTTGGTGGACACGTCCAGCTCCTCCAACACTCTTGTCAGCTCCCACAGAGGTAGCTGCAAGGGAAACTTGGACCGCCAGCATCTGGAAAGGTAACCCAATAACTTCATCTATCCTGGGTTGATTATCACATTTCCCTGCAAGGGAAAGAAACCCCAAAGCTGGGAAAAATCCTTTCCAAGCCACCAACAGATGCCGCTAGGCAG
1 CATCTCCGCTTACAACTTGAAACTTACTACGCTTTCGCCACCACTGCAGAACCCGATTTTAGAGACTACGATGGTCCTGCCGGTTCGTTAATCGAAGAAAGCCACTCTGCACCCTGACGCTCGTAGTGTCTTTTTGGTAATACTGGTTTTTGACTCTTATACTGTGACCGGTGCACCTTTTTGGACGACCAATAAGGCGGAAGACGTTTTCACGTCCCAGAACAGAAGAGCATAAGGAGCCCTGGCACAG
0.2155803742517421 AGCAAGCCAGCATTAGCAGGCTGCTAGGCTGAAGGGGAGGAAGCCAGAGGGCCGCTGGGGACTCACCAGGTCACGATGTACTGCAGATGCTCGTTCCTCAGAGTAACTCTGGTTTGCCCTCCAATGGGTCCTCCAGGGACTGTGCTCTCTGTGGAGACAGCAGACTCAAGTCCACCCCCTACTGGCCTGCCAGCCTCTGCACCACTTCCTAGTGGCTGTCATTTTTGCGTGGCCAGTTGGAAGTCCTGTA
1 AAGACTCTATTTGTTCAGATGTACAGATAATCAGATTTGGAGATAACCAATTGTGCTCTATTTTGTCATTCCAAAGGAAATCAAATGAGTCAGTCACAATTTTTGTGCAGCACTAACctcatcccgctagtttataagttccatgagggcagggacctgtcctggttgcgctaccattctatccccagcacctggtacagtgcctggtgtgtgtgcaatacgtatttgttaaattaataaatGAATGAAT
0.2504540471011011 CCCCCGCGGTCCCGGCGGTCCCGTCAGCCGCCGCCGCCGCCCCCCGCACGGGGGAACACCGGGCACTGTCCGGCCGGGTGGGGGTGGGGACCCTGCGGCGCCCGGCTCGGGCTGCCCCTCTCCGGCTGTGGTTCCGCCGCGGCCCTGCCCCGGCGCTCCTCTGCGCCGCGCGACGCTCCCTCCTGCCTGCTGTGGCTCGCTCGCCTGCTCCCCACTCACCCTCTGACCGGCTCCTAGCAGCCTCCACTAT
1 GATTCATTACCCAAGAACCCAGCATCCTATCAGCTTTGACTTCACTCACAGCTCTTATCACAAAGGTCAGAACTTTTTTTAACAGTACCTTTTTCAAGTTCACATAAATAGGAGCTACTGGTTACTTTAACTAAATGAAAAGGACAAGGACAAAGGACACGTTAACATACTCATAATGAAAACTTGTCTTTTACTGACAGCTGGTTATAGAGGAAATCACTCATCACTTCGAGAGGAACAATTGTAAAAT
1 ACAGACAATGGAAGTGATTCTGCCCCAGAGTCAGGGGGGCAGGGGACGAGGACCGCCAGCCTGAGCAAGCCGGCCTGGTGCGTTCTCTGCTTGGGTCTCCGGTGATGACGCCTTTCCACGGGCATTTTAGATCACCACAAAACCCACGCTATAATCAAGTGGCTTTATGGTGCCGATGCAGCTGTTTTCCTGCCCAGTAGTTTATGAAGGAAAATATAGCAGCTGCCCAGGGAAGGTGGGAGGGAGGAGA
0.6002324881722836 CCCGAATGGCAGCACGGTGTGGGGACACGGAAACTGGGAGTGCCTCCTCAGCTCTGGGGGCAGAGTCTGGGGCTATCCACCGTGGGGCGAATGCTCCTCATTCCATCACCGCCCAGTGAGGACACTGTCGGTCTTATGTGGACACAGCAACCCTGAGCGGCCTCCCCGCTGGCCCACTCATGCCTCAGTTTCCCCATCTCTTCCGCGAACGGAAAGGAATCATCTCAACAGCGGCTCAAATCTGCGCCTC
1 ACACACATTTACAGATatttcacaaagaaacatcagcctagggaagatgattatctatcaaggtcaaagtcagccagctagtaggtcagggagcagtttcctacctgggtgtgcctgacttcgaagccctgggttctccattgccccCTGTGCGTGGGAGCCACCCAGTCCTGGTAAAGCAGTACAAGCATGGGTAATGAAGGTATGTTACAGGAGTTGCAGGGGAAGTCCTCTAGCAACATGGGCAGGA
1 ATTGCTTCAGGTCACTGCACTATCTTCCAACGTTTTTGTGGTTGCCATGAGCTGTTGTACAGACCACAGTTTGGGGCCTGAGACAagctgggcatggtgttgcatgcctataatctcagctactttggagggtgaggcaggagaatagcttgggcccaggaggtctaggctgcagtgagccatgatcataccactgcacttctgtctgcgtgacagagaccctgtatcttacataaaaCCCCAGCCCATA
1 tttagctctatccccaggctggagtacagtggagcaatcatggctcactgcagcctccacctcataggctcaagattccctccttcatccttcccaagtaagttgggaccataggcacgcgccacgatggccggctattttttttttctttttgtagactgggtctcactatgttgcccaggctggccttgaactcctggccacaaatgatcctcctcctcggcctcccacagtgctggaattacagtcg
1 TAGAATGCTTGATCTTGTCAAGCGGAGCCCCACATTGAATCACATGTTTCATAAGGCAGTAATTCTAACTTTGAAAGAAGTCACGATGCTCTGACTAATTTGAAATTTATTTTTATTTCTGAGGGAGATTTGGACATGGAAAGGGATGGCAAGAAGTGAAATGGTTGAAAAAATAAAGAGTATGACATGATCTGGCAATTATTAACCTGGGGAAGTGAAGAGTGAAAGAAGAAGCAATCGAGCCACATGT
1 TTTTGTTTTTGGATCTAGGCTAGGGCATTTGTTTTGGGGGTTCTTTGCTGAAGTGTCGACTGCTAATGTACTGTTTTCTTTGAAGAAAGATGAATGATGGGGCCCATGTAAGAAGGGCAGTGTGGTTGGTCTGTTGCAGGAGTGGTGCCAGGAGGCCGTGATGCTGTCTGTCCCAGGGGTGGCGTTGCATGTGAACGGGCCTCTCGGTGCCTCATTCCCTGTGATGTCTAGTAAACACGCCTGTGAAGCC
1 CAGACGCCAGGCTCTAGGATTCACCCAGTACGCGGGCGAGTTAGGAACGGACGGTGCGGGATCTTTGACTTTCGGTCTGAAGCGTATTCTTTGTCTCATTCATTTTTCTGTAGCCTCACATCTGCTGTGGGTGCCTATGTAAGCTACCTGTGACTTGTAGAGATGGCTTCGGCTCTTTTTTAATTTCATGCACCCTAGATGTGGATGTCATCTCCTGCCCCGCCCCAGCCCGACTCCTAGGTTGACACGT
1 AATTTAAACATAAAAGGGGCAGAAAAGGCCTTGTACTCTTTACAGAGGAGTGGAAGGGTAAGGAAGAGAGTGAACTTTTACTGTTTGCTCCTCATCAAGAGGCAGCAAAGCCGGGTATTTATATACACACACACACAAcattgacctcatttcatcttcacactgaccctgcactcccccgccactgaaacttgagggaattgagtctcagaaacatccagtcatttgtccagagtcacagagctggtaa
0.4702876222410587 GGCTCCCACCTCCCGCTGGGCCTGCGCGACCTGCCCCCCGGGGCCTCCCAGCCCTCACTGCCCTCGCGGGCTGCACTCTCCCCCAACACTCCCCAGGGCTGTTCGGCCTCCCCAGCAGCTCCCCATGCCCTGCCCGCCGCGCTGGCGTCTCTCCCAGCCCGCTGCAGtcccctcgttcacgtcagcttcccaagggcctggattttgttttgttcagtgcagggggacccagcacacagtaggtgcttta
1 GCTGTCAGGAAGGGCAGGAGGCGGCCCTGGAGAGGACGGCGCTGCCCTCAGGGGCAGGAGGGGAGTCCCCTCCGCTGAGAGCCCCCCCACCCCCAGTATCCCCGGGGGTGTCCAGGAGGAGGCGGAGGGAGGAAGCGCAGATGGACAGGACTCCCAGATAGGGTGGGGAGGTGTGGCCGGTGACACACACGGTCCCCTCCTGGCAGGTGCTGAAGTCACCTGGAGCCTCCAAGCCCGTGGGGCCTGAGGG
1 ATGAGCTTCCCCCAACTTTTCTTAAGATACATTCCCCCTCCTTCCTGATCCTCCCACCAAGGGTGGCCCCTGGATCACAGTTTGGAAGTCACTGCCCTAAGGATTTCACCAAACAGGCAGTGTGGTAAAGAAGTTTCTAACAGAGGGTGAAGTGCTGTCTCTGGAGGATAAGATACAACCTGCACCCACAGGATGATTCTCATTCTTGGTTCTGGTCTCTGCTTGGGAACCAGCAGGAGAAGAACATGTG
1 CGGTGCTGACCGTCGGACATCGGCCAGTACCCTATTCCCACACTCTTTGAACACAGGGGGCTGCCAGGAGTGGTGGTAGTGTGGGCATATCTCCATAGCCAACCAACCCCAGGCTGAGGAGGAGGGAAAGGATGTTGCCATACGAAACAtactacgtgctggacgttattctaacattacatatcataactcatttCGTAAACACCAAGGAGGCTAGCATCCTCCTTCTCCAGCCACAGCAGAAGTTGCG
1 GTAGCTTTGGCCCAGGAGAGGGCTCTGGGGCTAACACTCCCCCTAGTGTCAACTCAGGGGCCTTGGGGACCCGAAGAGGTGTGGACAGTTGGTGGCAGCACTGATCCAGGGTGGTGGCTGTGGGAGGAGCGAAGGGCAGCCATGGACAGCAGAGAACCCTGGGCCCCTGCCTATGGTGTCACTCATAATCGTGACAATGACCAGCTCCTGAGTGCCTGTGGCGtttttctttttttttttttttttgaga
1 TTAGCAAGCCAGATTATCTagttacacattacactgtattttttcattttgctataatcctaggattttagtaaagtcctgtttaaaggtttggtcttgactcagccatgctgggggcagctaaggaggatccaggatccatctctgggccaaggtggtaaaggacagcagtgccctttGGGGCCTGCCTATTGGCAGGGGCGTCAGTGAGGGCTCCCCAAGAAGGCGAAGGTGTCTCTTCTGTAGCTGT
0.9304343257947008 TGTGACCCCTGTGTACTGGGAAGATGGGACGGCCCCCAACTCTGGGAGGCTGTGAGGCCTTCTGTCCCCAACAGCGTGGCAGGCAGCGCAGTTCCGGCTCTGGGGAGCAAGGGGGCTCCTGCGAACCCGAGTCCAGGAATGGGCGTCTTCCTGCGGTAGCCCCTGCCGGCCTGGGCTTGCCCTTCGTCCACCTTCCTCTTTCCGCGAGGGAGAAACAGATCCTGAGTTCAAAATTCCAGAGCTGAAAGTC
1 AGCCAGTGACTGGCGGAGCGCCGCTCACACTCAGGCTCCGCGAActgcctccctgccctcccctgcccCGGACAGACGGTCCTCCATAAGAGGCAGGATTTCCCTGTGGTCCAAAGGTGTGTGTCCCTGCCACATTGGGAGTTCAGCTCACTGCGGTCCTGTCCAGCTTGCCCCCGTCTCCCATCCACATCAGGATCTGGCTTTGCCCCAGCTATGTGGAATGAGTGCATGAACAAATGAATGGGTGGGT
1 TGACAAAGAGGCTGGCGTAGGAAAAGAGAGGTCAGGACAAAGTCCCAGGCCCCAGGCGTGGCTCTCTGGGTCTCAGGCCCCAAGAGCGATGACTGCACTGGGGAGTCACAGGGTTGGGGATTGCCCACTCCCCTGAGTTTTGGTTCTCCCAACCTTCTTCCTGGATACTTGTGACATAATCCCACTTCTCACTCCCATTGGGTGCCGGGTTTTTAGAGAAGCCAATCAGCTTCGCCGCGATCCCGGCACT
1 TAAGGAGTGGCTCCGTAGTCACCGCCCCCTTGAGGATGGGAATAGAAAGGGCTGTCAGGTCAGCTTGAAAGGAGAGAGGGGAATCCGATAACCTTTTAGTTAGCGAATGCTATACAGCAGTCCAGCTAATAAGGGAGGTTTCTATTTGGGGGCCTGAATGGCCCTGATTGCACTTACAAGCTCTAACTTATGGAGATAATCTGACCGTTGTACAAAATGGATATAACTTTGAAGGCGGCAAGTCTGTCAC
0.077830306295931 GACCCACTGGAAGGCTGGGATTGGCAGCCATGACTCATAAGGGCGGAATACCACGGGGATCGGTTTGTCTGGCGAACTTGAGTGAAGGGTCAAGATCTGGATTTCACCTTTCCTCTGAGCTTCCTGATAACCCGGACGTTCCGTAAACCCGGATCCGGAGCCGAAAGTGGTGCCCAGATCCCGTCTCGGAATTCATTTGTTCAGCATTTACCTTTTGAACGCCGGTTTCCTGTAGGAAGTGTCGCCTAGC
1 CAAGGATTGCCATGTAACACTGACTTCAATCAAGCATAGGTTCGGGAGGGTGTGTTTCATATGAATTTCTTTTCATTAGGTCATATAGCTAACATTAGATGCTAGAAAAGTCTGCAGCTCCCATAGAGGAGGGAGATGTGAAAATCTGGTGCTGGCAATGATGGCAACTTGCCATTCTGACAGAATTGCACAATCAGCTTCCAGGACACGTTTCACCAGTTTATTTTAGGAACCAGTGAGCTACACTAGA
1 CAATTAACTGAGGGAGTCCCTCCTCCCTGCACCCTGCCCTGGGGACCATCAGCCTCAGGGCCACCCCTTTGTGATCCCTGCTGCAGGGGCTGAGCTGAGATGGCTGCGACCTCCCGTCCCGGCCCAGGCCCCGTGCCACTCTGGACACAGGGGGAACTCACAAATACAACTGGAATATCTTAAGAAGGGTGCGCCCACCcagtgcctcacacctgtaatcccactacattgagaggccaacgcgggcaga
1 gggacttcttgacctccataaccatgtgagccaattcttataataaatagcctctaatattatctctacataacctgttggttctttttctctggagagccctaatacaaaggcaatctgggttcatcttgtatttaccctgcaccagccatggaactggccatttcttttttttttttttcttgagatgcagtctcactctgtcgccaggctggagtgcagtggcacaatttcggctcactgcaacctt
0.8062759747509527 ctaatttttgtatttttagtagagacggggtttcaccatgttgaccaggctggtctcgaactcctgacctcgtgattcgcccacctcggcctcccaaagtcctggaactacaggcgtgagccaccgcgcccACCCGGCCAGTATGATAGTTTTTAGGAGGAACCCTCAGGAGAGTGATTGTTTCTCCCGCTGTGTTGTGGGGGGTGGAGTAGGGAAGCCTGGCGTTTGGGgtttttttgtttgtttgttt
1 ctgagacccggaaagtttacctacttgcctgaaatggacaatggcaaagccatgattaaattcccaagttctaagaccttgtccaatcccccagtgccctGGCCTTATAAGAAGAAAGTAACTGATTTGGGATTCTCCATTCATACCTTTTCTTTTTTCTTTTCAATGTAAAACCACCTGACTGAACTTGGTTTTTAATAAAGCAATTTAGAGTCACTTGATAACTCCTGCATTGTAATTAATATCCTTC
0.7094782169462833 caggtacgagccagcatacccagccAGTGTTGTCGTTTTGATTTGGGAGTTCGGGGCTGAGCTGTGTTTGGCCAGGGCCTCGCCTGCTCAGTGTGCTCCTGGGCTGAGCTGCGGTCCTGGAGCATCTCTTGGCTCACATATTGACTCCTCCGGCCTCTCTACTGTCCTGGTCCTTCATGGGGCTCACATGTGTGTCCTCTTGTTTTCTTTCTGTCACCTTCTTAAGGGTTCACAGATCACTGTCAGTGGA
1 tccctcttccctgcctccctcctgccggcctTGAGGCCCCTGAGGAGCAGTGGAGAGGCCAGGTGTCTTCTCTGCCCAGCGCTTTCTGTGACTTCTTTGAGTGGCTACAGGTTGAGGGTTGACTGTGCGGGCGATTGCAGCGTGGCCCTTTCACCTCTTTGCACACTGCCACATGCTGCCACAGGATGGCAGTGCAGGTCTGGCTCTGTTTCTCTGTTTGGTGCCCTCTATCGATCGTCGTGAGGCTTGG
1 GCACGTGTAAGTGGGAATGCtgtgtgtgtggtacgtctgcagtgtgtgtgcatgtgtgcatggggtgtgtatctgcacatggagggcacctgtgtggggtgtgggtgtgggatgtgtgtgtcgtatgtggagagcacgtgtgtgaggtgtgtgcatgtgtgtgtctatgtgtggggtgtctgtacgtggagggcacatgcgtgtggtgtgtgttagcattgtgtgcgtggtatgcatgtggtatgtgGCC
1 TCTCAGGGAGAAAAAACAAAAACTGACACAAAAAATGAAAACCATAAATAGTCCCATAACCAATAAATTCAATCAGTATTGTTTCAACCTGTTCTATTCTAATGTCTTTGAACTGCACAGATTAACATTTTCAAAACATTTGTTTAAACTGACTGAACTTGCTTCCCACTCCTCTCCAGGTCTCTGTGCTTTTATACATTGATTATGCCTTCCAATAGTGCTTGCTAGGGGAAATCCTACTCACCCTTCA
1 ttttagtagacatggcgtctcactgtatttcccaggctggtccccaacttctgggctcaagctatcctcccaccatggcctctcaaagtgctacaattataggtgtgagccaccacacctggccCCTTGTGTGTCGTTAAATGCAAATAGTTTAAAACAGGAAGTTCATACCTGCTCCCTGACCACTCCCAACACTTGTCTAAGCATATTCCCTTCTTACTGTCCTACCTCAGTTTCATAATTATTTCAT
1 AACAGCATCATGTCCCCTAACTCTGTCTCTGATCATTTAATGCAAGTCAATACCTGTCCTGCACCTACTAGGCCTCATCAGGCAAAAAGCAGGCCTTGCGGGCTCGGGGAGGGGGATGAGAGCTGTTTCTGGAGTTGCTTAGAACCCTTGTGCTGGAGTTGCTTCTGTAACAGAATAAAAATCCAGTGGTGGAgccagacgcggtggctcatgcctgtgatcccagcactttgggaggccgaggcgggca
1 AGGGGGCACAAGCGGGCATGTCCAAGCGCCTAGGAGCCCGTACCGCTGGGGACCTCCCCTTCCGCGAACCCCGAGCGGGTAGACCCAGAGCAATCCGAGTGTGGAAACAATGGAGAGGGGGCGTGTTGAGCTGGGGTCTCCATGCCTCGTTGGGGAGAGGGAGGTGAGTTTGTGTCTTCTGGAAGGCGTGGGGGCTGTGCCCTCGTGGGGGTAGGAAGTGCTCCCGTGGGGCGGGGTGCGGATCGGAGAG
1 AAGGTGGGTGGGGAAGTGAAAGTGTGTCAGAAACTGCAAGTTAGAGTTCTGCTTAACTCAGTTTAAGTTCTAGGGTGACTAACATTTTCTAGGGAGGAAGAGCGTTCTGGTTTCTTAGGAGTAACTGCAAACCCCTTCTCTGGGATCCTCTGAGCTTCCTCTGCATCCTGAGCAAATGCTTGTGACACAGAGTTGGTGCTTTTGATTTCTTTATCTGATTATCCTATTAGATCAGGCTCTTCATCAAGTA
0.5185072058195251 CCGGGAAGCGCCGCCCACCTCGGCCCCGCACCCTCGCCGGCCTGCCGGGTCTCCGCCAGCCCTAGCAGACAGAGAGGGGCGCCGGTCCCTAGTCCCCCAGACCTCCATTCAAGGTCAAAACTTTGCCCAGCTCAGCCTTGCTCGACCCTGGGCAGGGAAGCGCGGACATCGGCAGAGGGAGCCCGAGGCTCTCCGTGCCCTTCGCGCCGGTGAGTTCCCGACCCGCGGCGCTGCCGGCGTTTCCCTAGCG
1 agggactgtatgctggctcaggtttaggatgggccaaagttcaggggcctggaggaaggagaaaagttcaaccagttgggttaacaagcattttgttctggttgatcagtgggggtgggcagcttagctaatcatttataagacaaagaaagggaaatctggagggtctgtgtctggccttgtcataggtaaacgggggcatccgtgagtcttatctaagtcatatggggaagggtagtggatcttcaca
1 ACTCCCCTCCCCCTTTTTTCCTACTGTGCTCACAGGCTCTGGTTGGCTGGGACTTCCAAATGGATGAGGCTGATTTGCGCTGGTATCCTATTGGTCAGCTCTTGTTTCCTCCTAACCAGGAGCTGCTGAGAGAGGAAAATAGCTGGTTGGCCTTTGGGATATTTTTTCTGCATTTTGCAGAGGGAAGAAGGGAGGAGGATGTGAAACTGGAAGGTCCAAGGCTGAGAATCTTGCCTCAGCAAAAGTATGC
1 ccccggcttcctctctgcttggccatgggtgacagcagctgggtcccttgggtgagagctgtgggccacctcctacagctaccgctctggctgggttcccctaactaacagggccttcctggcccatttaggactgaagatggtaacaagtgccccactgctgctggtcccaaagtcctttgttacctcttttcagtttctctcaacctgatccacacctccataaaGAgggaggctgaggcaagaggat
1 gcaagtctgtacttctgctgcatagaatatatttacttatttctttttttgcttgtttgttttgattttatttcgagacagagtttcactctgtcacccgggctggagggcagtggcacgatctcggctcactgcaactttcgtctcccaggttcaagcaattcccctgcctcagcctcccgagtagctggggctacaggtgagcaccaccgcaactggctaatttttgtatttttactagagacagggt
1 AACACATAACAAAGAGCAGAAGCAGAAATGAGGGTTTTCAGAAACTGTTGAATGCATGAAAACCTAGGGACTTGGTTTTTGTTTTTTGCGTGTCGATTTAGCTGTAAAACTCAtagcagaggatggtttcgatccatcgacctctgggttatgggcccagcacgcttccgctgcgccactctgctAAGCGGTTTCTGAAGACCACTGATCTTAATTTCAATCATCAAAATCACCTTTCAGTACCGACAAA
1 CTTAATCATATACTTTCGCCTATTGCTATCCACCTGTTTCTCATACGTGTAGACAGCACTATGTACTACTTATTCAAATGTTTAGTAATGCTGAGCACATTGTAGGTCACCAATAAGTGCTTACTGAATTGAATTTAGCCAGTGTGTGCTAGCTACATTTTGGTCATATGGAGACTGCCATTAAGAAACACCATGGCCATCAAAGGAATGACATCCAGCAATTTCCAAATGGGTTTGGCATTGTGGGAGG
1 TACTGCCAGCCTTCTGGGCCAGGCCCCATCTCCTGCCAGGATTTCTAAGGCAGCCTCTAGCCCTCTCCCTACAGCCTGGCCACCTCTCTAATCCATTTCTTGCATGATAGCTGGGATGAGCTCTCTGCTTGGAACCCTTTGGGTCTTGAGGTTAAAGTTCAGACTTGGTAACGAGGCTTCTGGGGCCATCTGTGAGCTGGCCAGTGCCTGACCCACGCATTCGGGCCCTGCCTTCACAGCCACAGCTGCC
1 cttgTCAATGTACTTGAATACATCCCACAGTGATAGGAATGTATTCAAGACTTGAATACACTGTGCTGTTAGGCCATAGGAATTGTGGGAAGAGGCGTCTCCTACTTAATACTGCTCACCGAAGCAATTTCCTTGAAGATTAAAAAAAAAAAAGTAGTGTTGGGCAGAATATTGTTTAATAACCTTCGTTATTATTTGAAGCGTTTACACGCAAAGTGAGAAGGTTGTCATATTAGTTTTTATGTAAGCA
1 gctgaggcaggaggatcgcttgagcccaggagttccaggctgcagtgagcTCAGTGGGTTTGCTCTTGACTGTGCCATTGGTATTTATTTGCCAGTGAGTGTgtggggaggaggtgcctctttggaggtgtggagatggatcttggccaggtggactgggatgtctacatgcaggacggagcagcccctggacgtgtgcaacagaccaggcttgggaagagtaaagctggacctgagacctactagctcc
1 TTAGaaacaaacaaacaaaccaaaaaaTCTGATGCTTAAGTGTGTAAGGGGTGGGGAGAGCAAATATTTGAGGAAGACAAACCTTTGAGGGCCTACAGCATCCCCCACAAAGGCCCAGTTGTCCATGATTGAAGTCAGCAGTGCAGAGACTCAGCTGATCAAAGAGAAGATGAGGCTGCTTTCGAACTATAAAGGAACCATGGCCCTCATCTGGTAAATCAGCATTGATCTGTCATGGTATCTCCTTGCA
1 AGCCGGTGCTGGATCCCTGCAGGGGAAAGCAAGATTTCAAACGCTGTCCTAAAGGACCTAAAGGGGACCCAGTCGTTCCCAGCGGTGTTACAGATTTGTTGGAACCCCAATCAGATTCCAGTCCTCTTTCCAACCTCCAGACCTTCCCCCTCTTTAGCCTGTTGGTCGCTGCAGGAAGTTATTCCGAGCATGGAGAAGGCCAGGTGTGGCCGAGGGTATTCGGAACTACGCAATGATTTGGAGAACCTGA
1 gctcccgagtagctaggactacaggtgcccgccaccacgcctggctaattttttgtgtttttagtagagacagagttttaccatgttagccaggatggtctcgatctcctggcctcatgatccacctgcttcagcctcccagagtgctgggattacaggcgtgagccactgagcctggccTTGAAAACTTCCTTCTAATagggcaagcttccttctgggagcctgagccgagtcttgacgagtagtaggt
1 agctgggactacgggcgcccgccaccacgcccggctaattttttgtatttttagtagagacagggtttcaccatgttagccaggatggtctcgatctcctgacctcgtgatccgcccgcctccgcctcccaaagtgctaggattacaggcgtgagccaccgcgcccagccagggaacccaaatcttttataacgggccaaagcaaacctgctctttgcccagagggagatattatctttattatactgga
1 gtttctgctggttttgatttacagttaggaacagtgctgcagggagcgcttgtccccatctcctgcacacctgtgcaagagttcgcaaagggatttgcccatggtttaactgctggtccacatgcattccactgccaaatgcttttgcaaagcggcagaacccattcacactcccgccagcagcaggttcgtgccactcctcaatgtcactggctggtagcgtccaaagcttcaccttctgccaacaggg
0.9309412035593538 TGACATGTCTTTTCCCTCCACGCCTCCTGAGATGGACGTGCTCACCTGGGCCTCGGAAATCCCACACTCTTCAGTCGGCAAACTGCGAACAAGAACAGGAAATCTGCCACGCAGCAAACACTTGGGGAGGTCAGTGGGACACTGTTGGTTTTAGGGAAGAAAATGCCCCTGTAGCTCCGGCGGGGAACCCCAAAACGGTCAGCAAAGGCAGGCCACACGGAGTGAGCCGGCCAGATGGAGCAGGACATCC
1 TTGTTTGGCAATACCAGCGCTATCCGCTAGGTGCCGGCGCTTGCTGAGTCTCAGCGCCGCCAGATTCTTGCTAGCGAGGTCCAGAGCAGTGCAGAGACCTAGCGGACAGTTTTCCGGTGGCAGCAATGCTCATTTCCCGGACACAGATGGTTTTTGGCCCCTGAAGAACTCTTTAATCCCTGCGTTTTGTAGCGCTCGTTCTCTGTAAGGTTTGCTTAGTATCCGTTTCATTTCGACTTCTTTTCTCGCT
0.7079058180803309 CCCACAGCTAAGACACCGGGACCCCCTGAAAGCCTAGAAATGGTGAGAGTGCCGGGTCGGACATCCCGAGAGAGGGGAAGGGCTGGTTGTAACCGGTGGGAAGTGGCTGTGGCGGGACTCAGGCCTCCCCGCAGTCAGCTCCACAGTCTGCGCCCCGAGTTCTCCTTGCCCAGCTCGGCCTCAGTCCCCTCCAGCCATAAGATGGCGGCTGTGCTGACAGTCGGGACCCCAGGCGTCCTGTCTCTTCACT
0.4209052778416917 GGAGCCACTGCGCGGCACCGGGAcgcccgcccggcttcccgctccccgccctggcccgcgcccctctcccTCCTAGGAGCTGGAGACCTGCAGGCAGGGGCAGGGGACCCGGTCCTCTGCAGAACCCGAGCTCAGGGTTGCGTTAGACCCACTCCGGGGCGCACGGTCTTCAGCGGAGGGACGGCGGGGTGCGAAGGACCGAGGCGCCCCTGCTCGGGTGGCAGCCGATCGCCGCCTCCCGCATCCCCCG
1 ggttcccagctgacagctaggaggaacatggggacctcagtccttcatctgcaaggcagtggatcttgtcaacaaccagtaagcttggaggaggacccaatcctagatgagaaggcagccctaactggcactgtcggtgctgtgcctggacttctgacctgtaggaactgtgaaatagtaactaggtggtggtttaaAAAATGTATGCATTGGGTGGGGGTGAGTCAAATGGTGATGGTGAAAATAGGTA
0.3997237607408008 CGAAGGTCCACACGGTGAGGCTGCTCCGGGTTTCGACACCGACACTCATGGGAGGCAAACGGGAACCCGGCTGGCGGGCTGCGAGCCGGTAGGGACGCTGGGGTCCAGGGCTGCTGGACAGCCCCGCCCTGTACCTCTCCCCATCCCTCACTTAATCCTGGGTCCGAAATAGCCCCGGGTAATCCCAGGGCGAGGCAGTCGGGAATTAACCCCAGCCTTGAAGTAAGAGACAGAGGCGTCCACAGAAGAG
0.6762272074068165 CCCTGAGGCAGTTCAGGCCACAGCAGAGGGCTTTTGAACTCCCCATTCAGACCAGACATCCTACGTCCCTGTCCCTCGGCTTCTGAGCGCTGCTGCCTTAGGTAGAGGGGAATTGGTGGGCAGGGGAGGCGAGGCTGGGAGGTACTCCCCTTCCCTGTGCCGACGCCCACATCTCCTTATCAGTCAGGAATCTGGCCTACGATCAGCTTCCAGCAGGGGCCAGGTCCCAAGACACCAGCTGGGGCTGCAG
1 tcctgggcccaagggatcctcccacctcagcctcctgagtaggttcaagccaccatgcctggttaatattttatttatgtatttattttgagacagagtctctctgtcgccaggctggagtgcagtagcgcaatctcggctcactgcaacctctgcctcctgggttaaagcgattctcatgcctcagcctcctgagtagctgggattacaggtacgtgccaccacacccagctaatttttgtacttttag
0.2527986578687654 GAAAGCATTTGGAGGCCTGACCTGGAAGGAGGAATGAGGGGCCAGCTGAGGGCGTCCCAGGCAGAGCCAGGCTTGCGATGCCCAGGGTGCCCGGGGCACAGAGTGGCCCGGCCGCTCCCACACCCCTTCCCCCTTCCCTGGGCCCGTGGTCACATGGGTTTCGCTGGGAGGCAGAGCGTGAGGAATTTGGCTCTGGTGGAATGAGGACGGCTGCACTCCCTGCTTTGCAGAGGGCCCGCACAGCAGCCCG
1 GATGGCTGGACCTCCACCTGCCCACTGCTGGGGTCAAAGGTGAAGACCTTATCGGTGCTTTCTCCGCGATCATCCCGCCCGCCAAGGATGTGGACCTTCCCGTCACACACAGTGACTCCACAGCTTTCCTGGGTGGACAAACAGAAAGACAACTATCAGGTCCAGCCTGGGGCTTCCTCTGTCCCTGCCTGGCCAGGCCAGATAATAGAACCTTGACCCACAGACTGTGAACaggcaatctggactgtag
0.1669774166126012 AAGACTAGGGCGCCAGCGGCTGGCGAAGAAGGAAAGAGGGTACTCTCTGGCTGGGCTGGGGCCGTAGCGACGTCCGCCGCGAACCTGGGCCCCCCAAAGCTGCGGGGCGTTCGGTGTCGCCGAAGTAAACATGCACCCTGAGCCCTCGGAGCCTGCGACAGGTGGTGCAGCAGAGCTGGATTGCGCGCAGGAGCCCGGCGTGGAGGAGTCTGCGGGTGACCACGGGAGCGCAGGCCGAGGGGGCTGCAAG
1 TGGTTCGTAGTGGCAGCTCCCTTACCACCGTCCACAGCAGAGGCACAAGCTCCCTACACATGCCTCCCCAACTGCAGGTTGCCCAGGGCAATCCCTTCCCGTCTCAACTGGGTCTCTCTGTGGGCTCTGAGGTCCTCTGCTATCCCCTGGAATCTGCTGCCTCTTGAGCTGGGGCCCGACAGCAAGTGAGCAGAGGTAAAGAACAGCTGCTAAATTGATGGCATTGAGGCTAGTGCTTGTTCATGGCTGG
0.290035918403324 GTCCTGTTTTTTGTTTTTTACCCTCGGCAACGCCACGGGTGCCAGGACTAGTTGACACGCCGCCTCAATTTAAGTCATCCATAATTTATACGTTACGAAATGGAACTTTCAAAAGTGTTCCTAGCGTTAGGAGCAAAGAACGCCGGACAAACGCTCGGGAGGCGGCGAGCCTCGCGGTTCTTCCAACAACGCAATCTGTCAGCGCGGCTAGGTTGGTGCCCTCTCCCCCTGTATCGGGGCAGCCCGGCTT
1 ccaaatgctctgcttttccttgtgcttttaggcatgcactgttcacactcctaaaatcaatacctccccttgtattctagatcccatcacttcaaatgcctaaggatttcactctatcagtttccactttctcttctgcatgatcaaatttcctctctttacaggaacatttccatcgcagacatcttatttctagcattataaaattccttgttgatcctcttttcccttggttacagcctcatttccc
0.7155464592309757 TGCCAGCAATGGGCACAGTCCCTGCCATGCCAGGTAAGTCTGGGCTGGGGGCACCAGAGTCCCTTCTCAGGAGAGCAGCCACCAGCTCTGGGACTGGAGGAGGGAGGGTCCTGCTAGGAGTCCCGAGTGCACAGTGGGCAGCGAGCTTCAAGGCTGGCCATGGTGCCCACCACTCTGGCCGCCTGCCGCCCTCACAGCCATGGTGGTGCCGCCGCAGCCACCGCTTCCCAGCCTGGATGCAGGGCAGCTG
0.6707301450649784 cctcctcctccctcctcctcctccagcccctcctcctccagcccctcctcctccagcccctcctcctcctcttccAGTTCCTATTCGGGGCGGGCCCAGCCCCTCCTCGCGGAGCGATCGATGGCTTGGGCTCGTCGCACACGCCTGCCCAGCCTCTGCGCTCGGCTCGCCAGGCCTGCGGCGCTGCCATGGAGACACGGCCCAGCGGCCGCCGGCCCCGCCCTGGGAGCCCCGCAGTGCGTCGCGCCGC
0.3332292301877134 tcaagcgattctcctgcctcggcctcccaagtagctgggattacagtcgcgtgtcaccatgccaggctattttttgtatttttagtagagacggggtttcaccatgttggtcaggctggtcttgaacccctgacctcgtaatctgtcgccttggcctcccgaaatgctgggattacaggtgtgagccactatgcctggccTCACCACCTCTTTTCACACTCAGCTGTGTCGCCTTCTCTGTGAGGCCTCA
1 GATGGAGCATGAGGTATGGGTGGGAGGGTCAGTTATTTTAGGAAGGAGAAAACCAGCATCGCAAACACAGGAGACACAGGGCAGGCTGAGAAGTCCTTCAGCATAAGGAAAAGCAAGCAGATTCCATGGATCCAAGTCCAAGACCCATGCCATCCTTGAAGGAAGGGAGGAGCCCGGGGTGCcagacacccaagtaggcaggcaggcagtggagacaggacagagcagcagccaCTGCACGCCTAGATAA
1 ACTGGACCTCAGCATAGGGGTCACTCGACCTAAAGAAATTGCTCGCCTGATCCACTGGTGTGGAGTGGGCCTGTGGGTGAGGGACAGATTCCAGCCCATGGTGGTTTCAGTGTGTGATGAGTGAGATCATTCAGTAGAGGGCGCTGGGAGAACTGATGACTCGCACCGATCAGGAATATTGCATGCAATTtagatccaagcgtaaaacactagactactaaagtactggaagcaagcgtgaagaccattt
1 CCGAAGCCTCTTCCTCTGCCTAGCCCTCACTCCATGGGGGCCTCCCTTTCAGGTTCCTGCCTCCCAAGCAGGTGGCAGACAGTTGATCTGTGCTTCGCAtcttcagctaacatcgtgccatctgccccagtggcaggtccacccctctctgatcctttgctccgaacatagccttcaaagccctctagttttctttaccacaatttttttttTTTTTTTAGTAagtgcagtgatgcgatcttggctcact
1 CTACTTAGGGTACAGAATATTCTGTGTACAAGAAAAGATACACGAggccgggcacagtggctcatgcctgtaatcccagcactttgggaggctgaggccggtggataacccaaggtcaggagttcaagaccagcctggccaacatggtgaaaccctgtctctactaaaaatacaaaaattagccggacgtgatggcaggcgcctgtaatcccatctactcgggaggctgaggcaggagaattgcttgaac
1 GGCAGCCTGTGTTGTGCAAAGTGATTATACAGGAGCAAGATTTCAGGTTGTGTCAATGGTCCAGGGAGGCGGAGTAAACAGACAGGAAGACAGGAAGGAGTAAGTGAAACGTTAAAAGATTTGGGTGGTTGCAGAGGGGAGGTGGTTTGAGGAGGAAGATTATTGTAGCACCATCTGCTGGCACCAGTACTATCTACACCAGAGCCATTCCTCTTCCTGTGCTGCAAGAACCCCCGTTTTGTTCAACTGT
1 GATCACGCTAGTCAGAGAGGCCACAGGGGAGGCTGTCGCCACCATTCAACCCCagatctgtggctctagagctccactagagttccaggctctcctctgaagttccgaggacctagggcaactccatTTCATTCCATAAACTCGAGTCATTCTTGACTTGTATAGGGTTATCCCAGTTTGTTCTTTATGATCCTTGCCCACAAATGCTGCTGGTTAAGCCTGAATTTTTGAGTTAGAAAATTAGGCTGTT
1 ttacaggcatggggttgcagtaagccgagactgcaccattgcactgcagcctgggtgacaagagctaaactccatctcaaaaaaaaaaatttttttttttaccacttattccagttcagggttggggtggctggagcctatctcagcagcttagggtgcaaggccggaaccagtcctggacaggacatccactgcagaaagcactcacacttacacacacagctccacacaccagtgaacctcacgtgca
0.06311678318734674 GCCCCGtccccattttcagatgaggaggctgaggtgcagagcgggatgtgggctgctcaggaccacacagctggtgggcacagagccaggaGTACAGCGCTGCGGCAGCTTGGGGCTGGGAGCGAGACTCTCTGTTACCAGCCTCTCCCTGCTCTGTGCCTCAGAGGATGGCTGTGGCCCTGAGCTTGGGAGGGTCATTTGGGAATCTGAGGAAAAGTTTCCACAGCCTCACACAGCAGCAGGTTCAAGG
1 AGCCTGAGTATTTGTTGAGAGCCTCTTAAGGAAAGCTCGTTGTCTACAGCCTCTGGGTCTGGAGGATGGGGCAGAGGTCAGCTGGTCCATGCCTTCTCCTCCCTACAGGGGCACACCCAGATCAGTCGATAAATTGCCTGGCCCCACCTGTGCAGGCTGGGTGAGGCTGCCTGGGTGGAGAGCCTGGGCCCAGGGGGCCCCTGGAGACTCTGACCCCAGCCAGAGTCCATAACAACCACAGGACCAGAAG
0.08793220151756055 AGTCCAGTTCCTAGGAGCCCTGGTTTTGAGACAGCACCACCTCCGAATTCCCTCAAAGGGCGTTCTGAACTCACTGAGCAAATCCGGCTGGCTTTCATGTCCCTCTAGCCATTTCTTGCCGCCATGCACTTACAGGAGAAGGACTCGCAAACAGCGGGAGCACCGGGAAAGCCTGGGACTGCCGCCCCCCACAGCACAGCGCTCGGCACAGCGTTAGGGACAGAAGTCACCGTTGTTGAGCCCAGGGCAG
1 GATTACATAACCCTGGGGCATgccaggcgctgtggctcacacttgtaatcccagcgatttgggaggccaaggtgggcggatcacaaggtcagtagttcgagaccaacctggccaacatggtgaaaccccgtctctactgaaaatagctgggcgcagcggcatgcgcctgtagtcccagctactcgggaggctgaggcaggacaaacgcttgaacccaggaggtagaggttgcagggagccgagattgtgc
1 GTGGCTCAAATAAAAAAAAAGGAAGATATAAGATCCTTTGATTTAGGTGCTTGTTCATATACAAAAGTCCTATCTGGTTCAAATAGAGACTCTCAGGATCAGGAACAAGACGTAAGAAGGGTAACCACTtgtttccgcctggttttgatccagggacctttcgcgtgttaggcgaacgtgataaccactacactacggaaacAACCCTGCTGGTGGGAGTGAGAATTGAAGCACCTAGGGTGAGACAATC
1 TTCTGGAGGCCCCTGGTGACTGTAGGGTAGCAGGGAGCAGGCAGTTTACTAAGGGGAAAGCAAGGGGTACAAAAAAGGGATCAACACCCACCTCAAACCAAGAGCATGACCCTCCGCAGAACGATGCCTGACCACTCGAGGGCTTCAGGACAAAGTGTCTGAGAAGATAAATCAGAAACTGAAGGGAACAGCCAGGTTGCCAGGGATAAAGACACGGAAAGACAGGGTTGCAGACCGAGACGGAAGACAG
1 GTTGTTTTCAAAGCAGTGAGCAGAAAGAATCCAAGGCCACATGCCACTCACTCACTCAACCCGGGGCACGTTGTAAGGGACTGGGTTTCTGTTTGTTTTGTTGGCGTTTCTTGTTTTGGGAGTCGGAGGGAGTAGAAAGGGAAGGGAAATTATTTAGTGGATTTTTTTTTCCTTCTTTTCCTTTTCTTTCTTTCCAGAAAACTAGCATTTCATAGTTCAGGACCCAGTGAACAATCAACTGCTGACTCTC
1 CAGAAGCTCAGAGGCGTGAGAGGGCAAGCCACATAGAGGAAGGGGGTACAGCTGACTGTGGCTGACGCCAGCCCCTGGAGAGTTCAGGCTTTTGATCCTCAGGCAGTGAGGGTGATGGACAATGTTTAAACAGAGGAAGTTGTGCTTGGAGTTATGTTTGAGTAGAGCGTGGAGGTGACAGTGCAGGCCTGGGGAGGTGGCAGCTTGAGCCAGAGCTGTCTCAGTGATCATGAGACTGTTGGAATGTGCA
1 tttctcaacctgccgatccacctgggaacaaagagagagccccactgcatcgcgggctgctggccagatcccgcaataTCcatggtggtgcacgcctatagtctcagctactcaggaggctgaggcaggagaaatgcttaaacctgggcgtggaggctgcagtgagctgagatgacgccactgcactctagcctgggtgacagagtgagactccatctcaaaaaaaaaaaaaaaaaaaGCTGTTTCATAA
1 ccccattttacagatggggaagcaaagccacagCAGTGTTCACCACTGTGCTATATTCCTCCCTTCTCCTCTGAGGCTCCCTGCCACCTCTCTAGCACCCCCTAGGTCCCCTAGCACTCCTGGGTCCACGCTGTCCTCAACCCCATCTCCCTCCCAGGCAGGCCCTAACTTGCTGGCCTCCTTCAGGAGGGCGATGGCAATACGAATCCGCTGCCGCAGGAAGATGAGCATCAGCAGCAGGATGGCTTCA
1 TGCACATGCTGCCTCACCAGCAAACACCCAGGGCTCTAGGTAAGAGCTATGCCTACCCCTAGCTTCCTCCACAGAAGAAGCTTATTGTCACAAGACATGCACCCTAGGTTGTGCTACTCCTTACAGCACTGCTTTCCTCGTTTGACTTTTGTGGCCTTGATGGTAACCACACGATACCCACCCCTCCCATCAGCATGGAACAACCCCATTTGGAGTTTGGAGTGGTACAGGCCCATACTCTTTCCTGGGG
0.4299126880573356 GGGGGATTAGGAATTGCATCACTGAGCACAGGAGAGGAGCACGCAGGTTCCTGCCAACGCAGATGTGCAGGGCGGCTGGGTCCGAGTCCTACCCAGGTGCTGGGTCCCCTTCACGAGGCACCTCCAGCCGTCCTTCCCCGCCGTATGCCAGCTCTGGTCCAGGGAGGGCACCACCTGCTGGCTAGACTGAGTTCCTTCCCACCCCAGGGCGGGGCCTACGGCAGGACTGACCCCTGCATAGTCCACCCCA
1 cttttagagacagagtctcactctgttgcccagactgaagtgaagtggcttgatcacagctcagtgcaatctccaactcctgagctcaagcaatcctccagtgtcagcctcctgagtagctaggactacaggtacacactaccaagcctggttaatttttaaatttttttttttttttttgagacagagcctcgctctgtcgcccaggctggcgtgatctcagctcactacaacctccgcccctcgggtt
1 ctccaggaccctgcccccattcctcaagctgaagttagttctgttcagtcagtgcccttgcaggccaggtgctctgtggaatatcacccctgCTCATGGGTCTCCTGTGCCTGGGAGGCCAGCCGTTTCTGGCTGAGCAGTTGGTCATGGAGATGGGCGCAAGAACCACTCAGCTGAGACCACTGAGGCAGACCTGTACAAGAAGAACCAATGAAATTGGGTGGCACTTGGCACGCCTTCCTGGGTTCTC
1 CCGCAGCCGCCGCCGATGTCGCTGGGACTCGGAAGTGCCGAAAGAGGGGTGTTGGGAACTCGCGGCGCGCGTGAACGTTGCCGTCGCCGCCGCCCGGGACAGCCCGGAGGTTGGTAACTGGTGACCATAGGGGGTCCTGGGGAGGTTAGATGCTGAATTTTCTGCGTCAGTTTACTCTGTTAAAAAAAAAATGCACAAAACGCTTTCCGTTTCCTACCCAAGTTCCCGTGTGCGCGCCCGAGGGCGGGAC
0.8063278240289072 AAACCCTTACCACGATTAAAGATTACTCCAGGGCCTCGCATATTCACCCTTCCACCAGCAGGGCCCAGTTTACGGATCATTTGAATACTAGCAAAAAAACAAGCCATCTGCTGGAGAGATTGAACAGAGGGAGAAACAGGAGTGTTTGCCCTGCTTCCAGACACCCCTTTCCTGTGGCAGTTCCTGCACCTGGCAAGATCTACTGGGGAATTCCCGGGGTCCCACTAGCTCAGGACGGGTGTGTAGCACT
1 cactatgttgaccaggctagtttcaaactcctggcctcaagcaaacctcctgcctcaccctcccaaggtactgggattacagttgtgagccactgcacctggccTGTAATTTGCTAATGCTATACCTCTAAAGTTCTAACAGATGTTGCATACATGCCTGCTCCACATGTGTGCAACTTACCCATGGATCGCAACTCTGTTCTCACTGACAAAATCATAATATGAATATGATCTGAAGGTAGAGGAGAAC
0.7002568691211266 GAGGTCCAAGAGGCTTCAGCGGCCCAAAGAAAGGGAAGGTGTGTGGGGAAGAATCTGCGTGGAGATGAGGGGAGCGGCGGGGACTGGTCCTTGCGCAGAGGTGGCCAGTGGACCCTCAGGGCTGTACCCCAGACACCGTGAACCGAATTTGCTCACATCGTCAGCGGCCGCGGCCTCCGCGTGCTTTGTGGGCCCATCGGTGTTCTGCGAGGGATTCCGTGTGTCTGGCAATGTCTGTCAACAGGTGTTG
1 ACCGTCTCCCTTATGTTAACAGTCTCTGCCTCCCTTTCTCTTTCTACTGTCACTTCTCCTTACTATTAATCCTACCTCTACCCGTACAGATTTCCTGGCATGAGAACTTCCTATCTTGCGTTCCTTCAGCCTCTTCTGTTATGACACTGTTCTTCCTCTTGTCACTGCTACCACCCCACTGCCCCCCGTCATGCTTTCCTGAGCTCTGGAACTGGAATGAGAGTGGGTCTCCCCTTTCGGTAATGATCCC
1 tgctcttgtcacccaggccgaagtgcaatggcacaatcttggctcactgcaacctccgcctcccaggttcaagtgattctcctgcctcagtctctgagtagctgggattacaggcacccaccactacgcctggctagtttttgtatttttagtagacacagggtttcaccatgttggccaggctggtctcgaactcctgacctcaggtgatccgcctaccttggcctcccaaagtgctggaattacaggc
1 CCCACAGACAGGACAGGCAGCAGTTAGTGAATAAGCAAATAGCAGCAGCTGAGTGGATGAAAGGTCTTCTTTGCCCTCTGATTAACTTCTGACTTACGACAGATTAAGGAGCAACCCGGCCACATGTTCTGCTGGTTCATCACGAGGGAGGTGGTCTGACCCTTCTGGCATTAGTGGCCTTTGCACTGGCCCGGGGAATGCCCTGCACACAAAGCCCAGCAGAGAACGGGAAGTCCCGGCGTGAGGCATC
1 CTGTGCCGGGGTCTTGGGGACTCCCCTGTCCCAGAACAGTTGAGGTCGTTGAGTCCCCTCGTTGGCTTCCTTTCTTCACTTTCCTGGCATTTGCAAACCTTGTGACTTCAGGATGTCAGGACTTAATTTGGATGGGGGGGTAGGTGTGGCTACGGGGTCGGGGCTGGCGCTCAGGCCTCTTCGCTGCGGGTCCACCCTGCCAACTCGGGAGGTCCCCGTCCTCCTGGCCTCCTTGCTGGAGGGGGCAGGC
0.4224030950823989 CTTGAAGAAGGGGAGCAAGCTACTGGGACGCCACCTTGTGGCCTCTCCAGGGAAGCCCCTGGGCCACACCTTGGGTGCTGGTACCACCATGGTCAGGAGTGGTGGGCGGTGACATGGTGTGGCTCCCAGGAGGTGGCGCTCCTCACTCTGCAGGGAGTGGCCCTGAGACACCTGTAGGGGGCTGATGGCCCCACAGCTCCAGGGAATCTGCCCGCTGGCAGAGGGGGAGTCAGACCCACCGCAAAGCCCC
0.8015809542776842 TCTCTGCGCATCAGAAGAAGCCAGGGCCCGGGGCGTCTAAGCTCCTCCCTCACTCCCCAAAGGAAACCCAGCCGTCCCCGAAGTCACCTCGTGGGCGCGCAGCTTGCGGATCCTGGGCGTTGGCCGCGCAGGGGCCTAGTTTTCCTTGGAGAGACAGAGGGGGAGTGGGGGACGCGAGGGAGGCGGCTGTTGCCGGGGCGACTGGAAGCGCGCTTCCGGTGCGGAACACGTGGCGTGGCGCGGCGCGCCG
0.03196008768426991 GCGTTGGGCCAGATCCCAGAGCTGGGGCCTAATTTGTGATGGGATGCCCTGGGAGGCAAGCGTGCTTCAGCATGTACCCAATCAATAGCCAGACACCCAGGTCCGGAGGTGCCTGAGTCGGTCAGCAGGACGTTGGGCAGGTCTAGGTTCAGAACCTCTGCAGTTTTTCCCTTGGCTTCCCCGGGGCTTGTCCACAACGCCCCCTGCTGCCCATTCTTGGTTAACCTTGTGTCTTGTGGATACCTCATCA
0.7107188806546318 gttcagttgagccccggagttcaagactagcctgggcaatacagcaagaccccatctctaTTTTTTTTTAAGTTgtctatgccataccacaccgaacacatctgatcttgtctgatcttggaagctaagcaggatcaagcctggttagtacttggatgggagaccccctcaaaatagttagcactgtaggctAAAGAGAAGGAAAAAAGGCCCATACAGGTACATATACCAAAAACATAAGAGTAGGGTC
1 gacggggtttcaccatgctgaccaggctggtctcgaactcctgaccttgtgatccacctgcctcggcttcccaaagtgctgggattacaggcatgagccaccgtgcccggACAAAACTTAAAAAATACACACTGGCTGGCCAAACCAGCTGGAACCTGGCAGGTACCCAGAGGAAGCCAAAGACAAAAAAGCCCAGCTCCCACACAGAGACCACAGGGCAGAGCCTAAGTGTATATGCTGGGGGAACAAA
1 AAGCTTTGTAACCCAGCCCACCTTCTCTGTCTAAGGGTTCTCACAGTTAAGGCTTTGTTCCACCCACAGTCAGCATGTGTCACCACTGCCCACCACCCTCAGCAGGGATGGTGACTGTGCCTGGGGTGCCTGtgaggaaaccagcagaaagccagaatggctggctcacccagagtcacacaggcagttaagtggaagagcagggacttgaactcaggacttgggattctcagcctctcattccccggca
1 TGGGAAATGAGGCCTGCTTTAGCCTGAGGCTGGCTCAGGAAGGCAACCTTTCACCTACTTAAGGAAAAGTTCACAGGCAAACTAAACAATATGTTGGGTTAAAAAAAGAGACCAATCCTACTAGTACTGGGTGAGTGAAAATCTTCTCTCTTACAGTACATGTAGTTCTACTACCTGCACTGGATGCTTTCTTTCTTATCCTTGTTTAGTGTCTAAAACGAGAAACAATGGCAAACTCCTTAAAATACAG
1 CCAATTGCCTTGGTGATATCATCACCAACCATTTTTTAGGAGACAGCCCCAGGGTGCCCATCTTGGTGGCCAGGGCAGATGTGGCACAACTTCCCCACCAGTGCACATCAGGTACAAGACTTTGATTTCCTTGGGGTTGAACCTGGGCCATGTGAAGGACGTGGCTGGTGTCACTTGAACCCGGATGCTGAGTGATCAAAGAAAGTTGCACCTTGTTCTCCTCTGAGCAGAAAGCCCaactgtaaacaaa
1 CCTCCCTCCTGTCCATTCACTCCTCCAGCTGTCTGCACGGGCCTGTCTGCAGCCAGCAGCCAGCTCCGTGGGGGAGAGGCTGCGCTTCCATGGGTGCGGGCGCTGGCTCTCCCTTCCCTGGGCTGGACCCAGCCTGTCTGAACGATGGCACAGCTCCAGCTTTCCTTACATCAAGAGAGGAAAATATTTTGGAAAGGGGCTAAATAGAACTTAATTTGCCATGTGGTTGGAATTAACAGAGAGCACTTCC
1 gaaaccccgtctctactaaaaatacaaaaattagctgggcatagtggtgggcacctgtaatcccagctacttgggaggctgaggagaatcccttgaacctgggaggtggaggttgcagtgagccaagatcgtaccactgcactccaacctgggtgacagggcgagactctgtctcaaaaaaaaaaaaaaaaagaaaaagaaaaaaCAAATATGACATAaaaaaatactgtctaatgagatgctcaatcat
1 GGTGGTATCATTATTCAGGCAGCCCCAGGGCTGTCTCTCCAGTTGGGATTCTTGGTTCTGGGGTCCTCCCGCCCCAACCAAGGATGCCCAGCTGGCCAAGTCAGCTGAACGGGAGGGTGAGGCCTGGGCTGCATGCTCTCTCACACCTGAGGCCTGTTAATAATTACCCCTGGGGAGGGCAAGGCCCCAGCAGACATCACTAATGAGCCTGCTAAGTGACAGCTGGGCCCTTTCCCCCTCACCTGCTCAG
0.7050373917842246 TCCCGGCCCTGCCGCCCGTGTCCCGGCTGCCACCTCGTCACTGCCCGCGAGTGCGGAAGCAGCCGCGGAACCCCGGCCCGGCCCCCGAATTCTCCGGCGCCTCTGCTCCTGCCTTCCTGGGGATGGCAGCCAAAGAGGCAGGGTGAAGTGTCAAGGAGGGAGGGGGGACGCGCCAGCCCTCTGGCTAAGGGCAGAGGAGACTCCCGGGCGAAAGGCTCTTGGTGGGAGTCCTCAAACTCCCGGCTCCAGT
1 GCGCAGGATTTTCCCAGGCCTTCTGAGGACCAGGGGCGTCCCCCGTCCCACCCTGTGACTTTGCTCAGGCCGTTCCGGGGCGGGAATTCAGAACTCCTCAGCCCCCCAAGAAAAAAATATCCCCGTGGAAATTCCTTGGGAATGACCGAGGCGGGGGAAATATGCGTCTCTGGATGGCCAGTGACTCGCAGCCCCCTTCCCCGATAGGAAGGGCCTGCGCGTCCGGGGACCCTTCGCTTCCCCTTCTGCT
1 TCCATCTCCAGGAAGCCCCCTCCCTGCAGCCTGGCTGGCTTTTCTTCTTCTTCTGGTGAAGTCATCCGACCCCAAGTGGCCCACAGTTTCCTTTCTCTCCACACCTCCCAAACCCGCTGCCCAGTCCTGGCACTGCCTGGGGTTACTGCTGACCTTTCAGTGCTGTTTGCTCAGAAAGTGCCTTTATGTCAACACAAACAGCCTTCAGGTTTGCCAGGGCCTGGCTCCTTTTCTCCCTGGGGTCCAGGGT
1 ATTTATGTGTACTCAGCTGAGCAAAAGCAAAGCATCCAAATGGCAGCGGCAGCAAGAACTACCTGAGGATTTCTCTCCATTTGCCAGTTCTGTGTTTCCTTCTTGGGCTTTACCCACACAGTTTTCTAGTTGCAGACCTGTTGTGCACCTCATTCGGAGTTCTGTACCCGAAATTGTCTCTGTCACGGTGATGTCTTTATGCACAGGCACTCACTCTGAAGTCACTCACCCTCTCACCAGCTCATGGTGG
1 CCTCCCATTCAAATCCCTCCCTTGCTGTCAAGGGGTCTCCCCTTCCCCCAAGGTGGCTCCCGCGAGCCTCTAATGCCCTGACTTCTTCCAATGTCACCTACGGCCCCCTTAGTCTCAGCTCAGCCAAAAACTTTAATGCAAAGGAAAAGTCTGGATTGGTTCCACAGGCCTTTTAAAAAGCGGACTTAAAAGTTGCTGGCAATGCATTCCTTTTCGTCAGAGTCGAGGGCAAACTCGCTGAAATCTGGGT
1 accttgtgtctacaaaaaatttaaaaattagttgggcatggtggcatgcacctgcagtcccagctacgtgggaggctgaggtggaaggatagcttgagcccagggtcaacacttcagtgagccacaatcaaaccactacacttcagcctgggggacagtgcaagaccctgtttcaaaaaaaaaaaaaaaaaaaaGAGTCCCAAGTCAAGTGTCCTGGCCACATTTGTAGATGATATTGGAGAGCAACAGT
1 CTGTTGGCTGCAGCTGCCCGAGTTCCGCGAGGTGGGCGCGCACCTGAAGGAGAAGTACCACGCAGCACTCAAGGTGGACCTGCTGCAGGGTGCTGGCAACAGCGCGGCCGGCCGCGGCGCCATCGCCGACACCTTTCGCTCCATCTCTACCCGGGAGCTGGTGCACCTGGAGGACTCCCCGGACTACTGCCTGGAGAACAAAACGCTAGGGCTGCTGGGCACCGAAGGCCGAGAGTGCCTAAGGCGCGGG
1 CAGTTCCAGGAAGCCTCGCCAGTGAGTTCTGGGCCTGTGTACAGAATCCTTTCGGGGGAGGCGGGAGGCTGTCGACCTTCCGTAGGGCGCTGGAGACGGGACTAGGACGTCCCTGAGGAAGGCGCGGGCTTGGAATGTTCTCTGAGAGCTTGGGCAGCCAATAAGAGTGGGGTTCGGACTTTCTTTGAGCGTGGGATTGGGAATGTTTCTGAACCTTACCTGGTGGAGCTAGAATATTCGCCTGGATATG
1 AATGGATCACCAATTCAGTAGGATTTGTTTGTCTTTGTTGTTGGTATGAGATGTATTCTTTTATAGGTACTGAGCTTAACATATTTGTGACTGCATGTGTGTAAGGTAGGTGGAGTCAAAATGCCTTACATTTCATTTAAGGTAATTTGAATCTGACATTCTGTTAACAGCAAGTATTGTTTCACCAAAGAGAACCTAACAAACTTTATTGTTGCACTACAGCATGGATAATTTGAACCCATTAAAATTT
1 ggcgggcaaaattgcccttgattgagaaccactgCGTTAAAGGAAAGTCAATGGCATAAAATGAGAGCGTGTAGCTGGCTAGTTATGCCCTTATTTTACCACGAGAGGTCTCCCTAGACCCCATTATAGTTCTAATCTGGACAATACAGGGCTAAGGGCGCCACCAAATAGATTGTTATGACTTGGTGGATGGTGACAGTAGGTTTACACACTAAAGCAGTTgatcaatctcccatgcagaagaattcca
1 tccaagggagtgaatggctctgtctcactggtgttccaggcaccactggggtatgaaaaaaactcctgcagctagctcagtgtctgcccaaatagctgcccagttttgtgcttgaaatccaagggaatcttggtggtgtaggcacccaggggagtctcctagtctgtgggttgtgaagaccatgagaaaagcatagtgtctgggccagaatgcactgttcctcacagcacagtacctcacagcttccctt
