svm_type c_svc
kernel_type wgkm
L 8
k 5
d 2
M 50
H 50
nr_class 2
total_sv 4235
rho -0.0823211
label 1 -1
nr_sv 2071 2164
SV
0.7783914017897799 ATTTTTTTCCATCATAACTGCTCTACTTATAAATCCACTTTTATTTTGGAATAGAAAGGAACAAGAAGATTGAACTGTATCATGCAAAATGGTGCTAGGTAAAAGTTAGTGGAAAGACAAAACCAACGTTTTCAACTAAAATGATCCTCATCATCTTTCTTCCTTTCTTCATCTTCCCTCCAAACCTATTTcctccccctcctccccctccccttcctcaccctcccctctcttcccccttcccctccct
1 aaagatgcctgttcatttcctttcccaactttctaatggggctatttgttgatgatgttttttttttctggatgagttgtttgaatgccttgtagattctggatatccaccctttgtcagatgtatagtttgcaaatattttctcccattctgtaggttgtctctctctctcttccactcccctcctccctcccctcccctctcctctcttcttttcttctcttttctgacggggtcttgctttgttgtc
0.2920102601307014 tgtcctagctactgtggaaagacctcgggatagGGGTGGGGGTGGGGTTGGGGGTGTGTGCGACTGAACCCTGGAAGTGGCCAGGGCAGCTCTCACCGCGCACGTGCACTCACTGCCCCCAGTGGCCTTACTGCGAGAAGCGCTGCAGTTACTGCAACTTCAACAAGTACATCCCTCGCCGCCTGGAGGAGGCTGCCATGCAGAAGTGTCTGGTGACCGAAGCTCAGACGCTGCTGCGGCTCAGCGGGGT
1 ggaggggagggggaggggaggggaggagaggagaggagaggagaggagaggagaggagaggagaggagaggagaggagaggagaggaCTCTAAGAGGTAAGTGAAGGACGATAGACACCTTTGCCCTGAAGGCATTTGCCAACCTTAGAGAAATTGTGCTTCAGTTTAGATGACTGAAGCTTCTTAAAAGGAAACCCACTTTCCTTAAAACTAAGACTCTAAAGTGCTACATCCTCAAGGTAATGGTAAA
0.4081467179330319 GAGGAGGTAGGCTTTCTGAGCTCGGCCATCCGCGGCGTGGGCTGAGGGAGAGACATGACAGCGAATGGAAAGGATCTGTCCGAGTCCCGGCGGGGCTCCAATCCCTTAATAGGCGGTTCCGGGCCGCTCTGGTCACGCCCCTGACCCGCCCCTCAAGACCTGGCCTTAGCCTAATCTCAGGGTTTgccccaccccgaatccgcccctccacagccccagcctcagccccgccccgcctccctcagtccct
1 gggagggggagatggggaccaggagagggggaaggagagagggggagAGAGAAGTTATGAATGAATAAAGTAGATATAAAGATGAAAGGCAGAGAAAGTAATCTTACTAGATTTCAAATTCCTGGTTCCAACCActcctgaaggtcaactgtacttgagttctttgagacactctggcatccttataatagaatccctttgtttacattagcttgagttgataactattacttgcaatcaaagagtcAAC
0.3076439064466642 aaagcggagagagaaacgggaggagacggagagaAGCAAGGAATCCCAAACTAGACTGCTAGATTCTGCTAGATTCGGCTTTTCAGAGTAAAGACTCTGAGCAATAGTGCCATCTTGTGGCTATGAGTAGGAATTACAATTAGTTTtctctctctctctctctctctctctctctctctctctctctctctctctctctcaatctctctccccccctccctccctccctctctctctctctctctctctc
0.4987653101284862 AGCCCCGCGTCCCCTGGGAAAGGCGGGGGCGCAGCGAGTTTCCCCCAATTAGTTTCCTCTTTGTATGGAGTCTTAGCGCGCCCGTACTCCTCCGCGCAGCGGAAAGTAGTCCCGGCCGGGCGCTCCGCGGCTTCCCAGCGCCAGACACATTTTACTTTGAGAAGTCGACGGGACTCTCAGCGGGGTCCTTCAGATGGGGGGCCAGAGGCTgcgggaggcgtgcgcgggcagcaagggcaggggccgcggc
1 TTCTCACCGGAGCAATTGTAAATGCTATGCGGTAAGAGGAGTTACCTGTGGAAAGGTGGTTAAGAGATTAGGTAAAGAAAAGGAAAGGACACCAAAATAAAGTGCTGCGGAAGAATTTTTGTCCAGCTGTGAGACGACGAGTGCGTGAAGTGAAGGCGATTGAGAGGGGCTGAGGGAATTGTCCTCTGTGGAAGGGACTTTCTTTTGGCCCTAGGCCCCTTCCTGCCCCTGTCGTCAGCAGGTCAGTAAG
1 AGCAGCAGGAAGTTGTGCTTGAATTGCTGGGACTCCTGCACCAGCATGTTCTTCTCCTGGCTCCAGAATTTCTGCTCCAGCCTCCGCTGGAGGCTCAGACTCTGCAGCTCAAACTCCCGCCTCAGGAGCGCCCTCTGCTGGTCCTCCTTCAGCTGCCGGGGGACAAGAGCTTGAGCAACCCCAGGGCCCTGTCCTCTCCCCCACCCCTTTCTGGGCCCCTGGACAGGGGCAGGGAGGAAAGTCTGGGTGG
1 cctttcctttccttttctttctttctgccttagtggttaactaattttctctgatagtatgttttaattgacttttatttttagcaaatctattataggtttttgcactgtggttaccatgaggcttataaaaacatcttataacaagttattttaaagagatgtcaactcatcttagatcacaaagaaaaaaatagaaataaacaaagaaaaacaaaaaaaaactctacatttttaactttatccctcc
1 aggaaagagaaaagagaagaaagaaaagaaagggaaggggaggggaggggaggggagggaagaaggaaggaaAAGTGTCAGTGAAAGACCTTAAGACTATTTTATATACTGGGCTAACAATAAATAAATCACCAGAAAATATGTTTCTACCTAAACATTCCATTATCAAGTTCAGTTCACTTATCCTTTGAAATATAATCATTTTACATACTCTAAAAAAGAAAGGAGTAAACAAATTACTCTAGATTTC
1 AATTGTTATCTGCTTCTAAGCTACTTCATCCTGGGCTTTATTCCACTTTGAAAAAAAAGTTTAAAAAGATTGGTTGATCATGAAACTATTCTGTGTGTGACAATGAGAAAAGCCATTAACATGGCACCCAACATCTTTCATTAAATCCAAAGGCCCTCTATATTCTATCTCTCTCTCTATAAGAccttccctttccttcctttcccttcccttcccttaccttaccttaccttaccttaccttcccttcc
1 GGCAGGGAGGCGGGTGGCAGCGAGGAAGGGGAGAGGAACTCGGGTGCAGAAAGCCTTTCCTCCAGCAGGTGGCGCCGCAAGCTCTCGAGAGTCCAGCTCCTGCGGGGTTTGCATTTTCACTGAATTTGTGGGCAGAGGCTGCCTGGGTGTAGTTTCCGCCAACTGTGACTGCTCACTGCGGGCGAGGGGAAGTGGAGTGCAGAGAATGCACCGGAGGGCAGATGACCAGCCCCCGCACAGGCACGGGGGT
1 TTTTGGGGGCATCAGAGCCTCTCCCTTGGCTACCTggggaggctggtatggagggaggtggagggagatgggggaagggggagcgggaggtgagggCAGCTCGGGCCCTTCTTTTTGCTCTGATCTTCCTGGCCTGAGGACAAGAGCTGCTCCCAGACCTGCAGAGGCCCCTTGGGGCAGAGGGATGTTTCAGAGAACAGCCGGGTGACCTGCCTCCCTGCTCTGCGTGACGCAGCCCTAGGCCCCTGTG
1 gagggggaggagAAAATAAGGTAATACGGGTACACATGATATGATAAACTGCAGACACATGAGGGAAGCGAATTAGAAGACTGGGAAAATTTAGAAACTTTTGATGCCTACTGACAAGAGGCACCATAATATGACTAAATGGCAATTTGCTTTCTGCACTTAAAAGTCATTCATTTAAAAATCATTTATTAGGTTAGCACTCATGTGCAAATGACCCTTCCTATCACCTCTAGATAAAATAGTTTCGGCA
1 GAGTTGTACTTCAATATATTAGGGGGAAAAAACTGTACTCACCTTTCAAACTCCTGAGGTAAATCAGGGTCAGTAAGCATGCTGGAAAAGCACAATTTCCCTTTGTCACAGCAGCCACCTATGATCGTCTCCAACTGAACCTGTCAAGTGAGTCCAAACCTTCTAAACCAATTGATTTtctctctgtctcttccccccctccctccctccctctctctctctctctctctccctctctctctctgtctct
0.7110664032488778 AGCTCAGCCAATCCTAGCTCGTTAAACGGGAAGCACTTAACCAATGAGGGGCGAAGGCAGCAACGAGGAATTGGAGGGGCGGAACGACAGCTTGACGGGCACAAAAGCCAGCCAGTGAGAGCCGGAAGCATCCTCCCTGCGGCCAATGGAGTGGGGCTCTGGGCGGGCCCCCGAGTGTTTGTGTTGTGGTTTTGGGGGAGGGATGCGGAGGGGAAAGTTTGTTTATTTTGTTTTTAGTTTTTGGGGTCCC
1 aggggaaggggaaggggaaggggaaggggaaaagaaaGAAAACAGAACTCATACTGTCAAGAAACCTTATAAAAGTAAGAAATGTAATCAAGCTCTCATCCTTAGATGTTTAGTTCCAAGAACCAACTCTCATACAGCCTTTCTCAGTTGAGTTTCTATCACTTACAACTGAAAGAATTCCAGCAATGGGCTATAACACAACTATCAAAAGAATAAGGTGGATTTGTATGTACAGACATATTTTTCTGCA
1 TAGAACATTGATTGAGATCCTTTTGGATTATTGTGTTTTTCCCAGTGTTGCTGCATAATATGAAACCTTCCAAAATTTGAATATAAGGATAATTTTGTGGAAAAGAATTCAACTTTGTATTCAGTGATATATGTCCTGTAACAGAAATGATTGCCTCTGGTTTCAGTACCcttttatttctcttttcttttcttttttcccttcccttcccttcccttcccttcccttcccttcccttcccttcccttcc
0.5768770375653236 CCTCCGGTGATCCTGGAGTTGCACCTGCGTCCTCTGAGAAGCCAGCTTCCTCAACATAGCGGAATGCACACATCTGAAGAAAGCGGTCTCCCCTCCTCTTAGCATCCCAAAGAAACAACAGCTGCCAGGGAGCCACACCAAACCAAAGAAACCCTGACGAGATGAATGACCAAGCGTGTGGAGCCCCAAcctcccctctccgtccccttccctccccattccctcccttcccctgttccctcttctaccc
1 ctcatgctaggtaccgcaaaatcaaacatacctttaagatgagctggtaggaagaaaaaagaagagaagagagaagagaagagaaaagagaagaaaagaaaggaaaggaaggagatttacagcaccaggcagtctacttgagcaggcatgataaggaagtcctctctgtgaactctgtaactttgaaatgaccagtctgctttttgttcctcggttttggtttcttcagcattttctgcttgtaaagcca
1 TGTGGGGCTCAGCTCAGCAATGCTCTGGCATCTTCTATATTGTCCTGTGTGATTTCTCAGAAGAGGTAGACTGTCCCAAAGGCCAGAGCACTGCTGCTGTCTGAGCAGCCAAGATGCCGAAGCTTCATCTCAAACTTTCATTATCCTTTGCCTTGGGCTGTCCTGTTTTCCTCTCCCCTCCCCCCTCCtttttccttccttctttttcttaagactaggtcccattctgttgctcaggctggagtgcagt
1 ttagatttgagaatatgttactgacatgatgacttacctttaagtacttcagtgtatgtgtcttaagaacaaagacattatcttacataaatatagcagaattatcaaactcagaaaatttaacactcatgatattcatatctaaaatatagtctatattcaaatttcccaataatgtcctttgtTGTTGCTTTCTCCTTTTttctctcccctcccccttcccttcccttcccttctgtttcctcccctc
0.927398120655867 gggaagggaaggggaagggaggggaagggaggggaggggaagggaggggaggagaggggaggggGTATACACTTCAGTTCTTTAGTGGGCTTACTATTCTTTTTGTTGAGTTTCAGTCCAGTTCTTTAATTGGCTTACTATTCTTTTTGTTTTCTATGACTTTCCATCCTTACATGAAAACTAGGAGTGGTGAGCAAGACTTTCTCAAGTATTATTTATAGTCTTTCAATGTGTCCATGAACACCAAAGA
1 TGAGTTGACGCACGGAGAGAAGGGgtgtgtgggtgggtgggtgtgtgttagtgtgcgtgcttgcttgtgtgtgGAAGAAACCAACAGGGTTCACGCTGGTGCCCATTTCTGGAAATGCCAATCGCGCCCGACTGCGGGAGCCAGGATCAGGTCCCCAGGGCGCCCTTGCAGACAGCACCCTGAGCGAAGGAGCTCAGAAGGCAGTCCGGCTTCACCCAGACCCCCAATCCCACAGAAGCGCCGTCCCCCA
1 TCTCAGACTCATCACCACAAAGCTATTGCTTATGGCTACTCCCTGTCTTTGCTACCAGGGAGTacacacacacacacacacacacacacacacacacacacacacacactctctctctctctctctctctctctctctctctctctctctctttcCCCCCCAGCACTGGGTTCTGATTGGCTCAGCTGAGTCAGGCCCCACCCCCATGCCAATCATACGACCAATGAGGGTGGGCTAAGGAGCCTGTCCA
1 CAGCAAGTGAGCTGGCAGAACCTGGTGCCCGGTGTTGCTATGACTTGTTTCTTGATTTCTCTCTCTCTCTCTGCTGCAGCACGGCTGTTGCTAGCAGACCTATCGACGGAGCTTGCTTGCTCGCTCGctctctcactctctctctctctctctctctctctctctctctcAGCTCTGTGACGCAGATCTAAATTCTCCAGTCTGCTCCTTGTGTTGCAAGAGCAGAACTGCAGCTTTTCCCCTGGAGAGC
1 CTGTGATCTGGGGCTGGATATGGTGAGCCAGGCTGGGCTGGGGACGCAGGAGAGAGGCTGGGCTTGGGTGCTGGGCCAGCAGGCAAGAGCTTCACCCTGTTGGCGGGCACAATGCCCTGCTGGCCGTGTAGGGAGCAGAGGCACCAGCCGTCCAGTCCACCAGCGCCCTCTCTCTGCAGGACCCGTAGGACATCCCCTCGGCGGAAGGACAGCTCCTGGGGGGACTCAGCGGTGTTGTCATACAGTGCCC
0.2526858529020565 AGCCACATTTGAAGCTGGGCCTTCACTTTGTGTCTGGAGCACCGAATGCCCTCTGCCTGGGCTGTCTGTATTCTTGGCACACAGGGGAGGCTCTGAGCCCtgcccgtcctggttgctgctgttcctagcgctcaggacagtgcatgcgtggtgtgcagcgggcatttggtaagaatgtgttgcacgaaagaaGCCACCAGATGGCACCAGAAGCAGTCCCACCTCCCACCCCCCCCACCTCCCCTCAGCA
0.7820954073726442 GGCCAGATGGGGTCAGAGCCAGCATCCCTCCAGAGGCTGGGACAGGGACTGGAGTGGACTCACTGTGTCTGTGGTGGGGGCCATGATGGAAGTGGGGGTCCCACACAGAACAGACAGGGCTTCCTGCAGGTTTCACCTGCAGTCCAGGGCCTGGGAccacccccacccccccatcccccatcccccacccccccacccccccacccctctatcacccttcacccccccatccccccttccccccGGGAAC
1 tggggcagggagctgagggctggAGCAGGGCTCCTGGTGTCTCTGAGGACAAAACAGTCCATTGTGGCCCTGTGGGTATTGAGGGAATCACAGGGCCTGAATGGAGGCGGGTGAGGAGGCAGGGCAGGTGTGGGAGCAGGTGTCCACGGTCATCCCACGGCATCGCCCCTGGGGGGAAGTGCCCCCCTATGCGTGCCCTGGAACCGGCCTGGCTGGTCGGACACCTGTCCCCTGCAGCTTCTTGTCAGGA
0.7069180597371522 ggaaggaaagggagggtgggagggagggaaaaaaggaaggaaagagaaagaaaggaaagagaaaggaaggaaggacagaaggaaggaagATATCAAATGAAATTACTTTGAGCAATCATTTTTTCCTTTTTGTCAATTCTTCTTGTTTTGTAGAATATTAAATAATAATTGCAAAGTCCTATTAATCTCTCTCATTCCTTACTTTTTCTTCCAATTTTAAGTCTGAAAAGAAGAGCTAGATAAAATGCGT
1 TGGCCCCACAGGCCTGTACCCCTGCCCTCCTGTTGGCCACGCCCCACCAAGGGAGGGTCTGTGTAATCAGTAGAGCAGGGCAGAGGCGCCAGCAGGCCAGTTTAGAGGGACACAGCACACAGCAGCTTCCGTCCTGGTtctctgtctctctgtgtctctctccctctttctctctctctctctgcctctctccctctctctctgcctctctccctctctccctgcctctctccctctctctctccctctc
0.3919453078342945 TTAGAAGATGACATATCTATTGGCTGAAGACGTCTGAAAGGCAGCAAACGGAGGGGGCCGCCCCCGGCGCTCGCGCGGTTCCTTCTGGGAATTGTGGTCTCAGACGTTCCATTCCCAGGGTGGCGCCGCTCGGACTCCGCGTCCCAGCATTCCCCGCACGAGCCCGGGAGCACTTCCGCCCTGTTGTGAAGTGGGTGTCTCGGTGGGTGAGTCCGGGTGGCGGGGCGGGGGCAGCTGAGACGCAGGCTCT
1 GACATTTGCGCCGTCAAGGCCAAATAGGCTGCAGACGACGCTTTCGCGTATCTTGGGAAATGTAGTTCCAGTGTTGGCGAAGACGCCACGCGGTGACAAACAGGAGTAAGGCGGTCCCCAGGCGAGGGCCAATTGGCAGCCGCCTTTGCCGCGATGCTTCCTGGGAGTTGTAGTTCGGGGTGAGGCCGGGGCTTCATGGGGAGTTGTTGGGCTGAACGAGCGGCTCGGAGTATGGGATTGGGGGAGGGGG
0.4619014409468512 TTAGGGTGATGGGGTGGGGAGGAGGCCGAGCAGATTTCCCCGGAGCCTGAGGCACAAAGGGCCCCTCCTGTGGATTCCCCACTTCAGGTGGCCCCCAGGCCCCAAGTGGTGGAGGGCCGTTCCTGAGGAGGGTGGGTCTGCATCTCTTGGGTGAGGTCACTGTCTGTCACCAGACTGCCCGGCAGGCCCCCACCGCAGCCTGGGACAAAGGTTGGGGAGGCTGCAGCCGCCTGCCTGAGTCAGGTCAGGA
1 ccggcaggatgtgagcagaagatgaatgtgaacttcctgagctttgtcccctcccttcctggctggaatgcaaacatgatggccggagcaggggcagccacctcagccctcaggtggaggccgtgggccagggctgcagagccagtgtgcaggagtctgtctctggtgGGGGTGCTGTCCTCTCAGACACACTGCTCCACCTGGTCTCAGCTGCTGTCGTCTGGGGGCTGGCAGGTGAGCCCTTGTCCTC
1 CAGATCGCAGGAACGCGGCCTAGCTGCTTCAGCCACGTTCTCGCGGCGCCACCTGGTGGCCATGGACCGCCATCGCCGCTGGACGTCAGGGCCGCCaggcccagcgagatgtcacctcctctgaggagccttccAGGATCGCACCCGGCACGCGCTCCACGCCTCGTTGTCTGTTCTTCGGAGCACCGACCATGATCACAAATCAGCTCGCTCGCTGTGTTTCCTGCCGGGTCGCTACCGCCATGATCCG
0.1725287457407043 GATGCCATcccaatgtagtcacaagggtgcttataagagggaggtggaaatcagagcaggagaggagaggggaggagaggagaggagaggagaggcggcactggaggctctggaggcgcagcacagggcctccagccagggtatgtggacaaaggcccagaaatgggttctcccttgggcttccacaaggaaggcagtctgctgatgcctggatttcagcccagtgagactgattttggacttctgctct
0.5334178612486088 CCAGAAAAAGTGGAAGGAGTGGAGAGGCTTGGCTGGAAGAAGGGAGAGGGTCCCTGGCCTCAAGTTAAGGGGGGCACGGGAGCGCCGTTGACAGTCATCTTGCGCCCCCTGCTGGTGGAGGATGGTGTCTGCAGGCAGTTCAAGCTACCCCCGTTGGCAGCTGTGGTGGCCCCACTGGCTGTCGAAGGGGGAGTGGGGGAGGTAGGGTGGGTGGCTGGAGGCCCATGGGAACTGGGAGAGCCAtgggatg
0.09927471905518236 acaacaagagtgaaactccatTGACaagggaggggaagggaggggaagggaggggaaggaaggggaaggaggggatgggaggggaaTGGTCCCTCAATTCCTTCAAATACTCTTCCTGAACTTTATAAAGTAAAATTAACCCCTCATAAAGAAGTTAACTACCTGTGGCCAGACAGAACCTTTGAGTCAATCTAACTACCTTTAACTAGGGGTCTGTAAACCATAGCTAAGTTTTGGCCAGCCCACAGGT
0.4699102863395906 AGGCGACAGAGGCGAGGTCTGGCCCGATGCTGCCCTCTTCTGGTCACAATGGCTCAGTTCCATGGGCCGGACTGGGCCTGGGCAGCAGGTGGGGTTGGGAGTGAGATGGGGCACAACCCAAAGGCCCTGGCGCAGGCACCAAGCCCGCCATCCCCTGAGGGCAAAGGGGGCTTCAGGAGAGGAAGCTGGTGGGGTTTCCTAGGAAGGATGGGCAGGGGAGACCTCGGGCCAGGAAATGTCCCAGCAggag
1 aagaagaaggggaggggaagggggaagggaggggagggAAAAAGAAAAGAGGAGGCTCTGaatcctgacaatgactcttgagaatgacactgctcatttccccccgattctgcagctgagggaactgaggctgagagaggttaaaggggctgtccccgcggttgcacacagccacacctgcagagcaggtctcactgtcctcaaagccttacttttCTGGTATCCCTTCACTATCCGTTGGTCTGACCAT
1 GCAAAAAATTCATTAATTTATGCTTGTATATCATGATTTTCCAGCTCTCTAAATTAAGGGAAAAAAGCCAGCCATACAATGAATTGTGGGCATATCCTATAAATGGATTTTCAGAAATATTGTCAAAGTTCTTCAAATTAACTTTTCAAGACCAATTCAACAAATACctttctgggtttctttcttttctttctcttttcttttcctctcctctcctctcccctcccctcccctcccctcccctcccctc
1 taaactaggctcacatctaaagcctaaagacgttgtaaagattaaatgagataatacgcatggaaggcttaacaggctgactggtccagggtcattttcactcaacaaatgtagttcCTGTCCCTGCCTTCCTCCCTCCACCAACTACCTCTTTTTTTTCAGTTAAGTGTGtttttaaaaattgtggtaaaatatacgagacaaaaatctaccagtctgaccatcctcccctcccctcccctcccctccc
1 tttcttctttctttccttctttctttctttctttctttctttctttctttctttcttctttTTCAGTGTTCAAACATTTTATTAAATCGGATAGCATTGTTATTTCCACATTGTTGCACATACTGACTTGTATTCAATTATAAGAGTATAGCACATGTTTACAAAGGTATGGCTGAGCAGTCAGTTGGTAAGTTTAAAATTTCAAGAGCGCTCCAAGAGCAAACACAGTAAAGACCATGCAAGTTCCAGA
1 ttgcatcattgaactccagcctgggcaacaagagcaaaactccctttgaaaaaaaaaaaaaagaaaagaaaaTTATCTCCTGGTGATAAATAGGATATGATGAGTATTATGAGAAATGTATGAAAATGATGTACCATTTAATACAGAATTTTAATCGTTTTTTTGCTTGttctttcttttcttttctccttttcttctttcttcccttcctccctccctccctccctccctcccttccttccttccttcc
1 ggcgggggagaggaggagggcgggggagaggaggaggggtgctccgttaccaccagctgggaatgaaagtccaggcttcccatgtggtctccactgacacccctgggaagggagacctcattgctgcccagcgggataaaagtcctggcttcccacccagctttttctgacactagcctggccagggggaaggagattgaaacctcatgatagcctgaagccgtgaagtccagcctgagcctagccatga
0.9519816856936431 CGTCGCGGACGCCGCCTTCCGGCAGGGACCCGCGCCCCAGGTAAGCGTTAGTCCCGCCTTCAGGAGTGCGGAGCCTCCCATTGGACGAGGTCTGCGTCCGTCTCTCCGCCGGCTAATGGCAAGCGGCGGCAGCACGGGGGGCGGTTCCAGGACCGGGCGCGGGCTACTGACGCCATCTCTAGAGGCCTAGAGTTGCTTGGAGAGGAGCTGGTTGCCAAGGCAACCCGCCCTGCCCAGAACAAGTGCAGAT
1 ttCGccacagcgtgggtgggccttacccaatcagtcgaaggccttTGctacagtgtgggtgggccttacccaatcagtcgaaggccttTGccacagcgtgggtgggccttacccaatcagtcgaaggctttTTGccacagcgtgggtgggccttacgcaatcagttgaaggctttTTGCCACAGCGTGGGTGGGCCTTACCCAGTCAAAGGCCTTTGccacagcgtgggtgggccttacccaatcagtca
0.8343975199558644 GCAGGTGGCAGACTGAGCCTGAGCCCAGCCGCTGCCGCCTCTCCCCACCATCCCCTGCCTCCGAGGGACACCCGCTCACCGTCCTCATCCACCTCCTCGATGATGGCGTCCAGCTCCTCCTTGGTGGGTGTCTGGCCCAGCATCCTCATCACCGTGCCCAACTCCTTGACGCTGATGTCCCCACCACCATCAGCATCAAACATGTCAAAGGCAGCCTTGAACTCTGCGAGGGAGGGCAGAGGGCAGAGGT
1 tcttctccatctccctcctatttttcctccttcccttttttttccaccctttcttccttcctttagcatttcttcaatccttactttctcccAAGCAAACCTGGAATCTTTACATTGTAATATTATTTAAAAGCCAAATAAAATCAAATAATATTTAAGAAAACTATCAAGAAATTTCAAATATTTACAAAAATTTATTCTCTTGAACAGCAAGAGAAGGAAACAGTTTAGTAAGTTAGATAGGCAGAAG
1 TATTCTGGCGATAGGGATTTACGTACTCCTTTTATGACTCACAGTCTGGAAATGAAAGTGCTGGACTCTGAGctctctctctctctctctctctctctctctctctctctctctctccgtctctctctctctTCTAGGATCTCAACGCTGCCAACAGATGTTTTTAAAAGCCTCAGTTTCGAGGACTGTTTTGGCCTCCTGCCCCTGTGTGTACTCCTAGGTTTAATGAAAATTGGTGCCTCCGGAGCTC
1 acataatgaaatttcagaaaaatattaaccaagaaaagatcctaaaagcttgcagagcggaaagaagagctcatatgtaaaggatcaaaaaccagaatggcattggattgatcatcagcagcactgaatgcagtatgacaatggagcaatgtcttcaaatttctgaggaaattttcttttcttttcttttcttttcttttcttttcttttTTCTTTTCTccctcccctcccctcccttcccctcccctcc
0.2817982795779096 GTGGGGGGCCTACGGCCATGCCCCCTTCCTCTCTGTCTCCGCCCCCAGCAAACACCTGGCGCGGGCTCAGGGCTGAGTTCCTCTTGGCGGGGCGGTGGTTGCCAGGCTCTGGGCCGTTGCCATGGAGACGCGGGTGAAGGCCCTTCCATGGTGACGGTCGCCATGGGGACGGCGCGGCTGCTTCCCGGCCGTGCCGACAGTGCCGCAGAGATCGCTCTGGCGCCCCCTGGCGGCCACATGTGGAGCGGTG
1 ggagggaaggggagaggagggaaggaaaAAAGAAAGAAAAAAGGAAAGAAAGGAGGGAGCAAGCAAGATGCATCTAAGATAATACATTCAGGAGAAATAATCTAAGCCAGGATTTCATAGGGGCCAGCGACATAATAATAGATagatattctggggaaagacagttctttggatcaataattgaaagaaacacctcattttcaatatctccctctctttctagaatattcccaatgcacattatcatttt
0.9280311811035384 ACCATGTGGCCCCAATCCAGCCCTCAGGACCCGCCAGGAGTCTCAGCACCTCCCCACACACCGAGTGTCCAAAAGCCTCTGACATCCCCTCTAGGGGGAGCGCTCCCCAAAGTCTCTCTGGCAAGGGTTCTCGGCACCACCAGGGTTGGGGCCCACGCTTCTTTTCCCCTCAATCTACCCTGGGAGGGGAAGGGCGGGGAGGGGCCCTGGCAGGGCAGCAGCGAGGACTGGGCAGTTGGCTTTCCAGGGC
1 CTTTAGGCCCTCAGGGCTGTCCAAGGAGGGCCCTGACAATTTCTTTCCCTGGCCATGGGCTCTAGCCTGAGACCAGGGTGCGATGTGCAGGACAGGGCGGCCAGGCGCTGGAGCCCTACAGAGCTGGCCTGGAAAAGCGGGCGGCGGGGCCGACTGCAGCATAGCACCACCTCGTGGCCGCTGGTCCACATTGCAGCTGTGATGTGAGGCCAACCAGGAGCGAATTTGGGGGAGGCTGTGTCTCCTATAG
1 CTTGGAGTATTTTTCTTAGTGTAGGAGGCTTATTCTTTGTGGGAGAGTGGTCCGTCAAAAGGGAAGGTAATCCTGGACCAGAGTAAGAGTGTCACAGTCACATAAGTGGGCAGTTAGTGCCACTATTAGGTACAGAGTGGGACTCTGACTTCAGTGCCTGGCCTGGCCTGGGAGTGCTGTTTATTACATCCAGGACAGTAAGGCACACACTTCTCAGAAAATAATATccctccctccctcccttcccccc
0.2318757506952001 CCCCGGGCGATTGTTGACACTCACCTGCCATGTCCCGGACCCCACCGCAGAGGGAGGTGCATCACGGCCGCGAGAAGGCCGGGGACGGCACTCCAGAGCAGACAAAGGGCGCCGCCATGTTAGAGTCGGGCGGAACCGACCTCGCAGGCTTCCCGGCTGCAACTTCCGGCGCATGCGCAGCGTCCTCGCTAGGAGAGCGCCCATAGACAGACGCATGCGCCTAGCTATCCAAAAGTTCCACCTTACAGTA
0.1209999560697751 AATACTGGCTCCAGAGTCTGCCTTAGAAGCATCAGCTGATTCCTTGGAAGAGGAAATTTAGAAAGAAGCTACTCTAAGACggggggggggggggggggCACAATGAATAAGGCTGGAAAGGAGCACAACAGAGTCCCAAACCCTAGGTAACTACAAAGTCTTCTTTAAAGAAACAGTTTGAATATAAAATGTCATGATAGTTGCTGGAAGCTACAAGTGGTACTATGAAATTGCTGTATTATTCCAATTT
1 TTGCCCTGGGTTCATGAATATAAAGTGCTTCAGTAAGTCCTTTACATCTGCTCCAGGCCCAAAACAGAAGGTAGAATAAAACTGGTAAAAAATAAAAATAACAAGGCAGACACACTTTAAGAAGCAGCATTTTAATTTTTCCAGTTGAATATATTTCTTCcccttcctccctacattccatctctccctccctaccttccctcccaccctccatccctaccccttccttccctcccttcctctctccctc
1 atttttctctttcaggactttaactgtgtttctcaacttttttttctggcctgtagggactctgtggataaaaccactgccaatctcattgtaacaaacttacagacaacacgttagatttcttttgctgcttccaagattccgtatttgtctatgactcctctcctctcctctcctctcctcttctctTTTCTgacagaatctcattctgttgcccaagctggagtgcagtggtgcaatcttggctcac
1 CCACTCCCTCTCCTCCTGTTAGAAACCTGAGAAAGAGCggggtaggggtgggggggtggggagggggcatggggaactgaggtggggCTGCTGCCCTCAGGGACCAGAAGTCTCCATTGGGAAGAGAGGTTTAAAGTCCCCAAGGCTGGTCGGGGGCAAGTGAGCTGTCCCCTGCTGCCGAGGGCACCACAGCCCTGAACAGGTCTCATGAGCAGATGTGCGGTTGGAGGAGGGAGGAGGCTGGTGGAAG
1 ggggagagggagagggagagggagagggagagggagagggagagggagaggagagcgagagCTAttttttttttttttagagacggagtctcgctctgttgcccaggctggagtccagtggtgtgatcttggctcagtgcaagctccgcctcccaggttcatgccattctcgtgcctcagcctctcgaatagctgggactacaggtgcctgccaccatgcccagattttttttgtagttttagtagagat
0.9418862264795862 CGCCCCGCCGCCCCTTTTATGCAAAAGATCCGAGCGGGCCTCCGCCCCCGCCCGGCCCGGCTTTCAACGCAGGTCCTGTTTCCAGCAGTCACTCGGCGCACCAAATGTCCTCCGGGCGCTTCCAACAAAAACTGCGCTGTGGATTTAACTGTGCACTTCAAAGGCGCGAGCCGAGCGCACGGTCCTGAAAGGGAGGTACGCGCCGGCCGCGCCCCGGGCCGCCCCCCGCAGCCCCGCCACCGCTCCGCAG
0.5659161766901054 GGGTTCTTTGCCCACCCCAACAGTCACACTGGGGCCCCGCTCAGGGCTCCTAATTCCACACACCCTTCCTCCCAGAGCCCTGTCAGGGGATGCCCCTGACGCCCCCTGTGGGCCGCACCCAAGCAGAGTAGCTCCTCGTCCAGCCAGGAGAGGGCGTTGCTTGTGCTGCTGGGCCCCAGGGTGGCCTCGGCCTGGCTAGAGGAGCGGCTCCGTGGAGGTCCTGAGGCCTGGGGTGGTGGAGGGAGGATTG
0.1410186848420881 GGATTAAGCATTTACTTTTGCTTCTTGATTCCAATAAATATTAGTAGAAAGTGATTAAGGAATAGTAAGAGTACTAAATGGAATAAAAGATAGGAGCCTGAAGTGTAAAAATTTTCTCTGTCCTTAGTAATTTATAGGTATTAATGAGATAATATTAACAATGACAAAACAAAtccttccttctttccttccttcctcacttcccttcccttcccttcccttccctccccttctcttcctttcccttccc
1 acccctctatcacccttcacccccccatccccccttccccccGGGAACAGCGGCTGGGCGGAGTGGGAGTGCCCTCTGGTGGCTCTTTGAGGAAATAGCAAGGGCTATCCTTCGTAAAATGCTTTCAGACAGAACCGCTGGTATGGCACTCGGCCTCCCGCTGAAGACATGGATACAGGCTGGACACACACGCTTCGCTGTGTGATACACGCATGTAACGGGGCCTGTGGGGAGTAACCAGCGCTGGTGG
1 aggagaggggaggagaggagaggagGGTAGAGGGGATGGGAGGAAAGGAGGAAGGAAGGGGGAAAAAAGAGAAGGAGGGAACAGTGTCCAAAGACAGGAGAATAAATCATGATATGCTCACAGAGTTGAATATACAATAAAGAAATGAATAAACTTCAGCTCAACCAACAGTGAGAATGTAttttttttttttttttttttttggagacaaagtcttactctgtcacccaggctggagtgcagtagtggt
0.8061669061497663 GAGTCACACGTGCATCCTCTCGCCCTTCCCCCGCTGCACCGCCCGCTGTCCAGCCCTCTCCTGTTTTCTCCCACTGCAGAGCTGGCTAAAGAACACTGCAGACTTGGGCCAATTTGCCCCTGCCCAGATTCCTGATTCCCGGCCTCGCGGCCCCACCGCTGTCTTCCTCTCCCCTCCCGGACTTCCTGTCGCCCCCAGCCCCAGCCCTCTGTGGCCGCGGCCTGCTCTGCCTGAGCTGCGCCTCCGGAGG
1 agggattttatcacaactcgcttagtttagagatgaggaaactgatgaaaaagggacttgcccaaggtcacgtaactggtttgtggcatagtcagaaccggaaccaagtacagggttcctgcaaaacctgatgcacgctcctctggattcaggcacATGGAACTTAACCTTCAAATTGCAGTATGGTCTTTTCTCGCTTTTtcctttctctcttccctcccccctttccctcccctcctctcctttctcc
0.615300165050585 GCCCCGGGCCGGAATCGGGAGGGGGGAATCAGAGCAGCAGGAGAGAAACTGTAGGAGACAAACAAGCCCAACTCTTCATCCTCCTCCTCCTCTcagcagcagcagcgagcaccaccagcCCATTCACCACCCGGCCCCGGGCCGCAGCACCTCCGCCGCCTCAGCCCGGGGATCCCTCcgcccaggcccagacacactcgcccgcgcgggagcccgccgcgcggccccgccggcccgccgccgccgccgc
1 TGGGGTAGTTACGGCCTGGGAGACCGCAGGCGGCGGCGCTGAAAGTGACACTCGGCGGCGGCGGCAGCAACAAAAAGGGTGGGGGGGGGGCCAGGAAATCAGCTGTGAGGTCACGTGCGGCGCGCAGCCAGTGGACGCGCGGCCTTTTTGTTTTGATACATTCCAGTCACCTCTTAAAGGGGCCGCGCCGGCCGCGTTCCTCTCGCAGCCCCAAACAAAACAACACGGGCCGCCGCCGCGCCGCGCCGGC
1 aatgggggaaggggAAGGAGACAGACATTTCCAGGGAGATGGGCTAAGCCCAGGGCAGGTCTTGGGTGGTTCTGGCATTCCTGGTGGCCAGCGTGCCACCTGCTAGGCTGTGAACTGTGGGTGATGCCTCTTGGGACCCAATCTGGGCCTGGCTCTGAGTCAGTGCCTGATTCTTGTCTGCTGAGCAGAGCCAACAACACAGTCTACCTGGAACAGCCCCACCTCAAACCCTGCGGTCAGGGGCCAGAAG
1 TTCTGGAAGACATAGGAATACACTCAACAGAGTCCAGTTCTTAGGAATACTGTTAACAGAGTCCAGTTCTGAAGAATGCACTTGACACAGTCCAGTTTGGTCTTGATAACAGAGAGGCCCCCTGGCTTTGGAGATTTTTCCTAACCCTGGATTTATCCTAGAGCAGTGGTTGCTAATTTCTCTGTGTTTCTCGCccctccctttctccctcccctcccccatccattcctccctacccccctccttccct
1 GGACCCAAGACGCGCCTCTGCGCCGCCTCCGCTGCTCCAACATGGCCGCCCGCTGCGCGCCGGAAGTGCACTGCGCTTCCGCTTCCGGGACCCAGCCCGCCCTACCGACCCTTGACCCCTGAGACCCCATTTCCCCACAAAGTCTGGGGGCGGAGCAGATTGGGTACCAAGGAGGACTGCCTGGAGGTGGTGGCCGCGGTGACTGCTCCAAACCCGTTCGGCCCTGTGCAGAAGTCTGAAGAACAGAGGT
1 CGGACTGCGAGCGCCTGTCGGCTCAGATCGAGGAATATATCCTTTGGGTAGGGGCTGTGGGCCTGGGTTTCTGGTGGAGTCAGGAGGCTGCCTGGCCTGGTGCCCTCTGGTGGCTGCTGGATGCCACTGCCCAGCTGTCCAGGGGTCACCTGCCTGGGTGGTCACCTGCCTGGGTGGTCAGGCTGTCTCACCTCAGGAGGGCCCCCGGACCAGCTGAAGGGCTGATTCTGTCTGCTTGTGGGGCCTAGGT
0.3454204836083234 AGTCCTCCAGCGTTTTCGCTCCGCCCTGTGGAGTTGGTTGACCCGGTTCCTCCTCCAGGCCACTCGGACTCTCTCACATCTTGCTCAGAAAGGAAAGACTGCTCTGGCTGCTGCATTCTCACGAATCCCCTCCCGCTACCCCTGGCTTTTGATCGCAGTGGAGCCGCCCGTCGTCCGGAAAGAGCTGTTGGGTCTGAGCCGGCAGGCGAAGGCGAAAGGGTCTGGGACTACAAGGTTTAGCTCCCAGCCA
1 GCCTTGAAGCCAGCAGGGCCTTGCCCTAGGATACCTCCACCCACCCTCCTGCCCAGCAAGTGGAGGTGAGGGGCGTGGCCTGGGGCTCTCCGGGAGGTCATGGTCATTGGGTCACTCGGAGCTTGTGTTTATATGAGGCCTGGCAGAGGGAGGCCCCTGGCTACCCACCTTTGTGCCCGGGTTCACCACCACTGGTTTCTGCGTTCCCTGGACTCTGCCCTGCACGGGCCGCACCTCCCCCGccggccct
1 GCATGAAGCAGCCTGACTCAGAGTTGCCATGGACATTTGAGGTGATTTCACTCTGATTCAACCCATTTTCTAATAAGTAAAAATGAACTGAATCATATCAGTAGCTTTTTTGGCAGTGACTTTTATGCTAATTCAGTTTTTGGAGAATGTGTCAATTAGCATTACCAGTAGGGGTTAATATCTCTTTTTACTTCTTTGGAAGATTGCTGccttccttctctccctcccctcccctcccctcccccttccc
0.9684162615120783 GGGCGGCGGCCGGGCACAGCTCCCTACAGTTTGCAGAGGGCGTTCACACCTAACGCCAGGGCCCCCCTAGAGGAAGAAAACCAGGGCCCGCCCGCGGAACAGTGAGCGTGCAGCACGGCTGTGGCCCCGTTTCATGGCCGGGAACACCGAGTCGCCGGGGTCAAAGTAGGTCCGCAGGTCCTGGGGGCCGAGCCTAGGTGGGCTGGAAGTGACAGCCCCGGGGGCTCCAGGCTCAGAACGCCCGGCGGGG
1 gcgaggggagaggaggaggataggggataggagggCTCAGGGTCTCGGGAACTCCCAGCAGCACCCTCAGGCCTCTCCCCCGTCTGCCCGCAGGACGCTGACTTGGCTCGTTTGCTGAGCTCCGGCTCCTTCGGAAACCTGGAGAACCTCAGTTTGGCCTTCACCAATGTAACCAGTGCCTGCGCCGAGCACCTCATCAAACTGCCTTCGCTCAAGCAGCTGAACCTGTGGTCCACTCAGGTACGTCCTC
0.8750229465129999 taggtaggtaggaaggaaggaaggaaggaaggaagggagggagggagggagggagggagggagggagggagggaATTCTTTTTTTCTTTTTTACTCTCCTTATTTTATCATTCTCCTTTTCCCATCTCTGTTATTCTCTGAAGATGTATTAAGGCAGTAAGAAAAAATAACAAAAGATATGATGTCTTATAAAAAGAATGTCTAATCACTTtaaatacataataaaagcaaataaatgcatcaaataatt
0.2568944196169836 TACCTCTTACCGCCCCAGTACCACCCTCAGCCTCTCCCTTCACTAATACCGAAGAAAAAACTGTCCATAGTGACCGGGGCCGGGACCCGTAGGCCCCCGACACCCCCGGCCCGCGTTCGGCTCTCCTGACTCAAAAACGCTAAGGCAGCTGCAGTACCGGCGGCCATGCTGTAAGAGCCTTCTTCAAACTCCGCCCCCGACACGCACAAAGCCGGGGACCCTCGGCCAGTTCCGGCCCCGCCCATTAAAG
1 agaagcaaataagacaaatgttgacagttgttaattctggatgtggtaatatcagtattcattatattatttttgtcctcttcatatttcatatctaaaaTTTTATTGAAGAGAAATATTCATGAGACTCTGAACTCCAGTCATAATAAAAACTGGTTGTTATGCAACATTACTTGTTCAAGGttccctccccttcccttcctttcttcccttcccttcctcctctcccctccttcttttttctttcttc
1 TGCTCCTGTCTGGGGGCGATCCTCCGGCGCAGGAATGGTTCATGGTGCAGACAAAATCGAAGCCTCGGGTGCAGCGGCAGCGGCTGCAAGTGCAGCGCATCTTTAGGGTCAAGCTGAACGCCTTCCAGAGCCGCCCGGACACCCCCTACTTCTGGCTACAGCTCGAGGGGCCCCGAGAGAACATGGGCAAAGCCAAGGTAAACAGCTTCTCCCCACCCCCACCCATCTCTTCCAGCCAGATCACTCTCTC
1 aggagaagcgggggaggaggggggaggaggggggaggagggggaggagggggagaagaaggagaagaagaagGACATTTTTGATCTAGGGAAAGGTAGAATCAAAGGTAAGTCAGGTCAGTTGTTACAGAGACCATTTCCTTTAAAATCTTTATACCAATTATTTCTCGAAATCTACTCTCCATCTTGAGCTGCCTACAACACACCTCCTTCTTTGCTGTCAACTAATATTTCAATCCCAATTTCCCTGT
1 tgggcgcgaggctgggtCCCGGCCCAGGAGAAGGAAGTCGCTGAAGGCAGTGGCCATGCTGGCCGTGGAAATGGGAGGCGGTTGCAGAGGGTCTATGGGGCCCGGTCCTGGATACTCGGCAGGAAGCCGTGTCTGCAGAGGCTCCTCCCTGCCTCAGGTGGCCCCGTTCAACCCCAGCCGTGCCCATCTCCTGCCACCGCCTGTCGGTGGGGGTTTAAATTCGGTGTGGCTTTCTGGGGTGCAGCTCAGC
0.796154942722866 AGAAGCAACGCCCCAGGTTTCACCCCGGCTTGACAGACGCAATTGAGGCCATCCTTGAGTCCCTCCGCCCCCAAGTCCAGTAATGCCAGCGATGGACAGACCTTCTACCCAATAGCACGCCCCTTTTCTGCCGTTGGGTCCCGCCCCCTTGAGGGCTAAGCCAATGAGCGCTCCGGGTCTCAGCGGGGTGGAGGGGTTGCACTGCGGTAATATGGCTCTTCCTTAGCcagcggcggcaacggcggcagcg
1 TGGGGAGGGGGCTGGGCTGGGAGTTGGCTGGAGGAGCCTGGCATCAGTGGGAGGAGTCTGGGGATTGGTGGGAGGTTCTGGGAGCCAGTGGGCAGGAACTGGAGCAGCATCAAGGGGTTGGTGGGCAGGCAAGTGGTCAGCAGGAAGGCCCCCATCAGTAAGGGCTGATGAGTCAGAGGGTGAGGGCCGTGGGCTGGGCCCGGGGACCCTGACCACAAGCTCCATGGGCTCCCGGGCCTTGTTTCGATAA
1 GGCAGACCTGGGCAGATGTGGACTCAGGCCCTCTAGGTTCCATCTGCCCCCGGCCCTCCCCAGAGCCCTCCTGGGAGTGTGAGTGCAGGCGTCCAGCGGAGACGCTGACACCCTCTGGAGTCccagctctgccatgctgggcactgccacttctctgaaaccggcttcctcatctgagaagtgggctggtaagagtCCGCACGATGGAGAGGGTTGCACTGGACAGAGCTCTCCGTGTCAGCCCGGCTGC
1 ctcctgaaactccttggggatctgctgaatggtgtgaccccagtgtgagaaccagcttatggttctaatgatcagtgcagggcatctccctatttctccctcccctcgccagggccaagatagaaacctgatgattccttgctgttcctctccatggtgggtttatttctcattttcccctgtactgacagtagagtctttATTTtccctcccctcccctctctctcctctcctcctcctccttctctct
1 CTGGGGTAAGATTTGAAGGGTGGGAGTTGGGAGGAGGAAAGGAAGGACTCAGGATGGCTCCAGGCTTTGGGGCTGCTGTGCAGGGCCTGCAACCTGGCACCCACAGTGCCTTATCCAGGCCTAAGAGAGGGCGCTGTGGGCTCTGTGCTGACATCTGCTTGGCCACGCTGTCCCCAAGAAGGCCACATTTCATGACTCCCCTTCCTGTCCAGCCTGGGCCTGTGGCCCACTCTGGGATCCATCTGGCACT
1 CTTTATGGTCTTCACCTTTAAGATCCAGCCTTCTCTGATAACCCTAGAATGTGATGTTCAGACAATATTTATTAGAGGAATAAACGAATGAATAAAACAAACTAAGATTAACTTTAAATGTAAAACACTCAGAGATTTTTCTATTTTACATGTTTGGCTTTTATAATTCATTTTTGCTCCTCTAATTAGAATCTAAGATATTTTATTTCCCCTTTCTCATCTTTTTCTTTCTCccttccttccttctttc
0.7047746885120634 AGGTACCCTGCCAGCCCCGCCCCCCTCCCCTGCTCAGGGCCGTGCAAGTCCCAACCAGCAGGGAGCCGCCCCATCGACCCTTGGCCCTGCCAGCTGGCCGAGTGCATCGGGTGCTCAGCCACAGGGGTGTCTGCAAACAGTGAACATGGAGATGGCCCCACAGGGGCGTCGTGGAGATGCTGCCCCTGTAGCCACCGCACGTGGGCCTCTCACCCCCCGGGGAGCTGCATCTGAGTCAGAGCTGTGGGCA
1 ggtgggggagggaaggggagagcatgggggagggaaggggagaggatgggggaggggaggggaAAAAATACCTTCAGGCTTTAGAGAAAAACAATGTTCCTAGCGGTGTTTTACTAAGACTGGGTCCCTTGAAAACTCATAAAACATGAAATTAACAAGTATTTTCATTTATATGTGACACTGAACAAATCTTTTACACTGCTGTTGGTCTCAAACAATAATAATATAAGGTTATCAAACATGTGGAAAC
0.722665941297595 gcagggaacaaaggagcggagaggggaggggagagagttgggcgagggagagCCCCCGGCCGGCTGCCAGAAGATCCCGGCGGGAGGAAGCCCAAGTGTCACTTGAATTCCACCCAAGGAGCGGGCGCCTGGGATCAGAGCGTCCTGTTTAGCAATAACGGCTGGAGCACGTCCTACAAGTTACGGGAGAGTCGGCTGTGAAGGAGACGTTCGCTTATCCCCTGTGTCCCCGCTCCTGGCCCCTCCAGAC
0.898677334137698 ACAGGGCCTTTGCACCCGCTGACGGACACAGGGCCTTTGCACCCGCTGACGGACACAGGGCCTTTGCACCCGCTGACGGACACAGGGCCTTTGCACCCGCTGACGGACACAGGGCCTTTGCACCCGCTGACGGACACAGGGCCTTTGCACCCGCTGACGGACACAGGGCCTTTGCACCCGCTGACGGACACAGGGCCTTTGCACCCGCTGACGGACAcagggcctttgcacccgctgctcctctgccagg
1 agtggGTAAGGGGAAGAGGGTTGTACCCGCCAGGGCGGGACCCAGCCTGTGCCGTCCCACACCTTGTGCTAGCTCCAGCTCAGCTACCTGCGGCCGCCTCTCCTCGGGCAATGAGGCGCCGGGAAGCCCACAGCATCTGATAATATCCGGGCCGCCGGTTGCCGGGAGGTGAACCGAGGTAAACTCGCCGCGCGCGGGGCGCAGTGTACATAGTAACCAGCCCTGAGTAAACGTTCGTCATATTCCTATG
1 GCCGGCGCCGGTTGGGTTATTGTACCCCGCCCTTCCAGGAGACGGGGCCAATAAAGGAACGGAATTCTCTTCACGTGACCTTCCTTCTGCCGCCCGAAGCCCGAAGCCTCAGGGCGGCCATGTTGGTTAGGGGCAAAGTCCTCGTCCCCAGTTCCGCTTTTCTGACAGCTGGTGCCAGCTGAAGGACGCCGGGCAGAGTCCTCGGCTCTTGGGCCCTTGGGGTGATAACTGGGGAGGCAACGTTTTTGTG
0.1358893312805727 GGAGGCCTCCTGTGACTACCAGAGTGGGTCGGGGTGGGGGAGGGAGGCTGCCTGAAGCCAGAGCCAGCCGGCTGCTGGCCGGCACTTTGTCCTCATCCTCCCTTTCATCCCCAGCCCTCGGAGCCTGGGAGTTTCTCAATGGAGCAGGCGTGTGGGGAATGCTCTGCAGGGGGCTGAGGGAGTTGGCGTACGGTGGGGGTGGACATTCCAGGCATTCTTTGCTTTCTCTGGGAGTCAGGCAGTGAGGACG
1 AGGGCAACCTGGAGCTGTTCCTGGGCCTGTGGGCTTCTTATCAGTTGTAACAGTGTAACAGTGTGGGGCGGGGGGGGGGATTCTTTCTTTTTTAACCATTCTTTACTTCAAAATGAAGTCTGACATAAGAAAATTTGAAAAACGTTTTACATTAACTCTGCATCCCTTTAAAGGTTTATTTTTCTTTCTGTGAAAATAAAAGTTCCTTGAGAAGTCTTTGAGAATGGATTGTTTTAATGAAGTAAAATTT
0.8735844556079486 CCTTGGGCTTCCCGCTTAGCCTCTGATGCCCAGCCCCTCAGCCTGCCCACGGCGATGCCACAAGGCCACACAGGTACCTGTGTTTACACCTTTATTGTCCGCTCCTCCCACCACCCCCAAGGATTCCTGGGTTCAAAATAGCCCGGGCACTGAGGCCCAATTAGCCAGAGCCGCTGCAATCTCGGTGGGTGGGGCCCTTGAGGTTCCAGCCGGCTGGGCCACATTCCAGCCCCACTGGGCGGGAAGTAGA
1 CCCCACCCCACCCCCAGGACAGATTCAGCCTGCAGGGGAGCCAGCTCCTCCTGCTATGTCACTCCAGCCAGGCAGGCCAGGCAGGATGACTCAGCAGAAAAGAGCCTGCTGCGGGGTCCGCCCACCCTCGGGTCAGCTGCGGCCAGAAAAGGAAGGCCTCTGTGAGACAAACAGAAAAGGACACTGCTCAGGTCCCCTGGGTGCAAAGCATCCTTTGTCTGTGGGGACTTCAGACAGGAACCGCCCATGT
1 CTCAGAAGAGAGAAACACCGTCCCAGAAAGTGACAAGAACACAGATGCTgtggtgaagatcatggactttacctgagttgggtgagtctccacatcaccacttactagctggtagctagtgagcccaaagtggctttggctttgggcaacatacttaaccccttgaaactacagtttttcccttcccttcccctcccctcctcttgtcttcccttTCTTgagtctcactctgttgcccaggctggagtgc
1 gggaggggaggggaagggatgggagggaagggaagggaagagaagagaagagaagatcagatcagtttcactgggctgaaattacggtgttggcaggactgcacttcctgggtagggtctaatggagattggttttcttaaccttctctagcttctagagctgcatttcctgcattccttggctcagggttccttggctccatcttcaaggccagcagcaaagcatcttcaaatctccctcctctatagt
0.4588557846927309 GTAAGAGGCTgggaggggtgggggcgggggcggggtgggggcgggATGAGTCAGGCCCGGAGGGCTCGGCTGTGTCCGCAATGAATGGAGTGCCAGCTAGGCGCGAGGCAGACAGTAGTAACAGCGGGGGCGTGTGTGTacacacacgcacaggcacgcacagggaccgacgcatgcatacacagacacacaAGCAGAGAGGCAGGCCAGTATCACAGACACAGGGAGGGAACTGGCAGCCTAGGACAGA
1 ACCCCATGCCCTTTGGGTGGCACCTGTGCTGGTGGAGTGGGGGTGGCTGGCTTTGCACACAGGCCTGCTCCTGTACCGTGCTGCGACAGCCATGAAGGAAGAACCTGGCTGAGTCTCCACCTGCCGTGGACTGTACCAGGTGCTTAGGGCAGCAGGTTGGCCTGGGCGCTGAGGGGCCATCCCTTCCCCTATGTTTCTCCCAGGATCCCCCATCCCCGCCCAAAGTGCCACCTTGCAGGGTTGGGGCGGG
0.4152032293969755 GTGACAATGACGGGGAGACTGAGGCGGTGCCGGGTTCTGGGCGGCGGGGGGGGCAGGGGTAGTGAGGGGCGAATGAGACCATAGGGCTGAGATCTGCGGCCGCCTCGGTGCCTCCCCAGCCACCTCCGCCCCTGCCTGCTTCTGATTCAACAGCGCCGACCCTACAAAAACAGGGCCCGCCCATCTCCGAGGATGGCAAAGTCAACAGTGCGGGCACGCGGGCGGCCAGTCCCCGGCGGCCCGCGTGCGT
1 AATCCAAGAGGCCTCCCAGATGCACCTCAAAATGTGCCCATTTCGCGGACGGAAACACCTTCCAAATAGTAGGCTCCGTTCCAAGCGCGGGGGTTATTCCTGCCGGGTCTTGCTGGCAGCCTTGTCGGGCCGGGCTCTGGCCGCGGCCGCCGGCCCCCTCTCGGCTGCGTGGATAACCCGGCCTGGAGTTTCCGCCTCAGGACCTGGCTCCTGTGATGGGAGGTGGGGAGAGAAACCTCCGCCGCGTCCA
1 GCAGAGGCTCCGGCTGGGCGGGCGTTCGAGTggggcgggggcggggcggggcggggcggggccgggcCCGACAGCACTGCGTCCTGTAGGCTGTACTGCCTGAAGATCCATGGCCTGTCCTCACTGTGGCGTCTGTTCCGGGGGAAGAAGTGGAACGTTCTGCGCCAGCGCGTGGACTCCTGTTCCTATGACCTGGACCAGGTATGGGGCAGGGTTCGTGGCTGGAGGGGCTGACTGCCTCCGGCCTGTG
0.09889848327671152 TTGGTTAGAGTCCCGCCCACTTGTTAAGCGTCGCGAGCCACTATTCTCGGCTCTGATTGGCCAGAGAACTCGCGCCGCTTTTGAATCCCCACCCTGCGGACCCCGCGCGCCTCGCCTTCTCCCTCTGGTTGGCGAGCGCCTTTCTGCGCCTTCAGGCATTTTTGCTGAGGCTTTTGTCTGCGCATGTGCGGGTAGGTTCCGGTAGCATCCGGGAGACCCGGCCCAGGCCTGGAGATGCTGAGCGGAGCTT
0.3159268607650308 GGTGATGGACGGAGGCCTTACCCAATGGAAAGAGGAGCTGTCCCAAGGCCAGGCAATCATATACGACTACTGGAGCTGGCAGAGCCCGCCCTCTTTCCACTTGGACCTGAATAACCCGACCCAAACCGAGTTTCGCCCGGAGAGACTGCGCTTTCGGCCAATGAGTGCGTCGATTTCGAGCCCCAGTGTGAGCGAAGGCGGGACAAGTCTCCATGGCAGCGACTAAAGGACAGCGATGTGAACCACTGAC
0.5128194527128573 ATGATTCATtttaaatagaatttacaatgaaattaaatttaaaatataaaaataaaCCCTTCTGCAAGACAAATACACAATGTAAAAGTCAGTTCCCTAGTAGAATTTGGCTTTGTTTACCTACCAAAGAATTCTGGTTTTCAAGGTGACAGAAGAGTTCATGACTAAGTAGACAGGATAGGATTctcttttctcttctcttcccttcccttccctcccctccctttcctcccctcccctcccctcccct
1 GGCAGGAAGTGTGAGGTGTTGAGCAGCTAGGGAACCCTGGGGAGGCGGCGGGGAGCAGGAGGGGTGTGTGTTGTGGTGAGGAGGAGCGGAAGTCGGAAGCTCCAGCCGTCACAGCCACATTCACTGGGCAAGCCGACTGTGAGCCAGGAAGTGCTCTTGGGGAGCCCAGGCCAAGCCATCCATTCTTGGGTCCTTTGGAGGTGAGCTAAGTGGGTCTGCCTAGGTTGGGGCTGGTGGAACCTGTGGGAGC
1 AGAATTTGGGATGACAAACGTTAGGTCTGATGCCAAGAATAGGACAGGAAACTAATACAGTGAGGAGACATGGAGCTATCTGTTCTAAGTTAATATAGCATGATTTAAAATGCTAGTTCATGTATTAACTAGAAAATATTAGTTCCCCAAATTGTACTTGAAACATGAGAGTAGCTTCATTTTATTTTGTctctcctctcctctcctctcctctcccctcccctcccctttcccctcctctcccctctcc
1 gtgagccaagatcacaccactacactccagcctaggcaaatgagtgagaccctgtctcaaaaaaaaagaaagaaggaaagaaaagaaaaatacataaatgtttaacttagtacctggcacagaataagctctttatatgtattagctgttTTTATGTCCTATATTCTTTTTTTATTAATTTAATCTTGATTCTCTTTTtccctccctccctcccccccgttcccgccctccctccctgcttccctcggtc
1 ctgtcagctgagggtcacttgcagctcctagaagtcatccaaattctttgctgtgtggcccctccatattgaaaaccagcaacaaggcttcttttgtgtggagtccatctcacactccaaatctcttcccagagagaacactgattgcttttaagggctcactgaaattgtgtaaggctcattgagaattacctcccctcccctcccctcccctcccctcccttcccctcccccttccccttccccttcc
1 TTGCCGGGAGCTAAAGGATCCCCCTACCCTGACATTCCCGGGGCGCCCTATTCTGTCTTCCTCTTCCTAAGGACTCCCCTGACTGCCAGGCCACAGCCCCACGGCGGGCCCCTGCCAGAGGCTCAAGAAAACCAACCCGACTGTCCCCGCAGCGCCCTGCTCTCTGTCCACAGGAGGGCGCTCGCTCCGAACCCCAAGTTGTCAGCCACTGGAAGGCAGGCGGAGAGGGACTGGAAGAAAGGGGGAGGAA
1 AACAACCCTCGAAATTCTAAGAGAGAGAGAAATAGCTACAAAACATTGGATTCTAGCCTGAACTTCTGAATAGAGAACAGAGGGAATAAATTTCAGAACAAGTATATCTCTCTGAGATAGAGACACTTGATGTTCTCCCAGATATTTATGTTTTTTATACTTTCTATGTTTTCTTTCTTttctcttccctccctccttccttccttccttctttcccttcccctttttccctttccccttttccccttcc
1 ACCCTCAGAGATCCTTTGCCCTGGGAATCCAGTGGATTGTAGTTAGAATACTAGGTACTGTGCAGTGTGAGGAAGCCATGGTCAGTTGCACAGTGTGCTCACTGCACAAGGGCATGGGCAAGTGTCTAACCACCAAGGGGATGTGCTTCCCAGCAGGAGGCTGTTCCCGCCTGGGAAGGGGTCCATTCCCTAACTGTCCACTAGAGGGGCCCATCGTCATTTATTTGCCCAAAGGCTTTCCCTGGGAGAT
1 CTGACTCTCAAATTTTAGGCCTAGAATTCTGAGCAAAACTTTAGAACAAATCTAAAAGAATATTAAAAATGGTAGAATGTCCACTTCctagacatgtaactttattaatataacctgtgatcttattcacatttttggttgccatattgtccttttggttcatattgggtttATTGCTGATTCTTTTCTCCCAGTGTTGCTTGTAAAGcctcccttccccacccctcccctttctccctccctttcctcc
1 ggggtgactcagaatggagcaggcggccaggggTGACTCAGAATGgagcaggcggccaggggtgactcagaatggagcaggtggccaggggtgactcagaatggagcaggtggccaggggtgactcagaatggagcaggcgaccaggggtgactcagaatggagcaggtgaccaggggtgactcagaatggagcaggtgaccaggggaatagacgttaactactgattagaactgttggaaaaggttgtt
1 CAGGACCCAGTTCCAGAGGGTAAAAGTGAGCAACCTCCTCCCTTTTCCTACCAGTTCCCACCTCGTCTTCACTCACTCCTCACCCCTCCTCACCCCTCCTTACCCCTTCTCATCTCCTCCTCACCCCTCCTCATCTCCTCCTCACCCCTCCTCATCTCCTCCTCACCCCCTTCATCTCTTCCTTACCCCTCCCCACTTCTCAGCCCCCCTCATCTCCTCCACACCCCTCCTCATCTCCTCCACACCCCTC
1 TTTGTGCCCCTCAGAAGTCAGTCCATAGGGAGACAAGCACAGCCTCTCCTGCACACCCCAGCCCCACAATCCACCAGCCCCAAAGCAGCCCTCCAAGTGTGGCCTAGGACTGGGGCATCAGGCGCTGCAGCAGACACATGCACTCCCGCCCCCGTGTGGCCTGACTCATAGGGCTCCTCCAAGGGCAGCCCAGGGCAACAGGGGACGCGGCTGGAAACGCTGGAAACCAGCCAGGTTTGCTACAAGCCTC
0.4890606699746806 GGGCTCTGTGTTTGGATGCTCCCAGCAGCCACCAGAGGGCAGCTTGCATCTGTGGGAAACTGAGGCCCAGACAGGCCGGGGCATGGTTCTGGTGGGGCCTCACCTGCCCTTCTGGCCTTGGCCCCTGCAGACCCTCTGGGCCACTTCCTGCCAGGGGTGTGGATATGGCAGAGCAGCCCTGGGTGCTCTGTGGCTCCCAGCTCCCCACACCCCCTAAGCTGGGCTCTTCCGGGCAAGGCTGGGGCGGTAA
0.2199568935457422 ggcgtggaggatagtggggtgggggtggaggagggtgggggtagaggggggtgggggtggtggAGAAGCAGTTCCCCCATGTAACCTGCAGGTGGCACCAGAGCAGCGCAGGATCGTGGGTTCCGCTCCAGCCTTCCAGGAGACCCAGGCAGGGCGTGGTAGGGCGAGGCAGAGGTGGTGCAGAGCGCTCAGCTGCGCAGCAGCATGAGCGTGACTACAGATCAGGCCGCACCGTTTAAAATGGATACAT
1 GCCCCGGTGAGCAGCTGATCAGTGTCAGCTCCCATGATGACGTTCCCCCAGCCCCCACCACCCGGGCTGCTGGAGGGAAATGCGGTGACTTTGCTACATCCCTTCAGACGGTCCCTCACTGGTGTCCCTCAGCCCATTCGCGTGAGCTCACTCTCCCATTAATTTCAGAAATCCTGGCCTCTCTCCAAGCCTCCTGCTCAAACTCTAAATTCTGTCACCCTCAGAAGATTCAGCAGCATCCCGTATTCTC
1 aaagaggagaggggaggaggaggaggaggggaggagaaggaagaagagggaggaaaggggagaggaggagaaaaaggaggaggaaaaaaggaaaggaaagATTTGTAGATGCCTATCAAAATCCCAACTGGTTGGtttttttggtttttttttttttGTctttttttgcagacacggatatgatgatcctaaatttcatacgggaatgcaagagacccagaagagacaaaaatcatcttaaaaacaacaa
1 TGTCATTGCCATTTGCATTTATGTATAATTTGCACTAATAATAATGTTCATTATAATGTAAATCTACATCCTTTTAAAAAataaatggaatcattatgtgtacccttttgcaaccggctttttcaattcaaTTTTTTAAAAAATGGAAAATACACATAACATAAAAATATGCCTCATTTTAAAAGCAGTAGATATCGAAGTGAATATAACATATATCATTGTTCccctccctccctccccccctccttcc
1 TGTGGGTGTCAGCCGGGTCCTGCGCCAGTCTGCACTCACCGTGAAGGTGACGTTGCCCATGTGGTTGGTGGCAGGGGTCAGCACAGTCTTCTCACTGGACAGCACTAGTTTTTTGCCTGGGAAGTCGTGGACAGTAACAGTGACTGGAACATCCCCTTGCGCGTCGTGGGCCTCCAGCACCATGGTCTCCTCGCTCTCCAGCCGCAAGATGTTGGGGGTGATGATAGAGTACCTGTCGGAGTGGGGCACG
0.2189505350250896 gcagaggtccaagctgacccaaggtggccgggctgggaggtggggatgctgaagccggctcctgcccaggttcctcgttcccaagtctcttgtgccctccTAGCCCCCTCCCTGTAGAGACTGGACGCGGCCCTGCCACACCTTACACCCCCTCCCCAGGGCCCTTTTGAGCTCTCCAGCTCTCTGTGGTCGGGGTCTTCTGAGGCCAGGCTGGGACACACTGGCCTTTGTGTGAGCTTGAGCCGGGCCG
1 CAGCAGCACCTTGGCCCCGCTCAGCCCTCTGCCCAGAAGCTCCCGCACCACCTCCTGGATGATGAGGGCGCCCATGAAGGCGTACTCGTCTGCAAGAGGGAGGGGGTGGCCTCAGGTAGGGGCCTGGACAGAGAGAACCACCTCCTACCCCAGAATGGCTGGCAGAGAAGTTCTTGCCCCACTGGGGGACTGGGAGGAATCTTCTGAGAAGGGGTCAGGGGCTTGGGTGGACTGGAGGAAGGCGGGTGCA
1 ATCACAGAGCGCAGACCATGCACCCAGCCTTCCACACACGTCGCGATCTCGCCGCTTTAAGCTGCTGGGTACCCTCGGCCCGCCCACAAGAAGGCGGGGCGGCGCGGGGTCTGCTGGGAGTTGTAGTTTCGGGCCGGGCCCGAGAGCTTCTTGACTCGTTTCCTTCTACCCCCACCGCCGCACAGCTGCCTATGGACTCTGGAGTTGCTGTGTATTGAGCATGGGGCACAGCCGGGGGTAAAAGGGGAGA
1 GGGCTGGCTGGGGATGGGTAGGGACTCAGCGCTGCTCCTGCCCCCCTCAGAGCTGGCTAGGGAGTGAAGTGTGCACCAAGTTATCGGCCCCAGAGAGCCTCGGAACCGGCACCGCCAGGCCAGAGCCCCTGACGAGCTGCCTCAGCTACGTCGATCTGGACCTGGTCCTTTCTCTGGGGGCACTTGGTGACGTCCCCAGGGCCCACACGCTCCGCCCACATAGCTATGCGGTGAGGAGACCTGAGACCCA
1 agagtggttagagcagacatccttgctttgttcctgattttaggtggaacgcattcagtctttcaccaatatgtatgatgttagttataggttttgtagatgcttttttaatcacattgagatagttcccctgtattcctaacttgctgagtttttaaaaatcgtaaatgagctccctctccctcccccgcccccctctgatgccgagccaaagctggacggtactgctgccatctcggctcactgcaac
0.6294770121746568 TTCCTCCTCCCACTCCCGTCGCAATCCCGCGCCCCACGGAGGAAGGTCGTGGTGCGGGAGTTGGGGGATACTTTCTTCCTGGGCTCGGTCTACGCAGACCCATCGCCTGCCTCGAGTTCCTGTGCCCTCAGACGCCACGGGAAAACTTGCAGGGACATCTAGCGCCAGGCGTGGGGAACTGCGCGCCGCCGGGCCGGGAAGTGGAGCCGAACACTGCCCCTCCGCCTCCCTTTCGGCTCCCCCCTTCGTG
0.1398987274302289 acacacacacaagcaaacacGAGCTCCCCGCCACTTCCTCCCCAGGGTCTCCTCAAGGCCAAATATTGCTCCCAATGACAGCCAGTCACCCCTTGGCGAACGCCTGCTAAGGCTCCGAAGAGCCGGGCCACCGATCTAGCTCCCGGCTGAAAGCAGCCGACCTTGTCACGCGCGGGGCCGGGAATGGGAGGGAGGGTGTTAGAGGGTGATCGCTGTGGGAAAGTGAGAGGGAGCGGCTGTTAGTCATTGC
0.1782208332779992 TACCCATCATTTTACATTTCAACAGCAGCTGGCACATGGAGACTTTAATTATTGAACTTTTAAAAAATAGATTATAGTTCTCTAGTGAAGTTTTCTATTGTGAACACATTAATCACAATCATTTTAATGCCCCTGTCCAGTAACTTCAATATGCAGATCCCCTCTTGGTTCTTTTtccctctctccctccctcccctcccctctcctcccttccttcctcttttccttccttcctccttcccttccttcc
0.06925904613968495 GATTCCACTGACAACCAGGCCGGGCCAGCGTGGGGCGGAGGTCCTAGAGCCAGCAGGCCCCACCTGGGTATCATCTATGCAGCCAGGAGATGCCCAAGAGCCAGGTGTCCAGAAGCCGCCCCTGTGTGGACAGCACAGCTGGGGAAGACAGAGGGCTGGGGGAGCCCCACGTCCTCAGTtccttcctctgccgcctccctccctccctcccttgtccccgttccctccgtccctctcccccttccttccc
0.4708239272664511 TTAATTCCCAGCTCACAGAGACACTAAACAGAAATAATTTTCTATGGGAAGTTTGGCTTTAGCCTAGTTCTGAAACGAAGGTTCCTATTCCACTGTGGCTTAACATCTGCTGGTTTGGGCCAttctttccttctttccttccttcccaccttcattccgtccttttttttcctttcttcctcccttccttccATTGTGCTTTGTAAAAAaattgtggtaaaatacaacacaaaatttgccgttttaacca
0.9337351588735313 ccagcctgggtaacaaagtgggactctgtccaaaaaaaaaaaaaaagggggggggggaaggggaggggagggaggaaggggAATATATAATATCTCAACATTAGTTACCAAAGTACTGTTTTGATCTCGAGATTTAAGACAGTAAACAGAAATTTTATAGCAAATGTAAAAATTTTAGAAAGCGACTCAAATGGTACATTTCTACTTAACAAATTGAATCCAAAAGCTGAAATTCCAGCCCATAGAGTGT
1 TAGGGGGCACAGTGGAGGAAGCTGGGAGGAAGAGGCTGGGTGTGAGAGGACAGAGGAGCTGGGGTGGGCACCTCGTCCTGTCCTGTCTTCCTTCCACCACTGCCTCCATCCTCCCACGGAGGCCGCCGCGGGGTGGCAAACCGGTGTCCTGACCCAGCTGCGCTCAGAGCCGTGGAGTGATGTTCTAGTGCCACCTGGTGGCCAGAGTGGTGTCTGCACCCAGGACTGTCCCTGCCTGGCCGGCCTCCCC
1 gcaagagaaataagtcagaagatgtaaacgtgcctttatttagactgtgttgttatatacatagaaaatcctaaataacctaccttctccacaaaaaaagagcaactagaattaataagtgaatgtaacaggttgcaggatacaaggtcagtgtaccaaaaccaattgtattATTTttcttttttctcttttctctcttctctcccctcccctcccttccccctcagctttcccctcttccctcccctcc
1 TAAGTGCTAAGTGAGAGGGGAAGGGGGTGGATCAAAAGTTAGGAGCTCTTGTTCAGTGAGGTAAGGAAGAGGTGTCTGGCTGAggaggggtgagggaggagggaggagagccagggtaggCACAGGGTTTTAGTCAATGATCCTAGAGTCTGAAACAACATATTTACAGCTTCTTGAATGTCCTTCAAGAGATATCAGACAATGATAGAAGTCCTTTTCAATCCCATTTGGCTCTTAAACTGAGCTTCTT
0.3851785532894104 CCCCCTTCTAGGCCTCTAAGAAGCAACGGCAGGGACTGCACTGAGGACGACCCTGAAACGCCGTCCTTCCGCTCGTCGGGCCCGGGACACTGAGGCCGGGTGGCCGCGGGGAGCCGAGCCAGTCTGCTCACCTGCGCTGCGTCCTTCGTCTCCGCCATCCGACCGTTGGCAGGACGAGGCCGCGTGGGGCAGCTCCCACGGGCTCAAAACCCTACCCCGGGTCCTACAACGGTGCGGAGGTGAGCCCCAG
0.4393503149707154 ggaaagggaaatggaaaggaaaagggaaaggaagggaagggaagggaaggagggaaggaagggagagggaaagAGGGCTGCTATTTAAGAATTTAGGAGTAATAAGAGGAATCCAAAGTAAAAACTTTGTAATAGCTCCTTGGGCAATATATTTTCCTGAATATAGATCTAAGGTTTGAACTATAAATTACAGAGTATTTGAACTGAGTGATATAAAGTCTGCTAAATGGTACCTGATTCCCAAATATCT
1 gAACAGGCTTCAGCAGAAGACCTCCTGCCTTCAAGGGGCCCGGGTCACCCTGTGGGTTCCGGTGGTTAAGGCCAGCCTCCTGGTCCTGCAGCCACATGCCTCCCAGCTGTGTGCCTCCGCTTCTACCTCCGAAACCCGGGCAGCAGGACCCACCCTGCAGGCTCCTGCGCAAGGATGGGGGAGGTACCTGGAGGGCCCACCCCACATCAGAAGCAGGTCCTCAGCCAGAGACGCCCAAATGCAGCCCGAG
0.05358867175353493 TGGGGAGGACAGTGGGGTGTCGAGGGAGGTGGGGCTATTCGTGCTGATGGAGGGGTGAGGGATGGGCAGGGTGGGCAGGGATGGGGGACTGGGGCGTTGCTCACTGTTGGGCCCTTGCTGGATGACTAGGAGCGCTGGCCACAGTGTGAGCCTGGGGCAGACCACTGGCTGCCAGGCTGTGGAGTTGGGTCAGGGCGGCTGTCAGGGGAGCGAGTGGGACCACACTGTCTGCAGCTGCCTCTGGGCCCAT
1 tgTTGGGGGACCTAGTATGGAACCCAGGAGTATATTTGTCACAGGTCAGCAAGGACACAGGGCACTTGAGCTCAGAGGCCGGAAGTATAGCTGGTCTTGCACAATCCACGGTACCGGTCTGGGAGAAATGACCCTGCTGACTACAAACACAGGCTGGGTTTTGGGGGTGCTGACGCAGCTTTGTTGTGCTGCTGCTTCCAGTTCTGCCGGCTCAGTGCCTTGTGACCGGGGCCGGTGGCTCCTCCATAGA
1 AGCTCAATCCCCCACAGAACTGCCCCTGGCACCACTGGCAGAGCCTAACACTGGCTGTTCTTCACTCCTTTCCTGGCATTCAACGCGTGGGGAGCTGCATCTTTGGGCCTTGGGGCTGGGTCAAATGGGTGGGAGCAAATGTGGCAGCCCCTTAAGCCCACTGGCTCCCACTCTGGAAGCTCTTCGTCGCCCTTGGTGTGGCCAGCAGGGGGCAGGAGGCACCCGAGGAATCAGCACTGACCCGCCGTCT
0.2145472715247153 GGGGACGGGGTAGGGTGGGGGGGGGACAGGGGGTAGGGTGGGAGGGGGGACAGGGGGATGGGGGAGGGGGATGCGCAGGTGCCTGCTGTGCATGGAACCCAAGCCCCTCGCAGAGCTCAGGATGAACCCAGTTTCCAGGCCCGGGGCCATCATCAGCCAGGAGAGGCATCCGCGGCACTTCCCAGCAATGGCCACAGGAAGTACCAACTCAGGCCCATCAGGGGCTTCCTCACTGTGGGGGTTTTTAAAA
0.6820481772729394 cgagagacagagagagagagagagagagagagagagagagagagagagagagagagagagagagaaagagaaagaaaacgagcgagggagagagcgagagcgagagagagagagagagagCGTCACACACACATCTCTGCCGGAAGTGATGTCACGGCATGGGCGCCCGCCCACCGGAGGAGCGACTGGAGTTGATCGGCTGGGCGCTCAGGTAGCGAAGATAAATGTAATCTTGTGGCAGGAAATCGAC
1 AGAGGAAGGTGTCGGCCTGGCCACCAGGCACCCTCTGGACAACAGTAAGCTGCATCCCATGTCACACAGCGAGGTCCTGTCCCACTCCCACCAGGCCCTTGGAGCCACAGCAGTTGGCTGCGGGGAGACCCTTACCACCAGTGGCCAGCAGATCATCCACGACGACCACCCTCTGTCCTGGCTCCAGGGCGTCTTTCTGAATCTCCAGCTCAGCCTGGAGTGGGAAGTGGTGTGTGGTCCTCAGCCTCCC
0.8908715248201495 aagggaggggaggggatgggaagggaaggaggagggagggagggagggaaggaaggaatgaaggaggaaggaaggatgaattctggtcagttgtcttgtagactgtcccacatccagatagtctgaccgtttcctatccctgtatttccagtacaccgcaagtaagttctaggggcatgaatagagtttaatgggatttttGACATACATAGCATATTCAGCTCAAGGAAATCCATTCTTTATGTTTTAT
0.1561723645219494 CCCTGAGTGGGCTACACCAATCAGAGACGAAGCGGCGCTAACGTGACTGACTAACTAACCAATCCAAAGTCTCAATCTCCCTGAGAGGGGCGGAGCGTACCCGGGCCAGCCCTCGCCGCCGATTGGTGATCGACCTCAGGGTTGCAGGGGCGGTGCCCTTACACGGATTGGAGAGGGCAGCGATGGGGCGGAGTTCAAGCTCCGATTAGTCCGCGCTCCGTGGCGGGCTTGGCGATTGGACGCCGGCGCT
1 TTATTGCCGCTGCCAGTTGGCTGAGGTGGGGAAACCTCTCTGCCTATTCGCCTCCATCTCACCCCTACCCGCACCCCCACCCTGACCTTCCTTCTGCAGCGCCCTCCAGACCTGCAGTTCCAGTTTCAGCCACGAGATGGCAATGTTGCTCTTCGCCGGTAGCCCGGCGGGCGCGTGGGCTGAGCTGCAGCAGAACTGGGGTGCGGGGACGGACCGGGAGCAATCCGTGCTGGAGGCAGTCTCTTGCTGT
0.713493034455699 CCAAACCGGAGTGCCTGGTCTTCCCCCAGTAAGTGCTGGGCTGGGGCAGGGTAGGGCCAGGGAGGGGAAGCCCAGCACCGCCAGGGGCCACAGCAGGTGTACCAAGTGGTGCCCGGAGCCCACCTTGCCCCTCGGCAAGTTGTTTCCAGGTGGTGGAGAGTCTCAGTCTTGGGGGACAGCCTGTCTGCATGCTCCCAAATCTGGCCCTTCCTTCTGCCTCCCCAGGGCTTTCCAGCGCTAGAGCTGCAGA
1 ttagtggaaaagctggtgaaatatgactgaagtctggaatgcagtcagtagtaatgtacaaatggtaaattcttagtttaaactaatgtccccagtgagatgcaaataacaggggaaacagagtggaagagaattctatgtacgttttcacaactcttcagtacagctacatttattccaatgtttacagtttctcttttaaaaaTGGAGAAtctccctctccctctccctctccctctccctctccctc
0.09595348715065546 AGAGCCCCTGTCCTCCCCCTATGTGGAGGTGAAGCAGGGGTTGTGGGGACTAGGCGCCCGCGAAGGCAGCTGTGCTGAGAGCAAAGTCCAGGCCCCACGGGGGGCGTGCGGAGGTTGAACCTTTGCAGTGGCCTCCTACAGCCCCAGCAGCCAGCGTGGGCGGCCGAGGCTGACTCAAAGCGGCGGCTCAGCCTCGGGAGTAGGAGTAGGGGGCTCGCTCATTTAGGGCGGGAGACATTTCCGAGGCGCC
1 gaaAATTaaggccaaactgataaaagggcagagatgggatttgaacccagggtcctgtagcattaaagcccaggccctttacctgttctctacATCAAAGTGGACTCAAGAGTTCTTGTTCTAATAAGCCACTGGCCCTGGTGGGTGCTGTCACCAACTTCCAGCTGCTTCTTTACCTGCTTTGGGGCCCATGGGCCTAGCCTCGttctctgttttttttgagacagagtctccctctgtcacccaggct
1 ATATTTTTTAAGGAATGCCTGCTAACTGTGTTTTATCCCATTGCACTTGATCACCAGCATAATGCTACTTCCAAAGATATAACACAGAATTTATTGTTTTCATATGTAAATTTATAGAAACTATTTAAATTTAATAATTAATTATTAGTAACCTATAACCCCCCCCCCCCCCTCACCACTCCTTGGTTTCAGGGTTTGGTTTCAGGGTGGCTCAGGTGTCTTGAACACATTTGTAATGGAAACTTGATAA
0.09987055668430346 TCGTTGGAGACATCCCCCACTCTCCCTCCTTTTCCCACCCCCATCCACCCATTTCTGGACCCTAGGGAGCCATAGCCCACCACCCGGGGTGCCTGCGCAAGGAAGTCGGCGAAGAGCGAAACCCCTCGGTGCTGTAAGTTTGCGACCAGCAGAGGGCAGCACAAGGCCGCTTCCCTGGAGGTGGCCGGCAGGACAGCTGCAGCACTACTGGAGGCGGGCGGGCACCGACTGGCGGCGGCCAGGGTAGGAG
1 AGCAGGCACACGGGAACCCGGAACCCTGTGTGCTGGGGAGGAATCCCGCAGTGGCCGGGGGGCTTGAGGCCGCTGCTTTGTCTCTTCGTCCAGAGCCTTATGTAAGAGCTTTTCTCGGGAAACAGGAAGTCCTGCTTGCCAATTTCAGCACAGGGAGTAGTGCAGGCCTTATTCCAACACACCCGGCCCAGCCTTAACCCCAGAACTCAGCCAGTTTCTTGCTTCCGTGCCCCTGGTTCTCCTCCCCATC
0.2723633269450865 caagagagaaagggagagagggggagtgagggaACGACCGAGCCAGCAAGAGGGCACTGAGAGCCAGCTGGCAGGGGAGAGATGGCCACTAGATGGCAGTGTTACCCCGCCGTCGGCACCCGGCCCGGGCTGGGAACTGGACAGGACCATTTGGCGGAAACGTGGCATGGTGAATAACGCTGAGAGCTGTGCCTCGAGAGTTCAGACCCGACCCTCCGCCCTCCTCGGGCCTTTTGTCCACAATTTTTCC
1 ATCTCGGCACCCCCTCCCCCACCTCCcccaactcccaccccacttcccagctaccagcttcccaTTGCCTGAGGTGACCTGGAGCTGGCCCAGTGCCTGCTCACCTGGCCCAGGACAGCTCTCCATTTTGGAGTGAGTGGGAAAAAAATCCCCGTGCCAATAGCCTCTCTGCGACCTCGTACCCCACACTCAGGGCTCCAGGCAGATTTGTCAGGTCCTCAGGCCCCAGGCAGAAGGCCAGGACCAGATC
1 AGTTCAGCCTCTGGACAGTGGTCCTTCAAGGTCCCCTCCCTGACTGAAGCCTCAGAGGAAAAGTCAGGGCACAGGCTTCCTCTCCAGCCCCCAGGGGGCAGTGTTGCAAAGTCTTTAGGGAGCAGGGCCCTTCTTCCAAATTATCCACGGCCTGGCAGGGGCTTGCTCCCATCGCGCATTTGCCACCCCCACTCACCCCATCCCCAACTCCCACCCTCGGCATCCCTCCCAGCCTTTGCTGCACCACCCC
1 aggggaggagggaaaggagggaagggaggagggggagtgggggtggagAGAAAAaacagatgataggtaacagattaataataaataacagataaatgatggatggatggatggataaatgaacatgacagatattgttagagatagatgataggtagataatagTCTATGATATGGTAGCCATGTATCTATCTATCTGTCTATATATCATATCTATATGATAGTCCTTGGATAGTCATATATGGATAGG
0.09126843055669664 TCTCAGTTCTCATTTGCAGTGCAGCTCTGCAGGCCCCGGACTCACAGGGCAACCCTGTAGCGCACAAGCTGTTTAAAGGACCCAGGTGTCCAGGGTTCAGATTTGGCTCGCTGGAGCCTGCCCCAGGGGCCCCTTCAAACAGCTGTCACCAAAGAAACCTCTCCAGCCAGTTACTCCTGCCAGGCCTCAGGTCCGACTCCAGGGCTCAccctaccctccccagctccttccctccctcttccttccctcc
0.367746910041438 GTGGGCAAACCACACCAAGAGACGCGAGCAACCGAAATATAGGGAGAAAAAAAAAGGTGCCCTGGACAGCGGGCTAGATGTCTCCTGCAGGCTCGAGGACTTCCCGGAGGGGGCGGCGTTTTCTCGGGGCCTGGGAAGAATGGGCGGGTTTCAGCGGGCGCCTTCTGGGTGACTGCCCGTTTCGGCTTCCCCTGACCCCGTAACAGAGCGGAAGAGGCCCAGAGACGCCAGAGGAGGGGCGTCAGCGGGA
1 GATGTTAGAGTAGTTCAGGTGTTGGCAACTGCGTGACGGACAGCCCACAGGAGGGGAAGGAGAGGTGCCCCGTGTGACTAGAGCGTAGCAAACTGCCAAGCCCGAGGGAGCCTGGCTCTTGGAAAAGCGGGTGGCTCTGGCCTGCCTGGGTACTAGGGAGCCACTGCAGGCTTCTGAGCAGAGCCCCAGTGGAGGAGTGAGAGCTCAGGCTCTACCCCAGTCTGGGAGTGGTCTGGGGAAGGTGGGCATC
0.2707779549439421 CGGAAGGAACAAGCCAGTGAGAGCCGGCCTGATGGGAGGACCGGCGAAAGGGGCTTGGTGAAGCCCGCGCTCCTTGGGGGTGGGAATGCGGGGATGGGGTGGTCGCGATGCAGGGAGGGCGACAGGGTCCAGGTCGTGCTCATAAGTTTGGAGCTGTACTCTCAGCTACTCGGGGCTGGTCCTTGATTTTGGCTGCGCTCGCGCACGCTCCCCCTTTTCTGGCCGCCAGGTCCCGCCTTCTAAATTTCCC
0.3833342948159523 cttcatatcaccaggtatacatttagtgtttacagtttcctgtttgtcttatttttttcaactattttatctctttgttgtttgtttgaattgggatctaaattgtccttgtatattgattcattgctgtgttccttaagtctcttttaacctCCCATCATGTCtctcttctctcccttcccttcccttcctgcccctcccttcctctccctgtttctcccctcccctcacctcccccttcccccctccc
0.3709085221436988 ggtcacgtggagaatcaccagcacttttccagcagaactttcttggcacatttttccatgcaggtccaagactggccaCGAGGGGTCGAAAGAGCACCCGGATGCCCGATGAAAGGGCCGCTTCCGCAGCGCTGGGCCACTTTCCCAGAACCTGGGCAATGGGGAAGGGACAAAaggtggggagtgaggggaggaggagaggaggCTTTGACCCAAGAGCGGCAGAAAACTGTCTTCTAGACCTAAGGGT
1 GCCACTGGGAGGCAAGGGTCCCCACCCCCTCTGCCACCCACATCTGTACTGTGGGCACCTCCATCTGGCCTTCCACATCCTCCCCACCTCCGCATGCTGCAGGGGCTGGGTGGGGGGTGGTCTGCAGCAGACTCCAAAGGAGGCGAGGGTCAAGGGTCAAGAGGTGGTGAGCCAGCTGTTCCCAGATGTGGGCCGCGGCCTTTCCTCTTTCTGGAGGAATGACAGGCCTCCCGCAGAGGAGGAGCGGGTG
1 GGGGTGTCCCAGCCCTCAGCTTGCCCACTCCCTcctgcccagccctgccctggctttcctgctctgcTCCCACCCACAGCTCCCTGACATTGTCACCTACCTCCTGAGCTGTCACCACAGGGCGCACGGGACTCCGCTGCCCCAGGTTCCGGGACAGTGACTACATTTCCCAACAGCCCCTGCGCCACATGGTGGTCAGTCAGCCTGCAAGTCCCAGCATGCCCGAGTCAATCGTGGGGTGGGGAGTCTC
1 CTTCTAAGAGCCACACCACCAAGGAACTTCTAGTCCTGGAGGTCAATGGTGGGGCAAACCTCGCCTCAATTCTTTGACCCCCTCGGGTCGTAAGCAGGGCTAAGAGGCTGCGAAGAAGAGGCCTGGCCATGGGTGTATGGGGGAAGAAACATCTCAGGCTCACTCATGCCCCCTCCCCGACCTTCTCCCACCTGCCGCCATCCCCGCAGGCTGGGGAGCCAGGGTAACTCGGGGCTGCTCTCTCGAATTT
1 GCCTTCGCTGACCCTTAGCAGGGAAGCTCCCGACTGGGTGCACGCGGCCGTGcccaggaactctggttcgggcctgctgcagggctcgtttgcctctccagcggtggctctcaggtgctgcggtgccgtggccaaggagccacacaagaaggcccacGACCTGTGTCCCTCAGCTTTGTGCATCTGCTTCTCCGGGACGGGGCCCCCTTGAGGGCAGGCCTGGTGGACCACCCTGTTTCCCATGAGGCCT
1 TATCTATGTTTGTAGAATATAAGTGAAATGTTGGTTTCCTCACTGCATTTTAATAATAAGGAAAGAACTGATCTATGTGAATGGGTATTGTAATATTAAGGTAAACTTTTAAAAGTTAATTTACAAATTTTCCTGACAAAGTATAAAGCTTGGGCTTTTGActgtcttcccttctttcctacttacctctctctctctacttgctttcttccttcccttctgccatcatttttccttttccctctcctct
1 ACTAAGTGCAACCGCCGCTCTAGGCCCCCGACCACCAGCCCTTCCCGGCATCCTCAGCCGAGCCTCAAGAACTACAAATCCCGGGAGGCCCCGCGTACGGCCAGCCCAGCCAATCACCGAAGCTCAGGATCGGCCGGGAGTCGGAAGTGCCTGCGGAAGtttttttctttttcgtttttaacacggaatctcgctctgtcgccccagctagagtgcagtggcgttatctcgactcactgcaacctccgtc
1 GCCAGGCCGGGTATTTGCCAGGATGTGAAACGGAAGCCAGGCTTTTGGAGAGGCTGAAGCTGATTTTTGTAACAAGGTCTGGTTACCAGCAAGGAAGCGGTTTTCACGTTGCTCACTCTGGGCCCGAGTGTGGTGCATCGCGCCCCCTGGTGCCCAAAAAGTGCAACTACGTGCCATGCCAGCCAGCTCTCCTGGACTTCCATTTTTCCCTGATTCTCCTGTTCCTCGCCCACCCTTCTCTTTGCTGTGC
1 TGACTGGCCGCTTTCTACTCCTCACACAGTTCCCAGGCCCTGGAACTTTCCATCCGTCTTGTCCTTCTTGCCCTCACCACCCCTGCCCCGAGGTCCTCCGCCCACATGACCTGGTGGGGGCTGGCGTGAATACCTGGAGCGCAAGGCTGGGCAGGTTTTGCTCAACGTCATGAAGTCTGATCTCCACGCACAGAACCCGGCGTGGTGCCCACACCGTGTGCGTGAGCACAGGGACAGAGGTGTGGACGGA
1 TCACAGTGCCCTTCCTGGAATAAAAGGTGGAAAATGAGAGTTTGCTGTTTGGGGCTGCCATTCAACTTGCCTGGGCAGGGAGGATGATGGCTGAGGGCCGCCAGCATCCACGGCCCTGCTCAGTCCCCATCTCCTTGCACCCACTGTGGTAACCAAGCTCCCCACCCTGACACCTGGCTTGTCTTTTCTGGGGTGGTTTCTCCCTCAGGGACTTCGCTCCTCTGTTCAGTCTCCGCCATTTGCACAGCCC
1 GTTGATCCAGCCCGACAATGATGAAACGGCCCCTTTGTCCTGCGGCGCCAAAGTTGCTGTGACTGGAGGAGGCGTGACGTGAAAGGGTCATTGTTCCCACTTGGGCAACCACTCAGGGAGCTGGAGGACCGGCCCAGAGCAGGCTTCATGCCAGCACTGCAGCCCTGCCTGCTGCCTGTGGCCGGTCGGGGTATCCTGGGCTCCCTGCTCCTACTGTGGCCAGTTCCTCCCTAGGGCCAGGGCCAGCTTG
1 ttacagccctggaaatgcctgctcctactgcctggcttttccctgctgtcagcacccactccaatctcagagcaaagtcggggcagtgctgacacaccagtgccctgccgccttggccccctctggactttgggcactgacaaacataggaagtaagctgatgggggatgtgtgcagctcaatgctggcctgcagacaccccatggaacctacagcttgggcaccatgaatagcaggaggcaaacacgtt
1 AACGCCGGCGCGGTCTCCACTTTCCCGTTTAGCATAACAATGGAACCTTCGTGAGCCGCCGCGTTGTCCGCGAGATGCCGTTTCTATGGTGACAGCCGGGCCGGGGGCCCAGACCAATGTGTCAGTGGAGAGGGTGAATGCAGGTCCTGGTCCTAGAGGCATGAAAAGGACCCCAGAAGACACTGCCTTTGTATAATCCGTTTGCTATCCCGAGGTGATTCACGGAGTTTCTGGGGATTGGCGCAGGCTG
1 CCCCAGAGAAGCCTCCGAGCGCGGCCGCCATTCCGGGCCTCAAGCCCATAAAGAAAAAATACCGGAGAGGTTCTGGCACCATTTCGGGGTGCCAAAGCAGCCATGGAAGAGCCTGCAGCTCCCTCAGAAGCCCACGAGGCAGCCGGGGCCCAGGCAGGTGCTGAGGCAGCAAGGGAGGGTGTGTCTGGGCCGGACCTTCCCGTCTGTGAGCCCTCCGGGGAATCTGCTGCTCCAGATTCAGCCCTGCCAC
0.2694249889647705 GCAGTGGGCCTGGGCAGCATTCACCAACTCTCGCCTGCCCTCCAACACCTGCTCCAGAGCCGAAGGACCTTGCTTCACCAGCCCCACTTCCTGTCTGTGTCCTATGGTGACAATGAGTGCCTGGTCCCATCAGAAACCCTGTGTCTGGGCCTAGGGCCAATGCTGACTCTTCATtccctcccctgtccctcccctccccttcttccctcctccttcccctcccttctccctcctttcctcttctccctcc
0.197544516364318 GGTCCCCAGCCCGGGGCTCACGACTCCTCCTTCAAGGGGCCATCTGCACCCTGCATTCATAGAGCCCCCCGTGCAGTGGGGTGGGCACCCTGCCGCACCCTGCATACAGCCGGCTAAGGGCACCGGTGTCCacagggacccagagacgtcgttccagctgcccagggccacacagcccacaagtgacagggccaagaccggaacccagtacctgctgGGCCTGCGGAAGTGGGAGCGGGCACAGGAGGGT
0.01440498239614996 gaggaggaaaagaggagaaaaggaagaaagagggaaagggagagagagggagggaaggaaggaaggaTGACGAAAACCAAACTCAGTTCTCAAAGTCAGAGGTGCGCTGTCTCGGGCAGGGACTCTGCCTTGCATAAGCAGTGCCCTCTGCCTAGCGTGCTTTTCACCCTTTTGCACATCAAAAGCTCCTCCTCATGTCTGAGTCACAGATCAAGCCTTCCTGACAACTCAGCACAGAGTTTAGTGCACC
0.7652471245714569 GTTTTTAAACAATAAGCTGGGGTCAATGTGCCAGCTCAGCTGAGTCACCACAGCTTGGCAGCAGGCCCAGCCAGCGGGAGGAGAGGGAACAGCAGCTAGCAGGGAGATGCTGGGGGATAGAcagggctgctggggactgttgtacaggctgtgcactgctcaagggtatccagAGCCCAGCTTTGTATCTACCAGGAAGAAGGGGctcccctcccctcccttcctcttccctcccctctcctttcctctc
1 gggaggggagggagggaaggggaggggagggagggaaggagggaggagggtggaagagagAAAAACAAAAGGAGGGTGGTGGGATAGAATTCTTTACTTTCCTGAGGAAAAAAATAAGAAACTTAGGCCAGGCCTGCAACCAGTTAGGAAGACAGACTGGCCTTTGGACCTCCACGAACTCTCTTTTCTCCTGCCCTCAGCAAGGCTAGAGTGTGGTCATTTGCTGTTTTTCACTGCTAGGGGTTGTGGG
0.2637274829128242 ATAATCATTGAGTAGAATAAAAAACTAGCCTGCAGAACACTTTTACCAGATAGCATAGTGGTGCACAAATAAATTAGTATAAAAATGcacattgtacaccttaaatttatgtaatcttatttgtcaattataccttaataaagctagaaaaaTAAATATAAAAAATTAAAAAAAATCAAAATCCTCAAGCATGAGTACACAcccttcccttcccctcccttcccctcccttcccctcccttcccctccct
0.7704526929690556 AACAGCCCACGCTCCCCCCAGGTCCCCTTCTCCTTTGAGGCCCCAGGCCGCGGAGCTACTTGTTCATCGTGTTTCCCTCCACGAAACCAGTGCTTCCCGAGTGGTTCCTTCAACCCCGCTCTGGCGGGCGACCGCTGATGTGGACAGAGCGAGTCACCGGGCGTAGGGGTCCCTGGGAGCCCCCCCACCCACCGCCTCTGCCCTCCCCACGTCGAGAGCCGTTGCCCGTCAGGGGAAGCTGCACTCCCAC
0.2160864429497563 CCCCTGCCGTGCCCACCTGTTCACTAAGCTGCTAGACCCCAGGAGGGCAGGCAAGTCAGGTGGTGGGAAGGGGAGGCAGGGGCCCTGACTGCCGGGACCTGGGAAGGAGAAGGGCCCAGGAGGTCGTACCCTTGCATCGCCTTCCCCCACTCCAGCTCCATGTCCCAGAGACCCATGAGATAGCAGGGCGCAGCAGAAGGGCTCAGGGTTCAGAGCTGGCAACGCCGGGAAGACTCTAGGCCTGAGCCCC
1 gagggggagaggggaggggtggctgcaggggaaggCTGAGCAGCTCTCTCCAGCTCCAGCTGGACCTGAAGTCTCAGAGCTGCCACCAGCAGCAGGCTCAGACACTGGGCTCCCAGCTGGGGACTGCTCCATGGCCATGGAGATAGACAGCAGGCCTGGGGGGCTCCCCGGCAGTAGCTGCAACCTAGGTGCAGCCCGAGAACACATGCAGGCGGTCACCCGAAACTACATCACCCACCCCCGTGTCAGT
1 GAGTCTGGCTGGTTGTCTTCTCCTGGAGGAGGAGCATGGGGTGGGGGCTACAGCGTGAACCCTGCCATGTGTCCGCCCCAGGAACCAACATGCCTGCAACCTTCGGCCATCTGGCAGGTGGCTACGACGCCCAGTACTACGGGTACCTGTGGAGCGAGGTGTATTCCATGGACATGTTCCACACGCGCTTCAAGCAGGAGGGTGTCCTGAACAGCAAGGTACGCGGGGACTGGGGACAGGGAGGGCGTCC
1 GGGCCAGGCGCGGCGCGGGGCGCGGGCCAGGGGCGCGGAGCCCCGGGGCGCGCGGGGGGGCGGGACGGCACTATTTGACGTGGAGCCGGCGGCGCATCCCGGCGCAGGGATACCGGCCGCGGGGTTCAAATGTCAGGAAGTTTCGGGAGGTGAGGCGGCCCGTATCCCTCCGCCGCCAGCCCCAGCTCTAAACCCGGCGGCTCAGCGGGCGCACCATGGCACTGGAGTAGCGCGGGGAGCGCGCCCGGAG
1 aggggagagaaggagaagaagggataagggaatgggggaagaggggaaggggagaaggagaaagagagTAAATTTAAGAATTATAATGGTTGAAAAGGCTTGTTTCAGTGCTTGacacacacagacacacaaataaagacacacacacacacatacacGGTTACTCATTAGCCCTTTGCTATAATTCTAAAGCATTCCCTTATGTCCAAGAAACTGCTTTCAGCAATCTTCCCCATAAGGGATGTAAGGT
1 atgttctcattgggggaaatagggaaaggggatgtgcggcatctgtatattctgtcttacaactgcatgtgggtctacaattatctcaaactaaaagttttTTTTTTTTTTTTAAGAAAAAGTCATGGCACTTCAGTGAAAATTTAGAATTTTAATGCATTTGCAGGTGATTCAGAACCTAAGCTTCCTATCACAGAGATTGCCCTTCCTTCCTTCCTTCCTTTTATTTTcttcccttccccttcccctt
1 tagggagggagggagagaggTGGGGGGTGGGGAGGCAAAAGGCAGTGTTGGGGGGCCGGTGCGGGGAGGAAGGAAAAGAGATTTCACGAGATCAGATGACAGACTTGAATCCTGGAAGACACATAGTCAATTGTTTTGTTCTGGTGCATTAGTTGGGGAAAGAAGAACTGAGTATAAGGGAAGTGAACCACAACAATTCTGAGTCCTTTTCTTGAAAAAACTAAACATAACAAAAGTGCTTTTAAAGGGC
1 GGCACAGCCAGTCCCCAACACAACACTTGGTGgcaccaactccttcctcacagcgcccccgtgagggattctgttatcatccccattctacagctggagagactggcacagagaggccgagcaacttgcccaaggtcacacagccaacaagggcacagcctggatgcaaacccaggcgagccacctcctgtgtccagctcacccactgtgTCCTGGGACCCTGTCACCAGCATACCCATGCCTGCTGCTT
1 cagagcctgcactggctcccattttcttcagaacaaaagccaaaacgcacacagcagcccacaaggccctgcgtgagctggctcccaagttactcccaccccatctcctgctactcaccctgctccactccagaacctgggaccctcgctggcccaggcacctggccgccacaggaccttggcacttgctgttcccacctgggcccctccctagagacctgcacgtctcactcccccactcccttctggt
1 tgttgtgtgaattgtgtgtgtgtgttcggtgtgtatgttgtgtgtgtgttgaatgtgtgtgtgCACACCCACCCTCTGTTGGGGTGGGTGGGGGTGGCAGGGTCAGACCTGTCCTGGTGGACACCTGGTGGTGGTGTGGAGGAGGCACCGCAGGGGGCAGTCTCTGGCTGGGGCAGGAGAGCGGGCAGAGGCTGTGTACCCAGGGCATGGCAGTGGAAACAGAGGAGAGGGGCCAGGATAGGGAACAGGA
1 TGGAAACTCTTGCAGATGGGGTCGGGGGATACGGCCGTGCCCCCATGGCTCAGGTTCTAAGACGGGGCACAGACAACCcaaaaccactagaaacgccttaataacttgccacacagagagcgatgggcctcgcaaagtcaacgctgttgggttttcctccacccttggatcggatcgctgtttatgtagctcagcggagaatttcaggaccttgttgcgtgagccatacctatttttacacactagcgtc
1 CCTGCATGTTGTGTAACCAAGAGATTTGAATGGCAAAAGCCATGGCTTCTTCCTCCCCACCTGCACCCCAGACTCCCATGCCTAGGCGGGAACCTCTTTTGTTGCAGCCTGTAGCCCTTCACCATACCCATAGGTGGTGCTGCTGTTGCTCTGCAGGCAGGGCCCTCCCGGCCAACATCATTCCTCCCCACCCTGTCGCCCTCCCCCTTTCCCCAGCCCTCTACTGCCTGATTGTTATTCCACCAACGTC
0.7269129927669961 ggaagggaggagaggaggaatggaaggaggaagggaagggaaagggaggggaggggaggggGAAAAAGAGAATTGTCTGGTATATCTGAGTCTATGTTTTCCAACAGAATAGAATGAATGTCTTCTGAATTCtatgtaagatatacaacatgatattttgaaatacacaggtagtgaaatggttacaatagtcaagcaaattaacatatccatcaattcacattgttactcatctttgtgtgtgtggcaa
1 ggaaggaagggagggagggagggaaggaggaaggaaggagggaaaggaaggagggaaaggaaaagtaagtgaagggaaagaaagaatgaGAGACCTGAAATTATCCCTGATTTTAACCTCTGGACTTTCCTCATCAGTATTCAGAGTGCGAACTGTCATTGGTATTAGTCAGTTTTCCGAGATTACTTCTTTCTAGTTATCTTCTTTGGCCTCCAGATTTGCCAACCTCAAATTTCTTTCTCTGGTGCTG
0.4832054473906804 AGCGGAGACGCGAGCAGGTCTCGTCGGTAACCCGGGCTTACCCCACCTGCGTACACACACCTCAGTCTTCCTGGGTTGGGGGGGTGGGGATCCAGGCCAGGAGAAGAGAGCTGTGCCCCGCTGGCTCGCAGCTGGACGCCCTCCAGATGTGGTCAGGGGAGGGTCGTCATCCTCCAGATGTGGGAAGCTTCGGGAGCCTGGGAGCTGTACTCTGCCCGCGCCGGTTAGCGAGCTGGGTTTGGTTTCCGAG
1 GGGGAGCCCCCGACTCTCTAAGGCTGCCTGGAAGGCTGGGAACCTGGAGGCTGCGTCTCTGCAATGTTCCCCTCAGACACCTGTGCCCGGCTTACAGGCTGCAGTCCTGGCATGGCTCCTGCCTCTGCCCCAGCTGTGCATCCAGCCATCTGGGCCCTGGACCCCTGGGCTACCAGTCcccaccccaccccaccccaccctgcccagccTCCAACCTGAGAGGAGCTGGCACCCACCTAGCCTGGGAGCT
1 gaaggaagaaaggagggaggggagggaggggagggagggagggagggaTTGattctagttatataattctatgtataaaatatgcacatttaaaaaaatataaggaagacataaagttatattcttttgacaaaaagaattgtatgtaatacagagattatgtaaagcctatttatgaaagaaggtaaaaagaaactagtaaataggtgaaagagatgtaaagagagtcacagatgtaaagatgtatttt
0.5867756384330934 ggaggaggaaggggaaggggaggaggaaggggaaggggaggaggaaggggaaggggaggaggaaggggaaggggaagggAAGTATCTGGTTGAGAAAATTCCATCGGACACTGATTACATAGTCTCATGACTTTTAGAGAAAGAGAGACTTCTTCTTGGCATCTTACTCTGTTCTCTTCAGCAGATGGACACTGAGGGTTAGAAACCTCCCCACCACCAGCAGCCTTTCACCAGGTCCTATTCAATCTTT
1 AGCTGATGGCATGGGGAGGAAGGCCCGTGTGCCCTTGCCTCAGGAAGCCAGGACATTCAACACCAGCTGGGCAGACTTGGAAAGGCCAAGGGGCAGCAAGGCCAGGAACTGGCACCTCTCCAGGTTTCTGTCATTTAAGGTCAGCTTCTCGCTGACCACTGCCCACCACCCATAAGTTGAGCTCCAACCCAGAAAAGCAACTGTCCGGGCCCTGCCCAAGCCAGTCCCCTGCCCTCCCTCATCCCCACAC
0.8993574594297006 CAAGTATTTGAGCACCTACTAAAAATTACACAACTCCCACAACAACGCATTTTGCGTTTCTAAAGTTGTAAGCAGCATGTTCGGACGCTTGATGCAATTTCCCAAGTTGTTTGGGCCCCCCCCCCAAAAAAGTCTTCTCAGTAAAAGGTGGGGGGAAGGAGGGTATTTTGGGGGCAACAAACCAAACTGGTCTGTCGCATGTTAAGTCAATTTCACGTTCACCTACTGGTCACCACGAAGCCGAGGAAAG
0.4861774321202317 ATACCTGAGCTCGGTGAGTTGGGGTCAGGGATGGGAAGTGCTTGGGAGTAAGGTGGGCGTCATTTGGGCAGAAGGGCTGGGCCTCGGGGCAAGGCCAGCCCAACTTTGGGGACATCTGTCTGGGTGTGGCCCAAGTGTCCCGTGGAGGGTGTGAGTCGGGGCTGCCCCCTTCTCTCTGGTATAGGAACGGGGCCAGGCCTGACTGAGGAGAGCAAAGCCCAGGACAGCATCCTGCTGCTGCCCGGCCCTT
1 GGAGGGAGAAAGGAAGGCAAGAAGGAAGACAAAACTTTTTATCTGTCAAGATATTTTTCCCAATATGATGTCACCATTGTACCCTACAATTTATGAAAGTGCAGATCTCAgggaggggcaggcaagagcctgctaaggtctgagaatgttctacatcttgatctgaaggtttcacagatataaacatagatgaaaattcatcTTCAAAATCCATCAAGCTGTAAGCTTTACTGACTGTGATGCCTCAACA
1 aattgtatgcatagttttactattctttatcattttgaagtatatgtgtttatctatctatacatgtataggagaaagttctaaaaaattatataccaatgttataactcagcggttatctctgagtagtgaaattacaggtgacttttattttcaattttttgtttACCTATATttacttcctccctccttccctttccttcctccttccccttcccttttcctccctcctgttcccttccttctcccc
0.1688607450622837 ACCCCCTGAAATGCCTGTGTGGGCTGCCCCCTGGTCCTGGGAGGGCTCTCGGGAGGCTGCTACCTCTGGCCGGCCTGAAGGCACTGGCGCCTGGGGTGTTCGTTGTGGGTGAGATGGAAACAGAGAAGAAAGCTGCAGGCCTCCGTGGGGAGCGGGGCTTTGGGCCTCTCTCTCCTCTCAGCGTCCTGGGCTTGCCCCACTCCTCCTGCAGGTGAGCCGTGGGGAGGCCTTGAGCGCCCCCTGGAGGTGA
0.1681165789102112 CACAGCCTCGCGAAGGTGGAGAAGGGCAGGGGCAGGAGAGGGCTGCGGAGGAGGGGCCACGGTGCAGCAGGCCGTGGGGACTGCCATGCACTCTGCCTGGTGTCACATGCCCACAGCAGCCTCGGTGACGAGAGCACGGAGCCCAAGAGGTGGGGTGTCGTGGCTCTGCCCAGGATCTGAGCTCATTGGTCAAAGCCCGGGTCACCATGCACAATCCTCTGGCCTGGCTGGGCCACTGCCCTCTGTCCAT
0.1967279705013853 CCCGGCACAAAGCTGAGCAGAGCCCATCGGGGCCCAAACGTGCACTCACAGAGGCCTGCTCCTCGTGGGGTGACATCAGAACGACACCCGCAGAAACCCAAAGCCCAAAGCTGCCCCCGCTTCTCCCTCTTAGACCATCGAACCTCATCCTGCAGATACTCAGGCCACACACCTGCCACCAGCCTGGCCCGAGCGCCACCCCAACCCCTCTGAGCCCACGCCTAACACCCCACAGCGCCTCCTCTTTCTC
1 CCAGAAGCACCTTTGGCAGCCCCGCGCCCCTCGTCTTGCTCTGCGTCAGCACCTGAGAATGGGCGCTAGCAGGGAAACTGGCTTTGAGGGGAATGGTCGGGGCAGCTTTGGTCCTGGGACAGGCGTGTGGCCTGTGGGACAATCTCTTCTGGGGGCACCTCTGCCCAGGTGGGAGGAGTTGCCAGGGTCTCCCAGCACTGCCAGGCGCTTTGCTGGGGCAGGGGGTTATTCTATTGCTCACAGCCCTGAC
1 ggaggggaggaggaggaggaggggaggaggaggaggaggaggagggggaggaggaggaggagAAGATAAAAGCAGCATGTTTATGTAAATTTAAATTGTAACAGATAATTATAAGTAATCACAAATTTCATCAAAACCACATTTTAAAAGTTATACTAGAAAAATGTTTTTCCTGAGATGACTTCTCCTTAGTCACAGTGAAACCAATGATGGGCACACAGGGACCTATATTTGCCAAAGCAATCATTCT
1 aaggaatgggaaaagggaaggaGAAAAAAAGCACTGGTTTATAGGGAAGAAAGGGAGTTGTATTCCTAAGTAGATAATTTGGGAAAGTGACTTGGGAATTCCTAGTGAACTGGATGGTAAATATCCTTTATGCAAAAACAGAGTTCACAGAGAAGACTGAAATAAAACACTTCCTTTATTTAAATAATTCAAATATGCTTAAGATTTATTGGGTccctccccctccccctccccctccccctccccctcc
1 gagagggaagaggagagagaagagagggaaaggaaaggagaaggaaagAAATTGCTAATCATGGTTGTCTCTAGAGAATGCAACTATTTTTACTGTATAGGAGCAGTTATTACTTTAGTCATTATAATTCGTTACAATTTTTTTAAAGAAAAAAGAAATTTTGAAAAGTAATggctggtccaagtgaagtgcagtgatgtttaaaactcattgatcacagtcagttacagttttctttgtttttttctcc
1 AGGGGTGTGGCAGCACAGGTTCCCTGGACCAGCTCAACTACCCCCAACCTGGCTGGTAGCTTCCTGGGGAAGGTGGTCCCCCATCGGGTGGCTTTTGTTCCTCTCTCCAGGCAAGCCTGTGCCTGGAAGAATTCGGCTGGCAGGCCCCACTGGGAGGACAGGCGGTACTGCCTCCTCCCCGCCCCCAGCCCCAGGTCAACAGGGCCTTTGTTCTACCTGCACACACCGGCAGGCAGGCGGGCAGAGCCAG
0.2825580888045107 CCCCTCTCCTCCCTGCTACACCCTCTGGGGTCGCCTGGCCGATGGCCTTTGCAAAACTTGGTTGAAGTGCTTGGCTGAGGTGGGGTAGGAGGAGATTGAGGCGGGCGGCTTCTCTCAGGGGGTGTCCCCCCAAGCTGGCGCTGGTGGCTGGTGAGGCAGCAGATTTTCTGCCCTCCTCCCGGGGAGGGGCGGCGGCCGCGGAGGATGCTTGGCTGAACCTTCAGGGCCCGCCCGTTTGGACCTTTCAGGC
0.8547347545075764 GCGAGGGCTTCCCGATGCAGGGCCTGGGGGAGAGGGTGAACTAATGCCTCTGCAGTGCCCCGTGGGGAAGTTCCGCATACTCGGCCAGAGTGATCGGAGTTGGCGGCTGTCTGGGGGAGTTGGGTCAGGAAGCCCCTTCTTTCGCCACCGATGGGGCACGTCCAGGGCCCGGCAGGTGTGCCCTGGCAGTAGATCTTCCCTGGGAAGTGGAGCGCGGGCCAGCCCTCGCTGTTCTGAGCGAGGGCCTGTC
0.7396395931707009 ggaggaggaggcggagcggagagggaagaggaggggatgggggaggggaggagaggaggatggggaggagggAAGGAGGGAGTAGTttatttcatttacccatctgagtagcccaaggttggaactgcattctgttgatggggaaacggagcagttaagtaacttacccaaggtcacacagctgacaggctgaaacaagatccAGTGTGACACTCAAACCGAAACCGCTACACTCAAAACATGCTATGCT
0.04822662450223694 GGGGGGCAGGCAGGAGGGTGAGGAGACGGGTTGAAGTggggaagggggaatgagggataggaggaaggggcaaaggggGGAACCCACCCCCACCCTCTCCACCTGGAGCTTGCCTGATTCGCTTCGGCCCCACTGGGGGCACTGAAGCCGGTACTCAGGACACTGGATGTCCTCACCTTGTCATCATCCGAGGGCTCCTGGATGGTACAGTTCTCACCCAAGGCGTCTCCCAGGATCCTCACTAGGGAGC
1 TGGGAAGGGGGTTGGCAGGGGAGGGTCTGGTGGCTGGTTCTGTAGTCTCCAAGGTAACAGAACGCGGCTGGGTCCCGCAGAGCGATCATCGGGTTCCGGCCGGCGGCACGTGATCTGTCGGGACTCTTCCCCGGAAGAGCTTTCCTTGCGGCATTTTTTCACGTGGTTCTTGGCCAGCTGTCCTTTGCAGTTGAAAAGCGGCGGTTTGTGGGTCATTAATAGTCGACGGCGTCTGCTCCTCTCGGGGAAG
0.2141497990796158 GCCGCCGGTGGGGCCTGGGGGACGTACTCACCCTTCCCGATCTGGACGAAGCCCAGCAGGATGATCAGGGCCAGGGCCAGGAGCTTGGCGGCGGCAAAGGCATCCTGGACCCGGGTGGCGGCCTTCACGCTGTAGCAGTTCACGGCCGTGAGCAGCACTGTGGAGACAGAGGGCAGCGGTGAGTTCCACGGGCAGACAGACGCCAGCTCAGGGGTAGGCTGGGAGGTGACGACCCCACCCCCACCCCAGG
0.1452319540517665 GCACCTGCACTCCTGGGTCAGCCCCACCCCTCGGCCCCTCCTCGCAGCCTGAGTGAAAGGCTAATTCACCACCCGCCCACACGGGCCCCACCAGCGCCCCTCCTCCTGCCATGCACAATGGAACCCGTGTCCCTGAAGGGCTGGCGCTCAAGGGGGCAGGAATCTGGGGTCAAGCATCCCTGGACTGCAGAAGAGCCCCTGCCCCCAGCACATGGCCATGTCCAGGACCAGAGAGCCCGCAcccctgccc
1 CCCTGGCGACGCCCGAAGGGTTTGGAGAGAAGAGGTTCCAAGGAGCGAGCACCTCGGAAGACCTGAGCAGCTTCAAACAGCAGCTTCTCTGCCCGCCACAAGGGGGTGCCCTGCACCTCGGGGAGACCTCGGGGGATCCTGGATCAGCCCTACCCTCTGCAGCCCCGCCTGGGACAGGGCCCGACGTTGCCAGAGAAGAGGCAGCGGGGAGGCGCGAGCGAGACGGGTCCACACTGTGCCCACCCAGGGC
1 TGAATGGGATGTCGGTCTGTCCATCCACCACAAACACTGAGGGCCGTACGACACTCTCCTCCATGCCCAAGGTGTCTGGAGCAGGGCTGACACGCCTGGGTCCTTCAACCTCAGAGGAAACCGAAATTGCTCAACACTCCTGGGCTGTGCACGCTGCGGACAGGCACCCGTGGGCCGCCTTTAGAGCTGGGGTTCAGCCCCACCCCTTCCCCCACTCACCCTCCTCTTCTTCCGGTACCCGCCGCCCCCG
1 GTGAGAGGGGGCTGGGGAGGACACAGTCAGTGCAAAGGCCCAGCGTTGCCAGGAAGGGAGAAACGGCGCGCGGCCGAGGGCCTGTCCAGTAGGCTCACGCCCCCTCTCGGCCGCAGCGGGAGATGCAGGCGCAGGACAGGCAGCTGGCAGGGCAGCTGCTGCGGCTGCGGGCCCAGCTGCACCGACTGAAGATGGACCAAGCCTGTCACCTGCACCAGGAGCTGCTGGATgaggccgagctggagctgga
0.8458590513967009 CTGTCCATCTGGAAGGCCCAGCATGAGAGGCCCGGCCGTCCTCCTCACTGTGGCTCTGGCCACGCTCCTGGCTCCCGGGGCCGGAGCACCGGTACAAAGTCAGGGCTCCCAGAACAAGCTGCTCCTGGTGTCCTTCGACGGCTTCCGCTGGAACTACGACCAGGACGTGGACACCCCCAACCTGGACGCCATGGCCCGAGACGGGGTGAAGGCACGCTACATGACCCCCGCCTTTGTCACCATGACCAGC
0.1645166115586069 AGGGGCAGGGTGTTTGGGGCAGGGGCAGGGTGGTCAGACAGGGTTAGGGTGTTTGGGGCAGGGTGGTCAGGGCAGGGGCAGGGTGGTCGAGGCAGCATCGCACAGATGCACAAGGTACAGCAGAGTGTCGGAGAGGGGCCCAGGGACCCGCCCCTGTGGTTTGGTACCAAGTGCAGCTGGCTTCATGCGCTGGAAAGGCGTCAGGCCATGCCTGATCGATCAGACAGCAGCCCACAAGCACCAGGACATG
1 agaggagagggcagggaagggggggaggaggggatggggagggaaTGAAATAATATAAATTCACATGGGGAGAAAACAGTCTGAATTTGTGACAAGTATGACATAAAATTTTACTTAGTTTGCATATGGTAACACAAACCCATTGTTACAACTTTCTACTTTAGTAATAAAGTGAATATTGTGCACCTTAGGAGAAATTACTCACATATTTACATTTTACTTTCTTGCCTTGGAAAGGTATTTTTAAAAT
1 CTGTTAACATTTTAGGCAGACATTTAACTTTCGAACCCAAACTCTACCATAGTGATGAGGCTGTTACTCAGGGAAAGAATCCCATGGAGATCATCTCTGAAACTTCAAGAAAATTAGCTATAGTGGTCTCTGACAAGAAGACAACGGGGGCATAAAAGATCCTCCCACTcttcctccctccctcccttgcttcctaccttccttctctccctccttcctttcctccttccatccttccctccctcccttc
1 TTCAAGGAGGAAGGAAAGGGGCTGTAGAATTGGGCAGGGCCAGCCTCGGGTTTTAAACAGTCAAATACAAGCTGGTGCTGCCACCCTGCGGCTGCAGCGGGCATCACAGGTGTGGACCACCTGTGCATCACAGATGGTCAAGGCCTCCAAAAGCTGGGTGAACAATGGGTGGGCTGAGCCCTGTCTGCTCCCCACTCCCCACCAGGAGTCTGGACCGCCTGGATTCAGTGGACATGCTGCTGCCCTCCAA
1 TGGACTTTGAGTCCCAGCTCAAGGTCTGCACTGCCTCAGCCCCCAGTGCCGGCCTCATCCTCCTGCTCAGCCCTGAGCATCCTCACGTTGGCCGTGGGCTCTCCGTTAGCCCTGCTGGGCGTGACCTCCAGTTCCCTGTTCATAGTGACCGCCAGCCCCAGCCACAGGTTAACAGTCAGCCCTGGCCATGGGCCATAGGCCTCCAAACTCGGCTTCGCTGAGCCCCTGCACAGACATGGAGCTGACGGCC
0.7328402599801835 TATTTTTGGCTTGTCAATTTATTTTAAATAACTGCTATCGGAAATTTCCCTTTTACTACTATCTTTGGAGTAAAAAATTAATATGATGGTTTTAGTCACCTTAAATAGGTCATTAAACATCTTTTCAAAGAACCCATAGGTAGGTTAAAGAAAAATATTAACTTTCACTCAAATGTAAATAATTTAAAAGGccccctccccctccccctccccctctccccactgtctccctctgatgccgagccaaagc
0.6657592972754875 CAGGGTGGCCGCTGAGGCCTGGAGAAATCTGGGCCTCCCCTGTGCACCATCCAACTGCGCGCCCCAGAGGCTCAGGGCGCCCCGGGAGTGTGGGGGTGTGGACAGATGAGCAGAGCCAGAGCATCTCGGGCAGAAGAGGGGACCTGGGAGGGGGCCGGGGAGACAGACAGCGAACAGGGGTGAAGCCGGGGCCGGACGGAGCGCGCAGCGGACAATACTGGGTTCAAAGGGGAGAGATAAGGCGCAGACT
1 aaaaggaaaggaaaaaggaaaaggaaaagggaaagggaaagaaagaggaaggaaggagGAAAAAGAAAGAGAAAGAAACAAAGAAAGAAAGAGTATAGCTATAGTACTTTATAGAAATATAAGCAAGAAGTGCTACTAAAGATATAAATACTTCATAATTTACCTTTCCAAATATGTACACATTTAATAGCATCAAGATAAATTTTAaaaatcacaatcaaagtcttaatttaaaacatctttcttggta
1 cactcccaccttcccagtgctcccatcttcccaccttcccaccactcccaccttcccaccttcccaccttcccaccttcccactgctcccaccttcccaccttcccacattcgcaccttcccaccttcccacattcccaccttcccaccttcccaccgctcccaccttcccaccttcccaccactcccaccttcccaccttcccactgctcccaccttcccaccttcccaccactcctaccttcccacct
1 GCCCCCCGGGCCAGGAAGGAGCCCAAGGAGGTGGGGACGGGGAGGGGACTCAGACCGGGGCCGCCTGCCTGGCCACCCTCCGGTACCAGCCTGTTGGGTGGGGGGTTTTCTAGATCACTTTCCTCGATGCCAAGAAGAGCCTGAACCTCAACATCTTCCTGAAGCAATTTAAGTGGTGAGTGAGGGAGGTAGCCCCCATCCCAGGCCACGGAGCCTCGCCTCCACCTGAGCCTTCTGACTTGGGCCCAGC
0.4467473460716206 GCCGCTGTCGCCTGCGCAGTCGCAGTGCGGCTCGTGGCCGCAGCTGCCTGAAAGGGCAAAGGGACGAGTATACGCATGCGTCTATTCCTAGGCTGCTGGCTCTCAGACCCGCAGTGAGGTCTGACGTCATTTCCTGCCGTAAGTATACAGTGCCTCCGGGTCGCGGTCATTTTGAGCCCCTGTCTGGATGACTTCTTGCGGCTGTTCTACCCCTCCCCCTCCCCGCGGTACCTTGCACTTTTCTCCCTCC
1 CTCACCCCTCAGGCTACCAGCCTCCCCTGTCAGACCCCCTGAGCCTGCCTCCCACCTCAGACCCCTGGGCCAGCCTCCCCACTCAGGCCCTGTGGGCACTCATGCCTCCCCCCTCAGATCCCCTGGGAACCCATGCCGACCCCCATCAGAACCTGCCACTCACCAGGTAGGCAGCGATGCCCGCCCCGATGAGGAAGCCGGCATACACGTCCACAGGGTGGCTGCGGTACTGCGTGATCTGCGTGAGCCC
1 GCCTCCCTCACGGGGCCcagcagccctgctgggtgtgaatttccccaatatcacacaggaccaggaagctgactcagggcggggaggagtttgccaaggccacccagcgaggaagccagtgagccgagatccagcccggCCCACGCGCTTTCCACCTCCTGCAGGGAACAGTACAGGGCAGAGCCTGCTGGGGTGGGAGGGACTGTGGGAGTGTCCAGGGGAGAAAGTGGTGTCCAAACAAAGCCTTGAG
1 gggaagggaagggaagggaaaggaagagaagggaaggaaagaaagaaaggaTCGATTGAGCCAGTGCTCCAAAGCATTGGTCCTGAGAAGGAAGAAAGCAGAAATTCGCCTCCCATGCTTCAGGTGGGAGAGTTATAGTTCAGCGTAGCAGCTGCTTGCCCAGAGACACACAGCGCAGATGGGCAGCTCCTGTCCCAGTGTCTTCTCCACCCCTTTAAGAGACCCTGGGGCAAGAGCTCCCTACCTGACC
1 ccacaccccaccccCATCGAGGACTGACCTGGGGCTTCTCGAGGAGCTGACAGCAAGTAGAGGAAAGCAGGGTCCCCATCCTGCCGAACCCCGTAAGAGGCAAGGCTGCGCTCAGGCACACACAGGCACCGTCCGATGACCCAGCGTTGCACGGCTGGCGGGAAACCGAGCTCTGAGAACACCTGTGGCCAGAGCATCAGGGCAGGTGATGTCACCTAGGCTCCTCTGCCCCTGGCAGGGCTCCCCAGAC
1 gggaggggagaaggagaagggaaggaagaaggaagaaataaagaagaaagaaaggaaatatgttaagatttaaattgaaattgcaatacatttataggagattctaaagatagatctttaaaatatcaagtcattaaattataaataaaacatatcctttattaacttaggtcttttaaaaattatctcaaacatattttgtggattttagagaaaagattatatatgctttttgttagaattattccta
1 ATCCACGCTCTCCCTCCAGTCCCAAGTGACCTTTCCCCCAGATCCCAGGGTCCAGGCCCGCCCTCGGCTGGCAGGTGTGGGCACAGAGGCAGCTGGGATTGGTCGCAGCTGGCGGAGGCGCGTCCCAGGCTCCGGCAGACCGCTGGAACAGCTGAGCAGAGCAGGTGGACTGCTGAGATAGACCAGGGACACCAGGCAGCCACAGGCCTGTCAGACCAGGACCCTTACCCTCTAGACATGGCCTCGGTCC
1 GAAGAACATCTACTATAAGGTGGGGCCCTCTggggtgggggtgggggtgggggtgggggtggggTGGAGGGAGGGTCCAGTGGCCCCAAGGTGGGTTACAGAGGCTAATGCCGGCTGCCCCACCACCTACAGAGTGACTTGACCAAGGACGTCACAACATCAGTGCTGATAGTGAACAACAAGGCCCACATGGTGACCCTGGACTATACGGTGCAGGTGCCGGGGGCTGGCCAGGATGGCTCTCCTGGCT
1 cacttcagcctgggcaacagaacaagactctgacaaaaggcaaggaaagaaaaggaaGGGAGGGGAAGGGAAGGGAAGAAAGAAGAAAaaggtagaagatgtgcctaatgaaatatgtgatctagctaaggagatttccaggcaaaatgttacaggtagtaccttatttcttcttcctgcttagagtaaaacatgagagttgagaggcaagttataaactgacaggagctctgttaaaccaaaaatagtt
0.2955539113046078 CCAGGAGCTTCGTCCCGGTGACAGGCCCGGCCAGACACCGGTGCACACTCCTGATGCTCCCTGCGGGGCTGCTGGAGGCTGGGCGGGGACCTGGGGGTGAGGGGGCCCCACCTGCCACCCTGCGGGAGTCTAACCCCAACTTAACCCTAGGGCACATTGGCCTTCGCCACTCCAGCCGTGTCTCTGGGGAGGAAGGCTCCTGGGGGAAGGTTCCAAAGTCCAGGACCTGCCTGGGAAGCAGCCCGCCACC
1 GAGGGAAGGGGGCCAGGCCGAGGCCATGGCAGCGCGTTCCCTGATCCCGTGTTCTCGGCTCCTCGCGTCCCACTATCGGCTGTCCCTttcgtgcgggactgacggctcacagaacagttacatttcaatatcattcgactgaaaaccatcctgtggacgccgtgcgagcattgtccccatttcacagcttgggagctgcgaccagagaacgtgggcgcgcctcgcaaggccgtgaccgcggcgggactcg
1 CGGGGGATGACTCTGCCATTCCTGGGTCCGCTGTGTTAGGCTGAAGGCAAAAGGAAACCAAGGCCTGGGAGTTTTCCAGGAAACGAAAGCGAAAGAGTCAAAGTTAGCGGCCCGGAGTTGGCGCGGCCCCTGCAGTCCGGCGGAGAGCGGAGCTGAGGATGGCTGTGCCCGGCTCCTTCCCGCTGCTGGTCGAGGGCTCCTGGGGCCCCGACCCCCCGAAGAACTTGAACACCAAGTTGCAGATGTACTT
0.02574177838318638 GGGTGACCTGCCTCCCTGCTCTGCGTGACGCAGCCCTAGGCCCCTGTGAGGCTAGAGTCACCCCCGCAAGGTGGGAGGTCACGGCCCCTGCCTGCACAGGCAGCACAGCTCACATGTCCTTCCTTGAGCCTTCTCTGCTTCCGGAGGCTGCCCTGGGCGCCTGACCTTGGAGCCATCATCTCCAGCTCCCCAACCCCTCCCCCACAGCCCTGGGGCAGACACCAGCCTGGGGAGGGGTCTCCATGCTCAG
1 CAATGATTTTGATGGGATGATTGACTTCTGCTTATGGAAAACAAATATTAGAATTGGACATAATGCACATAGAAAGTATTAGATATGGAGAGGTTTTTCAAAGTGAAGGGGACACATCACATTTCTGCATTTTACTTGCATTAAAAGAAACCTTTTTATATACTACCATATTTGTTCCTATCTCTCCCCACGCCCACCCCCCCCCCACACACACATTTTTACAGTTTTACCTTTTTGAAGAATTTTTTTT
0.08044645207698806 CCTTGGGCAGGCATGTTTGGAGATGAGAGAGGCTTCGAGAGGGTGGGTGCTGGGCCACAGGGGTGCGGGGCCAGCTCAGGCACTGGCGTGGGAGCCCTGGGAGACCCCTTCCCCCACCCTCCACCAAGCACACCTGTTTCTGTCTCATAGCACATGTGACAATCATCTGGACAACAGCCACAAGGGGGCGCTCGGACCAGGCAGCCACTTTCCTGGTGCTCTCTGGGCCCAGCTGGTGCTGTAGGGCCAC
0.9680832151043292 AGCGAAACCGTAAGCCCTGGGGTGCGGGGGGCGGGCCGGGAGGAGGGGAAGTGGGGAAGGTGGAGGGAAGGCCGGGCACAGGGGTGAAGGCCCAGAGACCAGCAGAACGGCATCCCAGCCACGACGGCCACTTTGCTCTGTCTGCTCTCCGCCACGGCCCTGCTCTGTTCCCTGGGACACCCCCGCCCCCACCTCCTCAGGCTGCCTGATCTGCCCAGCTTTCCAGCTTTCCTCTGGATTCCGGCCTCTG
1 GACTATACCCCCATATCACAGTGGAGGTGTCCGTTTGATCAGCCTTGAGCTGGACACCAGAGCTTCCTGGTGACTCACCGGCAGCCCCCAGGCTGGTCAGGCCCGGGAGAAGGACGCCAGTGTACCCTGCCTGCTGCTGTACCTGCAGGACATGCCTGGACACCAGCGTGCTCTGGGAGGGAGCTGTCCTGTTGCCTGCGGTGGTGGGGACAGGGGAAGGCTGCTCTGAGCTGTACTTGGGATGCGTCTG
1 gaaggaagaaaggaagggaggaaggaaggaaaggagagagggagggagggagggaaggaaggaaagaaagaaaaaaacaaaACACACTTGAGGATAGGTTGGACATGGACATCACCATTTTACAACCTTTGTTTTCGGTGGAAAAAAAATGAGTTTTCCTCTAGGTAGAAATGATCTTTAGCTTTTTGTTATGACTTCATTCTATTTTGTTGCATCTTTTTTTCATTGTGTCACTATTGAAAAGGTTCTC
0.9201902331840831 gagggaaatgtgggaggggagggaggggaatggggaaggggagggaagggaagggaagggaaggacatttataaggtgattctaaaatttatatagaagtgcaaagagccaagaatagctaagtcacccttgaagatgaaagataagagaacttgctctaccagatatcaagacttattataaagccacagtaattaagacaatatagaacttatgcagagacaaatagaccaactacacaaaacagaAG
1 aagttgagttgggatcaatttagaaaatatgacagtggagctcaaaaaaaaaaaaaagccaaaaaaggaaaagtattcagaagcgcatcagcttaaattttttaaaactggcaacactgaaaatgaacagttttctgttgaggtctctcataaaatttgtaagcaagagaacttcacaaactctttttcttttcccttccctccttccctccctccctccctccctgcctccctccctcccttccttcct
0.5725566656122968 AAACAGCTTCTCCCCACCCCCACCCATCTCTTCCAGCCAGATCACTCTCTCCCCTTCCCCTGGGGAGATGGTGGTCCGCAGAGACACCACCCACCCTGCCCCCGCCTGGATTTGGCAGTGTGGCAGGCAGGTAGTGGGCCATCCTCCTGCCTCGCCAGATCAGCCTGCGCTCCTTCCATGCCCGCTTCTTCCCTCTGGTTCCTTCCTTTCCTGCCCCACCCCTTCCCTACGTGTCACCTCTGTCCCTCAA
0.7397818882980494 GGCATTTTCCGGTGCCTGCACCAAATCAGGAAGCTCCTAGTCTGTGCCCCAAGATCACGCCTCATTTGGAGGTCACACGAGGCCTGGCTGGTGGGTCCTGCCAGGGCACTGGATCTGGAGAGTGGAGGAAGCACTGGGTGCCGGGGTTTGGGCTCGGGGCCATGTACGCCTCCTCCTACCCCCCACCCCCGCAGCTGTCCCCTAGAAGCCACCTTTGcccacccccaccccaccccaccccaccccaGCT
1 TCCAGGATGGCTGAGGTGGTGCTCGGGGTGCACGAAGTCTCCAGTGAGACCAACCGTTGCTCTAGCACAGCCAGCTCTGTCTGTACAAGGGGCCGAGCTGACCTGCCCGGAGAGGCGCTGTCATGGCTTAGCTCCCCAGCCAATGTTGCTAGGCGCTCCTCGAGGCTCTGCACGCGCTCTTCCAGCATGGTCCCAAAGCCGCCCACTCCCCACCCCCCCATGTCCAACCTCAGACAGCATCCCCTTGCTC
0.6479755607490174 ACTTTATACAATTATTTTTTAAAGTGGAGGAAAAGAGGGAAGGAAGGAGGGAAGAAGGGAAGGAGGGAGGGCAGGAGGGGAGGAGGGGGGAAGTACTGTAAAATTTGGTCCACCAGGCAAGATCTATGTTCTTCATCTAAGTGAAAAGTAAAAGATGTTAAGCAATATTTTCAACGACCTCTTGATTTGATAGGTAATTTTACAAGAACTGACTGCCCATTTGTATGTTTTTAAAGCACTTGGCTTAAAG
0.5708441008811944 ACCTGGCCCTCGGCCCAGAGCTAAGGGCACTGGAGGGCAGTGGTCTGGCCATACTggggagagggggagggggcccaggtaggagggtggatgaggagtggggCCCTTTGCCCTCGAACACCCTCCTGCCCCTGGTGGGCCAGGATGTGACCCCAACCAGAGGCCAGGTTGCCAAGTGAGAGCCATGGGAAAACATGGGGGTCAGAGGTCATCCTGGGGCCTCCATGGATGGGGATGAGCTGGACTCAGG
1 GATACCGCAGCTGCAGTCGCCGTTAACCGCAGGCTGGAGGGAGACCCTGACCCCAGCTCCAAGCCCCCAGTGCAGAGCCGGAGAGCCGGGCCCCAGAAGCTGTCCCTGCAGCACCACCTGCTGGGCGGTGCTGGAAGTGTCGCAGCACCAGCGGGGGCTGGGGGCGCTGCCGCTGGGTGGTGAGGACCCCGGGGTCACGCATCAGGTTATGAACTCTGACTCTGCCATTTGGTCctgaccatagtctcgt
0.3274983141081884 GGTCCATCCCCTGAATGCCTCGCTCCCTCTTCCTCATCCCCTGTTCATGGTGGGGGACATGCTGGTGGACAGACAAGTGGCTACAGAGGGCCAGGGGGAGGCGTCTGGGCCTCCAGGGCAGCAGATGACCCCGAATGTGGGGGCTGCGGCCCTGGGAGACCCCGTGAGAGGCCGTGTATGTGTGAGGTCGGCCTGTGTTCACCGGCTGTTTGTAGGGCAGGAGTCCGGGTATGTGTGTGGTGTGTGTGTC
1 CCCTGGCTCCCTGCAGGGTGCTGGATTGCACAATCATACCACCCACAGCTGTGACCAAGGCAGGTGACACACGCTTTCTGGGAGCCACCCTTGGGCCGTGCAGCCTCGTCACACACACAGGGCCACCGATGGCATGGATGCACCCCGGCACATCCTGACTGCGAGGAGTGACTGCtcctcacactgccacttccgggctgtgtgactctgggcaagtcacttcccctctctgagcctcttttcctcttct
0.754119477318234 GGCCCGGGACTGAATGGAGGGCCCGAGGGGCGCAAGCTCGGGGGTCAGGATCCCCTTTCCAGGGATCTTCCGAGGCGGGCGGTAGCCGGCAGCCGCAGGAGGAAAGCTCTGGGGCCTCCCTGGCCCTCCCCCACTGACCCGCTTCTTGTAGTAGATGCGCCACTTGTGGTATTCCCGCATCACCACCTCGATGCGCCGCTTCCAGTAGTTCCCCTCCAGGACCACGGCCTGGGGTAGGGGCCGGGGGAGG
0.6154993000914027 AGAGAAGCAAAAGGTCAGATGTCTCCTTTTCCTCTCCCCTTCCACCATCCTCCCCCTGCAGAAACATTCGCCGAGGAAGGTACGACCCGACCCAGCAGGGGGCAGTGTGATGCCGGCCACGTCATCCCTCCCGCTGTCCTTGTCTCCTCCATCTCATTCGTCACCCCGCGTTCTGTTGATGGGGAGCGGGGGCTGATTCCCCCACCCCTGCTGCCAGGCTGTCCCGGCAGGGGTGGGAGAGCCTCGCTCA
1 GGCAAGGCTGGTGTCCCAGCTGATGTGCGTCCCCATGCCTCTCTGCAGGTGCCACTATGCACGTGAAGAAGTACCTGCTGAAGGGCCTGCATCGGCTGCAGAAGGGCCCCGGCTACACGTACAAGGAGCTGCTGGTGTGGTACTGCGACAACACCAACACCCACGGCCCCAAGCGCATCATCTGTGAGGGGCCCAAGAAGAAAGCCATGTGGTTCCTGCTCACCCTGCTCTTCGCCGCCCTCGTCTGCTG
1 AGTGAAAGGGTTGAGGACATCCCAGGCAGAAGGGATAGTGTGAGCAAGGCATGAAGGTGGCACTTGGGCAGGGGCAGGGAGTGGGTGGGCAGGGTGGAGGCTGGAGACACGGGCAAGGGTTAGCTCCAAGGGAGCCTGCAGCACCATGCCAAGAGCCTAGGGCCTGTCAGGGATGAGCAGCAGCCGAGGGGTTTTAAACACTGAGCGGCTCAGTCAGATAGACTTTTCCATAGGTGCCTGGCAACAGTAT
1 cggtggtggcactgagtctctgagaaacgtaatgattgcatagggAAGCCAGGCTCTCTGCCGGCCGGGCCGGCGCAGGGCTGTTTTCAAGGGAAACTGAAACCTGAAACCTGACCTCCCTGCCCTGGCTCTCAGCACAgcctcctgccaccctcccactatccccaccctcaccccccgccccccgccactcccatcccccttctcacccATCTGCCTGCAGGCTGGTGGCTGGCCACTACTGGAAGAC
1 CAAGCATCAAAGTCCTCTGATGTCAGTCTTGCCTTTTGCACCGTGGTGGGAAGACGTGAAGCAAATTCCTCAAGTGGCCAGTTCTCTAAAAAGCAGCCACTAGAGGGCTCTATAGGGGGGctctctctctctctctctctctctctcctctctccttctctctctcctctctctctcctctctctcctctctgtctctctctctgtctctctgtctctctccgtctctctgtctctctctctcctctctc
1 GTGCGAGGCCTGGCGGTCACCAGAAGAGAGAGGAAGGGGATGGCAGAGGCACCCAGAGCGAGTGTAATCCGGTCATGTGAGAGGGACTGGgtgtgtgtgtgcctgtgtgtgtgtgtgtgtgtgtgtgtgtgtgtgtgCTGGGTGACAGGTGCCACCATGTCTGTGATTCAGCACAGCGACCCCAGGGGGCAGTGtgggcctgggttagggttagggttagtcctggttccacaccgcaggtggccctgtg
0.2632831078665422 CCCCAAGCAGTGGCCCCAGTTCCAAAGCCTCTCAACAATCCTAAAATGAGGTTCCCAATCCCTGGCCCCCTCCTTTTTTCCTTCTTTCCCCAACACAGAGAAGACAGCATCTCCCCCTGCTGGGGGGAGCTGGAAAGCCAGGCAGGACGCGGGGCCCATTCCACAGGCCCACTCAGGACGCCCCTCCTGGCCAGGGCTCAGCAGTGGCTCTCAAGCTGCCAGCCTCCTGCGTTGGTGGACACGTCCAGCT
1 GGGTGTGGGTGTTGGGGTGTGGGTGTGTGGGTGTGGGGGTGTGGGTGTTGGGGTGTGGGTGAAGGGGTGTGGGTGTGGGGGTGGGGGTGAATTGTCCGTGGGCATTGGGGTGTGGTGTTGCCTGGATAGTGATGTTTGATCTGAGCTCCTGGTCTCACGGTTAGCAACGTGGTGTCTTGTCATTTCCCACCTACTGTTCCAAGCGTGATCACTAAGGTGAGTGAATGGCTGTCAGTTTCCTCCTGGGTTG
1 GCTAAGCCTGTGGCCTTCCACAAGCTGAAGCTGACCAACAACATCTCTGACAAGCACGGCTTCGTGAGTGTTGGGGCAGGGTGGGGACGGTGCAGGAGCTTGTTGACCCAGCACTGCAGCTGAGCAGGAGAGCAGGGCGGCAGGATCTCCCAGGGGGAAGCGCTGGGCAAACCCCCAGAGTGCCCCTGCCCGGGTCACTGCCCTGTGGTCTACGTGGGCTGGGCCTGGGCCTGGGCCCCAGCGCTCTCCT
0.7432029459428489 TCATGTGCCTGCCCACAGACCTTGATGGTCAACCAAACAAGGTGGGAAGGATGATCCCCCAAAGGCGGGTCAGAAAGTGGGGTGGGAGGGctgaaagctgggcagggacggctgtgtgcgcattttacagatgaggaatgggaagcccagacagaaggcaaggccacagaaccgggaatggtggagtctgggctccagtcagaggcccaggctgcctctcttcactcccaggactcCAGGCTGGCAGGGG
0.286954593520633 ATCGCGCTCCGCCGCTAGACTCTCGTGATAGCTGAGACTTTCCCCGGAAGGCCCGCCCCCTTCGCCGGAGAGGCCAATGGGCTAGGGCAACGGTTGCGACGGTTGGATTTTGAAGGAGCCAATAGGCGCTCGGAGCGGAGAGTTTAAGAGGCGTAAGCCAGGCGTGTTAAAGCCGGTCGGAACTGCTCCGGAGGGCACGGTGAGAGGTGGTGGGGCTGAGCCGAGGTGGGGCCGTGGCCAGGGGGAGGGG
0.3918064589060978 CCCCACCCTTCCGGGCAGGTGGAGCTGGAGGAGGGCCGTCGCTTCCAGCTGATGCAGCAGCAGACCCGGGCCCAGACGGCCTGCCGCCTGCTCTCCTACCTGCGGGTCAACGTACTCAACGGGCTCCTGGTGGTTGGGGCCATCAGCGCCATCTTCTGGGCTACCAAGTACTCACAGGACAACAAGGAGGTGTCAGGCAACtgcattcatttaatcctggccagaactgcgggggtgagacaggatgatc
1 CTCCACACCCCTCCTCATCTCCTCCACACCCCTCATCTCTTCCTCACTCTTCCTCATCACCTCCTCACCCCTCCTCATCCTTCATCTCCTCATCTCTTCCTCACCCCTCCTCATCCTTCATCTCCTCACCCCTCCTCATCTCCTCCTCACCCCTCCTCATCTCCTCCTCACCCATCTCCTCCTCACCCTCCTCATCTCCTCCTCATCCCTCCTCAACTCCTCCTCACCCCTCCTCATCTCCTCCCCACCC
0.4584325305235717 GCAGGGGAGTGGGAGGGAGGTGAGGGGGTAAGGTGGGGTGAAGGATGTGGAGGGGTCTCCTGGGCTCTGGCCTGAGCTAGGAAGGGGCAGGGCTGGGTCAGGAAGCTGGGTCTGGGCGCTGTGGTGCATCCTGGGTGACTGTGGGACGCTGGAGGAGGAAGAGTTCCCGCATTTGCGTCTGGGTTGGGACTGTCTAGGCGAAAGCTCAGTGTGAATTGTCTGCTGTGTTCCCGGTGTCCAAGGCCCCCAG
1 gagggggagaggaggaaggaaggaaggAAAGAAAAAATGTATAGACACTCAGCATAAAACAGAGTGAAAACTGAGTTTGGCACTTGTAGTATGTATAAAATTTGAATCACAATCCAAATCTTTCATCATTGCCTTTCTCTTTCAACTATTAAGAAttttttttttgtttaagaaagggtctcattctgttgcccacactggagcgcagtggtccaaccatagctctttggagccttgaactccttgcctc
0.01160146346594405 TGCCATGGGAGAACTAGGATGACAATTGTGAGAGTCGAACCCAGAGTTAAGCCTTTGTCTATGTGGGGTCACCCTGGTTGCATCGGGCTTCCTACACCTGCTCAGCCTAAAAAGAAACCTGCCTTTAAATAACTTCATCCACATGGAGAAATCCCACATGTCGTAGTCAGACTTTCTAGCTCcccctccccttccctcccctcccctaacctcccctcccctgacctcccttcccctcccctctccttcc
0.01135293354180519 CCTGCCTCTCCCTGCCCACACCGCCCGCCTTTCTGCTCCTGCCTCTCCCTGCCCACACCGCCCGCCTTTCTATTCCTGCCTCTCCCTGCCCACACCGCCCGCCTTTCTATTCCTGCCTCTCCCTGCCCACACCACCCGCCTTTCTATTCCTGCCTCTCCCTGCCCACACCGCCCGCCTTTCTGCTCCTCACCGCACGTCCTACTCCAGGCGATCTGCAGGCAGCCTCTTACTCTGCCTgtggtggggtgg
0.5906988736448657 GTGTTGGGGTGGGTAAGTGTTGGGGATGGGTGGTTGTTGGGGTTGGTCCGTGTTGGCAATGGGTGGGTGAGTTTTGGGGATGGGTGGGTGTTGGGGTGGGTCGGTGTTGGGATGGGTCAGTATTGGGATGGCCGCTGGAGGGTGGGGGCAGCTGGGACCTACCTTGGCTGACCCCTCCCCAGACCCTGACAGTCTGAGAGAGGTGGGCTTGGCATGCAGCGGGCAGCAGAGGAGAGCAGTTAGGGAAGTG
1 CTGCTTCCCCACCTGGGAGCCCAGCACTGGCGTTCCCTGCTTGTCCCACATCTGCGTCATCAGTCACCGTGGTTAACAAGGCTCCCCGTGCCTGCCACATGCCGGTCACGGAAGGGCAAGAGGGATGGGATTTGCCCACTGTCCTCCAGAGGGGTTTCCTCTGGGTGCAGAGTTAGGCAAAGTCAGCCTCCCCGCTATGGGTGGGGATATtccctccctgcttccttccttctttccctccctccctctc
0.2053213222100928 TTTCCACCTCCCAGCTCCCACCTCCCACCTTCCAGTTCCCACCTCCTTCCTCGCAGTTCCCACCTCCCAGTTCCCACCTGCCAGCTCCCACCTCTTTCCTCGCAGTTCCCACCTCCCACCTTCCAGCTCCCACCTCCCAGCTCCCTCCTCCCACCTTCCAGTTCCCACCTCTTTCCTCGCAGTTCCCACCTCCCAGCTCCCGCCTCCCTCCTCCCAGCTCCCACCTCCCAGCTCCCACCTCCCACCTCCC
0.66824136806982 CGGCCGCCCCGCCCCACTTAGCCAGGCCGGGAAGGTGTAGGGCAGGCTCCCCCTCCCTCGCTCCCGCAAGTGACTTGACCTCTCCCGTGAGCCGAAGCCAGAAGAGCAGTGTTCCCCTGGGGGAACCCCACATCGCCGCCCTTCGGGGCCCCCAAACTTCCTCTCCTTTTGCCTCACCCTGAATTCCCCGAAGTTTGGCCAGCTTTGCCTCTGCTTGCCTGCCCCACTGCTCTGGGACAGGCCCAGGCCC
0.6291584246323508 AAACACGCGCTGCACGAAAAGGCACGAGTCGTTGGCGCCTCCGCAGCGGCCACAGCGGTCCTCGAGGGCACCCGAGCCCAACAACCCATCACAGCCGGCGCTCTAAAGGGTGAAGGACAGGCGCGGCGTCACTGACGCTGGGAGGGGCAGGACCTGGGGAAAGGGCAGTGCCTGGGAGCAAGAGGACGAGGCCTGGAGGGAAGATGGGGGTGGAGCCTAGGGAGGAGCAGGACCTGGCGGGAGGAGGATG
0.4125415521137457 GCCTCCTGACCTTTAACCCAGTGGTGTCAGGCAACGTGGCCCACCCGCCAGCCGCACCAGGCCCCACCCCCGCAGGTGAAGGGGTGGGATAGGCTGGGCCTGGGCCAGGACACCTCTGGACCACGCATTCCTCATTGCTTGGGTCCCTGGAGCAGCAGGGCCTCCCGAGTGTGGTGCCGCCTGCCACCTAGTGGCCATTTCCACGAACTCCCAGGCCTGGCTGGGGAGCCGGAACTGCAGCCTCCATTTC
1 cgcagacgcTCCCCAGATggaggaggtggggtaggaggagggagctgcggaggcagcagccagaggaggcagaggaACCGGAGCGACAGCCTTGGAGGTGGACCCTCACCCAAAAGTGCAAACTGATTGGTGGATTTTGAGGGCTGGGCGGAAACGGAAAAGGCTAAGGGCCAATGGGCAGAAAGCGCCGGCGGCGAACCCGGTTGTTTGGGAAGGCGAGCAGCTGGAGGAGGCGGAGCTTGCGGGGATA
0.3046655887293333 aaggggcttaacaagcatttgtggatgaataaaAAGGGATGAAGGGTGGGAGGAGTGAGGCTGTTCCTGAAAGGAAGAAGGCTCGGGGGCCCGGGGGAGACTCCCGCTCAGGCAAGCGTGCAGGACGCTGGCTGGCTCCAAGGTCTGCACGCAGGAATCAGCTCGCCAAACACAGGCGTGTGAGTCGCCGGCGTCTGGCTAGTAATTAATGTTTTGCAACGGTTGAGATCGTCCTCAGGGTAAAATTCCC
0.8532743203870591 GGTACAGGAGAGAGTCGCGCGCTTATGACGTCTACCACTGACGGCCCGCCCCTCCGAGCCAGACCCGTTTTCTATTGGTTAAATCATTTTTGACGGACAGGCCCACGTTATTGACTTCTTTTCGACGACGCCAGCGACCGGAAGCAGAATAGAGGCGCCAGAAGATGCGCCATCAGGATACACATTGGCCAATCAGCTTCAGCAATGGAGCGTGCAAAACACCAGTGAGCTTCTGTCTTGCTGGAGGGTC
1 CTAAGTTAGTGTTTACAAGAGGGTCTTAACTATTTTCAAAGGAATATGTTTTGGAAGACTTTTCCAATGGGAAAAGTACTGTATGGATGCCTTAAAGGGAAAAGCCAAGGATAGAAGAGGCAGCATGCTCCTCCTTTTCCAAATGGATATTTGCGTATATTCTCCTTGCCTTAGAATTTTCTTCTCTCCACACAGTTTCCCcctccttctttcctttctttttcccctccccttccctcccctcccctcc
1 GTGCTGCAGGCCCCCACCACTGCTTGTTCCGAGCTCCCCAGCCTCCTGCAGAGTTGCCTGCACCTGATGGCGATGAATCAGGAAGGCAGGCGTGTCCTGGGCCACAGAGCAGTCATGGCTGTCAGCCACCAGGGGGCTCCATTTGCAACTTTGGATGTGGCTTTGGCCTCTTTGTCCAAAGTGACCTTGGGGCCCCCAGACAAGAGACAGGGAGACTGGAGCCCAGCCCCACCCTCCCGCACATACCTGG
0.8431381871008526 GGGGGAACCAAAAATATCGGGCTTTGAAATTCTGTGGATTTTCAAAGGCGGTTCCCAACCTTGTCAAAAACTACAGTGGGTGCGCGATCTAATCTGGCTCCTATAGGTGGCGCTGTGACAAGGTGCGGTGGCCGGGAGAGGCGGCTGGGGGACTCGAAGACTGCGGGAAATTTTCTGCGACTCCGACGCTAACCCGCTGCTCCCAGCCTCCGCTTCCTGTTTTCGAGGGATTAGCTAGGACTGTGCAACA
1 GGCCAGCCGCGGGGAGGAGGGCTCGGCCGCCGGGAAGAAGGACGTCGATTGGTGCCGCTGAGTGTCACTTGAGGAAGACCCCGCGGATATTGGCATTTCTCTCGGGCCTGTCATTCTACAGCGCCCAGTGAGAGCCTGGGGTGGGACGCGTCCGCCAGACCCACCTTTGATTGGTTCAGATAAAGGCCAATCAGACTTTTGGGGAAGCTCATTGGTGCTTTCCTGAAGTTTCCAGCGCTCAGGGAGGACG
1 tatgccatccaacagtgtcatttgatgaagtatttaacccaagaacttactctgctgtctctctctctctctctctctctctctctctccctctctccctctctccctctctccctctctctctctctctctctctgagacagggtcttactcttgcccaggctggagtgcagtggtgcaatcacagctcactgcagccttgacctcttgagcttaagcaattctcccagtttagcctcccgagtcgctg
1 aaatgaaAGAATCAATATGAAATAAATACAATAATgaaagagagagaaagagagaaggaaggggaggaaggaaaggggaaaggaaggagggagagagggaAATCTAAAATCAGAGTCCTCAGTCACATGGTAGATCAGCTAATTTACTACAAAGAATGAGAAGAGAATAATCGAGGTGGTGTCATCCAATgagttaagaaacatgggttctagtctcagccttgccaaaatctacacagatgaactttga
1 GTTCTGGAGGACAGCCAAGTGCATGGTCCATATCAGACCTGGCACTGCGGCCAGTCCAACCCCCCCTTGGCCGCCCTGTAAACTCTGCTTTCTGCCCCTACCCTTGGAGCCTGCTTTCTGCCTGCCAGCAGCCAAGGGAAGGACACCCCTCAACCTGTCCTTCCTGGAAGGCCCATCTGCTTAGACCCCTCCAGCGGCCTGCACGTGCCCCCAGGAGAGTGGACCAGGCCTCACTGGTCCTGTTATCCGT
0.08274452953154082 CGGGACGAGGTGGCGGCGCAGAGCCGGAAAGCGGGGTGGGGGGAGGGCGGTGGGGAGGTGTTCTGTCCGAGGCTGCCTGGCGGCGCCGAAGCTCGCCTCCACTTTTTGGGCACTTGCCGAGCGCGGCGCCCGAACTTTTCGCTCTATCACCATCTCCCTCAAGCTGAGATGCAACCTCCCTACCCTCGCCCCAGAGCCCAGAGCCAGGAGCCCGATCCCTCTGCCGGGCTCAGGCGCCCGCGAACCTGAG
0.08889815686627041 CATCCGCCGCCCCCCTCTTGCCAACCACCAACTGGCGGGCCCGGGAACAGGGGCTGTGCTATCGGCTGTTGTCTCAGGCCCTGCTCTTTGGTGTGCAGAGGGTGGGGGCTGCCTCCCAGGGCCCCATTCAGCCGCCTTCACTCTGGCAGGGGGGCCAGCCGCAGTAACACAAAGAAAACTTTGTCCCGGCAGCCGGTCCCCAGGGCCTCCCGTCCATGTGCAGAGCAGGACTCCGGGCCAGCGGCACAGG
1 CAATGCTTTATAACATTTCCAAAGACTCATGCAGTGGATTCCATTATAGACTAAGATTCTCTGTATAAAAACATGAGATGCTACTTCTTCATTAAACTATCATATTTTGCCAAAAAGTTTGTTTGACTAGTTTCCTTCATGAACTCATGGCTTTTATGGTTGCTAATTTTTAAACCAAccttcctccctccctccctccctccctccctccctccctccctccctccttcccttccttccttccttcttt
0.5160302833202288 GAAAGCACATTAGACCATGCGAGCTAAATTTGTGATCGCACAAAATCAAGATGTTAGATTGATGCAGAAGATCACTCCGTTCCAAAGGGAAAGTTTTCATCTCACGAGTTTGGAGCTGAGGGCCCGTGGGGCAACATGGCCGAAGGTTAATTTTCTTTTCTATTGTTTTACTGTGAATTTCTTTCTTCTTTTCTCCTCCCCCTCCCCCTCTCCCACCCTTCTTAGACCGTCCCCCCCTTCCCCTTTTACC
0.4979339273931334 ttacaggcgtgagccaccgcgcccggccTAATTTTTAAATTTTTTATAGAAATGAAGTCTCCCTATGTCACCCAGTCTGGAgttgttggtattttgatagggattgcattgaatctgtaggttgctggggtggtataggcaatacggattctctaatccatgaacatggaatatctttccatttttttgtgtccacttccatttctttTccctcccctcccctcccctcccctcccctcccctccctttc
1 gggaaaggaaaggaaggaaaggggaaggagaagggaaaggaaaaggaaaaggaaaaggggaGGCTTTTGAACTCTTGAAAATAAGTGATAGGTCACGTACAATCTTAGAGTCATAGTGGCTTTTAACACCATGTGCTGCAATCTTTTCATTTAGAGTTGGGAGAAATTAAGGCCCCTTAGCAGATTGGTTGCTTAAGGCTTTTCCTAGAATAATTCTCTCTCCAGCTTGCCAGGATTCTCAGTAGGAGGA
1 CTTGCAGAGGGGATGGCTGCGTGCGGGAGACCCTTGGCACTTCTGGGCGCCCTCGCCGCGCGCGAGCCGAGCAGGTACAGAGGGACCCAGCCTCCCCAGCCGCCTTCCAGCCGCAGACGCATTTTGCAAGAGGGTGGGGGGTGAAAGAGACCAGGCCTCGGCATCCCAACCTCCCGGCTTTGTGGGTTTCTTTCCCTTTCGTTCTTTGCTCTAAGTGCCTGTTTACTCCCGGCCACCTGGGTAGTTTCTT
1 CAAGCTTTTTGCACATAACAAAAATGACCCTAAAAACAAGAGTAACagtttttatttattgagcatgtactatataccaggcatgcttgaaaagcctttatagatttatttctaattcttgaaggtagttggtattatcttcattctaAATTGCCAGAACCttctttctctctctttctttctttcttttctttctttctttcttttctttctttctttattttcttttctttctttcttttctttctct
0.148316336101216 ATACGTCCGCGAGCGGAGTCCCTGCGGTGGGGAAGGCGCGGGCTCTCCCAGACCAGGAGGAGGGGGACCCACCCACCTCTCTTCTTCTGCGCTGGTAAGTCCGGGGGCTCCAGCGCAGAAGCTTCGGGGGTGGGGCAGAGAGGCTGTCTGGAGTTCTAGCAGCAGACTCCGCCCCGCAACCGATTGACTCCAGGGTCCTGCCGCCCCCAAGCCCCGAAACTCCTGACTTCCTCCCTTCACCCCTCACCCC
0.3851992655099832 tggccactcacatccccgcctgcctggcccagctcagcccagcccagtcccctccgccctgatccccaggctgtccttcccgaaacagccaccagaggacgcctctgagcacatgagtcaggtcccgtctctcctctgcccttacccctccatggctcccacctgcctcggggtcaaagccggggtcttccctgcagcccacaaggccctgtacaacctgccccatgccctgtctaccctctcctcctcc
1 gggagggaaagaggaaggaaggaaaggagagcgataggcacagaggaaggtagATGAAGCCCCGCGCCCCCCTGGCGGAGCCCAGCCCTGTTCACCGCGTGCTGTGCGGGTGCCTGTGCCAGGATCAGCTGGCTGGACGGCTATAGCCCCACGCCTGCAGGCCACATACCTGGGAGAGTGTGGGCCTTCCGAGCCTTCTGGCTCCCGGCCCCACAGAGGAATTACGGTCCCATGTCCCTCACAAGGACCC
0.9252605537259051 GTGGACCCAGTCGGAGCCCCTCTTCGGTGGCAAGAACCACCGTCAACCCGGGCGAAAGCCCAACGTCTTCCACGGCAGCCCCAGCGCAGCATGGGCGCCGCCATTGTAACTCCAGGGTCTTGGTCAGGTGACTCAGCCTCACTATGCCGCGAGGCTCCCTGGGAAGCGTAGTTCTGGAAATGCATTAAAAACGCCATAGGCTCGGACCGGAAGACTACTATTCCCGGCGAGCATTGTGATTCGAAGCCTG
1 aagggttacagcagaaggaacttccttattactcaggtagactgaaatctcttgttttcaggaaaaactgatctgttctgggatctgtctaccttcttagagcttcagtttgattacgtggcatttagcctaagtgactccatttgctttggtctggtggattgaggcttcatgcaggagctcagtccaagaaaatAAGACTATAATctcccctcccctccccctctcctcccctcccctctcctccctc
0.7885804622860689 ggagggagggagggagggggaggagaggggaggggagatggggaggagaggggaggggagatagggaggaaggaaTCAAAAGGTTTTCTAGAGATCCACTGGGAGAATTCTGTTTATACCTCACTGGTCAGAGTGGAGATTGCATGGTGACTTCTAAGTACAAGGGCATCTGAAATAACGATAAATAATTTTTCCCAGCCTATAGTGGAAGGTAAAAAGAGAAAAATGAACTTGGAAACTTTTGGGTAAC
0.6627612146843666 GTTAGCCCCTGCTGCGGTCAGGCGGGGCGGGGGATTACCGTGAACACAGACAGCCCCAGTTTGGCGGCCTCCTTGTCCTCTCGGGACATCGCCACGCGGCCCACGGAGCCACTGCAGGGACATGGCGATGAAGACAGTACGGCAGGGGTCCGCCTCACCCGAGCAATCGAGCCCAGTGCTGCCCTCCCCTGGAAACCCGCCCGCACCTTGCGCTCCCCAGCCCCAGCAGCCGGTCCACGCCCTTCTCCTC
1 TGGGAAAGTTTCAAGGGGGTGGATGGGTGCTAAGGAGATTGGCGGTGCCAGAAGCTAAATTCTAGGGCGCTGCGCAGCCAGAGATGCGTCGGGAGCTCTAGGAGGGGCGGAGGGGCATCTCCAGCGCGGTGGAGGCTCGTCCTGGAAGCCCTGCCTGGTTTTAGGAAGAGGGCAAGGAATGGGTGCTCGGGACTTGACGTGTGGGGAGGTGAGAGGGACTAAGAGTACATTTTCTATTGATTTCTGGCCA
0.8964488533729347 aatctctattcgatctggaatttattatattttggtataaaaaggtaaagtacagccttatttttttctcccaaaagacagagagaggacccaaatgacatttttgaatgtcactaatttgaaatgttacttttatcaaatgccaaatttccatatatatttgggtatatttctgactttctCcccttctttccttcctccctccctccctcccttccttccttccttccctccctccctccatccttcc
0.1128559274243643 CAGGCCGAGTCCACCGTTGCTGGCCCCTTCTCCAGCCTGCCAGGCTTTTGGAGAGGGCCACTCACCAGGTCACCCTGCGATTTCCACGGGGGCAGGTGGGAGCGGGCAGAGCCTGGCGCAGAGAGGAATGCACAGGGAAGAGGCTTCCCTGTACCAGTGACTGGGCGACCGAGCCGGGATTTGggagcggggaggaggctggagctggaggagaggaggGGTTTCCACGGGAGTCCCCTCCTCCCCACTT
1 gtgtgtgtgtgtgtgtgGCGGGGAGGGGGCCTGTTCTTGGACAGCCAGCCCTGAAAGCTGGAGGGGGTGGCATGAGGGGGCAGGCAGAGGTGGGCCTGCTGTGCCCAGACCATGCCTGGGCCTGGAGCTTCTGAGGTCCTCCAGGGCGCCCACACCAGCTCCCAGCCAGGCTGTGGGATCTGATCGCCTCTGTCCTGGGCTGTGTCCAAGAATCAGGTGCCCAGTGGGTCGGGATGGCAGTGCCAGGAGT
1 TGAATGAAAGAGAGAAATagagaagaggagaagagggcatgaaaggggagtgaagaagagaggagaggagaggggaggggaggggaccaaggtgcaggagGGCAATATTTGTTTGGGTTTATTCCCAAATAACCCAGTTCCTTCCACCTTACCCTTTGAGTCCACAGAAGGAGGTAAATTTTTTTTTAAAAAAAGTAGGGGAGAAAAAAATGGTAGGTGGAAAGGGCCACTTTTAAGGTGAAGAGTTGGG
1 CCCTCTCACCTGCAGGCTCTCTGAAGGTGAGGACGCCCCCACAGCCCAGTCTCTGCCAGCTCAACACAGGTCCCCCTCCAGAGCGTCGGCGGTTTTCAAAGTAGAGAGTGAGCAGCTCGTCGGGCACGGCAGGGGGCAGTCCACGGACCTCCACTGCCACCCCTGCCTCTGCCTCCGCCATTGCAACCCTGGGACGGGGCATCAGGTGGGTAGGGAAACAGCCCATTCCACCCCTCCTGCCCCTCCCCAG
1 TTACACCCAGCAAAGGAACCCCATGGTTTTTGGAGGCTGACACATCAAAGCCCTCTTGTGGAACAGGCCTTGCTTACAAGTGCGGCAAACAGGACCCAGCTCTCATCAAGGGTAATGGTGAAAACAAAAATAAAACAAGTACCATGGGACCCAGTGTCAAGAGCTTGAGCTTTCGCAGCACATAGGTGTGGAGCCTGTCATTttccctccctccttcccttcctccctccctccctccctccttcccttc
1 GGTATCATTTTAACAACTTTATAAAAATGAATCAGATCCTTGAGTTGAAGAAAAATAACTCCTTACATTATATACCTATACGTAGCAAAATTGGAAATTTATGTAGTAGATCATGTACCAGGTAGTATTTTAATATTCTAGATTTTCACTTCAGAGAGAATTATGATAAATTTAAAAACAAAAATATAACGTCCTGTGAATCTTACAACAAACATTCTGCTAACCAGTGTATCCATACtctccttccctt
1 AGCTCAGACCCGTGTCCAAGCGAGACCCCTGGCTGCTGCTCCCACCATGACCCCAAAGCCCCAGCCAGGATGTAGCCAACGAGATCCCTCCATAGTCTGGCTCTGTGCCCAGGGGAGGCCATGCGTGCCACCATCTGCCCCATCCTTGGTGCCAAAGGAGCCCCGGGAAGTCTTCTGGAGGGAGGCCCAGCCCAGCCCAGCTCTCACCTTGACACCCACCTGCCCCTCAGTCCCCAAGACCCGAGCCTCA
1 TTGAAACAGCGCGCAAATCTGAATGTGTGTGTATGCCGGGCAAagaggctgaggcgggagaggcagaggcagaggcagCAGCTGCTACGGGAAAGCAGAGCTCTATGGTGTATGTGTGCATGTGTCTAACCCAAGCCAGCCCCACACCGGAGCGGCCGCCGGAGCGAAAAGGGCCTGACTTTTCCACAAGTGTCTCCAACTCCTCAGGCAAAAGAGACACCCACAGGTCTCCCCCCCCCTTCTTGCCCCA
0.3169865481829459 TTCCAAAATAGCAGAGTTGGTTCTGCCTCACTTCACCCTGTGCAGTGTCTGGCAGCTTCTGCTTTCGATCTGAGTCACGCCTGGTGGGGGCAGGACGGGGCAGCCAGTGCTGGCAGAGGCCACTAGACAGCACAGGCAGTGGCCCAGGAACTCAGCGGGGGCTCTTCTCCCCTCACAACACACACCTACACCCACCCCCAACCACCCTTACACCCCCCCACCCCCATCCTGCCCAAGAGTTGGGGTTCTG
1 GTCAGGCTCAAGCAGACACCTTTGTGTCACAATGAGGGCTCCCCCTGAAGAGGTGGCTGCCCCAAGTCACTCTGGGCTCACGGTGGATGCATGGTGGACAGCGGCCGCACGGTGGCCTTTGTGATGGACTCTGGGGCAGACAGGCTTCTCTGTAACATGGGCCTTGCAGAGCTAGTCCAGAATGCTGGGGGTGCACTGGGTACCTGCTGGGACCGCCCGTCAAGTGAGCACCGAGAACTGAACTGCCACG
0.2549535729451434 CGCCGCCCCTCCTCCCCTCAGGTGTGAACCGACACTTCCACATGATTTGTATTCGGGACAAGTTCAGCCAGAACATCGGGCGGCAGGTCCCATCCAAGGTCATCTGGGACCATCTGAGCACCATGTACGACATGCAGGCGCTGGTGAGCCCAACCGCCCTCCCTGTGCCGCCCGATGGGGGCACGAACCCGCACACCGCTCTCTGAGAGTCAGCCTGAGCTGGGCAGAGGCCCCTCCATGTCTGCTGGGG
0.4380688681645667 GCTGCGGCGCCTATAAAAGGCAGGCCCCAGCTGGTGGCAGGAGAGAAACGCGGGAGTGGTGGGGGATGTGGGTTCCTGTGTGCTGAGCGGAGGAGCCGGGGTGGGGGCGGTGCAAGCGGAAGAAAGAGCCAAGAGAGCGGAAAATCGGCTGGTGCTGTCGCCGCCCGAGTTTTGTGTTTCCACAGCTTTCCAGTTGGGTACAACGGAGCCGAACTCCGTGTTCCCGGGCTGGAGAGCCTTGGTGTCCCCG
1 gagaggTGCATTTTCTTATAAACCCAATTTCCTCTTTAGTGCAACTCTACCATTTGAAAGGAACCTTTCTATTGTAATTTACAAGCTGTGAATAACCGCTATGTAATTCTTTCCAAGGATTAATAAACTGAGAGAGGATTTGAACCaacagaggtaggggaagattagaagggggatgcaagtggccacagatcttagaggcggccagcagagggcgctgctccaaggtgaaggtcgcaccctgagaggc
0.6404196313602899 TACCCTTCCTCCCTCCTCCCGTGCCCCAAGTCCCTCCTCCCATGCCCAGAGTCCCTCCTCCCATGCCCCAAGTCCCTCCTCCCATGCCCTGAGTCCCTCCTCCTGTGCCCCAAGTCCCTCCTCCCGTGCCCCGAGTCCCTCCTCCTGTGCTCTGAGTCCCTATTTCTGTGCCCCTCCTCCCTCCTCCCATGCCCTGAGTCCCTCCTCCCGTGCCCCAAGTCCCTCCTCCCGTGCCCCGAGTCCCTCCTCC
0.9107607243735448 TTGATACCTGCCCTGGCGGGGGTGAGGACAGAGGCTGGAAGAGCCGCTTAGCAGGCTCCCCGCGCAACCCTCAGTCTGTCCGTTTGGAGGGTGGGCGAGGCGTCGGCCAGCTTGCCAGGGTCACGGAAGGGTCGCCTCCCAATTAGAAACCAGCTTCCCCCTGGCTTCCCGCTCACACCCGCTTTACCGGCTGCTTGAAACAGCCAGAGACCCGCCCCCCGCCCCGCTTCCCCGTGGCTCAGTTGACTCC
1 ctccctccctccttcctttctttttcctttctttcttctttcttggttttccttctttcTCCGTCTTTTTTGGTTTTCtttctcttctttaatttttaatttttatacatttaggcagtccaagtgcagtacttgattatatagtgttatggttgagtctgggcttttagtacaactatcatgcaaatagtgtgtgttgtacccaCAGACCGCATCTTTCCGGACTGAAATGTtttgtttgtttcttttt
1 TGTGCTGCCTTCAGGGTGCTGAGGAGGGGAcctgccaggcctggcctggctggcGAAATGGGGAAGGGGGGTCCCTGGGGCTTGGAGGCAGCTGCTGTCCTCTGAATGGCCCCCACCTGCAGAGTGAGGAGCCAGGCGGGCTCTTGGGGTATTGGGCCAGCCTGGAGGTTTGCAGATGCGCCTCCCCGAAAGACACGGAGGGCCCCAGGGCAGCTTGTGTCTGATGGATCCCTGCTGTCCCCTTTCTCTG
1 GGTCGTGCTAGCGTTGAACCAAATGTGCAGAGAGCATCTCCTGGGCGCTCTGGGCTTTGCTGCCTGCCCCAAGTgaggagaaggaggaggaggaggaggagggaggagggaggaggaggaggagATGCTTTTGTCAACCCAGCACTTGTCAtcttttttttttatttttttgagatggagtctcactctgtcgcccgggctggagtgcagtggtgcactcttggctcactgcaacctctgcctccccggg
0.7483204605931222 ACGTAGTCTCCAGCACCCTCTGCCGACCAGGCCCCGCGCCCTCAGTGCTGAGACAGCCTCCAGCCCTCGGTGCCTTAGGGGTTGCGCGTCACCTTGGAGACCGCGTGAGAGGAGGGCGTGCCTCTGCAAAGGCGGAAGTCGGCTGTGGAAGTGTGGGCGGCCATTTTGAGACCGGGCAAGAGGGGCGGGACTGGTGCGGCCGAGTGACAGTTGACCGGTTTTAACCAAGTGACTGGTACCACGGGGCCGG
1 ATTATTCAAATCCATTTTCAAATATTTCAGTTAGAATTTGCTATGTCCACCGGGCAAGAGAGGGACTCACTATAGGAATTCAGAGGTCTATGTGATAGTAGGCATAAAAACTTTAGATCTGATCCTACTAATAAGAAGTCGAAAATAAATAACGGCATAAATGCtgagaaataaaaatgaaatcctaaggcgcccccccccccccccccccccccaatgactgaacgaatcccctttggccaaggagaac
1 GTGTGTGTTTGCTACCCACAGATTTGGCAGTTTGGACAGTGGGTGAACGTGGTGGTAGATGACCGGCTGCCCACAAAGAATGACAAGCTGGTGTTTGTGCACTCAACCGAACGCAGTGAGTTCTGGAGTGCCCTGCTGGAGAAGGCGTATGCCAAGTGAGTGCTGGGAGCTGAGGAAGGGGGCTTGCCTTGCCTCTGTCTGGACAGCTGGAATCAGGGGGAGGGGAGGGGGTAGCAGGACATCCCTCCCT
1 GTATCCGTGACGAGAGGACGCGAACTTACTACCTCCCAGTCGTCCGTGCTCCGTACACCTGCAACTTCAGACCTTCCTCGGCCGCCGTAGGCCGGCTTGGAGGCTGGGGGAGGGCCCAGAAGTGGAATAATTCAGGAAAGTGCAGGTTCTGGGAAGTCTCGGTGGGTTCCCCGCAAAATCAGGTCTGTGTGTGGGTCTGTCTGTCAGGATGAGGGGAGGAGGGTGTCTGTGGGCGTCCGTTTAGTGCGGA
0.1727557296669126 TGTGTGTTTGGGATGGAGCGCCGCGGGCGCGCATGCGCTGCCCAAAGTTGCCGGATCCCGGATTTTTCGCTCCCAGTCTCCGCTCTCGCCCGCTGTGATTATGGAATTCTCCGCGGCCGGGCGGGCGAGTGGGTGGCATGCAAAACCCGGGCCGGATCGCGGGGCCGGGCTCCGCTCCACCCTCACACCCCCAGACCTGCCCCTCCCGGATCCTTCCCACCCACCGCCCGGGCTGAGCTCAGCGTGTGCG
1 gtgggtgcgggcgtgtgagtgtgtgtgtgtgagtgtgtgtCGCTCCGGGTCCACGCTCATGCACACACCCACACGCCCACACTCAGGGTCTGCCCCCTCGGCCTGCGTGAACCTCCGCGGAGCCTGCCTGGATCTCCCAAAGTATCCAGTCCTGGCACCAAGCAAGTCTGGAAAAGTGCCCCCAATGGCTCGGGGCCAAGTCAGAGGTGGGCTGCAGGGTCCCCCAGCCCGGGCACGAAGGGAGCAGGTC
1 ctccccctcctcTACTCttctttcttttcctctttctttcttttcctctttctttctttctttctttctttctttctttctttcAGGctatttttcaaagtgactatcatttttcattttcatcaacaatatgcaagtaattccattttttcatattctttctagcatttggtgttgtcactattatttattttagccaatttgatagatgcacagtgatatctaattgtggttttaacttgcatttctc
1 ggaaggggaaggggaagaggacggaagggagggaagggagggaaggaaggaaagggaagaaagggaagaaaggaaagaaaggCATGTTTTTTATCAAGATGTGATTTATTTTTAAATAAGTTTTTTTAAACTAAAAAATAATAATGAAAATCAGCAATTCTTCATCTCACCCCTTTCAATCTTTCCCCAGGCCAAATCTTGAATGTCACAACTTTCCACTCCCTAAGCTTAttctttttgttttttgaca
0.7723401927455925 caaacttttctggaaagcaaaagaCATGTCTTCTGACCACTTATCCAGCATCTGTGAGATGGCAGAATCTAGCTGTGGTATGATTCTAATTTTTTTTAAGGTAAACATTAAGAAAGTCTAGGGAATTCATTTGCAAACCCAGTAATCCTTTTCTTccccctccccgccccccccccccccccGCTAAATAGTGCTGATTGTGCGTTCCCAAATTTCTCCTGCTCAGGGGAGTTTGCAGGACCTTACCCTG
0.3789272435844375 TGTGGACAGTGTGTGTGTGTGGGGAGAGGGTGTGTGGGAGAGGGTGTGTGGGGAGAGGGTGTGTGGGGAGAGGGTGTGTGGGGAGAGGGTGTGTGGGAAGAAGGTGTGTGGGGAGAGGGTTTCTGTGTGGGAGAGGGTGTGTGGGGAGAGGGTGTGTGGGAAGAAGGTGTGTGGGGAGAGGGTTTCTGTGTGGGAGAGGTTGTGTGTGGAGAAGGGTGTGTGGAGACGGATATGTAGTGTGGAGAGAGGG
0.1265230624183602 TTCCCACAAAGCCCTCTCCTGGGACCTGTCCCCACCAGAGGGAGACCAGAGGCAGCCACTCAGGCACCTCTAGGAATGTCAGGGGGACCCTAgaggagggtgcagggccagggaggaggcagccaggcagctgggCTGTGCCTGGTCCCACTCCTAGCCCACACCTTCCCCAGGGCAGGCCCTGCATCCTCCAGGCACTCACACCCACCAGGCAGTGGTGCTCAGGCCCCATCACACGGCCACAGAGTGC
0.3334489946929896 GTGCAAAGCAAGCTCTCAGCCTGCAGTGATGCACCACACCAGCAGATGGCACTGAATAGCTTCTCAGGTGCCACAGGAAGACCATTTACCAATGGTGGTTGCAACCTCTTAATTAGCTTGTGCTGAGCAGTTCAtattataatttattaattatttttactacttattgccattattttccttccttccttccttccttccttccttccttccttccttccttccttccttccttccccccttcctctct
1 GTAATGTGATGGAGAGGGTAATCATCCGGTCCGTTATCTAAACCCGTCACTCCAGGAAACAGCGACCCGCTGTTTTCCGGATCCGCGCTCTCCCAGCATCCTTTGCCTTCCGGTATGTGGCCCCGTCTGGCTAGTCCTGTCTAGCGCGCCCATTTCGAGCCCAAGTTTCCAGCTCGGGTTTCCGGGCTCAGAATTTTCCAGGAGTGGGTTCTTGGGCAGTGGCTGTGGGAGCAGGAATGGCGCAGCTAGA
0.1026476175395279 GTACCGCTCGTGTTAAAACCCATACAGTGTGTGTCCCGGAGGGCCACACGGTAGGGGCAGCAGCTGGAAGCCCTGGCTCCTTTTCCTTGGTCCCCTCCCCCTTGGGAGGTTCCTCTGGGCCTCACTTGTTTGGACTTTGGCGTGGGGGGGTCTTAAAGCCCCAGTGACCTCCACTTCTCGGGAGTGGCCAGGAGGTACCAGGTTGCCCATCACGGCAGCACCTTCTCGTTCGCTCCCCTGGCCCTGGCAG
1 TTCGCTGGTTCTGCCGGTGTCCCGCCTTTTCCATCTCCTCATTGGCTGTCGCCTCCGGGCCTGCGACTTTGCTCAGCCCCTCCGGGGAGTGGAATCGGGTGTGCAACAGGCCGTGAGGTCCGGCTTTGCGAGGAACTCCCATTGGTCAGTCAAACAGGAGTCCCACCCTCCTGGGCTTCCCATTGGTTGCTGTCCCACCGCTGCTCTCAGTTTCCCAGCGGCTGGGGATCTGGGTTTTCTGGGGGTGGAG
1 ACAGAGACTGGGGCAGCCCTAGATCCCCCGGGTAAGCCTTTTGGGCCCCTGCCTGCACAGCAGAGCAGAGCCCAGGGTGAGCCACGCAGGCGCGTGGAGAGGGCACCCCATGTGGGGCAGACTCCCGCTCAGAGGGGCCTCGCTGTGGCCACCACCTACAGACCAGAACCCGGGGCCGGGGTCTCATGGACCTCCTGACTGAGGAGACCTAGCAGAGCCAGACAGGGCCTGTGGACCGAGCAGAGGCTGG
1 ACCCCCAGACCACTCCCTCAATCGTGAACCCAGTAAACCAGCCTGCACCCCACACAGCCCAAGGTCTTGCCCCGCGCCCAGGTCCCAGCACCTAGCGACCCGCCTTCAGCACTTGGAATGGGCTGGAGTTGGGAAATCAGAGAGGGCCAGTGCAGGTGCTGGGGCAGTATCGAGAGCGGGGACCTTACTGCTAGGGTGGAGAGGAGTGGGGGAGATTGGTCCCAACCCATCACCGCTGGTGGATGTCTCA
1 tgggggggtggggtgggggggggggCGTTCGCGGGGCAAGTGACCGTGCGTGTAAAGGGTGAAGCGTGTGAGGCTGTGGCGGGGCGGAGGTGCAAAAGCTCatacttacctggaaggggagataccatgatcacgaaggtggtttttctcagggcgaagcttatccattgcgttccggatgtgctgacccctgcgatttccccaagtgtgggaaactcgagtgcataatttgtgatagtagggaactacg
0.05813021511747954 CGAGGTAAACTGAGGCTCAGAGCAGGGAGGTGCCTAGAGCCAGGCCTCGCAGCTAGCGGAGAGCGGGCCGTGCGTAGCGGATCGAGTCTGTCCCGGAAGGGTCCGGAGTGCACGGGAGATGCCTagggggcgtgggaaagctgaggggccgagtagaaggcagagggagtgggtagagagaagggaTGAATCGGGCAAGGCCGAGATCTAGGAGTTACGGGGTGGGTGGGGGTGGGGAGAGAAGAGGAGT
1 CATCGACCAGGCGGGGGCGGGCCCCACTGACTCCCCAGAGAAGGTCCAGTGGGGCCCCCGAGGTGTTCTGGGGCAGGGTGGGCTGGGGTCAGCTCCCAGCTCGCAGATCGTTCAGGAGGTCAGCTCTGCCCCCAGGGCCGGATCCCCGAGGCTCTGGGTCTCTGCTCCCCAGCCCTTGCCCTTTCTGCAACACCCTTCTTCTTCTTGGCAGCCATGTCCCTCAGCCCGGCCTGGCCTGGCCATCCTGACC
1 AAGGCTTTGGGGCAATTCTGTGCTATGGAGGCCCTGCCAGCCCCTCCTAGTAGTCCAATAGGGAGGCCACCGGGAACAAGGCACAGGATGGCCACAAGGGGGTGCTGCTGGCCCAGGGCTTGGCAGCTGGGGTGGAGGGTACCCTGGAGATCCAGCCACCCAGAACAGTCCCTTTCTGAAGACAAGCCAGCAACAAGGCACCTGCAGGCAGTTCTGGGGACTGGGGAGGGGGCGCTGGCTGCCTCAGGTG
1 GACCCAGACCAGCTGGGGAGAGACGCCCCCGGCTCCCCCAACCTCACAGCTGCAAGCGGCATGGTCCGCTGGAAAGACGGGTAGGCCATCCTCCTCAGAGCCCACTCCCACCAGGACAGCCTGACAGTGGGGCTGCCTGGGGAGAGAAGAGTTAAGGCATGACATCACCAGAGAAGCCTCGGCGGGAGAATCCCCGGAAGACAGGAGGCAGATGGATCGGGCACGTGACCACCCCCTCCGGGAGCAGGCA
1 gggaggggaggggacgggaggggaAAGAGAAAGAAAGAAGGTCATGGTGTTTGAAAACAAAAGAAAAAGAGCAAGAAAACTAACATTTGTTGGGTATATGAGACATATTCTTCCTATGCTTTAcataagcaatccaatggcaaaagtattattattgcctactttaaacaagagataattgaagctgagagatcaattaactggtccagtgtgatgtaaacagtaattggtaaagATTACAACAAATAGA
1 CCCAGGGAAAGCCCCACCCAGGGAAAGCTCCGCCCAGATAAAAGCCCGCCCAGGGAAAGCCCCGCCCAGAAAAAAGACCAGCCCAAGGAAAGCTCCGCCCAGGGAAAGCCCCGCCCAGAAAAAAAGACCTGCCCAGGGAAAGCTCTGCCCAGATAAAAGCCCGCCCAGGGAAAGCCCCGCCCAGAAAAAAGACCAGCCCAAGGAAAGCCCTGCCCAGAAAAAAGACCGCCCAGGGAAAGCCCCGCCCAGA
1 GGGAGGAGGTGCAGGGGCCTCAGGGAGGAGGTGCAGGGGCGTCAGGGAGGAGGTGCAGGGAAGTCAGGGAGGAGGTGCTGGGGCGTCAGGGAGGAGGTGCTGGGGCGTCAGGGAGGAGGTGCAGGGAAGTCAGGGAGGAGGTGCAGGGGCGTCAGGGAGGAGGAGGTCCTGGGGCGTCAGGGAGGCGGTGCTGCCATGGCATTGGACACATGGCCTCTGGGGCTGCGGGGTCTGCTTTACTTTTGAGTAA
1 AGCCCATTAGCTCACCCGGCCCTGCGAGAAATCCAGAGCTTGGAAATAAATGTTTGGGACCATGTCACTATCAACACTGATTGTTGGAACCCTTGAATTTTTCCACATGTAAATACAGTTTGTTTTAAAGTGAGAAGATATGTAGACATAGGTAAAGATACATACATACAGTGGAAGGACATTTGAGGTTAGTCCAATATTCAAAGCTCCTTTGTGGCATTCCTAATAGATGCATATTTAAAATTCACTA
1 CCCACACCTTTATCCTCCAAATATCCCGGGACGCCCCTTCCTCTCTGCTCAGTGCAGCACTGTGGACCCGCGGCACTCCACAACCGCTGCCCAGAGTCCCCGCCCTTTTCGAGGAATCAAGCAATGGAAGCATGTGGGATGGGACCACAGCGAGCAACTGACCAATGAGAGTGAGCGAGGCCCGCCCTCTACAAACTTTTGGCCAATGGGAGCACTGAGGGCCAGCCTTCCCCCACACCTAGGAGAAGAG
1 CACAGGTCTAAGTCCCAGGGGCCTTCAGTCGGGGGCAGCCAGAGCCAGCTTAGCACCCCGGCTGGGAACGAGCCGTCACAAAGGAAATGCTGACAGCTCCTTCGCAGACCCTGTCATTACCTCCCAGTCCCAGAGCTGTGTGGTGGCTGCGAGGGCCTGGCTGGGAGTGGCTGTCCTTTGTGCTGGCATGTCTGCCCTTGGCAAAATCACAGTAATTGTCCCCCCTCCCCACCCCAAAGAACTCTGTGGT
1 GCTTGGACCGGGTCCTGGGGGGATGAGGGGGTGGGGTTCTAAGTCTAGGAGCACTCTTCACAACCGAGAATGCCCCGGGGCTAGGATTCCGTATCTGCGGGTCCGATGGGAGCTCCGTTTGTCGCCCAGGGAGCTCATGGTAATTTCTTGATCTGGGGAGTGTCTCTGCAGCCAGGAAACCCCGGGGCCAAGGTTCTGGCTTGGGTTCGGAAGGGACACTGGGGTGGGGTCCCCGAACTTGCTATTTGCA
0.6926091054797475 GCCATATCCTTGGCCTTGCCCACACTGGGCCTGCTAGAGGGCCATTCACATCTTTCAGCAGAGCCTGGGAGAGCTTGGGGGCTGGCACTTGAACTCTGGCCTCTGGCTCCTGCTCCAGCATCCTGCGGGAGGCCAGGGAAACACTGGGCACAGCAGGCTGAGGGTGCCGGCAGTGTCAACGCAGCTGAGTCACAGGCGGCTGTGGGTAGGGCCTCCTGGGCTGCTTAGCCTGGAGCCCAGGCCGGGAAGC
0.7849796571410632 gaatgaattatttatacatacgacaacctgtgtgaccctcattttactgagttaaagaagccattctcaaaaggttatgtattctgtgcttccatttatataacattctttaacaaataaaacggtagtgttgaagaacaaaatagtggttgccaggATAAGTTACTCCCTCCCTGATCCCCTTTCCTCCCTCCCCCATCCCCTTTCCTCCCTCCCCCATCCCCTTTCCTCCCTCCCCCATCCCCTTTCC
0.9957818955956425 GCTGCCAGGCCCAGGGGGACAATGGGGGTCTGTTTCCTCCCCGGAGCTCAACACCATCCCTCTCCCCACAACACTGCCTGGCAGCCTGGGGCCTGGGAGCCCAGCCGCATGTTTCAGAGGGTTCAGAGGGTTCGGGAAACTCCCCAAGGCCACGTTCTGCATGCGGAGCTCCAGGGGAAGCCCAGTCTGGTGGGGGCTTCCAGGGGCCCCAAGGGAACTGTGGCTCCCTCTGCTCTGTGATGGGGAGGGG
0.7628917901404902 gcccctcccctcccctTGCCCCCATTCCAAGACCTCCTGAGAAAGCTGGGGCTGAGAGGGCATCTTCCAGGCCCACCAGGGGGCGCCAGGCTGTCCGCAGGTCCCTGCGGCCTCCCCTTGACCTTGAGTGGTCAGGTAGGGGTGGAGGGTGCCGTGAGAACCCCATCCTCTCTCACCCTCTCTCTGCTCCAGACATCTTCCTGAGTCCATAGCCAAGCTGGGAGCAGTTTTGGGGACTGCAGCCTCTCTG
0.02609069637361952 CCACTCCCCGAGGTTGCCTAGACAACATGAGAAATCGTGGCCAGGGCCTCTTCCGCCTGCGGAGCCGCTGCTTCCTGCATCAGTCACTCCCGCTGGGGGCGGGGCGGAGGAAGGGGTTGGATGTGGCAGAGCCAGGCCCCAGCCGGTGCCGCTCAGACTCCCCCGCTGTCGCCGCCGTGGTCCCAGCCATGGCATCCTATCCATCTGGCTCTGGCAAGCCCAAGGCCAAATATCCCTTTAAGAAGCGGGC
0.4714199235582975 GCCAAAAGTTTGTGAACCGAGATTACAACATCCAACCTCAGGAAGTCAAGTCCTCTGTCCCCAGCGCTCCCACCCCCATCCCACTCCCACTGTGAACCCACTGTCTCCAGACCGGTGCCCTCCCCGTGGGCACAGTCCCATGATGGCCCCTCCAGAGCTGGGCTGAGCTGCTGCTCCCTTGGGCAGGGGAAGGGGCTCAGAGACTCACAccctgacctcatctcccctcctcctcctccttgcccttccc
0.6765540575876836 GGAGGAGGGCAAATAAAGCCCAGGGATCACTCTTACCCTACACGAAGCCTCCCTGCAGGGTTGACTTCCCCAGCTGTTGGTTTCCTCTCAGAGTAATAAAAAGAATCAAGATGAGGTTCCCATTTCCTTCAGATTCACTTGTTGATTCAAtccttccatccctccctcccttggtgctcacctgctcatcttgtcccttccctccctccctccctccctctctccttccttccttccttccttccttcct
1 GACATCCACAATCCCCATTAAAACACTAAAATTTAGCAGCCTTCAAGGAAAACAAAGAAACTGAGTATTGTTAACTACCCTAGAAAAGCACATAAAGATTTTATCTCTGATTTTTAATTCCCCTAGATGACATTATTATCTATGAAAGTCTACAGTTAACAAAGTCATTTTAATAGCTCTAATTTTATGATTAAAAATAtttccctcccctccccctccccctccctctccccggtctccctctgatgcc
0.4789438349440137 GGTGGAGAAAACTGCATTAGCAATCCACCTAAGAATAACAGAATTATTGGAAGTTGGGACATAAGGTTCAAGAAAGAGACTCCCACATCGGGAAGCAGCTGGTTTTACTACCAGTTTTACAGATACTCTGGGTAGTGTCAGTCAAGTCTCTGCCCTTTTTCTTTTTCGTTGCTTTCTCTTCTCtcccttcccttcccttcccttcccttcccttcccttcccttccctGATTGGCATTCATATCTCATAC
0.2146515117305858 CCTCCCGCACCTGGAGCGAGGCCCGGCCCTTCTTCACTTTGCCCAGTCCCCCTCCCAAGTTCTGTGCCCCACGGCGGCCTGGCCGCGACTCCGTGGCTCCCGCCACTCCGCCAAACAGGGAAGTGGGAGGAGGCTGGGGCGGCGGGGCCTGGGTACCTCTTCGGCCGCCGCGGGGAGCGACTCGGAGCTGCGGAGCCCGCCGCCGGCCTGGCCCGTGGTACGCTTCAGAGTGCGGTATTCCCGGTAGAGC
