svm_type c_svc
kernel_type wgkm
L 8
k 5
d 2
M 50
H 50
nr_class 2
total_sv 155
rho 0.0953619
label 1 -1
nr_sv 55 100
SV
0.3930679473039093 acacaccagggcctgtcatggggtagggggaggggggagggatagcattatcctcccccattaactaatggtgcagctattaactaattaactaattagttaattagttaactagttaattagttaattaactagttaactaattaacattaactaattaactaatgggtgcagcacaccaatatggcgcatgtatatatatgtaacaaacctgcacgttgtgcacatgtaccctagaacttaaagtata
0.2005249168119894 GAGTTGGGCTACCTTCTGTGCAAACCTATAAGTGTTCTCCATGAGTTAGTAGttaactaattaactattagtagttagtagttaactaattaactattagtagttaatagttatgatactagttattagtagttactagttagtattactaactagtactagtaactactattagttactagttaactaACCAGTGAGTTGTGGCCTTGGGATAACTTTAAAGTCTTCAAATTCTAATACTTAAGTTTAT
0.7829294876062238 TAGGTTAACTTGGGTTAACTCAACGTTAACTTAGGTTAACTTGGGTTAACTCAACGTTAACTTAGGTTAACTTGGGTTAACTCAACGTTAACTTAGGTTAACTTGGGTTAACTCAACGTTAACTTAGGTTAACTTGGGTTAACTTGGGTTAACTCAATGTTAACTTAGGTTAGCTTGGGTTAACTCAACTTAACTTGGATTAACTCAATGTTACCCAAACCACATTCCACAGACCTTCCCCTGAGATACT
1 TATCGAGTATCATAATTATAAATTAAAAAATAGAGAAACTTCCATTTATAGTAAAAGCAGACTGCATAATTCAAACCAATTAGTTAGTCATTACTAATTATTAACTACTAGTTAACTAGTTGTTTTTTTATTAACTACCAGTTAACTAGTTGTGTGTGTGTGTGtttttttgtttttttttttagagtctcactccgtcgcccagtctggagtgcagtggcgcgatctcggctcactgcaacctctgcct
0.8685729261016744 aaaacaaaacaaaactaagctgtggggtcagaagtcaaaagtactgcccaggaggggcacaaggacccttctgggggtggacctgtgttaagatctatacctggttagtggtggttaggtgggtgGTTAGGTTGGTGGTTAGTGGTGGTTAGGTGGTTAGATGGGTGGTTAGTGGTCATTAGGCGGGTGGTTAGGTGGGTGGTTAGTGGTCATTAGGTGAGTGGTTAGTGGTCATTAGGTGGGTGGTTAA
0.1577134659387797 gctggaaagctagttaatagctagttaatggctagattatcagttaagttacagataatagctgtaaagctagttgctaaccagttaatagccagttaacagctggttaattgccagattgttagttaaaatctagttaacagctggatgactagttaatagctagttagtagctagttaattgtgagatcgctatttaagatctagtcaatagctgaatagctagttaatagctaattaatagtagaaa
0.3401382704393608 CTAGTTAAGAGCTAGAAAACCAGTTATTGCATGGTTAGTAGctagttacttgttaattgctaagtgtctagttacttgctaGAAAACTAGTTAAGGTCCAGTAAATAGCTAGACAGctagttaataactagttaatagctagttattaatagataattgctagttaataGCCATCTAATAGTAGATAAATGCTAGTTAATATGACATAATTGCTAGTTAATGTATGGTTAACAGCTAGCTATTAGCTAGA
0.9910952882619931 TCACTAGATGTTAGCTAGTTAATGTCCAGATGATTTGTTAAGATCTAGTTAATAGCTGGACAGCTAGTTAAAAACTAATTACTAGCTAGTTAACTTTTAGATGACCAGTTAAAATGCAATAAATAGTTGGACAGCTAGTTAataactagttaatagctagttataatagatacttgatacttaatagtagatatttgccagttgatagttaatagcagataattgctagttaatagctacttaatagtag
0.7351055124577373 AGGGTGGTTAGGTGGGTGGTTAGTGGTGGTTAGGTGGACGGTCAGGTAGTTAGGTGGGCAGTTAGTGGTGGTTAAGTGGTTAAGTGGGTGATTAGTGGTGGTTAGTGTTGGTTAGGTGGGTGGTTAGTGGTGGTTAGGTGGGTGGTTAGTGGTGGTTAGGTGGATGGTTAGTGGTAGGTGGGTGGTTAGTGGTTGTTTGGCGGGTGGTTAGTGGTGGTTAGGCAGGTGGTTAGTGGTGGTTAGGTGGGTG
1 ccatccaaaggaatgttcagctctgtgagttaaactcaatcatcacaaagtattttctgagaatgcttctgtctagtttttctatgaagctattccctttactaccatagacctcaaagcgctccaaatctccacttgcacattccacaacaagagtgtttccaaactgctctctcaataggaatgttcaactctgtgaggtgaatgcaatcatcacaaagtagtttctgagaatgcttctatctagtat
0.7062136692208643 TAATAAACAATAACTCCTTCCCTAACATTGTGCAAGGGATTGTTGGAAGTGCTCTTCAGCAGCTTAACCAGACTGCTTAACttaatcagttaactggttaaccacttaaccagttaatcggttaaccagttaaccagttaatcagttaaccagACTGATGTACCTTGAAGCTGCAAGTATTTCCTACATGACCTGCAGGAAAGATCCTGCTATCATTTTTCTCCAACGAAGATGCTGAAATTGGTGTGAA
1 GCCTTGTCATAATATTGCTATACCACAGTATGGTTTTCCCATTTCCCTTAGACATTAAATATAAGGCTCATTTTGGTATACAGTTGGGAATATTATTAAGGCAAAAATGTTAGAAGCAAGTGTTAAACATTTGAACTCAGAAACTGCCTACTGCATGTCAAACATCAGTTTGGGTTACCTCCTTTACAAACAAGGCTGTTTCATGAACACTGAATAAGACAGCAAAGCAAATAGGATAAGGAGAAGAAAT
1 tacattgtggatttattatgtatctttccagagataCTATTAGTTTGtttttatttcaatagcttttggggtacaagtgtttttcagttatatggatgaattgtacagtggtaaaggctgatatttcagtgtaccAGAGATATTCTATGAATAGGCAAGTGTTTGTATGTATACATGCATTAACACACACATACATATCTAAAAATCTGAATTACTTGGATAGATTTATGTGCAATTGGCACTGAAGTTG
1 ggttgcttggcttcatgaagtacagtgctcttttactTAAAATAATTTGTTCTGCTTGTTACTGACAAAAAGTCTAAACATGATTGAAAGCAGAATTTTGCTCCAAAATATGCCATTATCAATATAACATTTTCAATTTCTGGGACCACAGATAAAATAAGGCATCATTTAAAGGATCTGCATGGCTGTATACATGATAATGAGAAGCTTGTCTTATTTGGGAAGGCATGGCTATAATATATCTGTCATG
1 TCATTCAACTCAATGAAGTCATTAGTAAACTGGGAATTAGAAATAAAGATTCTGTATTTTTTTGTTGTCATTAATTTGGTCTTTCTGTctgcatctgttttctcacaagtttgttttgaggatagatcagaagacatatgcacattgtaaagcataaagtAATCCTTAAGGATGCACTACAGGCAATCCTCAGCCAAAAAACATGATTTATGAACCATGCATACATGCATACTACAAAGGGATCGATCTT
1 atttttattatcccatgaagaaaccccatacctattagcaatcattccctattttactccatctcctgagccctaagcaactattaatccactttctgtctctgtagatttatgtattctgaacaattcatgtggaaccataatatgtgatcttttgtgactgggttttttcacttatgtttcgaagattaatccatgttgtggcatatgttcagtacttcatttctttttattgcctagtgatatacct
1 AGGGCAgcactggcctttaaagcttctgcccaggtgtgacacaggttgtttctgctcacatctcgttacctgaaacaagtaacatggtcacatctcatttcaaaggaagcaagaaaatgtaatccccatcatgtgccggaaaggagagaaatagaatagttgagaacagccctCAGAGAGACTATAAGTAAGGGGGCATAAAAGATGGGTCTAGAGAGATAGGCTGAGTCATGACTCACTGAATTTGTCT
1 GTCATCTCTCTAGACTTTAGTTTCACCCTTCGCTTGAAATATGGAACATTgatcaaagtaactcagaaagtcctcactttttatgcaccccttctcttctaaacacaaataaatgattaacaaaatacacaaaaataaaaagacagacatgggcacaatataacatgaacaatcccagataatatgcggaatcagaacacctcacattgattagagctgaagccatgtctgctttgctgtcattctagaa
1 tgtctacagctcagacctccctctgccggaaacctgtgtcttacctgcctgctcagcacctccatttagatatccaggaggacccttacatcatcttagtccatttgtgttgctataacacaatacccaagactggtaacttataaagaacagaaatttatttcttattgttctcaaggctgggaagtctaagatcaaatcaccagcaggttggggtctggtgagggtctagtccctgcctccaagatga
1 AAACATCAGAAACAAATAACTTGGATTTTCCATTGCATCACTTTATCTTTTCATTCTTTTTTTCTTAAGATATTCTCTTTAAATGTCTGGAATTGTTCTCATGTACTAAAGGCCAAAATGGATTCACACATCTCAAGTGAAGAGAATTGTAATTCAGAACAGTGACTTTCAATTTCTGCCAACCATAATCTACCAGTCCTTTTAAGACTGCATGTTTTAGACATAAGCTATATTTAAATTAGTGAAAATA
1 GATCTGTTTTCCTTCAGTCTGTTTGCAAAGTCTTTGTAAGGGTTTCCTATGTATCTAAAATCCAGAGATGCTCCAACGCTCCTTTTCAAAAGCAAAAGCAGAACCTCCATTACTGCTGCCCCAGCATAACAGCCTGGTTGTTTAATAAGCATCAAAGAAAGCATTTCAAAAAGAAAATACTTTTATTTGACATTTTAAAAACACTGCTTCATATAAATGCTTAATATGTTTTAATAGTGTCTACCAACAA
1 CATACTTTGCCGTTTCTTTACATGTTATTTCTTAAGATTCTGATTTTAGTCCTCTACAGATCTCCTTGAGTGATTTCATTCACTCCTAAGGCGTATAGAGAATGCTGATGCCAACCTCAGAAGATTAGACTTTGTCCTGTCGATAAAGAGGAGTTATAGAAGTTTCTAAGAAGTAGAATATCATAGAGAAAGACATGTTCTGGGAATATAACCTTGGAGATGGTCTGCAGAAAAGGAATGGGGATAGGAG
1 ataaatTAACAAATAAATGATCACTGAAAATGGAGATGAAACCACCAAATTGAATTTGGACAATGAATCCTGGGGTGTGTTTATCCACTAGTTTGCCAATCATGCAGATGAGCTTATCTGCGTCTGCTGATGGGATTTCGGCATAATTTGCATGCTAGAGGAGGAGGCTGCCAATTCACAGAGGATTCTTCTAGGCATTTGTCATTCATTATAGAACATAAGCTTGCATTGGAGTCTATGCAGCACAGCA
1 actccaaagttaagcactccctcttctaaatctagtagtaacatatggttgtatttatcacattgtattacatcataattatttgtttatgtgcttgcttgccttccctatatcatggaaagctttttgagCCTAAGAAAGGTGCTTCGTGTTTGTTGAACTGAACTGAATTTGATCTAATGGTCTGAGCTGAGTAATTGGGAAACAGATGGGATGTTTCCAGAGTGATTCATAGTAGCCAGGATGATCA
1 TTCCTTAAGTCATATACAAtgtaagttccttaagaggatcaaccttcaactttgtaaactcagcacctagtccaattgataggAATTtgagctttctatgtaatatagtctgtcttaagggctggagacaagaagttagctaagacactgtacttatccttaagaagtttacagtccagggagagagagagatttgtaaacaaacaattaaaatacaggatcatgTAatataaaatatgcaggcaaatcc
1 TCACACAATATTTCCAACGGTTCACTAATGCAAAGCACGTGCAAAGATTTTGCACTTATCAGTTAGATTAGGGTAATAATAATATGTCAAGTTGATACGCTCTTGAATAATGAGGGTGAAGTAGAGAGGATAGAGCAAATCAAATTGCAAGAATAACGGAAGCACATATATTCAAATGAAACACTGGCAGACACTATAAGTGGATCAATAATTTAAATTTCCAAATTTTATTTTTAACATATCAGAAGCT
1 CAAGAGAGAAAGTTATACTTCCACAAGTCCATTTCACCTTCCTCAACTTCTCTGGCTGACATCAAGCCCGTTGTACCAAGATACCAGTCTAGAAATAGTAGTGTGGTCTTTCTGTACAATGTTCAACTGTGAGTCAGGGCTTTAAAACAAAGCCCAGATGATAGACCAATATAGCAAACCAAATTTAGTCCTTGTTAAAAAATACCACAAATGGAAATGTTAGCTTTAGGGCCTCATGAGCTATTGCAAC
1 attccagaagaggatcaggcacataataggtgctcaataaataatcgttgaatgaatgaatAAATGAACAAACTTAAAGCATTTTCTGTGTTCTTCCAGACTGTGATATGTAAAGAAAGAAGAGCAAATGGTTTGTGTATTGCCCTATCAATAAGAGTACATATAGCTAAGGATGGCATCTGCTCTGATTCCATCACCTCAGCACTTTGCACTTGAATGTCATTGGTCAACCAGCACGATCCTAGAAGAA
1 ATTATCCATAGTTCTAAGCTGAAAATGTCTATTTGGTCAGTGTAGTATCTCTGACCCTTGGTTCATAGTCTTTGTAAATCTGATGTCCCTGATGTCACTCACCAAACCATGATGGAACATCTGTGCACTGTACATACCTGTGGTACATAGACATCTGCCCACTGAAATGGACACATACTAGTCACATAAAAAGGGGTCACATGAATAATGATTTATCTTTTTACAACCTTAGAAGAGTGGCCTTCATTTT
1 atttttaagcctttgtcccccgcacccttccccctcttgtagtcctcactgtctattgttcccatctttatgtccatgtgtacccaatgtttagctcccacttataagagaacaagcagtatttggctttctgtttctacattagtttgcttaggataatgaccaccaggtacatccatgtggctgcaaaggatcaggtttcattctttttccggctgcatagtactccatggtgtatatgtaccacatG
1 TGTACATTAATATTGTTAGGCATGGATTTTAGTTCAACATACTTTGCATTAAGTTCAGTTCAAAGAGTATTTTTGTGAAATTACTGTGTGCTTCACTAACCTCTGAGGGCACAATGATGAGGGCACAATCTCTGCTTTAACTTAATCAGGATGATGCTCCCTCTCTGTATTATAAATATGGAAAACAAGGCCTATCTAATCTTAGTCCATATTTGTCTGGCAAAATTCTTACCTTATATTAAAAAAAACC
1 taactgaaataagctttACActcccactttcctcatgacattaaacacattcctcacctcccctgctttggcatgtcactttaatcttttcgttagcttaggcttttacaaaagacagaaaaaacagttacttcaggctactgcttCTCAACACAACCCAAAGCACCTGCTCCTGGTTTGAAATGGGGGAAAGAAAGAAAACAAAACAAATTAATATCTGAAATATATATCCCACCATATTCCTGGATGG
1 ggcatgtatttacacttaaagcacagctcaatttggacaagcaacaagtccagtggtcaatagccacatatagctaatggctactatattggacagtacagCTATAGACTGTAATATATACATGTGTACCTGTGAATATAGTGCCGGATATTTTTATAACACCTGAAAAGACTACACTAATATAATTTTGCATACTTCTACAACAGCAACATGGACTGGCTGTCATATGAAGTAATAAAGGCAATCACTA
1 tacatacacttacatgcatacacgcctgcatatacacatgcacgcacacatgcatgcatatacacatgcatgcatacacagacatgcatacacacatgcatatacacatacatgctacacatacacatgcatatgcatatacaTGCATAAACATACACATGTATAAACTCATACATGTATACGCACATGCATGCACACATACATGCATACACAAATGCATGCACACATAGTTGTATACACATACATGCAT
1 tccaattatacaatggtaatacctgaatagacatttctcaaaaggagagatacaaatggaaaacaggcatgtgaatagctacctaatgtcattgatcatcaacaaaatgcaaatcaaagctacagtgagatatcacacctcatttaaaatagctcttattcaaaagacaggtaatatgaaatgcaggtgaggatgtgtagaaagggaatccttgtacattgttggtggggatgtaaatttgtacaaccag
1 ttccacatttaataaattcctgtcttatttgtctctctatgtctggcttatttcacttaacataatgtccttcaggttcatctatgttgtcttaaatggcagaattttattctgccatttattttattatgccatatatttgtggccaaatagcatttcattatgtttacataccatgttgtcttatccatttattcttcgatgggcactgtgattgattccatatcttggccattgtcaatagtgctgt
1 atATGATTTATCTCAAGTCCTGCTGTCATTAAATCCCTAATACAACTCTAGAACCACTATCCCTAAGTTACTCGTAACATGAAAAAAGAAATCATTATTTTCCAGGTTATATTGCTGGACATCTTGTTAATTATAGCATGCTAAACTATATACAAACATCTGTGGACAAAATTCATTTTTCACAGTAGACAGGGTAAAAGGTACAACTATAGAATGGTGTAAGGCAAACAGTTTTTGTCATAAATTTGAT
1 GTGCATTAAACATTTTCTTTATCATTTCTTCTCTCATTGGTGTCAACCCTATTCCCCAAACTATTTAACTCCTAAGATGAAGATTTTCTCCAGAGAAAATGCTTCTTTTTGGAGATGAGAATTCTCCCTAGGTTTGTGTGCAAGGATGAGACAATATAGGTGTGCTCATCTTCAAATGACTGATGGGACATTTCTTTAATGTAGGCGAGGATGGAAGCCAAAGCTGTGGAAGATGTTGGTGGAGCCAATG
1 TTGTTAATAGTGCAAATTTGAAAGAAGAAAACCAGATGGAACAACGACCTTGGGACTTCCCCATCCTGTGGGTCCCATTGTAAGAGTCAGGCGATTGCCCTGTGAGACTGGGAATGACAACTGGAAGACTTCTGTCAGGAGTGAATACTTTGCAGGGGTTCAAAGAGGATAAATGAAACAAAGTAACTCTCGTGTTGTATTTGCACTATGAACCCTACAGTTCTTGTGCACCATATTATGACTCCACATT
1 ctaagtgtccatcaacagatgaatggatacagaaaatgtggtacgtatacacaatgggtactagtcagccataaaaaggaacgagatcctgttatttgcaacaacatggatggaactggagatcattatgttaaatgaaataagccaggcacagaaggataaacattgcatattctcacctctttgtgggatctaaaaatcaaaacaattgaactcatggacagagagagtagaaggatcgttaccagag
1 gtaaattaaccattgtggaaagcagtatggctattcctcaaagagctaaaaacaaaactgtcattcaacccagcaatcccattactgggtatatacccaaagaaatataaatcattccattgcaaagacacatgcatgcatatgttcactgcagcactgttcacaataggaaagacatacatttaacctaaatgcccgccaatggtagaccggatgaagaaaatgtggtacatatacacaatggaatgct
1 CAGTAATTAGGTATAAAATAGGAAAGAAATTTCCATTAGTCCTTGGTCCTAATGAGGATGTGCTATTCACAATATGGCCTATTCTAACTAAATACCTCCTGCTGGCAAGAAATACAGCACAGCCTGTAAATATCACCAAATTAGACTTTTCAAGTGCTGGCAAGAAATGCTCAATATCTGGCAACTGATACTTTTAGGATTTGATTCTTCCTCTTTTCAGATTAATTTGCAATATTCCAAATCATTAGAT
1 aagagaatgaagggttatgaatagagtactgacatgacttttcttaaattttacaaaatcactaactgttgagttgaATGGTAAAGTtagtataatggtgactacatggtgttatgcatttggaaaaaccaacataactgtaccatacaaagagtgaaccttaatgtaaaccatgaactttaaataataatgtattaatattacttcatcaaatataacaaacataacacaccagtgcaagatgctaata
1 TGCTACAAATACATTTGGAAAAAACACTATCTTTTGAAACTGAAGCTAGTAAAAATCAATATAAATTTCATTCACTTTTCTATGCAATGAAAGCACATCATCCCAAGACCTGTTTCAGAGAGGTGTTGGTGATGAAATTAAAATATTTTTCTAAGTCTTCACCAAAGAGATAAAGGTAAATTGTCTAACTGGTATCCTCTGGAAGATATAACTGGATAAGAAGATATAATAAAAGCTATGATCTAGTCAA
1 ctgaaaccacacaggttaagtgatgaagtcaggattcagacccacatctttggactcagtaacacttgctgtttAACCATACTGGTAATTCTGCCTCCTTATGAGACTGGTGTATGTTTTCTGAGGATGGGAAATTACCTAACACTTAGCTTACTATTATTTGCTTGATAATGGCAGAAGAAAAGGTGTGCAAACCTGGATTCGTAGTGATTCCTAGCAGGAATAATGAAACAGATTCAAACTGTGCCAA
1 TTGACTGGGTCAGAAATCCAGCAAGTACAATTTCAAACTCTGCTTTCTTCAAAATACAGGAAATACAATACTATAAAAGTGATGTACTAAGCATGTTTGGAACTCCAATAAAGTAATAGGAAAAGTTTGGGGTCAAAACTTATTTTGTCTAGGACTGTTTTATCTATCTTTTGTGGATCTTTTAAAATAGATATATGGTTCAAGGATCAGATATTGTGCTTGGAGCTGTACTCTTCTAAATCAAAATTTT
1 CACTGATTATGTGTGTCTATAGTGCTTTGTGCATATTTCTTCAAACACTTATGACTCTGCCTTTTAATGTTTTGATAAGACTACATCTTCTCTTTTGAGTTAGAGTCTTAAAAGATACCAACCATGTTCCAGTCATTGTTTTATCCTAGCAGCTATCACGTTCCCCAGGATATAATGTGATTAAGAGATAATTAATTAGTGAATGCTAAGAGGTTTTAGTGGATTCTGGGTCACAGGAAGATTATAATCT
1 TAGCAATTCATTATGTTTGATGTCTGCTTGCAGTTAAATTGTTAATGTGTATCTACCTAAATAAATAAGTACTCATATATACAGTACCTAATAGTGTTTTTGATTGGCTCCTGAGAAATTTGTAGGCTGGTTTACATTTTGGCACTCTCTGTGATGCCTATTTACACATATATATTTCCTCAGGAAGTAAACATAGTATGTACATCAGACATTAAACAGGAAAGGACATTTTATTTCATGCCTTCTTTCC
1 TCCAGATATGCCAGCAGAAGCCATATTACCATTTCAATGCACACATTTTTCTGCTTTAGACGGTATGTAAATACTTCCTGAGTTCCCATGGATTCCCTTTTGTTCCTTGTGATTACAGAATGGTGATCCAATTTGGATCTGTCCTTATCCTTACacatacaacatacacacatacataTGATGCTTGTATTGTCCACAGAAAATGAGATATTTTCTTACTTAGAGGTTCACTGTCAACATGATCTTGGGA
1 TGCACTAAAGTCAGCACACTTTTTGGCTGACAATTTGCCTTCAGTGCCCATGCCTCACCAAAGCCTACCTTACCCTATATACACCTTATTCCATAGCAGTACAGTAACCCTGGATAACAATATGTTTACATCCAAAGAGTTGAAAAGGCAATTTAAACACTTTAGATAGATTAAATAACAGCTTTTTGGCTTTAAAGCATGCTTATTTTTAACCTGATCTAGGAGTCAGGAGACCTAAGTCATAACTCTG
1 ctttacctccctgaatatgcagtagtttgctatgacaaatgtattcccatggtaatgctctattcccgactaaatatctttttcttctagggagcctctctctgttatttaggttgacaTATATGgtgtcagaaatgggacctgaaaaagattagtactggaagaaatcggtgattcttggaactggtgtacagtattcactagagccctttgagcgcactgcttccatggctccccttttctgccctgg
1 ttcatacattgctagtgggagtataaatcagtaactctttagaaaacaacttgactttatcttataaattaaaagcttttcctccatgcatactgtatagaaatttatccacgtgtaccagatgtgtacaagaatgttcatagcagcattgtttataatagcaaaacaaataagctggaaatactccaaatcaccatcaacaagtagatgtataaattgcagcatagtcatacagaatgctgtgtagctg
1 gaaaaaatactataatgacaatagatgcagaagaaagacttgataaaatttaacaattcttgggaaaactgctaaattaggaacaggtaagaactttcttgaaaacgtgtacacagacaagcaaaatttataataaacatcatctatcatcctaaatgaggaaatacattccctttttaatcaaaaagaaggcaaataaaacatcacttctattcagtgttatatggagatcctactcagagcaaaagat
1 GATCTAGGAGTCAGGAGACCTAAGTCATAACTCTGGATTTCTAGTTTAGAAACCTGAGCTGATTTGGGACTTGTCTCTAAGGGGGATGGGGGAAGAAGCAGAAGAACAGGTAACTTTAGTTCCCTTCCAGACATAAAATACTTTTCAAGTTATCtggacaagtcatttaacatggctgtgcctaaagttctttatctttaacatactagccaacttacctagaatgattagtgtaaaattaagagataac
1 aaattgcagcatagtcatacagaatgctgtgtagctgtgaatgtgaatcagctgtagttaaatgcattgacatggatacatttccaaaaactatcaaataaaaaaggcaaatgacggaagtgatgctgtgtatttaaaattcaaaaacatttgaagctatatttttatggttgcatgtatagtaatataactctaaggaaaagtaaagaaattgtttaagagtggtgattacccttgaaggggaaggagg
-0.02403550263777058 atggccatattgcccaaagtaatttatagattcagtgctattcccattaaactaccattgacattattcacagaattagaaaaaaaatgcttaagccaagtgcagtagtggatgcctgtaattccagcgttttgggaggctgaggtgggcggatcacttgaggtcaggagtttgagaccagcctggccaacgtggtgaaaccctgtctctacaaaaaatacaaaaaaaaaaaaaaaattagccaggcatg
-0.6177908622770094 TCAATCTGATGACATGAAACCGCTTGACTCATAAACAGGAGTTAGAGAAACAGAGGTTAAACCACGGGCACCAAAAGTGGTTGTGAGTCTGTGAGTGTGGAAAAAGTGGGAAAATCCGCAAGCATGTGGCTTTTAACCATCTGCCTCAAGTGCTGAACTGTGGAACCACGTTCAGCGACAGCCTGCTATTTAAAATAATACAAACACTTTCCCCCCTTTTCCTGGGAAAAGAAGAGCATATTTTGCTAGA
-0.73008305291572 tttatttctcttgttgggtatgtgcacatcattgtcaatttcattttcttttatatatttgaaatataTTAAATAtattaaaatataattttcaataatataattactattatgaaaatctaagatgaatatgcatcaacagttttgttcagctcattagttaatgaggcaactagaaagatgttgtgaccagttgaaagaatatttgagaagtatttgagaagctagagtatgtaaaagaaagtaaggt
-0.1775881309186053 ggaacaaaatcccaagggaaatatacgtattacatttgcataagtgaaagcagctcagtatggcttggttgcagagtgaggtatgaaggacatggaaagagaagagtctggggagaaaatgagtcttttatactttcttaatgagattgggctttatctttgaattggaaatcactgagagctcttaaatagagaaTTTTAGAAAGATCAATTTTTATGCCATGCTCCAGTTAAAAAGCATCACCACATA
-0.273720882058923 ttgcagaatcCATCCAGATGTCTGTGGTGGGAGAAGGCCCATCTCTCAGGGAAGAGCACCTCTGTATTTATCTGTTCATATGTGTGCTTCATCAAAGCCTCTTCTCAGCCATGGTTCAGGCTGAATTTATAAAGCTTGAAACCTATCGTATTTCTCAAGAATCAGAGATCAGAGGTGGAAGGTTTACAATATCTCGATAAGTAAGCAGTACAAATGAGTTCTAGCAGTAAAAAAGAAAGAGGTCTAATGA
-0.4906296318694722 TGTACCATTAAGGAAAAGAGATTTAAATGCAATGTGCTTACATTCTATCTAGAGGGCCCATTCTTCAGTTCTGACTTCAACAACAGGACTAGGTTTACTGGCATTCATGTCCAGTGAAAGGAAGGCGGTTAGGAGGAGTCGCAATAACTTTCTCTTCTGTTAAGAGCTCCCGTAGCACTCAGCCACTCCTGGTGGTGTATCCTTGTGTTGGGTAAGCTACCCATATGCCAAATGCTTTCTAGTAGAGGTC
-0.4806714317031546 tggcttccttttgggtaccccgttagtcttatggcacctatacttgcaagtgtttgtgtaaaatgagaaatttcaaaggcatgtcaggtttttctagtactccagctggtctatatattataatctgttttgcacatttgaaactgatgggcaaattacatcaagaaaaaattcagagccccaaagtccacctgcaactatagagttcctaagttctctatttattttattttctgcctgctttacatca
-0.7089831664862529 AACTAACTTAGTAATAGATGACACAGCTTGGAAACTATTGTTTTATTTGATCAAATCTTGGGGATCAAAGTGTAGGTTTTGAGTGTATTTCTTTAAGCGAGGGCTTTGTGCCTCCGAGGTAGCATATGCTCAGAATGCTATTACACTTGCCAGCCTTCCTGCAAATTTGTGGTGTTTAACAAAAAACAAGCACATTTTTCAATTCAAGTCAGGAAGACGCTTTTATTTTTGCTGATTTCGCCTTCTTTTC
-0.8803787508705432 GGTACAGGTATTTATATCAGAGCTGCATATCTGATGCAGGCTAGACCATTCATGTGATTTCTTGATTTTGGAGTTGGGATATCACAAGACTATTGGAAGCCAAGCTGGAAAGGTCTTATGTGTTGCTATGACAGTGGAATCATGAAGAAACATGAAAATGGACATATGGAGCCAATGGGTGGTAGGGTGGGGTGGGGTAGGGGAGGATGACATCTGTTTCCTGGGGACTAGTTATATATTGATAACTTAA
-0.1565103101461586 gtgtgagctaccacgcctggccccttcagtattttaaggaaatatttgactgtattattttttaaaaactcagactattaaaaatgccctgcatcctgtttttttcatcctttagtatttttagcattttctcatatcacaaatattcatcaaaaatatttcataatattccgctgcatgattagtcattcttattatttcttcactacattacacactacactgtgatgaacatccttatatcatcttt
-0.3435342888796266 ccaagagttttgaggctgcagtgagctacgatcgcaccactgcattccagcctgtgcaacatagtgagaccctgtctcttaaaaataaataaaataatagaaaaTaataatttggaatggacaatgaatggatagaagtacaggtaaaacaagactgatcatgagtcgttgctgtttaagatgagtgacacgtttgtgggaggtcacaatactatattattttcttacatgtttgaaacttttcataaaa
-0.8293044138660677 aatgattaatttacatgtctctctagtttaccagtaataagctctttgaaggtaggcatagtcttattcctctttgtatatctaccaccccataaatattaCATAGATTGTTTTGAATTGAATATATTGTTATTGTTTGGTCTTGTAGGTCCTCATCATCAATCTCTAAATGAAGTTACTTGAAGCAATTCTTGAAACCATAATAATAAtgtctccagaattggtggattcttggtctcactgacttcaa
-0.5901379270675701 gatgcatcccctcagcacattgcttcggtgtggtttctcacatatgtcatcctatgatgttcactagattataagctccttgaaggcaggaactatacctttcatcttcattttcttaccagtgcctcacacaacatgtaataggtgctgctttattggcaaatggatgaaCAATATTTCTTTCTACTTTGTTAATCTTGAAATTGGGAATCACTGAATTGTTAGACTGTCAACTTAATTTCCCTACATT
-0.8664451752997046 atacacaggcagcctacagaatgggagaagatgttcacaaactatgtgtcagtcaaaggtgtaatatctaggatctatacaggaacttaactgaacaagcaaaaaataaccccattaaaaagtgggcaaaagacatgaagagacatttctcaaaagaagacatacaagtggccaataaacatgaaaaatgctcaacatcactaatcagagaaatgcaagtcaaaaccacaatgacataccatctcactta
-0.2760699905670026 ggcagctagaaagaaaggtcaggtcacctataatggaaaacccatcagactaacagcagacctttcagcagaaaccctacaagctggaagagattagggtcccatatttgacattcctcaagaaaagaaatttcaacccagaatttcacatccagccaaacataagtgaaggagtaatatggtccttatgagacaagcaaatgctgagaaaattcactattaccagacctgccttacaagagctcctgga
-1 TATAACCTAGTTTTAAAAATCCTAAGTGAAAAAGTTAGTCATAATGTGGAGCATCTATTTAAGACCAATAGGTTAAAATAAAAACACACCTATCTTTTACTTAAATGAAATTTATTGTTGCTGTACAAGTATAGTATATATCTTTAGAGTTGTATTATCTTCATTCAAAAGCCACCATTCCCTTATCTAAATAGTGCTCTAAAAGTTCAATTTAAAAAAAGACATTGAATTTTAATGGCTTTTGTTTTGA
-0.2199286911938629 taacattatgtgacagattatttgactttttagttcataggtctgtagattcagaggcactgcatgtagagttcatctagatcatgagatcctggacttggagcctgaaatcatgatgtggttgaaacttttgcaggtttcatGATGAGGAAAGGATAAAAAATTAGATGCTTGTAGGAAGACATGATTTTAACTTCTAAATATATAGCTAAGAATGAAATCGTAGCATAGTGGTTAAGAGTGTACCAAA
-0.6989732278950416 accctacagataccaagactgctggcaccttgatcttgaacttctaagaaaatcaatttctgttgtttatgccacccagtctgtgatagtctgttattgcaaactgatagaactaatacacccagaaatttcacttctcagggtataatcaatagatatgatgtacatattcaagaagtgttcaaaaatattcatggtagctgtagtcttgtagaccctactggacacatcccaaatgtctaaccttaag
-0.2663400578990224 ggccagagccacagggaagggagccgtaattgtgccaccacactgcagcctgggatacagagtgaaatcttgaaaaaaaaaaaaaaaaaggaaggaaggaaagaaggaaggaGAAAGATGACCTAGTAGTAACTGATCAATAAATGAAATGTGTATAGTCATTATGCCTACATAAAATTATCTATCATTTATCTATCTAtctgtctgtctgtctgtctgtctgtctgtctAAATAAAATCTTAGCCCAAT
-0.5624724439739216 aaaatatttgcctggttccctgattatggttaaagaaaatctataacatatattcatttgtatatccttatgagaatcatgattttgcatttttgttaatattatctttgaacagttttggaggcttcccactgcaatactcaatggaatcacctaacagaaccaggtcaaatttattattaaaaatgtgcaccttataaatagtttaagtccaggtgagtctttccttgggtcccagaggagaatccaa
-0.08191229334796428 ATAGGTAATATTACCATATATGCTCAGTTGTGTGACAATCTGTATAGTCCTGTTTGTTTATTTTTCAAATTCTTGTAATTTTCGTTTATTATGCTTTATAAAATGATTAAATAAAGTAATTTCAGGTTCAATAAAAATGATTGACTGATCTCTGAAGAAATGTAGAATTAGAATAGCAAGGATTTGGGAGCTTACTCCTTACTTTTATCATATCCTAAATATTTTCAAAAGATTAAAGATGCATTCTTTT
-0.1013501946371451 gaaaaatcattatacagaaaagatacgtgcatatgcatatttatagcagcacgattctcaattgtaaaaacatggaatcaacactgaatgcccatcaatcaacaagtggataaagaaactgtggtggctgggtgtggtggctcatgcctgcaatcccagcactttgggaggccaagtcgggcagatcaggaggttaagagattgagaccatcttggctatcacggtgaaaacccatccgtactaaaaata
-0.57830798788754 aGAGCCATTTCTCAGACTGCAATGTGGCAGGCCAAAGGGAAGACTGCTTGGTTATAGGTTTGTAATACTCTACTGCCATATGGGTGACAGCACCATCAGGAAATGGAGTCATTAAGAATGGAGGGATATGCATTTTGTTCTTAAATAGCTAGGATTCCTAAAACTAAAGCTGATATCCATTTAAATTAAAGTTAATTCTCAACATAAAAATAAGTTGTATCCCAAAACATAATTTTAGGTCAGAATGCCT
-0.01285091558263141 atgggagagACCCTGAAAAAGATGGAGAAAGAAGCTGGAAATTTGAGCTGTTTTAGTTCCTCTTCACCAATACATACTTCCTATAATTGATCCCAGTTTCTTTCAGGCTGAATTCTTCACAACCAAAAGTCTAACAAAATCAGTATGTGATAAGTATACATGAAATCTTTTCTTTTTCTTTTTCTTTTTCATTCTTTCTAAATAGAACTATCTCACCCAACCATCCACACACACAAAAAAAAAAGGAAAA
-0.7358250001457989 GATTGAAAACTTTTCTTATGTTACATGTAATGAGTCATACACACTTGATGTAACAAAAATATTTATTGGGTTCCATCTACTGCAATTGTGAAGGCTTCCATGTGAGTGATAATGGAATTGCACTTTCCTATGTTCTCTTATAAAACTCATTTAATAGCCACAGTGGACTGAATCCATTGAGTTTTTCAGTAACATCCAATTCTGCTATATTCAGGTCCATCTTCATATGCTGTGAAAAAAGATTTCACAA
-0.2657568768081027 ATGGAAATGTGATTTTGTTCAAATAACTATAAATGGACAGCAAAAAAAAATACAAGTCCACTTGAATATGAGTAATTTAATATTTTTAGTGAATAAATATATGGAGTCGGAAGAGCATTAAATTCAAATTCTAAAATTCAAACTATGTGGTTCATAGTCAGTTAAAGGGCAAAAATTATTTTTGTTCTGAACTTGTACTTATTCCAGATCGTTTGAACATTTTTACTTCCTGCTTTTTAGGTCAGAGACT
-0.3374750057439146 ctcactggctccttaagcacacatccccactgcacctcccctgctgcggtcagcatcgttgcagtggtccctccagatgggccatcactgccatcaCCATGTTTTTTTTGTTGGTGTTGTTTTTGCCTTTAACTGCTTTCTTCATTTTCTTTGCCTGAGATTGTACTATAAGATTTTACCACTCAATACCTTGAAGTATCATTATTATAGAATAAACAGCACATTAAGAAATAAACTCTTTAAGACAGAA
-0.1720490828748089 ggaggaacgacctacttggacttacagggaaatgaaatactggcctccaatattatacctttctaagacatttcaaaacgtaatttggattatagagatttttctttcaaaagctgactctGTAAAAAAAACTCTAGATAATATATATTATTAAATATCTTATCATGAATAAAAGTCTAGTGTCCTAGGAAATACCATAAAAGAAGATAATCTAATCAAGTTTGCTGGTAAGTTAGACAAAACATgagac
-0.2114707037169798 TCAGTCTGTGTAGTGACTCTCTCAGTTTATTTAGTGACAATGCATTGAGCTTTACCATAACAATTTGTATACATTTTTCTATGTTATACTTTCATAAAAATATTTTTTTAAATGGCACTATTAAACCTCGTTACTCTTCCATACGTAATTCCAACAAATATTCTTGGAATTTTTAATGAAAATTGTCAGAATATATACATTTTTATGAGAGGAATTGTCATTCTAATAACACTGCATCTCCCCATACATA
-0.3134023445727732 atttttgtattttcagtagagacaccgtttcaccgtgttagccaggatggtcttgatctcctgaccccgtgatccacccaccttggcctcccaaagtgctaggattacaggcgtgagccactgtgcccggccGACCAATACATCTTTTGAACCACTGAAAAGGTTGGCTGAACAGAAAAGTATTTTTGCATGTAATATATATGGAAAGGAAAGAGAGAGTGTCAGATTATAGGAAGAGTTACACTGAGTC
-0.7049034867905407 tgcccagaacatggatgtgatgtgatggctggtgctctatcaaccacattgggctgtgagaacaagaaacactgaaggatggcaaggagctatggaccttgacaattttgtcaagtaaccatgctagtcttaaattgctaactttcaggtttcttttatgtgtgtggggaagattaagttctactttgtttaagccttttagggtttttctagtatatgcactccaaacattctaacagaCAGGATACTG
-0.9208114049177392 TTTTCCATCCAGAATAAATTTTATACTAGTATTAGTACATTTAAAGCTGAGAATGACTTGTTTATTTGTCCCAGAAAAAAAACCGACAATGTTTAATGGTCACGTCCAACCAGTTATGGTTTAAAATAAATCTATCTCTAATCAGCCTGGAGAATAAGAACAATGTTGATTGTGCAAAGTAGAGGTTATAGACTCCCATAAAATGTGACTTATTTGATTTCAAGAAGGGtatatgttttcatttatatga
-0.3054477177812795 TTTATTGAACTGATTGTCATGGCTCAAGAAACAAATATAATACACTGAGAAGGAATTTTAAAATGGAATAAAATGTGCTCAGTTCTGAAACTGGTATTATATAGCCTTTGGAAACAAGGAAACTTTTCACACTGCCATCTTAAAAATCTGCTGCTAGAACCGAGAAAGAGAAATCCTCAAGTTGCGGGTATACACAGAGGACTTTGTCTATTTTGGCTCATCCTAGTGTAGATTCTTTCTGAAAATAAGG
-0.3220434769256399 CCCCAGTGTTACAAATCCTGTCACTTATATTCTTACCCATGAACTGAGATGCTGCTACCAATCAAATGTCTTCCCCAAGAGCAGAAGTGTCCTTGAGTCTCCCGCTCATCCCGTTTTCCCAGCGCGTTCACAGAAGATACCACAGAGGCTGCTTGCCAGCCTTGAGGACAAATAAATTATTTCCCATTTCCTGCTCCAGATTCTATACATTATTGTATTTTAAAGAATAAATCATGCCACTTACCTGTGC
-0.7984110409092335 CCATTAGCATTTTATGACAATAGCTTCCTTCTGTGCAGGTGTGACTGACTGATTTCCAAATTAAGAAGCCTCATAGGACACAGGCTGGCAAGCAATAAGGCATCCACTGCTAGTCCAAGATAAGGACTCACGAAGCCATGACCCGTATAACCCTCAATGTTTGATTGACATTTGATCTATCTCTGGCTGTCCCTTGACATCCTCTGGCATAAACTGTGTGATCTACTTATCTTCCTTCTGATAGAACGAG
-1 aaaaaaaaaaaaaaGAGTGAGCCACTTAAGGCTTAATTAAATTTGCCAAACCAACCTCAAAGAGTTAAGAAACCTCATCCAGCTCGCCTCTTGAACCATAACCCATCAATAACTAAGAACATATACAGAGGGAAATAGTTCAATTTAGAACATTGTTTTAATAAGTGTTTACAAAGTGCTTAATAAACATGTAATTTATAGTTTAATTTAGCAGAATCTCATCATATGCAGTCAAATTTAAATGATTCTA
-0.7115490313495861 ATTATAATCACTTTAATAACTGTGTTAATTAAGATCAGAAAATTAATCTATGTTAGCATTGCAGTAGCAATTTTCCAAGTACTGCCAGGGAGTAAGAATGAAAGTGGGTTACAATGTCACATGGCATCTGATTAAGTTAAATTAGTAAGTATTCGAAGGGAAGACTCCCTGGTGACACTGAATAAGATGGTCACAGTTTTCCTGTAGCCTATTGTAAGGGGACAGTTGGTTGCAAAGCTACTACTTTTCC
-0.4973105599871027 ATGAGTTACCAAGGAAAGTAAATACATCTTTCCTTCTTCCTTTTTTTACCATtaaaggaaaccaaaatacttcaccctcaaatatacttctttgacatatttgagatggctattcagagaacctgcagacaggaatagccctgtaaaactaccttttgtgggggagatttacatctgtagagaaaatctacattgctgaaataaacagccagcctttctgtgctgtgacttgtctggatctaggacagat
-0.5160162867656698 GGAATGCAGAGATCTTAGCATTGCTGACAGGGTACACTTTAGAATCATAACCCAAACCTAGTCCTAGTAATAGAATTCTGTCAGTGGCAAAGAAAGGCATGTGAAAGGTGGTACACTGTTACCTGGCCCTTTCTAAGTATAATATGCTTTTCTAACAAATTTCATTCATTCAACCAGTGTTTACTTATTAAGTAGTAATCATCTATATAGAGTTCTAGTATCtttattttatttatttctttttttgaga
-0.5541695322589135 TGCACAAATGTGTTGTCATTTTCAGAGTATTTGCTTTTCTTTCACTTCCTGTAGCCTCTACTATGTCCACCAAGTGTGTAGCACACAGCAGATGCTAACGGGCACGGTGCACTGCACATCTCTTTCCTTATCAAAGGCACATACGGACCCTCCATTCTTCAGACATGCGCTCAACATCCCCCTTCTACATTTCCTCCCACATAGACTGTGATCTCTCTCTCCGCTCATCTCCACCCACTATGATCCTACC
-0.08459051995923528 acagtggctcacgcctgtaatcctagcactttgggaagctgaggcaggtggatcccttgaggttaggaattcaaaaccagcctggtcaacatggtgaaaccccatctctactaaaaatacaaaagttagtcgggtgtggtggcactcacttgtaatcccagctacttgggaggctgaggcaggagaatctcttgaacctgggaggcagaggttgcagtgagccgagattgcgccactgtactccagcctg
-0.1426104898414867 ACCTGTCACTTACTCCAGACTCCAGCCTTGTTTGACTCTCTGTGTCTGCTGTGGAACTACCCCATCATAACAGATTAACGTGTCTTCCATATCCCTCAGCTTCCAGCAACATTTCCTCCTGTTGCCCTTAGGAAGGTAGGCTGAACTCTGATGCCAACGCACGGAGCAGTGGGTCTCCAGAAAGAGCGTGGAAAGCAACGATGGGGCAGGAGGAGGAATTGGCAACTTTAGAATCACTGTGACcaactca
-1 TAGGCAGAAGCTGACAGATGGCACATGGTGGTAGGCTGTTGCCTCATAAGGAGGGAAGGCAGAAGCAAGTAGACAGTGGTATGGAAAGCTTCTTGGGAAGAGGTCATGACAACGCTTCAACCAGAGATAATTAATTATTTGCTATATTCTGTAACTAGCCTGTTTATACAAATAGCTGGTGTGCTCAGTACAACATAGCAGTGAATCTATGGAAAAGGAATCTGTAAATAATAATGCAAGGGAACTTCTC
-0.4500344682081185 tactttctttctttctttctttctttttagagacagtcttgctatgttgccctggctggacttcagctcctgggctcaagtgaccctcctgcctcagtttcccaagtagctgggacttcagatgcctgccaccgcacctagTTCACATTGTATTTTAAACAACTTTCTCATGATGTAACTACATCTCAGCCTTCATATAACTAATCATGTATTTAGTCACATCCTTGGCATGACTTGCAGAGTGTTAAAG
-0.3403104889846413 TGAAGGGAATTTTTTTTTAAATAGGAGAACAAAAAGATACACAGCCAATCTGGTTATGTCATTTCTCAGATTTCTTCAATCATTTTTCTAAATGAACGATAAACACATCACAAAACTGAGGGCCATTCCTCTAGCAGATAGACAATCTGTCCATCCAAGAAATTACATTTCTCCAAAGCTATTTCTTTTTTTATGCATGGTGCACAATTGCTCATTCCAGTTATTAAGAATATTTACCACATTGATTTTC
-0.3986759194139781 ctggttttaacattatatcaggaaaaaacggcactgaagagggtcttgtattgcctacaccactcctcccatatccgctggcatcacagcatgacatggagagagaatctgtgtgcttgggggagggagtgaagagactgtgagactttacattgcaactcagtactgccctgtcccagcggaaagcaacacagggcaggattccaccagttcccatggagagagcatttagacaaatcctagctggagg
-0.6391302006914606 CACTGTGTCTCCAGAATTTAACTATAGCCCACCCGGGTGATTCGTATTTAAGTTGGATACTCAATTACCCAATTTAAAATAAAACTTGGCTATATAAGCAAATTAAAGGTTATCTAAGTTTAAGGAAAATATTAACCACCACATACTATTAAGAAATATTTAAAAAGAAAAAAACAAAAATATTTAGAAATATTAAGTGCCTATAATTCATATTTTGAAAGACAGCAATTCTCCCTCTACCAGCAAACTG
-0.4987451165450646 GGAATCTGCGTGTTTTTTGAACTCATATCCTTCTAGTATTTATTTAAATCTTCCCTCTGGAATCTTGAGTCACCGATTTTAGAttaaagctatacatttctttgtaagcatcattttagttgcaacctgaaaaactgaatatgctgtattttatcatttagttaatagcagtttctaatccttgtgtaatttcttctttatgccatagattataactattctgcataattttcaaatatttgtatttttc
-1 TACTATAATTAATATACAAAACTATTGATTTAATTAAACTAAGCTGCCTCCATATCAAGGAAGGCCCAAAGTTAATTAGCACCATAGCCCTAAGCATTTCAGATACGCTGAGAAAGTAATTTAGTGGTAAAATGCATGTTTATCTATTATAATTTCAAAGACCTTAGCTACATGAACAATTTCTTATCATTAATGGTTTTTAACCCATGATATCTCTCTATTATGTAGCTATATTGTTAGAGCATATTAC
-0.7382973205871222 GCACTATCTTTTAGGAGTGTTACATAATATTGTAGGTGTGAAGTCTTGCATTAACACTGAAATCCACATGAACACCAAGGACAAATTCAACTATGTTTGGTTCATATTATTTTCTATTGCTTTCCACAGGTAGACCAAATATCCAAGCTATCCTAGCGAATTACTTACAATGAAGGGTTGTCTTGTCAATCTTTGTCACTCTTTGGCTTCTCTTCCATCTCAACTGATTTCTTTATTGCAGTTAATTCTT
-0.4638774966891611 CATCTCCCATCTGAACCCTTGGGAAGAACAAGCAGCTGTAGAGGTACCCATTTTCAACTCACAGAATAATCTCCTTTTTCTCCAATCCTCACCCTATTGCCTGCTCCCAAACCACCAAATAAACCTTCTTTGAATGTCCTACTACCACAAGGACAAAAATCTGATGGATTCTCTTGAAGGTAATGCTTCCAAAGCACAGACATTTGACAAGAAACCATTTTCAAACTATGTATCTTGTTCTTTGCACTCC
-0.7558071827541413 ttatacccccaacacctAATCAAATGAACTGAAGAAATTAGAAATCTTCAAAAAAAAATCCATTATCTAGGTATAAAGTACAACTAGTGTAATTCTTCCTTTCTTCATTGTAAATGTATatttaatcattacataagttaatgaataccaactacacacccaggcacaggtctaggtactgggggtatagtggggaacaagaaaggttctgctcacatggagtttataATTATAACCTTCACTGTCAAAT
-0.4229478971919229 atagaaagacaaaataaaatgaaagtgcaggtcgcaaacatacagaaataaattgagaatcaTGTCCCTTTATCACTCTAGGGTCCTAGGCTGGTTAGCAAAATTCAACTGAGTTGGAAAGGAGTGGGCAACTATCATTAAGGTCAATCAATATTAACTGTTTTgagatttgctaaagggttcaaaattacagccagataggaagaataaattttagtgttctataccactggaggatggcatagttaac
-0.5729178190920696 caaggaggtagagtgagtttttcgcccttctcgtgacatcacagccctttgtggtcccagaattagcctcttagcctacattgaatgagccctgggctgacttccaactatccttggtgacatgcaaatataccaagtgcctattcaaatgcatcaagtttcccctgtttagcaaatgctctcaaggcaagtaagacttaaaggctcctttagtctctcatacgtttagctttctcttagattttggcAT
-0.1366484550611503 TCCTGTGCTGTGTCCAAGGGCAGAGACAGGGCTGCTGACCGAAACTTAGAGTCCTCCATGCAGCACAGCAAGGGGTCTGGCCAGACTTGGGGCCGCCTCGGAGGAGTCGTGCCATCCATTCTGGACACTCCATTCTCCTGGGAAGCCTTTGACATGCCCCGCTATCCTGCTTCCAAGGACAGGGCGGTGAGCACCAGTCGTGTTGAGAGTTCTTACGCCTTGCTCAAAGCCACATAACTTATGAAGGATA
-1 AATATCAAAGCCATTAACTATCATTCAGAAGTATTTTGACtcactcatcattcatctgtttatttattcatgtattcacccattcaAGCGTTTCTATAAACTGGGTACAAATCATTTTAACTTCACTCCTGAGAAAGGTTCCACAATGGCTTATTGACCCAAGGTTACCAATTAATatagtaatagctgatatttatggaatgcttattgtttactgggcactgtattaaaaactttatatatgttaatg
-0.6057642756269987 TAGATTGCaaaaatggccacacattcttcccctcctattaaggggtggagcctgtttctctacttcttgaagctgggttggccatgtgatgtgttttggccaatgggacatatttgcaaaatgatacaagcagaagcttgaatagtgcttgtacactggggtttgctttatctttttgcacttggaaacactgcagctgccaccacatgaacaagcttgaattgatctgctggacgttgagagagacaca
-0.8907475714315106 cttgtgatgacattaggcccactggataatctgggatcatcttcccatctccagatccttcagttaatcacatctgcaaagtccctttgctagtatgataacatatttacaagctgcagaaattaggacaaggacaaatttaggagccactcttctgcctatcacaGGGCAAAATGGTACATGGGTGATGATTTGAGAGCACAGTTTGCAACAGAAATTAAGATGACAAGGCTAAGAATACTAGATTAGG
-0.1944068395104506 TCCACAGCCATGTTCCCATCTCTGCTTGCATAATGCCTGTCCTGCAGCTCCTCCCACACCCCTGCCAGCAATCAGCATTCAATTCCCTTTATCTCCTGTCCTCTGGGGCCCATCTCAGCTTTCCCTTTAAAGATTCAAGTTGGGTTGGCTGCCCTGACTTTGCCTTATTCAGGATGAGCGATAcagcttggagggtggggtgtgggttttggtctcagacagatccagtttccaatcccagctcactgtg
-0.4913118895822226 agcaaaactccatctcaaaaaaaaaaaaaaaaagaatgtgaggactaaacaagatagtgtatgtgaGTGTTCTTAGCTTGGCTTAGTTTGGAAGCAAACCATACTATCCGCTTCCGATATGTTTGCTTACTTCTTTCATTCAGCAGATCAGCGTGACATTTTCAGTCCTCTAAGATAAAAAATAATGCCAATAATTAATGGCCCCCACTGACTGTGTGCTGTGTCTGCTCCCAGATGCAGCAATGGCACG
-0.1535290134371224 CCTGAGCTTCAATTCTCTTAAGGCTCTACCAGGGTGACCCTTCAGCGGAGAATCCAGAGTGGGGGCTGCATGTGAATGAAGCTCAATCATGGGGGGCTGCATCTGAAGCTCTCAAGCAATGGAGGCTGGATCTGAAACTGTCAATCACTGGGGGCTGCATGTGAAGCTGTCAATCACTGGGGGCTGTATCTGAAGCTCTCAATCAGTGGGGGCTGCTCTGGGGCTCTCAATCAATGGGGCTGCCTCTGAG
-0.4826805557061363 cccaaagtgctgggattagaagaagcgtgagccactgcacccagccAAAACCACAAACTTTTATAAAATCAAGTCTAAAGAGAAAACACCAAAACCCCACAGAATACATTTCTTTGTTCATAAAAATTCACCCTAACTACCTATTTCACcggtggctcacgcctgtaatcccagcactttgggagtccaaggcaggtggatcacaaggtcaggagttcaagaccagcctggccaacatggtgaaacccca
-0.7775274495267295 GCCTCCTCTTCCATAATACCTTATTTTCTTCTTTGAATTCCACTTGGAGCCCCAGATTATTTGTACTGACAGGACTGGTCTATCACACCTTCTCCTGGAAATAAGAACTCTTTTATGCTCCTACAGACACAATGCGTTAAAATTATGCTAACAATTTCACGTTATAACGTGCGTGgggctgtaagctccctgaaagcagggatcctgtcttgcttatctactcagtgcctagcataaaatgcttcgtatg
-0.290113925013152 ACGGTTTCCCAGGGCCTTGCCCattcatcattcagcacattctgagcacctgctgtgtggctgcaccccaccagggatacagcccagaagaagtcaggcccagtgtctgcccttacatagctcacagctaggtggggaagagacttgagcaaacCCAAGTCTCTCTCTTTTCTCCTGCACAggagttgatccagttttaggggccctctttagacaaaagagtaccaaattatgagtgtggaatgagata
-0.7998381112741328 cgacctcaggtgatccgcccgcctcggcctcccaaagtgctgggattacagatgtgagacaccacgcccagcTAAGGTCCAGATCTTTTATACCTTCATATTGTCCTTTTGTTTGCTTGAGCTAAATGTGTAGTGTTTATTAAGTTTCTTCAGGCAAAATGATTCACAAACATTCTTTTTATTTCTAGGGGTTTTTGCCTTATCTGTATATGGCAATATTATTAACCACATAACTCTACAAGTCTTATTA
-0.4918163206466787 TGAGGGTGACACTTAGGGTCATCCAAACATAGATGGTAATCAAAGGTATGACTGTACACAAGAAATGCCAGAAAAACACAAGGAAGAAAAAGAGGGAAAACGATACCCTAAGTAGCACTAACATTGATGGACAAAGAACAGAGGAGCCAGTGAGACTCTGGGAAAGCAGAGATAAAGGAGGAGAAGGAGAATTCAGGATTTGACTAGCGTTTTGTGGGTCTGCTGAAGCTTTTTCTAAAATGGTGCAGAT
-0.2494894676362814 CTTTCTTGCCCCAGTGACCTTAGATAGTTTTCGGGGTCTCTGCTGCCATCTGTCTTTCTCGGCTCCCTCTCGGAGAGTATTTTTGAAGACCTACCAAAGAACCAGTTCTTCCCACTTAGCAGATGGGAAAGTTCCATTTCAGAGAGTTTTCCTGCAAGGCAGTGAGGGGCAGTCAGGGCATTGGGGGGTAGCTCTGGTTTTGGAGAACTGGGGGCGGGGGTGATGTCTGGGGTATagcgcaagccccagc
-0.4139525924954698 AGACAGCAGAGTTTGCAGAGAGAAGGGTAGTCTGCTGCCTAACTGAGAATGACAACTCCTAAATCTGGCCATATGTGAAAATAATAGTCTAAATGCTACATGTATAATGCTTAACACTTACTTCTTCAAGAATTGATGAGACTTCAGCTTCTCTCCTGAAAAGATCCTTTCTATCTGGGTCTTTGCTATCTTTATTTAGTCAAGAATAACTGTCTTCTTTGCCCCAATCATACTTGCCCCCACAATATTT
-1 TCCTGTTCCTCCTCACCCCACTCTGCAGACATGCCTTTCTGTCTGTCCTCCCAGACTTTTCCCCTGCATAAAGATGTTCATTTTGTACATACACTCAGACATACATGTGGCTGTATTTTTTGTATACCGATTTCTGGATGGAATGCACACTGTTATCTGTTTAGTTACTTTATGTTTTCATACAAATGACATCATCCCACAAATAGAATTCTGCCATTTACTTTCTTCACTATTCTTATGTGGCATGGTT
-0.6210103831655645 gactctttcccatataccacAGTTTCTAATACGATATTATACCAAGCTTTAATATGAGCACACCTCCTGGATGATGCTGTAAATTAGTTGCCTCCCACCACACCACATCAAGTATAATGGATATAATATGATTTTTCAGAATTCAGCTAATTACCTACTGAGCTTTACATTTTGTAACTTTTTTGACTGTCCATCAAAATGTCTTTGGGATTAAAAATTTTTTTCATATGTTTTGAGGTCAATTTGAATC
-0.3751918435693429 CTAATGACTCAAACACTGCTCTGGACTGGGATGGGGAGGTAGCCACATAGCCTCTGACCCCTCTGTGACCCACTTCCAGGCCCCCAGAGTAGCCCCTGTGGAGGAGCCTCCCTCAACCCCTCATCCCCATTCTTAGGAGCCCAGTGCTTAagagcttaagagctaggctctggagcccacagcctgggtttgaattctggctttgccatcatctggctgtgtgatctcaggcaaatcacttaacctctct
-0.8677313678523955 taaaattattatatatcaacttaagttaaataaaTTGTACTTAAAAAAAGAAATGGGCTATGTTTTAGTGTTTGCCTTACTTTAATTGCATGCATTTTAATGTAAAACTGTGATTCAACCCTTCTAAAATCACTAGTTTTATAGTAAATAGACTACCAAGAGCCACAAAAACAATGTTACGACAGAATACAGCCAAAGACTTGAAGTGTTTCCAGGTATAATTTTGGGAAATAACTAGAAAGATATTGTA
-0.2438898391012997 ggccattattaaaaaagaagtaaaaagaaatagtttaaaataaaatgaaccacgggacgtctggagactattttaaaatacatcattagaagcccaagatgaattttttgtcatgaatcataaaaacaagccagatgcattaaaaaatgctttcacagcaaactattacagtaaaagctgccttcataggaagaaacaagcatctaaatcaaattttcccaagtcaaggaagaaagggaagcctctaaaa
-0.7946748245181562 aatcaaggatttattttttcccaaatggacatcctattgccctatcaccatttattgaaaagtctgctttttcctcactgtactacatggtcatttttgtcctaaatcatcacatacaggtggggctgtttctagattctgtgcattccattggtctctttgtgccaatactaccttacctcaattactgattttataatttacatctctgctagagtgaaatcctaatttcttcttcaagattttattt
-0.2628459865805919 ctaatgcctagttagagccttgtacctggtaaggattcacttaatattttttggaatatgaatgaaAGATTATTCATTCTGACCTGGACTGTAGCACCAGGCCAAGGGCAGGAATCCCAAAGCTGTGTTGAAACTTGCCCAATGCAGCTGGTTACTTCAGCCAAGTTTATCTTGATAGCCTCatccatttattcatcaaagatttattcagtctctaacgtgtttactattgttctagcaggtggggatt
-0.4293077153245714 TATTAACTGATACCAAAAATCATAACTTCATAGCTTTCATACAAGAACAAGTTTATTTGCTTGCTCATCAGAGGTTCATTCCCAGTTTTACAAAACTCTTTCAACTGGAGAAACTTGAATTCAATATGCCTTATATTCTTTTTGTATATGTGTGAGTTTTTTCCATTTGTTTGATTGTTTTGTCTTTTTTTTCCTAGAGTTGGACTTTATGTTACTTCCCAATGACTTTAATTCACATCTGTAATTTGGG
-0.5180073597760935 TGATGTTCCAGCATAAATTTTCTGTGGCTATCTCCGGGCTTCATGTGTCTCCTAGCTCAGGCTATTCCCCAGGTTGAGAGTCACAATCCTCCTTTCCATGTGGAAACTACATGTGATAGAGATTTAGTTCTGGGAACTCTGCCATCCAGCATGTTAGGGGTCTCCTGCTTTAGCCTTGGGATCCATGTCGATAAGGGGAGTTGCTGAACCATTGGGCTAGGGCCCCATGAATACAGAATTGCTGCTGAAG
-0.4334177090060257 ctgggatgggtcatttgatctttcaggatctcaacttccatatctgtgcagtggtgaacaagacccatctcacaAATATGTCAAGGTAGGATGGGATAGGAAATGGGAAACTGTCACAGATGCGATAAGGCTCTTGACAGTGGAGAAGATGTGGTTTAGAATGCCTTTCACTGTTTTCTCAACCCTGGGTCATTCTTAACCTTCCTAAGGCTCTGGTTGCAAAGTGCAGGCGATGACCCTAACCCTATGA
-1 CACCATGTTGGTCAGGCTGGTCTCAaaatactcacatttgtgagtaagaagaggttgtaaggatgttcactgtggcattgtttgtaagggtgagatatgggaacaacagaaatatccaacaacaggatatagattaactaaaaggagatatattcagtctatgggatattatatccatctaaagaatgaaggtgatgtggaaagagctccatgatataccaggtatgatgaaaaaatgtgagttccagga
-0.2407875843261274 TGAAAACATCACCCTTAATTATTCCCAAAACAGTCTGCAATAGTGAAGGATACCAACCAGTAATCCCTCATGTCTAATTATACCCTTAAAACTTGCAAGCACCTTATATTCAGAATATATTTGAATGCTTACAGAAACCTTTTGAAAAAGAAGAAGAGGTAGTATCCCTATTTTGCAGGAACTAAAGTTCTTGGGCTTTCTATCATGCAACCATCTAATCACTCATTCACCCATTCACTGATATAGAGAT
-0.6570513442664537 ctcagctttcatagaattgaagagagttagggccttgccctggattagcctttggtgtatgggaatgttgtggttggtttgatcttctatccagaccactcagactttctctgtatcagcaataagactgttttgctttcttatcactcgtgtgttcacgggagtagcacttttaatttccttcaaaaatttttcctttgcattcacaacttggctaaacatttgttgcaagaggcctagctttcatcct
-0.4029665734905351 TGTTAGAGATCAACTCTGCATTTTAGCATCTGAGCTGCGGGAAACACAGGGTTCCTTAAACAAGCAACTACACACAAACATCCAAAAAGTTTTTCTTTAGAAAACTCAGAACCTCAAAGCTAACAGATGCTACAGATTTTACGGGCAGCTTTTAAACTTAAAGTTCGTAGAAAGAAGTCTTGTGGAGTCCTCCTTGTAGGTTGCGGGAATAGAAACTTTGACTTTCTATAAAATAGTAATTCATGAGAAC
-0.5164105246865578 AGTGATTTTCAAAAAGACAAGTCAGACTGACATGCAGCGCAGTCAGGCCACAATTACCCTGGAATAATCACTTCACACAGAATGGTTGAGGAGACTTTCTAAGATGAGCAAATTTGGGCAGCATAATCCTTGCTTATTTATTCCCAGCCCCCACTGCCCGCCTGATTCCTAATGGCTACCCTACAATGTGGTCAGCAGTGGGATGTAGCGTGGTGAGAGAGGGGCTCAGGGACGGGATGAAGGTCTTTCC
-0.544655320941597 CTGGCTGCTCTGCTCATGACCATTGTTTCCTTGCCGTGCCGTGTCCAGGGAGGAGGAAGCACCCGAACAGCAGCTTCTATTCTAATGTTTTGTACCTGTATCTTCTCCCCCTTTTACCTCTCTCCTTACTGCTATCTTTTACATTAATCAAAGGTGAACACCACAACGACTGAATAGAATAGTTCCCTAGGTAAGACTCCCTGCCTCTTCCAGCAGCATGGGTGAGTGAGCTGGTCATGTTCTTTCATCG
-0.8129599090032359 aataattatgaaaagatgaaactttattattaatcaaaggcatacaagtttttaagatggcataatattttataaatagcattttgacaaacctttaaaaggctgatagttttgagtgtggaaagtatgtagagaaatacaaattatctttagttgtatgtatgtataaattaatataaattagtagaaccactgtggcagaagctgctagttatctgctaatattggtctttctcttctttctcagtaa
-0.1961786021956141 AGTCACCTCATTGTAAGCAATATTCACCCTAATAATTTAAtttttttttgagggggaagggtctagctatgttgctcaggctgacctcaaactcctgggctcaagtgatcctcccgcctcagcctcccgagtagctgggagtacaagcatgcaccaccattcctggTTACACACTAATATTTTTAGATTTAAGCAGATGGCCCTACTACATCAACAATCCTGAAGGCTCAAAACATTTAAAAAGAGTTaa
-0.7045042045095499 cttcaaaaagacaggctgtatacatttgcactaagagaagaaatcgtgtaatgtcagcaaatttcccccacttaaagcttctctatttaaaaaGCTTCACGCACACATGCACGCATATGTCTTCAAGATGACCACAATTTATTTTGCAGTCATTCTTTGCACCAGTTCCCAAtttttcccactagcttgcaagctccgtgactcgaggagaccgggggatcagagtttgtttttgcggagaagtgagtcc
-0.3657993790225488 aggactggcaaattagctttactcaacatgccccgagtcagataactaaaatacctcttagtctaggtagacactttcactggataggtagaggcctttcctacagggtctgagaaggccaccgcagtcatttcttcccttctgtcagacataattcctcagtttagccttcccacctctctacagtctgataacagaccagcctttattagtcaaatcagccaagcagtttttcaggctcttagtattc
-0.001814871192481444 cccagtaggtttcagcctcattttacccagctcctattcaagatggagttgttctggttcacatgcctctgacaCTTATAGAAATAGTTTTTTTTCTTTTAAAAAACTATATATGAAAAAGACAATATTATTTTATTGTTAATTCAATTAAAGCATTAGAATCCTGTTTGATTCTGGAGGCCAAATCTAAGCTCTAGTTTTCTCTTTATTGCAATTCAAAATGATAGTGATAATTTTGTAGATGTAAAAT
-0.8063691513574798 AGGTCTCATGCATTAAGTCTGCGTTGAGCAATCCCTAACACGGTTTTTGcctacagatacatttgcacaactgtgaaaaccaggtacgtattcattgcatcattttttgtaaAAAGCTGAGAGAAGTGCCCAGCAACACGTCGTGCCGCGCGTGTGCATGGAACACCATATAGCCTCACCATTAATAGGCAAGATGAGCGAGACCCattatcagatgagaaaagcacggcacggaatactgtgtccaatg
-0.4581792200594655 TGACACATTCATCCACAAAAGTCAGATCAAGTTAATGAAAAAAGAGAAGATTGAGGTGTTACTATTCAGTAGTACTTCTTTTTATTTATTACTTTATTCATCAGCACATCCAGGAGAGCTTAATAACTCGCTCTCCTAGAATAAAAATCCTAGTTGGTACTCCCACCATGGCCAATTTTAAGGACAAGGAACACTAAGTTACAAGGAAATGACAATAATCAGTTCTCATTAGATGGTAAGGACAGGTGTG
-0.2816202806230099 gtgatagtcagggagttctcacaagatctgatggcttaaaaaatggcagtttcccctccgctctctttctctctctctctcctgccaccatgtcagatgtgccttgcttcctctttggcttccaccatgattgtaagtttcctgaggtctccccagctatgtggatctgtgagtcaattaaacctcttttgtttataaattgtgcagtctcaggtagtatcttttttttattattatactttaagttctg
-0.2518926489951235 gctttcctggttctgagacctttggacttggattgagccactctaccgattcccagggtctgcagcttgcagacggcctgtcatgagacttctcagccttcataatcacgagccaatttttgtaataaattccctcatagctctctctctctctctctctctttctatatatatatattctattggttctatatttctggagaactctgactaatacaTCTTGAATCCCTTTTAACAGCATGTACTCTCC
-0.5510344406097094 ttgcacaagtagtttgaaaTATATTGCTCTATCTTACTCAAAATTGATGCGTATGTGATTTCTTTTTCTATAATGTGAAGTTTTTTTTGTTGTTGTTCTTTGGGGATCTTGTGCTCTACTCCTAAAATATTAATGTCATGCAGGATTCCAGAATTGTTTTGTTTTGTTCCAGATATTTGCCTTGCGTATATAAAGATGTGGTCATTCTTTGCATGCTCTTTCCCCAGAGACACATGTAAATGGAGTTGTA
-0.3619117557229983 tgctcattagctgatgcagtttcttcctagcctccatggtctttacaatttggcatgtttttgcagtggctggtaccggttgttcctttccatgtttagtgcttccttcaggagttcttttagggcaggcccggtggtgacaaaatctttcagcatttgcttgtctgtaaagcattttatttctccttcacttctgaagcttagtttggctggatatgaaattctggtttgaatattcttttcttttaaa
-1 TAACAGCCCatgtatgtatgtatgtatatatgtgtatatacatacggtagatatatatatatatgtaactttgtatttatttgtgtctatgcatgtttatgtatgtGAATTACTGCATACCTCTCTATGCATGTGCTTGTGCCTGAATGTGCAATACTGTTTGTTGGGAATCTGTGTGTGTATACGTGTGGGTCTTGGTGCTTACATTGGTGTATTCCATATCTACATGTACATATGTCTTCTTGAAGTG
-0.5122443865005208 tgagctttctacctacaaacctgcagaaaattgaactgagatttggaggtgaaagactcTTGATAAAGGGAACAAGGTTTAGAATTCTCAGTCCCTTTGCTCCCAGGCTGTGTTGTGACTACTGAGGCACTCCAGTGAAATCACTATTCCTCCTATCTAGACTAATGCCTGTCTCTGCAGAGCACCTCATAAGAACAGGCCTGGTAGTAATATCCTCatgcattcagtcagtaaatatttacagagtgct
-0.735921400618562 TCCAGAAAGTACCTGCTCATCTATAGCTAGTCCCAGGGATCATCTCTGGTCTAAAATATCCTTGTATGAAGCAAAGTGGAAGTGGTTCATAAACTGAAAGAAAGCAGAAAACTGATCCACACAATAGTGTACTCAAGAGATttcattctaccaaatagtttctgagcttctcctatgtgccagactctgtgcaagggggaatagagaaatgagaagacaaataaaGAAGAAGTGGCAGATCCTGCTCTTT
-0.7245763574324218 AGCAAAGATCCCTTAACAGTCTGTTTAAGCAGAGTGACTGGCATATACTAGGAAGTCAATGAATGTTCACTTTCATACCTAAATGTAAAATAAAATAAACGGATTGATTGCAAACAGAGGGTTATTTTGTTCATACCTATGGAAGGAGGAAAAGATAAATCTCCCTTATTGGAGATGCATTTGCTTTACGTTGATGTAAATAATTtgtgtgtgtgtgtgtgtgtaagactcagcttaggtgcttgcttct
-0.681974231259267 tccagtaatggcagactataacatgaaagtcatccctcatactgagaacaaccaaataatctgaatatgttttttaaaaatatgatgaaagacatcatagagttaacaaagcaagaagtatatgtagcaaaaatacagaagaagaagaagaaaacccagagaggtaatttgagatttggtggttgctttttccttagggaaatttttcaattccagaagagactactgaaaggctacaaactgagcagaa
