svm_type c_svc
kernel_type wgkm
L 8
k 5
d 2
M 50
H 50
nr_class 2
total_sv 1428
rho -0.678112
label 1 -1
nr_sv 533 895
SV
0.06762648450857853 atcattgccattgtcatcatcaccatcataacaattatcaccagcaccatcatcgccattgtcatcatcatcaccatagttaataatcatgatcaccagtaccatcatcaccattgtcatcatcatcataatcgtcatcaccagcaccatcatcgaaattgtcatcatcaccatagttaatcatcatcatcattagcaccatcatcgccattgtcatcatcaccactataattaataatcattaccatca
1 ctctctagcacctgttgtttcctgatttttaatgattggcattctcactggtgtaagatggtatctcattgtgattttgatttgcatttctctgatggccagtgatgatgagcattttttcatgtgtctgttggctgcataaatgtcttcttttgagaagtgtctgttcatatcctttgcccacttgttgatggggttgtttgtctttttcttgtaaatttgtttgagttcattgtagattctggatatt
1 tggaaagtaatccaatggaatagaatctaatgcaataaaatcgactcagatagagtagaatgtaatggaatggagtgcagtgcaatggaatggaatggaatggaatgcaatggaatggaatggaatggaatggaatggaatggaatgggatggaatggtatggaatggatagtaatggactggagtgaaatggactggaaaggaatggactcaaattgaaagggctcgaaaggaatggagtcaaatggaa
1 tggtgcagagtggagtggactggagtgcagaggaatggagtggagtgaagtccagttgagtggaatggaatggagtggagcagagtggaattcaaaagaatgaagtggattggtatggaatggaatggcgtggaatggcgtggaatagaatggaatggaatcgcatggaatgatatgaaatcaaatcgaattgaacggaaaattatgaatccaatggaatcgaaaggattctaaaggaatggattcgaaa
0.1740597353995116 CTGCCATCATCACCATCGCTGCTATCATCACCATCACTGCCATCTTCACCATTGCTGCCATCATCATCACCATTGGAGCCATCACCATCGTTGCCATCATCATCACCATCAGAGCCATCATCACCATCAGAGTCATCATCATCAACACTGGAGCCATCATCACCATCAGAGTCATCATCTTCACCACCGGAGCCATCATCACCATTGAAGCCATCACCATCAGTGCCATCATCATCACCATCAGAGTCAT
0.6485130512464423 aatccattcaattacattcccttccattccattccattccattccattccattccattccattctatcccattccattccattctattccattccaattcagttgattgcattccattccttttgattccttgccattccattccattcgatactattccattctattccattccattccattttattccgttccacttcattcctttgcattcaattcctttccattccattccattccattccattcc
0.3484974539917832 tatgatttatgtatgtatgtatgatgtatgtatgatgtatgtatgtatgatgtatgtatgtatgatgtatgtatgtatgatgtatgtatgtatgtatgatgtatgtatgtatgtatgtatgatgtatgtgtgtatgtatgtatgatgtatgtgtgtatgtatgatgtatgtgtgtatgtatgatgtatgtatgtatgtatgtatgatgtatgtatgtatgtatgatgtatgtatgtatgtatgatgtatg
1 TTAATAAAGGTTCATGGAAGGAAACCTGTTTCCTAAGGTAGGgtgggagtgtgtgtgagtgtgtgggggggagagggtgagagtgtgtgcgtgtgttagtgtgagtgtgtgtgtatgtAAGGAGCAGGAGTGACTGGGTCCTGAGTTTAGGGAGTTGGGAAGAGGAAGGAGAGATGGAGACAAGCCTGGACCAAGAGCCACTCAGAGCTGCCTGGAAGGGAAGCCAGGCTGAGAAAAAGGCAAGGCAAAG
1 accacaaaaaggatacctgactattgtatgagagctgaaaaagaaggcagaatatcatcctgttcaaactcaaattcttttgacactctgcgcaaacacatgactatgaaaggctgtgagtactgatttgggggttacaaaaaatagtaggtgagttcacaaatacaaaagctgaaaacaaggaggatagactgTATTTTCGTAGACAATCTAATCTCAGAAGATTTCAATTCAGACAAAAATCATGAGA
1 ATTTCTCCTCCATCTCCTATTCCGTTatctccatctccatcatcatctccatctccgtctccatctccatcatcatctatcatctccaatctccatctccGAAGTTATGCCCACTTCCTGGAAGTTTGGAGGCACGGGAACTACATTGCCCAAAAGGCGCAGCGCCGCGAGGCGGCGATCCCTGACCAATGAAAAGAGGTCTGCCCGAGCGTGCGACACGCAATGGGCGGGACTTCCGGCGTCTCGTTTG
1 CCTGCAGGCCCCAACCAAGGACCCCTGTTacacacagacacaaagacacaagatgcagcaacacacacacgtaatacagaaacacagtcacacactagcgcacacacagacacagtcagacaatccaagaaacacactcacacatgaacagacatataagcaaagtcttacacatacaaagacacacttaagcacagacacaaacacaccaacagatgcacagacggacacacatagacgcacacTGGGA
0.6907732880536299 AAACACGCCTACATACAAAGAGACAGAGGAGACAGAATGACTGTGACAGAGATGTACAGAGCCACATTCAGAGAAAGAAAACACATAGAGAAGGAGATCCTCAGAGAAAGAGACACAGGAAGGAAGATACTTGAAGAGGGAAACACATAGAGGCACTGACACACACCTGGAGGCACACAGAAAGAGAAGCATACACAGAGACTCATAGAGAAAGAGAGATACCGCAGTAAGAGACTTGGTAAGAAAGAGA
0.521100336797182 atgaaatgaaatgagattatatgaaatgacataatgaattaaatgaaattagatgaaatgaaatgaaatagtgaaatgaaatgatgaaatgaaataatgaaaatgaaatggaaatgagatgagatttgatgaaatgatgagatgaaatgatgagatgatatgaaatgatgagatgagatgggatgagatgaaatgagataaaatgatgagatgtaatgatgaaatgaaatgatgaaatgagatgagatga
0.5711053820795254 TTTGAATGATAGACAATGGAAGGAAGGGTGTAGTGAGCATAGTCAGTTTGAATGATGGACAATGATAGGAAGGGTGTAGTGAGCATAGTCAGTTTGAATGATGGACAATGGAGGGAAGGGGTGTAGTGAGCATAGTTTGAATGATGGACAATGGAAGGAAGGGTGTAGTGAGCATAGTCAGTTTGGATGATGGACAATGGAAGGAAGGGTGTAGTGAGCATAGTCAGTTTGAATGATGGACAATGGAAGG
1 ctcttcttggttaatcttgctaatggtctacgaattttatttatcttttcaaagaaccagctttttgcttcatttatcttttgtattttttttgtttcaatttcatttagttctgctctgatcttggttatttcctttcttctgctgggtttgggtttagttggttcttgtttcttaagttccttgagttgtgaccttagaatatcagtttgtgctctttcagtctttttgatgtaggcatttagggcta
0.5954062157510454 gtcactgcaaaagctctccagctatgggaatatgcgtagcacttcaaagaacagaaaagaggaaaagaggtcaaggaaggtggaacacaatgagaaaaggggagaatagcaagggaggaggtcaaaTATCTGTtggctgaaggaagggatggagggagggaaggcaggagggatgggtatagggatgggtataaagatgggtggatggatggatggatggatggatggatatggacagatggaaggaaga
1 CACTTAGAAAGAGTGGGAGGAAAAAGAAGATAAGAAGAGCCAAGAAGGGAATTCAGATGAATGTCAAGAACTAAGGCACAAATAGAGGCACAGTCAGAGAGAGAGAGGGAAAAGCAGAAGGGAGTGGAGTCAGGGGAGCCAAGGGTGGAGAAGGACAGAAGGATTGACCGAGCCACTGTCCTCAGAGGTTGTGTAAGATCACTACTCAAAATGTCTATTTCGCTGGGCAAATATGGTGTTTTCTATGACC
0.6630983983286969 ggatggatggatatagggatgcatggatggatatgtggatggatggatggatatatggatgtgtggatggatATGTAGATTCATAGATGAATATGTGGATGATGCATGTATGTGTATGTGAATGCTGCATGTAGGTATATGTGGATGCAGGGATGAAGATGTGGATTCATGGATAGATATGTGGATTCATGGATGGATATGTGGATGCATGGATGGATGGGTGAGTGGCAGGATGAACGAGTGGAAGAAT
1 gattccattcctttcgattccattccattcaattcgattaaattccatttgattccattccactctattccattctgttccattccactgcatgccattctattccattcctttgcattccattccatttcgtttgattacattccattcaatttcaaggcattcgaatcaattacatttccatccattacattcgagtgttttctattccagtccattccattccagtccattccatttgattaaattc
1 TCAGATGGAGGAGGAATATGGAGACACAGATGGGGAGGAATGTGGGGGTCAGATGAGGGAGGAACAGGAGATCAGATAGGGGAGGAACGGGAGGAAGTCAGATGGAGAAGGAGCATAGAGGGTCAGATGGGGAGGAACAGAGGTCAGATGAGGGAGGAACATGGGCATCAGATGGGGAAGGAACAGGAGGAGGTCAGATGGGGGAGAGCATGGAGGCTCAGATGAGGGAGGAGCATGGAGGGTCAGATGG
1 ctgtaaaatatgaatttttttgtcttttagcctTGGGCTAAGGACAATTGGTATACTGTGTGCATTAGGCAATTCGGGTGACAATAAATCAAAAAAAAAAAAGTAATTCTACTCTAGGAATCAAAAAACAAAacacacacacacacacacacacagacaaaaagaaaagaaaagaggaaaagaGTACTGAAGAAACTGAGCATGCTGAAGAAAGTCAGGAAATCTTGGAATTCAGAGAAGGAATACCCCC
1 GCTGGtctttctttttctcttttatttatctcttacttcttttttactttAGAGTCTTCTGACCACATTATTCTTCGCCTACAGTGTACTTAATTTACTCCTTCCCTAGTCTTCATTCTCACCTTCACTGAAAGGTCATTTTTTTATCAAAGTTGTTTTCTAGATTAAGTTAGCTCCCTGTGTTACACACACCTATAAGTCTCTTCTTTTTTCTACTTTGTACACTCAGAACACATGTAATTTTTATAAT
1 gcacaaactgacactctaagatcacatctcaaggaactagagaaacaagaacaaatcaaacccatacccagcagaagaaaggaaataaccaagatcagagcagagctaaatgaaactgaaacaaaaaacaatacaaaacataactgaaattaaaagctggttctttgaaaagatacataaaattgaaagactattagcaagattcaccaagaaaacgagagaaaatccaaataacctcattaagaagcaa
0.9978790307822094 cacacacagacatacatacatacacatatatacacatacacacacatagacatacacatacacacacagacatacatacatacacatatatagtcacacacacatagacatacatacacatatatacatagacacacacacagacatacatacacatatatacagacatacacatacacacacagacatacatacacatatatacacagacacacacacacatagacatacatacacatatatacacata
1 atcaattatgttgatcttttcaaaaaaccagctcctggattcattgcttttttgaagggttttttgtgtctctatctccttcagttctgctctgatcttaattatttcttgccttctgctagcttttgaatgtttgcttttgcttctctagttcttttaattgtgatgttagggtgtaattttagatctttcctgctttctcttgtgggcatttagtgccataaatttccctctacacactgctttaaat
0.1316567326580536 cacaaatcacacacaccacacacacacatatcacacacatcatacacacacataatacacacacacacaAATCACGGCACACACCATACACGCACATGTAAACCACACACACACAAATCATATACACGCACACACACCACACACGTCAACTATACACACAAAAATCACACATTCTTTCACTACACAGGCATATATAAACTACACACAGAAATCACACAGGCAGACACACTACACATGCATATGTAAATTA
1 GGGACTATGTAACTAATGTGAAGACATCAGGTAAAATGAGGGTTGAAAAGTGATTTAGGTTCTCAAGGGCATGAGTGGTCTTAGCAGGGGCCATTTCAGTGCTGTGGTGGGTAGAGACATTATGTTACagtgagtggaggagtgagggagtatagggtcagtgagtggcagaatgagtggacaatgagtgagcgaaaagaaagtgcatggaagagtgagtgagtggaggagtgagtgagtggaagagtga
1 gggagatggaacttgaagtgagccgagattgcaccactgcactccagcctgggagacagagcaagactccatcaaaaaaaacaaaacaaaacaaaaaacaaatacacaaaaaataaaagcaggaaattaaagcataccaccagagaaaatcaccttcactaaaaggaagagaggaaggaaggaaaaaaggaagagaagactgtaaaacaaccagaaaacaaataaaatggcaggagtaagctgctattta
0.05475561886028416 gagtgatggagtgagatggagtgatggagtgatggagtcagatagagtgatggagtaatggagtaagatggagtgtggagtgatggagtgagatggagtgagatggaatgatggagtgagatagagtgatggagtgatggagtgctggagtgagatggagcgatggagtgatggactgagatggagtgatggactgagatggagtgatggagtgatgcagtgagatggagtgatggagtgacggagtgag
0.07601439628211977 tctacctacctgcctatccatctacctacctacctgcctatctacctacctgcctacctgcctatctatctacctgcctatccacctatctacctacatgcctatccatctacctgcctacctgcctatctacctacctgccttaatacctacctacctttctgcctcctacctgcctatctatctacttgcctgtctacttgcctatctacctacctgcctatctatctacctgcctgcctgcctttct
1 gtgggcatttagtgctataaatttccctcttaacactgttttagctgtgtcccagagattctggtacattgtgtctttgttctcattggtttcaaataacttatttatttctgccttaatttcattatttacccagtagtcattcaggagcaggttgttcagtttccatgtagttgtgtggttttgagtttcttaatcctgagttctaatttgattgcactgtggtatgagatattgtttgttatgattt
1 gtgtggatttttccagcttcgttcagcttgagggtgcaggtggagagttggatctcacggaggttgggatttatctgggtaagtgtgaaggtggaagaggaaagcaagcgagtgagtgtttgaaaggaagtgattacaatgtgagcctggaatctaagctaggaagaagggatgtgaggatgtgacagaaggtgggggagacataatgatggggaagggatgtggtggagagtgaggaagatatgatgat
0.106231285614233 catccctcacataacacacacacacgttatatgacacacacacccctcacgtgacacacacacgttatatgacacacacacccctcacgtgacacacacatccctcacgtgacacatacacatccctcatgtgacacacacatccctcacataacacacacacacccctcacataacacacacacacgttatatgacacacacacatccctcacataacacacacacacatccctcacgtgacacacact
1 GGGGAAGGTAGAACTATGTCATAACTCTTAGGAGTGAGTGGGGAAGGTAGAACTATGTCATAAGCCTTAGGAGTGAGTGAGAAAGGTAGAACTATGTCATAACCCTTAGGAGTGAGTGGGGAAGGTAGAACTATGTCATAACCCTTAGGAGTGAGTGAGGAAGGTAGAACTATGTCATAACCCTTAGGAGTGAGTGGGGAAGGTAGAACTATGTCATAACTCTTAGGAGTGAGTGGGGAAGGTAGAACTA
1 ccagtctgtgtcttttaattggagcatttagtccatttacatttaaagttaatatggttatgtgtgaatttgatcctgtcattatgatgttagtcagttattttgctcattagttgatgtagtttcttcctagtctcgatggtctttacattttggcatgattttgcagcggctggtactgattgttcctttccatgttcagcgcttccttcaggagctcttttagggcaggcctggtggtgacaaaatc
0.7917050129688862 catgcccacatatgcacagtgtatgcatgcacatgccacatacatgcccacatacatgcagagtgcacatatgtccacatatgcacatagggcacatatgcatgcaacacacaagcccacatacacacacagagcatacatacacacaccacacacatgcccacatatgctcacatgcacacaccacacacatgtccacatatgcacacagtgcccacatgcacacaccacacacatgtacacatacaca
1 TCGGCTCCAAGAGGAAAGGCTCAAGGCAGAACCTGGAGCACAGAGGACCACCAGGAGGTCACCAGGGGACACTGGTCCATCCAATCTGTCCATGCCATGTCATGTCTCCCCATCCTGTCACCCAACCCATCCATCACCTCATCCATCCCATCATGTTCCACTCCACCCCAATGCCTTCAAAACCCGATATACCCTATTTATCCCATCCCCATCCACCTCAGGCCCCAGCCACCACAGCGATCCCATCTGT
1 CTCTCATACCCACTCTCCCACACACTCTGTCCCTGCCCTGTCTCTCATGCCTGCTCTGCACACACAGTCCTGGCCCTGCCTGTTACGCCTGCTGTCTCTGCTTCCCTCTCTCACGTCCTTCCCTGCAGGGTGCGTCTCTCCCTCCTCTTTGCACACATGTTCTTGGCCTTTCTTCCTCACTCCACTTTCCTCCTTTCAAAAGTAGCATTGGCAGGGCTGGGTGTCACTGTGAATGACATTCTCTGCGTTA
1 aggagaagcgctctgtgttttagagtttcccgtttttctgttctgctttttccccatctttgtggttttatctacctttggtctttgatgatggtgatgtacagatgggtttttggtgtggatgtcctttctgtttgttagttttccttctaacagagaggatcctcagctgcaggtctgttggaataccctgccatgtgaggtgtcagtgtgcccctgctggcgggtgcctgccagttaggctgctcgg
0.6109143125083466 caatttatctatctactatctatctatgtatctatatatctaacatctatcatctttctatcaatcatctatcatctatatatcaatcatctatcatttatctatatattcatctatcatctacctatcatcaatctatcatctatgtatctaacatctatcatctttctatcaatcatctatcaatcatctatcaactatcaatcatctatcatctatctatatattcatcatctatatctatcaatca
1 ATTTAAATTAAAAAGCATATAGTATGGTTAACACTGATTAAGAGCCAATTATCTCAAAACCCAAGAAGCCCTAGTGTCTTAAAATGCTTTTAGGATTATATACACACACACACACATTTTTAAATTTCCATACACACAACCACACATTGTTTTTAATTTacacacacacacacaaacacaacacacacacaTTTTTTAATTTCCAAGGAGCAGTAAAGAATGAGTAGAACTGCATCTTAGCACACAGACA
0.9631831543390978 tggtatcgaagtgaatcgaatctaatgaaattgatcggaaaaaatggaatggagtagaatcgaataagatggattcaaaggcaacaaatagaattgaatggaatgcggtgaggtggagggcattggaatggagttgaatggaatggggtataattgaattgaatggagtggagtggattgtagtggactggagtggaatggaacggaatgggcaggaatggaattgaaaggggtgaattggaattgagtg
1 aacctactcatctgacaaacggctaatatccagaatctacaatgaactcaaacaaatttacaagaaaaaacaaacaaccccatcaaaaagtgggcgaaggacatgaacagacacttctcaaaagaagacatttctgcagccaaaaaacacatgaaaaaatgctcatcatcactggccatcagagaaatgcaaatcaaaaccacaatgagataccatcacacaccagttagagtggcaatcattaaaaagt
0.7949831183055965 tccctgtagctatctacctacctacctattgatctatctatccatctaatgtattatctatttatctattgaatctataatctatgtatcaattatctacctatcatctatccgtctagctagctgtctacctatcatctccctagtatctatcgtctactatatatccatcatctatctattatccatccatctatccatctatctatatatgcacttatctattgaatctgtaacctatgtatcaatt
1 ggagttaagtgttgacctggaccaggggagttttgggcaagttgggggggagaaaccctggtgtggattactgaaggcagagatggagatgagagccatgagcactgttgagacttaggggagtttagaataaagatcagcagagaaatcagatagaggtgtgggtgggatgtaaggccaatagggtttttttttttttaagagatgagagaaattaccagcatgttttattctgatggaagtgatgaag
1 gccacacagatatgcccaattgatttgacaaagtgcagaagcagttaacttcatttcaacaaatggttctggaactagtagacatccacaggcaaaacaacaacaacaaacaaacaaaccaaaccaaaaaagaagaacgaaaaacaaaaaccaaaaaacaaaaccacaagaaaaaaaacccacctcaatctgtctcatggacttaaatgtaaaacaataaaactttcagacaaaaacatagaagaaaatc
1 GCAGCGAGCTCTGTATGAAGAAGAAAAAGGGGAAAAAAAAGAGAAAGAGAGACACCCCACAGAGAGGGGGGAAGGAGGTTAGATGGGGCAGTCTTAGCTTAGCCTCCAAagacacagatagagtgagagagagagacagagagagacacagagacagacagagaCCAAAACAGAAGCGGCAAACGGCAAAAACGAAGCAGAATCAATGCAAGTTAGAGAAAAAAATAAAACTAAACATCAGAGCAGGGAA
1 TGAATAATAATATTGGGAATGGGATGCTAGTAATGGATGCTACAGACAGGTGCAGAAATCTGTAGTACCAGCTGGAGAGATAAAAGCAACCTTGACACTCAGCAAAAGGCGGTACCTGTTATTCTCCgtgtgtgtgtatgcatgtgtgtgatatatatcagtgtgtatgtatgtgtgtgcatagatatgtgtgtgtgtATATgcatttagcacaggtgctcaaaaatatttattggatggatgagtggat
1 CTTTGTTGCTGTCTCTCTCACTGTTTCTTTGTCTGTCCCTCTCTTCTCTGTCATTCTGTTTCTCTCACTTGGTCCCTGTCCTGGATCACTCTGTGTCTCTGTGTCTTCTGTCTCTGTGTCCTGGTTTCACTCTGCCTCCGTATCTCTCTCTGTCTCTTTTTTTTTTTTTTGCCTGTTTGGTCTCTTTGTTTTCCTGTCATTCTTTTTCCCTCATTTGGTCCTCAGTTTCAGCTCTGCCTGTCTCTCTCTC
1 agagagagagagagagagagagagagagagagagagagagaATGAATATTAGGGTAAATGTCCAATATCAAGAATGGAAATGAGGGAGTGAGGGATGAATTAGGGTaaatgtccagtatcaagaatggaaatgatacatcactacagatcctacagatggtaaaaagataagacaatatcacgaacaactttgtgcccacaaacttgaaattcccagaagaaaaataatttatcaaaactgatacaagaT
1 TATGTAGGAGAGAAAAAGGAATATTGCTGAGTAAAAGTAGCAGGGGTTGCCAAAAAGAGCACAAATGTGGAGGTTGGAAATGAAGGAAATATCATTTGAGGCTGTAGAAAAGAAAGTGAAGATGGGTGTGGATGATAAATTGGTAGAAAGAGGGAACATTGAGAGAAATGATACCTGCTGTGTTAAGTGGTATACAAGATGAGAGAGATGAGAGTCAAGTAGAGTACTAGAGAGAGTGGGGAAGGTTTGG
0.7178345505416992 TGGTAGTGACACAGGGTGGTATTTAGGTGGGTTGGTGGTTATTCTGGGTGATAGTTATTCAGGGTGGTAGTTACACTGGGCTGTAGTTAAAAGGGTTGGTGATTATTTGAGGTGGTAGTGACACAGGGTGGTAGTTATTCAAAGTGGTAGTTATTTGGAGTGATAGTGATGCAGGGTGGTAGTTAGGCGGATTGGTGGTTATACAGGGTGGTAGTTATTCAGGGTGGTAGTCACATGGGTGGTGGTTATA
1 AGGATTATGAAAAATGGTAAGAGATTGAGAGATGAGATAGCATCAGTGAAATTTTGTCTGGACCTACACACCCTTTCAAGCTCATGAGTGGTGCCACAATGCAACTGGCATCCTGTGAAAGCAAGCCTTGAACTCTACTGCATAACTCTCTGTATGGGTCCTGAACCACTTTATCTAACCTCTTTCCTGTTCTGCAACTTGGTTTGCTTCAATCCCTCATGCTTCTGATCACTAGATTTACTTTCCTATT
1 gtgtagtctagtgtagtctagcatagtctagtgtagtgtagtgtagtctagtgtggtgtagtgtagtgtagtgtagtctagtgtagtctagtgtagtgtagtctagtgtagtgtagtctagcatagtctagtgtagtgtagtctagtgtcgtgtagtgtagtgtagtgtagtctagtgtagtgtagtctagtgtagtgtaatgtagtgcagtgtagactagtgtagtgtagactagtgtggtgtagtgta
1 GCAGCCCCTCACCATGTCACCCCATGTGGTCCCCATCCTCTCACCTTCTCAATGGTTCCTTGCTTCTCCTTCCTTACACCTCCATCTCTTCTCCTCAACCCTCCACCCTGGATCATCCTTATCATCCCATCCAAATTCTTCTCTCTTGAGTATGCCAAGCAATTCTGCTCTCCCCAACCCTTACTTTCTGCACAACCACATGCAACACCCACCCCCATCTCCCATGTGCTCAGCAGAACACAAAGACtga
1 ttgaatctgtaggttgctttgagtagtatggatattttaacaatattgattcattcaatccatgaacatggattctttccagtttttagtgtgtgtgtgtgtatgtcctcttcagtttctttcatcagtgttttatagtgttcattgtagagactttttacttctttgattaagtttattgctagatattttattttatttttcactattgtaaatgggattacattcttgttttttttttcaggttgtt
0.6282973787097401 CGTGTTGTGATTGTGTGGAAGTGTGTCGTGATTGCATGGAAGCGTGTGATTGTGTGGAAGCATGGTGTCGCGGTGATTGCATGGAAGCTTGTGATTGTGTGGAAGCATGGTATCGTGATTATGTGGAAGCGTGGTGTCACGGTGATTGCGTGGAAGCGTGTTGTGATTGTGTGGAAGCGTGGTATCGCGGTGATTGCATGGAAGTGTGGTGTCACAGTGATTGCGTGGAAGCGTGTCGTGATTGTGTGGA
1 accaaaacaaaagaatacattcttctcatcaccacacagcacgtactctaaaactgaccacacaatggaacataaaacacttctcagcaaatacaaaagaacgaaaatcatagcaaccactctctcagaccacagcacaataaaaataaaaggaccaagaaaatcacttaaaaccatacaattacatggaaatttaacaagctgctcctgaatgacttttgggtaaataatgaaattaaggcagaagtca
1 TCTCTCCCCTCTCCACTTGCTTTCTGAAAAGACAAATTATGAAGTTGCATCAaaacaaacaaacaaacaaacaaacaaacaaGCACCCTCTCATGAAGTATCAGCTCCACCATTCTCAAAATAGATTTTGCCCCTGCCACCAATGGGGCATTTCACTGACCATTAATCTCGTACAGTCTCAGCCTTTACTCATATTTCTGGCTTCTCTCCAATGTAACTTTCTCTTTTTCTCTTTTCCCCCTCCCTATAT
1 tggctagaggtttatcaatttaattgatctctttaaagaatcataattttgtttcgttgatttttctctacctttttttctatttcattgatttctactctgctctttgttttttttttcttctgtttactttatgtatcatttgctctctttttctagtttcctaaggtgtaagcttatgtcatttatttgaggccttgtttttttcctagtatggtcatttagtgctttaaatttcccactaagtact
1 ATGTACACACCACTCTACAATGAacacagcactctacacacaatgtacacaccactctacaatgtacacacccctctacacacaatgtacacaccactctacacacaatgtacacaccactctacaATGTACATACCACTCTACAATGTACACACCACTCTCCATGTACATACCACTCTACAATGAACACACCACTCTACACACAATGTACACACCACTCTGCAAACAATGTACACACCACTCTACAATG
1 GGTCTAGATTGAGCAgggaagtagcttcgtctctctgagttttagccttccctcctgtcaaatggcataattgtccctgctgtcttgcctacagcatgttgtaaagataaaatcaggtcagaataccagataacaccttctaaactgcattgaatgtaaggagggttaGTGACCatggtgatgatgataatggtgaagacgatggtgagttgatggtaatggtggtggtgatgatggtggtgatggtgat
0.285134782162083 CTATCTGGTTTCACTTCGCAGGCCCCAGGTTTCATTCCTTtttgctttgtagctgaatttgtttttgtggttctctctctctccctctttttgtctttgtctttcgcagtgtgtctcctcctctcttaatctctctcccagtctttactctcctctttccctctttttctttctccctccctccttctcttcctcttccctttctttctctcattctgcatttctatcagccataatctctctccacctt
1 gctcctggattcattgattttttgaaggattttttgtgtctctatctccttcagttctgctctgatcttagttatttcttgccttctgctagcttttgaatgggtttgctcttgcttctctagttcttttaattttgagcttagggtgttgattttaggtctttcctgctttctcttgggggcatttagtgctatcaatttccctctacacactgctttaaatgtgtcccagatattctggtatgttgtg
1 atcttttcaaaaaatcagctcttcgtttcattgatctttgctattgtttttctagtctatttcatttatttctgctatgatctttgttatttccttcttctaattttgggcttgattttttttctctattttttgaggtttatttgagatcttttttcttcatttagcacttatctgtataaacttccctctcttagaacggcttttgcttcatctcatcagttttagtatgtcgtgctttcattttagt
0.215017781348355 GATGAGATCCATGGGGATGATAAGACACGTGGAGATGAGACAGATGCAGATGAAACACACGGAGATGAGACACATGGAGATGAGACACAAGAGATGATAAGACACATGGAGATGGAACACACAGAGATGATGAGAGATACGGAGATGAGGTGCATGGAGGTGAGAAGCATAAAGATGATGAGACACATGGATATGATGAGATGTATGGAGATGACAAGACACATCATGAGCACATGGAGATGAGATACAT
1 cactatctggataacatccaaggagaagacaagaaaaaaaaaagagagagagagaaaacgaacttgaagacagataattagaaattgtccacagtgaagaataaaaagagaaaagactgaaaaaaatgaacagagacacagagaattgttagataatatgtggcctaaaatcagtgtgattagaatctcaggaagacagaaaataaagaatgaaaaataaaaagaaaaaattagaagaaataatgactca
1 CAGAGTCCTCCCCACCTTCCAGGAAATGCAGAGTAGGGCACTGGGCTTCCTCCTGGGCACCATAAGCCCCGAAGCTGCCACCGGCCTCCACTACTCCCTGGGCCCAGTCCTCAGCCTCCAAGCCCTCCGAGGAGCTCTCCTCATCTTCCTCCTCTTCTTCATCACTATCAACATCACcctcctcctccacctcctcttcctcccccaattcctctccttcccccccttcctcctcctcctcctccccttc
1 ctgctcagccctgtaatttcaatttttttctctcttctccattccttcTTCACTCTACctctttcttcttttctttacctcccttttccctcctcttccctccctcttgctctttctttctCCCCTCCAAACCCACCAGTGTGCTCTGTGGTAGTGAGCCCTTCACTTAACAAAATCcctcctctttctcctcctcctccCCACCATTGCCAAAAGGCAGCAGTGCCAGTTTATTACCCTGAAACAGAAA
1 GCATAGTAATGTGGTTGTGTCATAGTGGTGtggtgatgtcatggtgatgtcaaggtgatggggtagtaatgttatggtgaggtggtgatgtcatagtgatgtgatatggtgatgtcatggtgatgtTGTGTGATGCAGTTGTAATGTTATGGGGAGGTGGTGATGTCATAGCGATGTGATGTAGTGGTGGGACAGTGGTGTCATGGTGATGTGGTGATGTGTGGTGCTGTCCTGGTGATATGATCGTGGT
1 gagagaaaaaaaagtgaataccagttagggaattactgtagtagtccaagcaataaaAATAACTAAATGCAATATAAAGTAGGCTAGAGAGAACAAGAAAGAAGCAAAAGAGACAGAAGTACAAACTTGGTAGAGATAGAATTGATAGTTCCTTGGATTTGATTTCATGTAGGGATATAAAGTGTAAGCGAAAAATAAAAACTTTGGTGACTAAGATGAGAAGCAACATTACCAGAGATAGTTAAGTCAG
1 CAATGACAGTGGGGGTTTTTATAATGAGCATAAGAGAGGAAGTGACAGGAGAAGGTATAGGCAGTGATGGTGCCAGTGATAGTGAAAATGATATTGATGATGCTGTTGGAGATAATGGTGAAATAGGTACAGTGCTATGACAAAAGTGATTGTATTAGTGACGATAGAAGTGATAGTGGCAGCAAAGGCAGACATGACAGAGGAGGTGCTATTAGCAAAGATAGTGGAGGTGATACAGTGGCAGTAGTGG
0.2294874356235925 GATTGATAATCAGGTTGATTGATAGGTTGGTTTATGATGCATTTGGTTAATGGGTTGGTTAATGGTTAGGTTAGTTGGTAGTGGGTTGGTTGAAGGTGAGTTTATGATGAGTTTGGTTGATGATGCGTCAGTTGATGGTAGAGTTGGTTGATAGTGGATTACTTGAAGGTAAGGTTGGTTGATGGTGGGTTTGGCTGATGGTGGAATTGGCTGGTAGATTGGTTGATGATGGGTTGGTTGATGGCAAGGT
1 TTGGCTCCGTTTCTGTGTCTGTTTTTCTCCCTCTGTCTTTTGTTTTGTTTCTCTGTTGTCTGAGTCTTTGTCTCTTTGTTTCTATCTTTGCCTGTTGGTTTTAGCCTAGCCCACTCAGGCACTAATTAGTTGTTCCCGTTAGGAAGTGGCTGCAAAGTCgtgtatgtgtgtgtgtggggtgtgtgtgtaagtgtgcatgtgagtgtatgtgcctgtgtgagtgtacatgtgtatgtgtatgtgagtgtgt
0.4436112298055754 gagactgtggatgtgaacgaagatgtggctgtggctgtggctgtggatgttgctgaggatgtagatgtagacaaggatatgaatgtgactgtgtttgaatgtggatgtagctgtggatgtggatgaggatgtggatgtgactgtggatatgagtgtatatgtggaagagggggtggatgtcactgtgaatgtggatgtgactctgtatgtggatgtagctatgtatgtagatgaggatgtggatgtgatt
0.832689751876981 tgtcttgtgttggtggtggttctggggaatcaaagTCTCTGTGGTGTTTTTATCCATGGAgtatgtgtagaggtgtgtctgtgatcagtgtatgtgtatctcagtgtatttgtgtgatctctgtgtatgtatgtgtctgtggtctttgtatgtttttctgtggaatgtgtgtatgtgtagtgtttgtgtgtttgtgttgtatgcgtgtggtctctttatgtgtgtgCATATGAGAAACTAGATACCCGAA
1 ctgtgctggagcctgaaattctgaggtcaaggtactggcagggttggtttctccttaagcctctgtctttggtttgcccttgtctatcttctccctgtgtcttcatattttctcccctccatgtgtgtctgtgtcctaatcttctccctctcctttttttgtttttttttttgttttttgtttttgtttgtttgtttttttttttgagacagagtctggttctgtcgcccaggctggagtgcagtggcat
1 gccatcctcccacctcaacctcctgagtagttgggactacagatgtgtgccaccaaaccaggATTCTAGAGAGATacacacacacacacacacacacacacacacacacacacatatatacatatatatacacacacacatatatatacacacatatatatatacacacacacatatatacacacacacatatatatatatatacacacacacacacacaTAttcttttgagacagagtctttctctgtt
1 AGTGAATTAGTGGAAGGGTGTGGGGGAAATATAAAGAAGAAACAATGGGTAGCATGAGAAGACTTCAAGAGAGTGAGTGTTCACTATGATTGTGGTATGTGGTGATGGAATAGGGAATATGTGTTTGCAGTGGGTTTGTTCACTATGACTGTGGTATGTGGTGACTGAATAGGGAATTTGTGTTTGCGGTGGGTTGGCGATACACTTGGATGTGTGTTAGTCTGTGAACGGAGCCTTATAAGTGTGATGA
1 attattactctggtggtagtttgggaataggagaaagaaaagaaacagaatggttaagaagctattgcagtaattcaggtaagagataaaggtggcctgtactaggatgatgtcagtgagatgagatgtatggaaagatttgagatacatattaatggactgaatatgagaggtgagggaaaaggaagaatactgagtgaatcccaggcttctggtttgagcaattgggtaggtaatagtggtgcaattt
0.9330936201239933 TGTGTGTTGTGTGTCTGGCATGTGTGTAATGTGTAAGGTAtgtgtgatgtgtgtgtgatgtgtgtgtCATACATTTGGCATGTGTGTAAGGTATGGGTGGTGTGTGTGATGTGTGTGTAATATGTATGTGGCTTGCGTGTAAGGTATGGGTGGTGTGTGTGATGTGTGTGTAATATATATGTGGCATGTGTGTAAGGTATGTGTGGGGTGTGTGTAACACATATGTGGCATGTAAGGTATGTGTGTCTCg
1 agtaaaataaattaccaacagagtaaacagacagcctacagaatgggagaaaatatttacaaactatgcatctgacaaaggtcaaatatccagaatcaaaaaaggacttaaatcaacaagcaaaaaaacaaacaatccaatttaaaaatgggcaaaaaacatgaaatacaattctctaaacaagacatacaagcaacaacaaacataagaaaaaatgctccacatcactaatcatcagagaaatgcaaat
0.3440444471667619 tcccaacccaatgcccacccattgccattcctatccttatccccgattccatccccacacccatcctcatgcccacggttacccattcctattcttatccccactctcattcccacactcatcctaatgcccactgtcacctattcccattcctattcttatccccactcccattcccactcccatcctaatgcctactgtcatccattcctgttcctattcttatctcccattcccatggccatcccaa
1 cttggtgaggagcagcctggggaggaggggagaggtcagatgggtccacagaaaaggaggattcaaaggactcagagcttggggtggagattgaaggaacagacaggagagaaagaaagatttgggatgagtcacattgggagcggagattagggagggaccgatttgaagttcttgaaaacacaggctaagggagaagaagggggactggaggatggaaggttgtccataatgaaggaggtaagtttaa
1 CACACACATGCATACATATacacacacacacacacacacacacacacacacacacacacacacacacaGTCACAAACAAGATTTGTCCCCTCTCCCCTAAAGGAGAAGGGGCAAAATGCAGACATCACCACACGGGACCTTTGAACAGTGACAATGGAAAGAAAACCCAAGTAAACAAGTGATACCACCAGCCCAGCCACAGCCCCCTCTTCTATGCTAAATTCAATTTGCCACGTCCCCTTCATGGTGT
1 ccaaattacctcggtttgaatcccagcgctgccactgacaacatcagcatgcgttacgtgacctcctcagtttcctaattaaatgaaattgttggtaggtcccataaaacctggttctgctcttatcttagaacagtactttgcacatagtaagtgctcaataaatggtatgtattatGATAGTAACTATTATTATCACTTATATAGTGATAGTTCAGTGACTAGTCCATCTTACTATCTATATTAATGT
1 tcagatggtggtagatgtgtggtattatttctgagggctctgttctgttccattggtctatctctctgttttggtaccagtacgctgctgttttggttactgtagccttgtagtatagtttgaagtcaggtagcatgatgcctccagctttgttcttttggcttaggattgtcttggcaatgcggcctcttttttggttccatatgagccttaaagtagttttttccaattctgtgaagaaagtcattgg
1 gctgttgagttttgtgtcatctctatttatttttgtcggttttgatagatgtttatcaattgattgattttttcaataaaccagctttttgtttcacattttttctgttttcaatttcatgaatttttgttattgtcatgattatttttcttcttctgcctgctttcagtttactctgttctttttctagttttttgagatacaagtgtatgttattgatttgagatcttttctcatttttaatgaagca
1 atatgagtgtgtgtgtttatgtatatgtatgtgtgtgtatggtgtatgtgtgtgtgtccgtgtatgctcatgtttgtgtatgcatgtgtctctgtgtgtttatgtatgtgtatgtttatctatttatatgtatatatgcatgcatatgtgtgtttgtatgtgtgtgcgtagttctatgtttatgtatatgtgtgtgtgtgtgttcatgtatatatgtatgtgtgtgtctctgtggtcatgtataagtatg
0.08040383609031704 gaatcgcttgaacctgtgaggcggcagttgcagtgagctgagatcatgccactgcactccagcctgggcaacagagtgagattctgtttaaaaaaaaaaaaggaaggaaagagaagaaagaaagaaagaaagaaagagagagagagaaagaaagaaagaaagaaagaaagaaagaaagaaagaaagaaagaaagaaagaaagagagggagaaagaaagaaagaaaggaaggaaagaaggaaggaaggaag
1 GTTATGGGGGGGTGGTAGTTATTCAAGGTGGTAATTACACAGAATGGTAGTTACATGGGGTGGTAGTTACATGGGGTGGTAGTTATTCAAGGTTGTATTTGCAGGGTGATAGTTACATGGATGGTAGTTGTTTGAGGTGTAGTTACATGGGGTAGTAGATATTTGGGGTGGTAGTTACAGAGGTTGGTAAACACACAGGGTGGTAGTTACATGTGGTGGTAGTTACATGGGATAGTAGTTACACAGAGTG
1 ttaaaatctcccattattattgtgtgggagtctaagtccctttgtatgtcattaaggacttgctttatgaatctgggtgctcctgtattgggtgcatatatatttaggatagttagctcttcttgttgaactgatcctttaccattatgtaatggccttctttgtctcttttgatctttgttggtttaaagtctgttttatgagagactaggattgcaacccctgcctttttttgttttccatttgcttg
1 tttaaaaatacattgaactgaatgaaaatgaaaatacaacatatcaaaatttgtgggacatagctaagcagaatttctagcactaaatgttttcaatagaaaagagaaagtctcaaattaattatttaagctcccacctaagaaccccccaaaaaaagagcaaaatgaacccaaaacaagcagaaggaataaaagcagaaatcaatgaaattgaaaacagaaaaacagtaaggaaacttaatgaaagaaa
1 cagattatataaagaactcctgcaactaaacaacaacaaacaacaacaaaacaattaaaaaatgtcaaaggacacgaatagacatttctacaaagaagatatacaaagggtcaataagcacatgaaaagatgttcagcatcactaatcattagggaaaagcaaatcaaaaccacactgagataccgcctcacatccattaggatggctactattagacaaacaaacaaaacccaggagtcataagtgtta
1 AGGCAGGTCCAGAGACAAGTGACAGAGAAGGCAGCACAGAGAGAGGGGTCAAGAAAGCGGGTAAGAGACAGAGAAAGAAGGGTCAGAGGGACAGAAGTTCGTGGGGCAGAGACAGACAGAAAGCAGTAGAAACACAGAGGTTAAGTAGGAAACCAGAGGAATCTagaaacagagacagagcaaatagaacagagacagagGTACATATGGAGCAGGAAGAGGGGGCAGAGCAGGAGGAGGAACTAGGAGA
0.8413303733680507 catttcaatatcatttcatcatttcatctcatttcaattcatctcatcatttcatctcatcatttttatctcatcatttcatctcatcatatctcatttcatcatttcatctcatttcttctcatcatttcatctcatcagtttaactcatttcgtctcatctcaatttcattatttcatttcatttcactttatttcatttcatctcatctcatcatttcatctcatcttacctcatttcatctcattt
0.9330268615595598 catgtcaccatgctaccacaccatcgtgccatcattccaccatgtcactatgccacacatcaactcaccaccatgccaccataccaccatgacatcatgccaccatgctgcaatgtccccatgtcaccacctcaccacaccaccatgccaccacatcatcatgccaccatgttaccatgccaccaCATCATCATGCCATATCACGTCACACACCATCATGCCACCATATCACCACATCATTatgccacca
1 aaaggaaaccctacacaaaaggaaaagacaacagagtaaaaatacaacctacagtatggggggaaatttttgtaaacaattcatctgacagaagattaatatccagaatatacaaggaactaaaaatctcaatagcataaaaaaacccaccccaaaatgattaaaacatgggcaaacgatccaaacacagacagttctgaaaagaagacaaacaaatggtcaacaaatatttaaaagatactcaacattg
1 GGACAGAGCCAGATGCTGATGCGGGGGTGGGGGTGATGAGCACAGAGCAATGAGCTGTCGACGATGGCGGAAAGGTGATGGGGTGGAGATAATAGGGGTGATACAGACAGAATGAGGGAGACAGAGCTGATGGGAACAGTGAGGGAGCCGGAGGTGATGGAGCTGGACCCGATGGGGTGCATGGGGGTGGAGTGATGGACCCAAGGAGGACAAAGGAATGAATGTGGAGAAGATGGGGTGGCTGCAGACA
1 aatgatggtctccagcttcaacaatgtccctgcaaaggacatgaactcattcttgtttgtttgtttttttgagaccaagtctcgatctgttgcccaggctggagtgcagtggcgtgatctcagctcactgcaacctctgcctcccaggttcaagtgattcttctgcctcagcctcccaagtagctgggattacaggtgcccgccaccatgcccggctaatttttgtatttttagtagagacggggtttca
1 tctgattgccaagtaatatctcattgcatggTCTAGCTGGGTTGACATCCCATTGCACACTCTAGCTGGGCTGTGAAGGAGCAGGCTGCTTGTGCACATGGGTAACAGATGGATGTACAGTGAGACGTCAGTCTGTGCACATGGGTAACAGGTGGGTGCACCGTGAGGTGTTGGTCTATGCACATGGGTAACAGGCGGGTGTGCAGTGAGACGTCAGTCTGTGCACATGGGTAACAGGTGGGTGCACAGT
1 accctgggaggcagaggttgcagtgagccgaggtcattccactgcactccagcctgggtgacagagcAGAGCAAGACTGTCAAAAACaaggaaggaaggaagaagggaggggaaggaaagaaggaaggaaagaaagaaagggagggagggaggaaggaaggaagaaagaaagaaaAAAAAACTGGGCCTTTGGCATCACTGGAAATAAATATCCATATAACAGCGGTGTCATTTTGCTCTGCTGTTACAA
1 CTTCCACGTGTCTAATTCCAGCCAACCTGCCTCATTTAGTTCTCATACCTATAGCCAGATCTCCTTCAGTTTCATTTCTCAGTTCCCTGCTTTGACTCTTCCTTCCCCCAATCTCTTTTTTTTCTTCTTCTTCAGTCACCACTCCTCCACAAGGAGTAAAAAGTAAGCCTTTTTACAAAAGCtgccctctgggaggctcagacccaggatcttcagatcatgagactgatgcactgcccactacactgag
0.3601809474861878 ACAATTGAAACCCTTGAGCACCTCTCCCCTCCCTCTTATCCTCCCTCCGCCTCCTTCCTCcctcccttcctccctttttcccttactctcttcctccctccctcctttccttcctcccttcctcctctcctcccttcttccctgcctcccttcctTCCTCCCATGTGCTCACTACATACAAAATGGCCACTTTCAGCTTCCCCTGCTTGGGATCAATgaggcaacctggtatggtagaaaggcaacagaa
1 ctttttttcatcctttcactttcagtctacatgtctttacaggtgaagtaagtttcttgtaggaaggatatagttggatcatgtttttaaaaatccattcagccaatctgtgttttcagtggggaatttaatctgtttatgttcaaggttattgttgataggtgagaatttatttctgtcattttgtttattattttctgtttttttgtatatgttttattcctttctttctcccttgttgtttataatt
1 GCAGAGACACATGTGATAAGATCCCCCTACACATAGATACATAGGGCAGAATGTGTAGacacatagaacaaacacatgctagacacacataggcacacatgtagaacacacatagacagaagcacaaaaagccacatatgcacacaGCCTCCCCAAATATACAGATACAGAGATGCATAGAAGTACTTGACATGAAAAGATGACAGATAAGTATTTCTGTCATTGAGATCCCAGGAGACATTCCTAGAAA
0.7802582088978988 AGTCAAAAGACAGGTAAATGACTTGGAGGAAATAATTTGCAACATGTATTACATGTGTTATGGATAAAGGGATTAATCCCCTTATCTGTCTATTGAACAAGTTGAGAGGGAGAAATTGGCTGGAGAACAgaaaggaagagaaggggagggaaaggaagaaaagggaagagaaggaaggggagaggaggggaggagaggagaggagaaggaagggaagaaaatgaaCAGAGTGAGTATCCTGTGAACATGC
1 caaaatcccctaatattcctcttctgcccagagcatttctctgagctctgaaatgctacatacaactgcttaacacctcatggatggcacacaggcatctcatactcgacaggcacaaacaactcatgatctttgacccctTGCCTCAGACTGGACCACCTTTCAACATTTCATTCCCAAGAATGACAGACAGAAACCAGGGAGCTCTAAACCACTCTCGACCCCATCAATTATACCTTTTTAATTTTTC
1 ACTCCACCATCCATCTTCACTCCAGCATCCATCTTCATCCTTACTCCAGCCTCTATTTTCATCTTCACTCCAGCCTCTATCTTCATCTTCACTCCAGCCTCTGTCTTCATCTTCACTCCAGCCTCCATTTTAATTCTCACTCCAGCTTCTATCTTCATCCTCACTCCAGCCTCCATCTTCATCTTCACTCCAGCCTCCGTTTTcgtcttcacttcagcctctgtcttcatcttcacgtgtcttctgctcc
0.2308444989655086 tggattggcctgtgggtggatggatggaggaGGCAGAATACTGGAAAGAACAAagggagaggagagaaaaaagaagatagagggagtggggaaggGAAAGCTAgaacgcaattcagtggagtggaatggaatggaatgaagtggagcaaatgcagtgaagtgaaatagagtggagtggatggagtggagtggatggaatggatggagtgaatgcagtgaagtggatggaatggatggagtgaagtgggtg
1 ttggtcataatgtctccattttcgtttctaattgagcttattcttcttttgacttttgagcttatggcttcttttcttggttaatctagctaatggtctgtcaattttatttttcttttcaaagaactaacttttcatttcattggtgttttgtgttttttcttgttttaattttatttagctctcatctggtcttttttatttcttttcttctgctaggtttgagtttggtttgttcttatttctctac
1 CCCCAGCTCCTTTCTAGAAAGATATCAGAAAAGTTAACATCCTCTAACCCTACCCCCCTCTAAACATAAacacaaacacacacacacacacacacacacacacacacacacacacacacacacacaGAGCTCTGGGCACAGATAGACATGGCATATCTAGGCCCCACAACTCTCAATCTACTCACATCATCCACTTGCTGCTCCAGCTTGACTTTGGCCTTAGTCAGGGTGTTGACCTTGTCCTCCTCGG
0.5536583581240334 ATATGGACGAACAGATAGATTATTGGATAGATGACCAGATCGATAACCAAGTAGTTGTGTGGTGACATGAATGAATAGATGGTGGTTTGGATGAGTGAATGGCTGGGTGGTTTTACGGAAATATGGATAGATGGTTAGGTGGGTGAGTTAGTGGATAAATGAGTGGGTTGTTTGGACAGGTAGATGGATGGAATGATTGATGGTTGTTGGTGGTTGATAATAATATTATGATGGATATGTGGACAGTTTA
0.4737354222031858 aaatgatatgaaatgatgagatgatgacatgacgtcaaatgatgaaaagatgaaataaatgaaatgatgaaatgatgagatgaaatcatgagatgaaatgatgaaatgagatgaagtgaaatgacgcaatgaaatgttgagatgaagtgatgaaatgaaatgatgaaatgaaacaatgaaatgaagtgaaatgagatgagatgaaatgatgaattgatgaaatgagatgaaaagatgaaatgatgagatg
1 TTCCCTTCTCTTTGCTCGTCTCCTTCCATTTTCCCCTGTTGGTCCCCTTTTCTTCCCCTCTCCTTTCCTTCCTCGCTTTTCCCTGTCCTTTTTTCCTCCTTTTTTCCCCTAATCTCTTTCAGTCCCTTTTCTCCCCCTTTTTTCCCCTCTTTTTTCTTTGCTTTTCTATGCCCCTTTACTGGTTTCCGTTTTCCCTTAAAACACAAATACAGCCTTTTACTTCTCAGTGGATGATAGCAATGTTAGGTAA
1 attctatagagtctgctaggtttagctagtatatcgtgttgttcaattagtatgcttctgtttcctttccttgctgatcttctgtccagttgttctgtctgttattgaaagtggggtattaaagtcaccaactattattgtggtttttggttttttgttttcttgtttttttgagacagagtctcgtgctgttgttgatgctggagtgtagtggcacaattgtggctcactgcagcctccaccttccagg
1 GTCTCTTGCTACCTGCCCCTACATCTTCTCTAGCACCCTTCTCCCCTCCCCCCATCTGCTTATCTCCTAGCTGTGTCCCTGCGTCTGTCGTTCTCTTTCCGTTTCCCCCTCCCTCTGTCCTGTTCTCTCTGCCTCCATGTCTGTCTCCCTCTCTCTGTTTCTCTGTCTCTTCCCATCTCTGTTTCTTCGGGGCACCCAGTCTCCCTCTGTCTCCCTCTTGCCTGTCCTATTCTGGTTCTCTCTGTCCTCA
1 ttttaaatgtctaaaactgctcctttcagaaatccactcaagtcagaggtaaaaaaataaaggcataaacctaccaaaaaaaaaaaaaaggaaacagcagaaaaaacaagatcaaaggagaaaagtcaacaaattcctggaagatggaaactagagcaaagaataaggagaggtgagaaatttgattagcaagttcttataatggagataaaatgcagaagcaagttaaatcacacctcaagagggagga
0.2441444981363834 TAGAAGACAATCAATGAAGGAAAAAGAGCATCAGGTGGTGCGTAATGAAGAACAGAAGGCGGAACAAGAAGAGGGTAAGGTGGCTCAGCGAGAGGAAGAGTTGGAGGAGACAGGTAATCAGCACAATGATGTAGAAATAGAGGAAGCAGGAGAGGAAGAGGAAAAGGAAATAGCGATTGTTCATAGTGATGCAGAGAAAGAACAGGAGGAGGAAGAACAAAAACAGGAAATGGAGGTTAAGATGGAGGAG
1 CCAACTTCACAGAGATATTAAAAGTTATTAACTCTTCCTTGTGGAAACTAGCCTTGTCCCCAGGTGTTGAGGCCTTACCCAGATATGGGAGACTGGCAATCTCCTCCCACAGAACACTGGCTCACATACATGTGTGTAGAGATGTACACATAAGCACACGTGcacacacacacacacacacacacacacacacacacacacaTGCAACAGAGCCAGAAGGGAGGGGGACACAGAGCAAGGCCACTTGGCT
0.8981738373607172 ttgtacttttgtgtgtgcacatttgtgcatgtgtgagtgtgtgcattttgtgtgtacatgtgtgtttgtacttttttgtgtgtgcacatttgtgcatgtgtgtttgtgtgcattttgtgtgtgtatgtgtgtttgtacatttttttgtgtgttcacatttgtgcatgtgtgcgtgtgtgtgcattttgtgtgtacatttgtatttgtacaatttttgtgtttgcatatttgtgcatgtgtgagcgtgtgt
1 gaaagaaagaaaaagaaagaaggaaagaaaagaaagaaagaaagaaagaaagaaagaaagaaagaaagaaagaaaaagaaaagaaagaaagGGTGGCCTAGActtttatacggccaccaattccacctatgagggtagaaacctcatggcctaatctctcaaagcttccacctctcaaaactagtacaatggcaattaaatatcaacatgagttttggagaggacaaactgaaaccagagcaGTAGATAA
1 cactctccctttcgctcacacacacacacacacacacacactatctctctctctctacttctactgctctATGAACACAATATTCTCTCCCACTCACAGGGACAGACAGGGATGCAGGATTCTCACATCCAACCACGCAATGAGGGATGCTCACCTACAGGGCCACGGGAAGCAGCAGCCCCTCTCTCTCTCTcacacacacacacagagaacccacagagacccagcacgcacaTCATCTCAAAAAGCA
1 CTTCAGACAAATGCCTTCTTTCCTCTAACAACaatttcacctccttagaggccttctctgacctccccatctaacgtagccattcttgccccattgctctcaccatcctttccactcccctccctccctccttcccttcctcccaccttttctccttccttctttcctttatgctgtgatcaccctgtgtcctctgtacttatttgttctctactatctgttcatcctctctcctataaatgttagttcg
1 gagtcattgctcccttctttccctcctgctatcttacttacaacaaacacacacctcctacataaacaaccttctaatcacctaccaaagatgtaaagttctcaacccagccaccctcttccctataaggacctttgactctgaactctgtcactcctgcttggactttttagattccctttccttccctttccgacacatatcagagacccccttacaggggacacctacatggttcattgatgggagc
1 attcctttccattcctttctattccattcaattccattcgtgtccattccatttgagtccattccattgcattgcattccattcgagtctattccattctatttcattcgagtccattccactccattccattaaggtccgtccctttaaatttcattgtattaaattcatgtcaattccattccatttcattccattccattcatttccattccattccattcaagtacattccattccattcctttca
1 tgagagggcaagagactgaaatgtatgtgcaagggatatttattttttaaaaatggaaggatttaagctgggtaaagagacgagtatgatgagagtgtggacatcaattctgatggggccaaaggattgttggagttgagatatgagacaggggttgaactggatgttaggtggatggagaatgggttgcctgcagatgggattcagggttgaattggtaatgcgtggccagggaaggtggagacaagat
0.4711750102083911 CACTCATTTATTCACATATCCACTCATTTACTCATACATTTGTTCAAtcactcattcacttattcactcatccactcattcactcactcatttattccctcatccactcatttactcattcattcattcactTGCTAATTCATTTATTCACTTATCCACTGATTTACCCATTCATCCATTCATTAACACACTCATTTATTTATTCATTTATCCACTCATTCACTTATTTCTCATCCACTCATCTACCCAC
1 aagaagtttcagaatccaaccatttctaactacctccactgataccaccctggttcaacatattttatttcaattcccaacttgtttccctgctgtcactctctcttatccacagcctagtcatccttctagaatataaaccatttcctgtcattcctctgcttaaaaccccctaactacttcccatatcatctctgcatgttccctctgcctggaatcacctcctgtagctggctcaatccctcacttc
0.970422837818943 AGAGTGAGGATGAGTGAGCAGGGTAGGGTCAGGACAACAGTGATGATGAGGGTCTGGTTTAGCGTCAAGGGCAAGTGTCAAGATGAAACTGAGGGTCAGGGTGAAGGTGAGAGTGAGGGAGAGTGAGGTCTAGCTGAGGATGAAAGGGAGATTGAGAAAGAGAGAGTCAAGTGCAATTCAGGTCCAGTGTATGAGGCTTAGGTCAGGTTTAAGGCAAGGGTTGGGATAAGGGTTATGATCACATTGAGGG
1 cggtcactttgccatccactcagcctgcctctctgtacccttcttcacacatgcacaccagtaatcaccaggatacctctgctccttctgctccctcaatgcccctttctcacactctcatcctggtccgaccccctcaacctcagtttcccttatctacacatgcttttcctatcacttctatgccaactctgtctcagatacctactcttgaaacttcaatgcaacacttattatgccaaaacaaaga
1 CACCTCCTCTGCATGCTCACCTGCTCTCTATGCTCACCTGCTCCCCATGCTCACCTCCTCTTCCCTATGCACACCTGCTCCCTCATGTTCACCTCCCCCTATGCTCACCTCATCCCCAATGCTCACCTCCTCCCCATGTTCACCTCCTCCCCCATGCTCACCTGCTGTGCCGTGTTCACCTTTTCCCCCATGCTCACCTCCTCATGGTTCTTCTTCAGGCAGAGCAGCTCCTCCTTCAGGGACTCCACCT
1 gcacgcctgtagtcccaactacttgggaggctgaggtgggaggatcacttgagcctgggaggcagaggttgcagtgagccaagatggtgaaactgcactccagcctgggtgacagagtgaggccctgtttaaaaaaaaagaaaaagaaaaaaagataaatgctaaaacaggagagaaactcacaatatcaagggaatgaggtctcctgacataggcttggagagtggtcagggatggtttcctgaaagag
1 ATCTACTCTTTCCTACCCCATCTACTCTCCCCTACCCCATCTCATCTCCTTTACCTCATTTCATCTCCTCTACCCGATCTGCTCTCCTCTACCCCATCTCAAGTCCCCTACTCCATCTCCTCTCCCCTACCCCATCTCATCTCCCCTGCCTTATCTACTCTCCCCTACATGTTCCACCCTCTCTTTGGAAGAGCTGCTGCTTAGTGTTCATAGCTTTTCCCTCTAGCCCTGCCCCTTTCCCTCCCTTCCT
1 ctgaagtgggaggatcacttgaacccaggaggtcgagggtgcagtaagccatgattgcaccactgcactccagcccgggggacagagtgagaccctgtctcaaaaaaaaaaaaaaagaaagaaaagaaaaagaaaaaagaaagtcaatgtctgaaaataagaaaggaaaaaggagggtaaaacgttttgggagcaaaaacaaagaatgaaatagttgtcaaagTAAAAAAAAAGTTTATTAGCAGGAATC
1 gctgaggagagcttccaagtatgtggtcaattttggaataggtgtggtgtggtgctgaaaaaaatgtatattctgttgatttggggtggagagttctgtagatgtctattaggtccgcttggtgcaaagctgagttcaattcctgggtatccttgttgactttctgtctcattgatctgtctaatgttgacagtggggtgttaaagtctcccattattattgtgtgggagtctaagtctctttataggtc
0.2496986081080388 acgacacaaccacacaacacagcgtcatacagcgcaacataacaaaccacacatcacacagcgaaacacaacacaaccacacaacacaacatcacaccgtgcaacacaacacaaccacacagcaaatcacacagtgcaacacaacgacacaacatcacacagtgaaacacaacacaaccacacaacgcaacatcacaccgtgcaacacaacacaaccacacagcaaatcacacagtgcaacacaacacaa
1 ctgaatccgacccgcatcttcaccttaaccttaacctgtcctttaccctcatctttaccatcagcctaaccctgatcctcatcctcacactaactcttaccctcacgttcccagtggcacactttgaccctgacccttaccttgactctcttctcactctgaccttcacacgcgttttgaccctgacccattccctgactgatcttgaccttgatctgtatcttgaccctcaccctgaccctgatcttga
1 tttccatttgtttgggtcttctcttatttccttgagcagtggtttgtagttcttgacaagatccttcacatccctcgttagctgtattcctaggtattttatgctctttgtagcagttgtgaatgggagttcattcatgatttggctctctgcttgtctattgttggtgtaaaggaatgcttgtgatatttgcacattggttttgtatcctgagacttggctaaagttgcttatcagcttaaggaatatt
1 ctacttgggaggctgaggcaggagaatcgcttgaatccaggaggtggaggttgcagtgagccgagattgcgccactgcactccagtctggcgacagagcaagactccatctcaaaaaaaaaacaaaaacaaaaaaaCAATTAAGAACATTTCCTTAATGACTATGAAGTGAATAGACAGCATATTTCAAATTTTCAAGTAGAAGGGTAGAGGAATGTAGGACAAAaggtgactgagatccagagtttagg
1 gtttgtctctctcACACAAATACACAGACGTGCACATTTTTTCTCCTCATCTCTCCCTAATTTCCCCCCTCCACCTTCTCCTGCCATCCCCATTTCTCCCTCTTATCTCTCCCCTGTCTCCTATTCCTGTCTCCTTGCCTCTTCTTGCCCCCAAATCTGTCTTCTCCAGATCCTCTAACTCTTCCACCCCCATATCTTCCCACTGTCTCTCTACATCTTTATCTCCCGcacacgtacacacacactctct
1 catgtccttagcccattttttgatgggatctttttttttcttgttaatttgtttgagttcccagtagattctggacaatagtcctttgccggatgtatagattgtgaagattttctcccactctgtgggttgtctgtttactctgctgatttttgttttgttttgttttgctgggcagaaactttttagtttaattaaactctacctacttattattgtttttgttgcatttgcttttgggttctttgtc
1 tcttggagtcaaccttgacttatctttttctcatatatcctacatttggtttgtcagccaatccctgttagctgtagcttcaaatcaaatctcgcaaatatcgagagactgatcacttcttaccatttccactgctaccaccctggttcatcaccgcttcaccatcagctctcacctacactgtttcaatagccttctaattggtctcccaatttccacatgtttctcctacaaatgttcccctacactt
0.7732318101088312 GCAAGGATGCAGCTATGTAACAGATGTGTGAGGGAGAGGAGGACAGAGCGAGGATGCAGGTAACAGATGTGTGAGGGAGAGGAGGATGGGGCGAGGATGCAGGTAATAGATGTGTGAGGGAGAGGAGGACGGGGCAAGGATGCAGGTAGTAGATGTGTGAGGGAGAGGAGGATGGGGTGAGGATGCAGGTAGTAGATGTGTGAGGGAGAGGAGGAGGGGACGAGGATGCAGCTATGTAATAGATGTGTGA
0.5606245486796746 TCTCCCCCTCTCCCTCTACATTTGTCTTTCCTACTTTGTCTCAGTCTGTCTCCCTTTTTTGTTCATCTACCTGGTGTTTCAGGGTGTCTCTCCCTTTCTGACTAAATCTATCTTAATCTCTCTCTCTCTCTCTTTTATCTTTCTACCTCCCTCCTTCCTCTTTTCTTTCTCTTTCTGTCTTTCCTTTTCTGCCCCTCTGACTCTCTCTCCCTGTCTGTTTCAGTATTTCCCATTCTCTGTCTCTTGCTTT
1 gtattagatgcatttttgacttacaatatattcaacttataacgagtttattgggagaaagcttcattgtaagttgaggagcacctATATGTACgtgtgtgtgtgtgtgtgcatgtgtgtatgtgtgtATTTAAatttatcttatgtggtattctctgagcttcttagatctgtggtttggtgtctgacattcattttggatagttcttagccattattaatttaaatttcttctgctctattctttagt
1 TATCAACCCCTTATTTTAATACATTAATTATATTTTATCTTCTTAATACATTCATTATTATTTCCTCAAGTATGCTTTGCTGTTAATTTTCTGAATTCTTGACTGGCAAGttctgtttcttttcttttgtgttttcttatttacttCTGAGTGAGGATTTTGGTGTAATGTTCTAAAAGTTTTGTGTGTAATGTTCTAAAAGTTATTTTCTCTTTAATTATAGTGTTGATTTTCTACGATATTCAAGAGT
1 tctctcttctctctttctctccctctcctcctctctcctttttccttctctctcattctctctttccttctctctctcttttctctctttctgtctctcCTTCCTTTGTTCTTTCTGATACTGGTTTTCTCTTACCTAGTCGATCCAGTGTTTAAACATGTCTTATCCCCAAGTTTATTTCTTATGTTTTTAAtttattttttattttttgaaacagagtcttgctgtgttgcccaagctggGGTGTCGG
1 ggccagtcccaccatcacggctttgcattccatcctctcccaccttctcaagaactgtacatttttaatattcacttcttctttgctgaacttctcttccactaaatccttctctttggcttttttaacctaatgatcttccttcttgaaaaaaatccccctcgttcctatatcctgatacagctactagcctctctctcttcactttcacgaccaaactgccctaaagcgttgtctacattcatgggcc
1 acccacaacagtccccagagtgtgatgttccccttcctgtgtccatgtgttctcattgttcaatttccatctatgagtgagaatatgcagtgtttggttttttgttcttgcgatagtttactgagaatgatgatttccatggatgatttcatccatgtccctacaaaggacatgaactcatcattttttatggctgcatagtattccatggtgtatatgtgccacattttcttaatccagtctatcattg
1 TGACCTTGTTGATTCATGTCTTTTTTCATCCTGATACTGATTTTTTTTTTTCCTCCTGTGTTTGGGATTGTGCATTGTACACTTTCTTCTGTCATTGGTATTTACTCTTAGGGAGTGTGGGATTTTTTAAATAGACTTGGTTTTTTTAGAGTTGTATTTGTTGATGTTGtttcttttcttttccccctcccctccccatccttcttttcttttcttttttctcttttcttttccctttcctttccttttc
1 ATTGCCTAATCCTGACTTGTGTCAGTGATGCATGACTCAGCAGTGAATCTGGGACAGCTATTGCAAAATGCAAGACTTAAATTCCACCCCAGGTGAATTCTCTTCTGGACCACAGGCAGGCCTTGAAAAGGATGGGAGTAGAGCCCTCAATCATGGAGGCATTTGTCCCTCAAGATAGGCAGATGTTACCACCTCCATACAAGAACAATCCCATTGCCTATTACAGTTCCCATTTCAAAGAGATACTCCC
1 ctatttttttcagcttctttcttttttacctgtttgttttggtctctgaggctgtctattgtaagagctagttagacaccagaaggctgattggaaggggtgtgtgtgtgtgtgtgtgtgtgtgtgtgtgtgtgtgtgtgtgttggtggtggtggtggtaaggcttgttggctagtgggcttccctgtgagactatttggTGATCTGAAGTTCTGGGTTTAGTTTTTTCCAGAGACAGGTGCTCCATGTT
0.3625681221125779 gcatggtgtgtatgtgtagggagcatgcatgctggtgagtgttgtggagtttgtgggagatgtctgtgtgtggtgtgtttgcatatttgctgtatgctatgtgtggtatgttctttgtgtattcatatgtgtgtgtgtatagtgtgtgatatatgtgtgtgtggtgagtttgctgtgtgtgctgtgagttgtacatgtggtgtgtAGTATGCGGTGCTTCtgtgtgtgtgtgtagtgtgtgatatgtgtg
1 ttccatcccattgcttttgtttccattcaatttatttcctttccattcgactacattcctttccattctattcaagtccattccattcattctatcccactgcttttgagtccaatcaattgcattccattccattcgagtccattatattccactagagtccattccattgcattacattccattcgagtctcttacgttctattccattcgaatccattccattcaaatccattaaagtccgttccat
1 AACCCTTCCATTTCTTTCATGTTCTTACTCACACTGAACCTATTTTTTTACTTCATTGACACTTCCTGCCTTTTCACTACTTCTTTTCCTCCCAGTTAATCATTTCCCTACCAGCTTCACTTATTGATTTTAAATAAAAAGACTTCACCATCCATAAACTTAGTATTTTATTTACTGCATTCTCAAATACCTTATTCCTTGTTCTTTCATTTGGTCATACTATAACCCTGGTTCAACTCAACTTTCTACT
1 aagtcagtctacatcttttaagtggagaattgaatccatttacattcgaagtaattattgatatatgaggttttatttgctttactgttaattattttctgattgcttccttttttttttctctcttattgtttgtccttgtggtttgctgttctcctgtggtggtaccatttgagtcttttctcttcctcatttgtgtgtttgctttatagtgagttttataagtttgtgtattttcatgatgctaact
0.1526613856237333 gtctctgtctccctctgtctctgactctctatctccctctgtctctgactgtctttggttcagacactctgtgtccctctgtctctgactctctgtctctgtctttgactctctgtctcccccgtctctaacactctgtctctgactctgtctccctctgtctctgattctgtctgactctctgtctctgactgtgtccctctctgtctccttctgtctctgactctatgtccctctgtctccttctgtc
0.8120386880415522 tggatgggatggtatgggatgaatggggtggaatgggatgggatggattggtatgggctgagttgggatgggatgggttggaataagatgaattgagataggttgggatgggataggatggaatgggatgggatgggttgagatgggaatgggatgggatggtttgggatgaaatgatggggtgggatgagatggaataggatgggatgggatgggatggggtgggataagatggaatgggatgggatgg
0.7985850076495355 ATCTTTGTATGGGGGCATGCTGTTACATACCTTTGTGTCTGTGTGCCTGGCCAACTACATGCAtgtgtttgtgtgtgttggtgtttgctggtgtcagtgtcattgagtctctgtgtgtgGTTTATGCTCTTATGTGTCTGATTGCtgtgtgtgtgtggtgtgtgtgtgtgtgtgtgtgtgtgctgtgATCTGTGtttgagacagggtcttgctctgttgcccaggctggagtgcagttgtgtggttagag
0.8192832300317725 tcgagcacgggaggtcgaggttgcagtgagccaggatggtgccactgcactccatcttaggtggcagagcaaaagaaaggaaagaaaggagacagagaaagagaggagaaaacagaagagaagagaagaaaagaaagaaaacagtaagTAAtatcaagtgccagacattgggatagcaagccagatagactgagacctgccttcataaagtacccagtctgctggggaagagaggcaagttaatggatta
1 aggcctgtggtgagaaaggaaatatcttcacataaaaactaggtagaagcattctaagaaacttctttgtattgcgtgcattcatctcaaagacttgaacttgtctttggactgagcagtttggaaactgtcgttttgtagaatctgtgaagggatatttctgagcccattgaggcctatggatgaaatatgaaatatcttcacataaaaactagacagaggatttctgagaaacttctttgtgatatgt
0.3669221026743098 TCCGACAGAGATAACAGACAGGGAGAGATAGCAGTCGGGGAGAGATAGCAGTCAGGGAGAGATAGCAGTGAGGGAGAGATAGCAGTGAGGGAGAGATAGCAGTCAGAGAGAGAGATAGCAGTGAGGGAGAGAGATAGCAGTGAGGGAGAGATAGCAGACAGAGAGAGAGATAGCAGTGAGGGAGAGAGATAGCAGTGAGGGAGAGAGATAGCAGTCAGGGAGAGATAGCAGTGAGGGAGAGAGATAGCAG
0.6570895247091822 GAGGTGTGTTATGCTTATGCTGCAGGTTGTATGTGTGTATGCTGTAGGTTGCATGTATGTGAGTATGAGTTTTAGGTTATGTGGGAGGGGTTCTGTGTGTGTATGGGCTGTGGGTTGTATGGATGTGTGTGTTGTGGGTTGCATGTATGTAATTGTGTGGCAGATTGTATGTTGTTAGTGGCATTCATTGGGTGTGTATTTTGGGTTATGTGGTGGGGCTATAGGGTGTGAGCAGTTGTGTGTATTTGTT
0.885701833194268 acatacaaatacacacagaacacacagaaatacacccatagcacacatatgcacacatacatgtaatacatagcacacatatgcacacaaatacatgcacaaatacaaatacatgcagcacagatgcacacaaatacacttagcacatatgcacacacacaaatatacagcacatatccacacacaaatacacacagcacacagacacacatacaaatgcacacatagcacacacatgcacacatgcaaa
1 tcctatttctccacaacctctccagcatctgttgtttcctgactctttaatgattgccattctaactggcataagatggtatctcattgtggttttgatttgcatttctctaatgaccagtgatgttgagctttttttcatatgtttgttggctgtataaatgtcttcttttgagaagtgtctgttcatatcttttgcccactttttgatgcagttgtttgtttttttcttgtaaatttgtttaagttcc
1 tatggggctagaggaaagtttctttcttcctgaaaatacaaatccagaatgtgggtactctactcagtatatagtgttaaggctggccttgGCCAAGAAGCGTGGATTTGGATTCACAACCAAAAGAGGGAAGGAATTAACAAGTTCCAGGGAAGAGAAGAGGAGAATGAGTGAAGAAGGAGGGAACGTGCCAGTCTTTATCAGCTCTTTtgtacaagacagagtgctaaccactttcatgtgttatccc
1 atctactatatatccatcctctatcatccatccatcaatctatccatctatctatatatgtatttatgtattgaatctataacctatgtatcaattatctacctatcacctatccctgtagctatctacctacctacctattgatctatctatccatctaatgtattatctatttatctattgaatctataatctatgtatcaattatctacctatcatctatccgtctagctagctgtctatctaccta
1 cacattaaaaagtattataccaccatgactaatcgagatttaattctggaaaccaaggttgtttcaacatgtaaaaataattcaatgtaatatagtgcaataacagaataaagaaaaaaaatgatcacttcaattcatgcagaaaaagcatttgagaaactttgacatcattttgtgttaaaaactttcaacaaactgggaataaggggagtataattaaggtcatatatgaagagcaggaaactagcat
0.5846169077297626 CATTCATCAGCAACCTTCCATCTGTCTACCTATCATCTATTCTATATTCATCCTTCATCAATCTATTTCATATCCATACACCCATTCAGCCAGCTACTCAAGCAGCCATCATTCTTTCATCTGTCTATCCATTTATCATTTATCCATCATCCACCTATCCACCTGCCATTAGTTAGCCATCACCATCTCTCATGAATTTATTTGTTCCTCAACTATCCATTCTTCATGCATCTATCCATCTATTTATCAC
1 ttgcctgccatttcaaatgattcatcttgtaaacagacagtgtcaacctatggcatcaataaatacagcacgatactggaaaAAACTAGGCAAGATAATTGCTCATTATACCAAATGCTGTGAAGAAGCAGAGAGAGAATGATGGTAGAGGATAGTTTTGGGGTGGGGTAAGGGTGTATACTGGGTGGCATGTGTGCACGTGTGTGTGTGTGTGTGTGTGTGTATGTGCATCTGGCGAAAGTGATGTATA
1 cctatctactatctacctatcactttatttgtatatgtatacatctatctatacatatccatacattaatctatccatccatctatccatctatacattctcacatccattatctatctatacattcatcccctacttatctactgtcattttatcattatgtttgtctatacgttcatcaatccatcagtctgtatacttcacatgtccactatctatgtatacattcatccattatctatgcctctaa
1 GCTGAGAGGTAGGACGGGTAGAGTGGCTGCAACCTTTGTCCATCTGGCACTGGGGAGTCAACTAAGCCTGGGGACTCAGGAGGGACCTGGATAGACCTTTAGGGAGGAAACTTTAGGTGGTGGATGTGAGGATGGTTTGAAGAAGGAGAGGGTGGAAGGAAGGAGACTCATTGGAGATGTAAATTGATAGGAGCCTAAAACAAGGAAGGGAGAGTGGGAAGGGAGGCACAGGGATGGAAGATTGCAAAGG
1 GACAAAGGCTCTGAGAAGTCCTGCAGACACACAGCCAGCCAAGGAGGTTTGCTTAGTAAGAGCTGCCCCTCATCAGCAGCTCACCATGTAGGGGGATTGAGgttttgtttgttttgttgttgttgttgttgtttgtttgtttgtttgtttgttgttgtttgaggcagggtcttgctctgttgcccaggctggagtgcagtggcacaaacgtggctcactacagcatcaaactcctgggctcaagcaatcc
1 gtgtgtgtacgtgtgtgtgtgaatgtgtgtcagtgtgAAGGAGCCAAGGGAAAGAGGTCAAATGTCTTACAAAGATAGAGTCGGGTCTGAGAGGGAGAGGGTTAATAGTGTAGATGGATGTATTAGATAGGCTTGCTAAGGAGGAGGGACACAAATTCCTAGAAGGGAGGAGTGGAGAAGTCAAGTTGGAAGGATCGGCAGGGAAATACATGCGGGTGGAAAGAAGTCACATTTGATGACTTGGGTCTTC
1 GCTGGagatcttgcagggactcgtaggtctttctaaagagttttcaaagttagtgggaagacatcaaaggtttctaagcgggagaaggacctattgagttttggagaatggatttggagtgaaacaaggctggaggataagttgggaagttactccaatgatctaagaaatagataagtggtggtggtgatggtggtagtggtggtgatggtggtggtggtgatggtgatggtggtggttatgatggtgg
1 cagcctcccaaagtgctgggattacaggcccaagccaccacacctggccACAAAATATGATCTTTCTTCACACTCTCTCCTTTCATTTTCATGTACTCTTCTTTATCTTCTGTTCACCTTTCCTACTGGTGTTAAGACATCACTTTACCAATGCtcattcatttaacaaacatttgctaaaggactactaCTGtttttggtttgtttgttttgttttgagatggagtctcactctgttacccaggttgga
1 AGTACATTTAAGCCCCTGAAAAGGGGGAGATGAAAGAGGCTAGGGGAAACAGGATGACTGGAAACATGAGAAAGAAACCAGCAGAGAGGGTAGGAGAATCAGCCCCAGGGAGAGGGGAGAAAGGGGAACTGAGGGTGATGGTAGATAGGGGTACATCTAGGGGAGACGGGAAGAGGCTCAGAAGAGAAGAGAAATGGAGGGAATGGGAAGACCCTGGGAAAACTGATGGAAGAAGTGGGGGAAGAGTGGG
1 ACTCTGCTGACAATGGAGGTAGGGACCTAGGGCAGGTTCAATGTTGCCACTAGGTCATGTTAGTTCTTGACTCTGTCAGGGAAAGGATGGACaatactcatagtgtgtggttcttttgcttaaccctgttgatgaaggtaagaccatctgcggaagttggagtttcctctgagcacatagagAAATGGAAACACTAGCATGATAGCAAGGTGTAAGGATATAGTCAAAGGCTGTTCTGAGAGACGAAAAT
1 taatgtggaataaagagacccaaacaaataaatagtggaaagaaacccctagagaaaatagtcaatgcagaaagaataaaactttttttaaaagttgttaatattcctggagaacaggagagattgcatcaatgaaggaagaacaggatgttattttaaaaagaaataaaacatttgataaacaataacaacaacagaagctctttaaaatgaaaatatgatgatggaaagaaactcgatagaactggaa
0.3248007047340671 tctgtctcagcaatggaaggctctgcctttagccacagctcttcctctcctgggctctgaagcttctctgtctgtctgtctgtctctctctctctctctgtctttatctctgtctctctgtccctccaacaatcaccctctttctatcctgtgccatcaatctctcctttactcagtcgacatgtaaacaatcacaagcctcttcatactaaggtgataaggactcttgacttggcattctcctccagcc
1 gacgatggggttttctagatatataatcatgttgtctgcaaacagggacaatttgacttcctcttttcctaattgaataccctttatttccttttcctgcctgattgcccttgccagaacttccaacactatgtttaataggagtggtgagagagggtatccctgtcttgtgccagtttttaaagggaatgcttccagtttttgcctattcagtatgatattggctgtgggtttgtcatagatagctttt
1 ccccaaatccaATAACCATTCTCCCTGTCCATATCTTGccttctcctccccctccttcacagattcctccttgttcttctcctgcctgcacccctcctcctgcctgtacccctccaccagctcatacaccgcctccAGCCCAAACCTGTCTTGTAACTCCTTCCTCTCCTCTCTTGCTTGGTCCACCTTCTGTGCCCATCTCTGCCTCAGTCACTAATCTCCCCTTGGGCTTGAGGCCTGAGGCAGAGCT
1 ggcaagagaattgtttgaactcaggaggtggaggttgcagtgagtcaagattgcaccattgcactccagcctgggcaacagagctagacaccatctcaaaaacaaaaaacaaaaaacaaaaaacaaaaaaaaaaaCCTCCCATTTTGTAGAAAGGTGGAGAAATTTTTATCCATATGGCATTAAATATTCTGACAAATATGGAAATGCAATAAAGATACAGTCGTTAGTGAACAAATAATGCTTGTCATT
1 TAACTTACAGCTGCCCATCCACCACCTTCTTCTGGAATTCTAGCACACTGTAGGTTAGGCAGAATCTTCCTTTTCACATTGAGGCCATCTGCATACTCACTCCCACTCTTTCCCAGACCCATTTCCTGGCAGTCACCTTCCAGTTCAGTTTCCTCCTCACCTTCAGCTACAGGTGCTCCTTCTTCTCTCTCTTGTCCAGCTTCAACATCCTGACTCTCAGCTGGTGGTTCCTCTTGTTGAGATTGTTAAT
1 taaaataaacatagaaaattaaaagagagagaaataaactggaaaactgaaaacagtgttgatacacaaatataagatcttgtagttcaatatggataataaaatatatttatccctggtaaatccattcaagaaaaaaaaatatataaaacaagttaTGAGACTAGAGAGTCAACCAATACAGAAAAAAAAAACTTAAAAACCTAAGAGAATAGTATATAATACCATAAGATGTTTGAAATATATGATG
0.847276938161366 tgatagatgatagataacagtaggtgataaataatagacgataggtgatagatgatagaggataataggtgataataggcgatagacaatagatgatagattatagacaataggtgatcgatgatagataataggccatagacaataggtgacagatgattgataGGCTGGTAGGTAGATAGACGAGGTGGTGGAATGTGATAGAGCAGATGGGATGGAATGCCAACTGctagagtttggatgttaacat
0.184725472467839 tctatgtgagtgtatgaatgtagggcatgtctgtgtgatgtgtgccatgtgtatctgtgtatggtgtgtgtcatctgtgtgcatgtatgtctgtagggtgtgtatgtgtatatgtcatgtgtgtgtctgtgtgtgatgtaagtatgtgccatcggtgtacacatacgtatttcgggtgtgtgtggcatatgtcatctgtgtgagtgtatgtaggtagggaatgtctgtgtgatgtgtgttatgggtatct
1 ttctccaagtcctcaccagattaacttgacacagagcaccgactggtgagtttacaaaccttgagctagacacagggtgctgattggtgcgtttacaaaccttgagctagacacagggtgctgattggtgtgtttacaaaccttgagctagacacagagtgctgattggtgtgtttacaaaccttaagctagaaacagagtgctgattggtgtatttacaatcctttagctagacataaaggttctccaa
1 atgggttttaagtcattccaaggaatagttttgatttaactctgaaggccatggagagacattgaaaggttttatccaagtgaatgaTGGAAGGAGCAAACTGTGGAACCCTTGGGGCAGCACTGAGAAGAGCGACTCATGATGCCCCTTTTCTGAACTGCTTATACAGATTTGATTCTCATTCTTGGCATTACTCCTGATTCCTCCTTCGTCTACATGcacacgcacctacacacacacacaaacacac
1 tactcaagtggctgaggcaggataattgcttgaacctgggaggtggaggttgcagtgagccgagattgtgccactgcactccagtctgggtgacagagtgagactctgtcacgaaagaaagagagaaagaaaaagagagagagagagagagcaagagagagagcaagagagagagagcaagagagcaagagagagagagcaagagagagagagagagaTCATCGATACTCATTTATCAAATACTCAAACC
1 aggaaagtttatagtgctaaatgcctacatcaaaaagcctgaaaaatcacaaattgacaacctaacatcacaccttaaggaactagagaaacaagaacaaacaaaacccaaagctagcagaagaaaagaaacaacaaagatcagagaagaactgaatgaagttaaaacaaaaaaattcaaaagatcaatgaaacaaaaaattgattctttgaaaagataaacaaaattgatagagcattagctagattaa
1 ggttctaacaagtgtggaaagaataagttactcacaattggttaaaaaaaatggcttccttctctccctccctccctccttccttccttccctccttccccaccccctctttctcTCTCTCTCttttttgtagtgtaggggtctcattatgttgcccaggctggtctcaaactcctggactcaagcaatcctcctgcctcagcctcccaaagtgctaggattacaagtatgagccactgtgcccagcaag
1 TCCAGCCATCCCAGTGATTACACAGGTAGGGTCAAAGATGACTATTCAGCCTGTGCTAGCTCTACTCTGGTGGCTAGTGTCTCAACTGTGCCATTCTCTAAGGAGCGAAGTATCGTATAGTAAAacacacacacacacacacacacacGAACTCTGAAAATCTGGGTTTGAGTTTTGTATCAAGTTTCACAAATCACATATTCCAGGGGTTCTTAACCTGTGGTCGGATTTTGGAAAAAGGAAGGTGTTC
1 ATCCACAATACAAACTCCCTTCATTTTCCAGTCAAAGCAATTTCCACATAGTTTCAGTGTTCACTGAGGTTACTTCTGCAGTATTTTGTCATATTTATCCTCACCCATTCTCAGAAAGGTGAGAAGGCTTTCTACACATACATATacacacacacacacacacacacacacacacacacacTTCCTTATCTTCTAACATGCACCTCAGCCTATCCAAATTCTACCCATTCCTCCACACCAGTTCCATCTC
1 atagctgagtctaaaacaggcaagattttctgcattcatgaagctgaccctctgattgagaagagaaaagtagaaaatgaagcgtatgagaggttgataagtgtcagagaggtaacaagggaaggtgggtagggagagtgttgggagtcagggataatgatggtgtggtggattgtccaaatttaggtagtgtgttctgagaaggcctctgaaaaggtgacataatatagcagagtcttgaagatgcttt
1 tgaaaaatctgttagttttctgcctcaatgatgtgtctaatattgtcagttgggtgttgatgtctcccactgttattttgtggttacctaagtcttttcataggtctccataaacttgtttaatgaatctgcatgtgctcctgtgttgggagcatatttaggatagttaggtcttcttattcccattacgtaatgcccttctttgtcttttttggtctttgtttgtttaaagtgtgtctgaaattagaag
1 tgatgatgcactgtcattgctgctgtgttgctctgttgttgctgtgttcttgctgtccttgtcacgctgttgtggtgttgtggctgtgctgttgctggggttggtgttgctgtcacggtggtgctgtgtgtgtcatgttattggtgctgttgtcatcactgctgtgttgtggtttttaatgttgatgtatctttggtgatgtgatgttgtcatcattggtgctgagttgttgtttcgttgttgtgttgtc
1 ATCCTTCAGTGTCTCTTTCACAGACTTTAGCTCATTTCCTTTTTGAGGATGTTGCATGTAACTCTAAAAGGGTTGACTTGGTCTCATGTGACTTTTACCACTACTTCTGTACCTCATCTGTCATCTCAGCTTTATGTCCTTTGATGTTCCAAACTGCTAGTTCCTTTTTCCTGAATAATTCAACTGGATTCCTAAAGACAAAGCTACAATTGATCCCAAGGTTCGTTGGCAATGATGTCTTAAAAGTCAG
1 catagtctatacccaaaatctcctaggtctaataaataacttcagcaaagttttagaatacaaaatcaatgtgcaaaaattggtagcatttctatataccaacaaagttcaagatgagagcaaaatcaagaatattatcctattcacaatacacacacacccacacacacatacacaaaaacacacacaaatacctaggaacacagctaaccaaggaagtgaaagatgtctgcaatgataattacaaaac
1 tcacactacctgatttcaaactatactatatgcccatagtcactagaacaacatgttactggtacaaaaataggcacatagaccagtcgaacagaatagagaacccagaaataaacccaaatacttccagccaactgatcttcaacaaagcaaaaacaaaaaaacaaaaaacaaaaacaaaaaacaaacaaacaaaaaaaacataaagtggggaaaggacacccttttcaacaaatggtgccgggataat
0.7294326977003395 tcttctctttcctgtatcttcaaactgcctctctctgctggttccttcccattagccttccaacatctcccctcctacagtctcctcccttttctgctcctcttcttttcttcatctctctttcatttcacaatccaccacattctgattactggtctcaacaagacttctcttgtcaaattcacccctgacctccatgttgttaaatcaaactgacacatttcagctcttctcctgcttttcccttaga
1 GCAAAACTAGGGAGCAGAGGAAAGAGAACATTTTTTAAAAAACAAAAATGTTGCctgggcgcggtggctcacgcctgtaatcccagcactttgggaggctgaggtgtgaggatcatctgaagtcaggagtttgagaccagcctggccaacatggtgaaaccccgtttctactaaaagtacaaaaaaattagctgggtgtggtggcgtatgcctgtagtcccagctacttgggaggctgaagcaggagaat
1 atagcaaagacttggaaccaacccaaatgtccaacaatgatggactggattaagaaaatgtggcacatatacaccatggaatactatgcagccataaaaaaggatgagttcatgtcctctgtagggacatagatgaagctggaaaccatcattctcagcaaactatcgcagggacaaaaaactgaacactgcatgttctcactcataggtgggaattgaacagtgagaacacatggacacaggaagggga
0.2298792612853829 cagaaacaaacaaacaaacaaacaacaaaCTGAGCCAAGGCAGAAGCAGGGACTGAAAGAGAAAAAGGGAGGAGAGAGAGAGGAAGCGGGAAGCACGGGCACAGAGAGACTCGGAGAGAGGGAGGAGAGAGAGAGGAAGCGAGGTTCAGAGAGACTCAGAGGGAGAAAGAGAATCAGCAAAACACACAGAGACTTAAAGGAGAGAGGCAGAGGGAAAGGAAGGAGAGCAAAAGGCAGGGACGGAACAGAG
1 ctgtgagcttgcatttccagCCCTCTCTCAGCACCTTTACCCCTtctctctctctctctttctacacacacacacacacacacacacacacacacacacacacaTCTTGGTTTTTTCTTCATCCATTTCAGAAATTGACACTCTtggggggagaggggaggaatagcattaggagatatacctaattctaaatgatgagttaatgggtgtagcacaccaacatggcacatgtatacatatgtaacaaacc
0.5403771905508649 agaaaaaggaagaggaagaagaggaagaggggaacaggaagaggaagaagaggagggggaggagaaaaacgagggggaggaaggagaaggaggaagaggaaaaggagagCTCATAAAAACAATAGAGGAAAGAAAAGGCTCATGTTCCACAGCTTCCCAGGGAAACTATGATCTCCCTGGTCATCTCTCTGACTTGTCTTCTCCATTTCACCACATCCTTTCTCTCCCACCACTGCTTCTTTTCTATCAT
1 AGCACACCACAACACACATGCAGCACCAGGCACGTGCCGCAATACAGACAACCACACAAGCACCCACTGCCACAGTTCACCCTCATACAGCGAAGTGCACCACAACACACACCCACAAACATTAAAACACGACACACTCACCAGCCCCTTGGCTCCCTGCAGTACAAACAGCATAGTACCTTGCACACTCGGACCTCCACAACTACACACCCACGCCGCACTATCACAACATGTATGCTCGCAAACACCG
0.6259678317982669 TTCACTCACACAGTACATTCATTCAAGCATCCATTCACACAGTACATTCAATCATCCATTCACACAGTACATTCATGCAGTCATCCACACAGTACATTCATTCACTAATTCACTCACACAGTACATTCATTCAATCATCCATTCACACAGTACATTCATGCAATCATCCACACAGTACATTGATTCACACAGTACATTCATGCACTAATTCACTCACACAGTAcattcattcaatcatccattcatacag
0.2329316188887994 GGGGTAAGGGTGAAGGTTGGAGTTGGGTGCAGGTGATGGTTAAGATACGGTGGAGGCTGGGTtgagatgaggatgatagagtcggagttgtggttagggttgggatgatggatggttgggattagatgagatgagTAAATGGTTAGGGTTGGGGTGCAAGTGAGGTGAGGGTGAGATAAGGTTGGAATAggggctggggctggggctgaggtagggtcagagcagggtgatggtcgggactgggattggg
1 ATTCCATTCCATTCCATTCTATCCCATTCCATTCCATTCGAGTCCATTCCGTTCCATTCCCTTCCATTACATTCCTTTGGAATCCATTCCATTGCATTCCATTCAAGTCAAATCCGTAGCATTCCATTCCATTCGAGTCCATTCCATTCCAATCCATTCCATTCCGGTCCATTCCATTCAATTCCATTCTAGTCAACACCATGCCAATCCTTTGGAGTCCATTCCGTTGCATTTCATTCCATTCCTTTCG
1 TCAGACTCTTATCTCCTCCTTCAGACCCTTGTCTCCTCCCTCAGACCTTCACCTCCTCCCTCCAAACCTCGCCTCCACCCTCAGACCCTTATTTCCTCCATCAGACCCTTACCTCCTCCAACAGACCCTGTCCTCCTCCTTCAGATCCTCTCCCCCTCCTCCCACTAAACCATCTACTTCTCTCTCAGACCTATCTTCCTTCTTCAGATCCTCCTCCTTCTGACCCTTTTATCCCTCTTCCAACCTCAGA
1 GCTCTCTCCCATCTCCAAGTCATGGGTTTTTCACCTTTGACTCCTATCTCTGTCATACTCTCTCCCAACTTCTCCCTGCCTAATCTTTCCAGAACCTCTTTCTCATCCTTCCCTGGCCTTCTCTCTAATTTCAAGTGCACTTCTTTCCCTAAAGCAGCAGGATTTATCTGTAGGTTTGTGGAAACCACATAGCCTGAAGAAGCTGGAGATGAGAAGAAAGGCATCTGTGGCCCAAGCAGACCACTGATAC
1 CTTTTAATTCTACCTATCTCTTCTAGACCCTTCCCCTTTTATAAATATTTAAGGAGAGCTTACTTTGTGCAAATAAGTTTTGTCCAAAAGAGAGAGAAAGAACGAGTATGGCAGGGAATGAGACAAGCAGGAAAAGGAGTGTTGTAAAGGGCAAAGAAAGATCGCTAAGGCAGAGAAGAGGAGGGAGGAAGAAGGGAAGGAGAGAGGGAGAGGTAAGGAAGTGAAGAGGAAGATGAAGCTAGGTCTTGAT
0.4938192865076024 agacacacagaccatatataactacacacaacacatcacacaccagatgcacaccacacataagcacgcacataacacccatgcactgcatgacaacaacacacatgtgcacacaagcacacacaaacacactggagctacacaccagacacacagaccacaccacagacacacgctgaccacccataaatacacatcacacacacgcatacaccatccataaacacacacaggctgcacacaggactca
0.02932504530826212 agtaacacatatgcacacacctccaacacatgcatgtacacacaaccacacacacatgcatatgcaatcaaacacatgcatgcacacacagccacatacatgcatatacaatcaaacacatgcatgcacacacagcccacacacatgcatatacaaacacatgcatgcacacacagccacacacatgcatatacaatccaacacatgcatgcacacacagccacacacatgcatatacaaacacatgcat
0.946806497536687 gccacatccccctctccgagaaacacccaagaatgatcaataaatactaaaaaaaaaaaaagaaaagaaaaagaaaaaaaaaagaaaggaaggacagaaggaagtaagttgggcagggacagaaagaaagaaaaagacagagaaagagagggagggagggagtgaaggaggaagggagggagggagagaagacagagaaggagggaagagagagagggagggagggaagaaaggaaggaaaagaaagaaa
0.8447826464219973 GGACAGTGATTGGTGAGGTGATGTGGAATAGGGCTGGGACACTGGTTGGTGAGGTGATGTGGAATTGGGCTGGGACATTGTTTGGTGAGGTGATGTGGAATAGGGCTGGGACAGTGGTTGGTGAGGTGATGTGGAATTGAGCTGGGACGGTGGTTGGTGAGGTGATGTGGTATAAGGCTGGGACAGTGGTTGGTGAGGTGATGTGGAATTGAGCTGGGACGGTGGTTGGTGAGGTGATGTGGAATCAGGC
1 aatgactactaggtaaataacaaactgaaggcagaaataaacatggtctttgaaaccaatgagaacaaagacacagtgtagcagaatctctgggacacatttaaaacagtgtgtagagggatatttacagcactgaatacccacaagagaaagcaggaaagatctaaaatcaacaccctaacctcaaaattaaaagaactagagaagcaagagcaaacaaattcaaaagctagcagaagacaacaaataa
0.7798362331816409 AGTCTTGTTCCTTAGAACTGTACTCACAATGTATTCTGTCAGCCTTATAGAGGATGTCTTTACCGTGTTctttcctttccattccttgtttcctttccattttttcctatctcatttctcctctcttttcctttgctttcctctttctttctttctcctgtcctcTTAATTTTTTTGTCTTATAGCAGTGTGGTTTTGTAACCAAGTGATATCAAGTTTGCAAATGAAAATCTTAGACCACACGTAACAT
1 cctctccagcacctgttgtttcctgactttttaatgatcaccattctaactggtgtgagatggtatctcattgtggttttgatttgcatttctctgatggccagtgatgatgtgcgttttttcatatgtctgttgactgcataaatgtcttcttttgagaagtgtctgttcatatcctttgcccactttttgatggggttgtttgattttttcttgtaaatttgtttgagttaattgtagattctggata
1 tgcagtgagccgaggttgcaccattgcattccagcctgggcgacagaatgaagctgtctaaaaaaaaagaaagaagagaagagaaagaaagagaagagaaggaagaaaagagcaaagaaaaaaaagaaaagaaaagaaaagTAGGTTAGGGCAAAGTGTAACACACACAGGCACGTACACATCCAGGAGGAATGTATATAGGAGTTTGACCTTTTCTGTTTTGTAAAATGAAGGATTTGGTCCATAGTAA
0.7266939234194203 ATGggtggttgttcaggtagatgttaggctgttgttcaggtggatgttcaggtgtgatgtgggactggaggtgggtgtgtgggtggaggGGTTGTTCAGTGAGTGTTAGAGAAGTTAGTCAATGAAGGAATtgggtggatttggatggatgtttgggtggttgactgcgaggttgtgtggatagatggatgactggatgactgggtgggtaaacaggaagtggaatgggtaggggaatggagtggatgac
1 ccctttcttccttcctttctccctttattacttttccttccttcttcttccctttcttttttcttttctttctttccttccttctttctctttctcctcctctctgtctttccatttgccttcatcctttTGCAGCAACTAAGATTCAAACTTCATAAACTTTTggccaggtgcagtggcctgtaataacagcactttgagaggcaaagacagaaggatcccttgaggccaggagttggagaacagcctg
1 AACCCAACACACCAGGGTTCACTATCGCCACACACAAAGACCAAGGGGAAGGGCCTCTAGGATGCCTGCTCACACACTGGACACACGCCGGCACACCCTACCACACTCCTGCCTCTGCCACGCACCTTCTCACCGACACACACCATGTTCTCCCCCCACACTCACCCGCTCTTTACCACACTCTCAACTCTCTCCTCCCCCATTTACTCACTCATTCTACCACCACCCCTCATGCCCACACGCTCCCCAC
1 tttctgactttttaatgatcatcattctaactgacatgagatggtatctcattgtggttttgatttgcgtttctctaaagaccagtgatgatgagcattttttcataagtttgttggctgcataaatgtcttcttttgagaagtgtctgttcatatccttcacccattttttgatggggttgtttgtttttttcttgtaaatgtgtttaagttctttgtagattctggatattagccgttttgtcagatg
1 TTTAGGCAAATCCACCTGGTGTCTCTGTCCGTGGTGCTGAAACAAGAATGTTTGAACGTCCTCCCTATGGAAGCACTAACAGGAAGTAGAAGGGAGAAAAAGACCTGGGAATGGGTGGTGGACAAAAAAGAAGCAATGGAGGAGAAAGAAGAGAGGGGAGAGAGAAATCTGGTGGTAAGGGAGATAGAATGTAAAGGATTCCAGGAGGACCAAGGACTGTCTGAACCCTGGGACTAGGAGAGGAAGAAGA
1 gtaaaataatagccatgacaaaagcaacaaaggagaaggaagtggatggtgcctggagcatgcgtcagagaggagaccagcctgtcaggagagttaaggaaggcttcccaggtgcagtggtgactgagccgaggtgtgtgtgtgtgtgtgtgtgtgtgtgtgtgtgtgtgtgtgtgtTTTGTGTTTATTAAGAATATATGCTCAGTGGTTGGTTCCTCCAACTGGAACAGTGTGCAAAAGCCGTGGCTGA
1 GCACCCACCTACTCCTGCCTACTGTGTTTCTCAGATGTCTGCTGCCTGGCTAGCTCATTGCTGCTTTTGTCACTCATAGAGCTGTCTTCTTCCCTTTTTTTGGCTTTCTGCCTGACTTCCAGGGCAGCTGCTCTGTCATTGCCTGTCTGCCATTCTGTCTTTTTTCCCCCTACCCCCCACAGATACAACATCTACTCTAATACCACACATTCTCcatgttcaaactaacctcatcactttccccaccaca
1 aagaggaaagtttatagtgctaaatgccaacgtcagaaaataagaacgatcttaaattaataatctaacatcatatgtagagaaacaagaaaaaggacaaactaactccaaagctagtaaaagaaaagaaataactaaaatcagagcagaactaaatcaagacacaaaaatccatacaaagcataaataaaaccaaaagttggttctttgaaaaaaaataataaacaagatgtatagactgctagctaaa
0.3302155616389216 gcaggagaatcgcttcaacccgggaggcggaggttgcagtgagccgagatcgcgccattgccctccagcctgggcgacagagggagactccgtctcagaaaaaaaagaaagaaagaaaataaaagaaaaagaaaaaggagaggaggaaaggaagaaaggagagagaggagaaagaaaggaagcaggcggaagagaaggagggagggaggaagagaaaggaagcagagagaaggaaggcgggagggaggag
0.8168592407933645 atttcattccatttcatcatttcatcatttcatctcatcatttcatcctttcattatttcatttcatcatttcatctcatcatttcatcatttcacttcgtctcatcatctcatgatttcatctcatcatttcatctcatgatttcatttcatctcatcaattcatagcatcttttcatctcatttcattatttcatttcatttcatcttttcattttgtcattcatttcatcatttcattttgtcaatt
1 ttttctattgctttgcttattctctgctctgtggtataaagatattgttgaaaatgtctaaatggtctgcagatgccccattgggaacaatgataagaaaaagaagaagcgtttatgtttatctgtagctcagaaagtcatgctattggagaaactggacagcagtgtaagtgtgaaatgtcttgcaaaagagtatggtgctagaatgactaccatatatgacctgtgtcacagaaggataagccattga
1 acacaccacacacacacacacacacacTGACTGTTTAAAGCTATTTACCGTTACTCCCATATATTCTTTTAACCCTCTGCTTTAAACACTCTGATTTTCTCATCTTTCTCTACACATGAAACCATCTTTCCCTCTCTTCCTATGGTCATGTTTTTCCTTACAATAAACCACTTCTGTTCATAATCTCTGTAAGTCTCAAAGTGAATTCTTTACTAAATATGCCCAAACTAATCTTTCTCTACTCAGAGAG
1 ACTACCTCTGTCCTCTCTCACTGGCCAAATGCAATTCTTGGATCTTAGATTTCGCTGATAGTCTAGTTTTCTGTCTCCCACACTTTTCCTGCTTCTGTTGTGCTTCTTTTCCAGACCTGTCTAGTTCCCAACTCATCTGTCTCCCTTTCTCACGGTCAGCTTTATCCTGCCCTCTCCCTTCCCTACATACCTCCACCTTTTGTTCTGAGTCCAGTAAGTCCCTAAAGGAGATTATAACTCTTTAAGAATT
0.5770110397759991 TTTTAAACATGTCTATAAGTAATTATTTTTATATGTATGTCCGTGAATATATACATGCTTGTATATGAGGTATACATGTGTCTGTTTTTATCCGCTTGATTGTGAATTCCTTAATTGCACTGACATGGACCATGaggtagatagatagagagatggatagatgggtaggtggatgggtgaatgggagatgatggatggatggatggatggatggatggatgggggacggatgggagaattgacagataga
1 TGGCATTGAAGTTCACAGGTGATAGAATTGGGTTGCATTTGAAACATATGTTGAGGATGGTTGGGATGCTGCAAAGTTGGTTGTTGAGATGTTTGAAGAGGTTGCGGATGGTAATGAGGATGGTTTGGTGATTGGAAAGAATGTAGAATTGGGATGGAGTAGGGGCATGAGGGAAAGGGATGTGAATGAGTTTGAGATTTGTTGGTGATGGAGATGGGACTTGAAGTGGAGGCTGGTATTGGGGCTGGAG
1 atgacctggcctctgttcacctctccagcactctctctatccacctcagttcccttcatcctacacacacattggccttcacacgaagcaccaggcttccagccctgcacaaattgttctggttgccaaattctctttcatacccttctttgcttggtcaactccaccttgtcttttgtgtctcagtcaggcattacctcctccaggaagccctcctgtgtaacctcctttttgcctttctccgttgtga
1 aaaccaataacaaaacggcaggaataagtccttacttattaatactaacattgaatgttaatggactaaattctccaatgaaaagacacagaaagtggctgaatgaacaacaacaacagaaaacaagacccaatgatctgttgactacaagaaacacacttcacctacaaagacgcatacagactgaaaacaaagggatggaaaccaaaaaagagcaggagtagctatacttagatcagacaaaatggat
1 CCAATGCACTGTGCAGTTATGTTAGCCATGCTATTTCTCCATCCTAGCTGAAGTCCCACCACCATAGACCCTGACACTCCACTGTCCCCATGTCCTAGATCACCACGTAGTGTGCTTATTCTGCTTCATAGTCTCATACTCAGCAGTCCCAGCCCACCACATACTCCTTCTCTCCCTTTACAGTTTCCCTGGTCACTCACTTCTTGTAGTCCCTTTTCCGTCCATCCTGTCCCCTTTTCAGTTTCTGTTT
1 caacagcagattacacatgcttctcaagagcacatgaaatattcttcaaatattcttaggctgcaaaattatcttcagtaggtataaaaaggctgaaataacacaaagcatcttgtccggccacaatgaaacgaaagcagaagtcaataacagaaggaaaactggaaatttcacgaatatgtggaaattaacacattcataagcaaccagtggataaaagaagaaaacagaagggaaatttaaaaatgct
1 caatgtcacacacatacacacatttacactcgctcacacttatacccacatgtatgcacatgcacactcacactcatccacacccacaatacatgctcacacccgttcttactcatgttctcacacacaccacttacatttatgctcacacccatacactcacatgtgcactcatgctcacattcatacaggctcacaatacacaagctcacactcatgctcactcccacacatacatatgctcacactc
1 ccaggagttcaagacgagcctgggaaacatggcaaagccccgcctctacaaaaaaaaaaaaatacaaaaattagccaggcatggtggtgtgcacctgtggtcctagctactcaggaggctgagatgggagatcacctgagcccagggaggtcaaagctgtagtgagctgtggttgcgccactgcgctccagcctgggcgacagagcaagaccctgtctcagaaaaataaataaataaataaaaaataaaA
1 TACACACACATAAAGTACACACGAACCACACACACATATATAAATCACATACACAAACTATACACAAACACATAAACTACACACACAAACTACACGCACATATAAACCACACACACAAAGTACACTTTCATAAACTACACAAACTATACACACATATAAACCACACACACAAAGTACACACATGTAAACTGCACACACAAACTATACACACACATATAAATCACACACACAAAGTACACACACATAAACT
0.005042153865053521 CCTCCCACCTcactcccaccacatcccatacaaacacacatcacaccacacacaccctccatcacccacaccccatgcatcacacaagcacagacacacacacatcacgcacacacacgcatcacacacatcatacaaatgcatacgcacaccccacacacataggccaaactcctgacctcacacacacactctatcacacacaccccacgcatcacacaagcacagacacaaacatgctacatcacaa
1 aatgatgagaacacatggacacatagagaggaacaacacacactggggccttttggagggagggtacaggatcaggaaaaataactaatgggtactaggcttaatacctgggtgaagaaataatctgtacaacaaactcccTCTGAACTTAAAATAAAAATGTGGTGTacacacacacacacacacacacacacacacacacacacacaatgaaatactctttggccataaaaaagaatgaaatcctgtt
1 CCAGACAGCTCATTGATAAATAAGCCTTGCTGAGGAAATTCCTTGCTCCATTCTGATCACTCTCATCTTCTCACCAGCTCCCCTTTTCTTATCTCCTGTTTCTAGTTTCTGTCCCTCCCATTCATAAAGTAACTATCATTCACATTTTAACTCACTCTTTCATTAATATACTCTGTGCCAAGCACTAGGATAAACACCTTTTTCTAGGATCCTATTGTCCAAAATCAACTAAGACCTTAATTTTCTCCAA
1 AAATTTGTGATATGagtgtgcaagcagagagatcatttcagaggttatgaccgtgttaaagcaagagctgatggaagcagtgacagtgggaatgaaaagaagggaatggattcaacatacaggtaacaagtctagctgagtccttcaaacatttgttcggagtggtagtaattaaggaagagcaagaaatcaaaggcgaccccaactcaggattcattttcaggtaactaggtacatggtgtttctaata
1 AGAAAGGTGTTGCAGGACAGGAGGAGGAGTGAGTAAGAGGCAGTGTTAAGTGTCATATATCAAGTCAAGTTTACCTAGTCAGGTAGATAGAAAGAGAAAACTCAAATTCCCCCATATCTGaataaaaaaaaaaaaaaaagaagaaaatgaaggagaaaagaaaaaagagaggagtaaaagggaagacaagaaggaaaaaaaaGTTTGTTCAAAAACACTAGCATAGGAAATGCTATTTCTCAGGAAAATT
0.7532082850426537 tctttctttcttcctttctctgtctctctctgtctccctttctttctttctttctttctttctttctttctttctttctttctttctttctttctttccttcctttctctctctctctctctctctctctttctttctttcttgggacagagtcccactctgttatccaggctggagtgcagtgacgcgatcttggctcactgcaatctccgcctcccaggttcaagcgattcttgtgcctcagcctccc
0.2307716492254827 ACACGTGGGCGGGCAAAAGCatgaatcgatggatgtaggaatggatgataggtaggtagatgtgtggataattgaatgaataatgcatgtatcagtaaagaaatatgcatatgagtggatgactgaaggataaaataggtgggtgggtggttgaatgggtagataggtgagtgaggtgaatggagaaatgggttgatgggtagatgaatggatgggtggtgaggggtataggtggatgggacagatggtt
1 ATTCCAGTGTCCCGGTCAAGCTCAGCCAACCACTGGCAATTGCCCAGATGCAAAGGCCTTTGAAGAACTCTGCCTTCTTGCCCCACAGCGTACACACACAAAACctctttctctctaccccccactctttctctttctctctctttctGCCCCAACCCCCTACATCCCATGCAAACAGGAATAGAAGCCTCCGTCTGTAAGTCCTACCACTCAGCTTCTATAAGTCACACAGGTTATCATGCCTTCTTTT
0.1479267163456052 GGCGAGTTGGATCAAACAGGAGTGGATGAGTAACTAAGGGATAGATAGATGCCAGGGAAGAGTggaggggatggtggtgggttggaagggatgtgagtggatggatgaactggggtggctgatgggTAGATGATGTATAGATGGGTAGGTGCACAAGGTTTGATAGGTAGGTATCCTGGGTAGGTGGTGCAGGATGTGTGGCTGGCTGGCTGGAGAAGGGATGATGGGTGGATTTGAAAGAAGAGAGTGG
1 ttcaactttaactttttgttctgctttctgaagatttccttaattttatctttgaagccttttcttgggtctttcatttctgccatcaaatttttaatgtctagaagtcacttatattctctctgttaaaaaatagtatcctacgctttttaaatccaatttgaaacgtatgtattctattcttgtttagtgtctaccatattctttgttacctctctgaggatagaaatgatagtaagctttttgaagt
1 CAGCGGCAGCAGACTTACCATGCTTCATCATCACAGTGAGAAACCGGACGATGACTTTGGAGCACGGCCTAATAAGCACCTGGCGTTTGCCTCTCTTTTCGGCATTGTTGATACTCTTGAGAGCATCTGCCAGGACATTCATGCGCACCATTGTGGCTGTTCAAGGAAGACAAAACAGGAGGTTTTACTGGCATTGCCAACATCAACAGACACCAACCATTACACTGCGGAAGTATCCTTTCCTTTCTGG
1 ttccttcttctttccttctttcgtcttttcttcctttgttctcttttctttctcctttctttctttcttttcttgtttctttcttttctttccttttcttctttctttattttcttttcttttttttccgggtcctactccaacgcccaggctagagtgcagtggcatgatcttggctcactgcaacctctgcctcctgggttcaagcgattctcctgcctcagcctcccgagtagctgggattacaggc
1 GCTCAAgaagatgaaaggagataatgcaagaaagtacttagcacagcatctggcaAAAACGGGGCAAGGAAAGGAAATCGGAACGTGTGTCTGGGAGCTTAAGGGTGTCAGGAAGGAGGACAAGAAGGAAAGGGGCAGGAGAAGGAACCTGAAGGGAAAGGGAACTGGGCAGAAAAAGAACGGTAAAAGAGATGTGCTATCTGGGCTTCCTACAAACAGGCAGACATCACCCATTGCGTACCTGCCTTGC
0.1748832055163986 atgaatggagataatagaaaattgataaatagatggctacatagatgatagataaatagataacagatatgtatagatgataggaatgacagaaaaatagaaatagatgacagatagagtagataatagatggatagatagaatggatagaggattgatggtagagatgatagaatagatagaacagatgatttgatggatggagagatagaataaataagtaggtaggtagatagatagatagatagat
0.4303453180146913 gtgactttgtgactgtgtgtctgtgtgactttgttactatgtgactgtatgttagtgtttctgtgtgaccttatgactgtgtgtgtgatgacgtgtcagtgttttcgtgtaaccttgtgactgtgtgactgtgtctgtgttctgtgtgaatgtgtgtcagtgtgactgtgtgtctgtgtgaccgtgtgacCATGTATCAGCGTCTCCACGTGACCTCGTGATTGTGTAGTGCTTCTGTATGGCTGTGTGT
1 CTGCTCTCCTTGATTAGAGCTGTTGTTTCCctgtattcgatcttctttattttttatctataccctctttctttgttGAAGTCCTTGGTAATTTTCTAAtactctcatacttgagtaatgatttggttttacatagaatccaaagttgaatatcacttttccttcaaattttaactcattgtttcttagccatctagcatttaatattgctgctgtgttgcctgatacttatataaggcttgctgcattg
1 tcatccatcatccatccatccatcatccatcatccatccatccatccatccatccatccatccatccatccatccatgctttcaatccTTTTGAGCCCCAGCCAAATTCCAGCCACTGCATATTTAAGATAGTATTTGGCACATCATCTTATCTTTCTCTCTGGATTGTTAACCCTCCTAATGGCAGGGAacttaataatttagttgtagctctgtaaaaatcactaaattctgagtattagtttcctca
0.2129384448868694 TTTAAAATATTTGAACTTTTCTttccttccttccttccctcctttcttccttccttccttcctttcttccttctactttatttctgcccttctacccttctttctttcttccttccttactaccttctttttttctcttcctcccttccttctatcAGGGCCACAGTGTCATTCTAAAGCACAATACTGAATATACAGCGTAGGTTCAAGTCAGCAACTGAGACTCAGAATCCCAAAACAAATCACTTAT
1 acacataattgtgctgattgatctcactttaaattcatgaccacCCATTtcctaacaaagctgacccctccatttgaacacgtaaatctaattccatctcttctgctcaaggatacaactcccacaattgccccttcctcctacatgttttattttcccatctgtactcaacatgcagtatttctatcatttttttaaggcactcacaatcccactttcctgtcctggtatgaccccatttcCACACTTT
0.8779645187921068 TGGGCAAGCTCTGTGATTCAGGTGAGATCCTAGTCAATTCTCTGTCCTAAATGCTTTGGGGAATGTTTAACCAGTTTTGAAAATGGCCTAATCTGGGAATATAGGAAAAGGGGGAGAGAGAGAGAGGAGGGAGAAGGAGAATAAAGGAGAGGGAGGGAGGAGAGGAAGGGAGGAAAAAGGGGAGAGAGAGAGAGGAGGGAGAAGGAGAATAAAGAAGAAAGAGGGAGAAGAGGAAGGGAGGAAGCATGGA
1 CTTGTTTTCCTTGGTTCCTAATATTTAAGTGTTTTCTGCCTTTTCTGTTTTCAGACTCTAAGTTCTATGTCTGTGGATTTCTTATATTATTCTAGCTTTAATTATCACTTCTGTATAAATGGCCAAATATGTATTTCAACCTTAATCCTCTCTTCCACTGTTTAATTCTGCGTTTCTAGTTGACTGCTATAACATTTCTTTTAAGATACTGTACTGCCACTTCACATTCAGAATGCCTGAACCAAATACC
1 ggctcaagtgaacctcctacctcggcctcctgagtagctgggactacaggtgtgtgccaccacacctggctaacttaattttttttttttttttgagacagtttcactcttgttgtccaggctggagtgcaatggtgaaatctcagcttgctgcaacctctgcctcttgggttcaagcgattctcctgcctcagcctcccgagtagctgggattacaggtatgtgccaccacgcccggctaattttgtat
1 GACTACCACAGAACCAAAACACCACCAATCCTGTGGAAGCTacctgacttacagttttgaaggacttttgacagccatggggagaattgaccctaggggagcaggaatgggaaacagagagactagtaaccgaggcaagcaattgaggcaaggtctgatggtggcctggagtaaagtggtagcagtagggatgaaggaaaaggggatatggttgagatggtctgtggggtggaaacaaggcaaaagtagt
1 AAACCAATGAATGCTTTGATGCCAAGGGAACCAATGAGATAACTGGGATCCCTGCTGTCCTCTGCCCTACCCCCACTATCTGCTCCTGAAATCTGTTCCCAGTCAGGGTCCTACCCTCTCCACCTCTCGTGGTCAGCTCTGTCCCTTTCATCTCCCTCCTCTGCTTCAGGGTCTAAAAGAGATAGCTTTGGAGGGGTGGAGAGTGTTTGTGAAGAAGCTGCTGGTCCCCACCTCATCAAATGACATCCCT
1 acaaaaaaatttaaaaatagctgggtgtggtggcagtgggaggatcacttgagcccaggagtttgaggctgcagtaagcaataattacaccactgcactccaacatgggtaacacagtgagaccctgtctctaaaaacaaaaacaaaacaaaacaaaacaaaacaaaatctaaaaagcaaacaaaaaaTTTTCCCCAACAAAACAAAAAACTCCCAAAAAAACAACAAAAAaattctccccaaattaaaa
1 TCAATTTTTGTTCCCATCCTGTGACTGAGCAGGCTTTTTGCACTGTAGACAAAACACAGTTTTGTTTGCCATCCCAAAGTCCAaagaaacaaacaccatccttttcccttcatggttctcctacagcagtcatctcttttccttctctctttcaccctgtttcaacagactctagatctgcttcctcatttttgagctcagttttaatcccattgccatctgacttcagtcttcaatcttcttttacaac
0.2190007934263388 tgaatggtgatgtgaatggtgatgtgaaCAGGCTCATAGAGTCGGGTGGTGATGCTGACAGTGCAGGTGGAGATAGTGGCAGCAGAGAGGCAGTCATGGCAGGGGGATGGAAGGGTTGATGATGCTGATAGCGGTGGTGATGAGGGTGTCAGGAAGACGGTAGACATGGTGACATTGACAGTTtggtgatggctcggtggtggtggtagtgcccagggtgatggttattgtcatggtcataataaaggac
1 ccatcatcatcatcaccatcatcaccatcaccatcaacatcaccatcaccatcaccaccaccacctacctctatcaccaGGCCCTGCACCTGGCAATTCTGCACATCCCTTCAATTAATCTTTACAACCATCACCCTTGGAGGTAGTTGtcatcaacaccattatcatcatcatgataatcattaccatTTGTTAAATCAGTGTTCCCCTAATTTTACTGACTTTTGATACCTGTAAAATCACTTAATAT
1 ttcttgtatgtctgtgggtcagtggtaatgtcacctctgtcatttctgattgtgtttatttggatcttgtcttttttcctttattaatctagctagtggtctttccatgttatttgtgctttcgaaaatatcaactttgtatgaattaacagcatttgccgtgacctggatgagaccggagactattattctaagtgaagtaactcaggaatggaaagccaaacatcgtatgttctcactgatatgtggg
0.2331523383593877 GCCAGGGTTTTCCTGTATTTTTCTCTTTACAGTTATCATAAATACCAGTtgagtgtctaagtatgtgtgtacatgtgagactgtgtgtgtgtgaatgtgtgtgatatgtccgtgttggggggctgtccatggatgtctgtgtgaatgtgtatgggtgactgtatgtctgtgaatgtgtgtgtgttaagttgtgcatgtctgggtgtgggtgtgaacatggaagacgggttcaagtgtgtgtatgtgtgtt
1 tatatatacaacacacacagagatagagatatatatacacatacacagagatagagatagacacatacacacacacagagatacacacatacactcacacacagagagagagatatacacacagaaatatatatatacacaaacacacagagaaacattttatatatatatacacctagacatacagagacacagagatatatatacacacacatacacacacagagacacagagatacacatggagagg
1 caaaaaagagtgaaaggaatatttgagacatggtggaagtctaagatacatgaaattggagtcttagaagagggcaaaaaaaaaatgggtcagaagcaatatttaaagcaataacacctgagaagtttccaagtctgatttatgaagtgaaggataaaaaaaaaaaaaaaactccatcctaataaaactgatggaaaccaaagagaagcatcttcaaagcagtcaggaaaaaaaaaaaacaaaaaaacaa
0.1563656104734889 tgatgaaatgaagaaatgaactgatgaaatgaaatgataaaatgatgaaatgaaatgaaatgatgagatgaattgaaatggtgaaatgatgaaattaaatgatgaaatgatgaaatgatgaaatgaaatgatgaaatgatgaaatgatgaaatgaaatgatgaaatgatgaaatggaatgatgaaatgatgaaatggtgaaatgagatgaggaaatgaaatgacgaagtgaaatgatgaaatgaaatgaa
1 tcaggagtttgagaacagtctggacaacatggtgaaaccctgtctctactaaaagtacaaaaattagccaggcatggtggcatgtgcctgtaatcccagctactcgggaggctgagacaggagaatcacttgaacccgggaggcagaggtcacagtgagaagagatcacgccactgcactccagcctaggcgagagagcaagactcagtctcaaaaaacaaaaaaaggaaagaaagaaagaaatcagtcg
1 ATtcctgttcctgtcccctgcctttctgcctcttgtctccttgtcccgtcccgtttctttctcctctcatctctcccttttttgtgtgtgtctgctttattggctatttctctgtcttgtctcttttccctctctcactgtctttttctctctccctatcctcCGCTCATTTTTTGCAAGCAAGAATTCTCCCTTTGATTTATTTTTCTCCTAGAGAGACATGTTGGGCCGCGGTTCTCTTCATCCACCC
1 CTTATTTCCTGAAATGCTCCTTATGTCCTCTTTTCGTTTTGGAGCAGAACCACTGTCACCTTCTGATCTGCATTGGAACATCTACACAAACTCCAGTACCATGAGACAGCGAACATGTTAAGTGTGTTCCTTCCTGTCATCTACATGAGGGAAGCCAAAAATAGCAATTTTTCCCCTGCACTCTTGTCTGACAGGTAAAAGCTTATTAAACAGTGCCTCAAATTGTCTCATGGAAATTAGGCTCATTTTT
1 tagtatcatttcccacctcttaaaaaaaaacaactcttttgacacctatttaatccttcaactactatccctttcctcttttaaccaaaactcttcagttgtctatactcgtgatctccacattctctcttctcattccctcctcttattccctccttaatccattctaatcaggtttttggccaccacaaaaccagtggacttacttttcttaagatcaacaatgagtcctcgttcctaaatacaaCAA
1 TTTCATTTTTTTCTCTTTTCTCTTATCTGTGTCACTGGGCATATTCAAATAGGTGTCAAGAAAATATGTTATCCTTTCCCTTTGTGTAATGTATGATGCAATATAACCTATATGCCACTGGGGATAAAGGAGTAAATGGGAATATCGGTGACCCCTGGCAACTGGATGGAGGAGAGTGAGCAGACGTGTATTTAAAGGCTTTGCCTGGCTGGTGCCAGTATGCCAGAGGAAGAGTACTCAGGGACGGTTG
1 tcttctctatgtatttgtctgatttttattatttccttccttctgctaattttgagtttagtttgttctttttttcatgcattgaggtgtcttaaattatttatttgtgatctttcttctttataaacttctctcttagaactgtgtttgctatatcacataggatttggtttgttgtgtttcccttgttgtttgtctcaagacattttcaaatttcccttttgatatcttctttgacccattggttgtt
1 actactgggaaggaaaaatgctctttctctgggatagcttgctggaaggatggcctgatatgggctggtggggagcaggtggaaaggatctgagagtgaatccaaacaaaggaaagtagagttgagagagagagaaagagaaagagggagagcaaatcctaacacagtggattgataatctggacacagaagaatctaaagccagtaatctcctggactttccagttaAgtctgtttgagtctatcgcca
1 ataatatgtcagtatgttccactctttgccttctacttttaaacttaacttcctcataaagcaatctttttcgattacccactccaccctgactcattccaattacctactccaccctgactcacctgctccactctacattccaatcacctgctccaccctaactcattccaattacctgctacctgctctgccctgacccccgccaaagcactcaccctgtcattctcttttaattagccaatcggaa
1 agaaataaaaacagaaacacgatataccaaaacctatgggatacagcaaaagcagtagtaagaggaaagtttatagcaataaacacctatattaataaagtagaaagaccaaataacctaataatgtaccttaaagaactagaaaagcaagaataaaccaaatccaaagttagcagaaggagataagtaataaagatcggagcagaaataaagaaaattcagactaaaaagaatacaaaagatcaacaaa
1 tttaggaacaagaaggttattggtgaccctggtgagagctcttttgttagagtgaggagagtagaagaggagtaggttgaggagtaagtggaaagtgaggaactggagatagcagatatgtgctgttctttcaagaagtctggtggtgaagaagaggtgaaggatggaaaggttacaggtgtcagaagagaggagaggaatagaagttgagatgaggttgtttttttttttctaagacttgaatttattt
1 tcattacttatatatttatgtcttgatgtttttatttgttgttttgttAGAGGAGAAATGACATATTTATCAGATCATATCAAGAGACAGAATTTTTCATCTTCTTTATACATGTCAGCAAAGTCtaattttcttcatataggttgtgttcatttcatgtattaatttttagggattacatgttttattatcattaatggtttttatttttctactgtatgttctaattgatgcttgctaaggaatagga
1 ttccaatccaggtgcatggaatgtttttccatttgtttgcattatttctgatttatttcagcaaggatttgtaattcacattgtagagaactttcacgtccctggttagcagtatttgtgtgtgtatgtgtgtgtgtgtgtgtgtgtgtgtgtgtgtgtgtggctattgtaaataggattgcattgtttatttggttctcagcttggacattgttggtctatataaattctagtgatttttcttttcttt
1 TTCAAGTTTGCCTCTCATTACCTCAACCCTCAGTCAAGGCCAAATGTAATGTTCTCCTACCTGGTCCTGCTTCTAAACTTCCTCTCTCTGGGGAATACTTATTGTCCTGCCAGGTTATCTTCCTAAACTATGTGTCCAATTCTCTTCCACCCCTGCTCTCCACTGGACAACGAAGCCTAAATTTCTCACTATGGCAGGAAGACCACTGAGgatgtgaccatcttgctttctagttctgtctcttcttgcc
1 tctctcaccacccctattcaacatagttttgggagtactagccagagcaatcagggaagagaaagaaagaaagaaatgaaagaaaagaaaagaaagaagaagaaaggaaggaaggaaggaaggaagggcaggcatccagacaggaagagaagtcaaactatccctgtttgtagaccacatgattctatatctaggaaactccctagtcttggcccaaggggtccttgagccaataaataacttcagcaaa
0.1568584568874856 ACCACCGAGACCACATCCCACAATACTCCCAGCCTCACTTCTTCAATCACCACCACCAAGACCACCTCACACAGTACTCCCAGCTACACTTCTTTGATCACCACAACCACCACCACCTCACACAGTACTCCCAGCTTCACTTCTTCCATCACCACCACTGAGACCACATCCCACAATACTCCCAGCTTGACTTCTTCGATCACAACCACCGAGACCACATCCCATAGTACTCCCAGCTTCACTTCTTCGA
1 ATTGCCACCAAGTCATTTATGATCCAATTGAAGGGCAAATACAAACACAATGAAGTTTCTTTGTGTAGCAATTACACAAATAAAACTTTATAAGCTTGCCaagaaaagcaagaacgaagaaaggaaagaaggaagaaaaacaaatagcaaaacagaGCAATATTTAAATGTGGTTATGATTCAGCCAACCATTACATTTAATGATAATGTGCCTGTTTGGGAAAGAAAATAGAAGAATTAACTGAATGCC
1 TTATAGTGTAAATGTTGTAGtttttttttttttttttttgagatggagtttcactcttgtcgcccaggctggagtgcagtggcatgatctcagctgactgcaacctctgcctcccgggttcaagtgattctcctgcctgagcctctcaagtagctgggattacaggcactcgccaccatgcctggctaatttttgtatgctaatttttgtatttttagtagagacggggttttcaccatgttggccaggc
0.7115044962256153 gtgtgagcgtgtgtatgcatgagtgtgtgggcatgtgtatgagtgtatgtatgagtgtgtctatgtgtgtgagcatgtgtctatgagtgtgtctgtgtatgtatgagtatgcatatttgcatgggcatgtgtacatatgcatgtgcatgtgtgtgagtgtgtacacatatgagaatgcctgtgtgagtgcatgtatgcatgtgtgtggtgtgcatgggggcatgtgtatgtatgtgtgtgcctatgtgtA
1 caatctgtacatctgacaaaggactaatatccagaatctacgaccaactcaaacaaatcagtaagaaaaaaatcaaacaatcctatcaaaaagtgggctaaggacaagaataggcaattctcaaaagaagatatacacatggccaacaaacatatgaaaaaatgcttaacgtcactaataatcggggaaatgcaaatcaaaaccacaatgcgataccaccttattcccgcaagaatggccataatcaaaa
1 GGATGGTGTTTGAGCCACTTCTAATTCTACATTACTGCTGCTTTTAAATTAATGAGTGGATCGCCTTATCTCCCACACTGTGTACACATTCTGTCACTGATGATTCAAGATGAGACACAGAAACCTTCTCCTTGATTTCTCTTGGTAAAATTACTCATCCAAGGCATGTATGCAgtgtgtgtgtgtgtgtgtgtgtgtgtgtgtgtgtgtgtgtgtgtgtgtgtgtgtAGCAGAACTTCATTTAGTTTTA
1 CCACAACCTCCTTACCTGCCCCACTCCTTTAACCCAACCACCACTGGGTTAAACCACCATTGACCTGTTCTTAGACCTATCCCTTCCTCACCCAGGAAGCCTCTATTGACCTTTCCCATCTGACTTTGCTTGCCTTTCTCCCTACCCTGCCTCTCAAAGCATTCATGGGAGGGATGGCTTCAATAGCAGTGCAAATTCTTTCATACTTTTTACCTCCTTTGGTCTCCATCTTTTCAGTTCTAAACCTTAT
1 catgttgtgcacatgtaccctagaacttaaagtataataagaaagaaagaaagaaagaaagaaagaaagaaagaaagaaagaaagaaagaaagaaagaaagaaagaaagaaagaaagggaaaggaaaagaaaagaaaagaaaaaaagaaaaaagagagaagggcaaactaaataaaatcaggaataaaaaagaagatatcataatcaagactatagaagttcaaaggctcattagatgctacgatgagca
1 CTCTTCCTCTTTTTTCCCCACCCTTCCTGCCTAGCTTTTATAAAAAGGCCTTCTTCCAAAGTCTCTTCTCCTTCCCCCTCCCTTTCTGCCCTTCCTGTCTTGGGATCTCTGTGTCTTAGGATGCTTTTTCCTGTGTAAGGTCACCTCTTCTTCCTGGTAGGGCATGTAAACATTCATTTCTTGGTTTGGGGCAGCATTGGATTCTGGGAATGATATTGTGTACCTGGCTTGTTGATTTAAAAATTTGATT
1 gttgggtacaactacatagccttttatttcagttattacatttttcactctaaaactttcatttggttgttctttacattttctatttctttgctgagactatttttcatttgtttcaattgtgttaccaattacttactgaagcatttctatcaaggttgttttaaatatttgtaatcttggtgtgggcatctgctgtctttttttaaaattcattttgagattttcctggttctggatatgatgtgta
1 TTCTACAACATGCCCTCAAGGCAtccctctctgtcaagccatccctcctctctctgtctcaatctctgtctctctttcactctcccctttccctactctTAGCTTACTTTGAACTTGTCGCTATTATATTGCATGAGATGTGCTTGCTGAAACTAATATATTGTCTGCCTGACTCCCGCACTGAGTCATGGGCTCCTTTTACACGAGGCCTATTTTTTGTTCATCTGGTTATCttcttcttcttcttttt
0.340979805446161 TTTCTCCATCTCTACACACACTGCAGAGACACACACAAGTACCCCACAGGGACATCTgcacacacacaaaccacaccacacacatatcacagaactacatgcacagagacacctgcacatactacacacacacatacacgccatgggaacatcacacacacacgcacgccacagggacatctacatacatacataccctacagacagatgtacacacacacacCCCATGGAGATATCTACACACACACAC
1 CAGCCTACCTCCCGAGACCCTTTCCCCACCTTCTCCAATGCCTTTCCTCCCATTGCATTGCCCTACCCTTTCTAATTCCTGTCTTTCTGCAGACTGCTCCCATTGAATCTCCTTCCCTCCCCTCCATCCCTCAGCCCTGGGAATTCTAGGATATGGGGGCCTTGAGACTTAAGCCCAGGCAAATCCATTTGTAGGGGGATTGGACCTAGACTCCTGGCCTCATCTGCACAACTGGTTGATACTGGAATGG
1 tccatctcaaaaaagtaaaaatgataaaaaataaaactgctattcaatccagcaatcccactattgggtatccacccaaaggaaaataaatcattatatcaaaaagataactgcactcgtacctttatcacagcaacactcacaatagcaaagatagggaatcaatctccatatccatcaacagacgactggataaagaaaaactgggacacatacacacacacacacacacacacacacacacacacac
1 gcacagagcagaccacgttgttgcctgtgtggcccttactgcctaAAGCGACAATGGCATTATAGGTCAAAGCAATCTGTGGTCCTGCATATTCCCCCGACAGCTCttcttttttttttttttttttttCTGGCTTCTTCTTGTCCGATCCCCAATTCATtctctctctctctttatctttccttctctccttccttcccttctccgcttcccccctcccctcccctcctgtcctctTTCtctcactctg
1 GAGAGAAAGTATATGACATATTCAGAAGAGGAGACGGAGGTATAGAAAGCTtgggtggatggatggttggatgggcagatggaaaaataaagattaatgcatccatggatgggtatataaatggatgatagatggatTAATTATGCAAATAGAGAGATTGAATGAGTGAGAGAAAGAGAATGAAAGAATAAGACACAGGGAAAAACGGGGAGACAGATAGTAATCCACAGGGTCTGAGACAGAGTTAGAG
1 acctgcaatgtcaccctttccaacctcgttttatgccacttattgtttgttcattctgccccaacctcactgttcttatccctgctcctctaacaaaccaagATTATTCCAAGTGCTGGAGACTTTTCATGCTCAATTCCTATACAACTCAGCTCTTCTAGTCCTTCAAGTCATTCCCTCAGAGAAACTTTCCTTAACTAATGTAACTTCCACCCACATCCTCCCAGTATCCCATtgtctctccctttcc
1 aggaaataaaatcagtacatcaaagaaatacctatactcccatgttcattgtggtgtgatttacaatagccaaaacatagaagcaatctaaatgttcaccaatggatgaatggatgaagaaattgtggtatttacatacaatggaatactattgaaccttacaagaagaagacaatcttgccatttgtgacaatgtggatgaacctggatgaccttatactaagtgaaataagctaaatccagtagaaca
1 gccatggaatactatagagccataaaaaaggatgagttcatgtcctttgcagggacatggaggaagctgggaaccatcattctcagcaaactaacacaggaacagaaaatcaaacactgcatgttctgactcataagtgggagatgaacaatgagaatacatggacacacggaggggaacatcacatgccggggcctgtcggtgggtgggggagtagtggaaggatagcattaggagaaatacctaatgt
1 tctaccaccaaatccatgtgattctccttcaaatacagtcctccttctctttcccactgccactgccctaacttaagttttcatctaccctcctctaaataactgcaacaaccttccgactagtccccttatgctaattcagcctCTGTATCACCAATTTATCTCCCCTAAATAGAATCTACACATCCCCCCTTGTAAACAAATACCTCATACACCATAAAAAAAAAACCACCAACACCTGCCCTAACCC
1 tggtctgtaaaacctaaaatcttccctttccttccttccttccttctttccttcctctccttctttccttttctcctttctctctttctctctttctttctttctttcttactttcttttttgagatagggtgtcactccatcactcaggctggagcgcagtggcacaaacatggttctgcagtctcaacctcctgggcttaagcggttctcctacctcagcctaccatgtagtgagactataggcacac
1 actcacacagacacagacacacacactcttttgcacaggcacacacacacctgcacactcacacaggcacacgcacctgcacactctcacacaggtattctcacaccagcatgctcttgcacaggcatgctcacaggcacccacactcacaaaggcacattcacatgcacctgcacgctaggacacaggcattctcacacacctgcacactcttgcacaggcacattcacacacaccagcacgctcttgc
1 ggcagtattatgatgatcgatgcataatggactacaggagggaagataaggcatagagtggggtggcagagctggggggtgtggtgagaggaactgaaaaagataggacagtagtcccagtagcatcgaagaattgttggagggagtaaattcaaaagatagaagatacggttgaagagagacaactaaattgaaagtggcagatcaaaccgaaggtaaaggtatttagtaatgacaccgcctagggtat
1 tgtcaccacagcaatagaaatgattgaatacaTTAATGGGTAAATAAatggatggaagatagatgaatacttggatgattaaatggatgaatgataaatggataaacacatggttgggtgatggagagaatggaggaatagatacatgaataaatgattggttggctagaggaaggaataagtgaatacatggatacatggatggagaaatgaatagatagactcatgggtaaatgaaagaataggtggg
1 GCCAGATACCCTCCCACCTTCCTCTTCCATAGAGGGGGATGTATTGATTAAAGAATCTCCAACTCTCCATTGCAGCgtgtgtgtgtgtgtgtgtgtgtgtgtgtgtgtgtgtgtgtgtgtgtgAGACTCTGGTATATCTCTGTGTATGGTTgctttgggtattgttagaggtcagtttttcctattgtgcatgcccaggatacacgacttctaggccaagggctcccttgcttctgaaggagttctgaca
1 gtgtggcacctccaccacaactctctctctctcactcccattctcaccacgtgatgtccctgcttccccttcaccttccgttttgattataagcttcctgaggcctccccagaagctgagccagcaccatgcttcctatacagcctgcagaacggtgagccaattaaacctcttttcttttcttttctttttttttttttttttttttgagacggagtcttgctctgtcgccaggctagagtgcagtggt
0.7185860184937164 TGAGGCACTACAGTCACACTACAATCTACAGTCATACTATCATCTTCAGTCACACTACCATCTACAGTCGCACTGCCATCTACAGCCACACTGCCACCTACAACCACACTGTCATTTACACCCACTGCCACCTAAGTCACACTACCATCTACAGCTACACTGCCATCTTCAGTCTCACTGCCATCTACAGCCACACTGCCATCTACAGCCACACTGCCACCTACAGCCACACTGCCATCTACAGCTGCAC
1 ggagaaagatggaaagtaaagaaataaactgaaagactattgaaatagtacagctgagagacagtggtggcaaggagagatggagaaggaagagaagtggatgaccttaggatatattttaaagttatagccaaggggttgctggtggattagatgtagagagtgagagaaaaaaggaatcaagagtgactcttggtttttgatttgagcaattggatgaacaataatgccatttatggaaatgggaaaa
0.2791747296191873 GATGCGAGCACACAGATCGGACACACACACGCAAACACACACACCACAGATGCACGCACACAGATCAGACACACGCAAACACACCACAGATGCGAGCACACAGATCAGACACACACACGCACACACCACAGATGCGAGGACACAGATCACACATACACATGCAAACACACACACCACAGATGCAAGCACACAGATAAGACACACACACGCAAACACACACAACATAGATGCGAGCACACAGATCAGACAC
0.993474590195891 TCTCCCTCTGTGCTCTTCCCTCCCTCCGTGCTCCTCCCTCCATCCATGCTCCTCCCTCCATCTATGCTCCTCCCTCCCTCCATGCTCTTCCCTCCATCCATGCTCCTCTCTCCCTCTGTGCTCCTGTCTCCCTGTGTGCTCCTCCCTCCATCCATGCTCCTCCCTCCATCCATGCACTTCCCTCCCTCTATGCTCCTCCCTCCATCCATGCTCCTCCCTGCATCCATGCTCTTCCCTCCGtctgtgctcc
0.354845907945846 gttttgtattctgtatgtgtgtttatactacatttgcacttgtgcttatggggatatgctatgtttgtgaatgtgcttgtatattatgtgtgtgtttgcatgtgtgcacgtgttctacatgtgtaatgtgtgtgcatgtgtatgtatgctatgtgtgtgtttgtgtatgctgtatgtgtgcctgtgtgtgtctacataatatatgttcatgcacaatgtgagtgcatatgtgcacgagatgtgtgtgtat
1 CCTGAGCATAGTGTTGCAATATGCAGAGGATATACTATCTGGAAAGGTGTCAGCTGACAATACCATCAGGAAGGTGGGCCACTTCCTGATGAGCCTGGTTAACCAAGTACCAAAAATAGTTCCCGATGACTTCGAGACCATGCTCCACAGCAACATCAATGACCTGTTGATGGTGACCTAACTGGCCAACCTCACACAGTCACAGATTGCCCTCAATGAAAAACTTGTAAACCTGTGAAGGGACCCCAAG
1 atcccatcaacaagtgggcacaggatatgaacagacacttctcaaaagaagacatttatgcagccaaaagacacatgaaaaaatgctcatcatcactggccatcagagaaatgcaaatcaaaaccacaatgagataccatctcacatcagttagaatggcgatcattaaaaagtcaggaaacaacagatgctggagaggatgtggagaaataggaaggcttttacactgttggtgggagtgtaaactagt
1 TAGAAGCCTAATTCTCCAGTTCCTCTGTGGGGAATGGCCAGGTAATCTAGAGGGGGTGTGGTGGTGAGGAAATTAGAGACAGGTGAGGAAGTAGGGAGGAATGAGTCTAGGATGGGTACGAGTGGTGATGAGTATGTGCAGGAGGAGTAAAGTGTAGGTATAAGTAGGCATGAGGAAAGATGGTTAGGCAAGATTTTTTCATGACAATCTAATCTTTCCACTAAaatctgaccatgaaggcaaggagaaa
1 CTTAGAGACTATTAATTTACAGGGGCACTGATCTCTGTGTTGATGTGGTTTTCTCGGTTGCACTGAGCTTAGATGTCTAGGTATAGGCTTAGGGTGGGGAGATAGCTCAATGGTTCTAGAATCAATGAGACTCACATAAGTGGAAGAACAGAAGGATCATCTGATGATCTGGGAAGTGGATGGCTCAAGTGCTGGAGATGAGGGACTTAATTGGATAGGGAAGTAAGTGGCGACAAGACAAGGCTTACAG
1 aatgtagacatagataatgtagatgttgtagataatgtagatgatacaggtgtagatgctatagatgatgtatatatagataatgtagatgatgtagatatagattatatagatgatgcagatgtagataatgtagataatgtagataatatagatgTTGCAGATGTAGATGATGATGATGCAGAGGATTTAGATGATCAGTAGGGATGATTCTGAGAAAGATGAATACCTGTTTGAAGTATGAAGGACT
1 actatgaacagcctaaagactgagggcctggcttttatctctgtatctccagagcttagcctggtgattagcacatggtaagtgcttaacaaagatagtttggtgaatgaaACAATGAATTAAAGCTCAACACAGACCCAGCACTAGCTAGGAAGACCTTGGGTggatggaagaaaggaaggaagaaagggggaagaaggaaggatggaagaaaggaaggcagagaggggaggaaggggaaggaaggaag
0.3124370469987471 TGTCACACATCCGTACAGTCCACACTGTCATACAAACACACACACATCTATACGGTCCACACCGTCACACATCCATACAGTCCACACCGTCATACAAACACACACACATCTATACAGTCCACACCTGTTACATGCACACATCTATACAGTCCACACCGTCACACATCCATACAGTCCACACCGTCATACACACACACATCTATACAGTCCACACCGTCTCACATCTATACAGTCCACACTGTCATACACA
1 aaaaaaaagaaaagtaatcccactcactgtagccacaaataaaaacaaatacctaggaataaaccaaaccaaagaagtgaaatatctctataatgaagaccatgaaatagcaatgaaataaattgaagaggatacaaaaaaataaaaagacattcaatgttcatgaactggaagaatcaatattgttataatgttgatgctacccaaagcaatctacagattcaatgcaatctctattaaaatatcaatg
1 TGCTGCTGTTGCTGCTGAACTCCAGAGCTGAGTTTGCAAACTGGAAAAagagggggagagagagagagagagagagagagagagtgtgtgtgtgtgtgtgtgtgtgtgtgtgtgtgtgtgtgtgtgtgtgtgtgAAACCAGTGGGCAGGCCACCTCCGGGGCTTCCTCTCCGGGGAGCAGAGTGGGGGAAGGGGAAACCGTCAGAGACCCAGAGACAGGCAAGAGATGACAGAGACCAGGGCAGAGGGGA
1 AGATGAAATAAAAAGGAAAGAACACTTTGAAATGAAATGTGGTAGTGGTTTCCATAGTACTTAATGTTTTAgaagtggggatcttatgggaaaatctaggtttcagttaagacaaggaggtgaaggaaaccttagtagaaaggttggcagtatgggggcatttattacactcaaaactaattctggtgggcatggtggaaaagcttgagacagaaacagaaggaagttgagtcagggcatggaaaccctg
0.7787371161743771 AACCATTCAGTGATGGCATCTTCCACTGACTGTCTTCATTCCCCACTACTCAACCATTCCTCTTTGCAGTCTCCTTTCCTACCACCCAGTGGTGCCATCCAACCAcatcattctctgccatcttccatccttcacaactcaatggtgccattttccaccatccatcACTAACAATTCATCACTCTCCACCATCCAAGGGTACCATCTTCCACTGACATTCTCCATTCCCCATCATCTGCCTTGTTCTAAT
1 aaggcttctggaactgataaatgacttggatcaagtttcaggatacaaaatcaatatacaaaaatcagtagcatttctatacaaaataacattcaagctgagagccaaatcaagaaagcaaccccattcaaaacacacacacacacacacacacacacatatacacacacacacacagtacctaggaatacatctaaccaaggagttgaaagatctctaggaggataactacaaaacattgctgaaagaa
1 ttgaagtcaggagtttgagaccagcctggcaaacatggggaaaccccgtctctactaaaaaaaaaatacacacacacacatacacacagacacacacacacttagctgggcatagtggcacatgcctgtagtcccagctacttaggacgctgaggcaggagaatcacttgaaccctgggagacagaggttgcagtgagccgagattgtgccgctgcactccagcctgggcaacagagagagactGTCaat
1 ACAACTGGGAACAAAAGAAAGAAAACATATGAAGAAAAGTGATAAGTGGATGACAGGAAAAACAGAGCGGAAGCAAAAGAAAACAGTTTTGAAGGATTTGTTAACAACAGAGTGTTGGTTAAGTACATACGGTTTATAAGGCCAAAGGATTTGGCAATTTGAAGGTCAATCATGAACAGAAAACATAGTGTTCTACGAAGTGTTTAGAAGGGAGGAGAGAAGAAAGCGAAAAGGCAGACTACAGAGTGGG
1 tcctccatcttctcctgcaaaatgcctgcaggtctgcaggatactgtccagtgtcacctcctcagagatgccttccctggccaaacactcgttctgctgtgttaacctctgtgctgccacaTTCCCCAGCATGCTTGCATGCAtgtgtgtgtgtgtgtgcattcacgcgtgcatttgtgtgtgcgtgtgtgtgcatgtgtgtactgtgtgtgagtgtgtgtgtgtttgtgtgtgcgtATTTTCTCTGTGC
1 AAGGGGGTACAGTAACCCAGTGGTGACTCACAGTCTGAGAGGAGTGAGGAGGGTGTCCATGAAGTGGAAGAAGTGAGGACAGAAAGAGATACAGCAGTATAATATAGGGTATGAGAACTCTAAGAAGGTGACGAAGACATCCAAGCAGGTGGTTGGCAAAGGCCCAGAGTGGGGTACTGGAACCCAATCAAGTTAAGGAGAATGTCTGCAGAGGAGGGCAATGGTGGCAACGGGAGATTGATTATACACA
1 ctttgtcatcgtgatcaccatctcctcctcatcaccattaccgtgatcaacttcatcatccttgtctccaccatcatcatatcacaatcactatcgtcaccatcatcatcaccactactgtcaaaacctcattcattatcaccatcaGATAAGGTTCATCTAGTGGAGTCAGCAGTGATTCCTGTTCAAGACAGATAACCTGAACTTATACATCCAAGTAGCATGGTCCTTCCTAGAAtgaactttacct
1 atattcaccaacacttactttctgCctctgtctctctttctctctctctctttctttcctttctttctctctctctttctgtctctctctttctctctttctttcttctttttttttcaagacggagtcttggtctgtcacccaggctggagtgcagtggcgcgatctcggctgactacaacctccacctccctggttcaagcgattctcctgcatcagcctcccaagtagctgggattacaggcatgtg
1 aggaaagagaagaaaagtcaaggatgactttatggtttatggtgtgtgtagctaactggtagaatagtttccattttctgagatggtgaagatcaagggggcagcCCgattgtgaggttgattttagacatgttaagtttgaggtgcctaatatacttccaagtggagatatcaaatatgcagtcagttataattctagggttcaggtggcaggttagggttagagggatgggaagtcatcagtgatcag
1 GTGTATTTTCCTGAGGCAGTTTATGGCTGTATGTGTGTGTTTTCCTGAGGCACTGTATGGCTGTGTGTGTCTTTTCCTGAGTGTGCAAGAGTACATGGGAATTCCCTCGCTCTGTATGACTGTGTGTGTGTGTGTGTGTTCCTCAGGCAGTGTATGGCTGTGTGTGTGTGTGTTTTCTTGAGGAAGTGTATGGCTGTGTGTGTGTGTGTGTTTTCCTGAGGTACTGTATGGCTTTGTGTGTGTGTTTTCC
1 caaaagaaataatcaacacagcgaacagcctccagaaaggagaaaatatttgcaaacaatgtatccagcagggggcaaatatccagaatatataaggaactcaaataactcaacaacagcaaaacaaataacctcattaaaaagtgggcaaaggacatgaatagacatttttcaaaggaacacatacaaatggccaacaaacatatgaaaaaatgctcaacatactaatcatcagagaaatgcaaattaa
1 atatgaacagacacttctcaaaagaagacatttatgcagccaacaaacacatgaaaaaatgctcataatcactggccatcagagaaatgcaaatgaaaaccacgatgagataccatctcacaccagttagaatggtgatcattaaaaagtcaggaaacaacaggtgctggagaggatgtggagaaataggaacacttttacactgttggtgggtctgtaaactggttcaaccattgtggaagacagtgtg
1 CTGTTGTAAAAATGCTTTAGAGAGCAAATGCCTTTAAAGAACTCAAAGACTTGGACATTATCATTTCCATTTGGTGACAGAAGGTCCAAAGAAGCATCTTTCCTCACCTATACGTATCACTGAGTTGTGAGAGGAAATGAAGAACAGACATCGGTGGGGAGACAGAAGGAAATGTTAGCAAGTGGAGGGGTTTTATGAAGTCAGGAGGTAaagagagaaagagagagagaggaaaaaggaggaggacaag
1 ctatctatccatctatccatccatctatccatccgtccatttacctatctatcgatttacctacctgtctatctatctatgtgtctgtctgcccttctctctatcatctatcttttctctgtatcATGTAAACTGTTTGTTCTTTTTCTGTTTAGCTTCAAGGGGGTGGAGAGTTAATTATTCATGAGCTGTCAAGGCCTTTGGACCCATTGATTTTGTTTCTGGTTCCCCCTTGGATCCGGTACACGGA
1 TTTCAGGATGCTACTTGTTATGTGCTTGTTAGTTTTTTTTTCCTTTTCTTTTCACCTATTGCCAGCATTAACTAGGATACTGAACATTTTATATTCTGGAGATTTGTTTAGTTTGCTTTCCCCTCCACCTTCTTATAGACCACCGAGATTAATGGGAGAAGGTTTTGTGGTGATGCAGTCAAATGATGTTGACATCTACTACTACATGGATGAGCCAGGTAttgttgttgttgttgttgctgtttttttt
1 TCATCATCAAATGGTATCAAATGGAATCATCAACGAGTGGAATAGAATGGATTCATCAAATGGAATCCCATGGAATCATCATCAAATAGAACCGAATGGAATCATCGAATGGATTCGAATGGAATCATCATTGAATGGACTCGAATGGAATCATTATAGAATTGAATCGAATGGTGTCATTGAATGGACTCAAGTGGAATCATCGAATGGACTCGAATGGAAACATCATCGAATGGAGTCAAATGGAATC
1 TGATGTCATGTGATGTGTGATGTCATGTGATGGGTGATGTCATGTGATGCATGATGTCATGTGATGGGTGATGTCATGTGATGGGTGATGCCATGTGATGGGTTATGTCATGTGATGGGTGAtgccatgtgacaggtggtcatgtgacaaggtgatcctgtgatgagtggtcatgtgatgggtgatgtcatgtgatgggtgatgggatgggcgatgtcatgtgatgggtgatcatgtgacaggtgatgtc
1 ATCTTTGATTCAGTAGATATCAGTAAGTATTTGCTGCATTTCAtgagagccaaccatgagtaagacagaagtacttcctgtcctcctgggctttcctgagtagcaggagagatggactaggaagatgagtgactgcagtagcctgtgctgttctgcggtgatgggagaggccactgagagtccggacaggcaggctgatattgtgagaaggcttctggaaagaaggaacatttaagctgagagtgagagt
1 ctaggaaagattccatgtctttgcctttccaggttccagGGAGTTCCTGCATTCCTCCCCTGagcaccctcattattccacctctgtttcctctaccttcactatacatctcctcctctgactctctccctcctgcctcctttcttcccttataaggacccagtattattacactgggttgacctgaatagtccaggataatctccccatttcaagagccttaacttaatcacagttgtaaaatctcttt
1 caacaaggattcccaggaattgaactcagctctgcaccaagcagacctaatagacatctacagaactctctaccccaaatcaacagaatatacattttttcagcaccacaccacacctattcgaaaattgaccacatacttggaagtaaagctctcctcagcaaatgtaaaagaacagaaattataacaaactatctctcatacaacagtgcaatcaaactagaactcaggattaagaatctcactcaaa
0.5236327441493462 TGAGTGGAATCATCATCAAATAGAAAAGAAAGGAATCAGTGAATGGTATCTAATGGAATCATCatcgaatggaatcgaatggaatcatcgaatggaatcaaatggaatcATCATCAAATTCAATCTAATGGAATCATCGAATTGCCTCGAAGGGAATCATCatcgaatggaatcgaaaggaatcatcgaatggaatagaatggaatcatcatcgagtggaatggaatggagtcatcgaatggactcgaat
1 atggttcaatcttggtaggttgtatgtgtccaggaatttatctatttcttctaggttttccaattttttggcatatagttgttcataataggctttaatgattctttgtgggttttttttgtattctcaattgttatgtcttctttttcatttctgattttatttatttgagttttcttttttcttagtctagctaacagtttgtcaattttgtttaatcttttaaaaaccaaccttgcatttcattcat
0.2744022838939452 ATTACCAGTAGAGTCATCAGCCCCAGTGGTAGCTGAAGCAGTATACACACCCAGGCATGCAAAACTCACACACGGCATGTGTGCATACCCACTCCCACATGCACACTCTCACACACTGACACACAACACTCACACTCACATACAAAGGCACCCACACATGTTCATACATGCCCGCACTCATACATGCTTGCAAACTCATGCACACAATCATACTCCTATTCTCACACTCACACCTTCTCTCACGCACTCA
1 TTGCTAATTGTCTGAACCTGGAATCCTCTTTATTAGCTTCTCTCTTCACCATCCGTAAATCATTCCCCAAGTGTAATCAAGTCTACTTAGTATATTCTGTGTATCCTTTTTATTGTAATCCTACTCTCACTGCTTTAATTTCAGACACTCTTTTTGGTAGGAGACCACTAGTTGGTCTTTCTCTAGGGCCTTAGTCCCTATCAATTTATTCTTCATACTACTGTCTTTAACTTACCTACCTAGCCTCTAC
1 TAAACTTGTCTTATATGAGCTTTGAAGCATATGAATTTTTATTTTAAGATCTCACTTTTTTGTTTTGATGCTTTAAGTTTTTGTTGTTTTGTTTTTAATGTTTTACTGTGTTAATTCCATGATGTATGAATCATTTTAGGTCATTTCTAAGAGAAGAAGCATTAGTAGATCAAGAAAGGGCTATAGAACCAAGGAAGAAGGATGGGGAGAACAGGAGGAGAAGTGAAGGAAAGGACAGAGAAACTTGGAG
1 GATCTCACTTTCCAACACCGGGGACATCTTTGTTTCCTCATGGTCTTGGTTCCCTCCTCTGCCTTCTATACCGGTACTCTTCTTTGTTTCCCTGTTCTCTTTTTTTCTTTTATTCCTGTCCTTCTCTGGCCTCCAGCTCAAGGCTTCTTCACCAACATCGCTTTATTGCTTCTTATCCTTTGGCCTTTTGGTACAGTGGCAACACCTAACTGTCCTGAGAAGTGACAAGAGGCCACCATTCTTTAGGAAT
0.4705895098162586 ttatccccagggtctagcacagtgcctgagaacctgatgtatagtagatacctaaaaaaaaacaggttgaatcaaagaatGACTGGCAAGTTGATAAGAAGAAGTAGGAATGGAAGGAAGGTTGGGGAGAAGACAAgagggagagaggaaaaaagaaagggagagagggaggaaaggaaggagagggaaggagggaagagggggaaagagggaggaagggagggaaagagggaggaagaaaagggaggaa
1 TAAGttgttttttgtttgtttgtttgtttgtttttgagatggaggtttgctcattgcccaggctggagtgcaatggcacgatctcggctcactgcaacctctgcctcccaggttcaagcgattctcctgcctcagcctcccaagtagctgggattgctggcatgcaccaccatgcctggctaattttgtatttttagtagagatgggtttcaccatgttggccaggctggtctcgaactcccgacctcag
1 tctacactttacaattctgcagagatgtctttttaacatgcaaatatgcttatattatttctttgcttacacattccaataactcctctaaataaaactcttaagttgcttagactgacacaaggctctcatgaatgtgtccctgcctgcccttctgcttctaccttctagcattccccTTTGTAAATCCTATGCACTTCTCTGAGCACATCATTTTCTGTCTTTTCtttttttctttttctttgagatg
1 TTTCACCATCCACACCTGCTTCCCAGCCCACATACCCACTGTAAAGGAGGTTGAAGGGTTATTAggcagaagaagggtggtggtgtatatactggcagtagcatgggaaaatgtggtcagcacaagtcaagtgccatggaagagatgcctagagtcatggcatcagttctttctgtgacttgtgttcctgactgcactgtgaagactattagagagccagtgagtgggaggcaatagaagtctcacttca
1 GTTGGTTAGTCTTGAGGATCCAGATGTGATTCTGTGAGCAGTGTAAGCTCTGGTTGGTTAGTCTTCAGGATCCAGATGTGATCTTGTGTGAGCACTGTAGGCTCTGGTTGGTTAGTCTTGAGGATCCAGATGTGATTCTGTGAGCAGTGTAGGCTCTGGTTGGTTAGTCTTGAGGATGCAGATGTGATTCTGTGTGAGCAGCGTAGGCTCTGGTTGGTTAGTCTTGAGGATCCAGATGTGATTCTGTGAG
1 cttgtctctgctaaaagtacaaaaattagccaggcatggtggcgcacacctgtaatcccagctactcaggaggctgagcaggagaatcgcttgaacccaggatgcggaggttgcagtgagccaagatcacaccactgcactccagcctgggtgacagagcgagactccatctcaagaaaagaaaagaaaagaaaaacccatgaagaactgaatcaccatgaggagaatcagtagatgcaccaaagagaat
1 TCTGTCATTTCTGTGTAAGTCAGATTAGTGATAGTAGGTAGAGAAAAGAGTGGTATATGTGAATTTTAAGTGAACAAAGCAGAATTCCAAATAATTTGCATCTACTGATTTAACTACTGACACTAATTGAGTGGGCATCAGTGAAGGTCAAAAAGTGAATTTGGAGCTATGCGCATAGTGTTACTTTAATGTTAATTAGGtttttttcttattttccttccttctttttctttttttttttGtttttgtt
1 actcaaagaaataacagttaaaaacaacaatatgcaatcctaaaagctcaacaaactctatataggataaacagaaagagatccacacacgaaaacatcatagcaaagggaaaggatattctgaaagcagcaagagaaaaacaaatgacaggtgcagaaaaaccccaataagatcaacaagtgattactcaccagaaacaatggaagccagaaagtggtagaatggaatattcaacaacatgaaacaaaa
1 gtgaaccaggattgtgccaccgcactccagcctgggcaacagagtgagactgtgtctcaaaaacaaaacaaaacaaacaaacaaaaGCAAAAACAACCAaacactagacacttacatcagaaaaaaaaaaaagaaatctcaaataaataatccaagtttccacttcaagacactagcaaaagaagagcaaaataaatacaaagtaaagaggagcaaacaaataagaagagaaatcaatgagattgaaaac
1 GCATTGTATAGCATGTTCTGTTGTGTGGGTGGTGTAATACGTTCTGTTGGGGATAGTAGGTATAGGGTATGGGGTGTGTGGTGGGTTATGGTATAGTGTGCATTATGCACTGTGGTGCAGTATGTTGTGATGGACATGGTGGACATGGGTGTTGTGTGTGCTGTTGGGATGTGGTATTTGGCATGGCATGTAAAACAGTTGGAGTGGTAAATGTAGTGTATACATGGTGTATTTGGAGGTGCACGATGCA
1 aatcccttccctagtgcaccagatcccatccactctcatccctgtaagaacaccacatccgtaattctATCcactcttccccatagaatctttcccttctctgtggcatcatccacaaacacatgctattttattcctcccaacttatgaaaatgctcttgacttgtctctcactactggcccatcctccccattctagcaaaattctgtggcagaatgatctttgttcaccatctccaattcctctcct
0.7714477946065988 actcaattcgactctgctccattccattgcattccattctattccattccattgcattccattccattccatttgattaaattccattcgattccattccatttgattccattccatactatttcattccattcgattccattcttttcgaacaaattccattcgagtccattcctatcgagtacattctatttgggtccattccatttgagtctattacatttgggtcaattccattccattccattgc
1 TATTACATGACAAAATGTAAGGGGAAAGAAAATGTTCTCTTGTGTAAACAGATGAGACACTTACTGTGACAGAGCTAATTAGGCTCTTGGGAGAATTTATGCACAGCTAATAAGAAGCAGAGCTAAATGTTGTCTTAATTTACCCTCAAGCTCTCAAAAAAAAAAAAAAAGTTGTTCATTCAAGTTGCAGGAATTGAGCCAACAACCATTAACCCCTCTTTTCCAGATACATTCCCATGCTAAAATCAAG
1 cttctgctgctttgtggagaacctattgggaagaagtgatgctggatgtagggatgatgattacggagctagcacagtgatccaggcaagagatgaaggagctgagctgggtggttgcttagagatggggaaaagtggacagatttaagagatggaagaggttgatggaacttggtgatggcttgactatgAATCAGATGGGAAGGGATGGTAATTAATTGAACATCTCAACCAAAAATGATGAAGTTCC
1 gaagtgaatagttctgtggtttttaacagattcaactattaccactacctaatttcagggtgtgttcatcatccccccaaaagccccatacccattagcagtcactccccattctcatcttccccctgcctgtggcatccactaatctactttgtttttgtttttttttttaaagagatggaggtctcattctgttgcccaagctggagcacagtggcacaatcatagctcactgccttgaactcctagg
1 CACATCTTCTCTGCACTCCCCCAAGGTACAATATTTTTTACCTCTTCTCACCTTTATTTCCTATGGAATCCAGCCTTAACAATGGAAATTGGAAAAAGCAACTAGACACCATGGAGgaaaaaaaaagaacaaagaaatacattaaggaactaaagaaaggaaggagagagggagggaggaagaaaggaagggaggaaaaaagaaaaatataaaagaaaATCTGAATGTAGAATATAAGTGGACTAACTTC
1 tacctaacctctcagttatttgggtatttttttcttaaagtaaccagctcttggacttattgatacaaatgactctttctaattcggtactttatgcttttgtttttagtttttctttctgctttttctttttttcctttttctcttttttttttttttttgctgggattacaggcatgagccaccatgcccagcTTGCAGATCttttttttttttgagacggagtcttgctctgttgcctaggctggag
1 aaaaaaaaaaaaaattagccaggcttggtgatgggcacctgtaatcccagctactcgggaggctaaggcaggagaactgcttgaacccgggaggtggaagttgcagtgagccgagattatgccattgcactccagcctgggcaacagagcgagattccatctcaaaaaacaaagaaaaTGgaaatgataaatgtctagagtgatggatatcccaataaccctgatgtcatcattacacactatctgactg
1 GGCATACAGAAGCTTCAAGTGTTCTTGCTCTCTCTCCCTTTTCTATCTGATACAGATCTATGTTGGTCTTTCTCTTGCTTCTCCTCATCAGTTCTAGTTATACTTGTGGAGACTAATATCAGTTAGGAACTCTGTTGTCATCAACGgacagaaggaaagaaaggaagaaggaaaataagaaaggagggaaggaaggaagagagggaaggagggaggaagagaggaagggaaacaggaaaggaagaaggaa
1 gaaataagaaataataggaaaaggagttagaaataagaaaggtaggaagagaaaAAACTAAGGCATGCACAGAACTGGGAAAAGTAAGGGAAACAGTGAAAGAAGAGACAAAACATGTGCAAGAAAGGACTAAGATAAGGAAAACAAAGAAAACTGAGAGAAGATGAATGAGAGAAGGAAGCAGGACAAAAAACTCAGATGGAGAAAAATCAAACAGGAAAACATCAGGGTATCCAAGGACAGAAAAAAA
0.8448628500102142 gcaactccctcaccctctccctttctctacttccccctccacctctcactcttctatcaccttctgtctctctccccctccaactttctctctctccccccatatctatctctccatcccggtctccctggctttctttcaagctgtgtctgtgtctttgtctgtatgtccttgtgtgtgtgtccgtgtgcgtgtgtccatgtgtccgtgtgtgtgtctgtgtgttgtgtgtgtccgtgtgtgcctgtgc
1 GTATTGTGCAGCTGGGCAGTGGGACAGAACAGGTGGACTGGGGTGCAGGTGGACTGGGGTACAGTGGGAAGGGGGCATAGGTGGGCAGAGGGTGCAGGTGGTCAGTGGTGCAGGTGGGCACTGTTCAGGTGGGCAGAGTGCTGGTGGGTAGGGGTGCAGGTGTGCAGGGGGTGCAGGTGGGCGGGGATGCAGATGGGTGGGAGTGTAGATGGGCAGAGGTGTAGGTGGGTGCAGTACAGGTGGGAAAAGG
1 tatttttattttattttatttttgagacagagtctcgctgtttcacccaggctggagtgcagtggtgtgatctcagctcgctgcagcctctgcctcctgggttcaagtgattctcctgcctcagcctcccaagtagctgggactacatgcatgagccttaatgcccagctaatttttttttttttgtacttttagtagagacagagtttcaccatgttggccaggctggtctcaaactcccgacctcaag
1 aactatttgttcattttgtcctttaaaggtactactaatgacattgttgatattttctctggtatgtttgttttctattcaatttcagttcttatcgctactatttccttcccgttactcccataatttattttaatatgtttttttcctaactatggtggattttctttttctgctaattaatatttgctcttcttctttaatatacatgtaaggctaattttgttttttttttttaagggctgattta
0.209341834057598 GAACAACAGTTAGAGACACAGAGAGACAAAGATGGGAGAGACAGAGAGAGCAAGAGTTGGTGGAACAGAAAGAGTGAGCGAGAGGGAGAGACAAAGAGAACAGAGTACAAGAGAGAAAGGAGGAAAGGACAAAAGGAGAGACTTGGGAAAGGAGAAAACACGAGGAAAAACATCAAAAGAACCCGAGGTTTGTAGAGGTGGGAAGGACCCTAAGAGCGAATTATTGATTTTGCCAACACACGACCTCTAg
1 agacatctatcaatcatatttattctttaataaaccaacttttggtttcactgctcttttgtatggatttttttctcaatattgttcagttcatctctgactttggttattccttgtcttctgctagctttggggttgttttgctcttttttttctagttcctcaatgtgtgatgtaaacttgtttctttgagatctaacttcttgatgtaggcatttagtgctacaaactttcctcataacattgcttt
1 tcatatcagcctctaataatacttactgaagtatcaattatctcctttatcatatctcattttatttattttggtcttctctcttttattcttagtctggctaaatgtctgtcaatcttatttatctttttaaaataccaatttttgtttaattgctcttttgtattttttcaattcatttatttctgttctgatctttattatttcttttttctactaattttgggtttggtttgcctttgcttttgca
1 GCGACCACCGCCAAGCCAAGCAGCCACCGCAAAGCCTCGCGGGTAAGGCCAAGCCAATCCGTTACAGACCAGTGCGCCTGCCCACCTGTGACGTCACGGAACCTGTGACTTCACTGCAACTGCAGCTCCAGCCTCCCAGAAAAAGACTCCTTGGCCTGCAGGTGGCGCTGCAGCTCCAGCCTCCCAGAAAAAGACTCCTTGGCCTGCAGGTGGCGCTGTAGCTCCAGCCTCCCAGAAAAAGACTCCTTGG
1 AGCAAAAAATCAGGAGCAAGAAAAAGGAGGGAAGAAAAGAGAAATAAGAAAAGGGAAGCGATAAAGGGAAGTGAAAAAAGAAGAAAGCAGAAGCATGAAGAAAGATGCATGGAAGGGCAGCAGGAAGCAAGAAACAAAAGCCAGAAAGAAACAAGAAAAGGAGAGCAAGAAAGAGGAGCAAGCAAGAAAGGAAAGGGTTGCAAGAAAGGGGAGAAGAAAGGAAAGCAATAAAGGAAGTAACAAGAGGAAG
1 TGTTGTTGTTACACCGGTGTTGTTATGTTGCTGCTGTTACATCGGTGTTGTTACATTGTTATGCTGGTGTTGTTATGTTGTTGTTACACCAGTGTTGTTACATTGCTGTTGTTACTCTGGtgttgttatgttgttgttatgctggtgttgtgttactgttgttatgttgttgttacgctggtgttgttatgttgctgttGTTACATCGGTGTTATGTTGTTATGCCAGTGTTACATTGCTGTTACGATGA
