svm_type c_svc
kernel_type wgkm
L 8
k 5
d 2
M 50
H 50
nr_class 2
total_sv 2986
rho 1.32484
label 1 -1
nr_sv 1365 1621
SV
1 TGCCTCCTTGGAAAGGCCCCAGGCTTGATCTGGATGAATGACCTCTGTGTACAGTTACCTTTGACTTGGCCTCCTACCTGAAAACACAAAGAGGGACAGTTACATAAGGTAATGCTGACCTATATTCTTGACACCCTGAGTTGCTCCTGGATCCCCAGAGCAAACACTGAGGTTCACCAGGAGAGAAGCACAAACTGATGTCTGATTTGCTCTTATCTGTCACAGGCCCTGCCATTAGCCCAACTTGGCC
0.5399122227511161 CAATCACTGGCGTGCGTCCAGGAAACCCAGTTTACGACGACGTCTCTGGTGCGTCACAGAGCGCGGGGGAGGGGCGGGATCACATTAAAAAAAAAAAAAAGCTTCGGACACCCCAACAACGAAGGGGGGACACCACGTCCCTAACTACAACGCCACTAGAAGGGTTGCGCATGCGCGCCAGCCTCCTGCGCAGCCGCAGAAACCACTCAGCGCGCGAGTCTCTGAAAGGCCTAACGTCCATTTTCAATCC
0.859555675521003 CCTGCAAGCTTACAGGGTCACTGTTAAGATTAAATCTGAGTCATCGGAGGCAGATGTTGACACATCATTATTTAAATCCTGAGCTGCTGAAGGACTCTCATCCCCATGAGCTATGATTCACTGTCCAAACAAACACCCCAAATTCCACATAGCTTGCTGAGCAGGGACTCTGGACTCCATTAGGGGAAAAAGTTTGCCTTGCTTTGTGTGGTGAGAAAGCACTACTTTCTGTTGCAGAGGAAGCGTGGCC
0.8471007636465998 TCCTTCCCACTCTTTTTTCCATGCCACGAGGCAAAATGTGAAGATGTGGAGAAAGCATTCCCAGAGAAGCCAGCAAAGGTGAAATGAAAGCTTCTAATTTAGAGAATCTTAACTTGGGGTGCATTCTCTTTAGCCCATCCATGTTGCCTTTTGTACCCCACAGTGGAGAACATGCAGCTGACCCTGAACCTGCAGACGGAGAACAAAGGCAGCGTTGTCTCAGGCGGAGAGCTGACAATTTTCCTGGACG
1 GACAAAAGGTCCAGGTAGAGGCAATTCTCCGGATGCAGGCAGGGCAGGTGCTCACTGGGCAGAGTGCTTCTCATACACCTTCAGGAACTCGAGCACGTCGTCGGGGGATCCCAAGATCACCGGCGCCCTCTGGTGAATGTCTGTGGGAATGACGTCTAACACGGCCTCCTTCCCAGTGGTGGCCATTCCCCCAGCCTTCTCCATGACGTAGGCCATGGGGTTGCATTCGTACAGCAGTCTCAGCTGGAAA
0.3408614743120147 tgcctgatcagagtgtctgtttatctgggggccatgggccatgccagacagactgtgctaacaatgtgatttatagagggctctgggtcatgtggcatcagcttgacctctgcaggagctggaaactaaggtcagccccgcaggtggttaatcatatgactgaaccccaataaaaactctagactccaaggctcaggtgagcttccctggttggcaataatccatgtgtgttgtcacacattgctactgg
1 GTTCTGGCACATATGGTCCACTGGAGACAATGTATGATTGAGTTTTTCTTTGGTCTAAAAATTATATTAAACATTTATTTTGAAATAGTTTTCTTCGTGTTTTTTTCTTCTGCTATGACGTCATGCAGCAGCCCCAGAAAAACAGCTGCTTGGAAAGGCAGCAACAGTGCCCTCTGGCTTTACAGTGCAGAGCTGAAGCCTCATTTTGACTGAACTGTAAGATGCAGCAGTGATTATCTCTGATATTAGA
1 TTAGTGATATTCACTGCTTTAGGTTTTACAATGCTTACAGACTTTTTATTAACAAAGCACTTGGCAAAAGTATAAACCTCCATGTGGTAATTGTGTTGCTTTTCCCTTCTGCTTTGTCCTTGGCAGGTACCCCAATGTCAACATTCACAATTTCACCACTAGCTGGAGGGACGGCATGGCCTTCAATGCACTGATACACAAACACCGGTAAGTCCATACAAATCATCCTAGCAATCGTGGGGTAAAAGGT
0.714864199416412 AAGTCTGACTGTCATGGGGAGGAAGTTTGCCTAAACCAAGGCTGGTGCCCTCTCTAAAGCAGTTCAAAAGAATTTGAAAACACCAGCTCTGAGCACCCCACATAGCTTGTCAACTCACCCCATGTTATCTCAGTCATGATGACTCAACACTAGAGCCTGGCTTGGCCAGAGCACTGAGGCTACAGCCTTCTGTAAacaagaccaaggacacaggacagcaagaaagaagacaGACAGGTCACTCTCCTGG
1 CATGACAGTGACAGCTAAAGGGTTGACTAAATTACAAGTTTTATTCTTTCCTTTCTTGTTACTGCTTTGATTGGGGTGTCTGACTCACCCCAATATCAGTGCTGAGTTGGTTGCTCAATCTTTTTTACGGACCAGAAGTTGCAAACAGTAAATGCAAAACTGCAAATACTTCCTGGAAGATAACCTGTTCCAGTGTTGCAAATGGTTGGCCTCAGAGAGCCCTTGTGTTCTTGCGTCATTCTCCCTTTCA
0.6580467592815396 gtaagaacaggtagtaggtacaaagatcacatgcttcaaagggcaaaaagcagaactactgataagggtctaacaaagatcacatgcttctgagggaacaggacaaagggcaaaagcagaactactgataagtatcgggggaacccacccccaatatttcaacgtaggttctttctattttccctaagtgtcagccggtctgagaaataaagagaaagagtacaaagagaggaattttacagctgggctg
1 AATCGattcattcacttaacaaatatttacctagctcctcagtgagggatggagtggtaggtaacaaaaccaataggctcctgcccccatggacccacagtttcatggggtgacaagcattaacaaataaacctgtaagtaaatgtattaggttgatgcaaaagtaattgtagtttctccattacttttaatgcaattacttttgtgtcaacctaatataattacaggcagaagagagaactaggtaaga
1 ttctttgttgtggtggccactctgtatattacagggtatttagcagtgtccttggcctctatccactagatgccagtatgtctccagatgttgctaaatatatcctggggttccaaaccttcccagttgagaaccatgatgcaatcctgcccttttgacagtaccccctgaggcgctgatcctaagagcattccccaataaacttcctgcatacaaatcaccAGATCTGTAGCGCACGCAACAAATTCAG
0.7966009914699027 AAACTATGGCCCCGCCCCCTCGCGCTGCCCTCTGATTGGCCTCTGTCGGCGGGGCCCGCTTAAGGACCCGGGAAAAGGAAGTTTGAGGGCCACTGGGAAAGAGAAGGGGTATCACCGCTTCCGGACCCCGGCCTGTACTTGAAGGCAAAGAGAACTACAAATCCCAGCGTCACCCGCGGCCTTGAAGCCCCGCCCCTGACAAACTGAAGGTCCCGGTAAGCATCGCGTCAGTACTTATGGCGCCTGCCGG
0.7209327083323877 TGCCAGCTTAATCTTCTTTAAACATTTTACTGTTTATATAACTTCACAGCTCAAAAAACAGTCAATAACTCTCTGATGTCCAGAAGATAATGTGCAGGCTTCTGCTCACAGACACCCCAACCTCGTCACCCAACCCCCTCAGTGTGAGTCCCCCACACCCCAGGGCTGCAGCCAGGCTATCACCCCAAGAACTGGAGCTCTGTGCCCAACCTCAGTGCTTTGGCTGGGACCAGATCCTCTTTCTGCTGGG
0.938412085146794 ACAGGGCCATCAGCCCACAACCCATTGCTCCTGGTAACACGTTATGTTTGCAGAGTCCAGTGGAGGGGACGGGGAATCAATACATCACCCCACATTCACACGCTTGCCAAACATCAGTGGATGGCGAAATCCACTTTCCCTGAATCTAAGCCCATCGGGTTCACTCCCTCACCTACCACCACCCACAAAGGTCCCTATGTAGTTCGAGAGATAAGTGCCAGGCCTCTGACCCCCAGGATATGGTGGGAAG
1 GTTTCCGCAAACCTGTTTGAGCAAATCCACCCCCAGAGATAGCAACCTGTTTCTGGGTCCCCTGAGAGAGAGGGTCATTTGTTTGCTGCTGTTTCTGGGGCTGGATGCCAAGCTATGAGGCAATGAGCTGACGACCTTGGATCCTGACACCCCTATTCTATGCAGGCAGGAGAAGGGTCAGGGAGACTGATTCAGTGAACAAATAAAGACGGTTGACATTTAACCAGGATTTTAATGGGTGTGCCAAATT
0.2481088334883337 acaaagactaagttgaggcttacagagtaagatctcttgcacaaggtcaccctgcctataagtggcagagTTACTGTCATTATCAATGACTACAGTGGTGTGGATATGTGGGAACAGTGACCAGAACCCTACACAATTGCCATCTTTGTGGTTCCAGGTTCCAAAGGCCCCTAGGGAAAACTGGACTTCGGGTGCAGCCTAGCCGGGGTGATGGATGAACAGTGACAGCTCCTGCCGAAGAGTAAACACA
1 CCTTCAGATATCTTCTCTTTGGTGCTTTGTTTGGGAACAGATTAGCCTCATACTTCCTCGCTTGTAAAACTGCTATCCCATCTCTTGCTCAATGCTTTTCTTGTACCGAAGGGTGAGGGGGAGGTTCCAGCTCTGTTTTCTGTATCAGTTTCCTGGGTGATGTTTGTTTGAGGGTGCCTTGTGTCCAGAGCCCCAGAAGGTGTTTCCGTTCTCTGATGAGCCTGAAGTCTGCATGCTTCGCCTTTGGTAG
1 gtgtgccaccacgccagctaatttttgtatttttagtagagacagggtttcattggccaggctggtcctgaactcttgacctcaggtgacccacccactttggccccccaaagtgctgagattacaggcatgagccaccgcgcctggcTTGATTGTAAAAGTAGAGCATTTGGGCTGTGACCCTGAAGCTCAGTGAAAGAGCTTAATTGTTCCTGTGGTCAGTGCTTTAAAGACAACTACCACTTTGAGT
0.9944820388303536 TGCATTGTGGCTCTCGCTCTGTCTCCGCCTGCCTCGTATCCTCTGCCTGCCTTTGTATCTCTGCCCCGGGCTCCTCTCGGCTCTGTGTGGCTCTGATGACTCATCTGGGATAGGCATGAAGGTTACTTAGGGGAACAAGAGCCCCGCTGTTCCCGAGAGAGGTGGGGTTGGAGAGCGGCACCCAGGAATTCCAAGCCAGTCTCCTGGGACTCTGGCAGCCTGCTCCCCGGCGCTGGACCCTAAGGGACCA
1 AGCCAGCTTGGAGGGAGAGGGGCCCAGCCCAGCCCTGATCCAGTTGGAAAGTGTGACTCAGCCGTGCTGTTGCTCAAGTTGCCTGGTGTTTGGCCTGTCACTGGGGCAGCCTGAGCCCTGAGCCCTGAGCCCCAGTGTAAACAATGGCTTTATAAGGTCTCCAGGGAAGGGAGTGGGGCGGGAGGGAGCACCAGGTTGGAGAGGGCGGTCGGGATCCCCAGGACGATAgccacagctggaagaagcttca
0.09371652055987081 AGAGCGAGGTGGGGGCGGGAGTGGGGGGGCGGCGTGGGCAGCGGGTTGTGCCCGGACACGTGCCTGCCCAGGCGCCCCGGCCCTGCTGGTGTTTAGAGAGAGGGCGGGTCCCCTGCCCCCCGCCCCGCACAACCCCCACGTATCAAAGGGCGGCTGAGACATGGTGAGACCTCGGGGCGCCCTggggggcaggggggcggggagcctgggtccggagcaggggaggggcagaggCGCCGGTGCTAGCTGA
0.7342916633402294 AGAGAAGCTTCCTGTCCCCTGGGGGATTTTGAATGCCCTTTTCCTGACACAGCAGCCAAGACTGGGGGCCTTCAGCCACTGCAAATTTAGCAGTTTCAATTTTCCTGGATCTTGATCCCTGCCCCCCAAAGTAAATTTACCCTACTAAATTCTAGCAATCCGGCTCCTTTCAGACCTGACCTAAAGAGACTATTTCAGCCTCTAAGAACCAATGTTTATAAATGACCAAGAATGTGCAAACACTGGTGAA
1 CGCACATAGAACAATTTGCCTAGAATTGAAGGTAAGCTCAAGACAGATGGAGAGTGGGAAACAAAGATCAACTTCGCTTCCACAAATAGCTGAGTGCTGAGTGACCCCTAAAATGAGCTAATATTGGGCAAGGATATTGTCCTAGACCTCAGAGTTCCCCTTTATCCTTGGATTGTGTTGTATAATGCAGCAGTGGGTTTGCTTGGTAAAAGAGAAAGAGCAAAGTAAAAAAGGGGAAGACATCTGTTAC
0.4791779372804943 CCATTGTGTTGGACCTTGAGAACGGGTAAAAAGAAGTCCTTGGGCTTAAAGACACATTAATCACAATATGCACTTTGGCAGTGTTTGATATAGTGCAATGAAAGAGCCATTGTTGCCTTTGGAAAGAGGGTATCCTTTCTGAACCCCAAAACTAACAGAGTCCTGCGAAATCTGAGACCAAATATTCTCTGCTATAGAAAATATACTGACATAGATCATAGTAATGTCTAAGAGATTTTTACATGTATAT
0.01537440943838539 ACCTTCCCCTCAGTCACACACCATTCAATGATGTCAGCAAATGCTGAAATAATCTTTCCCCACCCACAGAGCCATGCACCTACAAAGGCCTGACCCCCACGGGGGCATCTGAGGTCAGCCTCGAGCCCCCTAAGGCTGGGAACCCTGTATTTTCCTGTGGTGACTCACTTCCTGTTGGGGCCTTGGTTTTTGAAAGACAGAAACAGCTCAGAGTCTGCTCCATGGAAATGGCTGGGCCTGCCCACCAGAC
1 ACGCGTGTTGAGTATAACTCTGCTTGTTTATCGAAGAATTTAGGGAGCTAAAAAGTTCTATCCCCACCCTCAGATGTGGGGAGATCAGAGCTAAGAGGTTGCTTCTCCTACTCTCCTGTGCCCCCTGCAGGCATCCTCAGAGAAAGTGGGGTGCACATACTCACCATACGCTTTCACTCCCCACCAAAGGCCCTTGCTATGTAATTGACGCATAACCAGTCAGCCTTACCGGTGGCATTGCCCAGGCTCC
1 gatggtcttgatctcttgaccttgtgatccgcccgcctcggcctcccaaagtgctgggattacaggcgtgagccaccgcgcctggccGATGTGGTTCATATTTCAGGGGTCCCGGAAGAGTTGTTTGAGGTTTCTATTTGGCCAAGTCAGGCCCTGGTGGAGTTTGGACAGTCCCTAGTGGTCAACTGCAGCACTACTTGCCCAGACCCAGGACCCAGTGGAATTGAGACCTTCTTAAAGAAAACTCAGG
0.8356805960093378 CCCTGGAAATGCTCCCCAGCTCAGGGCCCAGGTGCTGAAAGGTGCTTTAACGTGAGTGAAAAAGTATTTGGCCTGGAGCAGGGGGACCGGAAGGGGGTGTCAGTCTGTGCCATCTGAAGGGGTGTGGCCCGCTGCATGTAAACATGGAGGAAGGGAGTGGCTTCCGGCCTGAGCTATGGGCCCAGGGAAGGACTGGAAATTCCTACCTGGCCTTCTGCTGCCTCCCCACCTGCCACTGCAGCAACTTCGC
1 ACCAGTGTTTAAGACAAAAACACACAAAATCAAAGTCCTAGGCTGATGTGACAGCTCTCAAATGGCTTTGTTCTGTGTCTAAGATTTCCCTTCCTCCTCTTGCATCATATTTCACCCCAAAGCCTTGAATGACTAACGCACCACTTGGGGATGGGCAGACCAATGTTCACAGGAACAAAAGGGAAAAGGGTGGGCTGGAGACAGGCTGTATTAGGACCACCTGTCCTTTCGGAGAAACTAAAATGTAGAT
1 TGCGCCTCCCTGCACTCCTGCCTCCTAGTACTTTGCCCAGTGGAAGTCATATGGTAACTGCCTAACCAGTTGTATTTGCTCTAAGAAGAATGAATTTCTGGCCATCATCCCATATGGAAGTAAACATGAACTCTGGCCTTTTCTCCCAGCTGGGGGATAAGGGGTTCTGATCTCTGAGATCTCTCTCCACACCCTGACTCCCAATACCACCCTGCACCCCAGCCTCCTGCCAGCTGGCAGCAGGGCAGAT
0.1099568211767926 GGCTGATGCAGTGGCCTTGGGCTTCCCGAGGCTGGGAGAGGGCGGTGGCCCCCGCTACCCTGAAGAGCTGGCCAACGCGGCAGGGCTCTTTCCAGTCCTTACCATGCAAGTGAAGAGGAACAGTTTGTTTAAAGAGGGGTGCCAGCTTCACATCCAGGCCTGGACTTTGCTACTGGTGCTTTTGAACTTGTGTTGATTTATGTTTGTAAATTGACTGGACACATTGTGGTTCTTGATGAGAAGCAATTGC
1 CTAAGGTTTTCTAGATCTTTCCTGTTATCATAACAAGATTCCTTCAGTCAAGTACTAGAGGATGGGAAGTAGCACCCCATTAGTTGTTAAAGACACCCACATGAGTCACAGAACTAACTATAACAGAAATGTCATATTTAGCCCTGAAGCAGGGAACAAAGTCCTTCCATTTTAGAAAGGGGGTGAGAGTAGTTAAAACAAGCAAAAAAAGCAAACCTCTTACCTTTTGTAGCAATGCGTACGCACTGGG
1 CAGGGTTGGGGGGCAGGTAGGGAGATTTGCTGGGAGGTGGGCAGTTTGCTCCTATTTTAAGCAGCTTGGGAGCTTTGCCTACCGGTGTCCTCTGCTGCCCTCTGTGGCCACAACATCAGTGTCTCTAAAGACACCCCTCTGAATCCGGGGACCCAGCTCCCCATCCCCCACTCACTGCCCCAGCATCACCTTTCAAAGTTTTTCTCCTCTAGTTCTCCACAGGCTCTAAAAAGTAAAATTGGATGCACCC
0.7030250877184595 AGTGCCTGCCTCCGGCACTAATCCTGTTACTCATTCACTGAGTGAGTAGCCGACTTGGAGGCTGCTCCTTGGACTTACGGTCTTTGGTCAAATCCACGTGGCTCTCCCCACCTGGAAAGGGGAAGCAGGGAAGAGAGCAGAAAGGCTGGGGCTCCCCCTTCCCAGCTGGGGTTCCTGAGGAGCTGGGTGATGAAATCTTATTTGAGCTCTTTCTTTTGCCAAGCCCAGGCTGCTTTTGGCCTCCCGCACT
0.08840965544329293 cagtgagctgagactgtgccgttgtactctagcctgggcaacaagagccatctcaaaaaaagaaGCAAGCCAGATCTTTGGGGTGCTGTGACGGCAAATCCCCCAGCGCTGGCCTCTCAGGTTCTCTTGCGGGATTAGTGTTTGTTGAATAATAAGCAATACACCCTGACCCAGCGAGCCAAAGCAAACAGGACAGTAACTGAAACTGCAGGGGAGTGTGAGTAAACAGTTACCTTCTACCCTCATGGAG
1 TGGACATTGGAGCTGCTGGGACAGGTATTTCCATTCTGAGCAAAGATGAACACGTGGGGCAGGTTCAGGGGCAGGAGGGAGCTCCCTTTCCCACTCACCTTTGGCCCTTCGGATGAGGGGGAGAAAGGATTTCGTCATCCGCACTGTGCCCCAAAGGTTCACTTCTGCCACCTGCTTGTAGGTCTCCAGGCTGGTGAACTCCACCTCCCCGAACGTTGAGATGCCGGCATTGTTAACGAGGCCCCACATG
1 TAGAGGGTCAGCTAGGCaaccaatcaaaacagaggtcttttgatttaagagtgattaaaatttaatttattaaaacctgccagaattagggtacagtcaatagtcgtatcctgagaggtcaaggcctttcccaattacaagcacatggacacacagatgcactgatacagagagagcatacatagctttagtttcacaatctcaggcaaaggttgaaagtaaacacagaaacacaaaaactcactcattc
1 tttaaatgtagagtttgaaatttagatacagatctctaggtaatagtcagggctggagatctagattttgagttttccagcagttttgtttatctattgcgtaataagccaccccgaaacttagtggcttgaaagagcaaacattttatttgcttatagtttgcagtctgagctgccctcagcagagtagttctactgatctcacgagaagtcattgatgtgggtgttttgaacttgcagatgatttgga
1 AAGTGGGTGAACCTCTGAAGCACATTATAACATAAGTAGAGAAAGAGGAAGACAGAGAAAATGTGGAGAGCAGAACAGAAGTGAGAAGTGATCAAGTACTCTCATGAGGTGTGGGAGGGGGGCACTTAGTGGCACCCCACAATCTGCCTTCTGGAGAGACAGATTTCTAACCTTCTGTCTGGACTATGGTGTCAAAGTGCAAGTTGATAATTAACAGAGATTTTTCCTTTCTCTTCATCTCCATGTTCAT
0.2174527105243532 TGCAGTGAAATTAGAAGCTGCCTTAGATACACCAGGGTATACAGAACAAGCACTTGTTTACTCAACATATAAGTTAAGGTCAACAAGGGAAGGTATGCTTCCTGTTCACAAATCCTTGAGGGCTGTTTGTTTTGGGGCCTCTGGCTGTTCCTGGTGAAACCCCAGAATTAAGTGCCTGGGAGCAACCAGCCTGATCACATGAAATGCACTTTCTTTTGCAAATCACTGAAGTCTTAGCAAGCCTAACAGG
0.1764263650492257 CATGCTTGTGTCCCCTCCTGAAGCCTGCAGGCTGTCCCCCAGCGATAAACCGATAAACCGTTTGTGGGAGCCCTAGGAGGGCCCCTTATCAGTCCTGGCAGGCAGCCTGAACCAAGGCTGCTCCTCACCACCCCCAAGGGTGGGGGCACAGTCCTGGCCTCAGTCCAGCCTTCCAGACGTGGCCCCCGGGTCCAGGCCAGAGCACAAGGGGCTGTGCTCTCCCCTGCCAATCTCTCCACAGCCCCACGCC
0.0157722127367811 gggggaaaaaacacaaacatgacaaacgctttccctgtgttcaaagccaagctgaagtgattgttggcttctctgTGCCAGGATTGACCCTCTGCTGCTGCAGTCCCCAGGTTTTCTGGGGAGCCTGTGAAAGTCCAAAGTCTAGGCACAGCAGAAGTTCAGACAACACAGAACATGAAAGAGCCTGGTCACACAACCCAGGAGAGAAGGGGCGGAGGGAGACAGATCTCAAAGGGAACATCCAGAACTT
0.8002193182629767 TCTGGCCTGGGGATCAGATAGTTAGGTCTCAGGAAAAAACTTTAGGCAATGCTCCAGAGGAGCACTGACCTCAGCTACCTTTGAAGACCCCGGTGACTTCAAAGCTTCACTGATCAATATTTGCTCCCCATTTAGCATCTCATAAAGGATTTCCACATAACCCTAGAATAGTCTGACCTGGTTCCTTTTCTCTGGTTAATTATCCACAGAGACTAACCAGCAGACCACAGGACTGAACTTCAGTGCCCCA
1 TTCTGCCGGTCCCCTGGTACTCTACTCCTCCCTCCCGACCTCACGCTTCGCAGCTCCCCCAGTGCTCTGCCTGGCCCCTCTAACTGTCCCTCCACCCAGTGCCTTCAATTGCTCAACCTGGGATCCCCGCTCAGTTGACCTTGCTCCCGCAGGCTAGAGCAGGCTGACCTCATTCTGGCCATGCTGGATGCTTCTGACCTGGCCTCTCCCTCCAGTTGCAACTTCCTGGCCACCGTCGTAGCCTCTGTGG
1 GCTAACCCCAGTTCTTGGAACTGGGGCAGGCCAGGGTGATGCAATCAGGACTTCAACCTCCCTGAATAGGGGAAGAGGAAGTAGTCTGGTTCTCTCTGAATCCCGTGAGCCCCATCTGAACCCCTGGGGTAACTTCTGAGCCTTGGTGGAGTTTCCAGCCCTTTCTCCCCTCGTAGAGGAGCCACTTCATGTTTTAGTAACTCTTCATCACCCACCCCGCCAGCTCATGCAGCAGCGTCAGGAAGAAGGT
1 GCATCCGAGTGCATCCGCACTCAGTGCAAGTCCTGCTGGAGGCAGAGGCTGGCCTTCCACACGCCACCTCCCTTCGGCCGGTCATTGGCTGCAGGCCAGGGGTGGGGTGGGGTGACTGCACCCCATGGAGGGTAGAGGACGCTGGCCACCTACAGGAGGCAGCCTGAGCAGCCCCAGCAGAGACGATCACAGCACGCACCAGACGGTACCCGTTCTAAGCTCTTTCAGTCCAACCCATGAAAGTTTTGGG
1 CCCTGGAGGATTCCTCACAGGGAGAAGAAGGAGAAGGAGTTTATGAGGCTATAGTTCACTTATGATGCTGCACAGCCAACTTCCGTCATCTGATAGGGCCTAACACTCCAATCTGTGGCTGGTTCACCCCTAAATAAACACTACTCCCAGTGCAGTAAGCCATGCTCAGGAAAGGCCCTGAAAGGCTCATCAGTGCTTGTGATGGTGCCGTAATAACCACAGACTTATTCTGCACCCGGCCCCTGCAGCA
1 TCAAGGTGACGGCCCACGGAGCTCTCTGGCAGGCCTCAGGCAGAGGCTGCTGAGAATGGACTATGTGGGGAGCCTGTGTGGCCCAGGCCTAGCTCCCAGAGAGGGTGGAAAGCGGGGCGCCTTTGCAATAAATCAATGCTGACATGTGCTGATGAAGACCTAGGATTGAGATGTAGTGCTTGGGACTTTATCTCTTTCACAACTGGCTTAGATGGGGTAACAAGAGAGGAGATAAAGGGTCATGTTAATG
0.8669412717520272 TGACCCCTGCTCCCCCATTTCTAAGCTTGTGTGGGACCCGCAGCCCAGTGCACATGGCCCTTTCTCTTGCAGTGGAAGTGGGGTGCACTCCCAGGGGCCCCCTTCCCCTGCCCGAGGCACACACTCCCCAGCCTCCATGCAGGTTGGCCGCTCACACTCTCTGGAAATGAGCCAAGGACAACAGGAGCTGCCTTCCCAAGGTCGCCCCAGTCCCCACCAGGTTACTGGATGATGCGGGTGCAAAGGTCCC
1 ggggcctgattcccaggtctgggccagtgttctctccctcctcTTCTGTCTCCTGGGTTCATGAGCTGCCCCTGCTCTGTTCCCCACACCTGTACCCCGATTCTCCCACCGTGGCAGCCCAGCCTGGCCCAGCAGTCCTTTTACTTCCTGGCCAGCCTGAGTGAGGAGGCTGGGGAGGGTCTGGCTGGGAGGAGTTGGGGCCCAGCCCCTCCCTGGTTGAGGGGTGGGAGGAGCCTCACCGCAGACACAG
1 CCTGTGGTCACCCTCCCGCGCAGGCGCTCTCCTGGAAGACCCAGCACCTGGAGTTCCGATTGGCTCTGCGTGAGGGGCGGGCCTTTGCGACATCTTGGGGGGCGCCTTCGGTGACGTCACAGGGGCGGGCCTTCTGTCACGTCACAAGGGCTGTACAGTGCCTGGAGCTGGGCAGTCTTCTCAGAGTGGAGCCTGGTAACCGCGACCTCCCCGCCAGTTCCTGTGTGTTGCTGGCTGGAAAGGGGTAGTT
1 aggtgagctgagattgcgccattgcactccagcctgggtgacgagagcgaaactccatctcaaaaaaaaaagaagaggaaacgtgaacacacacagacccccgaggcgtgtgtacacaggggtggccatgggaaggggcaacaaaagagagtgacctccaggaggccaaccctgtgggcttgaaccttgacctcagacttccagcctctgccaactgttcatgggagacgacagattgctgttgttgaag
0.6408880455849038 TAAAATGTCTGCTTCTTAATGGACTCACAAAGCGGCATGTTTGTTTGGTGCAGCTGAGCTCCACAGCGGGGACTCTCAGGTCCACGAAATTTGGGGTGAGAACTACGACCTTTGGCTCTTAGCCTTTGACTTATGCTATCCAAGTTCCTTGGTAAATATTTTTTTTTACAATTGCAAATAGTGTTTTCTGACAAAGGAGCAGAGATTTTAACACCAGATTAAGCAAAGCAAACAGCAGGCCTCTTTGTTA
1 ACCTCCATCCAGCTGGAGGCACCCTACCATGAGGGTGGCTAGAGATAGGGGAACAGCGAGAGGCATCCTGTGGAGGGTTTTCAAGAGGCTGTCCTGCTGAGGGTCAATATTTGCTCAGCTCTTGGACTGGCGCAGTCTATCACTGCCTCTGGCCCCTTACATTCCGGCCATCGCACCCCTATCTCAGGAACGTGCTCCCATCAACTCGGGAAACCACGCCCGACATGGGCAGTGGTCTGCCTTGGTCAGC
1 GGAAGCAGAGCAAACAAGACAGACAGAGACGGGGCTGTGAGAGACAATGGCAGGGCTGCAGGGGGCCAGGCAGGCTTGGGGTTCTGACCGCGAGGGCAAAAGCAGAGACCATGTTTGTCTTAGAACTCTCCAAAGCTATGAAAATTCAGGACATTTCCTGAGCCCACATAGTAGAGGTTGACTAATCTCTTTCATAACGTCTGTTTCAGGTTAAAGGGACAAAACCCACTTTCACATCTTTCTGGCTAAG
0.638267156645281 CCATTTCAGCGCTGGTTCTGCATGGACTTTCCTCCTATGGAGGCTGGAATCAGCTGGTGCAATCCTTACAATTCTGGTGGGAAAATTCCATCAGGCCTTCTGCAAACACACAAACTGTTTACCCTCACACACCCCATCTCTGCAGGGGCCTCGTGTACTCAGAACGCACCAGTAAcccccacttggacgctgcttgctctggaaacatttctaacttggttatctggctgcaaacctccagcagtttcag
1 catgtaatgttcacaaccaccccattttacagatgaggaaactgaggtgcagaaagattaagttaacttgccaatcccatatctaggatttggggagctaggattacaacccaagcagtctggctccagaatctgtgttctatgaactctgctctactgCGCCCTGAGAACTGTCCTAAGAGAATAGTGCCTTTGTTTTGTTCACTGCTGAAGGCCCAGGTGTTCAATAAATATTTGTTGACTGTCTGGA
1 AAAACCCATGGCCTGGAGCAGATAAACCGTGCTTGAATGAATGGCTTGTTCTCTAGCAGAGAAGGAACTTTATTTGAATAGTTAATCCTCGCGTGTTGCAACAGCCCAAGATCACCCTGCAAAGGCTATTATTTGCCCAGAGCGTTGCAGGCTGGGGAAATCTTCATGTACCCCTTTTCCTTTTAAACACCAGATCCTATATCCAGGCTGAGATATTGGAAAGCAAATTGTGAGCCCCGTCTGCCAGCTG
0.7296703697699911 TTTTTGCCTGAGTTGCGCCCGAACTGGTGTCTGAGTGCTGGTGGCCGAAAGAACTGATAGCCACCGTCCCCCCACGGCTGTGACCTGTGAACCCCGCGGGGCCGTATCAGTTTTCACTGCCGCAGCAGGAACGCATTTCACAATTCACCGAGATTCCCCCCAAGTGAGAGAGACGCGATCCCTGCTTCTGTGGATCCACAGCCAGGGGCGCCAGAGATAAAGCTCAGAATTGTTCTTTTTAAAGAAAACC
1 CATATGTCGCCACCTCTAGATTACTGCTATTCAAAGATTACTCCTGTCTGTGAACTTCCATAAAAAGACAGCCATGGTGAATTCAGAAACCACAATACCCTGCCTTTAAGAATTGGGGTGCTCAAATGGGATTAAGGTGCATTTGAGAGTGGACCCTGCAGTCAACAGAGAGCTTTGATGTTTGTGGTATCAAAGTCCTCAATTTCAGTTATTTAAATGCAAAGAGTGGCATCTGGGGAGAGAACACAGT
1 GGGCCCTGAGAGGAGTGCTGGGAGGGCAGAGTGAGGGCCAAGTTCAGGTTACAGAAGCCGTGAGACAGCCGGACATCTGTGGTTTGTGAGGCTTTGGAAACACTTAATGCGCTCTCCAAATGGGGAGTCTGTTGGGGAGGCCCTGGCGGGAGCCGGGGCTACATCCAGGTCCTCGGCTTGGTGGCCTTGTTCACTTATTTGTTCAGGAAGCAGCAGGGTGTGGGCTCTGTGCCAGGCCGCCCTGGAGGGC
0.4242156738894031 ATTAGAGAGACTTGACCAATTTCAGTATATCTGTACAGTATTATATGAGGTGCTGTTTGTatctgttcagttaaacaaatactagagtgtttgttttgtgcaatactgggtatacaaagaaaaatgaacatagttcctgaccttgaacttaccatagtttggggtgcaaaaatcacacaatcacaaaatgtcatgatcacatacaggatattatgaaaaaaaaaggggaaagaggatgttaatattatct
1 GATGGTTCTAGAGAAGTCCAGAGATGGCTCTGTAGTCAATTACTGATGGTGAGTGAAAAATGAGGTCAGCTCCCTGACAGCAATGCCTGAGAGAGGCAGCGAAATACCACAGAACCCCCATTCTCTGTGGGCCCAAGGACACACAGCTAAAAATAGACATACAATATCACTTGGATCTGCCGAGGATTTCACAACTGCTGGCCCAGCACAAAATGTGTGGCTTTGGCCAAGTCAAGATGCAATGCAAACC
0.741414554971158 gaaaggtctttcctggcagagggaaaagtcagggcgaaggcctaggggcTGCTCAAGTCCCTGCCTTAAGGCATTTAGAGCGTCCTGCCCAGTGGGTGATGGGTCCCCAGGCCACACACAGCTGCTGGCCGAGCGCCCCAAGTCATCAGGAAGCCATGTGGTGTGGACAAGGGCCAGGCAGCCTGGACACACAAAGGCCCATTGACAGCTGCATGGGAAAAGTCCAGGGCACCCAAGCCGGAAGCCCAAG
0.41914718416879 tcataggtatgtattataggaaaaagcatagtatatagagggtactgttactatccatggtttcaggcacccactggggttcttagggtatatcccccacacataaggggggactactgTACAAAGCTCCTTTCTAACAGACAGGGAACAAAGTCACTCTTTTTCTGGTTTCCAGGTCAAATACTTTTCTCCCTCTCCAGCCCTTCCTCCAGCCATTCCTTGCTCTCATACACCCTCATAatatttgcac
0.8072990887728552 catagcccaaggcctcaggcacacaatgacactcttatcaggcaggatattctcctgcaggtcacctcccaggagctggggacaaaggtcagacctctcttggggccagcttaacccttttgctgtacaACTCCTCATGCAAAACCAAGAATGAGCATGGGGTTCCCCAAAAGAAGAGCAGAggccaggcgcggtgactcattcctgtaatcccaacactttgggaggccgaggcgggtggatcacttga
1 gaactggctagaaacacaaattcttgggccccaccccagacctactacagaagaaactcttggggtagggcccagcaatttattgcaacaagccctccaagtgattccaatgcaccctaaaaatctgagaatcagtgTCAAGGGACATGATGTTAAACAGCCTTTCCAGGAGATAAGAGTTACTTTTAAAGAGGGATTTGTTCAAACAAAGCATATCTACAAATATCCAaacaagacctttggaattagc
1 TGGTGCCAGTTGGGGAAAGTCCAGGATGCTCCCCTTTTTAATTAAGTACGGACTTGAATTATGAGGGGCCACAGAGCCTGCTGGGTGGGGCTCTGCTAAGGGAAGGCAATTTCTCTCGTTAAAGATTAAACACGGTTTATTCCACTTAGCCTCTCCTCAGCCCTCTGAGAGTGTCTGTATTTGCTCTTGTTGTCAGGAATAATGGGCAACCGAGTGGACGCCCCAGCTTGATAAGGCAGGGACAGAGACA
1 TCGGGGTGCTGGGGCGGGAGTGGAGGGAGCCTCTCAGGGTGCTGGGGTAGGAGTGGAGGGAGCCTCTCGGGGTGCTGGGGTGGGAGTGGAGGGAGGAGGGGTATAGGGACACTGCCTCAGTCCACTAGAGTTCACATTCCTTCGTCTGGTCAATGTTGACTTTTTAGTCTGCCTGCTTCCTGTTTGTGGCTTTTAAGCTTTTTATTAAATATCACTGGTCAGATTCCTCCATCCCACCCACCACCTTCCA
1 GAAGCAGGGAGCCTGTGGGGCTCGGAGGGTGGAGTCAGGCAAGCGGGGCACAGCAGCGGGGCCTCGGGGCTTTGAGGGCGCTGGGACTGACCTTTCTCCCATTTGCTCCTGCTGAGGGCCCCAGAGGCCAGCTCGGCCTGGCCTGAGGTCTCAAAGGCATTTCTGAAATGCCTCACTCCAGAGGGCACCGCTTCCTGCCACAGTGACATGGGGGATGGTCCGGGGAACTCATCCCAGCTAAGTGACCTCT
1 CTGCGGCCTCTGCCCCTCCCCTCGGCAGCCCTGAGGCTTGGCCAGGGTCCAGGAGGAAGGCGCGGGGAACAGGTTGGCCCAGTCAGCTGGCTGGGACTTCAAAGGAAAGCGCCGCTGGGGCCCACCTGGGGCGCAGCGGAGCACCTCCCACAGAGGGAAGGAAATGCCAGCCCTGGGGCGACCTCAGAACATCTGCAGGGACAAGggtgtgtcaggccacctgggcaagcgctttacctctctgtgcctc
0.7882940701963106 cagttacaaatatatatgcactcaacatcagagcactttaaatgtataaagtcaatgttaacagaactaaagggagaaattgcaatgtggtaatagtagggaactttagtaccccactttcaacaatgaataaatcatccagacagaaaatcaataagcaaacagagatcctgaataacattacagactaaatggacctgacagatatgtactggacattccatccaacagcaatggaatacacactctt
0.01522135789108139 CGAAGGGTTTGGAGAGAAGAGGTTCCAAGGAGCGAGCACCTCGGAAGACCTGAGCAGCTTCAAACAGCAGCTTCTCTGCCCGCCACAAGGGGGTGCCCTGCACCTCGGGGAGACCTCGGGGGATCCTGGATCAGCCCTACCCTCTGCAGCCCCGCCTGGGACAGGGCCCGACGTTGCCAGAGAAGAGGCAGCGGGGAGGCGCGAGCGAGACGGGTCCACACTGTGCCCACCCAGGGCTGCCCGGCACCCC
1 GTTAGTTGCATTGCATTCTAGTGTGGAAACCAGAGCCCTGAATGCCTGTGTTTTTAGTAAGAACTGAAGTCTCCCCTCTAAAGTGGACTCTGCCCCGCACCCCAGACCTCCACTCCCACCTCCAGCGTTGTGCTCCTGCAGGGCCAGGTTGCACAATCATTCTTGGTCTGGACCGCTCTGATTTTCCTGCTGCCACGGCGTCTGCGGTTTGTGCAGGGAGGAGGGGCAGTGACCGTGTCCCAGATGTTGG
1 GGCAGTGAAGTGTAGTGGAAAGAATGCTTTTCTTGGTTTAAGAGTTAAATATTAATagttgaaaaaagacttttcctgagagtcacctggtgggaagggcagatggattagggtttgtttatctgctcccctttttagttctgttaactttgtcagtaaatacttcggagcctcaatttgcttatctgtaaaatggaaatctctattttctcacatgattgttgggaaaataaaatgtacttaagtgtac
0.3888823930010722 TGCGGCGTGACGTCACGGAGACGGGGCCTTTCTACAGGCAGGTACTCGGTGACGCCATAAAGAAAACTCTGAGGGCTTCCGCCAATCAGAGATAAAGTGTGCTAGCGACCTTCGCCAGCCCCCCAACTTTTGTTTCTTCTGTGTCCTCCAGGTGCCAGCACCCCAGATCCCAACTTTCTTTAGTGAGTCACCAAACATTTACACAGCCCCACCCTAGTAACTTAACTCCAGGTCTTTGGCATATATATAT
0.00521634112808935 atactcctactcaacccctacatgcataaactcccccattatcaatatttcctaccaaagtgatacaatagatgagcgtacattgacatctcattatcacccaaagttcatagtttacactggggttcactggtggtgttgcataatctatgggtttggacatacgtataatgacatggaagctacatgatattttcctacagggtagtttcactgccctaaaatattctgtgaatcatctctttatgcc
0.6596746177062327 TTAATTCTACTGTAAATAATCCTACCATTCAGAAAAGCTGGTGTGTCCAAGGAAGAAAAAACAGGCTGTGACTACAAACCTAAAAGTAAAGGCAAACAGCTGCCAGACAGAGGCAGGAAAGTGGGGGAGAGCCCTTGGTAAATATTGCATGCCTCCTGGGGCCCCCATGGGCTTTGACTCAAGGGGGAGATGAAGGGAATTTGTTAAAGAAAGAAGTCACTGGGACAGACAAAAGCTTCCGGCACAGGAA
1 CTGGTCCCGACAGGGAGCATTTCTCTCCTAAGCAGGACAGCAGAGTGGAGGCCAGCGCCAGGCTGGGGGCAGAGTTCACCCCATTTTGTCCCTCCCTGCAGCTGAAGCAGAAGAGCAGAGTCCTGATTTTAACACATTCCACACTGTACCCACTTGGCAAACATTCAATAATGGGATTCCAGAGCCTTTGCTGAGATAACGCGGTGCAGCTGCTCTCCAGGGTGAACACACAGTCACACTGATTTCCAGC
1 GGGAGATCGCAGAGCGGTGAGCAAAGTCTTGCACCAGCGGGGATGTCGGGGTGGAACTGAACCTGTTGTAGGGGACCCCCAGTGTGCCCTGGTTTCTGGGGCTGATTCATTACGTCACTTAGTTTCTACTATTCTCATGCCACCCCGCCAATTACTAGACATAAAACGTTCCCAGGGAAgcccggctagctcagtcggtagagcatgggactcttaatctcagggtcgtgggttcgagccccacgttggg
1 TCAATTTCATAAGAGGACAAAgggctttggaaaagaagtgaacagagagagaggatgaggcaatctgcagttcctctttggctggggcctctcaatggggcctcattctttgtctcaaagatagacaggaattccagcatggacaacacccccaagtttaaatataCCTTTGAAAATGTGGGTGACTGGCAGATTATTGTAAACCACTGATCATCACCATTAATGTGGGTGTTTTAAAAAGTTGGCCCTA
0.9029719833780857 GGGCCAGAGGGCTGGAGGCTCCCAGATCAATCAGAGGTCTGAAGGTCACTGGAGCTGTGACCTTCAAATTAGGATACTTGTAACCCAGGAGGCTGGCACACCCCCACGGGGGATGGGGCGCATGGTTGAAGAGAATCCATCTCCCAGAGAGGTGCCCTAGGGcccccctttcaccatgaccctgctaacactttacagatgaaaagcatacctctctctcaccccctaatcttatcgcagtgaattgccc
1 CAAACTCAATGCCAAGACTAGCCTGACTGGAGGGAACTTAGACAATGGAGTGGGCATTTGATGTTCCAGCATCTTGAGTGGGTGCCATTATTCTGTGACACCTGGATCCTGGGGTTCCATAAGCTGGGGTTCTAGGATGTCCATTCTTAGTTGAGTCTCATTTCCTGTCATATCGACGTCAAAGGCCCAAGACCTTCCTCCTCCCCTTGAGCAAACAAGCCACGCCCTGCACCAAAGTCCATCTCACCTT
1 ACCTGCTCCTCCAGCGATTCTGTCTTCAGCCACGACCCCCTGCCATTGGGATCCAGCTCCTTCCCCTTCGGGTCTGGGGTGCAGACATGAGCAAGGCTCAAGGCTGTGCAGGCACATAGGCTGGTGGCCTTGGGCCTTGGGGCTCAGCCACAGCCTGACACAGTGCTCGACCTTGATAGCATGGGGCCCCTGGCCCAGAGTTGCTGTGCCGTGTCCAAGGGCCGTGCCCTTGCCCTTGGAGCTGCCGTGC
1 cctgtagctattcattcaattagtctagtctaaggccgagcagtatttttttaactcccaagttgagttgaatgtgcaggcgagtttgggggacacATTTATTGATTGCATGGTATTGTATAGGGcaatgtgtctcaaacttgaagctgcatacacgtcacctgcaatgtcttgtttacttttggatttttattcagtaggctcagggttagagctgtgtgtccacaactctaacTTTGGTTAACTTGAA
0.7136664107030818 GAATTTTTAATTCTCTTAGTCgtggagtccttgaggataggccctttgatcatctttacaacttcagtgcctggcagataatagctgctcagtgtttgttgaGCAATGGTCACAGTTCGGATTACTCCCGAGTCCCCCTAAGTAAACTGGGCAGGTGAACCACATGGAGCTTGGGAACCTAGTTGAAGTGAAATTTAGAAAATTTTACTGTTTATCTGTCTTTAATACTGGCCCTGCCTCATGGCTAATT
1 TGCAGATGGAGCAAGCTAGGGAGAGGCCTACCTGCGGCCCAGGCAGGGACTGGCCAGGGTGGAGGCAGGAACACACCCCAGTGTCCCCACAGCCCTCACGTCCAGCCAGGCCTGGTGGCCAGACAGTGGTCCCTGCCACCAGGCAGGTCCAAAGGTCCAACCCCCTAGTCCCTCTGACAGGTCAGCAGCTCCTAAGATGGGGCCCCTGCCCCCACCTCACACCGGGCACCCCTCCCCAGGCTCTGCTCAG
0.6483160247171671 ctctgggccgcaatgtgtgaggatacgcacagggtgttgtccaccaggaaagtctacctgagactttggtgcccagagactttactgaggcttgatcagatgctgcctgtgtgaccgacctttagtctccaaagccccccagcaaacaaagacactcctgtcagacaggacattccaggacccagaggtcacctcccactagccacgggcagagactggacctctctttggtgaggttaattctaaacta
1 TTCTTTCTCGGCCCCTTGGCTCTATAGCCTGGCTTTTTCCCCTGTGCTTGGCCAGATATGTAAAATAAACACATCCACTGTGCAGGAGGAAATGACCTTTGGGTTTTGGGGGCTCTCTTAATGAGGCCTCAGCACTGCTGACAGTTCCACGCTTCCCTTTTTTACCCTTTGACGTTCTGAGACTTTGCCCAGGAGCTGGCGTCTCAGATTTCAGGTGTCCTGGGCCGCCCAGTAAAGCCGTTCAGCAAGG
1 gggcgcagtggcgcgtgcctgtaattccagctactcaggaggctgatgcaagagaatcgcttgaacctgggaagcggaggttgcagtgggctgagatcacaccactgcaccccagcctgggtgacagagcgagactctatctaaaaaaaaacaatgacaacaacaaaaaaaCTGCAGAgccagctggcacagtgggcttctgggggttctagatccatgttctaccctagggcacccctctttatgacag
1 tgctgcatgccttgaccactcagagtaggagctgacactgtgccttgcctccccatggcccacactgacactgcactgagctaccttgaaaccagagccactgctggaatgtgtcgcgttctgggggccagtagtcactgcaccccttcatccctcaggctttgtcaccactgaaccacctctgcctggtggcccacaattcctgagctgaactgctgctacatcctatcctgtggaaccactaaagacc
0.07546703374976864 AAGGGAGTCGGTGTCTGGCGCGCATCAGGTGGCGGAGGGGCGCTCGCACAGAGCCCGGCAATGCCGAGGCCCTCCCAACGGGTCGGTCTGCGAGGAGCAAAAAAGGGGTTCAGAGGAGGGCAGCGCGTGCGTCGCGCTCAGCTATAGGATGGCGCGAGGATGGCGTGAGGCTGGGCTGGGGCCTCCCAGGTAGAACTGAGGGGGGCACCGCGCGGCCGCGGGGGAGCGGCGCCGGACTCTAGAGGCTTTG
1 ctgagtttctgagtcacttaagcaaattaatcaagcccaaagtgggggtcacggaacttgaaacccagcttaaagctagttagtcataagttccagaggccatgacctatgactggtgactaaagggagggacagttttgtggaatgagacctcaacaaggggatctgacactatctctaagtaaataatgtcagaattgaattacaggatacccagttggcacccactacagaactgattgcttatttg
1 aaaatcttattccaaactgcaacatgtaaaacagatcaactcagctgccctggttaagaggtgaaggtcttgtccttttgtactccctcacacccaaccctcagcattcctggggctctatggagcacagccccaacaccacCACCCTAGAACCAGAAAAATAAGACTGTCTCATTGGTCTCCTTTCTTGATTAAAATATGTTGATCTTGCCAGGAGAAATTCCATCCAGAAGTTTGTGCCAGAAAATGA
1 CTAATAATCCCCTTATGCCCCTACTGCTGATCAACTTGCCTCTCAGGGCACCCGTTTTCCATGGGGAAAGTCTCCCTTCTTTCCAGCCAGGGCCCGTAAGTCCAATTACAGAGCCTTTTGAAGTTTGGGGTGAAAGACCAGGACACCCACATTGCCCATTTTGGCCACCAGGTGGCAGACAAGGATAATATTAAGCCTGGAATGACTTGAACTTGAGAGAGGGAGGAGACTTTCCTTTCAATGAACACTG
1 gctatctgtgcagctccccttatctgtgcagctgtgggtatgtcttgggtaaggataaagttcagcttctcttgtttgtgtaactgtgggttctaggtaatcaccctctccacccccatgcaagttcccacagagcccaccatgtatgtgcctgaaaaggggaagaaactttttcctgggaacctgctaatcacacaaagaacaaaaggcttctatgttgggccttcctttcttatcagggcagctgttg
1 TTGttttgttttggtctttttttgagataggaccttgctctgtcactcaggctagagtgcagtggtgtgatcatagctcactataaccttgaactcctgggctcaagtgatcctctttcacacctccccgagtagctgggattacaggcatgcacccccatacctgacTGTATGTTGCTATTGTGTATTTTAAAAACCTAatcctgactgtgctggtagtcgcaggaatctgtgcacatacatgcaaaca
0.8036039950702301 GCCCTGAGGAGCTGATGGCAAGAGCGGAAGGCAGCTCTGACTCGTGCGTCTGACTCCAGGTGTGGCCGTTGGGGCTACAGTGGGACCAGCCTGTTGTCACTGAACCCACAAAGTGCCTCCGAGCGCGGGTGGAGAGAGGGGGACCTCCCACCGTCTGCTGGCCTTGAATCTTGAATCTAATTCCCGTCTGTGCTTTGATGGGAGAGGCACTGGGAGCGGGCGGCTTTTTCAGTTCCTTTTATCTTGAATG
0.7595536809165032 ctagactccagagacaatgaaaggaaaggagatgaagagagtgcgtatatacagatctcaagtattttgctctaaaacagaattgaggtcagggttaacaagggtttggggtcaagggaggttttggggttttcatttgttttgtttcaggatggaaaatatcagagcatgtttgctgatggaaatggcttgtggagcggaagagtttttggagtcatgtccttggataggtgagaggagataaggtcca
0.5300860825800928 ATTCAACTTGGATGTCCCTTTTTGGAAATGTGCCTGCGTCCAGGGCTGGGTTGGGGCCCCAATGAACTTTGGCTCTGACATAGCTGTTGCCACACTCAGTGGAACTGAATCCATGTTTGCCTTCACCCGGCATCCTTCACCCCAACTCTCCCCGCCACAACATACATCCCATGCCAGCCTGGGGACCCTCAAAGGTGCTTCATCATTAGGTTTGTGGCTGGGTCCTACTGAAGTAAGTCTTGGCACTCAG
1 aatggatgcttctatgcccggatggtttgagggaaacgctgtctGTTCCCAGCACGGGGCTGGCCTGTTTGAACTAGCTGACGGCTTCACTGGGGATACAGGATTGCCACACGCGAAACCGTTAGATAACAGGAGAAGATAGCGCAGGATGTGAGCCCCGAGTGGGACTGGCAGAAAGTGAGGGCTACCGACAGGCAGAGGCTACTGTGGTTCaaagcaagggctttgtggtcaggcgggcagacttgtg
0.4496928767748802 GTCCAGGTGGTCGTAAACTCCTCCTCATAGCTTATGGGTGGCGGCGGCTGGGCTGAAGACTGCGGACAGGACATCCCGCCCGGCCGCCTGTGGTCACCCTCCCGCGCAGGCGCGCTCCTGGAAGACCCAGCACCTGGAGTTCCGATTGGCTCTGCGTGAGGGGCGGGCCTTTGCGACATCTTGGGGGCGCCTTCGGTGACGTCACAGGGGCGGGCCTTCTGCCACGTCACAAGGGCTGTACAGTTCCTGG
1 tccagtaggtatttgcctaataaCTCTGTGGCCTGGGTTCCCAGGAGGGCGAGGGGATGAAGACAAGAATCCTTTTGTCTTTGCTGTCCTATCTGAGTATCATGCTTGCAACACAGTAGGTGCCCCACAGAAGTGCACTGAATTATACTTAGCCTGGATCCAGGGCCCCCAGAGTTTTGTGTGGTGGTGGCAATAACCCGGCTATGAATGTGGGGTTAATATTAGACCAGAAGCAGCTAGGGAGAGAACG
0.234205882540375 AAAGTGATATTTATGTTACCTCCAAGCCACAAGCTCCATAAAGTTCATGTGAACTCAGGGTCTCTTTGTGAGTCATGGGGCTGCTTGCAATGCACGGATGATAACAGGAACCTCTAATTTTGGTTATTTGCTTTTAGAGACCAGAACCCAGATACAGTTTCCTGGGGCCTCACCTACTTTGTTAAGCAACTTAGCTATAAGTTTACAAAGCAGCTAAAAACAGGAGCAGGGGAGTGAGATGAGCTTGAGC
0.5119480743261406 gaccctctgagccaggtgtgggatatagtctcgtggtgcgccgtttcttaagccggtctgaaaagcgcaatattcgggtggaagtgacccgattttccaggtgcgtccgtcacccctttttttgactcggaaagggaactccctgaccccttgcgcttcccaggtgaggcaatgcctcgccctgcttcggctcgcgcacggtgcgcacacacactggcctgcgcccactgtctggcgctccctagtgaga
1 CCTTGCCCGGGAGGAGGGGAGGGGGGTGGAGCCGGGAGCTGCGTGATCCAGCCGAGATGTGCTCTGACTGAGGCCCTGCAGGGCATACGGGTCATGGAAGGGGTGCTCTGCCCCCGGCCAGGGCTCCCCCTCCTACAGGAAGCCGGGGGCCTTGCTCCTGCAAGCTGCCCTTTGGCTGGACCGGGCCCCACTGGCCGGACCTGGGCTCTTTCTCTCTCTGCACCCTGCACCAAGGCTGGGCTGTCTGCCA
0.2055021540648707 GGTAAAGCAGGCCAGAGTATGGGACCAGGCCCTGCCTCCCAGGGGACCTGAGGTGCAAGGTCTTTGAGCTGAGACCCTAAAAGGCCTTTGTGAGTCTGTAGTGCTATCAGTTGAGCAGAGTTCAGGGTTCTGTTTACAAGATTCCCTCTCAGCAGAGGCAGGGAGGGGTACCTGCTGGAAGACCAGGAATGTGCTGCTGCTGGGATGGGGGCCCTCGGTGGAGCTTCTAGCCATCTGGAGGCAGAACCCA
1 GCCGGGTGGACTTTGGCTCCTTTAAGGTCTCACCAAAGCAGAAAGCTGCATAGAGAGTCATGGCTATCAGCAAGGCCAAGGCCAGCCAGAAGGGGTTGGCATAACCCTGGGCCCGGAGCCAGTGGCCCCCGAGGAGGCTTGCCAGCATCCCAGCCACCCCGATGCTGGCTTCCAGCAGGGCCATCCGGAAGGTGCGGCTGCGACTGGAGCTGACATCTGCCACGGACGCAAAGCTAGCAGCCAGAAGGCC
1 TGGGTTCCATCCATTAGCTTTTTAAATGAATAGATCTGGTATTGATTTCCTTCCTGTTTTTTTGAGGCACATTCCTTTACAACCAGTGTTTAAACCACCACGTAATCATCTTCTGCAAACAAGGGGTGCCAGTGTTGCCTAACAGAAGATAATCTTTAATAAAGCAAATCCTCTGCTTCAAAGGTTTTTGAAATAATTGGATCCCTTTTTGAAAAGGAAGATGAGTTTAACTGTGTCCAGGTGGAGTAAT
1 TCTGGGGAATTCCCTGGGCAGAAAAGTGAAGCTACTTAAACTGAATGCTGGGGCCCCAAACCAGGGACCCATGTGAGATGTCACTCCCATTGGTGACCGTTGCTCTGGGAGGTGAAGTTTGTCCCCCCCACCTCTTTTCACATCCGGAGTTTCTGGTGGACTTTAGCCATGAAAAGCTGGGAAGGGTGCCTCAGTAGAGTGGGGGCAGGACCTGGCTTCGGATTCCACACTGGGCTCAGAAAAAGTCCTG
0.3583475054171339 ggcagagatgagactcaaagtcaggtctgtctTCAACACAATATCCCTTTGTGCTCAAAGGGATACTGAGTTCAAATGTAGAGACGGCGCCAGGGCTGACATGACCTTGAGGCACACACTATCCAACCCCCTGTGCACCCCACTGTTTGCATAAAAAGCCCTCCCTGCTCCACTCTGCTTTGCTGTTAACAGCTCTTAGTACCACATGGGCCATGAGCAGATTCATTGTGGCCAGAACGTAAGCAGAACT
0.1931959536877165 ctattttggagctttaaaatttgactgccccgctggattttgaacttgcatgggccctgtaactcctttgttttggccaatttatcccatttggaatggctgtatttacccaatacctgtacccccattgtatccaggaagtaactagcttgcttttgattttacaaactcacagacagaagggacttgccttgtttcagatgaaactttggactgtggacttttgggttagtgctgaaatgcgttaaga
0.5370298502327865 GCCCATCTCCCTAGGAGGTCTGGCTGCTCTTGGATACCCGGAGCCTCCTACCTCAGCTTGCTGGGCACTGACCTTGAGCGTTGCTCCCTCGACCTGCAGTGCTCCCTGCAGCGCCCCACCCCATGGGGGACACAGGAGGGGACTCTCAGAGCCGTCCCCCCGACAGGCCGAGGCTCCTCCCAGGAGAGGACCCCACTGCCCCGCCAGCACTGGACACTGGACACTGTTTTCCATAAACATTTCTTTGAAC
1 CCTGGGATGGGCTGCCGCTGCAGCGTAGACAGAGAGCCTCCCCTCCCACCAGCCCCATGGAATACTTGCCTTCACCCTGTGGAGGTGTCAGGTGTCAGAACCAATAGTGCCAGGGTTCCACACctatttagaacccttcagtggcccagaacccactgagtagaggccctgtgccttagcagggccttcagggccttCCCAGCACCACCCCCAGCCTCCCCCAACCTGAGttcctgaacacacgggatgc
1 tcgggctcaagtgatcctcctgccccagcgtcccaagcagctgacaccacaggcacgcaccaccaccacaccccattaattttttttttactttttgtagagacagATATTCGGGCGCCCCCAGTCTAGCCACACGTATGCCCCCCAGTGGTGGTTCTGGGAATGACCAAGGTTGGCTGCTGAAGTCAGTTGTCTGGGTGAGTCAGAGTGAGACACACAGACACACTCACAGGCACGCCTGAGGGTTGGG
1 CTGGGCTAAGCTGAGCCTGAGCCCCTTGCAGGGGTGGGTTCTCCAAGCAACACCCCCTCACGCACCCCGCACCCACAGCTGGCCTTCTGGGTCTCACCTCTCAGACTGCCCCTTGCTGTTGGCTGCTGGAGGATTTCTGGGCTTGGGTACATAGTTCATTTCCTGAACCACCCAGTGTGTAAACCTCAGCCTTATCCCAGTCCCTGCCCCAGCCGAGAGAGAGGGTGCCGACAGCTGCCCTGGCTGGTGA
1 CCCTGGAAACACCCCCGCTCCCCAGCAAGGGGCTGTGTTTGCACAGTGGCTCTGGCCCCTAAACCCCACCTCTGTGGACTCCGTCAAAGCCTGGGGAGGGCAGGGTCCTGAGGGCCCTGGTCTCGCTGGGGTCGCATAGGTCACATGGAAAGAATTTGGAGGTCACAGCACTGCCCTCCCTGTAGATGCTTCAAAGCACCCCACTCCCTTGAAGCTGCCAGACTCTGCAGGCAGCAGGGCATGGGGAGGG
0.2190189258509258 CATACATAAAGAAAGGATGGATACAAGAATTCCAGAAGTTCCAGTCCTCTTTTCTAGAGCAGTCAGGAAGTTGTTTACTCTTTGAGGGCCCACTGCTGACGTCTGCTCACTGAGTAATGTCATCAGATTTCCTGGTGGTGGTTATTTTGGGGGGAGCAGTGGCAAGTAGTTGTCCGGCTGTTAGGAGACTCTGCTCCATAGAGGTCCTGAGAGCCGGATATACCCCGTAGACAGGATGTAAGGTTAAATG
1 cagtgatttcgcagaaGGGACGCCTACTGGCATGTCTGATACTTGGTAGGGATTTCTGAGAGGCAGTGCTGTGTTCTCATTGTGTCTCATCCGCTGGTGTGGGACTGGGATTTGGGGATGTTCGCTGATCCCTTGGGGTAGGTGCCAGAGGCGCCACTGAGGGATCTGGTCTTGGGGCGCCCGCGCAGTCCTTGGACTAGGCCTTCCCGGCAGATCTGCGGGCGCCACCTGGCGGTCACTGCCGACTCCT
1 CCACCAAGTTTCCCTTTCGGGTTTCCCCTGGGAAACATCAGCTCCTACTCAGGTCCAGAGAAGTTCCGAGCTGCTGGGATGCACCAGCGCCCTAGTCCCCGCCCCATGTCTGTCACCACCAAGAGCCCCAGGAAGGAAGGCATAGCGCATCTCACCTGAGCGCAGGTCCTGGGGTGCTCAGGCGTGCTGCTCCCCTGAGACCTAAGGCCTACGCTGAGGCCCCGCCCACCAGGCCCCACCTCCTGTTCCG
1 agcaagtggctcaaccgctcaggacttcCCGGTACAAAAATAAACAAATAAAGATGGGACTGATAACGCTGGCAAGACCTAAGGTGCCGACAGCCAAGGAAGAGAGGGAGGTGCGTCAGAAGGGAAAATGTAGCACCTGCACCCCACAAAGAAAACGCGGGAGGGGGAGGATGTGCTGGCTTGAGGAATGTGTAATCCGGCCCAGCCCCAAGCAGAGAGTGAATGGGAGCTGCTCCCACCTCGTGGCTAA
0.5718707755795842 ACTTGTCTCTTGGAACAATGAGAAAAATAAGACTCCGCTGGGGCTTTATGCCTACGCTTACACAGGCAGATAAAATACATGAACTTTGTTCATTGTTCTCATGGGGATATTTACAGAGTTCTTTTCCCTCTTGCTGTTTATCTTTTGGCTGGGGTTCTAAGCGGAATGGACTCAGGTGGTGAGTAACGGCTGAATCTCATTGTTCCCCTCCCTTGGTGACACACCCTGAGCCTGTAACCCAGCAGCAGCT
1 CCCCTCCTCCCGTGCCGACTTCTCAGGCTCCTCCTCCCAGGGAATAAAATTACAAGTCTCTCCAGCTTTCAGATGATTGATCCCCACGAACCCCTGGGAGTGAGCGCCACAAAGGAGTCCCCTTCTCCGCCCCTGCCTCGCTGCCCTCCAGCTGGGGCCCTTGAGCAAGCAGATGTGGGCCCCTTCGGGCTAGGCTGGAATGAAGCCAGAAGGCCTGGGGCACTATGGGGGGCTGAGGCTGGAGTTAGCC
0.1105647306495573 GGTCAAGAAAAGTTTACTTCTGTGCACACAAATTATCTCAAGGTCTGTTTGTTCAAACAGGGTAACCAAACAGGGACCGATTCTACAGTGGCTGCTGCCCGGAGTTTTACACAGATGGGAGCATGGCCGTACCCCTGAACCCTCCAACCTTCTCTTGCCTGTGATTACCACTCCTTCCCTGGCCTTTTCTGGCCTGGCTGCTTTCACTGCTGAAGTAGGGCAAGGATTTTGTTTCTCTTCATTACCCTTC
1 CATTTCATTCTATTCTGTCTTACGTGGTTCTCTGGGTTCTTATCTTGTCTTCCTAACTAGGTTGGGGGCAAGGACTGCTTTTCACAGCCCCACAGCACCCACACAAAGCAAGACAATCAATTCTTAACTGAAGGCCTGACTGCAAGAATTCAAGGTCACTTGAAAAATCAGGGTCACtgcattgcacaactccaaagaacatcattcaaattgtattatatgattgtgcaagtggcagccttgtaaaatt
1 atccacccgcctcggcctcccaagttctgggattacaggtttgagccaccatgcccagccGACACAACCTTTTTATTAACTGCCTGATGTTTCTCTAAAGCATTTTACTCCAGAGAGGTCCCCCCATTTTAAATATATTGTGCAATAAAAGTAAacatccagtaaaattgactttttcttgtacagttctaagtttagacaaacacatagacttatgtaaccagccaccacattgaattcaagatagaga
1 TGACAGGGTGGGGACTCGGAAGGTGGGTGTCTCCCCGGAAAGCTGCGTCTTCCCCATCCTCCTCCCGGCTCGTCGGGAGTCTAGCACCGTCTTTTACAAACCTTGGTCAGGTCTATGCCTGACCCCATGAGAGGAAGCCCGTCCTCATCCATCTCCTCAGCGGGCGGTGGACCCCGAGTTCACCCACAAACCCCTCCCAGATGGGGCCCGCCCAACCCGGTAATCACGTCTCAACTTTCCCCCCAAGTGC
1 GACAAGCAGAAATATCCAAGGAAGCAGCAGTGGCGGAGCAAAGGCAGCCACTTCTAGCCTGGCAACTAAAAGCTGAAAACTCACATGACTGAATTTCAGGGAACAGTTTTCCCATAGTTGAGAGTGGGGTGCCTAACTGAATCATCAATGTCAGCTATGAACAGTAAGAAAAATGCCTTTGTAAGATCAAAGATAGATACTGTATTTGGAATTTGTTCAGGAAGAGTAACTTTGCAATTGCAAATATACT
0.3684619383316622 ACTGAGAAACTGTACTGTCCTACCCTCATCCCAAAGATGGGGACTCCGTGATCTGACAGAGCCCTCTGCCTGTCGGGGAGACCTGGCCGTGAGAGCAGGGCACCCGGGCCCTGAAACCGCAGGGATGGGGGTGCACGCCGGGCCATGACAAAGGAAACAGCGCCATCTTGTGGCTCCAGGAGAGATGAGCTACACTTCCCGCCCATTGTCTCACGAGGGCACGTAGTTAACTTACCAAGAAGAAATTTGA
1 gttgagtgccggccaggtgccagcactgtcacaggtcctggggacccagcaggaaacagaccgagtgttccccatgagctttccttctccaggggagacagaaggtaaacaagctgctcttgtcaaggccagcggctttcattcgcgccagagcctgtggccagttctcattcctcttcttcattcatatctcggtagcttttgacaccatcgatcaggactccttcttgaatcactgcccaccgggctt
0.3015197151989863 agccttcatggcagtcaatgcgctttcacatgtggcctctccccgaccctcactggccgggtggagactatgagtcctcgtttcacagacatgacattggggttcagagaaatgaagtgaggtgcccaaggccatccagtaaataaaggacggagcTCTTTCACAATCCCTTGGGCCTGGCCCTTGGAAACTTTCGCTGATGAAGTGATGATGGGTGAGAGTCAGGCTTGCAGCAGGAAAAGGGCAAACG
1 GAGCCTGCCCAGGAGAGAAGGGCTGTGGCCTCCTTCGGCATCCCTCTTCCCCACCAGCCCACGCACGCCCACTTCACCGCCTGCTCCAAGGTCCGAACCCCCGAATCCATGACTCATGATTTCTCTTCTCAGACCAGCGGCCTCTTTTTGGCTGAGGTCATGTTTCTTGCAGACTGGAGTTAAAACCGAACCACGTGTCTTTCGGCCCAGCAGCGCATAGTGTGGGCGGTGCAGGAGCCGAGACGGGCAG
1 CTTCCGGTTGGGGGAGGGGAGGAAGGCCGTCCTGGGGAGGGGGGACACCCTCACTTCCTGTGGGGGGGTGGTGATGGTTTGGGGGTGTCCGACCCACTTCCAGTGCTGATGAGGGCTTGAAAAGGTGGTGCTTGGTGCCATTCGCGGAGACATTATCTTGCAGCTTGGGGATTGTGTTTTATGTGAAAAGTTAGATTATTCCAAGTTGTGCTGAACACCAACCTGCAGTCAGAATTTATGAGTTTGCTTC
0.4519544012706888 GTATCCTGGAGGTTCAGCACCTCGGTCCTGGGCCTGGGCAGATTCCTCTCCCTGAGTCTTGGGCTTTTCTCTGGGACTGGACTCTGTATGCTCAGCCCCTTCCTGATTTCCCTCCTTGGGGTTCAGGTGGCTGCAATACAGCAACCAGCAACAGCAGTGCTCTGCAGGGTCACTGGGTACAACCTTTGTTTGCCAAAGTTAATGATTCACTGAATTGCTCCCACGAGGACTGGAAATCAGGGCTGTGCCT
0.04011993645307301 CGAAGGCGGATTTTCCCTGTGCAGGAGCCCCGGCACCCGGCTCTCCGGTGGCCACCAGAGGGCGCTCATACTCAGACCTCCAGGAGCACTCGCAGGCCCCTCCCACATGCCAGCACTCAGGGGAGAAGGGGCGCCCTCACCCCTTCACCCTGGGTCATGTCCCTGAGACTGGGGTTCAAGAGCCTCCAGAGAGGCCGGCTTGGAACACCCCAGGCCCAACCCCAGCCTCGGAGCCATGTGGACACTGACT
1 ACAGAAAGAGACATTATATTCTCATGAACACTCAGGAGAGAAAAGGTCACTTTTACTTATCTTCTCAACCCAGCAAGGCTCTCCAAACCTGGATGACTGGAATGTCGCCTGTGTGCAAAGGCTGGGCCTCGTGAGCATGGTTGTTTACTTTGGCACACAGCTAAGTGGGGTTCAAAAATCAAAACTGAATGACCCAATGGCAGAAAGTTATTCCTTTCAAATACAATAATGCAATCTCCACTGTCCAAGG
1 cctgtcctggaaggacgttgagcttcggagagagacagccctactttgaaatcttggctctgtccttgccaCAGCTTGACGAGAGTACTGGGACGTGTCCTTGACAGGGCATCTGGGGCCCCTGGGAGGAAGCAGCTGAGTCATGTGGGGAGCACCAGGGCTAAGTCCGCCTGGCTTCCTGGACTGCAGCCCCTCCTCCTGATACAGACAAGGTGTGTCCCCAGAAGCAAGGGAAGGTGGCCTTTGATGG
1 AAGGCCGGGCACCAGCACCTTTAACCTCCTCAAAGTCAGCGTTTCCCTGTCAAGGCCCCACAGGGCCAGAGACAGAGATGGATGGAAGGAGCTGTGTGTCGAAAAAGCCCTGTGGCCTCATGAGGAGAGCTCTGTTTTCAGGAAGGGAGGGGACCCCGGTTTCTGATTGTTGGGGAGAATAAGGGGAGGAAGAGGAAAAGTGTGAGTCACGAGGAGGTCCCCCAGGGGCGTGGGGGGGCCCAGGAGGGCT
1 tcttcactttgtttcctttgctgcacagaagcttcttagcttgatataatcccatttgtctgtttttgcttttgttgtctgtgcttttgaggtcttaccccaaaattttgtccagaccataatgccctgtagcatAAAACCCCTGTTTAAACAACATGAAGAGTAGTTTCTCCTCTTTGAGCTCGTATAATACTCAGATTGCAAGTCCCCAAGTCCAAGTTAATTCTTAACTTGCCCCTTGGTCTTCTCT
1 TCCCAGGAACCTGCCCACACACCCAGGGAAGACAGTCGTTGCCATCAGGGTTGGTTTTGAGGTCTGAGTCAAGGCCTGGGGGCAGGGCGGGGGGCGGTTGGCAGGGTGAGATGGAAGGTTCGATAGTGGGGCGCCTGACTCACTGCTGCCCCCTGACTCCCCTAGACATGTCCAGAGGTGGATGAAGAAGGTTTCACTGTCCGGCCTGATGTGACCCAGAACAATATCCTTCTGGCACCCCCTGGGGGCA
0.4816561141081034 cttgaacccgggaggcagaggttgcggtgagccgagattgcaccactgcactcagcctgggtgacagagcgagactccatctcagaaacaaacaaaCCCCAAAAGGTTGGTTACACAATAGTCACTTTTACCTTGACCTTTCTGCTGTAATCAGCAATAATGCAAGGCAGAAAGCATGTAGTGACCAGTGTACAGGCTTTGTGGTATGTTAGAGCTGAGTAAAAATCTTGATTGCTCTACCATACAAAAG
1 TTCTGCACCTGATGCACTAAGTAATTTTCCATGAAGTAACTTTCCAAAAGGGTCATGCACTATTGTGTCACTTTGTTGGATTCTTCCCACAACTGGAGAGTATCGGGTTATAATGGACACAATTCACAGAACAGCTATTACATCAACTATTGATTTTCCAAGGGCCCCAAAGCTGAAGCTGCACATCAAAGAGTCTTTTGAGTGAAGGCACATGTAGTTCCCATAATTCTTGTGTGTCCGAGAGTGGGGA
1 ccacaagtcaacgctgtgggtctctgtgagtcagactattgtgatcgctggttcacctctgctgtgcactgcagcggccacgcccaccttgttttgagcctttgagccctgccacctggcccctgccccccaggggatccacttattcccctgcacgtaggtttcccaacccagggactgcagttgccactgtaattccagatctgctggagaaaggccatcacagagctcatgaaggaggagtgttccc
1 gccgtggtcattcatattggcttataattaacctctgtaaatatacattggcagaatttgtgtttctcatcaTCGGGGTTCAgttaatgaaaactcatggaagagaccaaaggtttttgttttcttctcttgtaggtccagactttaggtagataaggaaatttagagagcaacttcatcctatgctttgggagaaatgggggaaggtgggggcctcagagagactatgaggctcaaagtccagttcaaa
1 AGCGCATTGTCTCCCTGCAGCCTCAGAAGTCCCGGGCTGAAGACCTGGGCCTGAAGGCGAAGGCCCTGGAGAAGACAGTTGCATCATGGCAGCACATGGCCACTGAGGCTGCCCGAACCCTCCAGACTGCTGCCCAGGCGACGCTACGGCAAACAGAACCCCTCACAAAGGTCAGCTCTTGTGCTTTGAAGCAGGGGACCTGGGAGAGGTTGGGGCTACCCTGAAGGTGATCCAGGGTCAGGGTTGCAGG
1 AGATAGAAGGGCAGATGAGAAATGAATGTACTGGGAGCTCTCTGTGTAATATCCCCTCCCCCACCCTCACCCCACCCCCCAATTCCTGCAGGGAAGAGGCCTTGAGAGAGTTGAGTAAGAAATAAGCAGGCAGAATGATGCAAGGGGAGCTGTCTGTACACATTGCAACAGAACTTTCTAAAACAAGCCTGGGGCTGCTCCCAAGGGTCTCAGTCCTGCCCTATTCCTCTACTGTCATCCAGACCTGTCA
1 CAGTCCACTTGGCAAGGACGTGGCTTGCAGGGGGTGCTGAGACCTTGGCCTTTTGCCAAAGCACCCCGCTCCCTGGAGCCACTTGCCCACCCCTCCCCCAGGCTGGTTCGGCCCCAGCCAGGTAGGTCCAAAGTCCTGTGCTGCCGGAGTGGAGTCTAATAAGCCCCTCCTGGCAAGGGGCTCACCACCAAGGCACCCCACGATGACGGCTCAGGAAGTgggcccacggacaggtgcctgaaaaagccca
1 TCCAAGCTGCAGCCTCTACTCAGGCACCTGTCAGCCTGCACAGGAGCAAGTCAGGAACACTTGGCCCCAACATGACATCAAAGCCTTCCCCAGAGTCCCCCAGAGTCCACATCAGAGAGTCTGCCGATTGTATTTTCAAGGTCTTACAAACAAGGAGAAACCAGCAAAAAAATCAATAATAGCTTGTTTCAACTAAGCGCTGGAGAACGTAAGAAGTCCTTAAGTTATCAATAACCCCGAGGTGACCTCA
1 ctcctaaaccagggctctttctactgtaAATGGATGATTGGGTGAGGGAAACAAGGATCCTCAAGAATAGGGGACAGTGTTTGGGGGTGCACAGGGGCTGCTGTGGTTCCCACAATAGGGTTCCTCAGGAAGGAACCTGCAGCATCTGCCAGCACAGCGCCCCCTAGCTGTGCTGTAACGCAGATAATGGGGATCACCCCTTAGCCAAACACCCCTTGGCAGCCTCCCTACCCTAAAGACCGTGCTGAGG
1 AGGCATCTCTGTTTGTCATAGATGACCTCACCCCAGCTATTGATCTCCACTCCCTTGCACCCACATCTGCCTTGTGTTCCTGTCTCTGGGCCCCCATTCAAGCTCTTCATCCTCCTCTTCCCCCGTTCCCCAATATACTAGTACCTCCTCTCCTAAGCAAACACTTTCCACCCTCCAGGCTTggggaggctgggtgcaggagaggaaggaacatgggctttggagcctgacagctggttccagatccggc
1 ttgggtcttgtctaacacacctcttctagggaaagccttccttgcccctccaagatgggttggatgccactccagggtcccccagaacctcatgctctcccttatcagaggacacaggacattgtgttgggaatgtttacttggctgtgccctcccactagactgtgaactctttgcaagccagaactggcgattagttcattgtcaaatccctagcgtaggacctggagcagagaggtactcaataaat
0.4240625939550962 ATTCAAAGAGCTCAGTCCGACCAGGAAACAAGGCAGCCATGGGCAGCTTGCTGGCAGTGCCTGAATTAGTTCCCGTGAATCTCAAGCAATCAAACAAAACCAAGGGCACAGGCAGAGGCCTGTGGGGACCGCCAGGGGGGACTTTGCACGGGAGCATCAAAGTATTGGGGTTTGCTTCATTATCAAGGTCATGCTTGGGAATTTTGCAAACAACAAGGAGGTAGTAACTTACCACCTCCCACCATGCTTC
1 CCACCGGTTCTCAGTTCCGCTTTAGTCCAGAGAGAAGACACTACGCTTCGGGGTTCAGGTGAGAGCCAGAGGAAGCTGGGGTGCTCGTGGAAGAAGGGGACGCAGGAGGAAGCGAAGAGTAGAGACCCTGGATGCGTCCCGGCCGACGCAGGTGGTGGGCCAGGAGAGCCCGCAGGGCGGAAGAGAAACTGACCACTTAGGAAGGGGCGCCGAGGCCACGGGGGAGGTGAGGCAGCGTTAGGTGTGGTGA
1 CAGTCAGGTTGGCTTCAGCCAAGTGCATACAGCTGCCCCTTGGGCCTCACCCTCTTTTCTTCTCTAGCCTTGAACTCTGTACTTCCTCTCTCTGACCACAGTCTCCTGTCTGTCTACCTCTGCTACCAGAACCGTGGCCCTGAGTCACCTCTGCCCTCAGCCAGAACCCCAGATTCTGCACCTCCGTGTCTCCCAGCTGGTTCCTCTGCCTCCCTCAGCCCCACTGCAAGTTGTTCAGTGAAGCTCAGCA
0.02835633895602406 GTTCAATATTGATCCCTTGTTCAACCAACTTTCTGGGATTGGAAAGTCCTGGAAAGAGGAGCATCTCCTCCTCCCCGACTAGAGAACCCCTTGGGGAGCTGACATGTGTTGTTTACTCCCTCTGCCACCCCGCTTCGCCCCCATTTCAGCATCAGTCTTGGGGCGTGCAGGCATGCCAGCACCTGCCCAGCATGGCCTCCTGTGGCTGGCTTTGCCAGGTACCAAGTTCAGTCATGGCTGACTTAACAGG
1 agcctcccaaagtgctgaaattataggcataagccactgtgcccggctgctatgtctgaggggttcatagtccagtgggggagatgaaaaaatgtcaacacattaagtaccatagtaaatagtagggaatgaacagaagaccatggaaacagaggaACTTCCAGTCTTTCTATGATGTAGTCCTGTCAACCCTGTACCCCGATAAGGCTTGCAATCAAAGAGCATAAAGAGAAACAAGAGAGTTGGGTAT
1 AGACACCCCGATCCTAGCCTCTGTACCCCATCCTGTCCTTTGGAAGGTCAAAAGGCCCAGGCCCCCAGCCCAGGCTGCTAGCCCGACAGTCTGAAAAGCCGATCTTGCACAATCGACGTCCTCTAGACCTGGCGGCCACCTGGCCATCGATCCGACATGGCCTGGGGGGAGGGGCTGGCAATAAGCAAGCAGCAGCAAAATGCTGAGAGAGGTGTTTGAAAGCACAGACGTggctgggtgcagtggctta
0.3464655836589395 ATGGAGCGGTGCCACGTGTTGGCCAGGGACGGCCCGCGCCTCCTTGCCCGCCCGGGACTCACGGCGCCGCGGCGGTCAGGGACGGGCCTGGCTCCCGCCTCGCCTTCTTCCGCCCAGCTCGGCTCGGCGTGGCTCGGCCCGCGATCCCTATGGGAACCGGCTCCCGCCCCGGGTCTGCCTGGGCGGGGCCGCCGCGCCCCAGCTTcccacccccggcccggcccagcccggccgccctcccgGCTGCAGG
0.7553905095264607 CACCTAGGTGGGGAGGTCACCGGCCCAACCCACCACCCTCCGGGAGAATGCGGGCAGGGACAGCAGCAGGGGGCAGCATCCACGTCTCTACGCTTGCAAGGGTTCCCCAAGTCCCTGGCCACTGCTCCCCACTTCCTGCAGCCTCGGTGTCCGCCGGGGGCGTGTGTGAGGGGCGGGGCCGCATGGGGAGGAGGGATTTaaaaaaaaaaaaaaaaaGCGAGGTAATTAGCATTCTCCGATTCCACTGGCT
0.3150730304843146 AGAATGCAGAGTTCAACGCAGTGTTACCAAAGGAGATGACACAATTGTAATCCAGGAGACTCAGTTGCCTTTGGGGTGCAATTAGAAGGAAACTATTTGGGAGAAGTCAGGCTAAAACCAAACcgtagccgacaggattcgaacctgcgcggggaaaccccaatggatttcaagtccatcgccttaaccactcggccacgactacGCACCTGTGTAGTGCTCTTGGTTTAAGCTTTTGAAGATGTGAGCA
0.2496473362826935 TTTTTCACCCTCTTTGTTAAGAAAATGTTTGGGGCAACGACAACTGGTTAAACATTGATGGCAGCCAACAGTGGCTGTGCCAGGTTCCTGGAAGGTCATCGGtcctcacgacagccctgggggcttgccctcaggcaccccagtattacagaggagagaacacaaaggctcagacagctaagggaccaggccaaggtcacacagcaggggactgcagagcACACCCCGGGCCCCACACAGGCCCGCTCTT
0.728414912981458 ttgattattctctggggtggggccgttctgggcactgcacagtgctgagtagcatccctggtctccacctactccaggccaggagcacccccaagtcacggtacccacaaatgtccccagacattaccagtgtcccccagggggcaggcttgcccccagttgagacccaatgCTCTAAGGCATGTCCCTCAAGGGCAGGACAGCCAGGGACCTGACATTTGATGACAGGCCTATCCTCCACCGCCCCCCA
1 GCTACTGGGGAGGGACCCAGGGGCCACCTGCACATCTGCCCCTGTGGGTGGGCCCCCACCCCAGCTTCTCAGCCCCCAGGGAGGGGCCAGGGCTGCTGACCTGCCCTGGCTCTCACAGCTTCCTGCCCCCAGCCTGGTCGTCCTCTGTGAGGGGGCCCCAGTCCCCCTGCAGGCAGCAGGACTCCACCCCCCGGCCCCCTTGAGGGCCCGCCTGGGCCTCCCCACTCCCCGGCCTGTGAGACCCACTTGG
1 tactctgtgaaaatggatctggacctttaaatatttttttcccgggctagctagcactgaaatcttgccagtagagggtgatagagagacacgggagaaggagaagaggttgacttgcctctgggttccagggtgctcactgggtggttcccccagtgccccgctcctacagtgactgcagccagcagcacccaggagacggaacctccccgcccagcccggcgcccgcCAGCCCTGGTGCCGTTTTTAT
1 gttttactgggtgaaaaaagaagaaaaggggaaacggggactctccctaggccagagtccctgctagagtacttctcgcctggtcatttgaattccaggttccagataggaagaggaggggccagactactcccctctgcaaacagcgtgaacttccgtgtctccacccaatgcacattcctcctggtgtgcaggctggttggagtttttccagggaccctctcccacctggctatctcaTTATGTTGAA
0.1475751449208409 GCCTCGCACGGGCTGTGGCTTCAGACACAGTGCTCCTTGAACTCATCCCTTTTCCCTCCGGCCGGGGTAGGCCGGGGCCCTTGGGAGGTGCTGTCTTCCTCCATCCCTGCCTACTCTCCCCAGGGCCTGGCTCTTCCCTCTTGCCTGGGGTTCCCATCCCCTCCAGGCCTCCCCTGGGCCCCGTCCGCTCCCCTCTTTTGCATGATGACTCAAATCTAAGGTCTATAAAGCGACTCAAAGGTCAATGCCC
0.8957511209212076 TTTTTTTAAAGAGCCGGCGTGCTCCCGGCTCGGCTCAGCTCGCCCCCTTCCGTGGAGTGCTGCGCCCCCGTTTCCCCAGGCTGCCCCTCCCAGCAGGAGCCAATTCGCCAATCACAGCCCTCCTTTTCCTGACGTCATTGGCGCGTGCCCCGGTTTCAAAAGCTCGGGGGCGGGCTTCTGAGTTCGCGCATGCGCCTCTGTGCGTTTGTCCCATGCTGGTTCCGTGAGTCTGGCCTTAGGTGTCTCGTGT
1 TGCTGCATCTGAAGACAAAAAGCAAGGATGCCAAAGATAAAGAGAAGCTGAATCGACATCAGTTTGCCCCAGGAACATTCTCTGGGGTTCTGCAGTGTTTGGTTTGTGATAAAACACTCCTGGGGAAAGAGTCACTGCAGTGTTCTAGTAAGTTCTCAGGTCTATGTGCGCTGTCTTTGTTTTCATCTCCTGACAGTAACCTTGGGAAGAGGCTCATTGCTCAATACATTTACATAAACCTTTTCAGTGC
1 aaacaccgttcatgcacatcacgtgtcattgtaaacaaaacaaagtccctgtcctggtgacactcaccacaggagaccgacaataacagataaGAAGGCCAGCTGCTCCCAGGAAGGGCTGAGCACCCGGGAGGAACGCGGGGTGACAGCTGGAGACACGGTGGCAAGGGCGGGGAACAGCACCCCCGCAGGACAGTCAGAGGACCCCGTCCAGACCTGAAGCCTGAGGGGAAACAAGCAGAGATGTGCA
0.07435292551503864 GGGCAGTTTGAAGGGTAGTGCAGCGTAGTAGTGCGGTGCGAGGGGGAGGGGGCGCCCGCCGGGGAAGGGGTGCCTGTGGCGCAACTTCGCCGGCCGGTGCTAGGGGCCAGGAGAGAAGCTGCTGCTTCCTCTTGCGAAGTTTTTTCCCTTCCTAACCGAGATGCTGTTGCGCCCTTCCGCGTCACCCCCATCCATTTGCGACTGACATCCAGTCTGTGTTAGTGGGGAAAACGTAAGGCTGACGGCCTTT
0.3598657789316667 ACAGGCGAGGTGGGGGATGGGGGAAGAGAGGCGCTCGGGGAGCTGGGACGGGCACCGGGTTGGGGGGTCCCGGAACCCCTGAAAGTTCAGTGACACCTCCATAGTTCCCTCTTCCCCCTGCAACAAGAATCACTCCAGACTTCCTAAACACTTTGGACCCAGCAATTTCCAGGAGTTCATCCTGATGAGAGAACTGAAAGGTGTGCACACGTTAGTAACAAGGAGGCCTGGTGACCGCCTAAGCGTCCAA
1 AGTGGGGGGCACAGGGAAAGCAGCCATGCAGCCCAATTTAGGGAGCTGCTAGAGAACAGAGGGCCCCGTCTGCACCCCGGAAGTCAGTCTAATCTCCAGGATGAATATGTTTTCATTTCTCAGAAGTTCCTGTTAGAGTGTGCCAAAGCATTTTTCCCTTTACAACCCAGGCAAACAAGACAAGTTTACTTTGGGTGACCTTATTATCACCACCCAGGGCCTGCCTGCTGAGTGTAAACACCAGCTTGCA
1 CTGCCATCAGAGCGGCAGCCTCtttctagagcattctgtctgagccgagcatggagctgagagctgaaatcatgagtcattctaccctcactcctccagagcctgcaagggagtactggggggtcatccatgtctggcaggcgaggacaatggggctcagtgaggttacataactgcctgagggtcactctgctagagaggtggaactcagtccaatgtcacatctgtcaaaccccagagcccctggtcc
0.7714423711775011 CTTTATGTCAGCCTGACCTGCAGGCAGTCAGTAAACAGATTCTGTTATCAGGTCTACATTCCACACCACAGGCAGTGCAGATGGAAATCCGAGACAAATGTCTGTGGTCATCTGTGACCTTTACTTTCACCCCAAAGCTTGTAGTATCAAGAGCTGGGACTCCTATGAAGGGAAAAGCCCAAAGAAGCTTTAAGAGCTAATGGTCTGCACTCCATGCAGGAGCAAACTTCAGGGCCACCACTCTGACCAG
0.8191659637739016 CTTCCTGGACCTCAACCTCATCTCATCAGCTCCCCCTACGGAGTGGGGCGGAGGCGGCGGAAACGCTGAACGCTCAGGGTCGACAGGAGCAGGGGCTGCACTGCCCGCCACCTAGTGGCCAAAGTGAGCAGGTCCCCTAAAAGACACGACGCCCCGCGATCTGCGGTAAATCACATTCCTTGCGATTCTGCAATCACAGGTAGATTTGGAATGGGCTAGGATCCCCTGAGAGACTGTTTATAAGGAGGGC
1 CACTAAGTTCAGAAACTTTCCAAAAGTTGATGACACTTTCACCACAATCTCCTGAGGCTCACTTTAGGGTCCTTCACAATGCGGATAACTTGGGGTTCCTAGAAAGGATGGTCAAAAGTTGCCTAACTTGCAACAATGTGAGATTAACATCTTAATCATTAACTTAAATGGCATTCCTGACTATTCTGTGAAAAGCATTGCCTCAAGAacaaatgatgaatagaaaggaagtgatagccttaattcttaa
1 GAGCAGAAGCTGCCATTAGCACTGGTCCCAGCGAACTGTCCTGGGCTTCCGCAGCTTGGTCACCCACCTGGAACGAAGCTAACCCCCCCGCCCCCGGCTGCCCAGCCCAGAGACTTGTGGGGAGTATGACTCACTTCGCGGGGGGCCATTGTGGCTAATGTTTAACTCTGCCCCTCCTTCAGCAAGGCACTTTAGCCCCAGCAGCCCTTAGCGCTGGGCCCTGCCCTGATCATGCCTGCTGCTGAGTGGG
1 GCAGTGGAGTAAATGGGAGGCTGGGAGAGAACTGAGAACTCTGATGTGGCCTTGATGCCCCCTCCCCAAGGCCCACCCATACTGGTGAGGATTGGGGTGACCGGTGTGAGGAGAGGGAGAGCCCCTGATGAGGCCAGAGTCCAGGCCCAGAGAGACCCCGTCCGCTGTGCCACACATGACATCATTTTTGTGTACTTAACACAAGGTAAACAGGGCTGGAAAAACCCAAGTACTCATTATCTGACTTAGT
1 CTGACACATGTGGAGGAATTCTCATTGCAGGAGCTCTCCTCACAGCAAGGCTTCATTAAGCATTTTACTACGTACCTGGCACTaggacaggtgttgtcatcacccccattctgtaaatggggatcaaggactcgggttcagtaacctgcctcagatcccctggcctgtaactgatgaggcctggaatcagtcccaggCTAGAGGGCAGAGTCCAGGAGACTGCCACCTGCCACGCTGTCCGCTATTTGTT
1 CAGATCCACCACTAGAGGGGACCCTCGAGCCAGCCTACCTGCTCTGCCCTCCGGGGGGACTCAACTCCGGGTTAATTATTAATAGACGCCCCACCGCTCAGAGTGGCGATGGGTGCACCCGAGTCCTCACCAACACCCCTGCCTGGCGGGATGGCCAGTCATCTGGGGTCCTCGGCCCTGACACCCCTCCCCACCCCAGAGCACCAGGAGCGctctcgctctctctcgctctctcgctctctttctctct
1 AGCGGCGAGAGCGTGAGAGGGGAAGAGCTGGGGGTCCGGGCCAAAAGGAGGATGGAGGGGCTAGGCTTCTAGAGCGTGGGAAGGGGTCCCAGGGACCGAGCCAAGTGGAAGGCTTGTCCAGGCCCCCGCCTGCTCCCCTGGATCTGGAGGGAGCCTCCACGTGCTTCCGGCTGGGGCGGCACCGCGCAGTGCCGGGAGCGCCCACGAGGGGGCGCGCGAGCTCGGCGGCGGCGGCGGCGCCCCAGCGGGA
1 AACCATCCTTCTCATTGACAGATCTTTTTAACTGCCTTTTGTTTCCTCTTATCTCCCTCACCCAGCCACCAGCTTCTACCCCCACCCCCAACTGAATTGCATCACCATCCACTGAGCTCCCAGGGCCTGCAGCTGTTGCTGCCTGGGGTGACAGACACACCCCGATTTTTGAAGGGAATGAGCTTATGAGGTCAGGGAGGAAGGGGGAATTGGGGGCTGGGGAGAAGCAAAGCTTGGAGTAAACTTCCCA
0.1261705229077348 ATGAAACGTAGCCTCGCTCCATAGACACTGCAGCGGGAAGAGGAGGGCGAGAGCGCGACGCACAATAGCCGCGGTAGCCCAGCGCTTCCCTACGGAAACTGGGGAGCAGTCAGCGCCCTAGGACTCCAGCTGGAAAGCGTGGCGGCCTGGGAGATGTAGTCTTTCCGTTTGCACTCCCCAAGACTCCTCCCTGCAGTCTCCCCACCACCCCGCCTGGGAGGCTGCTCTCCCAGAACGGCATTCCCAGCCT
1 CCATCGGCGCCTTCTGTCGTCGTGGGTCCCAGCGTCTGTCTGTCGCTAAGTCTCTGGGCAGACTGCTCGGCCGCGATCCTGCCGGAGAAGAggcggggctgggctggtcgggctgggctggtccggctgggATTCGAGCTCCGGGATCGGGAGGCCCCGGGCAAGGTCCAGCTGCGCGGCGGGAGTGAGGCCACGGGAGGTGAAAACAGGCGAGGTGGGGGATGGGGGAAGAGAGGCGCTCGGGGAGCTG
0.3589819044598525 aaagatcgacccctgacgtaatcagttatttgtataagaaaagcactgtgaagatccctgtcctgttctgttccgttctaattaccggtgcatgcagcccccggtcacgtaccccctgattactcaatcaatcatgaccctctcacgcggacccccttaaaagttgtgagcccttaaaagggacaggaattgctcactcggggagctcggttgttggagatgtgaatcttgccaaagctcctggccgaat
1 TCATTTAGTAATAAGCTGCAAACACTTTTAGCTGTTAGTAATAAGCTGCAAACACTTTTAGCTGGTGGAAAAGTTGGTCTCATAGTGCAAACAATACTTCTTGGTTTCAGAAGAGGGGGAGCTAAAGGCCAAAGGGTAAATTCCACTTGTAACAGGCTGCATATTTTTGTGGGCAGAATCAATGCCAGAATGGTCAACAGCCTTTACACCACCAAGCTGGCTTGTTGCTAATGGGATCCACTTCCTTTAG
1 tttagaagtctggagatttattaaccatggttggatggacagtgatatgaaaggggcacaaggggcacttccaggttgctagcacgttctatcttttgatctgagtaaacagttacatgagtgtattAAAACAGAGGCTTTAAAAAGAGTGCCTTTGTGAGCCTTTGACCTCTTTATCAATACCTACTCCCCAGGAATTTGCAACCATTTTTATCACCTCCACTTTTTGTTTTATTGTTGTTGTTAAAAA
1 AGACAGCATTTCCCTACTACAGTGTGGAAAACTGCAATGAATCCAGCCTGCAGCAGGTGACCCCTCTGGTCCAGAGATCAAAAGGATATAAGGGGGAGAAGGGTTTGGTGCCAGCTCTGGGGTTGTGGCAGCTGCCCTCTTGAGCTCTGCTGGGCCCCACTCGAAGGGCCTTTTCACATCCTGTTGTGGCCAGTCGTCACTGCCCATTTCACTGACAGAAAGTGACACCTGAGGTCGGGGGGTCTGAAAG
1 ttCACCTCTCTGATCTTAGGTAGCCAGATCCAGCACCTCCTCTTGGTCATTAGGTGGCGAGGCCACTCCCTCCTAAGAGTGAGCTGAGTGGGAGCAATAGGAGTTGGGGTTCAGGATGGGCTTAGCCCCTTCTGTAGGCAACGGCGCCCCCTGCCAGCTGCACAGCACCTATCAAGCTGCTCAGGGCCTCCTTTACTCCCTAGCTGTAAGtttttttttttttttgagacagggtgttgctctgtcaccc
1 GCCCTTGGGTTTCTCTGAGAGGCTGGGGGAGAGGGAAGGGGCTGGGGCCACCTTTGTGGGGACAGAGCATGGAATTTAGTCAGCTCCCTCATACTGCTTAGAGTGACCTGGTTCAGACAATGGGGCCTTTCATGGGGCCTGGCCCACAACTCTGGAGTGGGTGCAAGGCCTCTTCTCCCTGCCCGCCCCTGGGGCCCACCTTCCAGTACCTTGTgagaggcaggggcgggagagtgggaggaacaggggc
1 TCTAGAGGGACAGGCAGGGCCACCTAGATGGATTTACAAGGGATGACTGTTCTGCACGTTCCCAGGGGGAGAACTGTCAGGGTGCCAAAGGGGTGGAGGGCCACGGGAGGCCTCCGGTCTCCTCTCAGCCTGTCAGCCTTTATTGCGTCGGCTGGACTGACAGAGTTCAGAATCAGAACCCACAGATATGCAGATAAGCACCTGGCCATGGGCCAGGATCCATATTCACACTCTACAGCCACAGTGACTG
0.4013856555359557 AGGGCCGTCCCTCTCCGGGCAGTGGCCTCCAGCCACACTTTCGGGGACCCAGCCAGCGGAGATGCAGGCCAGAGGCTGTCGTCTGAGAGGGCCCTGACCTCTGAGAGGGCCACCTGGGGGCAGCTGACCCCCATGGGGCCCTGGGCAAGGAACAAAAGGCTGATGAGGCCATCAGGCCCCTTCCCTGACCCTCCCTGTCCGGCCCTCAGTGGGAAACAGCCACAGAGAAGAGCAGGCCTGGTAGTGACCA
1 CATAAGCACAATTCACTTTCCCTTCACAGGCAGCAAAGGACATTAGCCACACTTCCTGAACCCCAGGGGGCCAGGCCACCAAAGGTCTCAGGGTTCACTCCCTTCCCTAGCCCCTTGGGAAGGTAGCCTGGAAATGCAGCCAGATCTCGGACCGGTGCAACACGTATTAGCCCATGCATGATGCAACATATTCGAGACAGAGTCCTACAAAATGTTCCCAGCGACTAAGACACAACCCCACAGAAACCCG
0.5082057976357999 AGGTCACGAATAAACTGCATCTCTGCGCCTGGCTCTCTACCACCTCTGGTCTTTGTTTCCTGGAGTTTGGGGGTGATTTGAGGCCACCCCCAGCTTCTCCACCTTAGATAAATAAGGTCAAGGCTCTTGAGATACCTACTTCCCCCGGAAGCTTGCGCAAGCTGGAAGGTTAACTTCAGCAGACAGGATGGGGGTGGGGGGGTCCTCCAGAGATGGTCTCCTGCTCTCTCACAGAATGGGAGAAGCCTGC
0.2335143252384802 AAACAAAACACGGACTTTGAAGCTCCAAGATAGGAATGTACATAATCTGGACCCAAACGAATGGGCAAAACATTCCTAAACAAGGGCAGGGGCAGCTCATTTCAAGCAAAGTAAAAACATGAGCAGCCGACAGTCTCAACAGAGAGGAGGGAAGATGGGGTGCCCGGACCGGGTCCACAGAGCATGTCTGCGGGGCAGCTGCCCCCACCAACCAGCCCGGCCTCTGCGAGTCCCGCTTCCTAAACAGAAA
0.5726425310166849 tccttccttaagtgctacatgacccttggattttcatgtgtgtttaagagtgaggcagagaaggttgactgggagtgttgtgtccacagggggcgctggtgtctggcaggtgtcacttttggggtgctcaggacagaatcagctggcattctggaggcctctgaatgccagactgtgcgttagcggctctagttcttgttggttgattcaatttgtatcagaagagctttcggtattttttgcctggggt
0.09575603342005584 TGGTTTCTGGGAAATGCTGTAGAGATTTGCAGCATTTTTAAAATACTTGTGTTCCCACCCGCCACACACTCCCCTTCACCCTACTCCCCACTCACCCCCAGTCAGGGTGTTTGCATATCTGGTATTTTCCAGAACCAGTCCAATGTAAATAAGAGAGATTAGAAGGGAGCAGAGGGCAGGGTGACTTGGGGTGTCAGGGCAGGCAGGAAGGGACCATGACAGGAAGAGGCAAGGGCAGGCTACCTTTAAG
0.6322002464298965 TGGAGAGTGTTGTTTTAATGAGTGGGGAAAACAGATGAGAGAGTCACTTTCGTAGCTTCCTCCCACTCAACTCCTGCTGTGACAGACACAATAAATGGCAAGTCAAGGTCCAGATGGGGAAATCCAGCACACCCTCTTCTGCACCCCAACTCTCAGTCTGATTGCTCGTAAGTGACTTGAAGTCAGTTCAATGTCTGCTGATTTTGTTTAGTGTGCAAAGTTTATTGCCATACATCCTGAATTTGCCTTC
1 AATTGATTAGAGCCTGGGCTACAACGCATGGGAGGAGCGGGGCTGAATCGCTGAGAGTGGTGAGTGGGCATGCAGGGAGAGTACTCTCCCAGAGAAAGGGGTGCAGTGCCtgtgtgtgtgtgtgtgtgtgtgtgtgtgtgtgtgtgtgtgtgtACATGTGTACATGTGCACACTCGCACATGCACATATGGGCACGTGGGAAGACGGGAGAAGTACTGCAAAGTATAAGGAACTGCAGAGGTTGGGATTT
0.1544393813548668 atcagcacatggttagcttttattttttgtggacaacaaataatactgttttaatggctgaaagtaaatacaaaaagaatagggatgaaattactatgtaagtgatgtgtttgagcgaactatagactggggtgcttactttgcagatggggagctgtacaaataaagatttaaatagagtaaaacgatgggagtagtgagtcatcagacagcttctgtccagtttgaaagaagctgtgcccctcctgtt
0.9602810846200528 ATTTCGCTCCCCGGTGGACGTGGAGGGCGGGCAGGGTCATCCTTTCTCCTGAAACTGGGGAGCCCTACGAAGGGGTTCCGGAGAAGACGCACGGATCTCGAATACCTCCCCGCCCGGCTGCCACTGGATGGCGCGCGCAACCTGCGGAACCACAGGGCGACATCCAGCTGCGGGCGGCGAAGGGAATTGGAGCGTGGACCTCTCCAGGCTTTTCATTCGCTGGTTCTGCCGGTGTCCCGCCTTTTCCATC
1 AGGGGATGGGACGCCCTGCCAAATGGGAAGAAATGCCCCAGCCAGCTCAGCCAAGCTTTACCGCCCTCACTCCCCCCAGCATCAATGGGACACCCCAGAGGCCCCCACTGGCCTCCCCATCACTTTGTCTGCCACCAGAGGGCAGCACACACGGGCTCTGGCACCTGGCCTTCAATCTGTATGGCAGCTTCAGCAGGCCGAGCGTCTCCTGGCCTCCGAACTCACTGCCACACCTCCAGGGTGCCTCTAC
1 ATATTAATGGTTAGCCGGATAACTGGTACATAAACAGGTCACATTAATAATTAACACCAGGAAAAGCTAGCACTTCCAACCAAGCTCAGGAAAGTGGGTGCCAGAGGAACCCCCCGAAAAATATAAGAAAACCCCAGTGGTGATTTCTGATTGTTAGAGAGTGAGAAAATTACTTCTTCATTTTTACATTTCTCATATTCTCACCAAAAAACAGTTCTGAGACAGTCATGATAGGAAGTAAGTGCAAGGA
1 AGGTTCACTTAACCCCCAGAATGGGTCCTCACACGTGCCCTCTTCGGGCCTTTCCCACTATGGGCTCTTACTTTCCAGAAGCTCCTCCAATTCCCTGTCCGCTTCGGCCCCGACACTACAGCCTTCCTCAGCGGCGGCCATCTTGCTACCTCCGACTTGCCGTAGGAGGCGGGACCTCCTCGGTGCCGACACGCCCTCCACCCCTTCGCTCCCGCCCTCTTCTGCCTCGGGTAACCAATGGTATTGTTGA
0.2454591364442703 gacagacgtttgctaaatgaaagctctaGGAATGCTGATGGCTTTCTCTTACCCCATGCTTCTGGGGGTGGGATTCCCATGTATCCCTTTGTTGACCTCACCCCAGTGAAGCACTCAGTCATCACTGGAACCTCTGTAAACATGGCCAAGCCTAaggtcatgcggctgagcagagagattagatgacttgatgttatacaagccttggtttaaatcccaacctctggtgcctcagtcactaacaggggga
0.7149508099258939 AGATGGttgagcaatctacataacctttgagtcttttccttcctttgagagatagaactgacaatggccactctcagggtttctgtgagaagcaaatgaaactaaggttggtgaaagggctttgtaaTGGGAAAGTTTGCTGAACTTGGGGTGAGGGGTGAAGGAGACTTTGGCTTTTCAGAGAAACTAATGAGGCCACTCTGGACCAGAGGCCCCAGCTAGTGCAGGTTGGGAAGGGCTGAAACAGGGC
1 TTGTCATCTTTATAAAGTTCCAACCTAAAACCCTTCCAGGTATTATTACACCCGAGAGTATACGGATCTACCTTAGCTGTTAAAGTCTGAGGGCCCACCCAGAGCGGGCAGATCAGATAAGCACGTCACCCCACAGGAAGCTGCTTTCAGTTGTTTGCTGGGGCATGCCTTGGTATCAGTCACAGATGTTACTCAAAGATGAGACCCCTTCAGCCCTTATTCAAAGCCCTTTTACTCTTCTTTGTTCCAA
1 GGCTTCCTAGCATCCCAGGAGGGGTGACCCTCTCCAATCCCCACCTCCCTAGTGAAGTTTCAAAGGACAGGTTTTTCTGGACGGGAAGGAAGAGTTTCTCTGGGCAGGAGACGGTTAAAAGCTGGGACTACGATTCCAGCCTGGGGCTGCCCCCTCCTGGCCAGCTGTCTGAACCCCTGAATTATAGATGTGCTTGCTCCTGGCCTGGCGAGCAAGAGCTAGTAGGTGCTGGGAGCCAGGCCTAGTCCAG
1 TTCTGAGCAATTTGATGGGTTCTTAAAGAAAGCACAGCCCTTGGAGCTGGGGAAGGAAGTTTGTGACTCATGGTGGTGAATCTAGGGGGTTCCTGTGTGGGTCCAGTGGAGCAGGTCTGGTGAGAGGGGACACTGGGAGCCCCAGAACTCCGAGCCCCTGGGGGACGCCAATGAAGCTGTCTATGAGAAACATGTGGGAAGAGGGAGACAGATGAATGATGAATGTTTTCCACGTCCTTGAGTTGTGGGT
1 aaatattggtgaattttacccacactcattttacaaatgagaaaaatgaggctcagaaagaacaagtcatggccaaagtccatggccatgaattccagggattccagaattcagctcttgcactgccccttactggccttgggagtgtggtctggtcacccctggaccccggttcctcgccataaacggaggcaacagtctatgttcttctggcctccgggactgcgggaggacagttaggaccatgGCT
0.9572710292006401 AGCCTTTGTTCCCCAACAGGGGGAAGTGAACCAGCACACAAGGCCCTTCCGTCCTGCGGAGCTCACTGCCTTCCTCAGCTCCTGGCCCGCACTTCCGACCACACACTGGGGACACACCCTCGGGGGGGCCCCACCCCAGCAGCTGCCCATGTTCACACCTCTTCAGTTATTTCAAACTCCGCCTCTCTCGGCCTGATGCCCAACACTTCCTTCACCCAAGGAGGTCCTGTTCAAATATCACTTCTggcca
0.3137956571199679 CCAGGCCCAGAGGAACTAGGGGCACAGCTGAACTGACCTGAGCCCAGCCCAGGGCCAGAGGGGACCCCACCTGCTGGAGAGGCTGGGTAAGCAGAAAGAGGGAGGCCTGAATAAACTCCCCAACATCCTCAACAAACACCCAGGGCCAAAGTCTGTGGCAACAGCAACAAGAAGCCACCTCAGGGTAGGGCTCTGTGAGCTTGGTCTGGGGCCCAGGCCAGATGGGACTGAGGCGAGGAGCAGATCTGGG
1 GGGGCTGGTTGTAATGGGTGGGAAGTGGCTGTGGCGGGACTCAGGCCTCCCGGCAGTCAGCTGCACAATCTGCGCCCCGAGTTCTTGCCCAGCTGGGCCTCAGTCCCCATCAGCCTTAAGATGGCGGCTGCGCTGACAGGCGGGCCCCAGCACGTCCCGTCTCTTCCTTGCGCAGTGACTGTGCCCTGGCCTGGAGCCCTCTCTGGGCAGCTCTGCATCCGCAGCGCCGCGTCTCTCCCAGACTGTGCAG
1 GCCCAGCCCCAGGCATGCAGGTTTCCACATTTTGGGCAGCTGGGTGGGGTACGAAGGGTCTGGCTGGGAGATAGGATGCCTGGTTCTAGGTCAGCCTCCGTCTCCCACCTGTTGTGTGACCCTGGGTTGTGCCCAGCCCCCAGCTGCTCCCCATGTGTAAGGGGAGGGCCTTCTATGGTCCCTGCTCAAAGCGCCTGGGCTCCATGCTCCCCAGTGGATTCCCCAGGGTTGGGTACAGAGTCCAGCTTCC
1 ggtcccgatctcctgaccttgtgatccgcccacctcggcctcccaaagtgctgggattacaggcgtgagccactgtgcccggcctatttagtacagatttaacgacaagggcttggagcaaacacaatttgtgggtaataaacattgtcgaccccccaagtagagagcagtcctgcaggcgaatgatcaaaggttggtttctgcagacaggagtaaacaaatttatctagataagttcctttacattccc
0.3084367748634659 GCAGTGGTGCGAGTGGCCCCAGGCAGAGAGTGAAGGCAGAGCATTCAGCCTCCTAGTCTGGATGACAGGTTGTCTGGTGGAAGCCAGGCCGTGGAAGGCGCTTGGTGCTGGGGTGCGTGGACTTTAACCTGGGCGGGCTGAGGAGTGTGAGCTTTATCCGGAGGGTGGGGAGTCAAAGGATGTGTCAGAGGGACGTGAGAGAGCAGGTGTTCCTGCCCCTTCCAGAACCCTGGTTGTAAATACACCCTGA
1 TGAGTCACGCGTGATTTTAGCCTCTATTTAGATGGTATTCTGAAAACATGACCTTTGGTGAAATCTTTATTTATTTAGTTGTTGGGGTTTGGTTTACGCAAGAAAGGGGAGTAATATGAGAAGGCATGAAACACATCTGGCTGACTCCGACATCTGAAACTAATAAATACAGTAAACCAGACTGTTAACAAAACATTTTATCTGAATGCATAAAAATCTTAAAAAGTGTTTAATTATATTTACTTTTAAG
0.07322849351142108 CTGGGCCTGGGCCTGGACCCCAGTGGGGCCCCTCCACCCCCCTGCCCTGGGCAAGGCCTGGTCCCGAGCATGAGCCCTCCTCCTGACGCACTGAGGTGCTCCCTCCAGAACCCCATCACCCAGTGACACAACCCCGCCACCCAGTGACGCAACCCCCAGTGACACAACCCTGCCACCCGGTGACGCAACCCCCAGTGACACAACCCCCAGTGACGCAACCCCGCCACCCAATGAAGATACCACCACCCGG
1 ttaccaagtaaatgaaagcaaaaaaaaaaaaagcaggggtcacaatcctagtctctgacaaaacagtctttaaaccaacaaagatcaaaagagacaaagatgggcattacctaatggtaaacggatcaatgcaacaagaagagataactatcccaaatatgtatgtacccagtacagtagcacccagattcataaagcaagttctcagagacctacaaagagacttagactcccacataataatagtggg
1 GAATCTGCAGTCCCTTTGAGCTGGCGCGTCCTCCAGGCGTGCCCTTGCCCTTTGAGACGGACCGTCTCACGGCTGTACACTGTTCTTTCTCTTGTGCAATTGTACCCAGGAGCCTCTGGACAAGGGAGCCCCGGAACGTCCAGAATGTGGCTTCGTGCTCTGCTTCCAGGCTGCGCGGCATCCCCAGCAAGGCTGTTCACACCAAGCATGGGGGACGCACGGTGGACAGCGAGGGCTCCTGGGAAGCCCT
0.778357725765889 TGATCATTTCTGTAAACATGCACTTTAAAGCTCATTCTTTGTCTCTCCTGCCTTAAAAGAAAAAGAAAAAAGTTTACTTCCTGAGCTAATTTTGGGGGGTTTAGACATCACAGATGTGTGCCCCaagcctaggaaggtgaagtgacttgctcaaggtcaaacggttggctagtgacagactaggCGTCCCTGATTCTTGAACAGCCTGTGGCCTCAAGCCTGAACATGCATTTACTCTTTAACATTGAGT
1 TCAGAGTCAAAATTATTTGGCCTGACTTTAAGTGAGGGAGTTCTGCCATCTCTCCTGGACTGTAAGAGCTCAGCCGATGACTCAGGGAGCCCTAAGAATGCTTTACAGCTGTGCTCTGTAAACACCGTCAcgttttatgttgcagaagttcacagtcagccaagagatttagttacctgcctgcagtcaaaagctggttaatgattagaaacaggatttaactgggagcttcaacctcagatccagtgct
0.1876513993521923 CCCTTGTAGGTTGATCCTTCTAGTCTCGTGGCAGAACTTTGTAGACACCAAGCGAGCGGGGCAGCGTGTTCTGGACCTCATTCCTCACACAGGGCTCACCTCCGGATGAGTCAGAGGCCTTAGCCGGTGGCCCAGCCCCGGGAATGCCACCCCGGTTCTGTACCCTGCCCAGGCCAGCTGACAGGGTGTATTGGGGCACACACCTGCAGCATCCAGGGCACTCCAAGGAGAGGGACGTACTTTTGAGGAG
1 attgactgtaaaccgctgtactgtgctaagccttttgtttgcactgtttggcttaatcctcacaacaacactgagaggttttcatttgatgagtcatatttaaagaaaaggaacccaagacggggagtcaggggcacaaggtcacagctggtaaTGATGACCCTGGAATGTCCTCACAGCTGCACACCTGCACCGCTCACAAACACAGCTGACCGTCTCACAGCTGCACACCTGCACCGCTCACGAGCAC
1 ATATATACATACTGTTAAAACATACACATGTGCACACAAACACGTACAGTGAAACCAGATTTTGGAGTTTATCGCTtgccaaggttcaccccagagcaaatatttactgcggagttacaaaattttcctgaaggagaaccaaaatggaagcgtttacaTATGCTGCAAGTACTTTGTGTGCGCAGGGGCCACAAGAAAGATATAGTTTAATAAAAACATTTATGGATTTTGAAAGCAAACACAATCCAAG
0.1573726021597201 GCGGCCGGCCCCGGGAGCGTGTCCTCTCCTTGCGCCCCACACAGTGCAGTTCATTCATGAGCCGCCCGGGCCTGCGTTGGAGGGTGCGGTGGGGAAAAGATTCAGACGCGAAACCGAGAGTGGGGCAAAGGCCCTGTTGTGGGGAGGGGGCGCCGCTTTGTCCCTCCTGGCTGTCTTGACCGCCTAAGGCGGACAGTCCCAAAGCTTGGCACCTTGTTCCCCAGAAAAGGAAAGGACGCTTGGGAAGTGG
1 aatcctgtcgccaccatgaaacaaatctaggctggcctgctggagtacaaagatcacagagtatagctgaatcatctcagccagactcccctagaccaactgttccccagttgagccaccagctgcctgcagacatgtgagtgagctcagtccaaaccagcagaactttccagctgacctatagacttgtggctgttgttttaagctgataaatgttgggttggtttgttatgcagcagtaactagctga
1 AGGGGGCTCCTGCGAACCCGAGTCCAGGAATGGGCGTCTTCCTGCGGTAGCCCCTGCCGGCCTGGGCTTGCCCTTCGTCCACCTTCCTCTTTCCGCGAGGGAGAAACAGATCCTGAGTTCAAAATTCCAGAGCTGAAAGTCCTCTCTTGGATCCTTCTGGAAACAGCAAAAGCCCGTTTTTGCTGAGAAAGTGACTCGGCAGCTATCCGGAGCTCTCTGCCTGCAGGTGGGGCCATTCTCCTATGGAGCC
0.2766553730951599 AGTAACCCCAGCAGTGGGCAGGGCAGCCAGGTatccatcaagggtagagctggctcgaggctgcacttaaggtttccccctattttagttgacctgttcctaggtcagagtcccctccagggccccaggactgcctctagcaggctctgtaccccagattttactgtcccagtcctgaatctgccttaaaaaaagttttaacagcttttcagcttcttagcTTTCCTTTtctgctcagtgtctcaacctc
1 TAAAATCTTTACTAAATCCTTCTACTTATTTTAGGGTGTTTTTGTTTGTTTTGGGGTGtttttgtttgtttagtttttagagagacaggctctttccctgtcacctaggcaggagtgcagtggcatgatcatagctcactgtaaccttgaactactgagctcaagggatcctcccatctcagcctacaaagtagctaggactacaggcgcacaccaccactcctggctaatttttaaatttttttgttgg
0.7691269831803395 GAGGGGTCTCGCTACTGCATGGCTGGTTCTCTGTGGAGAACATGGTCACCACAGCCtcccggctcccaccctcactcaccgcgtgtctctgggcaggtggctgaacctctccaaccttggtcccctctgtaaaTATTTGGCACTGTGTTTTCCAAAGGATTAAGCTGCACTATGGACTTGAGTTTTGCCTGGCAATAGCTGGCGCTGGCCACGTTTAACCCCGCTAAATAGTACCCGACTCCAATAAACA
1 AGCTTCACAGGGCGGCCAAACTAACTCGCTGATTTTTGCAAGACCACAGTGTAAAGGTCGGATGTCCACCTGAAGAAGGGGTGGGTGCAACTCTCTGGGTGCTGCACACACCATGACCAGCCTGGGCATGCAGCACCCCAGCTCCCATCCATTCACACTGGTTGCCTTTGTGAGGTCCATTTTGAGAGGGCTTTCAGAGGCCTTTTTAATGAGAAAAAAAAATAGCTGTTCTACAAAGAACCTAAGATAC
1 CAGCCCAGCTCCTACCCGCCGGGTCTTTCCCGTTTGTCAGGCAGGCCGGCAGGCTGGGCTGGTGACTCATGACTGGCTGGGCCATCTGCCCTGCACCCCTGCCCCGGGCGAAGTGAGAAACCTGACCGGGCTCCAGCACAGACAGGAAACCCCACCCCAGGGCCTGCAGTGGGACAGGTGTGGCCGCCCTCCACCCCCACACAGGCCTCGGGGAGGGTGTCTGAGGCCGGCCTGGCCCTCTCTGCAGCAC
1 attaaggttcaaagggaaaaaataatcagcttaagcatacagATTACATCTCCAGCTTATCTGTCCATCCCTCACTCCTGTCTTACCACTTCCCTGAATTATTCTTCTCTGTTTAGTTTGCCTGGTAAACCCCATTTCTTCTGTTTGTTTAAACTACAgtttctcaacctcagtgttattgacatgtggggctggacaattctttgtggtgaggggcagctctgtcccttataggatgtttaacagtatc
1 CTGGGTTTTCCTGGTGGGGTTTTTGTTGCTTAGCAGTGAGCAGAGTGAGTGGGCACCAAGAGGAGGATGCTGGGTGAGGTCACGGACATGGCTGGGGCAGGCTGGGGGTGCTGGAGGTGAATTCCGCagctgtgcgaccttgggcagtttgcccagccctgggcctcgcttcctcctctatgaaatggggcgggagcacctgcctgctggggttgtgggttgggtgaatcggagctaaggtaCAGCTCAC
1 TGCGCATTTTGCTGCAAGAAAGACACGAGTTAGAACGTGCTGAATTTCAATCCCGGAGCCTCCCAGGAGGAGGCGTTCATTTGCTCCCCAAACTTTCACTGTGGTGGCCAGAGTTCTCAGCCCAGGACACCTCCTGTTGAGGACCTGGGAGCTGTCTGGGATGTTTGCCTGTTTCTCACTCCTCCACCCCTTCCCTCCCCTCCAGAGTAGCCAGTTCACCTTTAACCAGTTTCTTTCAGGCGCGCAGATG
1 ACATCTTTCTGGCTAAGGTCTTGCTTTGGCTTTCTTTGCTTCACAATAGAGTCATTGACCCACGCTGGAGTCTGTGGGTGGGACCACAAACAGGAACATTCACACGACAGAACAAACATTTCTCCGTGCAAACTGGGATCCCTGCACTTTCAACTTAAGGGCTTGCTGATGAACGACCAGGACTTCGGGGTGATTAGCCCCAACCCTCCACCAAATGACTGTGTTTGCTTCCTTTCATATTTTGACCCCG
1 ATGAATAATATGGAGCTGGGGACAAAGTCCCCTCTACTTTCTGCGGCTGTCACTGAAATGTCAGCAGTGGAGGGAAAACCAGAAGAGAAAACCTCTCACTGACAGGCGCCCTCAGTGTGCAAAGAGCTCAAGTTTCAGTGCTGGGGTGGGGTGGGGGCTGCGCCCCTGCCTATTCACCCCACTCCTCCCCTGGGCTGCTCCACTCCCATGATGACTGGGAATTTATCCTACAACAGGCCACGAGCTCCTT
1 ACTGGCACACACCCCTCCGGACATCCAGCGTGACGGAGCCCACACTGCCACCTTGTGGCCGCCTGAGACCCTCGCGCCCCCCGCGCCCCTCTTTTTCCCCTTGATGGAAATTGACCATACAATTTCATCCTCCTTCAGGGGATCAAAAGGACGGAGTGGGGGGACAGAGACTCAGATGAGGACAGAGTGGTTTCCAATGTGTTCAATAGATTTAGGAGCAGAAATGCAAGGGGCTGCATGACCTACCAGG
1 ATTGCAGACCATTACATGTTCAAAGAAAAACGGGATTTATTTTTAAACAAGCAGTTTTACATGACATTACTTCAGGAATTCATTTACTTCAGGAATGGGGTACCTTTAAAAATATTTGCATTTAGGGTGAAAGTACACATCCCAGTTAGTCTGCTCTGTTTCAGTGGCAGTATCTGTCTTGCCTACTAGCAGGAGAAGACACATAGCAAAAAAGCCACCTTGATTCTTATTTTTCTGGTGGTGGTAAATG
0.5486632511467135 CAGACGGAGGAGGGTCAGCCCCTCCCGGGGCAGGGCAGACATTGACTGGGGGCAGAGTAAACATGGCCCAGGGTGACCAGACAGGGGGCGGGCGGGGGGCTGTAGGAATGTACACACAGTCACCCCGAGAGAGCCAGTCCAGACACACAAACCCCTGTCACCTTGGCCacagagagactgccagccagggacacacagacagggtcagacatacagCTGGGTAAGATGATCCAGCAATGACTGTCACACA
0.1943612792278623 AAGTGGACTATGTACCAATCTGTGGGTTTCTGCATGGCCAAGAGCCAGACCCTCCCTCTGGGCTCTGCTGGCCCAACCCACCAAGGGATGCTTTATTTAAACAGTTCCAAGTAGGGGAGACCAGCTGCCCCTGAACCCCAGAACAACCAGCTGGATCAGTTCTCACAGGAGCTACAGCGCGGAGACTGGGTAAGTCAACGATCCCCAGAGCTGGGACAGAAGGGGCAGCAATGGGGCAGCAACTGAGGGA
0.01230321582035093 AAATATTACCCCAGGGTGAAACTTACCACTGAGATTGGGTTGAACAGCCAGTGGATCTTTATTTACCCAAAGGCAAATGTATTTGATGTATTAGCCTGGGCTCTCCAAGGTGGGGTGTTGGATGTTTATTTGCTTTTATGGGGTTACTCCCCCTGATCTATCCTATAACTGCTGAGTGCCTGCTATTTATGGAGTTTGCTTTTTCCAGGAGAGAGCCAGCAGCTTGTAGAAGCATGCTGGGTTACATAAT
0.009977008828743819 CGGCCCGTGGATCTGTCCCTCCCCACAGCTGTCCTGCTGATCAATGGATGCTCTGTTCTCTCTGGCTCCCCTCCACGTGTCCCCGCCTAGCAGGGGCCATGGCCTCACCCCGGGGGTGCACAGGCCTGTGGTCAAAGCAATCTCCATCTGGCCACAGGGAAGTTCCGCCTCCACAACTATGACAATATTTGAAATTCTTCAGAAGTTGCATTTTATGTTATCACACCCATTGGGTCCTGCCCACCTTTTG
0.2528656327664675 GGACCGCGGGACTAGGAAGGCCTGAGCCCGGCCACCCGCCTCCGAGTGCGCCGCACCGTGCGGCGGGGACCACAGGCCTTCGGTGGGCGGCGAGCCCTGGCTCCCTCGTTCGGTGGCCTCTGCTGCATGTGGGATGCGCCCTTTGTCCCCTCTGCCATGCGCGGGGGAAAATGTTTGAGGGCGGGGAAGAGACTGTCTGCCCTCATTTGATCTAAAACATGAATTTGTTTGCTTGGCTAAAGGCCGGGGG
0.9725741022471612 GAGCAGCGGGCAGGCGGGCCTCACTGGCCTCCCAGGAATGTGGCTGGGACGCCCCAGCTATATTTACTCCCCTCCAGCTGCCGGCCCCAGCAGGGCAGAGCCAGGCCTGCCTGGTGGCCCCCGGGGAGCCCTGTACCCGCCCTCCTCTGTCTGGCAGACCCTACATCGCCCTTGGGCCCAGCACTCCCTCCCTTGCCTGTGACCTTTTCTGACCTCCTCAGACGTGCCCAGCCTGCCAGCAGGAACACTT
0.3028312647592742 GCCACTCACTGGGAGATGGTCAAGCTGGGGAATGTCAAGATCTGGGAGTTGAGCAAACACATATCCCTGGGACTCCACATTCCTCAGTCTGCAGCCTGGGGCCCAAACCCACCAACGCACCCCGGCATTGTCTAGCAGTGGCCCGAATTAGCCAAGGGGCAAGATCAATATTTGCTGGTACATATTGGGTCCCACCTCCGGCAGCATCTGTGTTTGGACAGTGCTGCCTCCCACTGCCCAGAATCTTTTC
1 GGCCCGCAGACAGGAGCAGGGCCCGGACGTATGAtctggctgtgcccctcctggcggggtctgcagggccgagggggccacccagagctcatgtccacctcccacctgatgccccagcacccgggaccccagaattccctgagcgcacaccctgaaacccccttcgagTCCTCCTGAGGCCTTCCCAGCCCTGGCGTGGAGGCTCCCAGGCCCGAGGTGGGAGGCTCCTCCCTCCCAAAGCTAAACAGGG
0.8845972136046627 gcctctgccctggcctgagcaactagattgtgaccatttactgagataagaaaactgaggacgaagcaggtctggggtgaatcaggtgctatccctttggacagtcacatgactggtgtctgttcagcacccaagggaccatcaaagaggctgttgtggagagggaatccgaaggtcagggccagagatagaaatctggggagtcatccactatataggtgatgggttaaagccttagaactCTTCTTTT
1 TTGCCTGTAATCAGTGAAGGGCTGTGCACCTTGTACTATTTCACAATGGGTTCTGCTGGACAGATAATGGGCCAGTGTTATTGAGGTGATCAAGATCTGTTCCACAGGGCTAATGCCACCATCTCCCCTCAAAATTTTGTAGAGGTTCTAAAAAGAAAGTGGTATGTTGTGTGATGATCAGCACTAAGTCCTGCATTCCTGTTAAAGCCACTTGGGTCATAAGAAGGGAGTAAAAAATGAAGTCTGACTA
1 CCTGCCCCGGACGGGGCCTCTTCCCATCTCTCCTCCGTGGGCACTGTGTATTCTACCAGATGTGCACCCCTCCCAGATGTGTGGGGCCCTCTTTCCCTCCTGTGCCATGCCTGGCTCTTTTTCTCAACCAACAGAAGTCGGGGATCTGGGGGGCAGAGCTCCTCTGAGCTCTGTCCTTGGACTGCATTGCAGTAGAGAAGGGGTTAACTTGCCAGTAGGTGACTCACTCACCGGTGGGGAGAGGAGGGGG
0.6740441421656629 CTAATTTTTAGCCATTGACACAGAACCCCCAAGTCAAGTACAGCAACTATCAGTGGCCTCTGTGTCTACGAATGGCCTCCAATCCAGGGGGTAGGTAATAATTAACTAATTTTTAGCCATTGACACAGAACCCCCAAGTCAAGCACAGCAACTGTCAGTGGCCTCTGTGTCTATATGAATGGCCTCCACTCCAGGGGGTAGGTAATAATTAACTAATTTTTAGCCATTGACACAGAACCCCCAAGTCAAG
1 TCACCCCTCTACCTACCAGCACTGCACAGAGGGCTGAGAGGTCCCTATGAAGGGACTGCTATGGGGACATCCTCTGGAACCCATACATCAAAGGGCTCCTGACCACTGGGTCACAAGTCAGAGCCCTGAAAACAAACACCAGCCTTGAAATCTCAAACAAAGAATGCTTAGAATGGGACAGAAAGGTCTCCTCTTAGACCTGTTGACCTTAGTGGCTTTGGTCCTGGCAATATCCAAGTGATGCCTTCAA
1 GTATCATGTTCATCCGTCACATTGCAAAGAGCAGGGCCAACTGAACTCTGTCGAGCTGCCAGCTAGGGAGCAGTGTGGTCTGACAAATCACATGAGGGGCTGACAACCTGGAGTTGTGGCCTATGGAATGTAAGAATGTCCTAGGCAAGGTTAGCATGAATGGGGTTCAGTATAAACTACTTTCCCTGGAATGAAACTGTCCAAGTTCAGCAGGTTACTGTAAATATCCTTAGGAAATAATTAAACCAAA
1 TAGAGAGCTTAGCTTTTTCAAACGTTTGCACGTCTAGGTGAGCCATCCTGAAGGTTAATCATTTACACCTTTAAGATCCCTGTTGCCATGACTGGATCCTGGTGGTAGCATCCAGGAAACTCTAGATTTTGGGGGGGCTTTGGTGCATCATCTGAGTGCTACTCTTGGCATTGGTACTGTTCGGTCATGCCAGAGTGAATTTACAGCCACAATTCTAGCCTAGATTTCTGGTTATATAGTAAAGCCCCCT
1 ggttggggcattttaagggctcagtaaatattagctatATAAATAACTTATCCAAACAGGTAAGAATAGGCTATTAACATTGAAAGCAAATATTGACCATGATATATTTTATTTGAGTAGGGGTGCGTGAGGATCCCCACTCAGTGCCTTCCTCTTACCATTCCTGGCTGTGGTAGAAAGGCTAGATGTCCACCAAAACCTCATGCTGCACAGTATGGAATTACTACTGAGAATCTGCTGCCCAGACAAA
1 TCCCTCACGGAACCATCACTATTCTGTCGAAATTCCCAACTTAGCAGGCCTGGGTCTCCCTCCCTCTGTGTGGGAGGTGGGTGGTTGTTGAAACCAAGGACTTTAGACCGTGGGCTCCTCCCGCCCCTGCTCTGCTGATGGAGCCCAAGGTATGAGGTGAGCTGGGGCCTGGGAGGCCAGTTCTCAGGGTGACAGCCACAGCCATGGGGGCAGGGGTGATGGCTGGGCTTACATGACACCCACTCGTCCC
1 TGATATAGTCCCTCGGAGGCAGTAAGGGATGTTGGAAACCCCACTGTGTTGGGAGGCACAGCAGGGGACATGGAATTTGCAGAGCCTCTCCAGACCGGAGCAcccctgacctccatgtgaccctgagtatgttattatcctctctgaccctcgcactctctgtgtgtgagatgggggcaacagtacaccccggctcagcctcctgctatgagtactccgtgaaagaatttaacaaaaacactgagaacag
0.5925358046509389 cacacatttgttgagtaagtATCACTCTGTAGTTTGTGTGTTTCTTTTAACTTGTAGCGAAGTAGACATGGATCTGCTTTGACCTTTGAGACGAATGCATGGAGATCTATTGATCGGATGGGCCACGTTTGTTTCCCACACTTCGTTGAAAAATTGGGGGTGAAAAAAACTGGGAGTGAAAAAATGGCCAAACCAAAAGAAGGGTGAGTCATTCCCTCCTACCCCAAAATACAGAGGAGAGGGTGAAGAA
1 TCCCAAAGCTAAACAGGGCTTCCGGGGAGGAGAAGTGGGGGGAGCTTCGGGCTCAACTCTCTCCCGGGCCCCACAAAGGTGAGGGTGGGCCTGGCAGGGAATGGCCGCTGGGGAGCAAGCCTGCATGGCAGCCGTCAGCCTCCTGCGTCTCAGGCTCCAGAGGAGACCCCTTCAGCCCCCCTGCGTCTTGGGCTCCAGAGGAGGCCCCTTCTCCATGATTCACCCGAGAGAAGCAAGGCATGGCTGTCCC
1 CACCCCACCCCTTCGACAGGGACCTGAGGGAGCTCAGGGAGGGAGAGAAGCCAGAAGACCAGGCAGAGACTGAAGAGAGCTGGCAAGGCCTGGCTAGAAAAACTCCAGGCAAGGCCTGTGTAAGTTGGGGCTCCCAGGCTGTCCAGCAGGGGGCCCTGGCACCCAGCAACCTCTGCTTGGGAGGTGGCTACAGAGGGGTGTGGGTGTTGGCTAGGGGCCCAGCAGGATGGATGCCAGACGGACTTCTCTC
0.1978426874077835 CACGAGTCCCCCTTTACGCCTCCATAGTGGATTACCGCGGTGCCCGCAGGTTTCGGGCTCCCCTTACCCGGCTCAGGTGGTAGCCGGCGTGTCCCTGAGTCCGCGCCCGGCGCTCTGAGAGGGTGGCCGTGGTTAATTCCCGGTAGTGACCGCCATAGCGCCACGTGGCCACTGCTTGACAAAGGAAACTTTTTTCAACCTCCAGTGAGCCTAAGAAAGCCCCAGCATTTCAGGCCAAGCCGCTGGCTGC
1 TCCTCGTCACTGTCCCTTCTCTGCCTCATAAAGGTGTTCTTGCTCTTTCTCCTTTCTAGCCAAGTCTCCTCCCTCCACATATGTGTTCTCATCTAGATCAGTTTCGATTCCCGCTGGTGGAAAGCAGCCTCAGGCAGGGCCACTGCGCAGGAAGGGCGGGCCTGGGTGCAGGCGGGGCTCCGGGAGTCACCCCCAGACGCGCGGCTCCCCTTCCTTGTCCTCCGCATGACGCCCGTGCCGGAGCCCACGT
1 CCAGCTAATCAGTTATCCCATAAGAAATATGCAAACAAGATTCACACAGCAGAGAGCAATTATTTTTCTCTCCCTCTTTCCTCTTTGTCTTAATAAACGCTCTTTTTTTATTTGTGGGGTGAAATCAATCTATTGAGGTATCGTCTTTGTAAACACATAAACAGCGTGCTATAATTGACTTTGTGACTTTGAATTATTGACACTGCTCTGTTTCTTTTCCAAAGAACCTTTGCACTGTTGAAAGAGTAAC
1 tcttttaaagaattcagaacaaaggcaccactcacccctttaggggtgtctgttttctttgtggagttccaagagttgtgggcagatttttttctcagtccaaagctctgttttcctatgttgaatgacctgatctctttggctttgagattaccacagattaccttgtactgtgagaggattttaccttggcatgtgtaatggcagacgagttacaaagtagggggtggctgagtacagtttactggaa
1 GCCTGACCACTGCTGCTCAAGGCCGTGATGATCCCAGGGGGCCACCCAGTCCCTTTTGAAAGCCTGAAAGCTGCCGGCACCTCTTTCCTGTGCCCAGGTACCCCTAGGCTGCCGGAAGCGATGCATTGTAGCGCTGGCCTCCAGGATTTCCTGCAGTGGCCCATGGGCTGGACAGGTCTTTGAGAAAACCTCCCCAGAGGACCCCATGCAGCCTGGCCAGGGTCAGGCCTGGGAGTCAGTGAGAGGGTTG
1 gagaagcgagcactgggatagaaggcaagaagggataagctaatgctactgttttgtgcaaatgcagtagggtttatgataaggactgcctttatctataaagctgcctacctcagaaccttgaagggaaaagataaacaccagctgccaggtatttggttttgcaacaaggctggaaagaacccctttttccggactgcttccattgatgctttgtccgtgaagtcaggaagtaccttgccttgccagt
0.3531253037560678 ACACATATACATCGAATGCTAATAATCTACAAGGCAGTATATGACTATAGCTAAGTGATCTCTAAACCCTGTTTTGACCCTGAAATTCCATTAGGCCATGGAACTAAGTATACAAACATTGAGTTCAGGGAAGACTCTTTGGGGTTCATCAGTATCAGAAAAACAGAAAATTAAACACACACGAGCTTACCTAAACAGGGCTTTGTTTTTCCAGCATGAGTTCTTGCGTGGGCAGTCAAGGGCAGtcaga
1 CCCCCGGAAGCCAGCAACGGGGCCTTCTGGGAAGCAGGAAAGACCTCAGCAGAGGGGGCACCATAGGAGCACACTGGACATCCGTCCCCAGTTGAGGGTGTAGACACCGGAAGTGAAGACATGGGGCACCACCTCCCTTTCCAGACTCTGACCTTGAGAGTTTGTGGGTGGCTGGGACAGAGAGGCCCCAGGTCCACCCTCAGTGGTGACTTGCAGCCCTGGTGCAGGGCGGGACCGTGACATCCAGGGT
0.7840646731531091 GTCTGCCCAGCAAGACCAGGGGCCACCCCCAGGTGCTCCCCAGGGGATTAGCAGCTTGGTTCCCCAGCCCACACCCCTAGAAGCTCTGACCCTATGGCAACAGCACCCCCTGCTGGCTAATATGGAAAACCAACCCCTTTCCCTCCTCTAGCAGGCGGAAGTTTAGGGGTCTTGGAGAAAGAGAAGGGTGCAGGCACAATGCTGCGGGAAAGGGTGGGGGCAGGAATTCAGGATGGACTTTGGCTATGGC
1 agtgagccatagcctgggagacaaaagtgaaactctatctcaaaaaaaaaaaaaaaaaaaGAGTTGTTTTCCatctgcacacaaggccaggccccccaaaaaaatgccctcaaacactagagaactttgtgaaaagacctgacagttgccaagacttgcgaaaccaaaacgggataagaaaacaaatagcatatgtatgaaagacttaatctcaagtcagaaatggctgatttaaaaacttgtgtttata
1 AAGTTACTAATTAACATGTATCTTAGTAGGAGTTTGGGGTATTTGTTCAGGATTGCTGATCTCATGGCTAGATTAGTGAACATTCACCCCAAGAGTGAAAGGCTCTGGAATTTAACCACAAGCTTAGGCTTTGAAGATATGGTATCTCCCACCCATCTCCCTCTGATGGCAGATTAACTAGGCGGTGGGCAGAACCAACCCTTCCACACGCCAGCCTGTCTTCCTTAGAGAGCACAAGTGCATTTGCCCA
1 aaaagatagatatccatcaatgtgaaactggctgaataagctgttctacacctgccaccccgcaactggagttctgcacggggctgaaaggaatgtgggtgctccgtctgcagctagtgagctcttggttgcctcactgtttactggaggtgcaaggtgcagaactgtgtgtgtcatatcccatcacttacctgttgattggttggcagagtatgagcgtacacgcatacgcgcatgcacacaaactttc
1 GAGTAAAGGTCGGTTTAGAACAACACAGATTGCAAAATTACACCATTTGTTTAAACAACATTCATTATTGATTATTCAGCATAGGGGCTGATAGAAACGCAAACAGTGGCAGTAATATCATCTATTTACGTAGGCCCTTTATAAATGTGGGACCATACCCTCTGTTTAGATCGGAACAATTGTTCAAATTTTCCAGCTCTGTTTTGCAAGAAAGTAAAGATGAATTTGGCATCTACTTCCTTGTGTCTTT
1 GAGGGGAGGAGGGCGCTGAGCGAGCCGGGAACCTCGCAGGCCTGAAGCCGCCCGCCTCGACCCGGGGCGTCCAGCGTGGTGAAGTGCGGGCGTGGAGCTCGCCCTCTATCCGGCTGGAAGGGTCTGCGTTTTGATTTGTGAGGATCTCTGCATGTGTCGCGCTCTCTGGTTCCTTACGGGAAGGCCGAGGCCGCTAGGAAGGGTTGCACGGCCGGACTCCTAACAGCGGCTCTCTGGCCTGGCGGGAGCA
1 GCATCTATATTTTAAAACCAAAGGTCATGCCAAGCACTTTCTTCTTAGGCTTGTATGTTGTAGAGTTCAAAGTTCATATCAACACGTGTAAATCATTTTCTAAAGAACCGTAACTTTCCTCTATTTGAGGGAGCAGTGATGCACACAGAGCCCTCAAATTTCGGCTTCACATGGCCTTCACGGATTCAGATTCACATTAGGCCTGAGTTTACAGCCATACAACCCAGAAGGCTGGGAAAAATCCTGTGAC
1 GCTAGGCAGTTAAATGACACAGTCCATGCCTTTTGGGACTTAAGTAAGCAGAGGGTCTCAAAGAATAGGTCTTTCTTGAAGACCAGAATAAGTCTTAAAGAAAAGGTGAATCTCccagggagcttgttcataatgcagacttgtgggttctaccctagattttctggatgtggaacccagaaattgacatttcaaacaagtgcctgtgatactttgatcatacttgaagtttgaaggttactgCTCAAAA
0.09185277677529341 TGCAGGGGGCCTGGAAAGTGGCAGAGAGAGCAAATACGCCAGCTCCTGAGCAAACCCAGCGGGACGGGGAGATGACAAATGATGGGATTGTGTCAGCTTGAGAGAGATTGGACTAATGGCACGCGGACTTTGCACTCTGAGGATCAATATTCCATCAGGCAGTGGAGCGCCAGCCTAGCGAGTGGCGTTTATGTGGACAAAGGCGAGATCCCCCCATAGTCTGTGCACACTGCCCCGGCGCCGGCCTCCG
1 TAATTAGGTTGTCATCCTGGGGCCTCCGAGCCAGGCTTCCGAACGCCGTCTTTGTTGAAAGTTTTCCAGACGTCAAATATTTGCAGAACCAGGTTTACCAAAAAGGTTGTTAATTCCCAGTAGAAATGGGCTGTGTGCAGCAGAGGCAAAACAATGCTGCAGGTCAAGGTTGGCCTTTTCTGGGTCCTTTCCCCCATGTGGGTTCCATCCTAGCTCCCCAGTTccctctcccctcctcctccacactgcc
1 gaaaaagaagcagcagaagaaaagaaaaagaaaaagagaaggtagACTCTGCCTCAGTCACGTTGGGCATAGAAGGGAAAAAGGCCAAGCTTCAAACGAACTCTCGTTCCTGGCAAATCCTTCAGGCTTCTACTGCCACCAGCAGGGACACCAGTCAGGAACGGAGGGGACCCCATCTTCCACCTGCCTGCACCCCGACTCCTGGCTCTACGcacagcatccaggaatctcaaagaactggaggggatat
0.7213052755914902 TAGGCCGTTGATGTGGGGCTTGGGGTCAGCATCAGGGCTCTACAGAGGTCAGCCATGTTTGTACAGATGGGCGAGTTGGCACGGCCCTCAGAGGCCGTTGTGTGTTTGTGTATGTGTGAGCGAGTGCCCCGCCCAGGCCTCACCTTTGAACATGGGGCTGATCCTCCAGACCCCCAGGCACCCCTGGCTTGCAAACTGGCCGAAGGAGAGCTCCATGAAGAAGAGGGGGATCCCGCAGAAGATGAGCATG
1 TTTAACAGAATAAAATTCAATTCTGCTTTGAAGTCTTTATGACCTCCTTTACAGAAATGGTGACATTGTGGGGTTCTGAGCGCACCCTGAAATCACAGGTCTTGTGTGACACTGTGAAAATTACCCAGAACCCTGGGCACCCACTCCTCCACTACGGAAGTCACCAATGCTGGCAAATAGCATAACGGGCTTGTGGCGCCCCCTACTGTCCACTAGGCAAACTGCATCACCTTCCTGAGCTACGTTCCAG
0.9790450657958856 ggcttttaactattttatatgatttttagagctgactatgacatgaaccctaaaattccttttccctagtaggtggagaccaagagaaggtactgccacatggttaaaaggtcaggctcccaaggacataaaacaaggggagacttcatcctgtttgtttgtttcagggacctgcagctgtttgttactgaccagtttgctgggtcatgttgaaaagtgggctcacaggtgttctaagcccatgtttcat
0.1472227195065934 GGGCCCCTGTAACATCATCGCAGGGGTCAGATTACAAGGCTGGGAGACAGGGGCCTTCAGAGCCACGGTAATTGTCCCCACGTTCCGGGCCCCTGCGATGCCCACAGACTTCTTAATGTCTCTCTTTGTAACACCCCAGGGCCGCGTGAATAGCGGGGAAGGTAACGTGACTGCGGAGCTCAGGGCCGGCCCGGGAGGGGCGCGGGCCTGGCCAGTGGGAAGGTCGGACGCCGAGGGGCGAAATCACCCC
1 ctttgatcatccgcatgcattactgctccctgaaaggggggacagtaatgttaattacccacagactgtgtttgctccaggctttcggcattatgtctgtactgaataaaagcaagcagctccagctgttcaaggctgctctcttcttcggccactagtgctgggcagccccctagctgctgttacactgcttatctgtgtctgagtactcctttcatccgttgctcgactagggtctgtgggacagacc
1 GGGCACCTCCAGGAATCACAGGGAAACCAACTCTCTAAACAAGAGGAAAGGAACTCGCCCCCGGTGGACTTTGGATTGGCCGGTCCCAGCTTCTGCCTACACATTGGGCTGGCTGGGGAGGGGCTGCGGCTTCTGGGGACACAGGGACCCAGGCTTCTCCCAGGTCCCCCTGAACTGCTTGTGGAGCCCGTCATTCCGCATTTGTGTGTCACACACGATTTCCTTGAGACCTCCGCCCCTCTCTCCTCGT
1 GAGCTGCCGCCTTTAATGTTTAACCGAGGTCACTTTCAAGTTTACAGGGTTGTGTTTTTTTTCCTGTTTTAAGCTTCACAAAAATATCTTTAAATCACTGATAATGCCACCCTTTTCTCCAAGTTTGGGGTGCACTTCCCTACCTCCCCCTGTCCTTGAGATCTGGTTGGAGGGATAAGACATATCTAGACGAAGGTaactgaaaatcctagctgaaactgaaactgaaaatcctaactgaaactCATCA
1 TGAGCTAGGCAAATTCTGCTTCTCTGATCATATTCCAAGTGATGAAAGGTCATCCCTATAGTAGATAAACCATGTGTACAGATGAGGCTCATGGTTGATGATTTGTCCCCAGCAAATGACATTTACTTTGGGGTGACTAAAGCAGGAAAGCAGAAGAGTAAATCCACATGCTGATGATATGATACAACACTTGAGAGTCAAATTTCTATTCATCTAAACATCTTTAAAGGCTAGTGCATGAAGGCACTGG
0.002218688483354945 gagcagtggtgtcatcacttgccaagtagcctctggaaaactccactgtatgtttgtgagagagtaagggtgtaaaaggcaaataatgtcctacttctattatgaaagtaattttgacctcttggaaccctacaaagggttccccaaggggttccctaaccacacattgataactgttAAACAAGGGTAATATTTATTCTGTGGAATGTTAGGCAGCTTTACAAAGCAATGAGATAGATATATATTGCCA
1 CAATTGTacctggttatcatccatggaaaaagacctcgtggttttcattaacctgaacctcaatatttgcctgcactgtttgtcttctagaaaagtcaacataaaactggctttgcgattgacgtgtagggtacagatctcaggaagtgattcatttaccatacaccaatccacacctgaaatactgtattccacttatgaggccacctttaggagtgaccctgataaagatgagagcaataaggcagga
0.5512720905314444 CCCTGACCCCTGGAATCTCAGAAAACAACCTCATAACAAGGCACAGTTTGCAATATGTGTTTGTTTAATATTAACCAACCTGTGAAGCTGAACAGCCCCATGGTACATATTTACCCCTGAACCTGTCATCAGCGCCAGTGTTTAAACATGCAAGTGTACTGGCAGATTTGGGGGGTTGGTTGGCTTTGCTTTGGGTTAATCTTTTTTGTGAGATTGATAAAACATGAAGACCCAAAGATGTACCACGACA
1 GTACACACAGCCAACTTCCAAACTATACTTGCTGATCAGTTGAGAAAAGTGTTCCTGTCTCATTTAGTTCCCAAGGAGATCAAGGTCAGTTCTCTATGAAtgtaaaccaaaaataaaattctaaggccccccaaccttctgaatggacttccttctcatccagggcactgttaaaatttaacctgaggctggttcaggccgtgatgggaagtggggttcagacatactcattaaaccctcactggcctta
0.8110404656061073 gtgggcactgaagagccagcttcctctttgggttggaatattaggtatgaagcagtggtgctgataaatgtttcacaactggttgggggtttaggggacaggggtaaaagtcctgctttcttgtgtttcccaaccttcgtggtgtgaatatccccactgtggctgactttaagctagcaaatgtgaggtcactgaacacagagataagaagaaatgtggccgggcacagtggctcatgcctgtaatccca
1 TGCCCGGGGCCCTCCCTCACTTTCACACGGGTTCCCAGCAGGCggagcaaggaaaggccaggctcggagtccaggctcagccttgtgcacgagggcgagcgccttcctttccaggactcggtccttctctgtgaaatggggatgaCCGCGACTCAACCACACCAAAAAGGTGGCCAGAGTGCTTTGCGCCCTCTTGGCTGTCTTTGGCCGCCTGGCTTCCAAGAATCCAGAGGGCCGGGCCTTTCTACAG
1 ggtgaatttttttttaatggcgagttctgtgttatgagtattttaccacaattTTTAAAGGACGGAGGAGATGGAGGGGTGCGGAGATGGAGGGGTGCAGGGACGGTGTGGGGAACGGTGGCGCCACCTGCGGGTACCACGCTCCGTGCCCACTTCCTTTAGGTGATGCCAGCACCCGGCTAGGAGCGAGTCACCTCCCCACTCCCCCTTGTGGCTGCCTTATGTTTTTTGTGGTGGCCTTGGAGAGAAC
1 TCTCATCCTTCTCTCCCAGCCACACTCAGGCCTGGGGCTCCATTCTGCTGCCCACAAGGTACGAAGTGGGTTAGAAGCAGCAAGGGGACCCACAGGCAAAAATACTCCTGGGAGACAGTGGCGAGGGGCACATGTTCCCCGGGGCTACTAGGAAGTGGCCCCAGATAACGTCTCAGCTGATGACAGACTTTTAATcactaaaaggtaaacactaatgtgcaggaatcctgtttgtttgctcacagatgta
1 AATTTGCACAACTTCAAAGATAATGGATCTTCCAAGAGTTGTACAAAGAGAGCTGCACAAATATAAGATGTCATCTGTGTGGAAATGGGTCAGTAGAGGCAGGTGACCTGGTAAGGGTTAGATTGGGGAACAAAAGAAGGGATAGAAAGAGAGAGGATGGTGCCATGAAAGGAGAACAGAATGAGGAGAGTGAGCACCCCCAGGGCAGCAGTTGTattcagtcagttcagcaaatacatacaagcatgtc
1 TATACCCAAACATACTTTGACTTCAAGTGATTAATTGCAGAACAAAGTCCTCTTCCGTTTGCAGAGCTTCTCCCCCAGGACACAGGGGAGTTGAAGTTGGGGAGCCCTGGACTTGCCCTGGAATGCATGATCAGTTAAAGCCAATCACTCTGCACTTAGTAGACATAACACCCAGAGCCGACCCGGCGATTTAGGTGCAGAGTGAAAGGTAACAGCATCGCATTCATTTCCTCATTTAGGGAGAGTAGTC
1 AGCTGGCTCCTGGGTGCAGCTGTGACCGGAGCCTGAACTCTGCTCCCTGGGGTCACCGTCCCCTGTAATTAGGCTGCAGCTCATATTGGCTCGGGCAGAGGCCATCGGCTGCCCGCCTTGGGGCCACAACACAGAGAGCCCCGTGATTAATGGAGGCTCCACCTGGGCCAAGTGGCCCCTGGTGTTAGGCGCttttttttttttttttttttttttgcattttttAAGTGCTTGTAACATTTCCCCTAAT
0.6181072595520514 TGTTTCAAAATCTTAATGGCATTTTGTTTGCTGATTGTGAATAAATATTTGTATGCTGCGAAAAGCAAATCCAAAACCAACAGCTCAAAGGAGAAAGTGTGGCAAACAGGAGATTGGAGATTGGACCCCAAAACTCCTGGAGTGACGAAAATTGACCTGGATGAAGAAATGGCTTTCTCTTGGCCTTCTTTTGTTTAAACATATCTTCCAGTCCTGGGGATGGATTTCCCTCCCATCCATAGCCAGAGAA
0.6522164637682675 TCTAGCGCATTCTTTTCCCTCCAGGCAGAAAGAGCCTGGCCTGGCTCCCCCTTCAGAGCTCCCACAGGAAGTGAGGCCAGAGCTCATTGTCTGTCCAAACAGACCCCACTTTCAGAGTCCGTGGTTCGGGTCTGGCTTGGAGGAGGGGCTGCAATGAAGCTGGGGGGCAGGCTGAGGCCTCGTGGGCCCCCCTTGCCACCTCATGGGCTGTTCTTAGGGTGCCAGGCCTTCCTTTCCTGCTAGCTGTGAC
1 GTACCTTCAAAGTGCCAGGAGATTTAAGGTGTATGCAGGGTGTGGCCCATCCACCCAGAATTTCAAAACCACATGGTTCTTCAGGTCCTGTTGGGGCTCATCTATTTGCACGTCTCCCCTGCAGGAGTTTGGACTAATCAGGTCACTACACCCTGACACAGCAGTCTCCAGTCTCTACCACTcattgtttgcaacatgacgtaatgtcaacagaccacagagaAGTTAGCAACAGGGAAGGGAAAACACT
0.8854395791060691 TTGCTGCAGATTGTACACTGGGGTTATCTGGGTTAtttatttatttttagagacaggatctcactctgtcatccaggctggagtgcagtggtgcaatagctcactgtaaccttgaactccagggctcaagtaatccccccaatttggcctcctgactagctgggactgcTCCTGAGTATCTGGAACTCCTGTGTAAACATTTTAAAAATTTAAAATTTTTGTAGACACAAGGTCTCGCTCTGTTGCTGGG
1 TTTCAAGCAGGACAAAGCTTCAATGTCATCACCAGGTAGCAGGCAGAGCAAGGGTGCTGACAGCCTGCAGAAGCCTGTGCTTATCTCTCCATCGGAGCTAAAGCCCATGTTTGCTTAGGGAACAGCCTGAAATTCCACCCCAGCTGCTGGGCCTTTCACTTTTGAAACATAAGCCCAGAGAGCGAAAGGGGGGAACGTTGTGCCCAGATTCTCTTTCTGAGCGTGAACTTGATGTTCCTGACCAGGAACC
1 ttgtggtctggaggggacccagcctccctttcagtcagtgacctctggttctgaggcctagcttaggcctggaaactggatgaggggttgggattttccatcagcagctgccattactgtcctgttcgctcgttttttgtttttgatctttctttgcttAGCGCAGTCAAGCAGTGTTGGGGCTTCCGTGGCCCCTGGGAATACCGTGGTCTACTAGCATTCACCAGAGACTCCTGTGCGCCCAGGATCC
1 GTCCTCCCGGGGCCATCTCGGAGCCACCCAGCACTTGACCATGGCCCTGACAAGGCCCCTTTGTACTCACTGGCAGTCGGAGGGCGTGGGCCGGTAGTAGAAGGAGGGTACTTTGGACTCAAACCTGGCTCTCGCGGCGTCGTTCCCGTGGGAGGCCATGAACTGCAAGAGAGGAGGGGCCGGGTCAGAGGCCTGGGGTCCCAGGGGCAGCCTAGGAGGTGCCAGCTGCCCTTGGGGCCGTCACCACAGT
1 TTTAAAAATTACTGCAATCAGTATTAAACCTCATTTCATATTTCTAGTTTACTCTTTCGCCCTTAGGAAGTTGGGTTTTTTTCTTTTTTCTCTTATGTTCCCAACATCAGGATAGCAGCGCCACCGTGTGGTCACAGCTGCAGGTGCCAGTCTGAAAGAAGAGAGACTCCCCTGCACCCCAACTATTTTTTAATAcaggttgagcgaccctaatcccaaaatccaaaatccgaaaggcaccaaaatccaa
1 agagacgaagaagggcattacacataacggtaatgggatcaatgaaacaagaagagctaactatcctaaatacatatgcacccaatacaggagcacgcagattcataaagcaagttcttagaggcctacaaaaacacttagactcccacacagtaatattgggagactttagcaccccactgtcaatattagatcaatgagacagaaaattaataaggatatccaggacttgaacccagctctggaccaa
1 AAGGGTGGGTATGTTATAAATAATCTGCTCTAAAACATTTCTATTATTCTGCTTATGGAAATTCACCCTGCAGAAATCTTACCCCCGAGTTCTCGGGCAGGGGAGTCTGCTGTCCATGGTGCTGACCTGGGAAGCTATGGCTTCATCGTTTTTCTACTCCCCATTCAGCCAGGAAATTGGAtcactttgctctactctgagaccccactccactcatctttaaaataggattattaatactacttacctc
0.637689187204499 CAGACTGAGCCAGGCCCCTCCTGAGCTGGGTCAAGTTAACCATTGACTGGGGCAGAGGTGGAGGGGCAGGGGGACAGATAGGGGAAGCAAGTCAGCTAATATGTTGTAAGACAAAACCCCAGAACTCCCTCCCCCATCCCTCTGCAGGGCCCCAATGGCACTTAGGGGGCCTGCAGGATGAGACAGGGGTACCCTGGATAGGAATGGGGAGATGTTCCTACCAGACAGCTGGAAAAATGCTCCAGACTGG
1 ttttctgtctcattgatctaatattgacagtggggtgttaaagtctcccactattactgtgtgggagtctaagtctttttgtatgtctctaagaacttgtttatgaatctggtgcttctctattgggtgcatatatatttaggatagttagctcttcttgttgcattgatccctttaccattacgtaatgcccttctttgtcccttttgatctttgttggtttaaagtctgttttatcagagactaggat
1 AGGCGCGGCCTGGCCTCGCACTCAAAGCCGCCGCAGCGCGCCCCGGGCTCGGCCGACCCGGCGGGGATCTAGGGGTGGGCGACTTCGCGGGACCGTGGCGCATGGTGAGTGGGAGCGGCTGGGGGGTTGTGCAGCCTCTTGGCCTCTTGGTTGGGAAGGGGCCGGGCGCCGAGCTCGGCCCTCTAGAGGCCCGGGGCCGCGGCGAGCTTCGCGGGGGCCGGGAGAAGCCTGGGCCCGGCTGCGCGGAGGA
1 GAGACGCCCCCATGCAATACCCCAGAGATCCAAAGATGGGCACACACCCCCATGACAATCAAGAGACTAACTCGCAGGGATGACAGCCCCACAGCAGCTCAGAGATGCCCACAGCTTGCATCCCCCACCAAGCTAGAGGCACACCAAGCCTACACACACCCAACCCCATTCCCACTGGGCTGTGCAAACCCAGCAGGAAGCCGATCCAACCCACAAGGCTCAAGGTTCACAAGCTGGCCAGATGTGGGCA
0.05965322251353926 TAAATAAGCCGAGGTCTCCGCTTCCAGTCACTTGGGAGAGACGCACAAGGTAAATTACCCAAATAGAAGGCAAACTGCCCAGGGCTGTAATTAACATACAATATGCGCCGAGAGGGAAAGGTTAATGCTAACTCCGGTCCTAAGTACAAAGATCATTGGGAGTCAGGGGTGCACTCTCATTAGGGTACAGCATGGGTGGGTGGAGAGAGTAAAAACCAGAACAAATCAAGGTTCAGCAGTTGGAAGTCAG
1 GAGGCCGTACTCCTCTGGTCTGAGATTATAGTCAGTTGGTAATTATTCCAGGTGTGCCCACCTGGCCTCCCAAGTCTTTGGGGACCAGAAGGCTGGCAGGCCGTTGGGGTGAAGGAGCATAGGGAAGCAATGGCACCACCTTGTGGACGGCCTGCTTCATGGGCCTTGGCTGAATGCGTGGAGGCAGAACTGGGGTTGGGCTGTCGCCTGCCCTTGTGCTTGGGTCCCTACCTCTGTAATGCCACTGAGG
1 cagactcctcgtctgtaaagggggtcaatgtaaagatttcatgagatcatatacgtagggtgcAtagggtgaccagttgtcctggtttgccagaaaccaaggggtgtcctgggatgcagaatgtaaagtgctcaaactggaatgtcccagccaatcagggcccgctggtcactctaTGAACATGAAGAGACTGGCTCAAACAAACATGCCCTTTGGCTGTTATGTTTAAAGAGAGCTATGTCTGGAGTCA
1 acctggtggcagggaacctaaggacttcctagaactaaatcaaacagaaaaaccccaactttctacatccaagtaaataattgtgtaatttcccttcagctatgtcaggaaacatcctctttatttgcatagggtgtacaccaagtaaataactttgtaacttcacttcatcctcttcatttacataaggcatacactgcataaccaatgggaatcctctagagggtatttaaaccccagaaaattctgt
0.5593145755357954 TCACTGCTGCACAGCATATAACCTGGAGACAGGGACTTTCTTGGGGACGGGGGTTCCCAAGTCTTGCAGAGCCTGCTTGGGTAATGTTTCCCCCCGTATGCTTATTAACGGTTTATTATTAACTTATTAACGGCTCTGTGCAAGAGGACTGAAACCTGGGTTCCTGACCCCTCCCGTCACTCACCAAGTGACCTTGGTCTCACCTTGAACCCCAAGGACAGGGAGCAGAAAGGGCTCTAGACATTGTCAG
1 ATTATGTGTAATCACGGTTTTTTATTGGAGAGCCTTTATTAACTTTTCCACTTGGTTCACAATATGGGAGGGTATTTTGGTAAGTGTGTATATAGGGGCATAGAtttccctgttgcctcgggctccaatagggcttggcatggtactgcaggaaagttcttattttactggtatgcttggaaaatggcttcacaactcagggtctggcaggggtttaaagctgactttttctctcctgggactcttcttg
0.8684589198814981 ACTTCTTCCAGCAACTGCTGTTTCAGGCGGTTGGTGCTCACACCGTCGAAGTTGTAGTTTCTCTCTTCCTTCATAGTGTCAGGCCAGAGACCTCCCGCGTCTTTCCCCTCAGCACCTTAGAGCACAAGACATTAAGGGCCACCCAGAAGCCAGTACGGCACGAGGCGGTGAACCCCAACCGCCCCCCGGTCGCACCTCCCGCGCCTGCCCGCAGAGGCACGTGGTGACGTCATAAAGCGATGCCCGCAGG
1 GGAAGAGCCCTTTTCAAGATCAAAGGAAGTTTTGTTTTACTTCCTTGTCTGATCTTTGTCAGTGATGGTCCCCAAGCTAAGAGACAATTGCTACACTTGTCCCTGAGAATGCAGTTGAGTAATACCCTATATGCTTTGAGGCCCCTGGCCACCTTTCCTCCATCTCTAAAACCCGTCTGTTTTCCATTAGACGGTCaatatttagcaggccaccactaggtatccaccactatggattttaaaagaagtg
0.4971459646506884 ATGGCGGCGGGCTCCTCCCACCTCTGCGGCAGCGTCACAATCAATAATGCAGGGCTCTGCGGCAGAGGAAGCGCCTGCTTTTATATAGGGGCGCCCGGACCCCAGAGCAGGGCTAGTCCCTTAACCCATTCCGCCATCTAGCGTCCGCAGGGGCTCATGGCAGGTTGGAGCCGGACAGTCTGGAAACTGCAATCTAGATTTTGCAGAAGGGTGACCTTTAGCCTTCTGCAAAACCTAGATCTCACTTAAT
1 cagatcctggttcctagtgccctccagtccacggggccagggctctgaggagaaatggctgattccagcaccggggcaggaaatgcccaggatcagctgatcctggcagttccagaaagtgaggagctctgtaaacaaaaccccacagtcacgggattgcgtcccagtgaaagagcctcccagtggccaaagagcaacaaaataataaagtagtattagaatataacccagagtagaaaataaacatcca
1 TGGGACCCACAGCTGGCCTCTGCTCCTCCATTGCTCTTTCGGCCCCAACTCTTCCCTTCCCAGCTGACCTTGGCACCCCGCTTCCTGCCAAACGCCCTGATCAGTGTGGACTTTGCTGCCAACTATCTCACCAAGATCTATGGGCTCACCTTTGGCCAGAAGCCAAACTTGAGGTCAGAGGTCGGGGGTGGTCAgggctcgggctggggcaaggggaggggctgaggtggaggctgCCATCCTGTGTGAG
0.06840513073952015 GAGCAGGGTCCACTGCCCGGAAGGATCACTGGACCTCACAGGCAGAGCTGGAGGGAGGAAAGGCTAAGCCAGCAGAAGCCCCGCTGGGGGAGATCAAAGACAAGCATGGGCAACAGGTCTTCACAGCTGAGTGACACAAACAAGAGGGGTGCCGGGCCAGGGCTGATGGAATTGCCATGCGTGACCAGAAGGCTCAGCGGGGCCTCTAAAGGGCACCTCCCCAGCACCTGGCCTTGGCCCGACCCAGAGG
0.8421081380331733 CCCCCGGCTATGGCTACAATTTCCACTTTTGTCTTCTTCTTAGCCGGCTCGGGTCCTAGTCACGAGCCGCGGTCTCGCGTAGTCCCGCGTGAGCGCCTACCACCTCACTGTGCCAGGCCGGTCATTCACGCGAGGCCCTGGCTCTGGCGCGGCCTAGTAGGCCTCGCGCAAGGCCTATTCCCCCCTCCCCCCGCCTTTTCCCGGTGGCGGCTGCGCAGGAGTCAGGGAGGGCGCGCGCGCGGTAGGGGGG
0.7414266830024613 tccctcTAACTCTTGCACTTCATCCCCTCAACTCCCCCAGCCAACTTCTGAAAGGCCTCCAAATGCCTGGGACCTGCTGCAAAGCTCTTTGATCTGACCAGACCGCCGGCGCCTCTGGCTGCTTGGCACCCTGAGTGAACCCTCTGCCCCCCACTTTGgggcctgtgctgaggcctagggcagagtctgggcctggTATCTATTCTACCACCCCTCCAACCACTCCCTGCCTGTCCTCTGCCCCCATGCT
0.6369571801262439 cgcCCTTTTAAATCCCCGGGCTCATTTGCATGGCCCCGCCCCCTGAGTGACACGGCTGGCGCGGGCGGGCCCGTCCCCCCTGCCCCTGGGTCGCTCTTTTTAAGCTCCCCTGAGCCGGTGCTGCGCTCCTCTAATTGGGACTCCGAGCCGGGGCTATTTCTGGCGCTGGCGCGGCTCCAAGAAGGCGTGAGTTCGCGGCCGCTCCGGTGGCTTCTTTTTTTTATATCTATAATTTAATTAAATTATTTAT
1 acccaggtcaatttcacgctcaaagtcatacagaaacggcgagaactgagactctgcggccaaatcaagggctttgctccaggtacaCAGAACCTCAGATCAGAAAGGCCTGGCCCATGGGTTCTCCTGGAAGCCAGAGtcctgaaaggtagggactgtgtgtgacctagcactgtgtccccaccaaccatcaaaaagagtgcctctgtaaacatttctgaaattgattaaatTCCATCCAAATGCAGGC
1 GACCTCCGGCTGGGAAGGCGGCTCCCTGGGCAGGGGGCGGGGCTTGTCGCTGACTGGCTCAGGGCTGGACTCCCCGATGCCAGTCCCACCGTCTCCCcctcctcattggctctcctgcttccagcccccccctctcccgtgcagcctccagcacccagaaatcatatcacctcactcctgagcccaacaccctcccgtccatggctccccatctccctcggaataacacccagagcttccctaatgaccc
0.04502430736420761 CTGCCTTTCCTCAATCCTCTGTCCCCTCCCATCTGGGGACCTAGGCATCAGGTGGGGGCGTAGGGGTGAGTCAGCAACCTCACACACAAAGTCCCCGCTGTGGCCCCCACATTCCTGGGATATTCGGGACTCCCTGGATTCCAGGCCTCAGGCCCAGCCAGGGAGTGGGGAGTCCCCCAGAGGTCCTCCCTGGGTGTGGGGTACGAGAGGAATTCCTGCTCCGGGAAGGGTGCAGGCCTGCACTGAGCTC
1 cccaggagtacaaggttacagtgaactatgattgcaccactggactccagcctgggtggcagacaaagatcctctaaaagagcaaaaacacaaaaaacaaatacagtaaagttgtaggatacaaaatcaacaccccgaaatccatagcacttctatgcactaacaacaaactatctgaaccagaaatcaagagaacaatcccatttgcaatagctaccccctaaaaaaattaaaccttgggaataaattt
0.6615167855590537 CGCTCtgtccccattttgcgattgaagaaattgaggcccgcagcgtgcgtagcccggctggggccacggggttggggactgaacggccggaaACGCCACACGTGCCTCCAGGTGGCAAGCCAGCTCCTCATAGACGCACACGAACCCTTCTGCAAGTGGGGTGCATGTGTATATTTACACCTATAGGGATTGGGGGCCTCAGGGATGGGGGGCCCTCCCCCGCACTTAGACTAGAATCCCCCCTCCCCGc
1 AGCACCTGCACCAGGTACCCTGCCAGCCCCGCCCCCCTCCCCTGCTCAGGGCCGTGCAAGTCCCAACCAGCAGGGAGCCGCCCCATCGACCCTTGGCCCTGCCAGCTGGCCGAGTGCATCGGGTGCTCAGCCACAGGGGTGTCTGCAAACAGTGAACATGGAGATGGCCCCACAGGGGCGTCGTGGAGATGCTGCCCCTGTAGCCACCGCACGTGGGCCTCTCACCCCCCGGGGAGCTGCATCTGAGTCA
0.353509440887049 GCCTGCCCTGGGCCATTCTTCCCGCCCCCTTGAAGGTGATCTGGAGGACGCGCGGGAGCGCGCGCTGTCGCTGCTTTTGCAGCTGCGGCCCGAGTGGAGCCGGGTGGCGCGGGTGCGGGAGGCGCGCGCTCCCGCCCCTGCTGCGGGCGGCTGGTAGCCTCGGTGgccgccgccgccgctgctgctgccTGATCCTGCAGGCAGTTCTGGGCACGCAGAGATCGGCTACCGTGGCCTGCCCTCCGAGGAC
0.2796796313811107 GCGCCGAGGGACTGCAGAGCCACCCACCCCCGTGGCTCCTACTGCGCACGCGTGAAAAAAGCCAGGTTGAGGGGAACGGGGGAGCTTCGGGCGTAGAGTGTGGGGAGTGGGGGATCTGGTGCAAATTAGGGTGCGTGAAAGAAGTCACAAAAAGCGCAGAGGCCAGGCTTCCCGCCCTAATCCGGCCTTTGTCTCCGCCCCTCTGCCTTTGTTTCGGCCCAAGCGTCTTATTGGTCAGACATCTTCAGCC
1 TCCATAAGCAGGTGCCCCAGAAGAGCAAGTGGGGCTATTGATCTGGTGCTACATGCGCAGGAAGGCTCCAGTTCACATGCCTGAACCCGTTACCCTGCTTTGTCACACATTAAAAGCCTGGAGATTACCAGAAGTATTTGGTTTGGGTTGTTCTTTGAAAGATATGACTGTACCCACAAATATGCACAGAATACTCATCAAGGACTCTTGAATCACAAAGGCAAGTCCTTCCCTCGTCTTGCCACAATCT
0.3579532158841767 CCTTGATGCGCTCAATCCCGGCTTCTATGCGTAGCTGTTCCACCAGCTTCCGGGCCTGGGCTATGTTGTTAGTGGCTGACATTGTCTGCCATCAGCTCTGGGCCCCGTTGTTCAGAGAGCTGTGGGGGAAGCAGAGGGGTGTGGGTCAAAGTTCAGGTCAGGCCTCTGGGTGGCAGCAGGGGCGCCCGGCCTTGGCTCAACCTTCCCGACTCTAGGCACGGCCACTTTGCCTCTGGGTGGGGACCAGGGG
1 TCCCGACACTTTGTTTACCGGCTCACCCCAGGCTCAGTTCCAACAGGGCTCACTTGGGGTTTGGTAGCACCCCACCCTCCCCCATGCACCTGCCTGCATCACCCGCACACGCGGGATGCCCTTGAGGGCTCCCTGTAGCACTTCCCACCCTGCTGATAATCTGTCCCCCTCTCTGGGTGAGGTCCAGCTGCGCTTCCTTCCTGTCTGCACTCTCCAGGCCTAGCTCGGGAGGCGGCACTCAGGGGTGGGG
0.1531234893984351 AGGGGTCTGCACAGAATCCGGGTGCAGGGCTCAAATGGCTCTGCAACGCAACATGCGCCGCCAGGGAAGGGGCAAATCAGACAACCCCGGCCGGTCTCCGAGCCATTTGGGGGCGCAGGGCGCGAGAAGGCGGGCCCCTCCCTTACCTGTAGGGAAGGCGCCCCTGTCTGGGAGGGGCAGGGAGGGGCGCGCGCAGCAACCCCGATGTCCCGCTCACGGGCTGCCGATGCTCCCGGGGGGCGCCGGCTGG
1 ATTCTCCCCAGGGACTTCCCGGTTCCTAGTTCTTTGCCAGCTCCTCCCCACTCTGTGCGACCTTTCCAAGCCTTCCCTCACCCTCCCCGCCAGCACCCTCTTTGGGGAGCAGGAACTTAATCTGCTGACAGAGCTACACCTTTCATAACAGGCTCAGATCACTCAGCTCCCTGTGACCTTTGTATTCACCCAGGCTTCCTTCTCAGTAGCTCTAGCTGGGGGAGGTGTCAGCTGGGCCCCTCCTGTGCTA
1 taagggcactggtcccatcataagggcctcaccctcaggccctcatccaaacaagtgccccactccacataccatcacctggagggttagggcttcaacctaggaattctggggtgacaccattccgtccatagcattctgcctctggtcccctgaaattcatgtctttctcatatacaaaacacattgactctattgagtcccaacagtcttaacacattccggcatcgactctaaagactaaagtcca
1 gaattgaggataaggaattgtggatctgCACATCAATGTTTTCACCACATATCTGTGTGAACCAACTGCATATCACCCCTGCTTCACCCCACTACCAATGCAGGACAGATGAGGGGTGACATGTGCTCTGCCTCTAAAACTCACCAGGCCCTGTGACCTTGGGGAACACAGTCCAAAGAGATGAGTCACACACGAAAGCAAATGTGCACACACACACAAACAGCAATGCCTATAAATATATTCATAACAC
0.3272072975910048 TGGGCCAACCACCCTCATGTCCACTGGGAACCTCCCTCTCAGGTTCCTTTGAGCTTCCCGGCCTGACCTGCAGACCTCGGCCCCAAGCTGGCAGTTACTGGGGCGGAGCTCAGCCCGGGGGCCCCAAGCTGGCAGTTACTGGGGCGGAGCTCAGCCCGGGGGCCCCAAGCTGGCAGTTACTGGGGCGGAGCTCAGCCCGGGGAACACTCCACCCCTGCAGCAGGGCTACACCGTCGCCAGGCAGAACGTC
1 TAGGAATTCGCTTCCAGGCCGTGGGGGCCACATTTCACCTCCTTAGTCCCCCTGGTCTGAACTAGTTGAGAGAGTAGTTTTGAACAGTCGTAACCGTGGCTGGTGTTTGTAGTTGACATAAAGGATTAAGACCGCAAATTGTCCTTCATGGGTAGAGTCAGGAAGCCCGGTGGCGTGGCACAACACACTTTGGTCATTTCTCAAAAACCACAGTCCTCACCACAGTTTATTGATTTCAAATTGTCTGGTA
1 TATATATCCTATTACTGAGGCATGAGAAGAGTGGAATGGGTGGGTTGAGGTGGTGTTTTAAGGCCTCTTGCCAGCTTGTTTAACTCTTCTCTGGGGAACGAGGGGGACAACTGTGTACATTGGCTGCTCCAGAATGATGTTGAGCAATCTTGAAGTGCCAGGAGCTGTGCTTTGTCTATTCATGGCCCCTGTGCCTGTGAAACAGGGTTCGGTGACTGTCACTGTGCCTGTGGCAGTCTGTAGTTACCCA
1 GCACACACAAGCATCGGGTTCATCTCAGGAGCTGTGGAGCCACGTGTGGGGATGCGGGAGCTGGGGAGAGGGAGCCCCATTCTTGAGGGAATTCTGGACATCAGGCTGGGGGCTGGGGCCCAGAGTCCCCATGATGCAGTGTTTGACCTTGTGCTGGATGGAGAAGAGTCAGACCCAGGCAGGGGCCCAGGCACAGAGAACAAAGTTCATCAGGGGCTGCAGAGGGACTGCACAGACATAAGTGCATATG
1 GAAGTTGTTTCGCTAAAGCAGGTTGTTGCTAACCATCACTGCTGTAGCTGCTGTTGGTTGAAATGAAAGTTGGCCCTGGACTAACAGGttttttttttttttgagcctgagtctcgctttgtagcccaaactggagtgcagtggcgcaatctcggctcactgcaagctccgcctcccgcattcacaacattctcctccctcagcctcccgagtagctgggactgcaggtgccggctaccacacccagcta
1 GTGTGGGGACCCTTCCCTCTGGGGCCCTCAGAAGGGGTGGGCCTCAGCCCCACCATGTGGCCCCAATCCAGCCCTCAGGACCCGCCAGGAGTCTCAGCACCTCCCCACACACCGAGTGTCCAAAAGCCTCTGACATCCCCTCTAGGGGGAGCGCTCCCCAAAGTCTCTCTGGCAAGGGTTCTCGGCACCACCAGGGTTGGGGCCCACGCTTCTTTTCCCCTCAATCTACCCTGGGAGGGGAAGGGCGGGG
1 CTTAGCGGCAGGGATCTAACAACATGAGACTTTGAGCTTTCAGCTCCCAGATGAAAGAACAGGGATTTTCCCAGCAATGACAGAAAAGGGAAACATATAGCCCTGGGGGCCCCCACAGGAATCTCTGTTATGGAGCTGCTCCAAGGGGGCACCAACCACAAGCCTGAGTAGAATTGCAATAGGTGGCCCCAGACCTCTGGGCAGCCACCCAGAAATCTCAGGCATGCAGCCTGGAGAAGAGGGAGAACTT
1 GGGGTTCCCGCGCTGGCCTTTGGGAGCCCCCGGGTCTTGCTGGGCTGTGGGAGAGGTAGCTGTGGTCTCTATACCGTCGGCGGGATAAGTCATTCTCTTAATCAGTTTTCTTGCTTCTCGATGGTGGTCCCAGGGTTTCAGCTGATCTGTGACCCTCTGACCGCCGCACCCCGGTTAGGGCGCGAGCACCGAGAAGAAGAACGGGGTTCGGCCCCACGCGTGCAGTCATGTTCCTATTAATAAACCCGGT
0.4375916251253091 GGCCCCGTTCTGCTGCTGGCCCTGCCCAATCCCCTGACTTATCTCCCTCTCTCTTCCCACCCTGGCTGCTTATCAGCTCCTGGGGGTGGGGCCAGGGGGCCTAGGGGTGAGGTCTCCTATGCAGCAGCCACGTGACAGAGGTTGAGGTCGTATGTTGGGGAGCTGTACCCTTTGTCCCCCTCCTACCCGCCACACCTGCCTGTGTGCACACAGACAGTAAGCCACAGGTCTGCAGCCCAGGGTCAGAGGT
1 GGGTCCGGGGAATTCTGGGGAGTGGAGTCCAGACACTCTGGCGCAGAGAGGACACTTCCGGTCTCCTAGTCTGAGGTTCCTGCTTTAATGACCGGGGTAGTTTGAGCCATTTCTGCGTCTTGCAGGACATTTTGAACGAACCCCCTTTGCTTGAGGCTCGCAACCACCCGATGATCGATGATCGTCTCAGGGGAAAAGAAGCCTTGGCGAAGAGCAGAGGTTTAGAGGTGCGAGGGCGGGGAGGGTGTTT
1 GCAAAGAGAAGCCAAAGTCTCGCATTTATCTTTTCCAAACAGATTCTGAACTACTTAAATGTGATGACATAGATCAAATATTTGAGGTTAAGGATTGCTTGTAGGTTCATGCTTTTTCCTTTAATCCATTTTTTGAGGTAACTCCAGGAAAAATAATGGGCAAGCATAGAAAAAGGGTGAGTATAGCTAAACAGGATCCTATTTCAGTAAAACACTGCAATGTCTGGTGTTTCTAGTAATGCATTTATTT
0.03706964452471345 tgcccagctaatttttgtatttttagtagagatgaggtttcaccatgttggtcagactggtctcaaactcctgacctcaagtgatccgcccaccttggcccccccaaagtactggggttacaggtgtgagccaccacgccctgccCCcaagatttactttaaacctagagtaatcaacacagtatctattggcatgagagtagacaaatagatccacagactagaatagagagttcagaaacagtctgtc
0.7524459280037276 AGCTTCTGGAGAGAGAGGGCCTGGCCGGGAGCTGGCTGGAGGGGTGTGGCCAGGGGAGCTGTTCagggtcaggctgaggcatggggtgaggctgcagctgGACTCCTGAACTCTGGTTAGCAGTGGCTGTCCTGCTTGGCTCTGGGGTAGAAGGCTGGGAATCCCTGCCCTGCTCCGCTGGGTCTCGGGGCCCCCATCCACGGGACAGGGGCACCGGGAGGCCCCGTGTCTGTTCCCTCCCTGGGGAGGG
0.03865880608576655 GGAGTTTGCCATCCCGAGCTGCGTTAAATACTGCTGTCTTTAGATCCATTTATGTCCAGTTGAGAGGCTGTGCTTTATTTATCTTTCAAAGCAGAGCTCCAGTTTAACTCTATCGACACAGGCAAGAGTCACAGGAACCAAAGTCCAATGTTAATTGCTGCACCCCAGAACGGATACACAACCACGAAGAGTATGTTCCGTCCTACTGCTTTCCAACATCTGACAACCAGGGCACCAAACTAGAGAAAGA
1 CTGTCCTTTGCCACCATGCCACACAGGAGGGAAGGCATCAGTTTGGAGCTAGCCGGAGGGGCCTTGGGCGGGCCACTCTCCTTCAGGAATTCTTCGTCTTCCTCTGAGTCTGTATTGTAAGAGTAGCTGCTCACTTCGGAGGCAAACGCGGAATGGGCCGACTTGGGCTGGCCTCTGGCCTTGAACCCCACCCCTATCTTCCTGGCTTTGGCGGCCCTTTTGTGTTTACCTTCTCTGGAAGATTTCAGAG
1 GGAGGGAGCTGCGACTTCATCTGTGTAATCGAATGTGACACAGGCTACTGGAATGAACTGGACTTTGGGCTCCAGGCTGGCTCCTCCCAACCCTGACTGCTCCCTAAAACAGTCCTGCCTGAAAGTGCCAGGCTGTCCTATGGGGTGGGGTCACTGATCTAAAGTGGCTCATTCTGTTGGCTGGCAGGTGACCCAACACATGGGGTCTGTGTCCCGTGACCAGGAATCAGACTGGTTCTCTCTGGGGTTT
0.516987989037491 AGAGGAATGGCTGCGAGGCCAGAGGGGACAGTGTCCAGGAGCGCAAGGGTCACTTGGCTGAGTGTGGCAAGTGGGCAAGTCAGGGACAGCTGACCCCCAATAATGCTAAAACAAAAATCAATAAGTGCGTAAATAAAACACAGTTCATTCTGGCTGTAGTGGAAAAATGGCTGAGGTCCGTGAGGCTGGCAGGGCCCGAAGGCTGGAGGACTTTGACTGCCCTAGGCAAGGATTTTGGATTTTATTAtta
1 tcttgtaagtctcaagcttctctgtgaaatgaagacaggtgccaggaattgtgaggattgagaccataaatgagttaatgaacataaacaaacactctcagtacacccccaataaatattagcAATTCGCTATATGCTCAGGGGCGGCCTTCATGTACCTCAGTCTCAGGATGCAAAGGTCCCTTCTGATCTACAGAACACTATTCTATTATGTGTTTCTTATCTCTTTCTTATCTGAGGCCACAAAAGA
1 CAAACCTCCTGAGCAGCCTTTGTGGCGCAGCAGAAGCCTTGCCGGTGAAAGGGGGCTTTGTGTGACTGCAATGGAAGCCAGGGCCTGAGCTAAGGCAGGGTCTGTGGGCCAGCCTACCCGTGCGCAGGAATGGGGCGAGTCGGGGTACATCTTCACTCCCCAGCCCTTCCTGCCCTCTGCTCCTTGGTTCTATTTCCAAGTGGCAAACTGCCGGCTCTATGCCTGCATAGAGGAGCGAGTGGAGCCAGGC
0.9279184950199537 GGAGGCTGATCCACATCAGAGCAGGTCAGCAACCCACAGCCTGGCCCTTCTCCAGAGGGGATTAGAGGGAAAGAGCGGCCCCTGGCCAGGCACTTCTGCCTGGTGAGCCTTTTGAAAAGGATCACATGCCCTCACAAGGGGTCAGGGGTCCACAGCTCTCCTTCCGTCTCCCCTTCAATCAACACAAACAAGCGGAGGCCACTCTAGCGGCTCCACATTTCTCCCCCTTCTCCTGGGCCAAGTTCCCAGG
1 GGTCAGCCCCTCTGCAAGGACACCGGCCCTTCCCCTCTGGCTAGGTTAGGTCAAGGACTTGGCCTCTCCAACGCCCACTCCTCTCAGTCACAAACAGGGACACCTCAGGCACCAACCTGTACCCGAGCTCAGCCACGGACACATCTGGGCCCCCAGAAGGGCCCTCAGCTCTCCAGAGCCAGAGCAGGCAAGGGCGACAGAGCGTGTGGCTTTGGCGGCTGGGCCAGGAGGAGGGAGGGGTCCCTACTGC
1 tgtgcacctggaaaagctgcagacactcaacgccagtccgtgaaagcagccagaaaggaggctgcaccctgcaaagccacgggggtggagctgcccaagactgtgggaacccacctcttgcatcagcatgactcagatatgcgggacatggagtcaaaggagatcattttggaactttaataagatttgactgccctgctggattttgaacttgcctggggcctgtagcccctttgttttggctaatttc
0.3426529981459596 CGGCTAGCTATTGCCTCCGTGAAGCGAGCATGACTTCCCCGCGCCCGGAGCCTCCAGGCTACAGCGCAGCGGATGCGGCGGGCCTCGCTTAAATAGCCGCCGGCCGGGAGCTTCGGAGCCGCGCGGCCACTCCCGGCGAGAGATATGGTTCTAATCAGATGCTGGCAGCTGAGGACTCCCCAGGAATGTGCCAGGATGTTTTTGCTGCCTGGGCTTGGTAACTCCCCCTCAACGTGTCTGCAGAGTCTTC
1 CAGACACATCAATCCAGACATAGGCCCAATGTCTGGAATAGACAGGCCTGCAAGAGGCCTTCCTGGCAGCTCCGGCCCTGCCTGCAGTTGGAAACAGGCACAGACCCGCTGGGCACCCTCCCACCAACTCTCCGCTCTCCCTCCTGCCCCTCACCTCACACCCACACCGAGTCCCACTGTTTCCCTCTCAAGCCCCCAAACTCAAACTCACCCCCACACCAACTTGCACTCCAACAGGCCCTCGATCACA
1 GCAGTTCTgcagtgcctctctcggaggcctggagaccagccccacaggagccctgcaccaagctccaaaactgtggtaacaccatctcttatttttccccagccctggaagtgacagtgtctgcactatcctagtaccccatttcctttgtattttgtcagcctttgaactcgtatataacccaatcctcatattcaatctcttccatctgaaatgcctggagtagtttgtttttctgactggactctga
0.7040300318597417 TTGCTTAGGAAAGCCAGGGTCTGGCAGGGGCAGTGCTCCTGCGGGATACAGCATCCAGGCAATCAGCCCAGGTGTGTGGCCGGCTCTGCCACAGGCCTGCTGTGCACAGGGTCCAGGCCTGCCCCTGTGGGGGCCCCAGCACCCCCTTCCACTGTTTGCAGAGGGCCAGGGCCTCTGTAGCTGCAGAGTTCCAGGCCTCCACCATCCTGCTGCTGCCCTCCCCATCCCCACCCCCCAGAGCCTCATCTCC
1 TCGCCCGCGCTTCTCTCCCTGTGGGCGGCGGCCCGGCGCCTGGAAGGTCAAGATGGAAGAAATCCTGAGGAAGCTGCAGAAGGAGGCGTCCGGGAGCAAGTACAAAGCCATCAAGGAGAGCTGCACCTGGGCCCTGGGTAAGCGTCCGGCACCTGCTCGCCGCGGCGGGAGGGCCGCGCGGCCGGGGCTGAACCCGCGCCTCCGCGCGTGGGGCTTTCGCGGAGCGTCGGTCATGGGTGCCGTTCTGGCG
1 GCCAGAGCCCCTGACGAGCTGCCTCAGCTACGTCGATCTGGACCTGGTCCTTTCTCTGGGGGCACTTGGTGACGTCCCCAGGGCCCACACGCTCCGCCCACATAGCTATGCGGTGAGGAGACCTGAGACCCAGGCAGCTCTCTCCTGCTGACTGATGGGGGGGTGGTTGAGGGAGGGACTGGAGGGAATGGCATTGTAACGCCCCCGCCCTGCCTCCTAACTCCCCACCGTGTGAGGGGCTTTAAGGCCC
1 GGGATAACCACACAGGGAAGATCAGTTTAAAGCAGCTGCCAGCTCGATATCTCATTAGCGTGACTAGGATTTTATGCAAACCTGTTCTGGTGTAGAGATGACCTTGGGACTTTCAGATTCTCTGAGTTTAACTTGGGCAATACTTCTAAACACAAGGGTGGGGTACACCAGCAGGCCTGCTCCAAACCCCAGGAGCTGCAGTGCATGGCGTGGAATGATAAGCAGCCGGCCGGAGCAGAGGCAAGCAAAG
0.5673075822951842 ACGGGCAGTGTGCAGTGTTGAGGGGGCGCTGGGGAAACAAGCTGCCGGCTGAGGAGGCCGCACTCCCCGTGCCTCCCGGGCAGACACCTCACGGCCTTTCTCTGGGTGTCTGAACCCAAGGTGAAAAGTTCAGGCTGTCCCTGCTCTCCAGAGGGGCTGGAGGTGGGGCGGGAGCAGAGACTGGACCTGGCCAGCCCCTCCCGCTTCCCTTCCTCTGGGCCCCTGGACTCTGGGGGCGAGGGCAGGGCTG
0.1035542402380688 ATTTCCGAGGCGCCCCTCCTCCCCTTCGCGGTCGGGTTTCTATCGGGGTCGTTTCCCCCTCTGGCCCTCCGGGGACGCCGCGGATTCGAGCTGCACAGTCAGAAGAGGACGTTGAAAAGGCGCCAGGCAGCCGCCCCGAACCAGGCCCTCCCGGCTGCCGGGCCTGCAGGCCCCCACCGCTGCGGCTTCACGGACTTAGAGCTTGAGGGCGCGGAGGGGGCTGCGGGGGCGGGACCAGGACTCCCGAGGG
1 gggtgggTGGTGAGGGGGTGTGCAGGGCTGCCTGGATGCACTCGGCCTAACGGCCCGGGAAGAGCCTGGGGCCTGAGAATTCCAGCCACCACCACCCCAGGGGTGCCGCCCACTGCTCACAGGGCCACCCACACCTCTAGCCACCTCATCGGGCCTCCAGGCGGCTGCCCTGTGTGGTGTGGGGGGACTCCCAGAGGGAGTGAGCCCGCCCTCCTAGGAGAAGCCTGGCCAGGTTCCAGTGGGGTGGTGG
1 TATGTGTTTCCTTGTGGCTCTGTTGATTACATTTTTATGTGTGGTTTGGAGCTCCTCTGGCTTCAGACCTGTATTTGTTTTGGGCAtagttggagtagagtgctaacaagctcaaggtcataggtttgatccccaaaagggccagttagtttcatggagaggaaaattgcattccatggttcacagacttgacccctaatcctgtctgcttgtctcaaaactatctagcattggtcccaagagggcccag
1 TAGTAGAAATACTACCAGAATACCAAATACGGTGGGAGATCAATGGGAAGTATATGGATGGAATGACACACCAATTCCAGTTGAAATATGGAACTTGTGCAAGTTCATGATTGTGTAATTTTCAGAGTGTCCATGCGAACCCCATAGGGTAAGAAAGCAAACATCAGAACACAGCCCAAAAGATCGGTGTCCTTTGAGTTGGTGGCTTTTCTTTTGTGTCAACAGTATAGCCTAAGAGAGTGCTATGTGC
1 TCCTTCGCTCCTTTTCCTTCCTCTTCCCCTACCAGTCCACAAGCCACTTGGGTGAAATTAGCCACCTGAAAAACTCACCTAATACGCGGTCTGATGGTGACTTGAGTGGCCTCAGAATAGTCGAGTTCATAGAGTATTCTGAAGCAGAAAGAAAACCAGCgggggggcacccggatttgaaccggggacctcttgatctgcagtcaaatgctctacccctgagctatatccccATGGGCCACAAAGTTTT
0.2915529709318885 TTGCCGATCGGAGGCGCGGCAGCACAAGGCAAAGCCTTCCACATTTACGGGGGGAAAAAAAGGGGGGAAAGGGGAGGAGAAGGGGAGTGCGATTGCAACAGAGGGTGGGCGTTCGAAGTGCGACCCAGAATCCGCAGCTCCGAGACTTCCACATGCAAATTCCACGCCGAGCGCCGCGCTCACAAATGATTTTTAAAGAGCCAAATAAACACTGGATGGGATCCAAGGCGAGAGAGAGACGATCCAAAAG
0.548867506019872 tagtaccaaaaaatctagagaaggcttctagtgatttgaacccctttaaagagttcagaacaaagatgctactcaccacttttggggtgttctgtttactgtgtggattttcaagagtcataggcaggttcttcttaggtctaaagttcggttttcctgtattgcatgacctgaactctttgattttgagactaccagagattacattgttctgtgagaggatttgaccttggcacgtgtaatggtgcat
1 ATAATTTGAGTCTGAAGTCTCAATGAGAATGACTTTTTATATAATATTCAACTTGTTGATACTTTGATTTGTCATACGAACTTTTAGTTTTAGCCTTGTTGTAATCTTAGAAGTTAGAGTTGCTTCTGTTAGGATTTAACAATGTTTGGGCAGCACATATTATACAAGAAAATTAAGAATGAGCACTTAAGTAATTGACAGCTCTGTTGAGATTACAACATTTATAATGGCAAATAAAGTTTGCAAACCA
1 gcctcccaaagtgctgggattacaggcgtgagccaccgcgcccggccGGGGCTCTTCCTTCAGGATCCACACTCCTCACAGCTCAGGTCTCTGGGTCTCAGAGGCTGGCAGGGCGCTGTCCGCAGTGCTGAAGCGCCTCTCTCTAGGTCCGGGTTCCACATGGTTTCCCTTCCATCCTCCAGCCTGGTTGGCAGGCTGTGAAAATTCTCCCCACCCTAAGGCAGCTGCTGCAGGTGATCTGAATGGCACA
1 AGCTAGTGCTCTcatttaccaagtacccactagatgccaggtgcagtagtggatgctCTGTGTGATTGGTGTTTTGCAATCATGTCAAGGGCATATACTTTTAAGAACCCAACGCTTCGAGGGGATatttgctcaagatcacacaattagtcaacagatgaggtaagagtaaacacagtccccacttgtgcaactccaggacccatattcatgactattatgctGCGGAAATCATGAACCAGATAAAGTT
