svm_type c_svc
kernel_type wgkm
L 8
k 5
d 2
M 50
H 50
nr_class 2
total_sv 3889
rho 0.696039
label 1 -1
nr_sv 1859 2030
SV
1 GGTAAATCACCTGCCCTGGGATTGCTTAGCTTGCAGCTCGTCCCTGGGGCAAAGTGGAGAATCCCGTTGCTGCTGCACCCTTTCCCTGAGCATGTCAGAAAGGCCAGCCCGGCGACCTCAGGGCCTGTGAAAGAGTTGCAGGATATTGCCTAAAACTCTATGCAAACTGCTACTGAACTTTACCCTAGCTTCTTACCAGAAGCTGGAAATGTGACCGAAGATACTTAGATTCACTTCAGAGATGTGTCCC
0.5289049384626338 GAGCACAGGAGGTGCTAAGAGGAGCAACCTGTGGATGGGGCGGGGAGCCAGCTGGAAACACCCTCACCCTAAGACTGGGCAAAGGGGAGCTCTGGAGAGCCATGCTTCGGGAAGGTGACAGCATGGAAGTGCAGTTTAGGAGGAGTGGTGGACGGAGGCTGCATCGCAGCTCTTTTCCTGCTGTGGTCCCAGCCCAGGTGGCTCTCAGCACCGTCCTCTGCTTGTCCCTCTTGCCTTGGCCCCTGGTCCT
1 gtgtgcatcaccacacccagttaattttttgtatttttagtagagatggggtttcgctatgttggccaggctggtctcaaactcccggttttaagtgatccacccaccttgaccaaagtgctggaattacaggcgtgagtcacagcgcctggcttcaacaaatatttgttggacaacttttatgtgctaaactgtgctaaccattgTTTCTCTGAATGATTCAGACATAGACTCTGCTTTTTCTGCCAAG
1 GGGGCTGGAAGAGCCCCTGGCTCCCGGGCGGTCCTGGGGACCGGCAGAGGCCCTCAGACCTGAGCACTTCCCTGAGCATGAATGGGAACGACCaggaacgaagtctgacccaggccacgtgcggagaagccccgaaaaccctgtactctgtgaggcagcagacacccaggccacacgcggtcacattccattgccatgagacgcccagagcaggccagcccggggatccgggtgcagagagcggatggga
1 GAGGGCAGGAGGAGGGAGGCAAGAAACTattcatttttgacagttatttcttgattggtattttctgaagactggaaacacaatgacacagtatgagtgatgtggactttgttcctgccttcctgtggcatacagtctcatggaagaggaacgcagaaaataaacagtgaaatcagatgatcataatagagtggataatacaagatgacatggaagtacataggagggcaattgccacagacgacagcct
0.4607671683780556 CggcgcaggcgcaggcgcaggcgcaggcAGCGGAATGCGCAGGCGCGGGGCCTTCTGGAAGCCACCGAGTTCCGCGGTGCTGTCTGGAGCCGTACGGTTCGCGTTTGGGGCACAGGGGCCCCTCTTGCTGGTGCGGATGGGAAAGGCGCGGGGTCGAGTCAGCGTCCCTCTCGATGTTGGTTTCTTCGTTTTACAAATAACACTTGggcggggcgcggtggctcacgcctgtaatcccagcattttggga
1 GTTGCATTAAAAAAAAATCAGAAGTGATTCTGATACAAAAGTACCACAGGTAATTCCAGAACGAACTTGGAGTAAAACCTGGGAGAGAAGCTAAACCATTGGAAGGCTCTTGGGCCACTGTCCACGGTCCTGAACCCAGGCTCTGGCCCCGCCCCCTCCCCTTCACCGCCGCGCTGCCCTTGCCAGGACTCACCCAGCCTCTTGAGGGAAGAGTAGCGGTTCAGCTCGGATTTCACGGCAGCCTCGTAGG
0.8806059178024496 GCCGGGCATCAGCAGATGCACCTCGGCCTGAGGCATGGCCATTAGCCCAGGGAAGGATAGAGGGGGGCCACGGGCTCCCTGCCTTGCAGTCCTTGCGGCAAACCAAGGGGACAGCGCCACCTGCTGATGGAGGAAGAGCCCACCTAGGCACGCAGGAGCCCTTCAGTCTCCCATCAATAAGGCCTATCCCTTGCTCAGGGCACCAGTCCAGCAGCCAGAAGACCCAACCCCACCCACTGGATCTGTCAGG
1 CGGGCCTGGTACCGAGCTTTCCTGGGGGCTAGCAGGTCGTGGACGCCGGCTCCTGGAGGAGAGCCGGTAGGAGGGAGTGTGAAGGTGTCCGCGGCGTCGTCGACGGCGGCGCCGGCCATGGAGGAGACGCAGCCGCCGCCGCAGCCTAAGCTGCCCCTGTGCGACAGCCTCATGATCTGGGTGAGTGCGAGGAGGCGAGAGGGCGAGGGGGCCAGGGGGCCGAGGCGAGGAGCCTGGGGCGCCCGGTTCT
1 CCTGGACTAGCTCTGCTGAACCACAGAGGGGCCGCCGTTTTCCCTTGGCTGGGGTAGAGGAACAGGGTCCTTCCTGTGGCTCCTGGCTGAGCCAGGTTCTGTGCGACGCGGACCAACCCTGACCCCCAGTGGCCAGTTCCGAGAACTGCTGCAGAGGAAAAGGGACCATTCAGTAGGGTGGGGGTGGGGGCTTGCGCGGCATTCATTTTCGAGTGGACATGGGGGCAGGCAGgccagtctctgatgattt
1 AGGTACCCCAGGACACAGCACCAGAACAGGTACCCCAGGACACGGCTTATCATCAGGAGCCACTGGGTGGCATCCGTTCTGCAGGACCCTCACCTGCCAGAACCAACTCCTGCCATTCAGGCCGTGACCTGGAGGGGGCAACTTGTGCCGGACACCCTCAAGGCACCACTGCATTACACATGCACAGGCCCCACGGCCCAGGGGTCCCGCCCTCCAGTTAAGGCAGTGGGTTTTACACCAATCCTCCCCT
0.8747514849318425 AGGGCAGCGGGAGGTGAACCGCGTCGCTCGCCGCCACCTCCCTCACCTGCGCCGGAACAACGGGCCCCGCGCCAGCCCGGCCCGGCGCCTCCCGCAGGCCGCGCCTCCCGCACGCCGCGCTGCCGGGGCTTGTTCCTCCTCATGGCTTTGCCCTGACGTAATTCAAACATGGCAACAGTTCGACTTCAAAGGCGAACCCACAGACCTCCCAGACACAGGCTCCCGGGCCACGAGAAACCGGCCGAGCAGT
1 TTTAACCTGCAAGGTGTCCACTGCCAGCCTTGACGGGCCCTTCTGGAGGAACTTGCAGGGTGAGGTGAGCGTTGGGAGCTTTTTTAGGTGTCTGTAGCCATGTGCTACTGTCCATGGTCCTGAAACACCACCATTGCTCTTTAGGACACGAATTCTTCTTCTAGCACAAGAACATTGGTGACTTGTGTCCAGCATCTTTCAAAAATCCTGAAACAGGTAAGGAAGAAGAAGGTAGAGGAATATAGGATAT
0.1699686652322787 GCGCGTCTTCCAGATCTTCAGCAGCAGGATGACGATGGCCGCCAGGTGGGACAGGTCCCCAGTCAGCCGGAAAATGTTCATggcggcggcggcggtggcggtcggcgcagcgcggcggccccggggctgggcggctcaggaggcggcggcCCCTGAGAGGAAGCGGCGAAGATGGCGAGATCGCCCGCGACGTGGCCAGGGACGTGGCCGAACTGCCGGCGCGCGCGCGCGCGGGGCACCCTGGGAGAGC
0.7954719918901968 CTGGGACTGAGTTGCCTTCAATGCCTCCAGGGCTGGGGATTACTGATGGTGGCAGGGAGCAGGGGCCTTCTAGATGACACCCTCCTGGGCCCAGGCCACAGTCAGCTTGGCGAGGCCCAAGGCTTCTCCCGCGGCTCCTCCCACGGCCCAGATGGGACGCAGGCCGATCTAGGCTGTCCCGCTCGTGCCCCCGTGTGGCCAAACGCTAAACACCAGGAGGGTGCAAATGGACCTGGGCAGCTTTTGAGCC
1 aagttaaaaaaTTAAGTTAAAGAATACTAAGGAAACCTCTGAGCACTGGGGGGATTAGGCAGGAACCCATTGCTTTTTAACTAGAAATAGCAATGCTCAAGGGTATGGTTTTGGTTCAGGACCAAGGACAGCACGAAGCTTGCTCCCTTGCCCCGCACTTGGGACTTGGCCTGTAGGACCTGAGTAAGAAGTCTACCTCAAGGCTTCCTGTTCTGTATTTGCCACATGTCTCCTGACTTCTCTGCACCTG
1 acaaagggtaggcattatttttggaatcttctgacacagactgcccaattgcccttgagaaaagACTAGACCTGCAGGGGCAGGGTGTCCCTTcaaatggtgactgagcgccagtgtgccgggcactgtccttggtgctgagagtgccgcagtgaataagaagcaactctgctgttggagctcagtctcctgggagactgggaagagataaggcagacgatgacaagtgcttcagaaaattctacaaaaa
1 CATTCTGTAATCAGCTTTGGGGAAATCCTCTTGGAGGCCATGGCCCTCAGCTCTTGCTTCTGGTCCACACCCAGAAGTCCTCCCTTCCCACCAGGTGGGTGAGGCCAGCACTCCAGAACCTTGGACAGCTCTCCTCCACAGTGATCCAGCTGGCTGCCCCAGGGAGCAGGAGGGTCTTGGGAAATTTTCCGAGAAAAGCTGCATTAGTGCAGTGATTTAGGAATACCAGGGCTGCAGTCTCATTTCCAGC
1 CACCCCTTAAGTGAACCTCCTGCTCTCTGGAATCTCACATTCCCCACAGCACTCTCCCCACATGCCAGGCCCTGGGCTGCCTGCTCAGGGTGCAGCAGAGTGGGGAGGAGTTCCAGGGTGAATCAGGCTGTTCACTGCTCCTCCCTGCTCCAAAGCTTCCTATAGCCCCTTCTGCTCAAAGATCTTCCATGGCTCCCCATTCTCACACCAAGGGATTATAGGAACCTGAACCCTTTGAGGTCCTAACAAG
0.01107778796325268 CTCCAGGGAGTGAAAAAGCCTCACACTAAAGCACGTGGCTGAGAAGTCGTGGCGCTCCGAGGAAAGAGGCAGCTCCAGGCCTGGAGGGAACAGCGGTTGCCCACACACAGCCGGGCCCATCCACCACACATGCACAGACGGACTGTGGTGCGGTCACCTCCTGAGGGACAAAGGTTTCCCGCCCAAAGTGCACATCCAGAGAAACTACTGATGAGGGCAGAATAAAGACAGACAGGAGGACTGGGGAGTG
1 ATGAGCTTTTTTCTCTCCTTTGAATTTGACCTGGCCTGGTGTTAACAGCCCAGGTGTAAAATTCCAGTGAGAAAGAAGTCTGATGAGGAGTCAGTAGGATCTTTTGGTTGCTGAGAACTGCTCAGTACCATGGACAGCTCCCTGCACTCCAGGAAACATCCTGATTCAGTGTCTTGAGTATTGTGAAGCACAGttagagcggaaacatggagaatcaccttaaaatggcaaattggcttctggtcttgca
0.5600568412730558 CGCGCTGGCCGCCAGCTGCGACTCCAGCGAGCCCACCAGGTCGCTCACCACTTTCTCGTCCACCTCGCTGTTGAAGAAGACCTCGTCCAGCAGATCCGAGCCCGCCGCCATCTTTTTTCCTCGgccgccgccgccgccgccgcTCGGGCCGAGCGCGCCTGGGCGAGGAGGAGGTTCCGACTGGGGCGGGCGCTGGGCgggcggggggcggcgcgcggccggcggggggcgggggcgcgcggccgggggg
0.8140048438603402 CTGTCCTTGGAAGCAGCTGGCCAGAGTATACCCCTGGAGATCTACTGGAAAACTTGGTATTAATAGAAGGGAGCTGTATAAGTAGGAGGAAGGGGAGGTGTTACAGAAGCCGCTGTCCATGGTGCCACACGGACACTTCAGCTCCAGCTTGCAGAGCTTGCAGGACTAGGGTTATTAAAAGCCTGACATGCTGGCATACTGACTCTGAGGGTGGGGACAGCTGGGATAAAATTGGTATAGGCTAGGAACT
1 AGAGTGAGAGTGCGAGGAAAGGGGAGAGAGGACAGAAGCTGGGCAAGTCCTGAGGTCAGCCCGGTCCGACCTCACCCAAACAGAAGTCCAGGAGAGAGCGCTAGTGAGCACTGTGCCTCCACCCCAGGCAGGGATTGACATATCCCTGCAGATGTGTCACCGTGACACATACAAGGCCCAGGGATGGCCTCCAAGCACCACTCCACAGTGTGTGTGTGCAGAGAGAGAAAAAGCACATTCTCCCCCACTG
1 AGCGCGCTGCCTTCTGGGCACACCGATGCCCGCCCTTCCCTCGCTGGCTCCTAGGCGGCCTCCCTAGAAGCGGCAACTGAGAAGGCACAGCACCGGGACCACCCCATCCCTGATGGAGAGCTCCCCTCGCTCCCCAAAGGCTGCAAAGAAGGCGCGCCCCAGGTACAGGGAAGGGGACCCTGGGTCGTGCACCAGGCAGGGGGCAGGACCCTGATGAGAGGCTCAGGGCGGGGACCGAGCGGGGCTGACG
1 CACCTCGCTGGTGGGTGAGGATGCTTTTTCATAAGAGACCACCAGGGGGTGGCAGTGGTCAGCAGGCCACATGCAGTGGCCCCAGCAGTGGCCAGAACACCCTCAGCTGCTCTCAGCAGGTCCAGCCATTGCTGGGCTCTGCCCTGAAAGGAGGAAGCATGGATGAGTCACAGGTTTTTGTCCCATCACAGGCCCAGCAGCTTTGCCTGCCTCCAACCTGAGGCCACTTCCCTCCTGTAGGGTGtttgtt
0.4754883511744067 CAGGCTGGAGCCGGGCTCCTGGCGGAGCGGTGGGATGCTGCTGCCGGGCCGGCGTGCAGTAGGGGCGGACCCCCAGCAGGAGGACCCCGGCTGCGGCTGCGGCGGGGGTGTAGGTGGGCGGTAAAGGCGGAGCAGAGTCAGGGGAGGTTGGGAAGCATGGCGACTGTGGGGGGAAGGGAGGCAGCCGGGAAGCCACAAAAGCCTACAGCAGGCCgggcgggcgcggtggctcgcgcctgtaatcccagca
1 gatgaacagccatatgaggatgtcgaggtcacccagaggttagtaacaacaggaagccactgctaccatcactagggctgggacaggaaaggacaaagggacaaggtggggtcatcagagttgatggttctggggcctctggcaggagctggagccgcagcagagaggcagccactgcctgacacacccccagaagcagagcagggagacacaccctgagctctccccgcctctgccctccaggcttcta
1 taaatagcctcggaatcttccaggaagtgcaactaccacaaaaaatgagggaagcttgtatcgtgttttgttcaaaacttggccaaaggttgtccaccatgtgaaaaaactcacattgcacatggctcttggtaattggacaccagtccaCGTGTTTTCAATGTGTTGGAACTGTCTATATtacaggcataaacatctgcctacctccttgggttctaggggactggctccacacatccgcataatgaaa
0.4392095500721356 tagctgatacagggactagtcactactagaggtgagacagagtacccaagaaaggaataagcttgaaagagcttgccccaccctcaaggctgacattcggccttgttggagagggtgcagctgtggccactggagggcggagcagctcgctgaggtgttgcaagctggggctggcaagctggaagccactcagattcaccaggaatacacctgcagggatgccattaaacctgctgggactccagctgga
0.4376345746015551 TGTGGGCACACAGTGCTCGCCTGGCTGGAGCCTCTGGGAGGCCACAGGGGAAGGGCTCCGCTGCCAGAGGTGCAAGCCAGGAGTTGAAGTAGCACCTGGAGGCCAGGAACCTGGTGGCTGTTAAGAGCGCTGGCCACCAGATGTCGCTGCGGCCACACCAGCCTCCCCGCCCTGACTCAGCCCACCTCCCACCTGTCTGACTTGCTCACCCTCACGGTTCCTATTCTGCCTCTCTGGACACCTAGGAATA
1 gtgttggttttattACATgacagagacagagccaaacagaaaagaaggcaggtgatgactgaggcagagactggagccatgatgctaccagctgaggatcaccaagggtggccggctgcaccagaagctgggagacgggcctgcagcagcgtcctccttggagcctccggagggagcatggccgtgccaacacctgggttttggactctgacctccagagctgtgagaatacatttgtgttgctttaagc
0.7753867378444984 GATGCCCAGCAAGACAGACGTGTTCTTGCTCGAGTGTGAGCCGAAGGGGCTTTAGCGGATGGGCATAGTTCGTGGGTGCTGAGTCAGTGATGTGCAAGTTGACACGTGCTGCCTGGTCCAGGCTTTCTGAGTTCCGGAACCTGAGTGGAGAACATGGCTTACACGTGGGGAGCTCCACCCActgcacgccccgcccccttggggccgactgtctgggctgatggcaccaccttatggtcagagagggaac
1 GCATGGGAGGAGCGGGGCTGAATCGCTGAGAGTGGTGAGTGGGCATGCAGGGAGAGTACTCTCCCAGAGAAAGGGGTGCAGTGCCtgtgtgtgtgtgtgtgtgtgtgtgtgtgtgtgtgtgtgtgtgtACATGTGTACATGTGCACACTCGCACATGCACATATGGGCACGTGGGAAGACGGGAGAAGTACTGCAAAGTATAAGGAACTGCAGAGGTTGGGATTTAGTGGAAGGAAAGGGAGACAACATG
1 attgtttgaggccaggagcttgagaccagcctgggcaacatagcaaaaccccgcctctaccaaaaaataccaaaattagctgggcatggtggcgtgtgcctgtagtcccagctacttgaaaggctgaggtgggagggtcgcttgagcccaggagttcaaggccgcagtgagctatgattgtgccactgcactccagcctggacaacagactctgcttctgaaaaaaaaaaatcaaacaagaaCTCAACAC
1 ggaggctggatggaatcaggaggagggGAGGAGAATCTTGGGGAGCACGGGCCTGAGCACAAAGGGGATTAAGGAAGAGGAGGACCTCGGGGAGCACGGTTCTGAGCATggaggagatgaggaggggaggaggaCCTTGCGGAGCACGGCCCCAAGCATGAAGGGGATTAAGGGAGAGGAAGATCTCAGGGAGCACAGCCCTGAGCACGGAGAGGATTAAGGGAGAGGAGAAGGACCTTGGGGAGCACAG
1 CCAATCAGGGGCAAATGAAGGGCAGAAATGTGGACACAGACAGCTTGCACCTGGCAACCTGGGAGCGCAAACATCACCACGCCTCGCTAACGCCAGGTCCAGGGTCCTCCCTCCTCAGGACCCAGGCGCCACCAACGGTTGCCTCATCCTGTCTCTCCCTCCACAACGGACATCTCAAAGGTTAACAGCACCCATCCCCTGCTCCCAACCCTGTCAGGAAATTGGCTGTTCTGATATCAACAAGCCCTCT
1 GAAAGACTTCCAAAAACACCTAAGCCTGAGGAGCAATGGCACAAACGTGAAGCTAGCTGCAGATGACCTTATTTTCACTCCAATTCAGCACCACAGTCTCAGAGGAAAAAATGTTACACGTTTCAGCACGTCCCCTCTGCCCATGTACGTGTTATGTTGAGACCTGTCGTTTCATTGCTTGTACTGATAAGGCCACCCAGGCCCAGGACCCAGTTTGTGCACCAGCAGTGCAGGGGTACACAGAGTTCAC
0.4177260941301534 tgagccttgagagaagtgggggggccggggaggctgacagagaccaaaaagagccagcaagttggcagtgacccatggggtgggagCCATGAGGCAAGGAGGGACCAGCCATGTGCACTGTGCGAGGAGAGCCACGTGTGGGCCAGCCCTTCCAGTCTAACGTGTGAGCCACATGAAGGGTCCTTGTGAGGGTGGCTGGCTCCCCCTGCCGGGGAGCCTGACCCTCAGCTCCTGGGGGCCCTGAGCCCAG
1 agagagagtcagcgaagggagatgggggaggggtggctcaataggagttgggtaggtaatggaaaattacagcaaaaggtggttatctattgtcagcagaggagggattgcaaggtgcgtggtgcacagatcataagactcattgtccagaggacgaacggcacaaagtcgattgatcggctaaggtagggcagggagaactcacgatagtaaaatgttgtaattttagttaaccagttaaggcaggaac
1 GTGAAACCAGCCAGGGAAGCTAAAAACAGATCCAACCTGCCGCCAAAAGCAAATGGAAACATTAGGAGGCACTCAGCCGGCTCCCAGAGGACAGTGATGGGGGACACAGCCAGGACAGCAGGCTGACAGGGACCTCGGGCCTGATGGTGACACCTTTGCCTAGGCCATAccctccgcctcccccaccctttcctcctctcccCAAACCCTGCCTGATTAAAATTCCAGTCCACTCCCACCTAGTCTTTCA
0.4297944853786809 CTTAAGGGCACCTGCTTTTCTGAGCGGAGGCGAGAGGCAGAGGTATGGGGAGGAGGAGATACCTGGACCTGAGCCAGAGACCTGCTGGGGAAGCTATCCTGCCGCCTCACTCCCCTCAGGCAGCCCCCACGCCACTTCCTCCTGTGTCCAGCCCCATGCCAGCAGGCGAGGGAGGCCAGCTCCTGTCCCTGCCTTTAGGAAGCGCTGTGTGGGTGTGAGGGAGGTGGGCTCTGGACACGGTAACTAAGAG
0.3605780539769322 TCACAGAGGCTGGTAACATCAGCCCCAGTCAGGTGAGGACTTCTGGGGTCACCTGACGGGCCCTGGTGCCTGCCAGGCGTGTGAGCTCGCAGACAAAGGCCATTCTCCTCAGGACCCCAAGGGGGAGCTGCAGGGCCAGAATGTGCTGACCGTCCGGTACTCGCTGGAGCTGACTGCTGCCCGCTTTGGCTTGGATGTGGAGGCCGTGCGGACCTTGCTCAATTCAGGGCTGGAGAAGCTCTTCCAGGCC
1 TCACTCGATAGGGTGGTTCCAGAATGTACTGCCAAGTGAGTATTCATTGAGGACATGGGTCTCCCTTCCTTTGCCCAGGTCTAAAGGAAGGAGAGCAGATGTTCTGTACTGCGCAACCTGGGGCTGGCTCGCAGAATAGCCCGGTGGGCGCTGTCCATGGTCCTGCCACACCACTGGGGCCATCTGCCTGCTAGTAATTTGGGACTCCACATAACAGCTGAAAGGAATCTCCTTGACCAGTTCCCCAAAT
1 AGCTCTTGTCAGTGGAATGAGTTGAGGGGAGAGTCACTTCCAACTGGGGGCTTCTCCCCATCTGCTGGAGGGATGGACTCCAAGAGCCCTGGGGAGGCAGAGCCACAGATGAGGGCTTGGAGTCTGGCTCTGGGGTGTGAGCCACTGTGCGTGTGGGAGTCATCCACATGAGGACCTGAGGGTGACAGACGTGCTGCCAAAGTCCATGTGGCTCACGGGCTGCTTCCATCCTTCCGGACGTGGCTGGCTC
1 cacattgtatctgtcaagaaagagaatctagcatcctacctctatcactctcagctgtgctgctgcctgcgggctggagaagcagtgcttggtgtgtctgaatccacaaggctggttaaacattgcagggcaggaccatggacagggccccgaggcacTTGTAGGGGTGGTTTTCGGCTTATGCTGTATTGACCGAGACCCGTGGAAATATATTTTGCATCTCTACTCACTACCCATCTTATCCCCTGAT
1 cgagtatgcccacgactttcctagttttggcactgaaagttctgcatccagggaaaccAGGACAGTTGGTCGATGTATCCAAAGACCACACTTTGAATGGCAAGGTCAAAGCAAGGAAGCATGTGCTGTTTGTACTGAGTTTCATAGTTCCTCCCACTGGAGTCCCTGGAATAATCCTCTTGTCCTGATAAAGAACTGTGACTCTTTACGCTCTAGAAAGGCCACCTGACTCCAAGCCTCAGCTCTTCAg
1 tatatatatatatatatatTTAAAATTCTAGGTGATAAATGAAGAAAATCCGTGGGACTGGCGTCTCCAGGCAGCACGCCAGGCAAGGAGAAAACCTCAGCGTGTCGGACCGGTTTCAGAACCACGGACAGCACCACACCAGGGCTGCTTCCTCACATTTCCGGTCCTGAAAATTGCTCATTCACTGCCCACAAGGCCATTTcgcttcagagcttacaaacccttattccacattcatcatttcattttt
1 AAAACGACTCACCCGCACGATGATGCCCATACGTTTGCTTTCATAGGTGAAAGGGAAGATCTGTAGGATGGTGAAGTTCAGGATCTGGTCGCCAGGGGTCCTCAGCTGCATGGAAGACTGGTCTCGGCCCACCAGGGTTAAGCCCACACTTTCCGTCCACTGTACCAGGGCCACCTAAACATAACACAGGGTCGAAGGTCAGATGCCCAGCCGAGAATCTGGGTTCACAGGCTGTGCTATGAACACAAAG
1 GTGACGCCATCGCTAGTCACCATGCTCCTCCGGAGTTTCTGAGATTCAAAGTTTCTAAGACTCCACTTTCTCTTCGTGTTCTGTGTCTTTTTCAGCCAACGAGGCTAGAAAATGATCTATTGCCCAAGCAGGCGCACGAGGATACGGCTGTCACAGCTGCCACACTGGCACCTCGTGGTCCCTTGAAGACCGCCCAGGGAAAGCCTCTAAGCGCTGCACCACCTCCTCACCCTCTCCCCTGGGTGGTGGC
0.1985608240803456 GGGTGCCGCTATCGCCGCGAGGCCGCACCTGTCGCGCTGCCGGAGCCCGCGCCTGCCCAGGAGCGCCAGGAGGGACCCCCGCTCCTCCCTCCGCCACTGGGCGGGGCCGGTCGCTGAGTCACGGCCGCACACCGGACGGTGACAGAGGCAGGGCTGCCTGGGGAGGGGCCGGTGACCTCAGTCAGGGCTGACGCGGAAAAGTGGGATGGGGTCACCCGTGGCAGTGGATGAGGGGGTGGCCCGGGCCTCC
1 AGCCGCAGCCCCATGTCTCCCTTGCCTGTCCTCCGGATAGCCTCACCTCATCTACTTTCAGCTCCTCTAGAGTGGGCAGCTCCACTATCCCCGGCATGACGGCTGCAGCCCCGACCCCGACGAGAAGCCCTCAGCCGCGTCGCCCCCGTCTCCTTGAACTCCCCTTTCGACCGCCGAGTGCCACACGGCGCCTGCGCATGCGCATCCGGCAACACGCAGGCGTATTGCCCTGCCCAACCACGAGCGAGGG
1 AATTTCTTCCTCAGTCGTGTGGCAGGCCCTGAGCAGGCAGCTGGGTGTCCCCGCTCAGATCCAGGCCCGAGTGGGCTGGGCGGCTGCAGAGCCAGTCACCTGAGCTACCCAGGGTGGGATCCCTGGCCCCGACCTCTGTCCTGACACGCCCCAAGCGGCAGCAACAAAGCCCCAATTggcctgggcctgggcaggaggagctgggccgggtgccAGATACTGGGATCAGCCACTGCAGCTCCCTGAGCAC
0.05886481521372319 GTGGGTCAGCCACGTCGCCGCGCCCGGGCTTCCCCGCGGGCCCGCCGGTCCGGAAGGTCGGCCCGGGGCTCTTTTCTCCGCTGTTCTCCTTCTCTGGCGCCCCCAGGACACGCGGCCAGTGGACGCCCGGAACGGCCGACCGGGAGTCGCGGCTGGGGATGGAAGCTGGAATTGGGGGTGCGGGATGGAGCGGAGAGAGGAGGCCCCGCGCGCCGTCGGCCGCCTCATTTCAGACTCCCCTGCGACCCCC
1 CATTTCTTTTCTCCCCGAATAGCCTCATTTTTTCTATTCCCTTTTTCCCCTCCTATTAACATTTCTGGGGACTCTAAAGCAGAGCTCAAGATGGTTCAGGACCACGGAGAGCGCAAGGAAGGGGAACTACCAAAGCACTTTAGTCATGCAGGTGGGGAAAGAGATGATCCTAAAATTGtttttatttttctgtttttttgagagggagtctcgctctgtcacccaggctggagtgcagtagcacgatctt
0.6536083790198103 TCCTGTGACTTACAAGGAAAGCCGAGAGGCTCAAAGAGGCCGCGCGTCTCCCTGAGAGCCATCAGTGGGTGGGAGCTGAGCTCCGGGAAGTGTCAGGGGCCGCGTGGAGGGAAAGGAGAGCCGGCAGTGCCCTCCAGTGGTAGCAGAGCCTAACGACGCCCTCACCAGCCATCCGCGCTGCCCACAGCCCCATCCGACACGGGCGGGGGGTAGGTTCTAGGTTCAGTCCCTTGAAGCAGGAATCGCGTTC
0.03726667700102381 CTACTGACCTCAACTCATTCTGCTTTCCTCTCTCATGTACTAACTGGGGTTCCAGCTGTGTCACCATTCAAGCATCTGAGCTCCCTGACCCATGTGTTGTCTCTGACATCAGCCAGCCGAGGGCCAGCTAGCACGTGGGCGAGAACTGCCTGCCAAGAACAGCCCTGCTCCCTTGACCACATCAGGAAATACCGAACATGAACCCATTGTTTGCTCTGTGAATTGTGCCTCTGGACTCAGGCTAAATGCA
0.6295608309697343 TGTGTGGCTCTGATGACTCATCTGGGATAGGCATGAAGGTTACTTAGGGGAACAAGAGCCCCGCTGTTCCCGAGAGAGGTGGGGTTGGAGAGCGGCACCCAGGAATTCCAAGCCAGTCTCCTGGGACTCTGGCAGCCTGCTCCCCGGCGCTGGACCCTAAGGGACCAGGCGTGATGCCTTCTGGTTCTAGCCTCTGAGTGCCCCCCACAACTCAGTCGTCCCCCTCAGCTGCTGCTTCAGAGCTCTGGGG
0.3574521757437704 GCGGCGCGTGTGGGCGCCCGTCGCGTTCCTCCGCCCGTTCTCGCCGGGTCGCACCCCCCACCCCGAGGGTGTACTTGGTACGGCCCGCGCCGCCTCCTTTCCTCGCCCGGGTGGCCATCCCCCTCCCCCCAGTCGGCGGCGCTTGGTGCCGCCCGGGAGAACCAGGTCATCGGTCGGTTCCCGTGAAAACAAAAACAATCGGCCGCGCCGTCGCAGGCACCCGAACGTCGCGAGCGGGGCCTGGGGACGC
1 tggtgtttaatCTGTCATGCCGTCCCCAGTGGTTGGAGTGCTGACGGAGGCACATCGCAGTTGTCAGTTCCCATGGCGACTGACATCACTATGCTCTCAGGCTGTACCCCGCCCCTTTCTCCAGGGCTCTTGCGCCGGGAGCTGGCCGTGGTGCTGACAGGCCCAGGAATGGCCACCTACCCCCAGACCCCAGCTGTGTGTCCCAGTAGGACACTTCCTGAGGCCCACCCTGCCCCAACTCCCTAGGACA
0.5739714591442067 CTGGCGCGGTGCCAGTTTCTAGCCGCTGAGTGGGCGTGTGCGCGGCTCCAAGTGCGCCTGCGTACTGCTCACTCCCCAGCTCCGCGCCCTGCTCCGTTCCTCCCAAAACTCTGAATCGAAGAACTTTCCGGAAGTTTCTGAGAGCCCAGACCGGCGGGCACGCCCCCATCCCCAACCCCCTCTGTTAATCCCTACCAGCCTGCAGTCCTGGCTGCTTCCAAGCAGGAGGTGGGGCCTCTGGCCTAGCGGG
0.0236335321166811 GCCCCTGGTGTTCCTAGGCAATACGTGAGCTAAGCTGAAGACCATCAAAGTGAGCTGGCCAGCGCTTGCTACCTCGGCGTGGCTGAGGCCTCCTCGCTGGCTGCACTACCGATAATATGCACGAGGTGGCAGCAACGTCACGGCCGCCAGCCCGGGGCCTCCACGGGCGACTGAGGCTGCGCAGTTGACTTCCTCATCACCAACAGGGCAGTCTTGGTTTCAAAACCAGATCTGGTTGTTTCTTTGAGCG
0.2738883542295788 CCGCCTCCCCACTCAGGCCCCGCCTCCCCACTCAGGCCCGTCTCCTCACTCAGGCCACGCCTCCCCGCCCAGTCCCGTCTCCGTACTAGGGCTTGCTCCAAGCCCTGCTTCCTCGCCCAACCTGGCCTCCCCACTACGGCCTAACCCCAAGCCCTTCTCGTCCAGCCCCGTCTCCACACTACTGCCTGGTCCTCAACTCCGCCTCCCCACTCCGACCCCATCTCCCTGACCAGCCCCGCCTTTACGCTCA
1 TCGGGTGTGCGGCAGGGGTCTCCGCCCCGGGGCCACGGGAGGGGAAGCAAGGGCCTCGCTGTCTCGCCGCACCTGGGGAAGGGACCCAATTAGCGCGGACCCCACAGCGCAGCACCTCACCAGCTCCCCGCACCAACGCCCCGGCGCGCTCTTTGAGGAAAAAGCAGAGGGCGACTTAGGTACCCACGCCGTCTCAGCGCCGACCAATCGGCGCACGCTGCGGCTCCTGCGGGCTCGCTGGTTGGCTCCG
1 ccctctgttcactgagatagcctctccaaaggagaggctaatcagataaatgcctcctttggagaggctaatcaggtaactcaaaagaatgcaaacatttgtctcttatctacctatgacctggaatccccctccacactttgagttatcccgcctttctgaaccaatatttatcttacatatgttgattgatgtctcatgtctccctaaaatgtataaaaccaaactgtgctctgaccaccttgggcac
0.3349197817504885 ggggcataagaaggggcTGGATAGCACTTTGTCCTGAAGAGGCTCTTCTTCAGTAAGCTTAATCTAGCAGATCTCCAAATCTCAGCCCTCTGATACCCATTCCCAAGGCTGCTGAGACAGCAGGGAAGGCAGGTCGCTGTCCGCGGTGCTGAACGCACAGCTTCCCCTTTATCCCCCTGCCCTTCCATCCTGGCACGCTGGGTGACCACAACTCCCGACGCCCCTGATTTTCCTTTGTTATGTTCTGTCT
1 ctgtgtgtgcatgtgtgtgctgtgtgtttgtgtgtgtgctgtgttcatgtgtgctgtgcatgcgtgtgtgctgtgtgtgcatgtgtgtgctgtgtgctgtgttcatgtgtgtgctgtgtgtgcgtgtgctgtgtgcatgtgtgtgctgtgtttgtgtgtgtgctgtgtgtgctgtgttcgtgtgtgctgtgttcgcgtgtgtgtgctgtgtgtgcatgtgtgtgctgtgtctttgtgtgtgtgctgtgtg
1 AAGTGCTCTTTCATTTGAAATGCTGGAAGCCTGCCATGTGCAATGCAGATTTGCTGTGCCTGTGCGCAGAAGGAACTGATAAATGCCGTTGCAGTTGCCATGGGGACAGGAGGCTATCAGAATGGCCTTGTGATCCGCAGCCTCTCTGCGCGGCAGGCTCTCGTTCTCCCCCTCCCGCCCCTCCTCCCTCTAGTCAGTGAGATGGTGAAATAAATGTTCTGGAAAAAGGTTAACCCTCCCCGCTCTGGTT
1 CAGGGGCCAGCCCAGGCTGCCCACAAGACCATGAGCCACCCTGTGACTGAATGAAGTGGAGAGAAGGGAAAGTAGTTAAGAAATCAAGAAAAGTGTCTTTCAGCACCATGGCCAGAAGTTGTGCCACAGAATTGGAACAGGGAAACCCAGAGAGCCAGTGCTGTCCTAGTCCTAGTGCTGAATGATCCCATTGGTGTCCTTAGAAGGGCTCTGACTTCAGCCCACCAGCAGCATGTGGACTTATAAGCTT
1 CCATGGCATTTCTCAGATCACCTCGCTCAGGGACTCCTGGCAGTTCCCCCTGCGTCATAGCGGTGAGTCTGTCCAGGATGAGCCACTCCAGGCTACCGAGGGCCAGCTGGAGGGCCTGCAGACACCTGCTGTGGAGTCAAGGTCCACACCATCAGCCGGAAGAGAGGTCTCAGGAGGGGCATTAGTGTTTGTCCTCGCTGTGATTGCACTGACTGACAAATCAGCTGTGGGACAATGGAAAACACAGTAG
0.9232775054194451 AGGCCCATCCTTTTACAGAGATGTGCACGGGAACATGAGCCTGTCTATTTACTTAGACAAGGGAGGGCCCTGGCCACGTCCAGGCCACAGAGGGAACATGAGCCTGTCTATTTACTTAGATGAGGGAGGGCTCTGGCCATGTCCAGGCCACATGCCACTCCAGTCGGACCTGCCAGAGAGGAGCCCTCCGTGTCCTCCTCCTCCCCTCCCCGTCCAGCGTGGAGGCTCCCGTGAGCCCCGAAGTCGGGGC
0.2416308844390161 GAAAGCACTCTGAGTCTGCAGCCCGTCCACTCCTACTCTGGGAAATGCATACAAAGCAAGCAGTCCCCAGAGCCCGCGTGGCGCCTAGTAGGCTCCCAGTGAGCGGCGACGCAGGACACAGGGGTGGAACACGTGGGCTGGACCCACAGAAGGCAGGCGCGGCGAAGCAGTGGCACCGTGAAGGGCTTCAGGGCCAGTGTTCCTCTGACGGAGGGACAAGAGTTTAGGGAGCGTCCGGGGCAAAGAAAGG
1 AAGCTGAAAGTTGTTCCCTGCTGCTCACACACAGCCCCTCTGAAAAGCAGAAAAACTTTCTGAGGTTTGAGCGAGGTGTTTTAACACCATGGACAGCGCCCCTGGTTCTTCGACCCGGATGCGCTTCCTAATAAAACGGCATTCCAGGTTCTAGAAAGCATTTCGGTAAAACAGGCTCAGAAACACCAGATTCAAGAGAATAACCATTATATGTGAATACATTTAAAAATAGATCACACACTCTAACAAC
1 TTGCAGGagggaaggggagggcagggcagaggaggggaggggagggaaggaatggagggagagggacaaggtaagaagaaggCAGACTGGCAAGCCCACACTGGATAGTGTGGTTTCCATGAAGGCCACTAAGTGGCAGCATTGGCACAGGCCAGTGGTTGTCAGACTGACTTTGTTGTTGCTTTGTCAGGCGACCTCGCTGTGAAGGCTCAGTGTCTGTGGCTGCAAGGTAAAGAAGGCCTGGCTGATA
0.7595870947688584 CAGTCGCACTGCCACCCACGGCCACACTGCCACCCACGGCCACACTGCCATCTACAGCCACACTGCCATCTACGGTCACACTGCCACCTACGGTTGTACTGCCACCCACGGCCACACTGCCACCCACGGCCACACTGCCATCTACAGCCACACTGCCATCTACAGCCACACTGCCATCTACGGCCACGCTGCCATCTACAGCCACGCTGCCACCTACAGCCACACTGCCACCTACGGTTGCACTGCCACC
0.7759714891084515 AAGGCAGGAGGATCGAGGCACGGGACTGGACGAGATGAGTGTCAGCCCAGGGATTTAAAATCTCTCTGCCCACCCTCCCCTTCCTGCGGTCAACTGTCCAGATTCCAACAGACAAAAGCAAGCATGGGCGAACCACCGTGCGCCGCGGTCCCCGACAGAAGCACGCATGCGCACACCTCTGTGTGCGGAGGTTTCCGACAGACGCACGCATGCGCACACTTCTATGCGCGGAGGTCTCCGCAGACAGAAG
1 gggatgtggagagaggCCCCTGTGACCTTGTTTATGTGCAGGCCTGGGAGGAATGGCATTAGTGGTTTCAGGAGGTGTTGCCCTGGGACTGTAGCACAGGGACAATGCGCTGAGTTCACATGCCTGACCCTGAAGCTCCAAAGGCCTCAGACACAGAGCATGGCCAGAGCAGGGTTGGAGGAGGCCTGAGTGTGGGGGAGGACCCACTCCCCCAGGCTGCCAGAAATTCCTGTGAGCTGCTTATGCTCTG
1 AGGCCAGAACTCAGGGAGGACTCAAGTTTTGAGCTCTGAATTGGGGGTACAAGGAACAGCAGGAAGCACATGCGGCAGGTGGTTGCACCTTCCCAGGCCGTCGCTGCCCTCTGGTGGCCCCAGTGGACAGGTCCGGAGCCGTCTAGTGGCATATCATTCCAGTTCAAGCCCACATAGCCCATTCACTCTGTACATTGTTTTATTTCTTTCCCGttttttttttttttttttttttttgagacagagtctt
1 ACGGTGTTGCGACTTGGGGGCTGGGGTGAGGGAGGGCTCGGCGCGAGCGGACGGCACCGCACAAAGGAAGAGGGGACTGAGGGGAGACGAGGGGACTGAGGGGAGACGAGCGTCCCGTTACCTCGATCCTCGACCCTGTTCTTCCTGATGTCGCTAAGGTTGCAGCCACGTTACCACGCTCCCAGAGCCCCGGCCGCCCTCAGCGGAACCTCACCAACCCCGCGCGAGCACCCGGCGGACGCGCGCTCTC
1 AGAGTTCCGAGGGGAAAGGACAGCCTTCTCGGGCGGAGGGCTGGAGCTGGTCCTGGCAGCCTTGACCCGGAGACAGGCAGTCAGGCGTGACCGCACGGACCCGTTTCTCGTAGGCTAGGTTTTCCTACCCAAATAAAGCTTTCACGTGAAGACCTCATACTGCACATGACGATCATTACCTTTTTATCTCCTAGAAGCAAGGTTTGAGGGACGTCGTAGTCCCCAGGGTTCCAGCTGGCGGTGGGAGTGG
1 gagagcagcccaggcaggggccacatgagcagaggagcacagctaagggtaaactgAAAGGCCACTGCCACTGCCCGCGGTGGGGAGGATGTGGCTGGGGGGATGGGAGAGTCAACACCTGGGAAGGCCTGGAGTAGAAAGCGGCATTGCCGCTGATTCCCATGCAGGGAGGCTGCCCTTCCCCCAGGGCACCGCCTTTGCCACTCAGGGTCCAGCTCCCCAGCCCCTACCCCAGTGGTGACAGACTGGC
1 gccccaaccctgtgctcacagaaacaggtgctgtgttgactcaaggtttaatggattcagggctgtgcaggatgtgctttgttaaacaaatgcttgaaggcagcaagcttgttaagagtcatcaccactccctaatctcaagtaagcagggacacaaacactgcggaaggccgcagggacctctgcctaggaaagccaggtgttgtccaaggtttctccccatgtgacagtctgaaatatggcctcttgg
1 CAGTGCTAACAGCGCCTGCAAACTACCCACCTGCGGAGACACCACCAACACTGACCTTCACCCTTCACGTGAACAGGGGGCGTGACCACCACAGAGACCAGAGTTGCACTGCCCATCGAGAGGACGTGTGCTTGGATCTGTTTGGAGACCACCTCCTGCTCAGTGCCCGGGAAACAAGTGGATTTCTCTCTCTTCTCCTTGAGAACCCTGGCAGCCCAGAAAGCCGCCTCCCAGCTCATCCCTGCCGGAA
0.943220188147185 CTCCACACCATTCTCGGGGGGACAGCAGCAAGGACGATGGACGGGAGCAGTGCTCAGCCTTAACGTCCCTGTTTCCGGAAGCGTCCCTGCCCCGCTCAGTCCTGCCCCACTCCCTCTCCCATCAGTGCCCTCAGACTCCAGGCCCTTTTCTTTCTTTCCCAGCAGTGCTGACAACTGTGAGTGTGGAACTGGACTGTGAACCCTGGAGGGCAGATGGTGGAGGTGGGAGGGGGCAGGGCCAGCGCCAGGG
0.9510702790608103 GGGACCTTCTGTTCTTGAACTTAGGCTGTGGTGTGATCACCCTTTTCTCTGCATCCACCTGACAGGCTGGGACTTGGGCTATGCTCTGGACAAGGCTGGCTGGTGCAATGATGCCCTCTAGAGGATGGATCAGGCCCAGTCACCACCTCAGATTCAGTGCCTGCTGCTCTTCCTCTTTCCACTTGGCCCTGGTGACAGACAGATAGAGGCCCAGCTGACGTGTCTATCGGAACGACTTTATTTCAGTACA
1 TGGAGCTGGGCAGGCCTGGGGTTTAGGGACTCGGCGCAGGTCCCCCGGCCCCCTCATCCTGACACTTCTTTTCCTGGAGCTGCCTTTTCACAGCCTTCCCCCGAGGAGGAGTGACCTTTGGCTTGTTTGGATGTTAAGCGGGGAATCCGCACACAAGCCACAGTGTATGCGCACACACACAGAGGCACTGACGCACGGTGGCTTTACATGAAGGAGGTGCGTTATATCACATGACAGGAAGttcaaggtg
1 tccacccccatgacccaagccccaccccccccaggccttacctccaacatcagggatcacatttcagcatgagatttggaggggacaacgtccaaaccatatcaCACGTGACCTCTCTGTGCGTGCGTCAGTTTCTACATCTGGTTAAGCAGTAGAAGCTCCTTCTCTGTTCCTTGTTGAGAGAGCGGTGGGGGAGAAATGACTCAGGGATGGGAGGCTGGTCCCCCGAGGGGCCCTGGTGTTTGTGGAG
1 TCAGATATTGAGCACCTCTCTGTGTAAGGCTTGCGATACTAGCTCTTTGCTAACAACCGCAGCCCCAAAGGCTGCTCTTAACTGGGCGTGGCCTCACTGCCTCGGCAGGCTTTCACTTCAGGAGCATTGATTGAGCCGCTCTTTGTAAGCAGCAGTGGAATCAAGTAGCAACCGAcacaatcaacagggagagataaccaagcacccaaaccagcacagaactgcaaactgcgctgctatgaaaacacag
0.2573592116628073 GGAAAAGAAGTGGTGGCTGGATGCTGGTCAGCTGGCTTGGGCTGTTGGCAAGCTTGCCACCGACCATGCTTTCTGCAGGCGGCAGCCGCTGCAGGCTTGTTAAAGGCCTGCACCAGGCCGAAGTGTTTGCATTTGCCCTGTCGGAGCTCAGGATAACAAGGCCTTTCATAATCCACCACAGTAGTAAGCAGGCAAGTCCGGTGGCTCTGGAAATGTCCCAGTACACCAGCCAAAGGCAAAATCCCAGCTC
0.8611869236556191 TGTCAGGCGCCGTGTCGTTCTTCAAACCCTTGGGAAAGCTTTAGCTTCTCAAGCCAATTGCACTGCATTGTCAGTAGGGGTGTCCGTGAGCTCCCCCTCGTGGCTGAAGGCCAGCATCTCTGTTAGGCTTAACTGAGCCCAGTCTCCCTGCCTCTGAGCCTGGCCACTTCCCAGGCCAGACGTGGAGGAGACACTTGCCGCTCAGTGCTGTCCAGAGGAGCATGATGAAAATAGCTGGTGTCTTGGCTAT
1 caacaaacccaggtgatattagtacaggcagtccagagatcacacttagagaaATGTTGATCTTGGACATGGAAAATCCTGGACGTCCCCTGCCCTGACCAATGTCCTTTTCTCTTGGGTCTAGGAGACACAGGCATTCACTGGATCAATGATGACTCTTCAGCTTAATGCTCACCGTCTCCCTGCATAGGGCTCAGCTTAGATGCAGTTATCCACTAAGATTAGGTTATATTTTAACTGTACCACAGCA
0.2936602697005571 AGAGAATAAGAAAGGAGGAGGCCGATGTGCCCATGGACATTATTAACCTTCCGGCAAATCCCCACAGCCGCCAAACTGCGTCTCCTCTTCCGCTCTCGGCGCGCAGCTCACGCTCGCAGCGTCAGCGACGCCGGCGGCGCCAAGGCGTCGTGGCGTCGGGCGCCTGGGACGTGGCTTCAACGGCCCCATCCGGCGCCGGCGGCGGGTGCCCGGCGGTCTTTGCTGCCGCCCGGGGGCGCAGAGGCCGGGC
0.1736337428811117 GGTGCGGGGCCGCGTTCTCAGCGCGGGCACTagggggcggcagaggcggaggcgccagcgccgaggagaggcTTCCACCCTCGAGAAGTTTTTCCGCGCACCCGCCCGGGCCAGAGTGGCCGTCTAGACGCCCACGTGGGGCTTCCTGCGATCGAGAATGGGTTGGGACCGGGACGGCCAAGCCGATGCTGTCGGGGACACGCTGGGAGGAAGAAGTACGGGGAGGAGGGGCGGGGGCGCAGCCTACCCG
0.5909205775584225 tctctccagctgcaAACAGATTTCTAGACTTCTGATGGAGGTGATCTGAGATGAGCAGCCTCTAAAAGCAGCCTCTGCGAGCCTCTAAGAGCAGCCGGGACCTGCTGGAGAACAGAACATGGCCTAGGAGCGCAACAGCCAAGTGTTCAGCACCACGGACAGCTTCGCTGGCCTATTGCTGGGGAGGCCAGAGGTGGGGAGGCTGGTTGTCCAGCAAGACAGAGTGCCATGGGAGAGAGAAAAAAACAtg
0.334553722870604 CTCAGTGCTGCGCAGCCTCGGGCACGAACAGCCGCCTAGCGCACCCTCATGGCGCCCGGCGCCCGGCGGCGCCACCAGCCCAGGGTGGACATCTCCCGCGCCTCCCAAACCTCTCCTCCCGCAGCTGCCCAGACTTCTGCACCGAGGTGCAGCTCGACGCCTCCTTGTCAGGGCTTCTCCGCAGAGGCGGGGCTTCTGTGCTAGCCAATCAGCAGCCTCACCGCCCTCTCCGGGCCCCCTCACCACAGCC
1 ATGAAAACATTGGAGAATCTTAGCGGGACTTTGGCCTGATCCATACAGATATCGTAGTTGCTTAGATATGCTTATTGTTTTCATCCAATTTtgtgggggtgtgcgtgtgtgtgcgcatgtgtgtgtgcaggtgggtgcttgcgtgtgcaacgtgtgtgctgcgtgtttgtgtgctgtgagctgtgttcatgtatgtgctgcgcatgagtgtgtgtgctgtgtgtgcatgtgtgtgctgtgtgtttgtgtg
1 CTAAGGGTGGTAGGCAGGTGAGGGAGCTGCAGGTGAGGAGGTGACTGAGGTGAGGCAGGAGCACCCACACCTTTtcttccttctcctcctcctcctcttcctcctccCAGGAGCCAGGAGAAGCACACCTCACCTTGCCCACAGCGCCACCTACCGTCTGGCCACCCTGGGGTGCAGCTGCTGCCAGTACCAGCCAGCAGGTCAAACATCCAGGCCCAGGAAACCCCAGGCCCAGCCAGCGGCCCAGCGC
1 AGTAGATAGGTGAGACAGAGAGAGGGAGGACTCAGACACAGGAGCAGGGGGGCAGAGGAGGGGAAGGACAGGAGCTGGGTTTAGATTCTCCCTCCCCTACAGCTGGTCCAAGCCCAGACTTCCAGAAGTAGAGCTGGGACTGGTTGACAGGAGCGGGCTGCTGTCCGTGGTGCTGCTGCCCAGCCCTTCTGCTAAGTGGTGGTTAAGGGCCTAGGTCCAGGCTGGAATGGGAAGGGTTGCCCAACTGATT
0.09218607399120544 CAGAGGGCTTCCCTGGAGGCCGCCATTGCAGATGCACAGCAGCGCGGAGAGCTGACTATTAAGTATGCCAACGCCAAGTTGTCCGAGCTGGAGGCCGCCCTGCAGCGGGCCAAGCAGGACATGTTGCGGCAGCTGCGTGAGTACCAGCAGCTGATGAACGTCAAGCTGGTCCTAGACGTCGAGATCGCCACCTACAGGAAGCTACTGGAGGGCGAGGAGAGCCGGCTGGAGTCTGGGATGCAGAACATGA
0.2788066730273719 CAGCAACAAGTCCGCGGCGTGTATCACGTGCTCGGCGCGGACCAATCCGAGGGCCCGCCGGGAAGCAGGTCAGCCTGGGCCAAAGTCCGCCTCCTCCCTCGCGGCGAGAGGCTCCCAGCTAATTACCGTAATTGCGGTGGGAGAGCTGCCGGATGCgcgggggctggggctgggggctgggcaggccctgaggagctgagcggggagggctggAAAACAGGACTCTCCTCCAACAGCCCTGCCGCTGCCT
0.2381652659762176 TCTCTGCCTCTGTGCTAGGGTTTCTACCCTGACCGCCACCCAACAACCCCTGCGCCCTTATCCTCTCTTCTTCCTCAGGACGTTACTACGATCCAGCCCCACTTCAGCACCACGGTCAGCACCCACCAATTGCCCAGCACTCCTGCTACTGGGTTGCTAGGTATTTCGCACATCAGCCCTTCTCTGTGCCTCTGCCCAGTTTGCTTCCTCTGCCCTCTCTCCCTCCAAATAACAGCTGCCTGGCTAATGT
1 ATAAAGCTCAGTTTGCATTCATATAAACGtacaggcgcgcaccatcatgcccggctaatttttgtgtttttattggtcaggctgatctcgaactcctgagctcgcgatcagcccgcctcggcctcccaaagtgttgggattacaggcgtgagccaccacgcctggcAACGCCTCTAGGAGCAAAACGTGCATTTCAGCTTTTGAGGTTCCCTGCTGTGCACAGCCCTCAGCTTGCCATCTATAGGCCGCT
0.06347592477735695 ccacccagttcgagcttcctggctgctttgtttacctaagcaagcctgggaaatggcgggcgcccttcccccagcctcgctgctgccttgcagtttgatctcagactgctgtgctagcaatcagcaagactccgtgggcgtaggaccctctgagtcaggtgcgggttataatctcttggtgcaccgttttttaggcccgtcggaaaagcgcagtattagcgtgggagtgacccgattttccaggtgccgt
1 ctttgggctctgctggtttagagcagactttttcaaccgtaacattattgtcatttcggcctggataattggggacggtcttgcgcattgtaggaagcttggcagcatccctggcctctgccgctaggtgtcagtagcagctgttccccagttgtggcaacccaaaatgtctccagacattgccaaatgtcctctgcggggagcaaaatcgtcctcacttgagaaccaccggtgtagcgttaatcccaaa
0.3440109916800869 caggacccgcccCGCCCCCTGCGGCCCCGCCCCCCGCATGCTGAATGCCATATAGGCGAGTGACGTCAGGCCGTTTGTTGTCATTGGCGGCTCCCAAGATGGCGTCCATCATGGAAGGGCCGCTGAGCAAATGGACTAACGTGATGAAGGGCTGGCAGTACCGTTGGTTCGTGCTGGACTACAATGCAGGACTGCTCTCCTACTACACGGTGAGTCCTTGGAGGGCACAGCTCCAGGCGCCTCGGGGCCG
1 CCGGCCCCCGCTGAGCCCCGGGGGCCCCGCTGCGGCCGAGGCCATGTTCCCGGTGTTTCCTTGCACGCTGCTGGCCCCCCCCTTCCCCGTGCTGGGCCTGGACTCCCGGGGGGTGGGCGGCCTCATGAACTCCTTCCCGCCACCTCAGGGTCACGCCCAGAACCCCCTGCAGGTCGGGGCTGAGCTCCAGTCCCGCTTCTTTGCCTCCCAGGGCTGCGCCCAGAGTCCATTCCAGGTGAGTAGGGCCGGC
1 CTTCTCAAGAGCTGAAGTCCAGCCTTGCCTTTCCTGGTTGTTGAAGACCATGAATACAAGTGAACAAGAGAGTAACTGTGGCGTGACACCCCTTCAGCTCCAGGGGCCAGGCCATGAAGCAAAGGTGTGACTCATGGCACAGCCTGAGCTGTCTGAGGCAGCTGAGGCCTCAGTGGTCACATGAATCACACAGCTTGGGGCCCTAGGGCAGCTGTGCAGGCTGACTCACTGGGAGGCCCTGGAAGAGCCT
1 GCAAGGTCTGCTACACTCTGTGTAGGAAGTGACCTTGTCAGGGCTGACCAGTGGGGAACAATACTGAGAAAGGCGGAGCCAGGAAGCCACCCGGTCACCTCAGGAACCCTGAGGTGGACGCAGAGGCCAAGGTCAGACTCCAGGTCTGCAGGAGCACCCCCGAACCTGGTCATGAACGGGTGTGAGCCTGTGTGTGAGAGAAAGAGAAAACAAATGTGCACACGACAGGGAATTTGGTGTGTGAGACAAG
1 GCTAAGAGGTGAGTGGGGGAAGTCGATTAGAGCCTGGTTCACAATGCCTGGGAGGACAGGGGCTGAATCGCTGAGAGTGGTGAGTGGGCATGCAGGGAGAGTACTCACCCAGAGAAAGGGGTGTGTGCCTGAGGGGGTGCGCACGCACACATGTGGACACATGGAAAGGGGAGAAGTAGTGCAAAGAATAAAGACCTGCAGAGTTTGGGATTTGGTGAAGAAATAGTCTAATTGCATGTTCTTAAGAACG
0.7158696722581204 GAGAAGTTGCAGCTATCATTCTGAGAACAAAGAGAAGAGTCTATGAAGAGACAGCCCACAAAGCATCCCTGTCCAAGTGGAACTGCTACGACCCCAGCACGTGTCCAGCAGCACCTGGCCCTGCAGCCTAGAGTCGTCAGGACCCTGGACAGTTCTCCAGGTCTCATGCGTGGTGATGGACGATTCTGCCCCACTGGGCGTTAAGGACTGCACTTGTTCTTCCTACTTGATCCTCTCAATTTTGCTTTAT
1 ggagaggaaacgcacagaggcaaggtgactggtcgaaggttgcacagtggattggtgTCCTGCTCAGATAACCGCAGCCTAGACACATGCTGAGCACACGTGGCATTCCTTCTCCAGGTCTGTAAGCACAGATGCCCTTCAAATGGCAGTGCCAGTTTAAGGCTAGTGTTTGGAAAGACAGGCCCCCAGAAGGCATGGACTGTATTTTTCCCTGGTCCTTATGGGACACTTCAGCAAGGTTCAAGCACAC
0.9308219214981446 CGGTTCCAGTACACCGGGTAGCACTCTCCTTGGGTCACATCCACCTCGTAGAGGCCGCCCCGCACGCACACAGGCTCGATGTTCACAAGCTCCACCATCTCCGGCTCGTGCCCCGTCGTACTCTGGCAGAAGCCGCAGGCGCGGTCCTCATCGTCATCTTCTCCGGAACTGGAGGCTGGGCCCGTGGGGGAGCACACATGGTCGCCGTCCCGGTCCCCGCCCTGGGGCCGGGCACCCGTGGTCTGCAGCA
0.1336617566124643 AAAACGTTTACCTCCCCTGCCGCCCCAGGGTCCTTGCCCGCCGAGTGCCCTTACCCATCCTCCTCAGAGCCGACAGGAGACTAGGATCTCGGACCTGGAGAGCCCAAAGGTTCGCACTGGTACTGCGAGACGCACCGAGCTACCTCGCGGCGTTAGCGCCGTACCGAGTGGCTGCAGAACTGTGGGCAGCTACGACGCTGCCAGGCCCGTCCTGATTGGTTCAGAGGACGAAGAGGTGGGCCCAGAGGAA
1 CACCGGCATGAACCCTGGTCCTGACCTCCTATCGCTAAGTGTCGTCCCAAAAGCTCACTGACATTAAAAGGAagagaggaagagagagagaaaagagcagagaAGCGGGTGCACGTGGGAAGCTCTCGGTTAGCAGGTGACAGGGCAAAAGCACCACCAGGACCTGGAAGAACGTCTGACCAGGCTACAGAGCAATGGATTTCTCTTACGCTGAACTGAAAGTAGCCTAAGAATGCAAGAGTGTTTTAGA
1 CATGAAGCCGCTTGAGGCTGGCGCGGTAGTGGTGCCAGCGGCACCTTCAGGGACAGGAAGGGGCGGTGATGAGGCTGAGCTGGGGCGCAGCCACTCCGCCACGGCACAGAATGTCCCTCCACTGCCACCTGCTGGGCATCGGACTCAGCCTGATTATGCAAGGCTGGTGGCTTCTAGGGCCCTTGTCTTGCCTAGGTTGGGTTGTGCCACTGATTAAACCCACCCTGGGTCCACTGACCATGAGGCCCTT
1 tgaaatcccatctctactaaaaatacaaaaattagctgggcatggtgttgagcacctgtgatccctgctatttaggaggcagaggcaggagaattgcttgtgcccgggaggcggaggttgcagtgagctgagatcgctccagtctgggcaacagactgagaccctgtctcaaacaaacaacgaacaaatgaacaaacaaaCAAACAAAATAACCACATAACTACCTAGCAACGTAGCCTAGCAATTGAGA
1 GAGGCATCGGCCAGGAAAAGACGTCAGGCTTGGCCAGCTCCATCTAGCAAGACACTCCAGGTCACCGGGgaaagggcttttcactaaagcctccagggagactttggaacatgagcagcacagcttggagacGAGCCAGCAGAGCACGTGACAGCGAGGAGGCAGCCGTGCACGTCGTCACCCAAGCCCCAGGCCACAGCATCCACGGGAGAGACTTTCCTGCAGCACTGCGTGTTGGGGGTAGGGAAGA
0.7569755661622209 TGGCTTCAGCGCTCTGTACCTCCATGCCCCTGTCCTGCAGATGTCAACACCCAGTTGAGGAGAACGTGGACTTTGCCCAGTGTTGTGCAGGGATGGTGGGGCCAGGCTGGAGCCCACGTGTCCTGCCTTCGCCCTGGCCAAGGTGGGGGTTATCTGCCCTGGCCAAGCTGTGCCGCCCGTCCCTGCCCGCCCCAGCAGGTGGGGGCCTGCGGTGGGATCCCACCCATGAGCAGTAGAGGCTTGTTGACTT
0.2165555906020932 GCCCCCTTCCGGGCGGGGCCTACTAGTGGGCGGGGCCTGTCAGTGAGCGGCCCCTGCCCGGAAGGAGCCAGTCCGGGGCGGAGCCGATGGCCTTACAGGGGCCGGAAGTGGCCTGCGGGCGGAGAAGTGCCTCAGGAGTCCTGACGCAGTGTCTTGGGCGCTAACGGCGGCGGCGGCCTTGTGTTTAGACTCCAGAACTCCCCACTTGCCGCGTTCTCGCCGCCGCAGGCTCCCGGGACGATGGTGCCCC
1 ttggcggctaatgaggaaatttggaggtggccaaaccagactgctggccactagttgtggtctctgCAGGGAATGAGGGGGCCGGGCTGGGCCGCTGGCCATGGTGCTGACCATGTGCTCCTGCTCTTTCTGTTCTCACCGACTCTCCCAACACCCCAAATACAGGCAGCCGTGGAAAACCACCTGGAGCAGCGTCTGCACCAGCCCCAGAAGCTGCTGGAGGACCTGAGGAAGACAGACGCCCAGCAGT
1 TGTATTTGACCACATGAAAGGGCAGCAAAACACATCTCTTTGCTTTGATTTCTGTAGAAACATGTCCCCTGTGTTAAGTGGTGACAAGCCTCGTGGGGGTTTTGCTCAGGCGACAGGCTGGAAATGCATGTGTGGCAGGCGGGCTTGTGAGATCACATCCGAAGCTGGCTGGACTCAGTTCAGTCCTTTGGAGTGTTGATTCAGATGACGGGGGGAAGAGGCGAACCCCTCTTCTTTGGCTTAGAAGATT
0.5726031765901134 aggggaggggaaggagGAGCAGCCCTGGACCCAGTCTATGTGTGCTGGGAGATCCAGGGGTCCTGCCCAGGGCTTGGTACAACTCCTCCTGCCTCCTCTCCTGGCCCTCAAGGGCCGACACACTCAGCACCATGGACAGCGCCCCATGAGGCCGGGTCCTGCCGCCTCTACCCAGCTGCCCGCTGGCCCGCACCCCCCAGCACTGCTTACACCCCAACAattcattacttcagcagaggcacactgcccc
1 CATGGGCGCCATCGCCCGCCGGAAGAGCGGCAGCCCAGGCGCTGCTGCTGGCGCCAGACGGCACCGGCCGCTGGTAGAGCGCGTGCCGCGAGATGCGGCCTCAGGACAGCACCGGGGTCGCGGAGCTCCAGGAGCCCGGGCTGCCGCTAACGGACGATGCACCCCCGGGCGCCACTGAGGAGCCGGCGGCCGCCGAGGCAGCTGGGGCGCCAGACCGCGGTAGGTGCTGGCTCTGCCTTTCCTCGCCGTG
1 CGAGCAGGAAGCCGGCGCAGCTAGGCGGCCGGCGGGGCCTGTTAATTGGCAATTAGGGGGGAGGCTGGTGGCTGGTGCGCGTCAGCCGAGAGGAGAGCGTCTGCCCACCCCCTGCTCCCGCCCCCACTCGggcggatggaagggtgggaggtgccctgcgttgggtggagggtggaggttgtagggtgggggtgggggatgCTGTACTCAAAAGCCATCTTGTGCTCAGAGAAAAGAGGCCTACCGGCTT
1 gttaaggatctgcagatgagattctcctggatcaggctgggccccaatccaacgaagagtgccctcgtgaggcagaagaggagagagacacgtgccggagaaggccacatgagggcagaggccgagaggcgggagtaaggccaccacgagcctgggaacgccgagggcgccagcagccgccagcagctggagagaggatggatgggaggattttctaaagccttccgataggggtgtgacttcttgattt
1 tttaataGGGAACTCTTCTGGAATCAGTTCCCCATGAGCATGCACGAGGGACCAGAGAGCGGCGCATACTGGCAAGCACATGGAACCAACCCTCCAAGCCTGGAGAACCCACGGCAAAGCCCAGCAAGCCCTACACACCCAAGCCAGCCACTGTGCTGGATGCATCAGAGCTGCTGCTCAGTCCCACCGGTTCTCCTCAGACCCGGGGCCATTTAGGAACTTTCATTTGGGTTGGCTCCATTCTGGGTGT
0.9272998476921345 ATGGGGTGCCTGGGCCTGCTGCTGACGCCTCTGCTCTGCTCCCCGCAGCTTGCACGCGGACACCAGGTGGCGCTGTCGTCTATCAGCTATGTGGGCTGCTCCCTCTCCGTGCTCTGCCTGGTGGCCACGCTGGTCACCTTCGCCGTGCTGTCGTGAGTCCCCTTTTCTAATCCACCCAACAGTCTCTCGGCCCCTGCCTGCACCCAGATCTCAAGATGGAAGAGACACGGGAGAGGGGAGGGGCTGTGGA
1 GAACTCTGCACTTAAGGACTCGGTCCCCGCACAGCCTGGCTCCCCAAAGTCAGAGCACACGGAAACTCCAAATGCTTTGCTTCAGGTCGACACTGAGTGTGAGCCGCCTGTCTGCGTGGGTGGGTTGGACTCTTCCTCCCTGTTATGGCTGTGGGAGTCTGCACCTCCTTGGTGCGGGTGGGGTGCCCCCTGGTGTCCACGCAGGGGGGACGCGGGGATCTTCAGCCTGACCCAGGGCTCCAGAAAGAGG
1 TTAGGCAGGCAAGTGAATCAATTCCATGTTTTTCTTCCCTTTCTTGACCAGAGTTTTCTTTGAtgagtcaaagtccctggagcaagggttcgattggcggagctcaggtaacatgtccacactttagctaaggagggcgggcaaCTTGATGGACAGCTCCACCAAGACTGCACAGAAGTGCAGAGTTCCAGATCCCTCTTCCTCCACCTCAGCTGCTCCCAGTGGGCAACTAGGTTCAGGTGCCGTGTTT
0.1150945233156711 AGCTTCCAGTGTGGTTCTCCCGCCTGTCGATTGGACCTTGCAGGAAGCCCCGCCTCATCAACTCAGTCAAGGGCTTTAGTTGGCCCGGCGTCGGTGAGTGGCGGGTCTTAGCTCCGCCCTGGCCGTCCGCTGCGCTGCCTGGGTCGGCGCCGTTTCCAGTTGAGAGATGGCGGCCGCCGCAGGTAGATCGCTCCTGCTGCTCCTCTCCTCTCGGGGCGGCGGCGGCGGGGGCGCCGGCGGCTGCGGGGCG
1 GGTCTTACTCACGTTGCGGCCTTCCTCGCGTCACAGCCGGGATGGTGAGTTTCAGAGTTAGGGGTATTGCAGTGGGGGTCCTGGGCTGAGGCTGGGGCCCAATTCCGAGCACTGACGTTACTGTCTTGTCCCCACAGAAGCCGATCCTACTGCAGGGCCATGAGCGGTCCATTACGCAGATTAAGTATAACCGCGAAGGAGACCTCCTCTTTACTGTGGCCAAGGACCCTGTGAGTGTTGGCTGGAGGGG
1 GCAGGTCAGCCCGGAGCCGCTAGTAGGCACTGTTGTGTTCACGCAGCATCAGGCCTCAATTCAGGCCTCTGGGTGCCACCTGGGGCCACGAGAAGGGACCCAGGATCAATCTGTTTCTTCACCCAATGTTCACTGAGCACCTACCAGCACCTGGGGTGCCCTGGAGCCACGAGGAACAGTCCCTGCCCTTGGAGACAGACAGGAAGCTCCCTACAGGAACAGGAGAGGTGGGGTGTTGGAAGATGCAGGG
1 ACAGAATTTCTGCAGTCAGCTCTAGGCAGGCCCACCTCCTGCCACACTGCTCTCCAGGCACATGGAAGGGTTTCCCTCACCACCAGTTTACTCCTGGGGCCTAGCTCGGTCTCAGGCAGGAGAGCACTCAGGAAGACAGCCATATATCACTCCACTCGAGGCTGCCTCTGGTCTGGAAATTGTGGGTCTGCTTCACCGTGTGCTGTAAAGAGCTTATATTTCCGTTTATTTGTTTCTCCAGATCGAAACA
1 TCCTGGTCTGGATGTGCGGCCTCACCGGGGTGTCGTGCGCACGTGTGGTTGTCCTGTGGGTGCCAGCTCTGACTTCCTCCCCAGACACCCACTGCCTCAGCCTTAATCACAGGACGCGCGTTGAGTAGAAATGAGACCAGTTAGTATTGGTAACTGCAGAGGAATATGCATTTTCACCAGCGTTCTCGGGTCAGAGGGTTTGCCTGGCACCGCGTACTGGGAAACTCGCCAAAAGCGGTGCAGGTTGGAG
1 GCAGAGCCTGCTGGGGTGGGAGGGACTGTGGGAGTGTCCAGGGGAGAAAGTGGTGTCCAAACAAAGCCTTGAGGGGAAGGGCCCTGCTCCACAAAGGCGGGCTGGTTTGCTGAAGCCGGGTAGGCCTTTGTTTGCTCATTCACCCAGCATGTGGATCCAAGCCCTAGACGAGGCACCGGGCTAGGATACAGGTGAGATACAGGGTGAGGAGTCAGGACAGCCTGACTTCAGGCAGATGGGTCAGATAATA
1 GCCCTTGGACTTGAACAGTTTCTGTTTCCTCTGAGGAGTCAGCCTTCCTCTTCCGGGGGCCACAGAGAAGAAGGAGGAAGCAGAGCCCTGGGGTTAGAGCTTGACCCCAAGCTAAAAACAGGAAATTGATTAAGCAGAGGACTCAGTCTGCAGAGGGGTCAAAAACCAGGAGTTGGTTCAGGGAAAGCAACCTTGGTGACCAGACTAGCAAGCTTAAAAGTCATTCCTGTGGAGGCCTGAGCCACCTGTC
0.2287861881280199 TCGGCCGGCCGGCGCGGGCAGCGCCGGGACCCCGCGGGGGACACTGCAGCCGGAGCCCGGGAGGGGCCGCGCCGCCACCGTCTGAACTAGGATGTCCCGACATGAAGGTGAGAGGAGCCCCCGCCCCCACCCGCACCTCCCGGGCCTCGGCCTACCCCGCCCGGGCCGGGCGCGGCGGAGGGCGGCCGGGAAGCGGCGGAGACTTTGGCCGAGCCCGAGCCGGGCCCGAGGCGCTGGACCCGGGAGCGAG
1 TACATGGAGGACTCACCCAGCTTCTGCCGGCCCAGCAAGTACTCACCTGGCACAGCAGGTAGGGTGTGCTCCCGGGAGGCCAGCTGCAGCAGCCTGTGCTGCGGGCGGGGCTATGACACCCAGAGCCGCCTGGTGGCCTTCTCCTGCCACTGCCAGGTGCAGTGGTGCTGCTACGTGGAGTGCCAGCAATGTGTGCAGGAGGAGCTTGTGTACACCTGCAAGCACTAGGCCTACTGCCCAGCAAGCCAGT
0.6603622541979508 atgaatgaatcattgagcaaatgaatgagtgtgtgaaCAGGTGAGTGAGGAGAAGCCGGCAGAGGCGGTGGGGTGGATGGTCCACCCGGCTGGCCAGCGGCCTGTCACTCCCTGAGTGGCCTCTGGGTGGCAGCCATGTGGCGCTGTCGGCTCAGGAAGGCTTGGTGCTGGAATGGGGCTGGGACATGGCCAGCCAGGCAGGGTGAGGAGGGTGGCAGCGCCCAGTGCAGCCTGGACAGATGGGGTTCTG
0.720515387709796 GCAGGAACAGCTCTGGGGCTATTGGGCCTAGCCCCTGGGCTGATGTAGAAGCATCAGTTCTGCCTCAGGCTGGGACAGCTGGAGTGTCAGCCTGCGCGTTCTGCCTGGGATCCAGCATGGCTGCGGTCCCTGGAGGGCTTCAGCTTCCCGCCATTCCTGGGAGGCCTCTACAGATGGCCACAGTTCACCTTCTGGCAAATTCACAGCAAACTCAAGCATGAGCTGCAAGTGCTGAGGACAGCTTATTGCA
1 ccaccgcacccggccAGCACCCAGACTGTTAGGAGAGACACAGACACCGAGGCAGAGAACCACGGGGCCGTGTGAAGTGAGCCCTGTTGGGGTGTGAGGCATTCTGTGGATCCCAGGGGGAGGAGGTCCTGCCTCTGGGGGTGTCATGGAGGCATCAGCCTCTCCCAGCTTACCTTTCCACCTCCCTGCCTCCCCAGGTGCATCACCAGGTCCTTTTACCGGAATGTGGTGGGTGTCCTGCTGGTCTTTG
0.6726177049519302 CTTACTGGCCAAACTAGGTGTCCTGGGGTTGGAGCTTATCACATAAGCCCAGGCGTCTGAGAATGAAAGACCTGGGGCTTGAATGAAGCAATTTTGCCAACAGGGAGCTATCCAAGGTACTGGCCTCTTCCATCAGCACTTGCTGACCGGGTAGCGTGTAGCTGCTCTCCTGGCAGTGACACGTGCCATTTTGTCGGAAAGGAGCCAGCCCTGATTGCCTGAACCAAGTTCCATcctgcttgacctggtc
0.4481061688475951 GTACTAAATCTGGAGACTGAGCcctctgcctctgtctgccccccgccgctgcctccagcttctgGAGCTGTCATGTTGAGTTCACGAGGTTCCAAAGTCACCTTCCATGCAGGGAGCCTTCGGGTTCTGACTCAGCCTGGGGCCTCCCCGGAGCACCAGGGTGCGGGAGGCACCACCTGCCATCTGGCCCCCTCTGGAGGACGCGCGTCAGCCTCACACCTGCATCGCCTTTGCCCCGCTTCCCTGGGGA
1 CAGGCTCAAGACAGCTGCATTTAAATATCAGTGACCACAGGCCACATCAAGGAAACATCTGCAGGCAACCCAGGGCCTGGGAAGGAGCCATTTTCAGTCACTTGTAAGACAGCAGGACCTGCAGACTACAGCACAATCAAACTCAGACAAAACCCTGAACCAGTGAGAACCATTAGGAAGGAAAGgaacagaaaatgaaccaacctgagtgttaggagacttgcatctagtcctgactccggtaccaacc
1 GCCTAGACACGTACCGGCCCTGAGCTGGGATAGGTTGGAGGCCATAGCTCAGGGAAAGACTTGGAAACTGCAGAGAATGAATCCAAGTGGCAGCAAAGCTGGCTGGGCTGGGGCTGGGGTCCAGGCCCCATGCAACAAGGGCAGCCATGGGGACCACAGAGGCAAGTCCAGCTCAGAAGCCCCCAGCTTTGCGCCTATCTCAGCAGCACTGGTCGGTCATTCATTCAGTGCTTCATGAGCTCCCGCTCTG
1 GGGAGGAGAGAGGCATCCAGGGTTCTACTCAGGGAGTCCCAGCATCGCCACCCTCCTTTGAAATCTCCCTGGTTGAACCCAGTTAACATACGCTCTCCATCAAAACAAAACGAAACAAAACAAACTAGCAAAATAGGCTGTCCCCAGTGCAAGTGCAGGTGCCAGAACATTTCTCTCATTCCCACCCCTTCCTGCCAGAGGGTAGGTGGCTGGAGTGAGGGTGCTGGCCCTACTCACACTTCCTGTGTCA
1 GAAAACCCGGCTCCTGTGCCTTGCGTGTACCTGTGGCTTCGTCATTGGAACGTGACGCAGGCGGGACAAGGAGCAGCCCCGGGCCAGGGATCTGAGTTGGTCTCCCATTAGCTCCATGGCCTTGGACGTACTGGGTCACCTCCCTGTGTGCCCCACAGAGCGGCTGTGTGGGTGGGTGAGCCGATGTAAGTCCAGACCCTGCCCACGGGTGAGGGCTATGATGATGCCTCTGTGATGAAGCCCCTTTGCG
1 AACTCACTTCTGATTCCGGAGGGCAAATAGCACCGATGGACCAGAAGAAGGGCTTCAAGGCAGAGACCAGGTCCAGGCCTCAGCTCCCAGGCTCCCCTGCTctttctgagcctccctccctttcacatgtgtccaaagagggaagtgaagtctgcccccacgcggctgtcagaggattgcatgagatgacatacacaaaaggcctagcacTAATAGGTGCAGCCTGACAGGGACAGCTCGGGGGGCCGGG
1 ATTCTATGTGGGGTGGGCTGAGGAGGTGTTTCCAAAATGTTTCCACTTCAGTTTCATACACAAACATACAATGGATGAAAAAGCAGGAAGGCAATAAGCTCACTTTGTTACACACTCCTCCGCAGTCAGGTTGTACATAATGCCGCTACGAGCAgcttctcaacctcagcactgttgacattttgggtggataattctttgttttgtgttgctgtcgtgtgccttggatatttagcagtatccctggcct
1 TGGGGTGGGCTCCTGGGGCCAGCACCCCATCCAGGCGGAAGGTCCTCGAGGCAGGCTGTCCACCGCTGGCTTCCCTCTGGCAGGATGCTGCAGCCGGAGGGCCCCCAGGCCTCGGAGGAGGGGGGCCCCCGGAGGAGAGGACAGACTGCATCATCTGCTGCTCGGCCTATGACCTCTCCGGGCACCTGCCCCGCCGCCTCTACTGTGGACACACCTTCTGCCAGGCGTGTGTGCGGCGGCTGGACACACC
0.7331185554731519 GGCTGTGGTGGGAGGGTGACCCAGGTGCCACCCACCTGAGATGTGGTCATGGTTGGTTTTGTCTGAGCTGGTTGTTTGCTTGCAGAGAGGGAACCCAAAGGTCACACCAGAAAGCAGGCTTCCAGTGCAGTGAAGGCGAGGGCTGGAAAGccgcacccacccccgcacccacccctgcacTTGTGTAGTCCTCACGTGTCCTCTACATCCTGGGCCAGAGGGAGAGGCCCCTTCAGCAGCGGCTCTCCCA
1 tcccctcactctgcctcatctctctgaaatacaccactgggtcgtgaggcgttccctcggaccagatgactcagaaagcacaatgcagccctggtcacagatggctctgcctaataagctggcaccaccccgaagtgggcgccccagcacggcagcgccacctgggtgtgggaggccaggcctgcacgacaggtgcaaaggcaggtcctcacctgggtgtgggaggccaggcctgcacgacaggtgcaaa
0.2578677400496094 TTGGCCTGCGTGGGTGTTCTCGTCTTTCCTCCTATCGTATGTTACGGTTACCTGCAGAGGCTGGCGTCGAAGGAGAGGTGCTATGCGAGGATGGCCCCAAGTTAAACAGTGACAGCCTCTGCCCTCCCAGACCCCAGGCGCGCGGGGGCGGGCGCGGAACACCGGTTCCACCGCCACCTTCAGGCCTCCCGGTGTGGCGCGGTTCGGGACGTCACACAAATACCAGGGCACCCATGTTTCTGCCCTGGGA
0.2248849215348955 TTCCCTAACCCCTGCCCTACCAGAAATGGGGAGCCCTCCCCACTCAGTGACTCCAGGCTAGGCGGGGCTGGCCTCTGCCGCCCTCTGGTGGTCAGGCCTGGACGGTGCATATGGGGCACCTTGGGCTGTCTCTGAGCACCCTGCCCCCCACACCCTGCAGCACTACACCTCAGACGCAGATGGACTCTGTACGCGCCTCATTAAACCAAAGGTCATGGAGGGCACAGTGGCGGCCCAGGATGAGTTCTAC
1 CTCCCTGGGGGAGGAACTGTGAGCACAGCTAACTGCTTGTTTTCTTCTAGTCTAAGCATTGCTCCTTTTCTGTGGTAGCTCTCTCTGCTGCCTTCACCTACGCAGTCTCCAGCTGGCTCTATGACCAGCACCACGGACAGCTCCCGCTGGCCAGGccatcccccttcctccttcctccaaccttctatcgcctctttctccACTTACCCTAATGCAGAAATCCCGAGGTCTGAACTGAATGAGAACATCC
1 GGGAAGACAGGCAGAGGTCCACCTGGCACTGTTGGGATTTTCACAACACCCGCCCCAACTTAAACACACACACAACAGCCTAAGGAGAAGCTGGGCCAACAGAAGTGACTTCGACGATAGAATGAGAAGGAAGCAGGGGTAGAGATTGCTGGTGTAAGGGACTTTTTCTTCCCTTCTGTCTTCTCTCCCACTGTTTTGTCTTCTGCTCTTGCTCTCTCTCTCAGAGTCTTTCTTCTCCTCCTGTGAAACT
0.2540449720364702 CACTTGGAGGTGCTGCATTGATGAGCATCTGGAATTAGCACCAGGAGAATAAAGAGCCAATGCTCCTGGACCATGGACAGAGGCTGGGAAAACCCCTTGGGAAAGTGGCCACATTGCACAAGGCCGGCCAAGGCTGACAGCAGTGAGTGGGGCCAGGTTTGTCAAAGCAGCCAGAGGGGGATGAAGTCCAAGTTGGCACGTGCCAGGCCCCACCAAGGGGGAGGCCAAGCTGAGCAGCATCGGTCATCAG
0.6337809439646519 CGACAGGACCAGGCAGCAACATTGCCACGCGGATCCGCGCCGGCCAATCAGCATGGCCAGGGGCGGGGCTTCCCTGAGGCGCGCCGGGAGGCGGCGGCCCACTTCCGGCAATAACCGCCTGGTCGCCGTCAGGTGCGGGCCCAGGTGGCCGGCGCGCCCGTTGGGCACTGGGGGACGCGGGCGCGTCAGGTGAAGACTGGGGGCCGCAGGCGCGCTAGGTAGGTGCGGGGTGCAGCGGGCGCGTCAGGTG
1 atccacccacctcggcctcccaaTCAACTTAGTTTTAATAGAAACAATAACTCTTTCATATTAAAATTTATTTCCCctgtcacccaggctggaatgcagtagtgcgatgatcatggctcactgcaccttgacctcctgggcccaagtgctcctccccatctcagcctctcaggtcactgggaccacatgcacacaccagcaggcctagctaatttttattttttttgtagagacagggtctcaactatct
1 AAGGGCATACTCACAGACCATCTGTTTTGGATTTTTCTGGTAATACAGAAAACCTCAGAGGACCTAGAGGTTGATACCTGCCTGTCCATTTCTCTCTTCAGCCCAGGTTCGGGAAAGCAAATTCAGGCTGCAGGACAGCTGCCCGGGCCCCCCACAAGCCTGGCACCAGCCCAGGGAAGACTGAGGAGCCTCACTCCATGGGGACTGGTGAGCAATAGCCCTCTCCCATCCCCCCCACCCAGCCTCATCC
0.3858035124882528 CTTACAACTCCCCAGAGCTCCGTGTGCATGCGTGCGAGAGGGAGAGAGCCAGGGAGAGACCCAGGTGACGAGACGAGGCTCCCGGGCTCCAGTTACTGGCCCGCAGGGCCGGGGCACGTCGTCGCCCAGCGTGCGGCGGGGCCCGGGAGCGCCGCGGCCCCTTTAAGAGCCGGGCCCAGGCCGTCGCCGGGACCGCAGGAGCCCAGAGCGCGGGCGCCGCAGAGGAGTTGGGAGCCGGCGCAAAAGTTTC
0.270265965696744 gagcctgaagcacccagctgaatgcctagcacacagcaggggtcaaggaaacagtgccctctatGTTTGCAGCCCCCGCCCAACTCCAACTCTCTGCTCCACGTTCCTTCCACTATTCAACACATGGCAGGAAGTCAGCCTGTAGGGCTTCACACTACAGTCTAAGCTGACTGCCATCTGTCCCCATCCAGGCGAGGCTGGAAACGGGGGCAGCAAAAAGCCCAGGGACAAAGTCCCCTTCCCAGGCACA
1 ACTCAGTGCAAGTCCTGCTGGAGGCAGAGGCTGGCCTTCCACACGCCACCTCCCTTCGGCCGGTCATTGGCTGCAGGCCAGGGGTGGGGTGGGGTGACTGCACCCCATGGAGGGTAGAGGACGCTGGCCACCTACAGGAGGCAGCCTGAGCAGCCCCAGCAGAGACGATCACAGCACGCACCAGACGGTACCCGTTCTAAGCTCTTTCAGTCCAACCCATGAAAGTTTTGGGCCCCTCCTCCACCACTGT
1 ctcttctttgccctactttgtaatactggagctggaccctgttactaattctctttcgtcagctgttgcaatgttacactgtgtcagtagagggtgctagagggaaactgcaaggtatagcagaggaccagctcctccttctggctcctcctggacactgcaaggtaaagcagaggacgagctcctcctcttggctctagtgtgccttttttctcccacagtgtgattgtcccagcagggggaaatccag
0.9807162245279892 GATCTACACACAACTTAGCATGGTGTAGGAACTTGAGTGCATGCTCCTACAGCACACAACAGATGCACTGAAAGGCTCCCACCTCTTAACTAACAGCTTATGCTGCAAGGCATCAGCCAGGATAACGGCAGAGCCCTTCTGTGTATGTGTTCTTTCACAGGCGGCACTGTTACCGGAAGAAGCGAAGAGCAGCGATTTCCTTCCAAAAGGTCAGCTGCCTCAGACAGACCAAACAGAAAGCAGCGAATTC
0.9741173290742016 CACGCAGCTCAAGGCCCTCTCTGCTGCAGATGGTGCGCCCTGGGAGGGCGGGGGTGGGGCCCTGCTCCTCCATCCTTGTCGTCACCCTCCCACCCAGCGTGCAGGACCTGGCGCGTGGAGAGCAGGGTGGGGGTGGTTGTGGCGAGCGCCTGCTCCTCTCCCAGCTCGGCCTTTCCTCCTTCACCCCACCTCAGCACTGGAAGGCAAAGCCAGCTGGAAGGGATCTGCGAAGCAGGCCGTCTGGCTCCTC
1 TGTCCCAAAATGAGGACTCCCACCTGCAGTTCCTGGGTCGGGCACCTTGGGGCGCCAGAGCCCCACCACGGTGGTGCCTGCACATCCTGGGTAGGGGTCCTTCGCTACTCAGCTGAACCCTGGTGAGCTGGCTGCATGGGCACTGTGGGCTGGGGAACACCAGGGGCAGCAGGCAACGTTCCTAGCTCTTGAGGAGGAGGGCTGAGGGCATAGGGCCGCACACAAACACTGCCCCACAAGCTGGCAGCAC
1 CCTCATTCAGGTTGGAGgtggagattgcaggggagggatctgcaggccagatctggaagtggcaagttcagcccgcattccactgaccagaacccagactgtggtcgcacctttgcaagggagactggaacagcatctagctttgtgcccaggaggataaggaagcaaggtctagcgaacactcagcagagtctctcccaGCAGCCAGCAATTTTCTGTGCATCTACTATGAGCTAGTCAGCCTGGTTGG
1 AAAGACTCTTTGTTGGGTATGATTTTGGAGACTGAACAGATTTAAGCAGAATTCTTGTGCACCCCCCTCACCAATCTCACTTCTGCTAACATGTAGGTAGTTGAAGATTTACAGAGTGTATTTCCTACTCTTGGTGGAAAATGAAATTCAGGAAGTGAAGGTTGAGACTTGAACTTAGCATGCCAATCCTGACCATTTCTGGCCTGAGGGATGACTCACCCTTTAAAGTTTCCCCAAATGTCCCCCTGCT
0.5676206108531768 GCACCTTAAGTGGAGGTGGTGGGAGCTGGGACCAGTGCAGCACCCTTGCCAGCCATGGTGGGGGAGGACAGCCAGTGTCTCTTCATGGAGATCCTGCAGCAGGTGGTGGCATGCCCCAGGGTCCCGTCTCTGTCTACCTACCTGGGTTTGGGAAACTGGAGTCAGAACCTTTAGTGATTGCGATCTAGGAAGGACGGTAGTGTTTGCAAACCACGTGAGCAcaggagtgagcaaggtccaaccccgcccc
1 cccaatcGAAAGCAACTGTAATGAACTGTGTCTGGAGTGCTGTGTGCCAGGCACTGTGGATCCAGAAAcggattaagaccttctgccacaaacaaccagaaaactgggcaagatataagcagcagacacttgacaacaggcagcacacaggacagtgaccccatgactgcctcagcttctgcctggagacagttccctgactgtgccttggggaggggaaacccaagcggaccacagtggctttgctaag
1 ACCTCAGGATTCTTCCAGCCAAGACCAATTGCTCTCTCATCCGACCTCAGTCTGTAGCCTCTCACACTCATTTGACCTGAACATACGATCACAGGTTGTTCTCCTTTTCCATTTTTCTCTTTTCCTCCCTCTCTGAGAGTCAGGACCCTCTCTCCTCTGGCTCTCATTTACCTTACTGATCTCTGCTGAGCTGACCTGGCTCATCGCTGAATCAGGGAAGTGAGTCTTGGCACCTAGGTGTATTGTTCCC
1 CTGAGCACCTACTATGTGTGCATTCTCTTAAAATGCAATGAGCATCGATTGTGTGTCCACATAACCCATGAGCACCTGCTATGTGTCCATCTGGGCACCAGCCCATGAGCACCTACTATGTGTGCATTCTCTTAAAATGCAATGAGCATCGATTGTGTGTCCACATAACCCATGAGCACCTGCTATGTGTCCATCTGGGCACCAGCCCAGgagcacctactatgtgccaagccttgtgcctgccatggat
0.633872644288958 CGTGAGACCAAAAGTCTGGAGTGAAGGAGATTCTTGCTcagggccaggcctggggtgaggcgaccgaggcacccaggacgcacgtgaggaggcgctcactgcacttgcgcgaccctgagtcagtgctcctttacactttgtgccttgggagccttactcacctcaccctagtcccggccttgTTTTTACTGCTACCCCTCCTCAACATCCCCGAAAGCCATCGCAAGATCAGCCCCGGTCTCTAGCCCTC
0.2762497272094678 GGTCCTCCTAGGAGGCCCCAGCAGGCAGCGGCCCCTGGCACCCTGGCCTAGGCCTCCCCTCCTCACCCCAACCCGCTTGCCTAGGGTCAGGGGCAGAGGACAGAGACACAACGCCAGGCCTCTCCACCAGGGGGCGGCAAGGCCAGTCCCTAAGCAGCCACGCCCCACCGGCCGGGGCCCTCACCCGGTGGCTCCACCCTGCGGGGAACAGAGCAGCTGTCGCTCTGCGGAGCTTTCCAGGACAGAGAAG
0.8729718022951123 CAAGGGGCAGGCTGCTCTCAGGAGCGGGAAGCCCATCCCCACCTTCATCCCTCTGGCCCAGAGGAGGCTTCCTTCCCTGGAGGGCTGAGGCAGCAGGCAGCTGGGTCAGCCCATGCCTCTCGCATGTGGCCATCTGAATCATTTCCTTTCGCAATGTGTTACTCAGTTTCAGGGCCTGCCACGTGGGGGTGTTTCCATTCCTTTCTGCAGCTGGACTTGGTGGACGTGGGGAACGTGGCAGTTGTGCCTT
1 ttccttttcagtctcccagtggacaaactctagtgtccctctggcgattgactgcaactggccagggccactccctggtatggcctaaaggccagcaggtcaacagatttgactgccttgtacagaaggaaggaagggcctctcctgtcctttctggtcaaaggtccctgatccctctgtgtgttgcaattgacacacgttttgtccccctctttctctttctaaattattccatgaagacagccacacc
0.2312390321721907 aacaaacaaacaaacaaacaaacaaacaaCCCCCAAACTCCCCAAAAATGTGTTAGGGGAAGGAGGTGGGACAGTGTGTATTTCTGATCTACTCGCCTTTCCTAGTATGACCACCAGGGGGCGCGGAAGCCCTCCTGGTACTAAGGCGGGGACAACCTGCCCAGCGAGCACAGCGGGCAGAAGGAAGTGTGCCGGACGCGAGAGAGAACTACGGCCGAGACCCGCGGGGCCGGCTCAAAGCCCGACCTCT
1 GCCTCAGGCTGTTATCAGCAACGGGTGCCTGCGTCCTGCTGCCCAGCACGTCCGGTGGTCCAGAGTCACTGGAATGCAGCTTGGGAGGCGGGGCTGGGGACCTTAGCTAAGGGCAGGTCTGGGGCAACATGATATGGCCCACAGGGCTGCTGAGAGGTAACCAGGTGTCCTCAGCATATTCTGCCGATGGTGGGGTCCACACCACACTTTGGGGACCCCTGTGCAGGCAGCCCAGGACCAGGTGGACGTG
1 CCTTTGCCCCTAAGTATGACAGGTCACTGGAAGCCTCTTGAAACACTGAGCGAAATCTGCCGCCTGACACGTTCTCCCTGGCTAGTTGGCTGCTTTGCATGCCTATGGGGCAAGCAGGCTATTTTTGCGCGGATTTCATAACCCCCTTTGTAGCTGCTGTGGCTGCTGATTGCACATGTGTTTCCAGCTCCACTCCCGTGGTGAGAATGTTTACAGAAACAGGCGCGTTGTCAGAGAATGTAGAGAAAGC
0.4830830962201761 GGCACTGAGGCCCAGAAGCTTCATGCTCTTTAGAGCCAGAGGTGTCAAGCCCAGCTGCCTGTGTCCTGGCCGCACTGTGAGGCACTGAGGATGCCCTCAcacgtgcatctgcatgtggcgtgcatgtggcaagcatgtgcaggtgctgtgTGGGCACGATCATGCCTGCCCTCTACTGTGCTGGAGAGGTAAGACCATCAGCCGTTTCACAGAGGAGGGAATGTGGACCTCACGGGGGTCTCATGAGCTT
1 AAGTGCCTGCCTCCATCTGTCCCTGTCCGTTGGTCTCTGCCTCCCCTTTTGCCCCGTCCTTCATGTCCCTGGCCCTCCTGCCTCCACCCTCAGCGCCCCTTACAGCCCTCACTGTTCTTTCTCCTCAGTGGCTCTGAGGCTGCTCCTTTCTGGCGTGCTGGAGCAAATCCATCCCTGTGATTGATGCAGCCTCCTTTGCTTCCCCCACTTCTTCCCTCTTAGCCCCTCCCGGCAGCAGAGGATGGCTATG
1 CTGTGCTGCTTGCCCCGGTACCTCCTCCTAAGTCTGGCCCAGCAGGAAACGGAGCGCGGGTCAAAGTCCTCTCACAGTCAACCAGGAGAAACCTGTGTCTTCCTGGCAGGGTGGCTGGGTGCTATGGAAACAAGGCTCAGCCCAGAAGTGCCCAGCCTCCTTCCCAGAAGCAACTTCAGCCTCTAGGGGAGGAGTGAAGTGAACAAACAAACGGAAGGGCAGAGCTCAGTTCCTGGATGGAAGCGGCACC
0.8549333185958522 TTCTCGCGGAAAATGGGTGGATCCCCTGCTCCAACGAGACTGAAAGCGGCAGGAGCATGGATGAACGTTGCGGTGTTGCCGTTGCACATGGCTGCCACCTGGCCATGTTCTGGGACTCATGCTTGTAAATCCTTTTACATTTCAAAGCCTTAGTGATGACTCATCAGTGGGAGAACACCCGGAACAGGGACTGGCAAATGATTATAAACGGTCAGAGAGGTggccgggtacagcggctcacatctggagg
0.1772050255685508 gggagagggagggagagagagagagagagaAATCTAAGCTGAGGTTCAGAGGTAGAGGCAGTCATTGAAAAACAGGCTTTTGCGGGCGGGCGGCGTCCACTGCAAGGATGCACTGTCTGGCTCCCTCTGGAGGCGGGAGCACGAAGGAGCGACCACGGAGCCCTTGAGCCTGTGGATGGTGGCCTCGGCGGCCGGCAGGCCATGCTGGAGTATCTGCCAACCTGATGAAGACGAGGACGTCCCACAAGTT
0.7348815500510628 CACAAAACCTGAGATGGGCTGCTGGAGGAGAGCACTGGGCCTCTAGGCATGCAGGGGCACTCCAGTGTGAGGGCACACCCGCTGACCTCGAGTGTGGGAACACGGCGGGCCTGTGTTCCCTCCGGACCACGAGTTTCCATGTTTTCATTATTTTCCCTTTCATCTTAAGACTCTCGAGATTTGAGCAGCCCCGCATGGCATAAAGAACCCTGCTTACGTGCATGGCACCTGCCTGCTTGAGTTCAGCAGG
0.8535212964435411 CTGGCCCAGGGCGGCCGCTCTGTACGCTGGAGCCGCGTCTCTGTGGTTCTTCCGGACTCCGTTGCCAGGGCGACGAGTGCACCTCTCGATTGGAGACAGGGCATTCCGTGGCGCTCCCCAAACGGTGACAAACGGTGATAGGACAGGGACAGGCCAACTGAACCTCGCAGAGAAAGCACTGGGCCCTATCCCTTTCGCTGCTCAACCTAAACTAggcgcggtggctcacgcctgcaatcacagcactttg
1 ctagcggggagATCAAGCTGATTCTGCAGAGTCGGGAACCAGCAACCCAGTTTTAGCAGCTAGGTGGGGAAGTGCCACTGCCAGGTGAACCAGCAGCATCCAGAGGACACGTGGCCCCAGtggcaggtagaccggaagcctgggaaagaaaccggaagcaaactgaaaggagcacattccccatcttccccagccttgcgtgctttctctggtgcccctagtgggagaatttagcacagcaccagctggc
1 CCCCTTTAAAGCTATAAGCCTGCCTTTTCCCATTGGCGATGGGTCCAGGTATCGTTCCCCAGGCTCCGCCTCTGAGCTGTGACCATTAGCTGGTTGGTGGGATCTAATCGCCCTCTTCCTAGCTCCTTACAGTCCCACTGAAGCCCCGCCCCCTTTCTCCGGGCCTGGATTGGCTAAATAACCTTGAGTCGGCCCCTCATTGGCTTTCTCACTCCTACTGCACGAAGTGAAAAAGTAAAGTGCGTTAAGG
1 tgcgcctgcattccattgtccctttgcaaaagaCATTCTCAACACCACGACGCCAAAGGAATCCTGTGTGTCTGTGTTGTATGTCATCAAGGAGAAACCACCTTTGTCTGCAGAAAGATCTCATGGCTACCCTCACCACCCTGCCCCTATGAAGCCTGAGAACCAGCTGGCTCAGCAGGGAAGGCCGCAAAGTCAGGAGCGACCAAAGTCCAAGCTCCAACGTGCCTCTCGTTCTCCAAACATTCTCCCC
1 CGGGGCACTTCAATCTTCACTTCTCTTGGGGTAACTATTCCATGGCACCTTGAAACACAGTTCTCATCCACCTAGTCGATGTCAGTGTTTACAGCGTGAGCTCATTCGTCATTTACTTCCATTCAGCACCAGGGATAGCGCCCACACTGCCCATCCCCACTGAAAGTGTGTTAAATTGAATTGGCTTTAGGATGTGTCCCCAAGAAAAATGGAAATTCTCTCTGGTAAAGAAAACAAGTAGATGTCACTC
0.5321958777059408 TTCACTCAATTTGTAATAGGCAGATGGTCACTCCGTGATGCTCACATGCCAGGAGGTGTGAGGGAAGAGGGAACGTGGGCTTCCGGACCGGCAGCACAGCTTTCGACTTGGAGCGTCTGGGACGTGTATACGTTTGTGTGTGGCGCCTCCCTGTGGACACCACAGGTATTGCCTGGGACCGACCCTGATTGCCAACATCTATCTCAGCCTCTGGCAGTCCCCACCAGGATTGTGGAGGCAACTttcttat
1 TGCCGGGTCTCTGGAGTCTGCTAGTCTCGGCTAACATGTCTGATACTCCAGCAGCCGCACAGCACCCTCTCCTGGACGGCATGGGCTTGGCAAGTGCAGAGCTGTCCACTCACCCTACTTCTGTGCAGGAACCATTTTCTGAGTCTGTGATTTGGAGGCAAATCTTGCCTTTGACCATCATGATGGTTCCTATTGGCCTATGACTCCCTGGCCTCCTCCTTCCTAGGTGTCAGGGAGGCCTAGTTCACAG
1 ccatccatgcttctgaaaattctGCTTGTGGCTGCACCACTGAGGAGCAGGGGCCCGGGAAACGCCTGGCTCTAGTCTGCATCTTATGGCCCTGCCTTGCTGCCAGCATCCACAGGTCTCCCTAAGCCTTGGATGATTGGCCCCGGCTGCCCCGTCTGGTGAGCTCAGCGCAGCATTCGTGAGAACTGATGGTGGAGATAAAGATAGGCATGCTGAAATGAGGCACACTCTGCCTCTGCCCCCACACAGC
0.6107937483719149 TGGGACCAGGGGTGGCACTGACACGGCTGGGGAGCCCACTCCCGAGGTTCGACCCGGGGATGTGCACAGCCACATTCCAAAGGCGCACGGGATGAGATCAGCCCGGGTGACCCTGGGACTTTGTCCTCCTCGGCAGGAGCCAGCCCTGTGCACCCTGTGTGCCTGTCCATCTGGAAGGCCCAGCATGAGAGGCCCGGCCGTCCTCCTCACTGTGGCTCTGGCCACGCTCCTGGCTCCCGGGGCCGGAGCA
1 ggaagggtgaacgtccgggtggagggaacagcatgagaggcagctcagaggcaggcaggtgagagtgtttactaagggagcagtgtgtaaccagatgtggctagaatgtggagagagaggactgtggaaggagccagggctggCCTGGATGTTTGGACTTTGCTTTCCCATAGTAGGGAGCTCTGGCAGCTCTTTCAGCAGAGTAACAGTGAGGTCCCGTCTAAGAGTACTTATTCAACAGCTCTGTGAA
1 cagtgtatcttgtcagggagcagggagcacatggtgacatatgccccaatactggtatgttagctttgatctctGCAAAGGCAGTAAATGGCCTCTTGGTGGAGGCTGTCCTCTGCTGGTTATTCTCAACATTGCatcacttcttggccttttggctaagatcaagtgtaTTCTCAACATTGCAGCTGCTATGCCTCTGCTGATGTGATTGACAAAggaccagatgccctgagtacgaactctgacactt
0.8079980226210794 GGCTAGGACAGGCCTGAGTTTGTGGCGAATCCCCCTTGTCCACTTCCCTGAGGACACACGCTGCAGGAGAGCAGCCTCGAGTCTTTTCTGCCTTCGAGGTCTCAGGAGCTTTTGTCCCCAAGCCCAGAGGACAGGGGTGGCCCTGACTCAGGCGCCCTCTTCCGGGTAGGGGTCCGCGTgcgccctcccaagcccgcgccccgcaggggcgcccgcccctctccccgcccccggcgtgggcccgcccccg
0.5877485030606047 TCCCCTTCCCACCCACCTCTGGCTGAAGGTGCTCAAGAGGGAAGCAATTATAAGGTGGGTGGCAGGAGGGAACAGGTGCCACCTGCTGGACAATCACACGAAAGGCAGGCGGGCTGTGTACTGGGCCCTGACTGTGCGTCCACTGCTGTCTTCCCTACCTCACCAGGCTACTGGCAGCAGCATCCCGAGAGCACATCATCTCCACAGCCTGGTAAATTCCATGTGCCTCTGGGTACAAAAGTGCCTCAAC
0.05863861074114681 TTTTGGGATAACTTAGTGCCGTCCCCTCCGATGAACCAGTGCCTTCGAAAGCCCTTGAGATTTGGGAAACAGGCGGCACAGATCTTGGAGGTTACCTTGTTCTTAATCAGTCCTCAGGCAGTCGCCTCTAACGCGAGCGAACACCGGCTTCCCGAGGCCGTCGCTCGGCAGAGGAGGGGCCAGGCGcccgatcccagatcccctttccccgccccgccgcgccccgcCTGCTCTGGCACAGCCGCACTCC
1 CCTTCTTCCCTTCCCCCACAGCCAATGCAGACACTCTCCCCGCACTGCCTCTAAATCTACCCCAGCTGTCAACATCTGGCCCCCATCTGTGTCCATCCACGGAACCCCCTGCTCCAGCTCCTGCCCCAGCCTCCCTCTCCAGTGGCTGTCGGGCAGGGCTGGGAGCTCAAGGCCTTCCCTCCCTCTCCTGCAGCAGCCTCTGGCCAGGACTGAGGAACCAGGACAGGGGAGGGAGGGGACAGCCCCACCC
1 tgagacagagtctcactctgtcaaccaggctggagtgcagcagcacgatctcagctaactgcaacctctgcctcccaggttcaagcgattctcctgccacagcctccggagtagctgggactacaggcatgtgccaccacgctgatctaatttttgtatttttagcagacatggggtttcaccttttttggccaggctggtctcaaactcctgacctcaagtgacctgcccacctcagcctcctaaagtg
1 GAGGACTGGAAATCAGGGCTGTGCCTTCCTGGGCCAAGGGAGTGAAGGAAAGAGCCTCTCCTGCTTCATAACAATTGTACCCTCTCTCCTCTCATCCCTCACGCCTATTTCCTCCCCTGCATCCACATGGCGCCACCATCACTGACCTCAACCCTTGCTGGTGCCCTCAGCCTGCCTTGGCACAACTTTTAAAAATAGAGAGTAGGGAGAGGGTGTTGGGGTCAGCAGAGAAGGTGAAGCCAGAGGACAT
1 GGTGTCAGCTCCAAGGGACACTGCTCGGCCTCCTCTTAGTCAACCCAGGGACGACTCCTTCCTGGTGGGACCTCCCTTCTTGAGGCTTCCAGGAGGCACTCCTGTGTCTCTGGTCTCCGCTTCCCGGCCCCTCCTCCCTCCTGAAGCTCCATCCTGTCCCCAGCGTCCCTGAGATGACCTCACCCACGCCAGTTTCCCATTCCATGCTCTGCGGCAGGCTCCGGAGTCCACATCTCCAAGCCGAGTAGGC
1 TGTGTGAGCAGTGGACACGTGAGGGGGGGGTGGGTGAGAGAGACAGGCAGCTCGGATTCAACTACCTTAGATAATATTTCTGAAAACCTACCAGCCAGAGGGTAGGGCACAAAGATGGAtgtaatgcactttgggaggccaaggcgggaggattgcttgagcccaggagttcaagaccagcctgggcaacataccaagacccccgtctctttaaaaatatatatattttaaatatacttaaatatatatt
1 CAGTGAGCCAGCCGGGTTCCGTTTCCATCGCGGGCCTTATCCGGGGCGTATTCCTTCCAGGTGCGGCCTCCGGGGAAGCCCAGTCCCCAGCCTGGAGGTGACGAGGCCGGCGCACCCACCAGGGGTCGCTGCAGGCAAGAGCTGGAGGCCTGAAGGCAGGTGGGGCCCAGGGAGCCGGCCCGGCACACTCGGATACACAGCTTTAGGTGTGCCAGATCGGGACGATGTTTTAATAAAAGTAAAGCAGACA
0.8492008607693824 TGACCAGCACTAGCCAATGAGCTGTGAGTACACGTGACACAGGGACAAGCTGGGTCATGTGACTGGCACTAGCCAATGAGCTGTGAGGACGTGAGCACAGGTCCAGCTAGGCTGGGTCATATGACAAGCATTAGCCAATGAGCTGTGAGGACACGTGAGTACAGGTCCAGCTAGGCTGGGACATGTGACTGGCACTGGCCCATGGGCTGTGAGCACAGGTCAGGTCAGCCCCTTCCTGCTGCTTCCCACC
1 CCCCAGGCCAGGATGTCAGGCCTGGTGTTGGGGCAGCGGGATGAGCCTGCAGGCCACCGGCTCAGCCAAGAGGAGATCCTGGGGAGCACACGGCTGGTCAGCCAAGGGCTAGAGGCCCTACGCAGTGAACACCAGGCCGTGCTGCAAAGCCTGTCCCAGACCATTGAGTGTCTGCAGCAGGGAGGCCATGAGGAAGGGCTGGTGCATGAGAAGGCCCGGCAGCTTCGCCGTTCTATGGAAAACATTGAGC
0.2776403033968531 GATACTTTCACTGATCCTTTCAAGTGCCCCTGCCcctacctacgccttttagaggtaaggaaagcaagcaggcacagaacacaagacctgcccaaggctgaagagtgagttcacggcagagGAAACACCCTGTGTCCCGCCCGGCCACACCACCCTCAGCTATGCAGCTCTGGCCTGCAGCCCAGTCCCCACCCCCACCCCTGTGACTAAGGGCTTTCCCCAATGTCAACTTCCCTAAGTCAGGCCAGAG
1 CAGCTCACCAAGGGCAGGCGACAGCGTGATGGGAAGCAGCGGGGCTCTGAGCAGGGACATGACCCCCTCTGGCGGCTGAGAGGAGAACGTCCCGTAGGGCCAGGGTGACCAGAGAGGAGTGCAGATGGGCTGTGAAGGTTGGGCAGGGCTGAGTATTCCTGAGTGACAGATTTGCTGGTGGCACAGGGTCGAGGGCAGTGGGGGAGTCGAGGCTGACACCTGGGTGTTGTAAGCAACGGGGCAGCAGAGC
1 GCTGCTGCTGTGGACTTGGAGCCTCAGCACTCCCGAGACTAATGCTGCGTGGATGTCGGGTTGCAAGGCGGCTGCTGCAGCTCCAGCAGCTCCAGCCATCACGTCGAGTCTGGAAGAAGGAGGTGGCTGCTGCTGCTTTCACAGAAGCAAACTCTCCCATCCCCTGCTGCACCCTGGCTCCTGGACCCCAGCTGGGTGACTTGGGAAAGCAGGGGTGGTGGTATTAAGCTTGTCTTACCCGGGTCATGGC
1 TAGAAGGAGCATATTATCTTTGAAAACCGGAGTTCTAGAGACAAAGTTGAACCAACTAATAGGGCTTGTAGAATCCAGTGTAAAGACTATGCTGTTAGGGCACAACACCTAGGTTGCTCTCCAAGGTGCTGAATCAATTTGTCTGGTTATGTGAACTTCTCTGCTTCTGGTGCCTTTCTGCCTCTGAGTGTGTCAAACTCAGCTCTCTTATAAAGTAGCAGCCTTGTCCCAGACTGATGTCCCAAGACAT
1 TCTTTCCCCAACACAGAGAAGACAGCATCTCCCCCTGCTGGGGGGAGCTGGAAAGCCAGGCAGGACGCGGGGCCCATTCCACAGGCCCACTCAGGACGCCCCTCCTGGCCAGGGCTCAGCAGTGGCTCTCAAGCTGCCAGCCTCCTGCGTTGGTGGACACGTCCAGCTCCTCCAACACTCTTGTCAGCTCCCACAGAGGTAGCTGCAAGGGAAACTTGGACCGCCAGCATCTGGAAAGGTAACCCAATAA
1 aaatccTATGGAGGCCAACCCAACAGCTTCTCTCCCCAGCTTTAAGCAGGGCTGATTGGAGACTCAACCCCCTACTCcctcccaagacacctctggccaatgaggaatggatgttggtgggataaatactccagcttccttgcccctcaggtgggctgctgtgaagcatgtccctgccatctcccaaggcccctacagtgttgagttctgcttgtccacggtgctaactacccatcaatactctgaacag
1 AATGTATTTTTTTTCTAAACAACCTAACCTTGACTCTATCTGTTCCCTCACTCCTCCTCCCTGATCCTACCCAATCTAGGCAGTTGTCAAGTCCTGTTGACTTTACCTGAGGGTGACGGGAAGTGTTTCACGTGTTTAGACGCTTACTGGCATGCCTGCTCCTGCTGGCCAACTTCATAACTCACTCTCACTCACCCAGGGGGTGTTACAATGCATTCCTCACTGTCTGCCTCCATTTTCTTGGGTCTTC
1 GGAATATTCTATGGGGAAGAGGGGACCGGCATTCCTGCAGCAGAGATGTGTCCTCTTTgtacccattgtgtgtacacactgtactagcacagtggtgccgcgctgagcaagaggagcactgcagctgcggcagaatctcattgtggtggaagacaggcacagcaagcaagcagagtgtgttcagggctgtgaagaggggagacccggtaggtagctcatgggcggtggacctttccaggatttgtcaagt
1 TTGGGAGCCTCCAGCTCTAGGCTGCGGGGATCCCCTCTGCCATTCAGGCCCAGCCCCTCTACACTGGGCCCTGAGCATGTACCTGGCTCCCCCAGTGTACCCGAGGGCCTTGCTGTCACCGGATGGATTGAGCAACTCAACCGAGTGTGCATTTTCCAGCTCAGGCTAACCACCATTCAGTCACTTCCCCTCACGTTCATAGACCAGTTGGTTCCTTGTCATTTCTCAGGGGACACCATGACCCTTCTTG
0.07194161198693583 CTGGAGGGAGGGTCAACGGGGAGGCGCTGTATCGGCGGCGCTCCAGGGACAGGCGGCTGGACTCAGGCGAGTCAGGGCAAAGGTGTCCAGGGGTGTCCAGCTCCACTGGCTCCATGCGGCTCAGTTTCTGCCTCAGCCCTGAAGGGGGACCAGACTCCTGAGCTTCTGGTGCTGTGTTTCGGCGAGAGAGAGGACCCCCGCTAGTCACTTTCTCCGCCCATGGGGGCGGGTCCTCAGGGCCTTCGGTGCT
1 AGTGGATTGGAGGGGTGCTGCCTTCCCCCTTACCCATTTGTCCCAGTGGCCAAAAGGGGCTGAAAGCAGGTAGCTGGAGGATGCGGGAGACGTGTGATTCCCTGTTTGCCAGTTGGCCTAACTGGAATCTTCCTGAAATCATTGTATCCCTGTGAGCAGACAGCAGGCACTATGGGCTGTTTGGCCTTGGGTTCGCTTCCTGCCTTGGGCAGTCTGTGGAATGGGGCCCGGTCCTCAAGCACTTGTGGCT
1 ACTGGACTTGAGCAAGGTCAAGGTGACTGAAGGCAGAGAGCAAAGGAGGGTGGCCTTGGGCTGGGAAGTCACAACCACTCACTTCCCACCCTTTTGGACAAATGCTGCTTTCTGGAAACAGAAGGTTTATTTGAATCCTTGGTCCTACATGACAAAGGGCTTGATGGCATCTGCATCTTGGGGATACGTTCCCCTCTCCAGCCCCTCACACCCTGCTCTTCCACATGGTCCCAGTGCTGGCAAGGATGTA
1 tcattcgtccatctgtccatccttccatccatctatccacccacccatATCTATCTGAGCTGTCTATGGTAGAAAAAAAGCAACTTGGGCGGAGGCTAGAGAAGACAAGCATGGTGTGAGACTGCCCTCTAGAGATTGCTACAGGAAAGTGCAGGTGGGGAGCTCCCTCTTTCAGGATAAGATCAACCCCACCACTCGttcactcattcacatttattgagcgagtacctacctatacccggcaccgtgt
1 ACCACGAAAATGGGGAGAGGGGGACACGCGCACAGCCCCCACACTCCACCGACTCTCCGTCTCCTGCTCTCTGCCCAGTAAGGAACACAGGCCCCACCCCCTCCACCCTCACTGTGTTTGGGATCagccatttcagcggggtgaggcgtccccttgtgggtgcgattggcatttccctgagggctgtgaacactgaacaccttttcctgggctcactgcgatttgcattcttcttctgatgccagcgggc
0.4906456322879851 CTCAGCCGCGCCACCAGGGACAGCGGCCGCGGGGACGGCGCCGCTCCGGCCGCTGGGGGTCCCGGGCCCATCGCGGCGCCGGGCCCGCGCCCCCCACCCCCGGGCTCCGCGGAGGGTACCCTGGCCAGGCCTTCTTGGGTGCCGTGGGGGCAGGCGCCGGGGACCCCCACCACGCGCCGGGCACCCCGCGTCCCGCTCTCTTACGGCCGCGCCCTCACCCACGTCCGCCGCGTCCGCCCCACGCTCGACT
1 TGCCTAGaagttccacaaggacacccccgccccatctgatttgtcactgctgtgtctctagggtccagagcagtacTGCTCTGGGACTGGGATCTGGGGATGCAAGGCTCTGCCAGCCGTGACCACCAGGGGGCATCCACGGGTCAGAAACCACGGCTTGGAGACCCACCCGGCCAGGCCACAGAGAGAGGTGTGCGGGACAGGCCTGGGAAGAGGGAGACTCCAGCCCTCTCTGAACACAGCGACCCCA
1 TCAAGGGAAGAGGGATTCCACAGGAGAGCCCTTTGAGGAGAGATGGACCCCAACGCTAGGCCCCTCGACATCCTTCAGGCACACACCTGTATGCTCAGACCCACCTGGCAACACACACACACTCACTCACTACTGGTCTCTACATTCCTTGTTTGCAACCAGGCTATGGCCAGAGAAAATAAAGGTGTCATAGGTTAGTTACACAAGGCAGACATTTTTGGTGGAATCACTCAGTCCAGTTTAAACAAAG
1 TGACTCCTCCCAGCTCCGTTCAGTCACCTAGGAGGTGAAGAATTCAGCAAGCCCTGGTTCTGGTTGCCCCAGTGTGACCAGCACTGTAAACAGGGCGCCTGGCTGGTCTGGCACAGGCTGCAGCCAGGGCCGTTCGCGCCCCGCCTCCTACCAGCTCCTCCTGGATTTCTCAGGGCTGTGGCCTTTTGTTTACAGGCTCCCGCCTCACCTTCCTCTCCCAGCCCGGAGCCTCTCTGCTGAGCACATGTTT
1 ATTTGAAGTACATAAATTCACAAGGTAAGACTCTCCCAGGACTCCAAGATTGCTTGATGCACTGTTGCTCCCTGTAGCCTCACAGTGGCAACCTGCTGGGGTCATCAGCACCACGTGTATGGACAGCTCCTCCTCCAGGACTTCCTTAACTCTTAATTCCAGAACCTGGCCTCTGCCCATGGTTCTGATCAAGATTTCCCTTCCTTTCTTGCCCTTCTTGCCATAGCTTCAAGTACTCAGGCCAGAGTCC
1 ATAAGGGCTGCTGTCCCAGGAAATGGTCAAATGCAAGGAGGCCTATAAACTTAATGTTTGCTTAACTCCAGAGTCTGGTGTTAATTTTTCAACGTGTCCAGATGTAGGGGCGCCAGAGAGCTTGGAAGTGCTGACGTGCTCTTATCCCTGCAGAGCTAGTGAGGACCACACTTTCCAGATGTCCAAGGCTGTCCAAATATGCAAGTCTTCAAAATGACAAAAATACTCCAGGCTTTTACTCTCCAGCATG
0.6406264600262519 CTGGGCACCCGCATCGTGGCTCAGCTGTGGTTCTAGGAAGCTAGCCAGAGCCTGACAGAGAGATTGCCAAGACAGCCGCCAGAGGGCAGTGCTGCCCCACACACGCCCAGGGGCCAGCCTGCCTTTGTGTCTCAGGCTGCGTGGGTCTTTCAAGGAGAGGCTGCGTGTCTATGTTTGTGTGTATGTGACTGTGGGAGTCTATTACTTTGTGTGTCTCTGGCGGCAGGGTTGGGGGTTGTCTAGGCCAGTT
0.9220166883347192 TAAAGCAGTGTCTCTGGTCCCTTTCTTCTTTCACTCAGCAAATAATGAATTTCAGAGATGTGCCAACATAGAGGCACTTGGAGAAAGACGAGGCAGCTGAGAGGGAAGCTGCTTACCTGGCCGGGACGCAACGGTTGCGACCAAGTCCCACTTCTGCCAGCTACATACACCCTCTTTCACACGCTCTACGAGCAGCTACCGCCCACTCGCCACGCTATTGGTCCAACTAGCATGAATGATAACTTTTAGG
1 AGGTTAGACTTTGGAGGGACAGGTCAGCCACCCTGATGGCTCACTTCAAATGCACAGCCCACCCTGGCCCTCTCCAACGGCTTGCATTGTCTGCCCACATCAAGATCCCCCCAATCTAAATCTGGAGGATCACCTGGATTGCATGTGGTGTGAGCATGTCACAATTGTCTCCCGATGACCGTATCCATCAGCACCATCACATTTTCTAACTAAAACTGTATGTTTTATCAGAAGTCAAACTggctgggca
1 TGGCAATGAGACAGGTAGGTGTGGAAGCTGCAGATTAACTGGTGCCCCCAGATTGAGATCATGGCACAGGCAAGCTGTATTCATTGGAGTGATCAGCACCAACTGCCGTGACAAACCAGTTCAAGAATCTGTGCTTCATCctgggtgcggtggctcatgcctggaattccagcactttgtgaggctgagatgggaggatcacttgagcccagttaaaaattagctggtgtgggctcgggcacggtggctt
1 ttgaacttgggagatagaggttgcagtgagccgagattgcaccactgcattccagcctgggtgacagagtgagactctgtctcTCTCTCTCTCTCTcacacacacacacatacacacaGAATGAATGAATGGGTGATTTGTCGAGCCTTTCCAGGATCACTGATGGAAGTTATATGTGTTCCCTTCCAGGTATCGTGTCCATACCCAGCCCCCAGCCTGCAGGCTAGAGACTCTGAAGTGGCATGAGGCC
0.5743907858170944 CTGTCTCAGGAACTCATGGCAGTGGTTTACCTTGTCAGGAGTGCATGGACGGGCTGCCCCTCCCATTCCTTCAAGCATCACTCAGAGAGCCCTGGCCTGGCTCTAGGCTTGGGACTGCGGCTGCCACAGGAAGGGGGCATCCCCCTACTTTGGGTGTTGGGTCAGATCCTGCCCCCGTGCCCGCCAGGGCTCAGGTTCCTCTGAGCTGGTCCTGGGCCAGGACGCATCTGCATGGCGGTGGTGGGGAGGA
1 CCCCAGTCCTGCATTCTGCTCTCCAGAACCTGCAACTGAGGAGTCACCTTCAGGGGAAGAGGTGGGCCAGGGAGGAGGAGCCAGCCTCGGGCACAGAGAACCCAAGCCAGGACCCGTCAGGACCCTGGAGAGCTCCGAGCCAGCTGGATGTTCAGTGTTCTGCACCATGCAGCAAATCTGGCCAAGTCGGGAGAAGTCTCCTTTCTCAAACCCCCTTCTGACTTTTAAAGGAAGGGATGCCTTCCACTCT
1 GGGAGAGAAGGTTCTGGGTTAGGCTCCAAGGTCTAGGGAGCCCACGTCGTCTGCCCCTGCCTGAGTGGAAGGCTGGGCGCAGGTGGGCCTCGGCGTTAGGAAAGGCAACTGCTCCCTCTTGTGGCCACTCTAGGGCAGCCCGGCGTCCTCCCAGCGATGTGGCAGCCGGTCTCAAGCAGGCAGGGGTGATCCCTCCTCCCCAGCCCTGCGCAGGCCTCGAAGGGGAAGAGAACCAGCGATGCTGGTGaga
1 TAGCCGGGACCCGAAGCCCCCGCCGCCCTCCTGCCAGCTCTTGGTCTAACGTTCGGCCCTCGGTGGCTCAGCCCCCGCGCCACTGCCTGCCCGGTGCACCTGCCCCCTCCTGGTGGGGTCTCCTTTCCTCCCACTCTTTGCCTGCCCGGAGAGCCCTCTAGGGGTGGTGGCAGCTACCCCGACCCTTAGGAGCCCACCAGGACCTCTCCAAGTCCCCATCTCCGGGCGAACCAAGCATCCCCAGCCAGCG
0.912771278058631 GCAGAGTGGGAAATGATGACTGGGAGCTGGTATCGCGAATGTCTACACGCAGACTGACTTCAGGGGCGAGGAATTCCGCCTGGCGAGCGTCTAGACTGCGGTGTTTCTGGGACGCTGGGAGCTGGAGCCAGGACAGGTCTCCCGGGAGCTGGTCTGTGCTGCCACCTGCTGGTCATGGCCCGACAGGCGGCCTCGCTGTCACCACTGAGTGAGCTCGAGGTGCCCCGTCCCAGGACCGTGGCAGGAGGGG
1 tctgagtctcagaggagtgtgttctgaacgtctcctctgagaacaggagacgttccaagaggccatccatgttgagtgcaggatgtgtggccacatggatgtgtagtcatggggactataaccaggcattccaagcatgatgactggacattaaaaatggcagatcagtgaaataaggaagggcttgttggtgagacatccaggctccccggctggcagcagagatcacttcagttcagcttggagacgt
0.1883111113931181 TTAAGGAAtgctggtggtggtggtggtgTTTCTAGGAAAATGAGCATGCTTCCTTGAGAATTAAAGTAAATTTCCCGCAAGGTATGGAGTTGGAAATTCTGGGCTCTGTCTCGGGTCCTGAAACCTTGGTCCAAGGTCACGAGGAGCTGTCCAAGGTCCCAATGTCTTAGACcagtgcttctccaagtgtggtttgcagataacctgcattaaaatcaactgagggcgtccattacactgcagattcctg
1 CAGCAGGGCTGCTCTCCTGTTTGCTAGCTTTGCTCTGCTCCTCACTAATAGAAAATCCCCAAGGATGTGGGAACCCTTGGGAGGCCTCTGAGCAAGGCTGTGCCTCAGGGCATGGGAGGAAGTCATCACTAGAGGGCCCCACTGAGCTCCCTTGCCTGCCCAGCAGGGACACCTTCAGACATGGGATTCAGGAATTCAGCCACACAGGAACACCAGAATGAGACCAGAGCTTGGACTGGAGTCATTGCTC
0.593135178323942 CATcgccgccgccgccgccgccgccgccgGGCCGCGCCGGGCTCCGCTCCTCCGAACCGTCTGGCGGACTTGGCACCGGCCCCCGCTCCTCAGTGCCCCCGCAGTGCGTGGCAGGCTGCGGCTTCATTATCCTGATTGATTCCTCCTGCTCCCCGACACCATGGGGGCCCCGGACAAGGAAGGGAGGCGGAGGCGGCATCTGCAGGCCCCTTCCCCGGCCCTCGCCCCCAGCCGCTCCTCAGGCCACCCT
1 GTGCCCCATGGCCTATTTTCTCTTCCCTTGGGCCAGCTGAGCAGCCCGTGGAGTGGGGCTGGCAACAGCAGTGCAATGAGGGCATCAGACACCAGGTGGCGGCACAGGGCACCCTCACCTGGTGCCACCTGGTGCCCCTCCTGCAAAGGGACCAAGCCAGGGAGAGGGCACCAACACCGATGGACACCTTCTAGGGACAGGTGCCCTGTATAACCTCAGAAGGAGGAAGCAGGCCTGCAGGGCCCAGTGA
0.7582418043909033 TCACTTTTCCTGCAGGGTGCGCCTGAGCAGAGGGGCAGCCCGTTACAGTAGGCGAGGCCAGGGCAAACCCGGGGTCACTATCAGCGCTGCGAGACTGGTATTCAAGGTCCTCTCAGCCGGGCCTCTCACCCACCCCGCTGGCCGCAGCCGGAGGCTGCCACGCGGACACCGTCTCAAGCCTCTGAGCATTGCTCTGAGCCTCTGCCTGCAATGTCCTTCCTCTGTCATCTCTAGGCCTCGGCTCAGCCCT
1 GGCAAGGCCCTTGCTTGTAGTAGGTGATCAACAGCTATGCTGAAGAATGAACCAATGAGGGCCCGGTTAGGTCCAGCACTCCAGCACATCCACAGGGTGGGGCAGTTGGCCAGGAAGCAGCTCCCTCAGCTCCCAGGTGGAGAGGTTGTGAACAGGAGGGCGACCTCAGGGCAATCAACCTGGTGTATTCTGGGACTGCTCATGCTCCTGCTGGAAAGATGGGCAAACCTTGGAGGACCCAGCTTGGAGT
1 AGCAAGAGTTTCTAAGGGAAAAAACAAACCCTACTTCTAACTCTTGTCAAAGCAGATACTGGCTTCGATCGCACAGACATCCCCCACTGACACCAGCTTCACAGCAGCCCTGACAAATAAACACAGTCGGCAGGCGATTCATCACATTTGTAAATTGAATCAACATCCGCTCTCGCCTTCGTGCCCGGGGCCATGATCACAGCATGGCCCCCGCCTGAGAAGGCTGGACTCCCATGGAGGAGGGGCTGGC
1 CCTGGagcgagggcagtcagggaggtgaccttcacactgtggcgtgcaggatgaaaagcagacaccacacagaacacagaaagaagggccttccaggcagagaagcattgtgtgcaaaagtcccaagTTCAGCCTGGCTTATCTCCTGCATGGCTCCCCCAGCCCTGCCTGTGTGTCTGGAAAGCCTCcctcctcttcctcctcctcctcctcctcatcctcctcgtcctcctcctcctGTCTGGGGCAC
1 AGGCAAGTCTCTTTCTGGGAACCTGACTCCCTCTGAGAACAGGCCTGGCTGAGCAGCCTGGGGAGGAGTGGTTGGGGCAGTAGCCAGGGCCACTGGGTGGTGTGGGGGAGGGGTGGTGCACACGCTGCAAAGTCCAGTCCTGTGGCCTGTGAAGCGAGCAACAACTGTGGTACTCGGGGAACCTCTGTTCCTGGAAGGAATGATCAGGCAGAGGCTAGCTCACCCCACACCCTGGCTGTGATGTCCTGAC
0.7157692412374584 ATAGGAAACAGAAAAGTGCACCATGCCTTAAGTGGAAGGCACTGTCCTCAAATAACACATCTCATAAGCACCACCGGGCCCTGGCCTGCCTGTGTCCTTTATCGAGGCCGTGAGGCAGAGGCTGTTTCAGAACCATGGATAGCTCCATGGTGCTGCCCCCAAGGCCGGGAGCCTAAACAGGCCTTTCCACCACCAACCAGATGTTCCTGTTTCCTCAGCCAGCTTAAGGCTAAAACAAACCTTTTCAACC
0.3925457140368608 AAGCTAAACTCAGTCTCCGACTCCGGCCCACGTGAAGAAATTCCCACCGGAAGACGAGTTAGGAGAGCTTTATATGAGCAGGCGCTAAACCTGGTTTAGGTATTTAGGCAGCGCGCGGCCCGGCTCGTAACTCCTCCTGCTGCAGCAGGCGTATCGTTGGCCTCGCCTCGACCCCGGAAGTGACTTCTGGAAGTGACCCAGGAAGTGACAGTGAGCTGCCTCTCTGCGATTGGTTTTGCCCGAGTTTTAT
1 CAGCTGTGCAAGCAGCAGGCTGGACAGGATGAGGGGGTGGCACTAGGGCTAAGGGGTGTGAATAGCTCAAACTCCAGCTCGGTGTGTGGACAGTTTCTGGTTGAGCTGTACTTTGAATCGATTGGTGTCTTGTCCTGTGCTTTGCTCTACAGTGGCAGATTCCAGCCTCTGCCTGTACATGGATGGAGGGAGAAGCGAGTCTGAAATGTGCCCAACTCCCTTCACAGCCTGTGAACCAGGGGAGCTGTGA
1 ATCCATTCCTATGACATTAAGCCTCACTTCCATTAATAAACCCAACTATTCACCACCAGGAGCAGCTTTGGCTTGGGCAGTAAGTACCATGGAGAGAGCCAAGTGAACCTTGGGTCCAGCACCACAGACAGTTCCAAGACTGTACCTACTTGGCAGTCTGTGTGGCCTATTTTTATCTGATATGAAcaaagacagatttaggttttatgaagttggaaactcatataatttggggagtcctctttaatac
1 aATTAGCAAAATGGAGACAAATACTCTGAAAAAGATCTCTGCTTGCCAGCCAGGGAGAGGTGGGGCGGGCAAGGGCAGGGGAGCCCACCTGTGCCCAGTTCACTGCCCGTTCAGGAATTTGGACCGTGTTCTAACTCAAcccctgttgcagaagaggacgctaagggccagagcgggataaccatttgccaaaggaatagaccggcctttgcacccagctttccagattccaagtccaaagtcactcctg
1 TACCTCAACTAATCTGCTGAGGAAGGAGAGCAAAGGAAAAAGAAAGTAAACATTTAGAGTTGGAACCTAGGTCTCATTTCCTGCTCTGGCTTTGCTGAGTCCACAGCAGGGCTGTCCTCTTATCACTTGCCATGCATAGCTACGGGAGGAAGTGGCTGAGCCCCGGAACCTTTAACTGCACGTTCTGGCAGCCCTGCCACCCCTTTGGCGATACAAGGTCATTCCTGGCCCCAGCCTTAGAAGAGGCCAC
1 caaatactacagcagcttctttaactgatcttcttgtctccaggttccctttcttccaaccctttctcaGAAGCTGCGGACAGTCCTCATGCCACTCAGTGGCCACGTGCATTTACTCActccctctgaccaaacagcctcaggacacatatttacctttggcgttcacagtcctccagtgcccctgcaatgtaacaggaagaggttggtccttctaaattagagtaggaaatttgagaagcttgagaac
1 GGGGTGCGACATGCGTGTGGGGGGCGCGTCATGCAGCGCATGCGTGTAGGTGCAGGCACCCTGGCGGCCGGGGGGAAAAGGGGGAGCCGGACTTGGAAAGAGTCCCTTTAGCTCGCTCTCTCCCTCCCCGAATCCCACACTATTGACTTGGGGGATGGGGTGGGAGGGGAGGAGAATCACGTTTTGTAGAAGTTTATCATGATTGTGGTTATTTTGAAAAGCTGAACTCAAAAGCTGGGTACGTGTGGCG
1 AGTGCCTTCAAAGGATTAAAAAATATGAAGAACCAAGACATGCTTTGGGCAACCTTGCCAGGAAAGCTGGCCCTGGAGGAGATCCCAAGCTCACTTGGCTACTCAATGCCTCCAGCCAGGTTGGAGCTTTGTCTCTGTCCAAGGTGCTGAAAATACTTTACGGCAGGCTCAGCAGAAAACCAGGGAGGGCAGCCCAGGTGACAAGACTGAGGCACTCTTCAGGACACAGTGCATTAGATGGTCACCCCAA
1 GATGCACCTACCCTGCCCTGCTGCCTGGAAGGGGGTCTCTGCTCCCCAGGGCCGGGGGACCATGAGTTCACCTCTGTCATCAGTGTCAGCATGACAAACCCCACTGGTGCCGCTCACAGCAGGATCCCACATCCCAGGCCAGCCCCCTCTGCCATGCCACCTACCTCACAGCCAGAGGTGGGAACAGCAACTCTGGGGAGAACTGAGGGTGCTGTGGCCACCGGGTCCCTGAGGCTCACGGAGGAGAGTG
1 GTGTCTGCATGCTAGTATTTGTGTATTTGTGTAATGACATCTTTGTATGGGGGCATGCTGTTACATACCTTTGTGTCTGTGTGCCTGGCCAACTACATGCAtgtgtttgtgtgtgttggtgtttgctggtgtcagtgtcattgagtctctgtgtgtgGTTTATGCTCTTATGTGTCTGATTGCtgtgtgtgtgtggtgtgtgtgtgtgtgtgtgtgtgtgctgtgATCTGTGtttgagacagggtcttgc
0.04709682607407742 ACTGCATACAGGAGATGTGCTTTTTAACAGCCAGGTAGTTGTGTGTGTGGCCTTCACAATTTCAGAGCCTTTCTGCCATCCGAACCAGCAAGCAATCTGATTCAGCACCACGGACAGTGCCATGCTCACCTCCCCCTCCAAGAACTCTCCAAAACCCCAACGCTTAGATTACATCATAAACCTCTCCAATAATTCCTGAATAAAATGGTACTCCCCACCACCCAAGCATCTCAAAACATTCAAAATACCA
1 GCTGTAGTGGGGTGGGGGGTGATACGTTTTGTGTTTGTGGAGTGAATGAACGAATGAGCAAACATTCATTTTTCTCCTGAAGACAAAGTGCCGCTGGAGTTAGAGGTGGCGTGAGCTCTTGCGTCTCCTGATCTAGAGAGGACTGCAAGGCGCCCCAGGGCCCATGGGTCCCCAGACTGCTCTCCAGCGCCACACCCAGGCCTGCGGCTCTCTCAACCTTGGATGAAGCTGATGCTTTAATATTGAGAAA
1 CACTTGTATCTTTTCATATCAAAAATGGGAGGTGACACCCAGTTTAAGGAAAATTCCAAGGCATTTGTCTCGACTAATGTGAAAGATGATTACAGTGGCCAGAGGACTGCCAAGGCTCCTTCTCAAGCTGCTTGAGTCAATGAGGGTAAGGTTTTAAAGGGCCCGCCCTGGCTTCCTTGGGCCTGTAGTTTGTGACTGTGTCGTTTTCAGAGTGGGAAGGCCCAGAGTTGGCCCCATGGAATTCTTTCTG
1 GGAGTCGGTGGGAGCTGAGAGTCCCTTGCTGCCCGGAGCATGGCTGTGTGGCTGCCTGACTACATGGTTCTTCCCCCGGTTATTTTTGTTTGGGCAGTTAACTCTGAGCATTCGGAACATTCGCCGAGTGGAACGTGTGTGTCGTCATCCCCTCGAAGGCTTGGCTGATTGAGCCAGTAAACAAAAAGTGCATTCAACACAGGCTTGTCTGCTGGCCTCCCCCGGGAGAGAGAGTAGGTTTGCTATTCCT
1 gagactagcagttcgagaccagcctgggcaacatagtgagatgtcttctctacaaaaaagtaacaagaacaacaaaaaattagccaggcatggcggcttgtgcttgcagtcctagctacttgagaggctgaggtgggaggatcgtttgagcctaggagttcaagatgcagtgagctatggtggtaccactgcactccagcctgggtgacagagaaaaaactcctgcctctaaaaaaataaagaaaaataa
1 ggtcaggctggtctcgaactcatgacctcaggtgatccacctgcctcagcctcccaaagtgctgggattacaggtgtgagccaccatgcctggccCAGACTAAATGTTTCTGTTTCCCTTTACATGGTAGAAAGCAGTTGCTGCAACAGTCTCCCAGCTGATGCGAtgttaccaaacccagcctgggtctgctcagtcagtgcattaaagccaaacaccaacaccaaggtttgcagcgagacaaagaagg
1 CCTGCTGCTGGTCACCGCCTcccgccccgcgcccaggccccgccccgcgccCAGGCAGTAGGGACGAAGGCCGCCACGCTGGTTTAGCCGAAGTTGGGGAGCCGCGTTTCTGTCCCGATGATTAAGGCTCCCTTCTGACCCCCACTGCAGGAGTTGTAGGTCTGAACTCAAGAAGACGGGTGGGCTAAGAAAGCGAATGGAACCCCTGCGTCCTTTCCCCAGCCGAAAGAAACAGGGACAGGGATTCATC
0.941424640521468 GGTTGCACAGCTCTGCCCTGCAGGGCCCAGGCCCAGCACCTGGACATAGCCCAGCCTATAGTCTGCACCATTTTATTTCTACCAGTGGACTTTGCCTTGCCCATCATGTGCCCTCAGCCTCATGGGCAGCCTTGTGGCCACAGGTGGCCCTGCCAGCTGTCCCTGACCTCTGCTCTGCACCTTCACCTGGAGCAGGGCAGTGCAAGCCCCTCCGGCTAACTCCTTCCTCACACCTACATTCCCCTGACAA
0.7263018746432468 CCCTCCTGGCTGTGGCTGCTCCTGTTCTCTCCTGCATGCCTTTGTCAAGCTCCCAGACAGTTTTTCTCTCCCAAAGGGGAGAGGTCAGTTCAGCCCCCACTGTTTTGGCAGCAAGCGGTAAGGGCGGATTCCAGTTCTGGTTCCGGGTCCTCTACTGGGGAGCGGATGTGTGTCAATTGCCCTCCTAGCCTGGCCTGGTGTAGTGTGCAGGAGCCATGTGGGGTGGCAGGACCAGGGTGTGGTGTCCGTT
1 GCCCTTTCAGATGGAATTTTAGAGGGCAGGACTGACACCCAGTTGAGTGACTTCACTTTAAACCAAGGAGAATGAATCAAGTGTTGACACTCACCTTATCACTTGTGCCTAGAGGTTTTGCCAATATTCCAGTAACCAAAAGGAAAGGCCAGAAAGGTAAGAAAACCACTAGGTGTCACGGAAGCCAGAGAAGAAGCTATGGGCAGCTGTGCTAAATGCTGTAGAAAGAGCAGTAAGGACGACTGACTCT
1 GAACAGTTTATTTCAAACAACAAAAGCAGCCCACAGTCCTCATGGATGAACTTTGCAGAGGGCCTCACAGCCAGGAACTTCCTTTGACCCCTGGGTGGCCTCGACCAGACCCTTCTCAGTGGGAATGGCCTTGGCTATTTGTGAGTGAGCTGCCTGCCCATTGCCCATGGGTCAGTCCATGGGTGGCTTGGGTCCTCTGTCCAGGGTGGCACCGACCTCAAGGCCAGTCACCTGGAGATGGGGGCCAGGT
1 TCCTGGCCTCTGGTCTCACCGGCCTGGGAGTTCCCCAGCTGTCTGCTCCCCTGGCTGCAGGACAGAGGCAGCCGCCGGTGTGGATGGAGCATGACCTCAGaggctcccagcccttggctcaatgccgtcggccccaactgcaggcctcagaggagcaggccccaggcccGCCCAGCGCCTTCCTCGTGGCCCCACCACGGAGAAGAGTGAAGGAGACACCTCGAACACAGTGTTGGCGCAGGGCCCAGGG
1 ACCGGAAGCCCCACCCCTTTCCTCGCGTCCGGTCGCCCGGGCAACGCGCCACCGCGTCGCAGCCGGAGTGACGCGTGGCCGCCGGCACCCGGAGCTCCTGGGCACACGGCATTGGCAGGGGCCGCTTCGGCAGAGTGATGACTGATGATGAGTCCGAGAGCGTCCTCTCCGACTCCCATGAAGGGTCGGAGCTGGAGCTGCCTGTTATCCAGCTGTGCGGGCTGGTGGAGGAGCTCAGGTACCGCCGCCC
1 GAAAGGTTGACTCGGGGTAGGGGCTGGAGGAGGTTGCAGGGAAGCCTGTGGAAGCCACTCTTGCAGCAGGTCCCGGGAGAGCCCCAGGCCCTGGATCTGAGCATCCTCAGTGGGGCTTGGGGATCCGTACCTCTAGAGGGCAGTGGGGCTCCACCAAGAGTCCCTTCCAGTGTCTTCCCAGTGGCCAGGAAATACTCCTCACCTTAGAACGGGCCTCCCTGCTCAGCCTAAAGGGAAATTTCTACCCACA
1 AGTGCAAGGTGCTGAGCCACAGAGCTAAGGCGGAGCTGCAGGACCGCGGACCAGATAACAGTGTGTGAGATCAGTGTGTGAGATCAGACGTCCCTGCCATTGGTGACCACCAGGGGGCCCCCAAGCACCAGAGATGGCCCCATCCAGTCACCACATCCACTTCTCATCCAGAGATGTCTGTTTCTTGGCACGCTGGGGTAAATTAGGACAGAAGGTGACAGTCTTGGGTGTGGTCAGTCAGACTGCCCCA
0.4588188123250906 AGTGGTGAGAGTGAGAAATTAGGTTAGGGAAGGTTAGGGATGGGCTTGCTGGGGGTAGGATGACTAGCAGAGAGCTGGCCTCTGCTCCGGAATGCAACATGCCCAGGTGTCCTCTCCCACCATGCCCCTCGTCTGATGCACTGAGAACTTTGAACAGGTCCTGAGTGTGTGTCCGGTTTAGTTTCATAACTCGAAAGTAGCAAAGTCAAGAGGGAGCCTGACTTCCAGCATTAGATCACAAAATGAAACC
1 atctcattgctgctcccctaccctcttctgcgtagaagcgctggagccAGGTGCTTACGACCTGGGTGCTAGTATCTTTGTGAAAACTGCTCCTGACCTATTGCTTTGTTTATTTTAGCCGGTGCCTTTGTAGAGGGAAAACAGCTTAGCAAGCATTTAGTAGGTAGATCCAAAGTCCCCAGGAGCTGTTGGGAAGTCCATAGGTGCTGTTTCCATTGCTTTTTCATTCCTTCATATATTAATCAAGGAG
1 CCACAGCTTTGTCCACATTCAGGGGCAAAGTACAACAACCAAATCCAATGCAAAGTTAAGTGACGACAGAGAACTCGGGTGGACAGACACAATGCGGAAAACAAGACAGAATTCAAGTACCGAGGCACCCAGCCAGGCGCGGCCCGCCGGGCTCACAGTATCTGTCACACCTCCGGTCCCTCCTGGACCTCTCCATGCAACCCAGCTGCCTCCTGGGCCCATCCCCTTGGGGAAGAGGAAGGCAGGGCAG
1 GGTAGGGGGAGCGGGGTGGACACAAACACATCAGTTTGCTCAAGTTCTTGACAGAACCAAAAGCCCACCAGCCCATCCAGAGGACCTGTTCCCTACTCCCTAAGCCATTCCTAGAGTTGCACTGACCCCTTTGCACCAGCAGAGGGTGCCAGAACCCACCCCCACCCCCGCTCCACCACCAGTTTCCAGCCCACAAGGATCCTTACCTGGTAGAGTCCCAGTGACAGCTGGGTGATGCAGAAGGTCCCTG
0.3333807722704244 CTTACCCCTCCAGGCTCTTCGAATGCCATATTTGGCTATGTGAGAATTTGTCAGAGCTCAGCTCAGCACTCAGAACCCGCTGGCTCTCCGGGTTCTGCCCTTCAGCTCTGCGAGTCCAGAGCCCAAGCTGCTCCTTGGAAAAGCGGAGGCCACTAGATGGCAGTACCGCCCTGGCTAGAGGTGCCCTTGGGGCTGAGGCTCAGACATCCCTGCCCCTGGTTTCCTTCAGGTGAGATCATCAGTAACCTAC
0.3790669223297664 AAAAGGTCTCAACATCACTCGACAGTATCATCAAAGGACTCTTCCTAAGGAAAATCACAGGGTAGGCCCGGCAGCCACACAGAGCCACCTTGGCGGGGTCAGGAGCTGCGGCTCCCAGGTGCCCCAGCCCTGCTGGGAGGCCACCCTCAGCCAGACCCTGCAGCCACACTGCCCTCTGCCGGTCAGCACCCTACCCCAAGCCCCAGCGGTCACCTAGCACCTCCACCTGCGGTCCCAGGCACCGGGAGAG
1 TCTTGGGGTGTCTCTGTTTTTTCCATCCCCACTTCCTGCCTTCTCGTGGCCCTGTGTGAGCACATGTGTACATCTCAGCCTTATCTCAAGGAGGTGACACCTTCTCTCCTTGTCCCCATCTGGCTGTCTCTCTGTGCTTCCCTGGCCAGGGGCGTGCCTGCTGGTCCTATGGGGGGAAGGCTACTCTGCATCTCAGCCACCTTCCTCAGGCTCACTCCACCTACATCCCCAGTCTGCCACACCCCATCCC
1 cccaagctcatggagtggtggcggtggaggtgttgtgaatgtgaacccaggaagtccgcctccagagctgcaggcattaatgcaaagctgcactgcctcACGAGGTCGCTGATGCACTCTCATTCCTTTTCCTCCAGGGACTCCTGCACTTTGCCAGGCGTGGGCCAGAATGCCACTCGTATTGTTTATCTTAATGCTTAGTGATAGTAGCTACCTCCAGTGCACGCCGCATTAGCCTCTCCAATGAGTT
0.09300628840982833 AGATGGGGCTCCTGAGGCTCAGGAGTGAAGATGCCACAGAGCCGGGCTCCCCTAGGCTGCGTCGGGCATGCTTGGAAGCTGGCCTGCCAGGACCTTCCACCCTGGGGCCTGTGTCAGCCGCCGGCCCTCCGCACCCTGGAAGCACACGGCCTCTGGGAAGGACAGCCCTGACCTTCGGTTTTCCGAGCACGGTGTTTCCCAAGAATTCTGGGCTGGCGGCCTGGTGGCAGTGCTGGAGATGACCCCGAGC
0.1718367360981425 CCCTCTGGCTCCGCTGTCAGGGGCGGCCTTGCCGCCAAGATCTCCGGCTTTCGGAGGCGCTAGGCTGCGTCTGAAAGCGGGCTGGCGACCCCAGGGAGGCCGCACCGCCCTTCACTGTTGATCTTGACCGTGCGGCTGCGCCCCGATAGGCATGGAGCGCGCTCGCCATCTCCTGGGCATTGGGCGGCATTGGCAGAGCTCTCTATTCGCTCCTCAGCCAAATCCTGTTCCATTCTCTTAATCACCAGCC
1 GTCAACACCAGACTCTAGGCCTCTGCCAGTGATCTATGGACCTCAGGGCCCCCGAGCTTCAGCCTGCTCAGGTAGGGCCAtgagtgtgatagggcgaggtgtgactgagcatgagagtgacagtgagcatgtgagagcaggagggggtgacagtgtgagtgcgtgtgtgagtgtggctgtgaacgtgcatgaggatgtgtgcaggtgagcatctacatgagtgcaggtgtgagtgtgccacattgtgtgt
1 gccctgtcaaaacaggccactaggctctaccactcagcaggatgtgggtggggccagataagagaataaaagctggctgcccgagccaacagcggtaacccgctggggtcccgttccacaccgtaagagctttgttcttttgctctttgcaataaatcttgctactgctcactctttgggtccacactgcttttatgagctgtaacactcaccgcgaaggtctgcagcttcactcctgaagccaatgaga
1 TATGTAATTACCGTATTCTGTAGATTTGTACTCGAATAAAGGCTGCAACATCAAcagtcagtcaacaaatactcgctgagcccctcctgtgtgccgggcactgtccttggtgctggagatgctaggcagtgcctggtcctggtctcagggtttaacgctgccgagggtggagtggggagcagacacagaacagacagccatgacaattctaggtacaggtgcatgcggggaggataacaacaggaggcca
1 CTCTGACTGATTCACCTTCACCAGGGCACCAGCCTGCAGTGAAGTAGCTGGGGCTGGTTCCTTTTAGTGACACCCACCACCCCTTGCCCTTCCAGGTATTGTCCACAGATGACAcctcctcctcctcctcctgctcctcctcctgctctgcctcctcctcctccccctgctcctgcttctcctcctcttcctcctgctccttctcctcctcctcctgctcctcctcctgctcttcctcctcctcctgctc
1 CATGTGTCACTGCAGCCACCAGGGGGCAGCAGAGGGGAGCTGTTCTGCTTTCAGGAGCTGGTGCCTGTGCTTCCTGCAAGGAGGGGGGACAAGAAGGCCCCCGGGGTCACTCGAGGCCAGCAGAGGAGTCCAGACTCCGATCCCAGCTCCACTGCTGCCTCCCGCACGCCTGGAGCCAGCCCGGCCCTCATCTGTGCACGCAGGGTGTGCTGCACCCCACCAGGCATCTCCAACTCGGAGATTCAGCTGC
0.3044279072254069 ATAGCCCGTCCCCAGCGCGGAGCCCCGCCCCGCAGGCTGCCGGGGGCCCACCGCCGCCCAGGCAAGGCCGCCCTGCCTTGGGCGCAGCGCTGCCATGGCTGGGGGCCGTGGGGCCCCCGGGCGCGGCCGGGACGAGCCTCCGGAGAGCTACCCGCAACGACAGGACCACGAGCTACAGGCCCTGGAGGCCATTTACGGCGCGGACTTCCAAGACCTGCGGCCGGACGCTTGCGGACCGGTAGGAACGTGG
1 tcaagcaatcctcctgcctcgccctcccaaagttctgggattacaggtgtgagccaccatgcccagcAACACACCCCCACttgttgtttttgagacagtgtcgctctgttgcccaggctggagtgcagtggtgcaatctcagctcactcacttgagtcagctcacttgatcaatctcatcctcgaccttgcaggcttaagtgatcctccccctccagcctcctaagtagctgagaccacagatgtgcacc
1 TTCCCGAACGTACCCTTTCCATGAGGCTGGGCGCCCTGCCCTGCCTTCAGTGCCAAAGCCCCAGGCCCACAGGCTGTGCACTCCAGCCGAGGGCAGCCTGGGGAAGGTACGAGAGATCACTGGGCTTTGTGAAACCTGTCAGCTTGTGTGAAAGCTATCTCCCCCAGGCCCCACCCCCGCCCCCACCCAAAGCACAGGTCACCTGCCTGGTTAATCATCCTGGGCTCTGAGAGCTCCCTGGGGCCCCACA
1 CGGCTGAGGAGTCACTTTATTTCTTAAAACAGAAACCTCCTTCATTCATGAGAAAGGGCCAGTGACCAATTAGGCGGCATTTTTGTTTTCGCCACCCAGCTAAGAAGCTGCCCAGGAGTGGGCAGAACCTCAGTGTAGTCGCAGTGCCCTCGCCTGGGAGGGTGTCTCCGGGAGGAGATTGAACTCGAATGTTAAGAATTAGTAATCATTAGCAGCTCCAAAGGAGGGGATTGTGGGCAGATAATGGGGA
0.2153736671442308 tcactctagtgcaaaagaacagcacactccggactccctatctcaggtcctcgacctctccacactccagggcGGCACAGCTCAAACACGCTTGGCTCTCCTCGTACCCAAAATGCCACCAGGCACTCAGAGAAAGGAAACATTTCAAGCGCTCTCCGGGGAGCTCCCGCAAGACTGGGGTACCTGGGGCCCGTCCTCCCCCGAGGTGGCCGCCCTCCCCAGCCGTCCCTCTGTTCTCGTGGAGCGAGCG
1 TTCATTACAAAAATTcaggggaaagcgcgaacgcagtcccccactaccacaaattatgcagtcaagtttcccacatttggggaaatcgcaggggtcagcacatccggagtgcaatggataagcctcgcccagggaaaaccaccttcgtgatcatggtatctcccctgccaggtaagtatGACTTCACACACTTCTGCCCTGTCACAGCCCCATATACCTCACCCTTTACACACATGGTCACTTGCCCCGC
1 tatgTCAGAACATTCACTAAGAGGTGAATAACAGACCAAATATTTACTTACCTGAGACGCTTGTCCAGGGGCCTATGAGCCCTCAGCTGGGCACCAGTGCATACAGGGCTCTATGTTCAGAGCATGGAAGGAAGCTACTCAGCCTGTCCGGGGCTGCAAGTACACCTGAGTCTCGCCTCAGTGGTTGTGTAGTAACTAAGTAGCACAAAGAACTTGCTCCATCCCTGTCCAATCAGACTGAGCTAGAGTA
1 ACATCCAGCTGACCACCTGGTATAAATGTTTAATAGCCAAACCCAAATGTCTAAAGCCTGCTTACTCAGCAGTCCACTAAGGCATATGTACAGGTTCAAAAGCAACAATATGGCATGTGACAGGGTCACCTGGCAGGTTAACCAGGCACCGAAAGTATGAGCCACCCATATGTGTGGATTCGTCCTAACGCTGTCAGCCCACCGGGTCCTGAGTCCTCTCTCTGGTGACAAGTGGGAAGGGTGTGAGAAC
1 CCATTGAAAACTAGCCCTACTCCCTCCTTCCTCCCTGCCCTCAAACCAGGCTCCCATCTTCTCCGGTCAATATCAGGAACGATCCCTAGAACTAATTCAGTGGTGGGAAGTTGGGTCTGGTATGGGCAGGCTACGTGACAGCCAGCAAAGGAGCTCACCTGGAGCTGTGGCCCCACACAGGGCACTTGCCGTGTGGGCAGCTGCCCACCCTGCCACCTTAGTGCCTCTTGGTTCTGCTTCAGCCTAGGCA
1 CCTAGTTCAATCCTTTCTTCTAAAGCCAGGAGTGGCCCCAGGACAGAGGTGGGACTGAGCCACTGGCAAGTGAGGCAGCTGTGAGAGGAGATGAGATCAAGGTGCCAGGAAACTGCTGGAACATTAGTGCTTTTTAATGAGCACATGCTGAACTTAGCTCTTCTTTGACTCTAGGAAAGTAAAGTAAACATTACAGCAAAAACAATGAATAGACAGATAAGGAGATAAAAGCGACTTTAATGTGAAGCCA
1 AATCAGTCATGGAGGTCCCTGAGTGACAAAAATATGCAGGACCCCTTCTTTCCCCCTCCCAGTTCCCGCAGCTAGGCTGAGTGTTAAGAGGAAGGTGCCATACAGGTTCAGCACCCTGGTCAGCGCCCAGCCTCCCTAAAGCCGCTGGAGGAGGCCTTTGGAGCCAGCTCAGGTCAGTGTCTGCTGCTTCCTTACCCAGGATGGCCCACTCTTGGGGACAGACAGGCATCCTGAGAGGAGGGGGCCTGGA
0.9738805712591977 GGTTCCCGGGAACGTGGGTGGGAGGACTGGGGTGATGTGAAGGGGGGGCGGGGAGGAAGGGGGATGGGCTGTGGCGTGCGGAGTGTGAGAAAGGGGGTGTCGTTTCCGGGGGGTGTGGAAAGGGGCTGGGTTTGCAGGCACATGTGTTTTGCGTGTCCTTGTGGAGTGGCGTCTGCAGAGTGTTGAGGTTCCCTAGTGGGGAGGGgtgtgtttgtgtgtgtgtgtgtgtgtgtgtgtgtgtgtgtgtgta
0.2454231197196751 CGGTGCGCTTCATTACCTCTTTACATAATTCGCTTCACACCGCCTACCCCCGCAGCCCCGGGATGTTCCAGCTCTGACAATGCCAGTGCCTTCCACCAGCGGTCGGACGGTGCGGTGGCAATCCTGACATGCTTGGGCTCCCGGGAGGTTAATGGGAATTAAACCACAGGCAGCCCTCCTTTGTGGCGCTTTGGCCAGAACAGCAGAAAGGAGACAATGAGCGTTCTGTGCACAGTTCCGCGCCGATTGG
0.8677038673243478 CGCCGCGGCCCCGCCCACACGCAGGCCCCGCCCACACTCCCGGACCTGGGGTTCGCGGCCGCAGCGCCTGCGGCCCAGAGCGGGGCCTGCCCTTCCACACCAGTCCGCATTGCCTCTCCCTGCAGCGAGCGGGGAAAGGACGCAGTGCTGCTGAGTGTCTTCATTTTTGTTCGTTTTTGTCGTCATTCCTCAAAGAGGAAAAAGGGCTTTGCCGAATAAAGGGGCTACTGTCCCAGGGATTTTCCGGCTT
0.8640243421621744 GACAGAGAACCCGGCCTGAGGAACGGGATCCCTCCAAGCCTCTGGAACCCGGCCTCCCCACCGCTCAGACAGCTGCCCCTGCCCTTCCAAGTCGGCAGGCCAGTCCCTCTCTAAAGACAGTTCAAGGGCAGTGCCACAGCCACACCTGTATATTCCTTGGGGGAAGCCGTGTCTCCATTCCTGAAGAACTTGATGGTGGGATAGCCGCGCACGCCGTACTGCTGGGCCAGGTCAGACTCCTCCGTGGCGT
1 TCTGGCGATCCTCCTCCACCAGGCAGCCAGAGGGACCTTGTGAAGGCATAGCTTCAACCCTGTCACGTTCTGCAGTCTCTTCTTCAGCAAATATTTGCACACCTACTCTGGACAGTGCTgttctagcccttgctggaccttgcgttatcagcagagacggaacaatagacgaaaatcaaagagtgaaatttagagtgtgatagaggaccgtaacagtggtggaaaaaaataattcaaaggaggacatgga
1 AGGCTGATGCGCCAGGGGCCCTGACCCCACCAGCCAGACTCCGGCCCCATCGCTGTCCCCAGGGGCTGGGATCAGCCACATCTGGTTGTAGCTGCACTAGGCCTTGGGGCAGGGGTGTCTGTAGCTGGCCGGCTCTCCTCTTGTGGGAACAGAAGCAAAGAAACCGCCAATTACACTGTCTGGGGTTTGCTGGATGAAGAGGAAGAAGGAAGAAACCCTGCTGGGACTAGCAGGGCCACTAACTCCAGAC
1 GCCGCCCTGCCTTTCCCGTCCACCAGGTGGCACAAGGACCCCAGGCTGTCATTCCGCAGGCTGTTCTCGGGCCTGACATTGACAGAGCCATCCACCCAGACCATCCACTAAGGCCACAGCTGGCCCAACTGTAGCTGGAGCAGGAAGGGCTGATGGCAGCAGGATAGACACTGCAATTTCTTCCTACTTAAGGCTGACCCCAGGTCTCTGGGTTGTCACAGTGGCTGTTTCCCTCTACGGCCACAGACGC
1 GGCCCATCCCTGCAGGCCTGCTAGCTGCCCTGCAGTCCCTCTCAGGATCCACTGGACAAGCAGTCTAGACAGTACGTGACTCTCTCTGCATCTCAGTCCCAGGAGTGTGGGATGATGTCATCCTACCCGTGCTGGAGGTGTTTCTAGCCCCAGGCGGGAGGAGGAGTCACGGGGCACAGTTCTGGTGTTCTCTGTCGGGTGACTTCCCCACCACAGGGAAGTTGGTGACAGATGACAGCAGAGCAAGTCC
0.1646873646683604 GGTGTCCACCTGGAACCTGCCCCGGAGGGCTTGGAAGTTGTGAAGCCCATACTCCTTCCACCGGGCATGCTGCTGGTGCTGGGTGCCCCGGGGAGCGCAGCAGCACAGCTCCCACCTCCCTGACACAGAAGCCCAAGCCTGTGCTTCTGCCTGGCCTGGCCGTTTGAGAGGCCCCTTCCTTCCCCCAGAACCGGAAACTCCAGGCAATGTCAAGGTCATGCCTAGCCTGGAGGAAGTGCCTGTAAGCGGC
1 AGGCGTGTTGGGGGAACAGCAAGCAGCGTGGGAGTGTAGGGTGCATTCCGTACCAGTGTCCTTTCCCTCCGTGGACCTCCGGATGCCTCAGGGAGGGGCGGGGGAGAGGCAAAAGGTCTGATGACTTCACCAGACTTACATAAACAGGAACTTCCTTGCAACAAAGTATGACCTTCTCATTTTAAAACAATTTGCCAGGCAGTGTATTCCACTCTTCAATCTTGCTTTTCTGTCCATAACTCCTCCCCCA
0.8210786265319456 gggaaggggaaggggaaggggaCATCCCAGAACGTCACGAAGAAGAACTGGGCACTTCCTCCTGGGGGTAGCACTCTTTCTCATCAATGGTGCCACGACAGGTGCAAAATGCACAACGGATGTCACAGAGCATCCCCAGCAGGTGCCCCCAGAGGGACCAGCCCAGAGCGGGTGCGGAAAGGCCAAGTGCATGACCAGCCGCCTTGAGGACTTTGGCCCCCAGGAACcttgggctgtggactaggccttg
1 TCTCCCCCTGCGGGATTATCCTGAATGCTTTGAAGAAACTGCATTCTTAGGGGTACCCAGAATGACCTATCCACAAAGTGGCGTCTTTCCACCTTTAAGGAGCATGCCAGGCCTTACACTGCACCACGATGGCTTCATGGGACAACATTGCCACCCACTGGTAATAAAGAGTCTCTGTGGACCTTCACCTGGGCCCTGAGTCAATCTGGAACTCTTTGGCCATGCAAGAACAAGTTAAAGGTCATTGATA
1 TCTTCTCCTTTCTCCCTAGGAGTAAATCAAGACGGTCAAGTATGAGCATCCTCACCACCTTTCAGATCAGATCCTCCATTATCTTCCCATCTGCACCCAGCCAGCTTGAGCAGCCAGGAAAGCACTAGGTGTTGGTCAGGACCATGGCCAGTGCCAGCCCCTGTGCTAGGCTGGGGAGGCATGTGACTGGAACAGCCGACATAGGAACAGGCCTCTCAAAGCTGGAATAACTCCAATTTGATTAGGCTTA
0.1805426569515192 ccgctgtacgtggagaaaaacaaatcgatgaaagaagacaagcggctggacatcgagagacatcaaggggagcatgccggcagaagagcactcagacagatgctggcaggccattgacccgcggaaggaggcggagtttggacggggcagtctgaggagagcctaggccgccaggtggcccagctccacaaggaaaaccatctcccttctggctcccccgtttgacgagaggtacttttactcaataaag
1 acaaccacgatttagctcaccattttgcagggtggcagcttgggctgggcatgggtgagctcactcgtgtgtctgaggttagctgtggtcacctaggctgctctgcttctaggggttggctaattgtgcgtgtgtgtgtgtgtgtgtgtgtgagagagagagagagaaagagGTGTGTATCTGGGTTATGAGTCATCATACAGCAGCTTAGCTTAGCCCCAAGTGGGCATTCTCAGAGTTACAAGAGCAG
1 aaacaaagctcagggattacaggtgtgagccaccacgcctggccTCCTGCATTCTTATTGAATGCTATTGGCAGACATGAACTAGTTCGCCTGATGGGCATGAAGGGAAAATCAGAGGCTGTCTGAAACTGTACTGTAGTGCACGTGGCCAAAGGTTCAGAGACTGCAGGAAACAGGAGGGAAGGCAGAGGAGTTGGAGGCCAGCCAGGAGCAAGCTGGGAACAGCCAGGCCATGCTGCTCCTTAGTTAC
1 gcttcagtatcggcctccttcagaggttcaatacagacctcaagcggtgtgtcctgtgccaaatagcacggcaccataccagcaacccacagcgatggcgtctaattcaccagcaacacaggacgcggcgctgtatcctcagccgcccactgtgagacttaatcctacagcatcacgtagtggacagggtggtgcactgcatgcagtcattgatgaagccagaaaacagggcgatcttgaggcatggcgg
1 actggctggcttcagtgatctctgggactccttcACACGAATTTTCCCACTGACTCTCCCGCTCTGAGCCCTGAAGCTTCTCTTCAGCCTGTCCCTCCCCTCCCCCCTCCAACTTCTGGGCAGAGGCTCTGGCCATGGTGCTGAAGGTGGCCATGGCCTCTGCAGGGTCTTGGAAGACCGGAGGTGAGCAGGGTACCCACCTCAGGACTTGTGAGGGCAGAGGaaaactaccctaattaagaatttacta
1 ccggccCTGCATCTGCTCTGACTTCTTAAAATGCATGAGttatttatcattagcaacaaatttgccagcaacacacctcacaatgaagaaagctccccaatgcattaccacacggtggccgagaacagctgTCCTAGAGACAAATGCACCCAGCCTCAGCCTGAGGATGTTCTTTGGGGAAGAGGAGAAACACTCAACACCCTGCACTGTCCCCCTTGTCCCCTTCCAGCCCACTCTAGCTTGTCTAGGT
0.7454870696641834 GGGCAGCCCTCCCCGTGTTCCAGGGTGCCCCTCCCTCCTGTCCTTGCCCTTTGTACCGGACCCTCCTCCTTCCTCCTGCGGTGCCTTTGGCACTGTGGTGTTGTTACTTTGCACTCCCCATTACTTTGCACCCTCCGCTCACCCTGCTCATCCTGGGGCTCCCAGGCCAGTGTCTGGTAGAAGCAAGGCAGGACTCAAAACAACAGTCCTGGCTTCCATGTGGCCGTTCCACTGAGCGGCTGTGACCGAG
1 CATGCATCATAGTTGCTCATCTATTTCCCAAAACCTGTATTTTAAGACATTAAGAGCAGTGCTTTCTTGGCTGAAAGAGTAATGGTTAGTTGTTGACAAATGTTTTCACAGCAGCTCCCATAGTAGACAGAATGAGCATGGCTGGCCCTTGGTTTCAAGCCTTAAGTAAACATAAACTTCCCCAGATTAGATTGCTGAATTTTTGAACTTTCTTGTTCTTTTTTGAGGTAGCAATTCCATTCTAAAAAGA
1 CATGGCCCAGTGagagccctgacccagccctccacccatggctcctgcacctctgccccaagagccttctggtgcctggggacaagcagaaaggcaggctcagtactatggcaaggccagcagggtgtgctagagagccaaaagcccaggacaaggctcgaccagtgagggacgaaagttgagggacaactactggtgcatcttcacacccttgggggacaatcctcaggcaaggcatgggctccacagt
1 GTGGATGGGGTGGGGGACCAGGGAAGCGGAGTTGCCCACAGGTCCACCTACCGCGCTCCCTGCAGCCCTCAGTGTGCCTAATGGCTGCCGCGCAACGCATGCAGAGCGTGGTGTCGGTCGACCCCTGCTGGAGATGCCGGGACTTGCGTGCGTCAGTCCACTCAAACCTTCGGGCCAGAAGACATGGGATCTAGATTTTTTGTGAGGCTCTTAGTAGCCAGGGCAATAGAAATAAAGTAGCAAGAggccg
1 GAGGTCACAAGCACACGCTCACCTTGAGCTCTCCTGCAGCCACCTTGAAGGCCAGCTCCAGCAGGCAGCCCACTGCCATGCGCACAGCACTGGAGGAGTGCATCTCATTCCACACGGTGTCACTGTCCACCTGCAGGGCAGGAGAGCAGGTTTCAGTGTGCCCCCTGCAGGGCAAGAACAGGGGAGGGCACCTGGACAGTGGGCCAGCGGCTGTGGTAGGCAGGGAAGAGACAGACCTAGGAGAGCCGCC
0.07957278588535738 GCGCCCCGGACCCGATGCCCGCCGCGCTGCACCCTGAGGAGGTCGCCGCGCGACTGCAGCGGATGCAGCGGGAGCTGAGCAACCGCAGGAAAATCCTGGTGAAAAACCTGCCCCAGGACAGCAACTGCCAGGTACTGGGACGGTGATAGGGGCGACGCGTCCCGAGGGGCGGCGGGGCGGCGCTCCGTGTCCAGGCTGGGATCGGGGGCGCCTCAGAGCGGTCCTGGGGAGTGGGTCGGCGCCGAGTGGT
1 AGGCCTGGACCGAGGCACGGGGTCAGCTCCGTGCACTGCGCCTTGCCTGTTGCCGGGGCCTCTGTTCTGGCCCCTCGGCAGGGAGGACAGAGGGTCAGATGCCGGGCCTCAGGCACAGTGGCCATCTGGGGTAGGGCCAGCTCCACAGAGGCAGGGGACCCAAGGCTGAGCCGGCTGTGGGCTCTGCTTCCTGGAGTCCAGGGTCCAGCACGGGGACCAGGTTATTCCTTCGCTCCTCCTGGCTTGGCAG
0.23131316768984 CCGTCCCCGCCTCCAGCCTGCCCCAGTGTTGGGCCTTGTTCCCAGGTCCTCTGGGCTCAGGGTCGGCCAGGCCCCTTCTCCTGTGGTGTGGGCCTCCAGCCCCAGGAGCGCCAGGAGCTCTGGCGCCTTGGTCCCTTCCTCCTGTCCGGCGCCCCCAGCTGTACTCTGCCTCATTAGGAGTCGACCCCTCCTGGGAGGTGTGGTCTCTGGCAGGGTTAATGATTGCTCAGTGGAGGTGGAGATGGTGCCA
1 tgcctcaagatctccctgtttactggctttatcaataatttcatgcagtgtactaccttgtccactaggtggtgcggtaggattaaacaccactgccgtgggttgctggtatggtgccgtgctatttggcacaggacacaccacttgaggtctgtatttaacctctggaggtggccgatactgaaggtcggctggcggccagtactgataaattactggtggttgggtcttattttctACCAGCTTATAT
0.02228006601811882 CTCCCACAGCCTACATGACCAGTGTGGGTCGCCAGCCTGAGCGAGGGTGCTCAGGTGGTTTCTACTCTCATTTTCACTTTCCAGTGCCGCTGCCGACTTGGAGGGGAGAAAGGGGCGGGGCAAACCCTGGTTTCGCCCCCCCGCCCTCAGGCTGGCTGCCACGCGGGGGCGCAGTCAGGGGGTCTGCGCTGTGTGGGTAGGGGGTCTTCAGGGCTGCCCCTCCGCAGTGCCACCCTAAGCCAAGATTCCC
1 GGATGGGGAGGAAGTGGGGCGACCTATGGACCCTCATGTCCGTGGGGCGGGGGCGGGGTGTGCAGGAATGAGTACCTGGTGCATGAGTGTCCCCAGCTTTCAGGCGTGCTGGAAAAACCGCAGGCCGGCTCGAATTTTGGAAACCAGTGTTAACCAGGACTTCAAGGACCTGCCTTCGTTGGGCTGTCCCTCGCCTTGCCCtgccagctacgcaaatgttccagagctctgttgaggtcattaaatcacc
1 GCTGAAGTGCCTCACCTGGGCCTCCTGCCATCTGGTGGCATCTCTGGCACCCTCTGTGGCTAAAGATGCCAACACAGGCCTGGGCCGTGGACCCCCTTCCCATACACACATCACGCTTCCCACACAGGCTCTTACCCAGCCAATGCACACTGCATCTCCCAGTCGAGAGGCACCTTCACTGCCATCTACTCCCACCTTCTTCCTGATGCTTGAAATCTGTCCGTGATCCCAGGTCAGTGATTGCTCGAGG
0.3205390248310223 CTCCTCCCTGTCAGGCTCACTGTATCTTTGTTTCCCATGATCCTGCAGTCAGGGAAGACCAAGCCCCAGTTACTTTCCTGATGAGCTCAAAGTCCAGAATGCAGTCACGTGACTGGGGTGGGAAGCCATGCACAGGGCCCTGAGAGGGTGTGAGGGATTCGAGGCAGCCTGTGGAAGGAGAGCCCTTCCAGCTGAGATGAATTCAGCCCCAGAGAGGCACTAAACAACCTAAGGATGGTACAGTTCCCCA
1 TGTAGCCCCTGTCTTTGGTCTCCAGCAGGCCTCACAAGCATGACTCAGTGGTGAGGCTGCCGCACATGTGGTTTTGAAACCAACCTTTCCCCTTGGCCCCAGCAGTGCGTTGGCGTGTCCCTGGGGCTGGTCCCAGTGCCCGCCTGGAAATGCCCTTGGTTTGGGCCCCTGCCTGAATCTCTGGAAAGGTCTTTGATCTCCTCACCCCAGCTCTTCCATTGGCTTCCTCCTCACCCTGGGACAAAGTCTG
0.05061845950973595 GACGAAGGGAGTCAGCCCAGCACCCTGTGTGGCTCAGGGCTGTCCGAGCCCCTCCTGCCGGAAGGGACTGTGGCTTCCTAGAAAGTTCTTCCTGGAACAGTGGGGGACCTCCCCCCTTGCTCTCCGTCCTAAGCAGCAGGCAAGCACATCCCTCGCTCCAGAGATCCCCCAGGTCCTAGAGGTGGTCCTCAGCCCATGCTCCCTCCACACTGCCTCTGCCCCGCCACCTTGTCCTGGGCCGCCAGGGGGC
1 TCCCAGGGCAGAAGAGCAGCAAGGGCCAAGGTGACACTGCCTGGCTCAGGGGAGGGGTACCAGGAGGACAGCTCAGGCCTCAGATCTGGTGTGTGTGGTACAGGGACCTTACCAGGAGGACAGAGTAAAGTCCAGTGAGGCTCCATTGTTTGTATCTCAGACCTGGACCTCTGCAGATTCTAGGCCTTCTCAAAGCCAGCTCCCAGGGCTGAAGAGGTGCTCCCCTTTGCTCAGATCCAGCCCACAGAGC
1 CTTTTGTGAAATGGCAGTCTGGTCAGGCACATCCACCACTTTATTCTGGGTATTTGCAACTGATTGTTGCTCCTTGCTTAATGTGAATGACAAAATAGGAGGAAAGGAATGTAGGAAAATGTAACAGGGTTGGATGGCTTGGCACAGAAACATCAATTCACACACGCTGGGAAAATTTCCACCACCAGAGGTCCTCAGATGACAAGGTAGAGAGTTCAAGGGGCAGCAAGGCAGTCAGTTCCTTTGCACA
1 ACCTCTCCTGGCTCCAGGGCTCAGCCCTGCCCACTTCTGGAGAATTCCATGACTCAGGTAACAGAGGAGGGGCCTAGCCAGTCTCAGAGCCAAGGTCACACCGCCCTACACCTTGCTGTCCCCACAGCATCTGCAGGAGGAGCATGCCAGGACCAGAGACCCAGGGAGCAGCCTCACCAGAGGGAAAAGAGCCTGTAGAGTGGTGAGCTCAGGTTTGTAGCTCCCGCAGGCAGGGCATGAGGGGCTGGGA
1 GGTGAAAGCTTGGAGGAAAGAGCAGCGTGAGGAGAATCACCCGACCGAGAGGGAAGTCGgtcaagaggccggggttcaagttcccactctgcccctgaccagctgtgtggccatgggcaggattttgcctcagtttcctcctctgcaaaatgggggaaagaatccctccctcacaggcctgagtaagactcaatctaaatgaccaagtttgggtgccttatacgtggtgagcatgcaataactggGGCCC
1 CTGTCCTTTGTGTCTTGAGCGGATGGTGGGGCCGTGGAACATGAAGGAGTATCTTTGTGTACGTTCACAACGTTCACATCGGTGTAGGCCAGGTTGCTGGACTCTGACTCAAAGTGTTATAGAGGCATTACGTATTGTACCCGCAGCTGCAGCCTAAGCGAGCTGCTTCAGCTTCCTAGTCACAGGATCCCACGCGAGAATAGAGCCATAGGTTAGCGTCGCAGGACGTTGTTCGCCCCCGGATACCTCA
1 accttgtccaagtcacacagatagcagaggtagaggcaagatttgaactttggctgtctggacaccagagtccatgcttttaatcactgtgACTGCGTGGCTTGGGGAAGAAGTTCCTTGTCTATTACCAAAaaagaactcttgccttggaattcagaagacataactttgagtccctactctgtcactaactggctgtgaccatgggcacaacatttaacatctttcaccctcagctttcttaGTGGtc
0.06902954451692661 GGCCCCGGGAAGGAGTTCCAGCTCAACGTGAACCCCGCCAGCCGCTTGGGCGAGAAGGAGCCCTTCTTCCCCTTCCTCACCGTGTACCCGCCTGCCCCTCGTGCCAGGCCTGTGGACTCCACCGGCCTGGTGGCTACCTGTGTGCTCTGCTACCATGACCTGCTGGCCCAGTGGCTGCAGCATGAGGCCCGCAGCTCCCACCACGCTGTCAGCGCCTGGTCCCGGCAGTACCAGGTGGAGACGTTCGTGT
1 CGCTGCAGCCTCCTCGGGGAGGGCCAGGGTTGTCTGTGCATCCTGTGAGCCCCAGGGTCTATGTGCACATATGTGTGTCTGTGCCTTTCTCTCTCTCTCtgtgtgtgtgtgtgtgtgtgtgtgtgtgtgtgtgtgtgtACACGGCGCATCTGAATTGTCCTGAGTGCCGTCTCGGGTATCCTTGAGCTGTGTGTGCATGTGTCCCCCTAGCGGTAAGTCTCCTCGGAATAAGGGAAGAAAAGGTGCTCTT
1 ggtttgttccactcctgggagtgctggggaactttgccctttggttccatacttggagagttgattttaagcgtggattgctgggctgctccatagggcAGAGTCTGAGGGCAGGTCAAGTTGGTCTTTAAAAGGCCTTGGCAGAAGCATGTGGTTTACATGTGGCAAGTGGGGACCGACAGCACCGGGGCAGGGAAGTCGTAAATCACTGTTGAACAGTTTGAAACTCTAGAGGGAGACAGCATGGATA
1 TTGTCCCCTGTCTCCCGCCCCCTTGTTTACCAGTGGGGAAGACAGGCCTGGCCGGTGGGGGTGTGAGTCTGTCCCTGGCCCCAGCTGTGGAGCAGCTGAGCTCATTGGAAACCAGGCTGCGGGCCTGAATGCAGCCCTTGTCTCCTGGCCCCTGTTAATAGCCTCTATAACTGCCCAGCATTTCTATTGACTCAAGATAAGTTCCGGGGGCCGGAGAACAGCTCACTGTTTGGCACATGTCTGCTGGCCA
1 GCCGTGACACCTGAGAAAAACGCTTTCAGGGAGAGGAATCCACCTCGGTGAGGGCGCATTCCAGGGGCACAGAGTGGACCTTTTTCAAAGCGAGTGGGATTGTGTTACTTCCTGCTTGAACTCTGTTGGTTTCCTGTTGCATAAACTCCAGGTcctccccgggctgccctcctctgcctccctctccgctctctgggatgcagccaccctggcttccttcaggttcttcttatggggtcagcctgtgccc
1 AGCAGAGGCCGGAGGGACAGGAGAGCCCAGGAGAGAAGGAAGGCGTCACCTGGTGGCCAGGCCTGGAACTGCAAGTATCTCTTCTGTGAGGCCTCCTGCCCTGTGCAGCAGGACTAGGTGAGGGATTGAAAGTGCCCTGACCTCTCAACCCAGCACACATCAGGGAGAGTTAATCCAGGTTTGCAGAGGAAGGAGAGTATGAAAGCCGGCAGGAGAAGCGGCTCTTAATGGAGAGGCCTCTTCTGATGGC
1 TCCCAATTCCACCACTGTTCACAGTGGTGAACAGGCAAAGTGCTGCACCACAAATTTGCAAGTTTGATCCAGGCTCATTGACCTGAAGGGAGGCCCAAGATCAGAAGTACAGCAAAAACATGTGAAATTGAGGCTTCCCCCAAGAGAAGCAAGCTGTGGGGCCCAAGAGACCACAACAACAGGGCACATTCAAACAGCCAAGGTGGAAAATTGTGATATGTGGAGAGTGATCTTCTACTGGCTTTAAAAA
1 CCAGGAAAAAAAAGCCCCTAGAGGAACGGTGCTGcccccctccccgccccccccgccccTTTCCCCGGCAAAAGAGGCTTCTCAGCCCCGGCAGCAAATGGGGCCCCCTGAACTGGTGATGGGGGTGCTGTCCGTGGTGCTGGAGGACTGCGACGCTGCCAGAGACAAGGGGAGCAGGGAGGAGTTTgctcactcctgtaatcccagtgctctgggaagccaaggcgggggatcacttgaggccaagagt
0.9362394997483237 GCTAGCTGGGTACCACAGGGGGacacacacacacacacacacgcacacacacaACCATGCTCCCTTAACAGTCCATAACTGCAGAAATGCCGGATGTGCCTATCAGCACCCTGGACAGATCCCCACCCCAACCCAAGACTTCAAAGCCTTTGGTTAACTACGTTGACAGCCTTTTATCTCccacagctttctcacctccacccccttactcatgctgtttctctgcctgggatgccactccctactacca
1 GGTGGGATGGCCCCATCTGGATGTTCTGCAGATCCCCACATGGGAGGAGATTCCCAAGTAGAGGCAGCCAGAATTCTGACTCCCTGGCAGCAGCAGGGCTTTCAGGCACCAGTGTCTGTGTTGTTAGAACTCAGAGGAAGAGGCAGGGGCAGCAGCCGACAGGGGGCAGCATGACCCAAGCAAGGGGCCTGAGGCCTCAGTGGGGGTAGGGCAAGGAGGTACCTCACAGGTGGGTGTGAGGCCCCCTCTG
1 GACCCCTAGGAAGCCACCTGGGGGTACTTCCCTGCTGCCGTTGGTCTCCAGGCCTTAAGAGCACACCACTGTCCAAACCCAGGGTGCTGCCCGTGGGTCACAGAGGTGCAAGGTCCTATGCAGAGGCGAGAACGGCAGTTGCACTTTGTCACCTGCCACAAAGTTGCTGTGCCTGGGCCCATGTGTGTCAAGGACTCTGGAAACAAGCCTCACCTTTCATCAAAACCCTTTCTAATCTGAGGCCCTTTCA
1 GGGTGTCAAGTGAAATGGGAGGAGCCAGCGGTGTGGCTGGAGGGGAGAGAAAGGCAGCTGTCTGCAATAGCTGCATGAACCCAGGAGAACAGGGAGTAACAGTAGCTCATGGGTCATTTATTCCAGGAATGCCTGTCTGTGTGCCGGGAGGTGAGGAGGCAGAGCTGTCAGGCCTCCCTGCCCCGCCCCTCCCACACTCTTGTTACCTCCACTGAGGCCCACTGTAGCCTGGTTGGTCAACAACTCTTCC
0.871577908060967 GTCCCAGTGCCTGGCTTCCCTCCACTGTTGGTAATCATGGACAAAGCCAGCCGGCAGTTAAGAAATGGGACCTAGGTGGCATCTCCTGACTGACCTGTGGGAGCTCAGGCTGGTAGCAGGGCTGCTGCAGTGCTGAGACTGGCCAGGAAGCAGGCAGCCGCCGCCCCAGCATCAGGTCAGGTGGGGCCCAGGGAGTGCTGTCAGACCCAGCCATGGGGAAGGGTTCAAAGGTTCTCACATTGTTCTGGCC
0.477437962426121 TTATGGCTCACTCATCTTGCCGTCTAGAGGTGAGCCAGGCCGGAGCAGTGAGCAGCCCGCCAGCCTCAGCGAGGCGTCCTAGGTTGCTCCTGTCAGTGCCTCTtccagccagcagagggggcaagagagagtccagagcaggccactggagagatgaccccgcagctgcacccagcgctgtggctgcatgccattgacttcgacttcactacctggctacacccagctgcaagggagggtgagaaatgCC
1 CCCCCAGGGAAATCCGGGAAAGCCCCGGACCTTCGGGGCCCCACCCCggggcggggagagggagaggaggggaggagacggggaAGAGTCCCGcctccctcctccctccctcccATCTCCAGCCTGAGTCATGCCCCCAACCCGCCTAGCCTGTTCCCCACCCATCAACCCCTCCTCGAGGTGGGAGGGGAAGTCGGGGGGAAGCCAAACTGCTCCCCGCTCCTGCAGCACCGGCCTCGGTCGCGCTGAC
0.1007525842478306 GTCGGAGCATGACTTCAAGGGACTGGTGGAGGGATTCTACTGGGGTGAGCCTGTAGGGGCGGCGGAGGGGCTCAGCAGAGCACAAACAAGATCTGGGCTGAACAAGCCCTGAAGCACCAGGGGGCGCTCTCCCCTATCTCGCCGGTCTGGCGCGACTGGGAACTACAACTCCCAGCAGCGCTTGCACAATTACCGCCCCTAATTGCTCCGGACCGAGAAAGGAAGATAATAGCTGATGCTCGTTTATCTC
0.1476127546807467 CCTTCCCCAGGCAGGCCGGGTAGCGCACCTGCAGCTCGTCGAAGGCGTCGTCGATGCCGGTGACCTGATGCTGCTCGTGCAGTGCAGGCTCGTCGCAGAAGAAGCAGAGAAGCGCGCGGTCCGTGAGGCAGAAGAGCTTGACCTTGTCGTGCGCCTGGCAGGGTCGCGCGGCGCGGCGCGCGTTGAGGATGGCGTCCAGCGGGAAGGAGCTGTAGCGCTCCACGATGTTGGCCAGCTTGAGGCTgggcgc
1 TTCATCCCCAACCCTGCCCCGGGGCAACACAGAGCGAGTCTGATGGGTCTCCACAGAGGGGCTTCAGATGCCTGATGGTCGTGGTAGCCCCCTGAGCCTGCCTTCATCCAGCCTAAATGTCCTCTGTTGCTTTGGTTTGCCTCAGGCCCAAAGACATCTCATTTTGGCCACTGCACCAGTCAGTGGCCACAGCGCCCCCTGGTGAACAAGTCTGCAAGATTCCTGGTTAGGCTCAAATAATAGGTGTAAA
1 AGTTTGCGGCAGATGTAGACCTAGCAGAGGTGTGCAAGGAGGCCGTTaagactatactttcagggatcatttctatagtgtgttactagagaagtttctctgaacgtgtagagcaccgaaaaccacgaggaagagaggtagcgttttctcctgagcgtgaagccggctttctggcgttgcttggctgcaactgccgtcagccattgatgatcgttcttctctccgtattggggagtgagagggagagaac
1 gcagtggtgcgatcataactcgcggtagccttgaactcctggcctcaaacaatcctcctgcatctgcctctccagtagctaggactacagttgtgccccaccacatcctgcaattttaatttttttttttcttttagagagatggagtctccttatgtttgcccaagcAGCTCAGCCtttttttttttttttttttGTGAGGCGATTTAACATTTAAAGAAAAGTCAGCAggcagggggcgctggcccac
1 gctggtctaaatgctccctctgtgggcatcagctgaattctgccctgtgttgctttccactgtgacagagcaacactgaattccaatgcaaagttgcacaatcactttgctctccctcccccaagcacagcgattctctctgcatggctggggaaggggggaagggtggtgtaggcaattcaaggctgtctttcctaccatcttcagtgtctccttccttgatatgatgctaaaactaggtactgtgatc
0.4924218121772341 TTGTGTAGAATGTGAAGCTAGAAGGAGCCCCGGAAACCTGCAGTGGAGGAGCAGAGGCACAGTTTTGTAGTAAAGGTGTGCCCAGGGAAGGGAAGGCTTTCCTCATTGCTGAGATGTCTGGGGAGGAGAGGAGGCGGCGATTGCGCCTCCGGCCCAGCCAGCTGCTTTGCGGAACAGTTTCTCTGGAATCAAAGCTATTTCTGAAAGTAGCGCGGCTCCTGCTTCCCTCCGCATGGCTTCCGGATCATGG
0.1265925601642263 GCACTCACACCCACCAGGCAGTGGTGCTCAGGCCCCATCACACGGCCACAGAGTGCTGGGGAAGGGACTGCGGGCAGCAGGTGAGTCACAGACCCTGCCCGGTGCCCAGCCCGCCCAGGGAAGGGGCTGTGCTGGCTCACTGCGGGAGGACACTGCCGGCGAGAGTGACTCAGGGATTCGGGGTCTGAGTCACAGCCCAGGAAAGTGTCAGGCCCCGCCTAGGGAAACTTCCCGCCAGCAGCCTCACGTT
1 GGACAGCGAGACCCGGGGCTGCGGCTGCAGGCCGAGGGGCCCCTGGGACAGTGAGAAGCAGCGGCGGGAGCTAGTCACGGGGCAGGGAGCGCTCAGCGGTAAAGACGGCTTCATCTGACTCCAGGGCTGGCAGGCGGCCCGGATGGCATGCCGTCTCCTGCGGAGAATTCCAATTTCCCCCTAAATCGCTCAACAAGCGAGAAGGTTTTGGGATTCGAATTCAGTGGGGCAAGCGAAGTCGCCTTTCCTT
1 CCGCACTGCCGCCTTTAGTCTAGGAGGGTTTGTGGGGGGCTTCCTGCACCTGACGCATCTCTCATGGGCATCACATAGCAACCTTTAGTCCTGCCTGGTTGTCCACAGTTGGACGATCATTTTCGGTGACCTTTACCCCAGCAGGAAGGGGGAGGAACGGTGAAGGGAAGAATAAACACGCTCCACAGTAGGGAAAGTTTACAATCCTTGCCTGCAGTGGCGCACACACTTTTTTGCTTTCTAAGCACAG
0.6191825668377572 CTCGCGCAGCTTTTGAAGATCCCGGGATCTCCTTCCCACGCTCACACGCACGCAGCTGCCGCTCCGCGCCACACGTGCACGCCAACTTCCACACCCAAGAACACCTTCACACCATAACTTTACTGCACGAACACACTTGTGCGCTACCCGGGAACACTTTCACACTCTGGACCCAACTCTGAAGTACCAACAATCCTCACCGGCTCACATGCACACTTAACTCGCTTCCAAACTCTCACCTCCACCAGGG
0.3687804194370181 AAGCTACTTGGAAGGCAGGACTGAGCCGGACCAAATTGCAAGATTCAAACCAGTGAGGAGGCCCAACAGCGGATTCTCCACAGACCCAGCAGAAGCTCTCGGGGGCTGGAAAAGGGCGCCACCTGGTGGCATCTGAGCAGAAGTCAGTGACACGTTTTCACCCACATGTCAGTACAGCTCCCGAAGCAGGTCCAGCGGAAAAGCTCCGGTATGAAGCTTTTCCCTTTACAGTGTGCTGTGAGGGTGTGTA
1 TGAAGGCCACCCTCGCTCTGGCATGTTTGCAGAGCTTGGGGTGGTCTGCATTCTACATTCCGCTGGCTGCTCTGAGAATCTGATGCACTCAGTCTTTGTGATCTCACAGAATAAAGAGGCTGCAGCATTCGGACGAAGGCCCCTCGCTCTGGTGTGTTTGCAGAGCTCAGGGTGGTTTGCTGTGACCTGATTTCATGCTTATGACTCAGTATGCACAGCTGCAATCTTCTTCCTTGTGTTGCATTTGCCA
1 CCACTCCACTCTTCCTAGCTCATCTTAGATAGTAGAATCGCAGCATTTTTTTCTGCCGGTCTGAACTCAGGCACGCTATTTGttcatctacttactcaaacatgtattgtgtgtttactcagtggcaggctctgtcctaggtgctggggatggagcagtgcagagagacaaaaactctgctctcataaagctcacaatctacaacctgagagaagaaaaggcagtaagtgatatggaggaaaatacagca
1 aaggtggagagaaaagaagaggaggatccgggaaaggagactaagaagcagtggccagtggggtagaaagaggaccaagtgagtgtgggtcctagagaggaggtttcaggaaggagggagtgctcagtggggctgatgctgttgaGAACAGAAATGGAGCCGTTGGGGTTTGGGAATAAAGAAGGTTGGTGGACTGTATCTTTTATGTTGCAAGTTAAACACACAACTACATCAAGTGGCTTAAAAAAAT
1 TAATTACTGTGTTGTGATAATAATTCTCTTCCTCCTTCCTCCCCTTTCTGGTGGAGACACGAGGTGACTGGAGCCCTCCGGGAGAGTCTGTGGAGGAGAAAGCCTGGCCACTGGGGGGTGTGGCATGCCCAGGAAATCTCTGCGCAGCTCAGCTTGGAGGTGGCCCCTCTTCAGCCTGGCCTCTCTGCTGAGGAGTTGTTGCCCAGGGTGCCTTCAGGCCTTGGTGCTCTGACAGAGAGGACGCTCTGGG
0.1555357626836859 TCGGGTGGGTCCGGGGTCGCTCGGGGTCCGGCTCACCGGTATCGTGCAGGAAGAGCACCAGCGTGATTCCCCAGGTCAGCACGGTGTGCCCGGTCCGCACCAGGACCCCAGGGCTGAGGAGCGCCCAGGGCGCCATCGCCTCGGCCCGGGGCCCCACCCGGAAGAAGCGCCCAGAGGGGCGGGCCCTCCGAGGGAGGGGAACGCCGCCGCCCGGGGACTGGTGGATCTAGGCGTTGGGCGGGGCCGGACT
0.319072072991112 ataggataatagtggagagaaggtcagcagataaacacgtgaacaaaggtctctggttttcctaggcagaagtccccgtggccttccggccttccgcagtgtttgtgtccctgggtacttgagattaggcagtggtgatgactcttaacgagcatgctgccttcaagcatctgtttaacaaagcacatcttgcactgcccttaatccatttaaccctgagttgacacagcacatgtttcagagagcacgg
1 CGAGGGGGAATTGCGGGTCCCGGGAAAGGGGGCGGTGTGCCAGCAACAGGGAGCAGGCAGCTCTGCAGCCCTGAACCATCCCTCCCTTGGGTGACTCTTTTGGAAATCATTGTTCCCCAGACAGGAGGTTCCTGAGGTTCATACTTGGGTCTCCAAGTCTTGGGTGCTCTGAAGACAGGATTTTAAATCCCCACTCCTACTATTGGTATGTGTTGCATCAGGGTGGCTTGAGCTGGCCTGGTACACAGTG
1 CTTGCCACAAGGGGCACATTCTCTCAGTTCCTGAGTTGGGCTTTTTTGGAAATAGCTTCAGAGGAGTAAAGGTGCAAAGACCAGGAAGAATGTGCTGCTTTACTGGCGTCCAGTCCTTCCCCTCTTTGCACCCGTGGGCTAGCTCACTGCCTTCTGTTTATTCAGTGCTCAGTACATTTCCTGTATGAACTTATGAGTAAATAAATGTATTGTTGAACCAAACCCCTCTCCTGTTAGTGGACGGTATGTG
0.9402899232543889 gaaagggctttgtaaTGGGAAAGTTTGCTGAACTTGGGGTGAGGGGTGAAGGAGACTTTGGCTTTTCAGAGAAACTAATGAGGCCACTCTGGACCAGAGGCCCCAGCTAGTGCAGGTTGGGAAGGGCTGAAACAGGGCCTTGGTCCCAAAGGTACCCAGTGCAGCTGCGAAGCAGGGAAGACTGAGCAATGAAGGCCAATTTGTGCAATAGTCCTGCTTCCCCAAATGTTCCACTTAGCCTAAGGAGTCC
1 CGTCATTCCCAACTCAACTGTAAATCCTCCTGAGGGCAGGGATCCCTGGGGTCCCTGATGAACAACCCCAATCCTCCATCACATCTTAGGCGCTGCGTTGGCTGTCCACAGCAGCTCAGAGAATGGCACTGCCttcccaataaggaacccaaaggcttggagcttgggaacctttccaagaatggtaccccaaaggggcagcggaggaaggccttgagcccccatcttctggggcctggccaagggctct
1 TGGCGGTCAGCCTGTCGAGGGGCCAGTGAGGAATCTGACAGCAGGACTCTAACCACTGGCTACGGTGGAAAAGGCCTCAGGAAACAGTTTTCACTCACAGGGAGAATTACTGCTTCCCATGAAAGCATTTTCCAGTGAGTGGAGGTGGGTTTAGGTGTTATCTGTGCGGCAGAGGTACCATCTCCCATGTCTAGAAAGGAAAAAGAGAAGATGAAGGCCTTGCCCACATCCAATCCAAAGGGGAGAGACA
0.7858875823233208 AGGTGAGCGCGCTGGGGCCTAGCCAGAGGTCTCTGACATTTCCCGTTATGCCCAGAGTGGGAGGTCGGGAGAGGAGAGGGCGAGGGAGCAGGGCTCACTGCGCGGTGAAACAGCTCCATCCTCCGTCCCTGCCAGGGGTCCCTTCCCTGCTTTCCTCTGAAccacccaccaccctctatcctccagcctgcgtcccagctccaTTCTGAGAAAAGGAAACAGAGGGCGCCAACCCAGCCGCTCCTGCTGC
0.1704184875787944 GAGTGTCCAGGACATATGGACTTTTGAGATCTGTCCAGTGTCATTTCCTGTTTCAAATCATGCTGGGGGAAGGGAAGGTGCAGGAGGTGCAGTGAGGGAGGGGGCGTAGGGGTGAGAGAGGCCGGAGAGCAGGGAGGAGGCTGGTCCATCAGCTGCAGCTGCCAATGATGCCTGCTGGGGGGTGTATGGGCGAGGGACCTCCTGGAGAGCGAGGTGCCCACATCTGGTTCACATTGAAGGGTAAAAACAA
1 AGCCTGGGCCTCACGTGGCCGTGGGGGTCCAGCGTGCTGTTGGTGAGCTTGACACGATGGAAAGACACAGGCTGCCGCATCCAATGTGCACCAGTGGCAGGAGAGTCGGGGTGAATGTAGACACGGTCAGGCAGGCGGGGCTCTGCCTTGCCGCTGGGCTCCCAGCGCCGGCCCTGCCAGCGGTAGCGAGCCCCATCCACCGGAATCACATCCAGAAGAAACAAGTAGCGGGCCTCGGGGTCCAGGCCAG
1 ggctgaggcaggaggatcccttgagcccaggagttcaaggttacagtgagtgagttataatcacgctactgcactcccagcctgggtggcacgtgcctgtagtcccagctacttggaaggctggggcaggaagatcgcctgagcccaggaggttgagcctgcagtgagccatgattgcaccactgaactccagcctgggtgacagagcgagactctgcctcaaaaaaaattaaaacaaaacaaaaCAggc
1 gccaaataagggaataaaagctggccacctgagccagcagtggtaacctgctcgggtccccttccacatcatggaagctttgttcttttgctcttagcaataaatcttgctgctgctcactctttgggtctgcactacctttctgagctgtaacactcactgtgaaggtctgcagcttccctcctaaagccagcgagaccacaaacccactgggaggaacaaacaactccagatatgccagctttaagag
0.7028335297177578 TGGCCTGGAATCCACCTTTCACCTCGGGCAGTGGGCAGAGGAGGGCACTGGCCCTGCAGGCGGAGGCTTCTCTCCCCTCCAGCACCAGCAGCACCCGCTGGGAGGCCCAGGTGTTGTGCAACTTGAGAAGCAGCTAAGCCAGTGGACCACTCTGCCAGGACAAGAATCAACAGGAAACCTCCCCGCGCATCTCGTTCACATTCCAGGGGCACCGAGTCCAGCCCAGAGACACCGTAACAAGACACCACTC
0.1450748744377913 GGACTAGTGTCAGGGGCGGGGCGAGAGCCATACCCGGCCGAGTGGCCCGGCAGGACCCTCAGGATGTGCGCCTCCTTGTGGCCGGCCACGCCTTCCAAGTGGCAGCCCCGGACCAAGGCTGGAGTACGCGGCCGCCACTCGAGCGTGCGGCCCATGTCCTGGCTGGCTTCCAGCATGCAGAAGGACAGTGACCCCTGGGCTGCAGAGACACGCGCACCTCAGTCCCTTCCCTCAGCAGCCCTGCACCTAA
