svm_type c_svc
kernel_type wgkm
L 8
k 5
d 2
M 50
H 50
nr_class 2
total_sv 7316
rho 1.64811
label 1 -1
nr_sv 3495 3821
SV
1 GTGCTCTGACTGAGGCCCTGCAGGGCATACGGGTCATGGAAGGGGTGCTCTGCCCCCGGCCAGGGCTCCCCCTCCTACAGGAAGCCGGGGGCCTTGCTCCTGCAAGCTGCCCTTTGGCTGGACCGGGCCCCACTGGCCGGACCTGGGCTCTTTCTCTCTCTGCACCCTGCACCAAGGCTGGGCTGTCTGCCAGGCCACTCCCGGGGACACAGGGAGGCACAGGCTGCTTCCAGCCACAATCTCTGGCAAG
1 CAGGCGGGTATGTGCGCATGTGGGGCAGGGCGGAGGTGGTGTGTGTACTTGTTATATTTAGCCACCTCCCTCTGTTCTCCCCCACTGATCCTGGCTGGAAAGGCTGGGCTTCCGGAAAAGAGAGGTGGATTTGCACACCTGGATCCCAAGCTGATAGAAAGTGGGGTGAAGACAAAGGGGACTCAGACTGGGGTGTCTGTCCTCTTCTATGCCCACAGTAGGAGGAGCCAGGATTGGTTACTCCCTGCTG
1 gggttgaatgagttgacaaaacccatgcctggcacagtgcccgCCTGTGGCAGGCTGCAGTGTCTCAGGCCATGATTAAGACAGGGTTGTGGCAGTGATGCAGGTGCACACAGTGGTGAAGAAGCAGACGGTGGGGACCCTCTTGGCAGTCCCCGACCACACAGATGCATGGCAGGACCAGGAGGTGGGGGGCCTCAGGCTGAAACGGCCATCTCCCCAACTCCTCCTTGTTTGTCGGATTCCAGGCCAG
1 CCCTTCCCCTCTCCCTGTGCAACCAGGCTGTCAACACCAGACTCTAGGCCTCTGCCAGTGATCTATGGACCTCAGGGCCCCCGAGCTTCAGCCTGCTCAGGTAGGGCCAtgagtgtgatagggcgaggtgtgactgagcatgagagtgacagtgagcatgtgagagcaggagggggtgacagtgtgagtgcgtgtgtgagtgtggctgtgaacgtgcatgaggatgtgtgcaggtgagcatctacatgag
0.864593032780983 GAATCTCGTTAGTGTGGTTGGTGGCTGTGATATCGACAAATTCCAGAAGCCCTTGTTTGATGGGCAATTGACTGAGGATCTCTTGGGCCCTCCTGCAGTACGGGCAGGTGGGCTTGATGAACACAACCACCTTCCCAGGCTGGATTTTGCAGTTCACAAACTCTTGAGCCATGCCGATGGGCTGCGGTCTCCCCGGGAAGAATCCTCAGTTGCAGGTATTGCTTGGGGTATTGAGCCCCGACCCAGCCAG
0.4946570449311885 GCAGGGTCCACTGCCCGGAAGGATCACTGGACCTCACAGGCAGAGCTGGAGGGAGGAAAGGCTAAGCCAGCAGAAGCCCCGCTGGGGGAGATCAAAGACAAGCATGGGCAACAGGTCTTCACAGCTGAGTGACACAAACAAGAGGGGTGCCGGGCCAGGGCTGATGGAATTGCCATGCGTGACCAGAAGGCTCAGCGGGGCCTCTAAAGGGCACCTCCCCAGCACCTGGCCTTGGCCCGACCCAGAGGGT
1 cttaggtgagtcccctgcctcagtctccctagtagctgggattacaggtgtctgccaccacgcccagctaattttaagcggagtttcaccatgttgaccaggctggtctcgaactcctggcctcatgtgatccacccgccttggtctcccaaagtgctaggattacaggcatgagccactgcacccggccagggttggttttaatcttgtggactttgtgagtctcaaaaccggcagatttccctctttg
1 ccacccctTTCCTTCTAGCTCCGACGTTTGCGGCCGCGGGGGCGGCGGAGGATATGGAGTAAAGCCAGAGTCAGTGGCCAGGCACGAAGGCAGAGCAGGAACAGCCAGGAGGCGTTTATTAGGGGGGCGGGGGGAAAGAGCCCCAGCACCGCCCCTCCTGGAAGAAGGAAGAGGTAAGTGACCGGCCGCCGGCACCGACCGACCTCCCTCACCGGCGGCTCTCTCGCCTGGGCTCCCGGAGCCGGCGAGG
1 GTGCTCCCACCTCCTCCTGCCAACCCAGCTGCTGCCGCCCAGCCTCCTGCGTGTCCCTCCTCTGACGCCCCGTGTGCTCCCGCCCAGCCTGCTGAGGCCTCCGCTCAGGTCAGAAGCCCAGCTGCTGATGGACACGCCCCCCAGTGCCAGCCAGGCTCAGGTCCCACCTGAAAGCTGATAGTCGCGTCCTGAATTGCTCCTGCACTTTGACCATTTCCTGGTGTCTGCTGTTGAGCTGGACAATGGAAGA
0.7009596114652207 CTGTCGTCACATAGGTAGATGTGTACCCTCTGCACTGCTCCTTGAACTTTGAACTTGTCACACAGATTCAGAAAAGAGTAGTGAATCCAGTTTCACAGATTTTCAACCTGGACTTTACCCATAGCTATCTGAACTGTAAATTTGCCCTGCCTTGTTACTCAGGCTGTGAGCTTCTGCCTAGGCTATTATCCCAGTGTGGGCCTCTGCTCTGTTGCTCACCTACACTGGACGCATCTGAAGAGCATGTTAA
1 GCAGGGAAATGATTAACCACTGGCTGTTCAGTCCCAGGCACTCTCAGATCCACCCCTCACCCCCTGCAGACAGGCCTGGCCCAGCCTCACTGGTCACCAGGCCAGTCCGGGGAGAAAAGGACAAGGCCTCTGACCAGGGCACCCAGCCAGCCAGCTCACCACTGCCCCCCCAATCCCAGGGTTGGAAGACTTGAATCTCTGCTCCATGCCAAGGATGGGCTGCAGGCTGGCCCCCAGCTACCCACCCACC
1 ACCACACCTGGAACGACAGCCTCGGCAGCCTCAGCCTCGAGGAAAAGAGTCGGACGCGCCGCCGGGAGACCCCAGGCGGGACTGCCTCGTCGCCTCCTGGAGAAGGATGGCCACGTGCACGCACCACCCTCCGCGCCGAGCCCAGCTACGAGCTCCGGGGCGTGCCCGCGGTCCCCAGGCCCCGCCCACCCCCGTCCCACCTGGATGACTCTCCGGCTGAGGCCCGTCATGTCCGCCAGCTTCTGCAGCG
1 gggtggcaggttccaatccagTCCCtttttttttttttttttttAACCCCATGAATTCTCCTGGAAAACACATGATCCAAGGCCACAGACACAAAAGCCTATTCATTTCTAAAAATAAGGCTGATTTTTCTCCTCATTCTGATAAAGATCAGCACTCAGGCCACGGCTGGCCCACCTTCCCAACCTGGAGGAGGAGAACACAGATGAGTTTTCATCGACTGTGGAATGGCCTCGAAATCCTTTTTCTTCT
0.8787098164948894 aagtcccttagctccttgggcctccgtttccccatgtgcatatttgtgctactcaattcccacttcacagggttatgaaaggagttaatgtatctgcgagctcctgctacacagcgagcactaaacaaaCATCAGTGTCTGCCTTTCTGTTTGGCTTCAGTCCTTAAAGCTGTCAACAgaccagagaggcggagctggactaggagagaagaacctgagttcaagcctctgctgtgcgtctaacttgctg
1 AGAGAATTAAATTCCGGGGGTGCAAGGACCAACTCATGATGTCTGAGTGCCCGGAGCTCCGAGCCTTGTAGTGTCAGCACTGTCACCTCTCAGGCTCCAATTGTCCCTTTATGTAAGCTCCTGGGATAGCCAGGACTGCAAATGGCTGGAGCTGATCACGGGGCCTCCTTACCAGAAGGGTGGGCAGGTCTTTCCCGTTCCTTTTTCCTCATCCTGGCCCCCAACCTATACTGTCAGGTTCCCAGATTTT
0.7147847170875778 GCTCTCCCTGCCCCTCTGTGCCCCCACATCTGTCTCGGTGGTCTCGCCACTCTGTGCCTCTTGCGCTGAAGGCCCCCCTTTGAGCCTGCTTCTTTGCCTGGGGCCCTTGGCCCCCCCTTGCTTTTTCAGCCCTAGCCCCCTGTCTCCCCTTCTCTCTGCTCCTTGTCTCCCTCTCCCTTTTTCTGTCTTTGCCGGGTCTCTGGGTCTCTGACCCCCATCCGGCCCTCATGGCTTTGTGTCTGGAGCTCTT
1 ATTACATTCTTCAGCCCTGGAGAATTTCATTAAAGAGACCTCCTTGCAAAGTTGGTAATCTCCACACATTTTGCTTTGCTTATCTAGGCAGGTCAAGTCCAAAGTGCATTTTTCCAAACGCTTCTGCTCCTCTTTCTGCCTAGGAGTACTCTTATCAGTGCTTGGGGTGGGGGTGCTGAACTGAACCATGAACTTAGGAAGTTAAGCTATCTCTGTGGGAGTCACGGGTGCTGGATGAGAGCAGGATAAG
1 GTTCAAAGGGCAGCCTCCGGAGCACCCTGACCTCCAACTCCCTGGCCGTGAGTGTGGGCAGAGGGgcctggatttcctcatctgagacgtggcaataatccactttataggattgctgtgaggatgaagtgatttggttcatacatagcactgagagcagaagctgacctcataagcaccaaatCCACGGGCttgtttgtttgtttgttgtttgttttaagatggagtctcgctctgtcacccaggctga
0.8764530874242236 gagcagacaccataggcataatggctttcgccacctcataggaagtgtgtgggaacccaaatgaTGCACAAACAGCACCCGCCCTAGAAGACACCCATTAAAGAGCTCTGTCTGCTACTCTGGCGACCCGCCTCCCGGGGCACCGCAGCCTAGGACAGGGAATCGGGAGTCACCGAAGGGGGGGTCCTAGGCGGAAGGAGGTAGCCCTGAGCCAGCCAGGCCCCGCGGGCGGGTCCCTCTCGGGCCGAGG
0.03589904870450906 GAGACTGCTGCCTGCATGTGGGGAGGATGGGGAAGTACAGGGCCGGGCACATCCAGGCAGGATGCTGCAGGGGTGAGGCCACTGACACAGAGGGCCCAATGCAAGGGTCAGGAGGGTGCTCTCAGCTCAAACAGGCTCGTGACCAGCATAAGGCCCAGGGGGATGACCCACGGAGGGAGGGAGATAGGGCTCGGAGGCCACCCTGGAGGGGAAGCCCAGGAAGGGGTACTGAGCTGGGGCCAAAGTCCTC
1 GGAAATACTTGGGAGATCTAAATGTCTGCAAACCATTTGAAAACAGGCAGAGCCTTCACGTTAGTGTGGATTTCCCTCTTCAGTGTTTGTTAggaaggataaaaggttctgttgaccctgttgagatAACCATCCTGTTTGGGAAGGGAGTAGAGAGGATTTGGGGTTTGTTTGTTTGCTTTTCAAGCTTACAGAGCTCTTTTTGCTATGCCATGCCACAGGGAACTTCACTCACAAGTCCAAGTCTCCT
1 TCTCGTTGCTCCCCCTCGGCAGTTCTGGGAGGTGATCAGTGATGAACATGGCATCGACCCCACCGGCACCTACCACGGGGACAGCGACCTGCAGCTGGACCGCATCTCTGTGTACTACAATGAAGCCACAGGTAAGGGCAGGAGCCCGGGCAGCTCAGGTTCCCTTCCCTGTCTCCCACTTATCTGGGATCTCTTTCCATTTCTGGGCACGCCTTATCCCCTTTGGGTGAATCTGTCATTTTGTCCCTTT
1 gtttaaggacaagtaaaaattatcctggtcagaggagtaaagtagaagcaattgcatggtcaaaaggaaagaggccaaagggcatgtttgTGTATCAGTACTGTTCTAAGGCGGTGAGTCTAAGAGGTGCCCTGGGGGTGTGTACTTtgtgtgtgtgtgtgtgtgtgtgtgtgtgtgtgtgtgtgtgtgtgtgtgtgtgtgtTAGGCTGGAAAGGTTAACTGGTGCTTATTCACTTCCCTCCCATGGTTC
1 ctgccacctggacttcagatctctagcctccagaaccgtgagagaatgaattgctgttattttgtccggtgctttgttgtgcaatcctaggaaactaatCTACTATATGTTCCCTGGTGTGGTGTCAGCTGAGCCCGAAAACCTAAGGTACAAAGGACAGTTCTTGCTCCCTCTCAGAAAGGCATCCAGTCCAGCCTGCTAATCTGTTTTCCCTGGGAACATTTCTTGCTTCTGGTCACAGGAGCAAGAG
1 GACATTTCCTAAAAAGGACACATGCTGTCCCCAGGCTGCTGGTAAACTCCACCCCCATCCAGGGAGCTGGCCCCAGCCCTCAGTGTGGCCCAGGGAAGCAGAGCTTGCACCGCCTGCCAGTTCTGAGCCCACTGATTCCCTGACAATGCCTGGGGCAGATGGGGGAGGGCTGATGAACCTTTCCAATCTCGTAGCTGCCGGGGACCCCCAGGTTTTGCCTCTCTGCCTGGCTGGGGTGAGGGCTGACCAG
1 ATCCTGAACTTAAACGAGCCTTCCTCCTAGGCGAGCCACTGACACATGATCTGTGTAATCCACCCGGCACGTGTTTAATCGGACTCCAACTGCAACTGCCTTTGTAGCCAGCCCCGGCTCTATAATTGGGAAGTTGTCTTTTTTTCAGCGAAGACACGGGACAGCCAGACTAGCTATCTTTACACCAAGGGCTGGGAAGAGGCGCTAGCCTTTTAAAATAGCCCTGGTCTGGCTGGCTGGCGAACCTGTC
0.8323049273811658 GGGCTGCGGCAAGGTGTACGGGAAGACGTCGCACCTGAAGGCGCACCTGCGCTGGCACACGGGCGAGCGGCCCTTCGTGTGCAACTGGCTCTTCTGCGGCAAGCGCTTCACGCGCTCGGACGAGCTGCAGCGGCATCTGCGGACTCACACGGGCGAGAAGCGCTTCGCCTGTCCGGTGTGCAACAAGCGCTTCATGCGCAGCGACCACCTGAGCAAACACATTAAGACGCACAACGGGGGCGGCGGGGGC
0.8855522934136055 GCCATGCATAGCTACGGGAGGAAGTGGCTGAGCCCCGGAACCTTTAACTGCACGTTCTGGCAGCCCTGCCACCCCTTTGGCGATACAAGGTCATTCCTGGCCCCAGCCTTAGAAGAGGCCACTCGTCCATTTCCAGTTTTGCTCTGGAAACCCCAATTCCTCACCCCTTCTGAATTCTTTGCTATCCAAATGAAATTTCAAGAACAGCTAGGCAGGCAGAAGGGATTCTAGTCTTGTGAAACTGGGGAGG
1 CCTGTGCTGGGAGCATGGCTTCCCCTGCTTGGGAAGTCTTCACTGTCTCCAGCCCCTCAGCCCTTCCTGGGGCTCCTGGGGTCCACTTCCTCAGCTGTCTTCCTCCCCCCAGACTGAGACCCCTTTGGGGTAGGACCTGGGTGCTGGGTGAGCTGGGCTGGCGCAGAGCTGGGAACGGGCAGGCCTTCACTGACCCACTTATGACCCCACGGTCATCAGAGCCATCGGGGCCCTAGGGCTCAAGGGCAGG
1 AGTGCCCTCTTCCCTTCCTGCACTGAGGAGATTAACTGAAGTGACAGAttagagttagaagtggcccaaaggagcatctggtacaaccccctttggttagagaagggaaagtgacttttccaaagctgcacagctagacagtCataatggctaagctctgggggtgcttttgatgtgctagggatacttccaatgctttaactcacttaatcctcacaacccgagataggtactgttaccatcctctctg
1 GGGTCTGGCTATGCTGCAGGACTACGGCCCTAAGATTTCTGCAAATGTCCAGTTGCTGTGTGTAGACGCAGCTTGAAATAAACTGCTTGTACAGCATGAGGAGGAAATGTGACTGTCGGACCCTTATGTAACAGAGTAGGAAACCCTGAGTGTAAACAGGGTTTCCCTTGTCAAGGAACGGAAATTGGTTTCCAACCGGTGCTTTCAAGGGCAGACCAGGAGCTAGGAAAAGAAATAGGAAGTCATAGAA
0.6172765428503143 CCCCGCCTGGAACCTCGCCCGGCCCGCGGGGCTGGGTTTCCGCGGCAGGTGCACTGCACTTCCCGCGGCCGGGCCTCCGCCCACCTTGTCCCGCAGGTCCTGGATGGTCGTGTAGTAGTGGCTGTAGTCGCGGGAGGGCCCAGGCCCCTGCTTCTGGTACCAGTCGCGGATCTTCACCTCTAGCTCGCCGTTGGCCGCCTCCAGGGCGCGCACCTTGTCCAGGTAGGAGGCCAGGCGGTCGTTGAGGTTC
1 TACTCCGAGGCCGGTCTCCCAGATTGGCCTTCTCTATTTCGGCCACCCTGGGCGGTCCGTGACTTGGCGTCTTCTGCCCTCGCCTCCTCATTCGGGTTCCCCTAGGGGTCTCTCCCGGGCAGGCTGCCTGCCCCGGGCCCCAGCCCTGCCGTTGGGTGGGTATCCTGAGCTCACTGGAACCCCGGGCGCCTTTTCTTCAGCCTTTCCCAGTGCGTCCCACTGGCTCACGGTAGACTGGTTTCCACGTGTC
1 cttgcccgtgctcactcatgtagtgatcggcactggtaggtttggaggcctcagctgagatggcttatctctgctctacgtggtcagtaaactatctcatgtttatgtttctttacgtagtggtgtaatggaagcaagataacaagaggaaactatgtggccttttgaggccgggacttagaacttctacagcttcactttccctgctgttggtgagagcaggtcaccaggtcaagccagatgaagggga
1 GGAGGCTGAGCAGCCTGTAGAGGGCAGCACACGCGCGGCTTCCCAGCCAGCCGCCCTGGAGGACGTGGAGGGGAGGCAGCCACAGTCCTGGAGAGGCCTGAGCCTGAACAACATGGCTTCCCCCAGCGTGAGACTCGCTTGTCCTCCCACCGCCTGCTCTCTCCTGATGACCAGGTTCCAGGAGTTATCAAAGAACAGCCTCTGAGCTGCGTGGAGAAAGCCATGGAGACAGCCAGGTGAGTTGGGAGTC
1 ATTCGTTAGCCCTTAAGGGTAAAAGCCATTGAAAACTAGCCCTACTCCCTCCTTCCTCCCTGCCCTCAAACCAGGCTCCCATCTTCTCCGGTCAATATCAGGAACGATCCCTAGAACTAATTCAGTGGTGGGAAGTTGGGTCTGGTATGGGCAGGCTACGTGACAGCCAGCAAAGGAGCTCACCTGGAGCTGTGGCCCCACACAGGGCACTTGCCGTGTGGGCAGCTGCCCACCCTGCCACCTTAGTGCC
0.8476797823483743 gttctgggtCGTCTGCCCTGGGTGGGGCTGCACCTTGGACCCAGCCTGTAGGCAGAGGCTGGCTAGCCCCCGAGGACTTCAAGCAAGAGAGGGACAGATTTGCCTTCTGTGTAGAGACCGCCCTCTGGTGGCCACATGGAGGATGGCAGGAGAGAATGGCGCCGAAAGAAAAGCGGCAGGCTGAGCTCATAAAGCTGCGAATGCTGTTCCTTCTTCCTCTTTTTCAAAAGACGGATTTTGggccgggctt
1 GGCAGGGGCCGTGGGGCGGCGTGACCCAGGAGCCTGTGCTCCTGCCGGGCGTGGTCCCCCCACCGCAGTACCTGGGAGGTTGTTGATGTAGCCCCCGTCCATCAGCAGGTGTCCGTCCTTCGGGTCACAGAGAGGGGGCATGTAACCGGACAGGGACATGCTGGCACGCACGTACCACCACAGGGAGCCTGGGGAGGGGGCCCGGAGCTGCTGGTTACCCGGAGGAGGCTCCTCCTGGGTCCAGGGTTCA
1 ACCCCCCTCACCAATCTCACTTCTGCTAACATGTAGGTAGTTGAAGATTTACAGAGTGTATTTCCTACTCTTGGTGGAAAATGAAATTCAGGAAGTGAAGGTTGAGACTTGAACTTAGCATGCCAATCCTGACCATTTCTGGCCTGAGGGATGACTCACCCTTTAAAGTTTCCCCAAATGTCCCCCTGCTCCAACCCTGAACGTCCTGCCTCAGATCACAAGGGGTCTCAGCACTTGGTTACCAGATGAA
1 CATTGTGGTACATTGTATTGCTATCAAAATATGTACTAAAGGGGCAAAGTCTGAAGATGAAGATAAGGCATGAGAGAAAGACTGAATTTCTGACATTTTCACAGCTCCCAATCAATAGCACCAAGGGCAGCGATCCATGGTGGAGAAAACATATTCACCTTCTGAGACAGAAAGTCCGTGAACCATGAAATATTTCCCCCAAGCACTGTCAAACTAGTGTGACAAGTTGTCCCTGAAGAAGGTGACTCCA
0.02219174085742468 CCAATTGGCTGCCGGGCGTGGGAAAGCGTGCACCACTGCCTGGCGCCCATAAAGAcgcctccaccacctgcgccgccgccgcctcccggccgccctccgccccgcgcgcTCGTTGAGGCCGGTGCTCCAGAGTGAAGAGCGTGGCGGTGCGGCGGTAGCGCAGGGCCCTCCTGCGGGGCCAGGCAGGGGCGGGTGGGCGCTCCTTGCCACCTTTCTGCTCTCCCTGCTGTCCGAGAAGTTCGTGCGGTGC
0.5045791130455819 TTTAAATCCCAGGAGGAGGGGGAGAAGCCCCCAACAGCCGCAGCCTAGACTCAGTGGCTGGCTAGGTGCATCTGCAAGTCCAAAGGCAGCTATGGCCCTTTgtccttctctcatctgcctcagcccctccctcactgctaggtgaaagtcctctgcctcccaccgggatgtgagcactgtgaggccttgggtgctgctgtcctggggcctaacagagtgcctgcacatgggaggtgctcatctggtgaag
1 CTTAACTTCTAGCTGCAGCCTTAAGTGGTCAAGGGAAATGTAAAAAGTGAGAAATCTTATGTGGGGCCAGCATGCATACAGATGTGTGGAGGAGACCTGAAAAAAGGCCAAAATGTGTTGGTCAGTGAGTCCTGAATCAAACCCAGTCTGGTGGTAGATGAGATTTTGCACTATACATAAGTCCTAAAACATGAGcacactgacaccacccccccaacacacacataccaccaccaccaccagcttctac
1 ctcaggcaatcccgctaaaagtcctataaggcaggccttgtgactcctactttaccaaggaggaaacagaggcccagagaggcgaagcagtgcccggggtcccccgagctggCGACACGCAGCAGGGGGAGACACAGCCGCTCTCTTTCAATGCAGCTTGCAAGAAGAGCCGGTGAGGATACTGCAGGCTGGATGGAGACAACCCCTGCAGGAAGGGCCAGGGTAGGACACCCCCAGCCCAGCCTCGCTC
0.4340295914257755 GGCAGCTGCCTCCTCTCTGGGTCGTTTGTTTTTCATCAGACAGAGGTTGTACTCTTGGAGGGACAAGCGAGGCTGTGTTTGTCTTTTACCCTGGAGACAGTGGAGTGTTTGTGGCCTAGCAGGGCCGTGCGGGCCTCTCGGTCCTGGTCGCGCGTGGTGTGCGTTTTGGGAGGGCCCAGCGAGTCGGCTGCTATGGGCCCCACCTGGCACGGGGCCTCGGGCAGCGGCAGCACCTGGCGCTGCCTCCGCG
0.1125018158176587 TCCCCATCACCTGGTGACATTGCTGTGGCAGCAGCTGGAGGCTGCCCTCAGCCACCGATCCCCAGGTCCGGAGCCACGTGCCCACGTCCTGACACCTGATTGTCCTGTGCTGGTCCCTGCAGATGGCCCAGCCTCGCAGTCTGGACTCCACCCCTGCAGAGGAAGCACAACCGATGTCACAGGTGCAAAGACCACTCGGGAGCTGGGCCACAGCTTCCCATCCTGTCCCGTCAGTGCCTCCCTCTCCTAA
1 AGGCTGGTGACCTCCAGCCATGCCACCCACCCGTACCACCCCTCAGACTTTTCTGGCTGGGCACTGACTGGGGGACAATGGGTCCTGCAGGACTGGTCTCTGCTCCATCCCCCCACACTCACCTGAGCTTCCCCTCGGGGCAGGCTGAGCGGGGGCACCGCATAGGGGAGGGAGGACACGTTGAACCATGCGTGCGACTGCAGCACAAACTGATCCAGAGGCCTCTGGACAGGTTGGGGTTGAAAGCCGT
1 TTACCTGAAAGTAAAGGCCATGAAGCTCTGCTTCCTGCACTTCTCTGTTTTTTGCCTACAGGTGGGCGGGCATGTATACACTTGTTAATCATTTACCTGGGCCTTGAACTCTTGGGAGAAGCATTCTAAGCATGGAAAGAATTCTACTAAGAATTGCCTATCGATCAACTACCCTTTAGAATTTTTGAAAGGCCAGCTTTATTTGCACATGTAATCCTCTAAGGAACACAGATATTCTAATCTAAAGCAT
0.184293280221894 CTCGTGGGAGGCCTCGGGCGCCCCCTCCAGGATTCCGTGCTAACTGCAAACGATCGCGCTCGCAGGGAGGCCCCCAGTGCTTGGAAAACTCCAGGAATCCCTTCAGAGCACTTTATTTCCAGGCCAGCACGCGGCGCTCTGCAGACCTAGTACTGGGCTGTGGATAAGGAAGAGCAGAGCGGATGGGTTACGCCGAGGATGCCCAGGCTGAGCCTCGGAGTCTGGTGCTCCTGGACTCTGCTGAGGGCTG
0.8948124241433981 TTCCTCAGCCCCTCTTCCGCCAGCTGGGAGTCCCTCCTCCCAGAAGCCGGGCCGGCGGCAGGAAGCGGCCGTACCAGGGCTGGGGGTCACTGCGGAAGGGCTGGAGCCATGACGCCCACGGGCCCCCGCTACAGGGTCTAACAACTTTCTCCCGGCTCTGCCCCTCTCTCAGGCCGGACCCGGCCGGTGAGCTCACGGCCCAGCCACTCCTCCCAGCTGGAGTCCCGGGCAGAGTCCCCTGGGCCCCTCC
1 AAACTAAAAGACAAATGCAGTCAGGGGAGCTGTGAACACGTTCAAGCCCCTGAACTATGACCTGTGCTTTGAGTTCTGTGTGAGACTGAAAAAGACAAACAGAAGAGTTGCCTGTTAGAGATAGTTTTGTTTTTCTGGTTTTAAAGATATAATCCTTAGATTTGTAAATCATTCTTGGTAAGGGGGAGACACTGCTTTCCAGTTGTCTACCATTTCACTTACCTGAACTTTTTGAATGCACAGTCCTATA
1 agtataaaattaacaacagaagctttgaataaacacacttgtggataattaacatggttaagagagtagttctactaatgattaaagctcaggtactgcagtttaaagtaaataccattgggggcaatatccttggtcgacctccctccgagagggccatctggctcaaaggttagttaatggaggtagggtaaacagacataactggggaagcctctattgtccctagtatttaccctatgacctaatg
1 aaaaaattggccgggcatggtggcgggcacctgtagttccagctactcgggaggctgaggcaggagaatggcgtgaacccgagaggcagagtttgcagtgagccgagatcgcgccactgcactccagcctgggcgacagagcaagactccatctggaaaagaaaaagaaaaCGTTCAGGTCTgagccagaggcccaggctgtaattctgtcacttaccatgaccttgggcaaggcacttccttccctggc
1 acctcaggtgatgtacctgcctcagccacccaaagtgctaggattacaggcatgagccacagtgaccagccgggactggaatttgaacttaggcttgatgactaacttttgcatttgcttttctcactgGCTCCCCCAGCAAATGGTTCTTTGCTTTCACTGCACCCATTGTTTTAACAAAACTAAGAAGAAAGAGGATGCTTTGCTGTTCTAGGAGGCCCTGAAGAACAGTGCTGTTTCAGAAAGCCAG
1 ACTTAGAAAGCCCAGCCCAGCCCTTGCTCCTGCCCTGCACACAGCGGAGCGACTTTTCTAGGTATGCTCTTGATTTCTGCAGAAGCAGCAGGTGGCATGGAGCCAAGAGGAAGTGTGACTGAAACTGTCCACTCATAGCCCGGCTGCCGTATTGAGAGGGCTTGGTGGGAAACTAATGCTGGTGGCTGATGCAAGCAGCCAGGTCCCAGGGCTGTTTGCTGTCCTGCTTCCTCCCTGTCCCTGGGACTTG
1 CAGGAATGACGTCATATTTGTCTAGGAGTCTCTGAGCACTGCCCGGTCTAACACCACGTTCTGTTAATGATTTATTAACCTGCGAAGGAATGGGCCACATGCCAATTGTGTCATACAAACAACACAAGCGAAGACATCAGTGTGGCATCTGTCTTTTTCCTTTTGGCTTTATTTCCATAGGGCTTTCCAGTACATGCCCCATTCTGTCTTATGAGAAGAGAATGGACCTTGAGGGCTTTTTTTCCCCTTC
1 ATATCCCAGACCTCCTTTCTCAGGTTTCATCCTGGAGTGTCCCATTGGATGTGTCACTGCTGGCTGTGTGCATGACCTGGGCCAGTTCCAAGCCAGCTTGGGCCCCTCCCTGGACTTTAACCAGCCATTCTTGCTACCATCAAAGCAGTGCTGATGCCACTCAATACAGATTGTAACCGACTGAGCAGAGGTGATATGGGCCTTGGGTCTCAGGCCCCAGCAGGCAAGAGCAATAAAAGGACTCCAGTCG
0.7516416459640795 ATTCCCTGTTTCCTGAGCTCTGGATAAGCCCAGAAGTAAACACACTTTAGGGCAAAGTAGAATTCTTTGTGCTGGCTTTTTGCCCATGTCAAGCTGAGTGAACAAAAGCCCCAAGGTAATTCACATTTGGCCTTGGTACAGAGACATCAGGCATATACGCACGTACACATCACACACCCTCCTCTCTCACACACACATACCCTCGGCCACGTGCCTGTTATGGAGTCCTTACTGGCTCAGCCCTGGCCCC
1 CCTTTGCGCTCCATGGGCTGCCCCAAGCGAGCACGCCACACGCAGGAAGCCAGAAGGGCTGGAGGGAAGGGGAGGTGGCGACGGCAGACCACAGAGACACCAGGCCTCGCGTGGCGTGCGGGGAGTGCACACGGGGCCGAAAGGCGTGCAAGGGTGGGGTGGGCGTGCAAGTGGCTTGGCGAGGGGTGGCAGGCGTCACCGGCAGGGCCTGCGGGGCAAGGGCCCAGGGCTGCAGGGGGCGTGGGAGCGC
1 TCTCGATTCGCTGTCGGAGGAGAATGAGACCCTGGTGGAGTTTGCTATTGGTAAGGGCGGGGCCCGTTCCCTAGATGCCTAAATGGGCCAGGGTGAGATAAGTGAATTAGAAGTGAGTCCTTGGggccgggcgtggtggctcacacctgtaatcccagcagtttgggaagctaaggcgggcggatcacctgaggtcatgagttcgagaccagcctggcccacatggcgaaaccccgtctcgtacaaaaat
1 AGGCACGCAGCTGGAGCGGACAGGACGGCTTCCGGGATTTGGCGGGGCCTTTGTCTCTGGCTGCAGCCGGAGCTCCTGCTCTCCTCCTCACTGCTCAGTGTCCTCTGCTCCTAGAGGCCCAGCCTCTGTGTCCCTGTGACCTGCAGATATTGGGAGATCCACAGCTAAGACGCCGGGACTCCCTGGAAACCTAGAAATGGTGAGAGTGCTGGGTCCGACATCCCGAGAGAGGGGGAGGGGCTGGTTGGAA
1 GTGCTTGGAGGTTATTAAAAGGCACCCCAGAAAAGTAAGGCTGGCATTTTCCTGGAAGCCCCTGAGTGTACAACCCCTGAGGCTCAGTATTTGGCTATAAAAACAGGTCTGGAGTTGCTTTGGCCTCCGTTTTAATCCCTAAAGCTGCCTGGAGGCTGGAGCTCTGATAGCTACCTGTCATCACTCCCCAGCCAGTCCGCGGACACCGCAGCCAGGAACTGTCAGAGGTGACAAGGGAATCCCGTCATAA
1 GCTGGGaaaaaaaaaaaaaaaaaaGACCCCTTACTTCCTCATGCAAGACTGCCCCCAGGCTTAATCAGAGCCTTAACTGCTGTCTTTGGCTGTGTTGTAAGCACAGTGACAATGATCAGGTTAGGTGTTTAGAACAGTATGATGTCAGTCGGGCTTGTGATGAAAGAGTCGCTGACAGACAGTGCAAGCCAACACCATGAGAACAGCTCAGGCTATGAGGTCATTCAGTCCAACAGGTAGGCAGGTTTGT
1 tcatcaactaaccaggaatgatcaaccatgagagaagagactcaagtcatcaccatgccgaggctgacttttcctctgttatgcgggtagctccaagagattacccgcagcggggaactttagttgcataataagacaacctttgttcctgtgaagcaacctctgttccttacgtttctgtaCTGGTGGCCTCCCAACGccattcgttctccctaatgatttactaccccttcaaagaattgtctacaat
1 tatttctttacagcaatgcaagaacagactaatatatcagcttccctttgtgtggcctgaagaccacattctgatcaacaggaagtaagcagtcgtgttgcgtaacaacccacagcaagctttaccagacagcttgtgtgtgccctttgtcccttctcttctttctgctgtttcagaatatgaaagtagtagccagagctcaaatctctctctctgtccctggatggcatactaagtagccacaacatgc
1 TCTCCCTCCTCCTTTCTTTCCCTCTTGCTCCCTTCCTCTTTCCCCTCCTTTTCTCTTTTCCGTACACAATCTGACAGTTTATTTGGGACAATTCTTTGGAGAACTGGGATACACCTGCAGTATATTCATTTTTAAGCCACGGACAAACCACTAGAGGGCGATGCCATCACTAATTGCTGAAACTTTCCTGCTTTCCTCTGGCTTCAGCATTCAGCAGGCCTATCCACACATCCTGTGACAGGATGTTTCT
1 ggaaagttacacgacaagagacaaTATAGCATTCATGCACTTATTCACTGATTCACTTATTCAACAAACCTCTTTTGCAATTTCCTGCAGGCCAGGCAATGGCCTAAGGAAATAAACATGCACCTTGCACTCTCATAAACTCATAGAGGGAATGCTGCACCTGGTACTAAATGACAGGACATGTGTACTCTGTACTTTTCCTGTGGTTGTAATGTCTTATGGTGGAAACAAATATAAGGGAGATAATact
1 ttacagaattttctggggtttaaatacccttcagaggtttcccattggtatgccctatgtaaatgaagagggtaagtgaagttacaaagttatttacttggcatacaccccatggaaatgaagaggatgtttcctgccatagctgaagtgaagttacaaagttatttagttggGCATAGAAAGTTGGGGTTTTGGCCTGGAGGTGGGAGAGCGGGGAGggctcatgcctgtaatccaaacactttcggag
0.9624993212863638 GCTTCTGCTCTCCAACCAGGGACTGTCAGCCCCCACCCCTAAGCCTCCTCCTCTGTAGCCTTGGGGCCTCCATGGGCCCCTCCCCAGCCTCGCAGCCCTCCAGAAGCCAGCCCTCAGCTGGGAGCAGCTTTGCGAGGGAGGGGAATGTTCAGTGGGCACAGAGCACTTCTGTTCCAGTAACAATGGCCCGTTGATGACTAGATTCTGCCCAGGTCAGCTCCCTCAACTGGACTTTGAGGAGGAGAAAGGA
1 GTGAAGTTTTCTCTTTCTCTCGGAGACCAGATTCTGCCTTTCTGCTGGAGGGAAGTGTTTTCACAGGTTCTCCTCCTTTTATCTTTTGTGTTTTTTTTCAAGCCCTGCTGAATTTGCTAGTCAACTCAACAGGAAGTGAGGCCATGGAGGGAGGCAGAAGAGCCAGGGTGGTTATTGAAAGTAAAAGAAACTTCTTCCTGGGAGCCTTTCCCACCCCCTTCCCTGCTGAGCACGTGGAGTTAGGCAGGTT
1 GGCCACCAGCTGAGACACCAGCAGGCCTGGGCAGGCCAGCCCCTGGCCCAGAGGCTGGGTCCCTAGGGCCCGAGCCCCCTACATGGCTCATCTGCATGGGGCAATCTCTACCCGTGCAAGCGTCAAATCCACCCGGTCCCAAGGACAAGGAGGCCTCTGGGATCAAGTCCTGCTGGGCACCCAGAGCCCCCTAAGCAAGAAAAGCAGTGAATAAACACTTTCCTATGTGTCCATAAGGAGGAGCCCTCTC
0.3538091322666765 TGTGCTGTGAAAAGGAAAAATGAGGCCAAAGGACCTGGGTGACTATGCAGGTGGGTCGAAGATCACATGGGAGGCTGGTCCTCTGCACACAACTCCCTCGCTGCGCTTCCCGCCTCGGTCTTATCTGGGGACGTGAGCACTAGGCTGGGGTAGCACATGGACTCCCACAGAGCCGAAGCTCACGTCACTGGTGCGGGGTGCGGGGGTGGGGATACCGCGACCACCTGAGGCTGGGTTCCCGGACCGCCCA
0.5076975462172949 TGCGTCTTTCTCAGCTGCAATCACTCCTACTCTCCCTGTGGCAGCTGCGAAGGTGATCTACACTCACCGCTTGAAGCACAGTCGCCAACAACAACCGTAGCCCAAACGCCGGCACCAGACACCCACTCGGCCCAGCCGCCATCGCTACCATTTTCCGCAGGTTTCTGGCTGCCTAGAAGGACCCCTAAGCTAGGGGCGTCCACTCCAGAGCCTGATCCAAAACAGAACGCTAACGGCCGTTGCCCTTACA
1 cacaggacagaaaatactgcacgactccatgtacacaaagacaagaacaaagtttatgtctatggtgcagaagtcggctcagacagtggctacctgggcagggCTGGGACTTGGGACCCTGATCTGGACAGTGgtgctgtgtcaacttggttaagctgggaactgtctcccagggcccccagttagagtctgagttagaattggccacgccaggaagttccgtaaagcttggaaggtgaactgaagcagt
1 ggtagttaaagatcgacccctgacgtaatcagttatttgtataagaaaagcactgtgaagatccctgtcctgttctgttccgttctaattaccggtgcatgcagcccccggtcacgtaccccctgattactcaatcaatcatgaccctctcacgcggacccccttaaaagttgtgagcccttaaaagggacaggaattgctcactcggggagctcggttgttggagatgtgaatcttgccaaagctcctg
1 AGCAGATGAACAAGAACTTACTTATATGCAAACATGGCAATCAATCATTGCAAGCACCCCACCAACTCCTGACGAGATGCCTTCTGTCTCCACTAAACATCTGCTAGCAAACCTTTAGAGGGAAGTGTGTGTGTATTTTAAAGGAAATGCGAAATGCTCTTTTCCCTGGAGCTTTCTGCTTCCCTGAGGTTATAACTGCATTAGTGGCAAGAGCATCAGTCTCATGGCCCAGAGAAGGTCAAAGTACATT
1 CTGCTGGCCACAGGGCTCCCCGGGCCCAGGAGTGCCTGCCCCATGGTTTGAGATGAGGCCACACCCCCTCCAAGCCCGGGGGTGGGGCTCTGGGCCATGTGGCCAGCAGGGGGCAGCAGAGAATCAGGCCTCTGGGACAGCACCAGTTCAGCCAGTGCAGACTGGGAAGGAAGGGGAGGCGGCAACCACCCTTCCACCACTGGGTGTTGAGGTTAGGGGTGGCCCCCACCAGCCCGTTCCTCCCCACCTC
0.8109399280770565 AGGGGAGGTGCAGCACGACGAACTTTCCTCACTTGTTTTTTTTTCCAGGTGTGAGGAAGAGAACGTTCCTTTGTTCGTGGGATGATAGGGCAGAGAGTGAAGCAGGTCAGGCCATGACCACGGCAACAGTAGTGTCCTTGAAACCCCAGTGCAGGCCCCCGGGACTCCAGCCGCTGCCTCTTCTGGCTGCGGTGGTGGCTGGGGAAAGGCCCAGGCCCGGGCCTCGCCCTATGGGGAAGCTGCCTGCCCA
1 GATGAATAACACGGGGCCCTGGTCTATCTCTAGGCACCAGAAAATCCACATCCGAGGATCAGGTTATCCCCAGTCCCACCCTTTGCAGGAAAAAACCAGGGTGTTGTTCCCCGCCCCCACGcgcgcgcgcgcacacacacatgcacgcgcgcacacacacacCATCTTCACAACCCTTCCAAGAGAAAACCTAGAGTGTGTGTCCGTTTGGGTCTGGGAGGGCAGGATACAGTTATTTCGGGGGCCCCAA
1 AGAAGGAGAGTTTGGATCTGTAAGCCTCTCTGCTTACTTTGGCTGGCTAGGCTTCCTATTTCCACATCTGTCCACAGGTCAGGGGAAGCAAAATATGTGGATGTAAACGTTTGCAGTGGTTCTAGCACATCAGCACTTCAGGAAGCCAGATTCCGCTCTGCAGATCTATACGGGCTGACCGCCACCTGCAGGGACAGGCAGTCTGCCCAAGCGGACCAGAAATTGCTGAGAGAAGAGAGGCCAGTTGGGA
1 TGATGTCACCTGCGAGTTAGTAACCTACGAGCGGCTGTGAAGGAAACTGTTTAACCGGATCCCATTGTACCCAGAGTGCAGAGCCGCCTTTCCAGCATGCAGGGGCTGCTCAGGTAAGGGGGACGCTCCTCCTTGCCCGCCGCACTCATTCATTAAGTGGCACTGCTCAGTGGTGCGGGGGTGGGCGTGCTTCCGTGGGCTGGGCGCTGGGTTCGCGGCGCGCCCTCCTGCTGCCTCCCCGGAGCTCCCG
1 aggcgaagcttgaacacactgtgcgaagtgacaggagccaggcacagaggagcagatGGCGGGTGCTGTGGGAACTGACAGGAGCCAGGCACAGAGGGTCGGATGGCGGGTGCTGTGGGAACTGACAGGAGCCAGGCACAGAGGGTCGGATGGCGGGTGCGGTCACACGCAGGACGTGCCGTTCACGTGAGCCCTGTGCATGCAAGTTCTCGTTCTGAAGGCCGTTTCTCTCGTGTTTAAATAAGAATCC
1 GAGGGGACCCTCGAGCCAGCCTACCTGCTCTGCCCTCCGGGGGGACTCAACTCCGGGTTAATTATTAATAGACGCCCCACCGCTCAGAGTGGCGATGGGTGCACCCGAGTCCTCACCAACACCCCTGCCTGGCGGGATGGCCAGTCATCTGGGGTCCTCGGCCCTGACACCCCTCCCCACCCCAGAGCACCAGGAGCGctctcgctctctctcgctctctcgctctctttctctctttctttctctctct
1 cgcccaccttggcctctcaaagtgctgggattatagacgtgagccactgctcttggctgcagttatacctttttcagacaatagtggcatagagccaagtatgaacttacacaaacaggttatataacaagtggagttatgtgcttgcatgccaaacttgctgagtcatgcaggcctggatatctgcctcggcctattccttgactaaagcacatccgtgtaccttacaatgacaaaaccctgtctctac
1 CCGAACATGATCCCGGACTGCTGCCGTTGCAAGATTCTTGGAGGCTGCAGCGCCACATTCTGAGCCAGCACTTCGACCTCACATTGTAGCTAAAATGTTAATGATTACTAGAGATGTCCTGAAATCTTTTTCAAAATTCACAGGCTGCCAAATGCCCTCCCTGTTTCCATAGCTCCTTAGGCTTTGTTAGCAGGCTGTGGGGTTCACATTTGCTTGTAGTCAGCACAACGGCATTGCATTTAGTTATTAT
1 AGAGTAGGGGGTTCTTGGGCAGCAGAAATGGGAGGCGATGAATCTCCCAGCCATCGCTGGCAGACTATGGTGTTGGGCAGCTTCGGTCTGGTCTCGTCTGGGTGGTACCTACCGTTTTGCCCCAGTTAGgaggactggggagggaggacaggagaggtgagAGTAATTGTTACTGGGAAGACTAGTGAGGAGGGCGGGAAGAGGGAGGGAAGAGCTGCTATCTTGCCTGAGCAGATCAGGAGGGGGACGC
1 AACGGATGCAAAGGCTGAGCCCTTATCTTTTTAGCAACTGGTATGTTAGATTAGTGTGCAGCTTTGTGTAAAACTTCAAAGAAGTATAAAGTTCCACAAGATAGTTGAGAGGTAAGTAAATGGAACTGTTTATCATTCTTATCATAGACACATCATTACCAAATTATATAAAGACTAAAGCATACAGTTTGTTGGATCTTGAATCAGGAGGGTTGACATCAAGCCAACTCCAACTTCAACCATATATATT
1 cccctaacaGTTTGGCATAAAGTAGTGTTGAAGGGACTCCTCCCCTTCCTCTACCTTCTGCCCCTGCCCATAGCATGGAGGGAACTTCCACTGAGCCTCCTCTGTCCACTTCTGGCGCCTCTCACTAAGCCCTTTGCTCAGCCTCCCACAGGAGGAAAAGTTTATTGGGCGGGTCAGTGTCGACCTTTCTGCACCTGTCTGCTGGTGGGCTGGTACTGTGGCTGTGCTTGTGGGTATAGCTCTCCTTTTC
1 GAGGAAGGTTAACCCCGCCAGGGAACGGCCAATATGGAGGAAAGTGGAGTCCCGAGAAGCTTGGGATCGATATGTCTCCCAAGGCAGTCACTGTCTCCTGGGGAAACGGGAGAAAATTCATCCCAAACCGGAGGGGAGAAGACGCCGCCTCCGGGGCCCGAGGGCACCGCGGGAACCAAGGGCCCTTGGGGGCGGGGCCTGGCGCCGGGAGCGCGGGCTGAGGCGGGGCTGACGTGAGGGGCGGTGACGC
1 cgccgggctgtgagcacctctgggcaagtgctggggcttactcacctcagcaccttgcacagcgcctggcacagaggaggtgctcgataaatatttgctaaatgGCCCCGTGACTCTCCCTGCCCTGGCCACTACCTCCCCCACACACCACACACATTCATACACACTCATGGGAACCAAAGTCACACACACTCACACTCACAAAGATAAATATTCACAAGCCCTCACTCACATGCCCCTGCACGCACTG
1 TGACAACGTGAATGCATCCTCAAGCATGTGGAAGGCCCATCCTTTTACAGAGATGTGCACGGGAACATGAGCCTGTCTATTTACTTAGACAAGGGAGGGCCCTGGCCACGTCCAGGCCACAGAGGGAACATGAGCCTGTCTATTTACTTAGATGAGGGAGGGCTCTGGCCATGTCCAGGCCACATGCCACTCCAGTCGGACCTGCCAGAGAGGAGCCCTCCGTGTCCTCCTCCTCCCCTCCCCGTCCAGC
1 TCCCCACGCCCCTCCCTCCCGGAACACCCGCCCTGTGTTCCCAAGAGCAGGCCCCTAGGGAATTTGCAAGCCGGCCCTGAgaggtcagagacctggtctctgctcctggtttcagctttgatactgactgacccacagggcaagtcccttaacatatgagtttgctttcctgtccgttcagaacaatgcctagtagtcattagtgcatacagttgtgctggagatcaactgagaagacatgaaaagcact
0.3543500009857953 AGCGGCCTTTGCGGTTCCAACATGGCGGAGCTGACGGTGGAGGTTCGCGGCTCTAACGGGGCTTTCTACAAGGTACTGACCGTTTTGCCACTTTGTCGAGTGTTCTGGGTGCTGGAGCGCGTTTGAGGGAGGGTTGGTGGTCCCAGAGAGTGAGGTTTGGGGTCGGAAAGGCAGCCAGGCCAAAGCTCGAGGCCGCTGGATTCCTTGCTTCTCCCCCCTCCACCCGCGGTTTAACGGTCTCGGGGGCCGG
1 CCTTGCCTGCTGCAAACCCGGCTGTCCCTTGGCCTGCTGGCCTCTGTGACACTGGTGATGTTCTGCCAGGTGCTCAGTGTTGGCTGTGAGCAGTGTGCACTGTGGCCATCCCTGAGCCCAGTCAAAGGTCcagcagagcagcagctgctgccccagcagaagagcGCTTCACCCAGGATCACTCCAAGTTGGGAGGAAAATAAAAATTTCAAGGCAATCATCAATCCCACCATTGTTCCCTTCCCAGGAC
1 TGACtgtccaatgtatctcttcatctggctgcccacctgtatcctttgtaagaccctttataataCATAAGTAGCGAGGTGcagtggcgtgcagtggctcatgcctgtaatcccagcactttgggaagctgaggcaggaggactgcttgagcccacgagttcaagaccagcctgggcaacatagactccatttcaattaaaaaaaaaaaaaaaaaaaaaaaaaGGAAAGAAATTCGGCACGTCTCCTAGT
1 GAAAGGAGTGAAGACCAGCATTCCTAGCATGAAACTGAGGAAGAGATAAGGGCCTTCTGTACCTATTAATACCTACTTGAAAGCAGAAAAGCCTGATAGATGAGGCCCCTTGGCCCTAAGCCTGGCAGCTCCTGATAAGGCTGTTCTCAATGTCAACAGTTTTCAAAAAACAGTTTCCAAAAAATCCAcagtcactgggcagccacttccattgatgatctcctttcaaccccataatcccgtaagtaag
1 aacaaaatctaaaaacccttttcctatggaattagcgtgctattgaatgtacatgcactaaacaacaaaacctaacagataattaagttacgttagaagataagcacgatagaaagcagtgaagaggaattgggagtgttgacagttggggtatgggtgaaaatgttaaatgatgtgatctgggttgacctcattgaaaaggtgagatttgacccaaaaattgaaaaagataaggaaattagccatgtaa
1 GGTGCCCTTTTGAACTCTGGCCTTTCCTGGCTTGACAACCTCTGGAAATTATCCTCTTGGCATGGACTCTGTGCTGCTGTGGAGCCTGGGCAGGGGAGGGATGGGAGGTGGGTATATACAATAAGGCCCAACGAGTGGACTCTGCCTTTCTGGAGCTCTCAGTGCGGCCTTGGAAGATGCATAGATGTATTGAGTCAGAGAGGAGGGAAATGGCCCCAGGAAGCTTAGGTGTGCGGGCTCTCCTCCTGGG
1 GTGTCTCTTCCTTTCCCAGGCTCCTAAGTGTCCTGGAAATGCAGGTGGCTGCAGCACATGGCTACGGATGGTGGGAGGAAGAGGACCCTGGAACAGGAACGGGAGGTGGGAAGGGCATGCTCACCAGGCTCCCTTTTTTTCCCTCCCAGGGTGAGCGCAGGCCCTCCAGGACCCAAGGCCAAATTTGCTCTGGCCAGGCGACCAGTCGGCCGCCAGCCCCAGGCAAAGATCACGGGGAAGATCAAACATT
1 GCCTCTCAGGTTCTCTTGCGGGATTAGTGTTTGTTGAATAATAAGCAATACACCCTGACCCAGCGAGCCAAAGCAAACAGGACAGTAACTGAAACTGCAGGGGAGTGTGAGTAAACAGTTACCTTCTACCCTCATGGAGCTGGCCTCTGGCCAGCAACATGATAGCTGTTTGCATCTTACTCTTATGGAGCCATTGGCCCTCTCATTAAGGTGGGGGCAGCTTCTGGTCCATGCCTGCAAGTCCTCATGG
1 AAACTGCAGAGTGGGATATTTGCACTTTCCTTCAGGCAACTTTGGAAAGTGGATCATAGTTCTGGTAGCTCTTGCTAGAGGACGAATTGTACTCACCACTCCATAAGGCTTTGATCCTAACAGTGTTCAATCAGTAGCAGTCATCATTGTATACTTAAAGCCTTGGACGTGGGGCAGAGAGATAAGGAAGAATGAGGAAGCAAAGCAGTTACAGAGGACGGCAGAAAGAAGGCTGCCATCCTGCCCTTTC
1 cTCGGAGGCCCTGAGTGAtctgagtctgagctcacaccaccttcctcattcactacgctgtaggtacattgattcctatagttcccccaaatgaaaacctctttcctacctcagcttttgcccgggctattccttctgcctaaaatgccctcctcctctgtccacctggctggttccttgccatccttcaggtctcagcatggggatcctcttctgagaagcctcttatgaccgtgccatcaaaaaaaga
1 AAGTGACTTCAACAACTCCTTTGCTCCCTCTGGGCCCAAGAGTGACCTGAGAAGGGGTGGAACTGACAGTCATTGGCTCCTCTTTCTCTTCCTGAGCTCCTGAATGCTAATAGTCTCAGGCATTGCCAGGAGGGGGCGCTGCTGGCCCAGCTGCCGAATCCCGCACTCGCCAAGCCTTTCTGGCCACACTCAGGCCTTCTTATACTATAGGGTGTTTGTTAGAGGTGTCAATGAAAAAGATGTGTGTGTG
1 TGTGTTACTGTGAGCTTCCCCTTCACCATTGCAGTAGTTCTATTTTAAAGGACTTTGGGTTATGCCCTGTGGCCACATGACAGGCAAAGGAGCTGCTTGGTTACCGACTTCCATGCAGTGGAATGCATTTGTATGTGAGAGAGTGAACTCTGTTTACTCCAGCAAATCATTGACTACTTGAATTCCTGGCATTGCATTTCAGAGATAGGACACTAATTTGGCTGGCCTATGTATCATGTCCAAGAGCATG
1 TAATGTATTTTAATGGGGGCATTAAAAATATATTTTTGCAACTCCCTGCCATGATTATATAAGTCACAAAGTTATCAATTTGACAAAAGCAAGATAGAGACGGAATGTGGATAGCTGAGAGGCACTTAGGGTTTATTTAACCAGTGAGGTTTATTTAACCAGTGAAGTGCAGTATTGAAAGGCAGAGTGGTAAAGAGGTTTTGCACAGGAAGGAAGAGATTTAGTTTGCTTCTCCTTCAGTCACTTATTA
1 CTTAAAAAAGCAAACCATTGGGTAGACTTCCCTTAAATTAATCTTTAGATTCTTGGCAGGAAGTTTGGTGATTTACAAGGTGATTCTACAGCATGAAGAACGCATGGCGCCTGTGGTGAACTCAGCCGTAGCAAAACGGTGCCATCTAGTGGCTGGTGAAGTCTCGGTTTTCCGGAACACGCGTGCTCTGAGCTTTGTATCACCCAGGGCATCTGTCATTTTAACGTCCAATGAGTGACCTGCAGATTCG
1 TACACCACGCGCCGCCGGGCTTGTACATGCCCGTGTGCCTGTGACACCGAGGCAATTGTTTCTCCTTAAAAAGGGGGTTCGCGTGGGTTAGTTTCGTTTCTGATCTGGAATCTCAGTAACTACAACAAGAAAAGTTTAAAACTCGACCCGCCAGGTTCTTCCCCATCGGATTATCTCCGTTCCTTAGAGATAGCAGGAAGGGCAGCATTTTCTTCCATCCACCCACTTCCAGCCCTAGTCTGGCTCAGCG
1 TTACCTTCACCCTAACATGAGGAAGATCCAGCTTAGAGAGGGGATGTAACCAATACCCTAAAGTAAAAATAGCAGTGTGACAGCATGAGGTGGACACACAGGCGGACCTTCTGGACTGAAAAGCAAGCGAGGGCAGCATCAGAGAGAAGGCGGAGCTCCTGGTTCCTAAAGCACAGAAGACAGTGGTGACCAGGTACCAAGTCCATCGTAGTTATATGACTCACGAGCTCTCCCCCAGCTGTTTCTAGGA
1 gtggctagtgaaccttatctctcctcctttcccaggcattgtgaaaatcctgtttccctagctgtgcagctgcaaggtcactagacagataaactcaagttgcaaaacatgtttttctttgaaaagtaagaaatgatgtaatgcatatctcaactgattgaataactgcgtttttttctcacttctgtagtatgcctccccctgcacagatctctccctgccccatgaaatgcttaaaatgtaacttaac
1 ACACACAATCAGCCAGCTCTCCAAAGCAAGCCCCACACTCTCTTGATgctatcctcaataaacatgcggtctaaacagtaaccatgttctagctatgcagatgcagtttaaagacaaatcctttgagcctccagcatgcgatcccctcccaatctcattgctgctcccctaccctcttctgcgtagaagcgctggagccAGGTGCTTACGACCTGGGTGCTAGTATCTTTGTGAAAACTGCTCCTGACCT
1 aggaccagtttctgccactctgccctgccacatgcagcactggctccaccgtcaggctggctctgcttctgggtgtaggatggtggccagaaacctgcaggcCATATGCTGTATCATTTGGGGATGCTTCTGCTCAGCATTCCAAGCCAGAATTCCAAGGTTTATCCTGAAGAGGATCCTCCTTGACATCTCTTTTCTCTCACATTCAAGTCTGTTAGTCTTTTCtctcacattcaagtcagctgccact
0.1950166201890265 gccccgccccgccccgcgccctccaggcccggcccgcccTCCAACCTCTGCGTGCGCACAGCCTAGAGCCCGCCTCCGTGAAAGACTGCCGGGCGCATGCGGTCGGGGTTGTTCACTGGCTGTCCGGGGCTCCGCGCGCGTCGCCGGCCCAGCTCTGTCGCTGACGGGAGGATCTGAAGCCGGCCGCAGGTAGGCTGACTCCAGGGATCCCGGGGGGGATCTGTTCTCCCGCGCAGGAGTCAGCGGCGCG
1 ttctgggatctccgggttgcggacggactgcatgaagcgattcctcataatacgtctccccacatccctctctctgcgtcctcttgcgtctgtttttctggagacctctgactcatgcaGTTGGTGTTTTGAAAAAACAAACAATTGcctttcatggacccaaccctggacgtcccatgacatcaccgtcattgtcccctgctggccaaggctgtcgtaagtcggcccaggttcacggggtgagggccct
1 AACTGCTGTTTTTTGTTTGTTTTGAGGttttttgatttgttttgttttgttttgagacagggtctcaaccctgtctccaggctggagtgcagtggcgcgatctcagctcaccgcaacctccgcctccctggttcaagagattctcctgcctcagcttcctgagcagctgggactacaggcgcgcaccaccacgcccagctaacttttgtatatttagtagagacggggtttcaccatgttggccacgatg
1 gaaaataaggctcaaagcaggagagtggtctgtgtagggtcatgtggccagaggtagggctgaagttcagctcagcctctcatggcacttcaCTGAGGACACGTGCTGGGAGATCAAGGTCAGTGAGGAACCGAGCTCTGTGGGCAAAAGAGAAACAGGATGGTCTGGGGAGCTGAAAGATCCAGTGGTGTGCAGAAGTTGGGGAGAGGCATCTGGGGCCACCAAATAAGAGGAGGGAAGTCGGCACCTG
0.8671933461780984 CGGCGGCCGCCGGCCCGCAATGGTGCTACCCTGGTTGCTGCTCGAGACTGCGCGCAGGGCGGTCCTCGGGTCCGCGGAGGCTGCGCTCTGCGGTGAGCTTGGTGGTCCCTGGGGAAAGGGAGAGCGCCTAACCTTAGACTTCAGGCAAGGGTTAACATTGGTGGGGGTGCTCGCTTCTTTAGACTTCCAGTTAAAAGTCAGACCCATCACTCTTGGCACCTGGGGATGTAACACCCACCTGGGGAAGATT
1 ctagtgccttgcacaaagtgggcactcagaaatttttgttgaagtaaatAGTTCAATAGTCGAGGCTACCGAGCTTAAAAACAGCTACGTAAATGTTATGTTTTAGCTCTTCAACTCCCAGTGCAAGGATAGAGCTTTCTTGACTGACTGTGGTGATGGTAGAATGACTACCTGTGAGCAGTCCCATCTCTACTGAGCTGTGGGAATCTTAGCAGCTTAGTTAAGCTGAAAACAAATATTTGCCTAGGAT
1 tgccatgtacagatcacaaaatatcatacaaggagccttaaaaggtcatctaacctaaatccagtttcccaaggagaacactggggcacaaagaagtgagaggtaactcgcccaaagttatatagctagtcagggacTTCCTCTTCGGAGACAAAGGAAATCAGAATAGTGATTCTTCTGATTCACCGTCCCTCGACAAACAGTCCACAAAGTGCTTGGAGGTTATTAAAAGGCACCCCAGAAAAGTAAG
0.8390194710851114 AGCGACTGTCCCCTTAATATTAATGCAGGGAGGGCGTGCCCTCGTCCACACCCTCACCACTCTCGCCGTTGTGGCGGTTGTGGGGAGTGTGATCCCACTGCCTTCTAATGGGTGGTCAAAGGCCAGCGCGCCGGGCACTTTTATTGTCAGCCGCCTCAGTAATCTTTAACCTCTGCTGGCCAAAGGGCTGAAACCCAGAAAGACAAAACAAACATGGGTTGGGCACCAGAGAAGAGTGACTCAAGTGAAC
1 gcgcacacacacacaGAGagaatgaagtttctttctgtctcttaagtgatgtgtgagtggatggacagattgccctcagctttaagggcagttcaggatgatctgtcttaagatcgatgctctgtggaatgagaaaaatgcgctctgcagggcATGCCCACTGCATGTGCTGGGAGGCTCTCCTACATCCAATGGGCAGATGCGCAGTCTCCACGGAGGCCTCAGGCCTCGGTGTGAGCCAGGGCTGCTT
1 CCAGGGCAGAGCCCGCCGAGGTAGGGGTGGCACCCAGCTTCCTACTCTGCCCTTTGCCCAGTGGGTAGACAGCATCATGACTGTCACCAGTACCAGGGACAGAGCCCAGGTGGGGTGGGGGCGGGGTccagcaccacggccagcaccgaccaccaggaccccggagccagcaccaTGGACAGAAAACTGCCCACCAGGATCTGACGCCAGCACGCCGCCAGGCCCACACAGGGTCTCCGGTCAGAGTCCC
0.5488441932791053 gaaaaccagtcaggcgtggcggcgcgcgcctgcaatcccaggcactcggcaggctgaggcaggagaatcacgcagggaggttgcagtgagccgagatggcagcagtacagtccagctttggctcggcatcagagggagaccctggggagcgggagcgggagagggagagggagggacagcaaatatttattgagtgcctgccatgtgcAGAGAGCACAACAGGCTGTGTCTCTCCTGAATGAGAGGAGCA
1 TTTACCAGCTATCCTCATATTTATTAAGTTTAAATAATGGGAGAAGTGTCTTTCTCTGAAAAAGGACTTTGAGACCACAAAGAGTTTGGTTTGGAGCTGTGTGCCTGTGAGTCAGGTGGAAGTGATAGCAGTAACTGGAACTTTGCAGTGTTTGCCAACAAATGGAACAGACTTTCATTCATCTTAGGTTTAACCACAAATCCTCTGTTTCTACTCACTGAGTCAATACATCTTGAATCGCAGACCAGGA
0.8017737145652299 CTGCCCTCCCAGGCTGGAGCCGGGCTCCTGGCGGAGCGGTGGGATGCTGCTGCCGGGCCGGCGTGCAGTAGGGGCGGACCCCCAGCAGGAGGACCCCGGCTGCGGCTGCGGCGGGGGTGTAGGTGGGCGGTAAAGGCGGAGCAGAGTCAGGGGAGGTTGGGAAGCATGGCGACTGTGGGGGGAAGGGAGGCAGCCGGGAAGCCACAAAAGCCTACAGCAGGCCgggcgggcgcggtggctcgcgcctgta
1 ACACGCGCACAGCCCCCACACTCCACCGACTCTCCGTCTCCTGCTCTCTGCCCAGTAAGGAACACAGGCCCCACCCCCTCCACCCTCACTGTGTTTGGGATCagccatttcagcggggtgaggcgtccccttgtgggtgcgattggcatttccctgagggctgtgaacactgaacaccttttcctgggctcactgcgatttgcattcttcttctgatgccagcgggcaaggggaggtccccaaacgccgg
0.5661655851457653 TTTCTTTTTGCTGTTGTTTTTTCTCTCCTAACTTTCCTAGGAAAACATCTCCCAGATATATGCCCTGCCTGGCTGCTTGACTATTACGGTTTCAGGGCCTGAGCATTACGCAATCCAGCCAGTTACACAAACATAGGTCATTTCATAACTTGTTTTCATCAGCTGGGCCCCCTTTTAATGAAAAAACAAAACAAAAACAAGACCTAGAACTTTTCCAAGGCTGCTATTTGTTTCTCAGATAACTTGTGAA
1 CTGGAGGCCTGCCCAGGGGCCTGCAGTGGAAAAAACCAGCACAGCCGCTTAGCTCTCAGCATGGGGAGGGGCAAAGTGAGGTGGCAGAGGCAAGGGTTGGAAGAGAAGCTGCAGAGGCCATGCACCTTCTCGAGCTGGGCTGCTGCGTGCAGGGCAGAGGCTCATGGGGCACACCACCAGACAAAGGCCCACAGTTGCCTTCTGCCTTTCCTTTGCTTCCTGCTCCCGAGTGCGCAACCCAGCAAACATG
0.2614830155317699 CTCCAGCTGTGGTGGGGAGAGAAGGTTCTGGGTTAGGCTCCAAGGTCTAGGGAGCCCACGTCGTCTGCCCCTGCCTGAGTGGAAGGCTGGGCGCAGGTGGGCCTCGGCGTTAGGAAAGGCAACTGCTCCCTCTTGTGGCCACTCTAGGGCAGCCCGGCGTCCTCCCAGCGATGTGGCAGCCGGTCTCAAGCAGGCAGGGGTGATCCCTCCTCCCCAGCCCTGCGCAGGCCTCGAAGGGGAAGAGAACCAG
1 agaactctgacctcttcttcctcagttcagtagggccacagttttctttctggttgcattctacctctttgtgctcagaaaattttctccaggcacagagctagcatgaagtgagagtcatctcgtgagattctcttctgttagggattaaaggcttgcactgtcaatgtccaaagtccactgtctggaaatcattgcttcacatattttgtccaatcttttagCTTTATGTTTTGTATGGGTAAAAGTG
0.8313652823442914 CACTTTTCGGGTGGAAACACCGAGGACACGCCCCGACGCAGGGGCAACTCCCATGGTGGCTTCTTCCCGCCCTCGGGGCTCCACCTAGCTCAGCCCTGGAATTCCGCAAGCACCCGGAGGCCGGGGGGTCTCCGCGGGCGTCCCATGCGGAGGACATGGTGCGCCGTGTCCTCTTCCCCACGACCTCAGGGACCGGTCCCCCCGCCGGAACTGCTTCCTACCTGGTCCGGTCCCGGCAGCTGAATCTGGC
1 TGGAGCCTCCCATTACCGGGCCGCGAAGACCCTGGCCCGGGGACTGTCTCGGGGCCGGGGTAGCTGCCTTGAGGAGTAAGTCCGGGGACTCCTGGTCTCCCTCCCGCCAGGAGTCTCTCTAGGCTGTGGGTTGCGGTCCTGATGGGAACAGCTGGTCAGGAGGATAGGAGAATGACCCTGTGGACTCCAGAGCCAGCCTCTGCGAGCCCCGGGGTGACCGCGCCTGACCAGGCCACGTGAAGTCGTTTCT
1 GAGGCAGAACCAGGACATGCAAGCCTAAAGTCTGTGTTGTCTTCCCAGGCACTGACTCACTGGCCCTGCCATGCCCACGCCActgctcccgctgctgcttcgattgctgctgtcctgcctgctgctgcctgctgcCCGCCTGGCCCGCCAATACCTCCTGCCCCTGCTGCGCCGATTGGCCCGCCGCCTGGGCTCCCAGGACATGCGAGAGGCTTTGCTGGGCTGTCTGCTGTTCATTCTCAGCCAGCGA
1 TTAAGGGGGTTCAGTTTGAGGTTATTTGAAGTGGAGTCAAGGATTAACATTACAGCGGATGTTTCCAAGAGTATGGAGGTCAGTAGTGAGATATTGAGTGTCAGGGTGATGGGGTCAAGGTTGGTGTTCAAACAGATTATTCCTATGGCAGGATCTTATCTGTGCATTTCCTCCCTCAGATCCTATTTCTCTCTCTGCAACTATTTGTAAACACTGTGAGCCACTTCCTACTGTTCTGTAGTAGACATTA
1 CCAGAGCAGAACCTCTGCCCAGTCCCCACCCTATGAGCTGTTGGCTGCCTGCCTGCCACGCGCCCGGGATTGCTGAAGGCTTTACTCATGTATCTCAGGAACAGCTGCATGCCGGAAACTGGGGGCTGGTGGCAAGCAGGAGGGGTACCCCGGAGACGATGTGGGCGAGGCCGAACCCAGTTTTGGTGGGATCAGCCCACTGCTCTGGGGGACTGCTATTCATGGGGAGTCAGTGGGAGAGGGGCTGTAT
0.7200376693889293 CACCCTTTGCTGAGGAAAAAACGCCAACATGCTCCACACATGGCCGATCACAATCTTGGCCACTTTGGGCCAGCTCTAGCCCACCTGTGGCACCCTTTCCCTAGGGAGACTGGCCTCAGCGGAGTCCTCCTAGCCTGCCTTCCTGACAAACAGGAAAGCAGTCCCCTCGGACCGCCCTAGGGTTGGACTTGACCTAACCACATCCCTAACTATGCCTTTAGAATGGGAGGATGGTGGAGCGCTCAGGAAA
1 CCTGGTAGCAaggatccaggctaggacccagatccaggctaggacttggatccaggctaggactcagatccaggctaggactCAGTGGCCGCACGCTGGTGAGGGTGCGATGGCAGTTAGCACCCTTCTCCACCCCCACACCCAGGGACAGCTCCTCGGCCAGGAGGCTGCTGCCGCCTTGTGGGCCCTGGAGTCCTCACCGAGCTCTGTAGCCAGCACAGTGAGGTTGTGCCAGGCGCGAGCCTCGCGA
1 GTTTTCCCTATAAATGGATGAGCGTTTCCGACTGAAGGTGTTCTAATTAAACAGTCCGCATCCCCAAGGACTGCGAGGTCATCCTAGGGAAGGAGGGTCTGATCCCTCCTCTTGGCGTCAGGACCACAGGTGGGGGTGGCGAGCTCGGGGTGCAGCCAGGCAGTGTTTTGTTTGTTTTGTTAGTCACTGTGCTGGATTGTAGCTGAACAGCTCTCTTCCTTCCTGTTGTCTACAAGGACTCCAAAGAGCA
0.9169685081186992 TCCCAGGACACACGACCTACCAGTGGTCCCACGATGCTCTGCCCAGCACGCCGGGTGGCCTGGGATAATGCACCTGGCCACACACACAAGCCCAGGCTAGCAAAACCCAACCCACAGGCACCTTTCTAGGTAGGGGCAGGCCCTGGCTGGGTGTGAGGCCCATTGTTTACAAACACTGTGCAGCTGTCGCTAGGAGCTGTGACTCAGAGCCAGAGCAGTGACTCCTCGCGAAGCTGTTTACTCGGCACCA
1 CCTGCCCAGAGACACACCCTAATTCAGGTAGAAGTGGGAGAAGTGAGGGCAGGGAGAGGGAAGGAACTATACTCGGACTATCAGGGCTGGTAACTGAGATAATGCCCTTGACCTTTCTCCTGCCCCTCCCAAAGCAGTAGACCAGAGCCAGGGGGGTCACTTTCCTGGAAACTCCCCAGTGAATGAAGCCTTTGATACCTAAGTGGGTCATAGAAAGGGAACAAAGGGATGCTTTTTGCATGAAAAGCCG
1 AGGTCCTCAGCTGAATGAGGAACCCTGTACATCCCCTTGCACAGCCCTATTCTAAATCGCTTAAACTATGCTGATAGCTGCTTAGGTTCTTGAGTAGTTCTGCTCTTAAACGTAGGGAGGCCCTGAGAACTAAATTTTGCCCCAAAATAAAAACAGAAATTATGAGATTGCCTCCTGTCATTTTGGTTAACCCAGTCCTTCACCTGCCCTGTGTCAGTGTCTTCTGAGGGCAATTGCGTTGCTCAAATCA
1 tgggaggctgaggagggcggatcacttgagctcaggagttctagaccagcctgggcaacatggtgaaaccccaactctaccaaaaataccaaaaaattagctgggcgtggtggtacgcacctgtagtcccagctcctcaggaagctaacgtgggaggattgcttgagcccagtgggcagaggttgcagtgagccaagatcgcaccactgcactccagcctaggtgacagactgagaccccatctcataaa
0.004130520491965547 GCCTCACCAGCAGATACTAGGCTTCCTGTGTCCACACTCCGGCTTTCTGGCGATCCTCCTCCACCAGGCAGCCAGAGGGACCTTGTGAAGGCATAGCTTCAACCCTGTCACGTTCTGCAGTCTCTTCTTCAGCAAATATTTGCACACCTACTCTGGACAGTGCTgttctagcccttgctggaccttgcgttatcagcagagacggaacaatagacgaaaatcaaagagtgaaatttagagtgtgatagag
0.9705074640815464 GTGGCCGGATCCGGACGAGAGGAAGGATGACTTGGCGCTCCACCCACGGCAACCATTCGGGACCACTTCCCTGGCCTACACCGTTGCCTGTCCGGGTCCGCCTCAACCTCTTACAATCTCAGATAGGATCCCCGCAGAATCTTTAAGCCGCgcattggtggttcagtggtagaattctcgcctgccacgcgggaggcccgggttcgattcccggccaatgcacGAGTACAGTTTTCTTTTCTCCCCTCCA
0.2782932401029749 GATTGGCTGGTCTCTGACCAATCACGGACAGCGATTGATATTTCTAATCGTCGTGATCCACCTCCCCAGGACCTTGGAGCCACGTTTACAAATAGGAATAGGGTACGTGGGAGGGATAGAACGTACAGCCAATAAAATCATGTGGCGCCGATGGGCGTGTTGAGGCCGCTGCCTGGCTTAGGGCGGAAACAGATTCTCTGCATAAGAAGGGGAACGAAAGATGGCGGCGGAAACGCTGCTGTCCAGTTTG
0.1283615720787414 AGCAGAAGACCTAGGGCCCAGGTCACATATTCTCCTGGAAAAGGGATCATGGAAGGACAGTGACCAGAAGGACAGAACAGGGGAGGAGAGGGCCCGGCCCCTTGAACTTTGGTCTCTGGTATTCTCCCTCCCTGCATCAGCCCAGATGGGAAAGTCAGGCCAGGGCCATACAGACTTTTGGTGCTGGGGCCCCCAGAGAGAAGCTGACCAGCTCTTTGCTCTCCTGGCCCAGGACGTAGGGAAGAGCCCC
1 AACAAACAGTGTTTAAAATTTAACTTTGCTTAATTAATTAGTAATTCTGTTTAATGCTGTCTGATCTCCCTCCAAAAGGTATTTTGAAGCTTGAGAAGGGAACATCAAAGGGAGCCGGGTGAAGATGGTCAAGTAATGCCTTTAATCTGGCAGTTGCTGAGGGTGGAGAGCTGCCAGGCTGGGAGCTAATGGGGAGAGAACCGTCATTTGGTAAACACAGCAAGCTGACTCCTCGTGGCTGTGGTGTGAG
1 CAGAAACACTAGAAGTGTCCACTGATAGAACAGGGTGGGCCTGGGTCAGCAAAAAGCCCAAGAGAGATCTTTGCAGGAGAAATCTCTCCTTCGGTGCTGGAATTGGAGAGTGAATAAAGTCCTTTGGGCCAGGTGGAGTCAGCAGTGCCGAAAGCCTGGGAGGTGGCCCTGGTTGGTCCCTCTTTTCCCATCTCCCCTCCTTCAGCTCCAGAGCCAAGGAGGGGCTGGCCGTCCGTTCCTGGCCTCACCA
0.03278643379487129 cccaatgtggccatgctcagagctcaGTTTCATTTACTTCAAATATTTACTGCACATTGACTATGCATTAGGTGAGTGCAAAAGTAATCGTGATTGAGCAATTGGACTTGGCAGCCTGTCTTGACACACCACTGTGCTGAGTGTTTGAGGAAGTGTTTCAACAGATGGCTGGGGTTAGTGTGTGTCATCATATTTGAGCGAGGATTAAGAGAAGGCAGGCTGCCTTGCTGAAGCTATGTGGTCTTCAAGT
1 aagtcccacagactgagtggctgaagccatgggcagcattttcccacagtcctggtggcgagaggtcccggagccagcgcaggcagggttggttccaggcagcgtctcttcctggcttgcagaagggaccttctcattatgtcctcacccggccttccccttgGCCAGGGCAGAGAGAGGGCGCTTGGTGTCTCTCCCTCCCTACAAGTCCACCTCCAAATGCAGCATCACTGGGGCTTAAGTCTCCACA
0.8928192399404207 GTGCGTCTTCAGGATCCTCATCCCTGATCTCTCCCGAAGGCCGCCCTATCCCTCCTTCAGGCGGGGACCTAGTACCTTCCGTCCAGCGCTCCCCGCTGCCCAGAGTCGCCGCCATATCGGTTCCCAATCAGCAGGTCCGCCGAGCCTCCCCCGTGCCCGAGGCTGAAAGAGAAGGGGGCGCGGAGCGCGGGGCACGCTGGTCATTGTAGTCCAGTCCATATGAGCTCCCGGGGCACTGGACTACAACTCC
1 TATTTATGTTGAAGTGCACACTGGTTTAAATTACCCACTGGGAATATGATTATGCTTAATCTATGCTCAGTTGAAAGGGGCTGGGGCTGCTTTCTCCCCTCCCTTCTTGACTCTCTGTTCACAGAACTCAGGCTGCCTCCAGCCAGCCTTTGCCCGCTAGACTCACTGGCCCTGAGCACTTGAAGGTGCAGCAAGTCACTGAGAATGAGCACTTTCTTCTCGGACACAGCATGGATCTGCCTGGCTGTCC
0.2880606413303166 TAATAGTGGCCATGCAAATCATATTTCATGACAGTTTTTGAAAGGCGCCGTTTCCACCTCGCAGTTCCAGTGCAGGCGGGTGGGACTCAGTGGTGTGTGTGTGTGCGGCGAGTGCCTGCCTGTAGGTGGCCCCGGCCAAGCCAGCCCCGCCCCAGGAGGAGGCTGAACATTAGTCCTGCATGAGGGTGTCTGGGAACTGGGTGCGCCACGGGGGCCCTACCTCACTCCTCCCTCTCACATTGCCGATCGA
1 ctacgttcctctaaatttcccactgaaatcccttaaagagaaaacattcaccactacaataatatccaagattgtcagcctatcccacagtctgggagggattcctacaactccaaggacgatgtgaccaaggacaacagccagcaggaaccacctgtgctgggcccccgcagcgaggggcaaacacctctctcccggttcagagaagcaagatctgtgcccaacaaaaaactagacagccgtctctctc
1 CAGGCCCAGCCCCAGACAGTGACATCAGCCTGCAGCTGTGCACAGACCTTTGCTCTGTTTACTGGCCCGGTGTGCTGCTGGGGAACAGCTGGGCTGCAGTAATCGCTCACACTAATGGCTTTCGTTTGAAGGAAGTGGCCTGGGCTGCGAAGGAAACATTTATTTGGCATAAAGACTCATGAAGTATTTTTTAAAGGATGCACATGTAAACGCTGTATTAAAGGTTCTCAGAGTGCTCCTCGGCAGCTGT
1 AGGATTTCCTAAGGTAAACCGATCTCTTAAGAATGCCTGTTCCCCTCCCGCAAATAATCATTAAACAGAATTCAGCATAAGTTCAGCATTTTCAAGTCACTCAGGGACACAGGTACCCGGGAATGTTCCCTCTGCCCCTGGACTGTTTGTGTTGGATTCCAGCCTGGCTCCTCCTGTCCCCCGACTGCAGGACTGTTTCCCACATGGAATCACGATTCAGTCACGATTAACACCCTCCCCACAGCGTGGC
0.5887922066635416 TGTTTATTTTAAGATACACAATAGTAATGTAAAGTGTGGCATGCCCCAGATCCGGGGAGCTCGAACATAATTTACAGTTGTAGAGAGCCCTACGAGGACTCAGCTACACGCCAGGACTGTCTACTTCCTGATTAGATAACAGCGAAGGTCAGAAGGCATTGCTTTTTGTGCAGCAAAGAGCCAACAAGCCACCACAAAGACCCTGCTCCTCCTGCTCGCTGTGAATTATGAATCGGGTCCTGTGGAGAGC
1 TCACATAGTTTGAGATTGTTATCACCTTTCTCCTTTCATTTGCTACAAAGTATAGAGTAGTGTTCTTTTGGCATTTAGAAATAGGCTGGTGAACTTtgcacttccctggaaagaaggtccctggctttcatcagattttcagagggccctgagactccCTCAGGGGCCAACTATTGATGCAGAGGTGGTAGTCTAGATAATCTGGAAACAGTTGCTAGTCCGTGAAATTCAGGATCAGTGGAAGGAATTT
1 CTTGCAGGGTCCAGCCAGCTGCCAGCAGCTCTGCAGCTTTAAGAACTGGGGCGGGCTAGCTGCCGAGGAGACCACGCTGCTGCATGGGCCACGTGAGCTCAGGCTGTGGGAGCGGATGGAGCTGCTACAGTCAGCGCTTGGGGCTGGCCTCAGCTTGTAGACCCGAGCCCTGCAGAACAACCCCCCGTGGCGCAGGAGAGCAGAAGAAAGGGGGCCTTTATGCCCTTTTGAGGGAAGCACACATTCTGCA
1 CAGTTAACCTTTGGCCAAGTGTGACCCAAGCAACAGGAAGTAGACTTGTTTGCAGTGGGTGGGGAGAGGGGAGCCGTCATCCGGCTGACTTGGCTGCCGTGGAGGGGTGAATGGGCTGGGGGGGGCTGTCCAGGTAGACCCATCCCTCTGCACGGAGGTGTTGGGTCTAAACCAGTGACACCGAGGAGATGTTAAACATTAATTACCATCAGATAAGAACACCACCACCTGTCACTGTGTCCCAGGAAAG
1 GGtataaacttgtttatctgaggtagaacaaagacaggctggaatcagccaccctccaccaggccctaagatgcctaacctttctcctgacccgctcaactgctcttttaccttatcttatgtatacagtcacggagcaccaatgagaatcacaaaaatgtaacccttgcttctctcccctcttctcctaccttctgtgccacacacatcctcctgtttgaaaatgtgtatatactGTGCCTTGCACAAC
1 AGAACCAACACTTGCGTGTAGTGAAGCCTGGCTGCACAGCTCACACCGTGTCTGCAGCTTCAGGGAGTGAGCCCCTGGTTACGTGGCCATTCTAACTGGGAGGATCTTGTACTCTTTCCTTCCCAGGGACTTTTGGGAACTTTTTGGAAACTCTAGGGTGTCAGCCAGATCCTGAGGGAGTGGAGAGGTCTTGAGTGACTTAGCAGGACATAAAGTCTTAGTTACTTGACTCAAGACCCCTCTCCCTTCA
1 AGGTGTGTTGTGGGGCCAGAGCCAGAGCTGGGGACGTTTGGAGGCCTCCTGTGACTACCAGAGTGGGTCGGGGTGGGGGAGGGAGGCTGCCTGAAGCCAGAGCCAGCCGGCTGCTGGCCGGCACTTTGTCCTCATCCTCCCTTTCATCCCCAGCCCTCGGAGCCTGGGAGTTTCTCAATGGAGCAGGCGTGTGGGGAATGCTCTGCAGGGGGCTGAGGGAGTTGGCGTACGGTGGGGGTGGACATTCCAG
1 tggagttcaaagaacagcttctaatcagcaggcctgcctacgtggcctgtacacaaacaaatccctcatttaggagctgttcttgccttttgttgagcctgatgctatctgtgactcagcctgatcaaaccatctacttaatgcctctattcagaaaggcctccacctgctgggctgctttgggccaggagggtctctgtttcccacaggctgcccgcagctGGGAGCCTTTAAAATGTGGACCCAATTA
1 GATGGCACTGCCTGGCCTCCCTTTCCACTTGACACGCTTTCTCTGTCTTGTTTTCCCCCTCCCCTGACTTCTTTTTAATAAGAATTCTGTTTTATCTTCCTCTCTGCCCTCCGCTGGGAGGACATCTGGCCAAACACACGGATGCCTACTACAAAGGGACCCTGCTGGCTCCTGTAGCTGGGGCACCCCCTCCTCCTTGAACCTAGATGGTTACAAAATAACATTCAAGAGAGATATCCCCCTGTTACCA
1 TAGTTTAGCAAACATTTCCCTCTGCCCTTTCTCAGATCTCCAGCCTAATGGAGCACAAACAAGCTAGGGATGAGGGTAGAGGGCTGGGTGGCTGAGAGTCATCTCCATGCTGGCACCTGGCCCAGGGCATCAGGCTGGAAGTGTTTCCCATGTGCCGTAGTGGGAAGTAGTGGGAGGGTAAGGCTGGAAAGCACTGTCTAGAGAAGCTGTTTAGTTGCATCTCTGTCAGGaccacaagcccacaaaatgc
1 GCACAATTATAAACTCTGGTTTCCTGAACCCCGTTTTGTGGCACGCCCACTGGAAACACTGTTGTAAAACTGCCAACTCCATGGCAGGCAAAACTGACAAACTTTGCCTGCCTGGGTTTTGCAGGATTGGGATGAAAATAAATAGTCGGGCTGTGCTGCCTGTGAGATTTCCTTCTCCTGTAGTTTGCAAACACAATCCATGTCCTAGATGTGCTGCGTTTAAACAAAGTATGTTACTCCGTTCCTTCAG
0.8156856976677861 TGCCGGTAATGGAGAAAGCACAACTTGGAAAATCACCAATAATCCACACTCATTAAATATTTGCTCAAAGTTTGACTTAAAGGGGTGGCTGAACTCTAACAGGGCTGAAGAGGAGGGATGGAAGCCCCCTGGTGGCCACTGGTGGCCTGGCCTTTATAGCCCTGAGCTGGTTAGCTGCAGCCTGGAAGGCTGATAGAAAGCCTTGCCCTTAACTGGATGCTGAGGATGGCTGGCCTCACACCACAAGGGC
1 GGAGGTCCGTCAAGTGCAACTCATCGTTGAGGACAGAGTGTTGACCCCAGGACAGAGCACCAGGCAGGACCTGCCCCTGGAACACCACCTTGCCTCAAGACAGCAGCGGCTAAAGCCGCCTTCAGTAGGCTGCCTGCCTTGAGGTGATTCCCTTCCTTCCAGGAGATTTAATAGAACTGCGAAAATGGACTTGAACTGACTTCATTTCAACTTCACTACCTTGGCAGGCTGGACATGGAGGGAGGACTGG
1 ATGGAGGTCCCTGAGTGACAAAAATATGCAGGACCCCTTCTTTCCCCCTCCCAGTTCCCGCAGCTAGGCTGAGTGTTAAGAGGAAGGTGCCATACAGGTTCAGCACCCTGGTCAGCGCCCAGCCTCCCTAAAGCCGCTGGAGGAGGCCTTTGGAGCCAGCTCAGGTCAGTGTCTGCTGCTTCCTTACCCAGGATGGCCCACTCTTGGGGACAGACAGGCATCCTGAGAGGAGGGGGCCTGGACCTAGGTG
1 ggagtgaataaaCGGATGAATCAACAGTAGCTATTTTTAGTCTTCATGCTATAAACCTCTGTTAACTTTTCTGTGAGTGTGTAGAGATCTGGATGCCCTTTCAAACAGCCGGCAATTCTCTGAAATATCCAAAAACAAGGCCAAGATTCTTAAGCACTGGTTTTCTGTGGTATCACACACAAAACTGCATTTTTGAGTGCTTCTTTGTTGGTCAGGCTTATCCGATCCCAGTTAGGTGACTTCTCAGGCC
0.8632835619222499 GCCTCTTGCCAGCAGAGGGAGCCCCAAGCCCCCAGGACTTCCAGCAGGCGGAGCAAGGTGGAGCAGTGCCCAGGGGTTAGCACTGGGTGTTGTCAAGTGGCTGTTTAAACAGCTGCACAGATGCCGGGGGAGGCAGTGCCTTTCCCTAGCAATGCACGGGAGAACTGAACAGGAAACACTTTACCTCACTGCCCGAACAAATCACTCCAAATGGTTTTTCCCAGAGAATCTAGAAACACGACCCCTTCCC
1 AGAGAGAGTGGGAAAATGTTGTTGCAAAAATGCAAAAACCCATGGCCTGGAGCAGATAAACCGTGCTTGAATGAATGGCTTGTTCTCTAGCAGAGAAGGAACTTTATTTGAATAGTTAATCCTCGCGTGTTGCAACAGCCCAAGATCACCCTGCAAAGGCTATTATTTGCCCAGAGCGTTGCAGGCTGGGGAAATCTTCATGTACCCCTTTTCCTTTTAAACACCAGATCCTATATCCAGGCTGAGATAT
0.5236114674181529 CCAGGGGCCTCTCCAGGCCCAGCTCTTGCCCCCACGGCGGCCTCCCGGGGCCAAGTCCCTGCCTGCCTCCCAGCAGCCCGCGTACGGCCCAGCTCCTCCCTCACGATGGCCTGTTGATGCCCAACTCATGCCTCTGGCACCCTGCCCAGAGGCGTGAGCCCCTGTCTCACACTGGCTCCTCCCACGCTGAGAGAGGTCAGTGTGAGCCCTTGCCTCACACCGGCCCCTCCCACGCGGACAGAGGTCAGCG
1 GCACGTGCACATGGGTGAAGAAGCTGTTGAAAATACAGCTACAATCTTTTTCTGCTCTCCTCCCAACTCATCTTGCCCCTCCCTACCTCTGAACAGTCGCCTTCCAACACAAGCAACAATAAAGGTAAGGGAGAAAGAGAAACTACCTCGTAGCCACCTTCACTCCAGCCCAGCCCCAAGGTCCTGGCCCAGCCGGCTCGTGCGTTGCTTTATTTTCCTTTTTCTGAATGGTTGTAACAGCCGCGATCTG
0.9745152403320581 AGTCCCGTCTCCAGAGGCGCCGCCCCCTCGGGCCTGAGCGCCGGAGTGACAGAGCCCTGGGCAGGGCCCTGAGCAGACCCTCAGTAAAGGCTGCCAGGGGGGTAGGCACCCGCTCGGGGCCCCCCACATGGTGCCATTCGCCCGGACCGCGGCGGAGAGCAGACAGGGGGACTGAGGTGCTCCCCGCGGCAGCACCGAACTCCCACGGGCATCAGAAGGCAAGGTCTGCGGATGGCCCCAGACACAGAAG
1 TCCCTACTTCTCGCCTGTCCATGTCCTTCTGTTTCCCCTTTGCCTTGACGCCctctctctctctctctctctgtctttctcctctttctcctctttctctctGTCCAGTTCTTCTCTCTCCCTCTGTCCCTCTGGGCCCACTAGAGGGCGGCAGCCCCCAGTCCAGGCCTGGGCGTCCACCCTCCCAGCCTTTGCCTGGGCCTGGTGCTCCCGTAGGGAGCGGTGCCAAGATTGCTCTTGGGCCGTGAGG
1 GTGCCAAGATAGGGTAAAGTGACCAGCAGAGCCAGCCAGGGCATAACTCATCCCAGGAGGCAAAGCTGAGGCAACTCAGAACCAACATGAATTCAGGGGGAAGTTAGGTGAAGGTCAACATGCCACAAAACCACAGTATAGTCCAATTGAATCAATAGTTGTCTTCAAGACTTGTGTATCTTTGCTCTGTGGCCAAGGCCAAATCACTTAGTCTCAGGGCAGGTACAGGTCAGCTGGTTCCTCTGCCCTG
1 gcctgtccctatgcccaggtaatttttgtatttttagtagagatggggtttcaccatgttggccaggctggtctcaaactcctgacctcaggtgatctgcccacctcggcctgccaaagtgctgggattacaggcgtgagccacagtgcccggcTCCCTGCCCCACTTTCTGAGACCCAGATccacttcctggtttcctgtgtggtcatgtgaccacacttggccaattggagccttttgttatcacagg
1 cacacgccactgcactctagcctgggcaacgagcgaaattccgCcacacacacacacacacacacacacacacacacacacacacaaaaagccctgacatgagaactgaagacctttgtggctgggcagagggagtgacagggtgagtctgaggggacaaggtcagaggggtgatgggggcacgttatgtggggcccactgagacgggctgaggatgaggactttggtcttattactaagtgagaaaaga
1 gtgaggcatcatctcactcggtaagtgcaaggggtcggggaattccctttcttagccaagggaagccataacagacggcacctggaaaatcaggtcactctcaccctaatactgcacttttctgatggtctcaacaaacggcacaccagatgattatatcccacgcctggcttggagggtcccacacccacagagacttgctcactgctagcacagcagtctgagatcgaactgcaagtcggcagcgagg
1 GTTCTCACTGCCCAGATTTTTCTGTTGCATTATTCTTTACCAGTCATGCAAGTGAATCTGTTTTCTAAGTAACTTTTCTGTGTTTGGGACTACTGCTTTCCTTTTCCTGAATTTGGTATCATTATGTAAATATGTTAACAATTTGGCACTTACTCCTTCATTCAGCTGGCAAATAATTATTGCAGCAGATACTGTGAGCCAGGCTGGGGTGCCAGACTGTATGCTAGGGCTTAAAGAGGTGGCGAGCCGG
0.4208577846321256 CCCAATCTTTGGTGATGCCGTTAAAAGGAAGAGATGCTTTTGGTAAGAGTTTCTCTGTCGCTTGAGTACAGGTGGTCAGGGGGAGGAGGGAAGGCTCACCCGCCAGAGTCCACAGGACGGAGGGTTTGTGGGAACTCACAGCCGGTGGGGCAGAGAGGTGACCGAAGGCATGTATGGCCTGTGGGGCTGGCCTTTGCCACCTCCTCGCCCACGGTAGGGCCCACGCCTAATAGCACAGCTTACCTGGAAA
1 GGAAGCATGACTTGCACGTTGCCCTTTACACAAAAGGGAACCTCCTCGGCCGCTGTGAACAAAGGCTCCGCTCTCCGAAATGTTTGATTTGTTTACTCGGGAGCGTGAGCCTGGTCAGGCACATGTCTGATACTGGGGCTATTTCTCTGCGGCCATATGTAGAGCTGTCCAGGTCTCTGCAATTTAACCCTGCGCTTCATGCCAGAATCCCATTTCCTAACTTCCTCAAGCAACGGGGCAAGGGAACCAC
1 cacttcaggaggaagcacttctgtggcaatatgttcagctgatgagctgccctcctggttcagatattgtgcaatgcaaaacatttcttaacaattccggaagcaaactttttttttctcctttattgctgtcaggatcagttcagtagctacactaaagctttcaccactcactgcttcactgaaaagtttaagaccagagcgttctgctgaatcaagctgttgttgagagGTTCAGTGTACGTATATA
1 CTTCCTACTCTAACCTCTGCCTAAAATTCCATTTCTTCTTCTTTTCCTTGCTTTAAGcaagggtcagatgattccaatgcctgcagatgctaggcaggtacttaaataagttaagggtgaagcaataggggttggtggagactgtgATGGGTGTGATTCATTGCCACGTAGGAAAGCCGGCCCGCTGCTGTGGGAAAACGGGAAGTCAGAATTGTAATAGAAtttttttttttaaagtgactgagtcttg
1 TTCGTTTCTGACCATGGCTACACCTTTTACTATGTTTCTGCAGCAGAAGCTTGTCTTTGACCTCTGCCACTGTTTCTCTGGCGTCTGAATGCTGACTCATTCCCCGGGCAACCCCAGTTTCAATTCCGATAGCTCTCTGACATTTTGTCACTCTGCATAGTTGAGATGGGACACCTCTCAGGTTAGCCTGTTGTAATTTTATCTAGTCAGTTCAAAACTCATGAACATTGggccgggcccggtggttcat
1 TGTCTTCACGTCCTGAGGACATGTATGAGTGAGTGACACAGGGAAGTCCTTCTCAGAGGCTGAGGCCTGGGCCTGGTACAGTGGGTTCCATCAGGCTGGGCCGGCGCTCACCGCCCCACACAGCCACTCCAACGCCTCTCGGCAGAGCCAGCACCAACACCATGGCCAACACTGCCCCCCAGTGGACCCAGGGATGTAACACATCCCCCAACTCAGCCCTGGCGGCCAGTGACTGGGGGAAGTTTTGTAT
1 TCAGCCGCCGGCCGTGTTTGTGCTCCAGCCGATGAAGCGAGTGCAAAGGGCTGTACAAACGCGAGGCACTGAACAAACACTGAGCGTGCCGTCCAGATGTCCCGGGGGAGGCTGAGGATCCACACCGTGGGGAGTGCTCTGCCCCCATGGAGTGACCTGGCGTCCGCCCTCCACGGATGGCACGCGATGGCCCAGGCCCTGTGCTGCAGGGCCCTGGGAGAGCCAGCACTGGCTACTGGGCAGCCTACCT
0.2373498697221001 AGGAAAGAATGCACCGGTTCCACGGTTGAGGACTCCAAGGGAAAGCACTGAGCGGCGTGGGGCACAGGCAGGGAGAGAGACGCCAATCCTCCACAAAACATCCGGTTCCCACCAGCCTGGGCTCTAGCCAAGTGAACTAGCTGAGTCGGTCTGGGGAGGTTCCAGTTCCTGGCCTTTTGTCATCGACTGGGGACAATGCAtttgctatgattgatggaggccacagatttcatccccagccccagccTGG
1 GGAATCCCTCACAACTGCACACTGCTTATCCTTGGCAAGCTGAGGGAGCCTGTCAAAGGGCATCACTTTCTGCGGGAAGGTTCAAAGAAACACATCTAAATAGAAGAGAGTATGATAAGGGACTCGCCCAGGGGCCACCCTCTACAACAAAGAACTGCAAAGACCTCTGCTCTCTTGGCCTTTGATTTAACTCAATACAATCTGAAAACATCTGAACGACTTTCTTTGTTCACTATAGAGTCCTGAGGGC
1 tgccctcagctcccaggaggtgatctctgagcccttgcagtgtcctgcctgataagagtatctttgtttacctggggacgttgggccacactggatagtctaacagtgtgatgtatggtgtggtgggggcttggggccatgcaatatcagtgtgacatttggtgggactggagaataaaggcatgaccaagccccactagaaactgtggacatcaaggtttgagtaagcttccctgtttagcaatactcg
1 CATCTGTTACTTCTATTGAGTTAAGCCTTCTAAAAATATTTCCCTTTTAGTGACCACTTGTTATTTTGACCCTTTGATCTTTTGCTTTGGAAATAGGACCTTTGAAACTCTTCTGCTTTCCTCCCTGTGTTTGTAAAATGATGATAATGCCCGCACCACAGAAGAAGAGACTCCGTTTTACATCCAAAGCTTTTGGAGATAAGGGGTTGAAGTGGCTGAAGGAGAAAACACTCCAATTATTCTTGCGAGG
1 ATCAGAGCGCCGGGCGGGGGAAGTGGGCGGAGCGAGGCCTGGGTAGGGTGAGCGGCCTCCGAAGCGGAGCGGGGCTCTGAGGAGACACTTTTTCTTCCTCCCTCCTTCCCTCCTCTCCTCCTGCCTTCCCTTCCCCTTTCCTCCCCTCTCTCCTCCTTCTCCCCTCGGTCAGCCGGAGCCTGCTGGGGCGAGCGGTTGGTATTGCAGGCGCTTACTCTCCGGGGCCGCCCGGCGAGTAGCTGGCCGGGGA
0.6089261950671254 AGGCTCCCTTCCTTCACCTCCCAGCCTCCAAAGAAAAGGTTCAGTTGAGGCCTCCTTGGGGGTGGGTGCGGGTCCTTGGGCCATCTCTAGGGGGCGCTGACAGTCAGCCAGCACGTGCCTGCACCTGTCCCTAGTTAAATGAGCAAAAGACAGCTGAAAAAAAGAACCCAGGCAGGCCTTGGGGCAGGGCAGAGGGTCTTGAGGCTAAGTGTGAATGGGGGATGGAAGTTCAGTGGGGCGTGACTGGAGG
1 TCTGAAGGAGGATGTCAGGGCCCCAGCCTCATTCAGCGGTGGACATGGTCAGCTGCTCCAGGGCACCCTCGAACCCCTATAGAGCTCCCCTGGCATTCTGCCCTGACCCCAGGGCACTCAGAGCTCTCCAAGGTGCTGAACTTGTCTCTTGCCTCTGGCCCCAACTATCTATCCTGGCTTCTTCAATCCCTCCAGCCAAGAACCACCCCATCTTCCAAGAGCCTACCTCCAGTGGAAAAGCAGCAGCACC
0.1095700198344789 CTGTCTTCCTCAGCTAGGCCCTGGGGAAGCAGGCCTGGCCCCTCACTAGTGGGTCCCTGCTGGtgaatgaatgaatgaaggaatgaacaaaggaatgCAGGCTGGGTCCCAGGCCCGGGATCCTCCACCTTTAGGCCCGCTCCCCTCTTACCCCAGCACTGTTCTTGCAGCCTGGTGAGTGCCCTGGCTCTGTCCCGTCAGGGCTGGCAGTCTGGGCCAGGGTGTGGTTTCCAGCGTCAGGCCAGGCTCT
1 CAGGTTTTCAGAAGGGCACTGAACTGTTCCAGGGCCTGCTCCAGTTGAGCCACTTGGCCTGAGAATTCCTGCTCCGAAAGGGCCATCTGGCTGACCAGGTTCTCCAAACAGCTCTGCGTTTGGAATACACTGTCTTCCCACTGCTTCCAGTCGGCACGCAGGGCCTGCATCTCCGTGTGCATGAGCTCACACCCACTGGCAGTTGTGTTCTGTTTCACTTCGGGAGCCAGCGACTCCACTCTGCTGAGAC
1 GGCAACCAGCTTTACTAACTTGCTCTATTTCTCTCTCCTAAAGCCTTTGAAGTGAGCCCCTCCTCCTTCCCAGCCTTTGAAGTGGTTCTGAATAGAATACTAAAGATTACCTATTAACTGGCCTAGCAGATTTTGATCACCCCAGAAACACCTGGGGCATTTTCTTGAGCCACAGGCACAGCACAGGCACAGAGTTTCATGTGATTACAGCCCAACCTGCTAGTGTAATTATTAATAACTAAtcaaccaa
1 CGAATTCTTGCCAACTTCCCCTCCTGCTTCTGCAGCTAGTACGCAATAGCATTTAGTTTCCAGTAAAGCTCCAGATAAAAACAAAGCAAATGTGAGACCCAGAATCTACACAATGTCAGTGTCTCGCTTGACTGAACGAAGGGCAGTAAGATCATATGGAGCTACGCTTTTTCAACGTGGTGGAAGTGTTAGGAAGGTGAGATTAAACATGAAGAAAAGGTCAGGACTGGAACCATCCAGATTTTATACC
1 attccagcactttggtaggctgaggcaggcagatggcttgaggccaggcattctagaccagcctgggcaacatgccaaaacctcatctgtacaaaaaatacaaaaagtagccaggcatagtggtgtgtgcctgtagtaccagctactctggaggctgcggcaggaggattgcttgatcccaggagtcagaggttgcagtgagctatgatcgcaccactgcacactacattttagcctgggcaacaacaga
1 ttttagaaataagcaagagaaaagagtcaaaccaaatccaaagaaaccaagataagagtgttcacaaaaattttaatccaAACTGGCCATGCAGACcaaaggttgcagtgagccgagattgcatcattgcactccagcctgggcaaaaacagtaaaactccgttaaaaaaaaaaaaaaagagggaggctcagcctgagagaagactcagcagggcagaacaggcctgttgtggaagcagagagctcacag
1 GTCCACCTGGAACCTGCCCCGGAGGGCTTGGAAGTTGTGAAGCCCATACTCCTTCCACCGGGCATGCTGCTGGTGCTGGGTGCCCCGGGGAGCGCAGCAGCACAGCTCCCACCTCCCTGACACAGAAGCCCAAGCCTGTGCTTCTGCCTGGCCTGGCCGTTTGAGAGGCCCCTTCCTTCCCCCAGAACCGGAAACTCCAGGCAATGTCAAGGTCATGCCTAGCCTGGAGGAAGTGCCTGTAAGCGGCCCA
1 ACCAGATGTCTGCTGGCTCAAGAGTGGTCACTCAGTGTCCTTCCACTCCCCCACTTCCCAGTGAGTTTCTCATTCAGGGTCACCCTTTAGCATCCACTGTGTTCTTGGCCATCTGCTTACTCCCATTTGCCCAGAGCTGACCCCTAGGAAGCCACCTGGGGGTACTTCCCTGCTGCCGTTGGTCTCCAGGCCTTAAGAGCACACCACTGTCCAAACCCAGGGTGCTGCCCGTGGGTCACAGAGGTGCAAG
0.6278301512096252 CGCGGCGCCCGCCCTATCCCTTGGGTTTACCTGCAGATAATCCATTCGGTTTAAAATCAGATCCATGATGACTACGCGGAGGGGCTAAGCAGCGCCGGACAAGAACAGGAGGGACAGAGGCTTCGGGCCCGCAGGCCTCCGACCCAGTCAGAAGGCTGCCCGCGCCCCTCAAAAGCCAGCCCCAGCTACCGCGCCTAGGTCCTGGGCTGCACAGGCGGGGCGACAGGGCAGTGGCGTCCTGCGTGACGTC
0.4227850329091941 tatatgactgTATTTTTATTGCACtctcctcttcagattgtaagctctttggggacaggcttcgcaggctgggttgtttttgttcttagggagatggatatatgtacagctgtgtatgtggcaggcacttagcaaatatttactgaatgaatgTCCAACTTGCCCTGGTCTCACATCTTCAGATAACAGAAAAGTAATCAGCAGCTGTTGTCTTAGTGTGGATTCTAGTGTGGAAATGTCTGAATCAGGT
1 CAGTGTACTAAAAGCAAAGTCACAGATGTTTACATCTAGTCCAAATCAAGCCTAATATTAGAACTGAAACAAATAATTGTCTCAGCCAGATTTCAGGTTCCAAAAGGGGAGCAGACAACCCCTGAAAGGagaaccatcatttgcagctgctaagtgctaagcactgtgacaggcttcttgcatatgttaggacacttagtccAGAGAGCAGCTGAATCTGTATCCCATAGAAAGCCATGGAATCTGGGGG
0.9863775144918537 CTTGCAGCTAAATGAAGGTTTTGTCCTCGGGAGACGGTGACATCACCTCTAGGGCTGACAGGCCACAGCAACTGACCTCCTCATCTGGGCTTCTCCCCGGAAGAGGTGGAAGTCATTGTCATTGTTCCTCACAAAGGGCCGCTGTGCTGAAATGCAAAGTAAACAAGCAGAAATGACAGCCTGCTTCATTATAGAACTAGCACTTCCTTCTCACACTCATTTCTTAGTAAACAGACGTGGGTTTGTTTTC
1 tgacccaaaaattgaaaaagataaggaaattagccatgtaaatatcaggatcattccaggagagggaatggtcagtcaaagggagcatgcctgcttgactagttctagatcaaacaaggggggcagcatgtctggtgattgagcaagagagtaattggagatggagtcctggaggtggggaaggttggtagtgctgtactacaaagacatgagagggtgagggttaagaattagagttgggggtggtggc
1 TGAGGAACAGAATCTATCCGAATGTTAATTAAAGTGTTTCCTCCTCCCTTACTCACTCTCTCTAGGGCCCCCTGGAGGTGCTCATTGAATTTACTTTTCCCAGGCCATTCTCCGCTCCCCTAGACAGATCATCTGAGGTGGGGTGCGGGGGTTGGGCGGGAAAACAGTCTCTGTTACCAGAGAATCAGAAAAACAAAAGCTggccgggctcggtggctcacgcctgtaatcccagcactttgggaggcca
0.8140457310488978 CCTGCCCCGCGCCCACAGACCGACCGCTCGGGAGCTCGCCCCCGCCTAGCCTCGGCTGAGATGCAGGGCTCTGAGCTCCAGGTCACAATGCACGACACCCGGGGCCGCAGTCCCCCATACCAGCTGGACTCCCAGGGGCGCCTGGTGCTGGCTGAGGCCCAGGTGGGCGACGAGCGAGACTACGTGTGCGTGGTGAGGGCAGGGGCGGCAGGCACTGCTGAGGCCACTGCGCGGCTCAACGTGTTTGGTA
1 GTCGACAGCCTCACAGCTCCTTGTCTGGCCTGTGTATCTGTTCAAGTCACGTGGGGGTAAGCTGTATTTTGTCCTGGTCTTCCATGCACTGGAAATTTTCTTTCTCCTCTAATTCTTCAGGTTTTGGTCATTTTTAGAGAGCTCTACGGGCACCCTCTGGTGGCTGGCTGAAAATTTGACCTGCAAAAATTGCAGTTTCGTAGGAATAGCTTTATTTTGTAGTCAGCCTCTTTGGTTGGATGTTGGAAAT
1 AACATTTTATAAAGTAATTAAGGAGTGAGCCCTCATTTGCGGAGAAGGTAAATATACAAAAGGTAACTACCTTAGTCAGAGTTGCTCCCAGGCCAAGGAGGTCATTGCCATTTCCTTTTCATCCCCTCCAGCTGGCCTGCTGCCAACGGGTGCCCTCCTGCTAATCACGGCCACACCCCTTTACAGACCTGGAAGTTTCATAAACACTGAATacacacacacacacacacacacacacacacacacacac
1 TCTGTGCAGCTGCTAGTTCTGAGGGCTGCCACCAGGTGTCAGGGCAGCCTCAGGAATGTTCCGGCTGCCACACCTCCCTCGCCAGCCTGGCCCCTGCTACATCTCAGGAGAGGTCCTGAGAGGGTAAAGGGCTTCTGAGCTTCTCACAGGATGAATGCTTCCCTGTGCTTTTCTGACTGCTCAGGGTGAGTCATCTGGGCCCGAAGGTGGCAGATATGTCAGCGTCCTGTGTGGTGGGGACAGGGACAGC
1 CACACCGCTCacagaacttcctgtgataagcagtgttccctacccgcgctgccccacacagccgccaccagacacgtgtggctactgagtgtcggacatgtgaccactggcacggaggacctgaatccttcacgttaaggacaatgtaaacagccacacatgcctaggggctaccacactggacatggcagAGCTTCCAGAGCAGGAGGAGTGCGCCATGAGGCAACAAACACGAGGTCCCTGGAGAGTT
0.7433959178950149 accaaacatccctgggcttcccttggagCACTGACCAGACAGGCACCCATCCCCCGCAGCCTTCGCCCGTGGACGTTTCACACCCCGACCAATGAAACGCCCCGCCCTCTCCCCTTCTGCACAGGCCAAAACAGCCGCCAACCCCTTTCCATCTGGGCAGCTCTAGGCAACACCCATCGCGTTCCTACGTCACCAGTCCCACTCCTCTCCTTCGGCCCACTCAGTCCCCCCTGAATGTTTCAACCCCCAG
0.6311703762472562 TACCAGCCAAGACGCACAGCCTCTGACCACAGTTCCTGCTTGCCGCTCTCACAGTTCCCAGATCTGCTGAGTTGGGTTTTTTCTGCTCCCTCCTCCACCCAGCCTCCCAGGCTCCCTTTATAGCCGCCTTCTGGACAATCATTAAGCCTGGGGAGGCTCCAAGGGGACCCAGTGTCCTGAGGGAGACAAGAAAACAAGAGATTACTGAGCGCCAAACTGTAGGGGGTGGAGGAGGTCCCGGAAGGAGGCA
1 GGTGATGAGGTTCCAAGGCTCATCCCCAAAAGGGCGAGAGAGAGTCCTTTCCCAAGCCTCAAAGTACACTCTGTCCTGGGCAGCCTGCTTGTGTCCACATGTGTGCATATGAGGGAGGGGGAAACGTGCTGGTAGAGAAACACCTGAGAGCTGAGAGCCCAGCAAAGACCAGCAAGTGCTAGGACACAAACCCTGGCAGACGCTCAGCAACAGCCCCCATAAAAACCAGGGAAACCGGCTCATGAGCAAG
1 gcaagttacttcctcctgcctgtattctccttgcctttgcctcttttgaaaagttctaagttgctagccaatggggacaaatagagaatgtgaggtcccattccagtgaatggaaaccaggcacagcagtagggtggatgcaccaggttataaatgaccctgtctcttttgttcggtgtactctcgtggcaaaactgctggtgagtgtaccctttctgcagaaagtaaaaatggccttgctgagaaaatt
1 AAGACTGGGGGCCTTCAGCCACTGCAAATTTAGCAGTTTCAATTTTCCTGGATCTTGATCCCTGCCCCCCAAAGTAAATTTACCCTACTAAATTCTAGCAATCCGGCTCCTTTCAGACCTGACCTAAAGAGACTATTTCAGCCTCTAAGAACCAATGTTTATAAATGACCAAGAATGTGCAAACACTGGTGAAAGAGCAAATAAATCCTTCCCCACTATATTTCCTGCTTCAGGCCCAGGGGCCGTGGTG
1 GAAAACAAGAGATGTCTGTTTTATGTGGCCTCCAGTTGCTCTCAGTGACTGTGGGGTTAGGGCACAGACCCTGGACTCAGGGCAAAGGCCTGGGTGGGAGGTTTTCCCAGCATGACAAAAGTGCTGGTTGGTGGCACACGGGGAGGGACTCCAGTGGGTGGGAACCTTGTGACTCATTGGAAGCTGCTGCTTATTAGACTCATCGAGATTTTCCCTGTTGATGAGTTTAAGGCTACATCTGCAGCCTTCT
1 CCAGGCTGAGCCTCGGAGTCTGGTGCTCCTGGACTCTGCTGAGGGCTGGGAGGGAAGGACAGGTGCCTTCCTCTGAGCCCGGCTTTGAACAGATCTGGTACCAAGGCGAGAGGAACAGCTTGATGACTCTAATTTCATAAAGGGACAGTGAGAAACTCGGGTGCTTTGGTGAAAAGGGCTCATCTGTGTAGTTACTTAGCAAAATCACATGGTTCGTAAACGCCAGATAagtgtccttatctgcaaaatc
1 CTTGCCCAGTGCTCTGGGAGGCGCAGGACATCCAGAGCCCTTCATAGAGGCCCACGGCAGTGATGATGGCGTCGCCTGCGTAGGAAGACTGCTTCCACTGTGGCAGGGCTGTGCTAGCAATGATGCCCACCCAGCCACCCAGGGCCAAGAAGTAGCCCAGGAGCTGGAGGCCTGAGTTGGccatggcccaggagagaggaccgagggtcccaggactcagAGCTGGGCCAGGGTGCCAGCAGGGGCTTTG
0.8062111834715402 GCAGCCCCCACATCTGGCAGGAGGCAGAAGGTGGCGGTCGAACAGTGCACAACCAGCTCAGGGGGATTGGTGGCCACCAGCTGCTGCAGACGTGGCCGGAAGCGCCCCTCTGTGGGAGGCCAGGTCAGGGTGCCTGGGGTGCTGGACCCACCAGGGAGGCCCCGCCCCCACTGGAGACACCCGCCCCGCCGATGCCACGCCCCAATGAAGACCCGCGCTACGGAGGCCCTGCCCTCGGGGCGGGCCGCCC
0.9717663077282802 TTAGCCTGGTGAGGATGCTGTGGGGCTTAAATGCCTCGTGTGCTTTGAAATCCTGAGATGAAAGATATCGCAGCATTGCAAATAGCAATAATAAGGCCTTCTATTTATGTTTACTGTACACTCAGGCGTTTGGCTGGGACCACGGCTTATTCCTAAGCAGGTACAGGACATTAGCATTACCTGCCCAAAGAACAATGCATCCAAACACAGACCCAGCTACCTCCGGGTCAATGGGCGAGGGACGCAGAGA
1 ctcggcttcccaacgtgctggcattacaggcctgagccaccgagcccggccCCAACTGGTGCAGTTTTTTTCCGGCGTATTGATTTCCTTGGGCAGTTATCGGAAGTGATGTGCACAGCCGGATATTCCCTATCCTTGAGCAATGCAAGAACTCTCACACTGCCGTGATGGTGGCCTTCACCGAGACTGGACTCTCAGAACTGGATTGGGAAACAGCGGGGGGAGGGGGTGCATGGCAGATCTAGGAAAA
1 GAAATGAATCTGTGAATCCACCACCGAAACAGTGTATGTTTGTAAATAGTGCTCTCCCTTCCTTTCCCGGCCTCTCTTGTCTCGGGAGGGATGTCAAGTGGGCTGGGAGGGCCATTAACTCTTACATAAGAATTTAATAGCAATGGATTCTGTCATCCTGCCAAATGCAGACCTCGCTGCCAGGGCGGAACTGGGCGAATCCGATTTATTCTGTTTGGTTCAACAAGTGCTTAAGGGGCGCTCACCGAGT
1 TGCTGCAGGCCAGCAGAGGCAAATATTTGCACAATCCCATCCGACGAGAGGCTAGGGCAGAGGTCAGTATCTCTCAGTGTGAAGCTGGAGGCTGATGCTAGTCAGCTCAGTAGGCCGAAAGTGGAGTTGTCCTTTGCCATGTAGGGCCATCATGCCCAGCTGGGGAACCTCATAGCCAGGTGTACCCACAACCTGAACAAGGTAACTTtcagggtctagtcaggaagaaaccaactagatggttcaacat
1 GGCCCCTGTGGTCTCGCCTCCTTGGAAGCTGCTGTGCCTCCTCTGGCCATTGTAGGACCATGCTTGGAAGTCCTAATAAACACCCTCCACGTAGCCCGGCTGCACTTTGCTCTCTTCTTTGAGTCATTTCTGGTTGAATTGCTGACCAGCCCGACAGGAGGCCAGGACACAGATGCAGCCTCCTGGGGCCCTCGCGCCCAGTCTCAGCCCTTCTCCAGGCCCCAACACACATTAGTCTGGCACTGGTGCC
0.5916040173625193 AGAGGAACTGCCTGCCTGGGGCTGGAGGGGAAGATGCAGTTGGGAACCAGATCCCACCATCCTGGACTTCCAGCCCTGAGCCCCACAGAGGTTGTGTGGGGTCAGCTGGCCATGGACAGCACCCTCCCCCTGGGCCCTCTTGGGGCTCTTTGTGGTGAGGGAGGAGCAGGGATGGGAAAATGTGACGCCAGCATCCTCGGCTCCCTTCCCAAACCCTCCCCTGGGCCCCGACTGATCCCGCAGCTGTGCC
0.158541170094177 CGGGATGGCCTCTCCAGTCTGCAGCTCCCGGCAGCCTCGGGCCACACTCCCGGGATCCCCAGGGACTGGCCTGGGACTACCGGGGGTGGCGGCCGTGGCTCTGGCTATGGGGAGGGAGGCAGAGCCGCGGGGCAGGCGTGGGGTCTGCTGTGCCGGGTATGTGGGGCGTGTGTTAGACTTTGGACCTGGCCTGCGGGGTCAGGCCGTGGTGTATGATGACGCCACGCCGCTCTTTCTCTTTCACCCTGGC
0.2341664860623704 cgctggccactcctccgctcaggagggagggtgcgagcgagcaagtgcaggaactgaagcgaacaaacactggaactggccagagtccaagcatgttatgaccaatactctgtcagatcagccgtccagggacaggggagtgccaaccagctcactggagggtcaaggtggcagcctctgacctctcagcacccaggttcttgtccagcatccaggaagaatcaagtcacatgaactgtttgagaggttg
1 CCAGATACTAAGTCTATGGTCAGGACAGCACTTTCAGCAACATCAGATGGGGTGTGGGCCTGGACATGGAAAAGGGAGAAGTCAGAACAAAGCTGTGTCTCAGAGAACTAGATTTGTTTTTGTTTTTAAAAAGGCTAAGTAGGAAGAGTTGGAGGGACATGCAGACTCCTTTTTGGCTAGAACTCCAAGATCACACTTTCTGAACTTGCTGATTTCTGAATGCTAGAAAGCATGCAATGCCTTAACATCA
1 cctcacctccagttaaacatcgccagctctttagccattcatatttgctgtagtttacaCTCTGATAAAAGTAGGGCTGGGggctgggtgtgttgtctcatgcctgtaatcccagcatttcgggaggcctaggttagtggatcatctgaggtcagaagttcgagaccagcctggccaacatggcaaaaccccatctctactaaaaatacaaaaattaactgggcatggtggcgagcgtctataatcccag
0.642113370936379 ctattgccagaatattgtgtaactccaccaccaaagttcaggggcatacagcaatcaacagctgcctggctctttgtcttggggttcagctgatcaaggctgtgtgtgggtggtttcatctgggctcactcttgtgtctgtcagctgcaggtcagctaggcagctgcgatggccttgggatccactggcagttggctagccttcattgacctcagctggagtgactgtggttactcagctctagtttgca
1 GGCAGAAAGCCCAGAAGAGAGCCGGCCTGTGACTGGGCTGGGCCTCCCCTCAGGCCAGGCCACCACCGTCTCTGGTCTAAGCTGGAGTCCTCCCAGCGAAGGCGCCTGGCCCTGCCTCAGGAGTAAAGTCCGCCCGTGCACAAGCTGGAATCCCCTGGCCCTAGCCTCAGCGTCCCGTGCCCGTGGGAAGCCAGGCTCCTTCCTCCTTATTAGCAGCCGGGAGCCATCTCAGACACGCTAGAGCTCCGCC
0.4841430436427362 GGCCTGGGATATAGCTAGGGGCTTGGGGTGGGGGCAACTCTTTGCAGGGTGGTGTGGCCTGTGGAGGAAACAGGCTCAGTTCCACTACTTTggccaggtgcaatggctcatgcctgtaatcccagcactttggaaggccaaggcgggtggatcacctgaggtcaggagttcaagaccagcctggacaacatggtgaaaccccgtctctactgaaaatacaaaaataattagccgggaatggtggtgcgtg
1 GCTCTAGCCAGATGGGGGTGGAGTGGAGGACACAGGGAGTCCCTCATGCTTGAGTCCCCTGGGGCCACCTTGAGGCAGCCTATCCCAATGCATCCCCGCCCCGCTATCCGGGTGGGGCGCAGAAGAGAGGGGAGCCCTTCTCCGCTCAGTCTCCAGGAGACTCAGGTACAGACACAGCCATGACCAGGAGGATGGGCTCTTCCTCCAGCCCAATGGGGGCCACGGCAGGGTGGACAGTGGACCCTTGGGA
1 aggtaggcagggctgggcccccgggccttccCTGTGAACCATCTGCCCGCCGGTTGCAGGAGGCAGTTCCTGGAAAGCAAGCGGGCCGAGTTCCTCACAGAGATCAGAAGAGCAACAAGATCTCCAGGCCAGGGCAGAGGTCCCCGCCCTGGATGCTGGTGACACTTCCCCTGGGCGGGAGGGGCTGGGAGCATGCAGATCTCAGCCCTGAACAGCCTGTCCTCTCGCCTCGAGGTTCTTGGTAGGCTGG
1 gtcatagcaccactgcactccagcctgggcagcagagcgagaccctgtctcaaaacaaacaaacaaacaaacacaaaaaaCAATGAAGCAAGAGTCTCTGATAGCAAGCTAAATTCTCATCTCCGTCCTCCCGTCACGTTTAAGGGACATTTTAAAAGTTGTTCTCACTGTGAACACTTTGGTTTTTAGGTAAATAGGACTTTGGCTTTTCCTGTTCTAGGATGACTGGATTTGAAAAGATTGTGACACT
1 ATCTCAGAAGCTCCACTCCCCAAACGTCCTTCACTTCTTTCACCCCAagggaatatcttttgttttgtctgcttggcatccagtacccatctttctggtaacagcacctctgttttcctttggggagccaccctgcctctcccctcaccttgggttccatgggtttgggtgagctggcatcaacccgtgatccaaccgtgaacctgtgaccctgctctggcctatgagatcatcacatctacccagccaa
0.4215503463571739 acatggcaggggcttgatgagcatGAGAAAGTGGCCGGAACCCTCAGGGCTCTGTGGCCTGAGCTTGTAAATCCCACTGCCCCAGTCGGGCCAGACAGAGATGGGCTGGCCCCGTCTGTGGGCAAAGAGGAGCATTTCAGCTGGAGGCCAGGGAAGGGGCCCAGGGCCTCCGTGGCCTGGGCTTTGAAGCCCCTTAGAGCGCTTCTGAGCTTTGGCCACTAGGGGGCCACATGGGCACAGGCAGCTGTCC
1 TCATTGTTCAGCTACCTGGGCATTTCTCTTTTCCCCGGCACCCTCCCCCAACCATTTCACCAGACTGTGCTAGTCTATCAAGATGAAAACAACACTATGACACTCGGAACAAACTTCTCCTGTCAGATGCACACAGGGGGCCCTCTGTTGCACAATCTGCACTTGTTCCTCATGCAACAGAGATTCAACTCACAGATACGAGATCCAGACTGCAGATCAGAGGGGAGACTGACTTCTGCCCTTCATTTGA
1 atagtgttaattaccatgactaaGGAAAATTTGCCATTAGTGAAGGGAGGAAAAATATTCTCCACCAGTAACAAGGCCATGTCAGTCTGCTGCATTATAAACCCCAAACAGtagtttatgatcctctgggctggcaatttgggctgaattcagctgggtcactcctgcagctgcaggcagcaagcagctcgaatgtctaccttgccaggaaggctcttctctgctccacatggcctcgtcctccaatagg
1 GCCTGCGCGCTGCGGACTGTGGGGCTTCTCGGCCCGAGGCAGAGGAACAGGGAAGATGGCGGCTGTGGTGGAGAATGTAGTGAAGCTGTGAGTGGTCGTTTCTTTCTCTCCTAGGGCGGCAGGTTTTGTAAAGGGCCTGGGAGTAGGGGGCGGTGGGGGAAGGGACTAGGCGGAGAGAGGGACATCCCCGGGAAAGCCATGTTGCGACTCCTGGTGGGGAGGGCAACAGGAGACTCCGGAGAAGACGTTG
1 ttgaaaagaatatcatagcttgtccttgtcagaagtccagcttgtgattcacctggggtcagcatagggcaaggtttaataaacactgAAATAACTAAACATTGTAATGCCTCATGGGGCTGCTTGAACTGACATGATTTCAAGGGCACTGAGAGGCTGGGGGAAAGCAGAGGGTCAGCAAGTTCATTCAGCTGAGATTATCTCAGTTTACAAACTGGAGTTTATGAACTTTAGTTGGGACATGAGTTTC
1 ctcagctactcaggaggctaaggcaggagaatcacttgaacctgggaggcagaggttgcagtgagccgagattgcgccactgcactccagtctgggcgacagagtgagactccacctcaaaaaCCAAACAGTCAAACAAACAAAAGAGCCACGGACTCCAAAGTGCATTTCCCAAGGTAATCTCACTTGTAATTAAGAGAAGTGGGATATTCGTGGGGACAaaaaaaatggactctggagccagactgcc
1 acctcaagtgatccgcccacctcgacctcccaaagtgctgggattacaggtgtgagccaccgtacccggccagtattaccaattctttagggcctatctgaaggcccatctcctccaggaaaccttttcttgactttggcctcattcactttggtgtttgctcatgttctgtacattctgccttacacaattggggatttcctgtctatgccaatgagtttacaaagtccttgagagcagggactgtgcc
1 ctttataggagttgggtaggtaatggaaaattacagtaaaaggtggttatctattagcagaggaggacggggtcacaaggtacatggtggggagatcataagacttattgtccagaagaagaatgtcacaaggtcgattgatcagttaaggtagggcagggacaagtcacaatggaggaatgttgtaatgttgattaatcaattaaggcaggaactggctgttttatttcttttgtggtttttcggctgc
1 GTGACCCCAAGTATGTCTGTCCAGGAGGGAAGAAAAGCATCTAAACCCTAGGGGAATGTCGGCAATGTGGGCTTGGCAAATGGGGAATGCCGGGAATGAGACCACAGTCCACGGTTCAGATAGCCCAGTGTGGCTCGCCCCGCCCTGATATCCTTCATGAAAATGAAGCGAGGCGGCTCCTGGAGAGGGGCTCTCTGCTTTGGAAGCTGTAAATTCTGCTTCTGAATCATATTGCTTTTCTGAGCCCATG
1 ACAAGGCATTTATTTATTGCTAAATTTTAAAAtttttcttagagatggggtcttgctctattgcctgggctagagtgcaatggagtaatcactgctcactgcagcctcaaactcctgggctcaagctttcctccttcctcagcctcccaaagtgctgggattacaggcttgagccactgcacccTATCCATTTATTTCTTCTGTACATCTTCCACCTCGCCTAGCCCTGAAATATTTCTCAAATTAAAGA
1 TTAGTTAACCCCTTTCCCTTCTAGGCCCCCGAGAACCTAACCTGCCCGGCGGGCGCGCGGCTGCGTTAACCTGGCCCCTTCCGTCTGGAGAGGGAGGGGACGGTCGCGCCTGGTGGTAGGACTGGGCtgtgtgtgtgtgtgtgtgtgtgtgtgtgtgtgtgtgtgtgtgtgtgtAGGGGGGTGATACAAGTTTTCCACCCGCTTTAGGCTGAGGCCCTGTAAGCGGGACTGTGTTCTAGTACCCGGAAAA
0.4456221340752476 ccactgggggtgacatcacttatcagtaggtctctgatgctcacctgagctgcaaaaccaacaagtttgtattagggatttcaaaaggggagagggtgtacgaacagggagtaggtcacaaagatcacatgcttcaaagggcaaaaagagaacaaagatcacatgcttctgaggaaacagggcaaggacaaaagcaaagatgacaaggcaaagggcaaaattagaattactgatgagggtctatgttcag
1 TAAACTGGGATGAACACTATCAAGACCACATTTATATTTCTTCTGTATGTAGCCACATTCTAACTTTTTTTTTTTTTTTAAACGCAGTGTTGCTCAACTGTAGCTGTCAGCTCAGTGCTATGGGCAGGACACTGGCCAAGCCGATAAGGCCTGTTTATGTACACACGGACCTCAAAGACTGACCTTTCCTTTCTGTGCATTCGTTGTTTACATGTTTGAGAGGAGAATGAGAGGGAAAGGAACACAGGAT
1 ACTCCCTTGTCGCACTTTGGGAGGATTGCAGGCTGACCAAATGGTCCCTGGCTCTTCCCCTGCTTGGTTtttattccttttctttctttctctcttccctccttccttcttttttctatttttAAATGATTTCTTACCACTGAACAGCAACACAGGCTCATGTGTATGTGATGGGTATGTAATATACAGTGGTACGCAATGTAAATGAAGCAAGGTTTCCTCCCAGCCCCAGTTTGCATTCTTACAGAAA
1 CGAGATGACTGGAGTGGGATGTCTGGCCTGGCGGGAACACCAGCATTGTTGTCACAGTTCAGTGAGATCTCAAGTTTAGTCACGTATTTATgcaggagcggagtggcgaagggggaagaggaggagggcggggagaggacaggggaggttgtgcaggaccttgtgggctgtgacgaggacttgggctttgaccccaggggaggtggggtccatggagggctgtgggcagagggacgggttctgactcagg
1 GAGGGGTGCCCACTAAGATCTAATTTCCCCCCCAGGATGCTCATCAGCTCTTTTTGGTCTGTTTCTTCCCAGGACACAGGGGTCTTCTAAGGCTCAGCATCCTTCCAGGGGCTTTGCAGAACATGGTAAACAGCAGCAGGGGAGAGAAGAGGAAAAAGGTAGTGGTGGCATTCGGAAGACCCGGGAAACAGAGCGGCTCCGGCGGCAGCTGCTGGAGGTGTTTTGGGGTCAGGATCACAAAGTGGACTTC
0.1436129460307474 GGCTGGCTCAGGGGACGCCGAGAGGAGGcgccggcgcgcgcgggcggggtgcgcgcgccgccgccgccgcGTCACCAGCGTGCGGCACGTGCCCATGTTTACGTCCCTCGTGGAGCCGCCGACGTCAGCAGTCGAATGGCAACATTGTGGCGATGCTGAGGCGCAGAGTTTAGGAGACGGGTTCATCAGTCAGGCCGGCTCCGGGCTTTCTGCAGCAGCACCAGGGGCGGGGGCGGGGATCTTGACCTGG
0.02533177509560203 CACTGTAAGAACTATCCAACCAAGGGGGCCAAAGCCAGCCTTGCTCCACAGTCCTGAGGCATCAGACACTGTGCAGACTGccctgccccctgctggctgcctgtctgcttcccgtggccagccctgaccgcggcccctgtcccccagccACTTATTGCTCGCCACAGCCCCTACTCTGCTGCTTCCATTCTGGGGCCCGAGTGGACGGGTGGACCTAGAGGAGGCTGGCATTGCTGAGCCAGCAGCAGGG
1 ctataggtaggcactaagggacaacagaaggctgggattcatttggagctggacccctacggctcaggaaagctgctgaggcagctgggggatggaccgttgtctgtgcatgcctgacttttttttttgttgttggtttgttgtgagatggagtctcgctctttcacccgggctggagtgcagtggtgtgaaccctgggattcaagcaattttcctgcctcagcctccctggtagctgggattacaggcg
1 TTAGAGGCACAGAGTAGAAGCCCGAGGGAGAGTAAACAGCAAAAATAGTTAAGGAAAAAATAAGCTACAAATAGTAAGGAGGGGAAGTGGGAGCACTGAGCATCAGGGAAATTTCTGGCAGAACTCTAGCAAATGCCTGCACAAAATCACACCAACCTGATGATGCTGTCATTCCTGATCATTTCCTCCAGCCAAGGGGTTGCTCTCCAAACTTACGGAAGAGAGAACCTGAAGGCAGTGACCTACCTAT
1 CCAGCAACAGCAGTGCTCTGCAGGGTCACTGGGTACAACCTTTGTTTGCCAAAGTTAATGATTCACTGAATTGCTCCCACGAGGACTGGAAATCAGGGCTGTGCCTTCCTGGGCCAAGGGAGTGAAGGAAAGAGCCTCTCCTGCTTCATAACAATTGTACCCTCTCTCCTCTCATCCCTCACGCCTATTTCCTCCCCTGCATCCACATGGCGCCACCATCACTGACCTCAACCCTTGCTGGTGCCCTCAG
0.4486069598828547 AACAAAAATGTGGTCCCGCTCTGGGCTCCGAGGCTGCGCGCGCCTCGAGGAGGAGCTGCCCGCAGCCCTGGCTGGAGCGAGCGCCCGGGACGCATCCCCCGACGCGGCGGGAACAGGATGCGGGACCGCGAGGAGACAATACGCCCGCCTGGGCACGCGCGCTTTAAGGGAAGGGGGTCTCCAAAGTCAGCCCCCACCCGGGAGGAGCAGGCGCCCGCGCTCCCCACACCCTCCTGCGCCCCCTCTGTCG
0.3761643673287096 CCTGCAGACAAGCGCCCAGCACCATCGGGGTGtaacagcgacacccggcttctgttcagcactcctggccttttcaaagctctttcatgtctattactgcctttgagactcttgaaagctggtgaggttaggcacagcgggtatcctctagcagagagagcaggagctcaaagaggttaagtggtgtgtgcccagggccaaacagtgagtCCCCGACAGTCTAGAGAACTCAGCGACCCCGCCTAGCCTG
1 AACTTCTCTGTCTTGCCCAGTACTGAGAGTCGTGACCGTATCCGATACACATCCTACCTAGTCTGTGTAGCTCAGCCCTTCATCACTGATAGCTTCTGATGGCAGTCGACTCCAGCTATTTCATTGTCATTCACATGCAGTCAGTGGCTGAAGAAAGGTATACTCTTATGTCGACATAGACCTTGCTGCCACAGGGCTTCACCAACTGACAGGATTCCACCCAGCCCCCAAGTCCTCCTCACCCCTCATT
1 TGGCTAAAGCAGCTAGAAAGTCAGTGCTTCTCTGCTGCACTGTGAGGCGGGAAGAAGATGTATTTCCACCTCGCGGGGCACCTCGTGTCCTGTCTGGGGGGTCTGTGGGCACCAGTGTCCACCCAGGTCCTGCTGCAGAAAGTGGGGAGGCCAGTGGCTCTGGGGCCCTCATTTGGATTTTTTGAGAATTCGTGCCTCCACGCTTTGTCCAAAGCTCTCCTGAAAACCCCTTCGAAAGTCAGGCACAGCC
1 aggactcctccctggaggaggtgatgcctgagctgaatctgacagagtgagaggcaaagagaggcaacattccagggaaagacagcagtgggtacagagactcagaaatgaaagagagcaaggtccagcctaggaacaaaaggtagttctgtgcagctggagagtaaagtgtaaaggacacttaacacagctgggggcattcaggaagccttcctggaagtggtgctctatgaaatgagacaatccaaag
1 GCAGGGGTGGGTTCTCCAAGCAACACCCCCTCACGCACCCCGCACCCACAGCTGGCCTTCTGGGTCTCACCTCTCAGACTGCCCCTTGCTGTTGGCTGCTGGAGGATTTCTGGGCTTGGGTACATAGTTCATTTCCTGAACCACCCAGTGTGTAAACCTCAGCCTTATCCCAGTCCCTGCCCCAGCCGAGAGAGAGGGTGCCGACAGCTGCCCTGGCTGGTGAACCCTCAGGAGACAATTCCCTGGGGTG
1 TGGCAGGAGAAAGTCCCAATGCTGCAGTGGGGTCCTGATGCCCCGGGCACTCTCCTTCCTGGCGTGGGCCCATCCCTGCAGGCCTGCTAGCTGCCCTGCAGTCCCTCTCAGGATCCACTGGACAAGCAGTCTAGACAGTACGTGACTCTCTCTGCATCTCAGTCCCAGGAGTGTGGGATGATGTCATCCTACCCGTGCTGGAGGTGTTTCTAGCCCCAGGCGGGAGGAGGAGTCACGGGGCACAGTTCTG
0.950903068853582 AGCCAGGGTGGGCGGCGCTGCAGACGCCCCCGTGTAGGCAGGGCCGCGAGAGGCAGGGGTCTGCCTCATGTTGGCAGTGGGCTCCTGTGTAGCCGGGACGGCACAGGCAGCTGAACGAGTTCACGCCGTCCACACAGGTCCCGCCATTGAAGCAGGAGCTGGAGCGGAAGGAGTGGGAGGGAGGATCAGGCTCCGCCCCCTCACAGGCCCTGCCCTCCTTCCTGAGTCCCGCTGTTAGCGCTGGGGACGT
0.4668338486359253 GTTATCTTTGGAGAATGCCTTTTGTGTAGGAGTACACTCAGCACACCCCACGGAGCACATTCCATGCCCGGGTTGCTATTGACTAGGCTTGAATTGTGCACAGAGGAGCCTGTGTTCCCCAGCGAAGTTTGCCCTTTCATCCGCCCCCCTGGGTATCTGATGGAGGCGGGGCCTTGCACTACTGACACAAAAGGCCAAATGTTGAAACTTCCAACACTGGACTCATTTTTAGAGAGTATCTTTTAGGTTT
1 GGGGACAGAAACTCCCCTCTGGCAGCCCCAGGAGTCCTTTGGGGGTGTCCTCAGATATACAGGACTGCAGAGTGGGACGGCTCGGCAGTGGGAACCTGGCGGGGCGCCCGTGGATGCCGCATTGGCCCCGTGTCCCTGTCCCCCCATGGCAGAAGTACTTAAGCTTAATGAAATGCTTCCCCCTCCACGGGCACTTTGCCTACACTGCCTCCCAGCAGCTCTTATCTCACAAGGAGGGAGTGGGTGGCCA
1 AGTTTTAAACTCGCAGCAGACGGAACTCGACTTAAAAATAACTATTTTGACAGTTCAGATGTAAATATGTGAGTGACGCGTGGGGCTGTTTTTCCTTCACACTTCCCCTCACCCCTCGCTCCCTACCCCAGCTCAATTCGGCTGAGGCTGAGATGATGGGAGAGCGCCGTCTGCAGGATGCTCCCTAAAATGCAGCAGGAGGAAGAGACTTGTCCTAGAGAGCCCAGCGAGCTTGGGGGTGGGGCGGAGG
1 ttgagtgtgTATATGTGTGTAGGTGTCTGAATGAAGTAGGCAAAATGACTCTCTCAATTCTACCCAGCAAATTGGTGctagactccaagttttgtgagggcagggagcatgcctgtcatgttcaATAAATCCTTGTTGAAAGAATTGAGaggacggtggccaaaatgggatcagaacccaggctttctgaatctctttggtgttttatcctgtcacctcactctAAGAATTCTTCATCAGTTCCAAATTG
1 ggggtggggcagctttataggatttgggtaggtagtggaaaattacacttaaaggtggttatctcttgtgggcaggggaggggtcacaaggtgcagggttgggagatcatgagattcattgtccaggggaggaatgtcacaaggtcgattgattagttggagtggggcatgtatatgtgcacgtcacagggattatgatggcttagcttgggctcagatgtctgacaTTGAGGATCCTTCTTTATCTTCC
1 GAAAGGTACACTCAGCCCTGCCTTGTAGCACTATAGCAGAATAAACTCTGCTTCTAAGGCTTATACTGGTTGTGGGCCTTCCCTGGTGTTTTTTCATCCACAAAGGGTGGAGGGAGAGGCCTGGTAGGACGGGGCGGTTGGCATTTCTGGAACAACAGTGCCATCAAGAGGAAGCTTTTTGAGCATGGCTTCCAGCCCTTCGCAGTGTATCCAGAGGGGAAGGTTTCTAATAGAACAAAGGGTAGGTTTG
0.7070980631499284 AAGGACATTACTGATAAGACAGGAACTGAGAGCTTGGGATTCGCGGCCTCTCCCCGGCCACCACCTTCGCCGTCAGCAAGGGAGGAAGACCCGGGAgacggcagcggcgacggcggcaggggaaggaggagacggcgacgggagggagcacagaggaggggacgggccggcggcggcCTGTGAGCCGCAGTGATTTTGACGTTTTCCGCTGCTGCGTCTCCGGCGGGCAGGGGCCGGGCTGCGCTGGGTG
1 ATTGCTGTACCTCTCCCTGTCCCCTTTCCTACCCTGAGGAAGTCCCCACCCTGCCTTGGGCTGGACCAGAGCTAGCTAGTGGCAGCTGTTGGACCTCCAGTGAGCTAGCCCTCAGCGTGGCATTGTGGGGGCCAGGGCAAGAGGAGCTGTCCACACTGTGATGTGGCCCCGGCCAACACTGAGAGATGCCATCATCTAGGAGGATTATGACCAAGGGGCTGGGCTTACAGGTTAACCAGATCAGCGTAGG
0.1022449267430192 gacctcagacctggaccactgggatcctgccctgaaccccgtgctttagttggcccactccagctggagcgtatgttcccttctagatcatgctcctggtaccctggactccggaaatccctgtgtaaacagccctgagcctgcttccaaggtctgACTTCCATCCACCCAGGGCAGCCTGCCCTGCCTGGCCTGAGTATCGTTAGAATGAAGGATGGCAGGGTAGGGGGTGTGTGTTTGCCTGAACCAG
1 AAACAGGGGCATAGGACCTCAGAATGTGTTATCAGGAGCATCCTAGGAAGGTTTCGGGCCAGATCTGACTCTGTCTAAATCCTTGGCTTCCACCCCAGGTGAGGACATGATGAAGGGAGGGACCCGTGTGTTGGAGGCCGCTGAGCAGATTTGACCAGTTTTAACTGGGAGGGGAGGGAGGAAGTATCTGGGACTGAGAAAGGCCATAAGGCTGCCTCACTCACCACCGGGGGGCAGCAGAGCCACATTG
1 GCCAGCCCTGCCTCTGGCACCAGCCCCACTGGGCCAGGGTCCCAGGGATTTATTGACTAATCCTCAAATGATACACTTTCCCTGATTTATTCTCTCTCCCGCTTGCAATCTCACAAGATCCCATTGTCTCTGGACACTGCTGGCCAAGGGCCTCCACCTCAGGAGCTGCTGCCTCTCATCCACTTCCGGGGCGAGGGTAATGGAAGCTCCCTACCGCCAAGCACCACGACCCTCCCCTGCCTTCTCCAGG
1 ACTGGCTGCTGCTGCTGGAAGGGGTGCTACCTCCCCACTGTGCTGGGCACCCCTGGACCCTCTCAGCCTCCCACCCTGCCTACAAAGCACTTCCAGACTTCACATGTGAAAGCTAACCATGCCCATCCTTGGCCTTTCTGACCCATGGGATGCCAGGCTGTTTGGGGAGGGGTGGCTCTAGCCACCCCACTCTTTGGCCTTAGGCCCCCTGCATCCTGGCACTTTTGCTTCCCATTCCTGTTCTGAGTTT
1 GTCTGCCCAAGCGGACCAGAAATTGCTGAGAGAAGAGAGGCCAGTTGGGAATGTTTCCTGCCTTTTCCTCATCCACCTTCTAGAGCACCTTTGATCACTCAACTCAATCAAGCATCTTCTCTTCACTCCAGCACTTTTGAATGCTACCCTCCCTGCCACCCCTTTCTTCTGTCATCACTAAAGTCCTCATATCTGGGAAGATTCCTGTCTCTATCACCGCCTCACCACTGGCCTCCTCCTTCTGCCCTTC
0.6237119640361423 gctgggtattttccattttcctccggatctgctctgcacccttctccactggccctcagctgtgggaagctgacctcatggactgcaggcaatgcgcgtaattgccctatgggaggcaccaacaggaaatgggaggggctgggagggaagagctatgaggtattcactctgtgggtctggcaatggctgtgtttctctcagctcctgcctggtggccccctcctaccggcaaatctctcactgaggttct
1 AGAAAAGGGGGCGGGGAAAAGATGTTTGGAAGCTCTCGAGGGAGAGAGGGCGAAGGGAGGAGCTTACGGGTGGGAGGAGGGGCCAATATTTAAGAAGCGGACCTAAGCGATAGCGTTTGCGAGGCTAAAGAAGCCGAGAGAGAAGTAAAATTTGCTGCATAAGTAGGGTGAGCAGGCGGCCGTGGGTGCCCTGTTAAAGAAGTATGGACATATGCATACTTCCAGAAGTATATTAACATGCAAGTTATAT
1 TCTGGTGGGATATGGGCATTAGTCTGGAAAGCCGTGCTCACCCACAGCAGGCTGGGGAGGGGTTGTGGGTAGCAGGAGGTCCTGGTCCACAGTGACGGCCTAGAAGGTGTTCCCCCAGGTCAGGAAAGAAAGTCCGCCCTCTGGAGGCCCCCTCTGCTCTGTGCCAGCCTCCCTGGGGCAGTCCTGGAGCCACTCTGAGCCCCAGCTCGCCCCCTAGAGGCAGAGAGAGTGACAGCCCTGGCAGTTAAGC
1 cccaggatctcctgtttacgagacaggcgctttagccaactaagccacagagccAGCCGTGCTGATTCTGTGGCTTCTTTTATGACCGAATTGCACTTAATTAGGTGACAAATTCTGTTGCCATTAAGAGTTACTGTGTTTTCGAATACATCAACTTTGCAGTAAAGGCAGACTCCTGAAAGGAACTTCTAGAAATTAGACTCCCTTCAAGTCCAACAAAACACACCCACACTCACACAATCACTTAGAA
1 CAGTGACTGAGCTTTGAGCTTTGTTGTCCACGGCACAGGCTCAGGGTCCAGGCACTGTGCTGAGCAGTGATAACAGGAGGTCCCTGCCAGGCTGGACAGAGAGACCCTGAGCTCCTCCTCTGGAGGCAGAAGGGAGACTATCACATGAACCCCAGTCACAGGGGGCCTGGGTTGACCTAGGGAAGTCCTCAGGCTCAGCCTCAGGAGTGCCAGGTTCCAAAGGCAGTGGCAGAGCCTTCACCTAGCCTGA
1 CGCATTTCATCTCCTTGTTTCACACCCAGGAGTACTTCTACTCTCAACAGTTGGAGTCTTTGCATTGTGAACAAAAGTCAGGTTGTGTGGGAGCAAAGCCAGCTGCTCCCAGTGCAGACCCAGGAGCAGAGTGCAGAGGAGAATGAGTCAGAGTTGTGTCTTCAAAAATTACGTAATTGCGATTTGCTAAGAGTTTACTTTCTGTTTGGGAAATTGGAAAAGAGAAAGAAATCTTACttttatttctttt
0.5717470178885026 GGGGAGGCGGCTTTTGGCTCTCCCGGCCCTGCTGACAGCTGTGTTCCCAGTGGCAGCTGGAATGCTGGTGGGAGGCCTGTCTGGCCTTTGCACCCTGACTCCCCAGGGCAGAGCCAGGTGGCTCTAGTGGGGCCCAGGGCTGGGAGGTGGTGTGGGCAGACAACCCTGAAGGGTGAGTTGGGGCATGGGATGGCTGGAAGAGAagggaggcagtactgattttggagactaaagcagaagccctgaggtc
0.6954262120842919 GGGCTCCACGCTCCGAGAGACGCTGTTGCTCTATGAGGCGTGTCTGTGTTTCTCTAGTTCGCGGCTCCAGCAGTCGCGCCAAGGGGCAGCTGCTACTCCTGCCAGATACACCAGTTATCACAGGCCGCTCCCAGGCCTGCGGGGGCCCTGAGAATTCGCAACAAGCCCCGGGCAGCAGGGCTCGGCTGGCGCTGAGGCCCCGCCTGGCCATGCCCATTGGCGGAGGCTGCCCCGGGGGCGGGGTCAGGGC
1 GGTGACTTAACATTCTCTCCACCCACCTGGTAGGCGTGGCCATGTCCTACTAAGTCCTTCTCCGCACCATCCCCACATGCCAGCAGAGGGTGCTGTTGGGCAGGAAAGGTGGGACAGCACCCTCGTGAGCTGCTGTTCCATTTTTCCTTCTGTATTTAGGATTGACATGTGTCCAAAGGATATGGTGTGTGAAGATAATGGGGACATTTTGGAATGCCATTTGGAAGAAATGGAAATGCAGAGCCAGGAA
1 atgtctctacaaaaaaaaaaaaaaaacacaggcagggcgaggtggctcatgcctgtaatcccagcactttggaaggttgaggtgggtggatcacttgaggtcaggaatttgagaccaacatggcgaaacaccatctctttttttttttttttttttgagacacagcattgctctgtcgctcaggccaaagtacagtggtgcaattttggctcactgcaacctctgcctccctggttcaagcgattcctgt
1 ACAAGGTGGGTGCATCAAGGGGAGGGGCTGGAAAAGGAGTCTGCACCTGACCCTCTTGTCTGATCTGTGTCAAGACCGTGGAGAGGGGAGGGAGCGGCAAGAGGAACAGACAAGGCTGGGCCTTCCAGCCCAGGTGTGCCAGCCCTTGTTACGCAGCAACAGGTGTGAGCAGGTGGGGGAGGGGCGGAGGCACCCGCTGGCAAGTGAGTCGCCCTCAGGAACAGAGGGCACCTacctggattccagtgca
1 gcagcaggaagagcctgtgggcactctcggtccctggggaagccttttctgactgtctcacaggggtccctggggagggctgccagaggaacttggaaaagaccacagagagaaggaaaattccagctgaactttgtaacaatttcaactgactcattgtttcctagacagaacctgggggagggggtgaatcaggagtgcaaacacagtacagaagccttggcaggtagggaggtgcaaaacctgaaat
1 TGTGTTTCCTTTCCCTGGGCGCAGGGTGCAGGGTGTCTTCCGGATCTGGTGTGACCTTGGTCCAGGAGTTCTATTTGTTCCTGGGGAGGGAGGTTTTTTTGTTTGTTTTTTGGGTTTTTTTGGTGTCTTGTTTTCTTTCTCCTCCATGTGTCTTGGCAGGCACTCATTTCTGTGGCTGTCGGCCAGAGGGAATGTTCTGGAGCTGCCAAGGAGGGAGGAGACTCGGGTTGGCTAATCCCCGGATGAACGG
1 GTGCCGAAACCAGAAGAGACATGCACACGAGGCAGGGCGAGTGGTGTTTATTACAGCTGTACAACTGTACAACGGGAGGGCAGCGACACGTGCTTATTTGTATTAATGTTTAACAGACTAAGGGCCAACATTTGCTTACTGGCTAAGTGATTTTCAATAGGATGCACTGAAACAAAAGCCAATTCCTTGAGTGAGAAGCGTCATGGGTAGAATCACGGAGCAAGGTCCTGCCCACCTGCACTGGTGGCCT
1 TGCAGGGCTGGACAGTGCAAATAACTTACAGGGGTTTCCTCATCAAATCCAAGGCCATTTCCCAGAACTGTGACAGTAGTGAAATGGAATGTTACATTCACAGCACAAAATTGACAGAGACAGAAAGGACGTCTGCATTCCACTGTGGGTTTAAATGAAACGGTGAGATGCTCGGAGGAAGCGCCGGCTGCTTGCTGCATCAGGAACGTTTCGTAATAGCAAAGGCACTATCGGGAAGCGTTACGTAAGC
1 AGATCACTGACCAGGTACTTCATTCAGGGATATGAATGTCAAGATTACCTGGTCGGGGGGTAGTTCTGAGGACTGGCTCTTGTCCCATTCCAGACTGGAGGGCTAGAGAAGGCTTAACCTCAACCCTACCCTCTAAAAAACCATGATCCTgaccgggggcggtggctcacgcttgtaatctcagcactttgggaggctgagcgggggcagatcatgaggtcaagagatcgagaccatcctggccaacatg
1 CTGTAGATGGAATATTTGATAGCACTCAAATTGCTCCGGGGTGTAAGCAGTGTCACTGAAGGTCTTGTTTCAAAACACAAAGGATCTGAAAGAAGGCAACTGAAAGTGGTTGAACTAAGAACTTCCTGAGTCAGCAAGAAACAGTTGGCAGGCACTGTTTGCATTTCCACTCTTTTTCTGCATCAGCAACAGGGAAAAGCTAAGCTCAGCGTCCTTCTTTACTGAGAATATCACTAATGAGCCTGGTATT
1 CAGGTAGTGGCCAATCATCTCGGGCTTGACCTCCACCTGGTTGAAGGTCTTGCCGTTGTGGACGCCCACCATGCTGCCCACCACCTCGGGCAGGATGATCACGTCCCTCAGGTGCGTCTTCACCACTTCCGGCTTCTCCATGGGCGGCGCCTCCTTCTTGGCCTTGCGCAGGCGCTTCAGCAGGTAGTgccgcttccgccgcaggccccggttcagccgccgccgctggcgcGCACTGTACAGCTGCATC
1 GCTCAGTTTGCATTCATATAAACGtacaggcgcgcaccatcatgcccggctaatttttgtgtttttattggtcaggctgatctcgaactcctgagctcgcgatcagcccgcctcggcctcccaaagtgttgggattacaggcgtgagccaccacgcctggcAACGCCTCTAGGAGCAAAACGTGCATTTCAGCTTTTGAGGTTCCCTGCTGTGCACAGCCCTCAGCTTGCCATCTATAGGCCGCTCCATT
1 cccctctcCCACCAATCCTCAGCAGAGCTGGCCAGACCTTGGCCAAAGCCCCAGCTCCCTGAGTCCCAGGGAAATTATTAGTGCTTGAAGAGCAAAGGGTTGTCCCTTCTTAGGGTCCAGGAAGCTGTGTCAGCCCTGTCCCCAGTTCCCAGTTTGCACTGGTGGTAGCTGGTTAGAACCTGAATCCCAGAGCCCTCTAATGGCCAGGCCAGGGCCACAGTGGATCTGGACTCTGGATGCAATAGAGTGA
1 aaatgaatgaattttgacggagcagagagcaaaagtttatcactctggattcaaatttcactttgcatctagcAGGGTGGGTATTAGGTTGAAGGGAACGaagcgctgggtcagcagctgcacacccctgagaaccagcgcctccctgagtttgcaccctgggcctcactctccaaacccttctctggcccCAgcagctaatccttaggaaactgctactcgttgagttctggagtagcatcaaatcaga
1 ATCATCAGTCTCAACCTAAAGCTGCTCTTTCCTTATGTTTTTAGATATCAAGGCTTTAAGCAAGATTCAGATGAAGGGCCTGCTTTACCAGCTCACCTATGAATATGGAAGCATCAGCTTACTTTTTGCAGCACATGTGTCTCAGGGGGTTGTCCCTTCCCACAGTGTGTAGATTGGCATCGAGATGACGTTCTCTCTCCAGGGTGCAGTGATGACCGACATATGTGAGACAGTCGTTTAATATCACCTT
1 TCTCGTCCACCCAGGTTGACACTGGCCTCAGAGGGGAGTAGCTGAAGTGTCCTCTCCCCACACTGTCCAACCCTGTCTAGGCTGGTGGATTTCCTGAATGGCCTCCTGGGCAGGTGTGACGGAAGTGCTGAGGCCAAGGGGCAGGGGATGAAGCGGGCCTCAGGGCCAGCCGGGTTGCAGGTCCCTGGAGCGGGCAGCCTCCCTGGGAGAGGAGGAGGAGCCACTGCCCGGCTGATACTCGCCAAGGCCC
1 ATGCTCCTCCTACCTGGCTGCACAGGAGCAGCAGCTTCTGGCGGCCGGGAGCTCTGTGGTCAGCTGCCTGCTGGAGGGCCCTGTCCAGCTGGGTCCTGGGAGCGTCCTGCAGCACTGCCACCTGCAGGTGAGGCCTGAGCGTGTGGGCAGATTGGGGCGAGGGTGCTGGCATCCCGCATGTGTTGGGGGGTGTTGGGTGCCTGCCCACCCAGGATGCCTGCCCTGTCCCCCACCAGGGCCCCATTCACAT
1 TTTTCCCCTTTGGGGCCAACCTGGCAATTTGTGTGCAAAGCACAGGAATTCCACACAAGGAATTTGGCGTAATAGAAGTAATTAGggctgggcgtgctgcctcatgcctgtaattccagcactttgggaggccaatgcaggaggattgcttgagcccaggagttgaagaccagcctgggtaccatagcaagatcctatctctaccaaaacaaaacaaaacaaaacaaattagctgggtgtagtagtgtac
1 cggttgttggagatgtgaatcttgccaaagctcctggccgaataaagcccttctttctttaactcggtgcctgaggggtgttgtctgcggcttgccctgctacaAcccaggctggagtgcagtggtgcaatcatggctcactgtagcttcaaactcctgggctcaagggatcctcttgccatagcctcctgggtagctgggactacaagtgcacaccactacactacatttttaaaacgttttttgtagg
1 TCGCGCTGTATTGGGGCAGGGGCCTTGTGCAGAGAACTCCTGGCCTTCCCCGGCCATCTGCTTGTGGCTTGGATTACAAAGTACCATTATTTATTCTTTGGCTTCTTCCTGCCTGCCTGCCTTCCCCAGCGGGgagagagagagagagagagagagagagagagtgtgtgtgtgtgtgtgtgtgtgtgtgCTTTACCTTGAGAAGAAAATTGATTCAGGCTTCTGTAAACCTCCCAACTGACTTCCTGCA
1 CCACGCCATGCTGAGGTGTTTTTCCTTCTCCTTGCTGTGATTTCCCCTCCTTCTTCCCTCATGCCAGCCTGGTCGACACTTTCTGCAGAAATTCTGCAGATGGCAATTCTGGGGACCTTTCCTCTGCACCAAACAAAACCTCCCTGCCAAGGCCCGTTCCCCATGCGGCCGCGAGATGGCGGCATGACTCAATGGACGGGTTCCAGGCGACCCCTGCACAAAGCCGCCGCCGTGGCTGCCTCCTTCCTTA
1 CTGCGGTTTGTTACTCCATAATGGAAGCCCCTGAGAAGTCGCCTTACCTCTGGGAAGAGCGCTTTGCTTCCCAGAGAATCTGATTCGCATTTCAGGCAGTCAGCCACTGGAGGGCAGTGCAGAAGCGTGAATGCCCTCACCTGCTCGGAGGCGGGAAACCCTGCAGCAACTGCGTCTTCTAAGGGAGCCTAGGACCAGGTTATTAGCAGAGGGGAAAAGAAAATGAATCCATTCTGGAAACCATCCGTTT
0.3391366485558341 GCATCCTGGGAGGCATGTCCCTCTCAGGCCGTTTAAAGAGAAACACTCCGAGGCTCGTCGGAGGCTGCCGGAACCCAGACAGCTCCATCTACAGCCGGTAGGAGCGAACAGTGTCGAGCGAGCCGCCCGGCGGCGACGGACACGCCCTGAGCCCGGGCCAGCCCGTCGTGGAGCCCGGGCCGAACCGCCGGGGCCTCCCACCCTCCAGGACCCTCCGGCCTCTCACCTGGGGTCCTCGCCTGCCCAGGCA
0.5255465306561867 CTGAATTTTGCCTGGACCCCACTCGGGTGGCCACAGGCGTGGATTCGCAGTTGCGCTATCTGCATTGGAGCCCATCTGCTGCTTTTCCTTGGACAATGGCTGCCCGTTTAGGGTTGTGACCCAGGAGTCGCTGTGGTTATCAACTGCGAGAGCTCAAACGGACACATGAGAAGCAGCTTTGTTTAGCGTCCTTGACATAACTAACCACATATTAACAACAGAGCCTTGTGGTATAGAGGCTCCTGTTTGT
1 GGAGTGGCTAGAGACTCAGGTTGCTGTTGAGTTCTGTGGTTGGGTAGGGGGAACCTGCCAGAGGCTGGAAAAACAGGCAGGCCTGGGAGCAGGTCTGGGACCTGGTGGGGGCAGGGAATACAAGAGGGCTATTGTGCTGGGGGAGCCCAGCAGGGGTGTGAGACAGGCTGGAGTCAGCAAAGGGGTGTGTGTGTACATGTGTGAGGCGCTGGGCAGAAGACCCCGTGGTGAGGGGGTCAGAGAGCAGCTG
1 GGAGTTAGCGTTGGGGGTGAGCTTGGGCGCCTCAGGAATTGCTCCGCCAGCCCCGGGCGCGCCGACCCAGCGGTTCCCCAGAGCCCGCCGGCAGAGGCGGAGCCGCCCGAGCGCCCGGACGCAGGTGGGGAACCTGTGGCGCCTACAACAAGCAACACGTGGAATTGAATGTTGAAGAGCCGCGCGGGGCCGCGGAGTGCGCGTGCGCGCGCCGCCGCTGCTGCCCGGGCCCGCCTGGAGCCCTAGCACA
0.8850049928685725 GGCCGCTCCATCAAGGCCGTGGACTGACAGGATTTGGGGCTTGGAGGGCAAATGAGAAACAATCGTCAGGGACCGAAGAACAAATGCGTCCATcacaccagccccccgcaccccgagccccgtgctccgctcacgcgaacccTCGGGGGCAGCCAGTCTGAGGGACGTAGCGCGCGTGCGCGGGGCCAGAGGGGACGCCCCCACGCGAGCGCGCGGTGAGCAGGGCGCGTGACCGGGCGGGCGCGCAGCC
1 cggaagtaacagggaggacaatgagtgctacagctggggaggaggtgacaagagctggggtaggaggtagtgatggaaaaggCCTTGCACTCCCGCACTCCCTAGAGCACTACTTCCTGGGAAAGGGGGGCTCAGAGGAGCCAGACACTAGGGCAGCAGGGCTGGCATGGGGGACTCCAGGCAGAAGCCACCTCCTGGAGCTCAGCAAGCCTGGCACAACCAGGACAGGGGCTGGCTTCCTGAGCCAACC
1 AAGATCTTGGGTGAGGCTCTGGGGACACATGGGGAGTGGGAGGGGAGTTTGTCACCTTGGCCCCCCCATACCGCCACTGCCCCCACAGGTCTGGCTTCTCTTTTACCTTGTCTCCTTGCTCCCCCTTGTGGCAAAGAGTGAGGTGCACATTCAGAAGGCCCAGCACAAAGTCCAGGCTCCTGATTCCAGGAGCATTTCCCAATTTCTGGTGGAAATTTCCCATGGAATAGCACTGTCCTTCTCATACATC
0.2907692086525785 TGCCTGCAGGACCTGCTTCGGTGGGCACTGTGCGCGCTCCTGATCTGCATGCAGCCCCCAAACATGCTCGGCTCCGCGGCCTGGAGATTTGGCGCGGCCACCAGAGCACCTGTTGCGTTTTGGGCCAGGGCAGGTCCCGGGTGGCCAGGAGAGGACAGGTAAAGCTAGAGCAGTGGCCGCAGGAACAGAGCAATCTGGAAAGATGTCAGAGAGGTGGTGAAGCCTACTGATGCAAGGGCAAAGCCCCAGG
1 CATTTCACACATGCATGACCCCCTTAACAAAAAGGTAGAGAGGTTTGCCTCCATGTTTCTGTTTAGTTTGACAAGAGTGAAAGGGTGAAGGGACCCTCACCTCAGTAACCAGTCCCCGGGGTGTCTCAGAGAGATCGCTGCCGAGCAAAACCAGACAGCAGAGGGCGCCCTTCACACGTGCTCACCAAGTGCTCAATTTAATTTGCAATCACAGACTCTAGATTCACTTTTTCTCATTTAAAGCAAACTC
1 ATTAAGGCACTTCCAGTTAGAAATAGCACTGAagtccagatagtgtaaggtttccacagcagatcactttctcatgggcacaattttgtacccttaggtagtaatatcaacaaaaaTTGCTGCTGCTTCAAACCAAGAGCACAGTGGACAAGTTAGAGTCTTCAAAACTAAGCAGGAGTACAACTCCTAGCTTCACAATTGCCCCTGAACTCTGTAAAAATTTAGCCCATTACATTGAAGAAACATGTAG
0.2397437454581848 AAGCCTCCTCTGACAACTTCTCATTCCAGACCAGGGTCGCACAAACTCTGGCTCCTTGTGCTGTTTCCTTGGCGGAGAATGCCTGGCGCTCCCCTCCTTACCTTGACAGCCGGCTCAAAGGCCACCTCTGGGCAGCCCTCCCCGTGTTCCAGGGTGCCCCTCCCTCCTGTCCTTGCCCTTTGTACCGGACCCTCCTCCTTCCTCCTGCGGTGCCTTTGGCACTGTGGTGTTGTTACTTTGCACTCCCCAT
1 ACAGCGCCCCTCGGAGCCAGGGAGGCGCTGGGCAGGGATCAACGCACACCCGCCCGACAGACAGACCGACGGGTGGTAAATATAGAACAACATGAAAGCAGGCAGCGCTGGCCCAGCCCCTCCTTTCCAGCTGTGTGGTGGGTGAATCCAACAGAGCAAGGTTTGTTGACCCGCCCCTGTCCAGGGCCACCTCGCCACTGCACCTTTCCTTCCCGGCACCCAGGGACGGTGATAGCAGAGTGTCGTATGC
1 GGCGTGGACGCGCGTCGCGGGATAGCCTGGGGGCCAGGGCCGCAGGGTAGCCTCGATGGCTCTTCACACCCCCACCTCCCTGCACCCACCTTGAAAGCTTCGTGTCcactcacccattcatgcactcacttatacattcatttattcCTAAGTATTTATGAGCGCCTGCGCCCACCACGTGCTGGCAAGAATTGGGTTTCTCCCCTTCCTGGGAAGCTGTAATAACCCACAACCAGCCTACGAAGCCCAT
1 tctccctgtactctgcgtctgtctctgatgttggcgatgtcacaatccccaatctttcacaacatttggacacagtagccttttgttttgaggactagggcaagagatgtggagaaatgtttccctgaaggctgaacattagtcacataagtggatgttcaggtgcccactcgctcgtgctgtgtcggtgcccagcactgggtcctgagccactgggtgctcatgtgttctttcataattgtgttggggg
1 TAAGCCATTTTTCAGCTCTTTAAGAACATAAGCCCTTTCACTGAGAAAATTCCAGTCCAGTGCCACACACAGTTCACTCAACTGTGCTACTTCATGCATGCTATTCTGTTCACCACTAAAAGAGACTTTCAACATGAACTTTTCCCTCTGTGATGCAATTTTGTGTGTGTGTGTGGCGGGGGAGGATGTAAGAGCACAGTGAGAAGATAAGAGTTTTCCCGTTTTCCTCTCTACTCAAATCCCGTCTCCT
1 ATAGAAAGAATGGAGAATTATTGATTGACCGTCTTTATTCTGTGGGCTCTGATTCTCCAATGGGAATACCAAGGGGTAAGTGCAGGAAATTGATTAGAGCCTGGGCTACAACGCATGGGAGGAGCGGGGCTGAATCGCTGAGAGTGGTGAGTGGGCATGCAGGGAGAGTACTCTCCCAGAGAAAGGGGTGCAGTGCCtgtgtgtgtgtgtgtgtgtgtgtgtgtgtgtgtgtgtgtgtgtACATGTGTAC
1 TAGCTGTGTGAGGTGCAAgggacaggagataaagtctgggcttcccccaaggggggctgtaataggagacctcttcaaagcctgagtccaaaaggtctatgtctagagtgtcagaaagaatgaaaagcaaatctcaccccgcagaggagaacagaaaggaagcctgcctgccctgaccttgacattgggttgagagaaacatatctccactgagaatctgtaaccacaagctggccctcacgtgattttc
1 CCCTTATCTTTTAGATAAAGTCCAACCTGATTATAAAACCCATCTCACCCAGGGCTGtctcctcgcccttctcccaccccacattccaaccataccaaaccaacgacctggaattctctgaacattctgtaccttgcacctccacacctttgcacatgcagtctcctgtgtgaaaggtcacaggagacagctatatttattttcaaaattcagctcagacaccatgttctctgcgataccttcctaagct
1 ttgaaagagagaatGCTGCACAAGAACCTAACGGTATTCATTCAAGCTGATGGAATCTAAATCCTAGTGAATGGGTTCTTACATTGGAAAGTACTGGAACAAAACAAAGATTTTAAGCAGGGAGTCCTGTAAAAGCCTCCTAAAGGAGGAGCCTGGGTTTATGTAGGCCCGAATTCCTGCTCCTGAACTTCATCTGCTGTGCCTTGTCAATCCTAAGCCTCTATGTAAACACAGAGTATGTACTGACAGT
1 CCACCTTCTTTATCTACACACACCAGGTGGGGGCTGCGCTCAACTTCTGGAGAATAAAACAAGGAAGGCAAGGTGGCAAGGTGCCACCTCTTGGAGGTTCTTGGGGGACACAGAATGGAGCTTAGCATTCCCAGATGATGCCTGTTTTGCTGGTCCTGGCGGACCCGGGAGAAAATGCCCAAGGTCCCATCTCCTGCCTCCCAAGTCCTCACTCCTGACCGACCCTCCCTGCTTTCCGTAGCCCTGCCCA
1 CCATTTCACTTACCTGAACTTTTTGAATGCACAGTCCTATACATTCTTTGTCAGTACATTGATTTTAAAGTCGTTTTATAAAAGTTAATGACTCACGGGGCCATCTGTGCAACTTAAACACAATGGCAACCTATGCAGGTGGTTGCTGTGTGTCATATACTGTGCCTGCTGTGTATATTTCTTCTAATTAGTCATACATCCTGAATCAGTTAAGGATGACTGTGGTGAGAAATACAAATCATACCAGGAC
1 GTGGCCTGGCCTGTTACACTGTGAGAAGTGGTTAACACATGGCCTCCAGGCCAGAAcactccttactgaatggcctaaggcaagggactcaaccttgtgcctcagttcctgcatctgcgagactgggataagcctagttcccatctcatggggctgctgtgaggctcacaggagacagcctggtggacacgggcacacaggaagtactcagcaaCACACTCGTCATCCCAAGGCTAACTCAGCCATGAAA
0.4654370099908075 TCCCTTTCCTTTGATCCTCCCACATACAGTTAGTTACCAAAGTCCTTTGGATTAATTTTTACGTCAGCCCATTCTTTTTCATTTGATTGCTCctttgacctggactgttgcactaaccacccagttgaccttgctgccttcatttcctctcctttctgcccattcttacataccacttccagattaatcatctctagagtccagcccacaccctctactcccctggctcaaaagtctccagtggctccAG
1 TCTGACTAGTGCCTTCCCGGCCTCTGACCTGGAGGTGGATGGAGGAGGAAAGAGTGAAGTTAATGAGTAAACTGGAGATGCTGACTTCTGATAGGAGCGGACTGGGGGTGGAAGTTGTTTGCGGAGATGGTCCCCTGCCCCGTGAGTGGCGAGTGGCGGGGTCCTACTGCCTGACTTCTGTCCTGTGTAGACGGCTCTGCTGTTGATTTGGTTTAAACTCTCTTCTTCGTGCCCGTGCCTGAGGCAGTGA
0.7831690052907451 TACCCAGAAAGCTCTGCTTTAAACGACAGCCGGTCAGAGCCAGTGAGCACTCGGAAAGAAGGCATTTCCACGTGTGCACGTAACGTAAGGCCGAGACTTCCGGGGTCTCTAGTAGCGGCTGTGTATCGGCGATGCGGGTGTTTCCCCAGTTTGTGGCCCCTGAGTGCTGGGTGGGACCGCGGTGACTGAACCTAGAAGGTGGAGAGGAATCGTCCTCGGTGCCCAGAGGCGGCTCTGCAGCCCCGTGACG
1 ttctgcatgttggtcaggctctcaaactcctgacctcaggtgatctgcctgccttggcctcccaaagcgctgggattacaggcgtgagccaccatgcccagcaaggtctctctgacctccccgccactccctgcctagtcctgtttctcaattctctgtctcttccaaagcacgggataaattgttctccaaagatcacttatctgcctaaagttcagactcaccaaagaagacaacaatgacctctggt
1 tgatccacctgcctcggcctcccaaagtgctggggctacaggtgtgagccaccacaccaggccTCAGGTCTGAGGTTCCTAATTCAGGACTCACCCGCACTAATTGAAACCTGAGGTGAGGGATTTCTCCTCGCTGACCAGTAGGGGGCGCGTCGTGACTGCGCCTTCTGCTTTCACTCCCCGCGCAGGGAAATCCTGTCCTGCTCTCTCAGGGAGCAGTTCCTGACGGTGGGCTCCATTTTATAATAGA
1 GGCTGGTGGAATGCCAGGAGATAAGGAGTCCAGAGTCCGCCCCATCGACTGTCGCCAGCCAGGGCTTCATGCCCACCTAGGGGACAGGAGGGCAGGCCCTAGAACACAGGGTCACGAAGCCCCACTATCTTGTTCCCCCCTCCCCCCACTACCGTGGGCATTAAACCTCTCAGGGGGCCCCTGGTTGGGCCTGGCAGAGGCAGAGACGCAGAGGCTGGGCCCTCTGACCTGCACAAGGAAAAGAGGCCGG
1 aagaGGTCAGGCCAGAGCTGCCTTTGGGATTTGCCTTCTGGGAATAGGGCCCTCAGCACCCAGCCCCTCTGCAATCATCCCCCTCTAAGCAGCCTCACTCCAGAGTCCAGGAAAGGTGTGTGTGAAGACACCCAGTGGCAGGCGGTGGCCCCAGCTGCTGACCGAGTGTGATGGGGCCCTGGCCTTTGGTGCTTGCCTTCCTCAGAGCGGAAAGAGCCATGAATCAAAGGGCAGGTGTGTGTGGACCTGA
1 atgcctctttttccaccatcAGCTGCTGCAAACTTCACTGCTGGGGATGGCTGAGTGGATGTCTGAGACGGCCTCGAAAAGGGGCCAAGAATATTTCCAAACACAGAGCTGGGCCCGTGGCCCATGGTTCCATAGCACCAACAGAAAGGCAGAGACCCAGCCTCTCCAGGATGCCAGACTCTGGGGTGCTAGAACACTCATCGTGGAAAATTCCGGAAAAAAAGTGCAAAGCAACAGCATCCCCCAAAGG
1 TGAGTGACGcaacatagcatggtggtaaagaacgtggccttcggggttggacagatgggctgtgttcagcaagcttaagtaaatgcttaacctttccaatcccagactcctcttcaggaaaacaggaataaaaacaccttccttgcaggacagatgcagggattaaatgaggtaatgcagtaaagtttggcaTCTAAGATTTCAACCCAAACCAGTGGCTATGATGGCTTCTAACACCAAGGCTTGCACA
1 CCACGGCCATGATAGAGCGAGCCCCCACCCACCACCCGACTACTGCTTGTTGAGGACTTGGTGATGCGGTGTGTTTTATCTACTTACTCTTTCTGCTCGGGAGGCTGAGGTTCCTACATTTCCAGCTCATGCTGGACTGTACCGTAAGCAACAAgtgaaatgagttcagtgatctcattctagtccttcgactcctgtccacatcactaagcgactgcacagcttggcacaggccaggatgagtcagcag
1 AAGGCTGTAAACAGAAAAGGTATGACTCATGGAAAAGGGTGGTTTGGATCTCACTATCTGGTAGGGTTTCACTCAGGATTCCAGTAAGAATAAGGAGCTAGTAAAATTGACAAAGCACATGGAACATGTGGACACATCTAAACATGGGAGGAACTGCCCAAGGAAACAGAATGTGCTTCCCTTCCTTCCTGAAGTTAATCAGAAGGCCAACAATTAAGTTAAAAGAAACCAGGAAGAGATATTAGCAATC
1 ATTTCAAGGGACGGGCCTTCTAGGCCTGTTATAATTAACAGGTAAGCATCATTCATTTCATTTAGTGTGTCACTTGTTTCTGCGAAAAGAGTTCATTCTCTAAAATGGTTTTCTggccaagtgcggtggctcatgcctgtaatcccagcactttgggaagcctaggcaggaggatcacctaaagtcaagagttcaagaccagcctggccaacatggtgaaaccccatctctactaaaaatacaaaaatta
1 TTTACATTGGCTTCTGTTTTCTAAATGTTGTTCTCCAAGCTGTCATATGTTTGGATTACAGAACAACTTGTAAGATGAATACTTGTTTTAAATGTGCATTATTGAATATGTTCTGTccaagtgcggtggctcactcctgtaatcccagcatttcgggaggacaaggcaggagaactgcttgagcccaggagttcaaaaccaacctgggtaacgagaccttgtctctactagaaatttaagaaaaaaaaag
0.8201152794964662 CGTCCAAGCCATTGTTCCCTTGTTGTGACAGGGGGTTCAACTGGAGCCCACGGACTGGGGGCTTCCTCCCCAGCTCGCCGTGCTTGGACAGCTGGAGGAAACAGGCGGCTGGCGGGCCAGCTCTCCACTCCAACAACAACAGGCTGCCCGCCCACTGGCGGCCTTGCTGGGGGCCCAGCCTGGAGCCAGAGAGGCCACCCCACTCCACCCCATCACTGGCAAAACATGTTTTCTTGTTTTCTGAAGGGGA
1 AATAGATACACTGGCTGGTAGCTCAAAGGTGGCCTGTTGTCAGCAGCCAGGGCCTGAAGCATCTCACTAATGGCCTGAAGCAGACATGGGAGAGGAGGAGCAACCCCTTTGCAGCTGTGCAAGCAGCAGGCTGGACAGGATGAGGGGGTGGCACTAGGGCTAAGGGGTGTGAATAGCTCAAACTCCAGCTCGGTGTGTGGACAGTTTCTGGTTGAGCTGTACTTTGAATCGATTGGTGTCTTGTCCTGTG
1 AAACAATAGGGCCCTGTCTCTGCTGCAAGGGGGCCGGGAGGGATTTTTTCACTGAGGAGCACTACCTTAATGAACTCACTTGCTTTTCTATGCCGCTTGTGTCCACATTTCCCTCACTGCCCTACTTCTTTCCTGGGACTGTCTCTCGTCTTAACCCTTTCCCTGCCACGCATCACAATTAGGCCATTCAAACCAAATTTTCTACTCTAAAAGCATTCACAGATATGCCATTTCATGCAGCTGAAGATTC
1 GGCCACGATGAAACAGAAGCTTGTGCCTTCTCCATTCTTTACACAACCTGGTGTTAGAGGTTGACCTTTCACCCCTGGAGATTCGGAGGATTAAGGCTGCTTTTAAGTCTCGCTCTGGTTACTAATCCACCACTTTCACTTCATGTTATGTAAGCACTTCCTGACTTACCCTTTAAATCCTGTAAACATAATAAAACAGAGTTTAACCTTTACCTTTGGATTTCCCCACTATCTTTTGCTCCATTGAATC
0.7729233058061524 CGGCTTGCTCCTTCCCCGGCGCTCGTTCGGCCCGGCTGGCTGCCTGGGGGGGGGGCAGGGAGAGGTGACCCGTGCGGGTACAGGGCAGAGAGGGACCCGGCCCTTAGGCGGATGGCCCGCTTGTTGCTTGGCCAGGTGGGGGCCCACACCTGCCGGGGGGCTCCGCAGACGGACCTGGGGACTCCAGGAGCGCCTGAGTCCCCATCCTCGAGTGCACCGGGCTGTCTTCGACCGTGCGGGGAAGTCAGTA
0.8416104219390589 ACACTCATCCGTCACTCTCAATTTCTTCGTCTCTGTCCCTCTCTCTGGCCTTCTCTTCGTTTTCTGAGCCTTCCACTAGGTGGCACCCGGGCCTGGGTGCCTGCTGTGGAGCTGATGCCCTGAGGTCAGTCCTGCCCCTCCGGCTTCTCCATGCTTTCTTCCCCTTTCCTTTTTCCTCCTCCCCACCTTTTATCCTGCAAGTGGGAGGCTTTGATTCAGTGCTCAGAGGTTCCCTGTAGGATTGCAGAAC
1 tcaagcaatccttccacctcagccttccaagcagctaaaactgcaggtgcacaccactttgctcactaatatttttactttttgtacagatggggtcttgttttgttgcccaggctagtctcaaattcctggcctcccaaaggtgttgaaattacaagcatgagccaccacacccagcccagaagggactcctaatccccacctataaaggtgaggaaactgaagactcagagaagttaaattccttgtc
1 ATATGGCTTCCTGCACCTGGTGACGCTTGGCGAAACTGAGGTCTCATGGAGAAGCCCCGGAGTATTGAGGTGAGAAGGCGAGGACTTAGCGTGACTGGGAAAGGGAACTCCGAGAGCCTCGCTCCGTGGGCCCTTCTTTAGGGCTTTTAGCGACGCCTGGAGGGTGGAGGGTGGGAGGATGGATAAACTGAGGTAGTTAAACTGAGCCAGGGGCAGAGGCAATTGACGTTACTTTTTGCCCCTCTCCTGC
1 GGATTTTTCCACCTTAGATTTCagggaatggaagtgatgggagcgggtagggaaggTCTGAGGTTACTAAACAGATGGAGCCTCCTGGATCTGCAAACCTCATACGATTCTAGGCCTCTGAGCCTCTGGCGCAGCAATAATTCTGCAGCCGAGCCCACTAGCCGCTTCCCAGTGACCATGCGCAACAGGCAGGTGGGAGCCTATGGAAAGCGCGGACTTTCGGAAAGCTGCACGAGCGCGTTCGGGGAGT
1 CCTTCGTCCCGACCCCTGCATTCATCTGTGTTCTGTTTTATGTTTTTTCCCAGTCACCTGAGCTGCAGGCCTTGGTCACCCCAGACTCCTCCCTCCTGTCACCCTTATCCTCACCCCAGCACCTTTACGTCTGCCCCAGGCTCCATTTCCCCCTCTTCTGCCTGGATCAAACCACCCTGACTTTCCTGGGTCTTCGTGCAACAGcctgctccggccgctgcctcactgcacctgcaaatccacttgcacc
1 TGCAAACACACTgcccactctgggccctaggggtggaaaagtgaatgaggaccacacagttcctactcaaggagGCTGGATTGGAGGGGCTGGGAGCCCCAAGGAGGAGAGGAACGTGGGAGAGGGCACTGCCTGGGGATTTtgcagtgggttgactggtggcccccctgcaaaagacacgtccacctgggaccagggaatacagtcttatttgaaaaaagagtctttgcgaatgtaatgaagataagaa
1 ttcattgaaaatgaaagtacactccacagtgtgggagtgggccagagcagcagctccagggtccagatgcagaatcttcttgggtccaaatacccgctagcagttttccattggccacttcacgtccatctcatgtaaatgaagtgctagcccacagtcagtctgaatggttgcagaaagcagccaaccagaggctgaagtgaagttacaaaggtcacacccctgtgcaaacaggagttggttttcgcag
0.4440938642455113 TTTCGCTCCCCGCTGCCTATTCTCATCCGGGGTCACGTCGGTCTTCCGGGTGTCTTTGACAGGGTTTTCTACGCCGCTTTTTCGGCGACTTTTTGCTCTTCCGCTTTTTGCCACCGCCCCCAACCTTCTATATCCTTGCAGCCCCTACCTTTTCTTGTGTTGCTCCTCCCCTGGCAGCCGTGAGGGGGGTTAGATCTCAGCCGGAGCCGGAGCTGGGCCTAGCTGTCCCACGGGCCACCACTACCTCCTT
1 CTTCACCTTGACCTCTTGGGACTCTACCCTCTGATCTCGGGGCCTAGACACCCACTTGCCCTTTCCTCTCCTTACCTGTGCACCACCTCCAGCTCTCTGCTGGAAAGTCACTTCCTGTGGGCAATCTGTGAGCCCCAACACTTGGGAGTTAGGAGTCCCAGAGTCATGCTGCCTCACCCTCTTGTCATTACATTGTAACCAGCAGTTTCATGCCTGCCCTTCCCCCCATTAAACTTAGAGGTGAGGGCTG
1 TCCAATGAGAAAGTGTATTTTTTGCTCACAATAAGAAGGAAAGACTTGGCAGGGAAAACAGATCCTCACCTTCGAATTCCTTCTCTACCCTTATTTCTCAACTGTAATTGCAAATCACATGTAAGAGAGCAGAAGGCACTGCCCTGGAGGTCAATTCTTGTAACCTGAAATTGAGTAATATATTTGTTTTCTGATTCAGTTAGTTGTGCAGACTAACTATGAAAGTACCCAGAAGGCTTGTTTTGAAATT
1 ggccgggctgtcttccCGGAGTAGACCAGTTTTCTAAGCTCCTTTTCCTTGTTCTCTGCTGTGCCCCTTCTGTGGGAGCTGAGGCCCTGCACCCTTAGGCGTCCTCCTCGTGCCCCTCCTCCCTCCAATGTTACTGGGCCTGTTGTTGGGGTCTGTAGTGTTTCTGTATGGCTCTGCAGAGGCCAGGCTCACCGCCGGTTGGCCTTAGCTCAAGGTCCAGGTTCGTGTTGGCTGGGATTCCTGCCCAGGT
0.7735004060863319 ACTCATCGCCAGCAGGGAGCTAACAAGCCGCTCCTGGGGTTGGGAGGGCGGAGGTGCCCCACAGCGGGGCTGACAGCCTCAGCGGTCCTCTTCAGCCTCCAGGGAGCCAACCACAGGCCTGCGTGACTCTCCCTGTCATCTGCACCCTCTCTGGGGTCCTCTGCCCATCCAGCCACCCGCACAGATCTGTGTCAGTCCCTGCCCCCCAACACTGATCCCCTCCTCCCAGCCCTACCCCAGCCTGGCACTC
1 CCAAAATCCAACAAGCACAGCCACCTGTCAAAAAACACCCCACCCACAGCAAACATCAGCCTGAAGTACAAGGCCACTAAAGAGATTACCACCCAAGGACAAGGCACTCAGAGAGCAGAGCTCAGAAGAGCAGACCGGACCCCTCCTGGGGCCTCTAGGAGCTCCGACACGGCCAAGCTCTTTTGGGGCTGTGGGGTTCCACAACACAACCATGTAGTTGGTACCAGCAGCACGCAAGTGAACTTGCTGG
1 CACCAACAAAAGCCCATTGACGCTCAGACACCTCTGACTTTCCCCATTTCCTTCCCGATGGCACAAATGGAAGCTCTGATTTCCTCTTTCCTTTTCCTTCTGGCTGATGCATCCTGACAAATACAGTATGTAAAGCGCAGGGACGTGTGAAAGGAAAGTGTGGCGACGGTTGTTTTCCATCTCCCAATAATAGCGTTTCAATTTGGTACCTAAATAAACAATCTATTTTAGTGGCTCCCCTTTGATATCT
1 ttaatctagaacagcctccctgctctgtgtgtgtgtgtgtgtgtgtgtgtgtgtgtgtgagacattggctttgaagagtccaggaaggccagctgtgttacacaatAGATTTGTGTAATCGAATATGTTCAGGTTAAGTTTGCATAGTTTCAAAACTCACCTGATAATTGCTTCATTGTGTCCAGGAAAGTCCTAAGGCAGAGAGGCTATCTCTTTGGCTGTCTGTCCCTGTGTGTGTTGTGGGGCATCC
1 CCCAACTGTGAACTCAACCTATGTGGTCCGAGTTAAAGGCCTTATCTCTTGCTACAATCACCAGACACAAATGAAGAGAGATCAGTATTCTATGCTTCTCTCCCTCCTCCCACACTTCCACTCCATATCCTGGTATTCTTTGCCCTTTCAAGCTTCTGTGCTCTGCCTTCACTATTTATTTATTCTTTTGCTTCTCCTTTCTCCATGCCCAGGAGGCTGCCCTTTCTTTTTGGCCCCTGTATTCCAGAGG
1 GAACTGGCCTTCCTCATCTGAAGGACATAGGTGAGCTTTGTCTCTCTACACCATGGGACCAGGTCATTTCCCATTCCAACATGGTGCTGTGTTGATGGACATGTCCACCCTGGGGACCAGGGGGAGAGGAGAGATAGTAGGTGGAACAAGCACCCAGGCTTACATGTTCAGCAAGAGGTGAGGTCCAGGTCCAAGTACAGGTCAACTTGGCTGTAAAGTCCATGCCTTAAGAATTCTGAGCAGAATGAGA
1 tgccaacctgccctgttgtcagaggtctgcttaggcggagacaggtgaaaaggggacgctagtacaatctaagtttgggattttgccagaagttaagactaaaggtcagagagagtccaggctattgattgcgtgtcatctgataatagtcctgctgatgggatctaccctggaaaatgaggaaaaaggaaagccgagaggttggccatctcaaggtttgacaggacaaagacaggttctactgggagca
1 catgtacataagtaggcagaacctcataaatcctcatgcactcaaatccctgctcccaccatgtgtaattcaaggctctcttgcttcatctgtgcacccatctcctgcccaccacattgtttgaggcaaatccaggatctcttctctgtaaacatttcaatatatccttctaaaagaaaggcaaatatttttaaaatgtgtaaacacaatactgttattacaacgttaaaatttgacaatggttccttaa
1 gggagacagagaaagaaagagagTTGGAATGAGAGGGTAGTTGTGTGTGTGGATACCCATGCTATATATTCACATACTTAGGCCCTCAAAGCACGAAATAGATGGGCTGTACCTGGTCAGATCCTCCTGCACAAGCAGCCGAAAGATGGTTGGAACACAGCAGAGGGTGGTTATTGGGAATGTGGAGAGAGTCTAAACAAAAACAAAGGGTGAAAGATGTCCTTAGAATCACTGGGGTGGGGCCATGAAG
1 CTCGTCGCAGAAGAAGCAGAGAAGCGCGCGGTCCGTGAGGCAGAAGAGCTTGACCTTGTCGTGCGCCTGGCAGGGTCGCGCGGCGCGGCGCGCGTTGAGGATGGCGTCCAGCGGGAAGGAGCTGTAGCGCTCCACGATGTTGGCCAGCTTGAGGCTgggcgccagcgcgggctcggcgaacgtgcgccggcactcggggcagtcgcgggcgccctgcgcctcctgccgcacccagtgctccgtgATGCAG
1 AGGACAGCTAGCTACCAAAGGATGAAAAAGAATGAACAATGAAGACCTTGTTTGAGAAAGCTAAACTATTTGCATAGTCTTTTGCTGTCCTGTTTTGTTGATTCTTTAGCACTACATGTGGCAGCGGCCACCCCAGCTCCCAGCCCCCACCATCATCCTTACATTTGCAGGGGTTGTTGAGCAGGGCAGCAGGGCAAAGGCGACAAAAAAGGGAGCTCTGAGACCTATGGAACAAACCTTAGTGAGGCCC
1 AAAAAAGCCCTTTTCTCTGGAAGCAGGAAGTCTTGTGTCCTGGCTGTAAACAAACTCATCTTTGGCAGCAGAGCCTGCGTGGGGAGAGGGGTGGGAGGGCAGGCAAGCCCCCTCCCCTCCTCTTCCCCTGTCTTTTCCCTGGACCCTCTGGGTGACAGCTGGTGGGGGGTGAGGGGGCAACCACTGCTCTCCACGCCCTGCCAGTGCCCTCCTCTGGTGGGCCAACATCTGCTTGTTTCCCATTGACTCC
1 CAGACACTGTGACGGCCACAGGGGACCCAGATGGTGCCTACCACCTTGCCTCCAGGCTCCACTCACCAGACCTCAGGCTGAGGGTCTGGCAGTGGAGGTAGGGGCAGGGACCCTTGGTGCTTTCAGACCCCACGGCAGGTAAAATCAGGACTGCCTGAGAACCCGTCACCCTCTGCCTCTCAGGTCACCCCCCAGCTCCAGGAACCTGCCTCCTGCTGTCCATTGCCAGGTCTTCCTTGCACCCTGACAC
1 TAGGTTGCTTGCAAAAATAAGGCATCTTGTTGGTTTTCTGGGTAAAGATGAGTCTGACTTGTATTTTATGTACTGTGTTCCTGTTAGGTCCAAAGTCTGAAATACCTAACATCTTCAGCAGGGTGTCATTCATTCATAAACCAGGATGAAATACAGCCTCTGTGCTGAactttatgtcaaacactatacaaatcaggataaaagtccaaggtctttttgtcgagggattcacaccaagtggtgaaacccc
1 ccgggtcagtcaggctctggtaaaattccagcaggttaggctctggttaaatagtttccctgaggacaggccttgttaagaacaaaatgctctggcatctttccaaacggctgtttttcccctccccctgccagaagcatgagggaatttttctccaatactcactgtgagaatctggttacattactagaggtaaaactgagaaaagtgtacaccccaccccaatcatggctggatccccctgagggtt
0.07307511667634835 CGGCCACTGCTTTGCCCTGAGCTTCCTGCTGCTGCAGCTGGTCCATGAGCTGGGTCTGCAGCAGTAACTGCCTGTGCAGCGCCTCCTTCTCAGAGGTCAGCTGCTGATAGGCTGCCACCTGCTGCTGCTAAGTGGCCACGTACTGCTGCAGGTGACCCAGGTACTGGCCTCGAGGCCGCTGCAGACTCTGAGCCTGTTGGCTCTCCAGCTCCACCTGCAGGAAGTCCCTGGGCATGAGGGCAGCTGGTGG
0.5287600165780902 cctgccctcagaggtggagggagtctagaggcaataggccttgttgagctgtggtgggctccgcccagttccagcttcccggccactttgtttacctactcaagcctcagcaatggcagatgcccctcccccagtcaggctgccatcctgcagattgatctcagactgctgcactagcagtgagcaaggttctgtgggtgtgggagctgccaagccaggcatgttagagaatcaccttgtctgctggttg
1 cctcccaaagtgctgggattacaggcgtgagccaccatgcctggccaaaaatctattttttaaatgttctttttagcggcaaaacaaactcaccaaggcaaaagtacctagggctcaggaaagtcaccatgcagccctgaataggtagaccttgaactcagatctgtttccctcccagggtcatgtccATCAAAGAATCCTCCAGCCTCTTCCCCAGTATCAAAGCAACCACTCAGGGTAATCTCACGGA
1 cgctcagtgttgaaggggcaggaagaaagccatgccctggagcttagtgaatgaggatgaACTTTATCTTCgaagacactggaaggcctgacgcaggggaacgcgaccagattcaggtttgaaaaggctccctctggctgccatgcggagaacacaccctgggcgtgggtggacgtggggagatcgggaaggaggtgcagccaccgcccaggaagctgctggagacttcctccaggggtgctgcagagga
1 ATCTGGACAGGCCGCCTTCTTTGGAGTCTGAGCTAACAAAAAAGAAGAATGGAGACCTGTGTTCCAGGCTGGGCTTTGTCCACACTGACACAGCTCTGCGGTTCCTGTATCTAGCACGCAGAATCCTTTTCCTAAACTAATCTTCCTGTGTATCTTCACAACTAGAAACGGGGCAAAGAGAAACTGAGAAAGAGGTTCACATGGGTACatcattcaagattcagttataggaaatagacgccactctgtg
1 CAGATCTCGGTCTGGGGCACAGGAAGAATGAAGGGCATAAGGAGTAGCAACTTCCTCCTTGTGGCTTCAACAGTCCCCAGAGCAGTGAGAGGGCACAGGGTCAGAGCTTGGTGCAAAAGGAATGATCCTGGAAAAGTGAGTGTGGAGTTGGGCCAGTGCTGCTTCTGCACCCTGTGTGCCGATCAGACGCTTTCTCCCTGTCCCACTTAGGTGGGAAACGGCTCTCACCACCCCCATAGCAGGAAGCACA
0.8941045656642144 CGGGCCTACAGCTGGGGCTGAGCACTTAGGCCTGTCCTGATATGCGGACACTCAGTCTCCCAGGCTGTGGCCACCGGGTCACAGAGAGCCCGCCCTTCCTCAGGCAGGGCACAGGCAAGGCGGCTGTGAGGGCCGCCACTGGAGGGCGTGCTGGTCCCACTCCAGCCACCCCAACGCAAGGGAGGCTTTCATTACTGAAGAAGTGGGAAGGAGGCGAGCCCGTGTCTGGCCTCTCGCAGGAGCCCCCAGC
1 AGACAAATGAACAAGTTCTTGATAATGGAAGTGATTTATTGGTTTCCAGTATGGACTCCAATTCAAGTTCTCAGTAATAGCAGATTGGGTTTCTGTTCCTCCTACTGAAACTGACAAGAAAGAGTGAAATTGGTAGGTTAATTCCACAAACACCAGAAAATTCTTATAAACAACTTAGGTAATAATTAGCTCAAACATTCTTCCTTCAATATTTACATCTGCAGGTCTCAACAGGACACACCgatatgtt
1 CAGTCAGTGCCAAAAAGGGGTGCCCCCGGGGTCACTGTCCTGAAACTTAGGCAAGTCACTCAGCTCAGGCCAGAACTCAGGGAGGACTCAAGTTTTGAGCTCTGAATTGGGGGTACAAGGAACAGCAGGAAGCACATGCGGCAGGTGGTTGCACCTTCCCAGGCCGTCGCTGCCCTCTGGTGGCCCCAGTGGACAGGTCCGGAGCCGTCTAGTGGCATATCATTCCAGTTCAAGCCCACATAGCCCATTC
1 AGCTGTAGGTGTCTGGTTGCCATGGAGACCACCCCAACACATGCAGATTCCAAAGTACAAACTCACTCAAACAAGACAGACCTGATGTAAGTAAGCCTAAGAGACCCCTGGCCTCCTCATTTCCGGTAGAGTCCCCCTCAGTCCATAAGGCAGAACGGTGATGCCAAACCCTTTAACAGCCCCAGGGCAGTTGGCCCCAGACACACAGTTCCTGTTGTAAGCTTGAACAGCTTTGCTTGACTACTTTCAC
1 TCCGGCTCTGCCATGCAGCACGTGGGTGCGGGTACCGGATCCACCTGCCCTGAACCTGCTGCCTCCCCCACCAAAATGGGCTGCCTAGGTGTCAGATGGGCACGTGATCAGCGGTGCTGTGAGAGTGGCTGTGGGAACAGAGGGAGGTGGAGCCAAGGCTTAGGAGGGCAGTTAATAATAACTGAGAGGGCTGCGAGATGAACCCTCAGGCCCTCAGGGCTGTGCACAAACAGCCAAGCAAGCACCACGG
